/* Organism #6 Fitness: 13907.460000 Time: 0 */
genomestart 6
trait 1 0.076973 0.000000 0.000000 0.904780 0.000000 0.265726 0.451090 0.000000 
node 1 1 1 1
node 2 1 1 1
node 3 1 1 1
node 4 1 1 1
node 5 1 1 1
node 6 1 1 1
node 7 1 1 1
node 8 1 1 1
node 9 1 1 1
node 10 1 1 1
node 11 1 1 1
node 12 1 1 1
node 13 1 1 1
node 14 1 1 1
node 15 1 1 1
node 16 1 1 1
node 17 1 1 1
node 18 1 1 1
node 19 1 1 1
node 20 1 1 1
node 21 1 1 1
node 22 1 1 1
node 23 1 1 1
node 24 1 1 1
node 25 1 1 1
node 26 1 1 3
node 27 1 0 2
node 28 1 0 2
node 29 1 0 2
gene 1 1 27 -4.69706 0 1 -4.69706 1
gene 1 1 28 4.80525 0 2 4.80525 1
gene 1 1 29 -2.35507 0 3 -2.35507 1
gene 1 2 27 0.806458 0 4 0.806458 1
gene 1 2 28 0.93357 0 5 0.93357 1
gene 1 2 29 -0.833282 0 6 -0.833282 1
gene 1 3 27 0.207325 0 7 0.207325 1
gene 1 3 28 4.59684 0 8 4.59684 1
gene 1 3 29 -0.424633 0 9 -0.424633 1
gene 1 4 27 0.453047 0 10 0.453047 1
gene 1 4 28 -4.06547 0 11 -4.06547 1
gene 1 4 29 -0.574999 0 12 -0.574999 1
gene 1 5 27 2.03144 0 13 2.03144 1
gene 1 5 28 -2.74235 0 14 -2.74235 1
gene 1 5 29 -0.361237 0 15 -0.361237 1
gene 1 6 27 1.271 0 16 1.271 1
gene 1 6 28 -5 0 17 -5 1
gene 1 6 29 -2.13205 0 18 -2.13205 1
gene 1 7 27 5 0 19 5 1
gene 1 7 28 -2.0026 0 20 -2.0026 1
gene 1 7 29 -1.95207 0 21 -1.95207 1
gene 1 8 27 -1.30189 0 22 -1.30189 1
gene 1 8 28 4.448 0 23 4.448 1
gene 1 8 29 -2.88067 0 24 -2.88067 1
gene 1 9 27 2.14566 0 25 2.14566 1
gene 1 9 28 -1.06712 0 26 -1.06712 1
gene 1 9 29 0.671556 0 27 0.671556 1
gene 1 10 27 1.77686 0 28 1.77686 1
gene 1 10 28 -0.288727 0 29 -0.288727 1
gene 1 10 29 -3.55564 0 30 -3.55564 1
gene 1 11 27 -2.82609 0 31 -2.82609 1
gene 1 11 28 2.95191 0 32 2.95191 1
gene 1 11 29 -0.431903 0 33 -0.431903 1
gene 1 12 27 -0.197401 0 34 -0.197401 1
gene 1 12 28 3.88916 0 35 3.88916 1
gene 1 12 29 -0.133245 0 36 -0.133245 1
gene 1 13 27 -3.65709 0 37 -3.65709 1
gene 1 13 28 -1.49008 0 38 -1.49008 1
gene 1 13 29 0.564564 0 39 0.564564 1
gene 1 14 27 0.87984 0 40 0.87984 1
gene 1 14 28 -1.23455 0 41 -1.23455 1
gene 1 14 29 0.761022 0 42 0.761022 1
gene 1 15 27 -2.97547 0 43 -2.97547 1
gene 1 15 28 2.70484 0 44 2.70484 1
gene 1 15 29 1.33014 0 45 1.33014 1
gene 1 16 27 0.0188762 0 46 0.0188762 1
gene 1 16 28 4.48969 0 47 4.48969 1
gene 1 16 29 -3.56601 0 48 -3.56601 1
gene 1 17 27 1.92017 0 49 1.92017 1
gene 1 17 28 -2.52199 0 50 -2.52199 1
gene 1 17 29 3.22267 0 51 3.22267 1
gene 1 18 27 3.8568 0 52 3.8568 1
gene 1 18 28 -3.48515 0 53 -3.48515 1
gene 1 18 29 2.19952 0 54 2.19952 1
gene 1 19 27 -0.0211622 0 55 -0.0211622 1
gene 1 19 28 0.118749 0 56 0.118749 1
gene 1 19 29 5 0 57 5 1
gene 1 20 27 -0.552711 0 58 -0.552711 1
gene 1 20 28 0.3503 0 59 0.3503 1
gene 1 20 29 0.693517 0 60 0.693517 1
gene 1 21 27 -1.18744 0 61 -1.18744 1
gene 1 21 28 -2.11587 0 62 -2.11587 1
gene 1 21 29 -3.11936 0 63 -3.11936 1
gene 1 22 27 -0.885446 0 64 -0.885446 1
gene 1 22 28 1.937 0 65 1.937 1
gene 1 22 29 1.94446 0 66 1.94446 1
gene 1 23 27 -2.11846 0 67 -2.11846 1
gene 1 23 28 1.38025 0 68 1.38025 1
gene 1 23 29 -0.621351 0 69 -0.621351 1
gene 1 24 27 -0.194762 0 70 -0.194762 1
gene 1 24 28 0.125691 0 71 0.125691 1
gene 1 24 29 -0.193409 0 72 -0.193409 1
gene 1 25 27 0.560022 0 73 0.560022 1
gene 1 25 28 -1.24792 0 74 -1.24792 1
gene 1 25 29 -1.5958 0 75 -1.5958 1
gene 1 26 27 -4.49866 0 76 -4.49866 1
gene 1 26 28 -4.97735 0 77 -4.97735 1
gene 1 26 29 0.387041 0 78 0.387041 1
genomeend 6


