
/* Species #1 : (Size 100) (AF 0) (Age 50)  */


/* Organism #0 Fitness: 13403.7 Error: 0 */
genomestart 0
trait 1 0.1 0.776213 0 0.0368689 0 0 0 0 
node 1 1 1 1
node 2 1 1 1
node 3 1 1 1
node 4 1 1 1
node 5 1 1 1
node 6 1 1 1
node 7 1 1 1
node 8 1 1 1
node 9 1 1 1
node 10 1 1 1
node 11 1 1 1
node 12 1 1 1
node 13 1 1 1
node 14 1 1 1
node 15 1 1 1
node 16 1 1 1
node 17 1 1 1
node 18 1 1 1
node 19 1 1 1
node 20 1 1 1
node 21 1 1 1
node 22 1 1 1
node 23 1 1 1
node 24 1 1 1
node 25 1 1 1
node 26 1 1 1
node 27 1 1 1
node 28 1 1 1
node 29 1 1 1
node 30 1 1 3
node 31 1 0 2
node 32 1 0 2
node 33 1 0 2
gene 1 1 31 0.903619 0 1 0.903619 1
gene 1 1 32 -3.26508 0 2 -3.26508 1
gene 1 1 33 -1.12778 0 3 -1.12778 1
gene 1 2 31 0.461332 0 4 0.461332 1
gene 1 2 32 2.80093 0 5 2.80093 1
gene 1 2 33 -1.91726 0 6 -1.91726 1
gene 1 3 31 1.20377 0 7 1.20377 1
gene 1 3 32 3.19489 0 8 3.19489 1
gene 1 3 33 -0.369668 0 9 -0.369668 1
gene 1 4 31 -1.3203 0 10 -1.3203 1
gene 1 4 32 0.213417 0 11 0.213417 1
gene 1 4 33 -0.938408 0 12 -0.938408 1
gene 1 5 31 1.67987 0 13 1.67987 1
gene 1 5 32 -0.244727 0 14 -0.244727 1
gene 1 5 33 -1.86669 0 15 -1.86669 1
gene 1 6 31 3.09971 0 16 3.09971 1
gene 1 6 32 3.60052 0 17 3.60052 1
gene 1 6 33 0.158162 0 18 0.158162 1
gene 1 7 31 3.05524 0 19 3.05524 1
gene 1 7 32 -0.295025 0 20 -0.295025 1
gene 1 7 33 0.74895 0 21 0.74895 1
gene 1 8 31 -1.24025 0 22 -1.24025 1
gene 1 8 32 -0.132962 0 23 -0.132962 1
gene 1 8 33 0.700305 0 24 0.700305 1
gene 1 9 31 -3.30803 0 25 -3.30803 1
gene 1 9 32 1.42351 0 26 1.42351 1
gene 1 9 33 2.55093 0 27 2.55093 1
gene 1 10 31 0.248141 0 28 0.248141 1
gene 1 10 32 -0.769886 0 29 -0.769886 1
gene 1 10 33 1.67245 0 30 1.67245 1
gene 1 11 31 -0.630723 0 31 -0.630723 1
gene 1 11 32 -0.468825 0 32 -0.468825 1
gene 1 11 33 0.667338 0 33 0.667338 1
gene 1 12 31 -0.526193 0 34 -0.526193 1
gene 1 12 32 0.00943821 0 35 0.00943821 1
gene 1 12 33 -1.73222 0 36 -1.73222 1
gene 1 13 31 1.38202 0 37 1.38202 1
gene 1 13 32 0.258965 0 38 0.258965 1
gene 1 13 33 2.78097 0 39 2.78097 1
gene 1 14 31 -1.96513 0 40 -1.96513 1
gene 1 14 32 2.87498 0 41 2.87498 1
gene 1 14 33 -0.280566 0 42 -0.280566 1
gene 1 15 31 0.450588 0 43 0.450588 1
gene 1 15 32 0.332913 0 44 0.332913 1
gene 1 15 33 2.37592 0 45 2.37592 1
gene 1 16 31 -0.706086 0 46 -0.706086 1
gene 1 16 32 -0.720465 0 47 -0.720465 1
gene 1 16 33 0.585798 0 48 0.585798 1
gene 1 17 31 -0.812614 0 49 -0.812614 1
gene 1 17 32 -1.07553 0 50 -1.07553 1
gene 1 17 33 -0.863993 0 51 -0.863993 1
gene 1 18 31 -0.34016 0 52 -0.34016 1
gene 1 18 32 -4.35084 0 53 -4.35084 1
gene 1 18 33 -0.95664 0 54 -0.95664 1
gene 1 19 31 -2.25532 0 55 -2.25532 1
gene 1 19 32 -3.62842 0 56 -3.62842 1
gene 1 19 33 2.78882 0 57 2.78882 1
gene 1 20 31 0.629936 0 58 0.629936 1
gene 1 20 32 0.0890475 0 59 0.0890475 1
gene 1 20 33 -5 0 60 -5 1
gene 1 21 31 -0.333382 0 61 -0.333382 1
gene 1 21 32 1.47591 0 62 1.47591 1
gene 1 21 33 2.1413 0 63 2.1413 1
gene 1 22 31 0.817033 0 64 0.817033 1
gene 1 22 32 -0.644899 0 65 -0.644899 1
gene 1 22 33 0.719812 0 66 0.719812 1
gene 1 23 31 4.70116 0 67 4.70116 1
gene 1 23 32 -0.343822 0 68 -0.343822 1
gene 1 23 33 1.94712 0 69 1.94712 1
gene 1 24 31 -0.637522 0 70 -0.637522 1
gene 1 24 32 1.74371 0 71 1.74371 1
gene 1 24 33 -0.108379 0 72 -0.108379 1
gene 1 25 31 -0.283176 0 73 -0.283176 1
gene 1 25 32 -0.883906 0 74 -0.883906 1
gene 1 25 33 -0.0292753 0 75 -0.0292753 1
gene 1 26 31 -0.965804 0 76 -0.965804 1
gene 1 26 32 -0.972828 0 77 -0.972828 1
gene 1 26 33 -0.498714 0 78 -0.498714 1
gene 1 27 31 0.219654 0 79 0.219654 1
gene 1 27 32 -1.27696 0 80 -1.27696 1
gene 1 27 33 0.103267 0 81 0.103267 1
gene 1 28 31 -0.3149 0 82 -0.3149 1
gene 1 28 32 -2.0856 0 83 -2.0856 1
gene 1 28 33 1.24715 0 84 1.24715 1
gene 1 29 31 -0.587895 0 85 -0.587895 1
gene 1 29 32 0.342957 0 86 0.342957 1
gene 1 29 33 -1.63661 0 87 -1.63661 1
gene 1 30 31 -2.80216 0 88 -2.80216 1
gene 1 30 32 0.76573 0 89 0.76573 1
gene 1 30 33 -1.44103 0 90 -1.44103 1
genomeend 0

/* Organism #1 Fitness: 13421.8 Error: 0 */
genomestart 1
trait 1 0.1 0 0.0905046 0.14795 0.383406 0.0563433 0 0.915246 
node 1 1 1 1
node 2 1 1 1
node 3 1 1 1
node 4 1 1 1
node 5 1 1 1
node 6 1 1 1
node 7 1 1 1
node 8 1 1 1
node 9 1 1 1
node 10 1 1 1
node 11 1 1 1
node 12 1 1 1
node 13 1 1 1
node 14 1 1 1
node 15 1 1 1
node 16 1 1 1
node 17 1 1 1
node 18 1 1 1
node 19 1 1 1
node 20 1 1 1
node 21 1 1 1
node 22 1 1 1
node 23 1 1 1
node 24 1 1 1
node 25 1 1 1
node 26 1 1 1
node 27 1 1 1
node 28 1 1 1
node 29 1 1 1
node 30 1 1 3
node 31 1 0 2
node 32 1 0 2
node 33 1 0 2
gene 1 1 31 -2.40954 0 1 -2.40954 1
gene 1 1 32 -4.3297 0 2 -4.3297 1
gene 1 1 33 -1.46757 0 3 -1.46757 1
gene 1 2 31 -3.57903 0 4 -3.57903 1
gene 1 2 32 3.95448 0 5 3.95448 1
gene 1 2 33 1.53912 0 6 1.53912 1
gene 1 3 31 2.22885 0 7 2.22885 1
gene 1 3 32 1.91425 0 8 1.91425 1
gene 1 3 33 3.04637 0 9 3.04637 1
gene 1 4 31 1.24527 0 10 1.24527 1
gene 1 4 32 3.95944 0 11 3.95944 1
gene 1 4 33 -1.19463 0 12 -1.19463 1
gene 1 5 31 -1.73179 0 13 -1.73179 1
gene 1 5 32 1.44085 0 14 1.44085 1
gene 1 5 33 -3.33962 0 15 -3.33962 1
gene 1 6 31 3.26124 0 16 3.26124 1
gene 1 6 32 -0.060074 0 17 -0.060074 1
gene 1 6 33 -0.414377 0 18 -0.414377 1
gene 1 7 31 4.79101 0 19 4.79101 1
gene 1 7 32 -0.648549 0 20 -0.648549 1
gene 1 7 33 -2.21825 0 21 -2.21825 1
gene 1 8 31 1.47307 0 22 1.47307 1
gene 1 8 32 -5 0 23 -5 1
gene 1 8 33 1.66037 0 24 1.66037 1
gene 1 9 31 -0.698451 0 25 -0.698451 1
gene 1 9 32 2.72746 0 26 2.72746 1
gene 1 9 33 -1.08917 0 27 -1.08917 1
gene 1 10 31 -0.908429 0 28 -0.908429 1
gene 1 10 32 3.77062 0 29 3.77062 1
gene 1 10 33 4.33187 0 30 4.33187 1
gene 1 11 31 1.06924 0 31 1.06924 1
gene 1 11 32 1.87173 0 32 1.87173 1
gene 1 11 33 1.5952 0 33 1.5952 1
gene 1 12 31 -2.17194 0 34 -2.17194 1
gene 1 12 32 -2.73299 0 35 -2.73299 1
gene 1 12 33 -2.32191 0 36 -2.32191 1
gene 1 13 31 2.81039 0 37 2.81039 1
gene 1 13 32 0.825726 0 38 0.825726 1
gene 1 13 33 1.9448 0 39 1.9448 1
gene 1 14 31 -0.904479 0 40 -0.904479 1
gene 1 14 32 2.70364 0 41 2.70364 1
gene 1 14 33 2.96857 0 42 2.96857 1
gene 1 15 31 -0.0457165 0 43 -0.0457165 1
gene 1 15 32 -0.730856 0 44 -0.730856 1
gene 1 15 33 0.256276 0 45 0.256276 1
gene 1 16 31 1.1817 0 46 1.1817 1
gene 1 16 32 0.803656 0 47 0.803656 1
gene 1 16 33 1.21021 0 48 1.21021 1
gene 1 17 31 -4.6221 0 49 -4.6221 1
gene 1 17 32 -3.80287 0 50 -3.80287 1
gene 1 17 33 -1.28588 0 51 -1.28588 1
gene 1 18 31 -0.368291 0 52 -0.368291 1
gene 1 18 32 -2.43007 0 53 -2.43007 1
gene 1 18 33 1.19785 0 54 1.19785 1
gene 1 19 31 -2.72263 0 55 -2.72263 1
gene 1 19 32 -3.84069 0 56 -3.84069 1
gene 1 19 33 1.91047 0 57 1.91047 1
gene 1 20 31 -1.98204 0 58 -1.98204 1
gene 1 20 32 0.311493 0 59 0.311493 1
gene 1 20 33 -5 0 60 -5 1
gene 1 21 31 1.82396 0 61 1.82396 1
gene 1 21 32 -0.0154824 0 62 -0.0154824 1
gene 1 21 33 1.26244 0 63 1.26244 1
gene 1 22 31 4.68723 0 64 4.68723 1
gene 1 22 32 3.40729 0 65 3.40729 1
gene 1 22 33 -0.912041 0 66 -0.912041 1
gene 1 23 31 4.36411 0 67 4.36411 1
gene 1 23 32 0.125873 0 68 0.125873 1
gene 1 23 33 2.03373 0 69 2.03373 1
gene 1 24 31 -2.95199 0 70 -2.95199 1
gene 1 24 32 3.60611 0 71 3.60611 1
gene 1 24 33 -1.60245 0 72 -1.60245 1
gene 1 25 31 1.42646 0 73 1.42646 1
gene 1 25 32 0.0123504 0 74 0.0123504 1
gene 1 25 33 0.888386 0 75 0.888386 1
gene 1 26 31 -0.942563 0 76 -0.942563 1
gene 1 26 32 0.533816 0 77 0.533816 1
gene 1 26 33 2.08991 0 78 2.08991 1
gene 1 27 31 -0.116157 0 79 -0.116157 1
gene 1 27 32 -0.507244 0 80 -0.507244 1
gene 1 27 33 -1.23323 0 81 -1.23323 1
gene 1 28 31 -0.921014 0 82 -0.921014 1
gene 1 28 32 -0.0814216 0 83 -0.0814216 1
gene 1 28 33 -0.460746 0 84 -0.460746 1
gene 1 29 31 -2.47478 0 85 -2.47478 1
gene 1 29 32 0.81839 0 86 0.81839 1
gene 1 29 33 1.65704 0 87 1.65704 1
gene 1 30 31 1.13212 0 88 1.13212 1
gene 1 30 32 0.471713 0 89 0.471713 1
gene 1 30 33 -1.15771 0 90 -1.15771 1
genomeend 1

/* Organism #2 Fitness: 14571 Error: 0 */
genomestart 2
trait 1 0.1 0.776213 0 0.0368689 0 0 0 0 
node 1 1 1 1
node 2 1 1 1
node 3 1 1 1
node 4 1 1 1
node 5 1 1 1
node 6 1 1 1
node 7 1 1 1
node 8 1 1 1
node 9 1 1 1
node 10 1 1 1
node 11 1 1 1
node 12 1 1 1
node 13 1 1 1
node 14 1 1 1
node 15 1 1 1
node 16 1 1 1
node 17 1 1 1
node 18 1 1 1
node 19 1 1 1
node 20 1 1 1
node 21 1 1 1
node 22 1 1 1
node 23 1 1 1
node 24 1 1 1
node 25 1 1 1
node 26 1 1 1
node 27 1 1 1
node 28 1 1 1
node 29 1 1 1
node 30 1 1 3
node 31 1 0 2
node 32 1 0 2
node 33 1 0 2
gene 1 1 31 0.0494644 0 1 0.0494644 1
gene 1 1 32 -1.95421 0 2 -1.95421 1
gene 1 1 33 -0.721177 0 3 -0.721177 1
gene 1 2 31 -0.273478 0 4 -0.273478 1
gene 1 2 32 3.99513 0 5 3.99513 1
gene 1 2 33 -0.308716 0 6 -0.308716 1
gene 1 3 31 2.30502 0 7 2.30502 1
gene 1 3 32 4.02349 0 8 4.02349 1
gene 1 3 33 -1.57034 0 9 -1.57034 1
gene 1 4 31 -0.283235 0 10 -0.283235 1
gene 1 4 32 1.15467 0 11 1.15467 1
gene 1 4 33 -2.12671 0 12 -2.12671 1
gene 1 5 31 1.0096 0 13 1.0096 1
gene 1 5 32 0.803046 0 14 0.803046 1
gene 1 5 33 -1.48197 0 15 -1.48197 1
gene 1 6 31 2.39743 0 16 2.39743 1
gene 1 6 32 3.4493 0 17 3.4493 1
gene 1 6 33 0.715813 0 18 0.715813 1
gene 1 7 31 2.27512 0 19 2.27512 1
gene 1 7 32 -0.119896 0 20 -0.119896 1
gene 1 7 33 0.686892 0 21 0.686892 1
gene 1 8 31 -0.846773 0 22 -0.846773 1
gene 1 8 32 -2.82057 0 23 -2.82057 1
gene 1 8 33 0.611421 0 24 0.611421 1
gene 1 9 31 -3.25448 0 25 -3.25448 1
gene 1 9 32 0.327781 0 26 0.327781 1
gene 1 9 33 1.68432 0 27 1.68432 1
gene 1 10 31 1.24314 0 28 1.24314 1
gene 1 10 32 -1.12531 0 29 -1.12531 1
gene 1 10 33 1.76281 0 30 1.76281 1
gene 1 11 31 -0.301882 0 31 -0.301882 1
gene 1 11 32 0.193625 0 32 0.193625 1
gene 1 11 33 -1.04254 0 33 -1.04254 1
gene 1 12 31 -0.414819 0 34 -0.414819 1
gene 1 12 32 -0.118388 0 35 -0.118388 1
gene 1 12 33 -1.84697 0 36 -1.84697 1
gene 1 13 31 1.64795 0 37 1.64795 1
gene 1 13 32 -0.0359538 0 38 -0.0359538 1
gene 1 13 33 3.4358 0 39 3.4358 1
gene 1 14 31 -1.91316 0 40 -1.91316 1
gene 1 14 32 2.89087 0 41 2.89087 1
gene 1 14 33 -0.202448 0 42 -0.202448 1
gene 1 15 31 -0.100724 0 43 -0.100724 1
gene 1 15 32 0.35101 0 44 0.35101 1
gene 1 15 33 2.1603 0 45 2.1603 1
gene 1 16 31 -2.0867 0 46 -2.0867 1
gene 1 16 32 -0.7397 0 47 -0.7397 1
gene 1 16 33 -0.108853 0 48 -0.108853 1
gene 1 17 31 -0.125692 0 49 -0.125692 1
gene 1 17 32 -0.700984 0 50 -0.700984 1
gene 1 17 33 0.146601 0 51 0.146601 1
gene 1 18 31 -0.492184 0 52 -0.492184 1
gene 1 18 32 -5 0 53 -5 1
gene 1 18 33 1.82484 0 54 1.82484 1
gene 1 19 31 -2.42248 0 55 -2.42248 1
gene 1 19 32 -4.34455 0 56 -4.34455 1
gene 1 19 33 2.75191 0 57 2.75191 1
gene 1 20 31 -0.266537 0 58 -0.266537 1
gene 1 20 32 0.816084 0 59 0.816084 1
gene 1 20 33 -3.94375 0 60 -3.94375 1
gene 1 21 31 0.464201 0 61 0.464201 1
gene 1 21 32 2.3866 0 62 2.3866 1
gene 1 21 33 2.20195 0 63 2.20195 1
gene 1 22 31 0.676244 0 64 0.676244 1
gene 1 22 32 -0.16307 0 65 -0.16307 1
gene 1 22 33 1.44614 0 66 1.44614 1
gene 1 23 31 4.88959 0 67 4.88959 1
gene 1 23 32 0.324792 0 68 0.324792 1
gene 1 23 33 2.40252 0 69 2.40252 1
gene 1 24 31 -2.3507 0 70 -2.3507 1
gene 1 24 32 0.968827 0 71 0.968827 1
gene 1 24 33 0.594726 0 72 0.594726 1
gene 1 25 31 -0.304814 0 73 -0.304814 1
gene 1 25 32 0.628438 0 74 0.628438 1
gene 1 25 33 -0.0118962 0 75 -0.0118962 1
gene 1 26 31 1.35897 0 76 1.35897 1
gene 1 26 32 0.344136 0 77 0.344136 1
gene 1 26 33 -0.351171 0 78 -0.351171 1
gene 1 27 31 0.219654 0 79 0.219654 1
gene 1 27 32 -0.270633 0 80 -0.270633 1
gene 1 27 33 -0.1065 0 81 -0.1065 1
gene 1 28 31 -0.455553 0 82 -0.455553 1
gene 1 28 32 -0.553356 0 83 -0.553356 1
gene 1 28 33 0.889002 0 84 0.889002 1
gene 1 29 31 -0.189591 0 85 -0.189591 1
gene 1 29 32 0.895086 0 86 0.895086 1
gene 1 29 33 -0.604579 0 87 -0.604579 1
gene 1 30 31 -2.63626 0 88 -2.63626 1
gene 1 30 32 -0.300228 0 89 -0.300228 1
gene 1 30 33 -0.132591 0 90 -0.132591 1
genomeend 2

/* Organism #3 Fitness: 13657.5 Error: 0 */
genomestart 3
trait 1 0.1 0.776213 0 0.0368689 0 0 0 0 
node 1 1 1 1
node 2 1 1 1
node 3 1 1 1
node 4 1 1 1
node 5 1 1 1
node 6 1 1 1
node 7 1 1 1
node 8 1 1 1
node 9 1 1 1
node 10 1 1 1
node 11 1 1 1
node 12 1 1 1
node 13 1 1 1
node 14 1 1 1
node 15 1 1 1
node 16 1 1 1
node 17 1 1 1
node 18 1 1 1
node 19 1 1 1
node 20 1 1 1
node 21 1 1 1
node 22 1 1 1
node 23 1 1 1
node 24 1 1 1
node 25 1 1 1
node 26 1 1 1
node 27 1 1 1
node 28 1 1 1
node 29 1 1 1
node 30 1 1 3
node 31 1 0 2
node 32 1 0 2
node 33 1 0 2
gene 1 1 31 1.30312 0 1 1.30312 1
gene 1 1 32 -2.01433 0 2 -2.01433 1
gene 1 1 33 -0.555512 0 3 -0.555512 1
gene 1 2 31 1.21279 0 4 1.21279 1
gene 1 2 32 3.41545 0 5 3.41545 1
gene 1 2 33 -0.103433 0 6 -0.103433 1
gene 1 3 31 1.72542 0 7 1.72542 1
gene 1 3 32 4.13805 0 8 4.13805 1
gene 1 3 33 0.0553227 0 9 0.0553227 1
gene 1 4 31 -0.526858 0 10 -0.526858 1
gene 1 4 32 -0.436218 0 11 -0.436218 1
gene 1 4 33 -1.95028 0 12 -1.95028 1
gene 1 5 31 1.38615 0 13 1.38615 1
gene 1 5 32 1.33453 0 14 1.33453 1
gene 1 5 33 -1.29851 0 15 -1.29851 1
gene 1 6 31 1.97756 0 16 1.97756 1
gene 1 6 32 4.11815 0 17 4.11815 1
gene 1 6 33 0.209805 0 18 0.209805 1
gene 1 7 31 2.54683 0 19 2.54683 1
gene 1 7 32 0.576914 0 20 0.576914 1
gene 1 7 33 0.194068 0 21 0.194068 1
gene 1 8 31 -0.524712 0 22 -0.524712 1
gene 1 8 32 -2.76033 0 23 -2.76033 1
gene 1 8 33 0.372238 0 24 0.372238 1
gene 1 9 31 -1.85371 0 25 -1.85371 1
gene 1 9 32 0.796564 0 26 0.796564 1
gene 1 9 33 1.81673 0 27 1.81673 1
gene 1 10 31 2.88241 0 28 2.88241 1
gene 1 10 32 -1.80221 0 29 -1.80221 1
gene 1 10 33 0.976051 0 30 0.976051 1
gene 1 11 31 0.0132626 0 31 0.0132626 1
gene 1 11 32 -0.377017 0 32 -0.377017 1
gene 1 11 33 -1.66792 0 33 -1.66792 1
gene 1 12 31 -0.949805 0 34 -0.949805 1
gene 1 12 32 -0.459149 0 35 -0.459149 1
gene 1 12 33 -0.240058 0 36 -0.240058 1
gene 1 13 31 1.34019 0 37 1.34019 1
gene 1 13 32 -0.0608489 0 38 -0.0608489 1
gene 1 13 33 4.59463 0 39 4.59463 1
gene 1 14 31 -0.606745 0 40 -0.606745 1
gene 1 14 32 2.28134 0 41 2.28134 1
gene 1 14 33 0.258502 0 42 0.258502 1
gene 1 15 31 0.521573 0 43 0.521573 1
gene 1 15 32 0.162867 0 44 0.162867 1
gene 1 15 33 2.1019 0 45 2.1019 1
gene 1 16 31 -0.903966 0 46 -0.903966 1
gene 1 16 32 -1.1688 0 47 -1.1688 1
gene 1 16 33 -0.0490312 0 48 -0.0490312 1
gene 1 17 31 0.225299 0 49 0.225299 1
gene 1 17 32 -0.940594 0 50 -0.940594 1
gene 1 17 33 -0.226539 0 51 -0.226539 1
gene 1 18 31 -0.485569 0 52 -0.485569 1
gene 1 18 32 -4.71888 0 53 -4.71888 1
gene 1 18 33 -0.0196116 0 54 -0.0196116 1
gene 1 19 31 -1.98595 0 55 -1.98595 1
gene 1 19 32 -3.56302 0 56 -3.56302 1
gene 1 19 33 1.8542 0 57 1.8542 1
gene 1 20 31 -0.2483 0 58 -0.2483 1
gene 1 20 32 -0.0128047 0 59 -0.0128047 1
gene 1 20 33 -4.98129 0 60 -4.98129 1
gene 1 21 31 0.17425 0 61 0.17425 1
gene 1 21 32 2.4245 0 62 2.4245 1
gene 1 21 33 1.37023 0 63 1.37023 1
gene 1 22 31 0.824091 0 64 0.824091 1
gene 1 22 32 -1.00187 0 65 -1.00187 1
gene 1 22 33 1.77492 0 66 1.77492 1
gene 1 23 31 4.71742 0 67 4.71742 1
gene 1 23 32 0.475583 0 68 0.475583 1
gene 1 23 33 2.0164 0 69 2.0164 1
gene 1 24 31 -4.04854 0 70 -4.04854 1
gene 1 24 32 0.84633 0 71 0.84633 1
gene 1 24 33 0.504911 0 72 0.504911 1
gene 1 25 31 -0.947618 0 73 -0.947618 1
gene 1 25 32 -0.0721176 0 74 -0.0721176 1
gene 1 25 33 0.793348 0 75 0.793348 1
gene 1 26 31 1.95636 0 76 1.95636 1
gene 1 26 32 0.100296 0 77 0.100296 1
gene 1 26 33 0.284948 0 78 0.284948 1
gene 1 27 31 0.219654 0 79 0.219654 1
gene 1 27 32 -0.742391 0 80 -0.742391 1
gene 1 27 33 -1.02371 0 81 -1.02371 1
gene 1 28 31 0.0878543 0 82 0.0878543 1
gene 1 28 32 -1.09058 0 83 -1.09058 1
gene 1 28 33 0.256648 0 84 0.256648 1
gene 1 29 31 0.936866 0 85 0.936866 1
gene 1 29 32 -0.0852314 0 86 -0.0852314 1
gene 1 29 33 -0.229597 0 87 -0.229597 1
gene 1 30 31 -1.87964 0 88 -1.87964 1
gene 1 30 32 0.718408 0 89 0.718408 1
gene 1 30 33 -2.54101 0 90 -2.54101 1
genomeend 3

/* Organism #4 Fitness: 13852.6 Error: 0 */
genomestart 4
trait 1 0.1 0 0 0.14795 0.383406 1 0 0.067504 
node 1 1 1 1
node 2 1 1 1
node 3 1 1 1
node 4 1 1 1
node 5 1 1 1
node 6 1 1 1
node 7 1 1 1
node 8 1 1 1
node 9 1 1 1
node 10 1 1 1
node 11 1 1 1
node 12 1 1 1
node 13 1 1 1
node 14 1 1 1
node 15 1 1 1
node 16 1 1 1
node 17 1 1 1
node 18 1 1 1
node 19 1 1 1
node 20 1 1 1
node 21 1 1 1
node 22 1 1 1
node 23 1 1 1
node 24 1 1 1
node 25 1 1 1
node 26 1 1 1
node 27 1 1 1
node 28 1 1 1
node 29 1 1 1
node 30 1 1 3
node 31 1 0 2
node 32 1 0 2
node 33 1 0 2
gene 1 1 31 -0.752132 0 1 -0.752132 1
gene 1 1 32 -3.85676 0 2 -3.85676 1
gene 1 1 33 -0.725359 0 3 -0.725359 1
gene 1 2 31 -2.39528 0 4 -2.39528 1
gene 1 2 32 4.39891 0 5 4.39891 1
gene 1 2 33 2.17271 0 6 2.17271 1
gene 1 3 31 1.44941 0 7 1.44941 1
gene 1 3 32 2.86176 0 8 2.86176 1
gene 1 3 33 4.01617 0 9 4.01617 1
gene 1 4 31 1.09535 0 10 1.09535 1
gene 1 4 32 4.65601 0 11 4.65601 1
gene 1 4 33 -0.794388 0 12 -0.794388 1
gene 1 5 31 0.601994 0 13 0.601994 1
gene 1 5 32 1.23704 0 14 1.23704 1
gene 1 5 33 -0.908051 0 15 -0.908051 1
gene 1 6 31 2.89683 0 16 2.89683 1
gene 1 6 32 0.410682 0 17 0.410682 1
gene 1 6 33 0.419272 0 18 0.419272 1
gene 1 7 31 4.9089 0 19 4.9089 1
gene 1 7 32 -1.38558 0 20 -1.38558 1
gene 1 7 33 -0.352148 0 21 -0.352148 1
gene 1 8 31 1.53496 0 22 1.53496 1
gene 1 8 32 -4.80942 0 23 -4.80942 1
gene 1 8 33 3.96257 0 24 3.96257 1
gene 1 9 31 0.632391 0 25 0.632391 1
gene 1 9 32 2.65813 0 26 2.65813 1
gene 1 9 33 -0.262256 0 27 -0.262256 1
gene 1 10 31 0.230704 0 28 0.230704 1
gene 1 10 32 0.723105 0 29 0.723105 1
gene 1 10 33 4.04553 0 30 4.04553 1
gene 1 11 31 1.69145 0 31 1.69145 1
gene 1 11 32 -0.892301 0 32 -0.892301 1
gene 1 11 33 2.5128 0 33 2.5128 1
gene 1 12 31 -2.88418 0 34 -2.88418 1
gene 1 12 32 -3.30242 0 35 -3.30242 1
gene 1 12 33 -1.53813 0 36 -1.53813 1
gene 1 13 31 0.70965 0 37 0.70965 1
gene 1 13 32 0.793134 0 38 0.793134 1
gene 1 13 33 0.432381 0 39 0.432381 1
gene 1 14 31 -0.912052 0 40 -0.912052 1
gene 1 14 32 0.797934 0 41 0.797934 1
gene 1 14 33 3.07663 0 42 3.07663 1
gene 1 15 31 1.69498 0 43 1.69498 1
gene 1 15 32 0.329754 0 44 0.329754 1
gene 1 15 33 0.390043 0 45 0.390043 1
gene 1 16 31 1.14631 0 46 1.14631 1
gene 1 16 32 0.939028 0 47 0.939028 1
gene 1 16 33 1.04377 0 48 1.04377 1
gene 1 17 31 -5 0 49 -5 1
gene 1 17 32 -3.84026 0 50 -3.84026 1
gene 1 17 33 -1.33044 0 51 -1.33044 1
gene 1 18 31 -1.34354 0 52 -1.34354 1
gene 1 18 32 -2.77741 0 53 -2.77741 1
gene 1 18 33 -0.94305 0 54 -0.94305 1
gene 1 19 31 -2.84544 0 55 -2.84544 1
gene 1 19 32 -4.23491 0 56 -4.23491 1
gene 1 19 33 1.16915 0 57 1.16915 1
gene 1 20 31 -2.92185 0 58 -2.92185 1
gene 1 20 32 0.883167 0 59 0.883167 1
gene 1 20 33 -4.73693 0 60 -4.73693 1
gene 1 21 31 1.65221 0 61 1.65221 1
gene 1 21 32 1.13189 0 62 1.13189 1
gene 1 21 33 -0.133574 0 63 -0.133574 1
gene 1 22 31 5 0 64 5 1
gene 1 22 32 3.54138 0 65 3.54138 1
gene 1 22 33 0.195923 0 66 0.195923 1
gene 1 23 31 0.218466 0 67 0.218466 1
gene 1 23 32 1.70162 0 68 1.70162 1
gene 1 23 33 3.39191 0 69 3.39191 1
gene 1 24 31 -1.86951 0 70 -1.86951 1
gene 1 24 32 -0.120067 0 71 -0.120067 1
gene 1 24 33 -1.15065 0 72 -1.15065 1
gene 1 25 31 1.02291 0 73 1.02291 1
gene 1 25 32 -0.670983 0 74 -0.670983 1
gene 1 25 33 -1.31738 0 75 -1.31738 1
gene 1 26 31 -0.477137 0 76 -0.477137 1
gene 1 26 32 0.352062 0 77 0.352062 1
gene 1 26 33 -0.0434765 0 78 -0.0434765 1
gene 1 27 31 -1.58481 0 79 -1.58481 1
gene 1 27 32 -0.00105696 0 80 -0.00105696 1
gene 1 27 33 -0.794085 0 81 -0.794085 1
gene 1 28 31 0.994877 0 82 0.994877 1
gene 1 28 32 0.778729 0 83 0.778729 1
gene 1 28 33 0.883021 0 84 0.883021 1
gene 1 29 31 0.460974 0 85 0.460974 1
gene 1 29 32 -0.53063 0 86 -0.53063 1
gene 1 29 33 -0.156927 0 87 -0.156927 1
gene 1 30 31 0.779238 0 88 0.779238 1
gene 1 30 32 0.103215 0 89 0.103215 1
gene 1 30 33 -0.646858 0 90 -0.646858 1
genomeend 4

/* Organism #5 Fitness: 14191.1 Error: 0 */
genomestart 5
trait 1 0.1 0.776213 0 0.0368689 0 0 0 0 
node 1 1 1 1
node 2 1 1 1
node 3 1 1 1
node 4 1 1 1
node 5 1 1 1
node 6 1 1 1
node 7 1 1 1
node 8 1 1 1
node 9 1 1 1
node 10 1 1 1
node 11 1 1 1
node 12 1 1 1
node 13 1 1 1
node 14 1 1 1
node 15 1 1 1
node 16 1 1 1
node 17 1 1 1
node 18 1 1 1
node 19 1 1 1
node 20 1 1 1
node 21 1 1 1
node 22 1 1 1
node 23 1 1 1
node 24 1 1 1
node 25 1 1 1
node 26 1 1 1
node 27 1 1 1
node 28 1 1 1
node 29 1 1 1
node 30 1 1 3
node 31 1 0 2
node 32 1 0 2
node 33 1 0 2
gene 1 1 31 -0.783474 0 1 -0.783474 1
gene 1 1 32 -4.20955 0 2 -4.20955 1
gene 1 1 33 -3.17176 0 3 -3.17176 1
gene 1 2 31 0.980797 0 4 0.980797 1
gene 1 2 32 2.62533 0 5 2.62533 1
gene 1 2 33 0.0150836 0 6 0.0150836 1
gene 1 3 31 0.24879 0 7 0.24879 1
gene 1 3 32 3.10111 0 8 3.10111 1
gene 1 3 33 -0.898828 0 9 -0.898828 1
gene 1 4 31 -1.53825 0 10 -1.53825 1
gene 1 4 32 0.385334 0 11 0.385334 1
gene 1 4 33 -2.39563 0 12 -2.39563 1
gene 1 5 31 1.65833 0 13 1.65833 1
gene 1 5 32 1.00363 0 14 1.00363 1
gene 1 5 33 -2.60673 0 15 -2.60673 1
gene 1 6 31 0.659107 0 16 0.659107 1
gene 1 6 32 2.21509 0 17 2.21509 1
gene 1 6 33 0.609364 0 18 0.609364 1
gene 1 7 31 3.35168 0 19 3.35168 1
gene 1 7 32 -0.439774 0 20 -0.439774 1
gene 1 7 33 1.48204 0 21 1.48204 1
gene 1 8 31 -0.456415 0 22 -0.456415 1
gene 1 8 32 -1.6924 0 23 -1.6924 1
gene 1 8 33 2.00125 0 24 2.00125 1
gene 1 9 31 -3.19555 0 25 -3.19555 1
gene 1 9 32 0.920315 0 26 0.920315 1
gene 1 9 33 0.0533997 0 27 0.0533997 1
gene 1 10 31 1.80746 0 28 1.80746 1
gene 1 10 32 -0.917899 0 29 -0.917899 1
gene 1 10 33 3.33172 0 30 3.33172 1
gene 1 11 31 -0.115039 0 31 -0.115039 1
gene 1 11 32 -0.611934 0 32 -0.611934 1
gene 1 11 33 -2.64902 0 33 -2.64902 1
gene 1 12 31 -0.536282 0 34 -0.536282 1
gene 1 12 32 -1.03354 0 35 -1.03354 1
gene 1 12 33 -1.86748 0 36 -1.86748 1
gene 1 13 31 2.00094 0 37 2.00094 1
gene 1 13 32 0.0497763 0 38 0.0497763 1
gene 1 13 33 4.05114 0 39 4.05114 1
gene 1 14 31 -2.33804 0 40 -2.33804 1
gene 1 14 32 2.37133 0 41 2.37133 1
gene 1 14 33 -0.781523 0 42 -0.781523 1
gene 1 15 31 1.56856 0 43 1.56856 1
gene 1 15 32 -0.84797 0 44 -0.84797 1
gene 1 15 33 1.50172 0 45 1.50172 1
gene 1 16 31 -1.78565 0 46 -1.78565 1
gene 1 16 32 -0.159321 0 47 -0.159321 1
gene 1 16 33 2.88137 0 48 2.88137 1
gene 1 17 31 -1.58966 0 49 -1.58966 1
gene 1 17 32 -2.29202 0 50 -2.29202 1
gene 1 17 33 -0.239038 0 51 -0.239038 1
gene 1 18 31 -0.574649 0 52 -0.574649 1
gene 1 18 32 -4.51541 0 53 -4.51541 1
gene 1 18 33 0.651867 0 54 0.651867 1
gene 1 19 31 -0.607829 0 55 -0.607829 1
gene 1 19 32 -3.18925 0 56 -3.18925 1
gene 1 19 33 2.40771 0 57 2.40771 1
gene 1 20 31 -0.205314 0 58 -0.205314 1
gene 1 20 32 -0.295196 0 59 -0.295196 1
gene 1 20 33 -2.63293 0 60 -2.63293 1
gene 1 21 31 -0.0299313 0 61 -0.0299313 1
gene 1 21 32 1.23168 0 62 1.23168 1
gene 1 21 33 1.58389 0 63 1.58389 1
gene 1 22 31 1.214 0 64 1.214 1
gene 1 22 32 1.40464 0 65 1.40464 1
gene 1 22 33 2.08691 0 66 2.08691 1
gene 1 23 31 3.796 0 67 3.796 1
gene 1 23 32 0.157817 0 68 0.157817 1
gene 1 23 33 1.50514 0 69 1.50514 1
gene 1 24 31 -2.41001 0 70 -2.41001 1
gene 1 24 32 1.74373 0 71 1.74373 1
gene 1 24 33 -0.545822 0 72 -0.545822 1
gene 1 25 31 -0.485815 0 73 -0.485815 1
gene 1 25 32 -0.411565 0 74 -0.411565 1
gene 1 25 33 0.808716 0 75 0.808716 1
gene 1 26 31 -0.125457 0 76 -0.125457 1
gene 1 26 32 -2.04415 0 77 -2.04415 1
gene 1 26 33 1.14868 0 78 1.14868 1
gene 1 27 31 0.839216 0 79 0.839216 1
gene 1 27 32 -0.674919 0 80 -0.674919 1
gene 1 27 33 -0.2393 0 81 -0.2393 1
gene 1 28 31 -0.960633 0 82 -0.960633 1
gene 1 28 32 0.614992 0 83 0.614992 1
gene 1 28 33 0.620594 0 84 0.620594 1
gene 1 29 31 -0.765674 0 85 -0.765674 1
gene 1 29 32 -0.292326 0 86 -0.292326 1
gene 1 29 33 0.0819008 0 87 0.0819008 1
gene 1 30 31 -3.24855 0 88 -3.24855 1
gene 1 30 32 1.43249 0 89 1.43249 1
gene 1 30 33 -0.126984 0 90 -0.126984 1
genomeend 5

/* Organism #6 Fitness: 14020 Error: 0 */
genomestart 6
trait 1 0.1 0.776213 0 0.0368689 0 0 0 0 
node 1 1 1 1
node 2 1 1 1
node 3 1 1 1
node 4 1 1 1
node 5 1 1 1
node 6 1 1 1
node 7 1 1 1
node 8 1 1 1
node 9 1 1 1
node 10 1 1 1
node 11 1 1 1
node 12 1 1 1
node 13 1 1 1
node 14 1 1 1
node 15 1 1 1
node 16 1 1 1
node 17 1 1 1
node 18 1 1 1
node 19 1 1 1
node 20 1 1 1
node 21 1 1 1
node 22 1 1 1
node 23 1 1 1
node 24 1 1 1
node 25 1 1 1
node 26 1 1 1
node 27 1 1 1
node 28 1 1 1
node 29 1 1 1
node 30 1 1 3
node 31 1 0 2
node 32 1 0 2
node 33 1 0 2
gene 1 1 31 1.32268 0 1 1.32268 1
gene 1 1 32 -2.61714 0 2 -2.61714 1
gene 1 1 33 -1.96829 0 3 -1.96829 1
gene 1 2 31 0.406697 0 4 0.406697 1
gene 1 2 32 2.15103 0 5 2.15103 1
gene 1 2 33 -0.486496 0 6 -0.486496 1
gene 1 3 31 2.70675 0 7 2.70675 1
gene 1 3 32 3.83892 0 8 3.83892 1
gene 1 3 33 -0.25855 0 9 -0.25855 1
gene 1 4 31 -1.11449 0 10 -1.11449 1
gene 1 4 32 -0.310655 0 11 -0.310655 1
gene 1 4 33 -0.294376 0 12 -0.294376 1
gene 1 5 31 1.05005 0 13 1.05005 1
gene 1 5 32 1.46 0 14 1.46 1
gene 1 5 33 -1.63228 0 15 -1.63228 1
gene 1 6 31 2.99647 0 16 2.99647 1
gene 1 6 32 3.7002 0 17 3.7002 1
gene 1 6 33 0.580801 0 18 0.580801 1
gene 1 7 31 3.13633 0 19 3.13633 1
gene 1 7 32 1.00908 0 20 1.00908 1
gene 1 7 33 1.05911 0 21 1.05911 1
gene 1 8 31 -2.08842 0 22 -2.08842 1
gene 1 8 32 -3.10881 0 23 -3.10881 1
gene 1 8 33 -0.242793 0 24 -0.242793 1
gene 1 9 31 -3.29716 0 25 -3.29716 1
gene 1 9 32 1.45861 0 26 1.45861 1
gene 1 9 33 1.29921 0 27 1.29921 1
gene 1 10 31 2.70082 0 28 2.70082 1
gene 1 10 32 -1.2092 0 29 -1.2092 1
gene 1 10 33 2.39289 0 30 2.39289 1
gene 1 11 31 -0.0670771 0 31 -0.0670771 1
gene 1 11 32 -0.198431 0 32 -0.198431 1
gene 1 11 33 -2.40361 0 33 -2.40361 1
gene 1 12 31 0.0626771 0 34 0.0626771 1
gene 1 12 32 -0.868527 0 35 -0.868527 1
gene 1 12 33 -1.10738 0 36 -1.10738 1
gene 1 13 31 1.29827 0 37 1.29827 1
gene 1 13 32 -0.577731 0 38 -0.577731 1
gene 1 13 33 3.10766 0 39 3.10766 1
gene 1 14 31 -2.03031 0 40 -2.03031 1
gene 1 14 32 3.16874 0 41 3.16874 1
gene 1 14 33 0.470854 0 42 0.470854 1
gene 1 15 31 -0.453975 0 43 -0.453975 1
gene 1 15 32 -0.117958 0 44 -0.117958 1
gene 1 15 33 2.55167 0 45 2.55167 1
gene 1 16 31 -0.850547 0 46 -0.850547 1
gene 1 16 32 -0.173122 0 47 -0.173122 1
gene 1 16 33 0.163311 0 48 0.163311 1
gene 1 17 31 -0.350327 0 49 -0.350327 1
gene 1 17 32 -0.536453 0 50 -0.536453 1
gene 1 17 33 -1.13169 0 51 -1.13169 1
gene 1 18 31 -0.588564 0 52 -0.588564 1
gene 1 18 32 -4.91381 0 53 -4.91381 1
gene 1 18 33 0.758779 0 54 0.758779 1
gene 1 19 31 -2.20758 0 55 -2.20758 1
gene 1 19 32 -3.07484 0 56 -3.07484 1
gene 1 19 33 3.50492 0 57 3.50492 1
gene 1 20 31 1.03894 0 58 1.03894 1
gene 1 20 32 -0.338841 0 59 -0.338841 1
gene 1 20 33 -3.86175 0 60 -3.86175 1
gene 1 21 31 -0.218538 0 61 -0.218538 1
gene 1 21 32 2.05099 0 62 2.05099 1
gene 1 21 33 0.376043 0 63 0.376043 1
gene 1 22 31 0.0308561 0 64 0.0308561 1
gene 1 22 32 -0.263827 0 65 -0.263827 1
gene 1 22 33 1.07123 0 66 1.07123 1
gene 1 23 31 4.19182 0 67 4.19182 1
gene 1 23 32 0.419058 0 68 0.419058 1
gene 1 23 33 2.21944 0 69 2.21944 1
gene 1 24 31 -2.60403 0 70 -2.60403 1
gene 1 24 32 1.92572 0 71 1.92572 1
gene 1 24 33 0.138252 0 72 0.138252 1
gene 1 25 31 0.934452 0 73 0.934452 1
gene 1 25 32 0.895429 0 74 0.895429 1
gene 1 25 33 0.528865 0 75 0.528865 1
gene 1 26 31 1.7195 0 76 1.7195 1
gene 1 26 32 0.379094 0 77 0.379094 1
gene 1 26 33 0.854153 0 78 0.854153 1
gene 1 27 31 0.15628 0 79 0.15628 1
gene 1 27 32 0.091826 0 80 0.091826 1
gene 1 27 33 -0.923441 0 81 -0.923441 1
gene 1 28 31 -0.733128 0 82 -0.733128 1
gene 1 28 32 -0.551345 0 83 -0.551345 1
gene 1 28 33 0.111908 0 84 0.111908 1
gene 1 29 31 -0.856326 0 85 -0.856326 1
gene 1 29 32 1.2243 0 86 1.2243 1
gene 1 29 33 -0.647189 0 87 -0.647189 1
gene 1 30 31 -3.23944 0 88 -3.23944 1
gene 1 30 32 0.859791 0 89 0.859791 1
gene 1 30 33 -1.35565 0 90 -1.35565 1
genomeend 6

/* Organism #7 Fitness: 12958.3 Error: 0 */
genomestart 7
trait 1 0.1 0.776213 0 0.0368689 0 0 0 0 
node 1 1 1 1
node 2 1 1 1
node 3 1 1 1
node 4 1 1 1
node 5 1 1 1
node 6 1 1 1
node 7 1 1 1
node 8 1 1 1
node 9 1 1 1
node 10 1 1 1
node 11 1 1 1
node 12 1 1 1
node 13 1 1 1
node 14 1 1 1
node 15 1 1 1
node 16 1 1 1
node 17 1 1 1
node 18 1 1 1
node 19 1 1 1
node 20 1 1 1
node 21 1 1 1
node 22 1 1 1
node 23 1 1 1
node 24 1 1 1
node 25 1 1 1
node 26 1 1 1
node 27 1 1 1
node 28 1 1 1
node 29 1 1 1
node 30 1 1 3
node 31 1 0 2
node 32 1 0 2
node 33 1 0 2
gene 1 1 31 -0.0259084 0 1 -0.0259084 1
gene 1 1 32 0.624487 0 2 0.624487 1
gene 1 1 33 0.458816 0 3 0.458816 1
gene 1 2 31 -0.0232703 0 4 -0.0232703 1
gene 1 2 32 2.84732 0 5 2.84732 1
gene 1 2 33 0.222755 0 6 0.222755 1
gene 1 3 31 2.60211 0 7 2.60211 1
gene 1 3 32 5 0 8 5 1
gene 1 3 33 0.48924 0 9 0.48924 1
gene 1 4 31 -1.1039 0 10 -1.1039 1
gene 1 4 32 2.33078 0 11 2.33078 1
gene 1 4 33 -1.51219 0 12 -1.51219 1
gene 1 5 31 1.41242 0 13 1.41242 1
gene 1 5 32 2.63656 0 14 2.63656 1
gene 1 5 33 0.114418 0 15 0.114418 1
gene 1 6 31 1.85251 0 16 1.85251 1
gene 1 6 32 3.95687 0 17 3.95687 1
gene 1 6 33 -0.394104 0 18 -0.394104 1
gene 1 7 31 1.8463 0 19 1.8463 1
gene 1 7 32 -0.971181 0 20 -0.971181 1
gene 1 7 33 1.20882 0 21 1.20882 1
gene 1 8 31 -1.91015 0 22 -1.91015 1
gene 1 8 32 -1.84677 0 23 -1.84677 1
gene 1 8 33 -0.246975 0 24 -0.246975 1
gene 1 9 31 0.326427 0 25 0.326427 1
gene 1 9 32 0.300504 0 26 0.300504 1
gene 1 9 33 3.87552 0 27 3.87552 1
gene 1 10 31 -0.703284 0 28 -0.703284 1
gene 1 10 32 3.0745 0 29 3.0745 1
gene 1 10 33 1.6587 0 30 1.6587 1
gene 1 11 31 0.660692 0 31 0.660692 1
gene 1 11 32 -0.477881 0 32 -0.477881 1
gene 1 11 33 0.28329 0 33 0.28329 1
gene 1 12 31 1.32938 0 34 1.32938 1
gene 1 12 32 -1.86424 0 35 -1.86424 1
gene 1 12 33 -2.05464 0 36 -2.05464 1
gene 1 13 31 0.474974 0 37 0.474974 1
gene 1 13 32 0.24702 0 38 0.24702 1
gene 1 13 33 3.2915 0 39 3.2915 1
gene 1 14 31 -1.54296 0 40 -1.54296 1
gene 1 14 32 1.4857 0 41 1.4857 1
gene 1 14 33 -2.07634 0 42 -2.07634 1
gene 1 15 31 1.74219 0 43 1.74219 1
gene 1 15 32 -0.854414 0 44 -0.854414 1
gene 1 15 33 0.441553 0 45 0.441553 1
gene 1 16 31 0.22219 0 46 0.22219 1
gene 1 16 32 0.949646 0 47 0.949646 1
gene 1 16 33 -1.17483 0 48 -1.17483 1
gene 1 17 31 -1.93096 0 49 -1.93096 1
gene 1 17 32 -4.13788 0 50 -4.13788 1
gene 1 17 33 0.0479434 0 51 0.0479434 1
gene 1 18 31 -1.21013 0 52 -1.21013 1
gene 1 18 32 -2.59586 0 53 -2.59586 1
gene 1 18 33 -0.174915 0 54 -0.174915 1
gene 1 19 31 -0.918161 0 55 -0.918161 1
gene 1 19 32 -4.49524 0 56 -4.49524 1
gene 1 19 33 0.375292 0 57 0.375292 1
gene 1 20 31 0.953623 0 58 0.953623 1
gene 1 20 32 0.425814 0 59 0.425814 1
gene 1 20 33 -1.0864 0 60 -1.0864 1
gene 1 21 31 -2.36791 0 61 -2.36791 1
gene 1 21 32 -0.78951 0 62 -0.78951 1
gene 1 21 33 -2.05486 0 63 -2.05486 1
gene 1 22 31 0.447609 0 64 0.447609 1
gene 1 22 32 -3.10197 0 65 -3.10197 1
gene 1 22 33 -2.28015 0 66 -2.28015 1
gene 1 23 31 4.24877 0 67 4.24877 1
gene 1 23 32 0.0912739 0 68 0.0912739 1
gene 1 23 33 0.287373 0 69 0.287373 1
gene 1 24 31 -3.74817 0 70 -3.74817 1
gene 1 24 32 -2.23326 0 71 -2.23326 1
gene 1 24 33 1.8364 0 72 1.8364 1
gene 1 25 31 3.81912 0 73 3.81912 1
gene 1 25 32 -1.93346 0 74 -1.93346 1
gene 1 25 33 -1.36652 0 75 -1.36652 1
gene 1 26 31 0.275401 0 76 0.275401 1
gene 1 26 32 -0.833718 0 77 -0.833718 1
gene 1 26 33 -0.341905 0 78 -0.341905 1
gene 1 27 31 0.894217 0 79 0.894217 1
gene 1 27 32 0.0419493 0 80 0.0419493 1
gene 1 27 33 -0.762279 0 81 -0.762279 1
gene 1 28 31 0.279936 0 82 0.279936 1
gene 1 28 32 -0.0242007 0 83 -0.0242007 1
gene 1 28 33 0.356706 0 84 0.356706 1
gene 1 29 31 -0.802947 0 85 -0.802947 1
gene 1 29 32 -0.666735 0 86 -0.666735 1
gene 1 29 33 0.296696 0 87 0.296696 1
gene 1 30 31 -1.78364 0 88 -1.78364 1
gene 1 30 32 0.0252147 0 89 0.0252147 1
gene 1 30 33 -2.24442 0 90 -2.24442 1
genomeend 7

/* Organism #8 Fitness: 13511.8 Error: 0 */
genomestart 8
trait 1 0.1 0 0.0905046 0.14795 0.383406 0.0563433 0 0.915246 
node 1 1 1 1
node 2 1 1 1
node 3 1 1 1
node 4 1 1 1
node 5 1 1 1
node 6 1 1 1
node 7 1 1 1
node 8 1 1 1
node 9 1 1 1
node 10 1 1 1
node 11 1 1 1
node 12 1 1 1
node 13 1 1 1
node 14 1 1 1
node 15 1 1 1
node 16 1 1 1
node 17 1 1 1
node 18 1 1 1
node 19 1 1 1
node 20 1 1 1
node 21 1 1 1
node 22 1 1 1
node 23 1 1 1
node 24 1 1 1
node 25 1 1 1
node 26 1 1 1
node 27 1 1 1
node 28 1 1 1
node 29 1 1 1
node 30 1 1 3
node 31 1 0 2
node 32 1 0 2
node 33 1 0 2
gene 1 1 31 -2.91295 0 1 -2.91295 1
gene 1 1 32 -4.12676 0 2 -4.12676 1
gene 1 1 33 -2.96617 0 3 -2.96617 1
gene 1 2 31 -3.95127 0 4 -3.95127 1
gene 1 2 32 4.23349 0 5 4.23349 1
gene 1 2 33 0.551401 0 6 0.551401 1
gene 1 3 31 1.524 0 7 1.524 1
gene 1 3 32 0.424508 0 8 0.424508 1
gene 1 3 33 4.21474 0 9 4.21474 1
gene 1 4 31 1.75784 0 10 1.75784 1
gene 1 4 32 4.12598 0 11 4.12598 1
gene 1 4 33 -0.539623 0 12 -0.539623 1
gene 1 5 31 -1.90332 0 13 -1.90332 1
gene 1 5 32 1.09765 0 14 1.09765 1
gene 1 5 33 -2.99475 0 15 -2.99475 1
gene 1 6 31 3.88612 0 16 3.88612 1
gene 1 6 32 0.373777 0 17 0.373777 1
gene 1 6 33 -1.00173 0 18 -1.00173 1
gene 1 7 31 3.73608 0 19 3.73608 1
gene 1 7 32 -1.16541 0 20 -1.16541 1
gene 1 7 33 -1.6031 0 21 -1.6031 1
gene 1 8 31 1.58551 0 22 1.58551 1
gene 1 8 32 -5 0 23 -5 1
gene 1 8 33 1.08469 0 24 1.08469 1
gene 1 9 31 -0.519622 0 25 -0.519622 1
gene 1 9 32 1.48711 0 26 1.48711 1
gene 1 9 33 0.0834867 0 27 0.0834867 1
gene 1 10 31 -1.3016 0 28 -1.3016 1
gene 1 10 32 3.62471 0 29 3.62471 1
gene 1 10 33 3.46807 0 30 3.46807 1
gene 1 11 31 0.802629 0 31 0.802629 1
gene 1 11 32 3.42268 0 32 3.42268 1
gene 1 11 33 1.1856 0 33 1.1856 1
gene 1 12 31 -3.88897 0 34 -3.88897 1
gene 1 12 32 -2.34771 0 35 -2.34771 1
gene 1 12 33 -3.10494 0 36 -3.10494 1
gene 1 13 31 2.12043 0 37 2.12043 1
gene 1 13 32 -0.0813736 0 38 -0.0813736 1
gene 1 13 33 1.80872 0 39 1.80872 1
gene 1 14 31 -1.54844 0 40 -1.54844 1
gene 1 14 32 3.02553 0 41 3.02553 1
gene 1 14 33 1.41285 0 42 1.41285 1
gene 1 15 31 0.168748 0 43 0.168748 1
gene 1 15 32 -1.80157 0 44 -1.80157 1
gene 1 15 33 0.447895 0 45 0.447895 1
gene 1 16 31 1.31182 0 46 1.31182 1
gene 1 16 32 -0.361882 0 47 -0.361882 1
gene 1 16 33 0.256203 0 48 0.256203 1
gene 1 17 31 -4.75966 0 49 -4.75966 1
gene 1 17 32 -2.98411 0 50 -2.98411 1
gene 1 17 33 -0.126826 0 51 -0.126826 1
gene 1 18 31 0.575152 0 52 0.575152 1
gene 1 18 32 -2.76815 0 53 -2.76815 1
gene 1 18 33 0.779118 0 54 0.779118 1
gene 1 19 31 -2.44983 0 55 -2.44983 1
gene 1 19 32 -4.04312 0 56 -4.04312 1
gene 1 19 33 2.38836 0 57 2.38836 1
gene 1 20 31 -2.46813 0 58 -2.46813 1
gene 1 20 32 0.273439 0 59 0.273439 1
gene 1 20 33 -4.08375 0 60 -4.08375 1
gene 1 21 31 2.19127 0 61 2.19127 1
gene 1 21 32 -0.220792 0 62 -0.220792 1
gene 1 21 33 1.32167 0 63 1.32167 1
gene 1 22 31 4.31001 0 64 4.31001 1
gene 1 22 32 4.13956 0 65 4.13956 1
gene 1 22 33 -0.0135667 0 66 -0.0135667 1
gene 1 23 31 4.28841 0 67 4.28841 1
gene 1 23 32 -0.355017 0 68 -0.355017 1
gene 1 23 33 2.41833 0 69 2.41833 1
gene 1 24 31 -2.5073 0 70 -2.5073 1
gene 1 24 32 4.21888 0 71 4.21888 1
gene 1 24 33 -1.58332 0 72 -1.58332 1
gene 1 25 31 1.1863 0 73 1.1863 1
gene 1 25 32 -1.31619 0 74 -1.31619 1
gene 1 25 33 1.28441 0 75 1.28441 1
gene 1 26 31 -1.59932 0 76 -1.59932 1
gene 1 26 32 2.1175 0 77 2.1175 1
gene 1 26 33 0.736595 0 78 0.736595 1
gene 1 27 31 -0.772729 0 79 -0.772729 1
gene 1 27 32 -1.03333 0 80 -1.03333 1
gene 1 27 33 -2.01679 0 81 -2.01679 1
gene 1 28 31 -0.504577 0 82 -0.504577 1
gene 1 28 32 -0.0837938 0 83 -0.0837938 1
gene 1 28 33 -0.460746 0 84 -0.460746 1
gene 1 29 31 0.0694264 0 85 0.0694264 1
gene 1 29 32 -0.788548 0 86 -0.788548 1
gene 1 29 33 1.62061 0 87 1.62061 1
gene 1 30 31 0.649189 0 88 0.649189 1
gene 1 30 32 1.05027 0 89 1.05027 1
gene 1 30 33 -1.92108 0 90 -1.92108 1
genomeend 8

/* Organism #9 Fitness: 13756.8 Error: 0 */
genomestart 9
trait 1 0.1 0.776213 0 0.0368689 0 0 0 0 
node 1 1 1 1
node 2 1 1 1
node 3 1 1 1
node 4 1 1 1
node 5 1 1 1
node 6 1 1 1
node 7 1 1 1
node 8 1 1 1
node 9 1 1 1
node 10 1 1 1
node 11 1 1 1
node 12 1 1 1
node 13 1 1 1
node 14 1 1 1
node 15 1 1 1
node 16 1 1 1
node 17 1 1 1
node 18 1 1 1
node 19 1 1 1
node 20 1 1 1
node 21 1 1 1
node 22 1 1 1
node 23 1 1 1
node 24 1 1 1
node 25 1 1 1
node 26 1 1 1
node 27 1 1 1
node 28 1 1 1
node 29 1 1 1
node 30 1 1 3
node 31 1 0 2
node 32 1 0 2
node 33 1 0 2
gene 1 1 31 0.496955 0 1 0.496955 1
gene 1 1 32 -2.31601 0 2 -2.31601 1
gene 1 1 33 -2.07695 0 3 -2.07695 1
gene 1 2 31 1.04886 0 4 1.04886 1
gene 1 2 32 3.45737 0 5 3.45737 1
gene 1 2 33 -0.851152 0 6 -0.851152 1
gene 1 3 31 2.25526 0 7 2.25526 1
gene 1 3 32 4.2457 0 8 4.2457 1
gene 1 3 33 -0.843138 0 9 -0.843138 1
gene 1 4 31 0.357125 0 10 0.357125 1
gene 1 4 32 0.955739 0 11 0.955739 1
gene 1 4 33 -0.263863 0 12 -0.263863 1
gene 1 5 31 0.276427 0 13 0.276427 1
gene 1 5 32 0.365682 0 14 0.365682 1
gene 1 5 33 -0.388349 0 15 -0.388349 1
gene 1 6 31 1.33056 0 16 1.33056 1
gene 1 6 32 3.06653 0 17 3.06653 1
gene 1 6 33 1.04469 0 18 1.04469 1
gene 1 7 31 2.66162 0 19 2.66162 1
gene 1 7 32 -0.0880919 0 20 -0.0880919 1
gene 1 7 33 1.54941 0 21 1.54941 1
gene 1 8 31 -1.7478 0 22 -1.7478 1
gene 1 8 32 -3.43808 0 23 -3.43808 1
gene 1 8 33 1.36359 0 24 1.36359 1
gene 1 9 31 -2.37405 0 25 -2.37405 1
gene 1 9 32 -0.307344 0 26 -0.307344 1
gene 1 9 33 1.7529 0 27 1.7529 1
gene 1 10 31 1.98179 0 28 1.98179 1
gene 1 10 32 0.0300394 0 29 0.0300394 1
gene 1 10 33 0.909656 0 30 0.909656 1
gene 1 11 31 -0.264157 0 31 -0.264157 1
gene 1 11 32 0.201927 0 32 0.201927 1
gene 1 11 33 -1.67259 0 33 -1.67259 1
gene 1 12 31 0.660084 0 34 0.660084 1
gene 1 12 32 -0.200341 0 35 -0.200341 1
gene 1 12 33 0.123646 0 36 0.123646 1
gene 1 13 31 0.431681 0 37 0.431681 1
gene 1 13 32 0.153258 0 38 0.153258 1
gene 1 13 33 3.52683 0 39 3.52683 1
gene 1 14 31 -2.40493 0 40 -2.40493 1
gene 1 14 32 3.54703 0 41 3.54703 1
gene 1 14 33 0.471368 0 42 0.471368 1
gene 1 15 31 0.179832 0 43 0.179832 1
gene 1 15 32 0.84266 0 44 0.84266 1
gene 1 15 33 3.6454 0 45 3.6454 1
gene 1 16 31 -0.779108 0 46 -0.779108 1
gene 1 16 32 -1.69268 0 47 -1.69268 1
gene 1 16 33 0.525816 0 48 0.525816 1
gene 1 17 31 -0.501966 0 49 -0.501966 1
gene 1 17 32 -0.215423 0 50 -0.215423 1
gene 1 17 33 0.658574 0 51 0.658574 1
gene 1 18 31 -1.39233 0 52 -1.39233 1
gene 1 18 32 -4.09417 0 53 -4.09417 1
gene 1 18 33 0.90584 0 54 0.90584 1
gene 1 19 31 -1.09952 0 55 -1.09952 1
gene 1 19 32 -4.69076 0 56 -4.69076 1
gene 1 19 33 3.11522 0 57 3.11522 1
gene 1 20 31 -0.0920877 0 58 -0.0920877 1
gene 1 20 32 -0.113346 0 59 -0.113346 1
gene 1 20 33 -4.03034 0 60 -4.03034 1
gene 1 21 31 0.771647 0 61 0.771647 1
gene 1 21 32 0.907625 0 62 0.907625 1
gene 1 21 33 1.08053 0 63 1.08053 1
gene 1 22 31 0.827285 0 64 0.827285 1
gene 1 22 32 -0.0977606 0 65 -0.0977606 1
gene 1 22 33 1.81127 0 66 1.81127 1
gene 1 23 31 5 0 67 5 1
gene 1 23 32 -0.967582 0 68 -0.967582 1
gene 1 23 33 2.04642 0 69 2.04642 1
gene 1 24 31 -3.01791 0 70 -3.01791 1
gene 1 24 32 1.21828 0 71 1.21828 1
gene 1 24 33 1.15582 0 72 1.15582 1
gene 1 25 31 -0.768518 0 73 -0.768518 1
gene 1 25 32 0.457273 0 74 0.457273 1
gene 1 25 33 1.31636 0 75 1.31636 1
gene 1 26 31 1.20778 0 76 1.20778 1
gene 1 26 32 0.0547014 0 77 0.0547014 1
gene 1 26 33 0.702785 0 78 0.702785 1
gene 1 27 31 -0.307715 0 79 -0.307715 1
gene 1 27 32 -0.742391 0 80 -0.742391 1
gene 1 27 33 -0.906303 0 81 -0.906303 1
gene 1 28 31 0.706097 0 82 0.706097 1
gene 1 28 32 -0.761139 0 83 -0.761139 1
gene 1 28 33 0.754485 0 84 0.754485 1
gene 1 29 31 -0.244727 0 85 -0.244727 1
gene 1 29 32 0.895086 0 86 0.895086 1
gene 1 29 33 -0.647189 0 87 -0.647189 1
gene 1 30 31 -3.27844 0 88 -3.27844 1
gene 1 30 32 0.459354 0 89 0.459354 1
gene 1 30 33 -1.8583 0 90 -1.8583 1
genomeend 9

/* Organism #10 Fitness: 14019.3 Error: 0 */
genomestart 10
trait 1 0.1 0.776213 0 0.0368689 0 0 0 0 
node 1 1 1 1
node 2 1 1 1
node 3 1 1 1
node 4 1 1 1
node 5 1 1 1
node 6 1 1 1
node 7 1 1 1
node 8 1 1 1
node 9 1 1 1
node 10 1 1 1
node 11 1 1 1
node 12 1 1 1
node 13 1 1 1
node 14 1 1 1
node 15 1 1 1
node 16 1 1 1
node 17 1 1 1
node 18 1 1 1
node 19 1 1 1
node 20 1 1 1
node 21 1 1 1
node 22 1 1 1
node 23 1 1 1
node 24 1 1 1
node 25 1 1 1
node 26 1 1 1
node 27 1 1 1
node 28 1 1 1
node 29 1 1 1
node 30 1 1 3
node 31 1 0 2
node 32 1 0 2
node 33 1 0 2
gene 1 1 31 -1.39127 0 1 -1.39127 1
gene 1 1 32 -3.08864 0 2 -3.08864 1
gene 1 1 33 -1.76994 0 3 -1.76994 1
gene 1 2 31 1.06735 0 4 1.06735 1
gene 1 2 32 2.76352 0 5 2.76352 1
gene 1 2 33 0.874526 0 6 0.874526 1
gene 1 3 31 -1.13007 0 7 -1.13007 1
gene 1 3 32 3.32024 0 8 3.32024 1
gene 1 3 33 -1.06326 0 9 -1.06326 1
gene 1 4 31 -0.847284 0 10 -0.847284 1
gene 1 4 32 0.46159 0 11 0.46159 1
gene 1 4 33 -2.54688 0 12 -2.54688 1
gene 1 5 31 3.24922 0 13 3.24922 1
gene 1 5 32 0.361546 0 14 0.361546 1
gene 1 5 33 0.50126 0 15 0.50126 1
gene 1 6 31 1.04177 0 16 1.04177 1
gene 1 6 32 2.37536 0 17 2.37536 1
gene 1 6 33 0.271232 0 18 0.271232 1
gene 1 7 31 2.31314 0 19 2.31314 1
gene 1 7 32 1.1914 0 20 1.1914 1
gene 1 7 33 0.185088 0 21 0.185088 1
gene 1 8 31 -0.928818 0 22 -0.928818 1
gene 1 8 32 -0.839671 0 23 -0.839671 1
gene 1 8 33 0.870243 0 24 0.870243 1
gene 1 9 31 -2.42372 0 25 -2.42372 1
gene 1 9 32 1.92828 0 26 1.92828 1
gene 1 9 33 -0.815964 0 27 -0.815964 1
gene 1 10 31 2.26355 0 28 2.26355 1
gene 1 10 32 0.0691294 0 29 0.0691294 1
gene 1 10 33 2.13676 0 30 2.13676 1
gene 1 11 31 -0.822441 0 31 -0.822441 1
gene 1 11 32 -0.145872 0 32 -0.145872 1
gene 1 11 33 -1.04879 0 33 -1.04879 1
gene 1 12 31 0.407597 0 34 0.407597 1
gene 1 12 32 -0.136372 0 35 -0.136372 1
gene 1 12 33 -0.519884 0 36 -0.519884 1
gene 1 13 31 1.63967 0 37 1.63967 1
gene 1 13 32 0.307657 0 38 0.307657 1
gene 1 13 33 -1.0743 0 39 -1.0743 1
gene 1 14 31 -3.72236 0 40 -3.72236 1
gene 1 14 32 3.1277 0 41 3.1277 1
gene 1 14 33 -1.01463 0 42 -1.01463 1
gene 1 15 31 1.77471 0 43 1.77471 1
gene 1 15 32 -1.27407 0 44 -1.27407 1
gene 1 15 33 2.07119 0 45 2.07119 1
gene 1 16 31 -3.17282 0 46 -3.17282 1
gene 1 16 32 0.423835 0 47 0.423835 1
gene 1 16 33 1.71706 0 48 1.71706 1
gene 1 17 31 -2.5959 0 49 -2.5959 1
gene 1 17 32 -2.25307 0 50 -2.25307 1
gene 1 17 33 -0.269769 0 51 -0.269769 1
gene 1 18 31 -0.179114 0 52 -0.179114 1
gene 1 18 32 -5 0 53 -5 1
gene 1 18 33 0.0419863 0 54 0.0419863 1
gene 1 19 31 -1.13194 0 55 -1.13194 1
gene 1 19 32 -3.77017 0 56 -3.77017 1
gene 1 19 33 2.26389 0 57 2.26389 1
gene 1 20 31 -0.0598932 0 58 -0.0598932 1
gene 1 20 32 -0.801902 0 59 -0.801902 1
gene 1 20 33 -3.22895 0 60 -3.22895 1
gene 1 21 31 1.11383 0 61 1.11383 1
gene 1 21 32 0.219159 0 62 0.219159 1
gene 1 21 33 1.63162 0 63 1.63162 1
gene 1 22 31 3.03359 0 64 3.03359 1
gene 1 22 32 1.77382 0 65 1.77382 1
gene 1 22 33 1.14854 0 66 1.14854 1
gene 1 23 31 2.03423 0 67 2.03423 1
gene 1 23 32 -0.456013 0 68 -0.456013 1
gene 1 23 33 0.927105 0 69 0.927105 1
gene 1 24 31 -1.90273 0 70 -1.90273 1
gene 1 24 32 3.07331 0 71 3.07331 1
gene 1 24 33 -0.0319655 0 72 -0.0319655 1
gene 1 25 31 -0.731261 0 73 -0.731261 1
gene 1 25 32 -0.682541 0 74 -0.682541 1
gene 1 25 33 0.462963 0 75 0.462963 1
gene 1 26 31 0.449562 0 76 0.449562 1
gene 1 26 32 -1.40591 0 77 -1.40591 1
gene 1 26 33 2.05209 0 78 2.05209 1
gene 1 27 31 0.956257 0 79 0.956257 1
gene 1 27 32 -0.449761 0 80 -0.449761 1
gene 1 27 33 -0.94649 0 81 -0.94649 1
gene 1 28 31 0.593163 0 82 0.593163 1
gene 1 28 32 -0.447128 0 83 -0.447128 1
gene 1 28 33 1.34455 0 84 1.34455 1
gene 1 29 31 -0.571946 0 85 -0.571946 1
gene 1 29 32 -1.15353 0 86 -1.15353 1
gene 1 29 33 0.0676022 0 87 0.0676022 1
gene 1 30 31 -2.30722 0 88 -2.30722 1
gene 1 30 32 1.70269 0 89 1.70269 1
gene 1 30 33 0.661457 0 90 0.661457 1
genomeend 10

/* Organism #11 Fitness: 13848.2 Error: 0 */
genomestart 11
trait 1 0.1 0 0.0905046 0.14795 0.383406 0.0563433 0 0.915246 
node 1 1 1 1
node 2 1 1 1
node 3 1 1 1
node 4 1 1 1
node 5 1 1 1
node 6 1 1 1
node 7 1 1 1
node 8 1 1 1
node 9 1 1 1
node 10 1 1 1
node 11 1 1 1
node 12 1 1 1
node 13 1 1 1
node 14 1 1 1
node 15 1 1 1
node 16 1 1 1
node 17 1 1 1
node 18 1 1 1
node 19 1 1 1
node 20 1 1 1
node 21 1 1 1
node 22 1 1 1
node 23 1 1 1
node 24 1 1 1
node 25 1 1 1
node 26 1 1 1
node 27 1 1 1
node 28 1 1 1
node 29 1 1 1
node 30 1 1 3
node 31 1 0 2
node 32 1 0 2
node 33 1 0 2
gene 1 1 31 -3.07118 0 1 -3.07118 1
gene 1 1 32 -3.94336 0 2 -3.94336 1
gene 1 1 33 -1.21395 0 3 -1.21395 1
gene 1 2 31 -4.3547 0 4 -4.3547 1
gene 1 2 32 4.64556 0 5 4.64556 1
gene 1 2 33 2.50079 0 6 2.50079 1
gene 1 3 31 1.55035 0 7 1.55035 1
gene 1 3 32 2.72176 0 8 2.72176 1
gene 1 3 33 3.81115 0 9 3.81115 1
gene 1 4 31 1.09691 0 10 1.09691 1
gene 1 4 32 3.21939 0 11 3.21939 1
gene 1 4 33 -0.738352 0 12 -0.738352 1
gene 1 5 31 -1.31785 0 13 -1.31785 1
gene 1 5 32 2.00075 0 14 2.00075 1
gene 1 5 33 -4.24953 0 15 -4.24953 1
gene 1 6 31 2.31204 0 16 2.31204 1
gene 1 6 32 -0.52777 0 17 -0.52777 1
gene 1 6 33 -0.819317 0 18 -0.819317 1
gene 1 7 31 5 0 19 5 1
gene 1 7 32 -0.536546 0 20 -0.536546 1
gene 1 7 33 -2.43094 0 21 -2.43094 1
gene 1 8 31 2.02942 0 22 2.02942 1
gene 1 8 32 -5 0 23 -5 1
gene 1 8 33 0.82822 0 24 0.82822 1
gene 1 9 31 -0.174914 0 25 -0.174914 1
gene 1 9 32 3.11843 0 26 3.11843 1
gene 1 9 33 -1.99269 0 27 -1.99269 1
gene 1 10 31 -0.281074 0 28 -0.281074 1
gene 1 10 32 3.64996 0 29 3.64996 1
gene 1 10 33 4.21933 0 30 4.21933 1
gene 1 11 31 0.175695 0 31 0.175695 1
gene 1 11 32 2.56895 0 32 2.56895 1
gene 1 11 33 1.68967 0 33 1.68967 1
gene 1 12 31 -3.04733 0 34 -3.04733 1
gene 1 12 32 -3.68985 0 35 -3.68985 1
gene 1 12 33 -1.84619 0 36 -1.84619 1
gene 1 13 31 3.58933 0 37 3.58933 1
gene 1 13 32 1.48627 0 38 1.48627 1
gene 1 13 33 2.68842 0 39 2.68842 1
gene 1 14 31 -0.351902 0 40 -0.351902 1
gene 1 14 32 2.45688 0 41 2.45688 1
gene 1 14 33 3.00207 0 42 3.00207 1
gene 1 15 31 0.220985 0 43 0.220985 1
gene 1 15 32 -0.76223 0 44 -0.76223 1
gene 1 15 33 0.292024 0 45 0.292024 1
gene 1 16 31 1.21055 0 46 1.21055 1
gene 1 16 32 0.190851 0 47 0.190851 1
gene 1 16 33 0.374721 0 48 0.374721 1
gene 1 17 31 -5 0 49 -5 1
gene 1 17 32 -4.64023 0 50 -4.64023 1
gene 1 17 33 -0.484963 0 51 -0.484963 1
gene 1 18 31 -0.0852687 0 52 -0.0852687 1
gene 1 18 32 -3.22754 0 53 -3.22754 1
gene 1 18 33 1.20833 0 54 1.20833 1
gene 1 19 31 -1.92701 0 55 -1.92701 1
gene 1 19 32 -3.15369 0 56 -3.15369 1
gene 1 19 33 2.45649 0 57 2.45649 1
gene 1 20 31 -1.95884 0 58 -1.95884 1
gene 1 20 32 0.225784 0 59 0.225784 1
gene 1 20 33 -4.48078 0 60 -4.48078 1
gene 1 21 31 1.18058 0 61 1.18058 1
gene 1 21 32 0.952538 0 62 0.952538 1
gene 1 21 33 0.70855 0 63 0.70855 1
gene 1 22 31 4.02032 0 64 4.02032 1
gene 1 22 32 3.43315 0 65 3.43315 1
gene 1 22 33 -0.404956 0 66 -0.404956 1
gene 1 23 31 4.78181 0 67 4.78181 1
gene 1 23 32 -0.7027 0 68 -0.7027 1
gene 1 23 33 1.68213 0 69 1.68213 1
gene 1 24 31 -3.09039 0 70 -3.09039 1
gene 1 24 32 4.0749 0 71 4.0749 1
gene 1 24 33 -1.01632 0 72 -1.01632 1
gene 1 25 31 1.67882 0 73 1.67882 1
gene 1 25 32 0.0123504 0 74 0.0123504 1
gene 1 25 33 -0.352235 0 75 -0.352235 1
gene 1 26 31 0.313761 0 76 0.313761 1
gene 1 26 32 -0.428973 0 77 -0.428973 1
gene 1 26 33 2.08991 0 78 2.08991 1
gene 1 27 31 -0.116157 0 79 -0.116157 1
gene 1 27 32 -1.22451 0 80 -1.22451 1
gene 1 27 33 -1.03795 0 81 -1.03795 1
gene 1 28 31 -0.781408 0 82 -0.781408 1
gene 1 28 32 0.311979 0 83 0.311979 1
gene 1 28 33 0.054451 0 84 0.054451 1
gene 1 29 31 -1.88611 0 85 -1.88611 1
gene 1 29 32 0.81839 0 86 0.81839 1
gene 1 29 33 2.20186 0 87 2.20186 1
gene 1 30 31 1.13212 0 88 1.13212 1
gene 1 30 32 0.870979 0 89 0.870979 1
gene 1 30 33 -1.45008 0 90 -1.45008 1
genomeend 11

/* Organism #12 Fitness: 14305 Error: 0 */
genomestart 12
trait 1 0.1 0 0 0.14795 0.383406 1 0 0.067504 
node 1 1 1 1
node 2 1 1 1
node 3 1 1 1
node 4 1 1 1
node 5 1 1 1
node 6 1 1 1
node 7 1 1 1
node 8 1 1 1
node 9 1 1 1
node 10 1 1 1
node 11 1 1 1
node 12 1 1 1
node 13 1 1 1
node 14 1 1 1
node 15 1 1 1
node 16 1 1 1
node 17 1 1 1
node 18 1 1 1
node 19 1 1 1
node 20 1 1 1
node 21 1 1 1
node 22 1 1 1
node 23 1 1 1
node 24 1 1 1
node 25 1 1 1
node 26 1 1 1
node 27 1 1 1
node 28 1 1 1
node 29 1 1 1
node 30 1 1 3
node 31 1 0 2
node 32 1 0 2
node 33 1 0 2
gene 1 1 31 -1.63228 0 1 -1.63228 1
gene 1 1 32 -3.87825 0 2 -3.87825 1
gene 1 1 33 -1.58844 0 3 -1.58844 1
gene 1 2 31 -3.74235 0 4 -3.74235 1
gene 1 2 32 4.7679 0 5 4.7679 1
gene 1 2 33 2.2208 0 6 2.2208 1
gene 1 3 31 1.46625 0 7 1.46625 1
gene 1 3 32 1.83004 0 8 1.83004 1
gene 1 3 33 3.02301 0 9 3.02301 1
gene 1 4 31 1.67548 0 10 1.67548 1
gene 1 4 32 4.22738 0 11 4.22738 1
gene 1 4 33 -0.774253 0 12 -0.774253 1
gene 1 5 31 -0.799414 0 13 -0.799414 1
gene 1 5 32 0.973732 0 14 0.973732 1
gene 1 5 33 -4.1924 0 15 -4.1924 1
gene 1 6 31 3.26924 0 16 3.26924 1
gene 1 6 32 -0.801981 0 17 -0.801981 1
gene 1 6 33 -0.336741 0 18 -0.336741 1
gene 1 7 31 4.99709 0 19 4.99709 1
gene 1 7 32 -1.26015 0 20 -1.26015 1
gene 1 7 33 -2.57616 0 21 -2.57616 1
gene 1 8 31 1.9094 0 22 1.9094 1
gene 1 8 32 -4.73761 0 23 -4.73761 1
gene 1 8 33 2.64049 0 24 2.64049 1
gene 1 9 31 -0.0985825 0 25 -0.0985825 1
gene 1 9 32 2.9476 0 26 2.9476 1
gene 1 9 33 -1.07288 0 27 -1.07288 1
gene 1 10 31 -0.302843 0 28 -0.302843 1
gene 1 10 32 3.36965 0 29 3.36965 1
gene 1 10 33 4.31244 0 30 4.31244 1
gene 1 11 31 1.19554 0 31 1.19554 1
gene 1 11 32 1.49465 0 32 1.49465 1
gene 1 11 33 2.2571 0 33 2.2571 1
gene 1 12 31 -2.51188 0 34 -2.51188 1
gene 1 12 32 -2.25552 0 35 -2.25552 1
gene 1 12 33 -2.04803 0 36 -2.04803 1
gene 1 13 31 3.29629 0 37 3.29629 1
gene 1 13 32 1.50404 0 38 1.50404 1
gene 1 13 33 2.93589 0 39 2.93589 1
gene 1 14 31 -1.09785 0 40 -1.09785 1
gene 1 14 32 2.24157 0 41 2.24157 1
gene 1 14 33 2.29146 0 42 2.29146 1
gene 1 15 31 0.360824 0 43 0.360824 1
gene 1 15 32 -0.432539 0 44 -0.432539 1
gene 1 15 33 0.375493 0 45 0.375493 1
gene 1 16 31 0.675709 0 46 0.675709 1
gene 1 16 32 0.38755 0 47 0.38755 1
gene 1 16 33 0.957575 0 48 0.957575 1
gene 1 17 31 -4.83205 0 49 -4.83205 1
gene 1 17 32 -4.05054 0 50 -4.05054 1
gene 1 17 33 -2.10313 0 51 -2.10313 1
gene 1 18 31 -0.931715 0 52 -0.931715 1
gene 1 18 32 -1.87276 0 53 -1.87276 1
gene 1 18 33 0.931791 0 54 0.931791 1
gene 1 19 31 -3.3181 0 55 -3.3181 1
gene 1 19 32 -4.4767 0 56 -4.4767 1
gene 1 19 33 2.86893 0 57 2.86893 1
gene 1 20 31 -2.73646 0 58 -2.73646 1
gene 1 20 32 0.365421 0 59 0.365421 1
gene 1 20 33 -5 0 60 -5 1
gene 1 21 31 2.60033 0 61 2.60033 1
gene 1 21 32 0.846982 0 62 0.846982 1
gene 1 21 33 0.770956 0 63 0.770956 1
gene 1 22 31 5 0 64 5 1
gene 1 22 32 4.35562 0 65 4.35562 1
gene 1 22 33 -0.430894 0 66 -0.430894 1
gene 1 23 31 3.37157 0 67 3.37157 1
gene 1 23 32 0.674581 0 68 0.674581 1
gene 1 23 33 2.2663 0 69 2.2663 1
gene 1 24 31 -2.06106 0 70 -2.06106 1
gene 1 24 32 3.71445 0 71 3.71445 1
gene 1 24 33 -0.874597 0 72 -0.874597 1
gene 1 25 31 1.6163 0 73 1.6163 1
gene 1 25 32 -0.670983 0 74 -0.670983 1
gene 1 25 33 0.206057 0 75 0.206057 1
gene 1 26 31 -0.942563 0 76 -0.942563 1
gene 1 26 32 1.34472 0 77 1.34472 1
gene 1 26 33 -0.0434765 0 78 -0.0434765 1
gene 1 27 31 -0.116157 0 79 -0.116157 1
gene 1 27 32 0.184245 0 80 0.184245 1
gene 1 27 33 -1.23323 0 81 -1.23323 1
gene 1 28 31 -1.19936 0 82 -1.19936 1
gene 1 28 32 0.873113 0 83 0.873113 1
gene 1 28 33 0.333478 0 84 0.333478 1
gene 1 29 31 -1.48793 0 85 -1.48793 1
gene 1 29 32 0.81839 0 86 0.81839 1
gene 1 29 33 0.891388 0 87 0.891388 1
gene 1 30 31 0.877629 0 88 0.877629 1
gene 1 30 32 0.471713 0 89 0.471713 1
gene 1 30 33 -1.09841 0 90 -1.09841 1
genomeend 12

/* Organism #13 Fitness: 14220.5 Error: 0 */
genomestart 13
trait 1 0.1 0.776213 0 0.0368689 0 0 0 0 
node 1 1 1 1
node 2 1 1 1
node 3 1 1 1
node 4 1 1 1
node 5 1 1 1
node 6 1 1 1
node 7 1 1 1
node 8 1 1 1
node 9 1 1 1
node 10 1 1 1
node 11 1 1 1
node 12 1 1 1
node 13 1 1 1
node 14 1 1 1
node 15 1 1 1
node 16 1 1 1
node 17 1 1 1
node 18 1 1 1
node 19 1 1 1
node 20 1 1 1
node 21 1 1 1
node 22 1 1 1
node 23 1 1 1
node 24 1 1 1
node 25 1 1 1
node 26 1 1 1
node 27 1 1 1
node 28 1 1 1
node 29 1 1 1
node 30 1 1 3
node 31 1 0 2
node 32 1 0 2
node 33 1 0 2
gene 1 1 31 1.78683 0 1 1.78683 1
gene 1 1 32 -2.10908 0 2 -2.10908 1
gene 1 1 33 -0.87663 0 3 -0.87663 1
gene 1 2 31 -0.00502436 0 4 -0.00502436 1
gene 1 2 32 2.98912 0 5 2.98912 1
gene 1 2 33 -0.298419 0 6 -0.298419 1
gene 1 3 31 2.07535 0 7 2.07535 1
gene 1 3 32 3.8099 0 8 3.8099 1
gene 1 3 33 -0.232621 0 9 -0.232621 1
gene 1 4 31 -0.543336 0 10 -0.543336 1
gene 1 4 32 1.07701 0 11 1.07701 1
gene 1 4 33 -0.395857 0 12 -0.395857 1
gene 1 5 31 1.7193 0 13 1.7193 1
gene 1 5 32 1.08104 0 14 1.08104 1
gene 1 5 33 -1.21797 0 15 -1.21797 1
gene 1 6 31 2.00648 0 16 2.00648 1
gene 1 6 32 3.70781 0 17 3.70781 1
gene 1 6 33 0.0245521 0 18 0.0245521 1
gene 1 7 31 2.88665 0 19 2.88665 1
gene 1 7 32 0.628415 0 20 0.628415 1
gene 1 7 33 2.12706 0 21 2.12706 1
gene 1 8 31 -0.68172 0 22 -0.68172 1
gene 1 8 32 -1.64007 0 23 -1.64007 1
gene 1 8 33 1.38014 0 24 1.38014 1
gene 1 9 31 -2.30211 0 25 -2.30211 1
gene 1 9 32 1.31174 0 26 1.31174 1
gene 1 9 33 2.14227 0 27 2.14227 1
gene 1 10 31 2.27335 0 28 2.27335 1
gene 1 10 32 0.09836 0 29 0.09836 1
gene 1 10 33 1.42494 0 30 1.42494 1
gene 1 11 31 -0.740825 0 31 -0.740825 1
gene 1 11 32 -0.486965 0 32 -0.486965 1
gene 1 11 33 -1.47809 0 33 -1.47809 1
gene 1 12 31 -0.27025 0 34 -0.27025 1
gene 1 12 32 -1.74947 0 35 -1.74947 1
gene 1 12 33 -0.0729163 0 36 -0.0729163 1
gene 1 13 31 0.219406 0 37 0.219406 1
gene 1 13 32 -0.402736 0 38 -0.402736 1
gene 1 13 33 3.88167 0 39 3.88167 1
gene 1 14 31 -1.1486 0 40 -1.1486 1
gene 1 14 32 2.61511 0 41 2.61511 1
gene 1 14 33 -0.252222 0 42 -0.252222 1
gene 1 15 31 -0.90434 0 43 -0.90434 1
gene 1 15 32 0.94336 0 44 0.94336 1
gene 1 15 33 1.95219 0 45 1.95219 1
gene 1 16 31 -0.831056 0 46 -0.831056 1
gene 1 16 32 -1.22256 0 47 -1.22256 1
gene 1 16 33 0.388527 0 48 0.388527 1
gene 1 17 31 0.49775 0 49 0.49775 1
gene 1 17 32 -0.175061 0 50 -0.175061 1
gene 1 17 33 -0.730231 0 51 -0.730231 1
gene 1 18 31 -0.845577 0 52 -0.845577 1
gene 1 18 32 -4.14025 0 53 -4.14025 1
gene 1 18 33 1.35516 0 54 1.35516 1
gene 1 19 31 -0.844344 0 55 -0.844344 1
gene 1 19 32 -3.00518 0 56 -3.00518 1
gene 1 19 33 1.96605 0 57 1.96605 1
gene 1 20 31 -0.299846 0 58 -0.299846 1
gene 1 20 32 0.400735 0 59 0.400735 1
gene 1 20 33 -3.94502 0 60 -3.94502 1
gene 1 21 31 0.637507 0 61 0.637507 1
gene 1 21 32 2.32 0 62 2.32 1
gene 1 21 33 1.43894 0 63 1.43894 1
gene 1 22 31 0.273958 0 64 0.273958 1
gene 1 22 32 -0.727784 0 65 -0.727784 1
gene 1 22 33 1.81979 0 66 1.81979 1
gene 1 23 31 4.29578 0 67 4.29578 1
gene 1 23 32 -1.26622 0 68 -1.26622 1
gene 1 23 33 1.5322 0 69 1.5322 1
gene 1 24 31 -4.01603 0 70 -4.01603 1
gene 1 24 32 1.02453 0 71 1.02453 1
gene 1 24 33 0.669556 0 72 0.669556 1
gene 1 25 31 -0.511474 0 73 -0.511474 1
gene 1 25 32 0.20875 0 74 0.20875 1
gene 1 25 33 0.528865 0 75 0.528865 1
gene 1 26 31 -0.968596 0 76 -0.968596 1
gene 1 26 32 -0.970118 0 77 -0.970118 1
gene 1 26 33 -0.482099 0 78 -0.482099 1
gene 1 27 31 -0.0907242 0 79 -0.0907242 1
gene 1 27 32 -0.931415 0 80 -0.931415 1
gene 1 27 33 -0.473646 0 81 -0.473646 1
gene 1 28 31 0.787172 0 82 0.787172 1
gene 1 28 32 -1.09058 0 83 -1.09058 1
gene 1 28 33 0.754485 0 84 0.754485 1
gene 1 29 31 -0.841577 0 85 -0.841577 1
gene 1 29 32 0.270905 0 86 0.270905 1
gene 1 29 33 -0.647189 0 87 -0.647189 1
gene 1 30 31 -2.67801 0 88 -2.67801 1
gene 1 30 32 -0.172517 0 89 -0.172517 1
gene 1 30 33 -2.84412 0 90 -2.84412 1
genomeend 13

/* Organism #14 Fitness: 13949.7 Error: 0 */
genomestart 14
trait 1 0.1 0.776213 0 0.0368689 0 0 0 0 
node 1 1 1 1
node 2 1 1 1
node 3 1 1 1
node 4 1 1 1
node 5 1 1 1
node 6 1 1 1
node 7 1 1 1
node 8 1 1 1
node 9 1 1 1
node 10 1 1 1
node 11 1 1 1
node 12 1 1 1
node 13 1 1 1
node 14 1 1 1
node 15 1 1 1
node 16 1 1 1
node 17 1 1 1
node 18 1 1 1
node 19 1 1 1
node 20 1 1 1
node 21 1 1 1
node 22 1 1 1
node 23 1 1 1
node 24 1 1 1
node 25 1 1 1
node 26 1 1 1
node 27 1 1 1
node 28 1 1 1
node 29 1 1 1
node 30 1 1 3
node 31 1 0 2
node 32 1 0 2
node 33 1 0 2
gene 1 1 31 0.792847 0 1 0.792847 1
gene 1 1 32 -2.27319 0 2 -2.27319 1
gene 1 1 33 -1.35133 0 3 -1.35133 1
gene 1 2 31 0.461332 0 4 0.461332 1
gene 1 2 32 3.14357 0 5 3.14357 1
gene 1 2 33 -1.01054 0 6 -1.01054 1
gene 1 3 31 2.0472 0 7 2.0472 1
gene 1 3 32 3.61847 0 8 3.61847 1
gene 1 3 33 -0.824912 0 9 -0.824912 1
gene 1 4 31 -0.460384 0 10 -0.460384 1
gene 1 4 32 0.266808 0 11 0.266808 1
gene 1 4 33 -1.17246 0 12 -1.17246 1
gene 1 5 31 0.992456 0 13 0.992456 1
gene 1 5 32 0.578615 0 14 0.578615 1
gene 1 5 33 -1.23017 0 15 -1.23017 1
gene 1 6 31 2.14837 0 16 2.14837 1
gene 1 6 32 3.69648 0 17 3.69648 1
gene 1 6 33 0.573775 0 18 0.573775 1
gene 1 7 31 2.40038 0 19 2.40038 1
gene 1 7 32 0.152098 0 20 0.152098 1
gene 1 7 33 1.17469 0 21 1.17469 1
gene 1 8 31 -1.10797 0 22 -1.10797 1
gene 1 8 32 -2.58254 0 23 -2.58254 1
gene 1 8 33 0.700305 0 24 0.700305 1
gene 1 9 31 -2.6742 0 25 -2.6742 1
gene 1 9 32 0.508944 0 26 0.508944 1
gene 1 9 33 1.68442 0 27 1.68442 1
gene 1 10 31 2.16665 0 28 2.16665 1
gene 1 10 32 -0.803752 0 29 -0.803752 1
gene 1 10 33 1.67245 0 30 1.67245 1
gene 1 11 31 -0.0484872 0 31 -0.0484872 1
gene 1 11 32 -0.0469361 0 32 -0.0469361 1
gene 1 11 33 -1.8801 0 33 -1.8801 1
gene 1 12 31 0.0159435 0 34 0.0159435 1
gene 1 12 32 -0.818571 0 35 -0.818571 1
gene 1 12 33 -0.864626 0 36 -0.864626 1
gene 1 13 31 0.814411 0 37 0.814411 1
gene 1 13 32 -0.512515 0 38 -0.512515 1
gene 1 13 33 3.68377 0 39 3.68377 1
gene 1 14 31 -1.54832 0 40 -1.54832 1
gene 1 14 32 2.70156 0 41 2.70156 1
gene 1 14 33 -0.0545344 0 42 -0.0545344 1
gene 1 15 31 -0.358101 0 43 -0.358101 1
gene 1 15 32 0.332913 0 44 0.332913 1
gene 1 15 33 2.82563 0 45 2.82563 1
gene 1 16 31 -1.67402 0 46 -1.67402 1
gene 1 16 32 -0.835268 0 47 -0.835268 1
gene 1 16 33 0.585798 0 48 0.585798 1
gene 1 17 31 0.185385 0 49 0.185385 1
gene 1 17 32 -0.27073 0 50 -0.27073 1
gene 1 17 33 -0.162283 0 51 -0.162283 1
gene 1 18 31 -0.777847 0 52 -0.777847 1
gene 1 18 32 -4.20584 0 53 -4.20584 1
gene 1 18 33 0.842889 0 54 0.842889 1
gene 1 19 31 -1.51369 0 55 -1.51369 1
gene 1 19 32 -3.76225 0 56 -3.76225 1
gene 1 19 33 2.83661 0 57 2.83661 1
gene 1 20 31 0.279893 0 58 0.279893 1
gene 1 20 32 0.377755 0 59 0.377755 1
gene 1 20 33 -4.54465 0 60 -4.54465 1
gene 1 21 31 0.779253 0 61 0.779253 1
gene 1 21 32 1.65402 0 62 1.65402 1
gene 1 21 33 1.28756 0 63 1.28756 1
gene 1 22 31 0.789429 0 64 0.789429 1
gene 1 22 32 -0.886738 0 65 -0.886738 1
gene 1 22 33 1.04427 0 66 1.04427 1
gene 1 23 31 4.8442 0 67 4.8442 1
gene 1 23 32 -0.343822 0 68 -0.343822 1
gene 1 23 33 2.40955 0 69 2.40955 1
gene 1 24 31 -3.10583 0 70 -3.10583 1
gene 1 24 32 1.53644 0 71 1.53644 1
gene 1 24 33 0.236719 0 72 0.236719 1
gene 1 25 31 -0.00613489 0 73 -0.00613489 1
gene 1 25 32 -0.0721176 0 74 -0.0721176 1
gene 1 25 33 0.528865 0 75 0.528865 1
gene 1 26 31 1.35897 0 76 1.35897 1
gene 1 26 32 -0.970118 0 77 -0.970118 1
gene 1 26 33 0.284948 0 78 0.284948 1
gene 1 27 31 0.219654 0 79 0.219654 1
gene 1 27 32 -0.742391 0 80 -0.742391 1
gene 1 27 33 -0.204046 0 81 -0.204046 1
gene 1 28 31 0.0847346 0 82 0.0847346 1
gene 1 28 32 -1.09058 0 83 -1.09058 1
gene 1 28 33 0.754485 0 84 0.754485 1
gene 1 29 31 0.176596 0 85 0.176596 1
gene 1 29 32 0.895086 0 86 0.895086 1
gene 1 29 33 -0.647189 0 87 -0.647189 1
gene 1 30 31 -2.67801 0 88 -2.67801 1
gene 1 30 32 0.459354 0 89 0.459354 1
gene 1 30 33 -2.26583 0 90 -2.26583 1
genomeend 14

/* Organism #15 Fitness: 13726.5 Error: 0 */
genomestart 15
trait 1 0.1 0.776213 0 0.0368689 0 0 0 0 
node 1 1 1 1
node 2 1 1 1
node 3 1 1 1
node 4 1 1 1
node 5 1 1 1
node 6 1 1 1
node 7 1 1 1
node 8 1 1 1
node 9 1 1 1
node 10 1 1 1
node 11 1 1 1
node 12 1 1 1
node 13 1 1 1
node 14 1 1 1
node 15 1 1 1
node 16 1 1 1
node 17 1 1 1
node 18 1 1 1
node 19 1 1 1
node 20 1 1 1
node 21 1 1 1
node 22 1 1 1
node 23 1 1 1
node 24 1 1 1
node 25 1 1 1
node 26 1 1 1
node 27 1 1 1
node 28 1 1 1
node 29 1 1 1
node 30 1 1 3
node 31 1 0 2
node 32 1 0 2
node 33 1 0 2
gene 1 1 31 0.43445 0 1 0.43445 1
gene 1 1 32 -1.81717 0 2 -1.81717 1
gene 1 1 33 -1.93524 0 3 -1.93524 1
gene 1 2 31 -0.542708 0 4 -0.542708 1
gene 1 2 32 2.14716 0 5 2.14716 1
gene 1 2 33 -1.30537 0 6 -1.30537 1
gene 1 3 31 3.09598 0 7 3.09598 1
gene 1 3 32 2.7848 0 8 2.7848 1
gene 1 3 33 -1.74262 0 9 -1.74262 1
gene 1 4 31 -1.52644 0 10 -1.52644 1
gene 1 4 32 0.0989444 0 11 0.0989444 1
gene 1 4 33 -0.599934 0 12 -0.599934 1
gene 1 5 31 0.63803 0 13 0.63803 1
gene 1 5 32 0.876929 0 14 0.876929 1
gene 1 5 33 -1.1083 0 15 -1.1083 1
gene 1 6 31 1.3511 0 16 1.3511 1
gene 1 6 32 3.50747 0 17 3.50747 1
gene 1 6 33 -0.0167425 0 18 -0.0167425 1
gene 1 7 31 1.18015 0 19 1.18015 1
gene 1 7 32 1.20059 0 20 1.20059 1
gene 1 7 33 -0.0953232 0 21 -0.0953232 1
gene 1 8 31 -1.18291 0 22 -1.18291 1
gene 1 8 32 -1.55837 0 23 -1.55837 1
gene 1 8 33 -0.167255 0 24 -0.167255 1
gene 1 9 31 -1.13169 0 25 -1.13169 1
gene 1 9 32 1.11389 0 26 1.11389 1
gene 1 9 33 1.83992 0 27 1.83992 1
gene 1 10 31 2.44954 0 28 2.44954 1
gene 1 10 32 -0.319581 0 29 -0.319581 1
gene 1 10 33 2.20289 0 30 2.20289 1
gene 1 11 31 -0.771233 0 31 -0.771233 1
gene 1 11 32 -0.812648 0 32 -0.812648 1
gene 1 11 33 -1.66879 0 33 -1.66879 1
gene 1 12 31 -0.939722 0 34 -0.939722 1
gene 1 12 32 -0.839077 0 35 -0.839077 1
gene 1 12 33 -0.543669 0 36 -0.543669 1
gene 1 13 31 1.26964 0 37 1.26964 1
gene 1 13 32 0.0451799 0 38 0.0451799 1
gene 1 13 33 4.0331 0 39 4.0331 1
gene 1 14 31 -1.98177 0 40 -1.98177 1
gene 1 14 32 2.89895 0 41 2.89895 1
gene 1 14 33 0.65524 0 42 0.65524 1
gene 1 15 31 -0.0243972 0 43 -0.0243972 1
gene 1 15 32 1.99844 0 44 1.99844 1
gene 1 15 33 4.38708 0 45 4.38708 1
gene 1 16 31 -2.73625 0 46 -2.73625 1
gene 1 16 32 0.146378 0 47 0.146378 1
gene 1 16 33 -0.484629 0 48 -0.484629 1
gene 1 17 31 0.476637 0 49 0.476637 1
gene 1 17 32 -0.838868 0 50 -0.838868 1
gene 1 17 33 0.508842 0 51 0.508842 1
gene 1 18 31 -1.0272 0 52 -1.0272 1
gene 1 18 32 -5 0 53 -5 1
gene 1 18 33 1.68134 0 54 1.68134 1
gene 1 19 31 -1.51855 0 55 -1.51855 1
gene 1 19 32 -4.00157 0 56 -4.00157 1
gene 1 19 33 2.36375 0 57 2.36375 1
gene 1 20 31 -0.347019 0 58 -0.347019 1
gene 1 20 32 -0.590296 0 59 -0.590296 1
gene 1 20 33 -5 0 60 -5 1
gene 1 21 31 0.540602 0 61 0.540602 1
gene 1 21 32 0.610571 0 62 0.610571 1
gene 1 21 33 0.974121 0 63 0.974121 1
gene 1 22 31 1.1991 0 64 1.1991 1
gene 1 22 32 -2.56648 0 65 -2.56648 1
gene 1 22 33 1.30882 0 66 1.30882 1
gene 1 23 31 4.75181 0 67 4.75181 1
gene 1 23 32 -0.160838 0 68 -0.160838 1
gene 1 23 33 2.22979 0 69 2.22979 1
gene 1 24 31 -3.04127 0 70 -3.04127 1
gene 1 24 32 2.16143 0 71 2.16143 1
gene 1 24 33 0.912885 0 72 0.912885 1
gene 1 25 31 0.235779 0 73 0.235779 1
gene 1 25 32 0.514976 0 74 0.514976 1
gene 1 25 33 0.528865 0 75 0.528865 1
gene 1 26 31 -0.418761 0 76 -0.418761 1
gene 1 26 32 -0.720494 0 77 -0.720494 1
gene 1 26 33 0.219179 0 78 0.219179 1
gene 1 27 31 -0.0793427 0 79 -0.0793427 1
gene 1 27 32 -2.13167 0 80 -2.13167 1
gene 1 27 33 0.868901 0 81 0.868901 1
gene 1 28 31 -1.46033 0 82 -1.46033 1
gene 1 28 32 -1.70392 0 83 -1.70392 1
gene 1 28 33 0.323209 0 84 0.323209 1
gene 1 29 31 2.00737 0 85 2.00737 1
gene 1 29 32 0.895086 0 86 0.895086 1
gene 1 29 33 -0.232451 0 87 -0.232451 1
gene 1 30 31 -2.81474 0 88 -2.81474 1
gene 1 30 32 1.35103 0 89 1.35103 1
gene 1 30 33 -0.355446 0 90 -0.355446 1
genomeend 15

/* Organism #16 Fitness: 14290.7 Error: 0 */
genomestart 16
trait 1 0.1 0 0.0905046 0.14795 0.383406 0.0563433 0 0.915246 
node 1 1 1 1
node 2 1 1 1
node 3 1 1 1
node 4 1 1 1
node 5 1 1 1
node 6 1 1 1
node 7 1 1 1
node 8 1 1 1
node 9 1 1 1
node 10 1 1 1
node 11 1 1 1
node 12 1 1 1
node 13 1 1 1
node 14 1 1 1
node 15 1 1 1
node 16 1 1 1
node 17 1 1 1
node 18 1 1 1
node 19 1 1 1
node 20 1 1 1
node 21 1 1 1
node 22 1 1 1
node 23 1 1 1
node 24 1 1 1
node 25 1 1 1
node 26 1 1 1
node 27 1 1 1
node 28 1 1 1
node 29 1 1 1
node 30 1 1 3
node 31 1 0 2
node 32 1 0 2
node 33 1 0 2
gene 1 1 31 -3.00145 0 1 -3.00145 1
gene 1 1 32 -4.16996 0 2 -4.16996 1
gene 1 1 33 -1.2397 0 3 -1.2397 1
gene 1 2 31 -4.11135 0 4 -4.11135 1
gene 1 2 32 4.74607 0 5 4.74607 1
gene 1 2 33 2.52458 0 6 2.52458 1
gene 1 3 31 1.95205 0 7 1.95205 1
gene 1 3 32 2.01547 0 8 2.01547 1
gene 1 3 33 3.92908 0 9 3.92908 1
gene 1 4 31 1.14386 0 10 1.14386 1
gene 1 4 32 3.62777 0 11 3.62777 1
gene 1 4 33 -0.49704 0 12 -0.49704 1
gene 1 5 31 -2.11106 0 13 -2.11106 1
gene 1 5 32 0.795318 0 14 0.795318 1
gene 1 5 33 -4.31863 0 15 -4.31863 1
gene 1 6 31 4.23585 0 16 4.23585 1
gene 1 6 32 0.226428 0 17 0.226428 1
gene 1 6 33 -0.693678 0 18 -0.693678 1
gene 1 7 31 5 0 19 5 1
gene 1 7 32 -0.0939045 0 20 -0.0939045 1
gene 1 7 33 -2.9083 0 21 -2.9083 1
gene 1 8 31 2.07158 0 22 2.07158 1
gene 1 8 32 -5 0 23 -5 1
gene 1 8 33 0.776345 0 24 0.776345 1
gene 1 9 31 -0.139227 0 25 -0.139227 1
gene 1 9 32 2.27258 0 26 2.27258 1
gene 1 9 33 -1.47011 0 27 -1.47011 1
gene 1 10 31 -1.05633 0 28 -1.05633 1
gene 1 10 32 4.4674 0 29 4.4674 1
gene 1 10 33 3.92901 0 30 3.92901 1
gene 1 11 31 1.59574 0 31 1.59574 1
gene 1 11 32 2.83341 0 32 2.83341 1
gene 1 11 33 1.0456 0 33 1.0456 1
gene 1 12 31 -2.58706 0 34 -2.58706 1
gene 1 12 32 -3.46635 0 35 -3.46635 1
gene 1 12 33 -1.62373 0 36 -1.62373 1
gene 1 13 31 3.57968 0 37 3.57968 1
gene 1 13 32 0.501543 0 38 0.501543 1
gene 1 13 33 1.85117 0 39 1.85117 1
gene 1 14 31 -1.47913 0 40 -1.47913 1
gene 1 14 32 3.68537 0 41 3.68537 1
gene 1 14 33 3.71312 0 42 3.71312 1
gene 1 15 31 -0.743683 0 43 -0.743683 1
gene 1 15 32 -1.25657 0 44 -1.25657 1
gene 1 15 33 1.22742 0 45 1.22742 1
gene 1 16 31 1.22611 0 46 1.22611 1
gene 1 16 32 0.200504 0 47 0.200504 1
gene 1 16 33 0.960753 0 48 0.960753 1
gene 1 17 31 -5 0 49 -5 1
gene 1 17 32 -3.15951 0 50 -3.15951 1
gene 1 17 33 -0.540362 0 51 -0.540362 1
gene 1 18 31 -0.00306648 0 52 -0.00306648 1
gene 1 18 32 -2.44 0 53 -2.44 1
gene 1 18 33 1.67549 0 54 1.67549 1
gene 1 19 31 -2.90755 0 55 -2.90755 1
gene 1 19 32 -3.99598 0 56 -3.99598 1
gene 1 19 33 0.919051 0 57 0.919051 1
gene 1 20 31 -2.0966 0 58 -2.0966 1
gene 1 20 32 -0.213185 0 59 -0.213185 1
gene 1 20 33 -5 0 60 -5 1
gene 1 21 31 2.55485 0 61 2.55485 1
gene 1 21 32 -0.651166 0 62 -0.651166 1
gene 1 21 33 0.377893 0 63 0.377893 1
gene 1 22 31 4.79579 0 64 4.79579 1
gene 1 22 32 3.62145 0 65 3.62145 1
gene 1 22 33 -1.3604 0 66 -1.3604 1
gene 1 23 31 3.93968 0 67 3.93968 1
gene 1 23 32 0.143529 0 68 0.143529 1
gene 1 23 33 2.98091 0 69 2.98091 1
gene 1 24 31 -3.67588 0 70 -3.67588 1
gene 1 24 32 2.8118 0 71 2.8118 1
gene 1 24 33 -2.18145 0 72 -2.18145 1
gene 1 25 31 2.18555 0 73 2.18555 1
gene 1 25 32 -0.207446 0 74 -0.207446 1
gene 1 25 33 0.707902 0 75 0.707902 1
gene 1 26 31 -0.985987 0 76 -0.985987 1
gene 1 26 32 0.132638 0 77 0.132638 1
gene 1 26 33 2.01009 0 78 2.01009 1
gene 1 27 31 0.662697 0 79 0.662697 1
gene 1 27 32 -0.507244 0 80 -0.507244 1
gene 1 27 33 -0.508604 0 81 -0.508604 1
gene 1 28 31 -0.921014 0 82 -0.921014 1
gene 1 28 32 -0.17823 0 83 -0.17823 1
gene 1 28 33 -0.460746 0 84 -0.460746 1
gene 1 29 31 0.529418 0 85 0.529418 1
gene 1 29 32 -0.160254 0 86 -0.160254 1
gene 1 29 33 0.848295 0 87 0.848295 1
gene 1 30 31 0.926335 0 88 0.926335 1
gene 1 30 32 0.471713 0 89 0.471713 1
gene 1 30 33 0.160411 0 90 0.160411 1
genomeend 16

/* Organism #17 Fitness: 12997 Error: 0 */
genomestart 17
trait 1 0.1 0.776213 0 0.0368689 0 0 0 0 
node 1 1 1 1
node 2 1 1 1
node 3 1 1 1
node 4 1 1 1
node 5 1 1 1
node 6 1 1 1
node 7 1 1 1
node 8 1 1 1
node 9 1 1 1
node 10 1 1 1
node 11 1 1 1
node 12 1 1 1
node 13 1 1 1
node 14 1 1 1
node 15 1 1 1
node 16 1 1 1
node 17 1 1 1
node 18 1 1 1
node 19 1 1 1
node 20 1 1 1
node 21 1 1 1
node 22 1 1 1
node 23 1 1 1
node 24 1 1 1
node 25 1 1 1
node 26 1 1 1
node 27 1 1 1
node 28 1 1 1
node 29 1 1 1
node 30 1 1 3
node 31 1 0 2
node 32 1 0 2
node 33 1 0 2
gene 1 1 31 1.3549 0 1 1.3549 1
gene 1 1 32 -2.83721 0 2 -2.83721 1
gene 1 1 33 -1.39413 0 3 -1.39413 1
gene 1 2 31 0.0842995 0 4 0.0842995 1
gene 1 2 32 3.04604 0 5 3.04604 1
gene 1 2 33 0.476491 0 6 0.476491 1
gene 1 3 31 1.91018 0 7 1.91018 1
gene 1 3 32 4.31803 0 8 4.31803 1
gene 1 3 33 -1.00251 0 9 -1.00251 1
gene 1 4 31 -1.64146 0 10 -1.64146 1
gene 1 4 32 -0.989203 0 11 -0.989203 1
gene 1 4 33 -0.793276 0 12 -0.793276 1
gene 1 5 31 1.73621 0 13 1.73621 1
gene 1 5 32 0.950129 0 14 0.950129 1
gene 1 5 33 -1.31763 0 15 -1.31763 1
gene 1 6 31 2.9486 0 16 2.9486 1
gene 1 6 32 4.3847 0 17 4.3847 1
gene 1 6 33 0.0485416 0 18 0.0485416 1
gene 1 7 31 2.66023 0 19 2.66023 1
gene 1 7 32 0.913198 0 20 0.913198 1
gene 1 7 33 1.32426 0 21 1.32426 1
gene 1 8 31 -1.20695 0 22 -1.20695 1
gene 1 8 32 -3.83216 0 23 -3.83216 1
gene 1 8 33 -1.16797 0 24 -1.16797 1
gene 1 9 31 -2.7505 0 25 -2.7505 1
gene 1 9 32 0.818231 0 26 0.818231 1
gene 1 9 33 0.965899 0 27 0.965899 1
gene 1 10 31 2.0633 0 28 2.0633 1
gene 1 10 32 -0.842627 0 29 -0.842627 1
gene 1 10 33 1.87299 0 30 1.87299 1
gene 1 11 31 -0.488065 0 31 -0.488065 1
gene 1 11 32 0.530578 0 32 0.530578 1
gene 1 11 33 -3.30002 0 33 -3.30002 1
gene 1 12 31 -0.848034 0 34 -0.848034 1
gene 1 12 32 -0.722729 0 35 -0.722729 1
gene 1 12 33 -1.31251 0 36 -1.31251 1
gene 1 13 31 0.771354 0 37 0.771354 1
gene 1 13 32 -0.454929 0 38 -0.454929 1
gene 1 13 33 3.80563 0 39 3.80563 1
gene 1 14 31 -1.14825 0 40 -1.14825 1
gene 1 14 32 3.79151 0 41 3.79151 1
gene 1 14 33 1.1724 0 42 1.1724 1
gene 1 15 31 0.259301 0 43 0.259301 1
gene 1 15 32 -0.453156 0 44 -0.453156 1
gene 1 15 33 1.87135 0 45 1.87135 1
gene 1 16 31 -1.42431 0 46 -1.42431 1
gene 1 16 32 0.330464 0 47 0.330464 1
gene 1 16 33 0.0806511 0 48 0.0806511 1
gene 1 17 31 -0.808904 0 49 -0.808904 1
gene 1 17 32 -0.984385 0 50 -0.984385 1
gene 1 17 33 -1.59884 0 51 -1.59884 1
gene 1 18 31 0.366229 0 52 0.366229 1
gene 1 18 32 -4.03425 0 53 -4.03425 1
gene 1 18 33 1.53122 0 54 1.53122 1
gene 1 19 31 -2.18557 0 55 -2.18557 1
gene 1 19 32 -3.89993 0 56 -3.89993 1
gene 1 19 33 3.81013 0 57 3.81013 1
gene 1 20 31 1.10438 0 58 1.10438 1
gene 1 20 32 -0.249428 0 59 -0.249428 1
gene 1 20 33 -4.42542 0 60 -4.42542 1
gene 1 21 31 -0.791346 0 61 -0.791346 1
gene 1 21 32 2.95368 0 62 2.95368 1
gene 1 21 33 0.33069 0 63 0.33069 1
gene 1 22 31 -0.0779173 0 64 -0.0779173 1
gene 1 22 32 0.624652 0 65 0.624652 1
gene 1 22 33 1.02204 0 66 1.02204 1
gene 1 23 31 4.11639 0 67 4.11639 1
gene 1 23 32 1.23988 0 68 1.23988 1
gene 1 23 33 1.23977 0 69 1.23977 1
gene 1 24 31 -2.00355 0 70 -2.00355 1
gene 1 24 32 2.56885 0 71 2.56885 1
gene 1 24 33 -0.537637 0 72 -0.537637 1
gene 1 25 31 1.20277 0 73 1.20277 1
gene 1 25 32 0.317507 0 74 0.317507 1
gene 1 25 33 0.456107 0 75 0.456107 1
gene 1 26 31 1.7195 0 76 1.7195 1
gene 1 26 32 0.379094 0 77 0.379094 1
gene 1 26 33 0.854153 0 78 0.854153 1
gene 1 27 31 0.519346 0 79 0.519346 1
gene 1 27 32 -0.170123 0 80 -0.170123 1
gene 1 27 33 -0.929987 0 81 -0.929987 1
gene 1 28 31 -1.41556 0 82 -1.41556 1
gene 1 28 32 -0.798148 0 83 -0.798148 1
gene 1 28 33 0.111908 0 84 0.111908 1
gene 1 29 31 -0.0864581 0 85 -0.0864581 1
gene 1 29 32 0.596079 0 86 0.596079 1
gene 1 29 33 -0.404075 0 87 -0.404075 1
gene 1 30 31 -3.23944 0 88 -3.23944 1
gene 1 30 32 0.923126 0 89 0.923126 1
gene 1 30 33 -1.1526 0 90 -1.1526 1
genomeend 17

/* Organism #18 Fitness: 13182.6 Error: 0 */
genomestart 18
trait 1 0.1 0 0 0.14795 0.383406 1 0 0.067504 
node 1 1 1 1
node 2 1 1 1
node 3 1 1 1
node 4 1 1 1
node 5 1 1 1
node 6 1 1 1
node 7 1 1 1
node 8 1 1 1
node 9 1 1 1
node 10 1 1 1
node 11 1 1 1
node 12 1 1 1
node 13 1 1 1
node 14 1 1 1
node 15 1 1 1
node 16 1 1 1
node 17 1 1 1
node 18 1 1 1
node 19 1 1 1
node 20 1 1 1
node 21 1 1 1
node 22 1 1 1
node 23 1 1 1
node 24 1 1 1
node 25 1 1 1
node 26 1 1 1
node 27 1 1 1
node 28 1 1 1
node 29 1 1 1
node 30 1 1 3
node 31 1 0 2
node 32 1 0 2
node 33 1 0 2
gene 1 1 31 -0.732166 0 1 -0.732166 1
gene 1 1 32 -3.86391 0 2 -3.86391 1
gene 1 1 33 -0.888875 0 3 -0.888875 1
gene 1 2 31 -3.74235 0 4 -3.74235 1
gene 1 2 32 5 0 5 5 1
gene 1 2 33 1.93339 0 6 1.93339 1
gene 1 3 31 1.17189 0 7 1.17189 1
gene 1 3 32 2.66656 0 8 2.66656 1
gene 1 3 33 3.80795 0 9 3.80795 1
gene 1 4 31 0.979728 0 10 0.979728 1
gene 1 4 32 3.71015 0 11 3.71015 1
gene 1 4 33 -1.1616 0 12 -1.1616 1
gene 1 5 31 -1.79573 0 13 -1.79573 1
gene 1 5 32 1.79466 0 14 1.79466 1
gene 1 5 33 -0.507219 0 15 -0.507219 1
gene 1 6 31 3.17822 0 16 3.17822 1
gene 1 6 32 -1.46534 0 17 -1.46534 1
gene 1 6 33 0.483332 0 18 0.483332 1
gene 1 7 31 5 0 19 5 1
gene 1 7 32 0.970902 0 20 0.970902 1
gene 1 7 33 -3.08845 0 21 -3.08845 1
gene 1 8 31 1.9094 0 22 1.9094 1
gene 1 8 32 -4.73761 0 23 -4.73761 1
gene 1 8 33 3.55114 0 24 3.55114 1
gene 1 9 31 0.479822 0 25 0.479822 1
gene 1 9 32 3.62309 0 26 3.62309 1
gene 1 9 33 -1.07288 0 27 -1.07288 1
gene 1 10 31 0.160544 0 28 0.160544 1
gene 1 10 32 -0.54876 0 29 -0.54876 1
gene 1 10 33 -0.994551 0 30 -0.994551 1
gene 1 11 31 1.17354 0 31 1.17354 1
gene 1 11 32 0.963447 0 32 0.963447 1
gene 1 11 33 1.72057 0 33 1.72057 1
gene 1 12 31 -3.43872 0 34 -3.43872 1
gene 1 12 32 -1.56527 0 35 -1.56527 1
gene 1 12 33 0.665611 0 36 0.665611 1
gene 1 13 31 3.15596 0 37 3.15596 1
gene 1 13 32 -0.408764 0 38 -0.408764 1
gene 1 13 33 2.62846 0 39 2.62846 1
gene 1 14 31 -0.476575 0 40 -0.476575 1
gene 1 14 32 2.28762 0 41 2.28762 1
gene 1 14 33 2.19248 0 42 2.19248 1
gene 1 15 31 0.52824 0 43 0.52824 1
gene 1 15 32 -0.184859 0 44 -0.184859 1
gene 1 15 33 0.214801 0 45 0.214801 1
gene 1 16 31 -0.41367 0 46 -0.41367 1
gene 1 16 32 0.485187 0 47 0.485187 1
gene 1 16 33 1.83353 0 48 1.83353 1
gene 1 17 31 -4.83205 0 49 -4.83205 1
gene 1 17 32 -4.51713 0 50 -4.51713 1
gene 1 17 33 -2.64371 0 51 -2.64371 1
gene 1 18 31 -0.628797 0 52 -0.628797 1
gene 1 18 32 -1.19372 0 53 -1.19372 1
gene 1 18 33 0.00184605 0 54 0.00184605 1
gene 1 19 31 -3.13613 0 55 -3.13613 1
gene 1 19 32 -5 0 56 -5 1
gene 1 19 33 2.34404 0 57 2.34404 1
gene 1 20 31 -2.78756 0 58 -2.78756 1
gene 1 20 32 1.20527 0 59 1.20527 1
gene 1 20 33 -5 0 60 -5 1
gene 1 21 31 1.75459 0 61 1.75459 1
gene 1 21 32 0.926417 0 62 0.926417 1
gene 1 21 33 1.44313 0 63 1.44313 1
gene 1 22 31 5 0 64 5 1
gene 1 22 32 4.82682 0 65 4.82682 1
gene 1 22 33 -0.725457 0 66 -0.725457 1
gene 1 23 31 3.07536 0 67 3.07536 1
gene 1 23 32 1.29102 0 68 1.29102 1
gene 1 23 33 1.60225 0 69 1.60225 1
gene 1 24 31 -0.746448 0 70 -0.746448 1
gene 1 24 32 3.71445 0 71 3.71445 1
gene 1 24 33 -0.874597 0 72 -0.874597 1
gene 1 25 31 1.44912 0 73 1.44912 1
gene 1 25 32 -1.04836 0 74 -1.04836 1
gene 1 25 33 1.00981 0 75 1.00981 1
gene 1 26 31 -0.335546 0 76 -0.335546 1
gene 1 26 32 1.54555 0 77 1.54555 1
gene 1 26 33 -0.726313 0 78 -0.726313 1
gene 1 27 31 -0.928982 0 79 -0.928982 1
gene 1 27 32 0.184245 0 80 0.184245 1
gene 1 27 33 -0.346893 0 81 -0.346893 1
gene 1 28 31 -1.80408 0 82 -1.80408 1
gene 1 28 32 1.83911 0 83 1.83911 1
gene 1 28 33 -0.315758 0 84 -0.315758 1
gene 1 29 31 -2.1442 0 85 -2.1442 1
gene 1 29 32 0.98746 0 86 0.98746 1
gene 1 29 33 1.87685 0 87 1.87685 1
gene 1 30 31 0.630357 0 88 0.630357 1
gene 1 30 32 -0.154849 0 89 -0.154849 1
gene 1 30 33 -0.699622 0 90 -0.699622 1
genomeend 18

/* Organism #19 Fitness: 12907 Error: 0 */
genomestart 19
trait 1 0.1 0.776213 0 0.0368689 0 0 0 0 
node 1 1 1 1
node 2 1 1 1
node 3 1 1 1
node 4 1 1 1
node 5 1 1 1
node 6 1 1 1
node 7 1 1 1
node 8 1 1 1
node 9 1 1 1
node 10 1 1 1
node 11 1 1 1
node 12 1 1 1
node 13 1 1 1
node 14 1 1 1
node 15 1 1 1
node 16 1 1 1
node 17 1 1 1
node 18 1 1 1
node 19 1 1 1
node 20 1 1 1
node 21 1 1 1
node 22 1 1 1
node 23 1 1 1
node 24 1 1 1
node 25 1 1 1
node 26 1 1 1
node 27 1 1 1
node 28 1 1 1
node 29 1 1 1
node 30 1 1 3
node 31 1 0 2
node 32 1 0 2
node 33 1 0 2
gene 1 1 31 -1.59233 0 1 -1.59233 1
gene 1 1 32 -3.6332 0 2 -3.6332 1
gene 1 1 33 -2.8852 0 3 -2.8852 1
gene 1 2 31 0.802364 0 4 0.802364 1
gene 1 2 32 1.20758 0 5 1.20758 1
gene 1 2 33 -0.188677 0 6 -0.188677 1
gene 1 3 31 0.631338 0 7 0.631338 1
gene 1 3 32 3.01328 0 8 3.01328 1
gene 1 3 33 -0.713249 0 9 -0.713249 1
gene 1 4 31 -1.15904 0 10 -1.15904 1
gene 1 4 32 0.680456 0 11 0.680456 1
gene 1 4 33 -1.11295 0 12 -1.11295 1
gene 1 5 31 1.83068 0 13 1.83068 1
gene 1 5 32 0.590895 0 14 0.590895 1
gene 1 5 33 -1.54103 0 15 -1.54103 1
gene 1 6 31 1.58975 0 16 1.58975 1
gene 1 6 32 3.92694 0 17 3.92694 1
gene 1 6 33 2.63656 0 18 2.63656 1
gene 1 7 31 4.46633 0 19 4.46633 1
gene 1 7 32 -0.226797 0 20 -0.226797 1
gene 1 7 33 1.6257 0 21 1.6257 1
gene 1 8 31 -1.13987 0 22 -1.13987 1
gene 1 8 32 -2.03286 0 23 -2.03286 1
gene 1 8 33 1.84277 0 24 1.84277 1
gene 1 9 31 -2.83373 0 25 -2.83373 1
gene 1 9 32 0.416847 0 26 0.416847 1
gene 1 9 33 -1.49431 0 27 -1.49431 1
gene 1 10 31 2.88299 0 28 2.88299 1
gene 1 10 32 0.206611 0 29 0.206611 1
gene 1 10 33 1.69545 0 30 1.69545 1
gene 1 11 31 -1.09333 0 31 -1.09333 1
gene 1 11 32 0.158257 0 32 0.158257 1
gene 1 11 33 -2.56587 0 33 -2.56587 1
gene 1 12 31 -1.0389 0 34 -1.0389 1
gene 1 12 32 -1.06424 0 35 -1.06424 1
gene 1 12 33 -1.68771 0 36 -1.68771 1
gene 1 13 31 2.16749 0 37 2.16749 1
gene 1 13 32 -0.877764 0 38 -0.877764 1
gene 1 13 33 3.23227 0 39 3.23227 1
gene 1 14 31 -1.92048 0 40 -1.92048 1
gene 1 14 32 1.64232 0 41 1.64232 1
gene 1 14 33 1.27654 0 42 1.27654 1
gene 1 15 31 1.97591 0 43 1.97591 1
gene 1 15 32 -1.29302 0 44 -1.29302 1
gene 1 15 33 2.9167 0 45 2.9167 1
gene 1 16 31 -1.0762 0 46 -1.0762 1
gene 1 16 32 -1.03645 0 47 -1.03645 1
gene 1 16 33 1.27902 0 48 1.27902 1
gene 1 17 31 -0.462154 0 49 -0.462154 1
gene 1 17 32 -1.13757 0 50 -1.13757 1
gene 1 17 33 -0.329505 0 51 -0.329505 1
gene 1 18 31 -0.180334 0 52 -0.180334 1
gene 1 18 32 -3.84634 0 53 -3.84634 1
gene 1 18 33 2.05693 0 54 2.05693 1
gene 1 19 31 -0.320125 0 55 -0.320125 1
gene 1 19 32 -1.52467 0 56 -1.52467 1
gene 1 19 33 1.15939 0 57 1.15939 1
gene 1 20 31 1.00112 0 58 1.00112 1
gene 1 20 32 0.119654 0 59 0.119654 1
gene 1 20 33 -3.83559 0 60 -3.83559 1
gene 1 21 31 -0.0755722 0 61 -0.0755722 1
gene 1 21 32 0.333839 0 62 0.333839 1
gene 1 21 33 1.54576 0 63 1.54576 1
gene 1 22 31 -0.435362 0 64 -0.435362 1
gene 1 22 32 0.383679 0 65 0.383679 1
gene 1 22 33 2.24541 0 66 2.24541 1
gene 1 23 31 5 0 67 5 1
gene 1 23 32 -0.0242227 0 68 -0.0242227 1
gene 1 23 33 1.67312 0 69 1.67312 1
gene 1 24 31 -2.82248 0 70 -2.82248 1
gene 1 24 32 2.60257 0 71 2.60257 1
gene 1 24 33 -1.71855 0 72 -1.71855 1
gene 1 25 31 -0.101524 0 73 -0.101524 1
gene 1 25 32 0.828277 0 74 0.828277 1
gene 1 25 33 1.20447 0 75 1.20447 1
gene 1 26 31 -0.880315 0 76 -0.880315 1
gene 1 26 32 -1.95495 0 77 -1.95495 1
gene 1 26 33 1.89847 0 78 1.89847 1
gene 1 27 31 0.426554 0 79 0.426554 1
gene 1 27 32 -1.0408 0 80 -1.0408 1
gene 1 27 33 -0.0401968 0 81 -0.0401968 1
gene 1 28 31 -0.30339 0 82 -0.30339 1
gene 1 28 32 -0.0501097 0 83 -0.0501097 1
gene 1 28 33 -0.951993 0 84 -0.951993 1
gene 1 29 31 0.171062 0 85 0.171062 1
gene 1 29 32 1.04208 0 86 1.04208 1
gene 1 29 33 -0.147608 0 87 -0.147608 1
gene 1 30 31 -3.98629 0 88 -3.98629 1
gene 1 30 32 0.371904 0 89 0.371904 1
gene 1 30 33 -0.117212 0 90 -0.117212 1
genomeend 19

/* Organism #20 Fitness: 11229.9 Error: 0 */
genomestart 20
trait 1 0.1 0 0 0.14795 0.383406 1 0 0.067504 
node 1 1 1 1
node 2 1 1 1
node 3 1 1 1
node 4 1 1 1
node 5 1 1 1
node 6 1 1 1
node 7 1 1 1
node 8 1 1 1
node 9 1 1 1
node 10 1 1 1
node 11 1 1 1
node 12 1 1 1
node 13 1 1 1
node 14 1 1 1
node 15 1 1 1
node 16 1 1 1
node 17 1 1 1
node 18 1 1 1
node 19 1 1 1
node 20 1 1 1
node 21 1 1 1
node 22 1 1 1
node 23 1 1 1
node 24 1 1 1
node 25 1 1 1
node 26 1 1 1
node 27 1 1 1
node 28 1 1 1
node 29 1 1 1
node 30 1 1 3
node 31 1 0 2
node 32 1 0 2
node 33 1 0 2
gene 1 1 31 -1.62822 0 1 -1.62822 1
gene 1 1 32 -2.91828 0 2 -2.91828 1
gene 1 1 33 -0.888875 0 3 -0.888875 1
gene 1 2 31 -3.44134 0 4 -3.44134 1
gene 1 2 32 4.41932 0 5 4.41932 1
gene 1 2 33 1.29698 0 6 1.29698 1
gene 1 3 31 2.03478 0 7 2.03478 1
gene 1 3 32 3.28856 0 8 3.28856 1
gene 1 3 33 3.74693 0 9 3.74693 1
gene 1 4 31 0.776134 0 10 0.776134 1
gene 1 4 32 3.71015 0 11 3.71015 1
gene 1 4 33 -1.34205 0 12 -1.34205 1
gene 1 5 31 0.0637101 0 13 0.0637101 1
gene 1 5 32 2.35652 0 14 2.35652 1
gene 1 5 33 0.946118 0 15 0.946118 1
gene 1 6 31 3.92772 0 16 3.92772 1
gene 1 6 32 -1.76571 0 17 -1.76571 1
gene 1 6 33 -0.614064 0 18 -0.614064 1
gene 1 7 31 5 0 19 5 1
gene 1 7 32 0.970902 0 20 0.970902 1
gene 1 7 33 -3.35713 0 21 -3.35713 1
gene 1 8 31 1.85528 0 22 1.85528 1
gene 1 8 32 -4.21699 0 23 -4.21699 1
gene 1 8 33 2.56329 0 24 2.56329 1
gene 1 9 31 -0.314396 0 25 -0.314396 1
gene 1 9 32 0.505545 0 26 0.505545 1
gene 1 9 33 -0.872806 0 27 -0.872806 1
gene 1 10 31 0.160544 0 28 0.160544 1
gene 1 10 32 -0.987905 0 29 -0.987905 1
gene 1 10 33 -1.71156 0 30 -1.71156 1
gene 1 11 31 1.05323 0 31 1.05323 1
gene 1 11 32 0.418324 0 32 0.418324 1
gene 1 11 33 0.93706 0 33 0.93706 1
gene 1 12 31 0.582351 0 34 0.582351 1
gene 1 12 32 -0.783268 0 35 -0.783268 1
gene 1 12 33 0.782308 0 36 0.782308 1
gene 1 13 31 3.3788 0 37 3.3788 1
gene 1 13 32 -1.37207 0 38 -1.37207 1
gene 1 13 33 3.58855 0 39 3.58855 1
gene 1 14 31 -0.202345 0 40 -0.202345 1
gene 1 14 32 1.60578 0 41 1.60578 1
gene 1 14 33 0.715541 0 42 0.715541 1
gene 1 15 31 0.52824 0 43 0.52824 1
gene 1 15 32 -0.45113 0 44 -0.45113 1
gene 1 15 33 -0.194079 0 45 -0.194079 1
gene 1 16 31 -1.3434 0 46 -1.3434 1
gene 1 16 32 -0.0931204 0 47 -0.0931204 1
gene 1 16 33 2.48851 0 48 2.48851 1
gene 1 17 31 -4.05822 0 49 -4.05822 1
gene 1 17 32 -4.174 0 50 -4.174 1
gene 1 17 33 -2.36098 0 51 -2.36098 1
gene 1 18 31 0.232514 0 52 0.232514 1
gene 1 18 32 -1.06072 0 53 -1.06072 1
gene 1 18 33 -0.618402 0 54 -0.618402 1
gene 1 19 31 -3.4415 0 55 -3.4415 1
gene 1 19 32 -4.01187 0 56 -4.01187 1
gene 1 19 33 -0.172221 0 57 -0.172221 1
gene 1 20 31 -2.72985 0 58 -2.72985 1
gene 1 20 32 0.930665 0 59 0.930665 1
gene 1 20 33 -4.73797 0 60 -4.73797 1
gene 1 21 31 -0.736991 0 61 -0.736991 1
gene 1 21 32 0.926417 0 62 0.926417 1
gene 1 21 33 -0.0556072 0 63 -0.0556072 1
gene 1 22 31 5 0 64 5 1
gene 1 22 32 -0.379664 0 65 -0.379664 1
gene 1 22 33 -0.725457 0 66 -0.725457 1
gene 1 23 31 -0.855982 0 67 -0.855982 1
gene 1 23 32 0.617412 0 68 0.617412 1
gene 1 23 33 1.35378 0 69 1.35378 1
gene 1 24 31 -0.205788 0 70 -0.205788 1
gene 1 24 32 2.89004 0 71 2.89004 1
gene 1 24 33 -1.65614 0 72 -1.65614 1
gene 1 25 31 1.57675 0 73 1.57675 1
gene 1 25 32 -0.62993 0 74 -0.62993 1
gene 1 25 33 -0.920216 0 75 -0.920216 1
gene 1 26 31 -0.335546 0 76 -0.335546 1
gene 1 26 32 2.25868 0 77 2.25868 1
gene 1 26 33 -1.23861 0 78 -1.23861 1
gene 1 27 31 -1.02333 0 79 -1.02333 1
gene 1 27 32 -0.0488908 0 80 -0.0488908 1
gene 1 27 33 -0.271779 0 81 -0.271779 1
gene 1 28 31 -2.29709 0 82 -2.29709 1
gene 1 28 32 0.758132 0 83 0.758132 1
gene 1 28 33 -0.515909 0 84 -0.515909 1
gene 1 29 31 -2.58166 0 85 -2.58166 1
gene 1 29 32 1.76291 0 86 1.76291 1
gene 1 29 33 0.202241 0 87 0.202241 1
gene 1 30 31 1.52041 0 88 1.52041 1
gene 1 30 32 0.741764 0 89 0.741764 1
gene 1 30 33 -0.699622 0 90 -0.699622 1
genomeend 20

/* Organism #21 Fitness: 13982.6 Error: 0 */
genomestart 21
trait 1 0.1 0.776213 0 0.0368689 0 0 0 0 
node 1 1 1 1
node 2 1 1 1
node 3 1 1 1
node 4 1 1 1
node 5 1 1 1
node 6 1 1 1
node 7 1 1 1
node 8 1 1 1
node 9 1 1 1
node 10 1 1 1
node 11 1 1 1
node 12 1 1 1
node 13 1 1 1
node 14 1 1 1
node 15 1 1 1
node 16 1 1 1
node 17 1 1 1
node 18 1 1 1
node 19 1 1 1
node 20 1 1 1
node 21 1 1 1
node 22 1 1 1
node 23 1 1 1
node 24 1 1 1
node 25 1 1 1
node 26 1 1 1
node 27 1 1 1
node 28 1 1 1
node 29 1 1 1
node 30 1 1 3
node 31 1 0 2
node 32 1 0 2
node 33 1 0 2
gene 1 1 31 0.327596 0 1 0.327596 1
gene 1 1 32 -2.13088 0 2 -2.13088 1
gene 1 1 33 -2.57895 0 3 -2.57895 1
gene 1 2 31 0.83984 0 4 0.83984 1
gene 1 2 32 3.03727 0 5 3.03727 1
gene 1 2 33 -1.34418 0 6 -1.34418 1
gene 1 3 31 2.17264 0 7 2.17264 1
gene 1 3 32 3.81643 0 8 3.81643 1
gene 1 3 33 -0.866269 0 9 -0.866269 1
gene 1 4 31 0.508685 0 10 0.508685 1
gene 1 4 32 1.80585 0 11 1.80585 1
gene 1 4 33 -0.987413 0 12 -0.987413 1
gene 1 5 31 0.263102 0 13 0.263102 1
gene 1 5 32 0.413953 0 14 0.413953 1
gene 1 5 33 0.319229 0 15 0.319229 1
gene 1 6 31 1.77281 0 16 1.77281 1
gene 1 6 32 3.0719 0 17 3.0719 1
gene 1 6 33 1.67012 0 18 1.67012 1
gene 1 7 31 2.87393 0 19 2.87393 1
gene 1 7 32 0.0237 0 20 0.0237 1
gene 1 7 33 0.889558 0 21 0.889558 1
gene 1 8 31 -1.66313 0 22 -1.66313 1
gene 1 8 32 -2.83542 0 23 -2.83542 1
gene 1 8 33 1.04529 0 24 1.04529 1
gene 1 9 31 -2.60895 0 25 -2.60895 1
gene 1 9 32 -0.448341 0 26 -0.448341 1
gene 1 9 33 1.68203 0 27 1.68203 1
gene 1 10 31 1.51454 0 28 1.51454 1
gene 1 10 32 0.0186431 0 29 0.0186431 1
gene 1 10 33 0.769743 0 30 0.769743 1
gene 1 11 31 0.0920031 0 31 0.0920031 1
gene 1 11 32 -0.28004 0 32 -0.28004 1
gene 1 11 33 -1.1909 0 33 -1.1909 1
gene 1 12 31 1.42987 0 34 1.42987 1
gene 1 12 32 0.58325 0 35 0.58325 1
gene 1 12 33 0.757509 0 36 0.757509 1
gene 1 13 31 0.702058 0 37 0.702058 1
gene 1 13 32 -0.734161 0 38 -0.734161 1
gene 1 13 33 3.97386 0 39 3.97386 1
gene 1 14 31 -2.64304 0 40 -2.64304 1
gene 1 14 32 3.94192 0 41 3.94192 1
gene 1 14 33 0.607476 0 42 0.607476 1
gene 1 15 31 0.763486 0 43 0.763486 1
gene 1 15 32 0.482849 0 44 0.482849 1
gene 1 15 33 4.40705 0 45 4.40705 1
gene 1 16 31 -1.01284 0 46 -1.01284 1
gene 1 16 32 -1.559 0 47 -1.559 1
gene 1 16 33 -0.201054 0 48 -0.201054 1
gene 1 17 31 -0.0232955 0 49 -0.0232955 1
gene 1 17 32 -0.968003 0 50 -0.968003 1
gene 1 17 33 0.979057 0 51 0.979057 1
gene 1 18 31 -1.13883 0 52 -1.13883 1
gene 1 18 32 -4.07354 0 53 -4.07354 1
gene 1 18 33 0.361538 0 54 0.361538 1
gene 1 19 31 -1.46709 0 55 -1.46709 1
gene 1 19 32 -3.89028 0 56 -3.89028 1
gene 1 19 33 3.69072 0 57 3.69072 1
gene 1 20 31 0.702354 0 58 0.702354 1
gene 1 20 32 -0.246774 0 59 -0.246774 1
gene 1 20 33 -4.66493 0 60 -4.66493 1
gene 1 21 31 0.314988 0 61 0.314988 1
gene 1 21 32 1.53079 0 62 1.53079 1
gene 1 21 33 0.690983 0 63 0.690983 1
gene 1 22 31 -0.0428717 0 64 -0.0428717 1
gene 1 22 32 -0.901777 0 65 -0.901777 1
gene 1 22 33 2.60281 0 66 2.60281 1
gene 1 23 31 5 0 67 5 1
gene 1 23 32 -0.353282 0 68 -0.353282 1
gene 1 23 33 2.82667 0 69 2.82667 1
gene 1 24 31 -3.7181 0 70 -3.7181 1
gene 1 24 32 0.73865 0 71 0.73865 1
gene 1 24 33 1.93651 0 72 1.93651 1
gene 1 25 31 -0.880617 0 73 -0.880617 1
gene 1 25 32 0.457273 0 74 0.457273 1
gene 1 25 33 0.487753 0 75 0.487753 1
gene 1 26 31 1.06728 0 76 1.06728 1
gene 1 26 32 0.909167 0 77 0.909167 1
gene 1 26 33 0.0680643 0 78 0.0680643 1
gene 1 27 31 0.0381393 0 79 0.0381393 1
gene 1 27 32 -1.17468 0 80 -1.17468 1
gene 1 27 33 0.00530664 0 81 0.00530664 1
gene 1 28 31 0.0137964 0 82 0.0137964 1
gene 1 28 32 -0.48413 0 83 -0.48413 1
gene 1 28 33 1.21466 0 84 1.21466 1
gene 1 29 31 -0.356724 0 85 -0.356724 1
gene 1 29 32 0.133213 0 86 0.133213 1
gene 1 29 33 -0.781323 0 87 -0.781323 1
gene 1 30 31 -3.27844 0 88 -3.27844 1
gene 1 30 32 0.459354 0 89 0.459354 1
gene 1 30 33 -0.911041 0 90 -0.911041 1
genomeend 21

/* Organism #22 Fitness: 5843.2 Error: 0 */
genomestart 22
trait 1 0.1 0.776213 0 0.0368689 0 0 0 0 
node 1 1 1 1
node 2 1 1 1
node 3 1 1 1
node 4 1 1 1
node 5 1 1 1
node 6 1 1 1
node 7 1 1 1
node 8 1 1 1
node 9 1 1 1
node 10 1 1 1
node 11 1 1 1
node 12 1 1 1
node 13 1 1 1
node 14 1 1 1
node 15 1 1 1
node 16 1 1 1
node 17 1 1 1
node 18 1 1 1
node 19 1 1 1
node 20 1 1 1
node 21 1 1 1
node 22 1 1 1
node 23 1 1 1
node 24 1 1 1
node 25 1 1 1
node 26 1 1 1
node 27 1 1 1
node 28 1 1 1
node 29 1 1 1
node 30 1 1 3
node 31 1 0 2
node 32 1 0 2
node 33 1 0 2
gene 1 1 31 -0.842456 0 1 -0.842456 1
gene 1 1 32 -3.88538 0 2 -3.88538 1
gene 1 1 33 -0.775566 0 3 -0.775566 1
gene 1 2 31 -0.52282 0 4 -0.52282 1
gene 1 2 32 2.42931 0 5 2.42931 1
gene 1 2 33 -1.70244 0 6 -1.70244 1
gene 1 3 31 0.600288 0 7 0.600288 1
gene 1 3 32 3.19489 0 8 3.19489 1
gene 1 3 33 0.235838 0 9 0.235838 1
gene 1 4 31 -1.40024 0 10 -1.40024 1
gene 1 4 32 0.144328 0 11 0.144328 1
gene 1 4 33 -1.56569 0 12 -1.56569 1
gene 1 5 31 0.6693 0 13 0.6693 1
gene 1 5 32 0.124852 0 14 0.124852 1
gene 1 5 33 -1.23803 0 15 -1.23803 1
gene 1 6 31 3.31856 0 16 3.31856 1
gene 1 6 32 3.27278 0 17 3.27278 1
gene 1 6 33 0.866914 0 18 0.866914 1
gene 1 7 31 2.52656 0 19 2.52656 1
gene 1 7 32 -0.885077 0 20 -0.885077 1
gene 1 7 33 0.74895 0 21 0.74895 1
gene 1 8 31 -0.591406 0 22 -0.591406 1
gene 1 8 32 0.63191 0 23 0.63191 1
gene 1 8 33 0.0597121 0 24 0.0597121 1
gene 1 9 31 -3.30803 0 25 -3.30803 1
gene 1 9 32 0.320375 0 26 0.320375 1
gene 1 9 33 2.44518 0 27 2.44518 1
gene 1 10 31 -0.595833 0 28 -0.595833 1
gene 1 10 32 -0.769886 0 29 -0.769886 1
gene 1 10 33 1.72022 0 30 1.72022 1
gene 1 11 31 -0.862084 0 31 -0.862084 1
gene 1 11 32 -1.37195 0 32 -1.37195 1
gene 1 11 33 1.45853 0 33 1.45853 1
gene 1 12 31 -0.878489 0 34 -0.878489 1
gene 1 12 32 -0.139731 0 35 -0.139731 1
gene 1 12 33 -0.757363 0 36 -0.757363 1
gene 1 13 31 0.811648 0 37 0.811648 1
gene 1 13 32 -0.280225 0 38 -0.280225 1
gene 1 13 33 -0.698707 0 39 -0.698707 1
gene 1 14 31 0.654424 0 40 0.654424 1
gene 1 14 32 -0.486282 0 41 -0.486282 1
gene 1 14 33 -0.280566 0 42 -0.280566 1
gene 1 15 31 -0.388097 0 43 -0.388097 1
gene 1 15 32 -0.322896 0 44 -0.322896 1
gene 1 15 33 3.29076 0 45 3.29076 1
gene 1 16 31 -0.461665 0 46 -0.461665 1
gene 1 16 32 0.14296 0 47 0.14296 1
gene 1 16 33 0.486212 0 48 0.486212 1
gene 1 17 31 0.00720615 0 49 0.00720615 1
gene 1 17 32 0.552807 0 50 0.552807 1
gene 1 17 33 -1.75259 0 51 -1.75259 1
gene 1 18 31 -0.34016 0 52 -0.34016 1
gene 1 18 32 -3.79979 0 53 -3.79979 1
gene 1 18 33 -0.665205 0 54 -0.665205 1
gene 1 19 31 -2.45546 0 55 -2.45546 1
gene 1 19 32 -3.20352 0 56 -3.20352 1
gene 1 19 33 3.0749 0 57 3.0749 1
gene 1 20 31 -0.259539 0 58 -0.259539 1
gene 1 20 32 0.0100237 0 59 0.0100237 1
gene 1 20 33 -5 0 60 -5 1
gene 1 21 31 -0.450948 0 61 -0.450948 1
gene 1 21 32 2.35232 0 62 2.35232 1
gene 1 21 33 1.48917 0 63 1.48917 1
gene 1 22 31 -0.235905 0 64 -0.235905 1
gene 1 22 32 -1.15114 0 65 -1.15114 1
gene 1 22 33 0.107519 0 66 0.107519 1
gene 1 23 31 4.70116 0 67 4.70116 1
gene 1 23 32 0.48268 0 68 0.48268 1
gene 1 23 33 1.94712 0 69 1.94712 1
gene 1 24 31 0.243252 0 70 0.243252 1
gene 1 24 32 2.73431 0 71 2.73431 1
gene 1 24 33 -0.968352 0 72 -0.968352 1
gene 1 25 31 0.827506 0 73 0.827506 1
gene 1 25 32 -1.61579 0 74 -1.61579 1
gene 1 25 33 -0.258183 0 75 -0.258183 1
gene 1 26 31 -0.732382 0 76 -0.732382 1
gene 1 26 32 -0.972828 0 77 -0.972828 1
gene 1 26 33 -0.860313 0 78 -0.860313 1
gene 1 27 31 -0.228621 0 79 -0.228621 1
gene 1 27 32 -1.20727 0 80 -1.20727 1
gene 1 27 33 0.881919 0 81 0.881919 1
gene 1 28 31 -0.778662 0 82 -0.778662 1
gene 1 28 32 -2.54902 0 83 -2.54902 1
gene 1 28 33 -0.328675 0 84 -0.328675 1
gene 1 29 31 -0.236926 0 85 -0.236926 1
gene 1 29 32 -0.387475 0 86 -0.387475 1
gene 1 29 33 -0.744647 0 87 -0.744647 1
gene 1 30 31 -2.80216 0 88 -2.80216 1
gene 1 30 32 1.07468 0 89 1.07468 1
gene 1 30 33 -1.97394 0 90 -1.97394 1
genomeend 22

/* Organism #23 Fitness: 2225.5 Error: 0 */
genomestart 23
trait 1 0.1 0 0.0905046 0.14795 0.383406 0.0563433 0 0.915246 
node 1 1 1 1
node 2 1 1 1
node 3 1 1 1
node 4 1 1 1
node 5 1 1 1
node 6 1 1 1
node 7 1 1 1
node 8 1 1 1
node 9 1 1 1
node 10 1 1 1
node 11 1 1 1
node 12 1 1 1
node 13 1 1 1
node 14 1 1 1
node 15 1 1 1
node 16 1 1 1
node 17 1 1 1
node 18 1 1 1
node 19 1 1 1
node 20 1 1 1
node 21 1 1 1
node 22 1 1 1
node 23 1 1 1
node 24 1 1 1
node 25 1 1 1
node 26 1 1 1
node 27 1 1 1
node 28 1 1 1
node 29 1 1 1
node 30 1 1 3
node 31 1 0 2
node 32 1 0 2
node 33 1 0 2
gene 1 1 31 -2.15535 0 1 -2.15535 1
gene 1 1 32 -4.16573 0 2 -4.16573 1
gene 1 1 33 -1.17539 0 3 -1.17539 1
gene 1 2 31 -5 0 4 -5 1
gene 1 2 32 4.03237 0 5 4.03237 1
gene 1 2 33 2.74312 0 6 2.74312 1
gene 1 3 31 2.21189 0 7 2.21189 1
gene 1 3 32 1.86034 0 8 1.86034 1
gene 1 3 33 4.51309 0 9 4.51309 1
gene 1 4 31 1.10751 0 10 1.10751 1
gene 1 4 32 2.70009 0 11 2.70009 1
gene 1 4 33 -1.19528 0 12 -1.19528 1
gene 1 5 31 -1.37476 0 13 -1.37476 1
gene 1 5 32 2.30984 0 14 2.30984 1
gene 1 5 33 -4.24953 0 15 -4.24953 1
gene 1 6 31 2.61517 0 16 2.61517 1
gene 1 6 32 -1.09073 0 17 -1.09073 1
gene 1 6 33 -0.952516 0 18 -0.952516 1
gene 1 7 31 4.52238 0 19 4.52238 1
gene 1 7 32 -0.596174 0 20 -0.596174 1
gene 1 7 33 -2.43094 0 21 -2.43094 1
gene 1 8 31 1.75599 0 22 1.75599 1
gene 1 8 32 -4.01337 0 23 -4.01337 1
gene 1 8 33 0.588767 0 24 0.588767 1
gene 1 9 31 -0.328462 0 25 -0.328462 1
gene 1 9 32 3.08057 0 26 3.08057 1
gene 1 9 33 -2.41799 0 27 -2.41799 1
gene 1 10 31 -0.862912 0 28 -0.862912 1
gene 1 10 32 3.51674 0 29 3.51674 1
gene 1 10 33 4.21933 0 30 4.21933 1
gene 1 11 31 -0.392887 0 31 -0.392887 1
gene 1 11 32 2.04531 0 32 2.04531 1
gene 1 11 33 1.87232 0 33 1.87232 1
gene 1 12 31 -3.45582 0 34 -3.45582 1
gene 1 12 32 -3.59536 0 35 -3.59536 1
gene 1 12 33 -0.99237 0 36 -0.99237 1
gene 1 13 31 2.66051 0 37 2.66051 1
gene 1 13 32 2.4673 0 38 2.4673 1
gene 1 13 33 2.68842 0 39 2.68842 1
gene 1 14 31 -0.655185 0 40 -0.655185 1
gene 1 14 32 2.45688 0 41 2.45688 1
gene 1 14 33 3.34101 0 42 3.34101 1
gene 1 15 31 1.14039 0 43 1.14039 1
gene 1 15 32 -0.0841912 0 44 -0.0841912 1
gene 1 15 33 0.142377 0 45 0.142377 1
gene 1 16 31 1.21055 0 46 1.21055 1
gene 1 16 32 1.15818 0 47 1.15818 1
gene 1 16 33 -0.225474 0 48 -0.225474 1
gene 1 17 31 -4.29916 0 49 -4.29916 1
gene 1 17 32 0.746869 0 50 0.746869 1
gene 1 17 33 -1.28289 0 51 -1.28289 1
gene 1 18 31 -0.147179 0 52 -0.147179 1
gene 1 18 32 -2.41527 0 53 -2.41527 1
gene 1 18 33 1.17271 0 54 1.17271 1
gene 1 19 31 -2.89843 0 55 -2.89843 1
gene 1 19 32 -3.92691 0 56 -3.92691 1
gene 1 19 33 1.97761 0 57 1.97761 1
gene 1 20 31 -0.513687 0 58 -0.513687 1
gene 1 20 32 0.685278 0 59 0.685278 1
gene 1 20 33 -4.9303 0 60 -4.9303 1
gene 1 21 31 1.1288 0 61 1.1288 1
gene 1 21 32 1.6117 0 62 1.6117 1
gene 1 21 33 0.795307 0 63 0.795307 1
gene 1 22 31 4.66319 0 64 4.66319 1
gene 1 22 32 0.610364 0 65 0.610364 1
gene 1 22 33 -0.404956 0 66 -0.404956 1
gene 1 23 31 4.73946 0 67 4.73946 1
gene 1 23 32 -0.7027 0 68 -0.7027 1
gene 1 23 33 2.19683 0 69 2.19683 1
gene 1 24 31 -2.50054 0 70 -2.50054 1
gene 1 24 32 4.0749 0 71 4.0749 1
gene 1 24 33 -1.50201 0 72 -1.50201 1
gene 1 25 31 2.61002 0 73 2.61002 1
gene 1 25 32 0.0741482 0 74 0.0741482 1
gene 1 25 33 0.646499 0 75 0.646499 1
gene 1 26 31 1.1611 0 76 1.1611 1
gene 1 26 32 -0.13998 0 77 -0.13998 1
gene 1 26 33 2.38096 0 78 2.38096 1
gene 1 27 31 -0.569838 0 79 -0.569838 1
gene 1 27 32 -0.74677 0 80 -0.74677 1
gene 1 27 33 -0.927864 0 81 -0.927864 1
gene 1 28 31 -0.148651 0 82 -0.148651 1
gene 1 28 32 0.655336 0 83 0.655336 1
gene 1 28 33 -0.442411 0 84 -0.442411 1
gene 1 29 31 0.545491 0 85 0.545491 1
gene 1 29 32 0.935995 0 86 0.935995 1
gene 1 29 33 1.81472 0 87 1.81472 1
gene 1 30 31 1.50992 0 88 1.50992 1
gene 1 30 32 0.421667 0 89 0.421667 1
gene 1 30 33 -0.471847 0 90 -0.471847 1
genomeend 23

/* Organism #24 Fitness: 535.5 Error: 0 */
genomestart 24
trait 1 0.1 0.776213 0 0.0368689 0 0 0 0 
node 1 1 1 1
node 2 1 1 1
node 3 1 1 1
node 4 1 1 1
node 5 1 1 1
node 6 1 1 1
node 7 1 1 1
node 8 1 1 1
node 9 1 1 1
node 10 1 1 1
node 11 1 1 1
node 12 1 1 1
node 13 1 1 1
node 14 1 1 1
node 15 1 1 1
node 16 1 1 1
node 17 1 1 1
node 18 1 1 1
node 19 1 1 1
node 20 1 1 1
node 21 1 1 1
node 22 1 1 1
node 23 1 1 1
node 24 1 1 1
node 25 1 1 1
node 26 1 1 1
node 27 1 1 1
node 28 1 1 1
node 29 1 1 1
node 30 1 1 3
node 31 1 0 2
node 32 1 0 2
node 33 1 0 2
gene 1 1 31 -0.89658 0 1 -0.89658 1
gene 1 1 32 -3.43006 0 2 -3.43006 1
gene 1 1 33 -3.10968 0 3 -3.10968 1
gene 1 2 31 -0.802122 0 4 -0.802122 1
gene 1 2 32 0.982026 0 5 0.982026 1
gene 1 2 33 -0.198169 0 6 -0.198169 1
gene 1 3 31 -0.743784 0 7 -0.743784 1
gene 1 3 32 0.246663 0 8 0.246663 1
gene 1 3 33 -0.717073 0 9 -0.717073 1
gene 1 4 31 0.946467 0 10 0.946467 1
gene 1 4 32 0.829195 0 11 0.829195 1
gene 1 4 33 -0.609374 0 12 -0.609374 1
gene 1 5 31 2.00639 0 13 2.00639 1
gene 1 5 32 0.136734 0 14 0.136734 1
gene 1 5 33 -0.757538 0 15 -0.757538 1
gene 1 6 31 2.15942 0 16 2.15942 1
gene 1 6 32 -0.973011 0 17 -0.973011 1
gene 1 6 33 2.53297 0 18 2.53297 1
gene 1 7 31 4.35626 0 19 4.35626 1
gene 1 7 32 0.42098 0 20 0.42098 1
gene 1 7 33 1.46658 0 21 1.46658 1
gene 1 8 31 -0.189611 0 22 -0.189611 1
gene 1 8 32 -1.35764 0 23 -1.35764 1
gene 1 8 33 1.83966 0 24 1.83966 1
gene 1 9 31 -0.551055 0 25 -0.551055 1
gene 1 9 32 1.15759 0 26 1.15759 1
gene 1 9 33 -2.04471 0 27 -2.04471 1
gene 1 10 31 2.40596 0 28 2.40596 1
gene 1 10 32 0.206611 0 29 0.206611 1
gene 1 10 33 1.68927 0 30 1.68927 1
gene 1 11 31 -0.338897 0 31 -0.338897 1
gene 1 11 32 0.158257 0 32 0.158257 1
gene 1 11 33 -2.14714 0 33 -2.14714 1
gene 1 12 31 -0.276489 0 34 -0.276489 1
gene 1 12 32 -0.324058 0 35 -0.324058 1
gene 1 12 33 -1.35848 0 36 -1.35848 1
gene 1 13 31 1.38008 0 37 1.38008 1
gene 1 13 32 -1.32015 0 38 -1.32015 1
gene 1 13 33 2.69144 0 39 2.69144 1
gene 1 14 31 -1.83393 0 40 -1.83393 1
gene 1 14 32 1.61629 0 41 1.61629 1
gene 1 14 33 1.78453 0 42 1.78453 1
gene 1 15 31 -0.141825 0 43 -0.141825 1
gene 1 15 32 -1.39625 0 44 -1.39625 1
gene 1 15 33 3.44564 0 45 3.44564 1
gene 1 16 31 -0.873745 0 46 -0.873745 1
gene 1 16 32 -0.342999 0 47 -0.342999 1
gene 1 16 33 2.25396 0 48 2.25396 1
gene 1 17 31 -0.311651 0 49 -0.311651 1
gene 1 17 32 -0.807345 0 50 -0.807345 1
gene 1 17 33 -0.167639 0 51 -0.167639 1
gene 1 18 31 -0.180334 0 52 -0.180334 1
gene 1 18 32 -0.447933 0 53 -0.447933 1
gene 1 18 33 -0.767188 0 54 -0.767188 1
gene 1 19 31 0.445308 0 55 0.445308 1
gene 1 19 32 -1.52467 0 56 -1.52467 1
gene 1 19 33 1.3522 0 57 1.3522 1
gene 1 20 31 1.9142 0 58 1.9142 1
gene 1 20 32 0.751226 0 59 0.751226 1
gene 1 20 33 -0.898669 0 60 -0.898669 1
gene 1 21 31 -0.796119 0 61 -0.796119 1
gene 1 21 32 -0.851636 0 62 -0.851636 1
gene 1 21 33 0.762921 0 63 0.762921 1
gene 1 22 31 0.497523 0 64 0.497523 1
gene 1 22 32 0.383679 0 65 0.383679 1
gene 1 22 33 2.24541 0 66 2.24541 1
gene 1 23 31 -0.571994 0 67 -0.571994 1
gene 1 23 32 -0.0651177 0 68 -0.0651177 1
gene 1 23 33 2.0957 0 69 2.0957 1
gene 1 24 31 -2.63727 0 70 -2.63727 1
gene 1 24 32 2.16302 0 71 2.16302 1
gene 1 24 33 -1.93019 0 72 -1.93019 1
gene 1 25 31 -0.101524 0 73 -0.101524 1
gene 1 25 32 0.828277 0 74 0.828277 1
gene 1 25 33 1.20447 0 75 1.20447 1
gene 1 26 31 -1.12727 0 76 -1.12727 1
gene 1 26 32 -0.285067 0 77 -0.285067 1
gene 1 26 33 0.0188179 0 78 0.0188179 1
gene 1 27 31 0.849699 0 79 0.849699 1
gene 1 27 32 -1.68935 0 80 -1.68935 1
gene 1 27 33 0.0252595 0 81 0.0252595 1
gene 1 28 31 -1.01852 0 82 -1.01852 1
gene 1 28 32 0.472631 0 83 0.472631 1
gene 1 28 33 -0.0559782 0 84 -0.0559782 1
gene 1 29 31 0.773206 0 85 0.773206 1
gene 1 29 32 1.44865 0 86 1.44865 1
gene 1 29 33 -0.302993 0 87 -0.302993 1
gene 1 30 31 0.484246 0 88 0.484246 1
gene 1 30 32 1.23531 0 89 1.23531 1
gene 1 30 33 0.0720339 0 90 0.0720339 1
genomeend 24

/* Organism #25 Fitness: 2633 Error: 0 */
genomestart 25
trait 1 0.554212 0.719857 0.462917 0.802779 0 0.113558 0.185592 0 
node 1 1 1 1
node 2 1 1 1
node 3 1 1 1
node 4 1 1 1
node 5 1 1 1
node 6 1 1 1
node 7 1 1 1
node 8 1 1 1
node 9 1 1 1
node 10 1 1 1
node 11 1 1 1
node 12 1 1 1
node 13 1 1 1
node 14 1 1 1
node 15 1 1 1
node 16 1 1 1
node 17 1 1 1
node 18 1 1 1
node 19 1 1 1
node 20 1 1 1
node 21 1 1 1
node 22 1 1 1
node 23 1 1 1
node 24 1 1 1
node 25 1 1 1
node 26 1 1 1
node 27 1 1 1
node 28 1 1 1
node 29 1 1 1
node 30 1 1 3
node 31 1 0 2
node 32 1 0 2
node 33 1 0 2
gene 1 1 31 1.34747 0 1 1.34747 1
gene 1 1 32 -2.14554 0 2 -2.14554 1
gene 1 1 33 -1.42585 0 3 -1.42585 1
gene 1 2 31 0.458949 0 4 0.458949 1
gene 1 2 32 3.60904 0 5 3.60904 1
gene 1 2 33 -0.526109 0 6 -0.526109 1
gene 1 3 31 2.58888 0 7 2.58888 1
gene 1 3 32 4.52457 0 8 4.52457 1
gene 1 3 33 -1.80545 0 9 -1.80545 1
gene 1 4 31 0.0964889 0 10 0.0964889 1
gene 1 4 32 1.57492 0 11 1.57492 1
gene 1 4 33 0.228759 0 12 0.228759 1
gene 1 5 31 0.430755 0 13 0.430755 1
gene 1 5 32 0.507679 0 14 0.507679 1
gene 1 5 33 -0.234684 0 15 -0.234684 1
gene 1 6 31 0.569099 0 16 0.569099 1
gene 1 6 32 3.16431 0 17 3.16431 1
gene 1 6 33 0.253494 0 18 0.253494 1
gene 1 7 31 2.51832 0 19 2.51832 1
gene 1 7 32 0.340615 0 20 0.340615 1
gene 1 7 33 2.22083 0 21 2.22083 1
gene 1 8 31 -2.63256 0 22 -2.63256 1
gene 1 8 32 -2.47159 0 23 -2.47159 1
gene 1 8 33 2.03948 0 24 2.03948 1
gene 1 9 31 -2.40293 0 25 -2.40293 1
gene 1 9 32 -0.423007 0 26 -0.423007 1
gene 1 9 33 1.9337 0 27 1.9337 1
gene 1 10 31 2.50037 0 28 2.50037 1
gene 1 10 32 0.922781 0 29 0.922781 1
gene 1 10 33 0.682785 0 30 0.682785 1
gene 1 11 31 0.715218 0 31 0.715218 1
gene 1 11 32 -0.117828 0 32 -0.117828 1
gene 1 11 33 -2.35394 0 33 -2.35394 1
gene 1 12 31 -0.303107 0 34 -0.303107 1
gene 1 12 32 -0.449442 0 35 -0.449442 1
