/* Organism #4 Fitness: 14475.712000 Time: 0 */
genomestart 4
trait 1 0.100000 0.000000 0.922508 0.488577 0.000000 0.000000 0.411029 0.000000 
node 1 1 1 1
node 2 1 1 1
node 3 1 1 1
node 4 1 1 1
node 5 1 1 1
node 6 1 1 1
node 7 1 1 1
node 8 1 1 1
node 9 1 1 1
node 10 1 1 1
node 11 1 1 1
node 12 1 1 1
node 13 1 1 1
node 14 1 1 1
node 15 1 1 1
node 16 1 1 1
node 17 1 1 1
node 18 1 1 1
node 19 1 1 1
node 20 1 1 1
node 21 1 1 1
node 22 1 1 1
node 23 1 1 1
node 24 1 1 1
node 25 1 1 1
node 26 1 1 1
node 27 1 1 1
node 28 1 1 1
node 29 1 1 1
node 30 1 1 3
node 31 1 0 2
node 32 1 0 2
node 33 1 0 2
gene 1 1 31 -3.67694 0 1 -3.67694 1
gene 1 1 32 -2.51731 0 2 -2.51731 1
gene 1 1 33 -1.71244 0 3 -1.71244 1
gene 1 2 31 2.18666 0 4 2.18666 1
gene 1 2 32 3.33383 0 5 3.33383 1
gene 1 2 33 1.54606 0 6 1.54606 1
gene 1 3 31 1.96477 0 7 1.96477 1
gene 1 3 32 2.65567 0 8 2.65567 1
gene 1 3 33 -0.361262 0 9 -0.361262 1
gene 1 4 31 -1.34248 0 10 -1.34248 1
gene 1 4 32 1.16127 0 11 1.16127 1
gene 1 4 33 -1.4783 0 12 -1.4783 1
gene 1 5 31 -1.84578 0 13 -1.84578 1
gene 1 5 32 1.45812 0 14 1.45812 1
gene 1 5 33 -0.90068 0 15 -0.90068 1
gene 1 6 31 -0.291439 0 16 -0.291439 1
gene 1 6 32 -0.00419405 0 17 -0.00419405 1
gene 1 6 33 1.59617 0 18 1.59617 1
gene 1 7 31 0.952437 0 19 0.952437 1
gene 1 7 32 -0.445582 0 20 -0.445582 1
gene 1 7 33 -0.45437 0 21 -0.45437 1
gene 1 8 31 0.663646 0 22 0.663646 1
gene 1 8 32 -4.56215 0 23 -4.56215 1
gene 1 8 33 2.57949 0 24 2.57949 1
gene 1 9 31 -1.13283 0 25 -1.13283 1
gene 1 9 32 -0.178404 0 26 -0.178404 1
gene 1 9 33 2.47549 0 27 2.47549 1
gene 1 10 31 -0.43317 0 28 -0.43317 1
gene 1 10 32 -0.589521 0 29 -0.589521 1
gene 1 10 33 -0.475748 0 30 -0.475748 1
gene 1 11 31 -2.25455 0 31 -2.25455 1
gene 1 11 32 -0.337608 0 32 -0.337608 1
gene 1 11 33 -2.02228 0 33 -2.02228 1
gene 1 12 31 1.46221 0 34 1.46221 1
gene 1 12 32 -1.49512 0 35 -1.49512 1
gene 1 12 33 0.269923 0 36 0.269923 1
gene 1 13 31 -2.28076 0 37 -2.28076 1
gene 1 13 32 0.308896 0 38 0.308896 1
gene 1 13 33 0.590201 0 39 0.590201 1
gene 1 14 31 -2.15989 0 40 -2.15989 1
gene 1 14 32 1.09108 0 41 1.09108 1
gene 1 14 33 0.223685 0 42 0.223685 1
gene 1 15 31 -4.17739 0 43 -4.17739 1
gene 1 15 32 -2.71228 0 44 -2.71228 1
gene 1 15 33 -1.49331 0 45 -1.49331 1
gene 1 16 31 -0.779825 0 46 -0.779825 1
gene 1 16 32 -0.518532 0 47 -0.518532 1
gene 1 16 33 0.722868 0 48 0.722868 1
gene 1 17 31 -0.486489 0 49 -0.486489 1
gene 1 17 32 -0.323213 0 50 -0.323213 1
gene 1 17 33 -0.119531 0 51 -0.119531 1
gene 1 18 31 4.40071 0 52 4.40071 1
gene 1 18 32 4.01157 0 53 4.01157 1
gene 1 18 33 0.750826 0 54 0.750826 1
gene 1 19 31 -4.69048 0 55 -4.69048 1
gene 1 19 32 2.38897 0 56 2.38897 1
gene 1 19 33 2.27518 0 57 2.27518 1
gene 1 20 31 -0.957457 0 58 -0.957457 1
gene 1 20 32 -0.941895 0 59 -0.941895 1
gene 1 20 33 -1.3307 0 60 -1.3307 1
gene 1 21 31 -0.91876 0 61 -0.91876 1
gene 1 21 32 -0.876854 0 62 -0.876854 1
gene 1 21 33 0.497544 0 63 0.497544 1
gene 1 22 31 0.713063 0 64 0.713063 1
gene 1 22 32 -0.945826 0 65 -0.945826 1
gene 1 22 33 0.484935 0 66 0.484935 1
gene 1 23 31 -0.261369 0 67 -0.261369 1
gene 1 23 32 -1.74879 0 68 -1.74879 1
gene 1 23 33 0.37375 0 69 0.37375 1
gene 1 24 31 -0.831032 0 70 -0.831032 1
gene 1 24 32 -0.0760103 0 71 -0.0760103 1
gene 1 24 33 -2.58563 0 72 -2.58563 1
gene 1 25 31 -1.19871 0 73 -1.19871 1
gene 1 25 32 0.568768 0 74 0.568768 1
gene 1 25 33 0.015741 0 75 0.015741 1
gene 1 26 31 0.552293 0 76 0.552293 1
gene 1 26 32 -1.33875 0 77 -1.33875 1
gene 1 26 33 -0.570326 0 78 -0.570326 1
gene 1 27 31 2.04027 0 79 2.04027 1
gene 1 27 32 0.788002 0 80 0.788002 1
gene 1 27 33 1.79641 0 81 1.79641 1
gene 1 28 31 -1.00661 0 82 -1.00661 1
gene 1 28 32 0.189989 0 83 0.189989 1
gene 1 28 33 -0.524347 0 84 -0.524347 1
gene 1 29 31 4.11388 0 85 4.11388 1
gene 1 29 32 0.829453 0 86 0.829453 1
gene 1 29 33 -3.04957 0 87 -3.04957 1
gene 1 30 31 -2.56183 0 88 -2.56183 1
gene 1 30 32 -4.37414 0 89 -4.37414 1
gene 1 30 33 -0.3379 0 90 -0.3379 1
genomeend 4


