/* Organism #0 Fitness: 11618.020000 Time: 0 */
genomestart 0
trait 1 0.100000 0.000000 0.000000 0.000000 0.000000 0.000000 0.000000 0.000000 
node 1 1 1 1
node 2 1 1 1
node 3 1 1 1
node 4 1 1 1
node 5 1 1 1
node 6 1 1 1
node 7 1 1 1
node 8 1 1 1
node 9 1 1 1
node 10 1 1 1
node 11 1 1 1
node 12 1 1 1
node 13 1 1 1
node 14 1 1 1
node 15 1 1 1
node 16 1 1 1
node 17 1 1 1
node 18 1 1 1
node 19 1 1 1
node 20 1 1 1
node 21 1 1 1
node 22 1 1 1
node 23 1 1 1
node 24 1 1 1
node 25 1 1 1
node 26 1 1 1
node 27 1 1 1
node 28 1 1 1
node 29 1 1 1
node 30 1 1 1
node 31 1 1 1
node 32 1 1 1
node 33 1 1 1
node 34 1 1 1
node 35 1 1 3
node 36 1 0 2
node 37 1 0 2
node 38 1 0 2
node 39 1 0 2
gene 1 1 36 -1.79904 0 1 -1.79904 1
gene 1 1 37 1.65586 0 2 1.65586 1
gene 1 1 38 -0.958549 0 3 -0.958549 1
gene 1 1 39 -2.64868 0 4 -2.64868 1
gene 1 2 36 -1.59716 0 5 -1.59716 1
gene 1 2 37 1.41375 0 6 1.41375 1
gene 1 2 38 -0.77237 0 7 -0.77237 1
gene 1 2 39 -0.405922 0 8 -0.405922 1
gene 1 3 36 -0.329447 0 9 -0.329447 1
gene 1 3 37 -2.08733 0 10 -2.08733 1
gene 1 3 38 -1.85521 0 11 -1.85521 1
gene 1 3 39 -1.67432 0 12 -1.67432 1
gene 1 4 36 0.268052 0 13 0.268052 1
gene 1 4 37 -0.229956 0 14 -0.229956 1
gene 1 4 38 -0.956289 0 15 -0.956289 1
gene 1 4 39 0.0174927 0 16 0.0174927 1
gene 1 5 36 2.40052 0 17 2.40052 1
gene 1 5 37 1.02753 0 18 1.02753 1
gene 1 5 38 0.785787 0 19 0.785787 1
gene 1 5 39 2.31269 0 20 2.31269 1
gene 1 6 36 2.2629 0 21 2.2629 1
gene 1 6 37 -0.953409 0 22 -0.953409 1
gene 1 6 38 -3.71801 0 23 -3.71801 1
gene 1 6 39 -0.175675 0 24 -0.175675 1
gene 1 7 36 1.8413 0 25 1.8413 1
gene 1 7 37 1.48893 0 26 1.48893 1
gene 1 7 38 -2.24512 0 27 -2.24512 1
gene 1 7 39 3.36187 0 28 3.36187 1
gene 1 8 36 2.98635 0 29 2.98635 1
gene 1 8 37 -2.60701 0 30 -2.60701 1
gene 1 8 38 3.80066 0 31 3.80066 1
gene 1 8 39 1.44376 0 32 1.44376 1
gene 1 9 36 1.03121 0 33 1.03121 1
gene 1 9 37 -2.73896 0 34 -2.73896 1
gene 1 9 38 -0.185384 0 35 -0.185384 1
gene 1 9 39 -2.23568 0 36 -2.23568 1
gene 1 10 36 -1.7273 0 37 -1.7273 1
gene 1 10 37 2.4452 0 38 2.4452 1
gene 1 10 38 0.577403 0 39 0.577403 1
gene 1 10 39 0.139382 0 40 0.139382 1
gene 1 11 36 -1.19399 0 41 -1.19399 1
gene 1 11 37 0.148126 0 42 0.148126 1
gene 1 11 38 -0.00671473 0 43 -0.00671473 1
gene 1 11 39 -0.958711 0 44 -0.958711 1
gene 1 12 36 -0.91618 0 45 -0.91618 1
gene 1 12 37 0.0361483 0 46 0.0361483 1
gene 1 12 38 1.55592 0 47 1.55592 1
gene 1 12 39 1.5074 0 48 1.5074 1
gene 1 13 36 5 0 49 5 1
gene 1 13 37 2.21487 0 50 2.21487 1
gene 1 13 38 -0.878917 0 51 -0.878917 1
gene 1 13 39 0.952114 0 52 0.952114 1
gene 1 14 36 -0.374711 0 53 -0.374711 1
gene 1 14 37 -1.48213 0 54 -1.48213 1
gene 1 14 38 2.01215 0 55 2.01215 1
gene 1 14 39 -3.11457 0 56 -3.11457 1
gene 1 15 36 -1.69683 0 57 -1.69683 1
gene 1 15 37 3.23153 0 58 3.23153 1
gene 1 15 38 1.12322 0 59 1.12322 1
gene 1 15 39 -2.3422 0 60 -2.3422 1
gene 1 16 36 1.37519 0 61 1.37519 1
gene 1 16 37 1.91426 0 62 1.91426 1
gene 1 16 38 -1.45898 0 63 -1.45898 1
gene 1 16 39 0.671288 0 64 0.671288 1
gene 1 17 36 -0.0164516 0 65 -0.0164516 1
gene 1 17 37 2.1291 0 66 2.1291 1
gene 1 17 38 -3.19948 0 67 -3.19948 1
gene 1 17 39 -0.208527 0 68 -0.208527 1
gene 1 18 36 -1.19759 0 69 -1.19759 1
gene 1 18 37 4.74185 0 70 4.74185 1
gene 1 18 38 0.473333 0 71 0.473333 1
gene 1 18 39 -0.464508 0 72 -0.464508 1
gene 1 19 36 -4.68495 0 73 -4.68495 1
gene 1 19 37 0.904312 0 74 0.904312 1
gene 1 19 38 -2.20873 0 75 -2.20873 1
gene 1 19 39 1.52209 0 76 1.52209 1
gene 1 20 36 -0.631528 0 77 -0.631528 1
gene 1 20 37 -0.757101 0 78 -0.757101 1
gene 1 20 38 2.86357 0 79 2.86357 1
gene 1 20 39 -0.345043 0 80 -0.345043 1
gene 1 21 36 0.734286 0 81 0.734286 1
gene 1 21 37 -2.29253 0 82 -2.29253 1
gene 1 21 38 -2.74948 0 83 -2.74948 1
gene 1 21 39 -0.473267 0 84 -0.473267 1
gene 1 22 36 -1.9181 0 85 -1.9181 1
gene 1 22 37 -1.84455 0 86 -1.84455 1
gene 1 22 38 0.432858 0 87 0.432858 1
gene 1 22 39 0.260557 0 88 0.260557 1
gene 1 23 36 -1.89711 0 89 -1.89711 1
gene 1 23 37 1.38825 0 90 1.38825 1
gene 1 23 38 -0.577045 0 91 -0.577045 1
gene 1 23 39 1.40703 0 92 1.40703 1
gene 1 24 36 4.14963 0 93 4.14963 1
gene 1 24 37 3.41095 0 94 3.41095 1
gene 1 24 38 0.352941 0 95 0.352941 1
gene 1 24 39 1.13959 0 96 1.13959 1
gene 1 25 36 2.86322 0 97 2.86322 1
gene 1 25 37 -1.90007 0 98 -1.90007 1
gene 1 25 38 0.687777 0 99 0.687777 1
gene 1 25 39 -1.1141 0 100 -1.1141 1
gene 1 26 36 -1.15358 0 101 -1.15358 1
gene 1 26 37 -4.13578 0 102 -4.13578 1
gene 1 26 38 1.13315 0 103 1.13315 1
gene 1 26 39 -0.671439 0 104 -0.671439 1
gene 1 27 36 -0.868499 0 105 -0.868499 1
gene 1 27 37 -0.947154 0 106 -0.947154 1
gene 1 27 38 1.79938 0 107 1.79938 1
gene 1 27 39 1.19496 0 108 1.19496 1
gene 1 28 36 -0.213825 0 109 -0.213825 1
gene 1 28 37 -1.7697 0 110 -1.7697 1
gene 1 28 38 0.36525 0 111 0.36525 1
gene 1 28 39 -1.54382 0 112 -1.54382 1
gene 1 29 36 -0.971361 0 113 -0.971361 1
gene 1 29 37 -1.05996 0 114 -1.05996 1
gene 1 29 38 -0.932516 0 115 -0.932516 1
gene 1 29 39 -1.6038 0 116 -1.6038 1
gene 1 30 36 -0.592033 0 117 -0.592033 1
gene 1 30 37 0.101764 0 118 0.101764 1
gene 1 30 38 -0.261666 0 119 -0.261666 1
gene 1 30 39 -0.0834335 0 120 -0.0834335 1
gene 1 31 36 -0.741663 0 121 -0.741663 1
gene 1 31 37 -0.0287735 0 122 -0.0287735 1
gene 1 31 38 1.36224 0 123 1.36224 1
gene 1 31 39 0.309625 0 124 0.309625 1
gene 1 32 36 -0.162831 0 125 -0.162831 1
gene 1 32 37 -2.02166 0 126 -2.02166 1
gene 1 32 38 0.0388726 0 127 0.0388726 1
gene 1 32 39 -0.175577 0 128 -0.175577 1
gene 1 33 36 0.651676 0 129 0.651676 1
gene 1 33 37 -0.424757 0 130 -0.424757 1
gene 1 33 38 0.931051 0 131 0.931051 1
gene 1 33 39 0.827553 0 132 0.827553 1
gene 1 34 36 -0.064317 0 133 -0.064317 1
gene 1 34 37 -0.0243095 0 134 -0.0243095 1
gene 1 34 38 -0.900641 0 135 -0.900641 1
gene 1 34 39 0.784771 0 136 0.784771 1
gene 1 35 36 -0.775367 0 137 -0.775367 1
gene 1 35 37 -5 0 138 -5 1
gene 1 35 38 -2.39824 0 139 -2.39824 1
gene 1 35 39 -0.849863 0 140 -0.849863 1
genomeend 0


