/* Organism #0 Fitness: 12935.682000 Time: 0 */
genomestart 0
trait 1 0.998111 0.000000 0.000000 1.000000 0.680608 0.000000 0.339037 1.000000 
node 1 1 1 1
node 2 1 1 1
node 3 1 1 1
node 4 1 1 1
node 5 1 1 1
node 6 1 1 1
node 7 1 1 1
node 8 1 1 1
node 9 1 1 1
node 10 1 1 1
node 11 1 1 1
node 12 1 1 1
node 13 1 1 1
node 14 1 1 1
node 15 1 1 1
node 16 1 1 1
node 17 1 1 1
node 18 1 1 1
node 19 1 1 1
node 20 1 1 1
node 21 1 1 1
node 22 1 1 1
node 23 1 1 1
node 24 1 1 1
node 25 1 1 1
node 26 1 1 1
node 27 1 1 1
node 28 1 1 1
node 29 1 1 1
node 30 1 1 1
node 31 1 1 1
node 32 1 1 1
node 33 1 1 1
node 34 1 1 1
node 35 1 1 3
node 36 1 0 2
node 37 1 0 2
node 38 1 0 2
node 39 1 0 2
gene 1 1 36 -3.13359 0 1 -3.13359 1
gene 1 1 37 -0.999712 0 2 -0.999712 1
gene 1 1 38 -1.26004 0 3 -1.26004 1
gene 1 1 39 -2.25151 0 4 -2.25151 1
gene 1 2 36 0.908551 0 5 0.908551 1
gene 1 2 37 -0.502022 0 6 -0.502022 1
gene 1 2 38 -1.93072 0 7 -1.93072 1
gene 1 2 39 -2.14 0 8 -2.14 1
gene 1 3 36 -0.418377 0 9 -0.418377 1
gene 1 3 37 1.27243 0 10 1.27243 1
gene 1 3 38 2.29576 0 11 2.29576 1
gene 1 3 39 -0.985871 0 12 -0.985871 1
gene 1 4 36 -0.363325 0 13 -0.363325 1
gene 1 4 37 -0.99307 0 14 -0.99307 1
gene 1 4 38 -2.42248 0 15 -2.42248 1
gene 1 4 39 1.73814 0 16 1.73814 1
gene 1 5 36 2.63184 0 17 2.63184 1
gene 1 5 37 -0.358587 0 18 -0.358587 1
gene 1 5 38 2.07009 0 19 2.07009 1
gene 1 5 39 -1.87936 0 20 -1.87936 1
gene 1 6 36 1.13053 0 21 1.13053 1
gene 1 6 37 -2.04795 0 22 -2.04795 1
gene 1 6 38 -0.540091 0 23 -0.540091 1
gene 1 6 39 -0.744353 0 24 -0.744353 1
gene 1 7 36 3.67221 0 25 3.67221 1
gene 1 7 37 -4.7153 0 26 -4.7153 1
gene 1 7 38 1.87988 0 27 1.87988 1
gene 1 7 39 -5 0 28 -5 1
gene 1 8 36 0.868266 0 29 0.868266 1
gene 1 8 37 -0.780043 0 30 -0.780043 1
gene 1 8 38 -0.792127 0 31 -0.792127 1
gene 1 8 39 -0.0448012 0 32 -0.0448012 1
gene 1 9 36 -0.556036 0 33 -0.556036 1
gene 1 9 37 -3.43598 0 34 -3.43598 1
gene 1 9 38 1.82131 0 35 1.82131 1
gene 1 9 39 -0.737201 0 36 -0.737201 1
gene 1 10 36 1.05375 0 37 1.05375 1
gene 1 10 37 0.58473 0 38 0.58473 1
gene 1 10 38 0.0894542 0 39 0.0894542 1
gene 1 10 39 0.636251 0 40 0.636251 1
gene 1 11 36 1.40407 0 41 1.40407 1
gene 1 11 37 -0.514867 0 42 -0.514867 1
gene 1 11 38 -2.21073 0 43 -2.21073 1
gene 1 11 39 5 0 44 5 1
gene 1 12 36 -2.40928 0 45 -2.40928 1
gene 1 12 37 -2.00306 0 46 -2.00306 1
gene 1 12 38 -2.59715 0 47 -2.59715 1
gene 1 12 39 -0.731611 0 48 -0.731611 1
gene 1 13 36 -1.26188 0 49 -1.26188 1
gene 1 13 37 -2.3967 0 50 -2.3967 1
gene 1 13 38 -3.1166 0 51 -3.1166 1
gene 1 13 39 -1.80419 0 52 -1.80419 1
gene 1 14 36 -1.12548 0 53 -1.12548 1
gene 1 14 37 -0.14268 0 54 -0.14268 1
gene 1 14 38 1.30701 0 55 1.30701 1
gene 1 14 39 -1.71858 0 56 -1.71858 1
gene 1 15 36 -0.119595 0 57 -0.119595 1
gene 1 15 37 0.473695 0 58 0.473695 1
gene 1 15 38 -1.47117 0 59 -1.47117 1
gene 1 15 39 -0.551413 0 60 -0.551413 1
gene 1 16 36 -1.39761 0 61 -1.39761 1
gene 1 16 37 -1.40586 0 62 -1.40586 1
gene 1 16 38 2.4824 0 63 2.4824 1
gene 1 16 39 -2.31769 0 64 -2.31769 1
gene 1 17 36 0.941169 0 65 0.941169 1
gene 1 17 37 -1.64917 0 66 -1.64917 1
gene 1 17 38 -1.29063 0 67 -1.29063 1
gene 1 17 39 0.102679 0 68 0.102679 1
gene 1 18 36 3.77947 0 69 3.77947 1
gene 1 18 37 -4.64155 0 70 -4.64155 1
gene 1 18 38 -1.2536 0 71 -1.2536 1
gene 1 18 39 3.31734 0 72 3.31734 1
gene 1 19 36 0.42945 0 73 0.42945 1
gene 1 19 37 -3.37895 0 74 -3.37895 1
gene 1 19 38 1.34945 0 75 1.34945 1
gene 1 19 39 1.58393 0 76 1.58393 1
gene 1 20 36 -1.19498 0 77 -1.19498 1
gene 1 20 37 0.365361 0 78 0.365361 1
gene 1 20 38 -3.45046 0 79 -3.45046 1
gene 1 20 39 -5 0 80 -5 1
gene 1 21 36 -0.159658 0 81 -0.159658 1
gene 1 21 37 0.399943 0 82 0.399943 1
gene 1 21 38 -0.580297 0 83 -0.580297 1
gene 1 21 39 -0.791841 0 84 -0.791841 1
gene 1 22 36 -0.932055 0 85 -0.932055 1
gene 1 22 37 -0.0916317 0 86 -0.0916317 1
gene 1 22 38 -0.541998 0 87 -0.541998 1
gene 1 22 39 -0.399063 0 88 -0.399063 1
gene 1 23 36 -1.79112 0 89 -1.79112 1
gene 1 23 37 -0.216652 0 90 -0.216652 1
gene 1 23 38 -1.55703 0 91 -1.55703 1
gene 1 23 39 0.173953 0 92 0.173953 1
gene 1 24 36 -1.47489 0 93 -1.47489 1
gene 1 24 37 2.72611 0 94 2.72611 1
gene 1 24 38 3.19479 0 95 3.19479 1
gene 1 24 39 1.89263 0 96 1.89263 1
gene 1 25 36 -1.54739 0 97 -1.54739 1
gene 1 25 37 2.9838 0 98 2.9838 1
gene 1 25 38 5 0 99 5 1
gene 1 25 39 -1.10878 0 100 -1.10878 1
gene 1 26 36 1.80821 0 101 1.80821 1
gene 1 26 37 -1.06789 0 102 -1.06789 1
gene 1 26 38 1.80937 0 103 1.80937 1
gene 1 26 39 -1.59471 0 104 -1.59471 1
gene 1 27 36 -1.98462 0 105 -1.98462 1
gene 1 27 37 -2.81362 0 106 -2.81362 1
gene 1 27 38 0.77414 0 107 0.77414 1
gene 1 27 39 -1.15391 0 108 -1.15391 1
gene 1 28 36 -1.71249 0 109 -1.71249 1
gene 1 28 37 0.700522 0 110 0.700522 1
gene 1 28 38 -0.832149 0 111 -0.832149 1
gene 1 28 39 -0.103251 0 112 -0.103251 1
gene 1 29 36 0.11133 0 113 0.11133 1
gene 1 29 37 -0.14989 0 114 -0.14989 1
gene 1 29 38 1.00334 0 115 1.00334 1
gene 1 29 39 1.24944 0 116 1.24944 1
gene 1 30 36 0.50873 0 117 0.50873 1
gene 1 30 37 -0.13617 0 118 -0.13617 1
gene 1 30 38 -1.79829 0 119 -1.79829 1
gene 1 30 39 -2.56673 0 120 -2.56673 1
gene 1 31 36 2.21018 0 121 2.21018 1
gene 1 31 37 -1.39874 0 122 -1.39874 1
gene 1 31 38 -0.012923 0 123 -0.012923 1
gene 1 31 39 0.681029 0 124 0.681029 1
gene 1 32 36 -0.739486 0 125 -0.739486 1
gene 1 32 37 -0.312431 0 126 -0.312431 1
gene 1 32 38 -2.86028 0 127 -2.86028 1
gene 1 32 39 -0.287272 0 128 -0.287272 1
gene 1 33 36 0.469341 0 129 0.469341 1
gene 1 33 37 -0.198075 0 130 -0.198075 1
gene 1 33 38 0.646919 0 131 0.646919 1
gene 1 33 39 -0.362767 0 132 -0.362767 1
gene 1 34 36 0.235827 0 133 0.235827 1
gene 1 34 37 1.0504 0 134 1.0504 1
gene 1 34 38 -0.543615 0 135 -0.543615 1
gene 1 34 39 1.20822 0 136 1.20822 1
gene 1 35 36 -3.86545 0 137 -3.86545 1
gene 1 35 37 -0.603537 0 138 -0.603537 1
gene 1 35 38 -2.5004 0 139 -2.5004 1
gene 1 35 39 0.182437 0 140 0.182437 1
genomeend 0


