/* Organism #2 Fitness: 8879.106000 Time: 0 */
genomestart 2
trait 1 1.000000 0.000000 0.023949 0.000000 0.662602 0.000000 0.000000 0.000000 
node 1 1 1 1
node 2 1 1 1
node 3 1 1 1
node 4 1 1 1
node 5 1 1 1
node 6 1 1 1
node 7 1 1 1
node 8 1 1 1
node 9 1 1 1
node 10 1 1 1
node 11 1 1 1
node 12 1 1 1
node 13 1 1 1
node 14 1 1 1
node 15 1 1 1
node 16 1 1 1
node 17 1 1 1
node 18 1 1 1
node 19 1 1 1
node 20 1 1 1
node 21 1 1 1
node 22 1 1 1
node 23 1 1 1
node 24 1 1 1
node 25 1 1 1
node 26 1 1 1
node 27 1 1 1
node 28 1 1 1
node 29 1 1 1
node 30 1 1 1
node 31 1 1 1
node 32 1 1 1
node 33 1 1 1
node 34 1 1 1
node 35 1 1 3
node 36 1 0 2
node 37 1 0 2
node 38 1 0 2
node 39 1 0 2
gene 1 1 36 -5 0 1 -5 1
gene 1 1 37 1.09039 0 2 1.09039 1
gene 1 1 38 3.11803 0 3 3.11803 1
gene 1 1 39 -0.134865 0 4 -0.134865 1
gene 1 2 36 0.496795 0 5 0.496795 1
gene 1 2 37 -4.30743 0 6 -4.30743 1
gene 1 2 38 -0.751374 0 7 -0.751374 1
gene 1 2 39 -0.18477 0 8 -0.18477 1
gene 1 3 36 -2.55298 0 9 -2.55298 1
gene 1 3 37 1.55946 0 10 1.55946 1
gene 1 3 38 -4.4152 0 11 -4.4152 1
gene 1 3 39 -3.67724 0 12 -3.67724 1
gene 1 4 36 2.54163 0 13 2.54163 1
gene 1 4 37 -0.112566 0 14 -0.112566 1
gene 1 4 38 -4.91273 0 15 -4.91273 1
gene 1 4 39 1.19069 0 16 1.19069 1
gene 1 5 36 4.47998 0 17 4.47998 1
gene 1 5 37 5 0 18 5 1
gene 1 5 38 -1.23967 0 19 -1.23967 1
gene 1 5 39 -2.90264 0 20 -2.90264 1
gene 1 6 36 2.37573 0 21 2.37573 1
gene 1 6 37 -0.697417 0 22 -0.697417 1
gene 1 6 38 1.66395 0 23 1.66395 1
gene 1 6 39 -0.126523 0 24 -0.126523 1
gene 1 7 36 2.46362 0 25 2.46362 1
gene 1 7 37 -0.133023 0 26 -0.133023 1
gene 1 7 38 -2.71967 0 27 -2.71967 1
gene 1 7 39 4.54931 0 28 4.54931 1
gene 1 8 36 1.29164 0 29 1.29164 1
gene 1 8 37 -4.23338 0 30 -4.23338 1
gene 1 8 38 -0.707367 0 31 -0.707367 1
gene 1 8 39 0.703273 0 32 0.703273 1
gene 1 9 36 3.40771 0 33 3.40771 1
gene 1 9 37 0.361729 0 34 0.361729 1
gene 1 9 38 4.14875 0 35 4.14875 1
gene 1 9 39 -1.87308 0 36 -1.87308 1
gene 1 10 36 -5 0 37 -5 1
gene 1 10 37 -0.220481 0 38 -0.220481 1
gene 1 10 38 1.0185 0 39 1.0185 1
gene 1 10 39 2.46974 0 40 2.46974 1
gene 1 11 36 1.85929 0 41 1.85929 1
gene 1 11 37 -3.33514 0 42 -3.33514 1
gene 1 11 38 -1.04468 0 43 -1.04468 1
gene 1 11 39 -0.360146 0 44 -0.360146 1
gene 1 12 36 -1.96409 0 45 -1.96409 1
gene 1 12 37 -1.46446 0 46 -1.46446 1
gene 1 12 38 -5 0 47 -5 1
gene 1 12 39 -1.82455 0 48 -1.82455 1
gene 1 13 36 -3.47251 0 49 -3.47251 1
gene 1 13 37 1.8864 0 50 1.8864 1
gene 1 13 38 -0.870091 0 51 -0.870091 1
gene 1 13 39 -1.38603 0 52 -1.38603 1
gene 1 14 36 0.772106 0 53 0.772106 1
gene 1 14 37 -3.16245 0 54 -3.16245 1
gene 1 14 38 3.12997 0 55 3.12997 1
gene 1 14 39 -5 0 56 -5 1
gene 1 15 36 -2.57739 0 57 -2.57739 1
gene 1 15 37 -1.52271 0 58 -1.52271 1
gene 1 15 38 1.76551 0 59 1.76551 1
gene 1 15 39 0.204054 0 60 0.204054 1
gene 1 16 36 -0.762478 0 61 -0.762478 1
gene 1 16 37 1.8149 0 62 1.8149 1
gene 1 16 38 3.57222 0 63 3.57222 1
gene 1 16 39 -0.464691 0 64 -0.464691 1
gene 1 17 36 -3.66788 0 65 -3.66788 1
gene 1 17 37 -4.94662 0 66 -4.94662 1
gene 1 17 38 -1.90671 0 67 -1.90671 1
gene 1 17 39 -1.1302 0 68 -1.1302 1
gene 1 18 36 -0.0251627 0 69 -0.0251627 1
gene 1 18 37 -4.05174 0 70 -4.05174 1
gene 1 18 38 -1.243 0 71 -1.243 1
gene 1 18 39 0.589885 0 72 0.589885 1
gene 1 19 36 -2.76404 0 73 -2.76404 1
gene 1 19 37 -4.12363 0 74 -4.12363 1
gene 1 19 38 -3.81667 0 75 -3.81667 1
gene 1 19 39 1.81958 0 76 1.81958 1
gene 1 20 36 -1.20901 0 77 -1.20901 1
gene 1 20 37 -3.41143 0 78 -3.41143 1
gene 1 20 38 -0.680076 0 79 -0.680076 1
gene 1 20 39 -4.30857 0 80 -4.30857 1
gene 1 21 36 1.28878 0 81 1.28878 1
gene 1 21 37 0.884086 0 82 0.884086 1
gene 1 21 38 -3.14772 0 83 -3.14772 1
gene 1 21 39 4.85371 0 84 4.85371 1
gene 1 22 36 -2.90528 0 85 -2.90528 1
gene 1 22 37 0.0178142 0 86 0.0178142 1
gene 1 22 38 -1.60266 0 87 -1.60266 1
gene 1 22 39 -2.29381 0 88 -2.29381 1
gene 1 23 36 -3.86623 0 89 -3.86623 1
gene 1 23 37 -1.12498 0 90 -1.12498 1
gene 1 23 38 -1.59157 0 91 -1.59157 1
gene 1 23 39 -0.938261 0 92 -0.938261 1
gene 1 24 36 4.26547 0 93 4.26547 1
gene 1 24 37 -3.71104 0 94 -3.71104 1
gene 1 24 38 1.59587 0 95 1.59587 1
gene 1 24 39 2.82597 0 96 2.82597 1
gene 1 25 36 2.96503 0 97 2.96503 1
gene 1 25 37 -5 0 98 -5 1
gene 1 25 38 2.76525 0 99 2.76525 1
gene 1 25 39 1.31776 0 100 1.31776 1
gene 1 26 36 1.3459 0 101 1.3459 1
gene 1 26 37 3.02353 0 102 3.02353 1
gene 1 26 38 -3.30909 0 103 -3.30909 1
gene 1 26 39 4.5358 0 104 4.5358 1
gene 1 27 36 -0.0210807 0 105 -0.0210807 1
gene 1 27 37 5 0 106 5 1
gene 1 27 38 -5 0 107 -5 1
gene 1 27 39 1.3846 0 108 1.3846 1
gene 1 28 36 -0.0214272 0 109 -0.0214272 1
gene 1 28 37 -1.53524 0 110 -1.53524 1
gene 1 28 38 4.20754 0 111 4.20754 1
gene 1 28 39 -2.24271 0 112 -2.24271 1
gene 1 29 36 4.43154 0 113 4.43154 1
gene 1 29 37 -0.214262 0 114 -0.214262 1
gene 1 29 38 -0.394632 0 115 -0.394632 1
gene 1 29 39 -0.918697 0 116 -0.918697 1
gene 1 30 36 -0.415631 0 117 -0.415631 1
gene 1 30 37 -0.120342 0 118 -0.120342 1
gene 1 30 38 0.254068 0 119 0.254068 1
gene 1 30 39 -1.70561 0 120 -1.70561 1
gene 1 31 36 0.203546 0 121 0.203546 1
gene 1 31 37 -0.809818 0 122 -0.809818 1
gene 1 31 38 -0.149717 0 123 -0.149717 1
gene 1 31 39 0.67034 0 124 0.67034 1
gene 1 32 36 -0.198332 0 125 -0.198332 1
gene 1 32 37 -1.69513 0 126 -1.69513 1
gene 1 32 38 -0.193238 0 127 -0.193238 1
gene 1 32 39 -0.783013 0 128 -0.783013 1
gene 1 33 36 1.03572 0 129 1.03572 1
gene 1 33 37 2.41504 0 130 2.41504 1
gene 1 33 38 0.88559 0 131 0.88559 1
gene 1 33 39 0.226818 0 132 0.226818 1
gene 1 34 36 -0.780164 0 133 -0.780164 1
gene 1 34 37 2.27282 0 134 2.27282 1
gene 1 34 38 -0.232603 0 135 -0.232603 1
gene 1 34 39 0.27023 0 136 0.27023 1
gene 1 35 36 -0.474548 0 137 -0.474548 1
gene 1 35 37 -0.342033 0 138 -0.342033 1
gene 1 35 38 -1.5645 0 139 -1.5645 1
gene 1 35 39 0.487145 0 140 0.487145 1
genomeend 2


