/* Organism #64 Fitness: 9802.646000 Time: 0 */
genomestart 64
trait 1 0.517624 0.526056 0.000000 0.000000 0.000000 0.328118 0.000000 0.090333 
node 1 1 1 1
node 2 1 1 1
node 3 1 1 1
node 4 1 1 1
node 5 1 1 1
node 6 1 1 1
node 7 1 1 1
node 8 1 1 1
node 9 1 1 1
node 10 1 1 1
node 11 1 1 1
node 12 1 1 1
node 13 1 1 1
node 14 1 1 1
node 15 1 1 1
node 16 1 1 1
node 17 1 1 1
node 18 1 1 1
node 19 1 1 1
node 20 1 1 1
node 21 1 1 1
node 22 1 1 1
node 23 1 1 1
node 24 1 1 1
node 25 1 1 1
node 26 1 1 1
node 27 1 1 1
node 28 1 1 1
node 29 1 1 1
node 30 1 1 1
node 31 1 1 1
node 32 1 1 1
node 33 1 1 1
node 34 1 1 1
node 35 1 1 3
node 36 1 0 2
node 37 1 0 2
node 38 1 0 2
node 39 1 0 2
gene 1 1 36 -1.29795 0 1 -1.29795 1
gene 1 1 37 0.757269 0 2 0.757269 1
gene 1 1 38 -0.475985 0 3 -0.475985 1
gene 1 1 39 0.342379 0 4 0.342379 1
gene 1 2 36 1.17398 0 5 1.17398 1
gene 1 2 37 0.398407 0 6 0.398407 1
gene 1 2 38 2.82471 0 7 2.82471 1
gene 1 2 39 0.343135 0 8 0.343135 1
gene 1 3 36 -1.3235 0 9 -1.3235 1
gene 1 3 37 -2.35697 0 10 -2.35697 1
gene 1 3 38 -1.49555 0 11 -1.49555 1
gene 1 3 39 0.863543 0 12 0.863543 1
gene 1 4 36 0.168099 0 13 0.168099 1
gene 1 4 37 -0.935416 0 14 -0.935416 1
gene 1 4 38 -1.62735 0 15 -1.62735 1
gene 1 4 39 -0.27665 0 16 -0.27665 1
gene 1 5 36 0.672183 0 17 0.672183 1
gene 1 5 37 0.0905769 0 18 0.0905769 1
gene 1 5 38 -0.0634993 0 19 -0.0634993 1
gene 1 5 39 -1.65848 0 20 -1.65848 1
gene 1 6 36 5 0 21 5 1
gene 1 6 37 0.663743 0 22 0.663743 1
gene 1 6 38 0.919749 0 23 0.919749 1
gene 1 6 39 1.50854 0 24 1.50854 1
gene 1 7 36 2.13625 0 25 2.13625 1
gene 1 7 37 2.62295 0 26 2.62295 1
gene 1 7 38 -2.06079 0 27 -2.06079 1
gene 1 7 39 -0.183288 0 28 -0.183288 1
gene 1 8 36 -1.21883 0 29 -1.21883 1
gene 1 8 37 -3.14044 0 30 -3.14044 1
gene 1 8 38 -2.85041 0 31 -2.85041 1
gene 1 8 39 -2.00854 0 32 -2.00854 1
gene 1 9 36 0.399324 0 33 0.399324 1
gene 1 9 37 2.28987 0 34 2.28987 1
gene 1 9 38 -0.780981 0 35 -0.780981 1
gene 1 9 39 0.0393279 0 36 0.0393279 1
gene 1 10 36 -5 0 37 -5 1
gene 1 10 37 1.50147 0 38 1.50147 1
gene 1 10 38 -1.44473 0 39 -1.44473 1
gene 1 10 39 -0.25967 0 40 -0.25967 1
gene 1 11 36 0.861675 0 41 0.861675 1
gene 1 11 37 -0.920108 0 42 -0.920108 1
gene 1 11 38 5 0 43 5 1
gene 1 11 39 -0.82354 0 44 -0.82354 1
gene 1 12 36 1.66844 0 45 1.66844 1
gene 1 12 37 0.660482 0 46 0.660482 1
gene 1 12 38 -2.82211 0 47 -2.82211 1
gene 1 12 39 1.83479 0 48 1.83479 1
gene 1 13 36 0.0044856 0 49 0.0044856 1
gene 1 13 37 0.148888 0 50 0.148888 1
gene 1 13 38 4.02251 0 51 4.02251 1
gene 1 13 39 0.67755 0 52 0.67755 1
gene 1 14 36 -1.622 0 53 -1.622 1
gene 1 14 37 -0.458231 0 54 -0.458231 1
gene 1 14 38 0.69603 0 55 0.69603 1
gene 1 14 39 2.75387 0 56 2.75387 1
gene 1 15 36 0.497238 0 57 0.497238 1
gene 1 15 37 2.46959 0 58 2.46959 1
gene 1 15 38 -2.29929 0 59 -2.29929 1
gene 1 15 39 -1.54444 0 60 -1.54444 1
gene 1 16 36 -3.61641 0 61 -3.61641 1
gene 1 16 37 2.64524 0 62 2.64524 1
gene 1 16 38 -0.527432 0 63 -0.527432 1
gene 1 16 39 -0.250744 0 64 -0.250744 1
gene 1 17 36 3.78683 0 65 3.78683 1
gene 1 17 37 -1.2424 0 66 -1.2424 1
gene 1 17 38 -4.58783 0 67 -4.58783 1
gene 1 17 39 5 0 68 5 1
gene 1 18 36 1.60573 0 69 1.60573 1
gene 1 18 37 -4.32666 0 70 -4.32666 1
gene 1 18 38 -1.57374 0 71 -1.57374 1
gene 1 18 39 3.58936 0 72 3.58936 1
gene 1 19 36 2.07658 0 73 2.07658 1
gene 1 19 37 -3.34473 0 74 -3.34473 1
gene 1 19 38 -0.156735 0 75 -0.156735 1
gene 1 19 39 4.18228 0 76 4.18228 1
gene 1 20 36 -1.5796 0 77 -1.5796 1
gene 1 20 37 0.662983 0 78 0.662983 1
gene 1 20 38 1.87969 0 79 1.87969 1
gene 1 20 39 -1.43322 0 80 -1.43322 1
gene 1 21 36 0.00709848 0 81 0.00709848 1
gene 1 21 37 -0.34386 0 82 -0.34386 1
gene 1 21 38 -3.9864 0 83 -3.9864 1
gene 1 21 39 2.62225 0 84 2.62225 1
gene 1 22 36 -1.28398 0 85 -1.28398 1
gene 1 22 37 2.57668 0 86 2.57668 1
gene 1 22 38 -1.89509 0 87 -1.89509 1
gene 1 22 39 3.17852 0 88 3.17852 1
gene 1 23 36 -1.09522 0 89 -1.09522 1
gene 1 23 37 1.57004 0 90 1.57004 1
gene 1 23 38 -2.96604 0 91 -2.96604 1
gene 1 23 39 -0.622217 0 92 -0.622217 1
gene 1 24 36 0.831698 0 93 0.831698 1
gene 1 24 37 0.912917 0 94 0.912917 1
gene 1 24 38 -2.21066 0 95 -2.21066 1
gene 1 24 39 -1.10525 0 96 -1.10525 1
gene 1 25 36 -4.72409 0 97 -4.72409 1
gene 1 25 37 1.09941 0 98 1.09941 1
gene 1 25 38 -3.44191 0 99 -3.44191 1
gene 1 25 39 3.41305 0 100 3.41305 1
gene 1 26 36 1.61271 0 101 1.61271 1
gene 1 26 37 0.613298 0 102 0.613298 1
gene 1 26 38 2.56654 0 103 2.56654 1
gene 1 26 39 -1.07175 0 104 -1.07175 1
gene 1 27 36 -0.830734 0 105 -0.830734 1
gene 1 27 37 -5 0 106 -5 1
gene 1 27 38 -1.12837 0 107 -1.12837 1
gene 1 27 39 -0.0285553 0 108 -0.0285553 1
gene 1 28 36 -1.60778 0 109 -1.60778 1
gene 1 28 37 4.47503 0 110 4.47503 1
gene 1 28 38 -3.66181 0 111 -3.66181 1
gene 1 28 39 -1.13274 0 112 -1.13274 1
gene 1 29 36 3.46086 0 113 3.46086 1
gene 1 29 37 0.450722 0 114 0.450722 1
gene 1 29 38 -0.842965 0 115 -0.842965 1
gene 1 29 39 1.56474 0 116 1.56474 1
gene 1 30 36 -0.202184 0 117 -0.202184 1
gene 1 30 37 0.0128825 0 118 0.0128825 1
gene 1 30 38 -1.5998 0 119 -1.5998 1
gene 1 30 39 -0.0152078 0 120 -0.0152078 1
gene 1 31 36 0.943219 0 121 0.943219 1
gene 1 31 37 -1.27419 0 122 -1.27419 1
gene 1 31 38 -3.09844 0 123 -3.09844 1
gene 1 31 39 0.223439 0 124 0.223439 1
gene 1 32 36 -0.334101 0 125 -0.334101 1
gene 1 32 37 -2.85931 0 126 -2.85931 1
gene 1 32 38 -0.767099 0 127 -0.767099 1
gene 1 32 39 -1.08914 0 128 -1.08914 1
gene 1 33 36 -0.415169 0 129 -0.415169 1
gene 1 33 37 -0.0301234 0 130 -0.0301234 1
gene 1 33 38 1.05121 0 131 1.05121 1
gene 1 33 39 0.863167 0 132 0.863167 1
gene 1 34 36 0.997909 0 133 0.997909 1
gene 1 34 37 -0.55269 0 134 -0.55269 1
gene 1 34 38 0.22842 0 135 0.22842 1
gene 1 34 39 -1.44251 0 136 -1.44251 1
gene 1 35 36 -4.62005 0 137 -4.62005 1
gene 1 35 37 0.604171 0 138 0.604171 1
gene 1 35 38 -2.03927 0 139 -2.03927 1
gene 1 35 39 0.835476 0 140 0.835476 1
genomeend 64


