/* Organism #9 Fitness: 7735.506000 Time: 0 */
genomestart 9
trait 1 0.000000 0.067798 1.000000 0.206385 0.940639 0.607852 0.202202 0.579798 
node 1 1 1 1
node 2 1 1 1
node 3 1 1 1
node 4 1 1 1
node 5 1 1 1
node 6 1 1 1
node 7 1 1 1
node 8 1 1 1
node 9 1 1 1
node 10 1 1 1
node 11 1 1 1
node 12 1 1 1
node 13 1 1 1
node 14 1 1 1
node 15 1 1 1
node 16 1 1 1
node 17 1 1 1
node 18 1 1 1
node 19 1 1 1
node 20 1 1 1
node 21 1 1 1
node 22 1 1 1
node 23 1 1 1
node 24 1 1 1
node 25 1 1 1
node 26 1 1 1
node 27 1 1 1
node 28 1 1 1
node 29 1 1 1
node 30 1 1 1
node 31 1 1 1
node 32 1 1 1
node 33 1 1 1
node 34 1 1 1
node 35 1 1 3
node 36 1 0 2
node 37 1 0 2
node 38 1 0 2
node 39 1 0 2
gene 1 1 36 -5 0 1 -5 1
gene 1 1 37 -4.20896 0 2 -4.20896 1
gene 1 1 38 0.338181 0 3 0.338181 1
gene 1 1 39 -3.55917 0 4 -3.55917 1
gene 1 2 36 0.124147 0 5 0.124147 1
gene 1 2 37 2.00434 0 6 2.00434 1
gene 1 2 38 1.07951 0 7 1.07951 1
gene 1 2 39 0.850262 0 8 0.850262 1
gene 1 3 36 -1.21225 0 9 -1.21225 1
gene 1 3 37 1.08493 0 10 1.08493 1
gene 1 3 38 -4.43773 0 11 -4.43773 1
gene 1 3 39 -2.70033 0 12 -2.70033 1
gene 1 4 36 -1.45888 0 13 -1.45888 1
gene 1 4 37 1.46288 0 14 1.46288 1
gene 1 4 38 4.72143 0 15 4.72143 1
gene 1 4 39 -2.2944 0 16 -2.2944 1
gene 1 5 36 0.180798 0 17 0.180798 1
gene 1 5 37 1.34084 0 18 1.34084 1
gene 1 5 38 -2.02591 0 19 -2.02591 1
gene 1 5 39 3.04116 0 20 3.04116 1
gene 1 6 36 4.24881 0 21 4.24881 1
gene 1 6 37 2.72573 0 22 2.72573 1
gene 1 6 38 -2.55055 0 23 -2.55055 1
gene 1 6 39 2.76781 0 24 2.76781 1
gene 1 7 36 -4.90607 0 25 -4.90607 1
gene 1 7 37 -5 0 26 -5 1
gene 1 7 38 -0.578509 0 27 -0.578509 1
gene 1 7 39 -1.67594 0 28 -1.67594 1
gene 1 8 36 -5 0 29 -5 1
gene 1 8 37 0.123627 0 30 0.123627 1
gene 1 8 38 -0.267143 0 31 -0.267143 1
gene 1 8 39 -2.15598 0 32 -2.15598 1
gene 1 9 36 -4.28962 0 33 -4.28962 1
gene 1 9 37 4.86476 0 34 4.86476 1
gene 1 9 38 -1.07802 0 35 -1.07802 1
gene 1 9 39 -5 0 36 -5 1
gene 1 10 36 3.56173 0 37 3.56173 1
gene 1 10 37 -0.348433 0 38 -0.348433 1
gene 1 10 38 -4.02024 0 39 -4.02024 1
gene 1 10 39 -2.0288 0 40 -2.0288 1
gene 1 11 36 1.6099 0 41 1.6099 1
gene 1 11 37 5 0 42 5 1
gene 1 11 38 4.05106 0 43 4.05106 1
gene 1 11 39 -3.21044 0 44 -3.21044 1
gene 1 12 36 -4.2581 0 45 -4.2581 1
gene 1 12 37 -2.53501 0 46 -2.53501 1
gene 1 12 38 1.54095 0 47 1.54095 1
gene 1 12 39 2.70105 0 48 2.70105 1
gene 1 13 36 1.97168 0 49 1.97168 1
gene 1 13 37 -2.35768 0 50 -2.35768 1
gene 1 13 38 2.14424 0 51 2.14424 1
gene 1 13 39 0.707196 0 52 0.707196 1
gene 1 14 36 -0.415794 0 53 -0.415794 1
gene 1 14 37 -4.3327 0 54 -4.3327 1
gene 1 14 38 1.77233 0 55 1.77233 1
gene 1 14 39 -4.00307 0 56 -4.00307 1
gene 1 15 36 2.39485 0 57 2.39485 1
gene 1 15 37 -0.893643 0 58 -0.893643 1
gene 1 15 38 -2.65452 0 59 -2.65452 1
gene 1 15 39 -1.02538 0 60 -1.02538 1
gene 1 16 36 3.67587 0 61 3.67587 1
gene 1 16 37 4.33445 0 62 4.33445 1
gene 1 16 38 0.884971 0 63 0.884971 1
gene 1 16 39 -3.04953 0 64 -3.04953 1
gene 1 17 36 -4.08349 0 65 -4.08349 1
gene 1 17 37 -3.23956 0 66 -3.23956 1
gene 1 17 38 2.88612 0 67 2.88612 1
gene 1 17 39 -2.86136 0 68 -2.86136 1
gene 1 18 36 -1.12699 0 69 -1.12699 1
gene 1 18 37 -5 0 70 -5 1
gene 1 18 38 -3.64005 0 71 -3.64005 1
gene 1 18 39 -1.76261 0 72 -1.76261 1
gene 1 19 36 -4.85274 0 73 -4.85274 1
gene 1 19 37 -4.5302 0 74 -4.5302 1
gene 1 19 38 -2.49307 0 75 -2.49307 1
gene 1 19 39 -4.82376 0 76 -4.82376 1
gene 1 20 36 -4.56921 0 77 -4.56921 1
gene 1 20 37 -2.3278 0 78 -2.3278 1
gene 1 20 38 -3.94615 0 79 -3.94615 1
gene 1 20 39 -3.14241 0 80 -3.14241 1
gene 1 21 36 4.1137 0 81 4.1137 1
gene 1 21 37 1.12864 0 82 1.12864 1
gene 1 21 38 0.294963 0 83 0.294963 1
gene 1 21 39 -1.27832 0 84 -1.27832 1
gene 1 22 36 -3.67272 0 85 -3.67272 1
gene 1 22 37 -1.84423 0 86 -1.84423 1
gene 1 22 38 -0.970738 0 87 -0.970738 1
gene 1 22 39 -1.21605 0 88 -1.21605 1
gene 1 23 36 5 0 89 5 1
gene 1 23 37 -2.65656 0 90 -2.65656 1
gene 1 23 38 -2.11854 0 91 -2.11854 1
gene 1 23 39 1.7461 0 92 1.7461 1
gene 1 24 36 -1.03872 0 93 -1.03872 1
gene 1 24 37 1.78654 0 94 1.78654 1
gene 1 24 38 -2.7739 0 95 -2.7739 1
gene 1 24 39 -1.45134 0 96 -1.45134 1
gene 1 25 36 -4.83809 0 97 -4.83809 1
gene 1 25 37 -0.797817 0 98 -0.797817 1
gene 1 25 38 3.68619 0 99 3.68619 1
gene 1 25 39 1.58966 0 100 1.58966 1
gene 1 26 36 -0.0429569 0 101 -0.0429569 1
gene 1 26 37 -0.0431263 0 102 -0.0431263 1
gene 1 26 38 -1.40483 0 103 -1.40483 1
gene 1 26 39 -0.684412 0 104 -0.684412 1
gene 1 27 36 3.15712 0 105 3.15712 1
gene 1 27 37 -3.2783 0 106 -3.2783 1
gene 1 27 38 -3.05782 0 107 -3.05782 1
gene 1 27 39 0.122054 0 108 0.122054 1
gene 1 28 36 1.39772 0 109 1.39772 1
gene 1 28 37 -3.95412 0 110 -3.95412 1
gene 1 28 38 0.127203 0 111 0.127203 1
gene 1 28 39 2.68802 0 112 2.68802 1
gene 1 29 36 -0.165635 0 113 -0.165635 1
gene 1 29 37 0.661521 0 114 0.661521 1
gene 1 29 38 3.0324 0 115 3.0324 1
gene 1 29 39 -0.098697 0 116 -0.098697 1
gene 1 30 36 -0.668417 0 117 -0.668417 1
gene 1 30 37 2.65772 0 118 2.65772 1
gene 1 30 38 -0.733634 0 119 -0.733634 1
gene 1 30 39 0.525099 0 120 0.525099 1
gene 1 31 36 -0.364963 0 121 -0.364963 1
gene 1 31 37 1.24907 0 122 1.24907 1
gene 1 31 38 0.235073 0 123 0.235073 1
gene 1 31 39 -0.0609394 0 124 -0.0609394 1
gene 1 32 36 -4.63757 0 125 -4.63757 1
gene 1 32 37 1.24838 0 126 1.24838 1
gene 1 32 38 -0.449388 0 127 -0.449388 1
gene 1 32 39 -0.672106 0 128 -0.672106 1
gene 1 33 36 -2.86752 0 129 -2.86752 1
gene 1 33 37 0.138248 0 130 0.138248 1
gene 1 33 38 -0.88889 0 131 -0.88889 1
gene 1 33 39 0.0125356 0 132 0.0125356 1
gene 1 34 36 0.57409 0 133 0.57409 1
gene 1 34 37 2.31577 0 134 2.31577 1
gene 1 34 38 1.82675 0 135 1.82675 1
gene 1 34 39 0.290007 0 136 0.290007 1
gene 1 35 36 -0.971079 0 137 -0.971079 1
gene 1 35 37 2.56084 0 138 2.56084 1
gene 1 35 38 -0.526686 0 139 -0.526686 1
gene 1 35 39 -0.163164 0 140 -0.163164 1
genomeend 9


