/* Organism #18 Fitness: 12960.800000 Time: 0 */
genomestart 18
trait 1 0.100000 0.000000 0.000000 0.000000 0.000000 0.000000 0.000000 0.000000 
node 1 1 1 1
node 2 1 1 1
node 3 1 1 1
node 4 1 1 1
node 5 1 1 1
node 6 1 1 1
node 7 1 1 1
node 8 1 1 1
node 9 1 1 1
node 10 1 1 1
node 11 1 1 1
node 12 1 1 1
node 13 1 1 1
node 14 1 1 1
node 15 1 1 1
node 16 1 1 1
node 17 1 1 1
node 18 1 1 1
node 19 1 1 1
node 20 1 1 1
node 21 1 1 1
node 22 1 1 1
node 23 1 1 1
node 24 1 1 1
node 25 1 1 1
node 26 1 1 1
node 27 1 1 1
node 28 1 1 1
node 29 1 1 1
node 30 1 1 3
node 31 1 0 2
node 32 1 0 2
node 33 1 0 2
gene 1 1 31 0.548131 0 1 0.548131 1
gene 1 1 32 -2.03442 0 2 -2.03442 1
gene 1 1 33 -1.21018 0 3 -1.21018 1
gene 1 2 31 1.43994 0 4 1.43994 1
gene 1 2 32 2.24073 0 5 2.24073 1
gene 1 2 33 -1.88152 0 6 -1.88152 1
gene 1 3 31 0.0590611 0 7 0.0590611 1
gene 1 3 32 -0.154606 0 8 -0.154606 1
gene 1 3 33 1.64605 0 9 1.64605 1
gene 1 4 31 1.20869 0 10 1.20869 1
gene 1 4 32 3.66558 0 11 3.66558 1
gene 1 4 33 2.67647 0 12 2.67647 1
gene 1 5 31 -0.451054 0 13 -0.451054 1
gene 1 5 32 -1.94844 0 14 -1.94844 1
gene 1 5 33 0.91986 0 15 0.91986 1
gene 1 6 31 1.23041 0 16 1.23041 1
gene 1 6 32 -0.693212 0 17 -0.693212 1
gene 1 6 33 -1.76372 0 18 -1.76372 1
gene 1 7 31 -0.90682 0 19 -0.90682 1
gene 1 7 32 -1.15455 0 20 -1.15455 1
gene 1 7 33 -0.067646 0 21 -0.067646 1
gene 1 8 31 -2.26066 0 22 -2.26066 1
gene 1 8 32 -0.756021 0 23 -0.756021 1
gene 1 8 33 -5 0 24 -5 1
gene 1 9 31 0.0931636 0 25 0.0931636 1
gene 1 9 32 0.785246 0 26 0.785246 1
gene 1 9 33 -1.07709 0 27 -1.07709 1
gene 1 10 31 -1.49123 0 28 -1.49123 1
gene 1 10 32 2.33859 0 29 2.33859 1
gene 1 10 33 5 0 30 5 1
gene 1 11 31 -4.09612 0 31 -4.09612 1
gene 1 11 32 -0.807391 0 32 -0.807391 1
gene 1 11 33 4.92543 0 33 4.92543 1
gene 1 12 31 -5 0 34 -5 1
gene 1 12 32 0.334952 0 35 0.334952 1
gene 1 12 33 3.38466 0 36 3.38466 1
gene 1 13 31 -5 0 37 -5 1
gene 1 13 32 -0.766474 0 38 -0.766474 1
gene 1 13 33 -1.78913 0 39 -1.78913 1
gene 1 14 31 -3.99859 0 40 -3.99859 1
gene 1 14 32 0.638999 0 41 0.638999 1
gene 1 14 33 -2.52845 0 42 -2.52845 1
gene 1 15 31 3.18306 0 43 3.18306 1
gene 1 15 32 1.99657 0 44 1.99657 1
gene 1 15 33 0.520575 0 45 0.520575 1
gene 1 16 31 3.47862 0 46 3.47862 1
gene 1 16 32 -0.132648 0 47 -0.132648 1
gene 1 16 33 -0.53454 0 48 -0.53454 1
gene 1 17 31 0.627749 0 49 0.627749 1
gene 1 17 32 0.699296 0 50 0.699296 1
gene 1 17 33 1.65465 0 51 1.65465 1
gene 1 18 31 2.9286 0 52 2.9286 1
gene 1 18 32 1.98678 0 53 1.98678 1
gene 1 18 33 -0.208843 0 54 -0.208843 1
gene 1 19 31 0.181161 0 55 0.181161 1
gene 1 19 32 1.15701 0 56 1.15701 1
gene 1 19 33 0.83005 0 57 0.83005 1
gene 1 20 31 -1.36051 0 58 -1.36051 1
gene 1 20 32 3.2821 0 59 3.2821 1
gene 1 20 33 2.09566 0 60 2.09566 1
gene 1 21 31 0.276328 0 61 0.276328 1
gene 1 21 32 2.0605 0 62 2.0605 1
gene 1 21 33 2.03054 0 63 2.03054 1
gene 1 22 31 1.65314 0 64 1.65314 1
gene 1 22 32 -1.1535 0 65 -1.1535 1
gene 1 22 33 0.0476016 0 66 0.0476016 1
gene 1 23 31 -2.32238 0 67 -2.32238 1
gene 1 23 32 -1.55791 0 68 -1.55791 1
gene 1 23 33 -0.723149 0 69 -0.723149 1
gene 1 24 31 -0.853667 0 70 -0.853667 1
gene 1 24 32 -0.00195815 0 71 -0.00195815 1
gene 1 24 33 3.54444 0 72 3.54444 1
gene 1 25 31 1.62727 0 73 1.62727 1
gene 1 25 32 1.67503 0 74 1.67503 1
gene 1 25 33 0.610283 0 75 0.610283 1
gene 1 26 31 0.235396 0 76 0.235396 1
gene 1 26 32 -0.491207 0 77 -0.491207 1
gene 1 26 33 0.267556 0 78 0.267556 1
gene 1 27 31 -0.0322045 0 79 -0.0322045 1
gene 1 27 32 -1.39667 0 80 -1.39667 1
gene 1 27 33 -0.34567 0 81 -0.34567 1
gene 1 28 31 0.934192 0 82 0.934192 1
gene 1 28 32 0.493614 0 83 0.493614 1
gene 1 28 33 0.961507 0 84 0.961507 1
gene 1 29 31 0.364788 0 85 0.364788 1
gene 1 29 32 0.579222 0 86 0.579222 1
gene 1 29 33 1.79976 0 87 1.79976 1
gene 1 30 31 -0.257822 0 88 -0.257822 1
gene 1 30 32 0.900597 0 89 0.900597 1
gene 1 30 33 0.727779 0 90 0.727779 1
genomeend 18


