/* Organism #36 Fitness: 12462.000000 Time: 0 */
genomestart 36
trait 1 0.920962 0.399526 0.122393 0.000000 1.000000 0.000000 0.000000 1.000000 
node 1 1 1 1
node 2 1 1 1
node 3 1 1 1
node 4 1 1 1
node 5 1 1 1
node 6 1 1 1
node 7 1 1 1
node 8 1 1 1
node 9 1 1 1
node 10 1 1 1
node 11 1 1 1
node 12 1 1 1
node 13 1 1 1
node 14 1 1 1
node 15 1 1 1
node 16 1 1 1
node 17 1 1 1
node 18 1 1 1
node 19 1 1 1
node 20 1 1 1
node 21 1 1 1
node 22 1 1 1
node 23 1 1 1
node 24 1 1 1
node 25 1 1 1
node 26 1 1 1
node 27 1 1 1
node 28 1 1 1
node 29 1 1 1
node 30 1 1 3
node 31 1 0 2
node 32 1 0 2
node 33 1 0 2
gene 1 1 31 -1.7645 0 1 -1.7645 1
gene 1 1 32 -2.31275 0 2 -2.31275 1
gene 1 1 33 2.94892 0 3 2.94892 1
gene 1 2 31 -1.30874 0 4 -1.30874 1
gene 1 2 32 -0.450123 0 5 -0.450123 1
gene 1 2 33 -0.00224155 0 6 -0.00224155 1
gene 1 3 31 0.23671 0 7 0.23671 1
gene 1 3 32 -3.45646 0 8 -3.45646 1
gene 1 3 33 0.74368 0 9 0.74368 1
gene 1 4 31 0.481406 0 10 0.481406 1
gene 1 4 32 -2.52265 0 11 -2.52265 1
gene 1 4 33 -0.554614 0 12 -0.554614 1
gene 1 5 31 0.463072 0 13 0.463072 1
gene 1 5 32 -0.3966 0 14 -0.3966 1
gene 1 5 33 -1.92418 0 15 -1.92418 1
gene 1 6 31 0.726835 0 16 0.726835 1
gene 1 6 32 -0.472369 0 17 -0.472369 1
gene 1 6 33 -0.972977 0 18 -0.972977 1
gene 1 7 31 -0.386224 0 19 -0.386224 1
gene 1 7 32 0.499273 0 20 0.499273 1
gene 1 7 33 -0.599723 0 21 -0.599723 1
gene 1 8 31 0.609113 0 22 0.609113 1
gene 1 8 32 1.40562 0 23 1.40562 1
gene 1 8 33 -0.1843 0 24 -0.1843 1
gene 1 9 31 3.9742 0 25 3.9742 1
gene 1 9 32 -0.128252 0 26 -0.128252 1
gene 1 9 33 -0.927642 0 27 -0.927642 1
gene 1 10 31 3.53479 0 28 3.53479 1
gene 1 10 32 -0.523347 0 29 -0.523347 1
gene 1 10 33 -1.92834 0 30 -1.92834 1
gene 1 11 31 0.409283 0 31 0.409283 1
gene 1 11 32 -2.6819 0 32 -2.6819 1
gene 1 11 33 -0.0113334 0 33 -0.0113334 1
gene 1 12 31 0.175083 0 34 0.175083 1
gene 1 12 32 -0.492748 0 35 -0.492748 1
gene 1 12 33 -0.845724 0 36 -0.845724 1
gene 1 13 31 -5 0 37 -5 1
gene 1 13 32 -1.1461 0 38 -1.1461 1
gene 1 13 33 0.837632 0 39 0.837632 1
gene 1 14 31 0.0582635 0 40 0.0582635 1
gene 1 14 32 1.91025 0 41 1.91025 1
gene 1 14 33 -0.709946 0 42 -0.709946 1
gene 1 15 31 0.997129 0 43 0.997129 1
gene 1 15 32 -1.00813 0 44 -1.00813 1
gene 1 15 33 -2.5676 0 45 -2.5676 1
gene 1 16 31 4.15216 0 46 4.15216 1
gene 1 16 32 -0.95022 0 47 -0.95022 1
gene 1 16 33 2.07629 0 48 2.07629 1
gene 1 17 31 0.152528 0 49 0.152528 1
gene 1 17 32 -0.399959 0 50 -0.399959 1
gene 1 17 33 1.18448 0 51 1.18448 1
gene 1 18 31 -1.76509 0 52 -1.76509 1
gene 1 18 32 -0.00799026 0 53 -0.00799026 1
gene 1 18 33 -0.13086 0 54 -0.13086 1
gene 1 19 31 -0.0681161 0 55 -0.0681161 1
gene 1 19 32 -2.29648 0 56 -2.29648 1
gene 1 19 33 -0.602482 0 57 -0.602482 1
gene 1 20 31 -0.276397 0 58 -0.276397 1
gene 1 20 32 -1.2307 0 59 -1.2307 1
gene 1 20 33 -1.47419 0 60 -1.47419 1
gene 1 21 31 0.711391 0 61 0.711391 1
gene 1 21 32 4.48831 0 62 4.48831 1
gene 1 21 33 0.924578 0 63 0.924578 1
gene 1 22 31 0.560109 0 64 0.560109 1
gene 1 22 32 -2.40865 0 65 -2.40865 1
gene 1 22 33 0.113715 0 66 0.113715 1
gene 1 23 31 2.95172 0 67 2.95172 1
gene 1 23 32 2.44322 0 68 2.44322 1
gene 1 23 33 2.1197 0 69 2.1197 1
gene 1 24 31 0.867412 0 70 0.867412 1
gene 1 24 32 -1.83271 0 71 -1.83271 1
gene 1 24 33 -0.264251 0 72 -0.264251 1
gene 1 25 31 0.975231 0 73 0.975231 1
gene 1 25 32 -0.389947 0 74 -0.389947 1
gene 1 25 33 0.922338 0 75 0.922338 1
gene 1 26 31 -0.529111 0 76 -0.529111 1
gene 1 26 32 -0.653082 0 77 -0.653082 1
gene 1 26 33 1.3788 0 78 1.3788 1
gene 1 27 31 -5 0 79 -5 1
gene 1 27 32 0.178683 0 80 0.178683 1
gene 1 27 33 -0.952408 0 81 -0.952408 1
gene 1 28 31 0.568534 0 82 0.568534 1
gene 1 28 32 1.07718 0 83 1.07718 1
gene 1 28 33 -2.56014 0 84 -2.56014 1
gene 1 29 31 -0.564974 0 85 -0.564974 1
gene 1 29 32 0.320588 0 86 0.320588 1
gene 1 29 33 0.247844 0 87 0.247844 1
gene 1 30 31 -0.262917 0 88 -0.262917 1
gene 1 30 32 -2.03305 0 89 -2.03305 1
gene 1 30 33 -1.43936 0 90 -1.43936 1
genomeend 36


