/* Organism #52 Fitness: 37941.300000 Time: 0 */
genomestart 52
trait 1 0.000000 0.662101 0.000000 0.821221 0.000000 0.000000 0.000000 0.144020 
node 1 1 1 1
node 2 1 1 1
node 3 1 1 1
node 4 1 1 1
node 5 1 1 1
node 6 1 1 1
node 7 1 1 1
node 8 1 1 1
node 9 1 1 1
node 10 1 1 1
node 11 1 1 1
node 12 1 1 1
node 13 1 1 1
node 14 1 1 1
node 15 1 1 1
node 16 1 1 1
node 17 1 1 1
node 18 1 1 1
node 19 1 1 1
node 20 1 1 1
node 21 1 1 1
node 22 1 1 1
node 23 1 1 1
node 24 1 1 1
node 25 1 1 1
node 26 1 1 1
node 27 1 1 1
node 28 1 1 1
node 29 1 1 1
node 30 1 1 3
node 31 1 0 2
node 32 1 0 2
node 33 1 0 2
gene 1 1 31 1.95184 0 1 1.95184 1
gene 1 1 32 -4.07785 0 2 -4.07785 1
gene 1 1 33 -0.267475 0 3 -0.267475 1
gene 1 2 31 -2.58435 0 4 -2.58435 1
gene 1 2 32 -0.801631 0 5 -0.801631 1
gene 1 2 33 -0.343859 0 6 -0.343859 1
gene 1 3 31 -0.0940268 0 7 -0.0940268 1
gene 1 3 32 -3.29343 0 8 -3.29343 1
gene 1 3 33 1.85401 0 9 1.85401 1
gene 1 4 31 2.74242 0 10 2.74242 1
gene 1 4 32 -0.919848 0 11 -0.919848 1
gene 1 4 33 0.738619 0 12 0.738619 1
gene 1 5 31 -1.06948 0 13 -1.06948 1
gene 1 5 32 0.761896 0 14 0.761896 1
gene 1 5 33 0.589095 0 15 0.589095 1
gene 1 6 31 1.02624 0 16 1.02624 1
gene 1 6 32 2.06307 0 17 2.06307 1
gene 1 6 33 3.37294 0 18 3.37294 1
gene 1 7 31 -0.552034 0 19 -0.552034 1
gene 1 7 32 0.209551 0 20 0.209551 1
gene 1 7 33 -0.172207 0 21 -0.172207 1
gene 1 8 31 1.59098 0 22 1.59098 1
gene 1 8 32 4.44268 0 23 4.44268 1
gene 1 8 33 -2.54255 0 24 -2.54255 1
gene 1 9 31 -0.554717 0 25 -0.554717 1
gene 1 9 32 -2.06316 0 26 -2.06316 1
gene 1 9 33 1.94423 0 27 1.94423 1
gene 1 10 31 -0.717557 0 28 -0.717557 1
gene 1 10 32 -1.95009 0 29 -1.95009 1
gene 1 10 33 5 0 30 5 1
gene 1 11 31 2.03736 0 31 2.03736 1
gene 1 11 32 -0.76931 0 32 -0.76931 1
gene 1 11 33 -0.347319 0 33 -0.347319 1
gene 1 12 31 -4.76856 0 34 -4.76856 1
gene 1 12 32 -0.41399 0 35 -0.41399 1
gene 1 12 33 -1.46834 0 36 -1.46834 1
gene 1 13 31 0.0869219 0 37 0.0869219 1
gene 1 13 32 0.656945 0 38 0.656945 1
gene 1 13 33 -0.582751 0 39 -0.582751 1
gene 1 14 31 -1.37106 0 40 -1.37106 1
gene 1 14 32 -0.186929 0 41 -0.186929 1
gene 1 14 33 -2.19625 0 42 -2.19625 1
gene 1 15 31 -2.64361 0 43 -2.64361 1
gene 1 15 32 0.635186 0 44 0.635186 1
gene 1 15 33 -0.116691 0 45 -0.116691 1
gene 1 16 31 0.235807 0 46 0.235807 1
gene 1 16 32 0.86931 0 47 0.86931 1
gene 1 16 33 2.5537 0 48 2.5537 1
gene 1 17 31 -0.694337 0 49 -0.694337 1
gene 1 17 32 -0.563173 0 50 -0.563173 1
gene 1 17 33 -0.691015 0 51 -0.691015 1
gene 1 18 31 0.619675 0 52 0.619675 1
gene 1 18 32 3.95028 0 53 3.95028 1
gene 1 18 33 -0.816468 0 54 -0.816468 1
gene 1 19 31 2.82488 0 55 2.82488 1
gene 1 19 32 4.38552 0 56 4.38552 1
gene 1 19 33 -0.376833 0 57 -0.376833 1
gene 1 20 31 1.26986 0 58 1.26986 1
gene 1 20 32 2.35874 0 59 2.35874 1
gene 1 20 33 1.5505 0 60 1.5505 1
gene 1 21 31 0.900451 0 61 0.900451 1
gene 1 21 32 0.500924 0 62 0.500924 1
gene 1 21 33 -0.443273 0 63 -0.443273 1
gene 1 22 31 1.07149 0 64 1.07149 1
gene 1 22 32 1.76688 0 65 1.76688 1
gene 1 22 33 2.81387 0 66 2.81387 1
gene 1 23 31 -0.659666 0 67 -0.659666 1
gene 1 23 32 -4.17804 0 68 -4.17804 1
gene 1 23 33 0.395571 0 69 0.395571 1
gene 1 24 31 -2.43429 0 70 -2.43429 1
gene 1 24 32 0.0694394 0 71 0.0694394 1
gene 1 24 33 -2.60171 0 72 -2.60171 1
gene 1 25 31 -0.812978 0 73 -0.812978 1
gene 1 25 32 1.39714 0 74 1.39714 1
gene 1 25 33 0.414433 0 75 0.414433 1
gene 1 26 31 1.83182 0 76 1.83182 1
gene 1 26 32 -0.434975 0 77 -0.434975 1
gene 1 26 33 0.508358 0 78 0.508358 1
gene 1 27 31 -0.539233 0 79 -0.539233 1
gene 1 27 32 -0.880404 0 80 -0.880404 1
gene 1 27 33 0.122545 0 81 0.122545 1
gene 1 28 31 0.745541 0 82 0.745541 1
gene 1 28 32 1.21355 0 83 1.21355 1
gene 1 28 33 -2.64836 0 84 -2.64836 1
gene 1 29 31 -0.105087 0 85 -0.105087 1
gene 1 29 32 0.522857 0 86 0.522857 1
gene 1 29 33 0.320717 0 87 0.320717 1
gene 1 30 31 0.177136 0 88 0.177136 1
gene 1 30 32 -1.87212 0 89 -1.87212 1
gene 1 30 33 0.237763 0 90 0.237763 1
genomeend 52


