/* Organism #3 Fitness: 8104.444000 Time: 0 */
genomestart 3
trait 1 0.299693 0.397828 0.000000 0.259643 0.000000 0.000000 0.678070 1.000000 
node 1 1 1 1
node 2 1 1 1
node 3 1 1 1
node 4 1 1 1
node 5 1 1 1
node 6 1 1 1
node 7 1 1 1
node 8 1 1 1
node 9 1 1 1
node 10 1 1 1
node 11 1 1 1
node 12 1 1 1
node 13 1 1 1
node 14 1 1 1
node 15 1 1 1
node 16 1 1 1
node 17 1 1 1
node 18 1 1 1
node 19 1 1 1
node 20 1 1 1
node 21 1 1 1
node 22 1 1 1
node 23 1 1 1
node 24 1 1 1
node 25 1 1 1
node 26 1 1 1
node 27 1 1 1
node 28 1 1 3
node 29 1 0 2
node 30 1 0 2
node 31 1 0 2
node 32 1 0 2
node 33 1 0 2
gene 1 1 29 0.822153 0 1 0.822153 1
gene 1 1 30 1.65606 0 2 1.65606 1
gene 1 1 31 0.197602 0 3 0.197602 1
gene 1 1 32 4.57859 0 4 4.57859 1
gene 1 1 33 0.261893 0 5 0.261893 1
gene 1 2 29 -1.45317 0 6 -1.45317 1
gene 1 2 30 0.545335 0 7 0.545335 1
gene 1 2 31 0.0976679 0 8 0.0976679 1
gene 1 2 32 -2.96898 0 9 -2.96898 1
gene 1 2 33 -3.20492 0 10 -3.20492 1
gene 1 3 29 -0.74583 0 11 -0.74583 1
gene 1 3 30 3.6733 0 12 3.6733 1
gene 1 3 31 1.40312 0 13 1.40312 1
gene 1 3 32 -1.72821 0 14 -1.72821 1
gene 1 3 33 3.35931 0 15 3.35931 1
gene 1 4 29 0.512645 0 16 0.512645 1
gene 1 4 30 5 0 17 5 1
gene 1 4 31 1.16771 0 18 1.16771 1
gene 1 4 32 0.00215235 0 19 0.00215235 1
gene 1 4 33 -1.76931 0 20 -1.76931 1
gene 1 5 29 0.253775 0 21 0.253775 1
gene 1 5 30 0.439468 0 22 0.439468 1
gene 1 5 31 0.635827 0 23 0.635827 1
gene 1 5 32 -4.31452 0 24 -4.31452 1
gene 1 5 33 -0.627554 0 25 -0.627554 1
gene 1 6 29 -0.711382 0 26 -0.711382 1
gene 1 6 30 -0.0650033 0 27 -0.0650033 1
gene 1 6 31 -1.02012 0 28 -1.02012 1
gene 1 6 32 -0.650294 0 29 -0.650294 1
gene 1 6 33 -3.76252 0 30 -3.76252 1
gene 1 7 29 1.25926 0 31 1.25926 1
gene 1 7 30 0.954812 0 32 0.954812 1
gene 1 7 31 0.351462 0 33 0.351462 1
gene 1 7 32 1.36334 0 34 1.36334 1
gene 1 7 33 1.65288 0 35 1.65288 1
gene 1 8 29 2.88319 0 36 2.88319 1
gene 1 8 30 -1.38827 0 37 -1.38827 1
gene 1 8 31 0.151131 0 38 0.151131 1
gene 1 8 32 2.65742 0 39 2.65742 1
gene 1 8 33 0.264997 0 40 0.264997 1
gene 1 9 29 -0.1714 0 41 -0.1714 1
gene 1 9 30 0.50875 0 42 0.50875 1
gene 1 9 31 -0.0727509 0 43 -0.0727509 1
gene 1 9 32 0.841184 0 44 0.841184 1
gene 1 9 33 0.596732 0 45 0.596732 1
gene 1 10 29 -1.28405 0 46 -1.28405 1
gene 1 10 30 1.16018 0 47 1.16018 1
gene 1 10 31 -1.78022 0 48 -1.78022 1
gene 1 10 32 -3.64924 0 49 -3.64924 1
gene 1 10 33 1.88864 0 50 1.88864 1
gene 1 11 29 1.7439 0 51 1.7439 1
gene 1 11 30 2.18789 0 52 2.18789 1
gene 1 11 31 1.69195 0 53 1.69195 1
gene 1 11 32 -0.351657 0 54 -0.351657 1
gene 1 11 33 -1.43044 0 55 -1.43044 1
gene 1 12 29 0.776198 0 56 0.776198 1
gene 1 12 30 -4.15424 0 57 -4.15424 1
gene 1 12 31 0.167805 0 58 0.167805 1
gene 1 12 32 0.565047 0 59 0.565047 1
gene 1 12 33 0.844775 0 60 0.844775 1
gene 1 13 29 2.42625 0 61 2.42625 1
gene 1 13 30 1.00683 0 62 1.00683 1
gene 1 13 31 -1.78415 0 63 -1.78415 1
gene 1 13 32 3.85004 0 64 3.85004 1
gene 1 13 33 0.868489 0 65 0.868489 1
gene 1 14 29 0.971998 0 66 0.971998 1
gene 1 14 30 5 0 67 5 1
gene 1 14 31 2.12402 0 68 2.12402 1
gene 1 14 32 -3.37523 0 69 -3.37523 1
gene 1 14 33 0.922852 0 70 0.922852 1
gene 1 15 29 0.774204 0 71 0.774204 1
gene 1 15 30 -1.13048 0 72 -1.13048 1
gene 1 15 31 -0.558881 0 73 -0.558881 1
gene 1 15 32 1.02882 0 74 1.02882 1
gene 1 15 33 -0.966406 0 75 -0.966406 1
gene 1 16 29 2.09795 0 76 2.09795 1
gene 1 16 30 -4.41156 0 77 -4.41156 1
gene 1 16 31 0.549961 0 78 0.549961 1
gene 1 16 32 -0.664007 0 79 -0.664007 1
gene 1 16 33 2.24619 0 80 2.24619 1
gene 1 17 29 -4.1534 0 81 -4.1534 1
gene 1 17 30 2.5127 0 82 2.5127 1
gene 1 17 31 -2.85878 0 83 -2.85878 1
gene 1 17 32 -0.123256 0 84 -0.123256 1
gene 1 17 33 -1.75277 0 85 -1.75277 1
gene 1 18 29 -2.73103 0 86 -2.73103 1
gene 1 18 30 3.53618 0 87 3.53618 1
gene 1 18 31 0.48552 0 88 0.48552 1
gene 1 18 32 -1.68164 0 89 -1.68164 1
gene 1 18 33 2.00355 0 90 2.00355 1
gene 1 19 29 -3.83285 0 91 -3.83285 1
gene 1 19 30 -1.29613 0 92 -1.29613 1
gene 1 19 31 1.38997 0 93 1.38997 1
gene 1 19 32 -1.08376 0 94 -1.08376 1
gene 1 19 33 1.8635 0 95 1.8635 1
gene 1 20 29 0.298283 0 96 0.298283 1
gene 1 20 30 0.141763 0 97 0.141763 1
gene 1 20 31 2.57126 0 98 2.57126 1
gene 1 20 32 -0.374549 0 99 -0.374549 1
gene 1 20 33 -2.56448 0 100 -2.56448 1
gene 1 21 29 -0.787028 0 101 -0.787028 1
gene 1 21 30 0.411645 0 102 0.411645 1
gene 1 21 31 2.49501 0 103 2.49501 1
gene 1 21 32 0.0266705 0 104 0.0266705 1
gene 1 21 33 3.18804 0 105 3.18804 1
gene 1 22 29 -2.39361 0 106 -2.39361 1
gene 1 22 30 -1.43392 0 107 -1.43392 1
gene 1 22 31 -0.98281 0 108 -0.98281 1
gene 1 22 32 0.296299 0 109 0.296299 1
gene 1 22 33 -1.90156 0 110 -1.90156 1
gene 1 23 29 -1.16097 0 111 -1.16097 1
gene 1 23 30 -2.46036 0 112 -2.46036 1
gene 1 23 31 -0.185843 0 113 -0.185843 1
gene 1 23 32 -0.929267 0 114 -0.929267 1
gene 1 23 33 -1.43652 0 115 -1.43652 1
gene 1 24 29 0.938081 0 116 0.938081 1
gene 1 24 30 0.103033 0 117 0.103033 1
gene 1 24 31 2.14008 0 118 2.14008 1
gene 1 24 32 -0.720391 0 119 -0.720391 1
gene 1 24 33 -0.184686 0 120 -0.184686 1
gene 1 25 29 0.0680446 0 121 0.0680446 1
gene 1 25 30 -0.565846 0 122 -0.565846 1
gene 1 25 31 -0.61232 0 123 -0.61232 1
gene 1 25 32 0.830489 0 124 0.830489 1
gene 1 25 33 -2.35205 0 125 -2.35205 1
gene 1 26 29 0.225855 0 126 0.225855 1
gene 1 26 30 -0.703028 0 127 -0.703028 1
gene 1 26 31 -0.365676 0 128 -0.365676 1
gene 1 26 32 -0.177765 0 129 -0.177765 1
gene 1 26 33 0.735235 0 130 0.735235 1
gene 1 27 29 0.17366 0 131 0.17366 1
gene 1 27 30 0.326256 0 132 0.326256 1
gene 1 27 31 0.539149 0 133 0.539149 1
gene 1 27 32 -1.20512 0 134 -1.20512 1
gene 1 27 33 0.394552 0 135 0.394552 1
gene 1 28 29 1.18217 0 136 1.18217 1
gene 1 28 30 -3.09161 0 137 -3.09161 1
gene 1 28 31 0.194529 0 138 0.194529 1
gene 1 28 32 0.396819 0 139 0.396819 1
gene 1 28 33 -0.504103 0 140 -0.504103 1
genomeend 3


