/* Organism #81 Fitness: 8424.228000 Time: 0 */
genomestart 81
trait 1 0.178887 0.736333 0.714970 0.000000 0.936876 0.408798 0.673453 1.000000 
node 1 1 1 1
node 2 1 1 1
node 3 1 1 1
node 4 1 1 1
node 5 1 1 1
node 6 1 1 1
node 7 1 1 1
node 8 1 1 1
node 9 1 1 1
node 10 1 1 1
node 11 1 1 1
node 12 1 1 1
node 13 1 1 1
node 14 1 1 1
node 15 1 1 1
node 16 1 1 1
node 17 1 1 1
node 18 1 1 1
node 19 1 1 1
node 20 1 1 1
node 21 1 1 1
node 22 1 1 1
node 23 1 1 1
node 24 1 1 1
node 25 1 1 1
node 26 1 1 1
node 27 1 1 1
node 28 1 1 3
node 29 1 0 2
node 30 1 0 2
node 31 1 0 2
node 32 1 0 2
node 33 1 0 2
gene 1 1 29 0.362465 0 1 0.362465 1
gene 1 1 30 -1.60203 0 2 -1.60203 1
gene 1 1 31 -4.0757 0 3 -4.0757 1
gene 1 1 32 -3.557 0 4 -3.557 1
gene 1 1 33 0.778672 0 5 0.778672 1
gene 1 2 29 -0.0235314 0 6 -0.0235314 1
gene 1 2 30 2.71983 0 7 2.71983 1
gene 1 2 31 -0.871257 0 8 -0.871257 1
gene 1 2 32 2.23423 0 9 2.23423 1
gene 1 2 33 0.0822445 0 10 0.0822445 1
gene 1 3 29 -0.827498 0 11 -0.827498 1
gene 1 3 30 -1.38354 0 12 -1.38354 1
gene 1 3 31 0.356668 0 13 0.356668 1
gene 1 3 32 -0.650944 0 14 -0.650944 1
gene 1 3 33 1.50832 0 15 1.50832 1
gene 1 4 29 2.59935 0 16 2.59935 1
gene 1 4 30 2.04785 0 17 2.04785 1
gene 1 4 31 -2.60791 0 18 -2.60791 1
gene 1 4 32 -0.670958 0 19 -0.670958 1
gene 1 4 33 -1.89584 0 20 -1.89584 1
gene 1 5 29 4.14833 0 21 4.14833 1
gene 1 5 30 -0.52843 0 22 -0.52843 1
gene 1 5 31 -1.96188 0 23 -1.96188 1
gene 1 5 32 -2.27731 0 24 -2.27731 1
gene 1 5 33 -1.02937 0 25 -1.02937 1
gene 1 6 29 1.10999 0 26 1.10999 1
gene 1 6 30 -4.07461 0 27 -4.07461 1
gene 1 6 31 1.99911 0 28 1.99911 1
gene 1 6 32 -2.71613 0 29 -2.71613 1
gene 1 6 33 2.61028 0 30 2.61028 1
gene 1 7 29 4.60319 0 31 4.60319 1
gene 1 7 30 -0.284397 0 32 -0.284397 1
gene 1 7 31 -0.319356 0 33 -0.319356 1
gene 1 7 32 -0.920689 0 34 -0.920689 1
gene 1 7 33 -1.246 0 35 -1.246 1
gene 1 8 29 0.93373 0 36 0.93373 1
gene 1 8 30 1.74952 0 37 1.74952 1
gene 1 8 31 -0.580957 0 38 -0.580957 1
gene 1 8 32 0.319676 0 39 0.319676 1
gene 1 8 33 -0.808958 0 40 -0.808958 1
gene 1 9 29 -1.56077 0 41 -1.56077 1
gene 1 9 30 -2.31917 0 42 -2.31917 1
gene 1 9 31 1.79572 0 43 1.79572 1
gene 1 9 32 0.0994444 0 44 0.0994444 1
gene 1 9 33 1.69029 0 45 1.69029 1
gene 1 10 29 -0.24404 0 46 -0.24404 1
gene 1 10 30 1.28522 0 47 1.28522 1
gene 1 10 31 3.42192 0 48 3.42192 1
gene 1 10 32 2.62205 0 49 2.62205 1
gene 1 10 33 -1.34345 0 50 -1.34345 1
gene 1 11 29 5 0 51 5 1
gene 1 11 30 -0.756508 0 52 -0.756508 1
gene 1 11 31 1.16945 0 53 1.16945 1
gene 1 11 32 -0.410184 0 54 -0.410184 1
gene 1 11 33 -0.558974 0 55 -0.558974 1
gene 1 12 29 -0.744236 0 56 -0.744236 1
gene 1 12 30 -0.833639 0 57 -0.833639 1
gene 1 12 31 5 0 58 5 1
gene 1 12 32 -2.5678 0 59 -2.5678 1
gene 1 12 33 0.891847 0 60 0.891847 1
gene 1 13 29 1.35538 0 61 1.35538 1
gene 1 13 30 1.77961 0 62 1.77961 1
gene 1 13 31 3.57618 0 63 3.57618 1
gene 1 13 32 1.51125 0 64 1.51125 1
gene 1 13 33 0.305443 0 65 0.305443 1
gene 1 14 29 0.475048 0 66 0.475048 1
gene 1 14 30 5 0 67 5 1
gene 1 14 31 0.168309 0 68 0.168309 1
gene 1 14 32 -0.283913 0 69 -0.283913 1
gene 1 14 33 2.84264 0 70 2.84264 1
gene 1 15 29 3.54649 0 71 3.54649 1
gene 1 15 30 3.08264 0 72 3.08264 1
gene 1 15 31 2.44705 0 73 2.44705 1
gene 1 15 32 4.89066 0 74 4.89066 1
gene 1 15 33 0.716915 0 75 0.716915 1
gene 1 16 29 -1.52881 0 76 -1.52881 1
gene 1 16 30 0.665051 0 77 0.665051 1
gene 1 16 31 0.163756 0 78 0.163756 1
gene 1 16 32 -1.09671 0 79 -1.09671 1
gene 1 16 33 2.46648 0 80 2.46648 1
gene 1 17 29 -3.94357 0 81 -3.94357 1
gene 1 17 30 1.69946 0 82 1.69946 1
gene 1 17 31 -5 0 83 -5 1
gene 1 17 32 0.12162 0 84 0.12162 1
gene 1 17 33 0.391239 0 85 0.391239 1
gene 1 18 29 -5 0 86 -5 1
gene 1 18 30 5 0 87 5 1
gene 1 18 31 2.41253 0 88 2.41253 1
gene 1 18 32 -3.35174 0 89 -3.35174 1
gene 1 18 33 0.745853 0 90 0.745853 1
gene 1 19 29 -4.68527 0 91 -4.68527 1
gene 1 19 30 0.376208 0 92 0.376208 1
gene 1 19 31 -0.915242 0 93 -0.915242 1
gene 1 19 32 1.81152 0 94 1.81152 1
gene 1 19 33 -1.09907 0 95 -1.09907 1
gene 1 20 29 -2.31573 0 96 -2.31573 1
gene 1 20 30 -1.44521 0 97 -1.44521 1
gene 1 20 31 0.429314 0 98 0.429314 1
gene 1 20 32 2.9954 0 99 2.9954 1
gene 1 20 33 2.73756 0 100 2.73756 1
gene 1 21 29 3.2426 0 101 3.2426 1
gene 1 21 30 1.90268 0 102 1.90268 1
gene 1 21 31 1.25599 0 103 1.25599 1
gene 1 21 32 -0.550818 0 104 -0.550818 1
gene 1 21 33 -0.400326 0 105 -0.400326 1
gene 1 22 29 -3.6269 0 106 -3.6269 1
gene 1 22 30 -4.70799 0 107 -4.70799 1
gene 1 22 31 0.651529 0 108 0.651529 1
gene 1 22 32 -3.24844 0 109 -3.24844 1
gene 1 22 33 2.23932 0 110 2.23932 1
gene 1 23 29 -1.94948 0 111 -1.94948 1
gene 1 23 30 0.301458 0 112 0.301458 1
gene 1 23 31 2.12324 0 113 2.12324 1
gene 1 23 32 0.509153 0 114 0.509153 1
gene 1 23 33 -1.17849 0 115 -1.17849 1
gene 1 24 29 0.823039 0 116 0.823039 1
gene 1 24 30 -0.604501 0 117 -0.604501 1
gene 1 24 31 -1.15472 0 118 -1.15472 1
gene 1 24 32 -3.49021 0 119 -3.49021 1
gene 1 24 33 -1.31287 0 120 -1.31287 1
gene 1 25 29 -0.061655 0 121 -0.061655 1
gene 1 25 30 0.277679 0 122 0.277679 1
gene 1 25 31 -0.0838382 0 123 -0.0838382 1
gene 1 25 32 -0.854515 0 124 -0.854515 1
gene 1 25 33 0.312094 0 125 0.312094 1
gene 1 26 29 0.46883 0 126 0.46883 1
gene 1 26 30 1.16229 0 127 1.16229 1
gene 1 26 31 0.941353 0 128 0.941353 1
gene 1 26 32 -0.489584 0 129 -0.489584 1
gene 1 26 33 2.54208 0 130 2.54208 1
gene 1 27 29 0.634905 0 131 0.634905 1
gene 1 27 30 0.625761 0 132 0.625761 1
gene 1 27 31 -0.0971046 0 133 -0.0971046 1
gene 1 27 32 -0.440368 0 134 -0.440368 1
gene 1 27 33 -2.03542 0 135 -2.03542 1
gene 1 28 29 1.7295 0 136 1.7295 1
gene 1 28 30 -4.61221 0 137 -4.61221 1
gene 1 28 31 0.364337 0 138 0.364337 1
gene 1 28 32 -1.60294 0 139 -1.60294 1
gene 1 28 33 -3.09659 0 140 -3.09659 1
genomeend 81


