/* Organism #2 Fitness: 16942.374000 Time: 0 */
genomestart 2
trait 1 0.482452 0.000000 0.666693 0.000000 1.000000 0.000000 0.455827 0.952669 
node 1 1 1 1
node 2 1 1 1
node 3 1 1 1
node 4 1 1 1
node 5 1 1 1
node 6 1 1 1
node 7 1 1 1
node 8 1 1 1
node 9 1 1 1
node 10 1 1 1
node 11 1 1 1
node 12 1 1 1
node 13 1 1 1
node 14 1 1 1
node 15 1 1 1
node 16 1 1 1
node 17 1 1 1
node 18 1 1 1
node 19 1 1 1
node 20 1 1 1
node 21 1 1 1
node 22 1 1 1
node 23 1 1 1
node 24 1 1 1
node 25 1 1 1
node 26 1 1 1
node 27 1 1 1
node 28 1 1 1
node 29 1 1 1
node 30 1 1 3
node 31 1 0 2
node 32 1 0 2
node 33 1 0 2
gene 1 1 31 -2.11396 0 1 -2.11396 1
gene 1 1 32 3.38507 0 2 3.38507 1
gene 1 1 33 -3.36771 0 3 -3.36771 1
gene 1 2 31 -0.601845 0 4 -0.601845 1
gene 1 2 32 -2.01723 0 5 -2.01723 1
gene 1 2 33 -0.699423 0 6 -0.699423 1
gene 1 3 31 1.71102 0 7 1.71102 1
gene 1 3 32 -3.71988 0 8 -3.71988 1
gene 1 3 33 2.9806 0 9 2.9806 1
gene 1 4 31 -0.00564836 0 10 -0.00564836 1
gene 1 4 32 1.92588 0 11 1.92588 1
gene 1 4 33 -1.90429 0 12 -1.90429 1
gene 1 5 31 4.5374 0 13 4.5374 1
gene 1 5 32 -1.23155 0 14 -1.23155 1
gene 1 5 33 -1.14946 0 15 -1.14946 1
gene 1 6 31 0.54662 0 16 0.54662 1
gene 1 6 32 3.71942 0 17 3.71942 1
gene 1 6 33 -1.1552 0 18 -1.1552 1
gene 1 7 31 5 0 19 5 1
gene 1 7 32 -1.92837 0 20 -1.92837 1
gene 1 7 33 -0.481887 0 21 -0.481887 1
gene 1 8 31 -1.19008 0 22 -1.19008 1
gene 1 8 32 3.62431 0 23 3.62431 1
gene 1 8 33 -0.110363 0 24 -0.110363 1
gene 1 9 31 -5 0 25 -5 1
gene 1 9 32 0.648666 0 26 0.648666 1
gene 1 9 33 -1.68555 0 27 -1.68555 1
gene 1 10 31 -1.2676 0 28 -1.2676 1
gene 1 10 32 -1.76063 0 29 -1.76063 1
gene 1 10 33 0.48418 0 30 0.48418 1
gene 1 11 31 3.79836 0 31 3.79836 1
gene 1 11 32 1.91317 0 32 1.91317 1
gene 1 11 33 -1.38451 0 33 -1.38451 1
gene 1 12 31 3.8227 0 34 3.8227 1
gene 1 12 32 1.30137 0 35 1.30137 1
gene 1 12 33 1.11149 0 36 1.11149 1
gene 1 13 31 -0.44026 0 37 -0.44026 1
gene 1 13 32 0.600545 0 38 0.600545 1
gene 1 13 33 0.250579 0 39 0.250579 1
gene 1 14 31 -4.94249 0 40 -4.94249 1
gene 1 14 32 -3.52495 0 41 -3.52495 1
gene 1 14 33 1.08089 0 42 1.08089 1
gene 1 15 31 1.14388 0 43 1.14388 1
gene 1 15 32 1.75769 0 44 1.75769 1
gene 1 15 33 -2.53825 0 45 -2.53825 1
gene 1 16 31 -3.93059 0 46 -3.93059 1
gene 1 16 32 -0.089514 0 47 -0.089514 1
gene 1 16 33 -3.00791 0 48 -3.00791 1
gene 1 17 31 -4.26614 0 49 -4.26614 1
gene 1 17 32 -1.22712 0 50 -1.22712 1
gene 1 17 33 -3.31487 0 51 -3.31487 1
gene 1 18 31 0.150503 0 52 0.150503 1
gene 1 18 32 -0.564197 0 53 -0.564197 1
gene 1 18 33 2.97025 0 54 2.97025 1
gene 1 19 31 -0.161363 0 55 -0.161363 1
gene 1 19 32 -2.43562 0 56 -2.43562 1
gene 1 19 33 2.60234 0 57 2.60234 1
gene 1 20 31 -1.24913 0 58 -1.24913 1
gene 1 20 32 -3.58045 0 59 -3.58045 1
gene 1 20 33 3.18615 0 60 3.18615 1
gene 1 21 31 -0.562042 0 61 -0.562042 1
gene 1 21 32 -1.63171 0 62 -1.63171 1
gene 1 21 33 -0.495062 0 63 -0.495062 1
gene 1 22 31 -2.25553 0 64 -2.25553 1
gene 1 22 32 0.143088 0 65 0.143088 1
gene 1 22 33 3.51152 0 66 3.51152 1
gene 1 23 31 1.17324 0 67 1.17324 1
gene 1 23 32 -3.38707 0 68 -3.38707 1
gene 1 23 33 2.23218 0 69 2.23218 1
gene 1 24 31 4.56591 0 70 4.56591 1
gene 1 24 32 -0.626279 0 71 -0.626279 1
gene 1 24 33 4.25537 0 72 4.25537 1
gene 1 25 31 2.0337 0 73 2.0337 1
gene 1 25 32 1.28983 0 74 1.28983 1
gene 1 25 33 -0.785503 0 75 -0.785503 1
gene 1 26 31 0.590344 0 76 0.590344 1
gene 1 26 32 0.60573 0 77 0.60573 1
gene 1 26 33 0.317363 0 78 0.317363 1
gene 1 27 31 -2.45413 0 79 -2.45413 1
gene 1 27 32 -0.680976 0 80 -0.680976 1
gene 1 27 33 -0.675394 0 81 -0.675394 1
gene 1 28 31 1.66054 0 82 1.66054 1
gene 1 28 32 0.830259 0 83 0.830259 1
gene 1 28 33 -0.630891 0 84 -0.630891 1
gene 1 29 31 -0.447046 0 85 -0.447046 1
gene 1 29 32 -1.80344 0 86 -1.80344 1
gene 1 29 33 0.374427 0 87 0.374427 1
gene 1 30 31 -0.145368 0 88 -0.145368 1
gene 1 30 32 -5 0 89 -5 1
gene 1 30 33 1.0622 0 90 1.0622 1
genomeend 2


