/* Organism #80 Fitness: 20305.346000 Time: 0 */
genomestart 80
trait 1 0.667158 0.259343 0.000000 0.000000 0.754523 0.000000 0.367999 0.000000 
node 1 1 1 1
node 2 1 1 1
node 3 1 1 1
node 4 1 1 1
node 5 1 1 1
node 6 1 1 1
node 7 1 1 1
node 8 1 1 1
node 9 1 1 1
node 10 1 1 1
node 11 1 1 1
node 12 1 1 1
node 13 1 1 1
node 14 1 1 1
node 15 1 1 1
node 16 1 1 1
node 17 1 1 1
node 18 1 1 1
node 19 1 1 1
node 20 1 1 1
node 21 1 1 1
node 22 1 1 1
node 23 1 1 1
node 24 1 1 1
node 25 1 1 1
node 26 1 1 1
node 27 1 1 1
node 28 1 1 1
node 29 1 1 1
node 30 1 1 1
node 31 1 1 1
node 32 1 1 1
node 33 1 1 1
node 34 1 1 1
node 35 1 1 3
node 36 1 0 2
node 37 1 0 2
node 38 1 0 2
node 39 1 0 2
gene 1 1 36 1.92245 0 1 1.92245 1
gene 1 1 37 1.61036 0 2 1.61036 1
gene 1 1 38 -0.424605 0 3 -0.424605 1
gene 1 1 39 1.19345 0 4 1.19345 1
gene 1 2 36 -1.07106 0 5 -1.07106 1
gene 1 2 37 -0.608089 0 6 -0.608089 1
gene 1 2 38 -0.469181 0 7 -0.469181 1
gene 1 2 39 -0.907419 0 8 -0.907419 1
gene 1 3 36 -0.501666 0 9 -0.501666 1
gene 1 3 37 0.341738 0 10 0.341738 1
gene 1 3 38 -0.48909 0 11 -0.48909 1
gene 1 3 39 -3.65594 0 12 -3.65594 1
gene 1 4 36 0.621751 0 13 0.621751 1
gene 1 4 37 1.25921 0 14 1.25921 1
gene 1 4 38 -0.537823 0 15 -0.537823 1
gene 1 4 39 -4.21531 0 16 -4.21531 1
gene 1 5 36 -0.643696 0 17 -0.643696 1
gene 1 5 37 0.692062 0 18 0.692062 1
gene 1 5 38 0.40931 0 19 0.40931 1
gene 1 5 39 -3.08734 0 20 -3.08734 1
gene 1 6 36 0.369672 0 21 0.369672 1
gene 1 6 37 2.06801 0 22 2.06801 1
gene 1 6 38 -2.47843 0 23 -2.47843 1
gene 1 6 39 -5 0 24 -5 1
gene 1 7 36 -3.11618 0 25 -3.11618 1
gene 1 7 37 0.652397 0 26 0.652397 1
gene 1 7 38 -1.37983 0 27 -1.37983 1
gene 1 7 39 -0.743913 0 28 -0.743913 1
gene 1 8 36 -1.76388 0 29 -1.76388 1
gene 1 8 37 0.661536 0 30 0.661536 1
gene 1 8 38 0.908313 0 31 0.908313 1
gene 1 8 39 -0.96854 0 32 -0.96854 1
gene 1 9 36 -3.99929 0 33 -3.99929 1
gene 1 9 37 -0.673182 0 34 -0.673182 1
gene 1 9 38 0.827068 0 35 0.827068 1
gene 1 9 39 0.232031 0 36 0.232031 1
gene 1 10 36 0.234893 0 37 0.234893 1
gene 1 10 37 0.0429418 0 38 0.0429418 1
gene 1 10 38 -1.4424 0 39 -1.4424 1
gene 1 10 39 -2.08906 0 40 -2.08906 1
gene 1 11 36 -0.767225 0 41 -0.767225 1
gene 1 11 37 -4.62994 0 42 -4.62994 1
gene 1 11 38 4.73033 0 43 4.73033 1
gene 1 11 39 0.347793 0 44 0.347793 1
gene 1 12 36 1.38649 0 45 1.38649 1
gene 1 12 37 -0.20946 0 46 -0.20946 1
gene 1 12 38 0.273677 0 47 0.273677 1
gene 1 12 39 -1.59982 0 48 -1.59982 1
gene 1 13 36 -1.90156 0 49 -1.90156 1
gene 1 13 37 0.269086 0 50 0.269086 1
gene 1 13 38 -5 0 51 -5 1
gene 1 13 39 0.12423 0 52 0.12423 1
gene 1 14 36 -0.817753 0 53 -0.817753 1
gene 1 14 37 0.108031 0 54 0.108031 1
gene 1 14 38 -0.176013 0 55 -0.176013 1
gene 1 14 39 3.16107 0 56 3.16107 1
gene 1 15 36 0.511537 0 57 0.511537 1
gene 1 15 37 -2.02235 0 58 -2.02235 1
gene 1 15 38 3.62015 0 59 3.62015 1
gene 1 15 39 0.323612 0 60 0.323612 1
gene 1 16 36 1.47476 0 61 1.47476 1
gene 1 16 37 -0.233504 0 62 -0.233504 1
gene 1 16 38 0.241352 0 63 0.241352 1
gene 1 16 39 -1.67606 0 64 -1.67606 1
gene 1 17 36 -3.68574 0 65 -3.68574 1
gene 1 17 37 0.426592 0 66 0.426592 1
gene 1 17 38 -4.30207 0 67 -4.30207 1
gene 1 17 39 -0.035336 0 68 -0.035336 1
gene 1 18 36 0.4053 0 69 0.4053 1
gene 1 18 37 0.165684 0 70 0.165684 1
gene 1 18 38 -1.78393 0 71 -1.78393 1
gene 1 18 39 0.736129 0 72 0.736129 1
gene 1 19 36 3.00108 0 73 3.00108 1
gene 1 19 37 -2.77344 0 74 -2.77344 1
gene 1 19 38 2.95498 0 75 2.95498 1
gene 1 19 39 0.997923 0 76 0.997923 1
gene 1 20 36 0.38326 0 77 0.38326 1
gene 1 20 37 -0.116064 0 78 -0.116064 1
gene 1 20 38 -1.28371 0 79 -1.28371 1
gene 1 20 39 1.9436 0 80 1.9436 1
gene 1 21 36 0.529007 0 81 0.529007 1
gene 1 21 37 5 0 82 5 1
gene 1 21 38 1.89705 0 83 1.89705 1
gene 1 21 39 1.70745 0 84 1.70745 1
gene 1 22 36 -0.448504 0 85 -0.448504 1
gene 1 22 37 0.476127 0 86 0.476127 1
gene 1 22 38 0.535125 0 87 0.535125 1
gene 1 22 39 -0.000461495 0 88 -0.000461495 1
gene 1 23 36 1.26138 0 89 1.26138 1
gene 1 23 37 -1.22845 0 90 -1.22845 1
gene 1 23 38 -1.35759 0 91 -1.35759 1
gene 1 23 39 -3.64035 0 92 -3.64035 1
gene 1 24 36 -0.597185 0 93 -0.597185 1
gene 1 24 37 3.51898 0 94 3.51898 1
gene 1 24 38 0.0484818 0 95 0.0484818 1
gene 1 24 39 0.226574 0 96 0.226574 1
gene 1 25 36 0.309517 0 97 0.309517 1
gene 1 25 37 1.07825 0 98 1.07825 1
gene 1 25 38 0.624072 0 99 0.624072 1
gene 1 25 39 -1.83538 0 100 -1.83538 1
gene 1 26 36 1.27901 0 101 1.27901 1
gene 1 26 37 1.02853 0 102 1.02853 1
gene 1 26 38 -0.425734 0 103 -0.425734 1
gene 1 26 39 -0.918702 0 104 -0.918702 1
gene 1 27 36 -3.88111 0 105 -3.88111 1
gene 1 27 37 0.0292216 0 106 0.0292216 1
gene 1 27 38 -1.13177 0 107 -1.13177 1
gene 1 27 39 1.52793 0 108 1.52793 1
gene 1 28 36 -0.293749 0 109 -0.293749 1
gene 1 28 37 -0.75894 0 110 -0.75894 1
gene 1 28 38 -0.151608 0 111 -0.151608 1
gene 1 28 39 0.281738 0 112 0.281738 1
gene 1 29 36 0.945713 0 113 0.945713 1
gene 1 29 37 0.762406 0 114 0.762406 1
gene 1 29 38 -0.792108 0 115 -0.792108 1
gene 1 29 39 -0.890123 0 116 -0.890123 1
gene 1 30 36 3.74637 0 117 3.74637 1
gene 1 30 37 0.841263 0 118 0.841263 1
gene 1 30 38 0.0737092 0 119 0.0737092 1
gene 1 30 39 0.529919 0 120 0.529919 1
gene 1 31 36 -0.34493 0 121 -0.34493 1
gene 1 31 37 0.393324 0 122 0.393324 1
gene 1 31 38 0.239504 0 123 0.239504 1
gene 1 31 39 -0.57554 0 124 -0.57554 1
gene 1 32 36 0.831027 0 125 0.831027 1
gene 1 32 37 -0.217012 0 126 -0.217012 1
gene 1 32 38 0.737196 0 127 0.737196 1
gene 1 32 39 1.91153 0 128 1.91153 1
gene 1 33 36 0.342602 0 129 0.342602 1
gene 1 33 37 -1.32823 0 130 -1.32823 1
gene 1 33 38 0.0243607 0 131 0.0243607 1
gene 1 33 39 0.628512 0 132 0.628512 1
gene 1 34 36 -0.285011 0 133 -0.285011 1
gene 1 34 37 -3.1269 0 134 -3.1269 1
gene 1 34 38 -0.343562 0 135 -0.343562 1
gene 1 34 39 -0.0697338 0 136 -0.0697338 1
gene 1 35 36 -4.52098 0 137 -4.52098 1
gene 1 35 37 -5 0 138 -5 1
gene 1 35 38 -0.943346 0 139 -0.943346 1
gene 1 35 39 -0.718213 0 140 -0.718213 1
genomeend 80


