/* Organism #4 Fitness: 14828.800000 Time: 0 */
genomestart 4
trait 1 0.775733 0.000000 0.158278 0.666747 0.000000 0.000000 0.000000 0.000000 
node 1 1 1 1
node 2 1 1 1
node 3 1 1 1
node 4 1 1 1
node 5 1 1 1
node 6 1 1 1
node 7 1 1 1
node 8 1 1 1
node 9 1 1 1
node 10 1 1 1
node 11 1 1 1
node 12 1 1 1
node 13 1 1 1
node 14 1 1 1
node 15 1 1 1
node 16 1 1 1
node 17 1 1 1
node 18 1 1 1
node 19 1 1 1
node 20 1 1 1
node 21 1 1 1
node 22 1 1 1
node 23 1 1 1
node 24 1 1 1
node 25 1 1 1
node 26 1 1 1
node 27 1 1 1
node 28 1 1 1
node 29 1 1 1
node 30 1 1 3
node 31 1 0 2
node 32 1 0 2
node 33 1 0 2
gene 1 1 31 -4.20913 0 1 -4.20913 1
gene 1 1 32 1.45926 0 2 1.45926 1
gene 1 1 33 4.42281 0 3 4.42281 1
gene 1 2 31 -3.03412 0 4 -3.03412 1
gene 1 2 32 3.57604 0 5 3.57604 1
gene 1 2 33 1.27935 0 6 1.27935 1
gene 1 3 31 -1.61369 0 7 -1.61369 1
gene 1 3 32 -0.139113 0 8 -0.139113 1
gene 1 3 33 4.74414 0 9 4.74414 1
gene 1 4 31 4.25712 0 10 4.25712 1
gene 1 4 32 5 0 11 5 1
gene 1 4 33 3.44817 0 12 3.44817 1
gene 1 5 31 3.56088 0 13 3.56088 1
gene 1 5 32 1.73903 0 14 1.73903 1
gene 1 5 33 0.402224 0 15 0.402224 1
gene 1 6 31 1.08647 0 16 1.08647 1
gene 1 6 32 -3.20563 0 17 -3.20563 1
gene 1 6 33 2.45383 0 18 2.45383 1
gene 1 7 31 5 0 19 5 1
gene 1 7 32 -0.839809 0 20 -0.839809 1
gene 1 7 33 -0.675295 0 21 -0.675295 1
gene 1 8 31 -1.13405 0 22 -1.13405 1
gene 1 8 32 -0.531593 0 23 -0.531593 1
gene 1 8 33 2.9215 0 24 2.9215 1
gene 1 9 31 -3.96978 0 25 -3.96978 1
gene 1 9 32 -1.11824 0 26 -1.11824 1
gene 1 9 33 4.00292 0 27 4.00292 1
gene 1 10 31 -0.750766 0 28 -0.750766 1
gene 1 10 32 1.23659 0 29 1.23659 1
gene 1 10 33 -5 0 30 -5 1
gene 1 11 31 3.29294 0 31 3.29294 1
gene 1 11 32 -1.35904 0 32 -1.35904 1
gene 1 11 33 3.18677 0 33 3.18677 1
gene 1 12 31 -3.15139 0 34 -3.15139 1
gene 1 12 32 -1.3199 0 35 -1.3199 1
gene 1 12 33 2.23875 0 36 2.23875 1
gene 1 13 31 0.535878 0 37 0.535878 1
gene 1 13 32 -2.62995 0 38 -2.62995 1
gene 1 13 33 3.03099 0 39 3.03099 1
gene 1 14 31 -1.42375 0 40 -1.42375 1
gene 1 14 32 5 0 41 5 1
gene 1 14 33 0.478157 0 42 0.478157 1
gene 1 15 31 -1.50571 0 43 -1.50571 1
gene 1 15 32 -1.78923 0 44 -1.78923 1
gene 1 15 33 -1.54974 0 45 -1.54974 1
gene 1 16 31 3.25238 0 46 3.25238 1
gene 1 16 32 0.992275 0 47 0.992275 1
gene 1 16 33 3.28066 0 48 3.28066 1
gene 1 17 31 -4.27124 0 49 -4.27124 1
gene 1 17 32 -1.33036 0 50 -1.33036 1
gene 1 17 33 0.476204 0 51 0.476204 1
gene 1 18 31 -4.91767 0 52 -4.91767 1
gene 1 18 32 -2.2926 0 53 -2.2926 1
gene 1 18 33 0.385183 0 54 0.385183 1
gene 1 19 31 -4.43623 0 55 -4.43623 1
gene 1 19 32 -2.65411 0 56 -2.65411 1
gene 1 19 33 -4.44636 0 57 -4.44636 1
gene 1 20 31 1.28562 0 58 1.28562 1
gene 1 20 32 0.487323 0 59 0.487323 1
gene 1 20 33 3.06021 0 60 3.06021 1
gene 1 21 31 -0.0526832 0 61 -0.0526832 1
gene 1 21 32 -1.69059 0 62 -1.69059 1
gene 1 21 33 4.08823 0 63 4.08823 1
gene 1 22 31 -1.89815 0 64 -1.89815 1
gene 1 22 32 -0.141289 0 65 -0.141289 1
gene 1 22 33 -4.27104 0 66 -4.27104 1
gene 1 23 31 -4.59977 0 67 -4.59977 1
gene 1 23 32 2.31566 0 68 2.31566 1
gene 1 23 33 2.74635 0 69 2.74635 1
gene 1 24 31 3.07466 0 70 3.07466 1
gene 1 24 32 -0.798535 0 71 -0.798535 1
gene 1 24 33 -1.3818 0 72 -1.3818 1
gene 1 25 31 -1.23949 0 73 -1.23949 1
gene 1 25 32 -1.54961 0 74 -1.54961 1
gene 1 25 33 1.08073 0 75 1.08073 1
gene 1 26 31 -0.53409 0 76 -0.53409 1
gene 1 26 32 -1.39113 0 77 -1.39113 1
gene 1 26 33 -1.09099 0 78 -1.09099 1
gene 1 27 31 -0.709609 0 79 -0.709609 1
gene 1 27 32 0.188905 0 80 0.188905 1
gene 1 27 33 -1.01054 0 81 -1.01054 1
gene 1 28 31 -0.566297 0 82 -0.566297 1
gene 1 28 32 -0.390537 0 83 -0.390537 1
gene 1 28 33 -1.59941 0 84 -1.59941 1
gene 1 29 31 0.337433 0 85 0.337433 1
gene 1 29 32 -0.634506 0 86 -0.634506 1
gene 1 29 33 -2.1616 0 87 -2.1616 1
gene 1 30 31 1.95131 0 88 1.95131 1
gene 1 30 32 -1.24243 0 89 -1.24243 1
gene 1 30 33 -0.760713 0 90 -0.760713 1
genomeend 4


