/* Organism #14 Fitness: 14678.700000 Time: 0 */
genomestart 14
trait 1 0.100000 0.000000 0.000000 0.000000 0.000000 0.000000 0.000000 0.000000 
node 1 1 1 1
node 2 1 1 1
node 3 1 1 1
node 4 1 1 1
node 5 1 1 1
node 6 1 1 1
node 7 1 1 1
node 8 1 1 1
node 9 1 1 1
node 10 1 1 1
node 11 1 1 1
node 12 1 1 1
node 13 1 1 1
node 14 1 1 1
node 15 1 1 1
node 16 1 1 1
node 17 1 1 1
node 18 1 1 1
node 19 1 1 1
node 20 1 1 1
node 21 1 1 1
node 22 1 1 1
node 23 1 1 1
node 24 1 1 1
node 25 1 1 1
node 26 1 1 1
node 27 1 1 1
node 28 1 1 1
node 29 1 1 1
node 30 1 1 3
node 31 1 0 2
node 32 1 0 2
node 33 1 0 2
gene 1 1 31 -4.43405 0 1 -4.43405 1
gene 1 1 32 -0.753346 0 2 -0.753346 1
gene 1 1 33 2.92575 0 3 2.92575 1
gene 1 2 31 -1.29834 0 4 -1.29834 1
gene 1 2 32 -3.2336 0 5 -3.2336 1
gene 1 2 33 2.52061 0 6 2.52061 1
gene 1 3 31 1.07585 0 7 1.07585 1
gene 1 3 32 -2.89756 0 8 -2.89756 1
gene 1 3 33 -0.475989 0 9 -0.475989 1
gene 1 4 31 1.08371 0 10 1.08371 1
gene 1 4 32 3.99207 0 11 3.99207 1
gene 1 4 33 -1.78516 0 12 -1.78516 1
gene 1 5 31 4.37203 0 13 4.37203 1
gene 1 5 32 4.73647 0 14 4.73647 1
gene 1 5 33 -0.743876 0 15 -0.743876 1
gene 1 6 31 1.34206 0 16 1.34206 1
gene 1 6 32 -3.88735 0 17 -3.88735 1
gene 1 6 33 3.21442 0 18 3.21442 1
gene 1 7 31 5 0 19 5 1
gene 1 7 32 -0.755898 0 20 -0.755898 1
gene 1 7 33 2.39382 0 21 2.39382 1
gene 1 8 31 -1.92664 0 22 -1.92664 1
gene 1 8 32 -3.24146 0 23 -3.24146 1
gene 1 8 33 2.33003 0 24 2.33003 1
gene 1 9 31 -0.235784 0 25 -0.235784 1
gene 1 9 32 -1.46424 0 26 -1.46424 1
gene 1 9 33 5 0 27 5 1
gene 1 10 31 -0.49215 0 28 -0.49215 1
gene 1 10 32 -2.48039 0 29 -2.48039 1
gene 1 10 33 0.628637 0 30 0.628637 1
gene 1 11 31 1.2855 0 31 1.2855 1
gene 1 11 32 -0.992341 0 32 -0.992341 1
gene 1 11 33 3.54073 0 33 3.54073 1
gene 1 12 31 -0.0620646 0 34 -0.0620646 1
gene 1 12 32 0.451667 0 35 0.451667 1
gene 1 12 33 0.840858 0 36 0.840858 1
gene 1 13 31 -0.674918 0 37 -0.674918 1
gene 1 13 32 -1.43589 0 38 -1.43589 1
gene 1 13 33 -1.95181 0 39 -1.95181 1
gene 1 14 31 1.67365 0 40 1.67365 1
gene 1 14 32 -1.41531 0 41 -1.41531 1
gene 1 14 33 -0.0808032 0 42 -0.0808032 1
gene 1 15 31 -0.396707 0 43 -0.396707 1
gene 1 15 32 0.332475 0 44 0.332475 1
gene 1 15 33 0.767029 0 45 0.767029 1
gene 1 16 31 0.064003 0 46 0.064003 1
gene 1 16 32 -3.53564 0 47 -3.53564 1
gene 1 16 33 0.610636 0 48 0.610636 1
gene 1 17 31 -4.16244 0 49 -4.16244 1
gene 1 17 32 -0.615026 0 50 -0.615026 1
gene 1 17 33 -1.50642 0 51 -1.50642 1
gene 1 18 31 -0.695331 0 52 -0.695331 1
gene 1 18 32 0.570507 0 53 0.570507 1
gene 1 18 33 1.36461 0 54 1.36461 1
gene 1 19 31 -1.39001 0 55 -1.39001 1
gene 1 19 32 -1.27767 0 56 -1.27767 1
gene 1 19 33 0.633172 0 57 0.633172 1
gene 1 20 31 0.591341 0 58 0.591341 1
gene 1 20 32 -0.426283 0 59 -0.426283 1
gene 1 20 33 0.411259 0 60 0.411259 1
gene 1 21 31 1.48 0 61 1.48 1
gene 1 21 32 0.161085 0 62 0.161085 1
gene 1 21 33 4.04667 0 63 4.04667 1
gene 1 22 31 -1.40308 0 64 -1.40308 1
gene 1 22 32 1.42058 0 65 1.42058 1
gene 1 22 33 -1.18096 0 66 -1.18096 1
gene 1 23 31 -4.69271 0 67 -4.69271 1
gene 1 23 32 0.583466 0 68 0.583466 1
gene 1 23 33 4.57852 0 69 4.57852 1
gene 1 24 31 3.92758 0 70 3.92758 1
gene 1 24 32 -2.54234 0 71 -2.54234 1
gene 1 24 33 -3.02899 0 72 -3.02899 1
gene 1 25 31 -0.274337 0 73 -0.274337 1
gene 1 25 32 1.47429 0 74 1.47429 1
gene 1 25 33 0.887837 0 75 0.887837 1
gene 1 26 31 1.37325 0 76 1.37325 1
gene 1 26 32 3.22541 0 77 3.22541 1
gene 1 26 33 0.159567 0 78 0.159567 1
gene 1 27 31 0.828909 0 79 0.828909 1
gene 1 27 32 -1.3588 0 80 -1.3588 1
gene 1 27 33 -0.111023 0 81 -0.111023 1
gene 1 28 31 -0.395891 0 82 -0.395891 1
gene 1 28 32 -0.69646 0 83 -0.69646 1
gene 1 28 33 -0.0479274 0 84 -0.0479274 1
gene 1 29 31 0.869508 0 85 0.869508 1
gene 1 29 32 -1.03573 0 86 -1.03573 1
gene 1 29 33 -0.0295226 0 87 -0.0295226 1
gene 1 30 31 0.222479 0 88 0.222479 1
gene 1 30 32 -3.08548 0 89 -3.08548 1
gene 1 30 33 0.649313 0 90 0.649313 1
genomeend 14


