/* Organism #5 Fitness: 10480.000000 Time: 0 */
genomestart 5
trait 1 0.248290 0.000000 1.000000 0.000000 0.013793 0.680407 0.000000 0.000000 
node 1 1 1 1
node 2 1 1 1
node 3 1 1 1
node 4 1 1 1
node 5 1 1 1
node 6 1 1 1
node 7 1 1 1
node 8 1 1 1
node 9 1 1 1
node 10 1 1 1
node 11 1 1 1
node 12 1 1 1
node 13 1 1 1
node 14 1 1 1
node 15 1 1 1
node 16 1 1 1
node 17 1 1 1
node 18 1 1 1
node 19 1 1 1
node 20 1 1 1
node 21 1 1 1
node 22 1 1 1
node 23 1 1 1
node 24 1 1 1
node 25 1 1 1
node 26 1 1 1
node 27 1 1 1
node 28 1 1 1
node 29 1 1 1
node 30 1 1 3
node 31 1 0 2
node 32 1 0 2
node 33 1 0 2
gene 1 1 31 -0.921642 0 1 -0.921642 1
gene 1 1 32 0.949326 0 2 0.949326 1
gene 1 1 33 0.495072 0 3 0.495072 1
gene 1 2 31 -4.67153 0 4 -4.67153 1
gene 1 2 32 -2.65217 0 5 -2.65217 1
gene 1 2 33 5 0 6 5 1
gene 1 3 31 -1.71107 0 7 -1.71107 1
gene 1 3 32 1.42185 0 8 1.42185 1
gene 1 3 33 -0.928112 0 9 -0.928112 1
gene 1 4 31 1.50536 0 10 1.50536 1
gene 1 4 32 3.18773 0 11 3.18773 1
gene 1 4 33 1.97281 0 12 1.97281 1
gene 1 5 31 0.647857 0 13 0.647857 1
gene 1 5 32 0.38462 0 14 0.38462 1
gene 1 5 33 -0.524597 0 15 -0.524597 1
gene 1 6 31 0.303897 0 16 0.303897 1
gene 1 6 32 1.18475 0 17 1.18475 1
gene 1 6 33 1.20652 0 18 1.20652 1
gene 1 7 31 -0.871638 0 19 -0.871638 1
gene 1 7 32 0.510609 0 20 0.510609 1
gene 1 7 33 -1.72865 0 21 -1.72865 1
gene 1 8 31 0.433992 0 22 0.433992 1
gene 1 8 32 -1.36926 0 23 -1.36926 1
gene 1 8 33 1.20412 0 24 1.20412 1
gene 1 9 31 -0.0591694 0 25 -0.0591694 1
gene 1 9 32 1.5247 0 26 1.5247 1
gene 1 9 33 -1.18751 0 27 -1.18751 1
gene 1 10 31 -1.43737 0 28 -1.43737 1
gene 1 10 32 -0.679709 0 29 -0.679709 1
gene 1 10 33 -0.199536 0 30 -0.199536 1
gene 1 11 31 1.05664 0 31 1.05664 1
gene 1 11 32 0.711026 0 32 0.711026 1
gene 1 11 33 -1.99711 0 33 -1.99711 1
gene 1 12 31 -0.334008 0 34 -0.334008 1
gene 1 12 32 -3.64413 0 35 -3.64413 1
gene 1 12 33 -0.169908 0 36 -0.169908 1
gene 1 13 31 1.31573 0 37 1.31573 1
gene 1 13 32 -0.616947 0 38 -0.616947 1
gene 1 13 33 0.594627 0 39 0.594627 1
gene 1 14 31 2.22987 0 40 2.22987 1
gene 1 14 32 4.60499 0 41 4.60499 1
gene 1 14 33 -1.56506 0 42 -1.56506 1
gene 1 15 31 0.559077 0 43 0.559077 1
gene 1 15 32 2.85237 0 44 2.85237 1
gene 1 15 33 -0.56037 0 45 -0.56037 1
gene 1 16 31 -1.58927 0 46 -1.58927 1
gene 1 16 32 4.94959 0 47 4.94959 1
gene 1 16 33 -0.944067 0 48 -0.944067 1
gene 1 17 31 -0.388233 0 49 -0.388233 1
gene 1 17 32 -2.53519 0 50 -2.53519 1
gene 1 17 33 -1.33221 0 51 -1.33221 1
gene 1 18 31 -2.85213 0 52 -2.85213 1
gene 1 18 32 -0.0202621 0 53 -0.0202621 1
gene 1 18 33 0.410438 0 54 0.410438 1
gene 1 19 31 -2.81745 0 55 -2.81745 1
gene 1 19 32 -0.558822 0 56 -0.558822 1
gene 1 19 33 -0.76022 0 57 -0.76022 1
gene 1 20 31 0.676609 0 58 0.676609 1
gene 1 20 32 -0.619228 0 59 -0.619228 1
gene 1 20 33 4.47238 0 60 4.47238 1
gene 1 21 31 2.3686 0 61 2.3686 1
gene 1 21 32 0.416294 0 62 0.416294 1
gene 1 21 33 -3.15953 0 63 -3.15953 1
gene 1 22 31 0.964839 0 64 0.964839 1
gene 1 22 32 -0.526311 0 65 -0.526311 1
gene 1 22 33 0.533052 0 66 0.533052 1
gene 1 23 31 -0.991968 0 67 -0.991968 1
gene 1 23 32 -0.528335 0 68 -0.528335 1
gene 1 23 33 0.0813323 0 69 0.0813323 1
gene 1 24 31 0.192949 0 70 0.192949 1
gene 1 24 32 4.10757 0 71 4.10757 1
gene 1 24 33 -1.79612 0 72 -1.79612 1
gene 1 25 31 0.955918 0 73 0.955918 1
gene 1 25 32 1.87535 0 74 1.87535 1
gene 1 25 33 1.41312 0 75 1.41312 1
gene 1 26 31 1.65932 0 76 1.65932 1
gene 1 26 32 0.447856 0 77 0.447856 1
gene 1 26 33 0.241215 0 78 0.241215 1
gene 1 27 31 -0.284108 0 79 -0.284108 1
gene 1 27 32 0.940235 0 80 0.940235 1
gene 1 27 33 0.102808 0 81 0.102808 1
gene 1 28 31 0.224648 0 82 0.224648 1
gene 1 28 32 -1.72005 0 83 -1.72005 1
gene 1 28 33 0.97081 0 84 0.97081 1
gene 1 29 31 1.40198 0 85 1.40198 1
gene 1 29 32 0.227737 0 86 0.227737 1
gene 1 29 33 1.67813 0 87 1.67813 1
gene 1 30 31 -1.9573 0 88 -1.9573 1
gene 1 30 32 -1.14691 0 89 -1.14691 1
gene 1 30 33 1.76071 0 90 1.76071 1
genomeend 5


