/* Organism #17 Fitness: 20150.806000 Time: 0 */
genomestart 17
trait 1 0.000000 0.439104 0.000000 0.000000 0.833301 0.000000 0.000000 0.197582 
node 1 1 1 1
node 2 1 1 1
node 3 1 1 1
node 4 1 1 1
node 5 1 1 1
node 6 1 1 1
node 7 1 1 1
node 8 1 1 1
node 9 1 1 1
node 10 1 1 1
node 11 1 1 1
node 12 1 1 1
node 13 1 1 1
node 14 1 1 1
node 15 1 1 1
node 16 1 1 1
node 17 1 1 1
node 18 1 1 1
node 19 1 1 1
node 20 1 1 1
node 21 1 1 1
node 22 1 1 1
node 23 1 1 1
node 24 1 1 1
node 25 1 1 1
node 26 1 1 1
node 27 1 1 1
node 28 1 1 1
node 29 1 1 1
node 30 1 1 1
node 31 1 1 1
node 32 1 1 1
node 33 1 1 1
node 34 1 1 1
node 35 1 1 1
node 36 1 1 1
node 37 1 1 1
node 38 1 1 1
node 39 1 1 1
node 40 1 1 3
node 41 1 0 2
node 42 1 0 2
node 43 1 0 2
node 44 1 0 2
node 45 1 0 2
gene 1 1 41 -4.05289 0 1 -4.05289 1
gene 1 1 42 0.946192 0 2 0.946192 1
gene 1 1 43 -1.76266 0 3 -1.76266 1
gene 1 1 44 -0.317752 0 4 -0.317752 1
gene 1 1 45 -0.49854 0 5 -0.49854 1
gene 1 2 41 -0.0167016 0 6 -0.0167016 1
gene 1 2 42 -0.896432 0 7 -0.896432 1
gene 1 2 43 4.68124 0 8 4.68124 1
gene 1 2 44 1.0193 0 9 1.0193 1
gene 1 2 45 5 0 10 5 1
gene 1 3 41 -0.845797 0 11 -0.845797 1
gene 1 3 42 -1.04963 0 12 -1.04963 1
gene 1 3 43 0.497889 0 13 0.497889 1
gene 1 3 44 1.30078 0 14 1.30078 1
gene 1 3 45 -1.8725 0 15 -1.8725 1
gene 1 4 41 -0.231383 0 16 -0.231383 1
gene 1 4 42 0.0705551 0 17 0.0705551 1
gene 1 4 43 1.5865 0 18 1.5865 1
gene 1 4 44 -1.70419 0 19 -1.70419 1
gene 1 4 45 -4.90372 0 20 -4.90372 1
gene 1 5 41 -0.148447 0 21 -0.148447 1
gene 1 5 42 -0.608505 0 22 -0.608505 1
gene 1 5 43 -1.6605 0 23 -1.6605 1
gene 1 5 44 -4.51655 0 24 -4.51655 1
gene 1 5 45 0.259201 0 25 0.259201 1
gene 1 6 41 -0.349586 0 26 -0.349586 1
gene 1 6 42 -0.302837 0 27 -0.302837 1
gene 1 6 43 -4.82916 0 28 -4.82916 1
gene 1 6 44 -3.74478 0 29 -3.74478 1
gene 1 6 45 0.256663 0 30 0.256663 1
gene 1 7 41 -4.24607 0 31 -4.24607 1
gene 1 7 42 0.430249 0 32 0.430249 1
gene 1 7 43 0.659515 0 33 0.659515 1
gene 1 7 44 0.328835 0 34 0.328835 1
gene 1 7 45 4.02285 0 35 4.02285 1
gene 1 8 41 -3.29221 0 36 -3.29221 1
gene 1 8 42 0.396847 0 37 0.396847 1
gene 1 8 43 1.59362 0 38 1.59362 1
gene 1 8 44 0.0740239 0 39 0.0740239 1
gene 1 8 45 1.14643 0 40 1.14643 1
gene 1 9 41 0.908282 0 41 0.908282 1
gene 1 9 42 -0.671437 0 42 -0.671437 1
gene 1 9 43 1.1883 0 43 1.1883 1
gene 1 9 44 1.93647 0 44 1.93647 1
gene 1 9 45 -2.29397 0 45 -2.29397 1
gene 1 10 41 -1.07133 0 46 -1.07133 1
gene 1 10 42 0.947963 0 47 0.947963 1
gene 1 10 43 1.68607 0 48 1.68607 1
gene 1 10 44 2.48283 0 49 2.48283 1
gene 1 10 45 0.329591 0 50 0.329591 1
gene 1 11 41 -4.43626 0 51 -4.43626 1
gene 1 11 42 0.20973 0 52 0.20973 1
gene 1 11 43 3.14543 0 53 3.14543 1
gene 1 11 44 0.459747 0 54 0.459747 1
gene 1 11 45 2.30945 0 55 2.30945 1
gene 1 12 41 1.70611 0 56 1.70611 1
gene 1 12 42 -3.45641 0 57 -3.45641 1
gene 1 12 43 -0.954348 0 58 -0.954348 1
gene 1 12 44 -3.57495 0 59 -3.57495 1
gene 1 12 45 3.21494 0 60 3.21494 1
gene 1 13 41 -1.67593 0 61 -1.67593 1
gene 1 13 42 -2.82869 0 62 -2.82869 1
gene 1 13 43 -0.0762024 0 63 -0.0762024 1
gene 1 13 44 0.705943 0 64 0.705943 1
gene 1 13 45 0.250357 0 65 0.250357 1
gene 1 14 41 0.812782 0 66 0.812782 1
gene 1 14 42 2.48115 0 67 2.48115 1
gene 1 14 43 2.88244 0 68 2.88244 1
gene 1 14 44 0.830733 0 69 0.830733 1
gene 1 14 45 0.798793 0 70 0.798793 1
gene 1 15 41 -4.89682 0 71 -4.89682 1
gene 1 15 42 4.69449 0 72 4.69449 1
gene 1 15 43 1.32485 0 73 1.32485 1
gene 1 15 44 -1.85589 0 74 -1.85589 1
gene 1 15 45 -2.38538 0 75 -2.38538 1
gene 1 16 41 -0.286388 0 76 -0.286388 1
gene 1 16 42 1.98139 0 77 1.98139 1
gene 1 16 43 -0.538807 0 78 -0.538807 1
gene 1 16 44 1.39402 0 79 1.39402 1
gene 1 16 45 -0.254334 0 80 -0.254334 1
gene 1 17 41 3.49892 0 81 3.49892 1
gene 1 17 42 -1.20435 0 82 -1.20435 1
gene 1 17 43 3.57424 0 83 3.57424 1
gene 1 17 44 -0.891589 0 84 -0.891589 1
gene 1 17 45 -0.172484 0 85 -0.172484 1
gene 1 18 41 -0.889724 0 86 -0.889724 1
gene 1 18 42 -1.22299 0 87 -1.22299 1
gene 1 18 43 0.907439 0 88 0.907439 1
gene 1 18 44 0.648905 0 89 0.648905 1
gene 1 18 45 2.42141 0 90 2.42141 1
gene 1 19 41 -4.01856 0 91 -4.01856 1
gene 1 19 42 -2.01335 0 92 -2.01335 1
gene 1 19 43 -1.33212 0 93 -1.33212 1
gene 1 19 44 1.02018 0 94 1.02018 1
gene 1 19 45 2.74284 0 95 2.74284 1
gene 1 20 41 3.84912 0 96 3.84912 1
gene 1 20 42 1.35161 0 97 1.35161 1
gene 1 20 43 -5 0 98 -5 1
gene 1 20 44 0.0662314 0 99 0.0662314 1
gene 1 20 45 -4.15799 0 100 -4.15799 1
gene 1 21 41 -0.252384 0 101 -0.252384 1
gene 1 21 42 -1.90856 0 102 -1.90856 1
gene 1 21 43 -0.828134 0 103 -0.828134 1
gene 1 21 44 -5 0 104 -5 1
gene 1 21 45 -0.230319 0 105 -0.230319 1
gene 1 22 41 1.16514 0 106 1.16514 1
gene 1 22 42 -3.75736 0 107 -3.75736 1
gene 1 22 43 1.50397 0 108 1.50397 1
gene 1 22 44 -0.432181 0 109 -0.432181 1
gene 1 22 45 0.62352 0 110 0.62352 1
gene 1 23 41 1.00476 0 111 1.00476 1
gene 1 23 42 1.44439 0 112 1.44439 1
gene 1 23 43 -3.39481 0 113 -3.39481 1
gene 1 23 44 1.01793 0 114 1.01793 1
gene 1 23 45 -3.68155 0 115 -3.68155 1
gene 1 24 41 1.59799 0 116 1.59799 1
gene 1 24 42 2.20032 0 117 2.20032 1
gene 1 24 43 2.25914 0 118 2.25914 1
gene 1 24 44 -4.15853 0 119 -4.15853 1
gene 1 24 45 -1.84462 0 120 -1.84462 1
gene 1 25 41 -1.02099 0 121 -1.02099 1
gene 1 25 42 -0.144981 0 122 -0.144981 1
gene 1 25 43 -2.8158 0 123 -2.8158 1
gene 1 25 44 -2.39594 0 124 -2.39594 1
gene 1 25 45 0.861041 0 125 0.861041 1
gene 1 26 41 0.178588 0 126 0.178588 1
gene 1 26 42 2.00033 0 127 2.00033 1
gene 1 26 43 2.83643 0 128 2.83643 1
gene 1 26 44 2.85914 0 129 2.85914 1
gene 1 26 45 -1.60659 0 130 -1.60659 1
gene 1 27 41 0.744659 0 131 0.744659 1
gene 1 27 42 -1.5838 0 132 -1.5838 1
gene 1 27 43 -0.778172 0 133 -0.778172 1
gene 1 27 44 -1.65815 0 134 -1.65815 1
gene 1 27 45 -0.407248 0 135 -0.407248 1
gene 1 28 41 -0.498382 0 136 -0.498382 1
gene 1 28 42 -0.924583 0 137 -0.924583 1
gene 1 28 43 -2.62448 0 138 -2.62448 1
gene 1 28 44 -0.699288 0 139 -0.699288 1
gene 1 28 45 -0.364755 0 140 -0.364755 1
gene 1 29 41 1.09283 0 141 1.09283 1
gene 1 29 42 -2.90476 0 142 -2.90476 1
gene 1 29 43 0.385405 0 143 0.385405 1
gene 1 29 44 -5 0 144 -5 1
gene 1 29 45 1.0792 0 145 1.0792 1
gene 1 30 41 2.95872 0 146 2.95872 1
gene 1 30 42 -5 0 147 -5 1
gene 1 30 43 0.519608 0 148 0.519608 1
gene 1 30 44 3.59127 0 149 3.59127 1
gene 1 30 45 0.00656363 0 150 0.00656363 1
gene 1 31 41 0.856372 0 151 0.856372 1
gene 1 31 42 -0.938707 0 152 -0.938707 1
gene 1 31 43 0.651557 0 153 0.651557 1
gene 1 31 44 -1.66509 0 154 -1.66509 1
gene 1 31 45 2.6592 0 155 2.6592 1
gene 1 32 41 0.632736 0 156 0.632736 1
gene 1 32 42 -4.19384 0 157 -4.19384 1
gene 1 32 43 -0.268866 0 158 -0.268866 1
gene 1 32 44 1.11693 0 159 1.11693 1
gene 1 32 45 0.800062 0 160 0.800062 1
gene 1 33 41 -0.670291 0 161 -0.670291 1
gene 1 33 42 -2.02884 0 162 -2.02884 1
gene 1 33 43 -3.37604 0 163 -3.37604 1
gene 1 33 44 0.73704 0 164 0.73704 1
gene 1 33 45 -2.61004 0 165 -2.61004 1
gene 1 34 41 -1.43215 0 166 -1.43215 1
gene 1 34 42 -0.117361 0 167 -0.117361 1
gene 1 34 43 -2.20735 0 168 -2.20735 1
gene 1 34 44 -2.35006 0 169 -2.35006 1
gene 1 34 45 -0.619262 0 170 -0.619262 1
gene 1 35 41 0.58339 0 171 0.58339 1
gene 1 35 42 -0.644064 0 172 -0.644064 1
gene 1 35 43 -0.264935 0 173 -0.264935 1
gene 1 35 44 0.101965 0 174 0.101965 1
gene 1 35 45 -0.00210511 0 175 -0.00210511 1
gene 1 36 41 -0.293998 0 176 -0.293998 1
gene 1 36 42 -0.0898927 0 177 -0.0898927 1
gene 1 36 43 -1.05968 0 178 -1.05968 1
gene 1 36 44 -2.46846 0 179 -2.46846 1
gene 1 36 45 1.0293 0 180 1.0293 1
gene 1 37 41 -1.30016 0 181 -1.30016 1
gene 1 37 42 -0.397579 0 182 -0.397579 1
gene 1 37 43 0.383478 0 183 0.383478 1
gene 1 37 44 -1.25501 0 184 -1.25501 1
gene 1 37 45 -0.603527 0 185 -0.603527 1
gene 1 38 41 -0.611213 0 186 -0.611213 1
gene 1 38 42 -0.507557 0 187 -0.507557 1
gene 1 38 43 -1.31394 0 188 -1.31394 1
gene 1 38 44 -1.92922 0 189 -1.92922 1
gene 1 38 45 0.031842 0 190 0.031842 1
gene 1 39 41 -0.931879 0 191 -0.931879 1
gene 1 39 42 2.23208 0 192 2.23208 1
gene 1 39 43 -0.565017 0 193 -0.565017 1
gene 1 39 44 0.187948 0 194 0.187948 1
gene 1 39 45 -0.55816 0 195 -0.55816 1
gene 1 40 41 -5 0 196 -5 1
gene 1 40 42 -0.0610351 0 197 -0.0610351 1
gene 1 40 43 -0.802844 0 198 -0.802844 1
gene 1 40 44 -0.0881374 0 199 -0.0881374 1
gene 1 40 45 0.248232 0 200 0.248232 1
genomeend 17


