/* Organism #1 Fitness: 19758.530000 Time: 0 */
genomestart 1
trait 1 0.000000 0.147583 0.000000 0.000000 0.587112 0.000000 0.602940 0.000000 
node 1 1 1 1
node 2 1 1 1
node 3 1 1 1
node 4 1 1 1
node 5 1 1 1
node 6 1 1 1
node 7 1 1 1
node 8 1 1 1
node 9 1 1 1
node 10 1 1 1
node 11 1 1 1
node 12 1 1 1
node 13 1 1 1
node 14 1 1 1
node 15 1 1 1
node 16 1 1 1
node 17 1 1 1
node 18 1 1 1
node 19 1 1 1
node 20 1 1 1
node 21 1 1 1
node 22 1 1 1
node 23 1 1 1
node 24 1 1 1
node 25 1 1 1
node 26 1 1 1
node 27 1 1 1
node 28 1 1 1
node 29 1 1 1
node 30 1 1 1
node 31 1 1 1
node 32 1 1 1
node 33 1 1 1
node 34 1 1 1
node 35 1 1 1
node 36 1 1 1
node 37 1 1 1
node 38 1 1 1
node 39 1 1 1
node 40 1 1 3
node 41 1 0 2
node 42 1 0 2
node 43 1 0 2
node 44 1 0 2
node 45 1 0 2
gene 1 1 41 -1.22982 0 1 -1.22982 1
gene 1 1 42 0.932331 0 2 0.932331 1
gene 1 1 43 0.184053 0 3 0.184053 1
gene 1 1 44 2.27698 0 4 2.27698 1
gene 1 1 45 2.05733 0 5 2.05733 1
gene 1 2 41 0.615416 0 6 0.615416 1
gene 1 2 42 2.78994 0 7 2.78994 1
gene 1 2 43 -1.32297 0 8 -1.32297 1
gene 1 2 44 2.8206 0 9 2.8206 1
gene 1 2 45 1.43275 0 10 1.43275 1
gene 1 3 41 3.09002 0 11 3.09002 1
gene 1 3 42 0.972136 0 12 0.972136 1
gene 1 3 43 0.551634 0 13 0.551634 1
gene 1 3 44 1.39398 0 14 1.39398 1
gene 1 3 45 2.51113 0 15 2.51113 1
gene 1 4 41 -2.72763 0 16 -2.72763 1
gene 1 4 42 3.20703 0 17 3.20703 1
gene 1 4 43 2.00811 0 18 2.00811 1
gene 1 4 44 1.65109 0 19 1.65109 1
gene 1 4 45 -0.292099 0 20 -0.292099 1
gene 1 5 41 4.10423 0 21 4.10423 1
gene 1 5 42 -1.6153 0 22 -1.6153 1
gene 1 5 43 -0.00867242 0 23 -0.00867242 1
gene 1 5 44 1.98274 0 24 1.98274 1
gene 1 5 45 -2.31551 0 25 -2.31551 1
gene 1 6 41 1.31841 0 26 1.31841 1
gene 1 6 42 -3.80315 0 27 -3.80315 1
gene 1 6 43 4.35618 0 28 4.35618 1
gene 1 6 44 1.49289 0 29 1.49289 1
gene 1 6 45 0.546446 0 30 0.546446 1
gene 1 7 41 -0.843323 0 31 -0.843323 1
gene 1 7 42 -1.49016 0 32 -1.49016 1
gene 1 7 43 -0.0678928 0 33 -0.0678928 1
gene 1 7 44 4.80963 0 34 4.80963 1
gene 1 7 45 0.273761 0 35 0.273761 1
gene 1 8 41 0.503531 0 36 0.503531 1
gene 1 8 42 0.657444 0 37 0.657444 1
gene 1 8 43 0.430361 0 38 0.430361 1
gene 1 8 44 0.809929 0 39 0.809929 1
gene 1 8 45 4.59315 0 40 4.59315 1
gene 1 9 41 -0.748327 0 41 -0.748327 1
gene 1 9 42 0.159572 0 42 0.159572 1
gene 1 9 43 1.42579 0 43 1.42579 1
gene 1 9 44 -2.9376 0 44 -2.9376 1
gene 1 9 45 0.387968 0 45 0.387968 1
gene 1 10 41 0.453815 0 46 0.453815 1
gene 1 10 42 3.49434 0 47 3.49434 1
gene 1 10 43 -0.810694 0 48 -0.810694 1
gene 1 10 44 1.06485 0 49 1.06485 1
gene 1 10 45 0.157548 0 50 0.157548 1
gene 1 11 41 -0.669065 0 51 -0.669065 1
gene 1 11 42 -0.555974 0 52 -0.555974 1
gene 1 11 43 -0.0427549 0 53 -0.0427549 1
gene 1 11 44 0.151608 0 54 0.151608 1
gene 1 11 45 -1.80562 0 55 -1.80562 1
gene 1 12 41 -3.31658 0 56 -3.31658 1
gene 1 12 42 3.20532 0 57 3.20532 1
gene 1 12 43 1.05089 0 58 1.05089 1
gene 1 12 44 4.08477 0 59 4.08477 1
gene 1 12 45 2.81654 0 60 2.81654 1
gene 1 13 41 0.876295 0 61 0.876295 1
gene 1 13 42 0.438526 0 62 0.438526 1
gene 1 13 43 5 0 63 5 1
gene 1 13 44 -2.29427 0 64 -2.29427 1
gene 1 13 45 2.40654 0 65 2.40654 1
gene 1 14 41 -0.886466 0 66 -0.886466 1
gene 1 14 42 -0.753769 0 67 -0.753769 1
gene 1 14 43 -0.600707 0 68 -0.600707 1
gene 1 14 44 1.43422 0 69 1.43422 1
gene 1 14 45 -0.045728 0 70 -0.045728 1
gene 1 15 41 0.499827 0 71 0.499827 1
gene 1 15 42 -1.45404 0 72 -1.45404 1
gene 1 15 43 -3.5742 0 73 -3.5742 1
gene 1 15 44 -1.11804 0 74 -1.11804 1
gene 1 15 45 -2.3233 0 75 -2.3233 1
gene 1 16 41 -0.473712 0 76 -0.473712 1
gene 1 16 42 1.3087 0 77 1.3087 1
gene 1 16 43 -0.0932646 0 78 -0.0932646 1
gene 1 16 44 -2.1152 0 79 -2.1152 1
gene 1 16 45 -1.61428 0 80 -1.61428 1
gene 1 17 41 -0.0171749 0 81 -0.0171749 1
gene 1 17 42 2.53449 0 82 2.53449 1
gene 1 17 43 -0.518469 0 83 -0.518469 1
gene 1 17 44 -0.485866 0 84 -0.485866 1
gene 1 17 45 -1.6112 0 85 -1.6112 1
gene 1 18 41 -2.37601 0 86 -2.37601 1
gene 1 18 42 -1.09102 0 87 -1.09102 1
gene 1 18 43 0.0854119 0 88 0.0854119 1
gene 1 18 44 0.152257 0 89 0.152257 1
gene 1 18 45 0.553113 0 90 0.553113 1
gene 1 19 41 -0.306064 0 91 -0.306064 1
gene 1 19 42 2.05214 0 92 2.05214 1
gene 1 19 43 4.28621 0 93 4.28621 1
gene 1 19 44 0.31237 0 94 0.31237 1
gene 1 19 45 0.889894 0 95 0.889894 1
gene 1 20 41 -3.94932 0 96 -3.94932 1
gene 1 20 42 4.33065 0 97 4.33065 1
gene 1 20 43 -0.944109 0 98 -0.944109 1
gene 1 20 44 -4.5272 0 99 -4.5272 1
gene 1 20 45 1.01358 0 100 1.01358 1
gene 1 21 41 1.37063 0 101 1.37063 1
gene 1 21 42 0.328755 0 102 0.328755 1
gene 1 21 43 -0.106757 0 103 -0.106757 1
gene 1 21 44 0.831227 0 104 0.831227 1
gene 1 21 45 1.01856 0 105 1.01856 1
gene 1 22 41 -1.82988 0 106 -1.82988 1
gene 1 22 42 -0.882004 0 107 -0.882004 1
gene 1 22 43 4.80316 0 108 4.80316 1
gene 1 22 44 -0.254097 0 109 -0.254097 1
gene 1 22 45 -2.98371 0 110 -2.98371 1
gene 1 23 41 -1.02026 0 111 -1.02026 1
gene 1 23 42 0.697497 0 112 0.697497 1
gene 1 23 43 -3.96982 0 113 -3.96982 1
gene 1 23 44 -1.83223 0 114 -1.83223 1
gene 1 23 45 0.897226 0 115 0.897226 1
gene 1 24 41 -2.1083 0 116 -2.1083 1
gene 1 24 42 -2.55873 0 117 -2.55873 1
gene 1 24 43 -0.869293 0 118 -0.869293 1
gene 1 24 44 1.52584 0 119 1.52584 1
gene 1 24 45 0.0316784 0 120 0.0316784 1
gene 1 25 41 1.56243 0 121 1.56243 1
gene 1 25 42 -3.58322 0 122 -3.58322 1
gene 1 25 43 1.93301 0 123 1.93301 1
gene 1 25 44 2.92135 0 124 2.92135 1
gene 1 25 45 -0.842039 0 125 -0.842039 1
gene 1 26 41 0.243883 0 126 0.243883 1
gene 1 26 42 1.68649 0 127 1.68649 1
gene 1 26 43 -1.50698 0 128 -1.50698 1
gene 1 26 44 -1.45965 0 129 -1.45965 1
gene 1 26 45 -2.3235 0 130 -2.3235 1
gene 1 27 41 -1.54746 0 131 -1.54746 1
gene 1 27 42 4.14311 0 132 4.14311 1
gene 1 27 43 -3.22945 0 133 -3.22945 1
gene 1 27 44 -0.345727 0 134 -0.345727 1
gene 1 27 45 1.09241 0 135 1.09241 1
gene 1 28 41 1.68848 0 136 1.68848 1
gene 1 28 42 0.350088 0 137 0.350088 1
gene 1 28 43 -1.66276 0 138 -1.66276 1
gene 1 28 44 0.251675 0 139 0.251675 1
gene 1 28 45 -2.90181 0 140 -2.90181 1
gene 1 29 41 -1.13471 0 141 -1.13471 1
gene 1 29 42 4.27928 0 142 4.27928 1
gene 1 29 43 1.12288 0 143 1.12288 1
gene 1 29 44 0.781203 0 144 0.781203 1
gene 1 29 45 0.182772 0 145 0.182772 1
gene 1 30 41 2.56187 0 146 2.56187 1
gene 1 30 42 -0.752933 0 147 -0.752933 1
gene 1 30 43 -2.26142 0 148 -2.26142 1
gene 1 30 44 -1.39237 0 149 -1.39237 1
gene 1 30 45 3.11933 0 150 3.11933 1
gene 1 31 41 -1.66893 0 151 -1.66893 1
gene 1 31 42 0.143971 0 152 0.143971 1
gene 1 31 43 1.72605 0 153 1.72605 1
gene 1 31 44 -1.21228 0 154 -1.21228 1
gene 1 31 45 4.164 0 155 4.164 1
gene 1 32 41 -0.931996 0 156 -0.931996 1
gene 1 32 42 0.358885 0 157 0.358885 1
gene 1 32 43 0.917827 0 158 0.917827 1
gene 1 32 44 -0.127496 0 159 -0.127496 1
gene 1 32 45 0.165078 0 160 0.165078 1
gene 1 33 41 0.671512 0 161 0.671512 1
gene 1 33 42 0.261258 0 162 0.261258 1
gene 1 33 43 -0.545016 0 163 -0.545016 1
gene 1 33 44 0.203878 0 164 0.203878 1
gene 1 33 45 -0.259433 0 165 -0.259433 1
gene 1 34 41 -0.869298 0 166 -0.869298 1
gene 1 34 42 -0.518943 0 167 -0.518943 1
gene 1 34 43 -0.536022 0 168 -0.536022 1
gene 1 34 44 0.727144 0 169 0.727144 1
gene 1 34 45 -0.0688654 0 170 -0.0688654 1
gene 1 35 41 0.408329 0 171 0.408329 1
gene 1 35 42 -1.0361 0 172 -1.0361 1
gene 1 35 43 -1.46933 0 173 -1.46933 1
gene 1 35 44 -0.0636347 0 174 -0.0636347 1
gene 1 35 45 -0.73778 0 175 -0.73778 1
gene 1 36 41 0.107904 0 176 0.107904 1
gene 1 36 42 1.95907 0 177 1.95907 1
gene 1 36 43 0.10403 0 178 0.10403 1
gene 1 36 44 -0.596338 0 179 -0.596338 1
gene 1 36 45 1.29886 0 180 1.29886 1
gene 1 37 41 -0.601602 0 181 -0.601602 1
gene 1 37 42 0.366966 0 182 0.366966 1
gene 1 37 43 -0.262826 0 183 -0.262826 1
gene 1 37 44 -0.894089 0 184 -0.894089 1
gene 1 37 45 0.93409 0 185 0.93409 1
gene 1 38 41 -0.0921326 0 186 -0.0921326 1
gene 1 38 42 -0.857171 0 187 -0.857171 1
gene 1 38 43 -0.614138 0 188 -0.614138 1
gene 1 38 44 -0.340636 0 189 -0.340636 1
gene 1 38 45 -0.778685 0 190 -0.778685 1
gene 1 39 41 -0.768995 0 191 -0.768995 1
gene 1 39 42 -0.740497 0 192 -0.740497 1
gene 1 39 43 1.62772 0 193 1.62772 1
gene 1 39 44 -0.4747 0 194 -0.4747 1
gene 1 39 45 -2.5113 0 195 -2.5113 1
gene 1 40 41 2.19399 0 196 2.19399 1
gene 1 40 42 0.843273 0 197 0.843273 1
gene 1 40 43 0.225418 0 198 0.225418 1
gene 1 40 44 1.75014 0 199 1.75014 1
gene 1 40 45 -0.223533 0 200 -0.223533 1
genomeend 1


