/* Organism #49 Fitness: 36615.034000 Time: 0 */
genomestart 49
trait 1 0.000000 0.760352 0.029652 0.196240 1.000000 0.196423 0.000000 0.523037 
node 1 1 1 1
node 2 1 1 1
node 3 1 1 1
node 4 1 1 1
node 5 1 1 1
node 6 1 1 1
node 7 1 1 1
node 8 1 1 1
node 9 1 1 1
node 10 1 1 1
node 11 1 1 1
node 12 1 1 1
node 13 1 1 1
node 14 1 1 1
node 15 1 1 1
node 16 1 1 1
node 17 1 1 1
node 18 1 1 1
node 19 1 1 1
node 20 1 1 1
node 21 1 1 1
node 22 1 1 1
node 23 1 1 1
node 24 1 1 1
node 25 1 1 1
node 26 1 1 1
node 27 1 1 1
node 28 1 1 1
node 29 1 1 1
node 30 1 1 3
node 31 1 0 2
node 32 1 0 2
node 33 1 0 2
gene 1 1 31 0.423739 0 1 0.423739 1
gene 1 1 32 -2.04204 0 2 -2.04204 1
gene 1 1 33 -0.209054 0 3 -0.209054 1
gene 1 2 31 -0.0223145 0 4 -0.0223145 1
gene 1 2 32 -2.34152 0 5 -2.34152 1
gene 1 2 33 -5 0 6 -5 1
gene 1 3 31 1.13933 0 7 1.13933 1
gene 1 3 32 3.29156 0 8 3.29156 1
gene 1 3 33 -2.68298 0 9 -2.68298 1
gene 1 4 31 -4.10492 0 10 -4.10492 1
gene 1 4 32 -0.505941 0 11 -0.505941 1
gene 1 4 33 -3.71679 0 12 -3.71679 1
gene 1 5 31 5 0 13 5 1
gene 1 5 32 -5 0 14 -5 1
gene 1 5 33 -2.24503 0 15 -2.24503 1
gene 1 6 31 -2.34097 0 16 -2.34097 1
gene 1 6 32 1.11464 0 17 1.11464 1
gene 1 6 33 0.901873 0 18 0.901873 1
gene 1 7 31 4.12295 0 19 4.12295 1
gene 1 7 32 -1.33603 0 20 -1.33603 1
gene 1 7 33 0.319387 0 21 0.319387 1
gene 1 8 31 -0.639804 0 22 -0.639804 1
gene 1 8 32 -0.994114 0 23 -0.994114 1
gene 1 8 33 3.95607 0 24 3.95607 1
gene 1 9 31 4.15535 0 25 4.15535 1
gene 1 9 32 1.93284 0 26 1.93284 1
gene 1 9 33 -2.74547 0 27 -2.74547 1
gene 1 10 31 -0.890447 0 28 -0.890447 1
gene 1 10 32 -0.853806 0 29 -0.853806 1
gene 1 10 33 -0.621925 0 30 -0.621925 1
gene 1 11 31 0.25819 0 31 0.25819 1
gene 1 11 32 0.0400178 0 32 0.0400178 1
gene 1 11 33 -3.01263 0 33 -3.01263 1
gene 1 12 31 0.147389 0 34 0.147389 1
gene 1 12 32 -2.18427 0 35 -2.18427 1
gene 1 12 33 -5 0 36 -5 1
gene 1 13 31 3.0187 0 37 3.0187 1
gene 1 13 32 1.34121 0 38 1.34121 1
gene 1 13 33 1.00355 0 39 1.00355 1
gene 1 14 31 -0.0200436 0 40 -0.0200436 1
gene 1 14 32 -4.36739 0 41 -4.36739 1
gene 1 14 33 -1.69959 0 42 -1.69959 1
gene 1 15 31 -1.62004 0 43 -1.62004 1
gene 1 15 32 -1.59903 0 44 -1.59903 1
gene 1 15 33 -1.9205 0 45 -1.9205 1
gene 1 16 31 1.11181 0 46 1.11181 1
gene 1 16 32 1.12504 0 47 1.12504 1
gene 1 16 33 -1.61724 0 48 -1.61724 1
gene 1 17 31 0.229887 0 49 0.229887 1
gene 1 17 32 -1.42563 0 50 -1.42563 1
gene 1 17 33 -3.8138 0 51 -3.8138 1
gene 1 18 31 -2.28279 0 52 -2.28279 1
gene 1 18 32 -2.69077 0 53 -2.69077 1
gene 1 18 33 -0.0350579 0 54 -0.0350579 1
gene 1 19 31 -4.27853 0 55 -4.27853 1
gene 1 19 32 -2.51248 0 56 -2.51248 1
gene 1 19 33 -2.68269 0 57 -2.68269 1
gene 1 20 31 -0.854156 0 58 -0.854156 1
gene 1 20 32 1.88798 0 59 1.88798 1
gene 1 20 33 -0.0668986 0 60 -0.0668986 1
gene 1 21 31 -2.11987 0 61 -2.11987 1
gene 1 21 32 2.22257 0 62 2.22257 1
gene 1 21 33 0.453422 0 63 0.453422 1
gene 1 22 31 0.987255 0 64 0.987255 1
gene 1 22 32 2.08332 0 65 2.08332 1
gene 1 22 33 1.05552 0 66 1.05552 1
gene 1 23 31 3.71237 0 67 3.71237 1
gene 1 23 32 -0.168179 0 68 -0.168179 1
gene 1 23 33 4.35125 0 69 4.35125 1
gene 1 24 31 -0.153572 0 70 -0.153572 1
gene 1 24 32 -1.39836 0 71 -1.39836 1
gene 1 24 33 -2.54575 0 72 -2.54575 1
gene 1 25 31 -0.738205 0 73 -0.738205 1
gene 1 25 32 0.508215 0 74 0.508215 1
gene 1 25 33 -0.417752 0 75 -0.417752 1
gene 1 26 31 -3.06393 0 76 -3.06393 1
gene 1 26 32 -0.468771 0 77 -0.468771 1
gene 1 26 33 -0.593037 0 78 -0.593037 1
gene 1 27 31 0.441294 0 79 0.441294 1
gene 1 27 32 -0.45936 0 80 -0.45936 1
gene 1 27 33 0.462982 0 81 0.462982 1
gene 1 28 31 0.597044 0 82 0.597044 1
gene 1 28 32 -0.144229 0 83 -0.144229 1
gene 1 28 33 -1.94465 0 84 -1.94465 1
gene 1 29 31 -0.850256 0 85 -0.850256 1
gene 1 29 32 -0.65778 0 86 -0.65778 1
gene 1 29 33 0.384346 0 87 0.384346 1
gene 1 30 31 -0.154802 0 88 -0.154802 1
gene 1 30 32 -1.15021 0 89 -1.15021 1
gene 1 30 33 0.565487 0 90 0.565487 1
genomeend 49


