/* Organism #9 Fitness: 15460.400000 Time: 0 */
genomestart 9
trait 1 0.000000 0.029205 0.000000 0.000000 1.000000 0.419244 0.000000 0.211383 
node 1 1 1 1
node 2 1 1 1
node 3 1 1 1
node 4 1 1 1
node 5 1 1 1
node 6 1 1 1
node 7 1 1 1
node 8 1 1 1
node 9 1 1 1
node 10 1 1 1
node 11 1 1 1
node 12 1 1 1
node 13 1 1 1
node 14 1 1 1
node 15 1 1 1
node 16 1 1 1
node 17 1 1 1
node 18 1 1 1
node 19 1 1 1
node 20 1 1 1
node 21 1 1 1
node 22 1 1 1
node 23 1 1 1
node 24 1 1 1
node 25 1 1 1
node 26 1 1 1
node 27 1 1 1
node 28 1 1 1
node 29 1 1 1
node 30 1 1 3
node 31 1 0 2
node 32 1 0 2
node 33 1 0 2
gene 1 1 31 0.918657 0 1 0.918657 1
gene 1 1 32 -5 0 2 -5 1
gene 1 1 33 -0.457215 0 3 -0.457215 1
gene 1 2 31 -3.96903 0 4 -3.96903 1
gene 1 2 32 5 0 5 5 1
gene 1 2 33 0.860951 0 6 0.860951 1
gene 1 3 31 -2.41877 0 7 -2.41877 1
gene 1 3 32 2.52703 0 8 2.52703 1
gene 1 3 33 0.121157 0 9 0.121157 1
gene 1 4 31 -4.14668 0 10 -4.14668 1
gene 1 4 32 1.83421 0 11 1.83421 1
gene 1 4 33 -1.83205 0 12 -1.83205 1
gene 1 5 31 3.98058 0 13 3.98058 1
gene 1 5 32 1.63272 0 14 1.63272 1
gene 1 5 33 5 0 15 5 1
gene 1 6 31 3.44349 0 16 3.44349 1
gene 1 6 32 3.27695 0 17 3.27695 1
gene 1 6 33 4.08844 0 18 4.08844 1
gene 1 7 31 -1.84119 0 19 -1.84119 1
gene 1 7 32 -0.534348 0 20 -0.534348 1
gene 1 7 33 1.16485 0 21 1.16485 1
gene 1 8 31 -2.85007 0 22 -2.85007 1
gene 1 8 32 -3.4239 0 23 -3.4239 1
gene 1 8 33 -1.0864 0 24 -1.0864 1
gene 1 9 31 -2.07983 0 25 -2.07983 1
gene 1 9 32 -0.740146 0 26 -0.740146 1
gene 1 9 33 -3.33338 0 27 -3.33338 1
gene 1 10 31 -2.52092 0 28 -2.52092 1
gene 1 10 32 2.86512 0 29 2.86512 1
gene 1 10 33 1.95517 0 30 1.95517 1
gene 1 11 31 3.1932 0 31 3.1932 1
gene 1 11 32 -2.37019 0 32 -2.37019 1
gene 1 11 33 -3.93274 0 33 -3.93274 1
gene 1 12 31 0.170747 0 34 0.170747 1
gene 1 12 32 -3.92817 0 35 -3.92817 1
gene 1 12 33 -0.590141 0 36 -0.590141 1
gene 1 13 31 4.95445 0 37 4.95445 1
gene 1 13 32 3.95994 0 38 3.95994 1
gene 1 13 33 -2.26557 0 39 -2.26557 1
gene 1 14 31 1.22045 0 40 1.22045 1
gene 1 14 32 4.73718 0 41 4.73718 1
gene 1 14 33 -2.86392 0 42 -2.86392 1
gene 1 15 31 -2.9663 0 43 -2.9663 1
gene 1 15 32 0.734981 0 44 0.734981 1
gene 1 15 33 4.48658 0 45 4.48658 1
gene 1 16 31 -1.44493 0 46 -1.44493 1
gene 1 16 32 -0.311365 0 47 -0.311365 1
gene 1 16 33 0.582146 0 48 0.582146 1
gene 1 17 31 -1.34778 0 49 -1.34778 1
gene 1 17 32 -4.0106 0 50 -4.0106 1
gene 1 17 33 -2.33655 0 51 -2.33655 1
gene 1 18 31 -2.33312 0 52 -2.33312 1
gene 1 18 32 -4.1307 0 53 -4.1307 1
gene 1 18 33 0.648392 0 54 0.648392 1
gene 1 19 31 -4.56552 0 55 -4.56552 1
gene 1 19 32 -3.16197 0 56 -3.16197 1
gene 1 19 33 1.52496 0 57 1.52496 1
gene 1 20 31 -2.99482 0 58 -2.99482 1
gene 1 20 32 -1.34947 0 59 -1.34947 1
gene 1 20 33 3.8224 0 60 3.8224 1
gene 1 21 31 -3.48051 0 61 -3.48051 1
gene 1 21 32 2.48387 0 62 2.48387 1
gene 1 21 33 0.477899 0 63 0.477899 1
gene 1 22 31 2.95069 0 64 2.95069 1
gene 1 22 32 -3.20613 0 65 -3.20613 1
gene 1 22 33 -3.21038 0 66 -3.21038 1
gene 1 23 31 -1.44115 0 67 -1.44115 1
gene 1 23 32 -1.01484 0 68 -1.01484 1
gene 1 23 33 2.9986 0 69 2.9986 1
gene 1 24 31 -3.43252 0 70 -3.43252 1
gene 1 24 32 -1.27147 0 71 -1.27147 1
gene 1 24 33 0.459099 0 72 0.459099 1
gene 1 25 31 0.480816 0 73 0.480816 1
gene 1 25 32 0.735927 0 74 0.735927 1
gene 1 25 33 0.500385 0 75 0.500385 1
gene 1 26 31 0.430437 0 76 0.430437 1
gene 1 26 32 0.725543 0 77 0.725543 1
gene 1 26 33 -2.31311 0 78 -2.31311 1
gene 1 27 31 1.25151 0 79 1.25151 1
gene 1 27 32 0.147141 0 80 0.147141 1
gene 1 27 33 -0.891948 0 81 -0.891948 1
gene 1 28 31 -0.36956 0 82 -0.36956 1
gene 1 28 32 1.26875 0 83 1.26875 1
gene 1 28 33 -1.48075 0 84 -1.48075 1
gene 1 29 31 -0.252974 0 85 -0.252974 1
gene 1 29 32 -0.613505 0 86 -0.613505 1
gene 1 29 33 -0.322548 0 87 -0.322548 1
gene 1 30 31 0.401063 0 88 0.401063 1
gene 1 30 32 1.59967 0 89 1.59967 1
gene 1 30 33 -0.696528 0 90 -0.696528 1
genomeend 9


