/* Organism #5 Fitness: 16932.700000 Time: 0 */
genomestart 5
trait 1 1.000000 0.000000 0.000000 0.000000 0.005252 0.000000 0.000000 0.000000 
node 1 1 1 1
node 2 1 1 1
node 3 1 1 1
node 4 1 1 1
node 5 1 1 1
node 6 1 1 1
node 7 1 1 1
node 8 1 1 1
node 9 1 1 1
node 10 1 1 1
node 11 1 1 1
node 12 1 1 1
node 13 1 1 1
node 14 1 1 1
node 15 1 1 1
node 16 1 1 1
node 17 1 1 1
node 18 1 1 1
node 19 1 1 1
node 20 1 1 1
node 21 1 1 1
node 22 1 1 1
node 23 1 1 1
node 24 1 1 1
node 25 1 1 1
node 26 1 1 1
node 27 1 1 1
node 28 1 1 1
node 29 1 1 1
node 30 1 1 3
node 31 1 0 2
node 32 1 0 2
node 33 1 0 2
gene 1 1 31 -0.609055 0 1 -0.609055 1
gene 1 1 32 -3.43671 0 2 -3.43671 1
gene 1 1 33 -1.50676 0 3 -1.50676 1
gene 1 2 31 -0.754285 0 4 -0.754285 1
gene 1 2 32 -0.427871 0 5 -0.427871 1
gene 1 2 33 -5 0 6 -5 1
gene 1 3 31 -0.134786 0 7 -0.134786 1
gene 1 3 32 -0.247949 0 8 -0.247949 1
gene 1 3 33 -2.63292 0 9 -2.63292 1
gene 1 4 31 -1.07995 0 10 -1.07995 1
gene 1 4 32 3.67336 0 11 3.67336 1
gene 1 4 33 0.0549086 0 12 0.0549086 1
gene 1 5 31 -3.7841 0 13 -3.7841 1
gene 1 5 32 1.41562 0 14 1.41562 1
gene 1 5 33 -0.49609 0 15 -0.49609 1
gene 1 6 31 1.0026 0 16 1.0026 1
gene 1 6 32 1.66653 0 17 1.66653 1
gene 1 6 33 -1.03987 0 18 -1.03987 1
gene 1 7 31 1.45699 0 19 1.45699 1
gene 1 7 32 -0.570949 0 20 -0.570949 1
gene 1 7 33 -4.43808 0 21 -4.43808 1
gene 1 8 31 -1.58425 0 22 -1.58425 1
gene 1 8 32 0.556176 0 23 0.556176 1
gene 1 8 33 0.144822 0 24 0.144822 1
gene 1 9 31 0.759896 0 25 0.759896 1
gene 1 9 32 0.351132 0 26 0.351132 1
gene 1 9 33 -2.86563 0 27 -2.86563 1
gene 1 10 31 -2.5232 0 28 -2.5232 1
gene 1 10 32 4.30321 0 29 4.30321 1
gene 1 10 33 -0.267785 0 30 -0.267785 1
gene 1 11 31 0.605644 0 31 0.605644 1
gene 1 11 32 0.530151 0 32 0.530151 1
gene 1 11 33 -1.21057 0 33 -1.21057 1
gene 1 12 31 0.361108 0 34 0.361108 1
gene 1 12 32 -4.37311 0 35 -4.37311 1
gene 1 12 33 -0.96408 0 36 -0.96408 1
gene 1 13 31 1.21208 0 37 1.21208 1
gene 1 13 32 -0.309835 0 38 -0.309835 1
gene 1 13 33 -0.355799 0 39 -0.355799 1
gene 1 14 31 -1.00086 0 40 -1.00086 1
gene 1 14 32 0.010035 0 41 0.010035 1
gene 1 14 33 1.1539 0 42 1.1539 1
gene 1 15 31 1.42703 0 43 1.42703 1
gene 1 15 32 5 0 44 5 1
gene 1 15 33 -0.44852 0 45 -0.44852 1
gene 1 16 31 -2.26034 0 46 -2.26034 1
gene 1 16 32 5 0 47 5 1
gene 1 16 33 1.88287 0 48 1.88287 1
gene 1 17 31 -0.722801 0 49 -0.722801 1
gene 1 17 32 -0.0858707 0 50 -0.0858707 1
gene 1 17 33 1.55521 0 51 1.55521 1
gene 1 18 31 -1.93544 0 52 -1.93544 1
gene 1 18 32 -0.216986 0 53 -0.216986 1
gene 1 18 33 -4.34643 0 54 -4.34643 1
gene 1 19 31 -0.242506 0 55 -0.242506 1
gene 1 19 32 1.57238 0 56 1.57238 1
gene 1 19 33 0.170645 0 57 0.170645 1
gene 1 20 31 0.405452 0 58 0.405452 1
gene 1 20 32 0.33114 0 59 0.33114 1
gene 1 20 33 -0.442759 0 60 -0.442759 1
gene 1 21 31 -3.29879 0 61 -3.29879 1
gene 1 21 32 2.41597 0 62 2.41597 1
gene 1 21 33 0.656175 0 63 0.656175 1
gene 1 22 31 -0.865998 0 64 -0.865998 1
gene 1 22 32 0.624174 0 65 0.624174 1
gene 1 22 33 0.76423 0 66 0.76423 1
gene 1 23 31 -1.03707 0 67 -1.03707 1
gene 1 23 32 0.0710775 0 68 0.0710775 1
gene 1 23 33 -3.77768 0 69 -3.77768 1
gene 1 24 31 2.39449 0 70 2.39449 1
gene 1 24 32 -4.08845 0 71 -4.08845 1
gene 1 24 33 1.23898 0 72 1.23898 1
gene 1 25 31 0.981397 0 73 0.981397 1
gene 1 25 32 -0.209276 0 74 -0.209276 1
gene 1 25 33 -1.63986 0 75 -1.63986 1
gene 1 26 31 0.149126 0 76 0.149126 1
gene 1 26 32 -0.0602739 0 77 -0.0602739 1
gene 1 26 33 -0.431987 0 78 -0.431987 1
gene 1 27 31 1.11663 0 79 1.11663 1
gene 1 27 32 0.0607702 0 80 0.0607702 1
gene 1 27 33 -0.549323 0 81 -0.549323 1
gene 1 28 31 -0.886745 0 82 -0.886745 1
gene 1 28 32 -1.92756 0 83 -1.92756 1
gene 1 28 33 -0.937553 0 84 -0.937553 1
gene 1 29 31 0.711932 0 85 0.711932 1
gene 1 29 32 0.265108 0 86 0.265108 1
gene 1 29 33 0.444462 0 87 0.444462 1
gene 1 30 31 -0.0603287 0 88 -0.0603287 1
gene 1 30 32 -1.81341 0 89 -1.81341 1
gene 1 30 33 -2.31565 0 90 -2.31565 1
genomeend 5


