/* Organism #1 Fitness: 13626.300000 Time: 0 */
genomestart 1
trait 1 0.000000 0.924072 0.000000 0.853688 0.615230 0.225461 0.000000 0.951069 
node 1 1 1 1
node 2 1 1 1
node 3 1 1 1
node 4 1 1 1
node 5 1 1 1
node 6 1 1 1
node 7 1 1 1
node 8 1 1 1
node 9 1 1 1
node 10 1 1 1
node 11 1 1 1
node 12 1 1 1
node 13 1 1 1
node 14 1 1 1
node 15 1 1 1
node 16 1 1 1
node 17 1 1 1
node 18 1 1 1
node 19 1 1 1
node 20 1 1 1
node 21 1 1 1
node 22 1 1 1
node 23 1 1 1
node 24 1 1 1
node 25 1 1 1
node 26 1 1 1
node 27 1 1 1
node 28 1 1 1
node 29 1 1 1
node 30 1 1 3
node 31 1 0 2
node 32 1 0 2
node 33 1 0 2
gene 1 1 31 -3.51882 0 1 -3.51882 1
gene 1 1 32 -1.07112 0 2 -1.07112 1
gene 1 1 33 3.24081 0 3 3.24081 1
gene 1 2 31 -0.675209 0 4 -0.675209 1
gene 1 2 32 -2.43678 0 5 -2.43678 1
gene 1 2 33 0.716701 0 6 0.716701 1
gene 1 3 31 1.71371 0 7 1.71371 1
gene 1 3 32 5 0 8 5 1
gene 1 3 33 -4.58409 0 9 -4.58409 1
gene 1 4 31 5 0 10 5 1
gene 1 4 32 -1.07509 0 11 -1.07509 1
gene 1 4 33 0.851982 0 12 0.851982 1
gene 1 5 31 1.35543 0 13 1.35543 1
gene 1 5 32 0.600852 0 14 0.600852 1
gene 1 5 33 -0.996131 0 15 -0.996131 1
gene 1 6 31 1.20904 0 16 1.20904 1
gene 1 6 32 -0.422676 0 17 -0.422676 1
gene 1 6 33 1.30077 0 18 1.30077 1
gene 1 7 31 4.64556 0 19 4.64556 1
gene 1 7 32 -2.11038 0 20 -2.11038 1
gene 1 7 33 -2.43546 0 21 -2.43546 1
gene 1 8 31 -0.739007 0 22 -0.739007 1
gene 1 8 32 -1.03127 0 23 -1.03127 1
gene 1 8 33 -3.49226 0 24 -3.49226 1
gene 1 9 31 0.271857 0 25 0.271857 1
gene 1 9 32 0.438134 0 26 0.438134 1
gene 1 9 33 0.041901 0 27 0.041901 1
gene 1 10 31 1.55013 0 28 1.55013 1
gene 1 10 32 1.35954 0 29 1.35954 1
gene 1 10 33 1.66728 0 30 1.66728 1
gene 1 11 31 0.951144 0 31 0.951144 1
gene 1 11 32 2.46378 0 32 2.46378 1
gene 1 11 33 0.604794 0 33 0.604794 1
gene 1 12 31 0.567698 0 34 0.567698 1
gene 1 12 32 -0.40396 0 35 -0.40396 1
gene 1 12 33 -3.53463 0 36 -3.53463 1
gene 1 13 31 1.54796 0 37 1.54796 1
gene 1 13 32 0.331483 0 38 0.331483 1
gene 1 13 33 1.42825 0 39 1.42825 1
gene 1 14 31 4.67094 0 40 4.67094 1
gene 1 14 32 0.138401 0 41 0.138401 1
gene 1 14 33 -0.29441 0 42 -0.29441 1
gene 1 15 31 2.14854 0 43 2.14854 1
gene 1 15 32 -1.58577 0 44 -1.58577 1
gene 1 15 33 -3.10313 0 45 -3.10313 1
gene 1 16 31 2.34673 0 46 2.34673 1
gene 1 16 32 -0.0790114 0 47 -0.0790114 1
gene 1 16 33 2.26566 0 48 2.26566 1
gene 1 17 31 -4.76744 0 49 -4.76744 1
gene 1 17 32 0.00495885 0 50 0.00495885 1
gene 1 17 33 -1.20052 0 51 -1.20052 1
gene 1 18 31 -4.46867 0 52 -4.46867 1
gene 1 18 32 -0.236876 0 53 -0.236876 1
gene 1 18 33 -0.597282 0 54 -0.597282 1
gene 1 19 31 -2.42973 0 55 -2.42973 1
gene 1 19 32 -1.51415 0 56 -1.51415 1
gene 1 19 33 -0.734583 0 57 -0.734583 1
gene 1 20 31 0.557065 0 58 0.557065 1
gene 1 20 32 -0.520783 0 59 -0.520783 1
gene 1 20 33 -1.69252 0 60 -1.69252 1
gene 1 21 31 -5 0 61 -5 1
gene 1 21 32 1.53878 0 62 1.53878 1
gene 1 21 33 -1.61632 0 63 -1.61632 1
gene 1 22 31 1.10784 0 64 1.10784 1
gene 1 22 32 -1.16109 0 65 -1.16109 1
gene 1 22 33 0.245658 0 66 0.245658 1
gene 1 23 31 1.64737 0 67 1.64737 1
gene 1 23 32 0.617231 0 68 0.617231 1
gene 1 23 33 -2.22707 0 69 -2.22707 1
gene 1 24 31 0.965658 0 70 0.965658 1
gene 1 24 32 -1.86185 0 71 -1.86185 1
gene 1 24 33 1.18119 0 72 1.18119 1
gene 1 25 31 -1.54896 0 73 -1.54896 1
gene 1 25 32 1.76873 0 74 1.76873 1
gene 1 25 33 -0.578379 0 75 -0.578379 1
gene 1 26 31 0.1921 0 76 0.1921 1
gene 1 26 32 0.63405 0 77 0.63405 1
gene 1 26 33 0.630542 0 78 0.630542 1
gene 1 27 31 -0.0677751 0 79 -0.0677751 1
gene 1 27 32 -1.1463 0 80 -1.1463 1
gene 1 27 33 2.15613 0 81 2.15613 1
gene 1 28 31 -0.826428 0 82 -0.826428 1
gene 1 28 32 1.86169 0 83 1.86169 1
gene 1 28 33 -3.35156 0 84 -3.35156 1
gene 1 29 31 1.90428 0 85 1.90428 1
gene 1 29 32 0.585412 0 86 0.585412 1
gene 1 29 33 -0.990597 0 87 -0.990597 1
gene 1 30 31 0.842983 0 88 0.842983 1
gene 1 30 32 -0.605242 0 89 -0.605242 1
gene 1 30 33 0.343728 0 90 0.343728 1
genomeend 1


