/* Organism #0 Fitness: 35973.442000 Time: 0 */
genomestart 0
trait 1 1.000000 0.008627 0.000000 0.416718 0.153864 1.000000 0.143723 0.249935 
node 1 1 1 1
node 2 1 1 1
node 3 1 1 1
node 4 1 1 1
node 5 1 1 1
node 6 1 1 1
node 7 1 1 1
node 8 1 1 1
node 9 1 1 1
node 10 1 1 1
node 11 1 1 1
node 12 1 1 1
node 13 1 1 1
node 14 1 1 1
node 15 1 1 1
node 16 1 1 1
node 17 1 1 1
node 18 1 1 1
node 19 1 1 1
node 20 1 1 1
node 21 1 1 1
node 22 1 1 1
node 23 1 1 1
node 24 1 1 1
node 25 1 1 1
node 26 1 1 1
node 27 1 1 1
node 28 1 1 1
node 29 1 1 1
node 30 1 1 3
node 31 1 0 2
node 32 1 0 2
node 33 1 0 2
gene 1 1 31 0.184925 0 1 0.184925 1
gene 1 1 32 0.44252 0 2 0.44252 1
gene 1 1 33 2.17775 0 3 2.17775 1
gene 1 2 31 0.368681 0 4 0.368681 1
gene 1 2 32 -5 0 5 -5 1
gene 1 2 33 0.890555 0 6 0.890555 1
gene 1 3 31 -3.5148 0 7 -3.5148 1
gene 1 3 32 1.21796 0 8 1.21796 1
gene 1 3 33 3.0885 0 9 3.0885 1
gene 1 4 31 -3.64659 0 10 -3.64659 1
gene 1 4 32 -4.06888 0 11 -4.06888 1
gene 1 4 33 0.783053 0 12 0.783053 1
gene 1 5 31 2.87508 0 13 2.87508 1
gene 1 5 32 -4.04621 0 14 -4.04621 1
gene 1 5 33 0.614144 0 15 0.614144 1
gene 1 6 31 -0.829501 0 16 -0.829501 1
gene 1 6 32 -0.646658 0 17 -0.646658 1
gene 1 6 33 -3.09181 0 18 -3.09181 1
gene 1 7 31 3.09763 0 19 3.09763 1
gene 1 7 32 0.305459 0 20 0.305459 1
gene 1 7 33 -1.96937 0 21 -1.96937 1
gene 1 8 31 0.28455 0 22 0.28455 1
gene 1 8 32 0.955204 0 23 0.955204 1
gene 1 8 33 0.548948 0 24 0.548948 1
gene 1 9 31 -0.248492 0 25 -0.248492 1
gene 1 9 32 0.581756 0 26 0.581756 1
gene 1 9 33 0.490034 0 27 0.490034 1
gene 1 10 31 -0.558341 0 28 -0.558341 1
gene 1 10 32 5 0 29 5 1
gene 1 10 33 1.7253 0 30 1.7253 1
gene 1 11 31 -2.06816 0 31 -2.06816 1
gene 1 11 32 1.86758 0 32 1.86758 1
gene 1 11 33 5 0 33 5 1
gene 1 12 31 -0.0328715 0 34 -0.0328715 1
gene 1 12 32 0.934687 0 35 0.934687 1
gene 1 12 33 -0.813122 0 36 -0.813122 1
gene 1 13 31 -0.209301 0 37 -0.209301 1
gene 1 13 32 3.84697 0 38 3.84697 1
gene 1 13 33 2.13565 0 39 2.13565 1
gene 1 14 31 0.102648 0 40 0.102648 1
gene 1 14 32 0.093757 0 41 0.093757 1
gene 1 14 33 2.49795 0 42 2.49795 1
gene 1 15 31 -0.6798 0 43 -0.6798 1
gene 1 15 32 1.92773 0 44 1.92773 1
gene 1 15 33 -1.04558 0 45 -1.04558 1
gene 1 16 31 0.338162 0 46 0.338162 1
gene 1 16 32 -0.28333 0 47 -0.28333 1
gene 1 16 33 -1.42885 0 48 -1.42885 1
gene 1 17 31 -0.383069 0 49 -0.383069 1
gene 1 17 32 -1.31521 0 50 -1.31521 1
gene 1 17 33 0.786616 0 51 0.786616 1
gene 1 18 31 0.281762 0 52 0.281762 1
gene 1 18 32 -5 0 53 -5 1
gene 1 18 33 -0.315755 0 54 -0.315755 1
gene 1 19 31 -0.9211 0 55 -0.9211 1
gene 1 19 32 0.0846363 0 56 0.0846363 1
gene 1 19 33 0.689192 0 57 0.689192 1
gene 1 20 31 0.732025 0 58 0.732025 1
gene 1 20 32 -0.124646 0 59 -0.124646 1
gene 1 20 33 -4.94325 0 60 -4.94325 1
gene 1 21 31 0.944329 0 61 0.944329 1
gene 1 21 32 2.9958 0 62 2.9958 1
gene 1 21 33 1.89234 0 63 1.89234 1
gene 1 22 31 -1.58283 0 64 -1.58283 1
gene 1 22 32 5 0 65 5 1
gene 1 22 33 1.28127 0 66 1.28127 1
gene 1 23 31 -0.37436 0 67 -0.37436 1
gene 1 23 32 -0.375501 0 68 -0.375501 1
gene 1 23 33 -3.18838 0 69 -3.18838 1
gene 1 24 31 -0.122193 0 70 -0.122193 1
gene 1 24 32 -4.64044 0 71 -4.64044 1
gene 1 24 33 0.899894 0 72 0.899894 1
gene 1 25 31 -2.64697 0 73 -2.64697 1
gene 1 25 32 -1.33211 0 74 -1.33211 1
gene 1 25 33 -0.300855 0 75 -0.300855 1
gene 1 26 31 -0.0214481 0 76 -0.0214481 1
gene 1 26 32 -0.972659 0 77 -0.972659 1
gene 1 26 33 0.876219 0 78 0.876219 1
gene 1 27 31 1.10555 0 79 1.10555 1
gene 1 27 32 -1.21048 0 80 -1.21048 1
gene 1 27 33 -0.626937 0 81 -0.626937 1
gene 1 28 31 0.0318929 0 82 0.0318929 1
gene 1 28 32 -1.1408 0 83 -1.1408 1
gene 1 28 33 0.598628 0 84 0.598628 1
gene 1 29 31 -0.754576 0 85 -0.754576 1
gene 1 29 32 -0.325984 0 86 -0.325984 1
gene 1 29 33 -0.500686 0 87 -0.500686 1
gene 1 30 31 -2.52831 0 88 -2.52831 1
gene 1 30 32 -0.801153 0 89 -0.801153 1
gene 1 30 33 0.135221 0 90 0.135221 1
genomeend 0


