/* Organism #12 Fitness: 14389.300000 Time: 0 */
genomestart 12
trait 1 0.100000 0.000000 0.000000 0.000000 0.000000 0.000000 0.000000 0.000000 
node 1 1 1 1
node 2 1 1 1
node 3 1 1 1
node 4 1 1 1
node 5 1 1 1
node 6 1 1 1
node 7 1 1 1
node 8 1 1 1
node 9 1 1 1
node 10 1 1 1
node 11 1 1 1
node 12 1 1 1
node 13 1 1 1
node 14 1 1 1
node 15 1 1 1
node 16 1 1 1
node 17 1 1 1
node 18 1 1 1
node 19 1 1 1
node 20 1 1 1
node 21 1 1 1
node 22 1 1 1
node 23 1 1 1
node 24 1 1 1
node 25 1 1 1
node 26 1 1 1
node 27 1 1 1
node 28 1 1 1
node 29 1 1 1
node 30 1 1 3
node 31 1 0 2
node 32 1 0 2
node 33 1 0 2
gene 1 1 31 -3.02441 0 1 -3.02441 1
gene 1 1 32 -1.50965 0 2 -1.50965 1
gene 1 1 33 2.50496 0 3 2.50496 1
gene 1 2 31 -3.1157 0 4 -3.1157 1
gene 1 2 32 -0.418448 0 5 -0.418448 1
gene 1 2 33 -1.49506 0 6 -1.49506 1
gene 1 3 31 -0.824907 0 7 -0.824907 1
gene 1 3 32 0.882768 0 8 0.882768 1
gene 1 3 33 0.464911 0 9 0.464911 1
gene 1 4 31 0.703232 0 10 0.703232 1
gene 1 4 32 0.625526 0 11 0.625526 1
gene 1 4 33 -1.41202 0 12 -1.41202 1
gene 1 5 31 0.373448 0 13 0.373448 1
gene 1 5 32 0.130937 0 14 0.130937 1
gene 1 5 33 -0.43978 0 15 -0.43978 1
gene 1 6 31 1.18546 0 16 1.18546 1
gene 1 6 32 -1.7677 0 17 -1.7677 1
gene 1 6 33 -1.52178 0 18 -1.52178 1
gene 1 7 31 2.05617 0 19 2.05617 1
gene 1 7 32 0.828287 0 20 0.828287 1
gene 1 7 33 2.0368 0 21 2.0368 1
gene 1 8 31 -0.103447 0 22 -0.103447 1
gene 1 8 32 0.756834 0 23 0.756834 1
gene 1 8 33 -2.00695 0 24 -2.00695 1
gene 1 9 31 0.749498 0 25 0.749498 1
gene 1 9 32 -1.98738 0 26 -1.98738 1
gene 1 9 33 -0.642487 0 27 -0.642487 1
gene 1 10 31 -0.999281 0 28 -0.999281 1
gene 1 10 32 -0.595333 0 29 -0.595333 1
gene 1 10 33 -1.21017 0 30 -1.21017 1
gene 1 11 31 2.37369 0 31 2.37369 1
gene 1 11 32 0.0723278 0 32 0.0723278 1
gene 1 11 33 -0.690402 0 33 -0.690402 1
gene 1 12 31 -3.08704 0 34 -3.08704 1
gene 1 12 32 -3.36816 0 35 -3.36816 1
gene 1 12 33 1.05703 0 36 1.05703 1
gene 1 13 31 0.496418 0 37 0.496418 1
gene 1 13 32 3.00013 0 38 3.00013 1
gene 1 13 33 0.443862 0 39 0.443862 1
gene 1 14 31 2.14647 0 40 2.14647 1
gene 1 14 32 -0.625976 0 41 -0.625976 1
gene 1 14 33 -1.19253 0 42 -1.19253 1
gene 1 15 31 -3.10972 0 43 -3.10972 1
gene 1 15 32 -0.41408 0 44 -0.41408 1
gene 1 15 33 0.0842905 0 45 0.0842905 1
gene 1 16 31 -0.545575 0 46 -0.545575 1
gene 1 16 32 -1.49949 0 47 -1.49949 1
gene 1 16 33 1.06956 0 48 1.06956 1
gene 1 17 31 -2.88973 0 49 -2.88973 1
gene 1 17 32 1.71606 0 50 1.71606 1
gene 1 17 33 1.77814 0 51 1.77814 1
gene 1 18 31 -3.2544 0 52 -3.2544 1
gene 1 18 32 0.94887 0 53 0.94887 1
gene 1 18 33 -0.502307 0 54 -0.502307 1
gene 1 19 31 -3.28526 0 55 -3.28526 1
gene 1 19 32 -3.7144 0 56 -3.7144 1
gene 1 19 33 0.930594 0 57 0.930594 1
gene 1 20 31 0.604936 0 58 0.604936 1
gene 1 20 32 0.0465002 0 59 0.0465002 1
gene 1 20 33 -3.6115 0 60 -3.6115 1
gene 1 21 31 -0.313115 0 61 -0.313115 1
gene 1 21 32 -0.080241 0 62 -0.080241 1
gene 1 21 33 -1.43048 0 63 -1.43048 1
gene 1 22 31 -1.94754 0 64 -1.94754 1
gene 1 22 32 0.623714 0 65 0.623714 1
gene 1 22 33 -0.0739768 0 66 -0.0739768 1
gene 1 23 31 -0.902338 0 67 -0.902338 1
gene 1 23 32 0.143522 0 68 0.143522 1
gene 1 23 33 -2.92723 0 69 -2.92723 1
gene 1 24 31 -0.205525 0 70 -0.205525 1
gene 1 24 32 1.15485 0 71 1.15485 1
gene 1 24 33 -0.531511 0 72 -0.531511 1
gene 1 25 31 0.722421 0 73 0.722421 1
gene 1 25 32 -0.493552 0 74 -0.493552 1
gene 1 25 33 -0.0176696 0 75 -0.0176696 1
gene 1 26 31 0.245208 0 76 0.245208 1
gene 1 26 32 0.215366 0 77 0.215366 1
gene 1 26 33 -0.360829 0 78 -0.360829 1
gene 1 27 31 0.403998 0 79 0.403998 1
gene 1 27 32 -2.98679 0 80 -2.98679 1
gene 1 27 33 0.872205 0 81 0.872205 1
gene 1 28 31 -1.83058 0 82 -1.83058 1
gene 1 28 32 0.128317 0 83 0.128317 1
gene 1 28 33 1.13035 0 84 1.13035 1
gene 1 29 31 0.507208 0 85 0.507208 1
gene 1 29 32 1.9668 0 86 1.9668 1
gene 1 29 33 -0.861248 0 87 -0.861248 1
gene 1 30 31 1.28725 0 88 1.28725 1
gene 1 30 32 -3.31787 0 89 -3.31787 1
gene 1 30 33 -1.4966 0 90 -1.4966 1
genomeend 12


