/* Organism #97 Fitness: 20504.546000 Time: 0 */
genomestart 97
trait 1 1.000000 0.000000 0.000000 0.000000 0.906143 0.000000 0.000000 0.000000 
node 1 1 1 1
node 2 1 1 1
node 3 1 1 1
node 4 1 1 1
node 5 1 1 1
node 6 1 1 1
node 7 1 1 1
node 8 1 1 1
node 9 1 1 1
node 10 1 1 1
node 11 1 1 1
node 12 1 1 1
node 13 1 1 1
node 14 1 1 1
node 15 1 1 1
node 16 1 1 1
node 17 1 1 1
node 18 1 1 1
node 19 1 1 1
node 20 1 1 1
node 21 1 1 1
node 22 1 1 1
node 23 1 1 1
node 24 1 1 1
node 25 1 1 1
node 26 1 1 1
node 27 1 1 1
node 28 1 1 1
node 29 1 1 1
node 30 1 1 1
node 31 1 1 1
node 32 1 1 1
node 33 1 1 1
node 34 1 1 1
node 35 1 1 1
node 36 1 1 1
node 37 1 1 1
node 38 1 1 1
node 39 1 1 1
node 40 1 1 3
node 41 1 0 2
node 42 1 0 2
node 43 1 0 2
node 44 1 0 2
node 45 1 0 2
gene 1 1 41 -0.0617402 0 1 -0.0617402 1
gene 1 1 42 -2.54178 0 2 -2.54178 1
gene 1 1 43 4.56799 0 3 4.56799 1
gene 1 1 44 0.0958142 0 4 0.0958142 1
gene 1 1 45 -4.78631 0 5 -4.78631 1
gene 1 2 41 -0.90437 0 6 -0.90437 1
gene 1 2 42 -5 0 7 -5 1
gene 1 2 43 0.634249 0 8 0.634249 1
gene 1 2 44 -3.3886 0 9 -3.3886 1
gene 1 2 45 -2.11037 0 10 -2.11037 1
gene 1 3 41 0.626012 0 11 0.626012 1
gene 1 3 42 -2.74602 0 12 -2.74602 1
gene 1 3 43 -2.1561 0 13 -2.1561 1
gene 1 3 44 -0.236635 0 14 -0.236635 1
gene 1 3 45 1.37094 0 15 1.37094 1
gene 1 4 41 0.992428 0 16 0.992428 1
gene 1 4 42 -1.22285 0 17 -1.22285 1
gene 1 4 43 -1.19001 0 18 -1.19001 1
gene 1 4 44 0.26059 0 19 0.26059 1
gene 1 4 45 -2.49701 0 20 -2.49701 1
gene 1 5 41 0.902422 0 21 0.902422 1
gene 1 5 42 0.813596 0 22 0.813596 1
gene 1 5 43 0.396348 0 23 0.396348 1
gene 1 5 44 -5 0 24 -5 1
gene 1 5 45 -2.95544 0 25 -2.95544 1
gene 1 6 41 -4.12044 0 26 -4.12044 1
gene 1 6 42 1.93605 0 27 1.93605 1
gene 1 6 43 1.82055 0 28 1.82055 1
gene 1 6 44 -4.34975 0 29 -4.34975 1
gene 1 6 45 -4.56117 0 30 -4.56117 1
gene 1 7 41 -5 0 31 -5 1
gene 1 7 42 -2.29011 0 32 -2.29011 1
gene 1 7 43 -2.05829 0 33 -2.05829 1
gene 1 7 44 -0.361988 0 34 -0.361988 1
gene 1 7 45 3.08481 0 35 3.08481 1
gene 1 8 41 2.10848 0 36 2.10848 1
gene 1 8 42 -2.47838 0 37 -2.47838 1
gene 1 8 43 -1.6187 0 38 -1.6187 1
gene 1 8 44 -4.57266 0 39 -4.57266 1
gene 1 8 45 0.639936 0 40 0.639936 1
gene 1 9 41 -3.5047 0 41 -3.5047 1
gene 1 9 42 1.88615 0 42 1.88615 1
gene 1 9 43 1.22731 0 43 1.22731 1
gene 1 9 44 2.59671 0 44 2.59671 1
gene 1 9 45 -2.23573 0 45 -2.23573 1
gene 1 10 41 2.51482 0 46 2.51482 1
gene 1 10 42 0.406355 0 47 0.406355 1
gene 1 10 43 -2.04418 0 48 -2.04418 1
gene 1 10 44 3.19682 0 49 3.19682 1
gene 1 10 45 -3.32673 0 50 -3.32673 1
gene 1 11 41 -0.649651 0 51 -0.649651 1
gene 1 11 42 5 0 52 5 1
gene 1 11 43 1.70468 0 53 1.70468 1
gene 1 11 44 2.72626 0 54 2.72626 1
gene 1 11 45 -0.935326 0 55 -0.935326 1
gene 1 12 41 4.59489 0 56 4.59489 1
gene 1 12 42 4.28224 0 57 4.28224 1
gene 1 12 43 -0.480279 0 58 -0.480279 1
gene 1 12 44 -2.24134 0 59 -2.24134 1
gene 1 12 45 5 0 60 5 1
gene 1 13 41 1.40755 0 61 1.40755 1
gene 1 13 42 -0.33564 0 62 -0.33564 1
gene 1 13 43 4.51359 0 63 4.51359 1
gene 1 13 44 2.05906 0 64 2.05906 1
gene 1 13 45 -0.458359 0 65 -0.458359 1
gene 1 14 41 -2.94802 0 66 -2.94802 1
gene 1 14 42 -2.04242 0 67 -2.04242 1
gene 1 14 43 5 0 68 5 1
gene 1 14 44 0.976247 0 69 0.976247 1
gene 1 14 45 1.00095 0 70 1.00095 1
gene 1 15 41 0.303709 0 71 0.303709 1
gene 1 15 42 -2.91435 0 72 -2.91435 1
gene 1 15 43 0.231922 0 73 0.231922 1
gene 1 15 44 -4.48183 0 74 -4.48183 1
gene 1 15 45 -0.384447 0 75 -0.384447 1
gene 1 16 41 1.31418 0 76 1.31418 1
gene 1 16 42 -0.0104608 0 77 -0.0104608 1
gene 1 16 43 -3.69024 0 78 -3.69024 1
gene 1 16 44 3.34649 0 79 3.34649 1
gene 1 16 45 2.11294 0 80 2.11294 1
gene 1 17 41 2.78182 0 81 2.78182 1
gene 1 17 42 0.0450819 0 82 0.0450819 1
gene 1 17 43 2.75781 0 83 2.75781 1
gene 1 17 44 0.84164 0 84 0.84164 1
gene 1 17 45 -5 0 85 -5 1
gene 1 18 41 -5 0 86 -5 1
gene 1 18 42 -5 0 87 -5 1
gene 1 18 43 -2.7236 0 88 -2.7236 1
gene 1 18 44 0.68361 0 89 0.68361 1
gene 1 18 45 -1.94404 0 90 -1.94404 1
gene 1 19 41 -0.096904 0 91 -0.096904 1
gene 1 19 42 -3.65466 0 92 -3.65466 1
gene 1 19 43 -0.101554 0 93 -0.101554 1
gene 1 19 44 -5 0 94 -5 1
gene 1 19 45 -3.00586 0 95 -3.00586 1
gene 1 20 41 -2.01575 0 96 -2.01575 1
gene 1 20 42 1.01773 0 97 1.01773 1
gene 1 20 43 -2.47199 0 98 -2.47199 1
gene 1 20 44 2.41884 0 99 2.41884 1
gene 1 20 45 -3.7093 0 100 -3.7093 1
gene 1 21 41 3.55876 0 101 3.55876 1
gene 1 21 42 -3.02814 0 102 -3.02814 1
gene 1 21 43 -0.165258 0 103 -0.165258 1
gene 1 21 44 -0.734453 0 104 -0.734453 1
gene 1 21 45 4.86137 0 105 4.86137 1
gene 1 22 41 0.952474 0 106 0.952474 1
gene 1 22 42 3.89308 0 107 3.89308 1
gene 1 22 43 -3.52235 0 108 -3.52235 1
gene 1 22 44 4.41385 0 109 4.41385 1
gene 1 22 45 -0.0656389 0 110 -0.0656389 1
gene 1 23 41 0.774925 0 111 0.774925 1
gene 1 23 42 1.93348 0 112 1.93348 1
gene 1 23 43 1.50116 0 113 1.50116 1
gene 1 23 44 0.822467 0 114 0.822467 1
gene 1 23 45 2.0363 0 115 2.0363 1
gene 1 24 41 0.490678 0 116 0.490678 1
gene 1 24 42 1.68015 0 117 1.68015 1
gene 1 24 43 2.77101 0 118 2.77101 1
gene 1 24 44 -2.45516 0 119 -2.45516 1
gene 1 24 45 -4.84997 0 120 -4.84997 1
gene 1 25 41 2.08957 0 121 2.08957 1
gene 1 25 42 -1.45819 0 122 -1.45819 1
gene 1 25 43 0.863515 0 123 0.863515 1
gene 1 25 44 -2.49755 0 124 -2.49755 1
gene 1 25 45 -0.0344419 0 125 -0.0344419 1
gene 1 26 41 -1.83166 0 126 -1.83166 1
gene 1 26 42 0.432749 0 127 0.432749 1
gene 1 26 43 2.03482 0 128 2.03482 1
gene 1 26 44 1.64467 0 129 1.64467 1
gene 1 26 45 -0.93815 0 130 -0.93815 1
gene 1 27 41 -4.47 0 131 -4.47 1
gene 1 27 42 2.01571 0 132 2.01571 1
gene 1 27 43 -0.500822 0 133 -0.500822 1
gene 1 27 44 0.948221 0 134 0.948221 1
gene 1 27 45 -0.803695 0 135 -0.803695 1
gene 1 28 41 1.42796 0 136 1.42796 1
gene 1 28 42 1.99648 0 137 1.99648 1
gene 1 28 43 3.88194 0 138 3.88194 1
gene 1 28 44 0.783705 0 139 0.783705 1
gene 1 28 45 -2.16288 0 140 -2.16288 1
gene 1 29 41 1.12997 0 141 1.12997 1
gene 1 29 42 -1.56861 0 142 -1.56861 1
gene 1 29 43 0.0145431 0 143 0.0145431 1
gene 1 29 44 3.61017 0 144 3.61017 1
gene 1 29 45 -1.07933 0 145 -1.07933 1
gene 1 30 41 -1.63506 0 146 -1.63506 1
gene 1 30 42 3.05518 0 147 3.05518 1
gene 1 30 43 -5 0 148 -5 1
gene 1 30 44 1.65972 0 149 1.65972 1
gene 1 30 45 3.52945 0 150 3.52945 1
gene 1 31 41 -1.03025 0 151 -1.03025 1
gene 1 31 42 0.725965 0 152 0.725965 1
gene 1 31 43 2.96166 0 153 2.96166 1
gene 1 31 44 -2.61428 0 154 -2.61428 1
gene 1 31 45 1.08321 0 155 1.08321 1
gene 1 32 41 -5 0 156 -5 1
gene 1 32 42 0.0636999 0 157 0.0636999 1
gene 1 32 43 -3.34096 0 158 -3.34096 1
gene 1 32 44 3.00509 0 159 3.00509 1
gene 1 32 45 -1.54356 0 160 -1.54356 1
gene 1 33 41 1.67897 0 161 1.67897 1
gene 1 33 42 0.753555 0 162 0.753555 1
gene 1 33 43 -0.690413 0 163 -0.690413 1
gene 1 33 44 0.972153 0 164 0.972153 1
gene 1 33 45 1.34156 0 165 1.34156 1
gene 1 34 41 1.10459 0 166 1.10459 1
gene 1 34 42 -0.848874 0 167 -0.848874 1
gene 1 34 43 -2.87609 0 168 -2.87609 1
gene 1 34 44 -1.4647 0 169 -1.4647 1
gene 1 34 45 -0.892776 0 170 -0.892776 1
gene 1 35 41 0.269982 0 171 0.269982 1
gene 1 35 42 -0.132483 0 172 -0.132483 1
gene 1 35 43 -0.496742 0 173 -0.496742 1
gene 1 35 44 3.15157 0 174 3.15157 1
gene 1 35 45 0.331983 0 175 0.331983 1
gene 1 36 41 0.124016 0 176 0.124016 1
gene 1 36 42 -1.45873 0 177 -1.45873 1
gene 1 36 43 -0.631406 0 178 -0.631406 1
gene 1 36 44 0.653243 0 179 0.653243 1
gene 1 36 45 -0.978763 0 180 -0.978763 1
gene 1 37 41 -1.05201 0 181 -1.05201 1
gene 1 37 42 0.253229 0 182 0.253229 1
gene 1 37 43 0.511532 0 183 0.511532 1
gene 1 37 44 -0.87569 0 184 -0.87569 1
gene 1 37 45 -1.04405 0 185 -1.04405 1
gene 1 38 41 -0.789634 0 186 -0.789634 1
gene 1 38 42 0.697787 0 187 0.697787 1
gene 1 38 43 1.98991 0 188 1.98991 1
gene 1 38 44 -0.0879977 0 189 -0.0879977 1
gene 1 38 45 0.716572 0 190 0.716572 1
gene 1 39 41 -2.06822 0 191 -2.06822 1
gene 1 39 42 0.254536 0 192 0.254536 1
gene 1 39 43 -0.646211 0 193 -0.646211 1
gene 1 39 44 -1.37648 0 194 -1.37648 1
gene 1 39 45 -1.62325 0 195 -1.62325 1
gene 1 40 41 -4.52874 0 196 -4.52874 1
gene 1 40 42 -0.689469 0 197 -0.689469 1
gene 1 40 43 0.363417 0 198 0.363417 1
gene 1 40 44 -0.0170925 0 199 -0.0170925 1
gene 1 40 45 0.805735 0 200 0.805735 1
genomeend 97


