/* Organism #4 Fitness: 20351.054000 Time: 0 */
genomestart 4
trait 1 0.268118 0.000000 0.313794 0.053721 0.165004 0.765526 0.000000 0.908197 
node 1 1 1 1
node 2 1 1 1
node 3 1 1 1
node 4 1 1 1
node 5 1 1 1
node 6 1 1 1
node 7 1 1 1
node 8 1 1 1
node 9 1 1 1
node 10 1 1 1
node 11 1 1 1
node 12 1 1 1
node 13 1 1 1
node 14 1 1 1
node 15 1 1 1
node 16 1 1 1
node 17 1 1 1
node 18 1 1 1
node 19 1 1 1
node 20 1 1 1
node 21 1 1 1
node 22 1 1 1
node 23 1 1 1
node 24 1 1 1
node 25 1 1 1
node 26 1 1 1
node 27 1 1 1
node 28 1 1 1
node 29 1 1 1
node 30 1 1 1
node 31 1 1 1
node 32 1 1 1
node 33 1 1 1
node 34 1 1 1
node 35 1 1 1
node 36 1 1 1
node 37 1 1 1
node 38 1 1 1
node 39 1 1 1
node 40 1 1 3
node 41 1 0 2
node 42 1 0 2
node 43 1 0 2
node 44 1 0 2
node 45 1 0 2
gene 1 1 41 -0.11813 0 1 -0.11813 1
gene 1 1 42 -2.30829 0 2 -2.30829 1
gene 1 1 43 4.8503 0 3 4.8503 1
gene 1 1 44 -3.5101 0 4 -3.5101 1
gene 1 1 45 1.40642 0 5 1.40642 1
gene 1 2 41 -1.68042 0 6 -1.68042 1
gene 1 2 42 -3.82299 0 7 -3.82299 1
gene 1 2 43 -4.01947 0 8 -4.01947 1
gene 1 2 44 2.00978 0 9 2.00978 1
gene 1 2 45 1.68403 0 10 1.68403 1
gene 1 3 41 3.08513 0 11 3.08513 1
gene 1 3 42 -1.85592 0 12 -1.85592 1
gene 1 3 43 1.27444 0 13 1.27444 1
gene 1 3 44 1.21746 0 14 1.21746 1
gene 1 3 45 -4.78539 0 15 -4.78539 1
gene 1 4 41 -4.86106 0 16 -4.86106 1
gene 1 4 42 0.746 0 17 0.746 1
gene 1 4 43 0.895256 0 18 0.895256 1
gene 1 4 44 -4.58677 0 19 -4.58677 1
gene 1 4 45 -3.83511 0 20 -3.83511 1
gene 1 5 41 -0.100023 0 21 -0.100023 1
gene 1 5 42 3.37233 0 22 3.37233 1
gene 1 5 43 2.82814 0 23 2.82814 1
gene 1 5 44 -2.28974 0 24 -2.28974 1
gene 1 5 45 -4.02442 0 25 -4.02442 1
gene 1 6 41 0.455438 0 26 0.455438 1
gene 1 6 42 -1.15313 0 27 -1.15313 1
gene 1 6 43 2.35736 0 28 2.35736 1
gene 1 6 44 -2.97203 0 29 -2.97203 1
gene 1 6 45 -4.54031 0 30 -4.54031 1
gene 1 7 41 -2.13772 0 31 -2.13772 1
gene 1 7 42 -0.464381 0 32 -0.464381 1
gene 1 7 43 2.22256 0 33 2.22256 1
gene 1 7 44 -3.00015 0 34 -3.00015 1
gene 1 7 45 -4.90081 0 35 -4.90081 1
gene 1 8 41 -5 0 36 -5 1
gene 1 8 42 -2.64073 0 37 -2.64073 1
gene 1 8 43 0.872098 0 38 0.872098 1
gene 1 8 44 2.94017 0 39 2.94017 1
gene 1 8 45 1.30539 0 40 1.30539 1
gene 1 9 41 -1.75675 0 41 -1.75675 1
gene 1 9 42 -0.569553 0 42 -0.569553 1
gene 1 9 43 1.01781 0 43 1.01781 1
gene 1 9 44 -3.10633 0 44 -3.10633 1
gene 1 9 45 1.00469 0 45 1.00469 1
gene 1 10 41 0.671207 0 46 0.671207 1
gene 1 10 42 -1.83258 0 47 -1.83258 1
gene 1 10 43 -1.34388 0 48 -1.34388 1
gene 1 10 44 -5 0 49 -5 1
gene 1 10 45 4.32838 0 50 4.32838 1
gene 1 11 41 -5 0 51 -5 1
gene 1 11 42 1.18597 0 52 1.18597 1
gene 1 11 43 -0.347341 0 53 -0.347341 1
gene 1 11 44 0.204777 0 54 0.204777 1
gene 1 11 45 1.00261 0 55 1.00261 1
gene 1 12 41 2.22994 0 56 2.22994 1
gene 1 12 42 4.51246 0 57 4.51246 1
gene 1 12 43 1.07778 0 58 1.07778 1
gene 1 12 44 2.67051 0 59 2.67051 1
gene 1 12 45 -3.38967 0 60 -3.38967 1
gene 1 13 41 -0.549601 0 61 -0.549601 1
gene 1 13 42 -3.91866 0 62 -3.91866 1
gene 1 13 43 3.83734 0 63 3.83734 1
gene 1 13 44 -4.90738 0 64 -4.90738 1
gene 1 13 45 1.65832 0 65 1.65832 1
gene 1 14 41 -2.63639 0 66 -2.63639 1
gene 1 14 42 -3.02486 0 67 -3.02486 1
gene 1 14 43 -1.0448 0 68 -1.0448 1
gene 1 14 44 -1.44416 0 69 -1.44416 1
gene 1 14 45 -2.46753 0 70 -2.46753 1
gene 1 15 41 4.51428 0 71 4.51428 1
gene 1 15 42 5 0 72 5 1
gene 1 15 43 -4.22138 0 73 -4.22138 1
gene 1 15 44 0.975516 0 74 0.975516 1
gene 1 15 45 -5 0 75 -5 1
gene 1 16 41 -4.09583 0 76 -4.09583 1
gene 1 16 42 -1.84662 0 77 -1.84662 1
gene 1 16 43 0.188034 0 78 0.188034 1
gene 1 16 44 2.99292 0 79 2.99292 1
gene 1 16 45 1.01479 0 80 1.01479 1
gene 1 17 41 -3.20483 0 81 -3.20483 1
gene 1 17 42 -2.84894 0 82 -2.84894 1
gene 1 17 43 4.49051 0 83 4.49051 1
gene 1 17 44 -5 0 84 -5 1
gene 1 17 45 -2.99863 0 85 -2.99863 1
gene 1 18 41 -1.33089 0 86 -1.33089 1
gene 1 18 42 -0.865558 0 87 -0.865558 1
gene 1 18 43 -2.69617 0 88 -2.69617 1
gene 1 18 44 1.91109 0 89 1.91109 1
gene 1 18 45 -1.30847 0 90 -1.30847 1
gene 1 19 41 -2.19288 0 91 -2.19288 1
gene 1 19 42 -5 0 92 -5 1
gene 1 19 43 -1.61523 0 93 -1.61523 1
gene 1 19 44 5 0 94 5 1
gene 1 19 45 5 0 95 5 1
gene 1 20 41 0.250002 0 96 0.250002 1
gene 1 20 42 4.80481 0 97 4.80481 1
gene 1 20 43 -4.52032 0 98 -4.52032 1
gene 1 20 44 4.81474 0 99 4.81474 1
gene 1 20 45 -2.30668 0 100 -2.30668 1
gene 1 21 41 0.742957 0 101 0.742957 1
gene 1 21 42 -0.969926 0 102 -0.969926 1
gene 1 21 43 2.48433 0 103 2.48433 1
gene 1 21 44 -0.752077 0 104 -0.752077 1
gene 1 21 45 5 0 105 5 1
gene 1 22 41 0.255398 0 106 0.255398 1
gene 1 22 42 -4.22207 0 107 -4.22207 1
gene 1 22 43 2.42953 0 108 2.42953 1
gene 1 22 44 0.218795 0 109 0.218795 1
gene 1 22 45 -2.78934 0 110 -2.78934 1
gene 1 23 41 0.510869 0 111 0.510869 1
gene 1 23 42 0.500886 0 112 0.500886 1
gene 1 23 43 -1.05091 0 113 -1.05091 1
gene 1 23 44 -0.00325794 0 114 -0.00325794 1
gene 1 23 45 -3.70351 0 115 -3.70351 1
gene 1 24 41 0.780318 0 116 0.780318 1
gene 1 24 42 -4.45222 0 117 -4.45222 1
gene 1 24 43 -3.20288 0 118 -3.20288 1
gene 1 24 44 -3.38055 0 119 -3.38055 1
gene 1 24 45 -0.208283 0 120 -0.208283 1
gene 1 25 41 -2.15341 0 121 -2.15341 1
gene 1 25 42 -3.87508 0 122 -3.87508 1
gene 1 25 43 3.19794 0 123 3.19794 1
gene 1 25 44 2.33491 0 124 2.33491 1
gene 1 25 45 -2.11636 0 125 -2.11636 1
gene 1 26 41 -0.546232 0 126 -0.546232 1
gene 1 26 42 -2.49324 0 127 -2.49324 1
gene 1 26 43 4.20724 0 128 4.20724 1
gene 1 26 44 1.58165 0 129 1.58165 1
gene 1 26 45 -3.98166 0 130 -3.98166 1
gene 1 27 41 0.465388 0 131 0.465388 1
gene 1 27 42 -3.90721 0 132 -3.90721 1
gene 1 27 43 -1.78855 0 133 -1.78855 1
gene 1 27 44 5 0 134 5 1
gene 1 27 45 -0.991638 0 135 -0.991638 1
gene 1 28 41 0.182794 0 136 0.182794 1
gene 1 28 42 -0.751868 0 137 -0.751868 1
gene 1 28 43 4.21346 0 138 4.21346 1
gene 1 28 44 3.54314 0 139 3.54314 1
gene 1 28 45 -0.566905 0 140 -0.566905 1
gene 1 29 41 -5 0 141 -5 1
gene 1 29 42 -4.05927 0 142 -4.05927 1
gene 1 29 43 -3.05666 0 143 -3.05666 1
gene 1 29 44 -3.7116 0 144 -3.7116 1
gene 1 29 45 0.249453 0 145 0.249453 1
gene 1 30 41 -5 0 146 -5 1
gene 1 30 42 0.323143 0 147 0.323143 1
gene 1 30 43 -0.83282 0 148 -0.83282 1
gene 1 30 44 -4.89973 0 149 -4.89973 1
gene 1 30 45 3.62301 0 150 3.62301 1
gene 1 31 41 -1.05594 0 151 -1.05594 1
gene 1 31 42 5 0 152 5 1
gene 1 31 43 -3.17177 0 153 -3.17177 1
gene 1 31 44 -2.67255 0 154 -2.67255 1
gene 1 31 45 1.18169 0 155 1.18169 1
gene 1 32 41 -2.24149 0 156 -2.24149 1
gene 1 32 42 -4.13011 0 157 -4.13011 1
gene 1 32 43 1.11495 0 158 1.11495 1
gene 1 32 44 -3.27282 0 159 -3.27282 1
gene 1 32 45 -1.27626 0 160 -1.27626 1
gene 1 33 41 -4.87558 0 161 -4.87558 1
gene 1 33 42 1.34005 0 162 1.34005 1
gene 1 33 43 -0.0476172 0 163 -0.0476172 1
gene 1 33 44 0.292011 0 164 0.292011 1
gene 1 33 45 0.973469 0 165 0.973469 1
gene 1 34 41 -0.447142 0 166 -0.447142 1
gene 1 34 42 -0.016834 0 167 -0.016834 1
gene 1 34 43 -2.13011 0 168 -2.13011 1
gene 1 34 44 -0.232501 0 169 -0.232501 1
gene 1 34 45 2.7182 0 170 2.7182 1
gene 1 35 41 -0.60768 0 171 -0.60768 1
gene 1 35 42 4.83754 0 172 4.83754 1
gene 1 35 43 -2.79896 0 173 -2.79896 1
gene 1 35 44 0.7571 0 174 0.7571 1
gene 1 35 45 0.763023 0 175 0.763023 1
gene 1 36 41 -1.37903 0 176 -1.37903 1
gene 1 36 42 0.586311 0 177 0.586311 1
gene 1 36 43 -0.740485 0 178 -0.740485 1
gene 1 36 44 0.418265 0 179 0.418265 1
gene 1 36 45 0.513699 0 180 0.513699 1
gene 1 37 41 -2.40626 0 181 -2.40626 1
gene 1 37 42 0.836327 0 182 0.836327 1
gene 1 37 43 0.327707 0 183 0.327707 1
gene 1 37 44 0.0486083 0 184 0.0486083 1
gene 1 37 45 -0.395253 0 185 -0.395253 1
gene 1 38 41 0.104886 0 186 0.104886 1
gene 1 38 42 1.35368 0 187 1.35368 1
gene 1 38 43 -0.309108 0 188 -0.309108 1
gene 1 38 44 -0.199616 0 189 -0.199616 1
gene 1 38 45 0.1428 0 190 0.1428 1
gene 1 39 41 0.591404 0 191 0.591404 1
gene 1 39 42 -0.675728 0 192 -0.675728 1
gene 1 39 43 -0.612893 0 193 -0.612893 1
gene 1 39 44 -0.855926 0 194 -0.855926 1
gene 1 39 45 0.582338 0 195 0.582338 1
gene 1 40 41 -0.192794 0 196 -0.192794 1
gene 1 40 42 -5 0 197 -5 1
gene 1 40 43 -2.41167 0 198 -2.41167 1
gene 1 40 44 1.38138 0 199 1.38138 1
gene 1 40 45 -0.286891 0 200 -0.286891 1
genomeend 4


