/* Organism #4 Fitness: 20375.492000 Time: 0 */
genomestart 4
trait 1 0.726531 0.000000 0.884326 0.998143 0.072930 0.000000 0.935661 0.726274 
node 1 1 1 1
node 2 1 1 1
node 3 1 1 1
node 4 1 1 1
node 5 1 1 1
node 6 1 1 1
node 7 1 1 1
node 8 1 1 1
node 9 1 1 1
node 10 1 1 1
node 11 1 1 1
node 12 1 1 1
node 13 1 1 1
node 14 1 1 1
node 15 1 1 1
node 16 1 1 1
node 17 1 1 1
node 18 1 1 1
node 19 1 1 1
node 20 1 1 1
node 21 1 1 1
node 22 1 1 1
node 23 1 1 1
node 24 1 1 1
node 25 1 1 1
node 26 1 1 1
node 27 1 1 1
node 28 1 1 1
node 29 1 1 1
node 30 1 1 1
node 31 1 1 1
node 32 1 1 1
node 33 1 1 1
node 34 1 1 1
node 35 1 1 1
node 36 1 1 1
node 37 1 1 1
node 38 1 1 1
node 39 1 1 1
node 40 1 1 3
node 41 1 0 2
node 42 1 0 2
node 43 1 0 2
node 44 1 0 2
node 45 1 0 2
gene 1 1 41 -2.69442 0 1 -2.69442 1
gene 1 1 42 -3.02662 0 2 -3.02662 1
gene 1 1 43 -0.702215 0 3 -0.702215 1
gene 1 1 44 -1.08428 0 4 -1.08428 1
gene 1 1 45 0.456156 0 5 0.456156 1
gene 1 2 41 -1.96826 0 6 -1.96826 1
gene 1 2 42 0.20183 0 7 0.20183 1
gene 1 2 43 -2.95032 0 8 -2.95032 1
gene 1 2 44 1.28372 0 9 1.28372 1
gene 1 2 45 -0.479754 0 10 -0.479754 1
gene 1 3 41 -3.26417 0 11 -3.26417 1
gene 1 3 42 -2.76526 0 12 -2.76526 1
gene 1 3 43 1.74557 0 13 1.74557 1
gene 1 3 44 0.601629 0 14 0.601629 1
gene 1 3 45 0.800314 0 15 0.800314 1
gene 1 4 41 0.895404 0 16 0.895404 1
gene 1 4 42 -2.78914 0 17 -2.78914 1
gene 1 4 43 0.498099 0 18 0.498099 1
gene 1 4 44 -5 0 19 -5 1
gene 1 4 45 -4.72159 0 20 -4.72159 1
gene 1 5 41 1.69125 0 21 1.69125 1
gene 1 5 42 0.285112 0 22 0.285112 1
gene 1 5 43 1.55027 0 23 1.55027 1
gene 1 5 44 0.370956 0 24 0.370956 1
gene 1 5 45 -4.73977 0 25 -4.73977 1
gene 1 6 41 0.974526 0 26 0.974526 1
gene 1 6 42 0.520071 0 27 0.520071 1
gene 1 6 43 -1.24684 0 28 -1.24684 1
gene 1 6 44 -0.905434 0 29 -0.905434 1
gene 1 6 45 -4.31647 0 30 -4.31647 1
gene 1 7 41 -4.30329 0 31 -4.30329 1
gene 1 7 42 1.93341 0 32 1.93341 1
gene 1 7 43 2.10013 0 33 2.10013 1
gene 1 7 44 0.129999 0 34 0.129999 1
gene 1 7 45 -0.139303 0 35 -0.139303 1
gene 1 8 41 0.106896 0 36 0.106896 1
gene 1 8 42 2.4906 0 37 2.4906 1
gene 1 8 43 -0.790671 0 38 -0.790671 1
gene 1 8 44 2.73746 0 39 2.73746 1
gene 1 8 45 1.89796 0 40 1.89796 1
gene 1 9 41 -0.388601 0 41 -0.388601 1
gene 1 9 42 2.0604 0 42 2.0604 1
gene 1 9 43 0.107397 0 43 0.107397 1
gene 1 9 44 -1.59361 0 44 -1.59361 1
gene 1 9 45 -1.02618 0 45 -1.02618 1
gene 1 10 41 0.0726104 0 46 0.0726104 1
gene 1 10 42 -1.22587 0 47 -1.22587 1
gene 1 10 43 -1.11542 0 48 -1.11542 1
gene 1 10 44 -1.7628 0 49 -1.7628 1
gene 1 10 45 0.708645 0 50 0.708645 1
gene 1 11 41 -1.30232 0 51 -1.30232 1
gene 1 11 42 2.18936 0 52 2.18936 1
gene 1 11 43 -2.93739 0 53 -2.93739 1
gene 1 11 44 0.218455 0 54 0.218455 1
gene 1 11 45 -0.928476 0 55 -0.928476 1
gene 1 12 41 -4.33961 0 56 -4.33961 1
gene 1 12 42 -2.28358 0 57 -2.28358 1
gene 1 12 43 2.6957 0 58 2.6957 1
gene 1 12 44 2.95587 0 59 2.95587 1
gene 1 12 45 2.66052 0 60 2.66052 1
gene 1 13 41 -0.0291394 0 61 -0.0291394 1
gene 1 13 42 0.820296 0 62 0.820296 1
gene 1 13 43 1.86679 0 63 1.86679 1
gene 1 13 44 1.02595 0 64 1.02595 1
gene 1 13 45 1.47385 0 65 1.47385 1
gene 1 14 41 -3.60332 0 66 -3.60332 1
gene 1 14 42 2.95825 0 67 2.95825 1
gene 1 14 43 -1.47081 0 68 -1.47081 1
gene 1 14 44 -1.81042 0 69 -1.81042 1
gene 1 14 45 -0.953696 0 70 -0.953696 1
gene 1 15 41 0.0740245 0 71 0.0740245 1
gene 1 15 42 0.185512 0 72 0.185512 1
gene 1 15 43 1.39751 0 73 1.39751 1
gene 1 15 44 -2.68384 0 74 -2.68384 1
gene 1 15 45 -0.840881 0 75 -0.840881 1
gene 1 16 41 -0.846527 0 76 -0.846527 1
gene 1 16 42 1.65595 0 77 1.65595 1
gene 1 16 43 0.740959 0 78 0.740959 1
gene 1 16 44 -1.63452 0 79 -1.63452 1
gene 1 16 45 -0.459823 0 80 -0.459823 1
gene 1 17 41 -3.35363 0 81 -3.35363 1
gene 1 17 42 0.303765 0 82 0.303765 1
gene 1 17 43 -2.17449 0 83 -2.17449 1
gene 1 17 44 1.47235 0 84 1.47235 1
gene 1 17 45 1.70181 0 85 1.70181 1
gene 1 18 41 0.177456 0 86 0.177456 1
gene 1 18 42 -4.15023 0 87 -4.15023 1
gene 1 18 43 0.930442 0 88 0.930442 1
gene 1 18 44 -2.10731 0 89 -2.10731 1
gene 1 18 45 2.38623 0 90 2.38623 1
gene 1 19 41 -2.84901 0 91 -2.84901 1
gene 1 19 42 -0.215302 0 92 -0.215302 1
gene 1 19 43 0.395668 0 93 0.395668 1
gene 1 19 44 -1.18866 0 94 -1.18866 1
gene 1 19 45 -1.4057 0 95 -1.4057 1
gene 1 20 41 5 0 96 5 1
gene 1 20 42 2.10591 0 97 2.10591 1
gene 1 20 43 -1.15403 0 98 -1.15403 1
gene 1 20 44 -2.78529 0 99 -2.78529 1
gene 1 20 45 -1.42455 0 100 -1.42455 1
gene 1 21 41 -1.58002 0 101 -1.58002 1
gene 1 21 42 -1.41799 0 102 -1.41799 1
gene 1 21 43 -1.03193 0 103 -1.03193 1
gene 1 21 44 0.778663 0 104 0.778663 1
gene 1 21 45 -1.43404 0 105 -1.43404 1
gene 1 22 41 1.80283 0 106 1.80283 1
gene 1 22 42 2.6536 0 107 2.6536 1
gene 1 22 43 -2.99031 0 108 -2.99031 1
gene 1 22 44 -0.430624 0 109 -0.430624 1
gene 1 22 45 -1.41873 0 110 -1.41873 1
gene 1 23 41 1.07294 0 111 1.07294 1
gene 1 23 42 1.57419 0 112 1.57419 1
gene 1 23 43 -1.16893 0 113 -1.16893 1
gene 1 23 44 -1.37483 0 114 -1.37483 1
gene 1 23 45 2.55325 0 115 2.55325 1
gene 1 24 41 -1.54901 0 116 -1.54901 1
gene 1 24 42 1.90767 0 117 1.90767 1
gene 1 24 43 3.65314 0 118 3.65314 1
gene 1 24 44 2.06527 0 119 2.06527 1
gene 1 24 45 1.16369 0 120 1.16369 1
gene 1 25 41 -1.24359 0 121 -1.24359 1
gene 1 25 42 -0.333679 0 122 -0.333679 1
gene 1 25 43 -1.75286 0 123 -1.75286 1
gene 1 25 44 0.59634 0 124 0.59634 1
gene 1 25 45 -0.121677 0 125 -0.121677 1
gene 1 26 41 -0.965522 0 126 -0.965522 1
gene 1 26 42 2.89495 0 127 2.89495 1
gene 1 26 43 -1.70344 0 128 -1.70344 1
gene 1 26 44 2.40905 0 129 2.40905 1
gene 1 26 45 2.38462 0 130 2.38462 1
gene 1 27 41 -1.02698 0 131 -1.02698 1
gene 1 27 42 -0.678606 0 132 -0.678606 1
gene 1 27 43 0.859135 0 133 0.859135 1
gene 1 27 44 2.31996 0 134 2.31996 1
gene 1 27 45 1.45341 0 135 1.45341 1
gene 1 28 41 1.43896 0 136 1.43896 1
gene 1 28 42 0.170155 0 137 0.170155 1
gene 1 28 43 0.443232 0 138 0.443232 1
gene 1 28 44 -1.8588 0 139 -1.8588 1
gene 1 28 45 -1.63043 0 140 -1.63043 1
gene 1 29 41 0.244615 0 141 0.244615 1
gene 1 29 42 -2.80189 0 142 -2.80189 1
gene 1 29 43 -1.72064 0 143 -1.72064 1
gene 1 29 44 1.32789 0 144 1.32789 1
gene 1 29 45 -4.14923 0 145 -4.14923 1
gene 1 30 41 -0.00350937 0 146 -0.00350937 1
gene 1 30 42 -2.13578 0 147 -2.13578 1
gene 1 30 43 -0.295295 0 148 -0.295295 1
gene 1 30 44 -1.13172 0 149 -1.13172 1
gene 1 30 45 -0.250704 0 150 -0.250704 1
gene 1 31 41 3.07601 0 151 3.07601 1
gene 1 31 42 2.13745 0 152 2.13745 1
gene 1 31 43 -0.0884909 0 153 -0.0884909 1
gene 1 31 44 -2.38768 0 154 -2.38768 1
gene 1 31 45 1.28809 0 155 1.28809 1
gene 1 32 41 -0.0297679 0 156 -0.0297679 1
gene 1 32 42 -1.31962 0 157 -1.31962 1
gene 1 32 43 -0.751942 0 158 -0.751942 1
gene 1 32 44 -0.0667969 0 159 -0.0667969 1
gene 1 32 45 -3.27625 0 160 -3.27625 1
gene 1 33 41 3.039 0 161 3.039 1
gene 1 33 42 0.480385 0 162 0.480385 1
gene 1 33 43 -0.45051 0 163 -0.45051 1
gene 1 33 44 -1.60249 0 164 -1.60249 1
gene 1 33 45 0.476472 0 165 0.476472 1
gene 1 34 41 1.61031 0 166 1.61031 1
gene 1 34 42 0.241585 0 167 0.241585 1
gene 1 34 43 -0.857353 0 168 -0.857353 1
gene 1 34 44 1.44644 0 169 1.44644 1
gene 1 34 45 0.650333 0 170 0.650333 1
gene 1 35 41 3.94905 0 171 3.94905 1
gene 1 35 42 -0.279898 0 172 -0.279898 1
gene 1 35 43 0.556048 0 173 0.556048 1
gene 1 35 44 -0.262723 0 174 -0.262723 1
gene 1 35 45 0.571846 0 175 0.571846 1
gene 1 36 41 -0.89254 0 176 -0.89254 1
gene 1 36 42 0.951133 0 177 0.951133 1
gene 1 36 43 0.531964 0 178 0.531964 1
gene 1 36 44 -0.381985 0 179 -0.381985 1
gene 1 36 45 1.37663 0 180 1.37663 1
gene 1 37 41 -0.309569 0 181 -0.309569 1
gene 1 37 42 -1.23486 0 182 -1.23486 1
gene 1 37 43 -0.901405 0 183 -0.901405 1
gene 1 37 44 0.705651 0 184 0.705651 1
gene 1 37 45 0.186576 0 185 0.186576 1
gene 1 38 41 -0.156796 0 186 -0.156796 1
gene 1 38 42 0.284782 0 187 0.284782 1
gene 1 38 43 0.201147 0 188 0.201147 1
gene 1 38 44 -0.924156 0 189 -0.924156 1
gene 1 38 45 -0.125665 0 190 -0.125665 1
gene 1 39 41 -0.628611 0 191 -0.628611 1
gene 1 39 42 0.498191 0 192 0.498191 1
gene 1 39 43 -0.859752 0 193 -0.859752 1
gene 1 39 44 1.46738 0 194 1.46738 1
gene 1 39 45 1.52725 0 195 1.52725 1
gene 1 40 41 -4.04496 0 196 -4.04496 1
gene 1 40 42 -2.83955 0 197 -2.83955 1
gene 1 40 43 0.437722 0 198 0.437722 1
gene 1 40 44 0.0686482 0 199 0.0686482 1
gene 1 40 45 0.440475 0 200 0.440475 1
genomeend 4


