/* Organism #70 Fitness: 36404.500000 Time: 0 */
genomestart 70
trait 1 0.100000 0.000000 0.000000 0.000000 0.000000 0.000000 0.000000 0.000000 
node 1 1 1 1
node 2 1 1 1
node 3 1 1 1
node 4 1 1 1
node 5 1 1 1
node 6 1 1 1
node 7 1 1 1
node 8 1 1 1
node 9 1 1 1
node 10 1 1 1
node 11 1 1 1
node 12 1 1 1
node 13 1 1 1
node 14 1 1 1
node 15 1 1 1
node 16 1 1 1
node 17 1 1 1
node 18 1 1 1
node 19 1 1 1
node 20 1 1 1
node 21 1 1 1
node 22 1 1 1
node 23 1 1 1
node 24 1 1 1
node 25 1 1 1
node 26 1 1 1
node 27 1 1 1
node 28 1 1 1
node 29 1 1 1
node 30 1 1 3
node 31 1 0 2
node 32 1 0 2
node 33 1 0 2
gene 1 1 31 2.64335 0 1 2.64335 1
gene 1 1 32 -2.56985 0 2 -2.56985 1
gene 1 1 33 0.929917 0 3 0.929917 1
gene 1 2 31 0.585642 0 4 0.585642 1
gene 1 2 32 0.50207 0 5 0.50207 1
gene 1 2 33 -1.18935 0 6 -1.18935 1
gene 1 3 31 1.01002 0 7 1.01002 1
gene 1 3 32 -2.26021 0 8 -2.26021 1
gene 1 3 33 -1.40233 0 9 -1.40233 1
gene 1 4 31 1.23218 0 10 1.23218 1
gene 1 4 32 -1.35295 0 11 -1.35295 1
gene 1 4 33 1.6864 0 12 1.6864 1
gene 1 5 31 -0.372867 0 13 -0.372867 1
gene 1 5 32 -1.05385 0 14 -1.05385 1
gene 1 5 33 0.0355237 0 15 0.0355237 1
gene 1 6 31 1.89115 0 16 1.89115 1
gene 1 6 32 0.256191 0 17 0.256191 1
gene 1 6 33 1.84396 0 18 1.84396 1
gene 1 7 31 3.16352 0 19 3.16352 1
gene 1 7 32 0.290051 0 20 0.290051 1
gene 1 7 33 -1.14253 0 21 -1.14253 1
gene 1 8 31 0.19189 0 22 0.19189 1
gene 1 8 32 2.36837 0 23 2.36837 1
gene 1 8 33 -1.41862 0 24 -1.41862 1
gene 1 9 31 -3.30138 0 25 -3.30138 1
gene 1 9 32 -0.401931 0 26 -0.401931 1
gene 1 9 33 2.39058 0 27 2.39058 1
gene 1 10 31 -1.54309 0 28 -1.54309 1
gene 1 10 32 2.11016 0 29 2.11016 1
gene 1 10 33 0.211035 0 30 0.211035 1
gene 1 11 31 -0.850696 0 31 -0.850696 1
gene 1 11 32 -1.19478 0 32 -1.19478 1
gene 1 11 33 1.24072 0 33 1.24072 1
gene 1 12 31 0.89635 0 34 0.89635 1
gene 1 12 32 -2.26619 0 35 -2.26619 1
gene 1 12 33 2.45626 0 36 2.45626 1
gene 1 13 31 -1.59014 0 37 -1.59014 1
gene 1 13 32 -4.23566 0 38 -4.23566 1
gene 1 13 33 3.87943 0 39 3.87943 1
gene 1 14 31 -4.63035 0 40 -4.63035 1
gene 1 14 32 -3.30273 0 41 -3.30273 1
gene 1 14 33 0.633181 0 42 0.633181 1
gene 1 15 31 0.247625 0 43 0.247625 1
gene 1 15 32 -0.441241 0 44 -0.441241 1
gene 1 15 33 -3.21524 0 45 -3.21524 1
gene 1 16 31 0.671622 0 46 0.671622 1
gene 1 16 32 -1.18953 0 47 -1.18953 1
gene 1 16 33 -1.64825 0 48 -1.64825 1
gene 1 17 31 0.194978 0 49 0.194978 1
gene 1 17 32 2.52575 0 50 2.52575 1
gene 1 17 33 -1.43306 0 51 -1.43306 1
gene 1 18 31 1.96414 0 52 1.96414 1
gene 1 18 32 1.90241 0 53 1.90241 1
gene 1 18 33 3.32908 0 54 3.32908 1
gene 1 19 31 3.12091 0 55 3.12091 1
gene 1 19 32 1.66155 0 56 1.66155 1
gene 1 19 33 2.52828 0 57 2.52828 1
gene 1 20 31 -3.57856 0 58 -3.57856 1
gene 1 20 32 -2.08407 0 59 -2.08407 1
gene 1 20 33 -1.07676 0 60 -1.07676 1
gene 1 21 31 0.612897 0 61 0.612897 1
gene 1 21 32 1.96257 0 62 1.96257 1
gene 1 21 33 0.728201 0 63 0.728201 1
gene 1 22 31 4.62986 0 64 4.62986 1
gene 1 22 32 -0.16894 0 65 -0.16894 1
gene 1 22 33 -0.897409 0 66 -0.897409 1
gene 1 23 31 0.694339 0 67 0.694339 1
gene 1 23 32 -1.49899 0 68 -1.49899 1
gene 1 23 33 1.15562 0 69 1.15562 1
gene 1 24 31 -1.92644 0 70 -1.92644 1
gene 1 24 32 1.40324 0 71 1.40324 1
gene 1 24 33 0.928851 0 72 0.928851 1
gene 1 25 31 3.45834 0 73 3.45834 1
gene 1 25 32 0.769443 0 74 0.769443 1
gene 1 25 33 1.93258 0 75 1.93258 1
gene 1 26 31 -0.795671 0 76 -0.795671 1
gene 1 26 32 -0.338674 0 77 -0.338674 1
gene 1 26 33 -0.689176 0 78 -0.689176 1
gene 1 27 31 0.0330663 0 79 0.0330663 1
gene 1 27 32 -0.426032 0 80 -0.426032 1
gene 1 27 33 -0.217047 0 81 -0.217047 1
gene 1 28 31 -0.67619 0 82 -0.67619 1
gene 1 28 32 -1.19415 0 83 -1.19415 1
gene 1 28 33 1.32765 0 84 1.32765 1
gene 1 29 31 -2.57232 0 85 -2.57232 1
gene 1 29 32 -0.488874 0 86 -0.488874 1
gene 1 29 33 -0.179731 0 87 -0.179731 1
gene 1 30 31 0.316623 0 88 0.316623 1
gene 1 30 32 1.69784 0 89 1.69784 1
gene 1 30 33 0.606178 0 90 0.606178 1
genomeend 70


