/* Organism #7 Fitness: 17830.902000 Time: 0 */
genomestart 7
trait 1 0.100000 0.346059 0.000000 0.004170 1.000000 0.206243 1.000000 0.429657 
node 1 1 1 1
node 2 1 1 1
node 3 1 1 1
node 4 1 1 1
node 5 1 1 1
node 6 1 1 1
node 7 1 1 1
node 8 1 1 1
node 9 1 1 1
node 10 1 1 1
node 11 1 1 1
node 12 1 1 1
node 13 1 1 1
node 14 1 1 1
node 15 1 1 1
node 16 1 1 1
node 17 1 1 1
node 18 1 1 1
node 19 1 1 1
node 20 1 1 1
node 21 1 1 1
node 22 1 1 1
node 23 1 1 1
node 24 1 1 1
node 25 1 1 1
node 26 1 1 1
node 27 1 1 1
node 28 1 1 1
node 29 1 1 1
node 30 1 1 1
node 31 1 1 1
node 32 1 1 1
node 33 1 1 1
node 34 1 1 1
node 35 1 1 1
node 36 1 1 1
node 37 1 1 1
node 38 1 1 1
node 39 1 1 1
node 40 1 1 3
node 41 1 0 2
node 42 1 0 2
node 43 1 0 2
node 44 1 0 2
node 45 1 0 2
gene 1 1 41 1.81639 0 1 1.81639 1
gene 1 1 42 -1.17115 0 2 -1.17115 1
gene 1 1 43 3.635 0 3 3.635 1
gene 1 1 44 1.62926 0 4 1.62926 1
gene 1 1 45 2.60226 0 5 2.60226 1
gene 1 2 41 -0.0490105 0 6 -0.0490105 1
gene 1 2 42 -0.993556 0 7 -0.993556 1
gene 1 2 43 -3.89704 0 8 -3.89704 1
gene 1 2 44 -1.96837 0 9 -1.96837 1
gene 1 2 45 3.05195 0 10 3.05195 1
gene 1 3 41 -1.09006 0 11 -1.09006 1
gene 1 3 42 1.78344 0 12 1.78344 1
gene 1 3 43 2.11111 0 13 2.11111 1
gene 1 3 44 -1.00341 0 14 -1.00341 1
gene 1 3 45 3.13481 0 15 3.13481 1
gene 1 4 41 3.65223 0 16 3.65223 1
gene 1 4 42 2.36764 0 17 2.36764 1
gene 1 4 43 0.318154 0 18 0.318154 1
gene 1 4 44 -1.07064 0 19 -1.07064 1
gene 1 4 45 2.91851 0 20 2.91851 1
gene 1 5 41 -4.08657 0 21 -4.08657 1
gene 1 5 42 1.66656 0 22 1.66656 1
gene 1 5 43 2.0041 0 23 2.0041 1
gene 1 5 44 1.59748 0 24 1.59748 1
gene 1 5 45 -0.398792 0 25 -0.398792 1
gene 1 6 41 0.125124 0 26 0.125124 1
gene 1 6 42 2.86999 0 27 2.86999 1
gene 1 6 43 0.723946 0 28 0.723946 1
gene 1 6 44 -5 0 29 -5 1
gene 1 6 45 -0.98941 0 30 -0.98941 1
gene 1 7 41 4.09685 0 31 4.09685 1
gene 1 7 42 -4.67735 0 32 -4.67735 1
gene 1 7 43 -3.81364 0 33 -3.81364 1
gene 1 7 44 0.490586 0 34 0.490586 1
gene 1 7 45 1.66861 0 35 1.66861 1
gene 1 8 41 -1.74567 0 36 -1.74567 1
gene 1 8 42 -2.24719 0 37 -2.24719 1
gene 1 8 43 -4.26526 0 38 -4.26526 1
gene 1 8 44 -2.23905 0 39 -2.23905 1
gene 1 8 45 1.52769 0 40 1.52769 1
gene 1 9 41 2.37005 0 41 2.37005 1
gene 1 9 42 -0.080002 0 42 -0.080002 1
gene 1 9 43 4.54236 0 43 4.54236 1
gene 1 9 44 1.06939 0 44 1.06939 1
gene 1 9 45 4.16974 0 45 4.16974 1
gene 1 10 41 -1.84214 0 46 -1.84214 1
gene 1 10 42 1.85116 0 47 1.85116 1
gene 1 10 43 -0.420488 0 48 -0.420488 1
gene 1 10 44 -1.77292 0 49 -1.77292 1
gene 1 10 45 -3.0618 0 50 -3.0618 1
gene 1 11 41 1.24188 0 51 1.24188 1
gene 1 11 42 0.250991 0 52 0.250991 1
gene 1 11 43 -0.729638 0 53 -0.729638 1
gene 1 11 44 -0.348519 0 54 -0.348519 1
gene 1 11 45 1.45353 0 55 1.45353 1
gene 1 12 41 4.95634 0 56 4.95634 1
gene 1 12 42 -4.9214 0 57 -4.9214 1
gene 1 12 43 -0.973755 0 58 -0.973755 1
gene 1 12 44 -0.201889 0 59 -0.201889 1
gene 1 12 45 -2.51804 0 60 -2.51804 1
gene 1 13 41 3.33059 0 61 3.33059 1
gene 1 13 42 2.02658 0 62 2.02658 1
gene 1 13 43 -1.75859 0 63 -1.75859 1
gene 1 13 44 -0.623107 0 64 -0.623107 1
gene 1 13 45 0.471699 0 65 0.471699 1
gene 1 14 41 -5 0 66 -5 1
gene 1 14 42 2.32466 0 67 2.32466 1
gene 1 14 43 -2.08705 0 68 -2.08705 1
gene 1 14 44 -2.8035 0 69 -2.8035 1
gene 1 14 45 -0.822906 0 70 -0.822906 1
gene 1 15 41 4.23208 0 71 4.23208 1
gene 1 15 42 4.18732 0 72 4.18732 1
gene 1 15 43 -2.86856 0 73 -2.86856 1
gene 1 15 44 -1.28523 0 74 -1.28523 1
gene 1 15 45 0.0402612 0 75 0.0402612 1
gene 1 16 41 -2.62097 0 76 -2.62097 1
gene 1 16 42 5 0 77 5 1
gene 1 16 43 2.74432 0 78 2.74432 1
gene 1 16 44 2.69593 0 79 2.69593 1
gene 1 16 45 1.25088 0 80 1.25088 1
gene 1 17 41 -2.05531 0 81 -2.05531 1
gene 1 17 42 0.522427 0 82 0.522427 1
gene 1 17 43 -1.65598 0 83 -1.65598 1
gene 1 17 44 1.24819 0 84 1.24819 1
gene 1 17 45 -0.304817 0 85 -0.304817 1
gene 1 18 41 -2.05246 0 86 -2.05246 1
gene 1 18 42 -3.82454 0 87 -3.82454 1
gene 1 18 43 2.28243 0 88 2.28243 1
gene 1 18 44 5 0 89 5 1
gene 1 18 45 3.12389 0 90 3.12389 1
gene 1 19 41 2.12714 0 91 2.12714 1
gene 1 19 42 1.47771 0 92 1.47771 1
gene 1 19 43 -2.46345 0 93 -2.46345 1
gene 1 19 44 -1.04149 0 94 -1.04149 1
gene 1 19 45 0.285116 0 95 0.285116 1
gene 1 20 41 -1.71947 0 96 -1.71947 1
gene 1 20 42 -1.0308 0 97 -1.0308 1
gene 1 20 43 -4.04634 0 98 -4.04634 1
gene 1 20 44 -5 0 99 -5 1
gene 1 20 45 -1.40915 0 100 -1.40915 1
gene 1 21 41 0.850594 0 101 0.850594 1
gene 1 21 42 1.63701 0 102 1.63701 1
gene 1 21 43 1.99885 0 103 1.99885 1
gene 1 21 44 1.97299 0 104 1.97299 1
gene 1 21 45 -2.48124 0 105 -2.48124 1
gene 1 22 41 1.20093 0 106 1.20093 1
gene 1 22 42 1.12024 0 107 1.12024 1
gene 1 22 43 -1.56922 0 108 -1.56922 1
gene 1 22 44 -4.06127 0 109 -4.06127 1
gene 1 22 45 -1.44906 0 110 -1.44906 1
gene 1 23 41 -0.0588947 0 111 -0.0588947 1
gene 1 23 42 2.72379 0 112 2.72379 1
gene 1 23 43 0.263433 0 113 0.263433 1
gene 1 23 44 -1.81003 0 114 -1.81003 1
gene 1 23 45 3.40717 0 115 3.40717 1
gene 1 24 41 0.98671 0 116 0.98671 1
gene 1 24 42 -3.28525 0 117 -3.28525 1
gene 1 24 43 -4.57528 0 118 -4.57528 1
gene 1 24 44 -1.10149 0 119 -1.10149 1
gene 1 24 45 2.84344 0 120 2.84344 1
gene 1 25 41 1.03653 0 121 1.03653 1
gene 1 25 42 3.31942 0 122 3.31942 1
gene 1 25 43 5 0 123 5 1
gene 1 25 44 -4.4882 0 124 -4.4882 1
gene 1 25 45 3.67453 0 125 3.67453 1
gene 1 26 41 -0.736164 0 126 -0.736164 1
gene 1 26 42 -2.10046 0 127 -2.10046 1
gene 1 26 43 -1.43481 0 128 -1.43481 1
gene 1 26 44 -3.25794 0 129 -3.25794 1
gene 1 26 45 -0.955331 0 130 -0.955331 1
gene 1 27 41 1.66358 0 131 1.66358 1
gene 1 27 42 0.567785 0 132 0.567785 1
gene 1 27 43 3.35882 0 133 3.35882 1
gene 1 27 44 1.8648 0 134 1.8648 1
gene 1 27 45 1.07315 0 135 1.07315 1
gene 1 28 41 0.24287 0 136 0.24287 1
gene 1 28 42 -2.4491 0 137 -2.4491 1
gene 1 28 43 -1.28435 0 138 -1.28435 1
gene 1 28 44 -0.358707 0 139 -0.358707 1
gene 1 28 45 -0.157112 0 140 -0.157112 1
gene 1 29 41 3.21746 0 141 3.21746 1
gene 1 29 42 1.13415 0 142 1.13415 1
gene 1 29 43 1.07291 0 143 1.07291 1
gene 1 29 44 -0.211556 0 144 -0.211556 1
gene 1 29 45 -0.407589 0 145 -0.407589 1
gene 1 30 41 -2.38338 0 146 -2.38338 1
gene 1 30 42 -0.30653 0 147 -0.30653 1
gene 1 30 43 -1.43005 0 148 -1.43005 1
gene 1 30 44 -2.36169 0 149 -2.36169 1
gene 1 30 45 0.61103 0 150 0.61103 1
gene 1 31 41 3.56394 0 151 3.56394 1
gene 1 31 42 0.0209524 0 152 0.0209524 1
gene 1 31 43 -2.51717 0 153 -2.51717 1
gene 1 31 44 -1.77385 0 154 -1.77385 1
gene 1 31 45 -0.935693 0 155 -0.935693 1
gene 1 32 41 -0.491546 0 156 -0.491546 1
gene 1 32 42 -2.72686 0 157 -2.72686 1
gene 1 32 43 -1.72331 0 158 -1.72331 1
gene 1 32 44 -4.32531 0 159 -4.32531 1
gene 1 32 45 2.5197 0 160 2.5197 1
gene 1 33 41 -2.92495 0 161 -2.92495 1
gene 1 33 42 -0.34291 0 162 -0.34291 1
gene 1 33 43 3.3592 0 163 3.3592 1
gene 1 33 44 1.32914 0 164 1.32914 1
gene 1 33 45 0.22217 0 165 0.22217 1
gene 1 34 41 -0.883147 0 166 -0.883147 1
gene 1 34 42 0.460523 0 167 0.460523 1
gene 1 34 43 0.172199 0 168 0.172199 1
gene 1 34 44 -0.769677 0 169 -0.769677 1
gene 1 34 45 0.180497 0 170 0.180497 1
gene 1 35 41 0.0826808 0 171 0.0826808 1
gene 1 35 42 -1.08924 0 172 -1.08924 1
gene 1 35 43 -1.80415 0 173 -1.80415 1
gene 1 35 44 0.013892 0 174 0.013892 1
gene 1 35 45 -0.970358 0 175 -0.970358 1
gene 1 36 41 0.279916 0 176 0.279916 1
gene 1 36 42 0.899146 0 177 0.899146 1
gene 1 36 43 -0.0515122 0 178 -0.0515122 1
gene 1 36 44 -1.23116 0 179 -1.23116 1
gene 1 36 45 0.537714 0 180 0.537714 1
gene 1 37 41 -0.140644 0 181 -0.140644 1
gene 1 37 42 0.63208 0 182 0.63208 1
gene 1 37 43 0.480029 0 183 0.480029 1
gene 1 37 44 1.81305 0 184 1.81305 1
gene 1 37 45 0.797348 0 185 0.797348 1
gene 1 38 41 -0.461586 0 186 -0.461586 1
gene 1 38 42 0.140118 0 187 0.140118 1
gene 1 38 43 -0.663952 0 188 -0.663952 1
gene 1 38 44 -0.709731 0 189 -0.709731 1
gene 1 38 45 0.874109 0 190 0.874109 1
gene 1 39 41 -0.820666 0 191 -0.820666 1
gene 1 39 42 -0.322244 0 192 -0.322244 1
gene 1 39 43 -0.977528 0 193 -0.977528 1
gene 1 39 44 1.22596 0 194 1.22596 1
gene 1 39 45 -1.57179 0 195 -1.57179 1
gene 1 40 41 -1.47694 0 196 -1.47694 1
gene 1 40 42 1.17303 0 197 1.17303 1
gene 1 40 43 0.0156512 0 198 0.0156512 1
gene 1 40 44 0.309561 0 199 0.309561 1
gene 1 40 45 1.53523 0 200 1.53523 1
genomeend 7


