/* Organism #2 Fitness: 17665.424000 Time: 0 */
genomestart 2
trait 1 0.604385 0.180525 0.766764 0.342353 0.000000 0.000000 1.000000 0.401648 
node 1 1 1 1
node 2 1 1 1
node 3 1 1 1
node 4 1 1 1
node 5 1 1 1
node 6 1 1 1
node 7 1 1 1
node 8 1 1 1
node 9 1 1 1
node 10 1 1 1
node 11 1 1 1
node 12 1 1 1
node 13 1 1 1
node 14 1 1 1
node 15 1 1 1
node 16 1 1 1
node 17 1 1 1
node 18 1 1 1
node 19 1 1 1
node 20 1 1 1
node 21 1 1 1
node 22 1 1 1
node 23 1 1 1
node 24 1 1 1
node 25 1 1 1
node 26 1 1 1
node 27 1 1 1
node 28 1 1 1
node 29 1 1 1
node 30 1 1 1
node 31 1 1 1
node 32 1 1 1
node 33 1 1 1
node 34 1 1 1
node 35 1 1 1
node 36 1 1 1
node 37 1 1 1
node 38 1 1 1
node 39 1 1 1
node 40 1 1 3
node 41 1 0 2
node 42 1 0 2
node 43 1 0 2
node 44 1 0 2
node 45 1 0 2
gene 1 1 41 -5 0 1 -5 1
gene 1 1 42 -4.3136 0 2 -4.3136 1
gene 1 1 43 1.02 0 3 1.02 1
gene 1 1 44 4.35599 0 4 4.35599 1
gene 1 1 45 -3.22356 0 5 -3.22356 1
gene 1 2 41 3.85768 0 6 3.85768 1
gene 1 2 42 -4.26031 0 7 -4.26031 1
gene 1 2 43 -1.80928 0 8 -1.80928 1
gene 1 2 44 0.184754 0 9 0.184754 1
gene 1 2 45 4.84758 0 10 4.84758 1
gene 1 3 41 0.103612 0 11 0.103612 1
gene 1 3 42 -0.265588 0 12 -0.265588 1
gene 1 3 43 1.75134 0 13 1.75134 1
gene 1 3 44 -0.384934 0 14 -0.384934 1
gene 1 3 45 -0.965246 0 15 -0.965246 1
gene 1 4 41 2.84207 0 16 2.84207 1
gene 1 4 42 -4.17149 0 17 -4.17149 1
gene 1 4 43 1.59733 0 18 1.59733 1
gene 1 4 44 2.46939 0 19 2.46939 1
gene 1 4 45 1.97256 0 20 1.97256 1
gene 1 5 41 0.426573 0 21 0.426573 1
gene 1 5 42 -1.2303 0 22 -1.2303 1
gene 1 5 43 2.90402 0 23 2.90402 1
gene 1 5 44 -2.11023 0 24 -2.11023 1
gene 1 5 45 -0.0710649 0 25 -0.0710649 1
gene 1 6 41 3.50904 0 26 3.50904 1
gene 1 6 42 1.67216 0 27 1.67216 1
gene 1 6 43 -4.67082 0 28 -4.67082 1
gene 1 6 44 -0.456843 0 29 -0.456843 1
gene 1 6 45 0.643648 0 30 0.643648 1
gene 1 7 41 2.70396 0 31 2.70396 1
gene 1 7 42 1.14442 0 32 1.14442 1
gene 1 7 43 0.524415 0 33 0.524415 1
gene 1 7 44 0.682376 0 34 0.682376 1
gene 1 7 45 0.854684 0 35 0.854684 1
gene 1 8 41 1.63706 0 36 1.63706 1
gene 1 8 42 0.381408 0 37 0.381408 1
gene 1 8 43 0.476894 0 38 0.476894 1
gene 1 8 44 1.52112 0 39 1.52112 1
gene 1 8 45 5 0 40 5 1
gene 1 9 41 2.11137 0 41 2.11137 1
gene 1 9 42 3.15543 0 42 3.15543 1
gene 1 9 43 -0.710359 0 43 -0.710359 1
gene 1 9 44 0.333273 0 44 0.333273 1
gene 1 9 45 -4.83584 0 45 -4.83584 1
gene 1 10 41 -4.07042 0 46 -4.07042 1
gene 1 10 42 4.11375 0 47 4.11375 1
gene 1 10 43 -1.9393 0 48 -1.9393 1
gene 1 10 44 -3.44196 0 49 -3.44196 1
gene 1 10 45 0.252542 0 50 0.252542 1
gene 1 11 41 5 0 51 5 1
gene 1 11 42 -3.13322 0 52 -3.13322 1
gene 1 11 43 -2.03307 0 53 -2.03307 1
gene 1 11 44 0.0125397 0 54 0.0125397 1
gene 1 11 45 0.302532 0 55 0.302532 1
gene 1 12 41 2.87393 0 56 2.87393 1
gene 1 12 42 -2.42814 0 57 -2.42814 1
gene 1 12 43 0.000701832 0 58 0.000701832 1
gene 1 12 44 2.5853 0 59 2.5853 1
gene 1 12 45 -0.661379 0 60 -0.661379 1
gene 1 13 41 4.95736 0 61 4.95736 1
gene 1 13 42 -1.90915 0 62 -1.90915 1
gene 1 13 43 2.00925 0 63 2.00925 1
gene 1 13 44 0.147871 0 64 0.147871 1
gene 1 13 45 -0.265392 0 65 -0.265392 1
gene 1 14 41 4.41113 0 66 4.41113 1
gene 1 14 42 -1.5708 0 67 -1.5708 1
gene 1 14 43 -2.2673 0 68 -2.2673 1
gene 1 14 44 -1.45999 0 69 -1.45999 1
gene 1 14 45 -2.58938 0 70 -2.58938 1
gene 1 15 41 0.0838928 0 71 0.0838928 1
gene 1 15 42 -0.817918 0 72 -0.817918 1
gene 1 15 43 0.905277 0 73 0.905277 1
gene 1 15 44 -3.29715 0 74 -3.29715 1
gene 1 15 45 0.732163 0 75 0.732163 1
gene 1 16 41 -2.11198 0 76 -2.11198 1
gene 1 16 42 0.813787 0 77 0.813787 1
gene 1 16 43 5 0 78 5 1
gene 1 16 44 0.154871 0 79 0.154871 1
gene 1 16 45 -0.864011 0 80 -0.864011 1
gene 1 17 41 1.52075 0 81 1.52075 1
gene 1 17 42 -0.112533 0 82 -0.112533 1
gene 1 17 43 -2.18363 0 83 -2.18363 1
gene 1 17 44 -1.49726 0 84 -1.49726 1
gene 1 17 45 -1.11708 0 85 -1.11708 1
gene 1 18 41 -0.254639 0 86 -0.254639 1
gene 1 18 42 0.0610219 0 87 0.0610219 1
gene 1 18 43 -4.74533 0 88 -4.74533 1
gene 1 18 44 -0.292282 0 89 -0.292282 1
gene 1 18 45 -2.43344 0 90 -2.43344 1
gene 1 19 41 -0.987232 0 91 -0.987232 1
gene 1 19 42 0.651056 0 92 0.651056 1
gene 1 19 43 -2.80764 0 93 -2.80764 1
gene 1 19 44 1.6257 0 94 1.6257 1
gene 1 19 45 4.07622 0 95 4.07622 1
gene 1 20 41 -0.362264 0 96 -0.362264 1
gene 1 20 42 -0.0946911 0 97 -0.0946911 1
gene 1 20 43 -4.97996 0 98 -4.97996 1
gene 1 20 44 2.38068 0 99 2.38068 1
gene 1 20 45 -0.0357821 0 100 -0.0357821 1
gene 1 21 41 0.0922747 0 101 0.0922747 1
gene 1 21 42 0.00610629 0 102 0.00610629 1
gene 1 21 43 -2.8552 0 103 -2.8552 1
gene 1 21 44 -3.09129 0 104 -3.09129 1
gene 1 21 45 0.478447 0 105 0.478447 1
gene 1 22 41 -3.44202 0 106 -3.44202 1
gene 1 22 42 5 0 107 5 1
gene 1 22 43 3.18621 0 108 3.18621 1
gene 1 22 44 -1.92598 0 109 -1.92598 1
gene 1 22 45 -1.8518 0 110 -1.8518 1
gene 1 23 41 4.54084 0 111 4.54084 1
gene 1 23 42 -3.01471 0 112 -3.01471 1
gene 1 23 43 -0.82295 0 113 -0.82295 1
gene 1 23 44 3.58074 0 114 3.58074 1
gene 1 23 45 -1.36318 0 115 -1.36318 1
gene 1 24 41 -4.16327 0 116 -4.16327 1
gene 1 24 42 -0.694568 0 117 -0.694568 1
gene 1 24 43 0.325849 0 118 0.325849 1
gene 1 24 44 0.650959 0 119 0.650959 1
gene 1 24 45 2.81373 0 120 2.81373 1
gene 1 25 41 -1.80298 0 121 -1.80298 1
gene 1 25 42 -4.66809 0 122 -4.66809 1
gene 1 25 43 -3.41 0 123 -3.41 1
gene 1 25 44 -2.70803 0 124 -2.70803 1
gene 1 25 45 4.47198 0 125 4.47198 1
gene 1 26 41 0.577221 0 126 0.577221 1
gene 1 26 42 1.30609 0 127 1.30609 1
gene 1 26 43 1.37519 0 128 1.37519 1
gene 1 26 44 0.418312 0 129 0.418312 1
gene 1 26 45 2.42113 0 130 2.42113 1
gene 1 27 41 -0.175246 0 131 -0.175246 1
gene 1 27 42 -0.861568 0 132 -0.861568 1
gene 1 27 43 1.79314 0 133 1.79314 1
gene 1 27 44 -2.88135 0 134 -2.88135 1
gene 1 27 45 -0.177173 0 135 -0.177173 1
gene 1 28 41 -3.28855 0 136 -3.28855 1
gene 1 28 42 -0.213161 0 137 -0.213161 1
gene 1 28 43 -0.614031 0 138 -0.614031 1
gene 1 28 44 1.59567 0 139 1.59567 1
gene 1 28 45 -1.44051 0 140 -1.44051 1
gene 1 29 41 0.441386 0 141 0.441386 1
gene 1 29 42 -4.46346 0 142 -4.46346 1
gene 1 29 43 2.6174 0 143 2.6174 1
gene 1 29 44 -1.48681 0 144 -1.48681 1
gene 1 29 45 4.45401 0 145 4.45401 1
gene 1 30 41 1.46724 0 146 1.46724 1
gene 1 30 42 -0.358596 0 147 -0.358596 1
gene 1 30 43 -5 0 148 -5 1
gene 1 30 44 -0.612946 0 149 -0.612946 1
gene 1 30 45 -5 0 150 -5 1
gene 1 31 41 -0.597228 0 151 -0.597228 1
gene 1 31 42 1.6564 0 152 1.6564 1
gene 1 31 43 -0.774292 0 153 -0.774292 1
gene 1 31 44 -2.76975 0 154 -2.76975 1
gene 1 31 45 1.28456 0 155 1.28456 1
gene 1 32 41 -0.988681 0 156 -0.988681 1
gene 1 32 42 -2.20966 0 157 -2.20966 1
gene 1 32 43 -2.76362 0 158 -2.76362 1
gene 1 32 44 -5 0 159 -5 1
gene 1 32 45 2.93597 0 160 2.93597 1
gene 1 33 41 2.22292 0 161 2.22292 1
gene 1 33 42 -0.706961 0 162 -0.706961 1
gene 1 33 43 1.52378 0 163 1.52378 1
gene 1 33 44 -0.71203 0 164 -0.71203 1
gene 1 33 45 -0.194392 0 165 -0.194392 1
gene 1 34 41 0.777086 0 166 0.777086 1
gene 1 34 42 1.88281 0 167 1.88281 1
gene 1 34 43 -0.22011 0 168 -0.22011 1
gene 1 34 44 1.90073 0 169 1.90073 1
gene 1 34 45 1.36309 0 170 1.36309 1
gene 1 35 41 -1.69502 0 171 -1.69502 1
gene 1 35 42 -0.569492 0 172 -0.569492 1
gene 1 35 43 0.909406 0 173 0.909406 1
gene 1 35 44 -2.1366 0 174 -2.1366 1
gene 1 35 45 -0.859167 0 175 -0.859167 1
gene 1 36 41 0.598541 0 176 0.598541 1
gene 1 36 42 0.203709 0 177 0.203709 1
gene 1 36 43 0.171078 0 178 0.171078 1
gene 1 36 44 -0.488451 0 179 -0.488451 1
gene 1 36 45 1.79292 0 180 1.79292 1
gene 1 37 41 -0.3305 0 181 -0.3305 1
gene 1 37 42 0.145151 0 182 0.145151 1
gene 1 37 43 -0.267488 0 183 -0.267488 1
gene 1 37 44 0.921842 0 184 0.921842 1
gene 1 37 45 0.0786273 0 185 0.0786273 1
gene 1 38 41 0.570922 0 186 0.570922 1
gene 1 38 42 -1.50053 0 187 -1.50053 1
gene 1 38 43 -0.911418 0 188 -0.911418 1
gene 1 38 44 0.711378 0 189 0.711378 1
gene 1 38 45 -0.777138 0 190 -0.777138 1
gene 1 39 41 1.62244 0 191 1.62244 1
gene 1 39 42 1.64127 0 192 1.64127 1
gene 1 39 43 3.92009 0 193 3.92009 1
gene 1 39 44 -1.24615 0 194 -1.24615 1
gene 1 39 45 0.664171 0 195 0.664171 1
gene 1 40 41 0.552097 0 196 0.552097 1
gene 1 40 42 0.00946909 0 197 0.00946909 1
gene 1 40 43 0.308656 0 198 0.308656 1
gene 1 40 44 -0.00203059 0 199 -0.00203059 1
gene 1 40 45 -0.0507196 0 200 -0.0507196 1
genomeend 2


