/* Organism #10 Fitness: 17361.802000 Time: 0 */
genomestart 10
trait 1 0.962188 1.000000 0.000000 0.037752 1.000000 0.530803 0.161140 0.763479 
node 1 1 1 1
node 2 1 1 1
node 3 1 1 1
node 4 1 1 1
node 5 1 1 1
node 6 1 1 1
node 7 1 1 1
node 8 1 1 1
node 9 1 1 1
node 10 1 1 1
node 11 1 1 1
node 12 1 1 1
node 13 1 1 1
node 14 1 1 1
node 15 1 1 1
node 16 1 1 1
node 17 1 1 1
node 18 1 1 1
node 19 1 1 1
node 20 1 1 1
node 21 1 1 1
node 22 1 1 1
node 23 1 1 1
node 24 1 1 1
node 25 1 1 1
node 26 1 1 1
node 27 1 1 1
node 28 1 1 1
node 29 1 1 1
node 30 1 1 1
node 31 1 1 1
node 32 1 1 1
node 33 1 1 1
node 34 1 1 1
node 35 1 1 1
node 36 1 1 1
node 37 1 1 1
node 38 1 1 1
node 39 1 1 1
node 40 1 1 3
node 41 1 0 2
node 42 1 0 2
node 43 1 0 2
node 44 1 0 2
node 45 1 0 2
gene 1 1 41 -1.08855 0 1 -1.08855 1
gene 1 1 42 -1.98615 0 2 -1.98615 1
gene 1 1 43 2.36111 0 3 2.36111 1
gene 1 1 44 -5 0 4 -5 1
gene 1 1 45 1.1836 0 5 1.1836 1
gene 1 2 41 1.29271 0 6 1.29271 1
gene 1 2 42 0.932785 0 7 0.932785 1
gene 1 2 43 -3.16972 0 8 -3.16972 1
gene 1 2 44 1.03296 0 9 1.03296 1
gene 1 2 45 -1.26518 0 10 -1.26518 1
gene 1 3 41 -1.60243 0 11 -1.60243 1
gene 1 3 42 1.78472 0 12 1.78472 1
gene 1 3 43 -1.92328 0 13 -1.92328 1
gene 1 3 44 -0.514074 0 14 -0.514074 1
gene 1 3 45 1.47343 0 15 1.47343 1
gene 1 4 41 -0.059426 0 16 -0.059426 1
gene 1 4 42 0.811649 0 17 0.811649 1
gene 1 4 43 -1.08952 0 18 -1.08952 1
gene 1 4 44 -0.685069 0 19 -0.685069 1
gene 1 4 45 -2.52477 0 20 -2.52477 1
gene 1 5 41 1.31598 0 21 1.31598 1
gene 1 5 42 -1.32479 0 22 -1.32479 1
gene 1 5 43 0.681207 0 23 0.681207 1
gene 1 5 44 1.64063 0 24 1.64063 1
gene 1 5 45 1.36128 0 25 1.36128 1
gene 1 6 41 4.57535 0 26 4.57535 1
gene 1 6 42 0.678884 0 27 0.678884 1
gene 1 6 43 1.28634 0 28 1.28634 1
gene 1 6 44 2.10565 0 29 2.10565 1
gene 1 6 45 2.75612 0 30 2.75612 1
gene 1 7 41 1.80418 0 31 1.80418 1
gene 1 7 42 -2.32713 0 32 -2.32713 1
gene 1 7 43 -1.80562 0 33 -1.80562 1
gene 1 7 44 -3.20954 0 34 -3.20954 1
gene 1 7 45 -0.4877 0 35 -0.4877 1
gene 1 8 41 2.64591 0 36 2.64591 1
gene 1 8 42 0.426175 0 37 0.426175 1
gene 1 8 43 -3.71747 0 38 -3.71747 1
gene 1 8 44 -1.14289 0 39 -1.14289 1
gene 1 8 45 -1.13407 0 40 -1.13407 1
gene 1 9 41 4.3073 0 41 4.3073 1
gene 1 9 42 -4.88628 0 42 -4.88628 1
gene 1 9 43 1.45797 0 43 1.45797 1
gene 1 9 44 0.248768 0 44 0.248768 1
gene 1 9 45 -3.11278 0 45 -3.11278 1
gene 1 10 41 -2.11955 0 46 -2.11955 1
gene 1 10 42 0.351585 0 47 0.351585 1
gene 1 10 43 2.38123 0 48 2.38123 1
gene 1 10 44 1.94606 0 49 1.94606 1
gene 1 10 45 -1.70809 0 50 -1.70809 1
gene 1 11 41 3.73941 0 51 3.73941 1
gene 1 11 42 3.56822 0 52 3.56822 1
gene 1 11 43 -0.0510845 0 53 -0.0510845 1
gene 1 11 44 1.56381 0 54 1.56381 1
gene 1 11 45 0.546599 0 55 0.546599 1
gene 1 12 41 3.26341 0 56 3.26341 1
gene 1 12 42 1.38354 0 57 1.38354 1
gene 1 12 43 1.61677 0 58 1.61677 1
gene 1 12 44 -0.61863 0 59 -0.61863 1
gene 1 12 45 -1.18819 0 60 -1.18819 1
gene 1 13 41 -5 0 61 -5 1
gene 1 13 42 1.89244 0 62 1.89244 1
gene 1 13 43 -2.08783 0 63 -2.08783 1
gene 1 13 44 0.77479 0 64 0.77479 1
gene 1 13 45 -5 0 65 -5 1
gene 1 14 41 -1.3994 0 66 -1.3994 1
gene 1 14 42 1.43079 0 67 1.43079 1
gene 1 14 43 0.382018 0 68 0.382018 1
gene 1 14 44 -2.98696 0 69 -2.98696 1
gene 1 14 45 -1.21505 0 70 -1.21505 1
gene 1 15 41 0.910554 0 71 0.910554 1
gene 1 15 42 -0.50153 0 72 -0.50153 1
gene 1 15 43 1.65572 0 73 1.65572 1
gene 1 15 44 -0.95827 0 74 -0.95827 1
gene 1 15 45 -1.56944 0 75 -1.56944 1
gene 1 16 41 -1.9212 0 76 -1.9212 1
gene 1 16 42 0.0729914 0 77 0.0729914 1
gene 1 16 43 -1.24969 0 78 -1.24969 1
gene 1 16 44 -0.635445 0 79 -0.635445 1
gene 1 16 45 -0.838873 0 80 -0.838873 1
gene 1 17 41 -2.54281 0 81 -2.54281 1
gene 1 17 42 2.50259 0 82 2.50259 1
gene 1 17 43 0.847864 0 83 0.847864 1
gene 1 17 44 -0.0792574 0 84 -0.0792574 1
gene 1 17 45 0.794659 0 85 0.794659 1
gene 1 18 41 2.13021 0 86 2.13021 1
gene 1 18 42 -0.795202 0 87 -0.795202 1
gene 1 18 43 -1.27063 0 88 -1.27063 1
gene 1 18 44 -3.03401 0 89 -3.03401 1
gene 1 18 45 5 0 90 5 1
gene 1 19 41 -0.161844 0 91 -0.161844 1
gene 1 19 42 1.98958 0 92 1.98958 1
gene 1 19 43 -1.78385 0 93 -1.78385 1
gene 1 19 44 -0.0623171 0 94 -0.0623171 1
gene 1 19 45 0.208789 0 95 0.208789 1
gene 1 20 41 0.677761 0 96 0.677761 1
gene 1 20 42 0.210824 0 97 0.210824 1
gene 1 20 43 -2.1822 0 98 -2.1822 1
gene 1 20 44 0.851455 0 99 0.851455 1
gene 1 20 45 1.38309 0 100 1.38309 1
gene 1 21 41 0.279322 0 101 0.279322 1
gene 1 21 42 -2.70167 0 102 -2.70167 1
gene 1 21 43 1.13248 0 103 1.13248 1
gene 1 21 44 1.5576 0 104 1.5576 1
gene 1 21 45 -0.931003 0 105 -0.931003 1
gene 1 22 41 0.327354 0 106 0.327354 1
gene 1 22 42 -0.523023 0 107 -0.523023 1
gene 1 22 43 2.50843 0 108 2.50843 1
gene 1 22 44 -2.28757 0 109 -2.28757 1
gene 1 22 45 -0.309056 0 110 -0.309056 1
gene 1 23 41 -0.221674 0 111 -0.221674 1
gene 1 23 42 1.91102 0 112 1.91102 1
gene 1 23 43 -3.91782 0 113 -3.91782 1
gene 1 23 44 2.41181 0 114 2.41181 1
gene 1 23 45 -2.96848 0 115 -2.96848 1
gene 1 24 41 1.70867 0 116 1.70867 1
gene 1 24 42 -0.0810124 0 117 -0.0810124 1
gene 1 24 43 -1.7821 0 118 -1.7821 1
gene 1 24 44 0.583965 0 119 0.583965 1
gene 1 24 45 -0.838198 0 120 -0.838198 1
gene 1 25 41 -2.54805 0 121 -2.54805 1
gene 1 25 42 5 0 122 5 1
gene 1 25 43 5 0 123 5 1
gene 1 25 44 2.65672 0 124 2.65672 1
gene 1 25 45 -2.03674 0 125 -2.03674 1
gene 1 26 41 -2.07453 0 126 -2.07453 1
gene 1 26 42 -0.385523 0 127 -0.385523 1
gene 1 26 43 1.59259 0 128 1.59259 1
gene 1 26 44 2.12781 0 129 2.12781 1
gene 1 26 45 -5 0 130 -5 1
gene 1 27 41 -3.5578 0 131 -3.5578 1
gene 1 27 42 -4.85179 0 132 -4.85179 1
gene 1 27 43 0.36235 0 133 0.36235 1
gene 1 27 44 -1.61827 0 134 -1.61827 1
gene 1 27 45 1.62815 0 135 1.62815 1
gene 1 28 41 -2.48346 0 136 -2.48346 1
gene 1 28 42 0.418996 0 137 0.418996 1
gene 1 28 43 0.08979 0 138 0.08979 1
gene 1 28 44 -1.42319 0 139 -1.42319 1
gene 1 28 45 3.85243 0 140 3.85243 1
gene 1 29 41 -0.335227 0 141 -0.335227 1
gene 1 29 42 4.52669 0 142 4.52669 1
gene 1 29 43 -1.78717 0 143 -1.78717 1
gene 1 29 44 -2.68765 0 144 -2.68765 1
gene 1 29 45 2.26332 0 145 2.26332 1
gene 1 30 41 -0.631485 0 146 -0.631485 1
gene 1 30 42 -2.20515 0 147 -2.20515 1
gene 1 30 43 0.793573 0 148 0.793573 1
gene 1 30 44 0.635973 0 149 0.635973 1
gene 1 30 45 2.91782 0 150 2.91782 1
gene 1 31 41 2.16914 0 151 2.16914 1
gene 1 31 42 0.609583 0 152 0.609583 1
gene 1 31 43 -0.687627 0 153 -0.687627 1
gene 1 31 44 -0.981546 0 154 -0.981546 1
gene 1 31 45 -0.538227 0 155 -0.538227 1
gene 1 32 41 -0.562877 0 156 -0.562877 1
gene 1 32 42 2.00433 0 157 2.00433 1
gene 1 32 43 -0.035375 0 158 -0.035375 1
gene 1 32 44 -0.898699 0 159 -0.898699 1
gene 1 32 45 -0.852454 0 160 -0.852454 1
gene 1 33 41 0.544812 0 161 0.544812 1
gene 1 33 42 0.614696 0 162 0.614696 1
gene 1 33 43 0.969253 0 163 0.969253 1
gene 1 33 44 -0.143028 0 164 -0.143028 1
gene 1 33 45 0.924499 0 165 0.924499 1
gene 1 34 41 -0.0868618 0 166 -0.0868618 1
gene 1 34 42 1.94486 0 167 1.94486 1
gene 1 34 43 -1.25511 0 168 -1.25511 1
gene 1 34 44 -0.108712 0 169 -0.108712 1
gene 1 34 45 -1.34293 0 170 -1.34293 1
gene 1 35 41 -0.824001 0 171 -0.824001 1
gene 1 35 42 0.84266 0 172 0.84266 1
gene 1 35 43 -3.91159 0 173 -3.91159 1
gene 1 35 44 0.900508 0 174 0.900508 1
gene 1 35 45 3.2398 0 175 3.2398 1
gene 1 36 41 0.48653 0 176 0.48653 1
gene 1 36 42 -0.558162 0 177 -0.558162 1
gene 1 36 43 -0.106591 0 178 -0.106591 1
gene 1 36 44 0.592194 0 179 0.592194 1
gene 1 36 45 -0.256209 0 180 -0.256209 1
gene 1 37 41 0.703797 0 181 0.703797 1
gene 1 37 42 -1.71215 0 182 -1.71215 1
gene 1 37 43 0.278696 0 183 0.278696 1
gene 1 37 44 1.08696 0 184 1.08696 1
gene 1 37 45 -1.14611 0 185 -1.14611 1
gene 1 38 41 0.389437 0 186 0.389437 1
gene 1 38 42 0.0711504 0 187 0.0711504 1
gene 1 38 43 1.83964 0 188 1.83964 1
gene 1 38 44 1.17291 0 189 1.17291 1
gene 1 38 45 0.25009 0 190 0.25009 1
gene 1 39 41 -1.89821 0 191 -1.89821 1
gene 1 39 42 -1.07102 0 192 -1.07102 1
gene 1 39 43 0.768056 0 193 0.768056 1
gene 1 39 44 0.829857 0 194 0.829857 1
gene 1 39 45 -0.10816 0 195 -0.10816 1
gene 1 40 41 -0.196214 0 196 -0.196214 1
gene 1 40 42 -2.76853 0 197 -2.76853 1
gene 1 40 43 -0.429457 0 198 -0.429457 1
gene 1 40 44 0.245789 0 199 0.245789 1
gene 1 40 45 0.398563 0 200 0.398563 1
genomeend 10


