/* Organism #2 Fitness: 17772.132000 Time: 0 */
genomestart 2
trait 1 0.923332 0.389779 0.762216 0.000000 0.137863 0.000000 0.026367 1.000000 
node 1 1 1 1
node 2 1 1 1
node 3 1 1 1
node 4 1 1 1
node 5 1 1 1
node 6 1 1 1
node 7 1 1 1
node 8 1 1 1
node 9 1 1 1
node 10 1 1 1
node 11 1 1 1
node 12 1 1 1
node 13 1 1 1
node 14 1 1 1
node 15 1 1 1
node 16 1 1 1
node 17 1 1 1
node 18 1 1 1
node 19 1 1 1
node 20 1 1 1
node 21 1 1 1
node 22 1 1 1
node 23 1 1 1
node 24 1 1 1
node 25 1 1 1
node 26 1 1 1
node 27 1 1 1
node 28 1 1 1
node 29 1 1 1
node 30 1 1 1
node 31 1 1 1
node 32 1 1 1
node 33 1 1 1
node 34 1 1 1
node 35 1 1 1
node 36 1 1 1
node 37 1 1 1
node 38 1 1 1
node 39 1 1 1
node 40 1 1 3
node 41 1 0 2
node 42 1 0 2
node 43 1 0 2
node 44 1 0 2
node 45 1 0 2
gene 1 1 41 -1.39286 0 1 -1.39286 1
gene 1 1 42 -2.39911 0 2 -2.39911 1
gene 1 1 43 -3.25919 0 3 -3.25919 1
gene 1 1 44 -5 0 4 -5 1
gene 1 1 45 2.45858 0 5 2.45858 1
gene 1 2 41 -5 0 6 -5 1
gene 1 2 42 -0.951596 0 7 -0.951596 1
gene 1 2 43 0.763234 0 8 0.763234 1
gene 1 2 44 -0.686605 0 9 -0.686605 1
gene 1 2 45 -1.69001 0 10 -1.69001 1
gene 1 3 41 -3.65343 0 11 -3.65343 1
gene 1 3 42 1.40303 0 12 1.40303 1
gene 1 3 43 -2.62557 0 13 -2.62557 1
gene 1 3 44 3.75844 0 14 3.75844 1
gene 1 3 45 -3.5263 0 15 -3.5263 1
gene 1 4 41 0.628667 0 16 0.628667 1
gene 1 4 42 2.98165 0 17 2.98165 1
gene 1 4 43 -2.16644 0 18 -2.16644 1
gene 1 4 44 4.44405 0 19 4.44405 1
gene 1 4 45 -2.4153 0 20 -2.4153 1
gene 1 5 41 1.91314 0 21 1.91314 1
gene 1 5 42 -0.137042 0 22 -0.137042 1
gene 1 5 43 2.77449 0 23 2.77449 1
gene 1 5 44 0.459205 0 24 0.459205 1
gene 1 5 45 2.19162 0 25 2.19162 1
gene 1 6 41 4.84968 0 26 4.84968 1
gene 1 6 42 0.599503 0 27 0.599503 1
gene 1 6 43 -3.47948 0 28 -3.47948 1
gene 1 6 44 -0.158644 0 29 -0.158644 1
gene 1 6 45 1.73611 0 30 1.73611 1
gene 1 7 41 2.66018 0 31 2.66018 1
gene 1 7 42 4.80898 0 32 4.80898 1
gene 1 7 43 -1.87556 0 33 -1.87556 1
gene 1 7 44 5 0 34 5 1
gene 1 7 45 0.90537 0 35 0.90537 1
gene 1 8 41 -0.659344 0 36 -0.659344 1
gene 1 8 42 1.33607 0 37 1.33607 1
gene 1 8 43 -1.54146 0 38 -1.54146 1
gene 1 8 44 -3.98511 0 39 -3.98511 1
gene 1 8 45 0.317622 0 40 0.317622 1
gene 1 9 41 1.28709 0 41 1.28709 1
gene 1 9 42 -4.79687 0 42 -4.79687 1
gene 1 9 43 -5 0 43 -5 1
gene 1 9 44 -1.97963 0 44 -1.97963 1
gene 1 9 45 -3.04217 0 45 -3.04217 1
gene 1 10 41 0.956369 0 46 0.956369 1
gene 1 10 42 -0.718095 0 47 -0.718095 1
gene 1 10 43 -1.39908 0 48 -1.39908 1
gene 1 10 44 4.43542 0 49 4.43542 1
gene 1 10 45 -3.68023 0 50 -3.68023 1
gene 1 11 41 4.80809 0 51 4.80809 1
gene 1 11 42 -5 0 52 -5 1
gene 1 11 43 -0.0199051 0 53 -0.0199051 1
gene 1 11 44 -2.66298 0 54 -2.66298 1
gene 1 11 45 -0.26222 0 55 -0.26222 1
gene 1 12 41 2.93489 0 56 2.93489 1
gene 1 12 42 -4.24061 0 57 -4.24061 1
gene 1 12 43 -2.18595 0 58 -2.18595 1
gene 1 12 44 -2.54563 0 59 -2.54563 1
gene 1 12 45 1.35304 0 60 1.35304 1
gene 1 13 41 -1.91766 0 61 -1.91766 1
gene 1 13 42 0.875862 0 62 0.875862 1
gene 1 13 43 -3.03918 0 63 -3.03918 1
gene 1 13 44 -0.895864 0 64 -0.895864 1
gene 1 13 45 0.456639 0 65 0.456639 1
gene 1 14 41 1.25743 0 66 1.25743 1
gene 1 14 42 1.68591 0 67 1.68591 1
gene 1 14 43 -0.630458 0 68 -0.630458 1
gene 1 14 44 4.67411 0 69 4.67411 1
gene 1 14 45 -5 0 70 -5 1
gene 1 15 41 -4.41579 0 71 -4.41579 1
gene 1 15 42 -0.546881 0 72 -0.546881 1
gene 1 15 43 -4.73019 0 73 -4.73019 1
gene 1 15 44 0.840477 0 74 0.840477 1
gene 1 15 45 -4.7156 0 75 -4.7156 1
gene 1 16 41 1.5304 0 76 1.5304 1
gene 1 16 42 2.74964 0 77 2.74964 1
gene 1 16 43 -2.32487 0 78 -2.32487 1
gene 1 16 44 -0.41957 0 79 -0.41957 1
gene 1 16 45 -2.59519 0 80 -2.59519 1
gene 1 17 41 2.31903 0 81 2.31903 1
gene 1 17 42 -1.87403 0 82 -1.87403 1
gene 1 17 43 -2.56468 0 83 -2.56468 1
gene 1 17 44 1.36546 0 84 1.36546 1
gene 1 17 45 0.812611 0 85 0.812611 1
gene 1 18 41 -3.85529 0 86 -3.85529 1
gene 1 18 42 1.42864 0 87 1.42864 1
gene 1 18 43 -0.255361 0 88 -0.255361 1
gene 1 18 44 -1.57685 0 89 -1.57685 1
gene 1 18 45 3.60989 0 90 3.60989 1
gene 1 19 41 -1.43813 0 91 -1.43813 1
gene 1 19 42 -0.400805 0 92 -0.400805 1
gene 1 19 43 -1.73195 0 93 -1.73195 1
gene 1 19 44 4.18515 0 94 4.18515 1
gene 1 19 45 -3.56213 0 95 -3.56213 1
gene 1 20 41 -2.64156 0 96 -2.64156 1
gene 1 20 42 -1.78252 0 97 -1.78252 1
gene 1 20 43 -0.300313 0 98 -0.300313 1
gene 1 20 44 -0.0368346 0 99 -0.0368346 1
gene 1 20 45 -0.883795 0 100 -0.883795 1
gene 1 21 41 2.44232 0 101 2.44232 1
gene 1 21 42 -0.814255 0 102 -0.814255 1
gene 1 21 43 2.58516 0 103 2.58516 1
gene 1 21 44 0.427507 0 104 0.427507 1
gene 1 21 45 -2.68888 0 105 -2.68888 1
gene 1 22 41 0.148958 0 106 0.148958 1
gene 1 22 42 -5 0 107 -5 1
gene 1 22 43 0.565807 0 108 0.565807 1
gene 1 22 44 0.323016 0 109 0.323016 1
gene 1 22 45 -1.60302 0 110 -1.60302 1
gene 1 23 41 -3.75742 0 111 -3.75742 1
gene 1 23 42 5 0 112 5 1
gene 1 23 43 0.375978 0 113 0.375978 1
gene 1 23 44 -2.60931 0 114 -2.60931 1
gene 1 23 45 2.27915 0 115 2.27915 1
gene 1 24 41 4.5882 0 116 4.5882 1
gene 1 24 42 -1.64557 0 117 -1.64557 1
gene 1 24 43 -3.90628 0 118 -3.90628 1
gene 1 24 44 -0.802912 0 119 -0.802912 1
gene 1 24 45 -5 0 120 -5 1
gene 1 25 41 1.86083 0 121 1.86083 1
gene 1 25 42 5 0 122 5 1
gene 1 25 43 0.573854 0 123 0.573854 1
gene 1 25 44 -1.78806 0 124 -1.78806 1
gene 1 25 45 4.08584 0 125 4.08584 1
gene 1 26 41 1.66806 0 126 1.66806 1
gene 1 26 42 -2.51437 0 127 -2.51437 1
gene 1 26 43 3.5811 0 128 3.5811 1
gene 1 26 44 5 0 129 5 1
gene 1 26 45 -1.31553 0 130 -1.31553 1
gene 1 27 41 -4.79845 0 131 -4.79845 1
gene 1 27 42 2.79201 0 132 2.79201 1
gene 1 27 43 3.0126 0 133 3.0126 1
gene 1 27 44 -4.04332 0 134 -4.04332 1
gene 1 27 45 2.18342 0 135 2.18342 1
gene 1 28 41 -0.0356154 0 136 -0.0356154 1
gene 1 28 42 0.608665 0 137 0.608665 1
gene 1 28 43 -2.91385 0 138 -2.91385 1
gene 1 28 44 4.82218 0 139 4.82218 1
gene 1 28 45 -3.188 0 140 -3.188 1
gene 1 29 41 -0.221782 0 141 -0.221782 1
gene 1 29 42 -0.554431 0 142 -0.554431 1
gene 1 29 43 2.37282 0 143 2.37282 1
gene 1 29 44 -1.20086 0 144 -1.20086 1
gene 1 29 45 -1.44524 0 145 -1.44524 1
gene 1 30 41 -2.13806 0 146 -2.13806 1
gene 1 30 42 -2.32895 0 147 -2.32895 1
gene 1 30 43 -2.58637 0 148 -2.58637 1
gene 1 30 44 -5 0 149 -5 1
gene 1 30 45 -3.69271 0 150 -3.69271 1
gene 1 31 41 -2.90193 0 151 -2.90193 1
gene 1 31 42 2.92425 0 152 2.92425 1
gene 1 31 43 -3.95362 0 153 -3.95362 1
gene 1 31 44 1.33795 0 154 1.33795 1
gene 1 31 45 -0.406358 0 155 -0.406358 1
gene 1 32 41 1.15803 0 156 1.15803 1
gene 1 32 42 -4.43779 0 157 -4.43779 1
gene 1 32 43 -4.6904 0 158 -4.6904 1
gene 1 32 44 -0.98954 0 159 -0.98954 1
gene 1 32 45 0.544882 0 160 0.544882 1
gene 1 33 41 1.81311 0 161 1.81311 1
gene 1 33 42 0.619522 0 162 0.619522 1
gene 1 33 43 -0.688821 0 163 -0.688821 1
gene 1 33 44 0.518535 0 164 0.518535 1
gene 1 33 45 -0.833488 0 165 -0.833488 1
gene 1 34 41 0.175102 0 166 0.175102 1
gene 1 34 42 0.775179 0 167 0.775179 1
gene 1 34 43 0.179323 0 168 0.179323 1
gene 1 34 44 -0.88329 0 169 -0.88329 1
gene 1 34 45 0.205899 0 170 0.205899 1
gene 1 35 41 3.64376 0 171 3.64376 1
gene 1 35 42 3.25955 0 172 3.25955 1
gene 1 35 43 1.0076 0 173 1.0076 1
gene 1 35 44 1.46163 0 174 1.46163 1
gene 1 35 45 -0.339447 0 175 -0.339447 1
gene 1 36 41 -1.19444 0 176 -1.19444 1
gene 1 36 42 0.765165 0 177 0.765165 1
gene 1 36 43 -0.432912 0 178 -0.432912 1
gene 1 36 44 -0.45702 0 179 -0.45702 1
gene 1 36 45 2.0876 0 180 2.0876 1
gene 1 37 41 -0.0820324 0 181 -0.0820324 1
gene 1 37 42 -0.972647 0 182 -0.972647 1
gene 1 37 43 0.487137 0 183 0.487137 1
gene 1 37 44 -0.348097 0 184 -0.348097 1
gene 1 37 45 1.06626 0 185 1.06626 1
gene 1 38 41 0.441019 0 186 0.441019 1
gene 1 38 42 -0.48615 0 187 -0.48615 1
gene 1 38 43 1.60194 0 188 1.60194 1
gene 1 38 44 -1.50847 0 189 -1.50847 1
gene 1 38 45 0.152866 0 190 0.152866 1
gene 1 39 41 0.891489 0 191 0.891489 1
gene 1 39 42 3.46397 0 192 3.46397 1
gene 1 39 43 0.673725 0 193 0.673725 1
gene 1 39 44 0.324316 0 194 0.324316 1
gene 1 39 45 0.712073 0 195 0.712073 1
gene 1 40 41 0.402832 0 196 0.402832 1
gene 1 40 42 0.50061 0 197 0.50061 1
gene 1 40 43 -1.60717 0 198 -1.60717 1
gene 1 40 44 0.96583 0 199 0.96583 1
gene 1 40 45 1.30332 0 200 1.30332 1
genomeend 2


