/* Organism #1 Fitness: 17358.358000 Time: 0 */
genomestart 1
trait 1 0.000000 0.000000 0.000000 0.000000 0.000000 1.000000 0.000000 0.000000 
node 1 1 1 1
node 2 1 1 1
node 3 1 1 1
node 4 1 1 1
node 5 1 1 1
node 6 1 1 1
node 7 1 1 1
node 8 1 1 1
node 9 1 1 1
node 10 1 1 1
node 11 1 1 1
node 12 1 1 1
node 13 1 1 1
node 14 1 1 1
node 15 1 1 1
node 16 1 1 1
node 17 1 1 1
node 18 1 1 1
node 19 1 1 1
node 20 1 1 1
node 21 1 1 1
node 22 1 1 1
node 23 1 1 1
node 24 1 1 1
node 25 1 1 1
node 26 1 1 1
node 27 1 1 1
node 28 1 1 1
node 29 1 1 1
node 30 1 1 1
node 31 1 1 1
node 32 1 1 1
node 33 1 1 1
node 34 1 1 1
node 35 1 1 1
node 36 1 1 1
node 37 1 1 1
node 38 1 1 1
node 39 1 1 1
node 40 1 1 3
node 41 1 0 2
node 42 1 0 2
node 43 1 0 2
node 44 1 0 2
node 45 1 0 2
gene 1 1 41 -3.0324 0 1 -3.0324 1
gene 1 1 42 -2.37402 0 2 -2.37402 1
gene 1 1 43 0.406067 0 3 0.406067 1
gene 1 1 44 2.82157 0 4 2.82157 1
gene 1 1 45 -1.52806 0 5 -1.52806 1
gene 1 2 41 2.66347 0 6 2.66347 1
gene 1 2 42 -1.54986 0 7 -1.54986 1
gene 1 2 43 -1.56162 0 8 -1.56162 1
gene 1 2 44 -0.298394 0 9 -0.298394 1
gene 1 2 45 -4.55594 0 10 -4.55594 1
gene 1 3 41 1.3235 0 11 1.3235 1
gene 1 3 42 1.73522 0 12 1.73522 1
gene 1 3 43 0.524967 0 13 0.524967 1
gene 1 3 44 0.883113 0 14 0.883113 1
gene 1 3 45 0.420771 0 15 0.420771 1
gene 1 4 41 -0.759716 0 16 -0.759716 1
gene 1 4 42 3.73739 0 17 3.73739 1
gene 1 4 43 4.14755 0 18 4.14755 1
gene 1 4 44 -1.14516 0 19 -1.14516 1
gene 1 4 45 -0.628179 0 20 -0.628179 1
gene 1 5 41 1.7195 0 21 1.7195 1
gene 1 5 42 -0.520418 0 22 -0.520418 1
gene 1 5 43 5 0 23 5 1
gene 1 5 44 3.46741 0 24 3.46741 1
gene 1 5 45 0.080253 0 25 0.080253 1
gene 1 6 41 1.30833 0 26 1.30833 1
gene 1 6 42 -1.4754 0 27 -1.4754 1
gene 1 6 43 -3.02909 0 28 -3.02909 1
gene 1 6 44 -0.541625 0 29 -0.541625 1
gene 1 6 45 0.387896 0 30 0.387896 1
gene 1 7 41 1.17722 0 31 1.17722 1
gene 1 7 42 2.37064 0 32 2.37064 1
gene 1 7 43 4.02377 0 33 4.02377 1
gene 1 7 44 -1.63779 0 34 -1.63779 1
gene 1 7 45 -2.17412 0 35 -2.17412 1
gene 1 8 41 2.36699 0 36 2.36699 1
gene 1 8 42 -5 0 37 -5 1
gene 1 8 43 -3.59639 0 38 -3.59639 1
gene 1 8 44 -0.732455 0 39 -0.732455 1
gene 1 8 45 0.366706 0 40 0.366706 1
gene 1 9 41 -1.87752 0 41 -1.87752 1
gene 1 9 42 1.25487 0 42 1.25487 1
gene 1 9 43 0.402867 0 43 0.402867 1
gene 1 9 44 3.91646 0 44 3.91646 1
gene 1 9 45 -2.66901 0 45 -2.66901 1
gene 1 10 41 -1.08489 0 46 -1.08489 1
gene 1 10 42 5 0 47 5 1
gene 1 10 43 0.550371 0 48 0.550371 1
gene 1 10 44 0.135757 0 49 0.135757 1
gene 1 10 45 1.06641 0 50 1.06641 1
gene 1 11 41 -4.434 0 51 -4.434 1
gene 1 11 42 5 0 52 5 1
gene 1 11 43 2.11493 0 53 2.11493 1
gene 1 11 44 -1.30792 0 54 -1.30792 1
gene 1 11 45 0.231754 0 55 0.231754 1
gene 1 12 41 -0.207914 0 56 -0.207914 1
gene 1 12 42 0.801431 0 57 0.801431 1
gene 1 12 43 3.27948 0 58 3.27948 1
gene 1 12 44 -0.684674 0 59 -0.684674 1
gene 1 12 45 3.55194 0 60 3.55194 1
gene 1 13 41 -2.02332 0 61 -2.02332 1
gene 1 13 42 -0.551522 0 62 -0.551522 1
gene 1 13 43 0.980368 0 63 0.980368 1
gene 1 13 44 0.944807 0 64 0.944807 1
gene 1 13 45 0.587748 0 65 0.587748 1
gene 1 14 41 5 0 66 5 1
gene 1 14 42 -0.189074 0 67 -0.189074 1
gene 1 14 43 -1.85692 0 68 -1.85692 1
gene 1 14 44 -0.717501 0 69 -0.717501 1
gene 1 14 45 0.363828 0 70 0.363828 1
gene 1 15 41 2.24682 0 71 2.24682 1
gene 1 15 42 -5 0 72 -5 1
gene 1 15 43 -1.13227 0 73 -1.13227 1
gene 1 15 44 -0.810738 0 74 -0.810738 1
gene 1 15 45 -0.985959 0 75 -0.985959 1
gene 1 16 41 5 0 76 5 1
gene 1 16 42 -0.442139 0 77 -0.442139 1
gene 1 16 43 0.780037 0 78 0.780037 1
gene 1 16 44 -0.352427 0 79 -0.352427 1
gene 1 16 45 -2.23212 0 80 -2.23212 1
gene 1 17 41 -1.85367 0 81 -1.85367 1
gene 1 17 42 0.345025 0 82 0.345025 1
gene 1 17 43 -4.45847 0 83 -4.45847 1
gene 1 17 44 0.4167 0 84 0.4167 1
gene 1 17 45 -0.329356 0 85 -0.329356 1
gene 1 18 41 -0.381439 0 86 -0.381439 1
gene 1 18 42 5 0 87 5 1
gene 1 18 43 -4.60524 0 88 -4.60524 1
gene 1 18 44 -0.806228 0 89 -0.806228 1
gene 1 18 45 -5 0 90 -5 1
gene 1 19 41 0.0986207 0 91 0.0986207 1
gene 1 19 42 -0.329811 0 92 -0.329811 1
gene 1 19 43 -4.13149 0 93 -4.13149 1
gene 1 19 44 -0.676317 0 94 -0.676317 1
gene 1 19 45 1.76866 0 95 1.76866 1
gene 1 20 41 -0.372726 0 96 -0.372726 1
gene 1 20 42 1.90044 0 97 1.90044 1
gene 1 20 43 -0.410377 0 98 -0.410377 1
gene 1 20 44 -1.16584 0 99 -1.16584 1
gene 1 20 45 -4.65342 0 100 -4.65342 1
gene 1 21 41 2.45073 0 101 2.45073 1
gene 1 21 42 -0.0996849 0 102 -0.0996849 1
gene 1 21 43 -1.01096 0 103 -1.01096 1
gene 1 21 44 -2.92231 0 104 -2.92231 1
gene 1 21 45 -1.99743 0 105 -1.99743 1
gene 1 22 41 -4.48012 0 106 -4.48012 1
gene 1 22 42 -5 0 107 -5 1
gene 1 22 43 -4.31982 0 108 -4.31982 1
gene 1 22 44 2.33072 0 109 2.33072 1
gene 1 22 45 -3.98833 0 110 -3.98833 1
gene 1 23 41 -1.69194 0 111 -1.69194 1
gene 1 23 42 0.00481663 0 112 0.00481663 1
gene 1 23 43 -4.29746 0 113 -4.29746 1
gene 1 23 44 0.376998 0 114 0.376998 1
gene 1 23 45 4.71277 0 115 4.71277 1
gene 1 24 41 -1.40292 0 116 -1.40292 1
gene 1 24 42 0.981608 0 117 0.981608 1
gene 1 24 43 -1.57656 0 118 -1.57656 1
gene 1 24 44 -0.943423 0 119 -0.943423 1
gene 1 24 45 3.30948 0 120 3.30948 1
gene 1 25 41 -4.98008 0 121 -4.98008 1
gene 1 25 42 -4.87706 0 122 -4.87706 1
gene 1 25 43 -3.55519 0 123 -3.55519 1
gene 1 25 44 -4.46594 0 124 -4.46594 1
gene 1 25 45 0.719725 0 125 0.719725 1
gene 1 26 41 -0.443281 0 126 -0.443281 1
gene 1 26 42 1.0323 0 127 1.0323 1
gene 1 26 43 0.963222 0 128 0.963222 1
gene 1 26 44 4.61543 0 129 4.61543 1
gene 1 26 45 -3.94915 0 130 -3.94915 1
gene 1 27 41 0.827315 0 131 0.827315 1
gene 1 27 42 -1.21588 0 132 -1.21588 1
gene 1 27 43 0.0911574 0 133 0.0911574 1
gene 1 27 44 -0.321537 0 134 -0.321537 1
gene 1 27 45 -3.12173 0 135 -3.12173 1
gene 1 28 41 3.05881 0 136 3.05881 1
gene 1 28 42 3.04666 0 137 3.04666 1
gene 1 28 43 1.83396 0 138 1.83396 1
gene 1 28 44 4.212 0 139 4.212 1
gene 1 28 45 -3.7501 0 140 -3.7501 1
gene 1 29 41 -3.16275 0 141 -3.16275 1
gene 1 29 42 1.37917 0 142 1.37917 1
gene 1 29 43 -2.48418 0 143 -2.48418 1
gene 1 29 44 4.19946 0 144 4.19946 1
gene 1 29 45 -0.449201 0 145 -0.449201 1
gene 1 30 41 0.89099 0 146 0.89099 1
gene 1 30 42 1.02273 0 147 1.02273 1
gene 1 30 43 -4.47972 0 148 -4.47972 1
gene 1 30 44 -1.85021 0 149 -1.85021 1
gene 1 30 45 -1.3914 0 150 -1.3914 1
gene 1 31 41 2.5788 0 151 2.5788 1
gene 1 31 42 3.10701 0 152 3.10701 1
gene 1 31 43 -0.459704 0 153 -0.459704 1
gene 1 31 44 -0.177891 0 154 -0.177891 1
gene 1 31 45 -2.45215 0 155 -2.45215 1
gene 1 32 41 4.84499 0 156 4.84499 1
gene 1 32 42 0.316691 0 157 0.316691 1
gene 1 32 43 -0.299517 0 158 -0.299517 1
gene 1 32 44 0.0817423 0 159 0.0817423 1
gene 1 32 45 -0.568569 0 160 -0.568569 1
gene 1 33 41 -0.258656 0 161 -0.258656 1
gene 1 33 42 -1.80492 0 162 -1.80492 1
gene 1 33 43 0.182768 0 163 0.182768 1
gene 1 33 44 -1.62654 0 164 -1.62654 1
gene 1 33 45 1.01872 0 165 1.01872 1
gene 1 34 41 -0.127717 0 166 -0.127717 1
gene 1 34 42 -0.208348 0 167 -0.208348 1
gene 1 34 43 -1.9015 0 168 -1.9015 1
gene 1 34 44 0.323151 0 169 0.323151 1
gene 1 34 45 -0.625511 0 170 -0.625511 1
gene 1 35 41 -0.704709 0 171 -0.704709 1
gene 1 35 42 -1.63941 0 172 -1.63941 1
gene 1 35 43 -0.253457 0 173 -0.253457 1
gene 1 35 44 -2.70442 0 174 -2.70442 1
gene 1 35 45 -0.268075 0 175 -0.268075 1
gene 1 36 41 -0.223724 0 176 -0.223724 1
gene 1 36 42 1.34331 0 177 1.34331 1
gene 1 36 43 0.225344 0 178 0.225344 1
gene 1 36 44 0.191407 0 179 0.191407 1
gene 1 36 45 0.602658 0 180 0.602658 1
gene 1 37 41 -2.81496 0 181 -2.81496 1
gene 1 37 42 -0.071727 0 182 -0.071727 1
gene 1 37 43 -0.617771 0 183 -0.617771 1
gene 1 37 44 0.429106 0 184 0.429106 1
gene 1 37 45 0.164068 0 185 0.164068 1
gene 1 38 41 1.52548 0 186 1.52548 1
gene 1 38 42 0.107913 0 187 0.107913 1
gene 1 38 43 -0.868248 0 188 -0.868248 1
gene 1 38 44 -1.32563 0 189 -1.32563 1
gene 1 38 45 -0.856643 0 190 -0.856643 1
gene 1 39 41 1.75698 0 191 1.75698 1
gene 1 39 42 1.13086 0 192 1.13086 1
gene 1 39 43 -0.60688 0 193 -0.60688 1
gene 1 39 44 -2.64064 0 194 -2.64064 1
gene 1 39 45 -0.289185 0 195 -0.289185 1
gene 1 40 41 0.704925 0 196 0.704925 1
gene 1 40 42 -0.525451 0 197 -0.525451 1
gene 1 40 43 -0.129554 0 198 -0.129554 1
gene 1 40 44 -0.319649 0 199 -0.319649 1
gene 1 40 45 0.213567 0 200 0.213567 1
genomeend 1


