/* Organism #59 Fitness: 10543.816000 Time: 0 */
genomestart 59
trait 1 1.000000 1.000000 0.000000 0.022705 0.000000 1.000000 0.589254 0.000000 
node 1 1 1 1
node 2 1 1 1
node 3 1 1 1
node 4 1 1 1
node 5 1 1 1
node 6 1 1 1
node 7 1 1 1
node 8 1 1 1
node 9 1 1 1
node 10 1 1 1
node 11 1 1 1
node 12 1 1 1
node 13 1 1 1
node 14 1 1 1
node 15 1 1 1
node 16 1 1 1
node 17 1 1 1
node 18 1 1 1
node 19 1 1 1
node 20 1 1 1
node 21 1 1 1
node 22 1 1 1
node 23 1 1 1
node 24 1 1 1
node 25 1 1 1
node 26 1 1 1
node 27 1 1 1
node 28 1 1 1
node 29 1 1 1
node 30 1 1 3
node 31 1 0 2
node 32 1 0 2
node 33 1 0 2
gene 1 1 31 0.148703 0 1 0.148703 1
gene 1 1 32 -0.126348 0 2 -0.126348 1
gene 1 1 33 2.46265 0 3 2.46265 1
gene 1 2 31 0.632193 0 4 0.632193 1
gene 1 2 32 -0.381649 0 5 -0.381649 1
gene 1 2 33 1.72626 0 6 1.72626 1
gene 1 3 31 1.56431 0 7 1.56431 1
gene 1 3 32 -0.971271 0 8 -0.971271 1
gene 1 3 33 -0.0572777 0 9 -0.0572777 1
gene 1 4 31 -0.478024 0 10 -0.478024 1
gene 1 4 32 -0.0809079 0 11 -0.0809079 1
gene 1 4 33 -1.29315 0 12 -1.29315 1
gene 1 5 31 0.458512 0 13 0.458512 1
gene 1 5 32 -4.32631 0 14 -4.32631 1
gene 1 5 33 -2.09036 0 15 -2.09036 1
gene 1 6 31 1.13895 0 16 1.13895 1
gene 1 6 32 2.96921 0 17 2.96921 1
gene 1 6 33 0.457668 0 18 0.457668 1
gene 1 7 31 -0.0540556 0 19 -0.0540556 1
gene 1 7 32 -2.94924 0 20 -2.94924 1
gene 1 7 33 0.55587 0 21 0.55587 1
gene 1 8 31 0.674074 0 22 0.674074 1
gene 1 8 32 0.925581 0 23 0.925581 1
gene 1 8 33 -0.386988 0 24 -0.386988 1
gene 1 9 31 1.10609 0 25 1.10609 1
gene 1 9 32 0.509286 0 26 0.509286 1
gene 1 9 33 4.16479 0 27 4.16479 1
gene 1 10 31 -1.93598 0 28 -1.93598 1
gene 1 10 32 3.53817 0 29 3.53817 1
gene 1 10 33 0.152923 0 30 0.152923 1
gene 1 11 31 -4.69905 0 31 -4.69905 1
gene 1 11 32 -0.0342115 0 32 -0.0342115 1
gene 1 11 33 0.498408 0 33 0.498408 1
gene 1 12 31 -1.62117 0 34 -1.62117 1
gene 1 12 32 0.233024 0 35 0.233024 1
gene 1 12 33 -0.964407 0 36 -0.964407 1
gene 1 13 31 -5 0 37 -5 1
gene 1 13 32 0.739614 0 38 0.739614 1
gene 1 13 33 -0.327451 0 39 -0.327451 1
gene 1 14 31 3.47523 0 40 3.47523 1
gene 1 14 32 -0.545892 0 41 -0.545892 1
gene 1 14 33 -0.431791 0 42 -0.431791 1
gene 1 15 31 4.22863 0 43 4.22863 1
gene 1 15 32 1.06474 0 44 1.06474 1
gene 1 15 33 -0.195821 0 45 -0.195821 1
gene 1 16 31 1.27887 0 46 1.27887 1
gene 1 16 32 2.3998 0 47 2.3998 1
gene 1 16 33 3.18023 0 48 3.18023 1
gene 1 17 31 0.958423 0 49 0.958423 1
gene 1 17 32 -2.05808 0 50 -2.05808 1
gene 1 17 33 -0.708609 0 51 -0.708609 1
gene 1 18 31 1.81992 0 52 1.81992 1
gene 1 18 32 0.189774 0 53 0.189774 1
gene 1 18 33 1.34789 0 54 1.34789 1
gene 1 19 31 0.073583 0 55 0.073583 1
gene 1 19 32 2.36664 0 56 2.36664 1
gene 1 19 33 -0.0624582 0 57 -0.0624582 1
gene 1 20 31 -0.0735248 0 58 -0.0735248 1
gene 1 20 32 0.0391164 0 59 0.0391164 1
gene 1 20 33 -0.208086 0 60 -0.208086 1
gene 1 21 31 -1.97698 0 61 -1.97698 1
gene 1 21 32 -1.33433 0 62 -1.33433 1
gene 1 21 33 1.0712 0 63 1.0712 1
gene 1 22 31 0.0131855 0 64 0.0131855 1
gene 1 22 32 0.990392 0 65 0.990392 1
gene 1 22 33 -0.34085 0 66 -0.34085 1
gene 1 23 31 -0.961272 0 67 -0.961272 1
gene 1 23 32 0.60461 0 68 0.60461 1
gene 1 23 33 -0.325827 0 69 -0.325827 1
gene 1 24 31 -0.672904 0 70 -0.672904 1
gene 1 24 32 0.936498 0 71 0.936498 1
gene 1 24 33 -0.559852 0 72 -0.559852 1
gene 1 25 31 0.0731524 0 73 0.0731524 1
gene 1 25 32 1.01724 0 74 1.01724 1
gene 1 25 33 -0.801108 0 75 -0.801108 1
gene 1 26 31 -0.703543 0 76 -0.703543 1
gene 1 26 32 -0.74557 0 77 -0.74557 1
gene 1 26 33 -1.37467 0 78 -1.37467 1
gene 1 27 31 -0.235523 0 79 -0.235523 1
gene 1 27 32 0.882664 0 80 0.882664 1
gene 1 27 33 0.802149 0 81 0.802149 1
gene 1 28 31 -0.495045 0 82 -0.495045 1
gene 1 28 32 -0.517674 0 83 -0.517674 1
gene 1 28 33 -0.399989 0 84 -0.399989 1
gene 1 29 31 -1.45603 0 85 -1.45603 1
gene 1 29 32 -1.64097 0 86 -1.64097 1
gene 1 29 33 -0.27448 0 87 -0.27448 1
gene 1 30 31 -0.233825 0 88 -0.233825 1
gene 1 30 32 1.31441 0 89 1.31441 1
gene 1 30 33 -2.45361 0 90 -2.45361 1
genomeend 59


