/* Organism #6 Fitness: 11230.426000 Time: 0 */
genomestart 6
trait 1 0.848576 0.686646 0.854630 0.000000 0.000000 0.000000 0.708078 0.251282 
node 1 1 1 1
node 2 1 1 1
node 3 1 1 1
node 4 1 1 1
node 5 1 1 1
node 6 1 1 1
node 7 1 1 1
node 8 1 1 1
node 9 1 1 1
node 10 1 1 1
node 11 1 1 1
node 12 1 1 1
node 13 1 1 1
node 14 1 1 1
node 15 1 1 1
node 16 1 1 1
node 17 1 1 1
node 18 1 1 1
node 19 1 1 1
node 20 1 1 1
node 21 1 1 1
node 22 1 1 1
node 23 1 1 1
node 24 1 1 1
node 25 1 1 1
node 26 1 1 1
node 27 1 1 1
node 28 1 1 1
node 29 1 1 1
node 30 1 1 3
node 31 1 0 2
node 32 1 0 2
node 33 1 0 2
gene 1 1 31 -0.256134 0 1 -0.256134 1
gene 1 1 32 -0.19656 0 2 -0.19656 1
gene 1 1 33 0.284044 0 3 0.284044 1
gene 1 2 31 -0.741662 0 4 -0.741662 1
gene 1 2 32 -0.906589 0 5 -0.906589 1
gene 1 2 33 -0.492956 0 6 -0.492956 1
gene 1 3 31 -0.793189 0 7 -0.793189 1
gene 1 3 32 -4.08558 0 8 -4.08558 1
gene 1 3 33 1.49171 0 9 1.49171 1
gene 1 4 31 -0.830817 0 10 -0.830817 1
gene 1 4 32 1.09723 0 11 1.09723 1
gene 1 4 33 2.82293 0 12 2.82293 1
gene 1 5 31 0.971122 0 13 0.971122 1
gene 1 5 32 2.69321 0 14 2.69321 1
gene 1 5 33 -0.99046 0 15 -0.99046 1
gene 1 6 31 -2.35464 0 16 -2.35464 1
gene 1 6 32 0.3563 0 17 0.3563 1
gene 1 6 33 4.44286 0 18 4.44286 1
gene 1 7 31 0.371145 0 19 0.371145 1
gene 1 7 32 -0.282522 0 20 -0.282522 1
gene 1 7 33 -4.49633 0 21 -4.49633 1
gene 1 8 31 -0.477408 0 22 -0.477408 1
gene 1 8 32 -0.38811 0 23 -0.38811 1
gene 1 8 33 1.97043 0 24 1.97043 1
gene 1 9 31 1.34247 0 25 1.34247 1
gene 1 9 32 -2.7964 0 26 -2.7964 1
gene 1 9 33 -3.01228 0 27 -3.01228 1
gene 1 10 31 -1.00302 0 28 -1.00302 1
gene 1 10 32 1.01324 0 29 1.01324 1
gene 1 10 33 -0.239402 0 30 -0.239402 1
gene 1 11 31 -3.70582 0 31 -3.70582 1
gene 1 11 32 -4.37128 0 32 -4.37128 1
gene 1 11 33 4.37697 0 33 4.37697 1
gene 1 12 31 -4.91463 0 34 -4.91463 1
gene 1 12 32 -0.179782 0 35 -0.179782 1
gene 1 12 33 -5 0 36 -5 1
gene 1 13 31 -2.27713 0 37 -2.27713 1
gene 1 13 32 -0.358206 0 38 -0.358206 1
gene 1 13 33 -1.62656 0 39 -1.62656 1
gene 1 14 31 3.80117 0 40 3.80117 1
gene 1 14 32 -0.145627 0 41 -0.145627 1
gene 1 14 33 -1.63453 0 42 -1.63453 1
gene 1 15 31 2.46593 0 43 2.46593 1
gene 1 15 32 -0.194598 0 44 -0.194598 1
gene 1 15 33 -0.550352 0 45 -0.550352 1
gene 1 16 31 4.51591 0 46 4.51591 1
gene 1 16 32 -2.91618 0 47 -2.91618 1
gene 1 16 33 -1.45064 0 48 -1.45064 1
gene 1 17 31 -1.04764 0 49 -1.04764 1
gene 1 17 32 1.63133 0 50 1.63133 1
gene 1 17 33 -1.70369 0 51 -1.70369 1
gene 1 18 31 2.08202 0 52 2.08202 1
gene 1 18 32 1.32833 0 53 1.32833 1
gene 1 18 33 -0.738966 0 54 -0.738966 1
gene 1 19 31 1.6454 0 55 1.6454 1
gene 1 19 32 1.73991 0 56 1.73991 1
gene 1 19 33 -0.866131 0 57 -0.866131 1
gene 1 20 31 0.00865909 0 58 0.00865909 1
gene 1 20 32 -0.0394541 0 59 -0.0394541 1
gene 1 20 33 -3.99939 0 60 -3.99939 1
gene 1 21 31 -0.285498 0 61 -0.285498 1
gene 1 21 32 -0.351588 0 62 -0.351588 1
gene 1 21 33 -0.237959 0 63 -0.237959 1
gene 1 22 31 0.761064 0 64 0.761064 1
gene 1 22 32 0.746476 0 65 0.746476 1
gene 1 22 33 5 0 66 5 1
gene 1 23 31 -0.19968 0 67 -0.19968 1
gene 1 23 32 -2.47909 0 68 -2.47909 1
gene 1 23 33 0.931514 0 69 0.931514 1
gene 1 24 31 -0.686881 0 70 -0.686881 1
gene 1 24 32 2.84184 0 71 2.84184 1
gene 1 24 33 -1.39859 0 72 -1.39859 1
gene 1 25 31 -0.584956 0 73 -0.584956 1
gene 1 25 32 -2.12452 0 74 -2.12452 1
gene 1 25 33 -0.747881 0 75 -0.747881 1
gene 1 26 31 -0.395234 0 76 -0.395234 1
gene 1 26 32 -0.232374 0 77 -0.232374 1
gene 1 26 33 -0.408991 0 78 -0.408991 1
gene 1 27 31 1.11382 0 79 1.11382 1
gene 1 27 32 1.25244 0 80 1.25244 1
gene 1 27 33 0.501936 0 81 0.501936 1
gene 1 28 31 0.223648 0 82 0.223648 1
gene 1 28 32 -0.802788 0 83 -0.802788 1
gene 1 28 33 -1.22592 0 84 -1.22592 1
gene 1 29 31 -0.579852 0 85 -0.579852 1
gene 1 29 32 0.585544 0 86 0.585544 1
gene 1 29 33 -0.198951 0 87 -0.198951 1
gene 1 30 31 -0.0720919 0 88 -0.0720919 1
gene 1 30 32 2.53029 0 89 2.53029 1
gene 1 30 33 0.697227 0 90 0.697227 1
genomeend 6


