/* Organism #48 Fitness: 37246.700000 Time: 0 */
genomestart 48
trait 1 0.489401 0.150015 0.000000 0.000000 0.205982 0.196999 0.871692 0.047012 
node 1 1 1 1
node 2 1 1 1
node 3 1 1 1
node 4 1 1 1
node 5 1 1 1
node 6 1 1 1
node 7 1 1 1
node 8 1 1 1
node 9 1 1 1
node 10 1 1 1
node 11 1 1 1
node 12 1 1 1
node 13 1 1 1
node 14 1 1 1
node 15 1 1 1
node 16 1 1 1
node 17 1 1 1
node 18 1 1 1
node 19 1 1 1
node 20 1 1 1
node 21 1 1 1
node 22 1 1 1
node 23 1 1 1
node 24 1 1 1
node 25 1 1 1
node 26 1 1 1
node 27 1 1 1
node 28 1 1 1
node 29 1 1 1
node 30 1 1 3
node 31 1 0 2
node 32 1 0 2
node 33 1 0 2
gene 1 1 31 -0.568376 0 1 -0.568376 1
gene 1 1 32 -1.38458 0 2 -1.38458 1
gene 1 1 33 -0.893821 0 3 -0.893821 1
gene 1 2 31 -1.6659 0 4 -1.6659 1
gene 1 2 32 -0.161312 0 5 -0.161312 1
gene 1 2 33 -0.45311 0 6 -0.45311 1
gene 1 3 31 0.608258 0 7 0.608258 1
gene 1 3 32 -0.447942 0 8 -0.447942 1
gene 1 3 33 -1.62508 0 9 -1.62508 1
gene 1 4 31 -4.01954 0 10 -4.01954 1
gene 1 4 32 0.613214 0 11 0.613214 1
gene 1 4 33 0.0106227 0 12 0.0106227 1
gene 1 5 31 -0.44023 0 13 -0.44023 1
gene 1 5 32 -2.55123 0 14 -2.55123 1
gene 1 5 33 0.0595504 0 15 0.0595504 1
gene 1 6 31 0.378954 0 16 0.378954 1
gene 1 6 32 -3.61351 0 17 -3.61351 1
gene 1 6 33 2.03939 0 18 2.03939 1
gene 1 7 31 0.348162 0 19 0.348162 1
gene 1 7 32 -3.13063 0 20 -3.13063 1
gene 1 7 33 -1.06787 0 21 -1.06787 1
gene 1 8 31 -0.984709 0 22 -0.984709 1
gene 1 8 32 3.64976 0 23 3.64976 1
gene 1 8 33 -0.874561 0 24 -0.874561 1
gene 1 9 31 2.71768 0 25 2.71768 1
gene 1 9 32 -0.1413 0 26 -0.1413 1
gene 1 9 33 -2.53859 0 27 -2.53859 1
gene 1 10 31 0.00461668 0 28 0.00461668 1
gene 1 10 32 -0.568053 0 29 -0.568053 1
gene 1 10 33 0.0296104 0 30 0.0296104 1
gene 1 11 31 -4.21484 0 31 -4.21484 1
gene 1 11 32 -3.02293 0 32 -3.02293 1
gene 1 11 33 -5 0 33 -5 1
gene 1 12 31 -0.252094 0 34 -0.252094 1
gene 1 12 32 0.30639 0 35 0.30639 1
gene 1 12 33 1.78167 0 36 1.78167 1
gene 1 13 31 2.18604 0 37 2.18604 1
gene 1 13 32 -4.57802 0 38 -4.57802 1
gene 1 13 33 1.19419 0 39 1.19419 1
gene 1 14 31 -3.3345 0 40 -3.3345 1
gene 1 14 32 -0.586618 0 41 -0.586618 1
gene 1 14 33 0.960511 0 42 0.960511 1
gene 1 15 31 -0.698212 0 43 -0.698212 1
gene 1 15 32 2.4882 0 44 2.4882 1
gene 1 15 33 -0.733213 0 45 -0.733213 1
gene 1 16 31 1.17758 0 46 1.17758 1
gene 1 16 32 -2.32856 0 47 -2.32856 1
gene 1 16 33 -0.0318206 0 48 -0.0318206 1
gene 1 17 31 -0.0437806 0 49 -0.0437806 1
gene 1 17 32 3.59967 0 50 3.59967 1
gene 1 17 33 -1.50444 0 51 -1.50444 1
gene 1 18 31 1.30557 0 52 1.30557 1
gene 1 18 32 2.23858 0 53 2.23858 1
gene 1 18 33 -0.613961 0 54 -0.613961 1
gene 1 19 31 -1.69198 0 55 -1.69198 1
gene 1 19 32 2.44717 0 56 2.44717 1
gene 1 19 33 -0.91577 0 57 -0.91577 1
gene 1 20 31 -2.09002 0 58 -2.09002 1
gene 1 20 32 -1.42562 0 59 -1.42562 1
gene 1 20 33 0.368772 0 60 0.368772 1
gene 1 21 31 -4.21074 0 61 -4.21074 1
gene 1 21 32 0.762537 0 62 0.762537 1
gene 1 21 33 -1.77874 0 63 -1.77874 1
gene 1 22 31 -0.354241 0 64 -0.354241 1
gene 1 22 32 -0.45648 0 65 -0.45648 1
gene 1 22 33 0.615196 0 66 0.615196 1
gene 1 23 31 -1.42841 0 67 -1.42841 1
gene 1 23 32 -0.300003 0 68 -0.300003 1
gene 1 23 33 -2.4573 0 69 -2.4573 1
gene 1 24 31 0.729344 0 70 0.729344 1
gene 1 24 32 -0.277439 0 71 -0.277439 1
gene 1 24 33 0.342636 0 72 0.342636 1
gene 1 25 31 -1.30108 0 73 -1.30108 1
gene 1 25 32 0.329171 0 74 0.329171 1
gene 1 25 33 -1.19532 0 75 -1.19532 1
gene 1 26 31 -1.24832 0 76 -1.24832 1
gene 1 26 32 1.30619 0 77 1.30619 1
gene 1 26 33 1.36751 0 78 1.36751 1
gene 1 27 31 0.815612 0 79 0.815612 1
gene 1 27 32 -0.382187 0 80 -0.382187 1
gene 1 27 33 -0.348177 0 81 -0.348177 1
gene 1 28 31 -0.684601 0 82 -0.684601 1
gene 1 28 32 -1.17271 0 83 -1.17271 1
gene 1 28 33 0.217705 0 84 0.217705 1
gene 1 29 31 -0.725575 0 85 -0.725575 1
gene 1 29 32 -1.06047 0 86 -1.06047 1
gene 1 29 33 0.373973 0 87 0.373973 1
gene 1 30 31 -0.19653 0 88 -0.19653 1
gene 1 30 32 -4.21587 0 89 -4.21587 1
gene 1 30 33 -0.949532 0 90 -0.949532 1
genomeend 48


