/* Organism #57 Fitness: 33829.762000 Time: 0 */
genomestart 57
trait 1 0.100000 0.492414 0.000000 0.000000 0.000000 0.000000 0.000000 0.000000 
node 1 1 1 1
node 2 1 1 1
node 3 1 1 1
node 4 1 1 1
node 5 1 1 1
node 6 1 1 1
node 7 1 1 1
node 8 1 1 1
node 9 1 1 1
node 10 1 1 1
node 11 1 1 1
node 12 1 1 1
node 13 1 1 1
node 14 1 1 1
node 15 1 1 1
node 16 1 1 1
node 17 1 1 1
node 18 1 1 1
node 19 1 1 1
node 20 1 1 1
node 21 1 1 1
node 22 1 1 1
node 23 1 1 1
node 24 1 1 1
node 25 1 1 1
node 26 1 1 1
node 27 1 1 1
node 28 1 1 1
node 29 1 1 1
node 30 1 1 3
node 31 1 0 2
node 32 1 0 2
node 33 1 0 2
gene 1 1 31 0.257848 0 1 0.257848 1
gene 1 1 32 -0.621936 0 2 -0.621936 1
gene 1 1 33 -0.116232 0 3 -0.116232 1
gene 1 2 31 1.34448 0 4 1.34448 1
gene 1 2 32 3.30007 0 5 3.30007 1
gene 1 2 33 1.624 0 6 1.624 1
gene 1 3 31 1.27993 0 7 1.27993 1
gene 1 3 32 5 0 8 5 1
gene 1 3 33 -3.75508 0 9 -3.75508 1
gene 1 4 31 -0.804735 0 10 -0.804735 1
gene 1 4 32 0.670241 0 11 0.670241 1
gene 1 4 33 -1.01373 0 12 -1.01373 1
gene 1 5 31 -1.61719 0 13 -1.61719 1
gene 1 5 32 -0.976729 0 14 -0.976729 1
gene 1 5 33 4.37402 0 15 4.37402 1
gene 1 6 31 -0.632607 0 16 -0.632607 1
gene 1 6 32 -5 0 17 -5 1
gene 1 6 33 0.303134 0 18 0.303134 1
gene 1 7 31 1.61261 0 19 1.61261 1
gene 1 7 32 -2.0451 0 20 -2.0451 1
gene 1 7 33 0.66305 0 21 0.66305 1
gene 1 8 31 -0.414035 0 22 -0.414035 1
gene 1 8 32 1.3185 0 23 1.3185 1
gene 1 8 33 0.627205 0 24 0.627205 1
gene 1 9 31 -0.438464 0 25 -0.438464 1
gene 1 9 32 0.523789 0 26 0.523789 1
gene 1 9 33 0.478527 0 27 0.478527 1
gene 1 10 31 -1.63504 0 28 -1.63504 1
gene 1 10 32 1.17062 0 29 1.17062 1
gene 1 10 33 -0.226576 0 30 -0.226576 1
gene 1 11 31 -0.807857 0 31 -0.807857 1
gene 1 11 32 2.764 0 32 2.764 1
gene 1 11 33 -0.264096 0 33 -0.264096 1
gene 1 12 31 3.80607 0 34 3.80607 1
gene 1 12 32 1.50347 0 35 1.50347 1
gene 1 12 33 -1.48348 0 36 -1.48348 1
gene 1 13 31 -0.494905 0 37 -0.494905 1
gene 1 13 32 0.950846 0 38 0.950846 1
gene 1 13 33 -0.0971483 0 39 -0.0971483 1
gene 1 14 31 -0.547989 0 40 -0.547989 1
gene 1 14 32 0.553148 0 41 0.553148 1
gene 1 14 33 -2.59755 0 42 -2.59755 1
gene 1 15 31 -2.93026 0 43 -2.93026 1
gene 1 15 32 0.754812 0 44 0.754812 1
gene 1 15 33 0.66509 0 45 0.66509 1
gene 1 16 31 -0.0334253 0 46 -0.0334253 1
gene 1 16 32 -2.77264 0 47 -2.77264 1
gene 1 16 33 1.23042 0 48 1.23042 1
gene 1 17 31 -1.62493 0 49 -1.62493 1
gene 1 17 32 -1.37728 0 50 -1.37728 1
gene 1 17 33 3.70058 0 51 3.70058 1
gene 1 18 31 -0.194384 0 52 -0.194384 1
gene 1 18 32 -0.0532595 0 53 -0.0532595 1
gene 1 18 33 -0.70037 0 54 -0.70037 1
gene 1 19 31 -5 0 55 -5 1
gene 1 19 32 -1.45803 0 56 -1.45803 1
gene 1 19 33 -2.63576 0 57 -2.63576 1
gene 1 20 31 -3.7673 0 58 -3.7673 1
gene 1 20 32 -0.284912 0 59 -0.284912 1
gene 1 20 33 0.728517 0 60 0.728517 1
gene 1 21 31 0.0399559 0 61 0.0399559 1
gene 1 21 32 -2.65763 0 62 -2.65763 1
gene 1 21 33 0.981986 0 63 0.981986 1
gene 1 22 31 0.0498156 0 64 0.0498156 1
gene 1 22 32 -1.07948 0 65 -1.07948 1
gene 1 22 33 3.87456 0 66 3.87456 1
gene 1 23 31 -3.82768 0 67 -3.82768 1
gene 1 23 32 0.2144 0 68 0.2144 1
gene 1 23 33 0.0664564 0 69 0.0664564 1
gene 1 24 31 -0.374308 0 70 -0.374308 1
gene 1 24 32 0.00382268 0 71 0.00382268 1
gene 1 24 33 0.532146 0 72 0.532146 1
gene 1 25 31 -2.0318 0 73 -2.0318 1
gene 1 25 32 0.898422 0 74 0.898422 1
gene 1 25 33 0.0161105 0 75 0.0161105 1
gene 1 26 31 1.72153 0 76 1.72153 1
gene 1 26 32 0.559281 0 77 0.559281 1
gene 1 26 33 -1.4252 0 78 -1.4252 1
gene 1 27 31 -1.15046 0 79 -1.15046 1
gene 1 27 32 1.03621 0 80 1.03621 1
gene 1 27 33 -0.987914 0 81 -0.987914 1
gene 1 28 31 0.180925 0 82 0.180925 1
gene 1 28 32 0.484205 0 83 0.484205 1
gene 1 28 33 -0.286422 0 84 -0.286422 1
gene 1 29 31 2.08585 0 85 2.08585 1
gene 1 29 32 0.324928 0 86 0.324928 1
gene 1 29 33 0.932133 0 87 0.932133 1
gene 1 30 31 -1.25765 0 88 -1.25765 1
gene 1 30 32 -3.48097 0 89 -3.48097 1
gene 1 30 33 -0.152038 0 90 -0.152038 1
genomeend 57


