/* Organism #16 Fitness: 35184.300000 Time: 0 */
genomestart 16
trait 1 0.708735 0.492414 0.131552 0.000000 0.000000 0.000000 0.000000 0.000000 
node 1 1 1 1
node 2 1 1 1
node 3 1 1 1
node 4 1 1 1
node 5 1 1 1
node 6 1 1 1
node 7 1 1 1
node 8 1 1 1
node 9 1 1 1
node 10 1 1 1
node 11 1 1 1
node 12 1 1 1
node 13 1 1 1
node 14 1 1 1
node 15 1 1 1
node 16 1 1 1
node 17 1 1 1
node 18 1 1 1
node 19 1 1 1
node 20 1 1 1
node 21 1 1 1
node 22 1 1 1
node 23 1 1 1
node 24 1 1 1
node 25 1 1 1
node 26 1 1 1
node 27 1 1 1
node 28 1 1 1
node 29 1 1 1
node 30 1 1 3
node 31 1 0 2
node 32 1 0 2
node 33 1 0 2
gene 1 1 31 -1.47416 0 1 -1.47416 1
gene 1 1 32 -0.995325 0 2 -0.995325 1
gene 1 1 33 -2.35594 0 3 -2.35594 1
gene 1 2 31 -0.80228 0 4 -0.80228 1
gene 1 2 32 2.88314 0 5 2.88314 1
gene 1 2 33 -1.495 0 6 -1.495 1
gene 1 3 31 -0.687304 0 7 -0.687304 1
gene 1 3 32 2.44165 0 8 2.44165 1
gene 1 3 33 2.48673 0 9 2.48673 1
gene 1 4 31 0.863179 0 10 0.863179 1
gene 1 4 32 0.637146 0 11 0.637146 1
gene 1 4 33 -3.06575 0 12 -3.06575 1
gene 1 5 31 -3.41014 0 13 -3.41014 1
gene 1 5 32 -0.0499302 0 14 -0.0499302 1
gene 1 5 33 1.52533 0 15 1.52533 1
gene 1 6 31 3.16412 0 16 3.16412 1
gene 1 6 32 -3.94535 0 17 -3.94535 1
gene 1 6 33 -1.3619 0 18 -1.3619 1
gene 1 7 31 -0.490837 0 19 -0.490837 1
gene 1 7 32 -0.514427 0 20 -0.514427 1
gene 1 7 33 -0.707845 0 21 -0.707845 1
gene 1 8 31 -1.22869 0 22 -1.22869 1
gene 1 8 32 -0.645803 0 23 -0.645803 1
gene 1 8 33 1.30864 0 24 1.30864 1
gene 1 9 31 0.404891 0 25 0.404891 1
gene 1 9 32 -2.02407 0 26 -2.02407 1
gene 1 9 33 -3.8478 0 27 -3.8478 1
gene 1 10 31 -0.282429 0 28 -0.282429 1
gene 1 10 32 -0.93053 0 29 -0.93053 1
gene 1 10 33 2.37662 0 30 2.37662 1
gene 1 11 31 1.55716 0 31 1.55716 1
gene 1 11 32 2.77535 0 32 2.77535 1
gene 1 11 33 -0.678031 0 33 -0.678031 1
gene 1 12 31 -2.24006 0 34 -2.24006 1
gene 1 12 32 -1.73963 0 35 -1.73963 1
gene 1 12 33 5 0 36 5 1
gene 1 13 31 3.24693 0 37 3.24693 1
gene 1 13 32 -3.82324 0 38 -3.82324 1
gene 1 13 33 -2.58397 0 39 -2.58397 1
gene 1 14 31 -1.07985 0 40 -1.07985 1
gene 1 14 32 2.99062 0 41 2.99062 1
gene 1 14 33 1.02949 0 42 1.02949 1
gene 1 15 31 2.24644 0 43 2.24644 1
gene 1 15 32 -0.723788 0 44 -0.723788 1
gene 1 15 33 -4.60549 0 45 -4.60549 1
gene 1 16 31 0.806805 0 46 0.806805 1
gene 1 16 32 -0.273109 0 47 -0.273109 1
gene 1 16 33 -3.33794 0 48 -3.33794 1
gene 1 17 31 -2.1388 0 49 -2.1388 1
gene 1 17 32 0.348185 0 50 0.348185 1
gene 1 17 33 0.454694 0 51 0.454694 1
gene 1 18 31 -0.330174 0 52 -0.330174 1
gene 1 18 32 -2.27816 0 53 -2.27816 1
gene 1 18 33 0.580108 0 54 0.580108 1
gene 1 19 31 -0.183156 0 55 -0.183156 1
gene 1 19 32 0.636547 0 56 0.636547 1
gene 1 19 33 -1.7067 0 57 -1.7067 1
gene 1 20 31 0.00788045 0 58 0.00788045 1
gene 1 20 32 1.1621 0 59 1.1621 1
gene 1 20 33 3.94468 0 60 3.94468 1
gene 1 21 31 -0.445669 0 61 -0.445669 1
gene 1 21 32 0.338269 0 62 0.338269 1
gene 1 21 33 0.725693 0 63 0.725693 1
gene 1 22 31 0.32667 0 64 0.32667 1
gene 1 22 32 1.59 0 65 1.59 1
gene 1 22 33 0.372618 0 66 0.372618 1
gene 1 23 31 0.167672 0 67 0.167672 1
gene 1 23 32 -1.41317 0 68 -1.41317 1
gene 1 23 33 -3.28828 0 69 -3.28828 1
gene 1 24 31 0.100593 0 70 0.100593 1
gene 1 24 32 -1.81245 0 71 -1.81245 1
gene 1 24 33 0.573767 0 72 0.573767 1
gene 1 25 31 0.201775 0 73 0.201775 1
gene 1 25 32 0.836451 0 74 0.836451 1
gene 1 25 33 0.199324 0 75 0.199324 1
gene 1 26 31 -0.727192 0 76 -0.727192 1
gene 1 26 32 -2.04932 0 77 -2.04932 1
gene 1 26 33 -1.65498 0 78 -1.65498 1
gene 1 27 31 0.109695 0 79 0.109695 1
gene 1 27 32 -0.584814 0 80 -0.584814 1
gene 1 27 33 0.343559 0 81 0.343559 1
gene 1 28 31 -1.02844 0 82 -1.02844 1
gene 1 28 32 0.430318 0 83 0.430318 1
gene 1 28 33 0.5131 0 84 0.5131 1
gene 1 29 31 0.832883 0 85 0.832883 1
gene 1 29 32 -0.679009 0 86 -0.679009 1
gene 1 29 33 -2.10134 0 87 -2.10134 1
gene 1 30 31 -4.3124 0 88 -4.3124 1
gene 1 30 32 -4.02875 0 89 -4.02875 1
gene 1 30 33 0.218575 0 90 0.218575 1
genomeend 16


