/* Organism #0 Fitness: 16835.692000 Time: 0 */
genomestart 0
trait 1 0.000000 0.089628 0.000000 0.000000 0.000000 0.573596 0.000000 0.626481 
node 1 1 1 1
node 2 1 1 1
node 3 1 1 1
node 4 1 1 1
node 5 1 1 1
node 6 1 1 1
node 7 1 1 1
node 8 1 1 1
node 9 1 1 1
node 10 1 1 1
node 11 1 1 1
node 12 1 1 1
node 13 1 1 1
node 14 1 1 1
node 15 1 1 1
node 16 1 1 1
node 17 1 1 1
node 18 1 1 1
node 19 1 1 1
node 20 1 1 1
node 21 1 1 1
node 22 1 1 1
node 23 1 1 1
node 24 1 1 1
node 25 1 1 1
node 26 1 1 1
node 27 1 1 1
node 28 1 1 1
node 29 1 1 1
node 30 1 1 1
node 31 1 1 1
node 32 1 1 1
node 33 1 1 1
node 34 1 1 1
node 35 1 1 1
node 36 1 1 1
node 37 1 1 1
node 38 1 1 1
node 39 1 1 1
node 40 1 1 3
node 41 1 0 2
node 42 1 0 2
node 43 1 0 2
node 44 1 0 2
node 45 1 0 2
gene 1 1 41 -1.51416 0 1 -1.51416 1
gene 1 1 42 -2.10867 0 2 -2.10867 1
gene 1 1 43 -0.0764159 0 3 -0.0764159 1
gene 1 1 44 -0.268247 0 4 -0.268247 1
gene 1 1 45 5 0 5 5 1
gene 1 2 41 1.53998 0 6 1.53998 1
gene 1 2 42 -1.07529 0 7 -1.07529 1
gene 1 2 43 -2.53068 0 8 -2.53068 1
gene 1 2 44 -3.22872 0 9 -3.22872 1
gene 1 2 45 -0.3458 0 10 -0.3458 1
gene 1 3 41 1.62238 0 11 1.62238 1
gene 1 3 42 -3.22479 0 12 -3.22479 1
gene 1 3 43 -2.66546 0 13 -2.66546 1
gene 1 3 44 0.0841774 0 14 0.0841774 1
gene 1 3 45 4.96709 0 15 4.96709 1
gene 1 4 41 -2.19928 0 16 -2.19928 1
gene 1 4 42 3.1614 0 17 3.1614 1
gene 1 4 43 2.07282 0 18 2.07282 1
gene 1 4 44 -1.67161 0 19 -1.67161 1
gene 1 4 45 3.43182 0 20 3.43182 1
gene 1 5 41 4.66961 0 21 4.66961 1
gene 1 5 42 -1.88879 0 22 -1.88879 1
gene 1 5 43 1.02074 0 23 1.02074 1
gene 1 5 44 -2.25745 0 24 -2.25745 1
gene 1 5 45 1.24674 0 25 1.24674 1
gene 1 6 41 -3.45816 0 26 -3.45816 1
gene 1 6 42 -1.92103 0 27 -1.92103 1
gene 1 6 43 -1.92374 0 28 -1.92374 1
gene 1 6 44 -1.72911 0 29 -1.72911 1
gene 1 6 45 4.93902 0 30 4.93902 1
gene 1 7 41 3.02126 0 31 3.02126 1
gene 1 7 42 5 0 32 5 1
gene 1 7 43 -2.7581 0 33 -2.7581 1
gene 1 7 44 0.575832 0 34 0.575832 1
gene 1 7 45 -3.42696 0 35 -3.42696 1
gene 1 8 41 -0.393113 0 36 -0.393113 1
gene 1 8 42 -4.82634 0 37 -4.82634 1
gene 1 8 43 0.971964 0 38 0.971964 1
gene 1 8 44 -3.48704 0 39 -3.48704 1
gene 1 8 45 -1.8955 0 40 -1.8955 1
gene 1 9 41 4.45049 0 41 4.45049 1
gene 1 9 42 -0.389446 0 42 -0.389446 1
gene 1 9 43 1.3642 0 43 1.3642 1
gene 1 9 44 5 0 44 5 1
gene 1 9 45 1.77611 0 45 1.77611 1
gene 1 10 41 -2.61163 0 46 -2.61163 1
gene 1 10 42 2.76233 0 47 2.76233 1
gene 1 10 43 1.31402 0 48 1.31402 1
gene 1 10 44 -1.11836 0 49 -1.11836 1
gene 1 10 45 2.3306 0 50 2.3306 1
gene 1 11 41 0.0585464 0 51 0.0585464 1
gene 1 11 42 -2.91063 0 52 -2.91063 1
gene 1 11 43 -0.540916 0 53 -0.540916 1
gene 1 11 44 -1.21307 0 54 -1.21307 1
gene 1 11 45 1.90248 0 55 1.90248 1
gene 1 12 41 -1.74268 0 56 -1.74268 1
gene 1 12 42 -0.997352 0 57 -0.997352 1
gene 1 12 43 -1.16945 0 58 -1.16945 1
gene 1 12 44 0.64954 0 59 0.64954 1
gene 1 12 45 -3.70861 0 60 -3.70861 1
gene 1 13 41 0.33556 0 61 0.33556 1
gene 1 13 42 2.19011 0 62 2.19011 1
gene 1 13 43 0.935557 0 63 0.935557 1
gene 1 13 44 -1.8486 0 64 -1.8486 1
gene 1 13 45 1.74812 0 65 1.74812 1
gene 1 14 41 -3.41498 0 66 -3.41498 1
gene 1 14 42 -2.81399 0 67 -2.81399 1
gene 1 14 43 -2.03212 0 68 -2.03212 1
gene 1 14 44 -3.35607 0 69 -3.35607 1
gene 1 14 45 2.37382 0 70 2.37382 1
gene 1 15 41 4.59006 0 71 4.59006 1
gene 1 15 42 -0.8022 0 72 -0.8022 1
gene 1 15 43 2.23057 0 73 2.23057 1
gene 1 15 44 4.29685 0 74 4.29685 1
gene 1 15 45 1.60352 0 75 1.60352 1
gene 1 16 41 5 0 76 5 1
gene 1 16 42 -4.34157 0 77 -4.34157 1
gene 1 16 43 2.79469 0 78 2.79469 1
gene 1 16 44 -0.912041 0 79 -0.912041 1
gene 1 16 45 1.71719 0 80 1.71719 1
gene 1 17 41 -0.913509 0 81 -0.913509 1
gene 1 17 42 2.57015 0 82 2.57015 1
gene 1 17 43 0.019975 0 83 0.019975 1
gene 1 17 44 2.14245 0 84 2.14245 1
gene 1 17 45 0.703841 0 85 0.703841 1
gene 1 18 41 2.31016 0 86 2.31016 1
gene 1 18 42 1.47004 0 87 1.47004 1
gene 1 18 43 -4.24977 0 88 -4.24977 1
gene 1 18 44 -2.99123 0 89 -2.99123 1
gene 1 18 45 3.41671 0 90 3.41671 1
gene 1 19 41 2.56164 0 91 2.56164 1
gene 1 19 42 -0.256634 0 92 -0.256634 1
gene 1 19 43 1.83442 0 93 1.83442 1
gene 1 19 44 1.62778 0 94 1.62778 1
gene 1 19 45 0.603539 0 95 0.603539 1
gene 1 20 41 1.19813 0 96 1.19813 1
gene 1 20 42 2.72842 0 97 2.72842 1
gene 1 20 43 0.0562145 0 98 0.0562145 1
gene 1 20 44 -1.91949 0 99 -1.91949 1
gene 1 20 45 0.136128 0 100 0.136128 1
gene 1 21 41 0.792543 0 101 0.792543 1
gene 1 21 42 -3.27254 0 102 -3.27254 1
gene 1 21 43 -4.76482 0 103 -4.76482 1
gene 1 21 44 1.92677 0 104 1.92677 1
gene 1 21 45 -0.309218 0 105 -0.309218 1
gene 1 22 41 0.263932 0 106 0.263932 1
gene 1 22 42 0.427094 0 107 0.427094 1
gene 1 22 43 4.07761 0 108 4.07761 1
gene 1 22 44 -0.639311 0 109 -0.639311 1
gene 1 22 45 -0.0605061 0 110 -0.0605061 1
gene 1 23 41 -3.67335 0 111 -3.67335 1
gene 1 23 42 1.24655 0 112 1.24655 1
gene 1 23 43 -2.25453 0 113 -2.25453 1
gene 1 23 44 2.78973 0 114 2.78973 1
gene 1 23 45 0.268517 0 115 0.268517 1
gene 1 24 41 4.27567 0 116 4.27567 1
gene 1 24 42 -4.59809 0 117 -4.59809 1
gene 1 24 43 -0.253471 0 118 -0.253471 1
gene 1 24 44 1.25003 0 119 1.25003 1
gene 1 24 45 0.678678 0 120 0.678678 1
gene 1 25 41 -3.70923 0 121 -3.70923 1
gene 1 25 42 -0.24636 0 122 -0.24636 1
gene 1 25 43 2.33575 0 123 2.33575 1
gene 1 25 44 -0.825185 0 124 -0.825185 1
gene 1 25 45 -5 0 125 -5 1
gene 1 26 41 -2.99043 0 126 -2.99043 1
gene 1 26 42 2.33258 0 127 2.33258 1
gene 1 26 43 -1.2278 0 128 -1.2278 1
gene 1 26 44 3.16401 0 129 3.16401 1
gene 1 26 45 -0.585559 0 130 -0.585559 1
gene 1 27 41 -1.89237 0 131 -1.89237 1
gene 1 27 42 -2.02716 0 132 -2.02716 1
gene 1 27 43 2.39778 0 133 2.39778 1
gene 1 27 44 -3.83136 0 134 -3.83136 1
gene 1 27 45 2.18746 0 135 2.18746 1
gene 1 28 41 -1.07973 0 136 -1.07973 1
gene 1 28 42 -1.05117 0 137 -1.05117 1
gene 1 28 43 2.02283 0 138 2.02283 1
gene 1 28 44 -5 0 139 -5 1
gene 1 28 45 -2.97089 0 140 -2.97089 1
gene 1 29 41 0.778937 0 141 0.778937 1
gene 1 29 42 -0.269975 0 142 -0.269975 1
gene 1 29 43 1.19108 0 143 1.19108 1
gene 1 29 44 0.243001 0 144 0.243001 1
gene 1 29 45 1.60863 0 145 1.60863 1
gene 1 30 41 -5 0 146 -5 1
gene 1 30 42 1.44345 0 147 1.44345 1
gene 1 30 43 -0.681762 0 148 -0.681762 1
gene 1 30 44 5 0 149 5 1
gene 1 30 45 -1.78315 0 150 -1.78315 1
gene 1 31 41 3.04324 0 151 3.04324 1
gene 1 31 42 0.640264 0 152 0.640264 1
gene 1 31 43 -0.580963 0 153 -0.580963 1
gene 1 31 44 -1.37532 0 154 -1.37532 1
gene 1 31 45 -0.597926 0 155 -0.597926 1
gene 1 32 41 4.58087 0 156 4.58087 1
gene 1 32 42 -1.44012 0 157 -1.44012 1
gene 1 32 43 -2.92687 0 158 -2.92687 1
gene 1 32 44 1.26781 0 159 1.26781 1
gene 1 32 45 3.32713 0 160 3.32713 1
gene 1 33 41 3.66636 0 161 3.66636 1
gene 1 33 42 0.326143 0 162 0.326143 1
gene 1 33 43 -1.03628 0 163 -1.03628 1
gene 1 33 44 0.741885 0 164 0.741885 1
gene 1 33 45 0.417662 0 165 0.417662 1
gene 1 34 41 0.0769328 0 166 0.0769328 1
gene 1 34 42 0.578559 0 167 0.578559 1
gene 1 34 43 1.14115 0 168 1.14115 1
gene 1 34 44 1.21337 0 169 1.21337 1
gene 1 34 45 0.0504018 0 170 0.0504018 1
gene 1 35 41 0.760936 0 171 0.760936 1
gene 1 35 42 -0.124722 0 172 -0.124722 1
gene 1 35 43 -0.948064 0 173 -0.948064 1
gene 1 35 44 3.18933 0 174 3.18933 1
gene 1 35 45 -0.246239 0 175 -0.246239 1
gene 1 36 41 0.597837 0 176 0.597837 1
gene 1 36 42 1.52042 0 177 1.52042 1
gene 1 36 43 1.03914 0 178 1.03914 1
gene 1 36 44 -0.175389 0 179 -0.175389 1
gene 1 36 45 -0.707931 0 180 -0.707931 1
gene 1 37 41 1.00738 0 181 1.00738 1
gene 1 37 42 -0.0655089 0 182 -0.0655089 1
gene 1 37 43 0.100716 0 183 0.100716 1
gene 1 37 44 0.191238 0 184 0.191238 1
gene 1 37 45 4.01577 0 185 4.01577 1
gene 1 38 41 2.01927 0 186 2.01927 1
gene 1 38 42 -0.400971 0 187 -0.400971 1
gene 1 38 43 -1.67087 0 188 -1.67087 1
gene 1 38 44 -0.829534 0 189 -0.829534 1
gene 1 38 45 0.0519276 0 190 0.0519276 1
gene 1 39 41 1.77117 0 191 1.77117 1
gene 1 39 42 -0.238471 0 192 -0.238471 1
gene 1 39 43 1.57376 0 193 1.57376 1
gene 1 39 44 2.78124 0 194 2.78124 1
gene 1 39 45 -1.44555 0 195 -1.44555 1
gene 1 40 41 1.20989 0 196 1.20989 1
gene 1 40 42 0.599506 0 197 0.599506 1
gene 1 40 43 0.141837 0 198 0.141837 1
gene 1 40 44 -4.23731 0 199 -4.23731 1
gene 1 40 45 1.18224 0 200 1.18224 1
genomeend 0


