/* Organism #0 Fitness: 17157.174000 Time: 0 */
genomestart 0
trait 1 0.000000 0.789630 0.602143 0.000000 0.000000 0.798359 0.000000 0.958118 
node 1 1 1 1
node 2 1 1 1
node 3 1 1 1
node 4 1 1 1
node 5 1 1 1
node 6 1 1 1
node 7 1 1 1
node 8 1 1 1
node 9 1 1 1
node 10 1 1 1
node 11 1 1 1
node 12 1 1 1
node 13 1 1 1
node 14 1 1 1
node 15 1 1 1
node 16 1 1 1
node 17 1 1 1
node 18 1 1 1
node 19 1 1 1
node 20 1 1 1
node 21 1 1 1
node 22 1 1 1
node 23 1 1 1
node 24 1 1 1
node 25 1 1 1
node 26 1 1 1
node 27 1 1 1
node 28 1 1 1
node 29 1 1 1
node 30 1 1 1
node 31 1 1 1
node 32 1 1 1
node 33 1 1 1
node 34 1 1 1
node 35 1 1 1
node 36 1 1 1
node 37 1 1 1
node 38 1 1 1
node 39 1 1 1
node 40 1 1 3
node 41 1 0 2
node 42 1 0 2
node 43 1 0 2
node 44 1 0 2
node 45 1 0 2
gene 1 1 41 1.74617 0 1 1.74617 1
gene 1 1 42 0.918885 0 2 0.918885 1
gene 1 1 43 3.34433 0 3 3.34433 1
gene 1 1 44 2.54317 0 4 2.54317 1
gene 1 1 45 -1.14716 0 5 -1.14716 1
gene 1 2 41 -2.85351 0 6 -2.85351 1
gene 1 2 42 -2.35403 0 7 -2.35403 1
gene 1 2 43 2.39381 0 8 2.39381 1
gene 1 2 44 1.27344 0 9 1.27344 1
gene 1 2 45 -0.129568 0 10 -0.129568 1
gene 1 3 41 3.19661 0 11 3.19661 1
gene 1 3 42 5 0 12 5 1
gene 1 3 43 -1.67531 0 13 -1.67531 1
gene 1 3 44 -1.54107 0 14 -1.54107 1
gene 1 3 45 -0.0484293 0 15 -0.0484293 1
gene 1 4 41 3.24355 0 16 3.24355 1
gene 1 4 42 0.997194 0 17 0.997194 1
gene 1 4 43 2.13904 0 18 2.13904 1
gene 1 4 44 0.472256 0 19 0.472256 1
gene 1 4 45 -1.78755 0 20 -1.78755 1
gene 1 5 41 3.52859 0 21 3.52859 1
gene 1 5 42 2.58335 0 22 2.58335 1
gene 1 5 43 4.69943 0 23 4.69943 1
gene 1 5 44 -3.09557 0 24 -3.09557 1
gene 1 5 45 3.01664 0 25 3.01664 1
gene 1 6 41 -2.95785 0 26 -2.95785 1
gene 1 6 42 0.113171 0 27 0.113171 1
gene 1 6 43 -0.0734144 0 28 -0.0734144 1
gene 1 6 44 -0.717248 0 29 -0.717248 1
gene 1 6 45 -3.71956 0 30 -3.71956 1
gene 1 7 41 0.51051 0 31 0.51051 1
gene 1 7 42 -0.325306 0 32 -0.325306 1
gene 1 7 43 3.55159 0 33 3.55159 1
gene 1 7 44 2.36307 0 34 2.36307 1
gene 1 7 45 4.54948 0 35 4.54948 1
gene 1 8 41 -1.31079 0 36 -1.31079 1
gene 1 8 42 0.143817 0 37 0.143817 1
gene 1 8 43 0.621367 0 38 0.621367 1
gene 1 8 44 -1.50915 0 39 -1.50915 1
gene 1 8 45 -1.31303 0 40 -1.31303 1
gene 1 9 41 0.492337 0 41 0.492337 1
gene 1 9 42 0.153111 0 42 0.153111 1
gene 1 9 43 0.200986 0 43 0.200986 1
gene 1 9 44 -0.327367 0 44 -0.327367 1
gene 1 9 45 4.9317 0 45 4.9317 1
gene 1 10 41 -0.516964 0 46 -0.516964 1
gene 1 10 42 1.46519 0 47 1.46519 1
gene 1 10 43 1.24647 0 48 1.24647 1
gene 1 10 44 -0.000107187 0 49 -0.000107187 1
gene 1 10 45 0.0180918 0 50 0.0180918 1
gene 1 11 41 2.92339 0 51 2.92339 1
gene 1 11 42 -0.519695 0 52 -0.519695 1
gene 1 11 43 -1.95571 0 53 -1.95571 1
gene 1 11 44 2.14306 0 54 2.14306 1
gene 1 11 45 5 0 55 5 1
gene 1 12 41 4.11804 0 56 4.11804 1
gene 1 12 42 -4.44516 0 57 -4.44516 1
gene 1 12 43 4.62439 0 58 4.62439 1
gene 1 12 44 -3.66388 0 59 -3.66388 1
gene 1 12 45 0.18958 0 60 0.18958 1
gene 1 13 41 -0.251253 0 61 -0.251253 1
gene 1 13 42 3.09978 0 62 3.09978 1
gene 1 13 43 -0.876822 0 63 -0.876822 1
gene 1 13 44 1.16993 0 64 1.16993 1
gene 1 13 45 0.201636 0 65 0.201636 1
gene 1 14 41 -3.47291 0 66 -3.47291 1
gene 1 14 42 4.71638 0 67 4.71638 1
gene 1 14 43 -2.90917 0 68 -2.90917 1
gene 1 14 44 -2.16539 0 69 -2.16539 1
gene 1 14 45 -1.2268 0 70 -1.2268 1
gene 1 15 41 -0.564975 0 71 -0.564975 1
gene 1 15 42 0.147536 0 72 0.147536 1
gene 1 15 43 1.92035 0 73 1.92035 1
gene 1 15 44 -1.1925 0 74 -1.1925 1
gene 1 15 45 -0.49465 0 75 -0.49465 1
gene 1 16 41 0.692385 0 76 0.692385 1
gene 1 16 42 4.47104 0 77 4.47104 1
gene 1 16 43 -0.519926 0 78 -0.519926 1
gene 1 16 44 -0.428603 0 79 -0.428603 1
gene 1 16 45 2.74058 0 80 2.74058 1
gene 1 17 41 0.10279 0 81 0.10279 1
gene 1 17 42 0.303918 0 82 0.303918 1
gene 1 17 43 -1.77189 0 83 -1.77189 1
gene 1 17 44 -2.62103 0 84 -2.62103 1
gene 1 17 45 0.56637 0 85 0.56637 1
gene 1 18 41 -2.86399 0 86 -2.86399 1
gene 1 18 42 0.579886 0 87 0.579886 1
gene 1 18 43 2.36396 0 88 2.36396 1
gene 1 18 44 0.685231 0 89 0.685231 1
gene 1 18 45 -2.70911 0 90 -2.70911 1
gene 1 19 41 -2.51619 0 91 -2.51619 1
gene 1 19 42 -4.54837 0 92 -4.54837 1
gene 1 19 43 0.216884 0 93 0.216884 1
gene 1 19 44 2.00517 0 94 2.00517 1
gene 1 19 45 2.3182 0 95 2.3182 1
gene 1 20 41 1.18241 0 96 1.18241 1
gene 1 20 42 0.314526 0 97 0.314526 1
gene 1 20 43 1.29021 0 98 1.29021 1
gene 1 20 44 -1.87534 0 99 -1.87534 1
gene 1 20 45 4.05725 0 100 4.05725 1
gene 1 21 41 -0.456105 0 101 -0.456105 1
gene 1 21 42 0.0647285 0 102 0.0647285 1
gene 1 21 43 -0.0959545 0 103 -0.0959545 1
gene 1 21 44 -4.31348 0 104 -4.31348 1
gene 1 21 45 -0.0422962 0 105 -0.0422962 1
gene 1 22 41 -1.55451 0 106 -1.55451 1
gene 1 22 42 1.77458 0 107 1.77458 1
gene 1 22 43 1.02451 0 108 1.02451 1
gene 1 22 44 0.788828 0 109 0.788828 1
gene 1 22 45 -1.27809 0 110 -1.27809 1
gene 1 23 41 1.51901 0 111 1.51901 1
gene 1 23 42 3.88861 0 112 3.88861 1
gene 1 23 43 0.463034 0 113 0.463034 1
gene 1 23 44 -1.91397 0 114 -1.91397 1
gene 1 23 45 3.98407 0 115 3.98407 1
gene 1 24 41 2.15254 0 116 2.15254 1
gene 1 24 42 2.76812 0 117 2.76812 1
gene 1 24 43 2.04354 0 118 2.04354 1
gene 1 24 44 -0.978022 0 119 -0.978022 1
gene 1 24 45 -2.61295 0 120 -2.61295 1
gene 1 25 41 -1.76719 0 121 -1.76719 1
gene 1 25 42 0.634479 0 122 0.634479 1
gene 1 25 43 -2.47382 0 123 -2.47382 1
gene 1 25 44 -0.0863077 0 124 -0.0863077 1
gene 1 25 45 -0.167367 0 125 -0.167367 1
gene 1 26 41 4.55254 0 126 4.55254 1
gene 1 26 42 -0.459098 0 127 -0.459098 1
gene 1 26 43 -0.0359146 0 128 -0.0359146 1
gene 1 26 44 -1.71984 0 129 -1.71984 1
gene 1 26 45 1.73175 0 130 1.73175 1
gene 1 27 41 -2.82352 0 131 -2.82352 1
gene 1 27 42 2.13283 0 132 2.13283 1
gene 1 27 43 2.35933 0 133 2.35933 1
gene 1 27 44 2.95064 0 134 2.95064 1
gene 1 27 45 1.71775 0 135 1.71775 1
gene 1 28 41 -1.22424 0 136 -1.22424 1
gene 1 28 42 1.36625 0 137 1.36625 1
gene 1 28 43 -4.1499 0 138 -4.1499 1
gene 1 28 44 -1.09644 0 139 -1.09644 1
gene 1 28 45 2.64066 0 140 2.64066 1
gene 1 29 41 -0.916137 0 141 -0.916137 1
gene 1 29 42 1.10928 0 142 1.10928 1
gene 1 29 43 0.620214 0 143 0.620214 1
gene 1 29 44 -0.547384 0 144 -0.547384 1
gene 1 29 45 3.55331 0 145 3.55331 1
gene 1 30 41 -1.71089 0 146 -1.71089 1
gene 1 30 42 -2.92395 0 147 -2.92395 1
gene 1 30 43 0.02689 0 148 0.02689 1
gene 1 30 44 4.24776 0 149 4.24776 1
gene 1 30 45 2.78264 0 150 2.78264 1
gene 1 31 41 -5 0 151 -5 1
gene 1 31 42 -0.444459 0 152 -0.444459 1
gene 1 31 43 -3.58594 0 153 -3.58594 1
gene 1 31 44 -2.69186 0 154 -2.69186 1
gene 1 31 45 -1.36142 0 155 -1.36142 1
gene 1 32 41 5 0 156 5 1
gene 1 32 42 -3.91119 0 157 -3.91119 1
gene 1 32 43 1.75534 0 158 1.75534 1
gene 1 32 44 -1.04994 0 159 -1.04994 1
gene 1 32 45 -0.292747 0 160 -0.292747 1
gene 1 33 41 -5 0 161 -5 1
gene 1 33 42 0.384099 0 162 0.384099 1
gene 1 33 43 3.27803 0 163 3.27803 1
gene 1 33 44 0.355307 0 164 0.355307 1
gene 1 33 45 0.957044 0 165 0.957044 1
gene 1 34 41 -0.879691 0 166 -0.879691 1
gene 1 34 42 0.221633 0 167 0.221633 1
gene 1 34 43 -1.52073 0 168 -1.52073 1
gene 1 34 44 -0.765527 0 169 -0.765527 1
gene 1 34 45 -1.37365 0 170 -1.37365 1
gene 1 35 41 0.421162 0 171 0.421162 1
gene 1 35 42 -0.848847 0 172 -0.848847 1
gene 1 35 43 -0.55048 0 173 -0.55048 1
gene 1 35 44 0.295458 0 174 0.295458 1
gene 1 35 45 -0.915741 0 175 -0.915741 1
gene 1 36 41 0.232425 0 176 0.232425 1
gene 1 36 42 2.38902 0 177 2.38902 1
gene 1 36 43 -1.33342 0 178 -1.33342 1
gene 1 36 44 -1.07465 0 179 -1.07465 1
gene 1 36 45 -1.15365 0 180 -1.15365 1
gene 1 37 41 1.43487 0 181 1.43487 1
gene 1 37 42 -2.10328 0 182 -2.10328 1
gene 1 37 43 -0.240103 0 183 -0.240103 1
gene 1 37 44 -0.816024 0 184 -0.816024 1
gene 1 37 45 0.89504 0 185 0.89504 1
gene 1 38 41 -0.434298 0 186 -0.434298 1
gene 1 38 42 0.357974 0 187 0.357974 1
gene 1 38 43 -0.561021 0 188 -0.561021 1
gene 1 38 44 -0.502334 0 189 -0.502334 1
gene 1 38 45 -0.309586 0 190 -0.309586 1
gene 1 39 41 2.0438 0 191 2.0438 1
gene 1 39 42 -0.921836 0 192 -0.921836 1
gene 1 39 43 -0.85947 0 193 -0.85947 1
gene 1 39 44 -0.19381 0 194 -0.19381 1
gene 1 39 45 2.31235 0 195 2.31235 1
gene 1 40 41 0.212832 0 196 0.212832 1
gene 1 40 42 -0.0349461 0 197 -0.0349461 1
gene 1 40 43 0.449878 0 198 0.449878 1
gene 1 40 44 -2.81988 0 199 -2.81988 1
gene 1 40 45 0.497613 0 200 0.497613 1
genomeend 0


