/* Organism #3 Fitness: 19400.422000 Time: 0 */
genomestart 3
trait 1 0.000000 0.221397 0.000000 0.000000 0.000000 0.000000 0.331405 0.179431 
node 1 1 1 1
node 2 1 1 1
node 3 1 1 1
node 4 1 1 1
node 5 1 1 1
node 6 1 1 1
node 7 1 1 1
node 8 1 1 1
node 9 1 1 1
node 10 1 1 1
node 11 1 1 1
node 12 1 1 1
node 13 1 1 1
node 14 1 1 1
node 15 1 1 1
node 16 1 1 1
node 17 1 1 1
node 18 1 1 1
node 19 1 1 1
node 20 1 1 1
node 21 1 1 1
node 22 1 1 1
node 23 1 1 1
node 24 1 1 1
node 25 1 1 1
node 26 1 1 1
node 27 1 1 1
node 28 1 1 1
node 29 1 1 1
node 30 1 1 1
node 31 1 1 1
node 32 1 1 1
node 33 1 1 1
node 34 1 1 1
node 35 1 1 1
node 36 1 1 1
node 37 1 1 1
node 38 1 1 1
node 39 1 1 1
node 40 1 1 3
node 41 1 0 2
node 42 1 0 2
node 43 1 0 2
node 44 1 0 2
node 45 1 0 2
gene 1 1 41 1.76374 0 1 1.76374 1
gene 1 1 42 0.279732 0 2 0.279732 1
gene 1 1 43 -0.236797 0 3 -0.236797 1
gene 1 1 44 -1.16832 0 4 -1.16832 1
gene 1 1 45 4.09643 0 5 4.09643 1
gene 1 2 41 -0.843117 0 6 -0.843117 1
gene 1 2 42 -2.78714 0 7 -2.78714 1
gene 1 2 43 1.50299 0 8 1.50299 1
gene 1 2 44 -1.53205 0 9 -1.53205 1
gene 1 2 45 2.30325 0 10 2.30325 1
gene 1 3 41 -3.37916 0 11 -3.37916 1
gene 1 3 42 0.0449726 0 12 0.0449726 1
gene 1 3 43 5 0 13 5 1
gene 1 3 44 -0.626529 0 14 -0.626529 1
gene 1 3 45 0.384743 0 15 0.384743 1
gene 1 4 41 1.01323 0 16 1.01323 1
gene 1 4 42 -0.939678 0 17 -0.939678 1
gene 1 4 43 0.137243 0 18 0.137243 1
gene 1 4 44 -1.76411 0 19 -1.76411 1
gene 1 4 45 0.362168 0 20 0.362168 1
gene 1 5 41 -2.41387 0 21 -2.41387 1
gene 1 5 42 0.987328 0 22 0.987328 1
gene 1 5 43 0.525074 0 23 0.525074 1
gene 1 5 44 -0.705807 0 24 -0.705807 1
gene 1 5 45 4.50046 0 25 4.50046 1
gene 1 6 41 1.53879 0 26 1.53879 1
gene 1 6 42 0.405482 0 27 0.405482 1
gene 1 6 43 -0.732298 0 28 -0.732298 1
gene 1 6 44 -3.14887 0 29 -3.14887 1
gene 1 6 45 0.905543 0 30 0.905543 1
gene 1 7 41 -1.14841 0 31 -1.14841 1
gene 1 7 42 0.344189 0 32 0.344189 1
gene 1 7 43 -1.83504 0 33 -1.83504 1
gene 1 7 44 -1.66956 0 34 -1.66956 1
gene 1 7 45 -0.699859 0 35 -0.699859 1
gene 1 8 41 1.01873 0 36 1.01873 1
gene 1 8 42 -4.54975 0 37 -4.54975 1
gene 1 8 43 -3.0502 0 38 -3.0502 1
gene 1 8 44 -3.43197 0 39 -3.43197 1
gene 1 8 45 2.82837 0 40 2.82837 1
gene 1 9 41 0.0441382 0 41 0.0441382 1
gene 1 9 42 -2.28309 0 42 -2.28309 1
gene 1 9 43 1.90422 0 43 1.90422 1
gene 1 9 44 -0.858586 0 44 -0.858586 1
gene 1 9 45 -1.96972 0 45 -1.96972 1
gene 1 10 41 -4.04152 0 46 -4.04152 1
gene 1 10 42 -1.75855 0 47 -1.75855 1
gene 1 10 43 2.36417 0 48 2.36417 1
gene 1 10 44 0.424483 0 49 0.424483 1
gene 1 10 45 -0.480992 0 50 -0.480992 1
gene 1 11 41 -5 0 51 -5 1
gene 1 11 42 2.74006 0 52 2.74006 1
gene 1 11 43 1.73821 0 53 1.73821 1
gene 1 11 44 1.53873 0 54 1.53873 1
gene 1 11 45 -1.05126 0 55 -1.05126 1
gene 1 12 41 -1.23454 0 56 -1.23454 1
gene 1 12 42 -0.11798 0 57 -0.11798 1
gene 1 12 43 1.42773 0 58 1.42773 1
gene 1 12 44 -2.10924 0 59 -2.10924 1
gene 1 12 45 -4.02995 0 60 -4.02995 1
gene 1 13 41 -2.0643 0 61 -2.0643 1
gene 1 13 42 2.89671 0 62 2.89671 1
gene 1 13 43 3.30567 0 63 3.30567 1
gene 1 13 44 3.18441 0 64 3.18441 1
gene 1 13 45 -2.29467 0 65 -2.29467 1
gene 1 14 41 0.647505 0 66 0.647505 1
gene 1 14 42 1.86052 0 67 1.86052 1
gene 1 14 43 -4.47145 0 68 -4.47145 1
gene 1 14 44 -2.12361 0 69 -2.12361 1
gene 1 14 45 0.0317318 0 70 0.0317318 1
gene 1 15 41 4.69945 0 71 4.69945 1
gene 1 15 42 -4.6977 0 72 -4.6977 1
gene 1 15 43 -0.695721 0 73 -0.695721 1
gene 1 15 44 -1.24998 0 74 -1.24998 1
gene 1 15 45 -1.77201 0 75 -1.77201 1
gene 1 16 41 4.22987 0 76 4.22987 1
gene 1 16 42 0.321446 0 77 0.321446 1
gene 1 16 43 2.40456 0 78 2.40456 1
gene 1 16 44 4.25455 0 79 4.25455 1
gene 1 16 45 5 0 80 5 1
gene 1 17 41 1.71311 0 81 1.71311 1
gene 1 17 42 3.12008 0 82 3.12008 1
gene 1 17 43 0.0477237 0 83 0.0477237 1
gene 1 17 44 -3.3804 0 84 -3.3804 1
gene 1 17 45 1.82371 0 85 1.82371 1
gene 1 18 41 2.82251 0 86 2.82251 1
gene 1 18 42 2.60897 0 87 2.60897 1
gene 1 18 43 1.24272 0 88 1.24272 1
gene 1 18 44 0.535717 0 89 0.535717 1
gene 1 18 45 -3.02832 0 90 -3.02832 1
gene 1 19 41 -0.501086 0 91 -0.501086 1
gene 1 19 42 -0.825951 0 92 -0.825951 1
gene 1 19 43 0.817689 0 93 0.817689 1
gene 1 19 44 1.37116 0 94 1.37116 1
gene 1 19 45 2.17787 0 95 2.17787 1
gene 1 20 41 -2.07408 0 96 -2.07408 1
gene 1 20 42 -2.30662 0 97 -2.30662 1
gene 1 20 43 0.827038 0 98 0.827038 1
gene 1 20 44 -0.700315 0 99 -0.700315 1
gene 1 20 45 1.48782 0 100 1.48782 1
gene 1 21 41 3.11545 0 101 3.11545 1
gene 1 21 42 -1.16699 0 102 -1.16699 1
gene 1 21 43 4.24362 0 103 4.24362 1
gene 1 21 44 0.855125 0 104 0.855125 1
gene 1 21 45 -0.227726 0 105 -0.227726 1
gene 1 22 41 1.67375 0 106 1.67375 1
gene 1 22 42 -0.312888 0 107 -0.312888 1
gene 1 22 43 -0.216181 0 108 -0.216181 1
gene 1 22 44 3.43217 0 109 3.43217 1
gene 1 22 45 -2.23594 0 110 -2.23594 1
gene 1 23 41 0.569242 0 111 0.569242 1
gene 1 23 42 -0.998149 0 112 -0.998149 1
gene 1 23 43 2.29974 0 113 2.29974 1
gene 1 23 44 0.948885 0 114 0.948885 1
gene 1 23 45 -1.44112 0 115 -1.44112 1
gene 1 24 41 1.72486 0 116 1.72486 1
gene 1 24 42 5 0 117 5 1
gene 1 24 43 -3.40435 0 118 -3.40435 1
gene 1 24 44 1.35219 0 119 1.35219 1
gene 1 24 45 5 0 120 5 1
gene 1 25 41 -4.02201 0 121 -4.02201 1
gene 1 25 42 -3.19657 0 122 -3.19657 1
gene 1 25 43 1.82342 0 123 1.82342 1
gene 1 25 44 1.54044 0 124 1.54044 1
gene 1 25 45 -4.13793 0 125 -4.13793 1
gene 1 26 41 -0.263365 0 126 -0.263365 1
gene 1 26 42 1.37667 0 127 1.37667 1
gene 1 26 43 -1.53989 0 128 -1.53989 1
gene 1 26 44 -1.39227 0 129 -1.39227 1
gene 1 26 45 -0.0571541 0 130 -0.0571541 1
gene 1 27 41 1.52155 0 131 1.52155 1
gene 1 27 42 2.45252 0 132 2.45252 1
gene 1 27 43 -1.74936 0 133 -1.74936 1
gene 1 27 44 -0.634878 0 134 -0.634878 1
gene 1 27 45 -3.50993 0 135 -3.50993 1
gene 1 28 41 -2.91491 0 136 -2.91491 1
gene 1 28 42 -2.41281 0 137 -2.41281 1
gene 1 28 43 1.21293 0 138 1.21293 1
gene 1 28 44 0.425201 0 139 0.425201 1
gene 1 28 45 0.465737 0 140 0.465737 1
gene 1 29 41 -2.57986 0 141 -2.57986 1
gene 1 29 42 -1.06541 0 142 -1.06541 1
gene 1 29 43 -3.54628 0 143 -3.54628 1
gene 1 29 44 0.96743 0 144 0.96743 1
gene 1 29 45 -1.45824 0 145 -1.45824 1
gene 1 30 41 0.30239 0 146 0.30239 1
gene 1 30 42 3.81409 0 147 3.81409 1
gene 1 30 43 -1.54705 0 148 -1.54705 1
gene 1 30 44 3.82451 0 149 3.82451 1
gene 1 30 45 -4.18168 0 150 -4.18168 1
gene 1 31 41 2.76675 0 151 2.76675 1
gene 1 31 42 3.81351 0 152 3.81351 1
gene 1 31 43 2.03176 0 153 2.03176 1
gene 1 31 44 2.56865 0 154 2.56865 1
gene 1 31 45 -4.66313 0 155 -4.66313 1
gene 1 32 41 3.15383 0 156 3.15383 1
gene 1 32 42 -0.440479 0 157 -0.440479 1
gene 1 32 43 -5 0 158 -5 1
gene 1 32 44 -4.36971 0 159 -4.36971 1
gene 1 32 45 3.98591 0 160 3.98591 1
gene 1 33 41 -0.998673 0 161 -0.998673 1
gene 1 33 42 -0.978033 0 162 -0.978033 1
gene 1 33 43 -0.22961 0 163 -0.22961 1
gene 1 33 44 1.31735 0 164 1.31735 1
gene 1 33 45 1.06724 0 165 1.06724 1
gene 1 34 41 0.74222 0 166 0.74222 1
gene 1 34 42 -1.30962 0 167 -1.30962 1
gene 1 34 43 0.827992 0 168 0.827992 1
gene 1 34 44 -0.00518112 0 169 -0.00518112 1
gene 1 34 45 0.151794 0 170 0.151794 1
gene 1 35 41 -0.256718 0 171 -0.256718 1
gene 1 35 42 -5 0 172 -5 1
gene 1 35 43 -0.28918 0 173 -0.28918 1
gene 1 35 44 0.843506 0 174 0.843506 1
gene 1 35 45 0.0890872 0 175 0.0890872 1
gene 1 36 41 -0.721257 0 176 -0.721257 1
gene 1 36 42 0.164945 0 177 0.164945 1
gene 1 36 43 -0.610079 0 178 -0.610079 1
gene 1 36 44 1.44039 0 179 1.44039 1
gene 1 36 45 -0.446516 0 180 -0.446516 1
gene 1 37 41 1.30165 0 181 1.30165 1
gene 1 37 42 1.31495 0 182 1.31495 1
gene 1 37 43 1.96352 0 183 1.96352 1
gene 1 37 44 0.164536 0 184 0.164536 1
gene 1 37 45 -1.11457 0 185 -1.11457 1
gene 1 38 41 1.19118 0 186 1.19118 1
gene 1 38 42 0.933442 0 187 0.933442 1
gene 1 38 43 -2.3799 0 188 -2.3799 1
gene 1 38 44 0.254385 0 189 0.254385 1
gene 1 38 45 -0.408003 0 190 -0.408003 1
gene 1 39 41 0.373145 0 191 0.373145 1
gene 1 39 42 0.0343963 0 192 0.0343963 1
gene 1 39 43 -0.437972 0 193 -0.437972 1
gene 1 39 44 0.234329 0 194 0.234329 1
gene 1 39 45 0.356116 0 195 0.356116 1
gene 1 40 41 -0.638978 0 196 -0.638978 1
gene 1 40 42 0.993857 0 197 0.993857 1
gene 1 40 43 -0.945672 0 198 -0.945672 1
gene 1 40 44 -2.88487 0 199 -2.88487 1
gene 1 40 45 -0.247416 0 200 -0.247416 1
genomeend 3


