/* Organism #12 Fitness: 12979.088000 Time: 0 */
genomestart 12
trait 1 0.000000 0.000000 0.000000 0.000000 0.000000 0.375148 0.071044 1.000000 
node 1 1 1 1
node 2 1 1 1
node 3 1 1 1
node 4 1 1 1
node 5 1 1 1
node 6 1 1 1
node 7 1 1 1
node 8 1 1 1
node 9 1 1 1
node 10 1 1 1
node 11 1 1 1
node 12 1 1 1
node 13 1 1 1
node 14 1 1 1
node 15 1 1 1
node 16 1 1 1
node 17 1 1 1
node 18 1 1 1
node 19 1 1 1
node 20 1 1 1
node 21 1 1 1
node 22 1 1 1
node 23 1 1 1
node 24 1 1 1
node 25 1 1 1
node 26 1 1 3
node 27 1 0 2
node 28 1 0 2
node 29 1 0 2
gene 1 1 27 -0.239083 0 1 -0.239083 1
gene 1 1 28 -0.309897 0 2 -0.309897 1
gene 1 1 29 -0.527514 0 3 -0.527514 1
gene 1 2 27 -0.963061 0 4 -0.963061 1
gene 1 2 28 0.0538953 0 5 0.0538953 1
gene 1 2 29 0.80057 0 6 0.80057 1
gene 1 3 27 -0.492643 0 7 -0.492643 1
gene 1 3 28 -2.98939 0 8 -2.98939 1
gene 1 3 29 1.10477 0 9 1.10477 1
gene 1 4 27 2.64942 0 10 2.64942 1
gene 1 4 28 -0.00821535 0 11 -0.00821535 1
gene 1 4 29 2.31452 0 12 2.31452 1
gene 1 5 27 0.763283 0 13 0.763283 1
gene 1 5 28 0.232338 0 14 0.232338 1
gene 1 5 29 0.295313 0 15 0.295313 1
gene 1 6 27 2.70013 0 16 2.70013 1
gene 1 6 28 -2.04507 0 17 -2.04507 1
gene 1 6 29 0.305971 0 18 0.305971 1
gene 1 7 27 1.01007 0 19 1.01007 1
gene 1 7 28 -0.110407 0 20 -0.110407 1
gene 1 7 29 4.16769 0 21 4.16769 1
gene 1 8 27 -0.210844 0 22 -0.210844 1
gene 1 8 28 -0.0715403 0 23 -0.0715403 1
gene 1 8 29 -0.624597 0 24 -0.624597 1
gene 1 9 27 1.24591 0 25 1.24591 1
gene 1 9 28 0.263955 0 26 0.263955 1
gene 1 9 29 1.33079 0 27 1.33079 1
gene 1 10 27 0.853365 0 28 0.853365 1
gene 1 10 28 1.05909 0 29 1.05909 1
gene 1 10 29 0.452974 0 30 0.452974 1
gene 1 11 27 1.16526 0 27 1.16526 1
gene 1 11 28 5 0 32 5 1
gene 1 11 29 3.9991 0 33 3.9991 1
gene 1 12 27 -0.80107 0 34 -0.80107 1
gene 1 12 28 1.64456 0 35 1.64456 1
gene 1 12 29 0.466264 0 36 0.466264 1
gene 1 13 27 4.44803 0 37 4.44803 1
gene 1 13 28 1.08987 0 38 1.08987 1
gene 1 13 29 -2.38647 0 39 -2.38647 1
gene 1 14 27 -0.678033 0 40 -0.678033 1
gene 1 14 28 -1.04369 0 41 -1.04369 1
gene 1 14 29 -0.446217 0 42 -0.446217 1
gene 1 15 27 -1.23685 0 43 -1.23685 1
gene 1 15 28 1.62779 0 44 1.62779 1
gene 1 15 29 1.45585 0 45 1.45585 1
gene 1 16 27 -4.50348 0 46 -4.50348 1
gene 1 16 28 0.588051 0 47 0.588051 1
gene 1 16 29 -1.26761 0 48 -1.26761 1
gene 1 17 27 -3.51188 0 49 -3.51188 1
gene 1 17 28 2.04443 0 50 2.04443 1
gene 1 17 29 0.488072 0 51 0.488072 1
gene 1 18 27 0.232063 0 52 0.232063 1
gene 1 18 28 -3.22058 0 53 -3.22058 1
gene 1 18 29 -2.3761 0 54 -2.3761 1
gene 1 19 27 -2.26074 0 55 -2.26074 1
gene 1 19 28 -1.38737 0 56 -1.38737 1
gene 1 19 29 -0.40633 0 57 -0.40633 1
gene 1 20 27 -0.0460926 0 58 -0.0460926 1
gene 1 20 28 -3.64193 0 59 -3.64193 1
gene 1 20 29 -0.895949 0 60 -0.895949 1
gene 1 21 27 0.461001 0 61 0.461001 1
gene 1 21 28 -0.192523 0 62 -0.192523 1
gene 1 21 29 -0.870775 0 63 -0.870775 1
gene 1 22 27 -0.403054 0 64 -0.403054 1
gene 1 22 28 -1.22245 0 65 -1.22245 1
gene 1 22 29 -0.324947 0 66 -0.324947 1
gene 1 23 27 0.656737 0 67 0.656737 1
gene 1 23 28 -0.288186 0 68 -0.288186 1
gene 1 23 29 3.11398 0 69 3.11398 1
gene 1 24 27 1.2992 0 70 1.2992 1
gene 1 24 28 0.175435 0 71 0.175435 1
gene 1 24 29 0.555638 0 72 0.555638 1
gene 1 25 27 -2.00696 0 73 -2.00696 1
gene 1 25 28 0.0802429 0 74 0.0802429 1
gene 1 25 29 0.316984 0 75 0.316984 1
gene 1 26 27 -0.524107 0 76 -0.524107 1
gene 1 26 28 0.701254 0 77 0.701254 1
gene 1 26 29 -1.63172 0 78 -1.63172 1
genomeend 12


