/* Organism #56 Fitness: 12863.578000 Time: 0 */
genomestart 56
trait 1 0.000000 0.000000 0.835508 1.000000 0.820417 1.000000 0.389617 0.000000 
node 1 1 1 1
node 2 1 1 1
node 3 1 1 1
node 4 1 1 1
node 5 1 1 1
node 6 1 1 1
node 7 1 1 1
node 8 1 1 1
node 9 1 1 1
node 10 1 1 1
node 11 1 1 1
node 12 1 1 1
node 13 1 1 1
node 14 1 1 1
node 15 1 1 1
node 16 1 1 1
node 17 1 1 1
node 18 1 1 1
node 19 1 1 1
node 20 1 1 1
node 21 1 1 1
node 22 1 1 1
node 23 1 1 1
node 24 1 1 1
node 25 1 1 1
node 26 1 1 3
node 27 1 0 2
node 28 1 0 2
node 29 1 0 2
gene 1 1 27 -0.0924895 0 1 -0.0924895 1
gene 1 1 28 -0.329932 0 2 -0.329932 1
gene 1 1 29 -0.103084 0 3 -0.103084 1
gene 1 2 27 2.69656 0 4 2.69656 1
gene 1 2 28 -0.275075 0 5 -0.275075 1
gene 1 2 29 -1.23431 0 6 -1.23431 1
gene 1 3 27 -0.775487 0 7 -0.775487 1
gene 1 3 28 1.69396 0 8 1.69396 1
gene 1 3 29 0.372999 0 9 0.372999 1
gene 1 4 27 -0.136518 0 10 -0.136518 1
gene 1 4 28 1.38237 0 11 1.38237 1
gene 1 4 29 -3.2254 0 12 -3.2254 1
gene 1 5 27 0.694394 0 13 0.694394 1
gene 1 5 28 -1.04548 0 14 -1.04548 1
gene 1 5 29 -0.373227 0 15 -0.373227 1
gene 1 6 27 0.0790737 0 16 0.0790737 1
gene 1 6 28 1.18895 0 17 1.18895 1
gene 1 6 29 -0.686549 0 18 -0.686549 1
gene 1 7 27 -0.121071 0 19 -0.121071 1
gene 1 7 28 0.792239 0 20 0.792239 1
gene 1 7 29 -0.630414 0 21 -0.630414 1
gene 1 8 27 2.30433 0 22 2.30433 1
gene 1 8 28 -3.94688 0 23 -3.94688 1
gene 1 8 29 0.256445 0 24 0.256445 1
gene 1 9 27 1.06296 0 25 1.06296 1
gene 1 9 28 -0.829244 0 26 -0.829244 1
gene 1 9 29 0.0116164 0 27 0.0116164 1
gene 1 10 27 -0.969597 0 28 -0.969597 1
gene 1 10 28 -3.25639 0 29 -3.25639 1
gene 1 10 29 -0.143193 0 30 -0.143193 1
gene 1 11 27 -0.205396 0 27 -0.205396 1
gene 1 11 28 1.29427 0 32 1.29427 1
gene 1 11 29 -0.410072 0 33 -0.410072 1
gene 1 12 27 -3.10754 0 34 -3.10754 1
gene 1 12 28 3.55147 0 35 3.55147 1
gene 1 12 29 -0.875482 0 36 -0.875482 1
gene 1 13 27 -0.830063 0 37 -0.830063 1
gene 1 13 28 -2.43224 0 38 -2.43224 1
gene 1 13 29 -0.828133 0 39 -0.828133 1
gene 1 14 27 3.2643 0 40 3.2643 1
gene 1 14 28 0.355944 0 41 0.355944 1
gene 1 14 29 0.993242 0 42 0.993242 1
gene 1 15 27 -4.14938 0 43 -4.14938 1
gene 1 15 28 -0.0654701 0 44 -0.0654701 1
gene 1 15 29 -0.354714 0 45 -0.354714 1
gene 1 16 27 -0.549324 0 46 -0.549324 1
gene 1 16 28 -1.74719 0 47 -1.74719 1
gene 1 16 29 0.101226 0 48 0.101226 1
gene 1 17 27 1.98037 0 49 1.98037 1
gene 1 17 28 2.2257 0 50 2.2257 1
gene 1 17 29 -0.509779 0 51 -0.509779 1
gene 1 18 27 -0.702631 0 52 -0.702631 1
gene 1 18 28 -1.48489 0 53 -1.48489 1
gene 1 18 29 -0.10286 0 54 -0.10286 1
gene 1 19 27 -0.622958 0 55 -0.622958 1
gene 1 19 28 1.45058 0 56 1.45058 1
gene 1 19 29 -3.71988 0 57 -3.71988 1
gene 1 20 27 1.81954 0 58 1.81954 1
gene 1 20 28 -3.31148 0 59 -3.31148 1
gene 1 20 29 0.0165083 0 60 0.0165083 1
gene 1 21 27 0.173503 0 61 0.173503 1
gene 1 21 28 3.91194 0 62 3.91194 1
gene 1 21 29 0.033407 0 63 0.033407 1
gene 1 22 27 -0.634506 0 64 -0.634506 1
gene 1 22 28 1.1477 0 65 1.1477 1
gene 1 22 29 0.205409 0 66 0.205409 1
gene 1 23 27 -0.89337 0 67 -0.89337 1
gene 1 23 28 0.302764 0 68 0.302764 1
gene 1 23 29 -1.11122 0 69 -1.11122 1
gene 1 24 27 0.902632 0 70 0.902632 1
gene 1 24 28 2.8151 0 71 2.8151 1
gene 1 24 29 3.01931 0 72 3.01931 1
gene 1 25 27 0.772125 0 73 0.772125 1
gene 1 25 28 0.0541687 0 74 0.0541687 1
gene 1 25 29 0.232567 0 75 0.232567 1
gene 1 26 27 -0.771687 0 76 -0.771687 1
gene 1 26 28 -1.33287 0 77 -1.33287 1
gene 1 26 29 -0.0227425 0 78 -0.0227425 1
genomeend 56


