/* Organism #3 Fitness: 13100.008000 Time: 0 */
genomestart 3
trait 1 0.000000 0.000000 0.158912 0.000000 1.000000 0.000000 0.888603 0.264592 
node 1 1 1 1
node 2 1 1 1
node 3 1 1 1
node 4 1 1 1
node 5 1 1 1
node 6 1 1 1
node 7 1 1 1
node 8 1 1 1
node 9 1 1 1
node 10 1 1 1
node 11 1 1 1
node 12 1 1 1
node 13 1 1 1
node 14 1 1 1
node 15 1 1 1
node 16 1 1 1
node 17 1 1 1
node 18 1 1 1
node 19 1 1 1
node 20 1 1 1
node 21 1 1 1
node 22 1 1 1
node 23 1 1 1
node 24 1 1 1
node 25 1 1 1
node 26 1 1 3
node 27 1 0 2
node 28 1 0 2
node 29 1 0 2
gene 1 1 27 0.104273 0 1 0.104273 1
gene 1 1 28 0.738019 0 2 0.738019 1
gene 1 1 29 -1.39945 0 3 -1.39945 1
gene 1 2 27 1.22737 0 4 1.22737 1
gene 1 2 28 1.14996 0 5 1.14996 1
gene 1 2 29 1.98088 0 6 1.98088 1
gene 1 3 27 3.69798 0 7 3.69798 1
gene 1 3 28 -0.888103 0 8 -0.888103 1
gene 1 3 29 0.982644 0 9 0.982644 1
gene 1 4 27 0.872408 0 10 0.872408 1
gene 1 4 28 -0.286804 0 11 -0.286804 1
gene 1 4 29 0.779404 0 12 0.779404 1
gene 1 5 27 -1.47092 0 13 -1.47092 1
gene 1 5 28 -3.55685 0 14 -3.55685 1
gene 1 5 29 1.42221 0 15 1.42221 1
gene 1 6 27 0.238428 0 16 0.238428 1
gene 1 6 28 -2.58742 0 17 -2.58742 1
gene 1 6 29 -0.985753 0 18 -0.985753 1
gene 1 7 27 0.67034 0 19 0.67034 1
gene 1 7 28 -1.56862 0 20 -1.56862 1
gene 1 7 29 1.81954 0 21 1.81954 1
gene 1 8 27 -0.990056 0 22 -0.990056 1
gene 1 8 28 -0.388072 0 23 -0.388072 1
gene 1 8 29 0.939942 0 24 0.939942 1
gene 1 9 27 2.24285 0 25 2.24285 1
gene 1 9 28 0.729993 0 26 0.729993 1
gene 1 9 29 -1.22998 0 27 -1.22998 1
gene 1 10 27 -1.00908 0 28 -1.00908 1
gene 1 10 28 -0.104248 0 29 -0.104248 1
gene 1 10 29 -0.715456 0 30 -0.715456 1
gene 1 11 27 2.94631 0 27 2.94631 1
gene 1 11 28 4.41855 0 32 4.41855 1
gene 1 11 29 -0.245471 0 33 -0.245471 1
gene 1 12 27 2.00984 0 34 2.00984 1
gene 1 12 28 -0.0976057 0 35 -0.0976057 1
gene 1 12 29 -1.57046 0 36 -1.57046 1
gene 1 13 27 -0.348412 0 37 -0.348412 1
gene 1 13 28 -1.71988 0 38 -1.71988 1
gene 1 13 29 -0.640692 0 39 -0.640692 1
gene 1 14 27 -0.915345 0 40 -0.915345 1
gene 1 14 28 -4.59087 0 41 -4.59087 1
gene 1 14 29 0.226329 0 42 0.226329 1
gene 1 15 27 0.146346 0 43 0.146346 1
gene 1 15 28 -3.66067 0 44 -3.66067 1
gene 1 15 29 -2.34397 0 45 -2.34397 1
gene 1 16 27 4.10395 0 46 4.10395 1
gene 1 16 28 -0.0818479 0 47 -0.0818479 1
gene 1 16 29 -1.06825 0 48 -1.06825 1
gene 1 17 27 -0.0284885 0 49 -0.0284885 1
gene 1 17 28 1.14374 0 50 1.14374 1
gene 1 17 29 -0.571742 0 51 -0.571742 1
gene 1 18 27 -0.544295 0 52 -0.544295 1
gene 1 18 28 0.912617 0 53 0.912617 1
gene 1 18 29 1.40651 0 54 1.40651 1
gene 1 19 27 0.432496 0 55 0.432496 1
gene 1 19 28 0.428458 0 56 0.428458 1
gene 1 19 29 1.80652 0 57 1.80652 1
gene 1 20 27 0.668023 0 58 0.668023 1
gene 1 20 28 0.826481 0 59 0.826481 1
gene 1 20 29 -0.415976 0 60 -0.415976 1
gene 1 21 27 2.85997 0 61 2.85997 1
gene 1 21 28 -0.165239 0 62 -0.165239 1
gene 1 21 29 1.26449 0 63 1.26449 1
gene 1 22 27 -0.940732 0 64 -0.940732 1
gene 1 22 28 -0.152903 0 65 -0.152903 1
gene 1 22 29 0.698787 0 66 0.698787 1
gene 1 23 27 -0.680971 0 67 -0.680971 1
gene 1 23 28 -0.289437 0 68 -0.289437 1
gene 1 23 29 -0.860176 0 69 -0.860176 1
gene 1 24 27 1.86424 0 70 1.86424 1
gene 1 24 28 0.499203 0 71 0.499203 1
gene 1 24 29 0.749783 0 72 0.749783 1
gene 1 25 27 0.940677 0 73 0.940677 1
gene 1 25 28 -0.803753 0 74 -0.803753 1
gene 1 25 29 -0.549293 0 75 -0.549293 1
gene 1 26 27 2.0424 0 76 2.0424 1
gene 1 26 28 1.53322 0 77 1.53322 1
gene 1 26 29 -2.01816 0 78 -2.01816 1
genomeend 3


