/* Organism #27 Fitness: 12595.420000 Time: 0 */
genomestart 27
trait 1 1.000000 0.000000 1.000000 0.000000 0.927891 0.702835 0.645692 1.000000 
node 1 1 1 1
node 2 1 1 1
node 3 1 1 1
node 4 1 1 1
node 5 1 1 1
node 6 1 1 1
node 7 1 1 1
node 8 1 1 1
node 9 1 1 1
node 10 1 1 1
node 11 1 1 1
node 12 1 1 1
node 13 1 1 1
node 14 1 1 1
node 15 1 1 1
node 16 1 1 1
node 17 1 1 1
node 18 1 1 1
node 19 1 1 1
node 20 1 1 1
node 21 1 1 1
node 22 1 1 1
node 23 1 1 1
node 24 1 1 1
node 25 1 1 1
node 26 1 1 3
node 27 1 0 2
node 28 1 0 2
node 29 1 0 2
gene 1 1 27 0.895493 0 1 0.895493 1
gene 1 1 28 -0.0132319 0 2 -0.0132319 1
gene 1 1 29 -0.956166 0 3 -0.956166 1
gene 1 2 27 0.717726 0 4 0.717726 1
gene 1 2 28 -1.60605 0 5 -1.60605 1
gene 1 2 29 1.08474 0 6 1.08474 1
gene 1 3 27 -0.20635 0 7 -0.20635 1
gene 1 3 28 1.13133 0 8 1.13133 1
gene 1 3 29 -2.46508 0 9 -2.46508 1
gene 1 4 27 -1.68311 0 10 -1.68311 1
gene 1 4 28 -0.889114 0 11 -0.889114 1
gene 1 4 29 0.366091 0 12 0.366091 1
gene 1 5 27 -0.527877 0 13 -0.527877 1
gene 1 5 28 -0.871966 0 14 -0.871966 1
gene 1 5 29 0.206219 0 15 0.206219 1
gene 1 6 27 -0.546028 0 16 -0.546028 1
gene 1 6 28 -0.171462 0 17 -0.171462 1
gene 1 6 29 0.0681721 0 18 0.0681721 1
gene 1 7 27 -1.41464 0 19 -1.41464 1
gene 1 7 28 0.674151 0 20 0.674151 1
gene 1 7 29 0.759433 0 21 0.759433 1
gene 1 8 27 -1.34407 0 22 -1.34407 1
gene 1 8 28 -0.696084 0 23 -0.696084 1
gene 1 8 29 -0.214666 0 24 -0.214666 1
gene 1 9 27 0.97764 0 25 0.97764 1
gene 1 9 28 1.89504 0 26 1.89504 1
gene 1 9 29 -1.61512 0 27 -1.61512 1
gene 1 10 27 -0.477069 0 28 -0.477069 1
gene 1 10 28 0.684912 0 29 0.684912 1
gene 1 10 29 3.43912 0 30 3.43912 1
gene 1 11 27 -0.00137464 0 27 -0.00137464 1
gene 1 11 28 -2.50738 0 32 -2.50738 1
gene 1 11 29 -0.0742536 0 33 -0.0742536 1
gene 1 12 27 0.244261 0 34 0.244261 1
gene 1 12 28 -0.218251 0 35 -0.218251 1
gene 1 12 29 -0.27254 0 36 -0.27254 1
gene 1 13 27 1.88248 0 37 1.88248 1
gene 1 13 28 -0.637589 0 38 -0.637589 1
gene 1 13 29 2.41807 0 39 2.41807 1
gene 1 14 27 -2.25649 0 40 -2.25649 1
gene 1 14 28 2.04576 0 41 2.04576 1
gene 1 14 29 -0.78656 0 42 -0.78656 1
gene 1 15 27 1.23378 0 43 1.23378 1
gene 1 15 28 -1.49816 0 44 -1.49816 1
gene 1 15 29 -0.446654 0 45 -0.446654 1
gene 1 16 27 -1.46907 0 46 -1.46907 1
gene 1 16 28 1.52742 0 47 1.52742 1
gene 1 16 29 -4.78669 0 48 -4.78669 1
gene 1 17 27 0.428008 0 49 0.428008 1
gene 1 17 28 -2.28001 0 50 -2.28001 1
gene 1 17 29 -1.3495 0 51 -1.3495 1
gene 1 18 27 -0.241581 0 52 -0.241581 1
gene 1 18 28 0.161374 0 53 0.161374 1
gene 1 18 29 2.29072 0 54 2.29072 1
gene 1 19 27 -1.57226 0 55 -1.57226 1
gene 1 19 28 0.56269 0 56 0.56269 1
gene 1 19 29 -1.51405 0 57 -1.51405 1
gene 1 20 27 -1.8174 0 58 -1.8174 1
gene 1 20 28 0.462247 0 59 0.462247 1
gene 1 20 29 -0.666006 0 60 -0.666006 1
gene 1 21 27 2.27608 0 61 2.27608 1
gene 1 21 28 3.52791 0 62 3.52791 1
gene 1 21 29 -0.866422 0 63 -0.866422 1
gene 1 22 27 0.195293 0 64 0.195293 1
gene 1 22 28 -0.697847 0 65 -0.697847 1
gene 1 22 29 0.593384 0 66 0.593384 1
gene 1 23 27 -0.879733 0 67 -0.879733 1
gene 1 23 28 0.0204139 0 68 0.0204139 1
gene 1 23 29 -0.00615814 0 69 -0.00615814 1
gene 1 24 27 2.05224 0 70 2.05224 1
gene 1 24 28 0.420532 0 71 0.420532 1
gene 1 24 29 0.522849 0 72 0.522849 1
gene 1 25 27 0.125037 0 73 0.125037 1
gene 1 25 28 -0.217055 0 74 -0.217055 1
gene 1 25 29 1.21331 0 75 1.21331 1
gene 1 26 27 -0.715587 0 76 -0.715587 1
gene 1 26 28 1.04195 0 77 1.04195 1
gene 1 26 29 -0.186304 0 78 -0.186304 1
genomeend 27


