/* Organism #3 Fitness: 12514.024000 Time: 0 */
genomestart 3
trait 1 0.286945 0.000000 0.000000 0.205498 0.000000 0.697143 0.000000 1.000000 
node 1 1 1 1
node 2 1 1 1
node 3 1 1 1
node 4 1 1 1
node 5 1 1 1
node 6 1 1 1
node 7 1 1 1
node 8 1 1 1
node 9 1 1 1
node 10 1 1 1
node 11 1 1 1
node 12 1 1 1
node 13 1 1 1
node 14 1 1 1
node 15 1 1 1
node 16 1 1 1
node 17 1 1 1
node 18 1 1 1
node 19 1 1 1
node 20 1 1 1
node 21 1 1 1
node 22 1 1 1
node 23 1 1 1
node 24 1 1 1
node 25 1 1 1
node 26 1 1 3
node 27 1 0 2
node 28 1 0 2
node 29 1 0 2
gene 1 1 27 -1.60969 0 1 -1.60969 1
gene 1 1 28 -0.51239 0 2 -0.51239 1
gene 1 1 29 0.427122 0 3 0.427122 1
gene 1 2 27 2.95462 0 4 2.95462 1
gene 1 2 28 1.03706 0 5 1.03706 1
gene 1 2 29 -1.94049 0 6 -1.94049 1
gene 1 3 27 0.321417 0 7 0.321417 1
gene 1 3 28 1.37605 0 8 1.37605 1
gene 1 3 29 -2.34136 0 9 -2.34136 1
gene 1 4 27 4.21253 0 10 4.21253 1
gene 1 4 28 0.619546 0 11 0.619546 1
gene 1 4 29 -0.46062 0 12 -0.46062 1
gene 1 5 27 -1.89006 0 13 -1.89006 1
gene 1 5 28 0.298663 0 14 0.298663 1
gene 1 5 29 1.22674 0 15 1.22674 1
gene 1 6 27 -0.350106 0 16 -0.350106 1
gene 1 6 28 -0.149171 0 17 -0.149171 1
gene 1 6 29 0.834369 0 18 0.834369 1
gene 1 7 27 0.525254 0 19 0.525254 1
gene 1 7 28 -3.01067 0 20 -3.01067 1
gene 1 7 29 -0.429605 0 21 -0.429605 1
gene 1 8 27 -2.7502 0 22 -2.7502 1
gene 1 8 28 -0.69359 0 23 -0.69359 1
gene 1 8 29 -0.542453 0 24 -0.542453 1
gene 1 9 27 -0.977578 0 25 -0.977578 1
gene 1 9 28 3.46119 0 26 3.46119 1
gene 1 9 29 1.67977 0 27 1.67977 1
gene 1 10 27 0.594902 0 28 0.594902 1
gene 1 10 28 -0.259167 0 29 -0.259167 1
gene 1 10 29 0.518734 0 30 0.518734 1
gene 1 11 27 0.468851 0 27 0.468851 1
gene 1 11 28 1.28595 0 32 1.28595 1
gene 1 11 29 2.80603 0 33 2.80603 1
gene 1 12 27 0.932172 0 34 0.932172 1
gene 1 12 28 2.23197 0 35 2.23197 1
gene 1 12 29 -0.627067 0 36 -0.627067 1
gene 1 13 27 1.14423 0 37 1.14423 1
gene 1 13 28 1.49998 0 38 1.49998 1
gene 1 13 29 0.831858 0 39 0.831858 1
gene 1 14 27 -0.57919 0 40 -0.57919 1
gene 1 14 28 -1.56744 0 41 -1.56744 1
gene 1 14 29 0.328092 0 42 0.328092 1
gene 1 15 27 2.11172 0 43 2.11172 1
gene 1 15 28 -4.5893 0 44 -4.5893 1
gene 1 15 29 0.6008 0 45 0.6008 1
gene 1 16 27 1.716 0 46 1.716 1
gene 1 16 28 -0.244322 0 47 -0.244322 1
gene 1 16 29 -0.864411 0 48 -0.864411 1
gene 1 17 27 2.92298 0 49 2.92298 1
gene 1 17 28 -0.317763 0 50 -0.317763 1
gene 1 17 29 3.90768 0 51 3.90768 1
gene 1 18 27 0.472847 0 52 0.472847 1
gene 1 18 28 -1.42633 0 53 -1.42633 1
gene 1 18 29 -0.504456 0 54 -0.504456 1
gene 1 19 27 -0.862968 0 55 -0.862968 1
gene 1 19 28 1.70542 0 56 1.70542 1
gene 1 19 29 1.56511 0 57 1.56511 1
gene 1 20 27 -0.0945526 0 58 -0.0945526 1
gene 1 20 28 -3.05788 0 59 -3.05788 1
gene 1 20 29 0.770662 0 60 0.770662 1
gene 1 21 27 1.73544 0 61 1.73544 1
gene 1 21 28 0.454962 0 62 0.454962 1
gene 1 21 29 -0.623465 0 63 -0.623465 1
gene 1 22 27 -0.956381 0 64 -0.956381 1
gene 1 22 28 -2.68432 0 65 -2.68432 1
gene 1 22 29 -1.5896 0 66 -1.5896 1
gene 1 23 27 -1.07603 0 67 -1.07603 1
gene 1 23 28 -0.0900779 0 68 -0.0900779 1
gene 1 23 29 -2.37286 0 69 -2.37286 1
gene 1 24 27 1.14098 0 70 1.14098 1
gene 1 24 28 0.325222 0 71 0.325222 1
gene 1 24 29 0.34002 0 72 0.34002 1
gene 1 25 27 0.240216 0 73 0.240216 1
gene 1 25 28 -0.877716 0 74 -0.877716 1
gene 1 25 29 -0.835956 0 75 -0.835956 1
gene 1 26 27 0.197529 0 76 0.197529 1
gene 1 26 28 -1.40451 0 77 -1.40451 1
gene 1 26 29 0.750626 0 78 0.750626 1
genomeend 3


