/* Organism #1 Fitness: 20216.020000 Time: 0 */
genomestart 1
trait 1 0.000000 0.000000 1.000000 0.000000 0.294451 0.181766 0.000000 0.686663 
node 1 1 1 1
node 2 1 1 1
node 3 1 1 1
node 4 1 1 1
node 5 1 1 1
node 6 1 1 1
node 7 1 1 1
node 8 1 1 1
node 9 1 1 1
node 10 1 1 1
node 11 1 1 1
node 12 1 1 1
node 13 1 1 1
node 14 1 1 1
node 15 1 1 1
node 16 1 1 1
node 17 1 1 1
node 18 1 1 1
node 19 1 1 1
node 20 1 1 1
node 21 1 1 1
node 22 1 1 1
node 23 1 1 1
node 24 1 1 1
node 25 1 1 1
node 26 1 1 1
node 27 1 1 1
node 28 1 1 1
node 29 1 1 1
node 30 1 1 1
node 31 1 1 1
node 32 1 1 1
node 33 1 1 1
node 34 1 1 1
node 35 1 1 1
node 36 1 1 1
node 37 1 1 1
node 38 1 1 1
node 39 1 1 1
node 40 1 1 3
node 41 1 0 2
node 42 1 0 2
node 43 1 0 2
node 44 1 0 2
node 45 1 0 2
gene 1 1 41 -4.17314 0 1 -4.17314 1
gene 1 1 42 0.635689 0 2 0.635689 1
gene 1 1 43 2.64633 0 3 2.64633 1
gene 1 1 44 -1.06296 0 4 -1.06296 1
gene 1 1 45 -0.160214 0 5 -0.160214 1
gene 1 2 41 0.874873 0 6 0.874873 1
gene 1 2 42 1.93535 0 7 1.93535 1
gene 1 2 43 -4.03341 0 8 -4.03341 1
gene 1 2 44 -2.11898 0 9 -2.11898 1
gene 1 2 45 -0.2596 0 10 -0.2596 1
gene 1 3 41 0.939827 0 11 0.939827 1
gene 1 3 42 2.99491 0 12 2.99491 1
gene 1 3 43 0.206096 0 13 0.206096 1
gene 1 3 44 0.0835353 0 14 0.0835353 1
gene 1 3 45 0.738255 0 15 0.738255 1
gene 1 4 41 1.40797 0 16 1.40797 1
gene 1 4 42 -0.0277542 0 17 -0.0277542 1
gene 1 4 43 0.0916971 0 18 0.0916971 1
gene 1 4 44 -0.758863 0 19 -0.758863 1
gene 1 4 45 1.14726 0 20 1.14726 1
gene 1 5 41 -0.733736 0 21 -0.733736 1
gene 1 5 42 -1.00247 0 22 -1.00247 1
gene 1 5 43 -4.72224 0 23 -4.72224 1
gene 1 5 44 -4.30639 0 24 -4.30639 1
gene 1 5 45 1.69145 0 25 1.69145 1
gene 1 6 41 -0.593141 0 26 -0.593141 1
gene 1 6 42 0.556675 0 27 0.556675 1
gene 1 6 43 -3.03088 0 28 -3.03088 1
gene 1 6 44 -0.84194 0 29 -0.84194 1
gene 1 6 45 2.0741 0 30 2.0741 1
gene 1 7 41 4.17277 0 31 4.17277 1
gene 1 7 42 -1.36326 0 32 -1.36326 1
gene 1 7 43 -2.66575 0 33 -2.66575 1
gene 1 7 44 -1.08265 0 34 -1.08265 1
gene 1 7 45 -2.41186 0 35 -2.41186 1
gene 1 8 41 1.35499 0 36 1.35499 1
gene 1 8 42 0.885238 0 37 0.885238 1
gene 1 8 43 -2.23085 0 38 -2.23085 1
gene 1 8 44 -0.968427 0 39 -0.968427 1
gene 1 8 45 0.400552 0 40 0.400552 1
gene 1 9 41 1.28537 0 41 1.28537 1
gene 1 9 42 1.55844 0 42 1.55844 1
gene 1 9 43 4.75961 0 43 4.75961 1
gene 1 9 44 -0.0203456 0 44 -0.0203456 1
gene 1 9 45 2.44608 0 45 2.44608 1
gene 1 10 41 1.44321 0 46 1.44321 1
gene 1 10 42 -3.08284 0 47 -3.08284 1
gene 1 10 43 0.973253 0 48 0.973253 1
gene 1 10 44 2.79203 0 49 2.79203 1
gene 1 10 45 -3.58241 0 50 -3.58241 1
gene 1 11 41 -1.79725 0 51 -1.79725 1
gene 1 11 42 -1.44617 0 52 -1.44617 1
gene 1 11 43 -1.97228 0 53 -1.97228 1
gene 1 11 44 -1.62202 0 54 -1.62202 1
gene 1 11 45 3.23564 0 55 3.23564 1
gene 1 12 41 -0.473434 0 56 -0.473434 1
gene 1 12 42 0.751849 0 57 0.751849 1
gene 1 12 43 -0.339381 0 58 -0.339381 1
gene 1 12 44 0.520299 0 59 0.520299 1
gene 1 12 45 -1.88894 0 60 -1.88894 1
gene 1 13 41 -4.708 0 61 -4.708 1
gene 1 13 42 -2.874 0 62 -2.874 1
gene 1 13 43 3.17738 0 63 3.17738 1
gene 1 13 44 1.36626 0 64 1.36626 1
gene 1 13 45 3.86233 0 65 3.86233 1
gene 1 14 41 0.280062 0 66 0.280062 1
gene 1 14 42 -2.24918 0 67 -2.24918 1
gene 1 14 43 -1.93565 0 68 -1.93565 1
gene 1 14 44 -1.19813 0 69 -1.19813 1
gene 1 14 45 1.88891 0 70 1.88891 1
gene 1 15 41 1.12324 0 71 1.12324 1
gene 1 15 42 -0.409602 0 72 -0.409602 1
gene 1 15 43 2.23769 0 73 2.23769 1
gene 1 15 44 2.37144 0 74 2.37144 1
gene 1 15 45 -3.09035 0 75 -3.09035 1
gene 1 16 41 1.02643 0 76 1.02643 1
gene 1 16 42 3.64957 0 77 3.64957 1
gene 1 16 43 5 0 78 5 1
gene 1 16 44 2.02753 0 79 2.02753 1
gene 1 16 45 0.488581 0 80 0.488581 1
gene 1 17 41 1.90129 0 81 1.90129 1
gene 1 17 42 4.35601 0 82 4.35601 1
gene 1 17 43 0.93561 0 83 0.93561 1
gene 1 17 44 -0.648254 0 84 -0.648254 1
gene 1 17 45 1.25178 0 85 1.25178 1
gene 1 18 41 0.120536 0 86 0.120536 1
gene 1 18 42 3.45442 0 87 3.45442 1
gene 1 18 43 2.7793 0 88 2.7793 1
gene 1 18 44 1.06029 0 89 1.06029 1
gene 1 18 45 1.1208 0 90 1.1208 1
gene 1 19 41 1.40366 0 91 1.40366 1
gene 1 19 42 3.21982 0 92 3.21982 1
gene 1 19 43 3.78302 0 93 3.78302 1
gene 1 19 44 -3.32404 0 94 -3.32404 1
gene 1 19 45 -3.78664 0 95 -3.78664 1
gene 1 20 41 -1.21392 0 96 -1.21392 1
gene 1 20 42 0.209154 0 97 0.209154 1
gene 1 20 43 -2.58662 0 98 -2.58662 1
gene 1 20 44 5 0 99 5 1
gene 1 20 45 -4.20274 0 100 -4.20274 1
gene 1 21 41 -1.86149 0 101 -1.86149 1
gene 1 21 42 -2.51912 0 102 -2.51912 1
gene 1 21 43 1.21418 0 103 1.21418 1
gene 1 21 44 -5 0 104 -5 1
gene 1 21 45 0.161471 0 105 0.161471 1
gene 1 22 41 -0.0132119 0 106 -0.0132119 1
gene 1 22 42 0.892087 0 107 0.892087 1
gene 1 22 43 2.68301 0 108 2.68301 1
gene 1 22 44 4.69115 0 109 4.69115 1
gene 1 22 45 0.0695497 0 110 0.0695497 1
gene 1 23 41 -1.75767 0 111 -1.75767 1
gene 1 23 42 2.10046 0 112 2.10046 1
gene 1 23 43 3.4678 0 113 3.4678 1
gene 1 23 44 0.603824 0 114 0.603824 1
gene 1 23 45 1.37776 0 115 1.37776 1
gene 1 24 41 3.34183 0 116 3.34183 1
gene 1 24 42 -0.750571 0 117 -0.750571 1
gene 1 24 43 -2.71603 0 118 -2.71603 1
gene 1 24 44 -1.71579 0 119 -1.71579 1
gene 1 24 45 -2.19756 0 120 -2.19756 1
gene 1 25 41 1.32756 0 121 1.32756 1
gene 1 25 42 1.10911 0 122 1.10911 1
gene 1 25 43 0.408044 0 123 0.408044 1
gene 1 25 44 -1.87994 0 124 -1.87994 1
gene 1 25 45 3.46895 0 125 3.46895 1
gene 1 26 41 -1.65688 0 126 -1.65688 1
gene 1 26 42 1.64477 0 127 1.64477 1
gene 1 26 43 2.99751 0 128 2.99751 1
gene 1 26 44 -4.66954 0 129 -4.66954 1
gene 1 26 45 -0.65678 0 130 -0.65678 1
gene 1 27 41 0.597326 0 131 0.597326 1
gene 1 27 42 -2.56985 0 132 -2.56985 1
gene 1 27 43 3.51636 0 133 3.51636 1
gene 1 27 44 -0.866356 0 134 -0.866356 1
gene 1 27 45 -1.70805 0 135 -1.70805 1
gene 1 28 41 2.81381 0 136 2.81381 1
gene 1 28 42 -1.21014 0 137 -1.21014 1
gene 1 28 43 1.84766 0 138 1.84766 1
gene 1 28 44 -2.07564 0 139 -2.07564 1
gene 1 28 45 2.08134 0 140 2.08134 1
gene 1 29 41 -0.630947 0 141 -0.630947 1
gene 1 29 42 -0.655802 0 142 -0.655802 1
gene 1 29 43 2.30883 0 143 2.30883 1
gene 1 29 44 -0.39918 0 144 -0.39918 1
gene 1 29 45 -3.16222 0 145 -3.16222 1
gene 1 30 41 -4.30179 0 146 -4.30179 1
gene 1 30 42 1.21217 0 147 1.21217 1
gene 1 30 43 -4.78272 0 148 -4.78272 1
gene 1 30 44 4.17583 0 149 4.17583 1
gene 1 30 45 -1.7831 0 150 -1.7831 1
gene 1 31 41 4.52928 0 151 4.52928 1
gene 1 31 42 3.17185 0 152 3.17185 1
gene 1 31 43 1.10118 0 153 1.10118 1
gene 1 31 44 1.48586 0 154 1.48586 1
gene 1 31 45 -0.800508 0 155 -0.800508 1
gene 1 32 41 0.351024 0 156 0.351024 1
gene 1 32 42 -0.667753 0 157 -0.667753 1
gene 1 32 43 0.166787 0 158 0.166787 1
gene 1 32 44 4.63066 0 159 4.63066 1
gene 1 32 45 3.20558 0 160 3.20558 1
gene 1 33 41 -0.643271 0 161 -0.643271 1
gene 1 33 42 -0.260122 0 162 -0.260122 1
gene 1 33 43 -0.0304966 0 163 -0.0304966 1
gene 1 33 44 -0.041264 0 164 -0.041264 1
gene 1 33 45 0.725076 0 165 0.725076 1
gene 1 34 41 -0.0515883 0 166 -0.0515883 1
gene 1 34 42 0.53834 0 167 0.53834 1
gene 1 34 43 0.139983 0 168 0.139983 1
gene 1 34 44 0.817187 0 169 0.817187 1
gene 1 34 45 -1.57686 0 170 -1.57686 1
gene 1 35 41 0.943724 0 171 0.943724 1
gene 1 35 42 -0.362009 0 172 -0.362009 1
gene 1 35 43 0.516089 0 173 0.516089 1
gene 1 35 44 0.363723 0 174 0.363723 1
gene 1 35 45 1.0391 0 175 1.0391 1
gene 1 36 41 -0.650517 0 176 -0.650517 1
gene 1 36 42 1.04571 0 177 1.04571 1
gene 1 36 43 -0.400566 0 178 -0.400566 1
gene 1 36 44 -0.830163 0 179 -0.830163 1
gene 1 36 45 -1.38954 0 180 -1.38954 1
gene 1 37 41 1.34419 0 181 1.34419 1
gene 1 37 42 2.61026 0 182 2.61026 1
gene 1 37 43 0.678589 0 183 0.678589 1
gene 1 37 44 4.66856 0 184 4.66856 1
gene 1 37 45 0.668257 0 185 0.668257 1
gene 1 38 41 -4.33282 0 186 -4.33282 1
gene 1 38 42 -0.752554 0 187 -0.752554 1
gene 1 38 43 -0.504057 0 188 -0.504057 1
gene 1 38 44 -0.548857 0 189 -0.548857 1
gene 1 38 45 -0.157609 0 190 -0.157609 1
gene 1 39 41 -0.720523 0 191 -0.720523 1
gene 1 39 42 0.205976 0 192 0.205976 1
gene 1 39 43 0.467167 0 193 0.467167 1
gene 1 39 44 0.267229 0 194 0.267229 1
gene 1 39 45 -0.663263 0 195 -0.663263 1
gene 1 40 41 4.0607 0 196 4.0607 1
gene 1 40 42 0.445084 0 197 0.445084 1
gene 1 40 43 -3.39401 0 198 -3.39401 1
gene 1 40 44 -3.01973 0 199 -3.01973 1
gene 1 40 45 -0.831472 0 200 -0.831472 1
genomeend 1


