/* Organism #2 Fitness: 34901.314000 Time: 0 */
genomestart 2
trait 1 0.461164 0.915261 0.629037 0.492585 0.927782 0.000000 0.000000 0.359613 
node 1 1 1 1
node 2 1 1 1
node 3 1 1 1
node 4 1 1 1
node 5 1 1 1
node 6 1 1 1
node 7 1 1 1
node 8 1 1 1
node 9 1 1 1
node 10 1 1 1
node 11 1 1 1
node 12 1 1 1
node 13 1 1 1
node 14 1 1 1
node 15 1 1 1
node 16 1 1 1
node 17 1 1 1
node 18 1 1 1
node 19 1 1 1
node 20 1 1 1
node 21 1 1 1
node 22 1 1 1
node 23 1 1 1
node 24 1 1 1
node 25 1 1 1
node 26 1 1 1
node 27 1 1 1
node 28 1 1 1
node 29 1 1 1
node 30 1 1 3
node 31 1 0 2
node 32 1 0 2
node 33 1 0 2
gene 1 1 31 1.85164 0 1 1.85164 1
gene 1 1 32 2.58452 0 2 2.58452 1
gene 1 1 33 -0.0689616 0 3 -0.0689616 1
gene 1 2 31 1.47557 0 4 1.47557 1
gene 1 2 32 3.38407 0 5 3.38407 1
gene 1 2 33 -1.01624 0 6 -1.01624 1
gene 1 3 31 0.639325 0 7 0.639325 1
gene 1 3 32 -4.25798 0 8 -4.25798 1
gene 1 3 33 3.83988 0 9 3.83988 1
gene 1 4 31 -5 0 10 -5 1
gene 1 4 32 0.736857 0 11 0.736857 1
gene 1 4 33 -1.25646 0 12 -1.25646 1
gene 1 5 31 4.09435 0 13 4.09435 1
gene 1 5 32 -3.03357 0 14 -3.03357 1
gene 1 5 33 -2.65507 0 15 -2.65507 1
gene 1 6 31 1.82314 0 16 1.82314 1
gene 1 6 32 3.40264 0 17 3.40264 1
gene 1 6 33 1.79182 0 18 1.79182 1
gene 1 7 31 3.68232 0 19 3.68232 1
gene 1 7 32 -3.50379 0 20 -3.50379 1
gene 1 7 33 -0.728415 0 21 -0.728415 1
gene 1 8 31 0.1224 0 22 0.1224 1
gene 1 8 32 -0.646928 0 23 -0.646928 1
gene 1 8 33 1.29386 0 24 1.29386 1
gene 1 9 31 -2.21148 0 25 -2.21148 1
gene 1 9 32 1.42457 0 26 1.42457 1
gene 1 9 33 0.912994 0 27 0.912994 1
gene 1 10 31 2.04184 0 28 2.04184 1
gene 1 10 32 1.25874 0 29 1.25874 1
gene 1 10 33 -1.99003 0 30 -1.99003 1
gene 1 11 31 2.09824 0 31 2.09824 1
gene 1 11 32 -0.263055 0 32 -0.263055 1
gene 1 11 33 1.65982 0 33 1.65982 1
gene 1 12 31 0.741684 0 34 0.741684 1
gene 1 12 32 0.510092 0 35 0.510092 1
gene 1 12 33 -0.821684 0 36 -0.821684 1
gene 1 13 31 -1.5843 0 37 -1.5843 1
gene 1 13 32 4.85528 0 38 4.85528 1
gene 1 13 33 3.93715 0 39 3.93715 1
gene 1 14 31 1.83232 0 40 1.83232 1
gene 1 14 32 2.99859 0 41 2.99859 1
gene 1 14 33 2.59459 0 42 2.59459 1
gene 1 15 31 2.75292 0 43 2.75292 1
gene 1 15 32 -3.17527 0 44 -3.17527 1
gene 1 15 33 2.95494 0 45 2.95494 1
gene 1 16 31 -0.0341213 0 46 -0.0341213 1
gene 1 16 32 2.4251 0 47 2.4251 1
gene 1 16 33 4.40573 0 48 4.40573 1
gene 1 17 31 -0.159463 0 49 -0.159463 1
gene 1 17 32 0.948113 0 50 0.948113 1
gene 1 17 33 -0.466394 0 51 -0.466394 1
gene 1 18 31 -3.63825 0 52 -3.63825 1
gene 1 18 32 -4.43163 0 53 -4.43163 1
gene 1 18 33 -1.64607 0 54 -1.64607 1
gene 1 19 31 -1.64625 0 55 -1.64625 1
gene 1 19 32 0.803506 0 56 0.803506 1
gene 1 19 33 -0.301488 0 57 -0.301488 1
gene 1 20 31 -1.25662 0 58 -1.25662 1
gene 1 20 32 0.0703912 0 59 0.0703912 1
gene 1 20 33 1.02278 0 60 1.02278 1
gene 1 21 31 -1.07262 0 61 -1.07262 1
gene 1 21 32 -1.1485 0 62 -1.1485 1
gene 1 21 33 -0.52873 0 63 -0.52873 1
gene 1 22 31 1.68028 0 64 1.68028 1
gene 1 22 32 3.94341 0 65 3.94341 1
gene 1 22 33 3.25331 0 66 3.25331 1
gene 1 23 31 1.73704 0 67 1.73704 1
gene 1 23 32 -4.28525 0 68 -4.28525 1
gene 1 23 33 0.815856 0 69 0.815856 1
gene 1 24 31 1.02458 0 70 1.02458 1
gene 1 24 32 -1.95564 0 71 -1.95564 1
gene 1 24 33 -0.876023 0 72 -0.876023 1
gene 1 25 31 -0.691995 0 73 -0.691995 1
gene 1 25 32 -0.73458 0 74 -0.73458 1
gene 1 25 33 0.827525 0 75 0.827525 1
gene 1 26 31 -0.370144 0 76 -0.370144 1
gene 1 26 32 -0.150865 0 77 -0.150865 1
gene 1 26 33 0.413254 0 78 0.413254 1
gene 1 27 31 0.513697 0 79 0.513697 1
gene 1 27 32 1.01453 0 80 1.01453 1
gene 1 27 33 1.02117 0 81 1.02117 1
gene 1 28 31 0.416005 0 82 0.416005 1
gene 1 28 32 0.44616 0 83 0.44616 1
gene 1 28 33 -0.255188 0 84 -0.255188 1
gene 1 29 31 0.454252 0 85 0.454252 1
gene 1 29 32 1.62855 0 86 1.62855 1
gene 1 29 33 -1.55451 0 87 -1.55451 1
gene 1 30 31 -0.945391 0 88 -0.945391 1
gene 1 30 32 -3.23307 0 89 -3.23307 1
gene 1 30 33 -0.368236 0 90 -0.368236 1
genomeend 2


