/* Organism #3 Fitness: 8811.156000 Time: 0 */
genomestart 3
trait 1 0.507368 0.996762 1.000000 0.000000 0.919771 0.000000 0.000000 0.000000 
node 1 1 1 1
node 2 1 1 1
node 3 1 1 1
node 4 1 1 1
node 5 1 1 1
node 6 1 1 1
node 7 1 1 1
node 8 1 1 1
node 9 1 1 1
node 10 1 1 1
node 11 1 1 1
node 12 1 1 1
node 13 1 1 1
node 14 1 1 1
node 15 1 1 1
node 16 1 1 1
node 17 1 1 1
node 18 1 1 1
node 19 1 1 1
node 20 1 1 1
node 21 1 1 1
node 22 1 1 1
node 23 1 1 1
node 24 1 1 1
node 25 1 1 1
node 26 1 1 1
node 27 1 1 1
node 28 1 1 3
node 29 1 0 2
node 30 1 0 2
node 31 1 0 2
node 32 1 0 2
node 33 1 0 2
gene 1 1 29 1.10915 0 1 1.10915 1
gene 1 1 30 -2.76027 0 2 -2.76027 1
gene 1 1 31 -1.42106 0 3 -1.42106 1
gene 1 1 32 -2.17795 0 4 -2.17795 1
gene 1 1 33 -2.77455 0 5 -2.77455 1
gene 1 2 29 -1.67832 0 6 -1.67832 1
gene 1 2 30 5 0 7 5 1
gene 1 2 31 -4.95958 0 8 -4.95958 1
gene 1 2 32 1.10687 0 9 1.10687 1
gene 1 2 33 2.07902 0 10 2.07902 1
gene 1 3 29 -1.25101 0 11 -1.25101 1
gene 1 3 30 3.00579 0 12 3.00579 1
gene 1 3 31 0.132302 0 13 0.132302 1
gene 1 3 32 3.8071 0 14 3.8071 1
gene 1 3 33 1.6065 0 15 1.6065 1
gene 1 4 29 0.442764 0 16 0.442764 1
gene 1 4 30 3.45131 0 17 3.45131 1
gene 1 4 31 1.36012 0 18 1.36012 1
gene 1 4 32 0.106508 0 19 0.106508 1
gene 1 4 33 -1.56968 0 20 -1.56968 1
gene 1 5 29 -0.592921 0 21 -0.592921 1
gene 1 5 30 1.70797 0 22 1.70797 1
gene 1 5 31 0.0950619 0 23 0.0950619 1
gene 1 5 32 4.45725 0 24 4.45725 1
gene 1 5 33 -0.298424 0 25 -0.298424 1
gene 1 6 29 3.97992 0 26 3.97992 1
gene 1 6 30 -1.20382 0 27 -1.20382 1
gene 1 6 31 -4.4674 0 28 -4.4674 1
gene 1 6 32 0.0875524 0 29 0.0875524 1
gene 1 6 33 -0.786903 0 30 -0.786903 1
gene 1 7 29 5 0 31 5 1
gene 1 7 30 0.821532 0 32 0.821532 1
gene 1 7 31 -0.143066 0 33 -0.143066 1
gene 1 7 32 0.181104 0 34 0.181104 1
gene 1 7 33 1.78359 0 35 1.78359 1
gene 1 8 29 -1.57633 0 36 -1.57633 1
gene 1 8 30 -3.166 0 37 -3.166 1
gene 1 8 31 0.0832101 0 38 0.0832101 1
gene 1 8 32 -1.88297 0 39 -1.88297 1
gene 1 8 33 1.61781 0 40 1.61781 1
gene 1 9 29 -2.69152 0 41 -2.69152 1
gene 1 9 30 3.1872 0 42 3.1872 1
gene 1 9 31 1.09674 0 43 1.09674 1
gene 1 9 32 -0.706955 0 44 -0.706955 1
gene 1 9 33 -0.364487 0 45 -0.364487 1
gene 1 10 29 3.04809 0 46 3.04809 1
gene 1 10 30 -1.34539 0 47 -1.34539 1
gene 1 10 31 3.26811 0 48 3.26811 1
gene 1 10 32 -0.667297 0 49 -0.667297 1
gene 1 10 33 0.0890824 0 50 0.0890824 1
gene 1 11 29 -0.107701 0 51 -0.107701 1
gene 1 11 30 -0.956774 0 52 -0.956774 1
gene 1 11 31 -3.25265 0 53 -3.25265 1
gene 1 11 32 1.69563 0 54 1.69563 1
gene 1 11 33 0.76589 0 55 0.76589 1
gene 1 12 29 1.38091 0 56 1.38091 1
gene 1 12 30 1.13462 0 57 1.13462 1
gene 1 12 31 0.243445 0 58 0.243445 1
gene 1 12 32 0.392425 0 59 0.392425 1
gene 1 12 33 2.17543 0 60 2.17543 1
gene 1 13 29 -1.54567 0 61 -1.54567 1
gene 1 13 30 -1.57438 0 62 -1.57438 1
gene 1 13 31 2.46424 0 63 2.46424 1
gene 1 13 32 0.17593 0 64 0.17593 1
gene 1 13 33 1.27852 0 65 1.27852 1
gene 1 14 29 -1.02594 0 66 -1.02594 1
gene 1 14 30 3.29723 0 67 3.29723 1
gene 1 14 31 -1.25873 0 68 -1.25873 1
gene 1 14 32 -4.30081 0 69 -4.30081 1
gene 1 14 33 1.70001 0 70 1.70001 1
gene 1 15 29 0.648916 0 71 0.648916 1
gene 1 15 30 1.46591 0 72 1.46591 1
gene 1 15 31 -1.00529 0 73 -1.00529 1
gene 1 15 32 0.371618 0 74 0.371618 1
gene 1 15 33 -0.228927 0 75 -0.228927 1
gene 1 16 29 2.48207 0 76 2.48207 1
gene 1 16 30 0.14294 0 77 0.14294 1
gene 1 16 31 2.86235 0 78 2.86235 1
gene 1 16 32 3.34555 0 79 3.34555 1
gene 1 16 33 -1.5621 0 80 -1.5621 1
gene 1 17 29 2.03763 0 81 2.03763 1
gene 1 17 30 -3.47552 0 82 -3.47552 1
gene 1 17 31 3.89515 0 83 3.89515 1
gene 1 17 32 1.61168 0 84 1.61168 1
gene 1 17 33 1.37537 0 85 1.37537 1
gene 1 18 29 5 0 86 5 1
gene 1 18 30 -4.12688 0 87 -4.12688 1
gene 1 18 31 -4.90949 0 88 -4.90949 1
gene 1 18 32 -1.06694 0 89 -1.06694 1
gene 1 18 33 -0.985118 0 90 -0.985118 1
gene 1 19 29 1.03432 0 91 1.03432 1
gene 1 19 30 -4.83283 0 92 -4.83283 1
gene 1 19 31 -1.04183 0 93 -1.04183 1
gene 1 19 32 -0.242998 0 94 -0.242998 1
gene 1 19 33 3.60428 0 95 3.60428 1
gene 1 20 29 0.876805 0 96 0.876805 1
gene 1 20 30 -2.0168 0 97 -2.0168 1
gene 1 20 31 4.1413 0 98 4.1413 1
gene 1 20 32 4.32776 0 99 4.32776 1
gene 1 20 33 -0.918926 0 100 -0.918926 1
gene 1 21 29 0.409027 0 101 0.409027 1
gene 1 21 30 -0.132957 0 102 -0.132957 1
gene 1 21 31 0.33823 0 103 0.33823 1
gene 1 21 32 -2.6686 0 104 -2.6686 1
gene 1 21 33 -1.70509 0 105 -1.70509 1
gene 1 22 29 -1.86365 0 106 -1.86365 1
gene 1 22 30 1.26388 0 107 1.26388 1
gene 1 22 31 -4.84662 0 108 -4.84662 1
gene 1 22 32 2.9754 0 109 2.9754 1
gene 1 22 33 -1.71652 0 110 -1.71652 1
gene 1 23 29 -2.34383 0 111 -2.34383 1
gene 1 23 30 -0.44571 0 112 -0.44571 1
gene 1 23 31 3.97644 0 113 3.97644 1
gene 1 23 32 0.578216 0 114 0.578216 1
gene 1 23 33 0.27805 0 115 0.27805 1
gene 1 24 29 -0.468675 0 116 -0.468675 1
gene 1 24 30 0.915003 0 117 0.915003 1
gene 1 24 31 -0.60181 0 118 -0.60181 1
gene 1 24 32 0.982391 0 119 0.982391 1
gene 1 24 33 -0.399164 0 120 -0.399164 1
gene 1 25 29 -0.920301 0 121 -0.920301 1
gene 1 25 30 -0.490973 0 122 -0.490973 1
gene 1 25 31 0.74524 0 123 0.74524 1
gene 1 25 32 0.0160734 0 124 0.0160734 1
gene 1 25 33 -0.851617 0 125 -0.851617 1
gene 1 26 29 -1.38808 0 126 -1.38808 1
gene 1 26 30 1.53495 0 127 1.53495 1
gene 1 26 31 1.25157 0 128 1.25157 1
gene 1 26 32 -0.546641 0 129 -0.546641 1
gene 1 26 33 -2.91392 0 130 -2.91392 1
gene 1 27 29 0.880825 0 131 0.880825 1
gene 1 27 30 -1.36869 0 132 -1.36869 1
gene 1 27 31 0.93819 0 133 0.93819 1
gene 1 27 32 0.0372917 0 134 0.0372917 1
gene 1 27 33 0.396433 0 135 0.396433 1
gene 1 28 29 -4.95614 0 136 -4.95614 1
gene 1 28 30 0.63875 0 137 0.63875 1
gene 1 28 31 -0.012643 0 138 -0.012643 1
gene 1 28 32 2.29027 0 139 2.29027 1
gene 1 28 33 0.0402739 0 140 0.0402739 1
genomeend 3


