/* Organism #16 Fitness: 8813.634000 Time: 0 */
genomestart 16
trait 1 0.000000 0.000000 1.000000 0.000000 0.829754 0.000000 0.383106 0.000000 
node 1 1 1 1
node 2 1 1 1
node 3 1 1 1
node 4 1 1 1
node 5 1 1 1
node 6 1 1 1
node 7 1 1 1
node 8 1 1 1
node 9 1 1 1
node 10 1 1 1
node 11 1 1 1
node 12 1 1 1
node 13 1 1 1
node 14 1 1 1
node 15 1 1 1
node 16 1 1 1
node 17 1 1 1
node 18 1 1 1
node 19 1 1 1
node 20 1 1 1
node 21 1 1 1
node 22 1 1 1
node 23 1 1 1
node 24 1 1 1
node 25 1 1 1
node 26 1 1 1
node 27 1 1 1
node 28 1 1 3
node 29 1 0 2
node 30 1 0 2
node 31 1 0 2
node 32 1 0 2
node 33 1 0 2
gene 1 1 29 -0.459766 0 1 -0.459766 1
gene 1 1 30 0.154904 0 2 0.154904 1
gene 1 1 31 0.986426 0 3 0.986426 1
gene 1 1 32 4.2799 0 4 4.2799 1
gene 1 1 33 -0.259231 0 5 -0.259231 1
gene 1 2 29 -2.34033 0 6 -2.34033 1
gene 1 2 30 1.61584 0 7 1.61584 1
gene 1 2 31 -0.173819 0 8 -0.173819 1
gene 1 2 32 -0.0796395 0 9 -0.0796395 1
gene 1 2 33 -2.75744 0 10 -2.75744 1
gene 1 3 29 -1.51127 0 11 -1.51127 1
gene 1 3 30 0.215939 0 12 0.215939 1
gene 1 3 31 -0.191285 0 13 -0.191285 1
gene 1 3 32 0.454871 0 14 0.454871 1
gene 1 3 33 0.0415072 0 15 0.0415072 1
gene 1 4 29 -0.405695 0 16 -0.405695 1
gene 1 4 30 0.382341 0 17 0.382341 1
gene 1 4 31 0.016523 0 18 0.016523 1
gene 1 4 32 -1.978 0 19 -1.978 1
gene 1 4 33 1.29108 0 20 1.29108 1
gene 1 5 29 5 0 21 5 1
gene 1 5 30 3.00431 0 22 3.00431 1
gene 1 5 31 0.70399 0 23 0.70399 1
gene 1 5 32 -1.9154 0 24 -1.9154 1
gene 1 5 33 5 0 25 5 1
gene 1 6 29 1.3496 0 26 1.3496 1
gene 1 6 30 0.105044 0 27 0.105044 1
gene 1 6 31 -1.11955 0 28 -1.11955 1
gene 1 6 32 -0.452299 0 29 -0.452299 1
gene 1 6 33 -0.302565 0 30 -0.302565 1
gene 1 7 29 3.94762 0 31 3.94762 1
gene 1 7 30 0.00850606 0 32 0.00850606 1
gene 1 7 31 -0.547186 0 33 -0.547186 1
gene 1 7 32 -2.63862 0 34 -2.63862 1
gene 1 7 33 -2.86591 0 35 -2.86591 1
gene 1 8 29 -0.564808 0 36 -0.564808 1
gene 1 8 30 -5 0 37 -5 1
gene 1 8 31 -2.81381 0 38 -2.81381 1
gene 1 8 32 3.76386 0 39 3.76386 1
gene 1 8 33 0.142394 0 40 0.142394 1
gene 1 9 29 -0.659571 0 41 -0.659571 1
gene 1 9 30 1.13156 0 42 1.13156 1
gene 1 9 31 0.926969 0 43 0.926969 1
gene 1 9 32 0.58053 0 44 0.58053 1
gene 1 9 33 -1.39026 0 45 -1.39026 1
gene 1 10 29 1.94874 0 46 1.94874 1
gene 1 10 30 0.985017 0 47 0.985017 1
gene 1 10 31 -0.159414 0 48 -0.159414 1
gene 1 10 32 -2.73786 0 49 -2.73786 1
gene 1 10 33 -3.02326 0 50 -3.02326 1
gene 1 11 29 2.67834 0 51 2.67834 1
gene 1 11 30 0.36455 0 52 0.36455 1
gene 1 11 31 0.49517 0 53 0.49517 1
gene 1 11 32 1.29672 0 54 1.29672 1
gene 1 11 33 -0.572489 0 55 -0.572489 1
gene 1 12 29 2.35541 0 56 2.35541 1
gene 1 12 30 1.25218 0 57 1.25218 1
gene 1 12 31 1.55198 0 58 1.55198 1
gene 1 12 32 -0.795893 0 59 -0.795893 1
gene 1 12 33 0.172857 0 60 0.172857 1
gene 1 13 29 3.08973 0 61 3.08973 1
gene 1 13 30 0.328231 0 62 0.328231 1
gene 1 13 31 0.344053 0 63 0.344053 1
gene 1 13 32 0.335279 0 64 0.335279 1
gene 1 13 33 0.519462 0 65 0.519462 1
gene 1 14 29 0.973798 0 66 0.973798 1
gene 1 14 30 -0.138245 0 67 -0.138245 1
gene 1 14 31 -0.262877 0 68 -0.262877 1
gene 1 14 32 2.14525 0 69 2.14525 1
gene 1 14 33 0.900548 0 70 0.900548 1
gene 1 15 29 0.034269 0 71 0.034269 1
gene 1 15 30 -0.724753 0 72 -0.724753 1
gene 1 15 31 -2.55161 0 73 -2.55161 1
gene 1 15 32 -1.48893 0 74 -1.48893 1
gene 1 15 33 -0.111662 0 75 -0.111662 1
gene 1 16 29 -2.85585 0 76 -2.85585 1
gene 1 16 30 -1.33794 0 77 -1.33794 1
gene 1 16 31 1.60948 0 78 1.60948 1
gene 1 16 32 -0.165141 0 79 -0.165141 1
gene 1 16 33 0.940269 0 80 0.940269 1
gene 1 17 29 -0.142256 0 81 -0.142256 1
gene 1 17 30 -5 0 82 -5 1
gene 1 17 31 -1.84252 0 83 -1.84252 1
gene 1 17 32 0.526165 0 84 0.526165 1
gene 1 17 33 -1.12626 0 85 -1.12626 1
gene 1 18 29 4.08511 0 86 4.08511 1
gene 1 18 30 -4.52879 0 87 -4.52879 1
gene 1 18 31 0.808917 0 88 0.808917 1
gene 1 18 32 0.268816 0 89 0.268816 1
gene 1 18 33 -0.728772 0 90 -0.728772 1
gene 1 19 29 2.5737 0 91 2.5737 1
gene 1 19 30 -4.74664 0 92 -4.74664 1
gene 1 19 31 0.259192 0 93 0.259192 1
gene 1 19 32 -0.913509 0 94 -0.913509 1
gene 1 19 33 -0.591014 0 95 -0.591014 1
gene 1 20 29 -0.666619 0 96 -0.666619 1
gene 1 20 30 0.32217 0 97 0.32217 1
gene 1 20 31 0.962083 0 98 0.962083 1
gene 1 20 32 -0.908147 0 99 -0.908147 1
gene 1 20 33 -1.80104 0 100 -1.80104 1
gene 1 21 29 3.95861 0 101 3.95861 1
gene 1 21 30 -1.01535 0 102 -1.01535 1
gene 1 21 31 0.0418715 0 103 0.0418715 1
gene 1 21 32 1.84234 0 104 1.84234 1
gene 1 21 33 3.75177 0 105 3.75177 1
gene 1 22 29 -0.785557 0 106 -0.785557 1
gene 1 22 30 0.978485 0 107 0.978485 1
gene 1 22 31 -0.840179 0 108 -0.840179 1
gene 1 22 32 0.542449 0 109 0.542449 1
gene 1 22 33 -0.487193 0 110 -0.487193 1
gene 1 23 29 -2.4246 0 111 -2.4246 1
gene 1 23 30 1.45613 0 112 1.45613 1
gene 1 23 31 -0.36322 0 113 -0.36322 1
gene 1 23 32 0.287327 0 114 0.287327 1
gene 1 23 33 0.792657 0 115 0.792657 1
gene 1 24 29 -0.341927 0 116 -0.341927 1
gene 1 24 30 -0.330882 0 117 -0.330882 1
gene 1 24 31 -0.0802777 0 118 -0.0802777 1
gene 1 24 32 -0.897601 0 119 -0.897601 1
gene 1 24 33 -0.735537 0 120 -0.735537 1
gene 1 25 29 -0.244618 0 121 -0.244618 1
gene 1 25 30 -0.313285 0 122 -0.313285 1
gene 1 25 31 0.0219598 0 123 0.0219598 1
gene 1 25 32 1.7153 0 124 1.7153 1
gene 1 25 33 -0.30504 0 125 -0.30504 1
gene 1 26 29 -0.754967 0 126 -0.754967 1
gene 1 26 30 0.39152 0 127 0.39152 1
gene 1 26 31 1.83786 0 128 1.83786 1
gene 1 26 32 -0.56487 0 129 -0.56487 1
gene 1 26 33 -0.247669 0 130 -0.247669 1
gene 1 27 29 -0.346738 0 131 -0.346738 1
gene 1 27 30 0.957122 0 132 0.957122 1
gene 1 27 31 1.37322 0 133 1.37322 1
gene 1 27 32 0.547061 0 134 0.547061 1
gene 1 27 33 1.11907 0 135 1.11907 1
gene 1 28 29 -4.07392 0 136 -4.07392 1
gene 1 28 30 0.51516 0 137 0.51516 1
gene 1 28 31 0.479068 0 138 0.479068 1
gene 1 28 32 -0.572462 0 139 -0.572462 1
gene 1 28 33 0.765474 0 140 0.765474 1
genomeend 16


