/* Organism #30 Fitness: 36035.600000 Time: 0 */
genomestart 30
trait 1 0.372806 0.000000 0.786993 1.000000 0.049103 0.659306 1.000000 0.315015 
node 1 1 1 1
node 2 1 1 1
node 3 1 1 1
node 4 1 1 1
node 5 1 1 1
node 6 1 1 1
node 7 1 1 1
node 8 1 1 1
node 9 1 1 1
node 10 1 1 1
node 11 1 1 1
node 12 1 1 1
node 13 1 1 1
node 14 1 1 1
node 15 1 1 1
node 16 1 1 1
node 17 1 1 1
node 18 1 1 1
node 19 1 1 1
node 20 1 1 1
node 21 1 1 1
node 22 1 1 1
node 23 1 1 1
node 24 1 1 1
node 25 1 1 1
node 26 1 1 1
node 27 1 1 1
node 28 1 1 1
node 29 1 1 1
node 30 1 1 3
node 31 1 0 2
node 32 1 0 2
node 33 1 0 2
gene 1 1 31 1.85047 0 1 1.85047 1
gene 1 1 32 -1.17053 0 2 -1.17053 1
gene 1 1 33 -2.725 0 3 -2.725 1
gene 1 2 31 -2.50251 0 4 -2.50251 1
gene 1 2 32 -5 0 5 -5 1
gene 1 2 33 -1.10366 0 6 -1.10366 1
gene 1 3 31 -0.896055 0 7 -0.896055 1
gene 1 3 32 -1.57337 0 8 -1.57337 1
gene 1 3 33 -5 0 9 -5 1
gene 1 4 31 -4.94655 0 10 -4.94655 1
gene 1 4 32 1.28455 0 11 1.28455 1
gene 1 4 33 -1.34967 0 12 -1.34967 1
gene 1 5 31 4.41291 0 13 4.41291 1
gene 1 5 32 -4.40631 0 14 -4.40631 1
gene 1 5 33 -3.67228 0 15 -3.67228 1
gene 1 6 31 -0.503489 0 16 -0.503489 1
gene 1 6 32 4.87247 0 17 4.87247 1
gene 1 6 33 2.28758 0 18 2.28758 1
gene 1 7 31 4.07351 0 19 4.07351 1
gene 1 7 32 -2.78849 0 20 -2.78849 1
gene 1 7 33 -2.40298 0 21 -2.40298 1
gene 1 8 31 -0.775351 0 22 -0.775351 1
gene 1 8 32 0.675876 0 23 0.675876 1
gene 1 8 33 -3.05227 0 24 -3.05227 1
gene 1 9 31 1.6059 0 25 1.6059 1
gene 1 9 32 -3.12559 0 26 -3.12559 1
gene 1 9 33 -0.0833989 0 27 -0.0833989 1
gene 1 10 31 -2.13273 0 28 -2.13273 1
gene 1 10 32 1.65956 0 29 1.65956 1
gene 1 10 33 0.366909 0 30 0.366909 1
gene 1 11 31 1.14706 0 31 1.14706 1
gene 1 11 32 -0.333441 0 32 -0.333441 1
gene 1 11 33 4.82083 0 33 4.82083 1
gene 1 12 31 1.60153 0 34 1.60153 1
gene 1 12 32 3.60013 0 35 3.60013 1
gene 1 12 33 1.3714 0 36 1.3714 1
gene 1 13 31 0.483946 0 37 0.483946 1
gene 1 13 32 -4.51785 0 38 -4.51785 1
gene 1 13 33 -3.53486 0 39 -3.53486 1
gene 1 14 31 1.03378 0 40 1.03378 1
gene 1 14 32 -0.509291 0 41 -0.509291 1
gene 1 14 33 -3.08573 0 42 -3.08573 1
gene 1 15 31 1.75143 0 43 1.75143 1
gene 1 15 32 -1.24109 0 44 -1.24109 1
gene 1 15 33 3.10022 0 45 3.10022 1
gene 1 16 31 1.05355 0 46 1.05355 1
gene 1 16 32 3.27835 0 47 3.27835 1
gene 1 16 33 0.805057 0 48 0.805057 1
gene 1 17 31 -1.0689 0 49 -1.0689 1
gene 1 17 32 -3.74035 0 50 -3.74035 1
gene 1 17 33 1.37214 0 51 1.37214 1
gene 1 18 31 -4.6771 0 52 -4.6771 1
gene 1 18 32 0.360907 0 53 0.360907 1
gene 1 18 33 -2.34726 0 54 -2.34726 1
gene 1 19 31 -4.73212 0 55 -4.73212 1
gene 1 19 32 2.8773 0 56 2.8773 1
gene 1 19 33 2.12554 0 57 2.12554 1
gene 1 20 31 1.20525 0 58 1.20525 1
gene 1 20 32 0.246438 0 59 0.246438 1
gene 1 20 33 0.316733 0 60 0.316733 1
gene 1 21 31 -0.838996 0 61 -0.838996 1
gene 1 21 32 -4.12009 0 62 -4.12009 1
gene 1 21 33 -1.28645 0 63 -1.28645 1
gene 1 22 31 3.50176 0 64 3.50176 1
gene 1 22 32 1.81646 0 65 1.81646 1
gene 1 22 33 -0.602247 0 66 -0.602247 1
gene 1 23 31 5 0 67 5 1
gene 1 23 32 1.73038 0 68 1.73038 1
gene 1 23 33 -2.69114 0 69 -2.69114 1
gene 1 24 31 -5 0 70 -5 1
gene 1 24 32 1.17193 0 71 1.17193 1
gene 1 24 33 -1.57729 0 72 -1.57729 1
gene 1 25 31 -0.568101 0 73 -0.568101 1
gene 1 25 32 0.494391 0 74 0.494391 1
gene 1 25 33 -1.50606 0 75 -1.50606 1
gene 1 26 31 3.09163 0 76 3.09163 1
gene 1 26 32 1.25432 0 77 1.25432 1
gene 1 26 33 -2.94503 0 78 -2.94503 1
gene 1 27 31 0.496984 0 79 0.496984 1
gene 1 27 32 0.24795 0 80 0.24795 1
gene 1 27 33 -0.203271 0 81 -0.203271 1
gene 1 28 31 -0.0185941 0 82 -0.0185941 1
gene 1 28 32 0.206263 0 83 0.206263 1
gene 1 28 33 -0.0710608 0 84 -0.0710608 1
gene 1 29 31 0.346096 0 85 0.346096 1
gene 1 29 32 0.371984 0 86 0.371984 1
gene 1 29 33 0.791632 0 87 0.791632 1
gene 1 30 31 0.0757604 0 88 0.0757604 1
gene 1 30 32 -5 0 89 -5 1
gene 1 30 33 -0.23799 0 90 -0.23799 1
genomeend 30


