/* Organism #42 Fitness: 37484.100000 Time: 0 */
genomestart 42
trait 1 0.000000 0.000000 0.000000 0.000000 0.000000 0.000000 0.327536 0.081300 
node 1 1 1 1
node 2 1 1 1
node 3 1 1 1
node 4 1 1 1
node 5 1 1 1
node 6 1 1 1
node 7 1 1 1
node 8 1 1 1
node 9 1 1 1
node 10 1 1 1
node 11 1 1 1
node 12 1 1 1
node 13 1 1 1
node 14 1 1 1
node 15 1 1 1
node 16 1 1 1
node 17 1 1 1
node 18 1 1 1
node 19 1 1 1
node 20 1 1 1
node 21 1 1 1
node 22 1 1 1
node 23 1 1 1
node 24 1 1 1
node 25 1 1 1
node 26 1 1 1
node 27 1 1 1
node 28 1 1 1
node 29 1 1 1
node 30 1 1 3
node 31 1 0 2
node 32 1 0 2
node 33 1 0 2
gene 1 1 31 3.01508 0 1 3.01508 1
gene 1 1 32 -3.73221 0 2 -3.73221 1
gene 1 1 33 4.35888 0 3 4.35888 1
gene 1 2 31 0.711011 0 4 0.711011 1
gene 1 2 32 0.544068 0 5 0.544068 1
gene 1 2 33 0.0688079 0 6 0.0688079 1
gene 1 3 31 0.126301 0 7 0.126301 1
gene 1 3 32 -2.49458 0 8 -2.49458 1
gene 1 3 33 -0.976898 0 9 -0.976898 1
gene 1 4 31 0.0223425 0 10 0.0223425 1
gene 1 4 32 -0.800954 0 11 -0.800954 1
gene 1 4 33 -0.651261 0 12 -0.651261 1
gene 1 5 31 0.93448 0 13 0.93448 1
gene 1 5 32 0.28843 0 14 0.28843 1
gene 1 5 33 -0.934324 0 15 -0.934324 1
gene 1 6 31 2.54157 0 16 2.54157 1
gene 1 6 32 0.135622 0 17 0.135622 1
gene 1 6 33 -0.598989 0 18 -0.598989 1
gene 1 7 31 4.83633 0 19 4.83633 1
gene 1 7 32 -2.1193 0 20 -2.1193 1
gene 1 7 33 -4.03421 0 21 -4.03421 1
gene 1 8 31 -0.272344 0 22 -0.272344 1
gene 1 8 32 5 0 23 5 1
gene 1 8 33 4.4853 0 24 4.4853 1
gene 1 9 31 -2.12422 0 25 -2.12422 1
gene 1 9 32 1.84435 0 26 1.84435 1
gene 1 9 33 -1.78191 0 27 -1.78191 1
gene 1 10 31 2.13456 0 28 2.13456 1
gene 1 10 32 0.977684 0 29 0.977684 1
gene 1 10 33 -0.723664 0 30 -0.723664 1
gene 1 11 31 -0.198566 0 31 -0.198566 1
gene 1 11 32 2.44833 0 32 2.44833 1
gene 1 11 33 0.165998 0 33 0.165998 1
gene 1 12 31 0.125792 0 34 0.125792 1
gene 1 12 32 0.785361 0 35 0.785361 1
gene 1 12 33 -0.99018 0 36 -0.99018 1
gene 1 13 31 3.0039 0 37 3.0039 1
gene 1 13 32 5 0 38 5 1
gene 1 13 33 4.78448 0 39 4.78448 1
gene 1 14 31 -0.846829 0 40 -0.846829 1
gene 1 14 32 1.6361 0 41 1.6361 1
gene 1 14 33 -2.00041 0 42 -2.00041 1
gene 1 15 31 -0.863038 0 43 -0.863038 1
gene 1 15 32 -1.25413 0 44 -1.25413 1
gene 1 15 33 0.689407 0 45 0.689407 1
gene 1 16 31 -1.49177 0 46 -1.49177 1
gene 1 16 32 0.785854 0 47 0.785854 1
gene 1 16 33 1.90658 0 48 1.90658 1
gene 1 17 31 -0.240454 0 49 -0.240454 1
gene 1 17 32 -0.247064 0 50 -0.247064 1
gene 1 17 33 -0.00720125 0 51 -0.00720125 1
gene 1 18 31 -0.0645275 0 52 -0.0645275 1
gene 1 18 32 1.12674 0 53 1.12674 1
gene 1 18 33 0.727222 0 54 0.727222 1
gene 1 19 31 3.1945 0 55 3.1945 1
gene 1 19 32 1.27719 0 56 1.27719 1
gene 1 19 33 0.570152 0 57 0.570152 1
gene 1 20 31 0.207642 0 58 0.207642 1
gene 1 20 32 1.78755 0 59 1.78755 1
gene 1 20 33 2.62479 0 60 2.62479 1
gene 1 21 31 -4.11983 0 61 -4.11983 1
gene 1 21 32 -0.20945 0 62 -0.20945 1
gene 1 21 33 1.34366 0 63 1.34366 1
gene 1 22 31 -0.342151 0 64 -0.342151 1
gene 1 22 32 2.68718 0 65 2.68718 1
gene 1 22 33 -3.15588 0 66 -3.15588 1
gene 1 23 31 -0.318525 0 67 -0.318525 1
gene 1 23 32 -2.00029 0 68 -2.00029 1
gene 1 23 33 3.4098 0 69 3.4098 1
gene 1 24 31 0.670155 0 70 0.670155 1
gene 1 24 32 0.562092 0 71 0.562092 1
gene 1 24 33 1.14584 0 72 1.14584 1
gene 1 25 31 0.83117 0 73 0.83117 1
gene 1 25 32 0.181018 0 74 0.181018 1
gene 1 25 33 -1.61099 0 75 -1.61099 1
gene 1 26 31 0.936915 0 76 0.936915 1
gene 1 26 32 0.994287 0 77 0.994287 1
gene 1 26 33 -0.291821 0 78 -0.291821 1
gene 1 27 31 0.0042373 0 79 0.0042373 1
gene 1 27 32 -0.102061 0 80 -0.102061 1
gene 1 27 33 2.09139 0 81 2.09139 1
gene 1 28 31 0.801061 0 82 0.801061 1
gene 1 28 32 0.0978678 0 83 0.0978678 1
gene 1 28 33 0.177835 0 84 0.177835 1
gene 1 29 31 0.589094 0 85 0.589094 1
gene 1 29 32 -0.371551 0 86 -0.371551 1
gene 1 29 33 0.96684 0 87 0.96684 1
gene 1 30 31 -0.372659 0 88 -0.372659 1
gene 1 30 32 -0.0563252 0 89 -0.0563252 1
gene 1 30 33 0.455451 0 90 0.455451 1
genomeend 42


