/* Organism #0 Fitness: 35240.356000 Time: 0 */
genomestart 0
trait 1 0.994252 0.525364 0.000000 0.256177 0.000000 0.045176 0.000000 0.000000 
node 1 1 1 1
node 2 1 1 1
node 3 1 1 1
node 4 1 1 1
node 5 1 1 1
node 6 1 1 1
node 7 1 1 1
node 8 1 1 1
node 9 1 1 1
node 10 1 1 1
node 11 1 1 1
node 12 1 1 1
node 13 1 1 1
node 14 1 1 1
node 15 1 1 1
node 16 1 1 1
node 17 1 1 1
node 18 1 1 1
node 19 1 1 1
node 20 1 1 1
node 21 1 1 1
node 22 1 1 1
node 23 1 1 1
node 24 1 1 1
node 25 1 1 1
node 26 1 1 1
node 27 1 1 1
node 28 1 1 1
node 29 1 1 1
node 30 1 1 3
node 31 1 0 2
node 32 1 0 2
node 33 1 0 2
gene 1 1 31 0.386301 0 1 0.386301 1
gene 1 1 32 -3.07502 0 2 -3.07502 1
gene 1 1 33 0.076623 0 3 0.076623 1
gene 1 2 31 0.652 0 4 0.652 1
gene 1 2 32 -1.50722 0 5 -1.50722 1
gene 1 2 33 -1.20535 0 6 -1.20535 1
gene 1 3 31 1.61381 0 7 1.61381 1
gene 1 3 32 -3.65995 0 8 -3.65995 1
gene 1 3 33 -0.146123 0 9 -0.146123 1
gene 1 4 31 -0.0849936 0 10 -0.0849936 1
gene 1 4 32 -2.20608 0 11 -2.20608 1
gene 1 4 33 -1.38052 0 12 -1.38052 1
gene 1 5 31 2.32333 0 13 2.32333 1
gene 1 5 32 1.80122 0 14 1.80122 1
gene 1 5 33 -0.58681 0 15 -0.58681 1
gene 1 6 31 -0.908816 0 16 -0.908816 1
gene 1 6 32 -1.14521 0 17 -1.14521 1
gene 1 6 33 0.414615 0 18 0.414615 1
gene 1 7 31 2.21243 0 19 2.21243 1
gene 1 7 32 -2.45388 0 20 -2.45388 1
gene 1 7 33 -1.44481 0 21 -1.44481 1
gene 1 8 31 -1.86815 0 22 -1.86815 1
gene 1 8 32 5 0 23 5 1
gene 1 8 33 -1.10364 0 24 -1.10364 1
gene 1 9 31 -0.776491 0 25 -0.776491 1
gene 1 9 32 -1.91179 0 26 -1.91179 1
gene 1 9 33 0.593957 0 27 0.593957 1
gene 1 10 31 0.812028 0 28 0.812028 1
gene 1 10 32 -1.49431 0 29 -1.49431 1
gene 1 10 33 -0.660243 0 30 -0.660243 1
gene 1 11 31 0.340667 0 31 0.340667 1
gene 1 11 32 0.358774 0 32 0.358774 1
gene 1 11 33 0.282647 0 33 0.282647 1
gene 1 12 31 0.839545 0 34 0.839545 1
gene 1 12 32 -0.573014 0 35 -0.573014 1
gene 1 12 33 -2.00525 0 36 -2.00525 1
gene 1 13 31 2.12717 0 37 2.12717 1
gene 1 13 32 2.19073 0 38 2.19073 1
gene 1 13 33 -3.04013 0 39 -3.04013 1
gene 1 14 31 0.613999 0 40 0.613999 1
gene 1 14 32 -0.148288 0 41 -0.148288 1
gene 1 14 33 -0.0624593 0 42 -0.0624593 1
gene 1 15 31 1.24763 0 43 1.24763 1
gene 1 15 32 -1.4613 0 44 -1.4613 1
gene 1 15 33 -1.09492 0 45 -1.09492 1
gene 1 16 31 -0.450666 0 46 -0.450666 1
gene 1 16 32 1.88524 0 47 1.88524 1
gene 1 16 33 0.590159 0 48 0.590159 1
gene 1 17 31 1.76517 0 49 1.76517 1
gene 1 17 32 -0.384036 0 50 -0.384036 1
gene 1 17 33 -1.88316 0 51 -1.88316 1
gene 1 18 31 0.668636 0 52 0.668636 1
gene 1 18 32 0.386645 0 53 0.386645 1
gene 1 18 33 -1.18848 0 54 -1.18848 1
gene 1 19 31 -1.32963 0 55 -1.32963 1
gene 1 19 32 -1.75661 0 56 -1.75661 1
gene 1 19 33 -1.29468 0 57 -1.29468 1
gene 1 20 31 0.0860036 0 58 0.0860036 1
gene 1 20 32 -0.208296 0 59 -0.208296 1
gene 1 20 33 -0.305409 0 60 -0.305409 1
gene 1 21 31 1.13932 0 61 1.13932 1
gene 1 21 32 -1.74082 0 62 -1.74082 1
gene 1 21 33 -1.7486 0 63 -1.7486 1
gene 1 22 31 -0.375651 0 64 -0.375651 1
gene 1 22 32 -0.227925 0 65 -0.227925 1
gene 1 22 33 -1.02892 0 66 -1.02892 1
gene 1 23 31 0.0312055 0 67 0.0312055 1
gene 1 23 32 0.0767307 0 68 0.0767307 1
gene 1 23 33 -1.21245 0 69 -1.21245 1
gene 1 24 31 -1.68157 0 70 -1.68157 1
gene 1 24 32 -4.38487 0 71 -4.38487 1
gene 1 24 33 1.18607 0 72 1.18607 1
gene 1 25 31 1.48192 0 73 1.48192 1
gene 1 25 32 -0.538327 0 74 -0.538327 1
gene 1 25 33 1.0042 0 75 1.0042 1
gene 1 26 31 -0.486868 0 76 -0.486868 1
gene 1 26 32 0.309146 0 77 0.309146 1
gene 1 26 33 -0.554559 0 78 -0.554559 1
gene 1 27 31 0.926667 0 79 0.926667 1
gene 1 27 32 -0.261044 0 80 -0.261044 1
gene 1 27 33 -1.73422 0 81 -1.73422 1
gene 1 28 31 0.35335 0 82 0.35335 1
gene 1 28 32 0.156252 0 83 0.156252 1
gene 1 28 33 0.253626 0 84 0.253626 1
gene 1 29 31 -0.50972 0 85 -0.50972 1
gene 1 29 32 1.29485 0 86 1.29485 1
gene 1 29 33 -1.1189 0 87 -1.1189 1
gene 1 30 31 0.877407 0 88 0.877407 1
gene 1 30 32 4.97688 0 89 4.97688 1
gene 1 30 33 1.1576 0 90 1.1576 1
genomeend 0


