/* Organism #3 Fitness: 18454.700000 Time: 0 */
genomestart 3
trait 1 0.857246 0.000000 0.000000 0.000000 0.000000 0.000000 0.000000 0.348430 
node 1 1 1 1
node 2 1 1 1
node 3 1 1 1
node 4 1 1 1
node 5 1 1 1
node 6 1 1 1
node 7 1 1 1
node 8 1 1 1
node 9 1 1 1
node 10 1 1 1
node 11 1 1 1
node 12 1 1 1
node 13 1 1 1
node 14 1 1 1
node 15 1 1 1
node 16 1 1 1
node 17 1 1 1
node 18 1 1 1
node 19 1 1 1
node 20 1 1 1
node 21 1 1 1
node 22 1 1 1
node 23 1 1 1
node 24 1 1 1
node 25 1 1 1
node 26 1 1 1
node 27 1 1 1
node 28 1 1 1
node 29 1 1 1
node 30 1 1 3
node 31 1 0 2
node 32 1 0 2
node 33 1 0 2
gene 1 1 31 2.84809 0 1 2.84809 1
gene 1 1 32 -4.75506 0 2 -4.75506 1
gene 1 1 33 -1.88365 0 3 -1.88365 1
gene 1 2 31 1.49826 0 4 1.49826 1
gene 1 2 32 -3.31141 0 5 -3.31141 1
gene 1 2 33 1.19326 0 6 1.19326 1
gene 1 3 31 -1.04189 0 7 -1.04189 1
gene 1 3 32 -2.09271 0 8 -2.09271 1
gene 1 3 33 0.424525 0 9 0.424525 1
gene 1 4 31 -0.52614 0 10 -0.52614 1
gene 1 4 32 0.567467 0 11 0.567467 1
gene 1 4 33 -4.50955 0 12 -4.50955 1
gene 1 5 31 0.158694 0 13 0.158694 1
gene 1 5 32 -0.239242 0 14 -0.239242 1
gene 1 5 33 -1.08065 0 15 -1.08065 1
gene 1 6 31 -0.965276 0 16 -0.965276 1
gene 1 6 32 -1.15376 0 17 -1.15376 1
gene 1 6 33 -1.62371 0 18 -1.62371 1
gene 1 7 31 -0.607537 0 19 -0.607537 1
gene 1 7 32 1.41811 0 20 1.41811 1
gene 1 7 33 0.908164 0 21 0.908164 1
gene 1 8 31 -1.40742 0 22 -1.40742 1
gene 1 8 32 -2.26681 0 23 -2.26681 1
gene 1 8 33 3.65826 0 24 3.65826 1
gene 1 9 31 1.67877 0 25 1.67877 1
gene 1 9 32 3.6028 0 26 3.6028 1
gene 1 9 33 -1.31716 0 27 -1.31716 1
gene 1 10 31 -1.20512 0 28 -1.20512 1
gene 1 10 32 4.61249 0 29 4.61249 1
gene 1 10 33 2.19657 0 30 2.19657 1
gene 1 11 31 0.946673 0 31 0.946673 1
gene 1 11 32 -1.825 0 32 -1.825 1
gene 1 11 33 -2.41214 0 33 -2.41214 1
gene 1 12 31 1.55392 0 34 1.55392 1
gene 1 12 32 -0.916521 0 35 -0.916521 1
gene 1 12 33 1.02586 0 36 1.02586 1
gene 1 13 31 0.280798 0 37 0.280798 1
gene 1 13 32 -4.86859 0 38 -4.86859 1
gene 1 13 33 -0.287882 0 39 -0.287882 1
gene 1 14 31 -3.5681 0 40 -3.5681 1
gene 1 14 32 -2.48434 0 41 -2.48434 1
gene 1 14 33 0.775733 0 42 0.775733 1
gene 1 15 31 0.711651 0 43 0.711651 1
gene 1 15 32 0.057219 0 44 0.057219 1
gene 1 15 33 -0.144488 0 45 -0.144488 1
gene 1 16 31 -1.63139 0 46 -1.63139 1
gene 1 16 32 3.42861 0 47 3.42861 1
gene 1 16 33 -1.47931 0 48 -1.47931 1
gene 1 17 31 5 0 49 5 1
gene 1 17 32 3.51697 0 50 3.51697 1
gene 1 17 33 -1.06798 0 51 -1.06798 1
gene 1 18 31 -0.598024 0 52 -0.598024 1
gene 1 18 32 3.52056 0 53 3.52056 1
gene 1 18 33 -0.770663 0 54 -0.770663 1
gene 1 19 31 -0.659068 0 55 -0.659068 1
gene 1 19 32 -1.00328 0 56 -1.00328 1
gene 1 19 33 0.204059 0 57 0.204059 1
gene 1 20 31 -0.455983 0 58 -0.455983 1
gene 1 20 32 -0.345527 0 59 -0.345527 1
gene 1 20 33 -1.21137 0 60 -1.21137 1
gene 1 21 31 -2.97666 0 61 -2.97666 1
gene 1 21 32 -0.903987 0 62 -0.903987 1
gene 1 21 33 2.45705 0 63 2.45705 1
gene 1 22 31 1.98369 0 64 1.98369 1
gene 1 22 32 -0.245628 0 65 -0.245628 1
gene 1 22 33 1.41955 0 66 1.41955 1
gene 1 23 31 -0.803435 0 67 -0.803435 1
gene 1 23 32 -0.251332 0 68 -0.251332 1
gene 1 23 33 -1.22106 0 69 -1.22106 1
gene 1 24 31 -0.426804 0 70 -0.426804 1
gene 1 24 32 0.333779 0 71 0.333779 1
gene 1 24 33 0.400054 0 72 0.400054 1
gene 1 25 31 5 0 73 5 1
gene 1 25 32 -0.101724 0 74 -0.101724 1
gene 1 25 33 -0.800347 0 75 -0.800347 1
gene 1 26 31 -0.692247 0 76 -0.692247 1
gene 1 26 32 -0.842422 0 77 -0.842422 1
gene 1 26 33 1.41719 0 78 1.41719 1
gene 1 27 31 -0.0655015 0 79 -0.0655015 1
gene 1 27 32 -1.09374 0 80 -1.09374 1
gene 1 27 33 1.61312 0 81 1.61312 1
gene 1 28 31 -0.666656 0 82 -0.666656 1
gene 1 28 32 -4.46175 0 83 -4.46175 1
gene 1 28 33 0.627438 0 84 0.627438 1
gene 1 29 31 0.596712 0 85 0.596712 1
gene 1 29 32 -0.192585 0 86 -0.192585 1
gene 1 29 33 -2.38477 0 87 -2.38477 1
gene 1 30 31 0.380756 0 88 0.380756 1
gene 1 30 32 -0.64529 0 89 -0.64529 1
gene 1 30 33 0.86938 0 90 0.86938 1
genomeend 3


