/* Organism #7 Fitness: 10995.000000 Time: 0 */
genomestart 7
trait 1 1.000000 0.982318 0.000000 0.508139 1.000000 0.593460 0.322706 0.000000 
node 1 1 1 1
node 2 1 1 1
node 3 1 1 1
node 4 1 1 1
node 5 1 1 1
node 6 1 1 1
node 7 1 1 1
node 8 1 1 1
node 9 1 1 1
node 10 1 1 1
node 11 1 1 1
node 12 1 1 1
node 13 1 1 1
node 14 1 1 1
node 15 1 1 1
node 16 1 1 1
node 17 1 1 1
node 18 1 1 1
node 19 1 1 1
node 20 1 1 1
node 21 1 1 1
node 22 1 1 1
node 23 1 1 1
node 24 1 1 1
node 25 1 1 1
node 26 1 1 1
node 27 1 1 1
node 28 1 1 1
node 29 1 1 1
node 30 1 1 3
node 31 1 0 2
node 32 1 0 2
node 33 1 0 2
gene 1 1 31 0.423532 0 1 0.423532 1
gene 1 1 32 -2.8038 0 2 -2.8038 1
gene 1 1 33 1.3836 0 3 1.3836 1
gene 1 2 31 1.33209 0 4 1.33209 1
gene 1 2 32 -2.04529 0 5 -2.04529 1
gene 1 2 33 -3.13679 0 6 -3.13679 1
gene 1 3 31 -1.45854 0 7 -1.45854 1
gene 1 3 32 2.81577 0 8 2.81577 1
gene 1 3 33 0.349445 0 9 0.349445 1
gene 1 4 31 2.20903 0 10 2.20903 1
gene 1 4 32 2.02626 0 11 2.02626 1
gene 1 4 33 -4.49192 0 12 -4.49192 1
gene 1 5 31 -3.36237 0 13 -3.36237 1
gene 1 5 32 0.788957 0 14 0.788957 1
gene 1 5 33 3.52137 0 15 3.52137 1
gene 1 6 31 1.01623 0 16 1.01623 1
gene 1 6 32 -2.51935 0 17 -2.51935 1
gene 1 6 33 0.245401 0 18 0.245401 1
gene 1 7 31 1.96984 0 19 1.96984 1
gene 1 7 32 -0.0112041 0 20 -0.0112041 1
gene 1 7 33 -2.68005 0 21 -2.68005 1
gene 1 8 31 1.69849 0 22 1.69849 1
gene 1 8 32 0.626293 0 23 0.626293 1
gene 1 8 33 -0.366485 0 24 -0.366485 1
gene 1 9 31 5 0 25 5 1
gene 1 9 32 5 0 26 5 1
gene 1 9 33 4.12104 0 27 4.12104 1
gene 1 10 31 2.45893 0 28 2.45893 1
gene 1 10 32 0.946976 0 29 0.946976 1
gene 1 10 33 -1.06726 0 30 -1.06726 1
gene 1 11 31 1.24911 0 31 1.24911 1
gene 1 11 32 3.15304 0 32 3.15304 1
gene 1 11 33 0.996235 0 33 0.996235 1
gene 1 12 31 0.783756 0 34 0.783756 1
gene 1 12 32 -2.95221 0 35 -2.95221 1
gene 1 12 33 -0.265879 0 36 -0.265879 1
gene 1 13 31 1.67864 0 37 1.67864 1
gene 1 13 32 -0.316538 0 38 -0.316538 1
gene 1 13 33 0.776093 0 39 0.776093 1
gene 1 14 31 -0.396216 0 40 -0.396216 1
gene 1 14 32 5 0 41 5 1
gene 1 14 33 3.3457 0 42 3.3457 1
gene 1 15 31 -1.72554 0 43 -1.72554 1
gene 1 15 32 3.38504 0 44 3.38504 1
gene 1 15 33 0.962162 0 45 0.962162 1
gene 1 16 31 -1.34769 0 46 -1.34769 1
gene 1 16 32 5 0 47 5 1
gene 1 16 33 -0.030175 0 48 -0.030175 1
gene 1 17 31 -5 0 49 -5 1
gene 1 17 32 -1.96392 0 50 -1.96392 1
gene 1 17 33 2.11107 0 51 2.11107 1
gene 1 18 31 4.76754 0 52 4.76754 1
gene 1 18 32 1.34077 0 53 1.34077 1
gene 1 18 33 0.207591 0 54 0.207591 1
gene 1 19 31 -2.4219 0 55 -2.4219 1
gene 1 19 32 -1.73528 0 56 -1.73528 1
gene 1 19 33 -1.1166 0 57 -1.1166 1
gene 1 20 31 -2.36455 0 58 -2.36455 1
gene 1 20 32 0.407956 0 59 0.407956 1
gene 1 20 33 -0.119926 0 60 -0.119926 1
gene 1 21 31 -2.13913 0 61 -2.13913 1
gene 1 21 32 1.86329 0 62 1.86329 1
gene 1 21 33 -0.953876 0 63 -0.953876 1
gene 1 22 31 -2.91161 0 64 -2.91161 1
gene 1 22 32 -2.14951 0 65 -2.14951 1
gene 1 22 33 -1.52211 0 66 -1.52211 1
gene 1 23 31 1.34189 0 67 1.34189 1
gene 1 23 32 0.936732 0 68 0.936732 1
gene 1 23 33 2.67347 0 69 2.67347 1
gene 1 24 31 -0.106681 0 70 -0.106681 1
gene 1 24 32 -5 0 71 -5 1
gene 1 24 33 2.62685 0 72 2.62685 1
gene 1 25 31 0.30332 0 73 0.30332 1
gene 1 25 32 -0.820471 0 74 -0.820471 1
gene 1 25 33 0.695183 0 75 0.695183 1
gene 1 26 31 -0.993252 0 76 -0.993252 1
gene 1 26 32 0.827814 0 77 0.827814 1
gene 1 26 33 1.22114 0 78 1.22114 1
gene 1 27 31 0.0384081 0 79 0.0384081 1
gene 1 27 32 2.1201 0 80 2.1201 1
gene 1 27 33 -1.52959 0 81 -1.52959 1
gene 1 28 31 -0.0343518 0 82 -0.0343518 1
gene 1 28 32 1.19711 0 83 1.19711 1
gene 1 28 33 -0.128733 0 84 -0.128733 1
gene 1 29 31 -1.61133 0 85 -1.61133 1
gene 1 29 32 -1.58337 0 86 -1.58337 1
gene 1 29 33 -0.0290923 0 87 -0.0290923 1
gene 1 30 31 -0.307038 0 88 -0.307038 1
gene 1 30 32 -0.302048 0 89 -0.302048 1
gene 1 30 33 -0.151969 0 90 -0.151969 1
genomeend 7


