/* Organism #47 Fitness: 7418.200000 Time: 0 */
genomestart 47
trait 1 0.216248 0.982318 0.000000 0.000000 0.633769 0.593460 0.000000 0.865096 
node 1 1 1 1
node 2 1 1 1
node 3 1 1 1
node 4 1 1 1
node 5 1 1 1
node 6 1 1 1
node 7 1 1 1
node 8 1 1 1
node 9 1 1 1
node 10 1 1 1
node 11 1 1 1
node 12 1 1 1
node 13 1 1 1
node 14 1 1 1
node 15 1 1 1
node 16 1 1 1
node 17 1 1 1
node 18 1 1 1
node 19 1 1 1
node 20 1 1 1
node 21 1 1 1
node 22 1 1 1
node 23 1 1 1
node 24 1 1 1
node 25 1 1 1
node 26 1 1 1
node 27 1 1 1
node 28 1 1 1
node 29 1 1 1
node 30 1 1 3
node 31 1 0 2
node 32 1 0 2
node 33 1 0 2
gene 1 1 31 -2.65041 0 1 -2.65041 1
gene 1 1 32 -2.39023 0 2 -2.39023 1
gene 1 1 33 -0.0141872 0 3 -0.0141872 1
gene 1 2 31 -1.35684 0 4 -1.35684 1
gene 1 2 32 -0.440598 0 5 -0.440598 1
gene 1 2 33 3.91375 0 6 3.91375 1
gene 1 3 31 -0.466502 0 7 -0.466502 1
gene 1 3 32 -0.134084 0 8 -0.134084 1
gene 1 3 33 -1.80212 0 9 -1.80212 1
gene 1 4 31 -0.0969361 0 10 -0.0969361 1
gene 1 4 32 -1.34824 0 11 -1.34824 1
gene 1 4 33 -0.202 0 12 -0.202 1
gene 1 5 31 0.0986366 0 13 0.0986366 1
gene 1 5 32 2.6191 0 14 2.6191 1
gene 1 5 33 0.455638 0 15 0.455638 1
gene 1 6 31 3.50034 0 16 3.50034 1
gene 1 6 32 -0.885476 0 17 -0.885476 1
gene 1 6 33 0.14842 0 18 0.14842 1
gene 1 7 31 -0.956927 0 19 -0.956927 1
gene 1 7 32 -0.0907255 0 20 -0.0907255 1
gene 1 7 33 -2.1177 0 21 -2.1177 1
gene 1 8 31 0.373812 0 22 0.373812 1
gene 1 8 32 -2.79342 0 23 -2.79342 1
gene 1 8 33 -4.78462 0 24 -4.78462 1
gene 1 9 31 1.1123 0 25 1.1123 1
gene 1 9 32 3.32318 0 26 3.32318 1
gene 1 9 33 2.29304 0 27 2.29304 1
gene 1 10 31 0.133335 0 28 0.133335 1
gene 1 10 32 2.63035 0 29 2.63035 1
gene 1 10 33 4.17489 0 30 4.17489 1
gene 1 11 31 1.80911 0 31 1.80911 1
gene 1 11 32 0.112308 0 32 0.112308 1
gene 1 11 33 0.507604 0 33 0.507604 1
gene 1 12 31 2.24953 0 34 2.24953 1
gene 1 12 32 -2.81904 0 35 -2.81904 1
gene 1 12 33 -0.566819 0 36 -0.566819 1
gene 1 13 31 -1.65674 0 37 -1.65674 1
gene 1 13 32 -2.74959 0 38 -2.74959 1
gene 1 13 33 -0.232253 0 39 -0.232253 1
gene 1 14 31 -0.838692 0 40 -0.838692 1
gene 1 14 32 3.78398 0 41 3.78398 1
gene 1 14 33 1.4483 0 42 1.4483 1
gene 1 15 31 -4.49092 0 43 -4.49092 1
gene 1 15 32 2.77636 0 44 2.77636 1
gene 1 15 33 0.345429 0 45 0.345429 1
gene 1 16 31 -0.0823044 0 46 -0.0823044 1
gene 1 16 32 4.66069 0 47 4.66069 1
gene 1 16 33 1.62232 0 48 1.62232 1
gene 1 17 31 -4.36234 0 49 -4.36234 1
gene 1 17 32 -4.19492 0 50 -4.19492 1
gene 1 17 33 0.556079 0 51 0.556079 1
gene 1 18 31 0.529317 0 52 0.529317 1
gene 1 18 32 -1.09264 0 53 -1.09264 1
gene 1 18 33 -5 0 54 -5 1
gene 1 19 31 -0.32119 0 55 -0.32119 1
gene 1 19 32 1.54064 0 56 1.54064 1
gene 1 19 33 -0.72455 0 57 -0.72455 1
gene 1 20 31 0.558327 0 58 0.558327 1
gene 1 20 32 -0.736642 0 59 -0.736642 1
gene 1 20 33 1.10584 0 60 1.10584 1
gene 1 21 31 -1.52433 0 61 -1.52433 1
gene 1 21 32 -0.945312 0 62 -0.945312 1
gene 1 21 33 -1.60509 0 63 -1.60509 1
gene 1 22 31 1.44966 0 64 1.44966 1
gene 1 22 32 0.170557 0 65 0.170557 1
gene 1 22 33 -0.91651 0 66 -0.91651 1
gene 1 23 31 -3.57841 0 67 -3.57841 1
gene 1 23 32 0.370071 0 68 0.370071 1
gene 1 23 33 1.04364 0 69 1.04364 1
gene 1 24 31 -3.05342 0 70 -3.05342 1
gene 1 24 32 1.65862 0 71 1.65862 1
gene 1 24 33 -1.55268 0 72 -1.55268 1
gene 1 25 31 -4.23882 0 73 -4.23882 1
gene 1 25 32 -0.627202 0 74 -0.627202 1
gene 1 25 33 -0.604642 0 75 -0.604642 1
gene 1 26 31 0.689557 0 76 0.689557 1
gene 1 26 32 0.632974 0 77 0.632974 1
gene 1 26 33 0.669888 0 78 0.669888 1
gene 1 27 31 0.080727 0 79 0.080727 1
gene 1 27 32 1.24347 0 80 1.24347 1
gene 1 27 33 -1.69148 0 81 -1.69148 1
gene 1 28 31 -0.178103 0 82 -0.178103 1
gene 1 28 32 -0.0856275 0 83 -0.0856275 1
gene 1 28 33 -0.980868 0 84 -0.980868 1
gene 1 29 31 0.3425 0 85 0.3425 1
gene 1 29 32 1.00654 0 86 1.00654 1
gene 1 29 33 0.53023 0 87 0.53023 1
gene 1 30 31 -0.921482 0 88 -0.921482 1
gene 1 30 32 -1.14544 0 89 -1.14544 1
gene 1 30 33 -0.958037 0 90 -0.958037 1
genomeend 47


