/* Organism #55 Fitness: 14548.152000 Time: 0 */
genomestart 55
trait 1 1.000000 0.000000 0.257614 1.000000 1.000000 0.000000 0.036030 0.187902 
node 1 1 1 1
node 2 1 1 1
node 3 1 1 1
node 4 1 1 1
node 5 1 1 1
node 6 1 1 1
node 7 1 1 1
node 8 1 1 1
node 9 1 1 1
node 10 1 1 1
node 11 1 1 1
node 12 1 1 1
node 13 1 1 1
node 14 1 1 1
node 15 1 1 1
node 16 1 1 1
node 17 1 1 1
node 18 1 1 1
node 19 1 1 1
node 20 1 1 1
node 21 1 1 1
node 22 1 1 1
node 23 1 1 1
node 24 1 1 1
node 25 1 1 1
node 26 1 1 1
node 27 1 1 1
node 28 1 1 1
node 29 1 1 1
node 30 1 1 1
node 31 1 1 3
node 32 1 0 2
node 33 1 0 2
node 34 1 0 2
node 35 1 0 0
node 36 1 0 0
node 37 1 0 1
gene 1 1 32 -0.675627 0 1 -0.675627 1
gene 1 1 33 -2.2714 0 2 -2.2714 1
gene 1 2 32 1.34809 0 3 1.34809 1
gene 1 2 33 -3.07698 0 4 -3.07698 1
gene 1 3 32 -2.23053 0 5 -2.23053 1
gene 1 3 33 0.151098 0 6 0.151098 1
gene 1 4 32 0.0183435 0 7 0.0183435 1
gene 1 4 33 4.15344 0 8 4.15344 1
gene 1 5 32 2.9091 0 9 2.9091 1
gene 1 5 33 2.79408 0 10 2.79408 1
gene 1 6 32 1.53954 0 11 1.53954 1
gene 1 6 33 0.221576 0 12 0.221576 1
gene 1 7 32 1.23125 0 13 1.23125 1
gene 1 7 33 -0.697434 0 14 -0.697434 1
gene 1 8 32 -1.6724 0 15 -1.6724 1
gene 1 8 33 2.07733 0 16 2.07733 1
gene 1 9 32 -0.142725 0 17 -0.142725 1
gene 1 9 33 0.498691 0 18 0.498691 1
gene 1 10 32 -0.0345461 0 19 -0.0345461 1
gene 1 10 33 -5 0 20 -5 1
gene 1 11 32 -1.62463 0 21 -1.62463 1
gene 1 11 33 5 0 22 5 1
gene 1 12 32 0.0642113 0 23 0.0642113 1
gene 1 12 33 -1.40787 0 24 -1.40787 1
gene 1 13 32 0.937938 0 25 0.937938 1
gene 1 13 33 4.29853 0 26 4.29853 1
gene 1 14 32 0.291993 0 27 0.291993 1
gene 1 14 33 -1.29466 0 28 -1.29466 1
gene 1 15 32 4.3327 0 29 4.3327 1
gene 1 15 33 1.05138 0 30 1.05138 1
gene 1 16 32 4.05647 0 31 4.05647 1
gene 1 16 33 -4.04166 0 32 -4.04166 1
gene 1 17 32 1.54071 0 33 1.54071 1
gene 1 17 33 1.50418 0 34 1.50418 1
gene 1 18 32 2.06869 0 35 2.06869 1
gene 1 18 33 2.23927 0 36 2.23927 1
gene 1 19 32 -1.61993 0 37 -1.61993 1
gene 1 19 33 2.38311 0 38 2.38311 1
gene 1 20 32 -1.11447 0 39 -1.11447 1
gene 1 20 33 1.05758 0 40 1.05758 1
gene 1 21 32 2.77823 0 41 2.77823 1
gene 1 21 33 4.88576 0 42 4.88576 1
gene 1 22 32 0.274829 0 43 0.274829 1
gene 1 22 33 0.787802 0 44 0.787802 1
gene 1 23 32 0.0402818 0 45 0.0402818 1
gene 1 23 33 -5 0 46 -5 1
gene 1 24 32 2.25974 0 47 2.25974 1
gene 1 24 33 -3.67531 0 48 -3.67531 1
gene 1 25 32 0.428437 0 49 0.428437 1
gene 1 25 33 -0.494829 0 50 -0.494829 1
gene 1 26 32 -1.82027 0 51 -1.82027 1
gene 1 26 33 1.41195 0 52 1.41195 1
gene 1 27 32 0.983068 0 53 0.983068 1
gene 1 27 33 4.19913 0 54 4.19913 1
gene 1 28 32 0.526994 0 55 0.526994 1
gene 1 28 33 0.151278 0 56 0.151278 1
gene 1 29 32 1.98688 0 57 1.98688 1
gene 1 29 33 1.65431 0 58 1.65431 1
gene 1 30 32 -2.72368 0 59 -2.72368 1
gene 1 30 33 -2.12687 0 60 -2.12687 1
gene 1 31 32 1.56883 0 61 1.56883 1
gene 1 31 33 0.177047 0 62 0.177047 1
gene 1 1 35 -2.97907 0 63 -2.97907 1
gene 1 1 36 4.23216 0 64 4.23216 1
gene 1 2 35 -1.66684 0 65 -1.66684 1
gene 1 2 36 -1.11951 0 66 -1.11951 1
gene 1 3 35 0.248606 0 67 0.248606 1
gene 1 3 36 5 0 68 5 1
gene 1 4 35 2.00103 0 69 2.00103 1
gene 1 4 36 -2.34372 0 70 -2.34372 1
gene 1 5 35 -4.95764 0 71 -4.95764 1
gene 1 5 36 3.0196 0 72 3.0196 1
gene 1 6 35 -5 0 73 -5 1
gene 1 6 36 0.0438022 0 74 0.0438022 1
gene 1 7 35 -4.22482 0 75 -4.22482 1
gene 1 7 36 0.236709 0 76 0.236709 1
gene 1 8 35 -2.50223 0 77 -2.50223 1
gene 1 8 36 0.877015 0 78 0.877015 1
gene 1 9 35 0.995036 0 79 0.995036 1
gene 1 9 36 -3.77348 0 80 -3.77348 1
gene 1 10 35 0.797781 0 81 0.797781 1
gene 1 10 36 1.35816 0 82 1.35816 1
gene 1 11 35 1.79016 0 83 1.79016 1
gene 1 11 36 -0.323578 0 84 -0.323578 1
gene 1 12 35 -1.39361 0 85 -1.39361 1
gene 1 12 36 1.36374 0 86 1.36374 1
gene 1 13 35 -3.28395 0 87 -3.28395 1
gene 1 13 36 -2.14433 0 88 -2.14433 1
gene 1 14 35 -0.803667 0 89 -0.803667 1
gene 1 14 36 -1.36669 0 90 -1.36669 1
gene 1 15 35 -1.09919 0 91 -1.09919 1
gene 1 15 36 -0.902098 0 92 -0.902098 1
gene 1 16 35 -0.954592 0 93 -0.954592 1
gene 1 16 36 -2.57455 0 94 -2.57455 1
gene 1 17 35 0.543376 0 95 0.543376 1
gene 1 17 36 1.78349 0 96 1.78349 1
gene 1 18 35 -1.28644 0 97 -1.28644 1
gene 1 18 36 -1.94995 0 98 -1.94995 1
gene 1 19 35 -2.56102 0 99 -2.56102 1
gene 1 19 36 -3.13837 0 100 -3.13837 1
gene 1 20 35 -1.42839 0 101 -1.42839 1
gene 1 20 36 5 0 102 5 1
gene 1 21 35 -0.64519 0 103 -0.64519 1
gene 1 21 36 0.585474 0 104 0.585474 1
gene 1 22 35 1.60628 0 105 1.60628 1
gene 1 22 36 0.191966 0 106 0.191966 1
gene 1 23 35 0.79529 0 107 0.79529 1
gene 1 23 36 5 0 108 5 1
gene 1 24 35 0.0873564 0 109 0.0873564 1
gene 1 24 36 -1.00571 0 110 -1.00571 1
gene 1 25 35 1.25761 0 111 1.25761 1
gene 1 25 36 1.23505 0 112 1.23505 1
gene 1 26 35 0.444535 0 113 0.444535 1
gene 1 26 36 0.786504 0 114 0.786504 1
gene 1 27 35 0.861506 0 115 0.861506 1
gene 1 27 36 0.133402 0 116 0.133402 1
gene 1 28 35 -0.815367 0 117 -0.815367 1
gene 1 28 36 -0.372359 0 118 -0.372359 1
gene 1 29 35 0.077676 0 119 0.077676 1
gene 1 29 36 -0.794434 0 120 -0.794434 1
gene 1 30 35 -0.498912 0 121 -0.498912 1
gene 1 30 36 -0.416847 0 122 -0.416847 1
gene 1 31 35 -1.90682 0 123 -1.90682 1
gene 1 31 36 -2.13972 0 124 -2.13972 1
gene 1 35 32 -1.19571 0 125 -1.19571 1
gene 1 35 33 0.407981 0 126 0.407981 1
gene 1 35 34 -1.52083 0 127 -1.52083 1
gene 1 36 32 -0.797182 0 128 -0.797182 1
gene 1 36 33 -0.655996 0 129 -0.655996 1
gene 1 36 34 0.938212 0 130 0.938212 1
gene 1 35 35 1.45911 1 131 1.45911 1
gene 1 36 36 1.49195 1 132 1.49195 1
gene 1 34 37 -0.888424 1 133 -0.888424 1
gene 1 37 32 -0.567986 0 134 -0.567986 1
gene 1 37 33 0.196036 0 135 0.196036 1
gene 1 37 34 2.49911 0 136 2.49911 1
genomeend 55


