/* Organism #0 Fitness: 16235.012000 Time: 0 */
genomestart 0
trait 1 0.000000 0.233568 0.000000 0.095799 0.000000 0.000000 0.000000 0.788737 
node 1 1 1 1
node 2 1 1 1
node 3 1 1 1
node 4 1 1 1
node 5 1 1 1
node 6 1 1 1
node 7 1 1 1
node 8 1 1 1
node 9 1 1 1
node 10 1 1 1
node 11 1 1 1
node 12 1 1 1
node 13 1 1 1
node 14 1 1 1
node 15 1 1 1
node 16 1 1 1
node 17 1 1 1
node 18 1 1 1
node 19 1 1 1
node 20 1 1 1
node 21 1 1 1
node 22 1 1 1
node 23 1 1 1
node 24 1 1 1
node 25 1 1 1
node 26 1 1 1
node 27 1 1 1
node 28 1 1 1
node 29 1 1 1
node 30 1 1 1
node 31 1 1 3
node 32 1 0 2
node 33 1 0 2
node 34 1 0 2
node 35 1 0 0
node 36 1 0 0
node 37 1 0 1
gene 1 1 32 -4.34192 0 1 -4.34192 1
gene 1 1 33 0.13484 0 2 0.13484 1
gene 1 2 32 1.94801 0 3 1.94801 1
gene 1 2 33 0.572673 0 4 0.572673 1
gene 1 3 32 -0.301525 0 5 -0.301525 1
gene 1 3 33 -2.76796 0 6 -2.76796 1
gene 1 4 32 3.30196 0 7 3.30196 1
gene 1 4 33 -3.84927 0 8 -3.84927 1
gene 1 5 32 0.458709 0 9 0.458709 1
gene 1 5 33 1.43568 0 10 1.43568 1
gene 1 6 32 5 0 11 5 1
gene 1 6 33 -2.30299 0 12 -2.30299 1
gene 1 7 32 1.05724 0 13 1.05724 1
gene 1 7 33 3.05073 0 14 3.05073 1
gene 1 8 32 0.280157 0 15 0.280157 1
gene 1 8 33 -1.74204 0 16 -1.74204 1
gene 1 9 32 -1.46326 0 17 -1.46326 1
gene 1 9 33 -0.154691 0 18 -0.154691 1
gene 1 10 32 -4.18043 0 19 -4.18043 1
gene 1 10 33 -4.76927 0 20 -4.76927 1
gene 1 11 32 1.59252 0 21 1.59252 1
gene 1 11 33 -1.87299 0 22 -1.87299 1
gene 1 12 32 3.8289 0 23 3.8289 1
gene 1 12 33 -0.61378 0 24 -0.61378 1
gene 1 13 32 -0.104559 0 25 -0.104559 1
gene 1 13 33 0.104301 0 26 0.104301 1
gene 1 14 32 -5 0 27 -5 1
gene 1 14 33 -1.06175 0 28 -1.06175 1
gene 1 15 32 -4.55542 0 29 -4.55542 1
gene 1 15 33 2.78097 0 30 2.78097 1
gene 1 16 32 -1.85338 0 31 -1.85338 1
gene 1 16 33 2.36668 0 32 2.36668 1
gene 1 17 32 -0.0124169 0 33 -0.0124169 1
gene 1 17 33 -0.265029 0 34 -0.265029 1
gene 1 18 32 0.346199 0 35 0.346199 1
gene 1 18 33 1.10331 0 36 1.10331 1
gene 1 19 32 -3.95915 0 37 -3.95915 1
gene 1 19 33 0.318486 0 38 0.318486 1
gene 1 20 32 0.296507 0 39 0.296507 1
gene 1 20 33 0.443589 0 40 0.443589 1
gene 1 21 32 -0.514565 0 41 -0.514565 1
gene 1 21 33 0.46201 0 42 0.46201 1
gene 1 22 32 -0.544508 0 43 -0.544508 1
gene 1 22 33 0.273344 0 44 0.273344 1
gene 1 23 32 1.69261 0 45 1.69261 1
gene 1 23 33 0.475469 0 46 0.475469 1
gene 1 24 32 5 0 47 5 1
gene 1 24 33 -0.148009 0 48 -0.148009 1
gene 1 25 32 0.163263 0 49 0.163263 1
gene 1 25 33 1.08578 0 50 1.08578 1
gene 1 26 32 0.726853 0 51 0.726853 1
gene 1 26 33 0.818415 0 52 0.818415 1
gene 1 27 32 0.236125 0 53 0.236125 1
gene 1 27 33 -1.7271 0 54 -1.7271 1
gene 1 28 32 -0.272412 0 55 -0.272412 1
gene 1 28 33 -2.65497 0 56 -2.65497 1
gene 1 29 32 -1.88459 0 57 -1.88459 1
gene 1 29 33 -4.14276 0 58 -4.14276 1
gene 1 30 32 -0.598538 0 59 -0.598538 1
gene 1 30 33 -1.94525 0 60 -1.94525 1
gene 1 31 32 -2.03313 0 61 -2.03313 1
gene 1 31 33 -3.3034 0 62 -3.3034 1
gene 1 1 35 -3.54893 0 63 -3.54893 1
gene 1 1 36 -1.27447 0 64 -1.27447 1
gene 1 2 35 0.786188 0 65 0.786188 1
gene 1 2 36 -2.58958 0 66 -2.58958 1
gene 1 3 35 -1.33014 0 67 -1.33014 1
gene 1 3 36 5 0 68 5 1
gene 1 4 35 -0.924631 0 69 -0.924631 1
gene 1 4 36 0.624919 0 70 0.624919 1
gene 1 5 35 1.25764 0 71 1.25764 1
gene 1 5 36 -2.65937 0 72 -2.65937 1
gene 1 6 35 -1.89322 0 73 -1.89322 1
gene 1 6 36 -0.0868022 0 74 -0.0868022 1
gene 1 7 35 -1.39349 0 75 -1.39349 1
gene 1 7 36 -4.08691 0 76 -4.08691 1
gene 1 8 35 -4.78142 0 77 -4.78142 1
gene 1 8 36 0.627316 0 78 0.627316 1
gene 1 9 35 4.33599 0 79 4.33599 1
gene 1 9 36 -0.764696 0 80 -0.764696 1
gene 1 10 35 0.214789 0 81 0.214789 1
gene 1 10 36 0.18951 0 82 0.18951 1
gene 1 11 35 -1.01307 0 83 -1.01307 1
gene 1 11 36 0.08495 0 84 0.08495 1
gene 1 12 35 -3.37728 0 85 -3.37728 1
gene 1 12 36 -0.574578 0 86 -0.574578 1
gene 1 13 35 -2.13175 0 87 -2.13175 1
gene 1 13 36 -1.86176 0 88 -1.86176 1
gene 1 14 35 2.74746 0 89 2.74746 1
gene 1 14 36 1.56806 0 90 1.56806 1
gene 1 15 35 0.217484 0 91 0.217484 1
gene 1 15 36 2.90752 0 92 2.90752 1
gene 1 16 35 2.26747 0 93 2.26747 1
gene 1 16 36 0.0100693 0 94 0.0100693 1
gene 1 17 35 -1.78831 0 95 -1.78831 1
gene 1 17 36 -5 0 96 -5 1
gene 1 18 35 -5 0 97 -5 1
gene 1 18 36 1.24072 0 98 1.24072 1
gene 1 19 35 -3.39639 0 99 -3.39639 1
gene 1 19 36 1.80777 0 100 1.80777 1
gene 1 20 35 0.182038 0 101 0.182038 1
gene 1 20 36 0.394886 0 102 0.394886 1
gene 1 21 35 0.497071 0 103 0.497071 1
gene 1 21 36 -0.172771 0 104 -0.172771 1
gene 1 22 35 0.869091 0 105 0.869091 1
gene 1 22 36 -0.388197 0 106 -0.388197 1
gene 1 23 35 -1.02994 0 107 -1.02994 1
gene 1 23 36 -2.23285 0 108 -2.23285 1
gene 1 24 35 0.493135 0 109 0.493135 1
gene 1 24 36 0.640668 0 110 0.640668 1
gene 1 25 35 -1.15134 0 111 -1.15134 1
gene 1 25 36 -0.906024 0 112 -0.906024 1
gene 1 26 35 0.576668 0 113 0.576668 1
gene 1 26 36 -2.37289 0 114 -2.37289 1
gene 1 27 35 0.266279 0 115 0.266279 1
gene 1 27 36 -0.505388 0 116 -0.505388 1
gene 1 28 35 -0.0683793 0 117 -0.0683793 1
gene 1 28 36 -0.419753 0 118 -0.419753 1
gene 1 29 35 -1.57048 0 119 -1.57048 1
gene 1 29 36 0.764632 0 120 0.764632 1
gene 1 30 35 0.190719 0 121 0.190719 1
gene 1 30 36 -2.40534 0 122 -2.40534 1
gene 1 31 35 0.370856 0 123 0.370856 1
gene 1 31 36 0.752853 0 124 0.752853 1
gene 1 35 32 -0.436579 0 125 -0.436579 1
gene 1 35 33 -0.903386 0 126 -0.903386 1
gene 1 35 34 -0.134474 0 127 -0.134474 1
gene 1 36 32 1.70741 0 128 1.70741 1
gene 1 36 33 -0.855803 0 129 -0.855803 1
gene 1 36 34 -0.334855 0 130 -0.334855 1
gene 1 35 35 -0.154441 1 131 -0.154441 1
gene 1 36 36 0.341789 1 132 0.341789 1
gene 1 34 37 -0.0244236 1 133 -0.0244236 1
gene 1 37 32 1.55571 0 134 1.55571 1
gene 1 37 33 -0.97495 0 135 -0.97495 1
gene 1 37 34 0.0886096 0 136 0.0886096 1
genomeend 0


