/* Organism #11 Fitness: 16166.974000 Time: 0 */
genomestart 11
trait 1 0.980081 0.000000 0.767008 0.000000 0.000000 0.793020 0.000000 0.078012 
node 1 1 1 1
node 2 1 1 1
node 3 1 1 1
node 4 1 1 1
node 5 1 1 1
node 6 1 1 1
node 7 1 1 1
node 8 1 1 1
node 9 1 1 1
node 10 1 1 1
node 11 1 1 1
node 12 1 1 1
node 13 1 1 1
node 14 1 1 1
node 15 1 1 1
node 16 1 1 1
node 17 1 1 1
node 18 1 1 1
node 19 1 1 1
node 20 1 1 1
node 21 1 1 1
node 22 1 1 1
node 23 1 1 1
node 24 1 1 1
node 25 1 1 1
node 26 1 1 1
node 27 1 1 1
node 28 1 1 1
node 29 1 1 1
node 30 1 1 1
node 31 1 1 3
node 32 1 0 2
node 33 1 0 2
node 34 1 0 2
node 35 1 0 0
node 36 1 0 0
node 37 1 0 1
gene 1 1 32 -2.04207 0 1 -2.04207 1
gene 1 1 33 1.86307 0 2 1.86307 1
gene 1 2 32 -1.28378 0 3 -1.28378 1
gene 1 2 33 -0.305738 0 4 -0.305738 1
gene 1 3 32 1.78584 0 5 1.78584 1
gene 1 3 33 3.99599 0 6 3.99599 1
gene 1 4 32 -0.840297 0 7 -0.840297 1
gene 1 4 33 1.79342 0 8 1.79342 1
gene 1 5 32 3.9638 0 9 3.9638 1
gene 1 5 33 0.765081 0 10 0.765081 1
gene 1 6 32 -1.94407 0 11 -1.94407 1
gene 1 6 33 -2.7737 0 12 -2.7737 1
gene 1 7 32 -0.163621 0 13 -0.163621 1
gene 1 7 33 0.035266 0 14 0.035266 1
gene 1 8 32 -0.763515 0 15 -0.763515 1
gene 1 8 33 -0.680205 0 16 -0.680205 1
gene 1 9 32 5 0 17 5 1
gene 1 9 33 -4.0458 0 18 -4.0458 1
gene 1 10 32 1.81544 0 19 1.81544 1
gene 1 10 33 3.08099 0 20 3.08099 1
gene 1 11 32 -0.175632 0 21 -0.175632 1
gene 1 11 33 1.54373 0 22 1.54373 1
gene 1 12 32 0.313131 0 23 0.313131 1
gene 1 12 33 0.308428 0 24 0.308428 1
gene 1 13 32 -3.82431 0 25 -3.82431 1
gene 1 13 33 3.3857 0 26 3.3857 1
gene 1 14 32 1.51138 0 27 1.51138 1
gene 1 14 33 5 0 28 5 1
gene 1 15 32 2.81651 0 29 2.81651 1
gene 1 15 33 2.09893 0 30 2.09893 1
gene 1 16 32 2.94214 0 31 2.94214 1
gene 1 16 33 -3.85093 0 32 -3.85093 1
gene 1 17 32 -1.37962 0 33 -1.37962 1
gene 1 17 33 -0.0845031 0 34 -0.0845031 1
gene 1 18 32 0.417517 0 35 0.417517 1
gene 1 18 33 -1.41011 0 36 -1.41011 1
gene 1 19 32 0.731842 0 37 0.731842 1
gene 1 19 33 -3.63597 0 38 -3.63597 1
gene 1 20 32 -3.11921 0 39 -3.11921 1
gene 1 20 33 2.27596 0 40 2.27596 1
gene 1 21 32 0.504565 0 41 0.504565 1
gene 1 21 33 1.4832 0 42 1.4832 1
gene 1 22 32 -0.168246 0 43 -0.168246 1
gene 1 22 33 -0.814238 0 44 -0.814238 1
gene 1 23 32 1.18655 0 45 1.18655 1
gene 1 23 33 -0.68374 0 46 -0.68374 1
gene 1 24 32 -4.0288 0 47 -4.0288 1
gene 1 24 33 -3.1299 0 48 -3.1299 1
gene 1 25 32 -0.0241909 0 49 -0.0241909 1
gene 1 25 33 0.923835 0 50 0.923835 1
gene 1 26 32 0.071509 0 51 0.071509 1
gene 1 26 33 1.2474 0 52 1.2474 1
gene 1 27 32 0.14305 0 53 0.14305 1
gene 1 27 33 1.72058 0 54 1.72058 1
gene 1 28 32 -0.621766 0 55 -0.621766 1
gene 1 28 33 -1.21181 0 56 -1.21181 1
gene 1 29 32 -2.01412 0 57 -2.01412 1
gene 1 29 33 -2.86499 0 58 -2.86499 1
gene 1 30 32 -0.895186 0 59 -0.895186 1
gene 1 30 33 0.399974 0 60 0.399974 1
gene 1 31 32 0.492293 0 61 0.492293 1
gene 1 31 33 -3.69966 0 62 -3.69966 1
gene 1 1 35 -1.21261 0 63 -1.21261 1
gene 1 1 36 -2.02268 0 64 -2.02268 1
gene 1 2 35 0.799579 0 65 0.799579 1
gene 1 2 36 0.0882603 0 66 0.0882603 1
gene 1 3 35 0.119512 0 67 0.119512 1
gene 1 3 36 -2.61382 0 68 -2.61382 1
gene 1 4 35 0.181592 0 69 0.181592 1
gene 1 4 36 0.262305 0 70 0.262305 1
gene 1 5 35 0.19829 0 71 0.19829 1
gene 1 5 36 -0.0355805 0 72 -0.0355805 1
gene 1 6 35 -3.27308 0 73 -3.27308 1
gene 1 6 36 0.839903 0 74 0.839903 1
gene 1 7 35 3.5027 0 75 3.5027 1
gene 1 7 36 -0.440041 0 76 -0.440041 1
gene 1 8 35 -0.403878 0 77 -0.403878 1
gene 1 8 36 0.856851 0 78 0.856851 1
gene 1 9 35 -0.392375 0 79 -0.392375 1
gene 1 9 36 0.998995 0 80 0.998995 1
gene 1 10 35 -2.87517 0 81 -2.87517 1
gene 1 10 36 -0.882356 0 82 -0.882356 1
gene 1 11 35 -3.2071 0 83 -3.2071 1
gene 1 11 36 -0.254892 0 84 -0.254892 1
gene 1 12 35 0.426991 0 85 0.426991 1
gene 1 12 36 0.372084 0 86 0.372084 1
gene 1 13 35 -1.21494 0 87 -1.21494 1
gene 1 13 36 -0.541294 0 88 -0.541294 1
gene 1 14 35 2.82909 0 89 2.82909 1
gene 1 14 36 -2.16763 0 90 -2.16763 1
gene 1 15 35 -1.16931 0 91 -1.16931 1
gene 1 15 36 2.648 0 92 2.648 1
gene 1 16 35 1.13471 0 93 1.13471 1
gene 1 16 36 -0.847292 0 94 -0.847292 1
gene 1 17 35 -2.18395 0 95 -2.18395 1
gene 1 17 36 0.820601 0 96 0.820601 1
gene 1 18 35 -2.3173 0 97 -2.3173 1
gene 1 18 36 -1.15064 0 98 -1.15064 1
gene 1 19 35 -3.79499 0 99 -3.79499 1
gene 1 19 36 4.86114 0 100 4.86114 1
gene 1 20 35 1.11665 0 101 1.11665 1
gene 1 20 36 0.289603 0 102 0.289603 1
gene 1 21 35 2.39565 0 103 2.39565 1
gene 1 21 36 -0.697922 0 104 -0.697922 1
gene 1 22 35 0.861088 0 105 0.861088 1
gene 1 22 36 -0.577807 0 106 -0.577807 1
gene 1 23 35 0.721441 0 107 0.721441 1
gene 1 23 36 -0.439515 0 108 -0.439515 1
gene 1 24 35 -1.18817 0 109 -1.18817 1
gene 1 24 36 0.0743833 0 110 0.0743833 1
gene 1 25 35 0.683681 0 111 0.683681 1
gene 1 25 36 1.25117 0 112 1.25117 1
gene 1 26 35 -0.838905 0 113 -0.838905 1
gene 1 26 36 -0.282132 0 114 -0.282132 1
gene 1 27 35 2.96605 0 115 2.96605 1
gene 1 27 36 -0.49539 0 116 -0.49539 1
gene 1 28 35 0.359874 0 117 0.359874 1
gene 1 28 36 2.47442 0 118 2.47442 1
gene 1 29 35 0.454382 0 119 0.454382 1
gene 1 29 36 0.31878 0 120 0.31878 1
gene 1 30 35 0.488807 0 121 0.488807 1
gene 1 30 36 -1.08668 0 122 -1.08668 1
gene 1 31 35 0.818632 0 123 0.818632 1
gene 1 31 36 1.70941 0 124 1.70941 1
gene 1 35 32 4.34697 0 125 4.34697 1
gene 1 35 33 0.717425 0 126 0.717425 1
gene 1 35 34 -0.0305574 0 127 -0.0305574 1
gene 1 36 32 0.0427696 0 128 0.0427696 1
gene 1 36 33 0.473271 0 129 0.473271 1
gene 1 36 34 -0.323871 0 130 -0.323871 1
gene 1 35 35 5 1 131 5 1
gene 1 36 36 0.870549 1 132 0.870549 1
gene 1 34 37 -0.378356 1 133 -0.378356 1
gene 1 37 32 1.54473 0 134 1.54473 1
gene 1 37 33 -0.540519 0 135 -0.540519 1
gene 1 37 34 0.376789 0 136 0.376789 1
genomeend 11


