/* Organism #12 Fitness: 15166.290000 Time: 0 */
genomestart 12
trait 1 0.000000 1.000000 0.000000 0.000000 0.084004 0.764552 0.985689 0.000000 
node 1 1 1 1
node 2 1 1 1
node 3 1 1 1
node 4 1 1 1
node 5 1 1 1
node 6 1 1 1
node 7 1 1 1
node 8 1 1 1
node 9 1 1 1
node 10 1 1 1
node 11 1 1 1
node 12 1 1 1
node 13 1 1 1
node 14 1 1 1
node 15 1 1 1
node 16 1 1 1
node 17 1 1 1
node 18 1 1 1
node 19 1 1 1
node 20 1 1 1
node 21 1 1 1
node 22 1 1 1
node 23 1 1 1
node 24 1 1 1
node 25 1 1 1
node 26 1 1 1
node 27 1 1 1
node 28 1 1 1
node 29 1 1 1
node 30 1 1 1
node 31 1 1 3
node 32 1 0 2
node 33 1 0 2
node 34 1 0 2
node 35 1 0 0
node 36 1 0 0
node 37 1 0 1
gene 1 1 32 2.77946 0 1 2.77946 1
gene 1 1 33 0.252385 0 2 0.252385 1
gene 1 2 32 -2.07637 0 3 -2.07637 1
gene 1 2 33 1.13686 0 4 1.13686 1
gene 1 3 32 -1.80069 0 5 -1.80069 1
gene 1 3 33 -1.59065 0 6 -1.59065 1
gene 1 4 32 -1.84134 0 7 -1.84134 1
gene 1 4 33 0.976181 0 8 0.976181 1
gene 1 5 32 1.76748 0 9 1.76748 1
gene 1 5 33 -3.38007 0 10 -3.38007 1
gene 1 6 32 -0.759675 0 11 -0.759675 1
gene 1 6 33 -0.104835 0 12 -0.104835 1
gene 1 7 32 0.752406 0 13 0.752406 1
gene 1 7 33 -1.89052 0 14 -1.89052 1
gene 1 8 32 -0.8049 0 15 -0.8049 1
gene 1 8 33 -2.66125 0 16 -2.66125 1
gene 1 9 32 -4.0511 0 17 -4.0511 1
gene 1 9 33 -2.36094 0 18 -2.36094 1
gene 1 10 32 -4.56078 0 19 -4.56078 1
gene 1 10 33 4.88828 0 20 4.88828 1
gene 1 11 32 -0.054929 0 21 -0.054929 1
gene 1 11 33 1.79778 0 22 1.79778 1
gene 1 12 32 3.43277 0 23 3.43277 1
gene 1 12 33 -3.17599 0 24 -3.17599 1
gene 1 13 32 2.95306 0 25 2.95306 1
gene 1 13 33 -4.10806 0 26 -4.10806 1
gene 1 14 32 3.70625 0 27 3.70625 1
gene 1 14 33 -4.63267 0 28 -4.63267 1
gene 1 15 32 2.23757 0 29 2.23757 1
gene 1 15 33 -3.04889 0 30 -3.04889 1
gene 1 16 32 -1.17882 0 31 -1.17882 1
gene 1 16 33 4.61405 0 32 4.61405 1
gene 1 17 32 3.91757 0 33 3.91757 1
gene 1 17 33 2.72345 0 34 2.72345 1
gene 1 18 32 -2.05879 0 35 -2.05879 1
gene 1 18 33 0.457429 0 36 0.457429 1
gene 1 19 32 3.94105 0 37 3.94105 1
gene 1 19 33 0.343034 0 38 0.343034 1
gene 1 20 32 1.95671 0 39 1.95671 1
gene 1 20 33 3.98518 0 40 3.98518 1
gene 1 21 32 2.5882 0 41 2.5882 1
gene 1 21 33 -4.04411 0 42 -4.04411 1
gene 1 22 32 2.76593 0 43 2.76593 1
gene 1 22 33 -2.63895 0 44 -2.63895 1
gene 1 23 32 -3.06754 0 45 -3.06754 1
gene 1 23 33 3.52021 0 46 3.52021 1
gene 1 24 32 -0.343862 0 47 -0.343862 1
gene 1 24 33 0.542825 0 48 0.542825 1
gene 1 25 32 -2.2683 0 49 -2.2683 1
gene 1 25 33 -0.601783 0 50 -0.601783 1
gene 1 26 32 1.78614 0 51 1.78614 1
gene 1 26 33 0.987916 0 52 0.987916 1
gene 1 27 32 -1.8964 0 53 -1.8964 1
gene 1 27 33 0.503086 0 54 0.503086 1
gene 1 28 32 1.02438 0 55 1.02438 1
gene 1 28 33 -1.27441 0 56 -1.27441 1
gene 1 29 32 4.52681 0 57 4.52681 1
gene 1 29 33 5 0 58 5 1
gene 1 30 32 -2.94417 0 59 -2.94417 1
gene 1 30 33 -3.66926 0 60 -3.66926 1
gene 1 31 32 -5 0 61 -5 1
gene 1 31 33 -0.915645 0 62 -0.915645 1
gene 1 1 35 -0.628892 0 63 -0.628892 1
gene 1 1 36 4.68957 0 64 4.68957 1
gene 1 2 35 -3.10836 0 65 -3.10836 1
gene 1 2 36 1.32744 0 66 1.32744 1
gene 1 3 35 -0.076892 0 67 -0.076892 1
gene 1 3 36 -1.14842 0 68 -1.14842 1
gene 1 4 35 0.0799491 0 69 0.0799491 1
gene 1 4 36 0.423609 0 70 0.423609 1
gene 1 5 35 2.67059 0 71 2.67059 1
gene 1 5 36 1.37314 0 72 1.37314 1
gene 1 6 35 -3.8113 0 73 -3.8113 1
gene 1 6 36 -2.14358 0 74 -2.14358 1
gene 1 7 35 -1.51123 0 75 -1.51123 1
gene 1 7 36 -0.891773 0 76 -0.891773 1
gene 1 8 35 0.932974 0 77 0.932974 1
gene 1 8 36 1.88243 0 78 1.88243 1
gene 1 9 35 2.07786 0 79 2.07786 1
gene 1 9 36 2.48672 0 80 2.48672 1
gene 1 10 35 -1.90366 0 81 -1.90366 1
gene 1 10 36 -0.802401 0 82 -0.802401 1
gene 1 11 35 -3.43887 0 83 -3.43887 1
gene 1 11 36 1.41259 0 84 1.41259 1
gene 1 12 35 -1.49428 0 85 -1.49428 1
gene 1 12 36 1.37307 0 86 1.37307 1
gene 1 13 35 -2.55372 0 87 -2.55372 1
gene 1 13 36 -0.549083 0 88 -0.549083 1
gene 1 14 35 -1.31529 0 89 -1.31529 1
gene 1 14 36 0.948408 0 90 0.948408 1
gene 1 15 35 4.60106 0 91 4.60106 1
gene 1 15 36 -4.07728 0 92 -4.07728 1
gene 1 16 35 -2.04723 0 93 -2.04723 1
gene 1 16 36 -4.79303 0 94 -4.79303 1
gene 1 17 35 0.0295035 0 95 0.0295035 1
gene 1 17 36 4.02074 0 96 4.02074 1
gene 1 18 35 0.603952 0 97 0.603952 1
gene 1 18 36 -2.01094 0 98 -2.01094 1
gene 1 19 35 1.65999 0 99 1.65999 1
gene 1 19 36 -0.567772 0 100 -0.567772 1
gene 1 20 35 3.5883 0 101 3.5883 1
gene 1 20 36 -1.46732 0 102 -1.46732 1
gene 1 21 35 1.38567 0 103 1.38567 1
gene 1 21 36 0.910241 0 104 0.910241 1
gene 1 22 35 5 0 105 5 1
gene 1 22 36 -2.00113 0 106 -2.00113 1
gene 1 23 35 0.773549 0 107 0.773549 1
gene 1 23 36 3.52701 0 108 3.52701 1
gene 1 24 35 0.0149146 0 109 0.0149146 1
gene 1 24 36 -0.0334863 0 110 -0.0334863 1
gene 1 25 35 -1.78383 0 111 -1.78383 1
gene 1 25 36 -0.0782514 0 112 -0.0782514 1
gene 1 26 35 -1.36408 0 113 -1.36408 1
gene 1 26 36 -5 0 114 -5 1
gene 1 27 35 -0.138342 0 115 -0.138342 1
gene 1 27 36 -0.610496 0 116 -0.610496 1
gene 1 28 35 -0.481641 0 117 -0.481641 1
gene 1 28 36 -0.22096 0 118 -0.22096 1
gene 1 29 35 0.392932 0 119 0.392932 1
gene 1 29 36 2.44641 0 120 2.44641 1
gene 1 30 35 -2.25831 0 121 -2.25831 1
gene 1 30 36 -0.197074 0 122 -0.197074 1
gene 1 31 35 0.280264 0 123 0.280264 1
gene 1 31 36 0.62742 0 124 0.62742 1
gene 1 35 32 0.499507 0 125 0.499507 1
gene 1 35 33 1.7625 0 126 1.7625 1
gene 1 35 34 -0.950307 0 127 -0.950307 1
gene 1 36 32 -1.25605 0 128 -1.25605 1
gene 1 36 33 0.22908 0 129 0.22908 1
gene 1 36 34 -0.401278 0 130 -0.401278 1
gene 1 35 35 0.00821049 1 131 0.00821049 1
gene 1 36 36 -0.578882 1 132 -0.578882 1
gene 1 34 37 1.14855 1 133 1.14855 1
gene 1 37 32 0.990327 0 134 0.990327 1
gene 1 37 33 0.163785 0 135 0.163785 1
gene 1 37 34 1.76406 0 136 1.76406 1
genomeend 12


