/* Organism #7 Fitness: 14042.400000 Time: 0 */
genomestart 7
trait 1 0.000000 0.000000 1.000000 0.123554 0.600618 0.275287 0.000000 1.000000 
node 1 1 1 1
node 2 1 1 1
node 3 1 1 1
node 4 1 1 1
node 5 1 1 1
node 6 1 1 1
node 7 1 1 1
node 8 1 1 1
node 9 1 1 1
node 10 1 1 1
node 11 1 1 1
node 12 1 1 1
node 13 1 1 1
node 14 1 1 1
node 15 1 1 1
node 16 1 1 1
node 17 1 1 1
node 18 1 1 1
node 19 1 1 1
node 20 1 1 1
node 21 1 1 1
node 22 1 1 1
node 23 1 1 1
node 24 1 1 1
node 25 1 1 1
node 26 1 1 1
node 27 1 1 1
node 28 1 1 1
node 29 1 1 1
node 30 1 1 1
node 31 1 1 3
node 32 1 0 2
node 33 1 0 2
node 34 1 0 2
node 35 1 0 0
node 36 1 0 0
node 37 1 0 1
gene 1 1 32 -3.30286 0 1 -3.30286 1
gene 1 1 33 -1.28107 0 2 -1.28107 1
gene 1 2 32 -1.8265 0 3 -1.8265 1
gene 1 2 33 -2.57164 0 4 -2.57164 1
gene 1 3 32 0.512107 0 5 0.512107 1
gene 1 3 33 2.42659 0 6 2.42659 1
gene 1 4 32 -4.06025 0 7 -4.06025 1
gene 1 4 33 1.69372 0 8 1.69372 1
gene 1 5 32 -3.12851 0 9 -3.12851 1
gene 1 5 33 -0.240616 0 10 -0.240616 1
gene 1 6 32 -2.44182 0 11 -2.44182 1
gene 1 6 33 -0.723492 0 12 -0.723492 1
gene 1 7 32 0.54371 0 13 0.54371 1
gene 1 7 33 -0.398744 0 14 -0.398744 1
gene 1 8 32 -2.04677 0 15 -2.04677 1
gene 1 8 33 -2.38239 0 16 -2.38239 1
gene 1 9 32 -0.00945593 0 17 -0.00945593 1
gene 1 9 33 -0.13858 0 18 -0.13858 1
gene 1 10 32 4.22229 0 19 4.22229 1
gene 1 10 33 -0.950862 0 20 -0.950862 1
gene 1 11 32 -3.53438 0 21 -3.53438 1
gene 1 11 33 3.89197 0 22 3.89197 1
gene 1 12 32 -0.890939 0 23 -0.890939 1
gene 1 12 33 -0.352409 0 24 -0.352409 1
gene 1 13 32 -5 0 25 -5 1
gene 1 13 33 2.55254 0 26 2.55254 1
gene 1 14 32 -1.07172 0 27 -1.07172 1
gene 1 14 33 -1.98593 0 28 -1.98593 1
gene 1 15 32 -1.78092 0 29 -1.78092 1
gene 1 15 33 -1.91531 0 30 -1.91531 1
gene 1 16 32 4.02563 0 31 4.02563 1
gene 1 16 33 -3.5287 0 32 -3.5287 1
gene 1 17 32 0.328672 0 33 0.328672 1
gene 1 17 33 0.0057112 0 34 0.0057112 1
gene 1 18 32 0.598429 0 35 0.598429 1
gene 1 18 33 -1.75796 0 36 -1.75796 1
gene 1 19 32 3.50312 0 37 3.50312 1
gene 1 19 33 5 0 38 5 1
gene 1 20 32 -1.12424 0 39 -1.12424 1
gene 1 20 33 1.26937 0 40 1.26937 1
gene 1 21 32 0.815237 0 41 0.815237 1
gene 1 21 33 2.33948 0 42 2.33948 1
gene 1 22 32 0.767016 0 43 0.767016 1
gene 1 22 33 -1.51869 0 44 -1.51869 1
gene 1 23 32 1.51284 0 45 1.51284 1
gene 1 23 33 0.388671 0 46 0.388671 1
gene 1 24 32 5 0 47 5 1
gene 1 24 33 0.480065 0 48 0.480065 1
gene 1 25 32 1.04008 0 49 1.04008 1
gene 1 25 33 -4.97026 0 50 -4.97026 1
gene 1 26 32 -3.43514 0 51 -3.43514 1
gene 1 26 33 -0.912553 0 52 -0.912553 1
gene 1 27 32 0.205784 0 53 0.205784 1
gene 1 27 33 -0.452571 0 54 -0.452571 1
gene 1 28 32 -3.20064 0 55 -3.20064 1
gene 1 28 33 -0.312532 0 56 -0.312532 1
gene 1 29 32 -0.660682 0 57 -0.660682 1
gene 1 29 33 -2.06945 0 58 -2.06945 1
gene 1 30 32 -3.29891 0 59 -3.29891 1
gene 1 30 33 -1.17269 0 60 -1.17269 1
gene 1 31 32 -3.21089 0 61 -3.21089 1
gene 1 31 33 0.656281 0 62 0.656281 1
gene 1 1 35 0.0987821 0 63 0.0987821 1
gene 1 1 36 4.6353 0 64 4.6353 1
gene 1 2 35 -0.264463 0 65 -0.264463 1
gene 1 2 36 1.90012 0 66 1.90012 1
gene 1 3 35 -2.3397 0 67 -2.3397 1
gene 1 3 36 -1.09286 0 68 -1.09286 1
gene 1 4 35 -0.0936936 0 69 -0.0936936 1
gene 1 4 36 -0.640817 0 70 -0.640817 1
gene 1 5 35 0.758075 0 71 0.758075 1
gene 1 5 36 2.2328 0 72 2.2328 1
gene 1 6 35 2.62856 0 73 2.62856 1
gene 1 6 36 -2.47338 0 74 -2.47338 1
gene 1 7 35 5 0 75 5 1
gene 1 7 36 -0.723771 0 76 -0.723771 1
gene 1 8 35 -0.443227 0 77 -0.443227 1
gene 1 8 36 -2.15381 0 78 -2.15381 1
gene 1 9 35 0.480581 0 79 0.480581 1
gene 1 9 36 -1.80554 0 80 -1.80554 1
gene 1 10 35 -0.537685 0 81 -0.537685 1
gene 1 10 36 -1.2035 0 82 -1.2035 1
gene 1 11 35 -1.31286 0 83 -1.31286 1
gene 1 11 36 -3.11785 0 84 -3.11785 1
gene 1 12 35 -2.73971 0 85 -2.73971 1
gene 1 12 36 -1.03504 0 86 -1.03504 1
gene 1 13 35 -2.15859 0 87 -2.15859 1
gene 1 13 36 -2.17477 0 88 -2.17477 1
gene 1 14 35 0.0689294 0 89 0.0689294 1
gene 1 14 36 0.748187 0 90 0.748187 1
gene 1 15 35 -0.617304 0 91 -0.617304 1
gene 1 15 36 -2.14461 0 92 -2.14461 1
gene 1 16 35 -1.12847 0 93 -1.12847 1
gene 1 16 36 -0.0357894 0 94 -0.0357894 1
gene 1 17 35 -1.40588 0 95 -1.40588 1
gene 1 17 36 2.92868 0 96 2.92868 1
gene 1 18 35 -2.63276 0 97 -2.63276 1
gene 1 18 36 3.70418 0 98 3.70418 1
gene 1 19 35 -0.544222 0 99 -0.544222 1
gene 1 19 36 -0.740532 0 100 -0.740532 1
gene 1 20 35 -0.451776 0 101 -0.451776 1
gene 1 20 36 -3.75546 0 102 -3.75546 1
gene 1 21 35 0.707465 0 103 0.707465 1
gene 1 21 36 5 0 104 5 1
gene 1 22 35 3.48468 0 105 3.48468 1
gene 1 22 36 1.56782 0 106 1.56782 1
gene 1 23 35 -0.845128 0 107 -0.845128 1
gene 1 23 36 -2.29912 0 108 -2.29912 1
gene 1 24 35 0.103897 0 109 0.103897 1
gene 1 24 36 1.66412 0 110 1.66412 1
gene 1 25 35 0.3545 0 111 0.3545 1
gene 1 25 36 0.0795567 0 112 0.0795567 1
gene 1 26 35 1.30102 0 113 1.30102 1
gene 1 26 36 0.679225 0 114 0.679225 1
gene 1 27 35 1.66462 0 115 1.66462 1
gene 1 27 36 -0.340846 0 116 -0.340846 1
gene 1 28 35 -2.33461 0 117 -2.33461 1
gene 1 28 36 -1.57083 0 118 -1.57083 1
gene 1 29 35 0.301551 0 119 0.301551 1
gene 1 29 36 -0.0628584 0 120 -0.0628584 1
gene 1 30 35 0.0181613 0 121 0.0181613 1
gene 1 30 36 0.99855 0 122 0.99855 1
gene 1 31 35 0.634597 0 123 0.634597 1
gene 1 31 36 0.103573 0 124 0.103573 1
gene 1 35 32 1.38921 0 125 1.38921 1
gene 1 35 33 -0.326073 0 126 -0.326073 1
gene 1 35 34 0.694361 0 127 0.694361 1
gene 1 36 32 0.173325 0 128 0.173325 1
gene 1 36 33 -1.00789 0 129 -1.00789 1
gene 1 36 34 -0.837518 0 130 -0.837518 1
gene 1 35 35 0.738543 1 131 0.738543 1
gene 1 36 36 0.911488 1 132 0.911488 1
gene 1 34 37 0.265492 1 133 0.265492 1
gene 1 37 32 -0.114741 0 134 -0.114741 1
gene 1 37 33 -1.23843 0 135 -1.23843 1
gene 1 37 34 -1.68198 0 136 -1.68198 1
genomeend 7


