/* Organism #39 Fitness: 36673.000000 Time: 0 */
genomestart 39
trait 1 0.599518 0.000000 0.992237 0.000000 0.000000 0.244581 0.000000 0.000000 
node 1 1 1 1
node 2 1 1 1
node 3 1 1 1
node 4 1 1 1
node 5 1 1 1
node 6 1 1 1
node 7 1 1 1
node 8 1 1 1
node 9 1 1 1
node 10 1 1 1
node 11 1 1 1
node 12 1 1 1
node 13 1 1 1
node 14 1 1 1
node 15 1 1 1
node 16 1 1 1
node 17 1 1 1
node 18 1 1 1
node 19 1 1 1
node 20 1 1 1
node 21 1 1 1
node 22 1 1 1
node 23 1 1 1
node 24 1 1 1
node 25 1 1 1
node 26 1 1 1
node 27 1 1 1
node 28 1 1 1
node 29 1 1 1
node 30 1 1 3
node 31 1 0 2
node 32 1 0 2
node 33 1 0 2
gene 1 1 31 1.87619 0 1 1.87619 1
gene 1 1 32 -4.13837 0 2 -4.13837 1
gene 1 1 33 2.379 0 3 2.379 1
gene 1 2 31 -3.62035 0 4 -3.62035 1
gene 1 2 32 4.18991 0 5 4.18991 1
gene 1 2 33 0.847951 0 6 0.847951 1
gene 1 3 31 0.753407 0 7 0.753407 1
gene 1 3 32 -0.256936 0 8 -0.256936 1
gene 1 3 33 -1.55278 0 9 -1.55278 1
gene 1 4 31 1.65309 0 10 1.65309 1
gene 1 4 32 -0.210933 0 11 -0.210933 1
gene 1 4 33 -0.457926 0 12 -0.457926 1
gene 1 5 31 -0.105009 0 13 -0.105009 1
gene 1 5 32 0.851347 0 14 0.851347 1
gene 1 5 33 -0.490751 0 15 -0.490751 1
gene 1 6 31 -3.94493 0 16 -3.94493 1
gene 1 6 32 4.51561 0 17 4.51561 1
gene 1 6 33 -2.22565 0 18 -2.22565 1
gene 1 7 31 -0.506096 0 19 -0.506096 1
gene 1 7 32 2.08449 0 20 2.08449 1
gene 1 7 33 -0.985472 0 21 -0.985472 1
gene 1 8 31 -1.03943 0 22 -1.03943 1
gene 1 8 32 2.47963 0 23 2.47963 1
gene 1 8 33 0.0681231 0 24 0.0681231 1
gene 1 9 31 0.742753 0 25 0.742753 1
gene 1 9 32 2.26317 0 26 2.26317 1
gene 1 9 33 -2.31552 0 27 -2.31552 1
gene 1 10 31 -0.850164 0 28 -0.850164 1
gene 1 10 32 -2.75761 0 29 -2.75761 1
gene 1 10 33 0.553218 0 30 0.553218 1
gene 1 11 31 -2.09978 0 31 -2.09978 1
gene 1 11 32 -1.52017 0 32 -1.52017 1
gene 1 11 33 2.36232 0 33 2.36232 1
gene 1 12 31 0.242303 0 34 0.242303 1
gene 1 12 32 -0.723304 0 35 -0.723304 1
gene 1 12 33 -0.150015 0 36 -0.150015 1
gene 1 13 31 -1.57951 0 37 -1.57951 1
gene 1 13 32 -3.29102 0 38 -3.29102 1
gene 1 13 33 -0.980854 0 39 -0.980854 1
gene 1 14 31 -0.323218 0 40 -0.323218 1
gene 1 14 32 -2.12407 0 41 -2.12407 1
gene 1 14 33 1.9624 0 42 1.9624 1
gene 1 15 31 -2.56605 0 43 -2.56605 1
gene 1 15 32 -0.853999 0 44 -0.853999 1
gene 1 15 33 1.98112 0 45 1.98112 1
gene 1 16 31 -0.815227 0 46 -0.815227 1
gene 1 16 32 -0.3064 0 47 -0.3064 1
gene 1 16 33 2.29668 0 48 2.29668 1
gene 1 17 31 1.6296 0 49 1.6296 1
gene 1 17 32 1.73303 0 50 1.73303 1
gene 1 17 33 -0.553963 0 51 -0.553963 1
gene 1 18 31 2.33426 0 52 2.33426 1
gene 1 18 32 5 0 53 5 1
gene 1 18 33 -0.280325 0 54 -0.280325 1
gene 1 19 31 3.14331 0 55 3.14331 1
gene 1 19 32 0.105682 0 56 0.105682 1
gene 1 19 33 -0.618127 0 57 -0.618127 1
gene 1 20 31 0.901794 0 58 0.901794 1
gene 1 20 32 0.217638 0 59 0.217638 1
gene 1 20 33 0.149715 0 60 0.149715 1
gene 1 21 31 1.57843 0 61 1.57843 1
gene 1 21 32 -3.30936 0 62 -3.30936 1
gene 1 21 33 -1.29747 0 63 -1.29747 1
gene 1 22 31 -1.97352 0 64 -1.97352 1
gene 1 22 32 -0.351402 0 65 -0.351402 1
gene 1 22 33 0.976788 0 66 0.976788 1
gene 1 23 31 -0.926257 0 67 -0.926257 1
gene 1 23 32 0.262749 0 68 0.262749 1
gene 1 23 33 0.317082 0 69 0.317082 1
gene 1 24 31 -0.286616 0 70 -0.286616 1
gene 1 24 32 -3.76897 0 71 -3.76897 1
gene 1 24 33 0.490042 0 72 0.490042 1
gene 1 25 31 -1.37193 0 73 -1.37193 1
gene 1 25 32 1.11815 0 74 1.11815 1
gene 1 25 33 -0.354511 0 75 -0.354511 1
gene 1 26 31 0.594806 0 76 0.594806 1
gene 1 26 32 -0.860106 0 77 -0.860106 1
gene 1 26 33 0.0208568 0 78 0.0208568 1
gene 1 27 31 0.0567267 0 79 0.0567267 1
gene 1 27 32 0.893873 0 80 0.893873 1
gene 1 27 33 -0.379135 0 81 -0.379135 1
gene 1 28 31 -0.0635739 0 82 -0.0635739 1
gene 1 28 32 0.738026 0 83 0.738026 1
gene 1 28 33 -1.36732 0 84 -1.36732 1
gene 1 29 31 -0.554571 0 85 -0.554571 1
gene 1 29 32 -2.19871 0 86 -2.19871 1
gene 1 29 33 0.156703 0 87 0.156703 1
gene 1 30 31 0.29758 0 88 0.29758 1
gene 1 30 32 -1.01256 0 89 -1.01256 1
gene 1 30 33 0.666255 0 90 0.666255 1
genomeend 39


