/* Organism #59 Fitness: 37497.032000 Time: 0 */
genomestart 59
trait 1 0.957339 0.866658 1.000000 0.000000 0.016574 0.413880 0.000000 0.553610 
node 1 1 1 1
node 2 1 1 1
node 3 1 1 1
node 4 1 1 1
node 5 1 1 1
node 6 1 1 1
node 7 1 1 1
node 8 1 1 1
node 9 1 1 1
node 10 1 1 1
node 11 1 1 1
node 12 1 1 1
node 13 1 1 1
node 14 1 1 1
node 15 1 1 1
node 16 1 1 1
node 17 1 1 1
node 18 1 1 1
node 19 1 1 1
node 20 1 1 1
node 21 1 1 1
node 22 1 1 1
node 23 1 1 1
node 24 1 1 1
node 25 1 1 1
node 26 1 1 3
node 27 1 0 2
node 28 1 0 2
node 29 1 0 2
gene 1 1 27 -1.24553 0 1 -1.24553 1
gene 1 1 28 -1.08973 0 2 -1.08973 1
gene 1 1 29 1.37766 0 3 1.37766 1
gene 1 2 27 4.75549 0 4 4.75549 1
gene 1 2 28 -0.782245 0 5 -0.782245 1
gene 1 2 29 -1.40658 0 6 -1.40658 1
gene 1 3 27 -0.661087 0 7 -0.661087 1
gene 1 3 28 3.0973 0 8 3.0973 1
gene 1 3 29 -0.776376 0 9 -0.776376 1
gene 1 4 27 -0.209417 0 10 -0.209417 1
gene 1 4 28 -5 0 11 -5 1
gene 1 4 29 1.69718 0 12 1.69718 1
gene 1 5 27 1.53028 0 13 1.53028 1
gene 1 5 28 -0.413892 0 14 -0.413892 1
gene 1 5 29 0.812058 0 15 0.812058 1
gene 1 6 27 -2.73154 0 16 -2.73154 1
gene 1 6 28 -2.14346 0 17 -2.14346 1
gene 1 6 29 -1.1072 0 18 -1.1072 1
gene 1 7 27 -4.36171 0 19 -4.36171 1
gene 1 7 28 2.04024 0 20 2.04024 1
gene 1 7 29 4.27906 0 21 4.27906 1
gene 1 8 27 -3.78772 0 22 -3.78772 1
gene 1 8 28 -1.21751 0 23 -1.21751 1
gene 1 8 29 0.493094 0 24 0.493094 1
gene 1 9 27 3.31336 0 25 3.31336 1
gene 1 9 28 -0.592643 0 26 -0.592643 1
gene 1 9 29 -1.65734 0 27 -1.65734 1
gene 1 10 27 2.43662 0 28 2.43662 1
gene 1 10 28 0.550815 0 29 0.550815 1
gene 1 10 29 1.1204 0 30 1.1204 1
gene 1 11 27 -0.894293 0 27 -0.894293 1
gene 1 11 28 -0.935041 0 32 -0.935041 1
gene 1 11 29 -0.990203 0 33 -0.990203 1
gene 1 12 27 0.927585 0 34 0.927585 1
gene 1 12 28 0.667647 0 35 0.667647 1
gene 1 12 29 -1.37087 0 36 -1.37087 1
gene 1 13 27 -0.254854 0 37 -0.254854 1
gene 1 13 28 1.11309 0 38 1.11309 1
gene 1 13 29 1.07942 0 39 1.07942 1
gene 1 14 27 1.77809 0 40 1.77809 1
gene 1 14 28 -4.0854 0 41 -4.0854 1
gene 1 14 29 0.423537 0 42 0.423537 1
gene 1 15 27 -0.304161 0 43 -0.304161 1
gene 1 15 28 -0.76141 0 44 -0.76141 1
gene 1 15 29 -3.57009 0 45 -3.57009 1
gene 1 16 27 -1.25813 0 46 -1.25813 1
gene 1 16 28 0.858218 0 47 0.858218 1
gene 1 16 29 0.937258 0 48 0.937258 1
gene 1 17 27 4.86666 0 49 4.86666 1
gene 1 17 28 0.210034 0 50 0.210034 1
gene 1 17 29 2.83986 0 51 2.83986 1
gene 1 18 27 1.52613 0 52 1.52613 1
gene 1 18 28 -0.395896 0 53 -0.395896 1
gene 1 18 29 -1.32527 0 54 -1.32527 1
gene 1 19 27 -1.44207 0 55 -1.44207 1
gene 1 19 28 3.57134 0 56 3.57134 1
gene 1 19 29 -1.65933 0 57 -1.65933 1
gene 1 20 27 2.44543 0 58 2.44543 1
gene 1 20 28 -0.264664 0 59 -0.264664 1
gene 1 20 29 -0.147252 0 60 -0.147252 1
gene 1 21 27 5 0 61 5 1
gene 1 21 28 1.41531 0 62 1.41531 1
gene 1 21 29 0.481842 0 63 0.481842 1
gene 1 22 27 0.073658 0 64 0.073658 1
gene 1 22 28 -0.120271 0 65 -0.120271 1
gene 1 22 29 -0.0306579 0 66 -0.0306579 1
gene 1 23 27 0.990413 0 67 0.990413 1
gene 1 23 28 0.749315 0 68 0.749315 1
gene 1 23 29 1.53058 0 69 1.53058 1
gene 1 24 27 -0.0506169 0 70 -0.0506169 1
gene 1 24 28 0.621412 0 71 0.621412 1
gene 1 24 29 -0.211213 0 72 -0.211213 1
gene 1 25 27 0.0271252 0 73 0.0271252 1
gene 1 25 28 -1.44813 0 74 -1.44813 1
gene 1 25 29 -0.531687 0 75 -0.531687 1
gene 1 26 27 0.908241 0 76 0.908241 1
gene 1 26 28 1.84061 0 77 1.84061 1
gene 1 26 29 -0.170569 0 78 -0.170569 1
genomeend 59


