/* Organism #0 Fitness: 38806.038000 Time: 0 */
genomestart 0
trait 1 0.157188 0.000000 0.000000 0.407295 0.340530 0.000000 0.000000 0.088573 
node 1 1 1 1
node 2 1 1 1
node 3 1 1 1
node 4 1 1 1
node 5 1 1 1
node 6 1 1 1
node 7 1 1 1
node 8 1 1 1
node 9 1 1 1
node 10 1 1 1
node 11 1 1 1
node 12 1 1 1
node 13 1 1 1
node 14 1 1 1
node 15 1 1 1
node 16 1 1 1
node 17 1 1 1
node 18 1 1 1
node 19 1 1 1
node 20 1 1 1
node 21 1 1 1
node 22 1 1 1
node 23 1 1 1
node 24 1 1 1
node 25 1 1 1
node 26 1 1 3
node 27 1 0 2
node 28 1 0 2
node 29 1 0 2
gene 1 1 27 -0.832849 0 1 -0.832849 1
gene 1 1 28 -2.28087 0 2 -2.28087 1
gene 1 1 29 -1.93938 0 3 -1.93938 1
gene 1 2 27 2.59632 0 4 2.59632 1
gene 1 2 28 1.84034 0 5 1.84034 1
gene 1 2 29 -2.84916 0 6 -2.84916 1
gene 1 3 27 -4.70496 0 7 -4.70496 1
gene 1 3 28 3.24382 0 8 3.24382 1
gene 1 3 29 -0.432826 0 9 -0.432826 1
gene 1 4 27 1.96104 0 10 1.96104 1
gene 1 4 28 2.97568 0 11 2.97568 1
gene 1 4 29 -2.27626 0 12 -2.27626 1
gene 1 5 27 -3.24662 0 13 -3.24662 1
gene 1 5 28 0.376191 0 14 0.376191 1
gene 1 5 29 -4.12853 0 15 -4.12853 1
gene 1 6 27 4.70574 0 16 4.70574 1
gene 1 6 28 -5 0 17 -5 1
gene 1 6 29 -1.78127 0 18 -1.78127 1
gene 1 7 27 -0.92927 0 19 -0.92927 1
gene 1 7 28 -1.79193 0 20 -1.79193 1
gene 1 7 29 -1.05227 0 21 -1.05227 1
gene 1 8 27 -4.34979 0 22 -4.34979 1
gene 1 8 28 3.69196 0 23 3.69196 1
gene 1 8 29 2.15822 0 24 2.15822 1
gene 1 9 27 1.84378 0 25 1.84378 1
gene 1 9 28 -1.16283 0 26 -1.16283 1
gene 1 9 29 -0.0191753 0 27 -0.0191753 1
gene 1 10 27 -0.995732 0 28 -0.995732 1
gene 1 10 28 1.73027 0 29 1.73027 1
gene 1 10 29 -0.544995 0 30 -0.544995 1
gene 1 11 27 -0.0552271 0 27 -0.0552271 1
gene 1 11 28 3.1451 0 32 3.1451 1
gene 1 11 29 -1.22893 0 33 -1.22893 1
gene 1 12 27 0.680172 0 34 0.680172 1
gene 1 12 28 -1.90162 0 35 -1.90162 1
gene 1 12 29 0.00693572 0 36 0.00693572 1
gene 1 13 27 1.74823 0 37 1.74823 1
gene 1 13 28 -1.5395 0 38 -1.5395 1
gene 1 13 29 -2.14997 0 39 -2.14997 1
gene 1 14 27 -0.562257 0 40 -0.562257 1
gene 1 14 28 3.91658 0 41 3.91658 1
gene 1 14 29 -1.58086 0 42 -1.58086 1
gene 1 15 27 3.34862 0 43 3.34862 1
gene 1 15 28 1.16147 0 44 1.16147 1
gene 1 15 29 0.217036 0 45 0.217036 1
gene 1 16 27 -0.639969 0 46 -0.639969 1
gene 1 16 28 0.144029 0 47 0.144029 1
gene 1 16 29 4.12336 0 48 4.12336 1
gene 1 17 27 -2.90234 0 49 -2.90234 1
gene 1 17 28 -1.15321 0 50 -1.15321 1
gene 1 17 29 4.54405 0 51 4.54405 1
gene 1 18 27 0.249898 0 52 0.249898 1
gene 1 18 28 -2.70442 0 53 -2.70442 1
gene 1 18 29 -1.18799 0 54 -1.18799 1
gene 1 19 27 0.122705 0 55 0.122705 1
gene 1 19 28 -2.372 0 56 -2.372 1
gene 1 19 29 -3.55247 0 57 -3.55247 1
gene 1 20 27 1.51618 0 58 1.51618 1
gene 1 20 28 3.75563 0 59 3.75563 1
gene 1 20 29 -2.06357 0 60 -2.06357 1
gene 1 21 27 -2.45081 0 61 -2.45081 1
gene 1 21 28 -2.8165 0 62 -2.8165 1
gene 1 21 29 -0.625797 0 63 -0.625797 1
gene 1 22 27 -1.28019 0 64 -1.28019 1
gene 1 22 28 -2.00307 0 65 -2.00307 1
gene 1 22 29 -0.679118 0 66 -0.679118 1
gene 1 23 27 -0.0418287 0 67 -0.0418287 1
gene 1 23 28 -0.45366 0 68 -0.45366 1
gene 1 23 29 0.969832 0 69 0.969832 1
gene 1 24 27 -0.0991577 0 70 -0.0991577 1
gene 1 24 28 -0.405962 0 71 -0.405962 1
gene 1 24 29 -1.47376 0 72 -1.47376 1
gene 1 25 27 -0.103308 0 73 -0.103308 1
gene 1 25 28 -0.839315 0 74 -0.839315 1
gene 1 25 29 -1.13524 0 75 -1.13524 1
gene 1 26 27 -2.20166 0 76 -2.20166 1
gene 1 26 28 0.0428785 0 77 0.0428785 1
gene 1 26 29 -0.31372 0 78 -0.31372 1
genomeend 0


