/* Organism #0 Fitness: 17504.864000 Time: 0 */
genomestart 0
trait 1 0.000000 0.000000 0.000000 0.000000 0.000000 0.923393 0.000000 0.000000 
node 1 1 1 1
node 2 1 1 1
node 3 1 1 1
node 4 1 1 1
node 5 1 1 1
node 6 1 1 1
node 7 1 1 1
node 8 1 1 1
node 9 1 1 1
node 10 1 1 1
node 11 1 1 1
node 12 1 1 1
node 13 1 1 1
node 14 1 1 1
node 15 1 1 1
node 16 1 1 1
node 17 1 1 1
node 18 1 1 1
node 19 1 1 1
node 20 1 1 1
node 21 1 1 1
node 22 1 1 1
node 23 1 1 1
node 24 1 1 1
node 25 1 1 1
node 26 1 1 1
node 27 1 1 1
node 28 1 1 1
node 29 1 1 1
node 30 1 1 1
node 31 1 1 1
node 32 1 1 1
node 33 1 1 1
node 34 1 1 1
node 35 1 1 3
node 36 1 0 2
node 37 1 0 2
node 38 1 0 2
node 39 1 0 2
gene 1 1 36 1.51246 0 1 1.51246 1
gene 1 1 37 -3.93203 0 2 -3.93203 1
gene 1 1 38 -0.0938528 0 3 -0.0938528 1
gene 1 1 39 -5 0 4 -5 1
gene 1 2 36 -1.45411 0 5 -1.45411 1
gene 1 2 37 -3.41593 0 6 -3.41593 1
gene 1 2 38 -4.06944 0 7 -4.06944 1
gene 1 2 39 -2.1901 0 8 -2.1901 1
gene 1 3 36 1.61834 0 9 1.61834 1
gene 1 3 37 3.44993 0 10 3.44993 1
gene 1 3 38 -1.15892 0 11 -1.15892 1
gene 1 3 39 -3.62848 0 12 -3.62848 1
gene 1 4 36 2.01244 0 13 2.01244 1
gene 1 4 37 -0.0132133 0 14 -0.0132133 1
gene 1 4 38 -3.01201 0 15 -3.01201 1
gene 1 4 39 -0.712832 0 16 -0.712832 1
gene 1 5 36 1.20892 0 17 1.20892 1
gene 1 5 37 5 0 18 5 1
gene 1 5 38 -3.33765 0 19 -3.33765 1
gene 1 5 39 -2.66175 0 20 -2.66175 1
gene 1 6 36 1.11547 0 21 1.11547 1
gene 1 6 37 0.0360776 0 22 0.0360776 1
gene 1 6 38 -2.16853 0 23 -2.16853 1
gene 1 6 39 1.32252 0 24 1.32252 1
gene 1 7 36 3.72539 0 25 3.72539 1
gene 1 7 37 -1.51875 0 26 -1.51875 1
gene 1 7 38 -4.87863 0 27 -4.87863 1
gene 1 7 39 2.18438 0 28 2.18438 1
gene 1 8 36 2.72289 0 29 2.72289 1
gene 1 8 37 -1.25751 0 30 -1.25751 1
gene 1 8 38 -2.01595 0 31 -2.01595 1
gene 1 8 39 1.02281 0 32 1.02281 1
gene 1 9 36 -4.48807 0 33 -4.48807 1
gene 1 9 37 -3.41468 0 34 -3.41468 1
gene 1 9 38 0.622399 0 35 0.622399 1
gene 1 9 39 0.395506 0 36 0.395506 1
gene 1 10 36 3.26683 0 37 3.26683 1
gene 1 10 37 0.523223 0 38 0.523223 1
gene 1 10 38 -2.64598 0 39 -2.64598 1
gene 1 10 39 5 0 40 5 1
gene 1 11 36 4.37479 0 41 4.37479 1
gene 1 11 37 -1.50856 0 42 -1.50856 1
gene 1 11 38 0.359606 0 43 0.359606 1
gene 1 11 39 -2.05465 0 44 -2.05465 1
gene 1 12 36 3.56849 0 45 3.56849 1
gene 1 12 37 -4.75875 0 46 -4.75875 1
gene 1 12 38 -1.27602 0 47 -1.27602 1
gene 1 12 39 0.852255 0 48 0.852255 1
gene 1 13 36 -2.93487 0 49 -2.93487 1
gene 1 13 37 3.77905 0 50 3.77905 1
gene 1 13 38 -0.246506 0 51 -0.246506 1
gene 1 13 39 0.0948793 0 52 0.0948793 1
gene 1 14 36 -4.71219 0 53 -4.71219 1
gene 1 14 37 0.416451 0 54 0.416451 1
gene 1 14 38 -0.228315 0 55 -0.228315 1
gene 1 14 39 -0.910915 0 56 -0.910915 1
gene 1 15 36 4.37009 0 57 4.37009 1
gene 1 15 37 0.502362 0 58 0.502362 1
gene 1 15 38 -0.926961 0 59 -0.926961 1
gene 1 15 39 -2.03755 0 60 -2.03755 1
gene 1 16 36 0.236764 0 61 0.236764 1
gene 1 16 37 0.686734 0 62 0.686734 1
gene 1 16 38 -1.89333 0 63 -1.89333 1
gene 1 16 39 -2.7852 0 64 -2.7852 1
gene 1 17 36 -2.48683 0 65 -2.48683 1
gene 1 17 37 -3.14496 0 66 -3.14496 1
gene 1 17 38 0.693393 0 67 0.693393 1
gene 1 17 39 -3.86691 0 68 -3.86691 1
gene 1 18 36 0.724749 0 69 0.724749 1
gene 1 18 37 -0.439272 0 70 -0.439272 1
gene 1 18 38 -1.29302 0 71 -1.29302 1
gene 1 18 39 -3.12201 0 72 -3.12201 1
gene 1 19 36 0.739798 0 73 0.739798 1
gene 1 19 37 -0.211944 0 74 -0.211944 1
gene 1 19 38 -4.23692 0 75 -4.23692 1
gene 1 19 39 2.96524 0 76 2.96524 1
gene 1 20 36 -1.82231 0 77 -1.82231 1
gene 1 20 37 -0.137569 0 78 -0.137569 1
gene 1 20 38 -0.270086 0 79 -0.270086 1
gene 1 20 39 -0.423479 0 80 -0.423479 1
gene 1 21 36 0.216371 0 81 0.216371 1
gene 1 21 37 1.3699 0 82 1.3699 1
gene 1 21 38 0.286366 0 83 0.286366 1
gene 1 21 39 2.52324 0 84 2.52324 1
gene 1 22 36 0.230039 0 85 0.230039 1
gene 1 22 37 1.29208 0 86 1.29208 1
gene 1 22 38 2.37111 0 87 2.37111 1
gene 1 22 39 -0.916491 0 88 -0.916491 1
gene 1 23 36 2.98253 0 89 2.98253 1
gene 1 23 37 -0.580795 0 90 -0.580795 1
gene 1 23 38 2.37756 0 91 2.37756 1
gene 1 23 39 0.295413 0 92 0.295413 1
gene 1 24 36 -2.3089 0 93 -2.3089 1
gene 1 24 37 -0.0835898 0 94 -0.0835898 1
gene 1 24 38 -2.11033 0 95 -2.11033 1
gene 1 24 39 0.677154 0 96 0.677154 1
gene 1 25 36 3.84187 0 97 3.84187 1
gene 1 25 37 2.46436 0 98 2.46436 1
gene 1 25 38 -1.61576 0 99 -1.61576 1
gene 1 25 39 -3.45267 0 100 -3.45267 1
gene 1 26 36 -3.26193 0 101 -3.26193 1
gene 1 26 37 0.619972 0 102 0.619972 1
gene 1 26 38 2.42134 0 103 2.42134 1
gene 1 26 39 4.34128 0 104 4.34128 1
gene 1 27 36 0.339296 0 105 0.339296 1
gene 1 27 37 4.15548 0 106 4.15548 1
gene 1 27 38 2.33157 0 107 2.33157 1
gene 1 27 39 0.65573 0 108 0.65573 1
gene 1 28 36 -0.107131 0 109 -0.107131 1
gene 1 28 37 -0.719607 0 110 -0.719607 1
gene 1 28 38 5 0 111 5 1
gene 1 28 39 3.73693 0 112 3.73693 1
gene 1 29 36 0.736012 0 113 0.736012 1
gene 1 29 37 -0.451772 0 114 -0.451772 1
gene 1 29 38 0.532884 0 115 0.532884 1
gene 1 29 39 -0.100236 0 116 -0.100236 1
gene 1 30 36 -1.02642 0 117 -1.02642 1
gene 1 30 37 -0.807266 0 118 -0.807266 1
gene 1 30 38 -0.902995 0 119 -0.902995 1
gene 1 30 39 -0.791172 0 120 -0.791172 1
gene 1 31 36 0.809959 0 121 0.809959 1
gene 1 31 37 0.502237 0 122 0.502237 1
gene 1 31 38 0.814835 0 123 0.814835 1
gene 1 31 39 -0.732878 0 124 -0.732878 1
gene 1 32 36 0.227148 0 125 0.227148 1
gene 1 32 37 -0.782447 0 126 -0.782447 1
gene 1 32 38 1.29974 0 127 1.29974 1
gene 1 32 39 0.604255 0 128 0.604255 1
gene 1 33 36 0.187063 0 129 0.187063 1
gene 1 33 37 -0.712565 0 130 -0.712565 1
gene 1 33 38 -1.37653 0 131 -1.37653 1
gene 1 33 39 -1.06819 0 132 -1.06819 1
gene 1 34 36 -0.302759 0 133 -0.302759 1
gene 1 34 37 -0.0552636 0 134 -0.0552636 1
gene 1 34 38 1.16938 0 135 1.16938 1
gene 1 34 39 -1.42824 0 136 -1.42824 1
gene 1 35 36 0.153073 0 137 0.153073 1
gene 1 35 37 1.08938 0 138 1.08938 1
gene 1 35 38 -0.96311 0 139 -0.96311 1
gene 1 35 39 -0.654986 0 140 -0.654986 1
genomeend 0


