/* Organism #8 Fitness: 17645.376000 Time: 0 */
genomestart 8
trait 1 0.000000 0.000000 0.000000 0.000000 1.000000 0.118408 0.000000 0.927409 
node 1 1 1 1
node 2 1 1 1
node 3 1 1 1
node 4 1 1 1
node 5 1 1 1
node 6 1 1 1
node 7 1 1 1
node 8 1 1 1
node 9 1 1 1
node 10 1 1 1
node 11 1 1 1
node 12 1 1 1
node 13 1 1 1
node 14 1 1 1
node 15 1 1 1
node 16 1 1 1
node 17 1 1 1
node 18 1 1 1
node 19 1 1 1
node 20 1 1 1
node 21 1 1 1
node 22 1 1 1
node 23 1 1 1
node 24 1 1 1
node 25 1 1 1
node 26 1 1 1
node 27 1 1 1
node 28 1 1 1
node 29 1 1 1
node 30 1 1 1
node 31 1 1 1
node 32 1 1 1
node 33 1 1 1
node 34 1 1 1
node 35 1 1 3
node 36 1 0 2
node 37 1 0 2
node 38 1 0 2
node 39 1 0 2
gene 1 1 36 2.91415 0 1 2.91415 1
gene 1 1 37 -3.69445 0 2 -3.69445 1
gene 1 1 38 -4.89046 0 3 -4.89046 1
gene 1 1 39 1.14631 0 4 1.14631 1
gene 1 2 36 0.127387 0 5 0.127387 1
gene 1 2 37 -0.0409956 0 6 -0.0409956 1
gene 1 2 38 -3.31139 0 7 -3.31139 1
gene 1 2 39 -2.0451 0 8 -2.0451 1
gene 1 3 36 1.52483 0 9 1.52483 1
gene 1 3 37 -1.49883 0 10 -1.49883 1
gene 1 3 38 -4.59611 0 11 -4.59611 1
gene 1 3 39 2.13658 0 12 2.13658 1
gene 1 4 36 -2.02226 0 13 -2.02226 1
gene 1 4 37 2.99065 0 14 2.99065 1
gene 1 4 38 -5 0 15 -5 1
gene 1 4 39 5 0 16 5 1
gene 1 5 36 0.77588 0 17 0.77588 1
gene 1 5 37 0.715232 0 18 0.715232 1
gene 1 5 38 0.535365 0 19 0.535365 1
gene 1 5 39 -1.33681 0 20 -1.33681 1
gene 1 6 36 2.22454 0 21 2.22454 1
gene 1 6 37 0.89301 0 22 0.89301 1
gene 1 6 38 0.450134 0 23 0.450134 1
gene 1 6 39 -2.4187 0 24 -2.4187 1
gene 1 7 36 1.60866 0 25 1.60866 1
gene 1 7 37 3.90382 0 26 3.90382 1
gene 1 7 38 -1.43696 0 27 -1.43696 1
gene 1 7 39 -2.31883 0 28 -2.31883 1
gene 1 8 36 2.77538 0 29 2.77538 1
gene 1 8 37 -3.85619 0 30 -3.85619 1
gene 1 8 38 0.0329748 0 31 0.0329748 1
gene 1 8 39 -1.78104 0 32 -1.78104 1
gene 1 9 36 -5 0 33 -5 1
gene 1 9 37 4.31157 0 34 4.31157 1
gene 1 9 38 -2.13446 0 35 -2.13446 1
gene 1 9 39 1.08671 0 36 1.08671 1
gene 1 10 36 -4.58947 0 37 -4.58947 1
gene 1 10 37 5 0 38 5 1
gene 1 10 38 1.58949 0 39 1.58949 1
gene 1 10 39 -1.88051 0 40 -1.88051 1
gene 1 11 36 -3.00251 0 41 -3.00251 1
gene 1 11 37 2.56381 0 42 2.56381 1
gene 1 11 38 -0.268514 0 43 -0.268514 1
gene 1 11 39 -0.898995 0 44 -0.898995 1
gene 1 12 36 -1.22194 0 45 -1.22194 1
gene 1 12 37 2.07666 0 46 2.07666 1
gene 1 12 38 -1.75739 0 47 -1.75739 1
gene 1 12 39 1.54352 0 48 1.54352 1
gene 1 13 36 4.10376 0 49 4.10376 1
gene 1 13 37 -0.624156 0 50 -0.624156 1
gene 1 13 38 -2.78106 0 51 -2.78106 1
gene 1 13 39 0.826542 0 52 0.826542 1
gene 1 14 36 0.840323 0 53 0.840323 1
gene 1 14 37 2.95105 0 54 2.95105 1
gene 1 14 38 -0.44669 0 55 -0.44669 1
gene 1 14 39 3.17289 0 56 3.17289 1
gene 1 15 36 4.52449 0 57 4.52449 1
gene 1 15 37 -3.08053 0 58 -3.08053 1
gene 1 15 38 -0.500433 0 59 -0.500433 1
gene 1 15 39 -0.039869 0 60 -0.039869 1
gene 1 16 36 1.72839 0 61 1.72839 1
gene 1 16 37 -1.58182 0 62 -1.58182 1
gene 1 16 38 0.219709 0 63 0.219709 1
gene 1 16 39 -1.17342 0 64 -1.17342 1
gene 1 17 36 -1.83229 0 65 -1.83229 1
gene 1 17 37 -0.127387 0 66 -0.127387 1
gene 1 17 38 -2.44269 0 67 -2.44269 1
gene 1 17 39 -2.22007 0 68 -2.22007 1
gene 1 18 36 1.26176 0 69 1.26176 1
gene 1 18 37 -1.11692 0 70 -1.11692 1
gene 1 18 38 -5 0 71 -5 1
gene 1 18 39 0.557489 0 72 0.557489 1
gene 1 19 36 -1.02372 0 73 -1.02372 1
gene 1 19 37 2.59678 0 74 2.59678 1
gene 1 19 38 -3.41374 0 75 -3.41374 1
gene 1 19 39 4.38781 0 76 4.38781 1
gene 1 20 36 -0.705306 0 77 -0.705306 1
gene 1 20 37 0.548731 0 78 0.548731 1
gene 1 20 38 0.240617 0 79 0.240617 1
gene 1 20 39 -1.74487 0 80 -1.74487 1
gene 1 21 36 -0.62301 0 81 -0.62301 1
gene 1 21 37 2.80228 0 82 2.80228 1
gene 1 21 38 1.88581 0 83 1.88581 1
gene 1 21 39 1.94438 0 84 1.94438 1
gene 1 22 36 -3.61194 0 85 -3.61194 1
gene 1 22 37 0.196974 0 86 0.196974 1
gene 1 22 38 1.96203 0 87 1.96203 1
gene 1 22 39 -1.12521 0 88 -1.12521 1
gene 1 23 36 1.28429 0 89 1.28429 1
gene 1 23 37 2.22799 0 90 2.22799 1
gene 1 23 38 -4.62139 0 91 -4.62139 1
gene 1 23 39 -0.400618 0 92 -0.400618 1
gene 1 24 36 -1.38294 0 93 -1.38294 1
gene 1 24 37 2.4128 0 94 2.4128 1
gene 1 24 38 -3.12148 0 95 -3.12148 1
gene 1 24 39 -0.723259 0 96 -0.723259 1
gene 1 25 36 -4.07081 0 97 -4.07081 1
gene 1 25 37 -4.49479 0 98 -4.49479 1
gene 1 25 38 5 0 99 5 1
gene 1 25 39 -4.6853 0 100 -4.6853 1
gene 1 26 36 0.587923 0 101 0.587923 1
gene 1 26 37 2.52958 0 102 2.52958 1
gene 1 26 38 3.35791 0 103 3.35791 1
gene 1 26 39 3.56761 0 104 3.56761 1
gene 1 27 36 2.81196 0 105 2.81196 1
gene 1 27 37 1.50372 0 106 1.50372 1
gene 1 27 38 2.30641 0 107 2.30641 1
gene 1 27 39 4.43739 0 108 4.43739 1
gene 1 28 36 -2.28694 0 109 -2.28694 1
gene 1 28 37 1.46823 0 110 1.46823 1
gene 1 28 38 1.0198 0 111 1.0198 1
gene 1 28 39 -0.646292 0 112 -0.646292 1
gene 1 29 36 0.689162 0 113 0.689162 1
gene 1 29 37 -0.835838 0 114 -0.835838 1
gene 1 29 38 -1.21522 0 115 -1.21522 1
gene 1 29 39 -0.9289 0 116 -0.9289 1
gene 1 30 36 2.64913 0 117 2.64913 1
gene 1 30 37 -1.30257 0 118 -1.30257 1
gene 1 30 38 -3.33542 0 119 -3.33542 1
gene 1 30 39 -0.173619 0 120 -0.173619 1
gene 1 31 36 0.366542 0 121 0.366542 1
gene 1 31 37 -0.0232692 0 122 -0.0232692 1
gene 1 31 38 0.591888 0 123 0.591888 1
gene 1 31 39 0.817286 0 124 0.817286 1
gene 1 32 36 -0.378815 0 125 -0.378815 1
gene 1 32 37 -1.96337 0 126 -1.96337 1
gene 1 32 38 -0.245218 0 127 -0.245218 1
gene 1 32 39 0.298365 0 128 0.298365 1
gene 1 33 36 -0.888135 0 129 -0.888135 1
gene 1 33 37 0.122513 0 130 0.122513 1
gene 1 33 38 -1.20674 0 131 -1.20674 1
gene 1 33 39 0.797414 0 132 0.797414 1
gene 1 34 36 1.04906 0 133 1.04906 1
gene 1 34 37 -0.566125 0 134 -0.566125 1
gene 1 34 38 -0.392881 0 135 -0.392881 1
gene 1 34 39 0.662769 0 136 0.662769 1
gene 1 35 36 0.283454 0 137 0.283454 1
gene 1 35 37 0.31845 0 138 0.31845 1
gene 1 35 38 0.886392 0 139 0.886392 1
gene 1 35 39 3.21763 0 140 3.21763 1
genomeend 8


