/* Organism #6 Fitness: 17865.934000 Time: 0 */
genomestart 6
trait 1 0.000000 0.661113 0.409117 1.000000 0.764645 1.000000 0.057589 1.000000 
node 1 1 1 1
node 2 1 1 1
node 3 1 1 1
node 4 1 1 1
node 5 1 1 1
node 6 1 1 1
node 7 1 1 1
node 8 1 1 1
node 9 1 1 1
node 10 1 1 1
node 11 1 1 1
node 12 1 1 1
node 13 1 1 1
node 14 1 1 1
node 15 1 1 1
node 16 1 1 1
node 17 1 1 1
node 18 1 1 1
node 19 1 1 1
node 20 1 1 1
node 21 1 1 1
node 22 1 1 1
node 23 1 1 1
node 24 1 1 1
node 25 1 1 1
node 26 1 1 1
node 27 1 1 1
node 28 1 1 1
node 29 1 1 1
node 30 1 1 1
node 31 1 1 1
node 32 1 1 1
node 33 1 1 1
node 34 1 1 1
node 35 1 1 3
node 36 1 0 2
node 37 1 0 2
node 38 1 0 2
node 39 1 0 2
gene 1 1 36 -2.47794 0 1 -2.47794 1
gene 1 1 37 -0.719778 0 2 -0.719778 1
gene 1 1 38 0.406005 0 3 0.406005 1
gene 1 1 39 4.55034 0 4 4.55034 1
gene 1 2 36 -0.837124 0 5 -0.837124 1
gene 1 2 37 -3.90128 0 6 -3.90128 1
gene 1 2 38 -2.76969 0 7 -2.76969 1
gene 1 2 39 -4.78785 0 8 -4.78785 1
gene 1 3 36 -4.97414 0 9 -4.97414 1
gene 1 3 37 -0.393277 0 10 -0.393277 1
gene 1 3 38 -1.35827 0 11 -1.35827 1
gene 1 3 39 -0.934469 0 12 -0.934469 1
gene 1 4 36 -1.04557 0 13 -1.04557 1
gene 1 4 37 -2.87464 0 14 -2.87464 1
gene 1 4 38 2.11629 0 15 2.11629 1
gene 1 4 39 -4.2968 0 16 -4.2968 1
gene 1 5 36 1.88232 0 17 1.88232 1
gene 1 5 37 2.0969 0 18 2.0969 1
gene 1 5 38 -0.395141 0 19 -0.395141 1
gene 1 5 39 -2.44613 0 20 -2.44613 1
gene 1 6 36 -1.4911 0 21 -1.4911 1
gene 1 6 37 -1.4142 0 22 -1.4142 1
gene 1 6 38 -2.11717 0 23 -2.11717 1
gene 1 6 39 -3.98679 0 24 -3.98679 1
gene 1 7 36 3.53611 0 25 3.53611 1
gene 1 7 37 -0.0950554 0 26 -0.0950554 1
gene 1 7 38 0.249103 0 27 0.249103 1
gene 1 7 39 -0.503281 0 28 -0.503281 1
gene 1 8 36 0.48995 0 29 0.48995 1
gene 1 8 37 -1.24747 0 30 -1.24747 1
gene 1 8 38 0.225816 0 31 0.225816 1
gene 1 8 39 -1.00723 0 32 -1.00723 1
gene 1 9 36 -0.681081 0 33 -0.681081 1
gene 1 9 37 -1.03782 0 34 -1.03782 1
gene 1 9 38 1.89837 0 35 1.89837 1
gene 1 9 39 -2.51778 0 36 -2.51778 1
gene 1 10 36 -2.06826 0 37 -2.06826 1
gene 1 10 37 2.27407 0 38 2.27407 1
gene 1 10 38 -0.83207 0 39 -0.83207 1
gene 1 10 39 -0.246811 0 40 -0.246811 1
gene 1 11 36 -1.70048 0 41 -1.70048 1
gene 1 11 37 1.91429 0 42 1.91429 1
gene 1 11 38 -5 0 43 -5 1
gene 1 11 39 -1.28562 0 44 -1.28562 1
gene 1 12 36 0.676157 0 45 0.676157 1
gene 1 12 37 -0.275175 0 46 -0.275175 1
gene 1 12 38 1.02739 0 47 1.02739 1
gene 1 12 39 -0.629493 0 48 -0.629493 1
gene 1 13 36 -0.387068 0 49 -0.387068 1
gene 1 13 37 4.35156 0 50 4.35156 1
gene 1 13 38 1.76163 0 51 1.76163 1
gene 1 13 39 1.22397 0 52 1.22397 1
gene 1 14 36 0.687545 0 53 0.687545 1
gene 1 14 37 0.369917 0 54 0.369917 1
gene 1 14 38 -0.0837231 0 55 -0.0837231 1
gene 1 14 39 0.513291 0 56 0.513291 1
gene 1 15 36 4.3837 0 57 4.3837 1
gene 1 15 37 -4.18335 0 58 -4.18335 1
gene 1 15 38 -2.28616 0 59 -2.28616 1
gene 1 15 39 1.85303 0 60 1.85303 1
gene 1 16 36 4.81852 0 61 4.81852 1
gene 1 16 37 -2.57028 0 62 -2.57028 1
gene 1 16 38 0.23276 0 63 0.23276 1
gene 1 16 39 0.652295 0 64 0.652295 1
gene 1 17 36 -4.53348 0 65 -4.53348 1
gene 1 17 37 3.82575 0 66 3.82575 1
gene 1 17 38 2.03411 0 67 2.03411 1
gene 1 17 39 -1.50443 0 68 -1.50443 1
gene 1 18 36 2.95496 0 69 2.95496 1
gene 1 18 37 0.851207 0 70 0.851207 1
gene 1 18 38 -1.09575 0 71 -1.09575 1
gene 1 18 39 0.475109 0 72 0.475109 1
gene 1 19 36 3.34386 0 73 3.34386 1
gene 1 19 37 -2.52545 0 74 -2.52545 1
gene 1 19 38 -3.0457 0 75 -3.0457 1
gene 1 19 39 0.887361 0 76 0.887361 1
gene 1 20 36 4.09064 0 77 4.09064 1
gene 1 20 37 3.02683 0 78 3.02683 1
gene 1 20 38 -5 0 79 -5 1
gene 1 20 39 2.67777 0 80 2.67777 1
gene 1 21 36 0.260495 0 81 0.260495 1
gene 1 21 37 -3.82582 0 82 -3.82582 1
gene 1 21 38 -2.69785 0 83 -2.69785 1
gene 1 21 39 0.282924 0 84 0.282924 1
gene 1 22 36 -1.65571 0 85 -1.65571 1
gene 1 22 37 1.09984 0 86 1.09984 1
gene 1 22 38 0.742894 0 87 0.742894 1
gene 1 22 39 -1.30511 0 88 -1.30511 1
gene 1 23 36 -0.124645 0 89 -0.124645 1
gene 1 23 37 -2.97394 0 90 -2.97394 1
gene 1 23 38 -0.745537 0 91 -0.745537 1
gene 1 23 39 -2.4955 0 92 -2.4955 1
gene 1 24 36 -2.65822 0 93 -2.65822 1
gene 1 24 37 0.349559 0 94 0.349559 1
gene 1 24 38 0.974885 0 95 0.974885 1
gene 1 24 39 2.25039 0 96 2.25039 1
gene 1 25 36 -5 0 97 -5 1
gene 1 25 37 -4.85402 0 98 -4.85402 1
gene 1 25 38 2.14719 0 99 2.14719 1
gene 1 25 39 -1.37424 0 100 -1.37424 1
gene 1 26 36 -2.61533 0 101 -2.61533 1
gene 1 26 37 1.24925 0 102 1.24925 1
gene 1 26 38 -3.14086 0 103 -3.14086 1
gene 1 26 39 -4.64077 0 104 -4.64077 1
gene 1 27 36 3.22218 0 105 3.22218 1
gene 1 27 37 -4.32447 0 106 -4.32447 1
gene 1 27 38 -4.79204 0 107 -4.79204 1
gene 1 27 39 -2.59239 0 108 -2.59239 1
gene 1 28 36 0.659715 0 109 0.659715 1
gene 1 28 37 0.20348 0 110 0.20348 1
gene 1 28 38 0.756589 0 111 0.756589 1
gene 1 28 39 3.41478 0 112 3.41478 1
gene 1 29 36 -0.358859 0 113 -0.358859 1
gene 1 29 37 0.722562 0 114 0.722562 1
gene 1 29 38 -1.20752 0 115 -1.20752 1
gene 1 29 39 0.250689 0 116 0.250689 1
gene 1 30 36 0.628943 0 117 0.628943 1
gene 1 30 37 0.0804689 0 118 0.0804689 1
gene 1 30 38 -0.821722 0 119 -0.821722 1
gene 1 30 39 -0.0127605 0 120 -0.0127605 1
gene 1 31 36 1.59598 0 121 1.59598 1
gene 1 31 37 0.608242 0 122 0.608242 1
gene 1 31 38 0.252637 0 123 0.252637 1
gene 1 31 39 0.441173 0 124 0.441173 1
gene 1 32 36 -2.07868 0 125 -2.07868 1
gene 1 32 37 -2.10633 0 126 -2.10633 1
gene 1 32 38 1.17794 0 127 1.17794 1
gene 1 32 39 0.165427 0 128 0.165427 1
gene 1 33 36 -0.239851 0 129 -0.239851 1
gene 1 33 37 0.453956 0 130 0.453956 1
gene 1 33 38 -0.0430843 0 131 -0.0430843 1
gene 1 33 39 0.290418 0 132 0.290418 1
gene 1 34 36 0.68645 0 133 0.68645 1
gene 1 34 37 -0.48392 0 134 -0.48392 1
gene 1 34 38 0.405866 0 135 0.405866 1
gene 1 34 39 0.995481 0 136 0.995481 1
gene 1 35 36 -0.422814 0 137 -0.422814 1
gene 1 35 37 1.25497 0 138 1.25497 1
gene 1 35 38 -0.263419 0 139 -0.263419 1
gene 1 35 39 -0.832294 0 140 -0.832294 1
genomeend 6


