/* Organism #0 Fitness: 17822.078000 Time: 0 */
genomestart 0
trait 1 0.000000 0.000000 0.000000 0.000000 0.475029 0.499137 0.392688 0.084274 
node 1 1 1 1
node 2 1 1 1
node 3 1 1 1
node 4 1 1 1
node 5 1 1 1
node 6 1 1 1
node 7 1 1 1
node 8 1 1 1
node 9 1 1 1
node 10 1 1 1
node 11 1 1 1
node 12 1 1 1
node 13 1 1 1
node 14 1 1 1
node 15 1 1 1
node 16 1 1 1
node 17 1 1 1
node 18 1 1 1
node 19 1 1 1
node 20 1 1 1
node 21 1 1 1
node 22 1 1 1
node 23 1 1 1
node 24 1 1 1
node 25 1 1 1
node 26 1 1 1
node 27 1 1 1
node 28 1 1 1
node 29 1 1 1
node 30 1 1 1
node 31 1 1 1
node 32 1 1 1
node 33 1 1 1
node 34 1 1 1
node 35 1 1 3
node 36 1 0 2
node 37 1 0 2
node 38 1 0 2
node 39 1 0 2
gene 1 1 36 0.996166 0 1 0.996166 1
gene 1 1 37 -0.367963 0 2 -0.367963 1
gene 1 1 38 2.87687 0 3 2.87687 1
gene 1 1 39 -2.04053 0 4 -2.04053 1
gene 1 2 36 -1.12232 0 5 -1.12232 1
gene 1 2 37 3.53276 0 6 3.53276 1
gene 1 2 38 2.95858 0 7 2.95858 1
gene 1 2 39 2.69071 0 8 2.69071 1
gene 1 3 36 -1.43195 0 9 -1.43195 1
gene 1 3 37 -0.321104 0 10 -0.321104 1
gene 1 3 38 1.5004 0 11 1.5004 1
gene 1 3 39 2.33768 0 12 2.33768 1
gene 1 4 36 -1.24856 0 13 -1.24856 1
gene 1 4 37 3.72412 0 14 3.72412 1
gene 1 4 38 -1.02633 0 15 -1.02633 1
gene 1 4 39 -1.93468 0 16 -1.93468 1
gene 1 5 36 -0.769996 0 17 -0.769996 1
gene 1 5 37 4.50325 0 18 4.50325 1
gene 1 5 38 -1.52166 0 19 -1.52166 1
gene 1 5 39 0.890821 0 20 0.890821 1
gene 1 6 36 4.43459 0 21 4.43459 1
gene 1 6 37 -0.294865 0 22 -0.294865 1
gene 1 6 38 0.623929 0 23 0.623929 1
gene 1 6 39 -2.05516 0 24 -2.05516 1
gene 1 7 36 -1.04982 0 25 -1.04982 1
gene 1 7 37 -0.543848 0 26 -0.543848 1
gene 1 7 38 0.348358 0 27 0.348358 1
gene 1 7 39 -0.151979 0 28 -0.151979 1
gene 1 8 36 -0.686503 0 29 -0.686503 1
gene 1 8 37 0.631669 0 30 0.631669 1
gene 1 8 38 -4.3019 0 31 -4.3019 1
gene 1 8 39 -2.31357 0 32 -2.31357 1
gene 1 9 36 -0.151052 0 33 -0.151052 1
gene 1 9 37 4.10635 0 34 4.10635 1
gene 1 9 38 5 0 35 5 1
gene 1 9 39 2.68601 0 36 2.68601 1
gene 1 10 36 5 0 37 5 1
gene 1 10 37 2.69645 0 38 2.69645 1
gene 1 10 38 4.2045 0 39 4.2045 1
gene 1 10 39 -0.744314 0 40 -0.744314 1
gene 1 11 36 3.72475 0 41 3.72475 1
gene 1 11 37 -2.55137 0 42 -2.55137 1
gene 1 11 38 1.0559 0 43 1.0559 1
gene 1 11 39 -5 0 44 -5 1
gene 1 12 36 3.5988 0 45 3.5988 1
gene 1 12 37 -5 0 46 -5 1
gene 1 12 38 -3.56395 0 47 -3.56395 1
gene 1 12 39 -1.09505 0 48 -1.09505 1
gene 1 13 36 0.268558 0 49 0.268558 1
gene 1 13 37 2.88502 0 50 2.88502 1
gene 1 13 38 -1.47446 0 51 -1.47446 1
gene 1 13 39 -1.16873 0 52 -1.16873 1
gene 1 14 36 -4.84295 0 53 -4.84295 1
gene 1 14 37 3.24756 0 54 3.24756 1
gene 1 14 38 -1.75288 0 55 -1.75288 1
gene 1 14 39 -0.237609 0 56 -0.237609 1
gene 1 15 36 -1.07987 0 57 -1.07987 1
gene 1 15 37 -3.05438 0 58 -3.05438 1
gene 1 15 38 5 0 59 5 1
gene 1 15 39 -1.62334 0 60 -1.62334 1
gene 1 16 36 -1.14753 0 61 -1.14753 1
gene 1 16 37 3.1157 0 62 3.1157 1
gene 1 16 38 -0.0495872 0 63 -0.0495872 1
gene 1 16 39 4.55398 0 64 4.55398 1
gene 1 17 36 -2.78569 0 65 -2.78569 1
gene 1 17 37 2.57641 0 66 2.57641 1
gene 1 17 38 -4.23372 0 67 -4.23372 1
gene 1 17 39 -5 0 68 -5 1
gene 1 18 36 -0.376042 0 69 -0.376042 1
gene 1 18 37 -0.481017 0 70 -0.481017 1
gene 1 18 38 0.167037 0 71 0.167037 1
gene 1 18 39 2.32205 0 72 2.32205 1
gene 1 19 36 -1.18958 0 73 -1.18958 1
gene 1 19 37 -5 0 74 -5 1
gene 1 19 38 -2.69072 0 75 -2.69072 1
gene 1 19 39 -3.97498 0 76 -3.97498 1
gene 1 20 36 2.44274 0 77 2.44274 1
gene 1 20 37 -2.76846 0 78 -2.76846 1
gene 1 20 38 -0.967787 0 79 -0.967787 1
gene 1 20 39 1.73437 0 80 1.73437 1
gene 1 21 36 3.4809 0 81 3.4809 1
gene 1 21 37 1.19815 0 82 1.19815 1
gene 1 21 38 -0.464863 0 83 -0.464863 1
gene 1 21 39 -0.671126 0 84 -0.671126 1
gene 1 22 36 2.44795 0 85 2.44795 1
gene 1 22 37 -0.435655 0 86 -0.435655 1
gene 1 22 38 -0.575888 0 87 -0.575888 1
gene 1 22 39 -1.42828 0 88 -1.42828 1
gene 1 23 36 -0.847254 0 89 -0.847254 1
gene 1 23 37 -2.57954 0 90 -2.57954 1
gene 1 23 38 0.86293 0 91 0.86293 1
gene 1 23 39 -2.46465 0 92 -2.46465 1
gene 1 24 36 -1.08973 0 93 -1.08973 1
gene 1 24 37 2.21816 0 94 2.21816 1
gene 1 24 38 2.42976 0 95 2.42976 1
gene 1 24 39 0.023498 0 96 0.023498 1
gene 1 25 36 4.00671 0 97 4.00671 1
gene 1 25 37 5 0 98 5 1
gene 1 25 38 -5 0 99 -5 1
gene 1 25 39 -4.57257 0 100 -4.57257 1
gene 1 26 36 1.03122 0 101 1.03122 1
gene 1 26 37 3.67231 0 102 3.67231 1
gene 1 26 38 -0.922127 0 103 -0.922127 1
gene 1 26 39 0.0662126 0 104 0.0662126 1
gene 1 27 36 1.06857 0 105 1.06857 1
gene 1 27 37 -0.285423 0 106 -0.285423 1
gene 1 27 38 1.32324 0 107 1.32324 1
gene 1 27 39 -2.82193 0 108 -2.82193 1
gene 1 28 36 -5 0 109 -5 1
gene 1 28 37 -4.49472 0 110 -4.49472 1
gene 1 28 38 0.835387 0 111 0.835387 1
gene 1 28 39 0.650953 0 112 0.650953 1
gene 1 29 36 -2.60421 0 113 -2.60421 1
gene 1 29 37 0.182514 0 114 0.182514 1
gene 1 29 38 0.16997 0 115 0.16997 1
gene 1 29 39 -2.31929 0 116 -2.31929 1
gene 1 30 36 -4.85556 0 117 -4.85556 1
gene 1 30 37 -1.38018 0 118 -1.38018 1
gene 1 30 38 -0.733093 0 119 -0.733093 1
gene 1 30 39 3.82813 0 120 3.82813 1
gene 1 31 36 -0.10806 0 121 -0.10806 1
gene 1 31 37 0.316784 0 122 0.316784 1
gene 1 31 38 -0.0275955 0 123 -0.0275955 1
gene 1 31 39 -0.204289 0 124 -0.204289 1
gene 1 32 36 0.762049 0 125 0.762049 1
gene 1 32 37 -1.24134 0 126 -1.24134 1
gene 1 32 38 -0.571625 0 127 -0.571625 1
gene 1 32 39 -0.114024 0 128 -0.114024 1
gene 1 33 36 -1.07877 0 129 -1.07877 1
gene 1 33 37 -0.343027 0 130 -0.343027 1
gene 1 33 38 0.767118 0 131 0.767118 1
gene 1 33 39 -0.0247811 0 132 -0.0247811 1
gene 1 34 36 -1.50992 0 133 -1.50992 1
gene 1 34 37 0.0111837 0 134 0.0111837 1
gene 1 34 38 -2.61309 0 135 -2.61309 1
gene 1 34 39 -0.723781 0 136 -0.723781 1
gene 1 35 36 -1.3964 0 137 -1.3964 1
gene 1 35 37 0.768094 0 138 0.768094 1
gene 1 35 38 -0.617665 0 139 -0.617665 1
gene 1 35 39 -2.39489 0 140 -2.39489 1
genomeend 0


