/* Organism #3 Fitness: 17526.648000 Time: 0 */
genomestart 3
trait 1 0.000000 0.000000 0.000000 0.000000 0.399192 0.326724 0.356011 0.000000 
node 1 1 1 1
node 2 1 1 1
node 3 1 1 1
node 4 1 1 1
node 5 1 1 1
node 6 1 1 1
node 7 1 1 1
node 8 1 1 1
node 9 1 1 1
node 10 1 1 1
node 11 1 1 1
node 12 1 1 1
node 13 1 1 1
node 14 1 1 1
node 15 1 1 1
node 16 1 1 1
node 17 1 1 1
node 18 1 1 1
node 19 1 1 1
node 20 1 1 1
node 21 1 1 1
node 22 1 1 1
node 23 1 1 1
node 24 1 1 1
node 25 1 1 1
node 26 1 1 1
node 27 1 1 1
node 28 1 1 1
node 29 1 1 1
node 30 1 1 1
node 31 1 1 1
node 32 1 1 1
node 33 1 1 1
node 34 1 1 1
node 35 1 1 3
node 36 1 0 2
node 37 1 0 2
node 38 1 0 2
node 39 1 0 2
gene 1 1 36 -3.39355 0 1 -3.39355 1
gene 1 1 37 -0.0124886 0 2 -0.0124886 1
gene 1 1 38 -0.514748 0 3 -0.514748 1
gene 1 1 39 -4.28111 0 4 -4.28111 1
gene 1 2 36 1.32251 0 5 1.32251 1
gene 1 2 37 2.05738 0 6 2.05738 1
gene 1 2 38 2.58394 0 7 2.58394 1
gene 1 2 39 2.54515 0 8 2.54515 1
gene 1 3 36 -0.766134 0 9 -0.766134 1
gene 1 3 37 -0.697146 0 10 -0.697146 1
gene 1 3 38 0.821353 0 11 0.821353 1
gene 1 3 39 -1.33436 0 12 -1.33436 1
gene 1 4 36 0.944572 0 13 0.944572 1
gene 1 4 37 5 0 14 5 1
gene 1 4 38 -0.572009 0 15 -0.572009 1
gene 1 4 39 -2.19653 0 16 -2.19653 1
gene 1 5 36 3.79072 0 17 3.79072 1
gene 1 5 37 -4.35883 0 18 -4.35883 1
gene 1 5 38 -0.0782457 0 19 -0.0782457 1
gene 1 5 39 -0.825072 0 20 -0.825072 1
gene 1 6 36 0.446256 0 21 0.446256 1
gene 1 6 37 0.0667874 0 22 0.0667874 1
gene 1 6 38 -4.90155 0 23 -4.90155 1
gene 1 6 39 4.42464 0 24 4.42464 1
gene 1 7 36 -0.361122 0 25 -0.361122 1
gene 1 7 37 -2.64878 0 26 -2.64878 1
gene 1 7 38 1.87205 0 27 1.87205 1
gene 1 7 39 -0.153611 0 28 -0.153611 1
gene 1 8 36 -0.8511 0 29 -0.8511 1
gene 1 8 37 -1.48388 0 30 -1.48388 1
gene 1 8 38 1.93329 0 31 1.93329 1
gene 1 8 39 -0.970902 0 32 -0.970902 1
gene 1 9 36 -1.46919 0 33 -1.46919 1
gene 1 9 37 4.37094 0 34 4.37094 1
gene 1 9 38 -1.16696 0 35 -1.16696 1
gene 1 9 39 -0.519085 0 36 -0.519085 1
gene 1 10 36 -1.71221 0 37 -1.71221 1
gene 1 10 37 1.44267 0 38 1.44267 1
gene 1 10 38 -2.65375 0 39 -2.65375 1
gene 1 10 39 -5 0 40 -5 1
gene 1 11 36 -3.43978 0 41 -3.43978 1
gene 1 11 37 2.06438 0 42 2.06438 1
gene 1 11 38 -4.68623 0 43 -4.68623 1
gene 1 11 39 -5 0 44 -5 1
gene 1 12 36 -0.694908 0 45 -0.694908 1
gene 1 12 37 1.82647 0 46 1.82647 1
gene 1 12 38 2.86613 0 47 2.86613 1
gene 1 12 39 -0.904754 0 48 -0.904754 1
gene 1 13 36 -1.03141 0 49 -1.03141 1
gene 1 13 37 -2.04726 0 50 -2.04726 1
gene 1 13 38 4.61507 0 51 4.61507 1
gene 1 13 39 -0.933556 0 52 -0.933556 1
gene 1 14 36 5 0 53 5 1
gene 1 14 37 -2.03469 0 54 -2.03469 1
gene 1 14 38 1.17052 0 55 1.17052 1
gene 1 14 39 -0.793071 0 56 -0.793071 1
gene 1 15 36 3.14055 0 57 3.14055 1
gene 1 15 37 -4.57507 0 58 -4.57507 1
gene 1 15 38 1.30715 0 59 1.30715 1
gene 1 15 39 0.757156 0 60 0.757156 1
gene 1 16 36 2.69255 0 61 2.69255 1
gene 1 16 37 -2.40025 0 62 -2.40025 1
gene 1 16 38 -1.91272 0 63 -1.91272 1
gene 1 16 39 -3.49591 0 64 -3.49591 1
gene 1 17 36 -0.386951 0 65 -0.386951 1
gene 1 17 37 -0.243924 0 66 -0.243924 1
gene 1 17 38 -1.89056 0 67 -1.89056 1
gene 1 17 39 0.417606 0 68 0.417606 1
gene 1 18 36 -2.90864 0 69 -2.90864 1
gene 1 18 37 3.33728 0 70 3.33728 1
gene 1 18 38 -3.54423 0 71 -3.54423 1
gene 1 18 39 0.124476 0 72 0.124476 1
gene 1 19 36 0.290239 0 73 0.290239 1
gene 1 19 37 -1.49288 0 74 -1.49288 1
gene 1 19 38 0.921462 0 75 0.921462 1
gene 1 19 39 -0.961861 0 76 -0.961861 1
gene 1 20 36 1.09209 0 77 1.09209 1
gene 1 20 37 0.359135 0 78 0.359135 1
gene 1 20 38 -4.89051 0 79 -4.89051 1
gene 1 20 39 -0.671297 0 80 -0.671297 1
gene 1 21 36 -2.58157 0 81 -2.58157 1
gene 1 21 37 0.86076 0 82 0.86076 1
gene 1 21 38 1.56031 0 83 1.56031 1
gene 1 21 39 -4.73303 0 84 -4.73303 1
gene 1 22 36 1.45688 0 85 1.45688 1
gene 1 22 37 0.219111 0 86 0.219111 1
gene 1 22 38 -0.705745 0 87 -0.705745 1
gene 1 22 39 4.00075 0 88 4.00075 1
gene 1 23 36 -1.3303 0 89 -1.3303 1
gene 1 23 37 -1.09032 0 90 -1.09032 1
gene 1 23 38 1.70227 0 91 1.70227 1
gene 1 23 39 4.01546 0 92 4.01546 1
gene 1 24 36 -0.0807024 0 93 -0.0807024 1
gene 1 24 37 2.00779 0 94 2.00779 1
gene 1 24 38 1.73779 0 95 1.73779 1
gene 1 24 39 -0.140299 0 96 -0.140299 1
gene 1 25 36 -5 0 97 -5 1
gene 1 25 37 -4.37993 0 98 -4.37993 1
gene 1 25 38 -1.56679 0 99 -1.56679 1
gene 1 25 39 3.59041 0 100 3.59041 1
gene 1 26 36 -4.73288 0 101 -4.73288 1
gene 1 26 37 -4.443 0 102 -4.443 1
gene 1 26 38 -0.327946 0 103 -0.327946 1
gene 1 26 39 2.75446 0 104 2.75446 1
gene 1 27 36 -0.407692 0 105 -0.407692 1
gene 1 27 37 -0.449655 0 106 -0.449655 1
gene 1 27 38 -0.000520529 0 107 -0.000520529 1
gene 1 27 39 -1.03579 0 108 -1.03579 1
gene 1 28 36 2.1713 0 109 2.1713 1
gene 1 28 37 -3.82583 0 110 -3.82583 1
gene 1 28 38 3.81557 0 111 3.81557 1
gene 1 28 39 4.28869 0 112 4.28869 1
gene 1 29 36 -0.804387 0 113 -0.804387 1
gene 1 29 37 0.494821 0 114 0.494821 1
gene 1 29 38 0.200095 0 115 0.200095 1
gene 1 29 39 0.0357477 0 116 0.0357477 1
gene 1 30 36 0.890376 0 117 0.890376 1
gene 1 30 37 0.0891244 0 118 0.0891244 1
gene 1 30 38 0.575468 0 119 0.575468 1
gene 1 30 39 -0.0513706 0 120 -0.0513706 1
gene 1 31 36 1.48694 0 121 1.48694 1
gene 1 31 37 -0.811243 0 122 -0.811243 1
gene 1 31 38 2.19327 0 123 2.19327 1
gene 1 31 39 -0.338676 0 124 -0.338676 1
gene 1 32 36 0.791303 0 125 0.791303 1
gene 1 32 37 1.89971 0 126 1.89971 1
gene 1 32 38 2.13028 0 127 2.13028 1
gene 1 32 39 0.892848 0 128 0.892848 1
gene 1 33 36 0.603331 0 129 0.603331 1
gene 1 33 37 0.76694 0 130 0.76694 1
gene 1 33 38 2.18024 0 131 2.18024 1
gene 1 33 39 0.650815 0 132 0.650815 1
gene 1 34 36 0.129134 0 133 0.129134 1
gene 1 34 37 0.112046 0 134 0.112046 1
gene 1 34 38 -0.110699 0 135 -0.110699 1
gene 1 34 39 -0.0653582 0 136 -0.0653582 1
gene 1 35 36 0.582969 0 137 0.582969 1
gene 1 35 37 0.618094 0 138 0.618094 1
gene 1 35 38 -1.42071 0 139 -1.42071 1
gene 1 35 39 0.566811 0 140 0.566811 1
genomeend 3


