/* Organism #75 Fitness: 15092.500000 Time: 0 */
genomestart 75
trait 1 0.316522 0.000000 0.000000 0.000000 0.912040 0.000000 0.000000 0.000000 
node 1 1 1 1
node 2 1 1 1
node 3 1 1 1
node 4 1 1 1
node 5 1 1 1
node 6 1 1 1
node 7 1 1 1
node 8 1 1 1
node 9 1 1 1
node 10 1 1 1
node 11 1 1 1
node 12 1 1 1
node 13 1 1 1
node 14 1 1 1
node 15 1 1 1
node 16 1 1 1
node 17 1 1 1
node 18 1 1 1
node 19 1 1 1
node 20 1 1 1
node 21 1 1 1
node 22 1 1 1
node 23 1 1 1
node 24 1 1 1
node 25 1 1 1
node 26 1 1 1
node 27 1 1 1
node 28 1 1 1
node 29 1 1 1
node 30 1 1 3
node 31 1 0 2
node 32 1 0 2
node 33 1 0 2
gene 1 1 31 -4.78309 0 1 -4.78309 1
gene 1 1 32 -5 0 2 -5 1
gene 1 1 33 -0.94322 0 3 -0.94322 1
gene 1 2 31 -5 0 4 -5 1
gene 1 2 32 4.36896 0 5 4.36896 1
gene 1 2 33 0.592906 0 6 0.592906 1
gene 1 3 31 -4.804 0 7 -4.804 1
gene 1 3 32 2.84342 0 8 2.84342 1
gene 1 3 33 2.37981 0 9 2.37981 1
gene 1 4 31 -2.81877 0 10 -2.81877 1
gene 1 4 32 1.34768 0 11 1.34768 1
gene 1 4 33 -2.4823 0 12 -2.4823 1
gene 1 5 31 -0.773706 0 13 -0.773706 1
gene 1 5 32 0.236931 0 14 0.236931 1
gene 1 5 33 -2.08593 0 15 -2.08593 1
gene 1 6 31 0.948428 0 16 0.948428 1
gene 1 6 32 0.70657 0 17 0.70657 1
gene 1 6 33 -2.45688 0 18 -2.45688 1
gene 1 7 31 3.4181 0 19 3.4181 1
gene 1 7 32 -1.40807 0 20 -1.40807 1
gene 1 7 33 0.805012 0 21 0.805012 1
gene 1 8 31 2.94632 0 22 2.94632 1
gene 1 8 32 1.00438 0 23 1.00438 1
gene 1 8 33 -0.934637 0 24 -0.934637 1
gene 1 9 31 -1.12444 0 25 -1.12444 1
gene 1 9 32 -2.09964 0 26 -2.09964 1
gene 1 9 33 0.0099441 0 27 0.0099441 1
gene 1 10 31 -2.09838 0 28 -2.09838 1
gene 1 10 32 -0.533689 0 29 -0.533689 1
gene 1 10 33 -0.687281 0 30 -0.687281 1
gene 1 11 31 3.48202 0 31 3.48202 1
gene 1 11 32 -0.788969 0 32 -0.788969 1
gene 1 11 33 3.10913 0 33 3.10913 1
gene 1 12 31 -2.06922 0 34 -2.06922 1
gene 1 12 32 0.648423 0 35 0.648423 1
gene 1 12 33 -1.31342 0 36 -1.31342 1
gene 1 13 31 1.45826 0 37 1.45826 1
gene 1 13 32 0.0803246 0 38 0.0803246 1
gene 1 13 33 -4.05275 0 39 -4.05275 1
gene 1 14 31 1.51898 0 40 1.51898 1
gene 1 14 32 -0.478355 0 41 -0.478355 1
gene 1 14 33 0.375609 0 42 0.375609 1
gene 1 15 31 -2.37636 0 43 -2.37636 1
gene 1 15 32 -0.66442 0 44 -0.66442 1
gene 1 15 33 2.00717 0 45 2.00717 1
gene 1 16 31 -1.58835 0 46 -1.58835 1
gene 1 16 32 -0.0772232 0 47 -0.0772232 1
gene 1 16 33 -0.207883 0 48 -0.207883 1
gene 1 17 31 -0.797654 0 49 -0.797654 1
gene 1 17 32 -2.01335 0 50 -2.01335 1
gene 1 17 33 -1.17324 0 51 -1.17324 1
gene 1 18 31 -1.92329 0 52 -1.92329 1
gene 1 18 32 -4.53828 0 53 -4.53828 1
gene 1 18 33 -0.775605 0 54 -0.775605 1
gene 1 19 31 -0.0547503 0 55 -0.0547503 1
gene 1 19 32 -3.94241 0 56 -3.94241 1
gene 1 19 33 -0.409432 0 57 -0.409432 1
gene 1 20 31 -0.742957 0 58 -0.742957 1
gene 1 20 32 -1.08129 0 59 -1.08129 1
gene 1 20 33 0.20522 0 60 0.20522 1
gene 1 21 31 2.1066 0 61 2.1066 1
gene 1 21 32 0.833754 0 62 0.833754 1
gene 1 21 33 -0.040621 0 63 -0.040621 1
gene 1 22 31 0.795041 0 64 0.795041 1
gene 1 22 32 0.352557 0 65 0.352557 1
gene 1 22 33 2.27085 0 66 2.27085 1
gene 1 23 31 -1.16639 0 67 -1.16639 1
gene 1 23 32 -2.30479 0 68 -2.30479 1
gene 1 23 33 -2.4157 0 69 -2.4157 1
gene 1 24 31 -0.794743 0 70 -0.794743 1
gene 1 24 32 2.48022 0 71 2.48022 1
gene 1 24 33 -2.58464 0 72 -2.58464 1
gene 1 25 31 0.536355 0 73 0.536355 1
gene 1 25 32 0.752403 0 74 0.752403 1
gene 1 25 33 0.767964 0 75 0.767964 1
gene 1 26 31 1.74554 0 76 1.74554 1
gene 1 26 32 -2.65484 0 77 -2.65484 1
gene 1 26 33 -2.63532 0 78 -2.63532 1
gene 1 27 31 -1.6525 0 79 -1.6525 1
gene 1 27 32 2.22704 0 80 2.22704 1
gene 1 27 33 -0.0319434 0 81 -0.0319434 1
gene 1 28 31 -0.142703 0 82 -0.142703 1
gene 1 28 32 -2.00629 0 83 -2.00629 1
gene 1 28 33 2.00234 0 84 2.00234 1
gene 1 29 31 0.353231 0 85 0.353231 1
gene 1 29 32 1.12154 0 86 1.12154 1
gene 1 29 33 0.222332 0 87 0.222332 1
gene 1 30 31 -5 0 88 -5 1
gene 1 30 32 1.68203 0 89 1.68203 1
gene 1 30 33 0.22195 0 90 0.22195 1
genomeend 75


