/* Organism #55 Fitness: 9899.000000 Time: 0 */
genomestart 55
trait 1 0.018803 0.453453 0.000000 0.000000 0.968122 0.000000 0.838116 0.314676 
node 1 1 1 1
node 2 1 1 1
node 3 1 1 1
node 4 1 1 1
node 5 1 1 1
node 6 1 1 1
node 7 1 1 1
node 8 1 1 1
node 9 1 1 1
node 10 1 1 1
node 11 1 1 1
node 12 1 1 1
node 13 1 1 1
node 14 1 1 1
node 15 1 1 1
node 16 1 1 1
node 17 1 1 1
node 18 1 1 1
node 19 1 1 1
node 20 1 1 1
node 21 1 1 1
node 22 1 1 1
node 23 1 1 1
node 24 1 1 1
node 25 1 1 1
node 26 1 1 1
node 27 1 1 1
node 28 1 1 1
node 29 1 1 1
node 30 1 1 3
node 31 1 0 2
node 32 1 0 2
node 33 1 0 2
gene 1 1 31 -0.356853 0 1 -0.356853 1
gene 1 1 32 -2.62644 0 2 -2.62644 1
gene 1 1 33 -0.363217 0 3 -0.363217 1
gene 1 2 31 -1.80361 0 4 -1.80361 1
gene 1 2 32 -0.758855 0 5 -0.758855 1
gene 1 2 33 0.0459121 0 6 0.0459121 1
gene 1 3 31 3.25497 0 7 3.25497 1
gene 1 3 32 0.656319 0 8 0.656319 1
gene 1 3 33 0.937184 0 9 0.937184 1
gene 1 4 31 -5 0 10 -5 1
gene 1 4 32 -0.335009 0 11 -0.335009 1
gene 1 4 33 -2.99067 0 12 -2.99067 1
gene 1 5 31 -2.7803 0 13 -2.7803 1
gene 1 5 32 0.828949 0 14 0.828949 1
gene 1 5 33 -4.19371 0 15 -4.19371 1
gene 1 6 31 2.70756 0 16 2.70756 1
gene 1 6 32 -3.12231 0 17 -3.12231 1
gene 1 6 33 -4.72125 0 18 -4.72125 1
gene 1 7 31 3.53712 0 19 3.53712 1
gene 1 7 32 2.14827 0 20 2.14827 1
gene 1 7 33 1.46984 0 21 1.46984 1
gene 1 8 31 0.784265 0 22 0.784265 1
gene 1 8 32 4.2138 0 23 4.2138 1
gene 1 8 33 -4.41579 0 24 -4.41579 1
gene 1 9 31 -1.54014 0 25 -1.54014 1
gene 1 9 32 4.45639 0 26 4.45639 1
gene 1 9 33 0.789711 0 27 0.789711 1
gene 1 10 31 -0.849447 0 28 -0.849447 1
gene 1 10 32 -0.938944 0 29 -0.938944 1
gene 1 10 33 -0.836384 0 30 -0.836384 1
gene 1 11 31 0.370188 0 31 0.370188 1
gene 1 11 32 -1.50206 0 32 -1.50206 1
gene 1 11 33 4.13698 0 33 4.13698 1
gene 1 12 31 -0.113324 0 34 -0.113324 1
gene 1 12 32 -0.765955 0 35 -0.765955 1
gene 1 12 33 2.68496 0 36 2.68496 1
gene 1 13 31 0.881418 0 37 0.881418 1
gene 1 13 32 -3.62428 0 38 -3.62428 1
gene 1 13 33 -0.141578 0 39 -0.141578 1
gene 1 14 31 -1.07448 0 40 -1.07448 1
gene 1 14 32 -2.82073 0 41 -2.82073 1
gene 1 14 33 1.23247 0 42 1.23247 1
gene 1 15 31 3.02514 0 43 3.02514 1
gene 1 15 32 -5 0 44 -5 1
gene 1 15 33 -1.36481 0 45 -1.36481 1
gene 1 16 31 -0.0431184 0 46 -0.0431184 1
gene 1 16 32 2.30241 0 47 2.30241 1
gene 1 16 33 2.68857 0 48 2.68857 1
gene 1 17 31 -3.04209 0 49 -3.04209 1
gene 1 17 32 2.41004 0 50 2.41004 1
gene 1 17 33 0.103647 0 51 0.103647 1
gene 1 18 31 0.245721 0 52 0.245721 1
gene 1 18 32 -1.52415 0 53 -1.52415 1
gene 1 18 33 3.84916 0 54 3.84916 1
gene 1 19 31 0.881914 0 55 0.881914 1
gene 1 19 32 2.0097 0 56 2.0097 1
gene 1 19 33 -1.85095 0 57 -1.85095 1
gene 1 20 31 0.670467 0 58 0.670467 1
gene 1 20 32 -0.502378 0 59 -0.502378 1
gene 1 20 33 -5 0 60 -5 1
gene 1 21 31 -2.68795 0 61 -2.68795 1
gene 1 21 32 -0.424598 0 62 -0.424598 1
gene 1 21 33 -1.29045 0 63 -1.29045 1
gene 1 22 31 -1.01612 0 64 -1.01612 1
gene 1 22 32 -2.92491 0 65 -2.92491 1
gene 1 22 33 5 0 66 5 1
gene 1 23 31 1.95575 0 67 1.95575 1
gene 1 23 32 0.194594 0 68 0.194594 1
gene 1 23 33 -2.57702 0 69 -2.57702 1
gene 1 24 31 -0.292373 0 70 -0.292373 1
gene 1 24 32 0.899033 0 71 0.899033 1
gene 1 24 33 -0.685934 0 72 -0.685934 1
gene 1 25 31 -1.31772 0 73 -1.31772 1
gene 1 25 32 1.69559 0 74 1.69559 1
gene 1 25 33 1.65975 0 75 1.65975 1
gene 1 26 31 0.735 0 76 0.735 1
gene 1 26 32 -0.103659 0 77 -0.103659 1
gene 1 26 33 0.815572 0 78 0.815572 1
gene 1 27 31 0.422304 0 79 0.422304 1
gene 1 27 32 -0.809583 0 80 -0.809583 1
gene 1 27 33 -0.378451 0 81 -0.378451 1
gene 1 28 31 0.211121 0 82 0.211121 1
gene 1 28 32 0.978685 0 83 0.978685 1
gene 1 28 33 -0.448236 0 84 -0.448236 1
gene 1 29 31 -0.187574 0 85 -0.187574 1
gene 1 29 32 -0.515395 0 86 -0.515395 1
gene 1 29 33 -0.500985 0 87 -0.500985 1
gene 1 30 31 4.09749 0 88 4.09749 1
gene 1 30 32 0.196579 0 89 0.196579 1
gene 1 30 33 0.563725 0 90 0.563725 1
genomeend 55


