/* Organism #74 Fitness: 7062.770000 Time: 0 */
genomestart 74
trait 1 0.000000 1.000000 0.000000 0.692932 0.000000 1.000000 0.000000 0.862963 
node 1 1 1 1
node 2 1 1 1
node 3 1 1 1
node 4 1 1 1
node 5 1 1 1
node 6 1 1 1
node 7 1 1 1
node 8 1 1 1
node 9 1 1 1
node 10 1 1 1
node 11 1 1 1
node 12 1 1 1
node 13 1 1 1
node 14 1 1 1
node 15 1 1 1
node 16 1 1 1
node 17 1 1 1
node 18 1 1 1
node 19 1 1 1
node 20 1 1 1
node 21 1 1 1
node 22 1 1 1
node 23 1 1 1
node 24 1 1 1
node 25 1 1 1
node 26 1 1 1
node 27 1 1 1
node 28 1 1 1
node 29 1 1 1
node 30 1 1 1
node 31 1 1 1
node 32 1 1 1
node 33 1 1 1
node 34 1 1 1
node 35 1 1 3
node 36 1 0 2
node 37 1 0 2
node 38 1 0 2
node 39 1 0 2
gene 1 1 36 -5 0 1 -5 1
gene 1 1 37 1.00935 0 2 1.00935 1
gene 1 1 38 3.16807 0 3 3.16807 1
gene 1 1 39 3.46895 0 4 3.46895 1
gene 1 2 36 -4.00473 0 5 -4.00473 1
gene 1 2 37 -0.651474 0 6 -0.651474 1
gene 1 2 38 -0.00979184 0 7 -0.00979184 1
gene 1 2 39 2.35447 0 8 2.35447 1
gene 1 3 36 -1.63122 0 9 -1.63122 1
gene 1 3 37 -1.83258 0 10 -1.83258 1
gene 1 3 38 4.26441 0 11 4.26441 1
gene 1 3 39 0.97824 0 12 0.97824 1
gene 1 4 36 0.626076 0 13 0.626076 1
gene 1 4 37 -2.78559 0 14 -2.78559 1
gene 1 4 38 2.6027 0 15 2.6027 1
gene 1 4 39 4.84371 0 16 4.84371 1
gene 1 5 36 3.0482 0 17 3.0482 1
gene 1 5 37 -2.10351 0 18 -2.10351 1
gene 1 5 38 -0.223193 0 19 -0.223193 1
gene 1 5 39 3.0987 0 20 3.0987 1
gene 1 6 36 2.40546 0 21 2.40546 1
gene 1 6 37 2.33797 0 22 2.33797 1
gene 1 6 38 -1.28254 0 23 -1.28254 1
gene 1 6 39 -0.180274 0 24 -0.180274 1
gene 1 7 36 3.09156 0 25 3.09156 1
gene 1 7 37 -4.70019 0 26 -4.70019 1
gene 1 7 38 0.0228325 0 27 0.0228325 1
gene 1 7 39 -1.6901 0 28 -1.6901 1
gene 1 8 36 3.43685 0 29 3.43685 1
gene 1 8 37 -4.66774 0 30 -4.66774 1
gene 1 8 38 -1.61894 0 31 -1.61894 1
gene 1 8 39 0.596398 0 32 0.596398 1
gene 1 9 36 2.50277 0 33 2.50277 1
gene 1 9 37 0.0796402 0 34 0.0796402 1
gene 1 9 38 -3.99821 0 35 -3.99821 1
gene 1 9 39 -1.5914 0 36 -1.5914 1
gene 1 10 36 -2.35561 0 37 -2.35561 1
gene 1 10 37 2.38064 0 38 2.38064 1
gene 1 10 38 0.879726 0 39 0.879726 1
gene 1 10 39 -2.71142 0 40 -2.71142 1
gene 1 11 36 0.347515 0 41 0.347515 1
gene 1 11 37 -3.55267 0 42 -3.55267 1
gene 1 11 38 0.172997 0 43 0.172997 1
gene 1 11 39 3.79729 0 44 3.79729 1
gene 1 12 36 -1.67614 0 45 -1.67614 1
gene 1 12 37 -3.99582 0 46 -3.99582 1
gene 1 12 38 0.644736 0 47 0.644736 1
gene 1 12 39 -3.82015 0 48 -3.82015 1
gene 1 13 36 0.595818 0 49 0.595818 1
gene 1 13 37 -0.592416 0 50 -0.592416 1
gene 1 13 38 -1.86913 0 51 -1.86913 1
gene 1 13 39 -2.56691 0 52 -2.56691 1
gene 1 14 36 -0.614908 0 53 -0.614908 1
gene 1 14 37 0.0238637 0 54 0.0238637 1
gene 1 14 38 -3.48591 0 55 -3.48591 1
gene 1 14 39 -1.09279 0 56 -1.09279 1
gene 1 15 36 -1.37125 0 57 -1.37125 1
gene 1 15 37 -0.856679 0 58 -0.856679 1
gene 1 15 38 2.78227 0 59 2.78227 1
gene 1 15 39 -3.49068 0 60 -3.49068 1
gene 1 16 36 -0.162689 0 61 -0.162689 1
gene 1 16 37 2.15039 0 62 2.15039 1
gene 1 16 38 -0.0945442 0 63 -0.0945442 1
gene 1 16 39 -0.0355743 0 64 -0.0355743 1
gene 1 17 36 -5 0 65 -5 1
gene 1 17 37 1.85109 0 66 1.85109 1
gene 1 17 38 1.64306 0 67 1.64306 1
gene 1 17 39 -1.80042 0 68 -1.80042 1
gene 1 18 36 -5 0 69 -5 1
gene 1 18 37 -1.73429 0 70 -1.73429 1
gene 1 18 38 -4.11752 0 71 -4.11752 1
gene 1 18 39 -0.487017 0 72 -0.487017 1
gene 1 19 36 -4.8363 0 73 -4.8363 1
gene 1 19 37 -2.15813 0 74 -2.15813 1
gene 1 19 38 4.37311 0 75 4.37311 1
gene 1 19 39 1.18415 0 76 1.18415 1
gene 1 20 36 2.06971 0 77 2.06971 1
gene 1 20 37 1.37931 0 78 1.37931 1
gene 1 20 38 -1.58121 0 79 -1.58121 1
gene 1 20 39 -2.50799 0 80 -2.50799 1
gene 1 21 36 2.46916 0 81 2.46916 1
gene 1 21 37 -1.918 0 82 -1.918 1
gene 1 21 38 -1.3312 0 83 -1.3312 1
gene 1 21 39 -0.142049 0 84 -0.142049 1
gene 1 22 36 0.445094 0 85 0.445094 1
gene 1 22 37 1.05065 0 86 1.05065 1
gene 1 22 38 -2.54292 0 87 -2.54292 1
gene 1 22 39 -0.925837 0 88 -0.925837 1
gene 1 23 36 -2.57348 0 89 -2.57348 1
gene 1 23 37 1.81772 0 90 1.81772 1
gene 1 23 38 3.2188 0 91 3.2188 1
gene 1 23 39 1.18498 0 92 1.18498 1
gene 1 24 36 -0.981226 0 93 -0.981226 1
gene 1 24 37 2.20219 0 94 2.20219 1
gene 1 24 38 2.75577 0 95 2.75577 1
gene 1 24 39 2.94844 0 96 2.94844 1
gene 1 25 36 0.533498 0 97 0.533498 1
gene 1 25 37 -2.36467 0 98 -2.36467 1
gene 1 25 38 -4.16913 0 99 -4.16913 1
gene 1 25 39 -0.516129 0 100 -0.516129 1
gene 1 26 36 5 0 101 5 1
gene 1 26 37 5 0 102 5 1
gene 1 26 38 -1.5753 0 103 -1.5753 1
gene 1 26 39 3.02086 0 104 3.02086 1
gene 1 27 36 -3.40868 0 105 -3.40868 1
gene 1 27 37 3.32845 0 106 3.32845 1
gene 1 27 38 0.164417 0 107 0.164417 1
gene 1 27 39 -2.11128 0 108 -2.11128 1
gene 1 28 36 -5 0 109 -5 1
gene 1 28 37 -1.26043 0 110 -1.26043 1
gene 1 28 38 -3.2368 0 111 -3.2368 1
gene 1 28 39 -3.60351 0 112 -3.60351 1
gene 1 29 36 0.0921897 0 113 0.0921897 1
gene 1 29 37 -1.46782 0 114 -1.46782 1
gene 1 29 38 -0.031167 0 115 -0.031167 1
gene 1 29 39 -0.507423 0 116 -0.507423 1
gene 1 30 36 -0.373956 0 117 -0.373956 1
gene 1 30 37 -0.950991 0 118 -0.950991 1
gene 1 30 38 1.76632 0 119 1.76632 1
gene 1 30 39 0.907851 0 120 0.907851 1
gene 1 31 36 -0.419623 0 121 -0.419623 1
gene 1 31 37 0.935343 0 122 0.935343 1
gene 1 31 38 -0.0225179 0 123 -0.0225179 1
gene 1 31 39 -0.980166 0 124 -0.980166 1
gene 1 32 36 -0.325586 0 125 -0.325586 1
gene 1 32 37 0.0572855 0 126 0.0572855 1
gene 1 32 38 -1.2909 0 127 -1.2909 1
gene 1 32 39 -0.274046 0 128 -0.274046 1
gene 1 33 36 0.510049 0 129 0.510049 1
gene 1 33 37 -0.348985 0 130 -0.348985 1
gene 1 33 38 -1.04947 0 131 -1.04947 1
gene 1 33 39 -0.25652 0 132 -0.25652 1
gene 1 34 36 -0.745534 0 133 -0.745534 1
gene 1 34 37 0.881269 0 134 0.881269 1
gene 1 34 38 -0.0774569 0 135 -0.0774569 1
gene 1 34 39 -1.2635 0 136 -1.2635 1
gene 1 35 36 0.754013 0 137 0.754013 1
gene 1 35 37 -2.51099 0 138 -2.51099 1
gene 1 35 38 0.434336 0 139 0.434336 1
gene 1 35 39 1.72622 0 140 1.72622 1
genomeend 74


