/* Organism #5 Fitness: 11046.380000 Time: 0 */
genomestart 5
trait 1 0.000000 0.743228 0.335131 0.751293 0.105950 1.000000 0.000000 0.720312 
node 1 1 1 1
node 2 1 1 1
node 3 1 1 1
node 4 1 1 1
node 5 1 1 1
node 6 1 1 1
node 7 1 1 1
node 8 1 1 1
node 9 1 1 1
node 10 1 1 1
node 11 1 1 1
node 12 1 1 1
node 13 1 1 1
node 14 1 1 1
node 15 1 1 1
node 16 1 1 1
node 17 1 1 1
node 18 1 1 1
node 19 1 1 1
node 20 1 1 1
node 21 1 1 1
node 22 1 1 1
node 23 1 1 1
node 24 1 1 1
node 25 1 1 1
node 26 1 1 1
node 27 1 1 1
node 28 1 1 1
node 29 1 1 1
node 30 1 1 1
node 31 1 1 1
node 32 1 1 1
node 33 1 1 1
node 34 1 1 1
node 35 1 1 1
node 36 1 1 1
node 37 1 1 1
node 38 1 1 1
node 39 1 1 1
node 40 1 1 3
node 41 1 0 2
node 42 1 0 2
node 43 1 0 2
node 44 1 0 2
node 45 1 0 2
gene 1 1 41 1.84135 0 1 1.84135 1
gene 1 1 42 2.81878 0 2 2.81878 1
gene 1 1 43 1.92331 0 3 1.92331 1
gene 1 1 44 -0.868962 0 4 -0.868962 1
gene 1 1 45 0.00239881 0 5 0.00239881 1
gene 1 2 41 -4.57711 0 6 -4.57711 1
gene 1 2 42 -1.74952 0 7 -1.74952 1
gene 1 2 43 -0.502768 0 8 -0.502768 1
gene 1 2 44 3.20218 0 9 3.20218 1
gene 1 2 45 -2.67158 0 10 -2.67158 1
gene 1 3 41 -0.220652 0 11 -0.220652 1
gene 1 3 42 4.50382 0 12 4.50382 1
gene 1 3 43 -0.294674 0 13 -0.294674 1
gene 1 3 44 -3.94968 0 14 -3.94968 1
gene 1 3 45 -1.22464 0 15 -1.22464 1
gene 1 4 41 -1.28983 0 16 -1.28983 1
gene 1 4 42 3.84896 0 17 3.84896 1
gene 1 4 43 2.68424 0 18 2.68424 1
gene 1 4 44 -1.89527 0 19 -1.89527 1
gene 1 4 45 0.928895 0 20 0.928895 1
gene 1 5 41 4.09577 0 21 4.09577 1
gene 1 5 42 0.528575 0 22 0.528575 1
gene 1 5 43 1.5709 0 23 1.5709 1
gene 1 5 44 -2.76721 0 24 -2.76721 1
gene 1 5 45 2.14374 0 25 2.14374 1
gene 1 6 41 2.01985 0 26 2.01985 1
gene 1 6 42 -0.914041 0 27 -0.914041 1
gene 1 6 43 -1.6316 0 28 -1.6316 1
gene 1 6 44 -3.50747 0 29 -3.50747 1
gene 1 6 45 -0.973638 0 30 -0.973638 1
gene 1 7 41 4.41143 0 31 4.41143 1
gene 1 7 42 -4.32799 0 32 -4.32799 1
gene 1 7 43 0.799556 0 33 0.799556 1
gene 1 7 44 -3.05716 0 34 -3.05716 1
gene 1 7 45 -0.887056 0 35 -0.887056 1
gene 1 8 41 -1.88241 0 36 -1.88241 1
gene 1 8 42 -2.717 0 37 -2.717 1
gene 1 8 43 0.847577 0 38 0.847577 1
gene 1 8 44 -1.15605 0 39 -1.15605 1
gene 1 8 45 0.728424 0 40 0.728424 1
gene 1 9 41 -3.24157 0 41 -3.24157 1
gene 1 9 42 2.46756 0 42 2.46756 1
gene 1 9 43 -4.81839 0 43 -4.81839 1
gene 1 9 44 -0.613557 0 44 -0.613557 1
gene 1 9 45 -2.364 0 45 -2.364 1
gene 1 10 41 -1.423 0 46 -1.423 1
gene 1 10 42 0.0734609 0 47 0.0734609 1
gene 1 10 43 -3.16915 0 48 -3.16915 1
gene 1 10 44 1.47228 0 49 1.47228 1
gene 1 10 45 3.20057 0 50 3.20057 1
gene 1 11 41 -5 0 51 -5 1
gene 1 11 42 -3.42324 0 52 -3.42324 1
gene 1 11 43 -1.54649 0 53 -1.54649 1
gene 1 11 44 0.118273 0 54 0.118273 1
gene 1 11 45 2.08638 0 55 2.08638 1
gene 1 12 41 1.37783 0 56 1.37783 1
gene 1 12 42 -1.70744 0 57 -1.70744 1
gene 1 12 43 -2.20099 0 58 -2.20099 1
gene 1 12 44 0.00026907 0 59 0.00026907 1
gene 1 12 45 2.40431 0 60 2.40431 1
gene 1 13 41 5 0 61 5 1
gene 1 13 42 -1.22957 0 62 -1.22957 1
gene 1 13 43 -1.66135 0 63 -1.66135 1
gene 1 13 44 -0.497375 0 64 -0.497375 1
gene 1 13 45 -1.2305 0 65 -1.2305 1
gene 1 14 41 0.592286 0 66 0.592286 1
gene 1 14 42 2.61999 0 67 2.61999 1
gene 1 14 43 -3.02549 0 68 -3.02549 1
gene 1 14 44 0.131695 0 69 0.131695 1
gene 1 14 45 1.77926 0 70 1.77926 1
gene 1 15 41 2.55481 0 71 2.55481 1
gene 1 15 42 -2.00073 0 72 -2.00073 1
gene 1 15 43 2.49063 0 73 2.49063 1
gene 1 15 44 -0.711647 0 74 -0.711647 1
gene 1 15 45 -1.36255 0 75 -1.36255 1
gene 1 16 41 -2.81692 0 76 -2.81692 1
gene 1 16 42 -5 0 77 -5 1
gene 1 16 43 -3.995 0 78 -3.995 1
gene 1 16 44 -4.54069 0 79 -4.54069 1
gene 1 16 45 -1.21499 0 80 -1.21499 1
gene 1 17 41 1.92833 0 81 1.92833 1
gene 1 17 42 -4.25192 0 82 -4.25192 1
gene 1 17 43 -1.12274 0 83 -1.12274 1
gene 1 17 44 -0.139891 0 84 -0.139891 1
gene 1 17 45 0.151265 0 85 0.151265 1
gene 1 18 41 4.54981 0 86 4.54981 1
gene 1 18 42 -4.04207 0 87 -4.04207 1
gene 1 18 43 2.79363 0 88 2.79363 1
gene 1 18 44 -1.97524 0 89 -1.97524 1
gene 1 18 45 -0.955804 0 90 -0.955804 1
gene 1 19 41 2.03964 0 91 2.03964 1
gene 1 19 42 -3.88101 0 92 -3.88101 1
gene 1 19 43 -2.56259 0 93 -2.56259 1
gene 1 19 44 -1.17768 0 94 -1.17768 1
gene 1 19 45 -4.37682 0 95 -4.37682 1
gene 1 20 41 -2.04147 0 96 -2.04147 1
gene 1 20 42 -1.51525 0 97 -1.51525 1
gene 1 20 43 -2.76214 0 98 -2.76214 1
gene 1 20 44 -0.26377 0 99 -0.26377 1
gene 1 20 45 -0.274247 0 100 -0.274247 1
gene 1 21 41 2.42806 0 101 2.42806 1
gene 1 21 42 2.38256 0 102 2.38256 1
gene 1 21 43 -1.79975 0 103 -1.79975 1
gene 1 21 44 -1.53553 0 104 -1.53553 1
gene 1 21 45 0.951572 0 105 0.951572 1
gene 1 22 41 -1.51602 0 106 -1.51602 1
gene 1 22 42 -5 0 107 -5 1
gene 1 22 43 -2.72255 0 108 -2.72255 1
gene 1 22 44 -0.262628 0 109 -0.262628 1
gene 1 22 45 0.641461 0 110 0.641461 1
gene 1 23 41 -1.24738 0 111 -1.24738 1
gene 1 23 42 -1.53648 0 112 -1.53648 1
gene 1 23 43 -0.432417 0 113 -0.432417 1
gene 1 23 44 1.78387 0 114 1.78387 1
gene 1 23 45 -2.90213 0 115 -2.90213 1
gene 1 24 41 -2.22553 0 116 -2.22553 1
gene 1 24 42 -2.3439 0 117 -2.3439 1
gene 1 24 43 -0.935868 0 118 -0.935868 1
gene 1 24 44 0.113017 0 119 0.113017 1
gene 1 24 45 1.52844 0 120 1.52844 1
gene 1 25 41 -4.06512 0 121 -4.06512 1
gene 1 25 42 2.22772 0 122 2.22772 1
gene 1 25 43 -1.95 0 123 -1.95 1
gene 1 25 44 0.523615 0 124 0.523615 1
gene 1 25 45 5 0 125 5 1
gene 1 26 41 3.06247 0 126 3.06247 1
gene 1 26 42 -3.13704 0 127 -3.13704 1
gene 1 26 43 1.51004 0 128 1.51004 1
gene 1 26 44 3.57499 0 129 3.57499 1
gene 1 26 45 -1.17345 0 130 -1.17345 1
gene 1 27 41 -0.525747 0 131 -0.525747 1
gene 1 27 42 -1.08921 0 132 -1.08921 1
gene 1 27 43 2.2456 0 133 2.2456 1
gene 1 27 44 1.89425 0 134 1.89425 1
gene 1 27 45 0.330189 0 135 0.330189 1
gene 1 28 41 -3.94494 0 136 -3.94494 1
gene 1 28 42 3.44058 0 137 3.44058 1
gene 1 28 43 -0.212151 0 138 -0.212151 1
gene 1 28 44 1.75254 0 139 1.75254 1
gene 1 28 45 -2.89148 0 140 -2.89148 1
gene 1 29 41 1.87988 0 141 1.87988 1
gene 1 29 42 0.0794323 0 142 0.0794323 1
gene 1 29 43 2.43762 0 143 2.43762 1
gene 1 29 44 0.61501 0 144 0.61501 1
gene 1 29 45 4.73538 0 145 4.73538 1
gene 1 30 41 -1.15036 0 146 -1.15036 1
gene 1 30 42 -2.19679 0 147 -2.19679 1
gene 1 30 43 1.19527 0 148 1.19527 1
gene 1 30 44 1.37457 0 149 1.37457 1
gene 1 30 45 -1.9171 0 150 -1.9171 1
gene 1 31 41 2.65624 0 151 2.65624 1
gene 1 31 42 -4.66999 0 152 -4.66999 1
gene 1 31 43 0.0882866 0 153 0.0882866 1
gene 1 31 44 3.31863 0 154 3.31863 1
gene 1 31 45 -0.0731228 0 155 -0.0731228 1
gene 1 32 41 1.74959 0 156 1.74959 1
gene 1 32 42 0.288364 0 157 0.288364 1
gene 1 32 43 -4.68587 0 158 -4.68587 1
gene 1 32 44 0.0229732 0 159 0.0229732 1
gene 1 32 45 -1.36408 0 160 -1.36408 1
gene 1 33 41 -2.63313 0 161 -2.63313 1
gene 1 33 42 -0.868301 0 162 -0.868301 1
gene 1 33 43 0.577027 0 163 0.577027 1
gene 1 33 44 -0.805852 0 164 -0.805852 1
gene 1 33 45 -0.269727 0 165 -0.269727 1
gene 1 34 41 0.797875 0 166 0.797875 1
gene 1 34 42 -0.313223 0 167 -0.313223 1
gene 1 34 43 -1.05439 0 168 -1.05439 1
gene 1 34 44 1.0262 0 169 1.0262 1
gene 1 34 45 0.0717606 0 170 0.0717606 1
gene 1 35 41 0.141045 0 171 0.141045 1
gene 1 35 42 3.26269 0 172 3.26269 1
gene 1 35 43 -1.55008 0 173 -1.55008 1
gene 1 35 44 -0.3135 0 174 -0.3135 1
gene 1 35 45 -0.362653 0 175 -0.362653 1
gene 1 36 41 0.65898 0 176 0.65898 1
gene 1 36 42 0.932993 0 177 0.932993 1
gene 1 36 43 -0.967552 0 178 -0.967552 1
gene 1 36 44 0.489096 0 179 0.489096 1
gene 1 36 45 1.07244 0 180 1.07244 1
gene 1 37 41 0.478061 0 181 0.478061 1
gene 1 37 42 -0.899989 0 182 -0.899989 1
gene 1 37 43 1.41829 0 183 1.41829 1
gene 1 37 44 0.558665 0 184 0.558665 1
gene 1 37 45 -0.844476 0 185 -0.844476 1
gene 1 38 41 0.265355 0 186 0.265355 1
gene 1 38 42 -0.187867 0 187 -0.187867 1
gene 1 38 43 1.26689 0 188 1.26689 1
gene 1 38 44 -0.963149 0 189 -0.963149 1
gene 1 38 45 1.28126 0 190 1.28126 1
gene 1 39 41 -0.649514 0 191 -0.649514 1
gene 1 39 42 0.393754 0 192 0.393754 1
gene 1 39 43 0.651589 0 193 0.651589 1
gene 1 39 44 0.0261012 0 194 0.0261012 1
gene 1 39 45 0.448132 0 195 0.448132 1
gene 1 40 41 -5 0 196 -5 1
gene 1 40 42 -0.818382 0 197 -0.818382 1
gene 1 40 43 -5 0 198 -5 1
gene 1 40 44 -1.42234 0 199 -1.42234 1
gene 1 40 45 -1.24761 0 200 -1.24761 1
genomeend 5


