/* Organism #2 Fitness: 12163.808000 Time: 0 */
genomestart 2
trait 1 0.094861 1.000000 0.272805 0.761620 0.000000 0.000000 0.000000 0.963136 
node 1 1 1 1
node 2 1 1 1
node 3 1 1 1
node 4 1 1 1
node 5 1 1 1
node 6 1 1 1
node 7 1 1 1
node 8 1 1 1
node 9 1 1 1
node 10 1 1 1
node 11 1 1 1
node 12 1 1 1
node 13 1 1 1
node 14 1 1 1
node 15 1 1 1
node 16 1 1 1
node 17 1 1 1
node 18 1 1 1
node 19 1 1 1
node 20 1 1 1
node 21 1 1 1
node 22 1 1 1
node 23 1 1 1
node 24 1 1 1
node 25 1 1 1
node 26 1 1 1
node 27 1 1 1
node 28 1 1 1
node 29 1 1 1
node 30 1 1 1
node 31 1 1 1
node 32 1 1 1
node 33 1 1 1
node 34 1 1 1
node 35 1 1 1
node 36 1 1 1
node 37 1 1 1
node 38 1 1 1
node 39 1 1 1
node 40 1 1 3
node 41 1 0 2
node 42 1 0 2
node 43 1 0 2
node 44 1 0 2
node 45 1 0 2
gene 1 1 41 -3.89135 0 1 -3.89135 1
gene 1 1 42 2.8192 0 2 2.8192 1
gene 1 1 43 3.83502 0 3 3.83502 1
gene 1 1 44 -1.9108 0 4 -1.9108 1
gene 1 1 45 0.430157 0 5 0.430157 1
gene 1 2 41 -0.277274 0 6 -0.277274 1
gene 1 2 42 -3.53311 0 7 -3.53311 1
gene 1 2 43 1.89715 0 8 1.89715 1
gene 1 2 44 -1.66369 0 9 -1.66369 1
gene 1 2 45 1.77712 0 10 1.77712 1
gene 1 3 41 -0.203911 0 11 -0.203911 1
gene 1 3 42 1.66723 0 12 1.66723 1
gene 1 3 43 0.843704 0 13 0.843704 1
gene 1 3 44 3.64478 0 14 3.64478 1
gene 1 3 45 -1.17709 0 15 -1.17709 1
gene 1 4 41 2.27912 0 16 2.27912 1
gene 1 4 42 0.172242 0 17 0.172242 1
gene 1 4 43 0.721826 0 18 0.721826 1
gene 1 4 44 -4.36455 0 19 -4.36455 1
gene 1 4 45 2.12473 0 20 2.12473 1
gene 1 5 41 3.5248 0 21 3.5248 1
gene 1 5 42 -0.89628 0 22 -0.89628 1
gene 1 5 43 -2.34854 0 23 -2.34854 1
gene 1 5 44 -5 0 24 -5 1
gene 1 5 45 -2.00572 0 25 -2.00572 1
gene 1 6 41 3.66897 0 26 3.66897 1
gene 1 6 42 -0.639188 0 27 -0.639188 1
gene 1 6 43 -1.00449 0 28 -1.00449 1
gene 1 6 44 -1.67107 0 29 -1.67107 1
gene 1 6 45 2.55675 0 30 2.55675 1
gene 1 7 41 4.11277 0 31 4.11277 1
gene 1 7 42 -1.90834 0 32 -1.90834 1
gene 1 7 43 -1.86458 0 33 -1.86458 1
gene 1 7 44 1.15567 0 34 1.15567 1
gene 1 7 45 -2.75199 0 35 -2.75199 1
gene 1 8 41 -0.548642 0 36 -0.548642 1
gene 1 8 42 4.21073 0 37 4.21073 1
gene 1 8 43 -1.58632 0 38 -1.58632 1
gene 1 8 44 -3.75492 0 39 -3.75492 1
gene 1 8 45 1.74479 0 40 1.74479 1
gene 1 9 41 -3.38825 0 41 -3.38825 1
gene 1 9 42 4.07772 0 42 4.07772 1
gene 1 9 43 0.974465 0 43 0.974465 1
gene 1 9 44 -2.54319 0 44 -2.54319 1
gene 1 9 45 -3.86129 0 45 -3.86129 1
gene 1 10 41 -1.46395 0 46 -1.46395 1
gene 1 10 42 -1.47411 0 47 -1.47411 1
gene 1 10 43 -0.452922 0 48 -0.452922 1
gene 1 10 44 2.49802 0 49 2.49802 1
gene 1 10 45 1.78638 0 50 1.78638 1
gene 1 11 41 1.70448 0 51 1.70448 1
gene 1 11 42 4.99154 0 52 4.99154 1
gene 1 11 43 -5 0 53 -5 1
gene 1 11 44 -0.265665 0 54 -0.265665 1
gene 1 11 45 -3.85119 0 55 -3.85119 1
gene 1 12 41 -3.85466 0 56 -3.85466 1
gene 1 12 42 0.571586 0 57 0.571586 1
gene 1 12 43 -3.01128 0 58 -3.01128 1
gene 1 12 44 -2.21684 0 59 -2.21684 1
gene 1 12 45 2.96505 0 60 2.96505 1
gene 1 13 41 1.99744 0 61 1.99744 1
gene 1 13 42 3.51315 0 62 3.51315 1
gene 1 13 43 -3.93049 0 63 -3.93049 1
gene 1 13 44 0.416699 0 64 0.416699 1
gene 1 13 45 1.23779 0 65 1.23779 1
gene 1 14 41 -1.02211 0 66 -1.02211 1
gene 1 14 42 2.27826 0 67 2.27826 1
gene 1 14 43 -3.65132 0 68 -3.65132 1
gene 1 14 44 4.55345 0 69 4.55345 1
gene 1 14 45 3.42904 0 70 3.42904 1
gene 1 15 41 -5 0 71 -5 1
gene 1 15 42 -2.72477 0 72 -2.72477 1
gene 1 15 43 1.99021 0 73 1.99021 1
gene 1 15 44 4.5061 0 74 4.5061 1
gene 1 15 45 -0.431968 0 75 -0.431968 1
gene 1 16 41 2.37504 0 76 2.37504 1
gene 1 16 42 1.56452 0 77 1.56452 1
gene 1 16 43 -0.628937 0 78 -0.628937 1
gene 1 16 44 -3.5868 0 79 -3.5868 1
gene 1 16 45 -3.27666 0 80 -3.27666 1
gene 1 17 41 5 0 81 5 1
gene 1 17 42 -3.27074 0 82 -3.27074 1
gene 1 17 43 1.61525 0 83 1.61525 1
gene 1 17 44 1.9214 0 84 1.9214 1
gene 1 17 45 4.06493 0 85 4.06493 1
gene 1 18 41 5 0 86 5 1
gene 1 18 42 -4.12231 0 87 -4.12231 1
gene 1 18 43 -3.55529 0 88 -3.55529 1
gene 1 18 44 5 0 89 5 1
gene 1 18 45 3.37888 0 90 3.37888 1
gene 1 19 41 -1.56241 0 91 -1.56241 1
gene 1 19 42 -3.06174 0 92 -3.06174 1
gene 1 19 43 -4.911 0 93 -4.911 1
gene 1 19 44 2.69547 0 94 2.69547 1
gene 1 19 45 -0.0902761 0 95 -0.0902761 1
gene 1 20 41 -3.0795 0 96 -3.0795 1
gene 1 20 42 -0.91368 0 97 -0.91368 1
gene 1 20 43 0.97778 0 98 0.97778 1
gene 1 20 44 3.36221 0 99 3.36221 1
gene 1 20 45 2.79226 0 100 2.79226 1
gene 1 21 41 3.12885 0 101 3.12885 1
gene 1 21 42 3.05293 0 102 3.05293 1
gene 1 21 43 -3.68587 0 103 -3.68587 1
gene 1 21 44 2.95256 0 104 2.95256 1
gene 1 21 45 -0.533134 0 105 -0.533134 1
gene 1 22 41 -1.88855 0 106 -1.88855 1
gene 1 22 42 -0.110177 0 107 -0.110177 1
gene 1 22 43 -4.03692 0 108 -4.03692 1
gene 1 22 44 0.469747 0 109 0.469747 1
gene 1 22 45 5 0 110 5 1
gene 1 23 41 -1.00132 0 111 -1.00132 1
gene 1 23 42 4.08708 0 112 4.08708 1
gene 1 23 43 1.4607 0 113 1.4607 1
gene 1 23 44 -3.44991 0 114 -3.44991 1
gene 1 23 45 -4.18609 0 115 -4.18609 1
gene 1 24 41 -1.62909 0 116 -1.62909 1
gene 1 24 42 1.82381 0 117 1.82381 1
gene 1 24 43 -4.2623 0 118 -4.2623 1
gene 1 24 44 -1.77856 0 119 -1.77856 1
gene 1 24 45 -2.66483 0 120 -2.66483 1
gene 1 25 41 -4.97075 0 121 -4.97075 1
gene 1 25 42 5 0 122 5 1
gene 1 25 43 4.50971 0 123 4.50971 1
gene 1 25 44 1.82245 0 124 1.82245 1
gene 1 25 45 -0.537181 0 125 -0.537181 1
gene 1 26 41 0.71898 0 126 0.71898 1
gene 1 26 42 4.58263 0 127 4.58263 1
gene 1 26 43 1.46977 0 128 1.46977 1
gene 1 26 44 2.60423 0 129 2.60423 1
gene 1 26 45 -0.106451 0 130 -0.106451 1
gene 1 27 41 4.40944 0 131 4.40944 1
gene 1 27 42 -0.930554 0 132 -0.930554 1
gene 1 27 43 0.495048 0 133 0.495048 1
gene 1 27 44 -2.01055 0 134 -2.01055 1
gene 1 27 45 1.39273 0 135 1.39273 1
gene 1 28 41 -4.00587 0 136 -4.00587 1
gene 1 28 42 -3.63033 0 137 -3.63033 1
gene 1 28 43 -2.37255 0 138 -2.37255 1
gene 1 28 44 -3.607 0 139 -3.607 1
gene 1 28 45 2.6704 0 140 2.6704 1
gene 1 29 41 -4.36454 0 141 -4.36454 1
gene 1 29 42 3.70964 0 142 3.70964 1
gene 1 29 43 0.458832 0 143 0.458832 1
gene 1 29 44 2.19813 0 144 2.19813 1
gene 1 29 45 0.0780949 0 145 0.0780949 1
gene 1 30 41 -2.5876 0 146 -2.5876 1
gene 1 30 42 -2.56783 0 147 -2.56783 1
gene 1 30 43 0.357754 0 148 0.357754 1
gene 1 30 44 2.31983 0 149 2.31983 1
gene 1 30 45 3.89928 0 150 3.89928 1
gene 1 31 41 -0.00171957 0 151 -0.00171957 1
gene 1 31 42 1.56781 0 152 1.56781 1
gene 1 31 43 -2.33146 0 153 -2.33146 1
gene 1 31 44 2.68443 0 154 2.68443 1
gene 1 31 45 -2.61801 0 155 -2.61801 1
gene 1 32 41 -2.48467 0 156 -2.48467 1
gene 1 32 42 0.751426 0 157 0.751426 1
gene 1 32 43 0.639047 0 158 0.639047 1
gene 1 32 44 5 0 159 5 1
gene 1 32 45 4.30783 0 160 4.30783 1
gene 1 33 41 -1.02803 0 161 -1.02803 1
gene 1 33 42 -0.947248 0 162 -0.947248 1
gene 1 33 43 -0.885422 0 163 -0.885422 1
gene 1 33 44 -0.624815 0 164 -0.624815 1
gene 1 33 45 0.853351 0 165 0.853351 1
gene 1 34 41 0.478543 0 166 0.478543 1
gene 1 34 42 0.0586581 0 167 0.0586581 1
gene 1 34 43 1.81742 0 168 1.81742 1
gene 1 34 44 0.441114 0 169 0.441114 1
gene 1 34 45 -0.247563 0 170 -0.247563 1
gene 1 35 41 1.49946 0 171 1.49946 1
gene 1 35 42 1.00774 0 172 1.00774 1
gene 1 35 43 -2.86965 0 173 -2.86965 1
gene 1 35 44 -2.23734 0 174 -2.23734 1
gene 1 35 45 -1.04815 0 175 -1.04815 1
gene 1 36 41 0.44073 0 176 0.44073 1
gene 1 36 42 2.62324 0 177 2.62324 1
gene 1 36 43 2.47878 0 178 2.47878 1
gene 1 36 44 0.564077 0 179 0.564077 1
gene 1 36 45 -0.665466 0 180 -0.665466 1
gene 1 37 41 0.0202573 0 181 0.0202573 1
gene 1 37 42 -0.625969 0 182 -0.625969 1
gene 1 37 43 -0.863283 0 183 -0.863283 1
gene 1 37 44 0.306043 0 184 0.306043 1
gene 1 37 45 -1.67782 0 185 -1.67782 1
gene 1 38 41 -1.1478 0 186 -1.1478 1
gene 1 38 42 -1.60623 0 187 -1.60623 1
gene 1 38 43 -0.381803 0 188 -0.381803 1
gene 1 38 44 -1.41793 0 189 -1.41793 1
gene 1 38 45 -1.51904 0 190 -1.51904 1
gene 1 39 41 1.56947 0 191 1.56947 1
gene 1 39 42 -1.07425 0 192 -1.07425 1
gene 1 39 43 0.685587 0 193 0.685587 1
gene 1 39 44 -0.577163 0 194 -0.577163 1
gene 1 39 45 -0.291596 0 195 -0.291596 1
gene 1 40 41 -4.68754 0 196 -4.68754 1
gene 1 40 42 -1.19291 0 197 -1.19291 1
gene 1 40 43 -0.12365 0 198 -0.12365 1
gene 1 40 44 0.0654792 0 199 0.0654792 1
gene 1 40 45 -0.241935 0 200 -0.241935 1
genomeend 2


