/* Organism #0 Fitness: 12232.264000 Time: 0 */
genomestart 0
trait 1 0.684119 0.000000 0.118977 0.222882 0.805497 0.683805 0.000000 0.000000 
node 1 1 1 1
node 2 1 1 1
node 3 1 1 1
node 4 1 1 1
node 5 1 1 1
node 6 1 1 1
node 7 1 1 1
node 8 1 1 1
node 9 1 1 1
node 10 1 1 1
node 11 1 1 1
node 12 1 1 1
node 13 1 1 1
node 14 1 1 1
node 15 1 1 1
node 16 1 1 1
node 17 1 1 1
node 18 1 1 1
node 19 1 1 1
node 20 1 1 1
node 21 1 1 1
node 22 1 1 1
node 23 1 1 1
node 24 1 1 1
node 25 1 1 1
node 26 1 1 1
node 27 1 1 1
node 28 1 1 1
node 29 1 1 1
node 30 1 1 1
node 31 1 1 1
node 32 1 1 1
node 33 1 1 1
node 34 1 1 1
node 35 1 1 1
node 36 1 1 1
node 37 1 1 1
node 38 1 1 1
node 39 1 1 1
node 40 1 1 3
node 41 1 0 2
node 42 1 0 2
node 43 1 0 2
node 44 1 0 2
node 45 1 0 2
gene 1 1 41 -0.577237 0 1 -0.577237 1
gene 1 1 42 -0.0460377 0 2 -0.0460377 1
gene 1 1 43 -3.77537 0 3 -3.77537 1
gene 1 1 44 -1.85967 0 4 -1.85967 1
gene 1 1 45 -1.11469 0 5 -1.11469 1
gene 1 2 41 -4.72892 0 6 -4.72892 1
gene 1 2 42 1.87204 0 7 1.87204 1
gene 1 2 43 0.427652 0 8 0.427652 1
gene 1 2 44 0.87373 0 9 0.87373 1
gene 1 2 45 1.32068 0 10 1.32068 1
gene 1 3 41 -2.02219 0 11 -2.02219 1
gene 1 3 42 -0.870531 0 12 -0.870531 1
gene 1 3 43 -1.67125 0 13 -1.67125 1
gene 1 3 44 -0.780465 0 14 -0.780465 1
gene 1 3 45 -2.59375 0 15 -2.59375 1
gene 1 4 41 -0.202011 0 16 -0.202011 1
gene 1 4 42 0.428377 0 17 0.428377 1
gene 1 4 43 2.392 0 18 2.392 1
gene 1 4 44 -1.85815 0 19 -1.85815 1
gene 1 4 45 3.44021 0 20 3.44021 1
gene 1 5 41 4.1296 0 21 4.1296 1
gene 1 5 42 0.934528 0 22 0.934528 1
gene 1 5 43 3.97892 0 23 3.97892 1
gene 1 5 44 0.480558 0 24 0.480558 1
gene 1 5 45 2.08927 0 25 2.08927 1
gene 1 6 41 2.25861 0 26 2.25861 1
gene 1 6 42 0.888468 0 27 0.888468 1
gene 1 6 43 -1.73337 0 28 -1.73337 1
gene 1 6 44 2.35624 0 29 2.35624 1
gene 1 6 45 0.020145 0 30 0.020145 1
gene 1 7 41 4.47641 0 31 4.47641 1
gene 1 7 42 -3.05763 0 32 -3.05763 1
gene 1 7 43 -0.829783 0 33 -0.829783 1
gene 1 7 44 -0.543537 0 34 -0.543537 1
gene 1 7 45 4.30536 0 35 4.30536 1
gene 1 8 41 -1.82659 0 36 -1.82659 1
gene 1 8 42 -0.130982 0 37 -0.130982 1
gene 1 8 43 -1.83184 0 38 -1.83184 1
gene 1 8 44 -3.78489 0 39 -3.78489 1
gene 1 8 45 -2.93992 0 40 -2.93992 1
gene 1 9 41 -5 0 41 -5 1
gene 1 9 42 4.52666 0 42 4.52666 1
gene 1 9 43 -1.4328 0 43 -1.4328 1
gene 1 9 44 2.41979 0 44 2.41979 1
gene 1 9 45 1.48608 0 45 1.48608 1
gene 1 10 41 0.869668 0 46 0.869668 1
gene 1 10 42 -2.66452 0 47 -2.66452 1
gene 1 10 43 -3.53391 0 48 -3.53391 1
gene 1 10 44 -2.23829 0 49 -2.23829 1
gene 1 10 45 4.65167 0 50 4.65167 1
gene 1 11 41 -1.86412 0 51 -1.86412 1
gene 1 11 42 2.2819 0 52 2.2819 1
gene 1 11 43 -5 0 53 -5 1
gene 1 11 44 -3.86945 0 54 -3.86945 1
gene 1 11 45 2.72468 0 55 2.72468 1
gene 1 12 41 2.70613 0 56 2.70613 1
gene 1 12 42 0.941914 0 57 0.941914 1
gene 1 12 43 4.7262 0 58 4.7262 1
gene 1 12 44 0.478435 0 59 0.478435 1
gene 1 12 45 -0.700383 0 60 -0.700383 1
gene 1 13 41 0.0696011 0 61 0.0696011 1
gene 1 13 42 5 0 62 5 1
gene 1 13 43 0.557587 0 63 0.557587 1
gene 1 13 44 0.314316 0 64 0.314316 1
gene 1 13 45 -3.7303 0 65 -3.7303 1
gene 1 14 41 -2.37083 0 66 -2.37083 1
gene 1 14 42 -4.00963 0 67 -4.00963 1
gene 1 14 43 0.897365 0 68 0.897365 1
gene 1 14 44 4.24836 0 69 4.24836 1
gene 1 14 45 -2.39162 0 70 -2.39162 1
gene 1 15 41 1.76144 0 71 1.76144 1
gene 1 15 42 1.04029 0 72 1.04029 1
gene 1 15 43 0.933733 0 73 0.933733 1
gene 1 15 44 -0.739743 0 74 -0.739743 1
gene 1 15 45 -0.711853 0 75 -0.711853 1
gene 1 16 41 -1.32687 0 76 -1.32687 1
gene 1 16 42 -4.92761 0 77 -4.92761 1
gene 1 16 43 -0.704394 0 78 -0.704394 1
gene 1 16 44 -4.44773 0 79 -4.44773 1
gene 1 16 45 4.10085 0 80 4.10085 1
gene 1 17 41 0.843549 0 81 0.843549 1
gene 1 17 42 -4.43312 0 82 -4.43312 1
gene 1 17 43 -5 0 83 -5 1
gene 1 17 44 -1.03294 0 84 -1.03294 1
gene 1 17 45 -3.7131 0 85 -3.7131 1
gene 1 18 41 4.56811 0 86 4.56811 1
gene 1 18 42 -1.28648 0 87 -1.28648 1
gene 1 18 43 -2.96215 0 88 -2.96215 1
gene 1 18 44 5 0 89 5 1
gene 1 18 45 -4.19562 0 90 -4.19562 1
gene 1 19 41 1.45828 0 91 1.45828 1
gene 1 19 42 -3.29949 0 92 -3.29949 1
gene 1 19 43 -0.0225656 0 93 -0.0225656 1
gene 1 19 44 -2.99869 0 94 -2.99869 1
gene 1 19 45 -0.631772 0 95 -0.631772 1
gene 1 20 41 -0.369712 0 96 -0.369712 1
gene 1 20 42 3.68527 0 97 3.68527 1
gene 1 20 43 -4.76016 0 98 -4.76016 1
gene 1 20 44 -1.45332 0 99 -1.45332 1
gene 1 20 45 -0.41025 0 100 -0.41025 1
gene 1 21 41 0.275412 0 101 0.275412 1
gene 1 21 42 2.1078 0 102 2.1078 1
gene 1 21 43 0.034894 0 103 0.034894 1
gene 1 21 44 0.462728 0 104 0.462728 1
gene 1 21 45 3.54824 0 105 3.54824 1
gene 1 22 41 0.801664 0 106 0.801664 1
gene 1 22 42 -2.56255 0 107 -2.56255 1
gene 1 22 43 1.85456 0 108 1.85456 1
gene 1 22 44 -0.0593405 0 109 -0.0593405 1
gene 1 22 45 -3.94241 0 110 -3.94241 1
gene 1 23 41 -2.79832 0 111 -2.79832 1
gene 1 23 42 -2.43385 0 112 -2.43385 1
gene 1 23 43 0.525257 0 113 0.525257 1
gene 1 23 44 2.4693 0 114 2.4693 1
gene 1 23 45 -0.862156 0 115 -0.862156 1
gene 1 24 41 3.03699 0 116 3.03699 1
gene 1 24 42 0.415006 0 117 0.415006 1
gene 1 24 43 -0.464107 0 118 -0.464107 1
gene 1 24 44 -0.553566 0 119 -0.553566 1
gene 1 24 45 0.8079 0 120 0.8079 1
gene 1 25 41 -4.00066 0 121 -4.00066 1
gene 1 25 42 2.13309 0 122 2.13309 1
gene 1 25 43 3.49968 0 123 3.49968 1
gene 1 25 44 -4.57716 0 124 -4.57716 1
gene 1 25 45 3.67883 0 125 3.67883 1
gene 1 26 41 -1.47411 0 126 -1.47411 1
gene 1 26 42 -4.16857 0 127 -4.16857 1
gene 1 26 43 1.70588 0 128 1.70588 1
gene 1 26 44 2.64205 0 129 2.64205 1
gene 1 26 45 2.31732 0 130 2.31732 1
gene 1 27 41 0.0902297 0 131 0.0902297 1
gene 1 27 42 0.849745 0 132 0.849745 1
gene 1 27 43 0.450398 0 133 0.450398 1
gene 1 27 44 -2.49121 0 134 -2.49121 1
gene 1 27 45 -0.419065 0 135 -0.419065 1
gene 1 28 41 -0.954643 0 136 -0.954643 1
gene 1 28 42 4.56227 0 137 4.56227 1
gene 1 28 43 1.62868 0 138 1.62868 1
gene 1 28 44 2.65437 0 139 2.65437 1
gene 1 28 45 0.378809 0 140 0.378809 1
gene 1 29 41 -1.88537 0 141 -1.88537 1
gene 1 29 42 1.4567 0 142 1.4567 1
gene 1 29 43 2.23865 0 143 2.23865 1
gene 1 29 44 3.00356 0 144 3.00356 1
gene 1 29 45 -0.341778 0 145 -0.341778 1
gene 1 30 41 -1.10645 0 146 -1.10645 1
gene 1 30 42 -2.78477 0 147 -2.78477 1
gene 1 30 43 -4.12161 0 148 -4.12161 1
gene 1 30 44 -0.233567 0 149 -0.233567 1
gene 1 30 45 0.571928 0 150 0.571928 1
gene 1 31 41 -1.55817 0 151 -1.55817 1
gene 1 31 42 -0.860346 0 152 -0.860346 1
gene 1 31 43 -2.89918 0 153 -2.89918 1
gene 1 31 44 4.0118 0 154 4.0118 1
gene 1 31 45 -4.09969 0 155 -4.09969 1
gene 1 32 41 -1.03492 0 156 -1.03492 1
gene 1 32 42 -4.52609 0 157 -4.52609 1
gene 1 32 43 -3.17018 0 158 -3.17018 1
gene 1 32 44 -2.70255 0 159 -2.70255 1
gene 1 32 45 4.03911 0 160 4.03911 1
gene 1 33 41 2.62656 0 161 2.62656 1
gene 1 33 42 -1.10802 0 162 -1.10802 1
gene 1 33 43 0.0462124 0 163 0.0462124 1
gene 1 33 44 1.56701 0 164 1.56701 1
gene 1 33 45 0.420552 0 165 0.420552 1
gene 1 34 41 -1.43104 0 166 -1.43104 1
gene 1 34 42 -0.505256 0 167 -0.505256 1
gene 1 34 43 0.5452 0 168 0.5452 1
gene 1 34 44 2.49411 0 169 2.49411 1
gene 1 34 45 -0.52903 0 170 -0.52903 1
gene 1 35 41 0.0261504 0 171 0.0261504 1
gene 1 35 42 -0.626548 0 172 -0.626548 1
gene 1 35 43 -0.121948 0 173 -0.121948 1
gene 1 35 44 -2.65518 0 174 -2.65518 1
gene 1 35 45 -0.175054 0 175 -0.175054 1
gene 1 36 41 -0.986986 0 176 -0.986986 1
gene 1 36 42 -1.81052 0 177 -1.81052 1
gene 1 36 43 -0.461958 0 178 -0.461958 1
gene 1 36 44 0.436281 0 179 0.436281 1
gene 1 36 45 -0.0094037 0 180 -0.0094037 1
gene 1 37 41 -0.340343 0 181 -0.340343 1
gene 1 37 42 0.369941 0 182 0.369941 1
gene 1 37 43 -0.682724 0 183 -0.682724 1
gene 1 37 44 -0.922357 0 184 -0.922357 1
gene 1 37 45 -0.915431 0 185 -0.915431 1
gene 1 38 41 -2.41839 0 186 -2.41839 1
gene 1 38 42 -0.491066 0 187 -0.491066 1
gene 1 38 43 -0.225103 0 188 -0.225103 1
gene 1 38 44 -0.736356 0 189 -0.736356 1
gene 1 38 45 0.15169 0 190 0.15169 1
gene 1 39 41 -0.419942 0 191 -0.419942 1
gene 1 39 42 0.498381 0 192 0.498381 1
gene 1 39 43 -1.10747 0 193 -1.10747 1
gene 1 39 44 -1.50713 0 194 -1.50713 1
gene 1 39 45 0.115952 0 195 0.115952 1
gene 1 40 41 -4.20713 0 196 -4.20713 1
gene 1 40 42 -1.01745 0 197 -1.01745 1
gene 1 40 43 -1.13659 0 198 -1.13659 1
gene 1 40 44 0.467941 0 199 0.467941 1
gene 1 40 45 -1.97269 0 200 -1.97269 1
genomeend 0


