/* Organism #95 Fitness: 9291.100000 Time: 0 */
genomestart 95
trait 1 0.100000 0.276914 0.569271 0.141693 1.000000 0.827116 0.000000 0.000000 
node 1 1 1 1
node 2 1 1 1
node 3 1 1 1
node 4 1 1 1
node 5 1 1 1
node 6 1 1 1
node 7 1 1 1
node 8 1 1 1
node 9 1 1 1
node 10 1 1 1
node 11 1 1 1
node 12 1 1 1
node 13 1 1 1
node 14 1 1 1
node 15 1 1 1
node 16 1 1 1
node 17 1 1 1
node 18 1 1 1
node 19 1 1 1
node 20 1 1 1
node 21 1 1 1
node 22 1 1 1
node 23 1 1 1
node 24 1 1 1
node 25 1 1 1
node 26 1 1 1
node 27 1 1 1
node 28 1 1 1
node 29 1 1 1
node 30 1 1 3
node 31 1 0 2
node 32 1 0 2
node 33 1 0 2
gene 1 1 31 -2.33163 0 1 -2.33163 1
gene 1 1 32 -3.90312 0 2 -3.90312 1
gene 1 1 33 4.80477 0 3 4.80477 1
gene 1 2 31 -1.05096 0 4 -1.05096 1
gene 1 2 32 -0.344048 0 5 -0.344048 1
gene 1 2 33 0.17514 0 6 0.17514 1
gene 1 3 31 0.0262271 0 7 0.0262271 1
gene 1 3 32 -0.262229 0 8 -0.262229 1
gene 1 3 33 -1.20774 0 9 -1.20774 1
gene 1 4 31 -1.0996 0 10 -1.0996 1
gene 1 4 32 0.408145 0 11 0.408145 1
gene 1 4 33 0.84932 0 12 0.84932 1
gene 1 5 31 -2.24249 0 13 -2.24249 1
gene 1 5 32 4.35328 0 14 4.35328 1
gene 1 5 33 0.344816 0 15 0.344816 1
gene 1 6 31 -0.588407 0 16 -0.588407 1
gene 1 6 32 -1.38815 0 17 -1.38815 1
gene 1 6 33 1.55561 0 18 1.55561 1
gene 1 7 31 0.975293 0 19 0.975293 1
gene 1 7 32 -0.722124 0 20 -0.722124 1
gene 1 7 33 1.05044 0 21 1.05044 1
gene 1 8 31 1.90698 0 22 1.90698 1
gene 1 8 32 -3.8966 0 23 -3.8966 1
gene 1 8 33 -0.454451 0 24 -0.454451 1
gene 1 9 31 -0.944599 0 25 -0.944599 1
gene 1 9 32 3.55609 0 26 3.55609 1
gene 1 9 33 0.716644 0 27 0.716644 1
gene 1 10 31 -3.43308 0 28 -3.43308 1
gene 1 10 32 1.86472 0 29 1.86472 1
gene 1 10 33 0.506454 0 30 0.506454 1
gene 1 11 31 -5 0 31 -5 1
gene 1 11 32 0.567559 0 32 0.567559 1
gene 1 11 33 0.823745 0 33 0.823745 1
gene 1 12 31 -2.56973 0 34 -2.56973 1
gene 1 12 32 1.20589 0 35 1.20589 1
gene 1 12 33 1.82876 0 36 1.82876 1
gene 1 13 31 -3.99427 0 37 -3.99427 1
gene 1 13 32 -3.08427 0 38 -3.08427 1
gene 1 13 33 -0.661567 0 39 -0.661567 1
gene 1 14 31 -0.450143 0 40 -0.450143 1
gene 1 14 32 -0.368206 0 41 -0.368206 1
gene 1 14 33 0.22071 0 42 0.22071 1
gene 1 15 31 2.08698 0 43 2.08698 1
gene 1 15 32 1.04624 0 44 1.04624 1
gene 1 15 33 -0.727961 0 45 -0.727961 1
gene 1 16 31 2.31646 0 46 2.31646 1
gene 1 16 32 1.89744 0 47 1.89744 1
gene 1 16 33 -0.432184 0 48 -0.432184 1
gene 1 17 31 0.498967 0 49 0.498967 1
gene 1 17 32 4.92296 0 50 4.92296 1
gene 1 17 33 -0.927706 0 51 -0.927706 1
gene 1 18 31 3.77502 0 52 3.77502 1
gene 1 18 32 0.590861 0 53 0.590861 1
gene 1 18 33 -2.9759 0 54 -2.9759 1
gene 1 19 31 -0.679123 0 55 -0.679123 1
gene 1 19 32 0.9089 0 56 0.9089 1
gene 1 19 33 -2.51037 0 57 -2.51037 1
gene 1 20 31 -2.08171 0 58 -2.08171 1
gene 1 20 32 0.841542 0 59 0.841542 1
gene 1 20 33 2.17542 0 60 2.17542 1
gene 1 21 31 -1.97014 0 61 -1.97014 1
gene 1 21 32 -1.84191 0 62 -1.84191 1
gene 1 21 33 2.81345 0 63 2.81345 1
gene 1 22 31 1.74618 0 64 1.74618 1
gene 1 22 32 3.35893 0 65 3.35893 1
gene 1 22 33 -1.13763 0 66 -1.13763 1
gene 1 23 31 2.35179 0 67 2.35179 1
gene 1 23 32 2.56032 0 68 2.56032 1
gene 1 23 33 0.62505 0 69 0.62505 1
gene 1 24 31 0.451955 0 70 0.451955 1
gene 1 24 32 -3.42113 0 71 -3.42113 1
gene 1 24 33 0.114996 0 72 0.114996 1
gene 1 25 31 1.04648 0 73 1.04648 1
gene 1 25 32 0.0869088 0 74 0.0869088 1
gene 1 25 33 0.912334 0 75 0.912334 1
gene 1 26 31 0.42992 0 76 0.42992 1
gene 1 26 32 -0.771895 0 77 -0.771895 1
gene 1 26 33 0.559454 0 78 0.559454 1
gene 1 27 31 -1.57133 0 79 -1.57133 1
gene 1 27 32 -0.357502 0 80 -0.357502 1
gene 1 27 33 0.960618 0 81 0.960618 1
gene 1 28 31 0.230291 0 82 0.230291 1
gene 1 28 32 -0.598638 0 83 -0.598638 1
gene 1 28 33 -0.178478 0 84 -0.178478 1
gene 1 29 31 0.764552 0 85 0.764552 1
gene 1 29 32 -0.782362 0 86 -0.782362 1
gene 1 29 33 2.46621 0 87 2.46621 1
gene 1 30 31 0.936638 0 88 0.936638 1
gene 1 30 32 -1.20676 0 89 -1.20676 1
gene 1 30 33 0.857887 0 90 0.857887 1
genomeend 95


