/* Organism #13 Fitness: 10736.580000 Time: 0 */
genomestart 13
trait 1 0.905741 0.000000 0.339920 0.349498 0.590305 0.827116 1.000000 0.000000 
node 1 1 1 1
node 2 1 1 1
node 3 1 1 1
node 4 1 1 1
node 5 1 1 1
node 6 1 1 1
node 7 1 1 1
node 8 1 1 1
node 9 1 1 1
node 10 1 1 1
node 11 1 1 1
node 12 1 1 1
node 13 1 1 1
node 14 1 1 1
node 15 1 1 1
node 16 1 1 1
node 17 1 1 1
node 18 1 1 1
node 19 1 1 1
node 20 1 1 1
node 21 1 1 1
node 22 1 1 1
node 23 1 1 1
node 24 1 1 1
node 25 1 1 1
node 26 1 1 1
node 27 1 1 1
node 28 1 1 1
node 29 1 1 1
node 30 1 1 3
node 31 1 0 2
node 32 1 0 2
node 33 1 0 2
gene 1 1 31 -1.71326 0 1 -1.71326 1
gene 1 1 32 -1.5479 0 2 -1.5479 1
gene 1 1 33 0.0513502 0 3 0.0513502 1
gene 1 2 31 -3.74817 0 4 -3.74817 1
gene 1 2 32 1.25334 0 5 1.25334 1
gene 1 2 33 0.287436 0 6 0.287436 1
gene 1 3 31 1.34132 0 7 1.34132 1
gene 1 3 32 1.99897 0 8 1.99897 1
gene 1 3 33 -0.607194 0 9 -0.607194 1
gene 1 4 31 -1.5699 0 10 -1.5699 1
gene 1 4 32 0.632374 0 11 0.632374 1
gene 1 4 33 0.313768 0 12 0.313768 1
gene 1 5 31 -0.461094 0 13 -0.461094 1
gene 1 5 32 5 0 14 5 1
gene 1 5 33 1.21429 0 15 1.21429 1
gene 1 6 31 0.22554 0 16 0.22554 1
gene 1 6 32 -1.78276 0 17 -1.78276 1
gene 1 6 33 0.427652 0 18 0.427652 1
gene 1 7 31 -5 0 19 -5 1
gene 1 7 32 2.66695 0 20 2.66695 1
gene 1 7 33 -1.33973 0 21 -1.33973 1
gene 1 8 31 3.13965 0 22 3.13965 1
gene 1 8 32 -0.473284 0 23 -0.473284 1
gene 1 8 33 -0.417096 0 24 -0.417096 1
gene 1 9 31 0.204056 0 25 0.204056 1
gene 1 9 32 1.51894 0 26 1.51894 1
gene 1 9 33 -1.53489 0 27 -1.53489 1
gene 1 10 31 1.10186 0 28 1.10186 1
gene 1 10 32 4.60849 0 29 4.60849 1
gene 1 10 33 1.38482 0 30 1.38482 1
gene 1 11 31 -3.00866 0 31 -3.00866 1
gene 1 11 32 0.120463 0 32 0.120463 1
gene 1 11 33 2.16237 0 33 2.16237 1
gene 1 12 31 2.51555 0 34 2.51555 1
gene 1 12 32 -0.89107 0 35 -0.89107 1
gene 1 12 33 -1.34505 0 36 -1.34505 1
gene 1 13 31 -1.05212 0 37 -1.05212 1
gene 1 13 32 -0.921198 0 38 -0.921198 1
gene 1 13 33 -0.0466578 0 39 -0.0466578 1
gene 1 14 31 1.89593 0 40 1.89593 1
gene 1 14 32 -2.64067 0 41 -2.64067 1
gene 1 14 33 0.503899 0 42 0.503899 1
gene 1 15 31 4.04308 0 43 4.04308 1
gene 1 15 32 -1.88088 0 44 -1.88088 1
gene 1 15 33 1.39933 0 45 1.39933 1
gene 1 16 31 3.6964 0 46 3.6964 1
gene 1 16 32 -0.572215 0 47 -0.572215 1
gene 1 16 33 -3.46395 0 48 -3.46395 1
gene 1 17 31 1.45185 0 49 1.45185 1
gene 1 17 32 3.31255 0 50 3.31255 1
gene 1 17 33 -3.07011 0 51 -3.07011 1
gene 1 18 31 0.575242 0 52 0.575242 1
gene 1 18 32 -1.12974 0 53 -1.12974 1
gene 1 18 33 -0.584308 0 54 -0.584308 1
gene 1 19 31 -1.27752 0 55 -1.27752 1
gene 1 19 32 -0.569212 0 56 -0.569212 1
gene 1 19 33 -4.16173 0 57 -4.16173 1
gene 1 20 31 -0.79647 0 58 -0.79647 1
gene 1 20 32 -0.757606 0 59 -0.757606 1
gene 1 20 33 1.18685 0 60 1.18685 1
gene 1 21 31 0.0942789 0 61 0.0942789 1
gene 1 21 32 1.48762 0 62 1.48762 1
gene 1 21 33 0.302899 0 63 0.302899 1
gene 1 22 31 3.96254 0 64 3.96254 1
gene 1 22 32 -0.415675 0 65 -0.415675 1
gene 1 22 33 -1.31423 0 66 -1.31423 1
gene 1 23 31 0.111454 0 67 0.111454 1
gene 1 23 32 1.13948 0 68 1.13948 1
gene 1 23 33 -1.49678 0 69 -1.49678 1
gene 1 24 31 -1.65429 0 70 -1.65429 1
gene 1 24 32 0.130267 0 71 0.130267 1
gene 1 24 33 2.18634 0 72 2.18634 1
gene 1 25 31 -2.87411 0 73 -2.87411 1
gene 1 25 32 0.271081 0 74 0.271081 1
gene 1 25 33 1.08008 0 75 1.08008 1
gene 1 26 31 -1.07062 0 76 -1.07062 1
gene 1 26 32 -0.523247 0 77 -0.523247 1
gene 1 26 33 -0.0929083 0 78 -0.0929083 1
gene 1 27 31 0.311554 0 79 0.311554 1
gene 1 27 32 0.306101 0 80 0.306101 1
gene 1 27 33 -1.13716 0 81 -1.13716 1
gene 1 28 31 4.06157 0 82 4.06157 1
gene 1 28 32 0.854078 0 83 0.854078 1
gene 1 28 33 -2.01083 0 84 -2.01083 1
gene 1 29 31 -0.960678 0 85 -0.960678 1
gene 1 29 32 0.866599 0 86 0.866599 1
gene 1 29 33 1.26446 0 87 1.26446 1
gene 1 30 31 0.408625 0 88 0.408625 1
gene 1 30 32 0.251458 0 89 0.251458 1
gene 1 30 33 -0.817622 0 90 -0.817622 1
genomeend 13


