/* Organism #1 Fitness: 14575.600000 Time: 0 */
genomestart 1
trait 1 0.000000 0.700748 1.000000 0.250612 0.285649 0.457612 0.801643 1.000000 
node 1 1 1 1
node 2 1 1 1
node 3 1 1 1
node 4 1 1 1
node 5 1 1 1
node 6 1 1 1
node 7 1 1 1
node 8 1 1 1
node 9 1 1 1
node 10 1 1 1
node 11 1 1 1
node 12 1 1 1
node 13 1 1 1
node 14 1 1 1
node 15 1 1 1
node 16 1 1 1
node 17 1 1 1
node 18 1 1 1
node 19 1 1 1
node 20 1 1 1
node 21 1 1 1
node 22 1 1 1
node 23 1 1 1
node 24 1 1 1
node 25 1 1 1
node 26 1 1 1
node 27 1 1 1
node 28 1 1 1
node 29 1 1 1
node 30 1 1 3
node 31 1 0 2
node 32 1 0 2
node 33 1 0 2
gene 1 1 31 -4.39782 0 1 -4.39782 1
gene 1 1 32 -1.45319 0 2 -1.45319 1
gene 1 1 33 -1.25592 0 3 -1.25592 1
gene 1 2 31 -4.11242 0 4 -4.11242 1
gene 1 2 32 0.103851 0 5 0.103851 1
gene 1 2 33 4.66763 0 6 4.66763 1
gene 1 3 31 -1.60358 0 7 -1.60358 1
gene 1 3 32 1.48757 0 8 1.48757 1
gene 1 3 33 -5 0 9 -5 1
gene 1 4 31 1.75315 0 10 1.75315 1
gene 1 4 32 0.735826 0 11 0.735826 1
gene 1 4 33 -0.975538 0 12 -0.975538 1
gene 1 5 31 3.17162 0 13 3.17162 1
gene 1 5 32 -0.592168 0 14 -0.592168 1
gene 1 5 33 -1.86054 0 15 -1.86054 1
gene 1 6 31 1.644 0 16 1.644 1
gene 1 6 32 -1.40365 0 17 -1.40365 1
gene 1 6 33 -1.00665 0 18 -1.00665 1
gene 1 7 31 4.30249 0 19 4.30249 1
gene 1 7 32 3.04455 0 20 3.04455 1
gene 1 7 33 -4.76973 0 21 -4.76973 1
gene 1 8 31 0.705623 0 22 0.705623 1
gene 1 8 32 -3.9912 0 23 -3.9912 1
gene 1 8 33 5 0 24 5 1
gene 1 9 31 3.80285 0 25 3.80285 1
gene 1 9 32 5 0 26 5 1
gene 1 9 33 -0.623523 0 27 -0.623523 1
gene 1 10 31 -0.880098 0 28 -0.880098 1
gene 1 10 32 2.21768 0 29 2.21768 1
gene 1 10 33 4.00583 0 30 4.00583 1
gene 1 11 31 -3.61769 0 31 -3.61769 1
gene 1 11 32 -5 0 32 -5 1
gene 1 11 33 4.18012 0 33 4.18012 1
gene 1 12 31 1.42188 0 34 1.42188 1
gene 1 12 32 -3.67786 0 35 -3.67786 1
gene 1 12 33 2.62132 0 36 2.62132 1
gene 1 13 31 0.947562 0 37 0.947562 1
gene 1 13 32 -0.699601 0 38 -0.699601 1
gene 1 13 33 -2.71493 0 39 -2.71493 1
gene 1 14 31 -2.07399 0 40 -2.07399 1
gene 1 14 32 0.859942 0 41 0.859942 1
gene 1 14 33 0.0423291 0 42 0.0423291 1
gene 1 15 31 0.927145 0 43 0.927145 1
gene 1 15 32 -5 0 44 -5 1
gene 1 15 33 -3.31985 0 45 -3.31985 1
gene 1 16 31 0.935726 0 46 0.935726 1
gene 1 16 32 0.521558 0 47 0.521558 1
gene 1 16 33 -0.101161 0 48 -0.101161 1
gene 1 17 31 -0.812773 0 49 -0.812773 1
gene 1 17 32 -4.32998 0 50 -4.32998 1
gene 1 17 33 -2.4462 0 51 -2.4462 1
gene 1 18 31 -3.7423 0 52 -3.7423 1
gene 1 18 32 -3.6762 0 53 -3.6762 1
gene 1 18 33 1.3831 0 54 1.3831 1
gene 1 19 31 -1.10582 0 55 -1.10582 1
gene 1 19 32 -4.36382 0 56 -4.36382 1
gene 1 19 33 -5 0 57 -5 1
gene 1 20 31 -0.474324 0 58 -0.474324 1
gene 1 20 32 1.82202 0 59 1.82202 1
gene 1 20 33 -1.03556 0 60 -1.03556 1
gene 1 21 31 -2.76257 0 61 -2.76257 1
gene 1 21 32 0.968069 0 62 0.968069 1
gene 1 21 33 -3.0489 0 63 -3.0489 1
gene 1 22 31 -5 0 64 -5 1
gene 1 22 32 -5 0 65 -5 1
gene 1 22 33 5 0 66 5 1
gene 1 23 31 -2.70784 0 67 -2.70784 1
gene 1 23 32 4.79145 0 68 4.79145 1
gene 1 23 33 -5 0 69 -5 1
gene 1 24 31 -4.7816 0 70 -4.7816 1
gene 1 24 32 1.35049 0 71 1.35049 1
gene 1 24 33 -0.961598 0 72 -0.961598 1
gene 1 25 31 -1.92834 0 73 -1.92834 1
gene 1 25 32 2.02435 0 74 2.02435 1
gene 1 25 33 -1.5692 0 75 -1.5692 1
gene 1 26 31 0.932616 0 76 0.932616 1
gene 1 26 32 1.16862 0 77 1.16862 1
gene 1 26 33 1.25073 0 78 1.25073 1
gene 1 27 31 -0.134777 0 79 -0.134777 1
gene 1 27 32 0.247949 0 80 0.247949 1
gene 1 27 33 -0.540053 0 81 -0.540053 1
gene 1 28 31 0.872274 0 82 0.872274 1
gene 1 28 32 -0.278589 0 83 -0.278589 1
gene 1 28 33 -0.879216 0 84 -0.879216 1
gene 1 29 31 -0.204337 0 85 -0.204337 1
gene 1 29 32 0.366556 0 86 0.366556 1
gene 1 29 33 0.579853 0 87 0.579853 1
gene 1 30 31 -0.173841 0 88 -0.173841 1
gene 1 30 32 0.215782 0 89 0.215782 1
gene 1 30 33 -0.581509 0 90 -0.581509 1
genomeend 1


