/* Organism #6 Fitness: 16863.794000 Time: 0 */
genomestart 6
trait 1 0.655004 0.000000 0.000000 0.000000 0.000000 0.000000 0.000000 0.000000 
node 1 1 1 1
node 2 1 1 1
node 3 1 1 1
node 4 1 1 1
node 5 1 1 1
node 6 1 1 1
node 7 1 1 1
node 8 1 1 1
node 9 1 1 1
node 10 1 1 1
node 11 1 1 1
node 12 1 1 1
node 13 1 1 1
node 14 1 1 1
node 15 1 1 1
node 16 1 1 1
node 17 1 1 1
node 18 1 1 1
node 19 1 1 1
node 20 1 1 1
node 21 1 1 1
node 22 1 1 1
node 23 1 1 1
node 24 1 1 1
node 25 1 1 1
node 26 1 1 1
node 27 1 1 1
node 28 1 1 3
node 29 1 0 2
node 30 1 0 2
node 31 1 0 2
node 32 1 0 2
node 33 1 0 2
gene 1 1 29 2.1625 0 1 2.1625 1
gene 1 1 30 -0.629003 0 2 -0.629003 1
gene 1 1 31 -2.20857 0 3 -2.20857 1
gene 1 1 32 1.02591 0 4 1.02591 1
gene 1 1 33 0.207672 0 5 0.207672 1
gene 1 2 29 -2.02663 0 6 -2.02663 1
gene 1 2 30 0.324718 0 7 0.324718 1
gene 1 2 31 0.167773 0 8 0.167773 1
gene 1 2 32 2.93591 0 9 2.93591 1
gene 1 2 33 -0.289607 0 10 -0.289607 1
gene 1 3 29 1.0446 0 11 1.0446 1
gene 1 3 30 0.357425 0 12 0.357425 1
gene 1 3 31 -0.741721 0 13 -0.741721 1
gene 1 3 32 1.29372 0 14 1.29372 1
gene 1 3 33 -0.436822 0 15 -0.436822 1
gene 1 4 29 0.0226494 0 16 0.0226494 1
gene 1 4 30 1.1836 0 17 1.1836 1
gene 1 4 31 1.18196 0 18 1.18196 1
gene 1 4 32 -0.541912 0 19 -0.541912 1
gene 1 4 33 -0.156053 0 20 -0.156053 1
gene 1 5 29 3.52315 0 21 3.52315 1
gene 1 5 30 -0.167248 0 22 -0.167248 1
gene 1 5 31 2.44288 0 23 2.44288 1
gene 1 5 32 1.46849 0 24 1.46849 1
gene 1 5 33 1.50185 0 25 1.50185 1
gene 1 6 29 -1.02182 0 26 -1.02182 1
gene 1 6 30 1.05815 0 27 1.05815 1
gene 1 6 31 0.779197 0 28 0.779197 1
gene 1 6 32 0.29759 0 29 0.29759 1
gene 1 6 33 0.127438 0 30 0.127438 1
gene 1 7 29 -2.20409 0 31 -2.20409 1
gene 1 7 30 0.88363 0 32 0.88363 1
gene 1 7 31 0.898488 0 33 0.898488 1
gene 1 7 32 -0.553532 0 34 -0.553532 1
gene 1 7 33 2.83503 0 35 2.83503 1
gene 1 8 29 -0.0650274 0 36 -0.0650274 1
gene 1 8 30 -1.92535 0 37 -1.92535 1
gene 1 8 31 2.02335 0 38 2.02335 1
gene 1 8 32 2.04867 0 39 2.04867 1
gene 1 8 33 2.59617 0 40 2.59617 1
gene 1 9 29 -0.756382 0 41 -0.756382 1
gene 1 9 30 -0.596407 0 42 -0.596407 1
gene 1 9 31 0.856241 0 43 0.856241 1
gene 1 9 32 0.0794194 0 44 0.0794194 1
gene 1 9 33 1.39817 0 45 1.39817 1
gene 1 10 29 -0.267956 0 46 -0.267956 1
gene 1 10 30 1.99649 0 47 1.99649 1
gene 1 10 31 -2.73096 0 48 -2.73096 1
gene 1 10 32 -0.0742247 0 49 -0.0742247 1
gene 1 10 33 0.616328 0 50 0.616328 1
gene 1 11 29 -2.20376 0 51 -2.20376 1
gene 1 11 30 2.01746 0 52 2.01746 1
gene 1 11 31 -2.85559 0 53 -2.85559 1
gene 1 11 32 0.0329009 0 54 0.0329009 1
gene 1 11 33 0.384717 0 55 0.384717 1
gene 1 12 29 -1.04728 0 56 -1.04728 1
gene 1 12 30 -0.68718 0 57 -0.68718 1
gene 1 12 31 1.49623 0 58 1.49623 1
gene 1 12 32 0.125341 0 59 0.125341 1
gene 1 12 33 -0.510788 0 60 -0.510788 1
gene 1 13 29 -1.37397 0 61 -1.37397 1
gene 1 13 30 0.00914429 0 62 0.00914429 1
gene 1 13 31 -0.198577 0 63 -0.198577 1
gene 1 13 32 -0.362821 0 64 -0.362821 1
gene 1 13 33 -0.813032 0 65 -0.813032 1
gene 1 14 29 5 0 66 5 1
gene 1 14 30 -5 0 67 -5 1
gene 1 14 31 -1.39824 0 68 -1.39824 1
gene 1 14 32 1.6791 0 69 1.6791 1
gene 1 14 33 -0.252924 0 70 -0.252924 1
gene 1 15 29 3.08627 0 71 3.08627 1
gene 1 15 30 -3.37289 0 72 -3.37289 1
gene 1 15 31 -0.943001 0 73 -0.943001 1
gene 1 15 32 1.63137 0 74 1.63137 1
gene 1 15 33 0.346889 0 75 0.346889 1
gene 1 16 29 2.30686 0 76 2.30686 1
gene 1 16 30 2.22995 0 77 2.22995 1
gene 1 16 31 -0.850428 0 78 -0.850428 1
gene 1 16 32 1.07019 0 79 1.07019 1
gene 1 16 33 -0.910277 0 80 -0.910277 1
gene 1 17 29 -1.37836 0 81 -1.37836 1
gene 1 17 30 -0.833839 0 82 -0.833839 1
gene 1 17 31 0.0790156 0 83 0.0790156 1
gene 1 17 32 2.58168 0 84 2.58168 1
gene 1 17 33 0.447832 0 85 0.447832 1
gene 1 18 29 2.15135 0 86 2.15135 1
gene 1 18 30 -0.0612309 0 87 -0.0612309 1
gene 1 18 31 0.140881 0 88 0.140881 1
gene 1 18 32 0.018167 0 89 0.018167 1
gene 1 18 33 1.91682 0 90 1.91682 1
gene 1 19 29 -0.403327 0 91 -0.403327 1
gene 1 19 30 -1.79848 0 92 -1.79848 1
gene 1 19 31 0.537187 0 93 0.537187 1
gene 1 19 32 -0.502128 0 94 -0.502128 1
gene 1 19 33 0.701359 0 95 0.701359 1
gene 1 20 29 -0.378503 0 96 -0.378503 1
gene 1 20 30 1.71022 0 97 1.71022 1
gene 1 20 31 0.0911391 0 98 0.0911391 1
gene 1 20 32 -0.691385 0 99 -0.691385 1
gene 1 20 33 -1.71304 0 100 -1.71304 1
gene 1 21 29 -3.30743 0 101 -3.30743 1
gene 1 21 30 -3.45431 0 102 -3.45431 1
gene 1 21 31 -0.478867 0 103 -0.478867 1
gene 1 21 32 2.37342 0 104 2.37342 1
gene 1 21 33 1.69186 0 105 1.69186 1
gene 1 22 29 1.53925 0 106 1.53925 1
gene 1 22 30 -0.840629 0 107 -0.840629 1
gene 1 22 31 -0.980016 0 108 -0.980016 1
gene 1 22 32 -0.0966053 0 109 -0.0966053 1
gene 1 22 33 0.818192 0 110 0.818192 1
gene 1 23 29 0.270175 0 111 0.270175 1
gene 1 23 30 -0.311167 0 112 -0.311167 1
gene 1 23 31 1.37855 0 113 1.37855 1
gene 1 23 32 0.447095 0 114 0.447095 1
gene 1 23 33 -0.871806 0 115 -0.871806 1
gene 1 24 29 0.356491 0 116 0.356491 1
gene 1 24 30 0.683077 0 117 0.683077 1
gene 1 24 31 0.951878 0 118 0.951878 1
gene 1 24 32 -0.0598831 0 119 -0.0598831 1
gene 1 24 33 -2.59664 0 120 -2.59664 1
gene 1 25 29 -3.92611 0 121 -3.92611 1
gene 1 25 30 -4.19086 0 122 -4.19086 1
gene 1 25 31 -0.726541 0 123 -0.726541 1
gene 1 25 32 -1.17452 0 124 -1.17452 1
gene 1 25 33 0.177766 0 125 0.177766 1
gene 1 26 29 -0.0657623 0 126 -0.0657623 1
gene 1 26 30 -0.402199 0 127 -0.402199 1
gene 1 26 31 -0.362228 0 128 -0.362228 1
gene 1 26 32 0.00675548 0 129 0.00675548 1
gene 1 26 33 -0.807755 0 130 -0.807755 1
gene 1 27 29 -0.966537 0 131 -0.966537 1
gene 1 27 30 -0.334308 0 132 -0.334308 1
gene 1 27 31 -1.00992 0 133 -1.00992 1
gene 1 27 32 -0.472887 0 134 -0.472887 1
gene 1 27 33 0.762218 0 135 0.762218 1
gene 1 28 29 0.890268 0 136 0.890268 1
gene 1 28 30 2.29287 0 137 2.29287 1
gene 1 28 31 -0.38792 0 138 -0.38792 1
gene 1 28 32 0.484287 0 139 0.484287 1
gene 1 28 33 -0.0828171 0 140 -0.0828171 1
genomeend 6


