/* Organism #68 Fitness: 35512.700000 Time: 0 */
genomestart 68
trait 1 1.000000 1.000000 0.000000 0.000000 1.000000 0.000000 0.407956 1.000000 
node 1 1 1 1
node 2 1 1 1
node 3 1 1 1
node 4 1 1 1
node 5 1 1 1
node 6 1 1 1
node 7 1 1 1
node 8 1 1 1
node 9 1 1 1
node 10 1 1 1
node 11 1 1 1
node 12 1 1 1
node 13 1 1 1
node 14 1 1 1
node 15 1 1 1
node 16 1 1 1
node 17 1 1 1
node 18 1 1 1
node 19 1 1 1
node 20 1 1 1
node 21 1 1 1
node 22 1 1 1
node 23 1 1 1
node 24 1 1 1
node 25 1 1 1
node 26 1 1 1
node 27 1 1 1
node 28 1 1 1
node 29 1 1 1
node 30 1 1 3
node 31 1 0 2
node 32 1 0 2
node 33 1 0 2
gene 1 1 31 0.333262 0 1 0.333262 1
gene 1 1 32 -0.777083 0 2 -0.777083 1
gene 1 1 33 0.380135 0 3 0.380135 1
gene 1 2 31 0.767888 0 4 0.767888 1
gene 1 2 32 5 0 5 5 1
gene 1 2 33 -1.2024 0 6 -1.2024 1
gene 1 3 31 0.0197016 0 7 0.0197016 1
gene 1 3 32 0.710585 0 8 0.710585 1
gene 1 3 33 1.61875 0 9 1.61875 1
gene 1 4 31 -2.22922 0 10 -2.22922 1
gene 1 4 32 1.03325 0 11 1.03325 1
gene 1 4 33 1.83428 0 12 1.83428 1
gene 1 5 31 -0.0339521 0 13 -0.0339521 1
gene 1 5 32 -1.77307 0 14 -1.77307 1
gene 1 5 33 -0.728356 0 15 -0.728356 1
gene 1 6 31 -0.459913 0 16 -0.459913 1
gene 1 6 32 -4.84596 0 17 -4.84596 1
gene 1 6 33 1.27624 0 18 1.27624 1
gene 1 7 31 1.13744 0 19 1.13744 1
gene 1 7 32 0.628817 0 20 0.628817 1
gene 1 7 33 0.286395 0 21 0.286395 1
gene 1 8 31 1.32316 0 22 1.32316 1
gene 1 8 32 0.0860672 0 23 0.0860672 1
gene 1 8 33 0.820741 0 24 0.820741 1
gene 1 9 31 0.556861 0 25 0.556861 1
gene 1 9 32 -0.0840942 0 26 -0.0840942 1
gene 1 9 33 0.110532 0 27 0.110532 1
gene 1 10 31 1.11467 0 28 1.11467 1
gene 1 10 32 0.917535 0 29 0.917535 1
gene 1 10 33 0.54817 0 30 0.54817 1
gene 1 11 31 0.943546 0 31 0.943546 1
gene 1 11 32 -2.31881 0 32 -2.31881 1
gene 1 11 33 -0.0286711 0 33 -0.0286711 1
gene 1 12 31 1.9317 0 34 1.9317 1
gene 1 12 32 3.25453 0 35 3.25453 1
gene 1 12 33 0.212612 0 36 0.212612 1
gene 1 13 31 0.567731 0 37 0.567731 1
gene 1 13 32 -1.40177 0 38 -1.40177 1
gene 1 13 33 -0.163212 0 39 -0.163212 1
gene 1 14 31 2.79516 0 40 2.79516 1
gene 1 14 32 0.0746739 0 41 0.0746739 1
gene 1 14 33 -0.355016 0 42 -0.355016 1
gene 1 15 31 -2.90125 0 43 -2.90125 1
gene 1 15 32 2.11756 0 44 2.11756 1
gene 1 15 33 -1.0177 0 45 -1.0177 1
gene 1 16 31 -3.68186 0 46 -3.68186 1
gene 1 16 32 -1.60561 0 47 -1.60561 1
gene 1 16 33 -1.64674 0 48 -1.64674 1
gene 1 17 31 -5 0 49 -5 1
gene 1 17 32 3.38675 0 50 3.38675 1
gene 1 17 33 0.250612 0 51 0.250612 1
gene 1 18 31 -5 0 52 -5 1
gene 1 18 32 -3.05382 0 53 -3.05382 1
gene 1 18 33 0.943231 0 54 0.943231 1
gene 1 19 31 -2.05176 0 55 -2.05176 1
gene 1 19 32 -3.97297 0 56 -3.97297 1
gene 1 19 33 0.321103 0 57 0.321103 1
gene 1 20 31 5 0 58 5 1
gene 1 20 32 0.941622 0 59 0.941622 1
gene 1 20 33 2.06067 0 60 2.06067 1
gene 1 21 31 -4.22567 0 61 -4.22567 1
gene 1 21 32 0.768644 0 62 0.768644 1
gene 1 21 33 -1.08472 0 63 -1.08472 1
gene 1 22 31 1.57995 0 64 1.57995 1
gene 1 22 32 0.352015 0 65 0.352015 1
gene 1 22 33 0.135611 0 66 0.135611 1
gene 1 23 31 0.783875 0 67 0.783875 1
gene 1 23 32 0.20029 0 68 0.20029 1
gene 1 23 33 1.88174 0 69 1.88174 1
gene 1 24 31 -0.288689 0 70 -0.288689 1
gene 1 24 32 -0.887898 0 71 -0.887898 1
gene 1 24 33 -0.529549 0 72 -0.529549 1
gene 1 25 31 -2.57239 0 73 -2.57239 1
gene 1 25 32 0.328535 0 74 0.328535 1
gene 1 25 33 -2.39394 0 75 -2.39394 1
gene 1 26 31 -0.924647 0 76 -0.924647 1
gene 1 26 32 -0.967234 0 77 -0.967234 1
gene 1 26 33 0.491822 0 78 0.491822 1
gene 1 27 31 -0.999128 0 79 -0.999128 1
gene 1 27 32 -0.839316 0 80 -0.839316 1
gene 1 27 33 -0.258129 0 81 -0.258129 1
gene 1 28 31 -1.73507 0 82 -1.73507 1
gene 1 28 32 1.71766 0 83 1.71766 1
gene 1 28 33 -1.74354 0 84 -1.74354 1
gene 1 29 31 0.489663 0 85 0.489663 1
gene 1 29 32 -1.28439 0 86 -1.28439 1
gene 1 29 33 2.7126 0 87 2.7126 1
gene 1 30 31 -0.59873 0 88 -0.59873 1
gene 1 30 32 -3.33392 0 89 -3.33392 1
gene 1 30 33 0.0863848 0 90 0.0863848 1
genomeend 68


