/* Organism #4 Fitness: 17116.670000 Time: 0 */
genomestart 4
trait 1 0.000000 1.000000 0.000000 0.208884 0.000000 0.502373 0.769617 0.000000 
node 1 1 1 1
node 2 1 1 1
node 3 1 1 1
node 4 1 1 1
node 5 1 1 1
node 6 1 1 1
node 7 1 1 1
node 8 1 1 1
node 9 1 1 1
node 10 1 1 1
node 11 1 1 1
node 12 1 1 1
node 13 1 1 1
node 14 1 1 1
node 15 1 1 1
node 16 1 1 1
node 17 1 1 1
node 18 1 1 1
node 19 1 1 1
node 20 1 1 1
node 21 1 1 1
node 22 1 1 1
node 23 1 1 1
node 24 1 1 1
node 25 1 1 1
node 26 1 1 3
node 27 1 0 2
node 28 1 0 2
node 29 1 0 2
gene 1 1 27 -2.83645 0 1 -2.83645 1
gene 1 1 28 -2.92194 0 2 -2.92194 1
gene 1 1 29 4.3353 0 3 4.3353 1
gene 1 2 27 -1.21922 0 4 -1.21922 1
gene 1 2 28 0.0437249 0 5 0.0437249 1
gene 1 2 29 0.790722 0 6 0.790722 1
gene 1 3 27 2.15328 0 7 2.15328 1
gene 1 3 28 1.38359 0 8 1.38359 1
gene 1 3 29 0.275956 0 9 0.275956 1
gene 1 4 27 0.165525 0 10 0.165525 1
gene 1 4 28 4.8545 0 11 4.8545 1
gene 1 4 29 -1.20891 0 12 -1.20891 1
gene 1 5 27 -1.21546 0 13 -1.21546 1
gene 1 5 28 3.20441 0 14 3.20441 1
gene 1 5 29 -4.52237 0 15 -4.52237 1
gene 1 6 27 -2.27456 0 16 -2.27456 1
gene 1 6 28 2.89674 0 17 2.89674 1
gene 1 6 29 -1.12387 0 18 -1.12387 1
gene 1 7 27 1.52431 0 19 1.52431 1
gene 1 7 28 -1.33966 0 20 -1.33966 1
gene 1 7 29 0.324598 0 21 0.324598 1
gene 1 8 27 -2.07725 0 22 -2.07725 1
gene 1 8 28 2.74699 0 23 2.74699 1
gene 1 8 29 0.0044406 0 24 0.0044406 1
gene 1 9 27 -3.67216 0 25 -3.67216 1
gene 1 9 28 -2.19373 0 26 -2.19373 1
gene 1 9 29 -1.49044 0 27 -1.49044 1
gene 1 10 27 4.0687 0 28 4.0687 1
gene 1 10 28 -3.06114 0 29 -3.06114 1
gene 1 10 29 4.07024 0 30 4.07024 1
gene 1 11 27 -1.25946 0 31 -1.25946 1
gene 1 11 28 -5 0 32 -5 1
gene 1 11 29 -0.647088 0 33 -0.647088 1
gene 1 12 27 2.91886 0 34 2.91886 1
gene 1 12 28 -1.79711 0 35 -1.79711 1
gene 1 12 29 -1.14119 0 36 -1.14119 1
gene 1 13 27 -0.25673 0 37 -0.25673 1
gene 1 13 28 2.8653 0 38 2.8653 1
gene 1 13 29 0.512798 0 39 0.512798 1
gene 1 14 27 -3.98222 0 40 -3.98222 1
gene 1 14 28 3.71636 0 41 3.71636 1
gene 1 14 29 2.51029 0 42 2.51029 1
gene 1 15 27 0.58699 0 43 0.58699 1
gene 1 15 28 -1.4358 0 44 -1.4358 1
gene 1 15 29 -5 0 45 -5 1
gene 1 16 27 -3.14396 0 46 -3.14396 1
gene 1 16 28 -2.17846 0 47 -2.17846 1
gene 1 16 29 4.55372 0 48 4.55372 1
gene 1 17 27 -1.05434 0 49 -1.05434 1
gene 1 17 28 -4.76981 0 50 -4.76981 1
gene 1 17 29 -5 0 51 -5 1
gene 1 18 27 -4.51486 0 52 -4.51486 1
gene 1 18 28 2.21248 0 53 2.21248 1
gene 1 18 29 -0.511082 0 54 -0.511082 1
gene 1 19 27 -1.44824 0 55 -1.44824 1
gene 1 19 28 -4.42182 0 56 -4.42182 1
gene 1 19 29 -5 0 57 -5 1
gene 1 20 27 -0.972389 0 58 -0.972389 1
gene 1 20 28 -0.428957 0 59 -0.428957 1
gene 1 20 29 3.73552 0 60 3.73552 1
gene 1 21 27 4.9116 0 61 4.9116 1
gene 1 21 28 -1.4021 0 62 -1.4021 1
gene 1 21 29 -1.22828 0 63 -1.22828 1
gene 1 22 27 -1.2993 0 64 -1.2993 1
gene 1 22 28 0.672414 0 65 0.672414 1
gene 1 22 29 0.498902 0 66 0.498902 1
gene 1 23 27 -0.937802 0 67 -0.937802 1
gene 1 23 28 -1.81658 0 68 -1.81658 1
gene 1 23 29 -0.142303 0 69 -0.142303 1
gene 1 24 27 -0.056424 0 70 -0.056424 1
gene 1 24 28 -0.491607 0 71 -0.491607 1
gene 1 24 29 0.0928706 0 72 0.0928706 1
gene 1 25 27 -0.403013 0 73 -0.403013 1
gene 1 25 28 3.41254 0 74 3.41254 1
gene 1 25 29 0.405785 0 75 0.405785 1
gene 1 26 27 0.780806 0 76 0.780806 1
gene 1 26 28 0.744289 0 77 0.744289 1
gene 1 26 29 -0.0560513 0 78 -0.0560513 1
genomeend 4


