/* Organism #48 Fitness: 13751.684000 Time: 0 */
genomestart 48
trait 1 1.000000 1.000000 0.022120 1.000000 0.147833 0.189168 0.000000 0.948103 
node 1 1 1 1
node 2 1 1 1
node 3 1 1 1
node 4 1 1 1
node 5 1 1 1
node 6 1 1 1
node 7 1 1 1
node 8 1 1 1
node 9 1 1 1
node 10 1 1 1
node 11 1 1 1
node 12 1 1 1
node 13 1 1 1
node 14 1 1 1
node 15 1 1 1
node 16 1 1 1
node 17 1 1 1
node 18 1 1 1
node 19 1 1 1
node 20 1 1 1
node 21 1 1 1
node 22 1 1 1
node 23 1 1 1
node 24 1 1 1
node 25 1 1 1
node 26 1 1 3
node 27 1 0 2
node 28 1 0 2
node 29 1 0 2
gene 1 1 27 -1.97965 0 1 -1.97965 1
gene 1 1 28 -1.03591 0 2 -1.03591 1
gene 1 1 29 0.665448 0 3 0.665448 1
gene 1 2 27 -0.9065 0 4 -0.9065 1
gene 1 2 28 -0.512196 0 5 -0.512196 1
gene 1 2 29 -2.04586 0 6 -2.04586 1
gene 1 3 27 0.489264 0 7 0.489264 1
gene 1 3 28 -2.43748 0 8 -2.43748 1
gene 1 3 29 -2.52144 0 9 -2.52144 1
gene 1 4 27 0.780076 0 10 0.780076 1
gene 1 4 28 0.20658 0 11 0.20658 1
gene 1 4 29 3.17556 0 12 3.17556 1
gene 1 5 27 -1.63444 0 13 -1.63444 1
gene 1 5 28 1.20021 0 14 1.20021 1
gene 1 5 29 0.600945 0 15 0.600945 1
gene 1 6 27 0.94824 0 16 0.94824 1
gene 1 6 28 1.21953 0 17 1.21953 1
gene 1 6 29 0.930422 0 18 0.930422 1
gene 1 7 27 4.04977 0 19 4.04977 1
gene 1 7 28 0.701917 0 20 0.701917 1
gene 1 7 29 -0.393305 0 21 -0.393305 1
gene 1 8 27 -2.89933 0 22 -2.89933 1
gene 1 8 28 -0.117343 0 23 -0.117343 1
gene 1 8 29 0.87871 0 24 0.87871 1
gene 1 9 27 0.909756 0 25 0.909756 1
gene 1 9 28 -2.49278 0 26 -2.49278 1
gene 1 9 29 -0.850283 0 27 -0.850283 1
gene 1 10 27 2.22327 0 28 2.22327 1
gene 1 10 28 0.0462018 0 29 0.0462018 1
gene 1 10 29 0.0149936 0 30 0.0149936 1
gene 1 11 27 0.0015072 0 31 0.0015072 1
gene 1 11 28 -1.85214 0 32 -1.85214 1
gene 1 11 29 0.900525 0 33 0.900525 1
gene 1 12 27 -2.55048 0 34 -2.55048 1
gene 1 12 28 5 0 35 5 1
gene 1 12 29 1.468 0 36 1.468 1
gene 1 13 27 -0.657067 0 37 -0.657067 1
gene 1 13 28 4.75509 0 38 4.75509 1
gene 1 13 29 0.107569 0 39 0.107569 1
gene 1 14 27 -0.810911 0 40 -0.810911 1
gene 1 14 28 -0.202928 0 41 -0.202928 1
gene 1 14 29 -0.420688 0 42 -0.420688 1
gene 1 15 27 -0.023951 0 43 -0.023951 1
gene 1 15 28 -1.11542 0 44 -1.11542 1
gene 1 15 29 0.713751 0 45 0.713751 1
gene 1 16 27 -1.74119 0 46 -1.74119 1
gene 1 16 28 -4.36724 0 47 -4.36724 1
gene 1 16 29 1.04232 0 48 1.04232 1
gene 1 17 27 2.28854 0 49 2.28854 1
gene 1 17 28 -0.0450918 0 50 -0.0450918 1
gene 1 17 29 0.680373 0 51 0.680373 1
gene 1 18 27 -1.25887 0 52 -1.25887 1
gene 1 18 28 2.02426 0 53 2.02426 1
gene 1 18 29 0.918365 0 54 0.918365 1
gene 1 19 27 -0.977383 0 55 -0.977383 1
gene 1 19 28 2.87573 0 56 2.87573 1
gene 1 19 29 1.96937 0 57 1.96937 1
gene 1 20 27 -1.20422 0 58 -1.20422 1
gene 1 20 28 1.78499 0 59 1.78499 1
gene 1 20 29 1.40461 0 60 1.40461 1
gene 1 21 27 -0.995261 0 61 -0.995261 1
gene 1 21 28 -1.44652 0 62 -1.44652 1
gene 1 21 29 -1.4164 0 63 -1.4164 1
gene 1 22 27 -2.1312 0 64 -2.1312 1
gene 1 22 28 1.52452 0 65 1.52452 1
gene 1 22 29 -0.568338 0 66 -0.568338 1
gene 1 23 27 1.00082 0 67 1.00082 1
gene 1 23 28 -1.38608 0 68 -1.38608 1
gene 1 23 29 0.148864 0 69 0.148864 1
gene 1 24 27 -0.917629 0 70 -0.917629 1
gene 1 24 28 0.199042 0 71 0.199042 1
gene 1 24 29 1.83509 0 72 1.83509 1
gene 1 25 27 0.876718 0 73 0.876718 1
gene 1 25 28 -1.17918 0 74 -1.17918 1
gene 1 25 29 -0.583193 0 75 -0.583193 1
gene 1 26 27 -1.36034 0 76 -1.36034 1
gene 1 26 28 -2.56576 0 77 -2.56576 1
gene 1 26 29 0.498976 0 78 0.498976 1
genomeend 48


