/* Organism #1 Fitness: 39000.700000 Time: 0 */
genomestart 1
trait 1 1.000000 0.000000 0.251468 0.441851 1.000000 0.583472 0.000000 0.433076 
node 1 1 1 1
node 2 1 1 1
node 3 1 1 1
node 4 1 1 1
node 5 1 1 1
node 6 1 1 1
node 7 1 1 1
node 8 1 1 1
node 9 1 1 1
node 10 1 1 1
node 11 1 1 1
node 12 1 1 1
node 13 1 1 1
node 14 1 1 1
node 15 1 1 1
node 16 1 1 1
node 17 1 1 1
node 18 1 1 1
node 19 1 1 1
node 20 1 1 1
node 21 1 1 1
node 22 1 1 1
node 23 1 1 1
node 24 1 1 1
node 25 1 1 1
node 26 1 1 1
node 27 1 1 1
node 28 1 1 1
node 29 1 1 1
node 30 1 1 3
node 31 1 0 2
node 32 1 0 2
node 33 1 0 2
gene 1 1 31 0.136835 0 1 0.136835 1
gene 1 1 32 -0.069636 0 2 -0.069636 1
gene 1 1 33 -1.6317 0 3 -1.6317 1
gene 1 2 31 -3.77128 0 4 -3.77128 1
gene 1 2 32 5 0 5 5 1
gene 1 2 33 0.329724 0 6 0.329724 1
gene 1 3 31 0.671089 0 7 0.671089 1
gene 1 3 32 1.50111 0 8 1.50111 1
gene 1 3 33 -2.32041 0 9 -2.32041 1
gene 1 4 31 -2.95415 0 10 -2.95415 1
gene 1 4 32 0.328256 0 11 0.328256 1
gene 1 4 33 3.50572 0 12 3.50572 1
gene 1 5 31 4.5251 0 13 4.5251 1
gene 1 5 32 -1.89658 0 14 -1.89658 1
gene 1 5 33 0.845877 0 15 0.845877 1
gene 1 6 31 -3.02706 0 16 -3.02706 1
gene 1 6 32 3.77479 0 17 3.77479 1
gene 1 6 33 -2.38551 0 18 -2.38551 1
gene 1 7 31 4.55262 0 19 4.55262 1
gene 1 7 32 -3.52629 0 20 -3.52629 1
gene 1 7 33 0.492081 0 21 0.492081 1
gene 1 8 31 2.4046 0 22 2.4046 1
gene 1 8 32 0.374008 0 23 0.374008 1
gene 1 8 33 -2.55374 0 24 -2.55374 1
gene 1 9 31 2.3989 0 25 2.3989 1
gene 1 9 32 0.767873 0 26 0.767873 1
gene 1 9 33 0.989756 0 27 0.989756 1
gene 1 10 31 -3.84855 0 28 -3.84855 1
gene 1 10 32 0.607169 0 29 0.607169 1
gene 1 10 33 0.76202 0 30 0.76202 1
gene 1 11 31 4.25863 0 31 4.25863 1
gene 1 11 32 -3.82403 0 32 -3.82403 1
gene 1 11 33 0.566915 0 33 0.566915 1
gene 1 12 31 -0.452663 0 34 -0.452663 1
gene 1 12 32 -0.723036 0 35 -0.723036 1
gene 1 12 33 -5 0 36 -5 1
gene 1 13 31 -0.141852 0 37 -0.141852 1
gene 1 13 32 -2.48748 0 38 -2.48748 1
gene 1 13 33 1.67006 0 39 1.67006 1
gene 1 14 31 -0.206118 0 40 -0.206118 1
gene 1 14 32 4.38152 0 41 4.38152 1
gene 1 14 33 -1.53784 0 42 -1.53784 1
gene 1 15 31 -0.378371 0 43 -0.378371 1
gene 1 15 32 -1.73141 0 44 -1.73141 1
gene 1 15 33 1.21015 0 45 1.21015 1
gene 1 16 31 0.329696 0 46 0.329696 1
gene 1 16 32 -0.266944 0 47 -0.266944 1
gene 1 16 33 -1.28047 0 48 -1.28047 1
gene 1 17 31 -1.5112 0 49 -1.5112 1
gene 1 17 32 -2.3608 0 50 -2.3608 1
gene 1 17 33 -5 0 51 -5 1
gene 1 18 31 0.773392 0 52 0.773392 1
gene 1 18 32 2.65741 0 53 2.65741 1
gene 1 18 33 3.78233 0 54 3.78233 1
gene 1 19 31 0.212631 0 55 0.212631 1
gene 1 19 32 -1.8084 0 56 -1.8084 1
gene 1 19 33 1.52853 0 57 1.52853 1
gene 1 20 31 1.57742 0 58 1.57742 1
gene 1 20 32 1.22708 0 59 1.22708 1
gene 1 20 33 0.338182 0 60 0.338182 1
gene 1 21 31 -1.7324 0 61 -1.7324 1
gene 1 21 32 1.86969 0 62 1.86969 1
gene 1 21 33 -2.992 0 63 -2.992 1
gene 1 22 31 3.10468 0 64 3.10468 1
gene 1 22 32 3.07517 0 65 3.07517 1
gene 1 22 33 -0.226295 0 66 -0.226295 1
gene 1 23 31 0.156869 0 67 0.156869 1
gene 1 23 32 -4.75305 0 68 -4.75305 1
gene 1 23 33 -2.07605 0 69 -2.07605 1
gene 1 24 31 -0.0910646 0 70 -0.0910646 1
gene 1 24 32 -0.339893 0 71 -0.339893 1
gene 1 24 33 -0.412535 0 72 -0.412535 1
gene 1 25 31 2.06484 0 73 2.06484 1
gene 1 25 32 0.592514 0 74 0.592514 1
gene 1 25 33 -0.525358 0 75 -0.525358 1
gene 1 26 31 2.19914 0 76 2.19914 1
gene 1 26 32 0.158535 0 77 0.158535 1
gene 1 26 33 -1.44476 0 78 -1.44476 1
gene 1 27 31 0.186283 0 79 0.186283 1
gene 1 27 32 -0.239862 0 80 -0.239862 1
gene 1 27 33 -0.105897 0 81 -0.105897 1
gene 1 28 31 0.216235 0 82 0.216235 1
gene 1 28 32 0.771208 0 83 0.771208 1
gene 1 28 33 -0.869676 0 84 -0.869676 1
gene 1 29 31 -0.551526 0 85 -0.551526 1
gene 1 29 32 1.29743 0 86 1.29743 1
gene 1 29 33 1.05828 0 87 1.05828 1
gene 1 30 31 -5 0 88 -5 1
gene 1 30 32 -4.34447 0 89 -4.34447 1
gene 1 30 33 0.013023 0 90 0.013023 1
genomeend 1


