/* Organism #58 Fitness: 37525.900000 Time: 0 */
genomestart 58
trait 1 0.751451 0.000000 0.251468 0.441851 0.717413 1.000000 0.000000 0.422617 
node 1 1 1 1
node 2 1 1 1
node 3 1 1 1
node 4 1 1 1
node 5 1 1 1
node 6 1 1 1
node 7 1 1 1
node 8 1 1 1
node 9 1 1 1
node 10 1 1 1
node 11 1 1 1
node 12 1 1 1
node 13 1 1 1
node 14 1 1 1
node 15 1 1 1
node 16 1 1 1
node 17 1 1 1
node 18 1 1 1
node 19 1 1 1
node 20 1 1 1
node 21 1 1 1
node 22 1 1 1
node 23 1 1 1
node 24 1 1 1
node 25 1 1 1
node 26 1 1 1
node 27 1 1 1
node 28 1 1 1
node 29 1 1 1
node 30 1 1 3
node 31 1 0 2
node 32 1 0 2
node 33 1 0 2
gene 1 1 31 -0.482231 0 1 -0.482231 1
gene 1 1 32 -2.4926 0 2 -2.4926 1
gene 1 1 33 -0.608326 0 3 -0.608326 1
gene 1 2 31 -0.748531 0 4 -0.748531 1
gene 1 2 32 1.80789 0 5 1.80789 1
gene 1 2 33 0.53327 0 6 0.53327 1
gene 1 3 31 0.0850896 0 7 0.0850896 1
gene 1 3 32 -0.596848 0 8 -0.596848 1
gene 1 3 33 -0.94018 0 9 -0.94018 1
gene 1 4 31 -1.64909 0 10 -1.64909 1
gene 1 4 32 0.394136 0 11 0.394136 1
gene 1 4 33 -0.670224 0 12 -0.670224 1
gene 1 5 31 5 0 13 5 1
gene 1 5 32 -1.91818 0 14 -1.91818 1
gene 1 5 33 -0.24459 0 15 -0.24459 1
gene 1 6 31 -0.884121 0 16 -0.884121 1
gene 1 6 32 5 0 17 5 1
gene 1 6 33 -2.21019 0 18 -2.21019 1
gene 1 7 31 5 0 19 5 1
gene 1 7 32 0.91346 0 20 0.91346 1
gene 1 7 33 2.32718 0 21 2.32718 1
gene 1 8 31 0.0903357 0 22 0.0903357 1
gene 1 8 32 -0.538092 0 23 -0.538092 1
gene 1 8 33 -1.59036 0 24 -1.59036 1
gene 1 9 31 0.528629 0 25 0.528629 1
gene 1 9 32 0.339916 0 26 0.339916 1
gene 1 9 33 -1.70122 0 27 -1.70122 1
gene 1 10 31 -0.152708 0 28 -0.152708 1
gene 1 10 32 0.386692 0 29 0.386692 1
gene 1 10 33 -0.846376 0 30 -0.846376 1
gene 1 11 31 0.942129 0 31 0.942129 1
gene 1 11 32 0.093779 0 32 0.093779 1
gene 1 11 33 2.42408 0 33 2.42408 1
gene 1 12 31 0.0632061 0 34 0.0632061 1
gene 1 12 32 0.101377 0 35 0.101377 1
gene 1 12 33 -4.86592 0 36 -4.86592 1
gene 1 13 31 1.75654 0 37 1.75654 1
gene 1 13 32 1.65875 0 38 1.65875 1
gene 1 13 33 -0.186592 0 39 -0.186592 1
gene 1 14 31 0.0699523 0 40 0.0699523 1
gene 1 14 32 0.160797 0 41 0.160797 1
gene 1 14 33 -0.829098 0 42 -0.829098 1
gene 1 15 31 -0.50049 0 43 -0.50049 1
gene 1 15 32 0.915956 0 44 0.915956 1
gene 1 15 33 0.00994516 0 45 0.00994516 1
gene 1 16 31 0.0450519 0 46 0.0450519 1
gene 1 16 32 1.28206 0 47 1.28206 1
gene 1 16 33 -0.80474 0 48 -0.80474 1
gene 1 17 31 -0.293692 0 49 -0.293692 1
gene 1 17 32 -3.87287 0 50 -3.87287 1
gene 1 17 33 -2.44861 0 51 -2.44861 1
gene 1 18 31 1.2602 0 52 1.2602 1
gene 1 18 32 2.22148 0 53 2.22148 1
gene 1 18 33 4.08962 0 54 4.08962 1
gene 1 19 31 0.938039 0 55 0.938039 1
gene 1 19 32 -0.954458 0 56 -0.954458 1
gene 1 19 33 0.334484 0 57 0.334484 1
gene 1 20 31 -0.284631 0 58 -0.284631 1
gene 1 20 32 1.30058 0 59 1.30058 1
gene 1 20 33 -0.503361 0 60 -0.503361 1
gene 1 21 31 -2.39317 0 61 -2.39317 1
gene 1 21 32 1.07699 0 62 1.07699 1
gene 1 21 33 -0.149552 0 63 -0.149552 1
gene 1 22 31 3.48743 0 64 3.48743 1
gene 1 22 32 -0.216533 0 65 -0.216533 1
gene 1 22 33 -1.61323 0 66 -1.61323 1
gene 1 23 31 0.60117 0 67 0.60117 1
gene 1 23 32 -1.31053 0 68 -1.31053 1
gene 1 23 33 -0.538535 0 69 -0.538535 1
gene 1 24 31 -0.283648 0 70 -0.283648 1
gene 1 24 32 -0.314231 0 71 -0.314231 1
gene 1 24 33 -1.1217 0 72 -1.1217 1
gene 1 25 31 1.2632 0 73 1.2632 1
gene 1 25 32 -1.48416 0 74 -1.48416 1
gene 1 25 33 0.0678265 0 75 0.0678265 1
gene 1 26 31 0.214174 0 76 0.214174 1
gene 1 26 32 -0.630197 0 77 -0.630197 1
gene 1 26 33 0.105066 0 78 0.105066 1
gene 1 27 31 2.30376 0 79 2.30376 1
gene 1 27 32 -2.76075 0 80 -2.76075 1
gene 1 27 33 -1.49437 0 81 -1.49437 1
gene 1 28 31 -0.772101 0 82 -0.772101 1
gene 1 28 32 -0.333813 0 83 -0.333813 1
gene 1 28 33 0.576118 0 84 0.576118 1
gene 1 29 31 -0.644058 0 85 -0.644058 1
gene 1 29 32 -0.79298 0 86 -0.79298 1
gene 1 29 33 3.52474 0 87 3.52474 1
gene 1 30 31 -4.71899 0 88 -4.71899 1
gene 1 30 32 -4.51147 0 89 -4.51147 1
gene 1 30 33 -0.834295 0 90 -0.834295 1
genomeend 58


