/* Organism #3 Fitness: 37466.940000 Time: 0 */
genomestart 3
trait 1 0.751451 0.000000 0.273494 0.441851 0.717413 1.000000 0.000000 0.422617 
node 1 1 1 1
node 2 1 1 1
node 3 1 1 1
node 4 1 1 1
node 5 1 1 1
node 6 1 1 1
node 7 1 1 1
node 8 1 1 1
node 9 1 1 1
node 10 1 1 1
node 11 1 1 1
node 12 1 1 1
node 13 1 1 1
node 14 1 1 1
node 15 1 1 1
node 16 1 1 1
node 17 1 1 1
node 18 1 1 1
node 19 1 1 1
node 20 1 1 1
node 21 1 1 1
node 22 1 1 1
node 23 1 1 1
node 24 1 1 1
node 25 1 1 1
node 26 1 1 1
node 27 1 1 1
node 28 1 1 1
node 29 1 1 1
node 30 1 1 3
node 31 1 0 2
node 32 1 0 2
node 33 1 0 2
gene 1 1 31 -1.9151 0 1 -1.9151 1
gene 1 1 32 0.126578 0 2 0.126578 1
gene 1 1 33 0.295097 0 3 0.295097 1
gene 1 2 31 -1.28093 0 4 -1.28093 1
gene 1 2 32 0.0440293 0 5 0.0440293 1
gene 1 2 33 -0.268228 0 6 -0.268228 1
gene 1 3 31 0.46691 0 7 0.46691 1
gene 1 3 32 4.1615 0 8 4.1615 1
gene 1 3 33 1.994 0 9 1.994 1
gene 1 4 31 -2.45897 0 10 -2.45897 1
gene 1 4 32 0.314952 0 11 0.314952 1
gene 1 4 33 -0.349208 0 12 -0.349208 1
gene 1 5 31 5 0 13 5 1
gene 1 5 32 -4.96286 0 14 -4.96286 1
gene 1 5 33 -4.04188 0 15 -4.04188 1
gene 1 6 31 -0.902486 0 16 -0.902486 1
gene 1 6 32 4.60798 0 17 4.60798 1
gene 1 6 33 1.4963 0 18 1.4963 1
gene 1 7 31 4.23639 0 19 4.23639 1
gene 1 7 32 -2.53237 0 20 -2.53237 1
gene 1 7 33 -4.38846 0 21 -4.38846 1
gene 1 8 31 1.71928 0 22 1.71928 1
gene 1 8 32 -0.858341 0 23 -0.858341 1
gene 1 8 33 0.794418 0 24 0.794418 1
gene 1 9 31 0.238955 0 25 0.238955 1
gene 1 9 32 2.6237 0 26 2.6237 1
gene 1 9 33 1.34026 0 27 1.34026 1
gene 1 10 31 -0.013031 0 28 -0.013031 1
gene 1 10 32 0.768446 0 29 0.768446 1
gene 1 10 33 0.866609 0 30 0.866609 1
gene 1 11 31 -2.08056 0 31 -2.08056 1
gene 1 11 32 -0.820817 0 32 -0.820817 1
gene 1 11 33 1.38 0 33 1.38 1
gene 1 12 31 1.81849 0 34 1.81849 1
gene 1 12 32 -1.26496 0 35 -1.26496 1
gene 1 12 33 -0.539143 0 36 -0.539143 1
gene 1 13 31 1.54994 0 37 1.54994 1
gene 1 13 32 -0.559269 0 38 -0.559269 1
gene 1 13 33 -0.893958 0 39 -0.893958 1
gene 1 14 31 0.180705 0 40 0.180705 1
gene 1 14 32 2.18689 0 41 2.18689 1
gene 1 14 33 1.67748 0 42 1.67748 1
gene 1 15 31 -0.36678 0 43 -0.36678 1
gene 1 15 32 0.0959997 0 44 0.0959997 1
gene 1 15 33 0.904858 0 45 0.904858 1
gene 1 16 31 2.06692 0 46 2.06692 1
gene 1 16 32 -0.432559 0 47 -0.432559 1
gene 1 16 33 -0.488595 0 48 -0.488595 1
gene 1 17 31 1.36279 0 49 1.36279 1
gene 1 17 32 -1.82988 0 50 -1.82988 1
gene 1 17 33 -0.969102 0 51 -0.969102 1
gene 1 18 31 0.170149 0 52 0.170149 1
gene 1 18 32 -2.62407 0 53 -2.62407 1
gene 1 18 33 -1.68356 0 54 -1.68356 1
gene 1 19 31 2.2666 0 55 2.2666 1
gene 1 19 32 1.80617 0 56 1.80617 1
gene 1 19 33 -2.84388 0 57 -2.84388 1
gene 1 20 31 -0.610002 0 58 -0.610002 1
gene 1 20 32 1.67802 0 59 1.67802 1
gene 1 20 33 0.653883 0 60 0.653883 1
gene 1 21 31 1.29878 0 61 1.29878 1
gene 1 21 32 1.42932 0 62 1.42932 1
gene 1 21 33 2.68443 0 63 2.68443 1
gene 1 22 31 2.4989 0 64 2.4989 1
gene 1 22 32 0.0492938 0 65 0.0492938 1
gene 1 22 33 1.23653 0 66 1.23653 1
gene 1 23 31 3.99575 0 67 3.99575 1
gene 1 23 32 -5 0 68 -5 1
gene 1 23 33 -0.958333 0 69 -0.958333 1
gene 1 24 31 -1.94032 0 70 -1.94032 1
gene 1 24 32 -1.39252 0 71 -1.39252 1
gene 1 24 33 0.427362 0 72 0.427362 1
gene 1 25 31 1.63189 0 73 1.63189 1
gene 1 25 32 -0.113419 0 74 -0.113419 1
gene 1 25 33 0.467257 0 75 0.467257 1
gene 1 26 31 -1.48352 0 76 -1.48352 1
gene 1 26 32 1.91729 0 77 1.91729 1
gene 1 26 33 1.34169 0 78 1.34169 1
gene 1 27 31 -0.329061 0 79 -0.329061 1
gene 1 27 32 -0.111584 0 80 -0.111584 1
gene 1 27 33 1.40045 0 81 1.40045 1
gene 1 28 31 -0.0376508 0 82 -0.0376508 1
gene 1 28 32 -0.550567 0 83 -0.550567 1
gene 1 28 33 3.05916 0 84 3.05916 1
gene 1 29 31 -2.40026 0 85 -2.40026 1
gene 1 29 32 1.50516 0 86 1.50516 1
gene 1 29 33 -1.35638 0 87 -1.35638 1
gene 1 30 31 -5 0 88 -5 1
gene 1 30 32 -4.43696 0 89 -4.43696 1
gene 1 30 33 -0.019907 0 90 -0.019907 1
genomeend 3


