/* Organism #0 Fitness: 10330.600000 Time: 0 */
genomestart 0
trait 1 0.597290 1.000000 0.312574 0.000000 0.000000 1.000000 0.488042 0.000000 
node 1 1 1 1
node 2 1 1 1
node 3 1 1 1
node 4 1 1 1
node 5 1 1 1
node 6 1 1 1
node 7 1 1 1
node 8 1 1 1
node 9 1 1 1
node 10 1 1 1
node 11 1 1 1
node 12 1 1 1
node 13 1 1 1
node 14 1 1 1
node 15 1 1 1
node 16 1 1 1
node 17 1 1 1
node 18 1 1 1
node 19 1 1 1
node 20 1 1 1
node 21 1 1 1
node 22 1 1 1
node 23 1 1 1
node 24 1 1 1
node 25 1 1 1
node 26 1 1 1
node 27 1 1 1
node 28 1 1 1
node 29 1 1 1
node 30 1 1 3
node 31 1 0 2
node 32 1 0 2
node 33 1 0 2
gene 1 1 31 -3.95488 0 1 -3.95488 1
gene 1 1 32 -1.83257 0 2 -1.83257 1
gene 1 1 33 -1.463 0 3 -1.463 1
gene 1 2 31 -0.783474 0 4 -0.783474 1
gene 1 2 32 0.622018 0 5 0.622018 1
gene 1 2 33 -1.39837 0 6 -1.39837 1
gene 1 3 31 1.94957 0 7 1.94957 1
gene 1 3 32 -0.240687 0 8 -0.240687 1
gene 1 3 33 -0.426105 0 9 -0.426105 1
gene 1 4 31 0.861104 0 10 0.861104 1
gene 1 4 32 1.52739 0 11 1.52739 1
gene 1 4 33 -0.183003 0 12 -0.183003 1
gene 1 5 31 -0.357504 0 13 -0.357504 1
gene 1 5 32 1.41489 0 14 1.41489 1
gene 1 5 33 -2.92012 0 15 -2.92012 1
gene 1 6 31 1.01373 0 16 1.01373 1
gene 1 6 32 1.47629 0 17 1.47629 1
gene 1 6 33 -2.42331 0 18 -2.42331 1
gene 1 7 31 -0.450951 0 19 -0.450951 1
gene 1 7 32 3.26737 0 20 3.26737 1
gene 1 7 33 -0.118768 0 21 -0.118768 1
gene 1 8 31 0.505187 0 22 0.505187 1
gene 1 8 32 -0.2037 0 23 -0.2037 1
gene 1 8 33 -0.278127 0 24 -0.278127 1
gene 1 9 31 3.18625 0 25 3.18625 1
gene 1 9 32 0.334339 0 26 0.334339 1
gene 1 9 33 0.285475 0 27 0.285475 1
gene 1 10 31 4.09427 0 28 4.09427 1
gene 1 10 32 0.978349 0 29 0.978349 1
gene 1 10 33 -1.19308 0 30 -1.19308 1
gene 1 11 31 -3.2911 0 31 -3.2911 1
gene 1 11 32 -2.95589 0 32 -2.95589 1
gene 1 11 33 0.970311 0 33 0.970311 1
gene 1 12 31 -2.77306 0 34 -2.77306 1
gene 1 12 32 -0.816391 0 35 -0.816391 1
gene 1 12 33 -2.07943 0 36 -2.07943 1
gene 1 13 31 -1.10089 0 37 -1.10089 1
gene 1 13 32 2.29598 0 38 2.29598 1
gene 1 13 33 -2.65314 0 39 -2.65314 1
gene 1 14 31 -3.07085 0 40 -3.07085 1
gene 1 14 32 3.54391 0 41 3.54391 1
gene 1 14 33 1.35851 0 42 1.35851 1
gene 1 15 31 0.277404 0 43 0.277404 1
gene 1 15 32 -0.698759 0 44 -0.698759 1
gene 1 15 33 -0.0241524 0 45 -0.0241524 1
gene 1 16 31 1.68821 0 46 1.68821 1
gene 1 16 32 0.620952 0 47 0.620952 1
gene 1 16 33 -0.282182 0 48 -0.282182 1
gene 1 17 31 0.531916 0 49 0.531916 1
gene 1 17 32 4.62008 0 50 4.62008 1
gene 1 17 33 3.46553 0 51 3.46553 1
gene 1 18 31 0.169635 0 52 0.169635 1
gene 1 18 32 2.88466 0 53 2.88466 1
gene 1 18 33 2.23806 0 54 2.23806 1
gene 1 19 31 -0.183989 0 55 -0.183989 1
gene 1 19 32 -0.223678 0 56 -0.223678 1
gene 1 19 33 -3.53523 0 57 -3.53523 1
gene 1 20 31 -1.02902 0 58 -1.02902 1
gene 1 20 32 -0.102161 0 59 -0.102161 1
gene 1 20 33 0.846083 0 60 0.846083 1
gene 1 21 31 -1.4444 0 61 -1.4444 1
gene 1 21 32 -0.403146 0 62 -0.403146 1
gene 1 21 33 -2.57498 0 63 -2.57498 1
gene 1 22 31 3.2079 0 64 3.2079 1
gene 1 22 32 -5 0 65 -5 1
gene 1 22 33 -1.53345 0 66 -1.53345 1
gene 1 23 31 -2.04019 0 67 -2.04019 1
gene 1 23 32 -0.34167 0 68 -0.34167 1
gene 1 23 33 -0.233387 0 69 -0.233387 1
gene 1 24 31 -1.41325 0 70 -1.41325 1
gene 1 24 32 0.745114 0 71 0.745114 1
gene 1 24 33 1.40947 0 72 1.40947 1
gene 1 25 31 1.3129 0 73 1.3129 1
gene 1 25 32 0.185381 0 74 0.185381 1
gene 1 25 33 -1.27771 0 75 -1.27771 1
gene 1 26 31 0.95497 0 76 0.95497 1
gene 1 26 32 0.231771 0 77 0.231771 1
gene 1 26 33 0.513574 0 78 0.513574 1
gene 1 27 31 1.48373 0 79 1.48373 1
gene 1 27 32 -1.71713 0 80 -1.71713 1
gene 1 27 33 0.849489 0 81 0.849489 1
gene 1 28 31 -0.704404 0 82 -0.704404 1
gene 1 28 32 -0.93333 0 83 -0.93333 1
gene 1 28 33 0.336375 0 84 0.336375 1
gene 1 29 31 -0.90539 0 85 -0.90539 1
gene 1 29 32 2.14132 0 86 2.14132 1
gene 1 29 33 0.254839 0 87 0.254839 1
gene 1 30 31 -0.0429136 0 88 -0.0429136 1
gene 1 30 32 -1.62248 0 89 -1.62248 1
gene 1 30 33 1.51683 0 90 1.51683 1
genomeend 0


