/* Organism #4 Fitness: 17414.228000 Time: 0 */
genomestart 4
trait 1 0.515697 0.000000 0.000000 0.000000 0.000000 0.646390 0.362140 0.000000 
node 1 1 1 1
node 2 1 1 1
node 3 1 1 1
node 4 1 1 1
node 5 1 1 1
node 6 1 1 1
node 7 1 1 1
node 8 1 1 1
node 9 1 1 1
node 10 1 1 1
node 11 1 1 1
node 12 1 1 1
node 13 1 1 1
node 14 1 1 1
node 15 1 1 1
node 16 1 1 1
node 17 1 1 1
node 18 1 1 1
node 19 1 1 1
node 20 1 1 1
node 21 1 1 1
node 22 1 1 1
node 23 1 1 1
node 24 1 1 1
node 25 1 1 1
node 26 1 1 1
node 27 1 1 1
node 28 1 1 1
node 29 1 1 1
node 30 1 1 1
node 31 1 1 1
node 32 1 1 1
node 33 1 1 1
node 34 1 1 1
node 35 1 1 3
node 36 1 0 2
node 37 1 0 2
node 38 1 0 2
node 39 1 0 2
gene 1 1 36 1.09422 0 1 1.09422 1
gene 1 1 37 -3.51817 0 2 -3.51817 1
gene 1 1 38 -0.47543 0 3 -0.47543 1
gene 1 1 39 -0.992672 0 4 -0.992672 1
gene 1 2 36 0.38421 0 5 0.38421 1
gene 1 2 37 -0.996141 0 6 -0.996141 1
gene 1 2 38 -0.262789 0 7 -0.262789 1
gene 1 2 39 -0.186549 0 8 -0.186549 1
gene 1 3 36 1.1536 0 9 1.1536 1
gene 1 3 37 0.390044 0 10 0.390044 1
gene 1 3 38 1.23719 0 11 1.23719 1
gene 1 3 39 -0.921311 0 12 -0.921311 1
gene 1 4 36 2.29981 0 13 2.29981 1
gene 1 4 37 -0.24692 0 14 -0.24692 1
gene 1 4 38 2.69605 0 15 2.69605 1
gene 1 4 39 1.58954 0 16 1.58954 1
gene 1 5 36 -2.45679 0 17 -2.45679 1
gene 1 5 37 -1.12671 0 18 -1.12671 1
gene 1 5 38 3.76598 0 19 3.76598 1
gene 1 5 39 -0.961728 0 20 -0.961728 1
gene 1 6 36 2.56132 0 21 2.56132 1
gene 1 6 37 2.24262 0 22 2.24262 1
gene 1 6 38 -0.673455 0 23 -0.673455 1
gene 1 6 39 0.173508 0 24 0.173508 1
gene 1 7 36 0.107703 0 25 0.107703 1
gene 1 7 37 -1.07213 0 26 -1.07213 1
gene 1 7 38 -1.58091 0 27 -1.58091 1
gene 1 7 39 1.77877 0 28 1.77877 1
gene 1 8 36 -0.737329 0 29 -0.737329 1
gene 1 8 37 1.71004 0 30 1.71004 1
gene 1 8 38 2.40377 0 31 2.40377 1
gene 1 8 39 4.20505 0 32 4.20505 1
gene 1 9 36 -0.423637 0 33 -0.423637 1
gene 1 9 37 5 0 34 5 1
gene 1 9 38 2.70619 0 35 2.70619 1
gene 1 9 39 1.22203 0 36 1.22203 1
gene 1 10 36 -2.80476 0 37 -2.80476 1
gene 1 10 37 4.53776 0 38 4.53776 1
gene 1 10 38 1.05261 0 39 1.05261 1
gene 1 10 39 -2.87604 0 40 -2.87604 1
gene 1 11 36 -2.25817 0 41 -2.25817 1
gene 1 11 37 3.86484 0 42 3.86484 1
gene 1 11 38 1.14383 0 43 1.14383 1
gene 1 11 39 -1.33756 0 44 -1.33756 1
gene 1 12 36 4.44337 0 45 4.44337 1
gene 1 12 37 0.560809 0 46 0.560809 1
gene 1 12 38 -2.23631 0 47 -2.23631 1
gene 1 12 39 -0.634709 0 48 -0.634709 1
gene 1 13 36 -1.03748 0 49 -1.03748 1
gene 1 13 37 -0.741154 0 50 -0.741154 1
gene 1 13 38 -1.878 0 51 -1.878 1
gene 1 13 39 -0.696662 0 52 -0.696662 1
gene 1 14 36 -1.12656 0 53 -1.12656 1
gene 1 14 37 0.0861672 0 54 0.0861672 1
gene 1 14 38 0.244427 0 55 0.244427 1
gene 1 14 39 1.47579 0 56 1.47579 1
gene 1 15 36 -1.90213 0 57 -1.90213 1
gene 1 15 37 0.732605 0 58 0.732605 1
gene 1 15 38 -1.73261 0 59 -1.73261 1
gene 1 15 39 -3.82422 0 60 -3.82422 1
gene 1 16 36 1.55145 0 61 1.55145 1
gene 1 16 37 -2.81648 0 62 -2.81648 1
gene 1 16 38 -4.64937 0 63 -4.64937 1
gene 1 16 39 -0.146924 0 64 -0.146924 1
gene 1 17 36 0.649655 0 65 0.649655 1
gene 1 17 37 0.491202 0 66 0.491202 1
gene 1 17 38 4.19688 0 67 4.19688 1
gene 1 17 39 -4.01659 0 68 -4.01659 1
gene 1 18 36 0.506791 0 69 0.506791 1
gene 1 18 37 0.45857 0 70 0.45857 1
gene 1 18 38 -0.263549 0 71 -0.263549 1
gene 1 18 39 -1.55171 0 72 -1.55171 1
gene 1 19 36 -0.254842 0 73 -0.254842 1
gene 1 19 37 -1.90398 0 74 -1.90398 1
gene 1 19 38 -1.1364 0 75 -1.1364 1
gene 1 19 39 2.80382 0 76 2.80382 1
gene 1 20 36 -0.0509899 0 77 -0.0509899 1
gene 1 20 37 0.920186 0 78 0.920186 1
gene 1 20 38 -3.22385 0 79 -3.22385 1
gene 1 20 39 -1.36595 0 80 -1.36595 1
gene 1 21 36 -2.00567 0 81 -2.00567 1
gene 1 21 37 2.09933 0 82 2.09933 1
gene 1 21 38 4.49007 0 83 4.49007 1
gene 1 21 39 -0.222392 0 84 -0.222392 1
gene 1 22 36 -1.24567 0 85 -1.24567 1
gene 1 22 37 -1.75103 0 86 -1.75103 1
gene 1 22 38 0.748653 0 87 0.748653 1
gene 1 22 39 -0.816694 0 88 -0.816694 1
gene 1 23 36 -3.69103 0 89 -3.69103 1
gene 1 23 37 -5 0 90 -5 1
gene 1 23 38 -0.13508 0 91 -0.13508 1
gene 1 23 39 -2.49836 0 92 -2.49836 1
gene 1 24 36 -0.378649 0 93 -0.378649 1
gene 1 24 37 -1.80855 0 94 -1.80855 1
gene 1 24 38 -0.961029 0 95 -0.961029 1
gene 1 24 39 1.43126 0 96 1.43126 1
gene 1 25 36 -2.15887 0 97 -2.15887 1
gene 1 25 37 4.44068 0 98 4.44068 1
gene 1 25 38 -1.51327 0 99 -1.51327 1
gene 1 25 39 0.0997092 0 100 0.0997092 1
gene 1 26 36 2.91473 0 101 2.91473 1
gene 1 26 37 2.91494 0 102 2.91494 1
gene 1 26 38 -0.335809 0 103 -0.335809 1
gene 1 26 39 0.72471 0 104 0.72471 1
gene 1 27 36 1.79523 0 105 1.79523 1
gene 1 27 37 1.29463 0 106 1.29463 1
gene 1 27 38 -1.5585 0 107 -1.5585 1
gene 1 27 39 -1.59796 0 108 -1.59796 1
gene 1 28 36 -0.60606 0 109 -0.60606 1
gene 1 28 37 -1.67285 0 110 -1.67285 1
gene 1 28 38 -1.25829 0 111 -1.25829 1
gene 1 28 39 -1.94818 0 112 -1.94818 1
gene 1 29 36 1.12138 0 113 1.12138 1
gene 1 29 37 0.107221 0 114 0.107221 1
gene 1 29 38 -0.0935133 0 115 -0.0935133 1
gene 1 29 39 -3.1792 0 116 -3.1792 1
gene 1 30 36 0.615412 0 117 0.615412 1
gene 1 30 37 -0.304759 0 118 -0.304759 1
gene 1 30 38 -0.727721 0 119 -0.727721 1
gene 1 30 39 -0.138457 0 120 -0.138457 1
gene 1 31 36 -0.212012 0 121 -0.212012 1
gene 1 31 37 -0.153757 0 122 -0.153757 1
gene 1 31 38 -0.784047 0 123 -0.784047 1
gene 1 31 39 0.821043 0 124 0.821043 1
gene 1 32 36 -0.227927 0 125 -0.227927 1
gene 1 32 37 -1.05384 0 126 -1.05384 1
gene 1 32 38 0.125373 0 127 0.125373 1
gene 1 32 39 -1.2439 0 128 -1.2439 1
gene 1 33 36 1.13755 0 129 1.13755 1
gene 1 33 37 0.893694 0 130 0.893694 1
gene 1 33 38 -0.210513 0 131 -0.210513 1
gene 1 33 39 0.0172814 0 132 0.0172814 1
gene 1 34 36 0.0691493 0 133 0.0691493 1
gene 1 34 37 -1.59608 0 134 -1.59608 1
gene 1 34 38 -0.156703 0 135 -0.156703 1
gene 1 34 39 0.763112 0 136 0.763112 1
gene 1 35 36 0.692091 0 137 0.692091 1
gene 1 35 37 0.138842 0 138 0.138842 1
gene 1 35 38 -5 0 139 -5 1
gene 1 35 39 -0.621279 0 140 -0.621279 1
genomeend 4


