/* Organism #2 Fitness: 18645.950000 Time: 0 */
genomestart 2
trait 1 0.287097 0.064072 0.000000 0.000000 0.145855 0.000000 0.000000 0.000000 
node 1 1 1 1
node 2 1 1 1
node 3 1 1 1
node 4 1 1 1
node 5 1 1 1
node 6 1 1 1
node 7 1 1 1
node 8 1 1 1
node 9 1 1 1
node 10 1 1 1
node 11 1 1 1
node 12 1 1 1
node 13 1 1 1
node 14 1 1 1
node 15 1 1 1
node 16 1 1 1
node 17 1 1 1
node 18 1 1 1
node 19 1 1 1
node 20 1 1 1
node 21 1 1 1
node 22 1 1 1
node 23 1 1 1
node 24 1 1 1
node 25 1 1 1
node 26 1 1 1
node 27 1 1 1
node 28 1 1 1
node 29 1 1 1
node 30 1 1 1
node 31 1 1 1
node 32 1 1 1
node 33 1 1 1
node 34 1 1 1
node 35 1 1 3
node 36 1 0 2
node 37 1 0 2
node 38 1 0 2
node 39 1 0 2
gene 1 1 36 -1.40341 0 1 -1.40341 1
gene 1 1 37 -1.74764 0 2 -1.74764 1
gene 1 1 38 1.52237 0 3 1.52237 1
gene 1 1 39 0.569787 0 4 0.569787 1
gene 1 2 36 0.560548 0 5 0.560548 1
gene 1 2 37 3.7978 0 6 3.7978 1
gene 1 2 38 -3.90956 0 7 -3.90956 1
gene 1 2 39 -0.496112 0 8 -0.496112 1
gene 1 3 36 -0.323669 0 9 -0.323669 1
gene 1 3 37 -0.915168 0 10 -0.915168 1
gene 1 3 38 -4.08572 0 11 -4.08572 1
gene 1 3 39 2.20865 0 12 2.20865 1
gene 1 4 36 3.08098 0 13 3.08098 1
gene 1 4 37 0.953105 0 14 0.953105 1
gene 1 4 38 -3.65138 0 15 -3.65138 1
gene 1 4 39 1.43655 0 16 1.43655 1
gene 1 5 36 5 0 17 5 1
gene 1 5 37 2.60271 0 18 2.60271 1
gene 1 5 38 1.8486 0 19 1.8486 1
gene 1 5 39 -4.10024 0 20 -4.10024 1
gene 1 6 36 1.55617 0 21 1.55617 1
gene 1 6 37 -0.471007 0 22 -0.471007 1
gene 1 6 38 -1.06583 0 23 -1.06583 1
gene 1 6 39 -0.776828 0 24 -0.776828 1
gene 1 7 36 -2.80935 0 25 -2.80935 1
gene 1 7 37 -3.15065 0 26 -3.15065 1
gene 1 7 38 1.21469 0 27 1.21469 1
gene 1 7 39 1.16893 0 28 1.16893 1
gene 1 8 36 -2.69682 0 29 -2.69682 1
gene 1 8 37 -1.51712 0 30 -1.51712 1
gene 1 8 38 2.46952 0 31 2.46952 1
gene 1 8 39 -0.225134 0 32 -0.225134 1
gene 1 9 36 -2.86101 0 33 -2.86101 1
gene 1 9 37 0.68982 0 34 0.68982 1
gene 1 9 38 0.568288 0 35 0.568288 1
gene 1 9 39 -1.07876 0 36 -1.07876 1
gene 1 10 36 -2.22638 0 37 -2.22638 1
gene 1 10 37 4.79811 0 38 4.79811 1
gene 1 10 38 -1.80438 0 39 -1.80438 1
gene 1 10 39 0.348101 0 40 0.348101 1
gene 1 11 36 0.679809 0 41 0.679809 1
gene 1 11 37 -2.61394 0 42 -2.61394 1
gene 1 11 38 -0.783711 0 43 -0.783711 1
gene 1 11 39 -1.47168 0 44 -1.47168 1
gene 1 12 36 2.04441 0 45 2.04441 1
gene 1 12 37 -0.442312 0 46 -0.442312 1
gene 1 12 38 1.44715 0 47 1.44715 1
gene 1 12 39 -3.65573 0 48 -3.65573 1
gene 1 13 36 1.43098 0 49 1.43098 1
gene 1 13 37 -4.65487 0 50 -4.65487 1
gene 1 13 38 -3.33481 0 51 -3.33481 1
gene 1 13 39 0.839779 0 52 0.839779 1
gene 1 14 36 1.78377 0 53 1.78377 1
gene 1 14 37 -3.77844 0 54 -3.77844 1
gene 1 14 38 -0.936372 0 55 -0.936372 1
gene 1 14 39 2.40451 0 56 2.40451 1
gene 1 15 36 -0.703424 0 57 -0.703424 1
gene 1 15 37 -0.800939 0 58 -0.800939 1
gene 1 15 38 -0.619952 0 59 -0.619952 1
gene 1 15 39 -1.90851 0 60 -1.90851 1
gene 1 16 36 -0.637621 0 61 -0.637621 1
gene 1 16 37 4.46499 0 62 4.46499 1
gene 1 16 38 4.67217 0 63 4.67217 1
gene 1 16 39 0.441688 0 64 0.441688 1
gene 1 17 36 0.468655 0 65 0.468655 1
gene 1 17 37 1.07438 0 66 1.07438 1
gene 1 17 38 -0.463517 0 67 -0.463517 1
gene 1 17 39 0.0315742 0 68 0.0315742 1
gene 1 18 36 -0.0401702 0 69 -0.0401702 1
gene 1 18 37 -1.78924 0 70 -1.78924 1
gene 1 18 38 -2.88504 0 71 -2.88504 1
gene 1 18 39 -3.54738 0 72 -3.54738 1
gene 1 19 36 2.78233 0 73 2.78233 1
gene 1 19 37 1.703 0 74 1.703 1
gene 1 19 38 -2.57082 0 75 -2.57082 1
gene 1 19 39 -1.93003 0 76 -1.93003 1
gene 1 20 36 1.5436 0 77 1.5436 1
gene 1 20 37 -1.07504 0 78 -1.07504 1
gene 1 20 38 -2.19664 0 79 -2.19664 1
gene 1 20 39 0.507711 0 80 0.507711 1
gene 1 21 36 0.335358 0 81 0.335358 1
gene 1 21 37 -1.33637 0 82 -1.33637 1
gene 1 21 38 0.997444 0 83 0.997444 1
gene 1 21 39 -3.02045 0 84 -3.02045 1
gene 1 22 36 0.886188 0 85 0.886188 1
gene 1 22 37 -1.32662 0 86 -1.32662 1
gene 1 22 38 1.42468 0 87 1.42468 1
gene 1 22 39 -1.14806 0 88 -1.14806 1
gene 1 23 36 -2.14164 0 89 -2.14164 1
gene 1 23 37 2.6293 0 90 2.6293 1
gene 1 23 38 1.31064 0 91 1.31064 1
gene 1 23 39 -2.27817 0 92 -2.27817 1
gene 1 24 36 -0.33626 0 93 -0.33626 1
gene 1 24 37 3.67779 0 94 3.67779 1
gene 1 24 38 -0.109161 0 95 -0.109161 1
gene 1 24 39 -1.67666 0 96 -1.67666 1
gene 1 25 36 -3.01113 0 97 -3.01113 1
gene 1 25 37 -3.92967 0 98 -3.92967 1
gene 1 25 38 -0.0187505 0 99 -0.0187505 1
gene 1 25 39 -4.1371 0 100 -4.1371 1
gene 1 26 36 0.368932 0 101 0.368932 1
gene 1 26 37 4.64306 0 102 4.64306 1
gene 1 26 38 5 0 103 5 1
gene 1 26 39 -0.0123022 0 104 -0.0123022 1
gene 1 27 36 4.4818 0 105 4.4818 1
gene 1 27 37 -3.50045 0 106 -3.50045 1
gene 1 27 38 -0.048087 0 107 -0.048087 1
gene 1 27 39 -1.88775 0 108 -1.88775 1
gene 1 28 36 -1.40266 0 109 -1.40266 1
gene 1 28 37 3.28888 0 110 3.28888 1
gene 1 28 38 2.08633 0 111 2.08633 1
gene 1 28 39 -2.39137 0 112 -2.39137 1
gene 1 29 36 -2.63589 0 113 -2.63589 1
gene 1 29 37 0.735513 0 114 0.735513 1
gene 1 29 38 0.405226 0 115 0.405226 1
gene 1 29 39 0.360594 0 116 0.360594 1
gene 1 30 36 1.61994 0 117 1.61994 1
gene 1 30 37 2.28819 0 118 2.28819 1
gene 1 30 38 -1.60052 0 119 -1.60052 1
gene 1 30 39 1.80103 0 120 1.80103 1
gene 1 31 36 -1.58311 0 121 -1.58311 1
gene 1 31 37 -1.38342 0 122 -1.38342 1
gene 1 31 38 1.1428 0 123 1.1428 1
gene 1 31 39 0.527779 0 124 0.527779 1
gene 1 32 36 0.910606 0 125 0.910606 1
gene 1 32 37 1.00644 0 126 1.00644 1
gene 1 32 38 -0.279891 0 127 -0.279891 1
gene 1 32 39 0.0730552 0 128 0.0730552 1
gene 1 33 36 -0.150532 0 129 -0.150532 1
gene 1 33 37 -1.41352 0 130 -1.41352 1
gene 1 33 38 0.0548407 0 131 0.0548407 1
gene 1 33 39 0.606543 0 132 0.606543 1
gene 1 34 36 0.317223 0 133 0.317223 1
gene 1 34 37 -0.48903 0 134 -0.48903 1
gene 1 34 38 -0.961467 0 135 -0.961467 1
gene 1 34 39 1.15157 0 136 1.15157 1
gene 1 35 36 -0.13654 0 137 -0.13654 1
gene 1 35 37 -0.535104 0 138 -0.535104 1
gene 1 35 38 -0.504303 0 139 -0.504303 1
gene 1 35 39 -0.88773 0 140 -0.88773 1
genomeend 2


