/* Organism #18 Fitness: 11056.500000 Time: 0 */
genomestart 18
trait 1 0.721344 0.000000 0.000000 1.000000 0.000000 0.000000 0.000000 0.000000 
node 1 1 1 1
node 2 1 1 1
node 3 1 1 1
node 4 1 1 1
node 5 1 1 1
node 6 1 1 1
node 7 1 1 1
node 8 1 1 1
node 9 1 1 1
node 10 1 1 1
node 11 1 1 1
node 12 1 1 1
node 13 1 1 1
node 14 1 1 1
node 15 1 1 1
node 16 1 1 1
node 17 1 1 1
node 18 1 1 1
node 19 1 1 1
node 20 1 1 1
node 21 1 1 1
node 22 1 1 1
node 23 1 1 1
node 24 1 1 1
node 25 1 1 1
node 26 1 1 1
node 27 1 1 1
node 28 1 1 1
node 29 1 1 1
node 30 1 1 3
node 31 1 0 2
node 32 1 0 2
node 33 1 0 2
gene 1 1 31 -1.83274 0 1 -1.83274 1
gene 1 1 32 1.1968 0 2 1.1968 1
gene 1 1 33 0.724534 0 3 0.724534 1
gene 1 2 31 -2.84226 0 4 -2.84226 1
gene 1 2 32 -0.838179 0 5 -0.838179 1
gene 1 2 33 0.833382 0 6 0.833382 1
gene 1 3 31 0.42276 0 7 0.42276 1
gene 1 3 32 1.78099 0 8 1.78099 1
gene 1 3 33 -1.02086 0 9 -1.02086 1
gene 1 4 31 -0.440822 0 10 -0.440822 1
gene 1 4 32 1.52711 0 11 1.52711 1
gene 1 4 33 0.679664 0 12 0.679664 1
gene 1 5 31 -0.232024 0 13 -0.232024 1
gene 1 5 32 1.71458 0 14 1.71458 1
gene 1 5 33 -0.514793 0 15 -0.514793 1
gene 1 6 31 -0.829031 0 16 -0.829031 1
gene 1 6 32 3.53368 0 17 3.53368 1
gene 1 6 33 -1.2442 0 18 -1.2442 1
gene 1 7 31 2.88664 0 19 2.88664 1
gene 1 7 32 -0.252255 0 20 -0.252255 1
gene 1 7 33 3.77648 0 21 3.77648 1
gene 1 8 31 -0.5882 0 22 -0.5882 1
gene 1 8 32 -1.21688 0 23 -1.21688 1
gene 1 8 33 0.0919579 0 24 0.0919579 1
gene 1 9 31 -1.95948 0 25 -1.95948 1
gene 1 9 32 4.28881 0 26 4.28881 1
gene 1 9 33 -2.21578 0 27 -2.21578 1
gene 1 10 31 2.59418 0 28 2.59418 1
gene 1 10 32 1.91516 0 29 1.91516 1
gene 1 10 33 0.529679 0 30 0.529679 1
gene 1 11 31 2.04089 0 31 2.04089 1
gene 1 11 32 -0.631587 0 32 -0.631587 1
gene 1 11 33 -0.0665488 0 33 -0.0665488 1
gene 1 12 31 -0.18108 0 34 -0.18108 1
gene 1 12 32 -4.06723 0 35 -4.06723 1
gene 1 12 33 0.72355 0 36 0.72355 1
gene 1 13 31 0.493029 0 37 0.493029 1
gene 1 13 32 -1.54693 0 38 -1.54693 1
gene 1 13 33 -1.33403 0 39 -1.33403 1
gene 1 14 31 -4.75395 0 40 -4.75395 1
gene 1 14 32 1.16083 0 41 1.16083 1
gene 1 14 33 -1.08955 0 42 -1.08955 1
gene 1 15 31 -2.17052 0 43 -2.17052 1
gene 1 15 32 4.08053 0 44 4.08053 1
gene 1 15 33 -2.97448 0 45 -2.97448 1
gene 1 16 31 -1.78848 0 46 -1.78848 1
gene 1 16 32 4.7708 0 47 4.7708 1
gene 1 16 33 -2.69572 0 48 -2.69572 1
gene 1 17 31 1.74261 0 49 1.74261 1
gene 1 17 32 -2.18929 0 50 -2.18929 1
gene 1 17 33 -0.527405 0 51 -0.527405 1
gene 1 18 31 1.19726 0 52 1.19726 1
gene 1 18 32 -1.83084 0 53 -1.83084 1
gene 1 18 33 -0.235395 0 54 -0.235395 1
gene 1 19 31 -1.52551 0 55 -1.52551 1
gene 1 19 32 0.0318869 0 56 0.0318869 1
gene 1 19 33 -0.423234 0 57 -0.423234 1
gene 1 20 31 -0.210718 0 58 -0.210718 1
gene 1 20 32 0.311597 0 59 0.311597 1
gene 1 20 33 -1.33251 0 60 -1.33251 1
gene 1 21 31 1.91017 0 61 1.91017 1
gene 1 21 32 0.483286 0 62 0.483286 1
gene 1 21 33 -0.16261 0 63 -0.16261 1
gene 1 22 31 1.227 0 64 1.227 1
gene 1 22 32 1.803 0 65 1.803 1
gene 1 22 33 2.78663 0 66 2.78663 1
gene 1 23 31 -3.48079 0 67 -3.48079 1
gene 1 23 32 -1.59203 0 68 -1.59203 1
gene 1 23 33 -1.87509 0 69 -1.87509 1
gene 1 24 31 0.124632 0 70 0.124632 1
gene 1 24 32 -0.772408 0 71 -0.772408 1
gene 1 24 33 -0.203389 0 72 -0.203389 1
gene 1 25 31 -0.207122 0 73 -0.207122 1
gene 1 25 32 -1.48699 0 74 -1.48699 1
gene 1 25 33 0.0307122 0 75 0.0307122 1
gene 1 26 31 1.45241 0 76 1.45241 1
gene 1 26 32 -2.31947 0 77 -2.31947 1
gene 1 26 33 -1.30278 0 78 -1.30278 1
gene 1 27 31 0.0446896 0 79 0.0446896 1
gene 1 27 32 0.711231 0 80 0.711231 1
gene 1 27 33 1.22767 0 81 1.22767 1
gene 1 28 31 0.669886 0 82 0.669886 1
gene 1 28 32 -1.00984 0 83 -1.00984 1
gene 1 28 33 -0.912902 0 84 -0.912902 1
gene 1 29 31 0.0282847 0 85 0.0282847 1
gene 1 29 32 -0.693114 0 86 -0.693114 1
gene 1 29 33 -1.38952 0 87 -1.38952 1
gene 1 30 31 -2.29883 0 88 -2.29883 1
gene 1 30 32 -0.268777 0 89 -0.268777 1
gene 1 30 33 -0.630031 0 90 -0.630031 1
genomeend 18


