/* Organism #5 Fitness: 39152.500000 Time: 0 */
genomestart 5
trait 1 1.000000 0.479669 0.814902 0.738979 0.000000 0.000000 0.000000 0.000000 
node 1 1 1 1
node 2 1 1 1
node 3 1 1 1
node 4 1 1 1
node 5 1 1 1
node 6 1 1 1
node 7 1 1 1
node 8 1 1 1
node 9 1 1 1
node 10 1 1 1
node 11 1 1 1
node 12 1 1 1
node 13 1 1 1
node 14 1 1 1
node 15 1 1 1
node 16 1 1 1
node 17 1 1 1
node 18 1 1 1
node 19 1 1 1
node 20 1 1 1
node 21 1 1 1
node 22 1 1 1
node 23 1 1 1
node 24 1 1 1
node 25 1 1 1
node 26 1 1 1
node 27 1 1 1
node 28 1 1 1
node 29 1 1 1
node 30 1 1 3
node 31 1 0 2
node 32 1 0 2
node 33 1 0 2
gene 1 1 31 0.917095 0 1 0.917095 1
gene 1 1 32 -4.01271 0 2 -4.01271 1
gene 1 1 33 0.302432 0 3 0.302432 1
gene 1 2 31 -2.53165 0 4 -2.53165 1
gene 1 2 32 1.98349 0 5 1.98349 1
gene 1 2 33 4.06281 0 6 4.06281 1
gene 1 3 31 2.11242 0 7 2.11242 1
gene 1 3 32 0.154979 0 8 0.154979 1
gene 1 3 33 2.62616 0 9 2.62616 1
gene 1 4 31 -5 0 10 -5 1
gene 1 4 32 0.0250762 0 11 0.0250762 1
gene 1 4 33 4.31865 0 12 4.31865 1
gene 1 5 31 5 0 13 5 1
gene 1 5 32 -4.89498 0 14 -4.89498 1
gene 1 5 33 -0.42802 0 15 -0.42802 1
gene 1 6 31 -3.30855 0 16 -3.30855 1
gene 1 6 32 3.21949 0 17 3.21949 1
gene 1 6 33 1.46693 0 18 1.46693 1
gene 1 7 31 3.33682 0 19 3.33682 1
gene 1 7 32 -4.05561 0 20 -4.05561 1
gene 1 7 33 3.12273 0 21 3.12273 1
gene 1 8 31 -0.511566 0 22 -0.511566 1
gene 1 8 32 -2.12767 0 23 -2.12767 1
gene 1 8 33 3.79283 0 24 3.79283 1
gene 1 9 31 -1.11807 0 25 -1.11807 1
gene 1 9 32 -0.112144 0 26 -0.112144 1
gene 1 9 33 3.67501 0 27 3.67501 1
gene 1 10 31 0.492931 0 28 0.492931 1
gene 1 10 32 0.78887 0 29 0.78887 1
gene 1 10 33 2.05604 0 30 2.05604 1
gene 1 11 31 -0.00140779 0 31 -0.00140779 1
gene 1 11 32 -5 0 32 -5 1
gene 1 11 33 -1.64455 0 33 -1.64455 1
gene 1 12 31 4.22547 0 34 4.22547 1
gene 1 12 32 3.76441 0 35 3.76441 1
gene 1 12 33 -0.0714687 0 36 -0.0714687 1
gene 1 13 31 -2.58571 0 37 -2.58571 1
gene 1 13 32 0.663617 0 38 0.663617 1
gene 1 13 33 2.33986 0 39 2.33986 1
gene 1 14 31 0.607238 0 40 0.607238 1
gene 1 14 32 5 0 41 5 1
gene 1 14 33 -2.0494 0 42 -2.0494 1
gene 1 15 31 2.54571 0 43 2.54571 1
gene 1 15 32 -5 0 44 -5 1
gene 1 15 33 3.4193 0 45 3.4193 1
gene 1 16 31 -2.75839 0 46 -2.75839 1
gene 1 16 32 -1.20214 0 47 -1.20214 1
gene 1 16 33 0.874719 0 48 0.874719 1
gene 1 17 31 -1.67283 0 49 -1.67283 1
gene 1 17 32 -2.33419 0 50 -2.33419 1
gene 1 17 33 0.00997318 0 51 0.00997318 1
gene 1 18 31 -5 0 52 -5 1
gene 1 18 32 -2.4366 0 53 -2.4366 1
gene 1 18 33 -1.09608 0 54 -1.09608 1
gene 1 19 31 2.01724 0 55 2.01724 1
gene 1 19 32 -4.90269 0 56 -4.90269 1
gene 1 19 33 3.03213 0 57 3.03213 1
gene 1 20 31 -2.50376 0 58 -2.50376 1
gene 1 20 32 1.37217 0 59 1.37217 1
gene 1 20 33 -2.94316 0 60 -2.94316 1
gene 1 21 31 -0.0935848 0 61 -0.0935848 1
gene 1 21 32 0.40855 0 62 0.40855 1
gene 1 21 33 3.33517 0 63 3.33517 1
gene 1 22 31 4.05794 0 64 4.05794 1
gene 1 22 32 1.18128 0 65 1.18128 1
gene 1 22 33 -3.23126 0 66 -3.23126 1
gene 1 23 31 4.71 0 67 4.71 1
gene 1 23 32 -3.56886 0 68 -3.56886 1
gene 1 23 33 1.20089 0 69 1.20089 1
gene 1 24 31 -1.0854 0 70 -1.0854 1
gene 1 24 32 -0.565562 0 71 -0.565562 1
gene 1 24 33 4.13428 0 72 4.13428 1
gene 1 25 31 2.65347 0 73 2.65347 1
gene 1 25 32 -0.984712 0 74 -0.984712 1
gene 1 25 33 -0.317424 0 75 -0.317424 1
gene 1 26 31 1.16749 0 76 1.16749 1
gene 1 26 32 0.440136 0 77 0.440136 1
gene 1 26 33 2.75655 0 78 2.75655 1
gene 1 27 31 0.688443 0 79 0.688443 1
gene 1 27 32 1.59209 0 80 1.59209 1
gene 1 27 33 0.953286 0 81 0.953286 1
gene 1 28 31 -0.780339 0 82 -0.780339 1
gene 1 28 32 -0.181927 0 83 -0.181927 1
gene 1 28 33 1.09167 0 84 1.09167 1
gene 1 29 31 0.328807 0 85 0.328807 1
gene 1 29 32 -0.738168 0 86 -0.738168 1
gene 1 29 33 0.93462 0 87 0.93462 1
gene 1 30 31 -0.467529 0 88 -0.467529 1
gene 1 30 32 0.302106 0 89 0.302106 1
gene 1 30 33 -1.00896 0 90 -1.00896 1
genomeend 5


