
/* Species #1 : (Size 100) (AF 0) (Age 151)  */


/* Organism #0 Fitness: 32114.8 Error: 0 */
genomestart 0
trait 1 1 1 0 0.820794 1 0.484848 0.157174 0.310013 
node 1 1 1 1
node 2 1 1 1
node 3 1 1 1
node 4 1 1 1
node 5 1 1 1
node 6 1 1 1
node 7 1 1 1
node 8 1 1 1
node 9 1 1 1
node 10 1 1 1
node 11 1 1 1
node 12 1 1 1
node 13 1 1 1
node 14 1 1 1
node 15 1 1 1
node 16 1 1 1
node 17 1 1 1
node 18 1 1 1
node 19 1 1 1
node 20 1 1 1
node 21 1 1 1
node 22 1 1 1
node 23 1 1 1
node 24 1 1 1
node 25 1 1 1
node 26 1 1 1
node 27 1 1 1
node 28 1 1 1
node 29 1 1 1
node 30 1 1 3
node 31 1 0 2
node 32 1 0 2
node 33 1 0 2
gene 1 1 31 -2.95696 0 1 -2.95696 1
gene 1 1 32 0.67381 0 2 0.67381 1
gene 1 1 33 0.850799 0 3 0.850799 1
gene 1 2 31 2.7977 0 4 2.7977 1
gene 1 2 32 0.906693 0 5 0.906693 1
gene 1 2 33 0.648305 0 6 0.648305 1
gene 1 3 31 -0.122679 0 7 -0.122679 1
gene 1 3 32 5 0 8 5 1
gene 1 3 33 -2.46089 0 9 -2.46089 1
gene 1 4 31 -4.03723 0 10 -4.03723 1
gene 1 4 32 -0.196819 0 11 -0.196819 1
gene 1 4 33 4.53214 0 12 4.53214 1
gene 1 5 31 1.3449 0 13 1.3449 1
gene 1 5 32 -4.55121 0 14 -4.55121 1
gene 1 5 33 -4.17272 0 15 -4.17272 1
gene 1 6 31 0.860462 0 16 0.860462 1
gene 1 6 32 -4.31613 0 17 -4.31613 1
gene 1 6 33 1.84705 0 18 1.84705 1
gene 1 7 31 -3.87017 0 19 -3.87017 1
gene 1 7 32 1.33563 0 20 1.33563 1
gene 1 7 33 -2.2297 0 21 -2.2297 1
gene 1 8 31 -4.65556 0 22 -4.65556 1
gene 1 8 32 1.21718 0 23 1.21718 1
gene 1 8 33 3.98791 0 24 3.98791 1
gene 1 9 31 1.47891 0 25 1.47891 1
gene 1 9 32 0.615152 0 26 0.615152 1
gene 1 9 33 0.0540441 0 27 0.0540441 1
gene 1 10 31 -0.474081 0 28 -0.474081 1
gene 1 10 32 3.6606 0 29 3.6606 1
gene 1 10 33 3.19823 0 30 3.19823 1
gene 1 11 31 2.41283 0 31 2.41283 1
gene 1 11 32 3.94587 0 32 3.94587 1
gene 1 11 33 2.3937 0 33 2.3937 1
gene 1 12 31 4.41659 0 34 4.41659 1
gene 1 12 32 -0.745931 0 35 -0.745931 1
gene 1 12 33 0.40585 0 36 0.40585 1
gene 1 13 31 0.904586 0 37 0.904586 1
gene 1 13 32 2.10858 0 38 2.10858 1
gene 1 13 33 -0.992485 0 39 -0.992485 1
gene 1 14 31 -0.0285083 0 40 -0.0285083 1
gene 1 14 32 3.16575 0 41 3.16575 1
gene 1 14 33 -5 0 42 -5 1
gene 1 15 31 0.9077 0 43 0.9077 1
gene 1 15 32 -0.571655 0 44 -0.571655 1
gene 1 15 33 3.38923 0 45 3.38923 1
gene 1 16 31 2.66501 0 46 2.66501 1
gene 1 16 32 -3.16136 0 47 -3.16136 1
gene 1 16 33 2.30885 0 48 2.30885 1
gene 1 17 31 0.719066 0 49 0.719066 1
gene 1 17 32 -2.45873 0 50 -2.45873 1
gene 1 17 33 -3.95323 0 51 -3.95323 1
gene 1 18 31 -0.854268 0 52 -0.854268 1
gene 1 18 32 4.64064 0 53 4.64064 1
gene 1 18 33 4.09804 0 54 4.09804 1
gene 1 19 31 -5 0 55 -5 1
gene 1 19 32 -1.89577 0 56 -1.89577 1
gene 1 19 33 -0.39122 0 57 -0.39122 1
gene 1 20 31 -0.568868 0 58 -0.568868 1
gene 1 20 32 1.8828 0 59 1.8828 1
gene 1 20 33 0.492033 0 60 0.492033 1
gene 1 21 31 -0.429335 0 61 -0.429335 1
gene 1 21 32 1.09929 0 62 1.09929 1
gene 1 21 33 -0.186115 0 63 -0.186115 1
gene 1 22 31 0.264047 0 64 0.264047 1
gene 1 22 32 -2.16383 0 65 -2.16383 1
gene 1 22 33 -3.06762 0 66 -3.06762 1
gene 1 23 31 1.03334 0 67 1.03334 1
gene 1 23 32 -1.72506 0 68 -1.72506 1
gene 1 23 33 0.392229 0 69 0.392229 1
gene 1 24 31 3.28932 0 70 3.28932 1
gene 1 24 32 0.118296 0 71 0.118296 1
gene 1 24 33 2.43784 0 72 2.43784 1
gene 1 25 31 1.06839 0 73 1.06839 1
gene 1 25 32 0.772443 0 74 0.772443 1
gene 1 25 33 2.48041 0 75 2.48041 1
gene 1 26 31 1.4553 0 76 1.4553 1
gene 1 26 32 0.0758629 0 77 0.0758629 1
gene 1 26 33 -0.288339 0 78 -0.288339 1
gene 1 27 31 0.886404 0 79 0.886404 1
gene 1 27 32 -0.852259 0 80 -0.852259 1
gene 1 27 33 1.76858 0 81 1.76858 1
gene 1 28 31 -0.554809 0 82 -0.554809 1
gene 1 28 32 -0.181694 0 83 -0.181694 1
gene 1 28 33 1.56768 0 84 1.56768 1
gene 1 29 31 -1.30808 0 85 -1.30808 1
gene 1 29 32 0.430715 0 86 0.430715 1
gene 1 29 33 -0.080231 0 87 -0.080231 1
gene 1 30 31 -1.55843 0 88 -1.55843 1
gene 1 30 32 -5 0 89 -5 1
gene 1 30 33 -0.0908232 0 90 -0.0908232 1
genomeend 0

/* Organism #1 Fitness: 34144.2 Error: 0 */
genomestart 1
trait 1 0.212822 1 0.212808 1 0.181346 1 0 0.776166 
node 1 1 1 1
node 2 1 1 1
node 3 1 1 1
node 4 1 1 1
node 5 1 1 1
node 6 1 1 1
node 7 1 1 1
node 8 1 1 1
node 9 1 1 1
node 10 1 1 1
node 11 1 1 1
node 12 1 1 1
node 13 1 1 1
node 14 1 1 1
node 15 1 1 1
node 16 1 1 1
node 17 1 1 1
node 18 1 1 1
node 19 1 1 1
node 20 1 1 1
node 21 1 1 1
node 22 1 1 1
node 23 1 1 1
node 24 1 1 1
node 25 1 1 1
node 26 1 1 1
node 27 1 1 1
node 28 1 1 1
node 29 1 1 1
node 30 1 1 3
node 31 1 0 2
node 32 1 0 2
node 33 1 0 2
gene 1 1 31 -2.97453 0 1 -2.97453 1
gene 1 1 32 -5 0 2 -5 1
gene 1 1 33 -1.41987 0 3 -1.41987 1
gene 1 2 31 -2.30213 0 4 -2.30213 1
gene 1 2 32 3.92268 0 5 3.92268 1
gene 1 2 33 0.138547 0 6 0.138547 1
gene 1 3 31 1.28957 0 7 1.28957 1
gene 1 3 32 0.701538 0 8 0.701538 1
gene 1 3 33 0.237187 0 9 0.237187 1
gene 1 4 31 -4.07366 0 10 -4.07366 1
gene 1 4 32 5 0 11 5 1
gene 1 4 33 -1.61194 0 12 -1.61194 1
gene 1 5 31 1.20768 0 13 1.20768 1
gene 1 5 32 -3.01747 0 14 -3.01747 1
gene 1 5 33 -1.72069 0 15 -1.72069 1
gene 1 6 31 -1.46371 0 16 -1.46371 1
gene 1 6 32 -4.83865 0 17 -4.83865 1
gene 1 6 33 -3.3909 0 18 -3.3909 1
gene 1 7 31 -1.20174 0 19 -1.20174 1
gene 1 7 32 0.0383371 0 20 0.0383371 1
gene 1 7 33 -2.83675 0 21 -2.83675 1
gene 1 8 31 1.255 0 22 1.255 1
gene 1 8 32 -1.05041 0 23 -1.05041 1
gene 1 8 33 -0.469225 0 24 -0.469225 1
gene 1 9 31 0.953349 0 25 0.953349 1
gene 1 9 32 0.00741548 0 26 0.00741548 1
gene 1 9 33 4.1595 0 27 4.1595 1
gene 1 10 31 -3.30748 0 28 -3.30748 1
gene 1 10 32 0.894686 0 29 0.894686 1
gene 1 10 33 1.46838 0 30 1.46838 1
gene 1 11 31 -0.34438 0 31 -0.34438 1
gene 1 11 32 2.56441 0 32 2.56441 1
gene 1 11 33 -1.47512 0 33 -1.47512 1
gene 1 12 31 3.16453 0 34 3.16453 1
gene 1 12 32 -0.187815 0 35 -0.187815 1
gene 1 12 33 1.08456 0 36 1.08456 1
gene 1 13 31 -0.798514 0 37 -0.798514 1
gene 1 13 32 2.02622 0 38 2.02622 1
gene 1 13 33 -1.88159 0 39 -1.88159 1
gene 1 14 31 -2.38414 0 40 -2.38414 1
gene 1 14 32 0.306026 0 41 0.306026 1
gene 1 14 33 -0.612424 0 42 -0.612424 1
gene 1 15 31 -1.4435 0 43 -1.4435 1
gene 1 15 32 0.236256 0 44 0.236256 1
gene 1 15 33 -2.53557 0 45 -2.53557 1
gene 1 16 31 1.47482 0 46 1.47482 1
gene 1 16 32 -0.16645 0 47 -0.16645 1
gene 1 16 33 0.613841 0 48 0.613841 1
gene 1 17 31 -2.61033 0 49 -2.61033 1
gene 1 17 32 0.148695 0 50 0.148695 1
gene 1 17 33 2.17784 0 51 2.17784 1
gene 1 18 31 1.34676 0 52 1.34676 1
gene 1 18 32 0.463926 0 53 0.463926 1
gene 1 18 33 3.83977 0 54 3.83977 1
gene 1 19 31 -0.90969 0 55 -0.90969 1
gene 1 19 32 -1.39412 0 56 -1.39412 1
gene 1 19 33 3.42098 0 57 3.42098 1
gene 1 20 31 0.203514 0 58 0.203514 1
gene 1 20 32 -0.585195 0 59 -0.585195 1
gene 1 20 33 0.45476 0 60 0.45476 1
gene 1 21 31 5 0 61 5 1
gene 1 21 32 -0.532402 0 62 -0.532402 1
gene 1 21 33 1.37077 0 63 1.37077 1
gene 1 22 31 0.0309717 0 64 0.0309717 1
gene 1 22 32 0.19651 0 65 0.19651 1
gene 1 22 33 -2.43318 0 66 -2.43318 1
gene 1 23 31 -0.882843 0 67 -0.882843 1
gene 1 23 32 0.387542 0 68 0.387542 1
gene 1 23 33 -1.73119 0 69 -1.73119 1
gene 1 24 31 1.78292 0 70 1.78292 1
gene 1 24 32 0.0551425 0 71 0.0551425 1
gene 1 24 33 0.779437 0 72 0.779437 1
gene 1 25 31 -1.63277 0 73 -1.63277 1
gene 1 25 32 0.381163 0 74 0.381163 1
gene 1 25 33 -2.60406 0 75 -2.60406 1
gene 1 26 31 -0.218255 0 76 -0.218255 1
gene 1 26 32 -0.224394 0 77 -0.224394 1
gene 1 26 33 0.378495 0 78 0.378495 1
gene 1 27 31 0.707633 0 79 0.707633 1
gene 1 27 32 -0.455791 0 80 -0.455791 1
gene 1 27 33 0.760739 0 81 0.760739 1
gene 1 28 31 0.0980336 0 82 0.0980336 1
gene 1 28 32 -0.0777892 0 83 -0.0777892 1
gene 1 28 33 0.810338 0 84 0.810338 1
gene 1 29 31 -1.72345 0 85 -1.72345 1
gene 1 29 32 -0.470857 0 86 -0.470857 1
gene 1 29 33 0.220061 0 87 0.220061 1
gene 1 30 31 -0.672791 0 88 -0.672791 1
gene 1 30 32 -3.167 0 89 -3.167 1
gene 1 30 33 -0.404592 0 90 -0.404592 1
genomeend 1

/* Organism #2 Fitness: 33407.5 Error: 0 */
genomestart 2
trait 1 1 1 0 0.820794 1 0.484848 0.157174 0.310013 
node 1 1 1 1
node 2 1 1 1
node 3 1 1 1
node 4 1 1 1
node 5 1 1 1
node 6 1 1 1
node 7 1 1 1
node 8 1 1 1
node 9 1 1 1
node 10 1 1 1
node 11 1 1 1
node 12 1 1 1
node 13 1 1 1
node 14 1 1 1
node 15 1 1 1
node 16 1 1 1
node 17 1 1 1
node 18 1 1 1
node 19 1 1 1
node 20 1 1 1
node 21 1 1 1
node 22 1 1 1
node 23 1 1 1
node 24 1 1 1
node 25 1 1 1
node 26 1 1 1
node 27 1 1 1
node 28 1 1 1
node 29 1 1 1
node 30 1 1 3
node 31 1 0 2
node 32 1 0 2
node 33 1 0 2
gene 1 1 31 -3.77268 0 1 -3.77268 1
gene 1 1 32 -0.13253 0 2 -0.13253 1
gene 1 1 33 0.795133 0 3 0.795133 1
gene 1 2 31 2.44542 0 4 2.44542 1
gene 1 2 32 2.79809 0 5 2.79809 1
gene 1 2 33 1.84088 0 6 1.84088 1
gene 1 3 31 -0.4544 0 7 -0.4544 1
gene 1 3 32 4.08762 0 8 4.08762 1
gene 1 3 33 -0.90199 0 9 -0.90199 1
gene 1 4 31 -3.42112 0 10 -3.42112 1
gene 1 4 32 0.0166585 0 11 0.0166585 1
gene 1 4 33 3.56338 0 12 3.56338 1
gene 1 5 31 1.39147 0 13 1.39147 1
gene 1 5 32 -2.80693 0 14 -2.80693 1
gene 1 5 33 -4.03414 0 15 -4.03414 1
gene 1 6 31 1.83186 0 16 1.83186 1
gene 1 6 32 -4.40145 0 17 -4.40145 1
gene 1 6 33 0.172482 0 18 0.172482 1
gene 1 7 31 -2.81915 0 19 -2.81915 1
gene 1 7 32 0.713029 0 20 0.713029 1
gene 1 7 33 -1.30513 0 21 -1.30513 1
gene 1 8 31 -2.99669 0 22 -2.99669 1
gene 1 8 32 -0.141967 0 23 -0.141967 1
gene 1 8 33 2.94523 0 24 2.94523 1
gene 1 9 31 0.400199 0 25 0.400199 1
gene 1 9 32 0.0772227 0 26 0.0772227 1
gene 1 9 33 1.01619 0 27 1.01619 1
gene 1 10 31 -1.14924 0 28 -1.14924 1
gene 1 10 32 3.08487 0 29 3.08487 1
gene 1 10 33 4.27623 0 30 4.27623 1
gene 1 11 31 3.82204 0 31 3.82204 1
gene 1 11 32 3.73897 0 32 3.73897 1
gene 1 11 33 0.686926 0 33 0.686926 1
gene 1 12 31 4.13529 0 34 4.13529 1
gene 1 12 32 -0.869064 0 35 -0.869064 1
gene 1 12 33 -0.257437 0 36 -0.257437 1
gene 1 13 31 -1.46209 0 37 -1.46209 1
gene 1 13 32 2.91243 0 38 2.91243 1
gene 1 13 33 0.206857 0 39 0.206857 1
gene 1 14 31 -1.38479 0 40 -1.38479 1
gene 1 14 32 3.51318 0 41 3.51318 1
gene 1 14 33 -3.85713 0 42 -3.85713 1
gene 1 15 31 1.94355 0 43 1.94355 1
gene 1 15 32 -0.832308 0 44 -0.832308 1
gene 1 15 33 4.26366 0 45 4.26366 1
gene 1 16 31 2.79122 0 46 2.79122 1
gene 1 16 32 -3.99424 0 47 -3.99424 1
gene 1 16 33 -0.120288 0 48 -0.120288 1
gene 1 17 31 0.374133 0 49 0.374133 1
gene 1 17 32 -1.8912 0 50 -1.8912 1
gene 1 17 33 -4.04199 0 51 -4.04199 1
gene 1 18 31 -0.583125 0 52 -0.583125 1
gene 1 18 32 3.80652 0 53 3.80652 1
gene 1 18 33 4.42115 0 54 4.42115 1
gene 1 19 31 -5 0 55 -5 1
gene 1 19 32 -1.83197 0 56 -1.83197 1
gene 1 19 33 0.00116611 0 57 0.00116611 1
gene 1 20 31 0.119641 0 58 0.119641 1
gene 1 20 32 2.58964 0 59 2.58964 1
gene 1 20 33 2.02592 0 60 2.02592 1
gene 1 21 31 -3.77919 0 61 -3.77919 1
gene 1 21 32 1.83238 0 62 1.83238 1
gene 1 21 33 1.30329 0 63 1.30329 1
gene 1 22 31 0.405477 0 64 0.405477 1
gene 1 22 32 -2.46986 0 65 -2.46986 1
gene 1 22 33 -1.63495 0 66 -1.63495 1
gene 1 23 31 -1.15619 0 67 -1.15619 1
gene 1 23 32 -1.19958 0 68 -1.19958 1
gene 1 23 33 2.72515 0 69 2.72515 1
gene 1 24 31 2.95857 0 70 2.95857 1
gene 1 24 32 -0.85243 0 71 -0.85243 1
gene 1 24 33 0.230018 0 72 0.230018 1
gene 1 25 31 0.105592 0 73 0.105592 1
gene 1 25 32 -0.607371 0 74 -0.607371 1
gene 1 25 33 0.573482 0 75 0.573482 1
gene 1 26 31 -0.141477 0 76 -0.141477 1
gene 1 26 32 0.953021 0 77 0.953021 1
gene 1 26 33 0.732193 0 78 0.732193 1
gene 1 27 31 0.101827 0 79 0.101827 1
gene 1 27 32 -2.27889 0 80 -2.27889 1
gene 1 27 33 0.219504 0 81 0.219504 1
gene 1 28 31 0.643249 0 82 0.643249 1
gene 1 28 32 -0.756165 0 83 -0.756165 1
gene 1 28 33 0.156164 0 84 0.156164 1
gene 1 29 31 -0.788492 0 85 -0.788492 1
gene 1 29 32 -0.249838 0 86 -0.249838 1
gene 1 29 33 0.788092 0 87 0.788092 1
gene 1 30 31 -0.896668 0 88 -0.896668 1
gene 1 30 32 -4.0427 0 89 -4.0427 1
gene 1 30 33 -1.36358 0 90 -1.36358 1
genomeend 2

/* Organism #3 Fitness: 32472.4 Error: 0 */
genomestart 3
trait 1 1 1 0 0.820794 1 0.484848 0.157174 0.310013 
node 1 1 1 1
node 2 1 1 1
node 3 1 1 1
node 4 1 1 1
node 5 1 1 1
node 6 1 1 1
node 7 1 1 1
node 8 1 1 1
node 9 1 1 1
node 10 1 1 1
node 11 1 1 1
node 12 1 1 1
node 13 1 1 1
node 14 1 1 1
node 15 1 1 1
node 16 1 1 1
node 17 1 1 1
node 18 1 1 1
node 19 1 1 1
node 20 1 1 1
node 21 1 1 1
node 22 1 1 1
node 23 1 1 1
node 24 1 1 1
node 25 1 1 1
node 26 1 1 1
node 27 1 1 1
node 28 1 1 1
node 29 1 1 1
node 30 1 1 3
node 31 1 0 2
node 32 1 0 2
node 33 1 0 2
gene 1 1 31 -3.04878 0 1 -3.04878 1
gene 1 1 32 0.361759 0 2 0.361759 1
gene 1 1 33 0.0727731 0 3 0.0727731 1
gene 1 2 31 2.7977 0 4 2.7977 1
gene 1 2 32 2.56886 0 5 2.56886 1
gene 1 2 33 1.42254 0 6 1.42254 1
gene 1 3 31 -0.445277 0 7 -0.445277 1
gene 1 3 32 5 0 8 5 1
gene 1 3 33 -1.71715 0 9 -1.71715 1
gene 1 4 31 -4.91407 0 10 -4.91407 1
gene 1 4 32 -0.544776 0 11 -0.544776 1
gene 1 4 33 4.60976 0 12 4.60976 1
gene 1 5 31 0.706656 0 13 0.706656 1
gene 1 5 32 -4.63967 0 14 -4.63967 1
gene 1 5 33 -4.38865 0 15 -4.38865 1
gene 1 6 31 0.540195 0 16 0.540195 1
gene 1 6 32 -4.52622 0 17 -4.52622 1
gene 1 6 33 1.6823 0 18 1.6823 1
gene 1 7 31 -3.81682 0 19 -3.81682 1
gene 1 7 32 0.896133 0 20 0.896133 1
gene 1 7 33 -2.74078 0 21 -2.74078 1
gene 1 8 31 -4.18367 0 22 -4.18367 1
gene 1 8 32 0.242347 0 23 0.242347 1
gene 1 8 33 3.91976 0 24 3.91976 1
gene 1 9 31 1.67891 0 25 1.67891 1
gene 1 9 32 -1.07659 0 26 -1.07659 1
gene 1 9 33 0.367428 0 27 0.367428 1
gene 1 10 31 -0.926733 0 28 -0.926733 1
gene 1 10 32 3.80735 0 29 3.80735 1
gene 1 10 33 3.19823 0 30 3.19823 1
gene 1 11 31 3.18549 0 31 3.18549 1
gene 1 11 32 3.94587 0 32 3.94587 1
gene 1 11 33 2.3937 0 33 2.3937 1
gene 1 12 31 4.41659 0 34 4.41659 1
gene 1 12 32 0.222365 0 35 0.222365 1
gene 1 12 33 -0.168476 0 36 -0.168476 1
gene 1 13 31 -2.09272 0 37 -2.09272 1
gene 1 13 32 2.04927 0 38 2.04927 1
gene 1 13 33 -0.887937 0 39 -0.887937 1
gene 1 14 31 -0.812539 0 40 -0.812539 1
gene 1 14 32 4.14035 0 41 4.14035 1
gene 1 14 33 -5 0 42 -5 1
gene 1 15 31 0.897223 0 43 0.897223 1
gene 1 15 32 -0.416117 0 44 -0.416117 1
gene 1 15 33 4.18543 0 45 4.18543 1
gene 1 16 31 3.56504 0 46 3.56504 1
gene 1 16 32 -2.95793 0 47 -2.95793 1
gene 1 16 33 1.39236 0 48 1.39236 1
gene 1 17 31 0.515108 0 49 0.515108 1
gene 1 17 32 -2.33955 0 50 -2.33955 1
gene 1 17 33 -3.85158 0 51 -3.85158 1
gene 1 18 31 -0.191813 0 52 -0.191813 1
gene 1 18 32 4.91412 0 53 4.91412 1
gene 1 18 33 3.18849 0 54 3.18849 1
gene 1 19 31 -4.41097 0 55 -4.41097 1
gene 1 19 32 -1.23444 0 56 -1.23444 1
gene 1 19 33 0.200964 0 57 0.200964 1
gene 1 20 31 -1.31365 0 58 -1.31365 1
gene 1 20 32 2.45459 0 59 2.45459 1
gene 1 20 33 0.492033 0 60 0.492033 1
gene 1 21 31 -3.13797 0 61 -3.13797 1
gene 1 21 32 0.12667 0 62 0.12667 1
gene 1 21 33 0.841032 0 63 0.841032 1
gene 1 22 31 0.264047 0 64 0.264047 1
gene 1 22 32 -2.78809 0 65 -2.78809 1
gene 1 22 33 -2.70169 0 66 -2.70169 1
gene 1 23 31 0.421031 0 67 0.421031 1
gene 1 23 32 -1.45709 0 68 -1.45709 1
gene 1 23 33 1.70989 0 69 1.70989 1
gene 1 24 31 3.37896 0 70 3.37896 1
gene 1 24 32 0.262516 0 71 0.262516 1
gene 1 24 33 1.90726 0 72 1.90726 1
gene 1 25 31 1.06839 0 73 1.06839 1
gene 1 25 32 0.390725 0 74 0.390725 1
gene 1 25 33 2.05178 0 75 2.05178 1
gene 1 26 31 1.24545 0 76 1.24545 1
gene 1 26 32 0.701291 0 77 0.701291 1
gene 1 26 33 0.590441 0 78 0.590441 1
gene 1 27 31 -0.949958 0 79 -0.949958 1
gene 1 27 32 -0.457475 0 80 -0.457475 1
gene 1 27 33 0.873061 0 81 0.873061 1
gene 1 28 31 -0.672659 0 82 -0.672659 1
gene 1 28 32 -0.876484 0 83 -0.876484 1
gene 1 28 33 1.20714 0 84 1.20714 1
gene 1 29 31 -0.744152 0 85 -0.744152 1
gene 1 29 32 0.2675 0 86 0.2675 1
gene 1 29 33 0.541989 0 87 0.541989 1
gene 1 30 31 -0.827795 0 88 -0.827795 1
gene 1 30 32 -5 0 89 -5 1
gene 1 30 33 -0.595133 0 90 -0.595133 1
genomeend 3

/* Organism #4 Fitness: 33647.3 Error: 0 */
genomestart 4
trait 1 1 0.879175 0 0.41381 1 1 0.529828 1 
node 1 1 1 1
node 2 1 1 1
node 3 1 1 1
node 4 1 1 1
node 5 1 1 1
node 6 1 1 1
node 7 1 1 1
node 8 1 1 1
node 9 1 1 1
node 10 1 1 1
node 11 1 1 1
node 12 1 1 1
node 13 1 1 1
node 14 1 1 1
node 15 1 1 1
node 16 1 1 1
node 17 1 1 1
node 18 1 1 1
node 19 1 1 1
node 20 1 1 1
node 21 1 1 1
node 22 1 1 1
node 23 1 1 1
node 24 1 1 1
node 25 1 1 1
node 26 1 1 1
node 27 1 1 1
node 28 1 1 1
node 29 1 1 1
node 30 1 1 3
node 31 1 0 2
node 32 1 0 2
node 33 1 0 2
gene 1 1 31 -2.41094 0 1 -2.41094 1
gene 1 1 32 -3.87917 0 2 -3.87917 1
gene 1 1 33 -2.79974 0 3 -2.79974 1
gene 1 2 31 -1.89978 0 4 -1.89978 1
gene 1 2 32 3.67402 0 5 3.67402 1
gene 1 2 33 0.539771 0 6 0.539771 1
gene 1 3 31 -1.1053 0 7 -1.1053 1
gene 1 3 32 2.47682 0 8 2.47682 1
gene 1 3 33 -0.0920322 0 9 -0.0920322 1
gene 1 4 31 -3.48821 0 10 -3.48821 1
gene 1 4 32 3.03018 0 11 3.03018 1
gene 1 4 33 0.283776 0 12 0.283776 1
gene 1 5 31 1.80454 0 13 1.80454 1
gene 1 5 32 -4.98855 0 14 -4.98855 1
gene 1 5 33 -0.779376 0 15 -0.779376 1
gene 1 6 31 0.262808 0 16 0.262808 1
gene 1 6 32 -4.68365 0 17 -4.68365 1
gene 1 6 33 -2.84135 0 18 -2.84135 1
gene 1 7 31 -3.30139 0 19 -3.30139 1
gene 1 7 32 -0.790511 0 20 -0.790511 1
gene 1 7 33 -2.19937 0 21 -2.19937 1
gene 1 8 31 1.29703 0 22 1.29703 1
gene 1 8 32 -1.83095 0 23 -1.83095 1
gene 1 8 33 -0.942724 0 24 -0.942724 1
gene 1 9 31 -0.532641 0 25 -0.532641 1
gene 1 9 32 -0.599761 0 26 -0.599761 1
gene 1 9 33 0.722858 0 27 0.722858 1
gene 1 10 31 -5 0 28 -5 1
gene 1 10 32 3.45184 0 29 3.45184 1
gene 1 10 33 -0.181579 0 30 -0.181579 1
gene 1 11 31 0.716527 0 31 0.716527 1
gene 1 11 32 3.00499 0 32 3.00499 1
gene 1 11 33 -1.06801 0 33 -1.06801 1
gene 1 12 31 3.81512 0 34 3.81512 1
gene 1 12 32 -1.20566 0 35 -1.20566 1
gene 1 12 33 -2.00144 0 36 -2.00144 1
gene 1 13 31 -1.91276 0 37 -1.91276 1
gene 1 13 32 -1.80997 0 38 -1.80997 1
gene 1 13 33 -3.55321 0 39 -3.55321 1
gene 1 14 31 -1.90152 0 40 -1.90152 1
gene 1 14 32 2.19241 0 41 2.19241 1
gene 1 14 33 -3.3928 0 42 -3.3928 1
gene 1 15 31 3.24633 0 43 3.24633 1
gene 1 15 32 2.21993 0 44 2.21993 1
gene 1 15 33 -1.10324 0 45 -1.10324 1
gene 1 16 31 1.28821 0 46 1.28821 1
gene 1 16 32 0.0174294 0 47 0.0174294 1
gene 1 16 33 -4.679 0 48 -4.679 1
gene 1 17 31 -4.05294 0 49 -4.05294 1
gene 1 17 32 -0.24406 0 50 -0.24406 1
gene 1 17 33 -0.216738 0 51 -0.216738 1
gene 1 18 31 -0.955866 0 52 -0.955866 1
gene 1 18 32 1.28801 0 53 1.28801 1
gene 1 18 33 3.51041 0 54 3.51041 1
gene 1 19 31 -0.63675 0 55 -0.63675 1
gene 1 19 32 -1.52626 0 56 -1.52626 1
gene 1 19 33 0.754683 0 57 0.754683 1
gene 1 20 31 1.14579 0 58 1.14579 1
gene 1 20 32 4.15578 0 59 4.15578 1
gene 1 20 33 -0.231819 0 60 -0.231819 1
gene 1 21 31 0.957382 0 61 0.957382 1
gene 1 21 32 -1.41176 0 62 -1.41176 1
gene 1 21 33 1.59212 0 63 1.59212 1
gene 1 22 31 -1.89924 0 64 -1.89924 1
gene 1 22 32 0.0632636 0 65 0.0632636 1
gene 1 22 33 -3.71284 0 66 -3.71284 1
gene 1 23 31 -4.71257 0 67 -4.71257 1
gene 1 23 32 -1.01192 0 68 -1.01192 1
gene 1 23 33 -0.0537669 0 69 -0.0537669 1
gene 1 24 31 0.0631378 0 70 0.0631378 1
gene 1 24 32 1.2124 0 71 1.2124 1
gene 1 24 33 -0.700842 0 72 -0.700842 1
gene 1 25 31 -0.269957 0 73 -0.269957 1
gene 1 25 32 -0.159118 0 74 -0.159118 1
gene 1 25 33 -0.268396 0 75 -0.268396 1
gene 1 26 31 -0.823329 0 76 -0.823329 1
gene 1 26 32 -0.555358 0 77 -0.555358 1
gene 1 26 33 1.00638 0 78 1.00638 1
gene 1 27 31 0.91344 0 79 0.91344 1
gene 1 27 32 -0.871191 0 80 -0.871191 1
gene 1 27 33 -2.79733 0 81 -2.79733 1
gene 1 28 31 0.487435 0 82 0.487435 1
gene 1 28 32 -0.199904 0 83 -0.199904 1
gene 1 28 33 1.31944 0 84 1.31944 1
gene 1 29 31 1.50314 0 85 1.50314 1
gene 1 29 32 -1.64729 0 86 -1.64729 1
gene 1 29 33 0.245019 0 87 0.245019 1
gene 1 30 31 -2.42912 0 88 -2.42912 1
gene 1 30 32 -5 0 89 -5 1
gene 1 30 33 0.860402 0 90 0.860402 1
genomeend 4

/* Organism #5 Fitness: 33239 Error: 0 */
genomestart 5
trait 1 1 1 0 0.41381 1 1 0.157174 1 
node 1 1 1 1
node 2 1 1 1
node 3 1 1 1
node 4 1 1 1
node 5 1 1 1
node 6 1 1 1
node 7 1 1 1
node 8 1 1 1
node 9 1 1 1
node 10 1 1 1
node 11 1 1 1
node 12 1 1 1
node 13 1 1 1
node 14 1 1 1
node 15 1 1 1
node 16 1 1 1
node 17 1 1 1
node 18 1 1 1
node 19 1 1 1
node 20 1 1 1
node 21 1 1 1
node 22 1 1 1
node 23 1 1 1
node 24 1 1 1
node 25 1 1 1
node 26 1 1 1
node 27 1 1 1
node 28 1 1 1
node 29 1 1 1
node 30 1 1 3
node 31 1 0 2
node 32 1 0 2
node 33 1 0 2
gene 1 1 31 2.42717 0 1 2.42717 1
gene 1 1 32 -4.55906 0 2 -4.55906 1
gene 1 1 33 -4.35764 0 3 -4.35764 1
gene 1 2 31 -0.145042 0 4 -0.145042 1
gene 1 2 32 5 0 5 5 1
gene 1 2 33 1.88227 0 6 1.88227 1
gene 1 3 31 0.189308 0 7 0.189308 1
gene 1 3 32 2.36328 0 8 2.36328 1
gene 1 3 33 1.63959 0 9 1.63959 1
gene 1 4 31 -2.0228 0 10 -2.0228 1
gene 1 4 32 3.3651 0 11 3.3651 1
gene 1 4 33 1.89303 0 12 1.89303 1
gene 1 5 31 -0.227766 0 13 -0.227766 1
gene 1 5 32 -5 0 14 -5 1
gene 1 5 33 -1.44034 0 15 -1.44034 1
gene 1 6 31 0.615895 0 16 0.615895 1
gene 1 6 32 -4.60522 0 17 -4.60522 1
gene 1 6 33 -1.8955 0 18 -1.8955 1
gene 1 7 31 -3.6614 0 19 -3.6614 1
gene 1 7 32 -2.0296 0 20 -2.0296 1
gene 1 7 33 -0.536433 0 21 -0.536433 1
gene 1 8 31 1.33102 0 22 1.33102 1
gene 1 8 32 -3.29671 0 23 -3.29671 1
gene 1 8 33 -0.0247392 0 24 -0.0247392 1
gene 1 9 31 -0.0936777 0 25 -0.0936777 1
gene 1 9 32 -1.25244 0 26 -1.25244 1
gene 1 9 33 -0.0170448 0 27 -0.0170448 1
gene 1 10 31 -4.61872 0 28 -4.61872 1
gene 1 10 32 1.78059 0 29 1.78059 1
gene 1 10 33 -1.46856 0 30 -1.46856 1
gene 1 11 31 0.957422 0 31 0.957422 1
gene 1 11 32 1.89045 0 32 1.89045 1
gene 1 11 33 0.483183 0 33 0.483183 1
gene 1 12 31 4.21562 0 34 4.21562 1
gene 1 12 32 -0.998776 0 35 -0.998776 1
gene 1 12 33 -0.232033 0 36 -0.232033 1
gene 1 13 31 -1.08958 0 37 -1.08958 1
gene 1 13 32 -0.0344016 0 38 -0.0344016 1
gene 1 13 33 -0.404072 0 39 -0.404072 1
gene 1 14 31 -1.57874 0 40 -1.57874 1
gene 1 14 32 2.79856 0 41 2.79856 1
gene 1 14 33 -0.754541 0 42 -0.754541 1
gene 1 15 31 3.36373 0 43 3.36373 1
gene 1 15 32 3.6373 0 44 3.6373 1
gene 1 15 33 -0.302508 0 45 -0.302508 1
gene 1 16 31 1.81202 0 46 1.81202 1
gene 1 16 32 -0.399566 0 47 -0.399566 1
gene 1 16 33 -1.38758 0 48 -1.38758 1
gene 1 17 31 -4.01027 0 49 -4.01027 1
gene 1 17 32 0.41712 0 50 0.41712 1
gene 1 17 33 2.91491 0 51 2.91491 1
gene 1 18 31 -0.330834 0 52 -0.330834 1
gene 1 18 32 -1.22287 0 53 -1.22287 1
gene 1 18 33 2.57501 0 54 2.57501 1
gene 1 19 31 -0.595528 0 55 -0.595528 1
gene 1 19 32 -1.83104 0 56 -1.83104 1
gene 1 19 33 1.74445 0 57 1.74445 1
gene 1 20 31 -1.69052 0 58 -1.69052 1
gene 1 20 32 2.86542 0 59 2.86542 1
gene 1 20 33 0.0830157 0 60 0.0830157 1
gene 1 21 31 -0.965395 0 61 -0.965395 1
gene 1 21 32 -1.60323 0 62 -1.60323 1
gene 1 21 33 -0.142503 0 63 -0.142503 1
gene 1 22 31 0.261331 0 64 0.261331 1
gene 1 22 32 -0.897968 0 65 -0.897968 1
gene 1 22 33 -5 0 66 -5 1
gene 1 23 31 -2.82777 0 67 -2.82777 1
gene 1 23 32 -0.655574 0 68 -0.655574 1
gene 1 23 33 -0.361779 0 69 -0.361779 1
gene 1 24 31 0.46347 0 70 0.46347 1
gene 1 24 32 3.01823 0 71 3.01823 1
gene 1 24 33 -0.519694 0 72 -0.519694 1
gene 1 25 31 -1.8988 0 73 -1.8988 1
gene 1 25 32 1.50938 0 74 1.50938 1
gene 1 25 33 0.264324 0 75 0.264324 1
gene 1 26 31 0.382212 0 76 0.382212 1
gene 1 26 32 -0.270828 0 77 -0.270828 1
gene 1 26 33 0.190204 0 78 0.190204 1
gene 1 27 31 0.359239 0 79 0.359239 1
gene 1 27 32 -1.11382 0 80 -1.11382 1
gene 1 27 33 0.937245 0 81 0.937245 1
gene 1 28 31 0.567135 0 82 0.567135 1
gene 1 28 32 1.30667 0 83 1.30667 1
gene 1 28 33 0.373473 0 84 0.373473 1
gene 1 29 31 -0.525178 0 85 -0.525178 1
gene 1 29 32 0.473849 0 86 0.473849 1
gene 1 29 33 2.31651 0 87 2.31651 1
gene 1 30 31 1.01781 0 88 1.01781 1
gene 1 30 32 -4.73518 0 89 -4.73518 1
gene 1 30 33 3.44462 0 90 3.44462 1
genomeend 5

/* Organism #6 Fitness: 33570.9 Error: 0 */
genomestart 6
trait 1 1 0.879175 0 0.41381 1 1 0.529828 1 
node 1 1 1 1
node 2 1 1 1
node 3 1 1 1
node 4 1 1 1
node 5 1 1 1
node 6 1 1 1
node 7 1 1 1
node 8 1 1 1
node 9 1 1 1
node 10 1 1 1
node 11 1 1 1
node 12 1 1 1
node 13 1 1 1
node 14 1 1 1
node 15 1 1 1
node 16 1 1 1
node 17 1 1 1
node 18 1 1 1
node 19 1 1 1
node 20 1 1 1
node 21 1 1 1
node 22 1 1 1
node 23 1 1 1
node 24 1 1 1
node 25 1 1 1
node 26 1 1 1
node 27 1 1 1
node 28 1 1 1
node 29 1 1 1
node 30 1 1 3
node 31 1 0 2
node 32 1 0 2
node 33 1 0 2
gene 1 1 31 -3.04985 0 1 -3.04985 1
gene 1 1 32 -4.11336 0 2 -4.11336 1
gene 1 1 33 -3.06197 0 3 -3.06197 1
gene 1 2 31 -0.300603 0 4 -0.300603 1
gene 1 2 32 2.77928 0 5 2.77928 1
gene 1 2 33 1.70462 0 6 1.70462 1
gene 1 3 31 -0.305133 0 7 -0.305133 1
gene 1 3 32 3.03202 0 8 3.03202 1
gene 1 3 33 -0.792328 0 9 -0.792328 1
gene 1 4 31 -3.54334 0 10 -3.54334 1
gene 1 4 32 3.68407 0 11 3.68407 1
gene 1 4 33 0.6384 0 12 0.6384 1
gene 1 5 31 0.0929149 0 13 0.0929149 1
gene 1 5 32 -5 0 14 -5 1
gene 1 5 33 0.466867 0 15 0.466867 1
gene 1 6 31 1.69822 0 16 1.69822 1
gene 1 6 32 -4.62058 0 17 -4.62058 1
gene 1 6 33 -3.56719 0 18 -3.56719 1
gene 1 7 31 -0.821434 0 19 -0.821434 1
gene 1 7 32 -1.11319 0 20 -1.11319 1
gene 1 7 33 -2.69171 0 21 -2.69171 1
gene 1 8 31 0.99124 0 22 0.99124 1
gene 1 8 32 -1.04717 0 23 -1.04717 1
gene 1 8 33 -0.830445 0 24 -0.830445 1
gene 1 9 31 -0.670614 0 25 -0.670614 1
gene 1 9 32 -0.111281 0 26 -0.111281 1
gene 1 9 33 1.3801 0 27 1.3801 1
gene 1 10 31 -5 0 28 -5 1
gene 1 10 32 2.75556 0 29 2.75556 1
gene 1 10 33 -0.409002 0 30 -0.409002 1
gene 1 11 31 -0.826665 0 31 -0.826665 1
gene 1 11 32 3.73537 0 32 3.73537 1
gene 1 11 33 0.28976 0 33 0.28976 1
gene 1 12 31 4.14042 0 34 4.14042 1
gene 1 12 32 -0.440798 0 35 -0.440798 1
gene 1 12 33 -1.31885 0 36 -1.31885 1
gene 1 13 31 -0.0716796 0 37 -0.0716796 1
gene 1 13 32 -0.160319 0 38 -0.160319 1
gene 1 13 33 -3.70365 0 39 -3.70365 1
gene 1 14 31 0.203071 0 40 0.203071 1
gene 1 14 32 2.39783 0 41 2.39783 1
gene 1 14 33 -3.65548 0 42 -3.65548 1
gene 1 15 31 1.4022 0 43 1.4022 1
gene 1 15 32 3.4342 0 44 3.4342 1
gene 1 15 33 -0.432769 0 45 -0.432769 1
gene 1 16 31 -0.151337 0 46 -0.151337 1
gene 1 16 32 -0.967551 0 47 -0.967551 1
gene 1 16 33 -4.56502 0 48 -4.56502 1
gene 1 17 31 0.454704 0 49 0.454704 1
gene 1 17 32 -0.111031 0 50 -0.111031 1
gene 1 17 33 -0.131857 0 51 -0.131857 1
gene 1 18 31 -1.26676 0 52 -1.26676 1
gene 1 18 32 -0.945278 0 53 -0.945278 1
gene 1 18 33 1.08737 0 54 1.08737 1
gene 1 19 31 -0.923528 0 55 -0.923528 1
gene 1 19 32 -1.35659 0 56 -1.35659 1
gene 1 19 33 0.592169 0 57 0.592169 1
gene 1 20 31 0.252382 0 58 0.252382 1
gene 1 20 32 3.22136 0 59 3.22136 1
gene 1 20 33 0.235574 0 60 0.235574 1
gene 1 21 31 0.948579 0 61 0.948579 1
gene 1 21 32 -0.439894 0 62 -0.439894 1
gene 1 21 33 1.75936 0 63 1.75936 1
gene 1 22 31 -2.17247 0 64 -2.17247 1
gene 1 22 32 -0.602838 0 65 -0.602838 1
gene 1 22 33 -4.42456 0 66 -4.42456 1
gene 1 23 31 -2.98105 0 67 -2.98105 1
gene 1 23 32 -0.238129 0 68 -0.238129 1
gene 1 23 33 -0.176951 0 69 -0.176951 1
gene 1 24 31 2.98999 0 70 2.98999 1
gene 1 24 32 0.39591 0 71 0.39591 1
gene 1 24 33 -0.523455 0 72 -0.523455 1
gene 1 25 31 0.131761 0 73 0.131761 1
gene 1 25 32 0.7981 0 74 0.7981 1
gene 1 25 33 0.238176 0 75 0.238176 1
gene 1 26 31 -0.777831 0 76 -0.777831 1
gene 1 26 32 0.088346 0 77 0.088346 1
gene 1 26 33 -0.995361 0 78 -0.995361 1
gene 1 27 31 1.4402 0 79 1.4402 1
gene 1 27 32 -0.736874 0 80 -0.736874 1
gene 1 27 33 -3.90817 0 81 -3.90817 1
gene 1 28 31 -0.492219 0 82 -0.492219 1
gene 1 28 32 -1.88975 0 83 -1.88975 1
gene 1 28 33 1.30963 0 84 1.30963 1
gene 1 29 31 2.51549 0 85 2.51549 1
gene 1 29 32 -1.096 0 86 -1.096 1
gene 1 29 33 1.87258 0 87 1.87258 1
gene 1 30 31 -2.4279 0 88 -2.4279 1
gene 1 30 32 -5 0 89 -5 1
gene 1 30 33 1.54598 0 90 1.54598 1
genomeend 6

/* Organism #7 Fitness: 30859.4 Error: 0 */
genomestart 7
trait 1 1 0.879175 0 0.41381 1 1 0.529828 1 
node 1 1 1 1
node 2 1 1 1
node 3 1 1 1
node 4 1 1 1
node 5 1 1 1
node 6 1 1 1
node 7 1 1 1
node 8 1 1 1
node 9 1 1 1
node 10 1 1 1
node 11 1 1 1
node 12 1 1 1
node 13 1 1 1
node 14 1 1 1
node 15 1 1 1
node 16 1 1 1
node 17 1 1 1
node 18 1 1 1
node 19 1 1 1
node 20 1 1 1
node 21 1 1 1
node 22 1 1 1
node 23 1 1 1
node 24 1 1 1
node 25 1 1 1
node 26 1 1 1
node 27 1 1 1
node 28 1 1 1
node 29 1 1 1
node 30 1 1 3
node 31 1 0 2
node 32 1 0 2
node 33 1 0 2
gene 1 1 31 -4.53288 0 1 -4.53288 1
gene 1 1 32 -4.39307 0 2 -4.39307 1
gene 1 1 33 -1.97617 0 3 -1.97617 1
gene 1 2 31 0.868961 0 4 0.868961 1
gene 1 2 32 2.39359 0 5 2.39359 1
gene 1 2 33 0.916883 0 6 0.916883 1
gene 1 3 31 0.342815 0 7 0.342815 1
gene 1 3 32 4.05416 0 8 4.05416 1
gene 1 3 33 -1.48974 0 9 -1.48974 1
gene 1 4 31 -2.72695 0 10 -2.72695 1
gene 1 4 32 2.96486 0 11 2.96486 1
gene 1 4 33 0.239484 0 12 0.239484 1
gene 1 5 31 0.0543261 0 13 0.0543261 1
gene 1 5 32 -5 0 14 -5 1
gene 1 5 33 0.937051 0 15 0.937051 1
gene 1 6 31 1.39348 0 16 1.39348 1
gene 1 6 32 -5 0 17 -5 1
gene 1 6 33 -3.63744 0 18 -3.63744 1
gene 1 7 31 -0.655096 0 19 -0.655096 1
gene 1 7 32 -2.94056 0 20 -2.94056 1
gene 1 7 33 -1.27999 0 21 -1.27999 1
gene 1 8 31 0.527372 0 22 0.527372 1
gene 1 8 32 -1.0525 0 23 -1.0525 1
gene 1 8 33 -1.04819 0 24 -1.04819 1
gene 1 9 31 -0.169119 0 25 -0.169119 1
gene 1 9 32 1.38192 0 26 1.38192 1
gene 1 9 33 1.99908 0 27 1.99908 1
gene 1 10 31 -5 0 28 -5 1
gene 1 10 32 2.22888 0 29 2.22888 1
gene 1 10 33 -0.41233 0 30 -0.41233 1
gene 1 11 31 -2.19601 0 31 -2.19601 1
gene 1 11 32 3.40171 0 32 3.40171 1
gene 1 11 33 0.169536 0 33 0.169536 1
gene 1 12 31 4.47733 0 34 4.47733 1
gene 1 12 32 -0.577387 0 35 -0.577387 1
gene 1 12 33 -1.5539 0 36 -1.5539 1
gene 1 13 31 0.235749 0 37 0.235749 1
gene 1 13 32 -0.691998 0 38 -0.691998 1
gene 1 13 33 -4.96677 0 39 -4.96677 1
gene 1 14 31 0.612824 0 40 0.612824 1
gene 1 14 32 2.23147 0 41 2.23147 1
gene 1 14 33 -3.98771 0 42 -3.98771 1
gene 1 15 31 1.95966 0 43 1.95966 1
gene 1 15 32 3.42755 0 44 3.42755 1
gene 1 15 33 -0.875814 0 45 -0.875814 1
gene 1 16 31 1.18495 0 46 1.18495 1
gene 1 16 32 -1.04786 0 47 -1.04786 1
gene 1 16 33 -4.1238 0 48 -4.1238 1
gene 1 17 31 1.14291 0 49 1.14291 1
gene 1 17 32 -0.910764 0 50 -0.910764 1
gene 1 17 33 -0.827306 0 51 -0.827306 1
gene 1 18 31 -1.97632 0 52 -1.97632 1
gene 1 18 32 -0.354915 0 53 -0.354915 1
gene 1 18 33 1.67538 0 54 1.67538 1
gene 1 19 31 -0.55948 0 55 -0.55948 1
gene 1 19 32 -0.680204 0 56 -0.680204 1
gene 1 19 33 0.976259 0 57 0.976259 1
gene 1 20 31 -0.925452 0 58 -0.925452 1
gene 1 20 32 1.84087 0 59 1.84087 1
gene 1 20 33 -0.961798 0 60 -0.961798 1
gene 1 21 31 1.49375 0 61 1.49375 1
gene 1 21 32 -0.739319 0 62 -0.739319 1
gene 1 21 33 1.70754 0 63 1.70754 1
gene 1 22 31 -3.24451 0 64 -3.24451 1
gene 1 22 32 -1.71206 0 65 -1.71206 1
gene 1 22 33 -4.55368 0 66 -4.55368 1
gene 1 23 31 -3.82834 0 67 -3.82834 1
gene 1 23 32 -0.888584 0 68 -0.888584 1
gene 1 23 33 -0.499432 0 69 -0.499432 1
gene 1 24 31 1.27066 0 70 1.27066 1
gene 1 24 32 0.816503 0 71 0.816503 1
gene 1 24 33 -2.39614 0 72 -2.39614 1
gene 1 25 31 -0.0485848 0 73 -0.0485848 1
gene 1 25 32 0.0512253 0 74 0.0512253 1
gene 1 25 33 1.01543 0 75 1.01543 1
gene 1 26 31 -1.7599 0 76 -1.7599 1
gene 1 26 32 -0.685269 0 77 -0.685269 1
gene 1 26 33 -0.126971 0 78 -0.126971 1
gene 1 27 31 -0.449647 0 79 -0.449647 1
gene 1 27 32 -0.216906 0 80 -0.216906 1
gene 1 27 33 0.0536367 0 81 0.0536367 1
gene 1 28 31 -0.492219 0 82 -0.492219 1
gene 1 28 32 1.32272 0 83 1.32272 1
gene 1 28 33 -0.859086 0 84 -0.859086 1
gene 1 29 31 0.315706 0 85 0.315706 1
gene 1 29 32 -0.835105 0 86 -0.835105 1
gene 1 29 33 -0.111739 0 87 -0.111739 1
gene 1 30 31 -0.492751 0 88 -0.492751 1
gene 1 30 32 -5 0 89 -5 1
gene 1 30 33 1.54598 0 90 1.54598 1
genomeend 7

/* Organism #8 Fitness: 34236.7 Error: 0 */
genomestart 8
trait 1 0.901041 0.678846 0 0.41381 1 1 0 0.174228 
node 1 1 1 1
node 2 1 1 1
node 3 1 1 1
node 4 1 1 1
node 5 1 1 1
node 6 1 1 1
node 7 1 1 1
node 8 1 1 1
node 9 1 1 1
node 10 1 1 1
node 11 1 1 1
node 12 1 1 1
node 13 1 1 1
node 14 1 1 1
node 15 1 1 1
node 16 1 1 1
node 17 1 1 1
node 18 1 1 1
node 19 1 1 1
node 20 1 1 1
node 21 1 1 1
node 22 1 1 1
node 23 1 1 1
node 24 1 1 1
node 25 1 1 1
node 26 1 1 1
node 27 1 1 1
node 28 1 1 1
node 29 1 1 1
node 30 1 1 3
node 31 1 0 2
node 32 1 0 2
node 33 1 0 2
gene 1 1 31 -2.93703 0 1 -2.93703 1
gene 1 1 32 -3.8402 0 2 -3.8402 1
gene 1 1 33 -2.45519 0 3 -2.45519 1
gene 1 2 31 -1.27312 0 4 -1.27312 1
gene 1 2 32 4.67096 0 5 4.67096 1
gene 1 2 33 1.49757 0 6 1.49757 1
gene 1 3 31 -0.960576 0 7 -0.960576 1
gene 1 3 32 2.78659 0 8 2.78659 1
gene 1 3 33 0.658877 0 9 0.658877 1
gene 1 4 31 -2.59052 0 10 -2.59052 1
gene 1 4 32 1.97621 0 11 1.97621 1
gene 1 4 33 2.43456 0 12 2.43456 1
gene 1 5 31 1.88617 0 13 1.88617 1
gene 1 5 32 -3.51443 0 14 -3.51443 1
gene 1 5 33 -3.51325 0 15 -3.51325 1
gene 1 6 31 1.3816 0 16 1.3816 1
gene 1 6 32 -5 0 17 -5 1
gene 1 6 33 -2.47426 0 18 -2.47426 1
gene 1 7 31 -4.27488 0 19 -4.27488 1
gene 1 7 32 -0.969463 0 20 -0.969463 1
gene 1 7 33 -3.09725 0 21 -3.09725 1
gene 1 8 31 -0.608905 0 22 -0.608905 1
gene 1 8 32 -2.14786 0 23 -2.14786 1
gene 1 8 33 -1.08789 0 24 -1.08789 1
gene 1 9 31 0.905882 0 25 0.905882 1
gene 1 9 32 0.098065 0 26 0.098065 1
gene 1 9 33 4.33733 0 27 4.33733 1
gene 1 10 31 -4.44101 0 28 -4.44101 1
gene 1 10 32 5 0 29 5 1
gene 1 10 33 -1.17594 0 30 -1.17594 1
gene 1 11 31 -0.3251 0 31 -0.3251 1
gene 1 11 32 3.01999 0 32 3.01999 1
gene 1 11 33 -1.44298 0 33 -1.44298 1
gene 1 12 31 4.20438 0 34 4.20438 1
gene 1 12 32 -1.93777 0 35 -1.93777 1
gene 1 12 33 0.587578 0 36 0.587578 1
gene 1 13 31 -1.87783 0 37 -1.87783 1
gene 1 13 32 0.420304 0 38 0.420304 1
gene 1 13 33 -1.63218 0 39 -1.63218 1
gene 1 14 31 -2.23521 0 40 -2.23521 1
gene 1 14 32 1.82433 0 41 1.82433 1
gene 1 14 33 -1.28955 0 42 -1.28955 1
gene 1 15 31 2.62831 0 43 2.62831 1
gene 1 15 32 2.68459 0 44 2.68459 1
gene 1 15 33 0.607463 0 45 0.607463 1
gene 1 16 31 0.00290703 0 46 0.00290703 1
gene 1 16 32 -2.54684 0 47 -2.54684 1
gene 1 16 33 -4.12116 0 48 -4.12116 1
gene 1 17 31 -1.90076 0 49 -1.90076 1
gene 1 17 32 0.835077 0 50 0.835077 1
gene 1 17 33 -0.300487 0 51 -0.300487 1
gene 1 18 31 -0.155723 0 52 -0.155723 1
gene 1 18 32 1.22597 0 53 1.22597 1
gene 1 18 33 3.02162 0 54 3.02162 1
gene 1 19 31 -0.914561 0 55 -0.914561 1
gene 1 19 32 -1.39462 0 56 -1.39462 1
gene 1 19 33 0.849644 0 57 0.849644 1
gene 1 20 31 1.5165 0 58 1.5165 1
gene 1 20 32 2.60899 0 59 2.60899 1
gene 1 20 33 -1.9417 0 60 -1.9417 1
gene 1 21 31 2.24898 0 61 2.24898 1
gene 1 21 32 0.686807 0 62 0.686807 1
gene 1 21 33 1.35278 0 63 1.35278 1
gene 1 22 31 -2.50018 0 64 -2.50018 1
gene 1 22 32 1.65897 0 65 1.65897 1
gene 1 22 33 -4.55354 0 66 -4.55354 1
gene 1 23 31 -2.80415 0 67 -2.80415 1
gene 1 23 32 -2.10805 0 68 -2.10805 1
gene 1 23 33 0.73585 0 69 0.73585 1
gene 1 24 31 1.55187 0 70 1.55187 1
gene 1 24 32 2.53238 0 71 2.53238 1
gene 1 24 33 1.3038 0 72 1.3038 1
gene 1 25 31 -1.18322 0 73 -1.18322 1
gene 1 25 32 0.923682 0 74 0.923682 1
gene 1 25 33 -2.37893 0 75 -2.37893 1
gene 1 26 31 -0.246988 0 76 -0.246988 1
gene 1 26 32 -0.350104 0 77 -0.350104 1
gene 1 26 33 0.760147 0 78 0.760147 1
gene 1 27 31 -1.58039 0 79 -1.58039 1
gene 1 27 32 -0.416182 0 80 -0.416182 1
gene 1 27 33 -1.02734 0 81 -1.02734 1
gene 1 28 31 1.64329 0 82 1.64329 1
gene 1 28 32 -0.606408 0 83 -0.606408 1
gene 1 28 33 0.175337 0 84 0.175337 1
gene 1 29 31 1.98013 0 85 1.98013 1
gene 1 29 32 -0.717237 0 86 -0.717237 1
gene 1 29 33 0.590253 0 87 0.590253 1
gene 1 30 31 -2.41326 0 88 -2.41326 1
gene 1 30 32 -5 0 89 -5 1
gene 1 30 33 1.28663 0 90 1.28663 1
genomeend 8

/* Organism #9 Fitness: 34250.3 Error: 0 */
genomestart 9
trait 1 1 0.879175 0 0.41381 1 1 0.529828 1 
node 1 1 1 1
node 2 1 1 1
node 3 1 1 1
node 4 1 1 1
node 5 1 1 1
node 6 1 1 1
node 7 1 1 1
node 8 1 1 1
node 9 1 1 1
node 10 1 1 1
node 11 1 1 1
node 12 1 1 1
node 13 1 1 1
node 14 1 1 1
node 15 1 1 1
node 16 1 1 1
node 17 1 1 1
node 18 1 1 1
node 19 1 1 1
node 20 1 1 1
node 21 1 1 1
node 22 1 1 1
node 23 1 1 1
node 24 1 1 1
node 25 1 1 1
node 26 1 1 1
node 27 1 1 1
node 28 1 1 1
node 29 1 1 1
node 30 1 1 3
node 31 1 0 2
node 32 1 0 2
node 33 1 0 2
gene 1 1 31 -3.14175 0 1 -3.14175 1
gene 1 1 32 -4.72455 0 2 -4.72455 1
gene 1 1 33 -2.47302 0 3 -2.47302 1
gene 1 2 31 -1.89549 0 4 -1.89549 1
gene 1 2 32 4.39439 0 5 4.39439 1
gene 1 2 33 0.539771 0 6 0.539771 1
gene 1 3 31 -1.00652 0 7 -1.00652 1
gene 1 3 32 2.79579 0 8 2.79579 1
gene 1 3 33 -0.485082 0 9 -0.485082 1
gene 1 4 31 -4.28208 0 10 -4.28208 1
gene 1 4 32 -0.669111 0 11 -0.669111 1
gene 1 4 33 0.283776 0 12 0.283776 1
gene 1 5 31 2.07065 0 13 2.07065 1
gene 1 5 32 -5 0 14 -5 1
gene 1 5 33 -0.199497 0 15 -0.199497 1
gene 1 6 31 0.757723 0 16 0.757723 1
gene 1 6 32 -5 0 17 -5 1
gene 1 6 33 -3.26834 0 18 -3.26834 1
gene 1 7 31 -0.582106 0 19 -0.582106 1
gene 1 7 32 -1.08052 0 20 -1.08052 1
gene 1 7 33 -2.85219 0 21 -2.85219 1
gene 1 8 31 1.96052 0 22 1.96052 1
gene 1 8 32 -1.83095 0 23 -1.83095 1
gene 1 8 33 -0.0139699 0 24 -0.0139699 1
gene 1 9 31 -1.30655 0 25 -1.30655 1
gene 1 9 32 -0.552961 0 26 -0.552961 1
gene 1 9 33 -0.378079 0 27 -0.378079 1
gene 1 10 31 -4.55621 0 28 -4.55621 1
gene 1 10 32 -0.891394 0 29 -0.891394 1
gene 1 10 33 0.375102 0 30 0.375102 1
gene 1 11 31 -0.71388 0 31 -0.71388 1
gene 1 11 32 3.09879 0 32 3.09879 1
gene 1 11 33 -0.526191 0 33 -0.526191 1
gene 1 12 31 4.19977 0 34 4.19977 1
gene 1 12 32 -1.83224 0 35 -1.83224 1
gene 1 12 33 -2.98942 0 36 -2.98942 1
gene 1 13 31 -0.652405 0 37 -0.652405 1
gene 1 13 32 -1.09132 0 38 -1.09132 1
gene 1 13 33 -4.05889 0 39 -4.05889 1
gene 1 14 31 -1.90152 0 40 -1.90152 1
gene 1 14 32 2.68363 0 41 2.68363 1
gene 1 14 33 -3.24009 0 42 -3.24009 1
gene 1 15 31 2.60394 0 43 2.60394 1
gene 1 15 32 1.99356 0 44 1.99356 1
gene 1 15 33 -0.16618 0 45 -0.16618 1
gene 1 16 31 2.26217 0 46 2.26217 1
gene 1 16 32 0.0174294 0 47 0.0174294 1
gene 1 16 33 -5 0 48 -5 1
gene 1 17 31 -0.671328 0 49 -0.671328 1
gene 1 17 32 -0.905827 0 50 -0.905827 1
gene 1 17 33 -0.183425 0 51 -0.183425 1
gene 1 18 31 -0.0667409 0 52 -0.0667409 1
gene 1 18 32 1.28801 0 53 1.28801 1
gene 1 18 33 2.55129 0 54 2.55129 1
gene 1 19 31 0.453369 0 55 0.453369 1
gene 1 19 32 0.699016 0 56 0.699016 1
gene 1 19 33 0.754683 0 57 0.754683 1
gene 1 20 31 2.10877 0 58 2.10877 1
gene 1 20 32 3.35261 0 59 3.35261 1
gene 1 20 33 -0.386653 0 60 -0.386653 1
gene 1 21 31 0.382743 0 61 0.382743 1
gene 1 21 32 -0.635289 0 62 -0.635289 1
gene 1 21 33 2.44625 0 63 2.44625 1
gene 1 22 31 -1.5498 0 64 -1.5498 1
gene 1 22 32 -0.647051 0 65 -0.647051 1
gene 1 22 33 -4.08639 0 66 -4.08639 1
gene 1 23 31 -4.19566 0 67 -4.19566 1
gene 1 23 32 -0.282377 0 68 -0.282377 1
gene 1 23 33 0.676332 0 69 0.676332 1
gene 1 24 31 0.087387 0 70 0.087387 1
gene 1 24 32 -0.110575 0 71 -0.110575 1
gene 1 24 33 -1.18114 0 72 -1.18114 1
gene 1 25 31 -0.55608 0 73 -0.55608 1
gene 1 25 32 -0.170446 0 74 -0.170446 1
gene 1 25 33 -0.628028 0 75 -0.628028 1
gene 1 26 31 0.790742 0 76 0.790742 1
gene 1 26 32 -0.993086 0 77 -0.993086 1
gene 1 26 33 1.13895 0 78 1.13895 1
gene 1 27 31 -0.797349 0 79 -0.797349 1
gene 1 27 32 -0.10341 0 80 -0.10341 1
gene 1 27 33 0.712515 0 81 0.712515 1
gene 1 28 31 1.29552 0 82 1.29552 1
gene 1 28 32 -0.199904 0 83 -0.199904 1
gene 1 28 33 -0.568373 0 84 -0.568373 1
gene 1 29 31 0.868571 0 85 0.868571 1
gene 1 29 32 -2.57849 0 86 -2.57849 1
gene 1 29 33 0.402321 0 87 0.402321 1
gene 1 30 31 -2.48484 0 88 -2.48484 1
gene 1 30 32 -4.41057 0 89 -4.41057 1
gene 1 30 33 1.42203 0 90 1.42203 1
genomeend 9

/* Organism #10 Fitness: 34013.7 Error: 0 */
genomestart 10
trait 1 1 0.879175 0 0.41381 1 1 0.529828 1 
node 1 1 1 1
node 2 1 1 1
node 3 1 1 1
node 4 1 1 1
node 5 1 1 1
node 6 1 1 1
node 7 1 1 1
node 8 1 1 1
node 9 1 1 1
node 10 1 1 1
node 11 1 1 1
node 12 1 1 1
node 13 1 1 1
node 14 1 1 1
node 15 1 1 1
node 16 1 1 1
node 17 1 1 1
node 18 1 1 1
node 19 1 1 1
node 20 1 1 1
node 21 1 1 1
node 22 1 1 1
node 23 1 1 1
node 24 1 1 1
node 25 1 1 1
node 26 1 1 1
node 27 1 1 1
node 28 1 1 1
node 29 1 1 1
node 30 1 1 3
node 31 1 0 2
node 32 1 0 2
node 33 1 0 2
gene 1 1 31 -2.65526 0 1 -2.65526 1
gene 1 1 32 -5 0 2 -5 1
gene 1 1 33 -1.19288 0 3 -1.19288 1
gene 1 2 31 -0.0781903 0 4 -0.0781903 1
gene 1 2 32 3.42128 0 5 3.42128 1
gene 1 2 33 1.26329 0 6 1.26329 1
gene 1 3 31 -1.49617 0 7 -1.49617 1
gene 1 3 32 3.36986 0 8 3.36986 1
gene 1 3 33 -0.928289 0 9 -0.928289 1
gene 1 4 31 -1.49079 0 10 -1.49079 1
gene 1 4 32 4.04098 0 11 4.04098 1
gene 1 4 33 2.73136 0 12 2.73136 1
gene 1 5 31 3.30886 0 13 3.30886 1
gene 1 5 32 -5 0 14 -5 1
gene 1 5 33 -1.26621 0 15 -1.26621 1
gene 1 6 31 0.013718 0 16 0.013718 1
gene 1 6 32 -4.30717 0 17 -4.30717 1
gene 1 6 33 -0.799973 0 18 -0.799973 1
gene 1 7 31 -3.32451 0 19 -3.32451 1
gene 1 7 32 -1.86028 0 20 -1.86028 1
gene 1 7 33 -2.6626 0 21 -2.6626 1
gene 1 8 31 -0.540805 0 22 -0.540805 1
gene 1 8 32 -0.415445 0 23 -0.415445 1
gene 1 8 33 0.321982 0 24 0.321982 1
gene 1 9 31 -0.671365 0 25 -0.671365 1
gene 1 9 32 -1.1441 0 26 -1.1441 1
gene 1 9 33 0.710324 0 27 0.710324 1
gene 1 10 31 -5 0 28 -5 1
gene 1 10 32 3.72915 0 29 3.72915 1
gene 1 10 33 0.378691 0 30 0.378691 1
gene 1 11 31 1.33976 0 31 1.33976 1
gene 1 11 32 1.48632 0 32 1.48632 1
gene 1 11 33 -1.22981 0 33 -1.22981 1
gene 1 12 31 4.18799 0 34 4.18799 1
gene 1 12 32 -0.886609 0 35 -0.886609 1
gene 1 12 33 -1.95927 0 36 -1.95927 1
gene 1 13 31 -2.53879 0 37 -2.53879 1
gene 1 13 32 -2.9009 0 38 -2.9009 1
gene 1 13 33 -2.62142 0 39 -2.62142 1
gene 1 14 31 -2.35387 0 40 -2.35387 1
gene 1 14 32 2.92512 0 41 2.92512 1
gene 1 14 33 -2.86563 0 42 -2.86563 1
gene 1 15 31 4.08567 0 43 4.08567 1
gene 1 15 32 4.1733 0 44 4.1733 1
gene 1 15 33 -1.3952 0 45 -1.3952 1
gene 1 16 31 0.318357 0 46 0.318357 1
gene 1 16 32 0.502296 0 47 0.502296 1
gene 1 16 33 -4.63393 0 48 -4.63393 1
gene 1 17 31 -2.70863 0 49 -2.70863 1
gene 1 17 32 -0.499159 0 50 -0.499159 1
gene 1 17 33 0.325778 0 51 0.325778 1
gene 1 18 31 -1.34275 0 52 -1.34275 1
gene 1 18 32 -0.831517 0 53 -0.831517 1
gene 1 18 33 3.756 0 54 3.756 1
gene 1 19 31 -1.17016 0 55 -1.17016 1
gene 1 19 32 -1.0843 0 56 -1.0843 1
gene 1 19 33 0.679969 0 57 0.679969 1
gene 1 20 31 1.01339 0 58 1.01339 1
gene 1 20 32 3.83164 0 59 3.83164 1
gene 1 20 33 -1.43697 0 60 -1.43697 1
gene 1 21 31 -0.140201 0 61 -0.140201 1
gene 1 21 32 -0.38038 0 62 -0.38038 1
gene 1 21 33 3.19939 0 63 3.19939 1
gene 1 22 31 -2.38546 0 64 -2.38546 1
gene 1 22 32 -0.845034 0 65 -0.845034 1
gene 1 22 33 -4.18806 0 66 -4.18806 1
gene 1 23 31 -3.8436 0 67 -3.8436 1
gene 1 23 32 -2.16685 0 68 -2.16685 1
gene 1 23 33 0.775734 0 69 0.775734 1
gene 1 24 31 -1.39656 0 70 -1.39656 1
gene 1 24 32 0.772444 0 71 0.772444 1
gene 1 24 33 -0.47708 0 72 -0.47708 1
gene 1 25 31 -2.77018 0 73 -2.77018 1
gene 1 25 32 -0.0391602 0 74 -0.0391602 1
gene 1 25 33 -0.211078 0 75 -0.211078 1
gene 1 26 31 0.0132957 0 76 0.0132957 1
gene 1 26 32 1.42448 0 77 1.42448 1
gene 1 26 33 -0.25452 0 78 -0.25452 1
gene 1 27 31 -0.771349 0 79 -0.771349 1
gene 1 27 32 -0.0463126 0 80 -0.0463126 1
gene 1 27 33 -0.662239 0 81 -0.662239 1
gene 1 28 31 -0.631221 0 82 -0.631221 1
gene 1 28 32 -0.199904 0 83 -0.199904 1
gene 1 28 33 2.24878 0 84 2.24878 1
gene 1 29 31 1.51131 0 85 1.51131 1
gene 1 29 32 -1.11581 0 86 -1.11581 1
gene 1 29 33 0.749295 0 87 0.749295 1
gene 1 30 31 -1.79726 0 88 -1.79726 1
gene 1 30 32 -5 0 89 -5 1
gene 1 30 33 -0.895901 0 90 -0.895901 1
genomeend 10

/* Organism #11 Fitness: 32063.7 Error: 0 */
genomestart 11
trait 1 1 1 0.736914 0.820794 0.288031 0.671291 0.314232 0.310013 
node 1 1 1 1
node 2 1 1 1
node 3 1 1 1
node 4 1 1 1
node 5 1 1 1
node 6 1 1 1
node 7 1 1 1
node 8 1 1 1
node 9 1 1 1
node 10 1 1 1
node 11 1 1 1
node 12 1 1 1
node 13 1 1 1
node 14 1 1 1
node 15 1 1 1
node 16 1 1 1
node 17 1 1 1
node 18 1 1 1
node 19 1 1 1
node 20 1 1 1
node 21 1 1 1
node 22 1 1 1
node 23 1 1 1
node 24 1 1 1
node 25 1 1 1
node 26 1 1 1
node 27 1 1 1
node 28 1 1 1
node 29 1 1 1
node 30 1 1 3
node 31 1 0 2
node 32 1 0 2
node 33 1 0 2
gene 1 1 31 -4.37631 0 1 -4.37631 1
gene 1 1 32 -1.24907 0 2 -1.24907 1
gene 1 1 33 -1.33495 0 3 -1.33495 1
gene 1 2 31 3.17239 0 4 3.17239 1
gene 1 2 32 2.09274 0 5 2.09274 1
gene 1 2 33 -0.441761 0 6 -0.441761 1
gene 1 3 31 -0.790713 0 7 -0.790713 1
gene 1 3 32 4.83239 0 8 4.83239 1
gene 1 3 33 -0.542466 0 9 -0.542466 1
gene 1 4 31 -4.56506 0 10 -4.56506 1
gene 1 4 32 -0.636186 0 11 -0.636186 1
gene 1 4 33 0.022641 0 12 0.022641 1
gene 1 5 31 2.19552 0 13 2.19552 1
gene 1 5 32 -1.76789 0 14 -1.76789 1
gene 1 5 33 -4.61727 0 15 -4.61727 1
gene 1 6 31 1.89781 0 16 1.89781 1
gene 1 6 32 -5 0 17 -5 1
gene 1 6 33 2.37934 0 18 2.37934 1
gene 1 7 31 -4.50221 0 19 -4.50221 1
gene 1 7 32 2.03804 0 20 2.03804 1
gene 1 7 33 0.569346 0 21 0.569346 1
gene 1 8 31 -4.79607 0 22 -4.79607 1
gene 1 8 32 -0.591888 0 23 -0.591888 1
gene 1 8 33 4.09968 0 24 4.09968 1
gene 1 9 31 1.44764 0 25 1.44764 1
gene 1 9 32 2.5172 0 26 2.5172 1
gene 1 9 33 -1.78744 0 27 -1.78744 1
gene 1 10 31 -4.6928 0 28 -4.6928 1
gene 1 10 32 4.29053 0 29 4.29053 1
gene 1 10 33 2.36297 0 30 2.36297 1
gene 1 11 31 2.86184 0 31 2.86184 1
gene 1 11 32 3.855 0 32 3.855 1
gene 1 11 33 -0.859803 0 33 -0.859803 1
gene 1 12 31 4.50131 0 34 4.50131 1
gene 1 12 32 -0.147399 0 35 -0.147399 1
gene 1 12 33 -3.07343 0 36 -3.07343 1
gene 1 13 31 -1.62958 0 37 -1.62958 1
gene 1 13 32 0.976337 0 38 0.976337 1
gene 1 13 33 -0.359564 0 39 -0.359564 1
gene 1 14 31 -0.30476 0 40 -0.30476 1
gene 1 14 32 1.21162 0 41 1.21162 1
gene 1 14 33 -3.23305 0 42 -3.23305 1
gene 1 15 31 1.31387 0 43 1.31387 1
gene 1 15 32 -1.79524 0 44 -1.79524 1
gene 1 15 33 3.31375 0 45 3.31375 1
gene 1 16 31 1.8764 0 46 1.8764 1
gene 1 16 32 -4.20802 0 47 -4.20802 1
gene 1 16 33 -1.95681 0 48 -1.95681 1
gene 1 17 31 -0.707803 0 49 -0.707803 1
gene 1 17 32 -5 0 50 -5 1
gene 1 17 33 -4.33612 0 51 -4.33612 1
gene 1 18 31 -1.64725 0 52 -1.64725 1
gene 1 18 32 1.55864 0 53 1.55864 1
gene 1 18 33 5 0 54 5 1
gene 1 19 31 -3.41916 0 55 -3.41916 1
gene 1 19 32 -4.98442 0 56 -4.98442 1
gene 1 19 33 0.34449 0 57 0.34449 1
gene 1 20 31 -4.2069 0 58 -4.2069 1
gene 1 20 32 3.39436 0 59 3.39436 1
gene 1 20 33 1.08608 0 60 1.08608 1
gene 1 21 31 -3.12228 0 61 -3.12228 1
gene 1 21 32 3.77171 0 62 3.77171 1
gene 1 21 33 0.996907 0 63 0.996907 1
gene 1 22 31 -1.52409 0 64 -1.52409 1
gene 1 22 32 -2.92552 0 65 -2.92552 1
gene 1 22 33 0.175131 0 66 0.175131 1
gene 1 23 31 -4.30522 0 67 -4.30522 1
gene 1 23 32 -1.0273 0 68 -1.0273 1
gene 1 23 33 2.34898 0 69 2.34898 1
gene 1 24 31 2.11601 0 70 2.11601 1
gene 1 24 32 1.87692 0 71 1.87692 1
gene 1 24 33 -1.78727 0 72 -1.78727 1
gene 1 25 31 0.467344 0 73 0.467344 1
gene 1 25 32 0.239782 0 74 0.239782 1
gene 1 25 33 0.459185 0 75 0.459185 1
gene 1 26 31 0.352776 0 76 0.352776 1
gene 1 26 32 -1.8802 0 77 -1.8802 1
gene 1 26 33 1.51282 0 78 1.51282 1
gene 1 27 31 1.50643 0 79 1.50643 1
gene 1 27 32 -0.269348 0 80 -0.269348 1
gene 1 27 33 -0.157012 0 81 -0.157012 1
gene 1 28 31 0.742896 0 82 0.742896 1
gene 1 28 32 -1.20735 0 83 -1.20735 1
gene 1 28 33 0.526522 0 84 0.526522 1
gene 1 29 31 0.896803 0 85 0.896803 1
gene 1 29 32 0.650143 0 86 0.650143 1
gene 1 29 33 0.460286 0 87 0.460286 1
gene 1 30 31 0.169263 0 88 0.169263 1
gene 1 30 32 -4.04533 0 89 -4.04533 1
gene 1 30 33 -1.89604 0 90 -1.89604 1
genomeend 11

/* Organism #12 Fitness: 33528.9 Error: 0 */
genomestart 12
trait 1 0.212822 1 0.212808 1 0.181346 1 0 0.776166 
node 1 1 1 1
node 2 1 1 1
node 3 1 1 1
node 4 1 1 1
node 5 1 1 1
node 6 1 1 1
node 7 1 1 1
node 8 1 1 1
node 9 1 1 1
node 10 1 1 1
node 11 1 1 1
node 12 1 1 1
node 13 1 1 1
node 14 1 1 1
node 15 1 1 1
node 16 1 1 1
node 17 1 1 1
node 18 1 1 1
node 19 1 1 1
node 20 1 1 1
node 21 1 1 1
node 22 1 1 1
node 23 1 1 1
node 24 1 1 1
node 25 1 1 1
node 26 1 1 1
node 27 1 1 1
node 28 1 1 1
node 29 1 1 1
node 30 1 1 3
node 31 1 0 2
node 32 1 0 2
node 33 1 0 2
gene 1 1 31 -2.03601 0 1 -2.03601 1
gene 1 1 32 -4.37481 0 2 -4.37481 1
gene 1 1 33 0.307136 0 3 0.307136 1
gene 1 2 31 -2.64696 0 4 -2.64696 1
gene 1 2 32 3.62788 0 5 3.62788 1
gene 1 2 33 -1.32781 0 6 -1.32781 1
gene 1 3 31 -0.0576157 0 7 -0.0576157 1
gene 1 3 32 0.203372 0 8 0.203372 1
gene 1 3 33 -0.128863 0 9 -0.128863 1
gene 1 4 31 -4.86772 0 10 -4.86772 1
gene 1 4 32 4.79998 0 11 4.79998 1
gene 1 4 33 -1.74823 0 12 -1.74823 1
gene 1 5 31 1.82109 0 13 1.82109 1
gene 1 5 32 -2.73254 0 14 -2.73254 1
gene 1 5 33 -0.810135 0 15 -0.810135 1
gene 1 6 31 -0.504454 0 16 -0.504454 1
gene 1 6 32 -4.91846 0 17 -4.91846 1
gene 1 6 33 -2.31541 0 18 -2.31541 1
gene 1 7 31 -0.317529 0 19 -0.317529 1
gene 1 7 32 0.286504 0 20 0.286504 1
gene 1 7 33 -3.15691 0 21 -3.15691 1
gene 1 8 31 0.708343 0 22 0.708343 1
gene 1 8 32 0.447908 0 23 0.447908 1
gene 1 8 33 -0.235286 0 24 -0.235286 1
gene 1 9 31 -0.16499 0 25 -0.16499 1
gene 1 9 32 0.0818104 0 26 0.0818104 1
gene 1 9 33 0.890494 0 27 0.890494 1
gene 1 10 31 0.685935 0 28 0.685935 1
gene 1 10 32 0.681135 0 29 0.681135 1
gene 1 10 33 0.420352 0 30 0.420352 1
gene 1 11 31 -0.54853 0 31 -0.54853 1
gene 1 11 32 1.88061 0 32 1.88061 1
gene 1 11 33 -1.43607 0 33 -1.43607 1
gene 1 12 31 2.36534 0 34 2.36534 1
gene 1 12 32 1.11338 0 35 1.11338 1
gene 1 12 33 0.421314 0 36 0.421314 1
gene 1 13 31 -0.78125 0 37 -0.78125 1
gene 1 13 32 0.916884 0 38 0.916884 1
gene 1 13 33 0.0106705 0 39 0.0106705 1
gene 1 14 31 -1.49318 0 40 -1.49318 1
gene 1 14 32 0.251084 0 41 0.251084 1
gene 1 14 33 0.924986 0 42 0.924986 1
gene 1 15 31 -1.57023 0 43 -1.57023 1
gene 1 15 32 0.392481 0 44 0.392481 1
gene 1 15 33 -2.34592 0 45 -2.34592 1
gene 1 16 31 0.574172 0 46 0.574172 1
gene 1 16 32 0.14463 0 47 0.14463 1
gene 1 16 33 0.321924 0 48 0.321924 1
gene 1 17 31 -1.39735 0 49 -1.39735 1
gene 1 17 32 1.10597 0 50 1.10597 1
gene 1 17 33 2.63922 0 51 2.63922 1
gene 1 18 31 1.13444 0 52 1.13444 1
gene 1 18 32 0.584052 0 53 0.584052 1
gene 1 18 33 4.03537 0 54 4.03537 1
gene 1 19 31 -1.88942 0 55 -1.88942 1
gene 1 19 32 -1.20097 0 56 -1.20097 1
gene 1 19 33 3.71959 0 57 3.71959 1
gene 1 20 31 0.770064 0 58 0.770064 1
gene 1 20 32 0.732346 0 59 0.732346 1
gene 1 20 33 -0.134113 0 60 -0.134113 1
gene 1 21 31 -0.0120172 0 61 -0.0120172 1
gene 1 21 32 0.187097 0 62 0.187097 1
gene 1 21 33 0.512585 0 63 0.512585 1
gene 1 22 31 0.932466 0 64 0.932466 1
gene 1 22 32 0.414194 0 65 0.414194 1
gene 1 22 33 -3.22986 0 66 -3.22986 1
gene 1 23 31 -1.60463 0 67 -1.60463 1
gene 1 23 32 -0.00564235 0 68 -0.00564235 1
gene 1 23 33 -0.0107813 0 69 -0.0107813 1
gene 1 24 31 0.325471 0 70 0.325471 1
gene 1 24 32 0.122203 0 71 0.122203 1
gene 1 24 33 -0.223357 0 72 -0.223357 1
gene 1 25 31 -0.50105 0 73 -0.50105 1
gene 1 25 32 -0.509579 0 74 -0.509579 1
gene 1 25 33 -1.10778 0 75 -1.10778 1
gene 1 26 31 -0.872545 0 76 -0.872545 1
gene 1 26 32 -0.667191 0 77 -0.667191 1
gene 1 26 33 0.192515 0 78 0.192515 1
gene 1 27 31 1.2751 0 79 1.2751 1
gene 1 27 32 0.109661 0 80 0.109661 1
gene 1 27 33 1.31674 0 81 1.31674 1
gene 1 28 31 -1.19081 0 82 -1.19081 1
gene 1 28 32 0.457792 0 83 0.457792 1
gene 1 28 33 0.122942 0 84 0.122942 1
gene 1 29 31 -2.58957 0 85 -2.58957 1
gene 1 29 32 -0.0597352 0 86 -0.0597352 1
gene 1 29 33 0.851654 0 87 0.851654 1
gene 1 30 31 -0.38978 0 88 -0.38978 1
gene 1 30 32 -3.19326 0 89 -3.19326 1
gene 1 30 33 0.376966 0 90 0.376966 1
genomeend 12

/* Organism #13 Fitness: 33983.9 Error: 0 */
genomestart 13
trait 1 1 0.879175 0 0.41381 1 1 0.529828 1 
node 1 1 1 1
node 2 1 1 1
node 3 1 1 1
node 4 1 1 1
node 5 1 1 1
node 6 1 1 1
node 7 1 1 1
node 8 1 1 1
node 9 1 1 1
node 10 1 1 1
node 11 1 1 1
node 12 1 1 1
node 13 1 1 1
node 14 1 1 1
node 15 1 1 1
node 16 1 1 1
node 17 1 1 1
node 18 1 1 1
node 19 1 1 1
node 20 1 1 1
node 21 1 1 1
node 22 1 1 1
node 23 1 1 1
node 24 1 1 1
node 25 1 1 1
node 26 1 1 1
node 27 1 1 1
node 28 1 1 1
node 29 1 1 1
node 30 1 1 3
node 31 1 0 2
node 32 1 0 2
node 33 1 0 2
gene 1 1 31 -3.84303 0 1 -3.84303 1
gene 1 1 32 -4.97515 0 2 -4.97515 1
gene 1 1 33 -2.00115 0 3 -2.00115 1
gene 1 2 31 -2.28395 0 4 -2.28395 1
gene 1 2 32 5 0 5 5 1
gene 1 2 33 0.448449 0 6 0.448449 1
gene 1 3 31 -1.73199 0 7 -1.73199 1
gene 1 3 32 2.99016 0 8 2.99016 1
gene 1 3 33 -1.05181 0 9 -1.05181 1
gene 1 4 31 -4.82347 0 10 -4.82347 1
gene 1 4 32 -0.310877 0 11 -0.310877 1
gene 1 4 33 0.220711 0 12 0.220711 1
gene 1 5 31 1.23458 0 13 1.23458 1
gene 1 5 32 -4.15089 0 14 -4.15089 1
gene 1 5 33 -0.164289 0 15 -0.164289 1
gene 1 6 31 1.74159 0 16 1.74159 1
gene 1 6 32 -4.25388 0 17 -4.25388 1
gene 1 6 33 -3.45268 0 18 -3.45268 1
gene 1 7 31 -1.23274 0 19 -1.23274 1
gene 1 7 32 -0.436036 0 20 -0.436036 1
gene 1 7 33 -3.64946 0 21 -3.64946 1
gene 1 8 31 2.59725 0 22 2.59725 1
gene 1 8 32 -2.79068 0 23 -2.79068 1
gene 1 8 33 -0.178021 0 24 -0.178021 1
gene 1 9 31 -1.99097 0 25 -1.99097 1
gene 1 9 32 -1.35292 0 26 -1.35292 1
gene 1 9 33 0.275274 0 27 0.275274 1
gene 1 10 31 -5 0 28 -5 1
gene 1 10 32 -1.27843 0 29 -1.27843 1
gene 1 10 33 1.06263 0 30 1.06263 1
gene 1 11 31 -1.41835 0 31 -1.41835 1
gene 1 11 32 3.72274 0 32 3.72274 1
gene 1 11 33 -1.47339 0 33 -1.47339 1
gene 1 12 31 3.72498 0 34 3.72498 1
gene 1 12 32 -1.54316 0 35 -1.54316 1
gene 1 12 33 -2.80433 0 36 -2.80433 1
gene 1 13 31 -0.261688 0 37 -0.261688 1
gene 1 13 32 -1.83246 0 38 -1.83246 1
gene 1 13 33 -3.1701 0 39 -3.1701 1
gene 1 14 31 -1.50007 0 40 -1.50007 1
gene 1 14 32 2.75283 0 41 2.75283 1
gene 1 14 33 -2.65338 0 42 -2.65338 1
gene 1 15 31 3.25957 0 43 3.25957 1
gene 1 15 32 2.29607 0 44 2.29607 1
gene 1 15 33 -0.267199 0 45 -0.267199 1
gene 1 16 31 2.56249 0 46 2.56249 1
gene 1 16 32 0.83078 0 47 0.83078 1
gene 1 16 33 -4.30523 0 48 -4.30523 1
gene 1 17 31 -1.19254 0 49 -1.19254 1
gene 1 17 32 -1.85865 0 50 -1.85865 1
gene 1 17 33 -0.105204 0 51 -0.105204 1
gene 1 18 31 0.879597 0 52 0.879597 1
gene 1 18 32 0.41726 0 53 0.41726 1
gene 1 18 33 2.2089 0 54 2.2089 1
gene 1 19 31 -0.325874 0 55 -0.325874 1
gene 1 19 32 0.113999 0 56 0.113999 1
gene 1 19 33 1.34792 0 57 1.34792 1
gene 1 20 31 2.63479 0 58 2.63479 1
gene 1 20 32 3.11951 0 59 3.11951 1
gene 1 20 33 -0.852351 0 60 -0.852351 1
gene 1 21 31 1.28707 0 61 1.28707 1
gene 1 21 32 -0.928914 0 62 -0.928914 1
gene 1 21 33 3.37601 0 63 3.37601 1
gene 1 22 31 -0.842834 0 64 -0.842834 1
gene 1 22 32 -0.31628 0 65 -0.31628 1
gene 1 22 33 -4.05335 0 66 -4.05335 1
gene 1 23 31 -3.59121 0 67 -3.59121 1
gene 1 23 32 0.222534 0 68 0.222534 1
gene 1 23 33 -0.112346 0 69 -0.112346 1
gene 1 24 31 -0.694457 0 70 -0.694457 1
gene 1 24 32 -0.941965 0 71 -0.941965 1
gene 1 24 33 -0.694245 0 72 -0.694245 1
gene 1 25 31 -1.23864 0 73 -1.23864 1
gene 1 25 32 0.545162 0 74 0.545162 1
gene 1 25 33 -0.628028 0 75 -0.628028 1
gene 1 26 31 0.42732 0 76 0.42732 1
gene 1 26 32 -0.893403 0 77 -0.893403 1
gene 1 26 33 2.02731 0 78 2.02731 1
gene 1 27 31 0.970664 0 79 0.970664 1
gene 1 27 32 -0.10341 0 80 -0.10341 1
gene 1 27 33 0.827881 0 81 0.827881 1
gene 1 28 31 1.29552 0 82 1.29552 1
gene 1 28 32 -0.0674643 0 83 -0.0674643 1
gene 1 28 33 -1.37527 0 84 -1.37527 1
gene 1 29 31 1.81095 0 85 1.81095 1
gene 1 29 32 -2.57849 0 86 -2.57849 1
gene 1 29 33 0.402321 0 87 0.402321 1
gene 1 30 31 -2.48484 0 88 -2.48484 1
gene 1 30 32 -4.41057 0 89 -4.41057 1
gene 1 30 33 1.42203 0 90 1.42203 1
genomeend 13

/* Organism #14 Fitness: 32800.6 Error: 0 */
genomestart 14
trait 1 1 1 0 0.41381 1 1 0.157174 1 
node 1 1 1 1
node 2 1 1 1
node 3 1 1 1
node 4 1 1 1
node 5 1 1 1
node 6 1 1 1
node 7 1 1 1
node 8 1 1 1
node 9 1 1 1
node 10 1 1 1
node 11 1 1 1
node 12 1 1 1
node 13 1 1 1
node 14 1 1 1
node 15 1 1 1
node 16 1 1 1
node 17 1 1 1
node 18 1 1 1
node 19 1 1 1
node 20 1 1 1
node 21 1 1 1
node 22 1 1 1
node 23 1 1 1
node 24 1 1 1
node 25 1 1 1
node 26 1 1 1
node 27 1 1 1
node 28 1 1 1
node 29 1 1 1
node 30 1 1 3
node 31 1 0 2
node 32 1 0 2
node 33 1 0 2
gene 1 1 31 -2.35569 0 1 -2.35569 1
gene 1 1 32 -4.28346 0 2 -4.28346 1
gene 1 1 33 -4.89238 0 3 -4.89238 1
gene 1 2 31 0.518663 0 4 0.518663 1
gene 1 2 32 4.59872 0 5 4.59872 1
gene 1 2 33 -0.607605 0 6 -0.607605 1
gene 1 3 31 -0.108248 0 7 -0.108248 1
gene 1 3 32 4.40375 0 8 4.40375 1
gene 1 3 33 2.4974 0 9 2.4974 1
gene 1 4 31 -1.44637 0 10 -1.44637 1
gene 1 4 32 2.29078 0 11 2.29078 1
gene 1 4 33 3.06594 0 12 3.06594 1
gene 1 5 31 1.28384 0 13 1.28384 1
gene 1 5 32 -4.9706 0 14 -4.9706 1
gene 1 5 33 -3.1885 0 15 -3.1885 1
gene 1 6 31 2.21836 0 16 2.21836 1
gene 1 6 32 -4.10413 0 17 -4.10413 1
gene 1 6 33 -2.67433 0 18 -2.67433 1
gene 1 7 31 -5 0 19 -5 1
gene 1 7 32 0.0198681 0 20 0.0198681 1
gene 1 7 33 -2.48985 0 21 -2.48985 1
gene 1 8 31 -1.75719 0 22 -1.75719 1
gene 1 8 32 -2.73281 0 23 -2.73281 1
gene 1 8 33 -0.322347 0 24 -0.322347 1
gene 1 9 31 1.18742 0 25 1.18742 1
gene 1 9 32 0.243497 0 26 0.243497 1
gene 1 9 33 2.74673 0 27 2.74673 1
gene 1 10 31 -5 0 28 -5 1
gene 1 10 32 4.47086 0 29 4.47086 1
gene 1 10 33 -1.09626 0 30 -1.09626 1
gene 1 11 31 -0.157786 0 31 -0.157786 1
gene 1 11 32 1.72609 0 32 1.72609 1
gene 1 11 33 -0.351903 0 33 -0.351903 1
gene 1 12 31 4.04687 0 34 4.04687 1
gene 1 12 32 -2.52453 0 35 -2.52453 1
gene 1 12 33 0.879532 0 36 0.879532 1
gene 1 13 31 -2.42504 0 37 -2.42504 1
gene 1 13 32 0.441077 0 38 0.441077 1
gene 1 13 33 -0.869395 0 39 -0.869395 1
gene 1 14 31 -2.39432 0 40 -2.39432 1
gene 1 14 32 1.92918 0 41 1.92918 1
gene 1 14 33 -0.362225 0 42 -0.362225 1
gene 1 15 31 3.56795 0 43 3.56795 1
gene 1 15 32 1.27968 0 44 1.27968 1
gene 1 15 33 0.436526 0 45 0.436526 1
gene 1 16 31 0.634741 0 46 0.634741 1
gene 1 16 32 -2.62277 0 47 -2.62277 1
gene 1 16 33 -4.64564 0 48 -4.64564 1
gene 1 17 31 -1.27266 0 49 -1.27266 1
gene 1 17 32 -0.642162 0 50 -0.642162 1
gene 1 17 33 0.142591 0 51 0.142591 1
gene 1 18 31 -0.153511 0 52 -0.153511 1
gene 1 18 32 1.07921 0 53 1.07921 1
gene 1 18 33 4.14257 0 54 4.14257 1
gene 1 19 31 -0.625559 0 55 -0.625559 1
gene 1 19 32 0.254867 0 56 0.254867 1
gene 1 19 33 1.71968 0 57 1.71968 1
gene 1 20 31 0.911551 0 58 0.911551 1
gene 1 20 32 2.92956 0 59 2.92956 1
gene 1 20 33 -2.02477 0 60 -2.02477 1
gene 1 21 31 1.7162 0 61 1.7162 1
gene 1 21 32 0.0459513 0 62 0.0459513 1
gene 1 21 33 2.15829 0 63 2.15829 1
gene 1 22 31 -2.38511 0 64 -2.38511 1
gene 1 22 32 -0.00346867 0 65 -0.00346867 1
gene 1 22 33 -4.09415 0 66 -4.09415 1
gene 1 23 31 -3.50783 0 67 -3.50783 1
gene 1 23 32 -1.47823 0 68 -1.47823 1
gene 1 23 33 2.02519 0 69 2.02519 1
gene 1 24 31 2.01583 0 70 2.01583 1
gene 1 24 32 4.26987 0 71 4.26987 1
gene 1 24 33 1.55702 0 72 1.55702 1
gene 1 25 31 -0.775027 0 73 -0.775027 1
gene 1 25 32 0.266512 0 74 0.266512 1
gene 1 25 33 -0.243771 0 75 -0.243771 1
gene 1 26 31 0.796926 0 76 0.796926 1
gene 1 26 32 -0.350104 0 77 -0.350104 1
gene 1 26 33 0.603189 0 78 0.603189 1
gene 1 27 31 0.859898 0 79 0.859898 1
gene 1 27 32 -0.0120913 0 80 -0.0120913 1
gene 1 27 33 -2.38575 0 81 -2.38575 1
gene 1 28 31 -0.78673 0 82 -0.78673 1
gene 1 28 32 0.347478 0 83 0.347478 1
gene 1 28 33 1.72972 0 84 1.72972 1
gene 1 29 31 1.29991 0 85 1.29991 1
gene 1 29 32 -0.421561 0 86 -0.421561 1
gene 1 29 33 -0.693218 0 87 -0.693218 1
gene 1 30 31 -1.53827 0 88 -1.53827 1
gene 1 30 32 -5 0 89 -5 1
gene 1 30 33 2.03787 0 90 2.03787 1
genomeend 14

/* Organism #15 Fitness: 34379.6 Error: 0 */
genomestart 15
trait 1 0.901041 0.678846 0 0.41381 1 1 0 0.174228 
node 1 1 1 1
node 2 1 1 1
node 3 1 1 1
node 4 1 1 1
node 5 1 1 1
node 6 1 1 1
node 7 1 1 1
node 8 1 1 1
node 9 1 1 1
node 10 1 1 1
node 11 1 1 1
node 12 1 1 1
node 13 1 1 1
node 14 1 1 1
node 15 1 1 1
node 16 1 1 1
node 17 1 1 1
node 18 1 1 1
node 19 1 1 1
node 20 1 1 1
node 21 1 1 1
node 22 1 1 1
node 23 1 1 1
node 24 1 1 1
node 25 1 1 1
node 26 1 1 1
node 27 1 1 1
node 28 1 1 1
node 29 1 1 1
node 30 1 1 3
node 31 1 0 2
node 32 1 0 2
node 33 1 0 2
gene 1 1 31 -3.64334 0 1 -3.64334 1
gene 1 1 32 -3.89421 0 2 -3.89421 1
gene 1 1 33 -3.10705 0 3 -3.10705 1
gene 1 2 31 -1.82321 0 4 -1.82321 1
gene 1 2 32 3.92954 0 5 3.92954 1
gene 1 2 33 1.04902 0 6 1.04902 1
gene 1 3 31 -0.638565 0 7 -0.638565 1
gene 1 3 32 2.91277 0 8 2.91277 1
gene 1 3 33 1.48207 0 9 1.48207 1
gene 1 4 31 -1.69017 0 10 -1.69017 1
gene 1 4 32 2.37042 0 11 2.37042 1
gene 1 4 33 2.05383 0 12 2.05383 1
gene 1 5 31 1.85229 0 13 1.85229 1
gene 1 5 32 -4.2149 0 14 -4.2149 1
gene 1 5 33 -3.66204 0 15 -3.66204 1
gene 1 6 31 0.752769 0 16 0.752769 1
gene 1 6 32 -4.90929 0 17 -4.90929 1
gene 1 6 33 -2.5404 0 18 -2.5404 1
gene 1 7 31 -4.2887 0 19 -4.2887 1
gene 1 7 32 -1.72809 0 20 -1.72809 1
gene 1 7 33 -2.76991 0 21 -2.76991 1
gene 1 8 31 -0.853833 0 22 -0.853833 1
gene 1 8 32 -3.08719 0 23 -3.08719 1
gene 1 8 33 -0.865557 0 24 -0.865557 1
gene 1 9 31 1.19246 0 25 1.19246 1
gene 1 9 32 -0.279289 0 26 -0.279289 1
gene 1 9 33 4.57638 0 27 4.57638 1
gene 1 10 31 -3.7505 0 28 -3.7505 1
gene 1 10 32 5 0 29 5 1
gene 1 10 33 -2.07418 0 30 -2.07418 1
gene 1 11 31 -1.22581 0 31 -1.22581 1
gene 1 11 32 3.50372 0 32 3.50372 1
gene 1 11 33 -0.667623 0 33 -0.667623 1
gene 1 12 31 4.79194 0 34 4.79194 1
gene 1 12 32 -1.78393 0 35 -1.78393 1
gene 1 12 33 -0.0444737 0 36 -0.0444737 1
gene 1 13 31 -2.55746 0 37 -2.55746 1
gene 1 13 32 0.416514 0 38 0.416514 1
gene 1 13 33 -1.20826 0 39 -1.20826 1
gene 1 14 31 -2.48232 0 40 -2.48232 1
gene 1 14 32 1.6205 0 41 1.6205 1
gene 1 14 33 -0.552467 0 42 -0.552467 1
gene 1 15 31 2.57962 0 43 2.57962 1
gene 1 15 32 2.74134 0 44 2.74134 1
gene 1 15 33 0.102181 0 45 0.102181 1
gene 1 16 31 -0.10392 0 46 -0.10392 1
gene 1 16 32 -1.99596 0 47 -1.99596 1
gene 1 16 33 -5 0 48 -5 1
gene 1 17 31 -2.81807 0 49 -2.81807 1
gene 1 17 32 0.120388 0 50 0.120388 1
gene 1 17 33 -1.26072 0 51 -1.26072 1
gene 1 18 31 0.7223 0 52 0.7223 1
gene 1 18 32 0.67833 0 53 0.67833 1
gene 1 18 33 3.81895 0 54 3.81895 1
gene 1 19 31 -1.66163 0 55 -1.66163 1
gene 1 19 32 -0.654691 0 56 -0.654691 1
gene 1 19 33 1.81189 0 57 1.81189 1
gene 1 20 31 1.33817 0 58 1.33817 1
gene 1 20 32 2.74652 0 59 2.74652 1
gene 1 20 33 -1.90011 0 60 -1.90011 1
gene 1 21 31 3.22554 0 61 3.22554 1
gene 1 21 32 0.0896242 0 62 0.0896242 1
gene 1 21 33 1.30029 0 63 1.30029 1
gene 1 22 31 -2.2653 0 64 -2.2653 1
gene 1 22 32 2.07581 0 65 2.07581 1
gene 1 22 33 -3.93528 0 66 -3.93528 1
gene 1 23 31 -3.00297 0 67 -3.00297 1
gene 1 23 32 -2.90627 0 68 -2.90627 1
gene 1 23 33 1.19729 0 69 1.19729 1
gene 1 24 31 2.05407 0 70 2.05407 1
gene 1 24 32 1.5934 0 71 1.5934 1
gene 1 24 33 1.14839 0 72 1.14839 1
gene 1 25 31 -1.7413 0 73 -1.7413 1
gene 1 25 32 1.10002 0 74 1.10002 1
gene 1 25 33 -3.31106 0 75 -3.31106 1
gene 1 26 31 -0.950467 0 76 -0.950467 1
gene 1 26 32 0.523582 0 77 0.523582 1
gene 1 26 33 0.42502 0 78 0.42502 1
gene 1 27 31 -0.393752 0 79 -0.393752 1
gene 1 27 32 -1.21281 0 80 -1.21281 1
gene 1 27 33 0.195563 0 81 0.195563 1
gene 1 28 31 1.64329 0 82 1.64329 1
gene 1 28 32 0.316799 0 83 0.316799 1
gene 1 28 33 0.265949 0 84 0.265949 1
gene 1 29 31 2.97188 0 85 2.97188 1
gene 1 29 32 0.782174 0 86 0.782174 1
gene 1 29 33 0.370817 0 87 0.370817 1
gene 1 30 31 -1.67903 0 88 -1.67903 1
gene 1 30 32 -5 0 89 -5 1
gene 1 30 33 1.05752 0 90 1.05752 1
genomeend 15

/* Organism #16 Fitness: 32884.1 Error: 0 */
genomestart 16
trait 1 1 1 0.736914 0.820794 0.288031 0.671291 0.314232 0.310013 
node 1 1 1 1
node 2 1 1 1
node 3 1 1 1
node 4 1 1 1
node 5 1 1 1
node 6 1 1 1
node 7 1 1 1
node 8 1 1 1
node 9 1 1 1
node 10 1 1 1
node 11 1 1 1
node 12 1 1 1
node 13 1 1 1
node 14 1 1 1
node 15 1 1 1
node 16 1 1 1
node 17 1 1 1
node 18 1 1 1
node 19 1 1 1
node 20 1 1 1
node 21 1 1 1
node 22 1 1 1
node 23 1 1 1
node 24 1 1 1
node 25 1 1 1
node 26 1 1 1
node 27 1 1 1
node 28 1 1 1
node 29 1 1 1
node 30 1 1 3
node 31 1 0 2
node 32 1 0 2
node 33 1 0 2
gene 1 1 31 -5 0 1 -5 1
gene 1 1 32 -0.922319 0 2 -0.922319 1
gene 1 1 33 -0.555702 0 3 -0.555702 1
gene 1 2 31 3.55881 0 4 3.55881 1
gene 1 2 32 3.11076 0 5 3.11076 1
gene 1 2 33 -0.711448 0 6 -0.711448 1
gene 1 3 31 1.00097 0 7 1.00097 1
gene 1 3 32 4.06518 0 8 4.06518 1
gene 1 3 33 1.11903 0 9 1.11903 1
gene 1 4 31 -4.23126 0 10 -4.23126 1
gene 1 4 32 0.275681 0 11 0.275681 1
gene 1 4 33 -1.25163 0 12 -1.25163 1
gene 1 5 31 1.894 0 13 1.894 1
gene 1 5 32 -1.57435 0 14 -1.57435 1
gene 1 5 33 -4.18161 0 15 -4.18161 1
gene 1 6 31 2.22244 0 16 2.22244 1
gene 1 6 32 -5 0 17 -5 1
gene 1 6 33 1.6595 0 18 1.6595 1
gene 1 7 31 -3.45273 0 19 -3.45273 1
gene 1 7 32 1.2018 0 20 1.2018 1
gene 1 7 33 -0.237156 0 21 -0.237156 1
gene 1 8 31 -3.39274 0 22 -3.39274 1
gene 1 8 32 -0.716992 0 23 -0.716992 1
gene 1 8 33 4.59056 0 24 4.59056 1
gene 1 9 31 1.97851 0 25 1.97851 1
gene 1 9 32 2.23897 0 26 2.23897 1
gene 1 9 33 -0.383353 0 27 -0.383353 1
gene 1 10 31 -3.61453 0 28 -3.61453 1
gene 1 10 32 3.26149 0 29 3.26149 1
gene 1 10 33 3.01977 0 30 3.01977 1
gene 1 11 31 2.47358 0 31 2.47358 1
gene 1 11 32 3.67605 0 32 3.67605 1
gene 1 11 33 -0.122538 0 33 -0.122538 1
gene 1 12 31 4.33739 0 34 4.33739 1
gene 1 12 32 -1.08159 0 35 -1.08159 1
gene 1 12 33 -2.69785 0 36 -2.69785 1
gene 1 13 31 -2.17006 0 37 -2.17006 1
gene 1 13 32 0.771863 0 38 0.771863 1
gene 1 13 33 -0.502711 0 39 -0.502711 1
gene 1 14 31 -0.483673 0 40 -0.483673 1
gene 1 14 32 0.334 0 41 0.334 1
gene 1 14 33 -3.86153 0 42 -3.86153 1
gene 1 15 31 0.456101 0 43 0.456101 1
gene 1 15 32 -1.54603 0 44 -1.54603 1
gene 1 15 33 3.75721 0 45 3.75721 1
gene 1 16 31 1.0529 0 46 1.0529 1
gene 1 16 32 -3.39011 0 47 -3.39011 1
gene 1 16 33 -0.951305 0 48 -0.951305 1
gene 1 17 31 -0.641667 0 49 -0.641667 1
gene 1 17 32 -4.80298 0 50 -4.80298 1
gene 1 17 33 -4.34899 0 51 -4.34899 1
gene 1 18 31 -1.04357 0 52 -1.04357 1
gene 1 18 32 2.86182 0 53 2.86182 1
gene 1 18 33 5 0 54 5 1
gene 1 19 31 -3.86008 0 55 -3.86008 1
gene 1 19 32 -5 0 56 -5 1
gene 1 19 33 1.00684 0 57 1.00684 1
gene 1 20 31 -5 0 58 -5 1
gene 1 20 32 2.09531 0 59 2.09531 1
gene 1 20 33 1.60136 0 60 1.60136 1
gene 1 21 31 -2.0626 0 61 -2.0626 1
gene 1 21 32 3.96382 0 62 3.96382 1
gene 1 21 33 0.795419 0 63 0.795419 1
gene 1 22 31 -1.09539 0 64 -1.09539 1
gene 1 22 32 -2.19096 0 65 -2.19096 1
gene 1 22 33 0.464902 0 66 0.464902 1
gene 1 23 31 -3.68344 0 67 -3.68344 1
gene 1 23 32 -0.0882093 0 68 -0.0882093 1
gene 1 23 33 1.35273 0 69 1.35273 1
gene 1 24 31 3.84395 0 70 3.84395 1
gene 1 24 32 1.4608 0 71 1.4608 1
gene 1 24 33 -2.14873 0 72 -2.14873 1
gene 1 25 31 -1.08497 0 73 -1.08497 1
gene 1 25 32 0.060578 0 74 0.060578 1
gene 1 25 33 0.155465 0 75 0.155465 1
gene 1 26 31 0.122213 0 76 0.122213 1
gene 1 26 32 -1.39096 0 77 -1.39096 1
gene 1 26 33 0.83229 0 78 0.83229 1
gene 1 27 31 2.18605 0 79 2.18605 1
gene 1 27 32 -0.737545 0 80 -0.737545 1
gene 1 27 33 1.90951 0 81 1.90951 1
gene 1 28 31 0.512125 0 82 0.512125 1
gene 1 28 32 0.91782 0 83 0.91782 1
gene 1 28 33 0.646432 0 84 0.646432 1
gene 1 29 31 -0.447996 0 85 -0.447996 1
gene 1 29 32 -0.126162 0 86 -0.126162 1
gene 1 29 33 0.460286 0 87 0.460286 1
gene 1 30 31 0.0882592 0 88 0.0882592 1
gene 1 30 32 -3.79517 0 89 -3.79517 1
gene 1 30 33 -1.89604 0 90 -1.89604 1
genomeend 16

/* Organism #17 Fitness: 33980.3 Error: 0 */
genomestart 17
trait 1 0.212822 1 0.212808 1 0.181346 1 0 0.776166 
node 1 1 1 1
node 2 1 1 1
node 3 1 1 1
node 4 1 1 1
node 5 1 1 1
node 6 1 1 1
node 7 1 1 1
node 8 1 1 1
node 9 1 1 1
node 10 1 1 1
node 11 1 1 1
node 12 1 1 1
node 13 1 1 1
node 14 1 1 1
node 15 1 1 1
node 16 1 1 1
node 17 1 1 1
node 18 1 1 1
node 19 1 1 1
node 20 1 1 1
node 21 1 1 1
node 22 1 1 1
node 23 1 1 1
node 24 1 1 1
node 25 1 1 1
node 26 1 1 1
node 27 1 1 1
node 28 1 1 1
node 29 1 1 1
node 30 1 1 3
node 31 1 0 2
node 32 1 0 2
node 33 1 0 2
gene 1 1 31 -2.97612 0 1 -2.97612 1
gene 1 1 32 -5 0 2 -5 1
gene 1 1 33 -0.549041 0 3 -0.549041 1
gene 1 2 31 -2.02001 0 4 -2.02001 1
gene 1 2 32 3.2897 0 5 3.2897 1
gene 1 2 33 -0.703341 0 6 -0.703341 1
gene 1 3 31 0.923421 0 7 0.923421 1
gene 1 3 32 0.203372 0 8 0.203372 1
gene 1 3 33 -0.128863 0 9 -0.128863 1
gene 1 4 31 -4.86772 0 10 -4.86772 1
gene 1 4 32 4.97708 0 11 4.97708 1
gene 1 4 33 -0.875167 0 12 -0.875167 1
gene 1 5 31 2.1375 0 13 2.1375 1
gene 1 5 32 -2.73254 0 14 -2.73254 1
gene 1 5 33 -0.919788 0 15 -0.919788 1
gene 1 6 31 -0.504454 0 16 -0.504454 1
gene 1 6 32 -4.91846 0 17 -4.91846 1
gene 1 6 33 -3.2486 0 18 -3.2486 1
gene 1 7 31 -0.905311 0 19 -0.905311 1
gene 1 7 32 -0.277891 0 20 -0.277891 1
gene 1 7 33 -3.27849 0 21 -3.27849 1
gene 1 8 31 0.90602 0 22 0.90602 1
gene 1 8 32 -0.493171 0 23 -0.493171 1
gene 1 8 33 -0.593962 0 24 -0.593962 1
gene 1 9 31 0.498449 0 25 0.498449 1
gene 1 9 32 0.145617 0 26 0.145617 1
gene 1 9 33 3.95386 0 27 3.95386 1
gene 1 10 31 -2.9583 0 28 -2.9583 1
gene 1 10 32 0.16864 0 29 0.16864 1
gene 1 10 33 2.45303 0 30 2.45303 1
gene 1 11 31 -0.199772 0 31 -0.199772 1
gene 1 11 32 1.64279 0 32 1.64279 1
gene 1 11 33 -0.723331 0 33 -0.723331 1
gene 1 12 31 2.99501 0 34 2.99501 1
gene 1 12 32 0.497786 0 35 0.497786 1
gene 1 12 33 0.421314 0 36 0.421314 1
gene 1 13 31 -0.347875 0 37 -0.347875 1
gene 1 13 32 1.78763 0 38 1.78763 1
gene 1 13 33 -1.51851 0 39 -1.51851 1
gene 1 14 31 -1.44843 0 40 -1.44843 1
gene 1 14 32 -0.372734 0 41 -0.372734 1
gene 1 14 33 -0.912724 0 42 -0.912724 1
gene 1 15 31 -0.748922 0 43 -0.748922 1
gene 1 15 32 1.02169 0 44 1.02169 1
gene 1 15 33 -2.34592 0 45 -2.34592 1
gene 1 16 31 0.574172 0 46 0.574172 1
gene 1 16 32 0.517603 0 47 0.517603 1
gene 1 16 33 0.0234123 0 48 0.0234123 1
gene 1 17 31 -1.76574 0 49 -1.76574 1
gene 1 17 32 0.935573 0 50 0.935573 1
gene 1 17 33 2.63922 0 51 2.63922 1
gene 1 18 31 0.348913 0 52 0.348913 1
gene 1 18 32 -0.333871 0 53 -0.333871 1
gene 1 18 33 4.64254 0 54 4.64254 1
gene 1 19 31 -1.80087 0 55 -1.80087 1
gene 1 19 32 -0.673917 0 56 -0.673917 1
gene 1 19 33 3.71959 0 57 3.71959 1
gene 1 20 31 0.412688 0 58 0.412688 1
gene 1 20 32 0.406732 0 59 0.406732 1
gene 1 20 33 -0.537823 0 60 -0.537823 1
gene 1 21 31 4.61833 0 61 4.61833 1
gene 1 21 32 -0.312196 0 62 -0.312196 1
gene 1 21 33 0.409226 0 63 0.409226 1
gene 1 22 31 0.395518 0 64 0.395518 1
gene 1 22 32 -0.0155448 0 65 -0.0155448 1
gene 1 22 33 -3.22986 0 66 -3.22986 1
gene 1 23 31 -1.60463 0 67 -1.60463 1
gene 1 23 32 -0.021907 0 68 -0.021907 1
gene 1 23 33 -0.982522 0 69 -0.982522 1
gene 1 24 31 1.33838 0 70 1.33838 1
gene 1 24 32 0.171227 0 71 0.171227 1
gene 1 24 33 0.762395 0 72 0.762395 1
gene 1 25 31 -1.34216 0 73 -1.34216 1
gene 1 25 32 0.381163 0 74 0.381163 1
gene 1 25 33 -1.72815 0 75 -1.72815 1
gene 1 26 31 -0.872545 0 76 -0.872545 1
gene 1 26 32 -0.224394 0 77 -0.224394 1
gene 1 26 33 0.378495 0 78 0.378495 1
gene 1 27 31 1.03511 0 79 1.03511 1
gene 1 27 32 -0.863531 0 80 -0.863531 1
gene 1 27 33 0.760739 0 81 0.760739 1
gene 1 28 31 -0.933481 0 82 -0.933481 1
gene 1 28 32 -0.40492 0 83 -0.40492 1
gene 1 28 33 -0.167118 0 84 -0.167118 1
gene 1 29 31 -2.44302 0 85 -2.44302 1
gene 1 29 32 -0.580451 0 86 -0.580451 1
gene 1 29 33 0.851654 0 87 0.851654 1
gene 1 30 31 -0.672791 0 88 -0.672791 1
gene 1 30 32 -2.96471 0 89 -2.96471 1
gene 1 30 33 -0.404592 0 90 -0.404592 1
genomeend 17

/* Organism #18 Fitness: 31676.8 Error: 0 */
genomestart 18
trait 1 1 1 0 0.820794 1 0.484848 0.157174 0.310013 
node 1 1 1 1
node 2 1 1 1
node 3 1 1 1
node 4 1 1 1
node 5 1 1 1
node 6 1 1 1
node 7 1 1 1
node 8 1 1 1
node 9 1 1 1
node 10 1 1 1
node 11 1 1 1
node 12 1 1 1
node 13 1 1 1
node 14 1 1 1
node 15 1 1 1
node 16 1 1 1
node 17 1 1 1
node 18 1 1 1
node 19 1 1 1
node 20 1 1 1
node 21 1 1 1
node 22 1 1 1
node 23 1 1 1
node 24 1 1 1
node 25 1 1 1
node 26 1 1 1
node 27 1 1 1
node 28 1 1 1
node 29 1 1 1
node 30 1 1 3
node 31 1 0 2
node 32 1 0 2
node 33 1 0 2
gene 1 1 31 -3.04878 0 1 -3.04878 1
gene 1 1 32 0.144881 0 2 0.144881 1
gene 1 1 33 0.89038 0 3 0.89038 1
gene 1 2 31 0.429616 0 4 0.429616 1
gene 1 2 32 2.56886 0 5 2.56886 1
gene 1 2 33 0.687817 0 6 0.687817 1
gene 1 3 31 -1.30197 0 7 -1.30197 1
gene 1 3 32 4.11228 0 8 4.11228 1
gene 1 3 33 -2.49516 0 9 -2.49516 1
gene 1 4 31 -4.91407 0 10 -4.91407 1
gene 1 4 32 -1.03755 0 11 -1.03755 1
gene 1 4 33 4.05873 0 12 4.05873 1
gene 1 5 31 1.65638 0 13 1.65638 1
gene 1 5 32 0.961099 0 14 0.961099 1
gene 1 5 33 -0.311904 0 15 -0.311904 1
gene 1 6 31 0.540195 0 16 0.540195 1
gene 1 6 32 -4.20272 0 17 -4.20272 1
gene 1 6 33 2.45278 0 18 2.45278 1
gene 1 7 31 -3.56467 0 19 -3.56467 1
gene 1 7 32 -0.0940769 0 20 -0.0940769 1
gene 1 7 33 -3.31912 0 21 -3.31912 1
gene 1 8 31 -4.42635 0 22 -4.42635 1
gene 1 8 32 0.269313 0 23 0.269313 1
gene 1 8 33 3.95429 0 24 3.95429 1
gene 1 9 31 -0.224494 0 25 -0.224494 1
gene 1 9 32 -1.53528 0 26 -1.53528 1
gene 1 9 33 0.507991 0 27 0.507991 1
gene 1 10 31 -0.926733 0 28 -0.926733 1
gene 1 10 32 -0.308274 0 29 -0.308274 1
gene 1 10 33 0.153173 0 30 0.153173 1
gene 1 11 31 3.17599 0 31 3.17599 1
gene 1 11 32 3.94587 0 32 3.94587 1
gene 1 11 33 0.865118 0 33 0.865118 1
gene 1 12 31 0.899677 0 34 0.899677 1
gene 1 12 32 0.15722 0 35 0.15722 1
gene 1 12 33 0.331376 0 36 0.331376 1
gene 1 13 31 -3.03125 0 37 -3.03125 1
gene 1 13 32 -0.237857 0 38 -0.237857 1
gene 1 13 33 -1.1735 0 39 -1.1735 1
gene 1 14 31 0.0471067 0 40 0.0471067 1
gene 1 14 32 3.85693 0 41 3.85693 1
gene 1 14 33 0.0496451 0 42 0.0496451 1
gene 1 15 31 0.709362 0 43 0.709362 1
gene 1 15 32 -0.416117 0 44 -0.416117 1
gene 1 15 33 4.18543 0 45 4.18543 1
gene 1 16 31 4.50803 0 46 4.50803 1
gene 1 16 32 -2.66679 0 47 -2.66679 1
gene 1 16 33 2.27982 0 48 2.27982 1
gene 1 17 31 0.515108 0 49 0.515108 1
gene 1 17 32 -1.95132 0 50 -1.95132 1
gene 1 17 33 -0.535036 0 51 -0.535036 1
gene 1 18 31 0.521195 0 52 0.521195 1
gene 1 18 32 5 0 53 5 1
gene 1 18 33 -0.766579 0 54 -0.766579 1
gene 1 19 31 -4.32367 0 55 -4.32367 1
gene 1 19 32 -2.01049 0 56 -2.01049 1
gene 1 19 33 0.492488 0 57 0.492488 1
gene 1 20 31 -1.17194 0 58 -1.17194 1
gene 1 20 32 2.71352 0 59 2.71352 1
gene 1 20 33 -0.459429 0 60 -0.459429 1
gene 1 21 31 -0.372476 0 61 -0.372476 1
gene 1 21 32 0.658139 0 62 0.658139 1
gene 1 21 33 -0.119259 0 63 -0.119259 1
gene 1 22 31 0.524063 0 64 0.524063 1
gene 1 22 32 0.122459 0 65 0.122459 1
gene 1 22 33 -1.88107 0 66 -1.88107 1
gene 1 23 31 0.118413 0 67 0.118413 1
gene 1 23 32 -0.502747 0 68 -0.502747 1
gene 1 23 33 2.27618 0 69 2.27618 1
gene 1 24 31 3.13916 0 70 3.13916 1
gene 1 24 32 1.09703 0 71 1.09703 1
gene 1 24 33 2.54111 0 72 2.54111 1
gene 1 25 31 1.75586 0 73 1.75586 1
gene 1 25 32 0.390725 0 74 0.390725 1
gene 1 25 33 0.89789 0 75 0.89789 1
gene 1 26 31 2.03197 0 76 2.03197 1
gene 1 26 32 0.701291 0 77 0.701291 1
gene 1 26 33 0.590441 0 78 0.590441 1
gene 1 27 31 -0.993959 0 79 -0.993959 1
gene 1 27 32 0.179738 0 80 0.179738 1
gene 1 27 33 1.81121 0 81 1.81121 1
gene 1 28 31 -1.15449 0 82 -1.15449 1
gene 1 28 32 -0.087005 0 83 -0.087005 1
gene 1 28 33 1.6576 0 84 1.6576 1
gene 1 29 31 -0.975514 0 85 -0.975514 1
gene 1 29 32 0.486984 0 86 0.486984 1
gene 1 29 33 0.732868 0 87 0.732868 1
gene 1 30 31 -0.390725 0 88 -0.390725 1
gene 1 30 32 -5 0 89 -5 1
gene 1 30 33 0.437901 0 90 0.437901 1
genomeend 18

/* Organism #19 Fitness: 32698.4 Error: 0 */
genomestart 19
trait 1 1 0.879175 0 0.41381 1 1 0.529828 1 
node 1 1 1 1
node 2 1 1 1
node 3 1 1 1
node 4 1 1 1
node 5 1 1 1
node 6 1 1 1
node 7 1 1 1
node 8 1 1 1
node 9 1 1 1
node 10 1 1 1
node 11 1 1 1
node 12 1 1 1
node 13 1 1 1
node 14 1 1 1
node 15 1 1 1
node 16 1 1 1
node 17 1 1 1
node 18 1 1 1
node 19 1 1 1
node 20 1 1 1
node 21 1 1 1
node 22 1 1 1
node 23 1 1 1
node 24 1 1 1
node 25 1 1 1
node 26 1 1 1
node 27 1 1 1
node 28 1 1 1
node 29 1 1 1
node 30 1 1 3
node 31 1 0 2
node 32 1 0 2
node 33 1 0 2
gene 1 1 31 -3.37434 0 1 -3.37434 1
gene 1 1 32 -4.67895 0 2 -4.67895 1
gene 1 1 33 -1.20051 0 3 -1.20051 1
gene 1 2 31 -0.550472 0 4 -0.550472 1
gene 1 2 32 3.56949 0 5 3.56949 1
gene 1 2 33 2.01197 0 6 2.01197 1
gene 1 3 31 -1.38141 0 7 -1.38141 1
gene 1 3 32 3.88366 0 8 3.88366 1
gene 1 3 33 -0.271347 0 9 -0.271347 1
gene 1 4 31 -2.48639 0 10 -2.48639 1
gene 1 4 32 3.54105 0 11 3.54105 1
gene 1 4 33 2.10078 0 12 2.10078 1
gene 1 5 31 2.47361 0 13 2.47361 1
gene 1 5 32 -5 0 14 -5 1
gene 1 5 33 -1.70725 0 15 -1.70725 1
gene 1 6 31 0.0597241 0 16 0.0597241 1
gene 1 6 32 -3.68282 0 17 -3.68282 1
gene 1 6 33 -1.42263 0 18 -1.42263 1
gene 1 7 31 -4.3201 0 19 -4.3201 1
gene 1 7 32 -1.65836 0 20 -1.65836 1
gene 1 7 33 -2.30776 0 21 -2.30776 1
gene 1 8 31 0.354756 0 22 0.354756 1
gene 1 8 32 -1.2123 0 23 -1.2123 1
gene 1 8 33 0.154199 0 24 0.154199 1
gene 1 9 31 -0.598854 0 25 -0.598854 1
gene 1 9 32 -0.840134 0 26 -0.840134 1
gene 1 9 33 0.106834 0 27 0.106834 1
gene 1 10 31 -4.89044 0 28 -4.89044 1
gene 1 10 32 2.75976 0 29 2.75976 1
gene 1 10 33 0.862654 0 30 0.862654 1
gene 1 11 31 0.935025 0 31 0.935025 1
gene 1 11 32 2.45846 0 32 2.45846 1
gene 1 11 33 -1.4111 0 33 -1.4111 1
gene 1 12 31 5 0 34 5 1
gene 1 12 32 -0.416494 0 35 -0.416494 1
gene 1 12 33 -1.91806 0 36 -1.91806 1
gene 1 13 31 -2.01164 0 37 -2.01164 1
gene 1 13 32 -2.48103 0 38 -2.48103 1
gene 1 13 33 -3.19151 0 39 -3.19151 1
gene 1 14 31 -2.26875 0 40 -2.26875 1
gene 1 14 32 2.38659 0 41 2.38659 1
gene 1 14 33 -3.7499 0 42 -3.7499 1
gene 1 15 31 4.33268 0 43 4.33268 1
gene 1 15 32 4.12286 0 44 4.12286 1
gene 1 15 33 -0.43254 0 45 -0.43254 1
gene 1 16 31 0.0668879 0 46 0.0668879 1
gene 1 16 32 0.798525 0 47 0.798525 1
gene 1 16 33 -5 0 48 -5 1
gene 1 17 31 -2.98603 0 49 -2.98603 1
gene 1 17 32 -1.43505 0 50 -1.43505 1
gene 1 17 33 0.317653 0 51 0.317653 1
gene 1 18 31 -0.871077 0 52 -0.871077 1
gene 1 18 32 0.112765 0 53 0.112765 1
gene 1 18 33 3.86144 0 54 3.86144 1
gene 1 19 31 -1.79846 0 55 -1.79846 1
gene 1 19 32 -0.752495 0 56 -0.752495 1
gene 1 19 33 1.51017 0 57 1.51017 1
gene 1 20 31 0.838142 0 58 0.838142 1
gene 1 20 32 3.33376 0 59 3.33376 1
gene 1 20 33 -1.24695 0 60 -1.24695 1
gene 1 21 31 -0.0372856 0 61 -0.0372856 1
gene 1 21 32 -0.625141 0 62 -0.625141 1
gene 1 21 33 2.47091 0 63 2.47091 1
gene 1 22 31 -1.56163 0 64 -1.56163 1
gene 1 22 32 0.0754168 0 65 0.0754168 1
gene 1 22 33 -3.4608 0 66 -3.4608 1
gene 1 23 31 -4.6328 0 67 -4.6328 1
gene 1 23 32 -2.56596 0 68 -2.56596 1
gene 1 23 33 -0.0435865 0 69 -0.0435865 1
gene 1 24 31 -0.605646 0 70 -0.605646 1
gene 1 24 32 0.0589761 0 71 0.0589761 1
gene 1 24 33 -1.04801 0 72 -1.04801 1
gene 1 25 31 -2.08067 0 73 -2.08067 1
gene 1 25 32 0.377623 0 74 0.377623 1
gene 1 25 33 0.430851 0 75 0.430851 1
gene 1 26 31 -0.823329 0 76 -0.823329 1
gene 1 26 32 0.989285 0 77 0.989285 1
gene 1 26 33 0.920588 0 78 0.920588 1
gene 1 27 31 -0.771349 0 79 -0.771349 1
gene 1 27 32 -0.302051 0 80 -0.302051 1
gene 1 27 33 -0.662239 0 81 -0.662239 1
gene 1 28 31 -0.205678 0 82 -0.205678 1
gene 1 28 32 -0.199904 0 83 -0.199904 1
gene 1 28 33 1.5391 0 84 1.5391 1
gene 1 29 31 1.51131 0 85 1.51131 1
gene 1 29 32 -1.11581 0 86 -1.11581 1
gene 1 29 33 0.245019 0 87 0.245019 1
gene 1 30 31 -1.83486 0 88 -1.83486 1
gene 1 30 32 -5 0 89 -5 1
gene 1 30 33 -0.895901 0 90 -0.895901 1
genomeend 19

/* Organism #20 Fitness: 28467.1 Error: 0 */
genomestart 20
trait 1 0.360057 0.505647 0 0.367789 0.453954 0.0177446 0.157174 0.310013 
node 1 1 1 1
node 2 1 1 1
node 3 1 1 1
node 4 1 1 1
node 5 1 1 1
node 6 1 1 1
node 7 1 1 1
node 8 1 1 1
node 9 1 1 1
node 10 1 1 1
node 11 1 1 1
node 12 1 1 1
node 13 1 1 1
node 14 1 1 1
node 15 1 1 1
node 16 1 1 1
node 17 1 1 1
node 18 1 1 1
node 19 1 1 1
node 20 1 1 1
node 21 1 1 1
node 22 1 1 1
node 23 1 1 1
node 24 1 1 1
node 25 1 1 1
node 26 1 1 1
node 27 1 1 1
node 28 1 1 1
node 29 1 1 1
node 30 1 1 3
node 31 1 0 2
node 32 1 0 2
node 33 1 0 2
gene 1 1 31 -2.94874 0 1 -2.94874 1
gene 1 1 32 0.895424 0 2 0.895424 1
gene 1 1 33 0.567753 0 3 0.567753 1
gene 1 2 31 1.36681 0 4 1.36681 1
gene 1 2 32 0.91867 0 5 0.91867 1
gene 1 2 33 1.28033 0 6 1.28033 1
gene 1 3 31 -1.4173 0 7 -1.4173 1
gene 1 3 32 4.77808 0 8 4.77808 1
gene 1 3 33 -0.72037 0 9 -0.72037 1
gene 1 4 31 0.288929 0 10 0.288929 1
gene 1 4 32 0.771471 0 11 0.771471 1
gene 1 4 33 4.80624 0 12 4.80624 1
gene 1 5 31 -0.566443 0 13 -0.566443 1
gene 1 5 32 0.0253199 0 14 0.0253199 1
gene 1 5 33 0.97855 0 15 0.97855 1
gene 1 6 31 0.628664 0 16 0.628664 1
gene 1 6 32 -3.55133 0 17 -3.55133 1
gene 1 6 33 1.69241 0 18 1.69241 1
gene 1 7 31 0.336437 0 19 0.336437 1
gene 1 7 32 0.767797 0 20 0.767797 1
gene 1 7 33 -3.51232 0 21 -3.51232 1
gene 1 8 31 -4.42635 0 22 -4.42635 1
gene 1 8 32 0.436428 0 23 0.436428 1
gene 1 8 33 4.82782 0 24 4.82782 1
gene 1 9 31 -1.20231 0 25 -1.20231 1
gene 1 9 32 -1.73074 0 26 -1.73074 1
gene 1 9 33 0.643565 0 27 0.643565 1
gene 1 10 31 0.0129963 0 28 0.0129963 1
gene 1 10 32 0.488255 0 29 0.488255 1
gene 1 10 33 -0.726579 0 30 -0.726579 1
gene 1 11 31 3.09594 0 31 3.09594 1
gene 1 11 32 4.44335 0 32 4.44335 1
gene 1 11 33 -0.0174555 0 33 -0.0174555 1
gene 1 12 31 1.45764 0 34 1.45764 1
gene 1 12 32 -0.303615 0 35 -0.303615 1
gene 1 12 33 -0.17849 0 36 -0.17849 1
gene 1 13 31 0.297571 0 37 0.297571 1
gene 1 13 32 0.939283 0 38 0.939283 1
gene 1 13 33 -1.0727 0 39 -1.0727 1
gene 1 14 31 -0.455375 0 40 -0.455375 1
gene 1 14 32 4.2902 0 41 4.2902 1
gene 1 14 33 -0.614974 0 42 -0.614974 1
gene 1 15 31 -0.944052 0 43 -0.944052 1
gene 1 15 32 -1.25412 0 44 -1.25412 1
gene 1 15 33 -0.371803 0 45 -0.371803 1
gene 1 16 31 5 0 46 5 1
gene 1 16 32 -0.383041 0 47 -0.383041 1
gene 1 16 33 2.27982 0 48 2.27982 1
gene 1 17 31 0.936266 0 49 0.936266 1
gene 1 17 32 -1.22408 0 50 -1.22408 1
gene 1 17 33 -0.535036 0 51 -0.535036 1
gene 1 18 31 0.0680146 0 52 0.0680146 1
gene 1 18 32 4.14856 0 53 4.14856 1
gene 1 18 33 -0.96363 0 54 -0.96363 1
gene 1 19 31 -3.96014 0 55 -3.96014 1
gene 1 19 32 -2.3392 0 56 -2.3392 1
gene 1 19 33 0.204451 0 57 0.204451 1
gene 1 20 31 -1.54904 0 58 -1.54904 1
gene 1 20 32 3.32239 0 59 3.32239 1
gene 1 20 33 -0.459429 0 60 -0.459429 1
gene 1 21 31 0.39746 0 61 0.39746 1
gene 1 21 32 1.31717 0 62 1.31717 1
gene 1 21 33 -0.94466 0 63 -0.94466 1
gene 1 22 31 0.0146603 0 64 0.0146603 1
gene 1 22 32 -0.788758 0 65 -0.788758 1
gene 1 22 33 -1.88107 0 66 -1.88107 1
gene 1 23 31 -2.39275e-05 0 67 -2.39275e-05 1
gene 1 23 32 -1.23402 0 68 -1.23402 1
gene 1 23 33 1.88743 0 69 1.88743 1
gene 1 24 31 0.191644 0 70 0.191644 1
gene 1 24 32 1.73947 0 71 1.73947 1
gene 1 24 33 2.71553 0 72 2.71553 1
gene 1 25 31 2.20805 0 73 2.20805 1
gene 1 25 32 0.390725 0 74 0.390725 1
gene 1 25 33 -0.0173695 0 75 -0.0173695 1
gene 1 26 31 2.34234 0 76 2.34234 1
gene 1 26 32 0.572163 0 77 0.572163 1
gene 1 26 33 1.34501 0 78 1.34501 1
gene 1 27 31 -1.781 0 79 -1.781 1
gene 1 27 32 0.342541 0 80 0.342541 1
gene 1 27 33 1.2021 0 81 1.2021 1
gene 1 28 31 -2.11558 0 82 -2.11558 1
gene 1 28 32 0.671936 0 83 0.671936 1
gene 1 28 33 1.06451 0 84 1.06451 1
gene 1 29 31 -0.0539098 0 85 -0.0539098 1
gene 1 29 32 0.507994 0 86 0.507994 1
gene 1 29 33 0.732868 0 87 0.732868 1
gene 1 30 31 -1.19738 0 88 -1.19738 1
gene 1 30 32 -5 0 89 -5 1
gene 1 30 33 -0.445094 0 90 -0.445094 1
genomeend 20

/* Organism #21 Fitness: 30024.5 Error: 0 */
genomestart 21
trait 1 0.212822 1 0.212808 1 0.181346 1 0 0.776166 
node 1 1 1 1
node 2 1 1 1
node 3 1 1 1
node 4 1 1 1
node 5 1 1 1
node 6 1 1 1
node 7 1 1 1
node 8 1 1 1
node 9 1 1 1
node 10 1 1 1
node 11 1 1 1
node 12 1 1 1
node 13 1 1 1
node 14 1 1 1
node 15 1 1 1
node 16 1 1 1
node 17 1 1 1
node 18 1 1 1
node 19 1 1 1
node 20 1 1 1
node 21 1 1 1
node 22 1 1 1
node 23 1 1 1
node 24 1 1 1
node 25 1 1 1
node 26 1 1 1
node 27 1 1 1
node 28 1 1 1
node 29 1 1 1
node 30 1 1 3
node 31 1 0 2
node 32 1 0 2
node 33 1 0 2
gene 1 1 31 -3.26731 0 1 -3.26731 1
gene 1 1 32 0.194472 0 2 0.194472 1
gene 1 1 33 0.226877 0 3 0.226877 1
gene 1 2 31 -2.03386 0 4 -2.03386 1
gene 1 2 32 0.587867 0 5 0.587867 1
gene 1 2 33 -1.02803 0 6 -1.02803 1
gene 1 3 31 0.252813 0 7 0.252813 1
gene 1 3 32 0.977618 0 8 0.977618 1
gene 1 3 33 0.956564 0 9 0.956564 1
gene 1 4 31 -4.33912 0 10 -4.33912 1
gene 1 4 32 0.0222419 0 11 0.0222419 1
gene 1 4 33 -0.338274 0 12 -0.338274 1
gene 1 5 31 2.40906 0 13 2.40906 1
gene 1 5 32 -1.91966 0 14 -1.91966 1
gene 1 5 33 -0.512235 0 15 -0.512235 1
gene 1 6 31 -0.599035 0 16 -0.599035 1
gene 1 6 32 -0.438388 0 17 -0.438388 1
gene 1 6 33 -0.345559 0 18 -0.345559 1
gene 1 7 31 -0.20046 0 19 -0.20046 1
gene 1 7 32 0.636691 0 20 0.636691 1
gene 1 7 33 -3.71443 0 21 -3.71443 1
gene 1 8 31 0.660305 0 22 0.660305 1
gene 1 8 32 -0.451056 0 23 -0.451056 1
gene 1 8 33 -1.3069 0 24 -1.3069 1
gene 1 9 31 0.711186 0 25 0.711186 1
gene 1 9 32 -0.733008 0 26 -0.733008 1
gene 1 9 33 3.99036 0 27 3.99036 1
gene 1 10 31 -2.31479 0 28 -2.31479 1
gene 1 10 32 -0.293797 0 29 -0.293797 1
gene 1 10 33 1.93909 0 30 1.93909 1
gene 1 11 31 -0.496291 0 31 -0.496291 1
gene 1 11 32 0.942084 0 32 0.942084 1
gene 1 11 33 -0.401695 0 33 -0.401695 1
gene 1 12 31 2.40904 0 34 2.40904 1
gene 1 12 32 1.00535 0 35 1.00535 1
gene 1 12 33 -0.252966 0 36 -0.252966 1
gene 1 13 31 0.0629266 0 37 0.0629266 1
gene 1 13 32 1.39989 0 38 1.39989 1
gene 1 13 33 -2.10122 0 39 -2.10122 1
gene 1 14 31 -2.4007 0 40 -2.4007 1
gene 1 14 32 -0.397767 0 41 -0.397767 1
gene 1 14 33 -1.73596 0 42 -1.73596 1
gene 1 15 31 0.134848 0 43 0.134848 1
gene 1 15 32 0.543493 0 44 0.543493 1
gene 1 15 33 -2.34592 0 45 -2.34592 1
gene 1 16 31 0.354558 0 46 0.354558 1
gene 1 16 32 -0.97342 0 47 -0.97342 1
gene 1 16 33 0.142618 0 48 0.142618 1
gene 1 17 31 -0.00253064 0 49 -0.00253064 1
gene 1 17 32 0.935573 0 50 0.935573 1
gene 1 17 33 2.63922 0 51 2.63922 1
gene 1 18 31 -0.11127 0 52 -0.11127 1
gene 1 18 32 -0.705308 0 53 -0.705308 1
gene 1 18 33 -0.273634 0 54 -0.273634 1
gene 1 19 31 -2.68058 0 55 -2.68058 1
gene 1 19 32 -0.27151 0 56 -0.27151 1
gene 1 19 33 2.99925 0 57 2.99925 1
gene 1 20 31 0.412688 0 58 0.412688 1
gene 1 20 32 0.406732 0 59 0.406732 1
gene 1 20 33 -0.480241 0 60 -0.480241 1
gene 1 21 31 4.69015 0 61 4.69015 1
gene 1 21 32 -0.346183 0 62 -0.346183 1
gene 1 21 33 0.644762 0 63 0.644762 1
gene 1 22 31 0.621307 0 64 0.621307 1
gene 1 22 32 -0.378588 0 65 -0.378588 1
gene 1 22 33 -3.79395 0 66 -3.79395 1
gene 1 23 31 -1.10142 0 67 -1.10142 1
gene 1 23 32 0.569288 0 68 0.569288 1
gene 1 23 33 -1.19832 0 69 -1.19832 1
gene 1 24 31 2.29809 0 70 2.29809 1
gene 1 24 32 -0.603986 0 71 -0.603986 1
gene 1 24 33 0.0750589 0 72 0.0750589 1
gene 1 25 31 -0.822842 0 73 -0.822842 1
gene 1 25 32 0.536084 0 74 0.536084 1
gene 1 25 33 -0.0723483 0 75 -0.0723483 1
gene 1 26 31 -1.56354 0 76 -1.56354 1
gene 1 26 32 -0.230485 0 77 -0.230485 1
gene 1 26 33 1.04272 0 78 1.04272 1
gene 1 27 31 1.03511 0 79 1.03511 1
gene 1 27 32 -0.863531 0 80 -0.863531 1
gene 1 27 33 -0.11694 0 81 -0.11694 1
gene 1 28 31 -0.41515 0 82 -0.41515 1
gene 1 28 32 -0.40492 0 83 -0.40492 1
gene 1 28 33 -0.564429 0 84 -0.564429 1
gene 1 29 31 0.614948 0 85 0.614948 1
gene 1 29 32 0.407587 0 86 0.407587 1
gene 1 29 33 0.0861015 0 87 0.0861015 1
gene 1 30 31 -0.043306 0 88 -0.043306 1
gene 1 30 32 -3.45292 0 89 -3.45292 1
gene 1 30 33 -0.247347 0 90 -0.247347 1
genomeend 21

/* Organism #22 Fitness: 20242 Error: 0 */
genomestart 22
trait 1 1 0.879175 0 0.41381 1 1 0.529828 1 
node 1 1 1 1
node 2 1 1 1
node 3 1 1 1
node 4 1 1 1
node 5 1 1 1
node 6 1 1 1
node 7 1 1 1
node 8 1 1 1
node 9 1 1 1
node 10 1 1 1
node 11 1 1 1
node 12 1 1 1
node 13 1 1 1
node 14 1 1 1
node 15 1 1 1
node 16 1 1 1
node 17 1 1 1
node 18 1 1 1
node 19 1 1 1
node 20 1 1 1
node 21 1 1 1
node 22 1 1 1
node 23 1 1 1
node 24 1 1 1
node 25 1 1 1
node 26 1 1 1
node 27 1 1 1
node 28 1 1 1
node 29 1 1 1
node 30 1 1 3
node 31 1 0 2
node 32 1 0 2
node 33 1 0 2
gene 1 1 31 -3.78867 0 1 -3.78867 1
gene 1 1 32 -5 0 2 -5 1
gene 1 1 33 -2.78244 0 3 -2.78244 1
gene 1 2 31 -2.53014 0 4 -2.53014 1
gene 1 2 32 4.65389 0 5 4.65389 1
gene 1 2 33 0.395074 0 6 0.395074 1
gene 1 3 31 -0.842484 0 7 -0.842484 1
gene 1 3 32 3.96873 0 8 3.96873 1
gene 1 3 33 -0.421373 0 9 -0.421373 1
gene 1 4 31 -5 0 10 -5 1
gene 1 4 32 0.650908 0 11 0.650908 1
gene 1 4 33 -0.0185109 0 12 -0.0185109 1
gene 1 5 31 1.11033 0 13 1.11033 1
gene 1 5 32 -3.1735 0 14 -3.1735 1
gene 1 5 33 -0.698966 0 15 -0.698966 1
gene 1 6 31 2.17844 0 16 2.17844 1
gene 1 6 32 -4.78823 0 17 -4.78823 1
gene 1 6 33 -4.27799 0 18 -4.27799 1
gene 1 7 31 -1.75305 0 19 -1.75305 1
gene 1 7 32 -0.950534 0 20 -0.950534 1
gene 1 7 33 -3.33399 0 21 -3.33399 1
gene 1 8 31 1.92557 0 22 1.92557 1
gene 1 8 32 -2.53475 0 23 -2.53475 1
gene 1 8 33 -0.412817 0 24 -0.412817 1
gene 1 9 31 -2.87824 0 25 -2.87824 1
gene 1 9 32 -1.78399 0 26 -1.78399 1
gene 1 9 33 -0.377961 0 27 -0.377961 1
gene 1 10 31 -5 0 28 -5 1
gene 1 10 32 -0.546513 0 29 -0.546513 1
gene 1 10 33 1.20808 0 30 1.20808 1
gene 1 11 31 -1.89376 0 31 -1.89376 1
gene 1 11 32 3.12741 0 32 3.12741 1
gene 1 11 33 -1.65368 0 33 -1.65368 1
gene 1 12 31 3.24047 0 34 3.24047 1
gene 1 12 32 -1.73273 0 35 -1.73273 1
gene 1 12 33 -2.47496 0 36 -2.47496 1
gene 1 13 31 0.473099 0 37 0.473099 1
gene 1 13 32 -2.11873 0 38 -2.11873 1
gene 1 13 33 -2.76571 0 39 -2.76571 1
gene 1 14 31 -1.73007 0 40 -1.73007 1
gene 1 14 32 2.49814 0 41 2.49814 1
gene 1 14 33 -3.02572 0 42 -3.02572 1
gene 1 15 31 2.40159 0 43 2.40159 1
gene 1 15 32 2.00171 0 44 2.00171 1
gene 1 15 33 0.709837 0 45 0.709837 1
gene 1 16 31 1.77413 0 46 1.77413 1
gene 1 16 32 0.263975 0 47 0.263975 1
gene 1 16 33 -3.85717 0 48 -3.85717 1
gene 1 17 31 -1.54481 0 49 -1.54481 1
gene 1 17 32 -2.67173 0 50 -2.67173 1
gene 1 17 33 0.396085 0 51 0.396085 1
gene 1 18 31 0.18034 0 52 0.18034 1
gene 1 18 32 1.23784 0 53 1.23784 1
gene 1 18 33 3.13411 0 54 3.13411 1
gene 1 19 31 -0.787278 0 55 -0.787278 1
gene 1 19 32 0.782901 0 56 0.782901 1
gene 1 19 33 0.623307 0 57 0.623307 1
gene 1 20 31 3.00783 0 58 3.00783 1
gene 1 20 32 2.94803 0 59 2.94803 1
gene 1 20 33 -1.02657 0 60 -1.02657 1
gene 1 21 31 1.51603 0 61 1.51603 1
gene 1 21 32 -1.3801 0 62 -1.3801 1
gene 1 21 33 3.77555 0 63 3.77555 1
gene 1 22 31 -1.27372 0 64 -1.27372 1
gene 1 22 32 -0.804711 0 65 -0.804711 1
gene 1 22 33 -4.92105 0 66 -4.92105 1
gene 1 23 31 -4.56031 0 67 -4.56031 1
gene 1 23 32 1.12308 0 68 1.12308 1
gene 1 23 33 -1.05593 0 69 -1.05593 1
gene 1 24 31 -0.547197 0 70 -0.547197 1
gene 1 24 32 -1.80681 0 71 -1.80681 1
gene 1 24 33 -0.130566 0 72 -0.130566 1
gene 1 25 31 -0.698392 0 73 -0.698392 1
gene 1 25 32 0.545162 0 74 0.545162 1
gene 1 25 33 -0.628028 0 75 -0.628028 1
gene 1 26 31 0.42732 0 76 0.42732 1
gene 1 26 32 -0.893403 0 77 -0.893403 1
gene 1 26 33 2.02731 0 78 2.02731 1
gene 1 27 31 0.970664 0 79 0.970664 1
gene 1 27 32 -0.563144 0 80 -0.563144 1
gene 1 27 33 0.589142 0 81 0.589142 1
gene 1 28 31 1.29552 0 82 1.29552 1
gene 1 28 32 -0.272396 0 83 -0.272396 1
gene 1 28 33 -1.37527 0 84 -1.37527 1
gene 1 29 31 -0.767888 0 85 -0.767888 1
gene 1 29 32 -3.40153 0 86 -3.40153 1
gene 1 29 33 1.18105 0 87 1.18105 1
gene 1 30 31 -0.863935 0 88 -0.863935 1
gene 1 30 32 -4.17775 0 89 -4.17775 1
gene 1 30 33 0.890483 0 90 0.890483 1
genomeend 22

/* Organism #23 Fitness: 32044.9 Error: 0 */
genomestart 23
trait 1 0.945489 0.1776 0.0914772 1 0.288031 0.671291 0.314232 0.830931 
node 1 1 1 1
node 2 1 1 1
node 3 1 1 1
node 4 1 1 1
node 5 1 1 1
node 6 1 1 1
node 7 1 1 1
node 8 1 1 1
node 9 1 1 1
node 10 1 1 1
node 11 1 1 1
node 12 1 1 1
node 13 1 1 1
node 14 1 1 1
node 15 1 1 1
node 16 1 1 1
node 17 1 1 1
node 18 1 1 1
node 19 1 1 1
node 20 1 1 1
node 21 1 1 1
node 22 1 1 1
node 23 1 1 1
node 24 1 1 1
node 25 1 1 1
node 26 1 1 1
node 27 1 1 1
node 28 1 1 1
node 29 1 1 1
node 30 1 1 3
node 31 1 0 2
node 32 1 0 2
node 33 1 0 2
gene 1 1 31 -5 0 1 -5 1
gene 1 1 32 -2.18242 0 2 -2.18242 1
gene 1 1 33 -1.42184 0 3 -1.42184 1
gene 1 2 31 3.58823 0 4 3.58823 1
gene 1 2 32 1.35785 0 5 1.35785 1
gene 1 2 33 0.00375634 0 6 0.00375634 1
gene 1 3 31 -0.496239 0 7 -0.496239 1
gene 1 3 32 5 0 8 5 1
gene 1 3 33 0.421267 0 9 0.421267 1
gene 1 4 31 -3.60155 0 10 -3.60155 1
gene 1 4 32 -0.74971 0 11 -0.74971 1
gene 1 4 33 -0.270613 0 12 -0.270613 1
gene 1 5 31 1.9314 0 13 1.9314 1
gene 1 5 32 -2.61755 0 14 -2.61755 1
gene 1 5 33 -4.89938 0 15 -4.89938 1
gene 1 6 31 2.64842 0 16 2.64842 1
gene 1 6 32 -5 0 17 -5 1
gene 1 6 33 1.71146 0 18 1.71146 1
gene 1 7 31 -4.19911 0 19 -4.19911 1
gene 1 7 32 2.9971 0 20 2.9971 1
gene 1 7 33 1.54687 0 21 1.54687 1
gene 1 8 31 -5 0 22 -5 1
gene 1 8 32 -1.26628 0 23 -1.26628 1
gene 1 8 33 4.14766 0 24 4.14766 1
gene 1 9 31 1.68773 0 25 1.68773 1
gene 1 9 32 1.80048 0 26 1.80048 1
gene 1 9 33 -2.51371 0 27 -2.51371 1
gene 1 10 31 -5 0 28 -5 1
gene 1 10 32 4.26418 0 29 4.26418 1
gene 1 10 33 1.63653 0 30 1.63653 1
gene 1 11 31 2.72186 0 31 2.72186 1
gene 1 11 32 3.89153 0 32 3.89153 1
gene 1 11 33 -1.57576 0 33 -1.57576 1
gene 1 12 31 3.73575 0 34 3.73575 1
gene 1 12 32 0.726692 0 35 0.726692 1
gene 1 12 33 -3.38274 0 36 -3.38274 1
gene 1 13 31 -0.702578 0 37 -0.702578 1
gene 1 13 32 1.01494 0 38 1.01494 1
gene 1 13 33 -0.179631 0 39 -0.179631 1
gene 1 14 31 -1.15003 0 40 -1.15003 1
gene 1 14 32 1.03321 0 41 1.03321 1
gene 1 14 33 -2.68142 0 42 -2.68142 1
gene 1 15 31 1.8289 0 43 1.8289 1
gene 1 15 32 -1.09658 0 44 -1.09658 1
gene 1 15 33 3.53086 0 45 3.53086 1
gene 1 16 31 1.26364 0 46 1.26364 1
gene 1 16 32 -3.99457 0 47 -3.99457 1
gene 1 16 33 -2.94225 0 48 -2.94225 1
gene 1 17 31 -0.887726 0 49 -0.887726 1
gene 1 17 32 -4.93979 0 50 -4.93979 1
gene 1 17 33 -4.17951 0 51 -4.17951 1
gene 1 18 31 -1.862 0 52 -1.862 1
gene 1 18 32 2.49527 0 53 2.49527 1
gene 1 18 33 5 0 54 5 1
gene 1 19 31 -4.34189 0 55 -4.34189 1
gene 1 19 32 -5 0 56 -5 1
gene 1 19 33 0.94384 0 57 0.94384 1
gene 1 20 31 -3.48343 0 58 -3.48343 1
gene 1 20 32 3.11348 0 59 3.11348 1
gene 1 20 33 0.892168 0 60 0.892168 1
gene 1 21 31 -2.14599 0 61 -2.14599 1
gene 1 21 32 3.03473 0 62 3.03473 1
gene 1 21 33 1.37017 0 63 1.37017 1
gene 1 22 31 -2.25168 0 64 -2.25168 1
gene 1 22 32 -2.1058 0 65 -2.1058 1
gene 1 22 33 1.12252 0 66 1.12252 1
gene 1 23 31 -3.44957 0 67 -3.44957 1
gene 1 23 32 -1.40218 0 68 -1.40218 1
gene 1 23 33 2.61549 0 69 2.61549 1
gene 1 24 31 2.99807 0 70 2.99807 1
gene 1 24 32 1.33746 0 71 1.33746 1
gene 1 24 33 -2.65821 0 72 -2.65821 1
gene 1 25 31 1.23475 0 73 1.23475 1
gene 1 25 32 0.95458 0 74 0.95458 1
gene 1 25 33 -0.483889 0 75 -0.483889 1
gene 1 26 31 -0.31421 0 76 -0.31421 1
gene 1 26 32 -2.1986 0 77 -2.1986 1
gene 1 26 33 2.09774 0 78 2.09774 1
gene 1 27 31 2.09484 0 79 2.09484 1
gene 1 27 32 -0.0177454 0 80 -0.0177454 1
gene 1 27 33 -0.482661 0 81 -0.482661 1
gene 1 28 31 0.742896 0 82 0.742896 1
gene 1 28 32 -1.1631 0 83 -1.1631 1
gene 1 28 33 0.804623 0 84 0.804623 1
gene 1 29 31 -0.0384111 0 85 -0.0384111 1
gene 1 29 32 0.650143 0 86 0.650143 1
gene 1 29 33 -0.481269 0 87 -0.481269 1
gene 1 30 31 0.169263 0 88 0.169263 1
gene 1 30 32 -3.59934 0 89 -3.59934 1
gene 1 30 33 -2.10205 0 90 -2.10205 1
genomeend 23

/* Organism #24 Fitness: 10247 Error: 0 */
genomestart 24
trait 1 1 0.879175 0 0.41381 1 1 0.529828 1 
node 1 1 1 1
node 2 1 1 1
node 3 1 1 1
node 4 1 1 1
node 5 1 1 1
node 6 1 1 1
node 7 1 1 1
node 8 1 1 1
node 9 1 1 1
node 10 1 1 1
node 11 1 1 1
node 12 1 1 1
node 13 1 1 1
node 14 1 1 1
node 15 1 1 1
node 16 1 1 1
node 17 1 1 1
node 18 1 1 1
node 19 1 1 1
node 20 1 1 1
node 21 1 1 1
node 22 1 1 1
node 23 1 1 1
node 24 1 1 1
node 25 1 1 1
node 26 1 1 1
node 27 1 1 1
node 28 1 1 1
node 29 1 1 1
node 30 1 1 3
node 31 1 0 2
node 32 1 0 2
node 33 1 0 2
gene 1 1 31 -2.44923 0 1 -2.44923 1
gene 1 1 32 -3.14584 0 2 -3.14584 1
gene 1 1 33 -3.21798 0 3 -3.21798 1
gene 1 2 31 -2.55991 0 4 -2.55991 1
gene 1 2 32 4.66865 0 5 4.66865 1
gene 1 2 33 1.14743 0 6 1.14743 1
gene 1 3 31 -1.78145 0 7 -1.78145 1
gene 1 3 32 2.34628 0 8 2.34628 1
gene 1 3 33 -0.167713 0 9 -0.167713 1
gene 1 4 31 -2.98176 0 10 -2.98176 1
gene 1 4 32 2.12718 0 11 2.12718 1
gene 1 4 33 -0.185587 0 12 -0.185587 1
gene 1 5 31 2.00532 0 13 2.00532 1
gene 1 5 32 -4.74403 0 14 -4.74403 1
gene 1 5 33 -0.66369 0 15 -0.66369 1
gene 1 6 31 0.298529 0 16 0.298529 1
gene 1 6 32 -5 0 17 -5 1
gene 1 6 33 -2.90332 0 18 -2.90332 1
gene 1 7 31 -2.89991 0 19 -2.89991 1
gene 1 7 32 0.159033 0 20 0.159033 1
gene 1 7 33 -2.95762 0 21 -2.95762 1
gene 1 8 31 0.988201 0 22 0.988201 1
gene 1 8 32 -1.43308 0 23 -1.43308 1
gene 1 8 33 -0.712624 0 24 -0.712624 1
gene 1 9 31 -0.991546 0 25 -0.991546 1
gene 1 9 32 -0.152058 0 26 -0.152058 1
gene 1 9 33 1.68191 0 27 1.68191 1
gene 1 10 31 -4.02869 0 28 -4.02869 1
gene 1 10 32 3.72733 0 29 3.72733 1
gene 1 10 33 0.741732 0 30 0.741732 1
gene 1 11 31 0.566986 0 31 0.566986 1
gene 1 11 32 3.77034 0 32 3.77034 1
gene 1 11 33 -1.83318 0 33 -1.83318 1
gene 1 12 31 3.58753 0 34 3.58753 1
gene 1 12 32 -0.960722 0 35 -0.960722 1
gene 1 12 33 -1.16445 0 36 -1.16445 1
gene 1 13 31 -1.74092 0 37 -1.74092 1
gene 1 13 32 -1.47603 0 38 -1.47603 1
gene 1 13 33 -3.93838 0 39 -3.93838 1
gene 1 14 31 -1.43066 0 40 -1.43066 1
gene 1 14 32 2.4873 0 41 2.4873 1
gene 1 14 33 -3.74369 0 42 -3.74369 1
gene 1 15 31 2.95327 0 43 2.95327 1
gene 1 15 32 3.17842 0 44 3.17842 1
gene 1 15 33 -0.66719 0 45 -0.66719 1
gene 1 16 31 1.93313 0 46 1.93313 1
gene 1 16 32 -0.795469 0 47 -0.795469 1
gene 1 16 33 -4.47063 0 48 -4.47063 1
gene 1 17 31 -3.37766 0 49 -3.37766 1
gene 1 17 32 -0.7237 0 50 -0.7237 1
gene 1 17 33 0.322438 0 51 0.322438 1
gene 1 18 31 -1.14782 0 52 -1.14782 1
gene 1 18 32 1.37258 0 53 1.37258 1
gene 1 18 33 3.01516 0 54 3.01516 1
gene 1 19 31 -1.40478 0 55 -1.40478 1
gene 1 19 32 -1.0307 0 56 -1.0307 1
gene 1 19 33 0.67431 0 57 0.67431 1
gene 1 20 31 0.905557 0 58 0.905557 1
gene 1 20 32 4.40885 0 59 4.40885 1
gene 1 20 33 -0.612541 0 60 -0.612541 1
gene 1 21 31 1.71588 0 61 1.71588 1
gene 1 21 32 -1.28931 0 62 -1.28931 1
gene 1 21 33 0.697591 0 63 0.697591 1
gene 1 22 31 -1.63374 0 64 -1.63374 1
gene 1 22 32 -0.788677 0 65 -0.788677 1
gene 1 22 33 -4.28975 0 66 -4.28975 1
gene 1 23 31 -4.23852 0 67 -4.23852 1
gene 1 23 32 -1.06562 0 68 -1.06562 1
gene 1 23 33 0.765249 0 69 0.765249 1
gene 1 24 31 0.532334 0 70 0.532334 1
gene 1 24 32 0.430749 0 71 0.430749 1
gene 1 24 33 -0.655453 0 72 -0.655453 1
gene 1 25 31 -0.342587 0 73 -0.342587 1
gene 1 25 32 -0.808659 0 74 -0.808659 1
gene 1 25 33 -0.268396 0 75 -0.268396 1
gene 1 26 31 -1.57784 0 76 -1.57784 1
gene 1 26 32 -0.555358 0 77 -0.555358 1
gene 1 26 33 1.92792 0 78 1.92792 1
gene 1 27 31 0.91344 0 79 0.91344 1
gene 1 27 32 -1.56615 0 80 -1.56615 1
gene 1 27 33 -2.79733 0 81 -2.79733 1
gene 1 28 31 0.926619 0 82 0.926619 1
gene 1 28 32 -0.536417 0 83 -0.536417 1
gene 1 28 33 0.326012 0 84 0.326012 1
gene 1 29 31 1.69023 0 85 1.69023 1
gene 1 29 32 -1.45047 0 86 -1.45047 1
gene 1 29 33 0.505249 0 87 0.505249 1
gene 1 30 31 -2.56496 0 88 -2.56496 1
gene 1 30 32 -0.077396 0 89 -0.077396 1
gene 1 30 33 0.860402 0 90 0.860402 1
genomeend 24

/* Organism #25 Fitness: 32593.4 Error: 0 */
genomestart 25
trait 1 1 0.879175 0 0.41381 1 1 0.529828 1 
node 1 1 1 1
node 2 1 1 1
node 3 1 1 1
node 4 1 1 1
node 5 1 1 1
node 6 1 1 1
node 7 1 1 1
node 8 1 1 1
node 9 1 1 1
node 10 1 1 1
node 11 1 1 1
node 12 1 1 1
node 13 1 1 1
node 14 1 1 1
node 15 1 1 1
node 16 1 1 1
node 17 1 1 1
node 18 1 1 1
node 19 1 1 1
node 20 1 1 1
node 21 1 1 1
node 22 1 1 1
node 23 1 1 1
node 24 1 1 1
node 25 1 1 1
node 26 1 1 1
node 27 1 1 1
node 28 1 1 1
node 29 1 1 1
node 30 1 1 3
node 31 1 0 2
node 32 1 0 2
node 33 1 0 2
gene 1 1 31 -2.46921 0 1 -2.46921 1
gene 1 1 32 -4.67895 0 2 -4.67895 1
gene 1 1 33 0.0499381 0 3 0.0499381 1
gene 1 2 31 -1.2924 0 4 -1.2924 1
gene 1 2 32 3.43432 0 5 3.43432 1
gene 1 2 33 0.698881 0 6 0.698881 1
gene 1 3 31 0.796765 0 7 0.796765 1
gene 1 3 32 3.70103 0 8 3.70103 1
gene 1 3 33 -0.10015 0 9 -0.10015 1
gene 1 4 31 -3.32148 0 10 -3.32148 1
gene 1 4 32 2.7172 0 11 2.7172 1
gene 1 4 33 2.71778 0 12 2.71778 1
gene 1 5 31 3.44265 0 13 3.44265 1
gene 1 5 32 -0.982497 0 14 -0.982497 1
gene 1 5 33 -1.12835 0 15 -1.12835 1
gene 1 6 31 0.0597241 0 16 0.0597241 1
gene 1 6 32 -4.48733 0 17 -4.48733 1
gene 1 6 33 -1.42263 0 18 -1.42263 1
gene 1 7 31 0.214332 0 19 0.214332 1
gene 1 7 32 -1.65836 0 20 -1.65836 1
gene 1 7 33 -3.16301 0 21 -3.16301 1
gene 1 8 31 0.672175 0 22 0.672175 1
gene 1 8 32 -2.01221 0 23 -2.01221 1
gene 1 8 33 -0.408731 0 24 -0.408731 1
gene 1 9 31 -0.598854 0 25 -0.598854 1
gene 1 9 32 -1.25567 0 26 -1.25567 1
gene 1 9 33 0.336139 0 27 0.336139 1
gene 1 10 31 -4.70893 0 28 -4.70893 1
gene 1 10 32 -0.668222 0 29 -0.668222 1
gene 1 10 33 -0.0140915 0 30 -0.0140915 1
gene 1 11 31 0.0845436 0 31 0.0845436 1
gene 1 11 32 2.6552 0 32 2.6552 1
gene 1 11 33 -0.653393 0 33 -0.653393 1
gene 1 12 31 5 0 34 5 1
gene 1 12 32 -0.298816 0 35 -0.298816 1
gene 1 12 33 0.793785 0 36 0.793785 1
gene 1 13 31 -2.55622 0 37 -2.55622 1
gene 1 13 32 -2.3142 0 38 -2.3142 1
gene 1 13 33 0.843165 0 39 0.843165 1
gene 1 14 31 -2.26875 0 40 -2.26875 1
gene 1 14 32 -0.706775 0 41 -0.706775 1
gene 1 14 33 -4.30289 0 42 -4.30289 1
gene 1 15 31 4.33268 0 43 4.33268 1
