/* Organism #48 Fitness: 15720.500000 Time: 0 */
genomestart 48
trait 1 0.743492 0.293602 0.106094 0.000000 0.772036 0.000000 0.000000 1.000000 
node 1 1 1 1
node 2 1 1 1
node 3 1 1 1
node 4 1 1 1
node 5 1 1 1
node 6 1 1 1
node 7 1 1 1
node 8 1 1 1
node 9 1 1 1
node 10 1 1 1
node 11 1 1 1
node 12 1 1 1
node 13 1 1 1
node 14 1 1 1
node 15 1 1 1
node 16 1 1 1
node 17 1 1 1
node 18 1 1 1
node 19 1 1 1
node 20 1 1 1
node 21 1 1 1
node 22 1 1 1
node 23 1 1 1
node 24 1 1 1
node 25 1 1 1
node 26 1 1 1
node 27 1 1 1
node 28 1 1 1
node 29 1 1 1
node 30 1 1 3
node 31 1 0 2
node 32 1 0 2
node 33 1 0 2
gene 1 1 31 2.85145 0 1 2.85145 1
gene 1 1 32 -4.77027 0 2 -4.77027 1
gene 1 1 33 2.617 0 3 2.617 1
gene 1 2 31 0.704834 0 4 0.704834 1
gene 1 2 32 5 0 5 5 1
gene 1 2 33 0.805679 0 6 0.805679 1
gene 1 3 31 -0.259846 0 7 -0.259846 1
gene 1 3 32 3.29646 0 8 3.29646 1
gene 1 3 33 3.2502 0 9 3.2502 1
gene 1 4 31 -0.139165 0 10 -0.139165 1
gene 1 4 32 2.14458 0 11 2.14458 1
gene 1 4 33 0.497063 0 12 0.497063 1
gene 1 5 31 1.55009 0 13 1.55009 1
gene 1 5 32 2.19045 0 14 2.19045 1
gene 1 5 33 -1.21292 0 15 -1.21292 1
gene 1 6 31 -0.866485 0 16 -0.866485 1
gene 1 6 32 0.96685 0 17 0.96685 1
gene 1 6 33 -0.472213 0 18 -0.472213 1
gene 1 7 31 1.31353 0 19 1.31353 1
gene 1 7 32 -0.657947 0 20 -0.657947 1
gene 1 7 33 2.69929 0 21 2.69929 1
gene 1 8 31 0.600271 0 22 0.600271 1
gene 1 8 32 -5 0 23 -5 1
gene 1 8 33 -0.440231 0 24 -0.440231 1
gene 1 9 31 0.837599 0 25 0.837599 1
gene 1 9 32 -2.11137 0 26 -2.11137 1
gene 1 9 33 1.31123 0 27 1.31123 1
gene 1 10 31 1.49091 0 28 1.49091 1
gene 1 10 32 -1.85746 0 29 -1.85746 1
gene 1 10 33 0.0490834 0 30 0.0490834 1
gene 1 11 31 -0.652697 0 31 -0.652697 1
gene 1 11 32 1.41556 0 32 1.41556 1
gene 1 11 33 3.99093 0 33 3.99093 1
gene 1 12 31 3.00277 0 34 3.00277 1
gene 1 12 32 -2.0694 0 35 -2.0694 1
gene 1 12 33 0.818401 0 36 0.818401 1
gene 1 13 31 -1.96805 0 37 -1.96805 1
gene 1 13 32 1.59899 0 38 1.59899 1
gene 1 13 33 0.574356 0 39 0.574356 1
gene 1 14 31 2.05249 0 40 2.05249 1
gene 1 14 32 -1.44485 0 41 -1.44485 1
gene 1 14 33 0.926356 0 42 0.926356 1
gene 1 15 31 -0.106361 0 43 -0.106361 1
gene 1 15 32 2.56019 0 44 2.56019 1
gene 1 15 33 -1.21179 0 45 -1.21179 1
gene 1 16 31 -0.575076 0 46 -0.575076 1
gene 1 16 32 0.400418 0 47 0.400418 1
gene 1 16 33 0.803227 0 48 0.803227 1
gene 1 17 31 -0.266334 0 49 -0.266334 1
gene 1 17 32 -5 0 50 -5 1
gene 1 17 33 0.449513 0 51 0.449513 1
gene 1 18 31 -0.504339 0 52 -0.504339 1
gene 1 18 32 -3.9849 0 53 -3.9849 1
gene 1 18 33 0.0206414 0 54 0.0206414 1
gene 1 19 31 -1.56658 0 55 -1.56658 1
gene 1 19 32 -5 0 56 -5 1
gene 1 19 33 1.68189 0 57 1.68189 1
gene 1 20 31 -1.33609 0 58 -1.33609 1
gene 1 20 32 -0.382443 0 59 -0.382443 1
gene 1 20 33 -0.312189 0 60 -0.312189 1
gene 1 21 31 -2.57235 0 61 -2.57235 1
gene 1 21 32 -0.397893 0 62 -0.397893 1
gene 1 21 33 0.159301 0 63 0.159301 1
gene 1 22 31 -0.59691 0 64 -0.59691 1
gene 1 22 32 0.9238 0 65 0.9238 1
gene 1 22 33 -1.29538 0 66 -1.29538 1
gene 1 23 31 -2.16959 0 67 -2.16959 1
gene 1 23 32 -4.50667 0 68 -4.50667 1
gene 1 23 33 2.58102 0 69 2.58102 1
gene 1 24 31 -0.661654 0 70 -0.661654 1
gene 1 24 32 0.355341 0 71 0.355341 1
gene 1 24 33 -0.481967 0 72 -0.481967 1
gene 1 25 31 -1.08493 0 73 -1.08493 1
gene 1 25 32 -0.573984 0 74 -0.573984 1
gene 1 25 33 0.17733 0 75 0.17733 1
gene 1 26 31 -0.663033 0 76 -0.663033 1
gene 1 26 32 -0.470722 0 77 -0.470722 1
gene 1 26 33 0.0738012 0 78 0.0738012 1
gene 1 27 31 0.75954 0 79 0.75954 1
gene 1 27 32 1.3609 0 80 1.3609 1
gene 1 27 33 -2.18823 0 81 -2.18823 1
gene 1 28 31 0.290701 0 82 0.290701 1
gene 1 28 32 0.666794 0 83 0.666794 1
gene 1 28 33 -0.391607 0 84 -0.391607 1
gene 1 29 31 -1.28937 0 85 -1.28937 1
gene 1 29 32 0.659857 0 86 0.659857 1
gene 1 29 33 -0.00486063 0 87 -0.00486063 1
gene 1 30 31 -2.68272 0 88 -2.68272 1
gene 1 30 32 2.05691 0 89 2.05691 1
gene 1 30 33 -0.00534781 0 90 -0.00534781 1
genomeend 48


