
/* Species #1 : (Size 100) (AF 0) (Age 150)  */


/* Organism #0 Fitness: 14962.9 Error: 0 */
genomestart 0
trait 1 0.552788 0 0 0.869965 0 0.975716 0.974524 0 
node 1 1 1 1
node 2 1 1 1
node 3 1 1 1
node 4 1 1 1
node 5 1 1 1
node 6 1 1 1
node 7 1 1 1
node 8 1 1 1
node 9 1 1 1
node 10 1 1 1
node 11 1 1 1
node 12 1 1 1
node 13 1 1 1
node 14 1 1 1
node 15 1 1 1
node 16 1 1 1
node 17 1 1 1
node 18 1 1 1
node 19 1 1 1
node 20 1 1 1
node 21 1 1 1
node 22 1 1 1
node 23 1 1 1
node 24 1 1 1
node 25 1 1 1
node 26 1 1 1
node 27 1 1 1
node 28 1 1 1
node 29 1 1 1
node 30 1 1 3
node 31 1 0 2
node 32 1 0 2
node 33 1 0 2
gene 1 1 31 -3.90061 0 1 -3.90061 1
gene 1 1 32 -2.11845 0 2 -2.11845 1
gene 1 1 33 -1.43754 0 3 -1.43754 1
gene 1 2 31 -2.50801 0 4 -2.50801 1
gene 1 2 32 -0.991302 0 5 -0.991302 1
gene 1 2 33 -2.59126 0 6 -2.59126 1
gene 1 3 31 -1.37009 0 7 -1.37009 1
gene 1 3 32 -0.525382 0 8 -0.525382 1
gene 1 3 33 0.228337 0 9 0.228337 1
gene 1 4 31 1.69059 0 10 1.69059 1
gene 1 4 32 -2.86207 0 11 -2.86207 1
gene 1 4 33 0.300173 0 12 0.300173 1
gene 1 5 31 2.25369 0 13 2.25369 1
gene 1 5 32 -2.50388 0 14 -2.50388 1
gene 1 5 33 -0.0964048 0 15 -0.0964048 1
gene 1 6 31 1.77132 0 16 1.77132 1
gene 1 6 32 2.99061 0 17 2.99061 1
gene 1 6 33 -0.283762 0 18 -0.283762 1
gene 1 7 31 5 0 19 5 1
gene 1 7 32 -1.57931 0 20 -1.57931 1
gene 1 7 33 -0.316612 0 21 -0.316612 1
gene 1 8 31 -0.135514 0 22 -0.135514 1
gene 1 8 32 -5 0 23 -5 1
gene 1 8 33 -2.26959 0 24 -2.26959 1
gene 1 9 31 -3.17316 0 25 -3.17316 1
gene 1 9 32 2.5939 0 26 2.5939 1
gene 1 9 33 3.37964 0 27 3.37964 1
gene 1 10 31 1.0838 0 28 1.0838 1
gene 1 10 32 1.94317 0 29 1.94317 1
gene 1 10 33 0.918945 0 30 0.918945 1
gene 1 11 31 -4.08029 0 31 -4.08029 1
gene 1 11 32 -3.06282 0 32 -3.06282 1
gene 1 11 33 2.46398 0 33 2.46398 1
gene 1 12 31 -3.82191 0 34 -3.82191 1
gene 1 12 32 1.65427 0 35 1.65427 1
gene 1 12 33 1.33962 0 36 1.33962 1
gene 1 13 31 -1.18653 0 37 -1.18653 1
gene 1 13 32 1.1904 0 38 1.1904 1
gene 1 13 33 5 0 39 5 1
gene 1 14 31 0.238202 0 40 0.238202 1
gene 1 14 32 -4.2742 0 41 -4.2742 1
gene 1 14 33 -3.1269 0 42 -3.1269 1
gene 1 15 31 -1.20397 0 43 -1.20397 1
gene 1 15 32 0.418461 0 44 0.418461 1
gene 1 15 33 2.45176 0 45 2.45176 1
gene 1 16 31 0.752268 0 46 0.752268 1
gene 1 16 32 -1.46888 0 47 -1.46888 1
gene 1 16 33 0.0233279 0 48 0.0233279 1
gene 1 17 31 -4.3405 0 49 -4.3405 1
gene 1 17 32 -4.61286 0 50 -4.61286 1
gene 1 17 33 0.694217 0 51 0.694217 1
gene 1 18 31 -5 0 52 -5 1
gene 1 18 32 1.72157 0 53 1.72157 1
gene 1 18 33 -1.89499 0 54 -1.89499 1
gene 1 19 31 -1.84796 0 55 -1.84796 1
gene 1 19 32 -4.29939 0 56 -4.29939 1
gene 1 19 33 -0.182246 0 57 -0.182246 1
gene 1 20 31 -0.946214 0 58 -0.946214 1
gene 1 20 32 -0.226049 0 59 -0.226049 1
gene 1 20 33 -2.65768 0 60 -2.65768 1
gene 1 21 31 1.94325 0 61 1.94325 1
gene 1 21 32 -0.557109 0 62 -0.557109 1
gene 1 21 33 -4.35015 0 63 -4.35015 1
gene 1 22 31 -0.487337 0 64 -0.487337 1
gene 1 22 32 2.6721 0 65 2.6721 1
gene 1 22 33 4.98527 0 66 4.98527 1
gene 1 23 31 -1.14874 0 67 -1.14874 1
gene 1 23 32 4.01045 0 68 4.01045 1
gene 1 23 33 0.192914 0 69 0.192914 1
gene 1 24 31 2.17588 0 70 2.17588 1
gene 1 24 32 0.878284 0 71 0.878284 1
gene 1 24 33 2.89666 0 72 2.89666 1
gene 1 25 31 -1.06457 0 73 -1.06457 1
gene 1 25 32 0.844706 0 74 0.844706 1
gene 1 25 33 -1.3859 0 75 -1.3859 1
gene 1 26 31 0.328612 0 76 0.328612 1
gene 1 26 32 0.315134 0 77 0.315134 1
gene 1 26 33 1.57902 0 78 1.57902 1
gene 1 27 31 -0.659577 0 79 -0.659577 1
gene 1 27 32 -2.43502 0 80 -2.43502 1
gene 1 27 33 -0.351732 0 81 -0.351732 1
gene 1 28 31 0.962256 0 82 0.962256 1
gene 1 28 32 0.572815 0 83 0.572815 1
gene 1 28 33 -1.0268 0 84 -1.0268 1
gene 1 29 31 -4.36964 0 85 -4.36964 1
gene 1 29 32 0.602185 0 86 0.602185 1
gene 1 29 33 0.745804 0 87 0.745804 1
gene 1 30 31 1.67795 0 88 1.67795 1
gene 1 30 32 -0.312358 0 89 -0.312358 1
gene 1 30 33 -0.0614592 0 90 -0.0614592 1
genomeend 0

/* Organism #1 Fitness: 14766.6 Error: 0 */
genomestart 1
trait 1 0.552788 0 0 0.869965 0 0.975716 0.974524 0 
node 1 1 1 1
node 2 1 1 1
node 3 1 1 1
node 4 1 1 1
node 5 1 1 1
node 6 1 1 1
node 7 1 1 1
node 8 1 1 1
node 9 1 1 1
node 10 1 1 1
node 11 1 1 1
node 12 1 1 1
node 13 1 1 1
node 14 1 1 1
node 15 1 1 1
node 16 1 1 1
node 17 1 1 1
node 18 1 1 1
node 19 1 1 1
node 20 1 1 1
node 21 1 1 1
node 22 1 1 1
node 23 1 1 1
node 24 1 1 1
node 25 1 1 1
node 26 1 1 1
node 27 1 1 1
node 28 1 1 1
node 29 1 1 1
node 30 1 1 3
node 31 1 0 2
node 32 1 0 2
node 33 1 0 2
gene 1 1 31 -4.22193 0 1 -4.22193 1
gene 1 1 32 -1.06445 0 2 -1.06445 1
gene 1 1 33 -1.89201 0 3 -1.89201 1
gene 1 2 31 -1.99199 0 4 -1.99199 1
gene 1 2 32 -0.771256 0 5 -0.771256 1
gene 1 2 33 0.20961 0 6 0.20961 1
gene 1 3 31 -0.985804 0 7 -0.985804 1
gene 1 3 32 -1.9909 0 8 -1.9909 1
gene 1 3 33 1.79539 0 9 1.79539 1
gene 1 4 31 2.11692 0 10 2.11692 1
gene 1 4 32 -3.91545 0 11 -3.91545 1
gene 1 4 33 4.20321 0 12 4.20321 1
gene 1 5 31 2.90887 0 13 2.90887 1
gene 1 5 32 -3.21882 0 14 -3.21882 1
gene 1 5 33 -1.61512 0 15 -1.61512 1
gene 1 6 31 1.23764 0 16 1.23764 1
gene 1 6 32 2.31256 0 17 2.31256 1
gene 1 6 33 1.81797 0 18 1.81797 1
gene 1 7 31 5 0 19 5 1
gene 1 7 32 -2.48049 0 20 -2.48049 1
gene 1 7 33 0.0378223 0 21 0.0378223 1
gene 1 8 31 1.08301 0 22 1.08301 1
gene 1 8 32 -5 0 23 -5 1
gene 1 8 33 -3.86955 0 24 -3.86955 1
gene 1 9 31 -4.56988 0 25 -4.56988 1
gene 1 9 32 2.68927 0 26 2.68927 1
gene 1 9 33 1.79766 0 27 1.79766 1
gene 1 10 31 2.1118 0 28 2.1118 1
gene 1 10 32 -0.0336717 0 29 -0.0336717 1
gene 1 10 33 -0.501381 0 30 -0.501381 1
gene 1 11 31 -4.83097 0 31 -4.83097 1
gene 1 11 32 -2.08592 0 32 -2.08592 1
gene 1 11 33 4.65748 0 33 4.65748 1
gene 1 12 31 -5 0 34 -5 1
gene 1 12 32 -1.41413 0 35 -1.41413 1
gene 1 12 33 2.08569 0 36 2.08569 1
gene 1 13 31 -2.31777 0 37 -2.31777 1
gene 1 13 32 0.255099 0 38 0.255099 1
gene 1 13 33 3.70004 0 39 3.70004 1
gene 1 14 31 -0.49794 0 40 -0.49794 1
gene 1 14 32 1.93319 0 41 1.93319 1
gene 1 14 33 -3.94139 0 42 -3.94139 1
gene 1 15 31 -1.23493 0 43 -1.23493 1
gene 1 15 32 -0.446936 0 44 -0.446936 1
gene 1 15 33 4.19073 0 45 4.19073 1
gene 1 16 31 0.614267 0 46 0.614267 1
gene 1 16 32 -1.52298 0 47 -1.52298 1
gene 1 16 33 2.79311 0 48 2.79311 1
gene 1 17 31 -4.23844 0 49 -4.23844 1
gene 1 17 32 -3.67509 0 50 -3.67509 1
gene 1 17 33 -0.770212 0 51 -0.770212 1
gene 1 18 31 -3.21465 0 52 -3.21465 1
gene 1 18 32 2.08748 0 53 2.08748 1
gene 1 18 33 -2.95546 0 54 -2.95546 1
gene 1 19 31 -3.97185 0 55 -3.97185 1
gene 1 19 32 -4.94172 0 56 -4.94172 1
gene 1 19 33 -1.56542 0 57 -1.56542 1
gene 1 20 31 0.190208 0 58 0.190208 1
gene 1 20 32 -0.439617 0 59 -0.439617 1
gene 1 20 33 -2.95724 0 60 -2.95724 1
gene 1 21 31 1.83847 0 61 1.83847 1
gene 1 21 32 0.258934 0 62 0.258934 1
gene 1 21 33 -3.72199 0 63 -3.72199 1
gene 1 22 31 0.671021 0 64 0.671021 1
gene 1 22 32 4.14848 0 65 4.14848 1
gene 1 22 33 3.42404 0 66 3.42404 1
gene 1 23 31 -3.70092 0 67 -3.70092 1
gene 1 23 32 5 0 68 5 1
gene 1 23 33 1.05461 0 69 1.05461 1
gene 1 24 31 3.03601 0 70 3.03601 1
gene 1 24 32 1.48075 0 71 1.48075 1
gene 1 24 33 2.23356 0 72 2.23356 1
gene 1 25 31 -1.37887 0 73 -1.37887 1
gene 1 25 32 0.315578 0 74 0.315578 1
gene 1 25 33 1.27006 0 75 1.27006 1
gene 1 26 31 -0.100287 0 76 -0.100287 1
gene 1 26 32 0.21593 0 77 0.21593 1
gene 1 26 33 -0.483666 0 78 -0.483666 1
gene 1 27 31 -1.26761 0 79 -1.26761 1
gene 1 27 32 -0.292288 0 80 -0.292288 1
gene 1 27 33 -0.563626 0 81 -0.563626 1
gene 1 28 31 0.343799 0 82 0.343799 1
gene 1 28 32 -0.874057 0 83 -0.874057 1
gene 1 28 33 -0.418853 0 84 -0.418853 1
gene 1 29 31 0.439474 0 85 0.439474 1
gene 1 29 32 2.332 0 86 2.332 1
gene 1 29 33 0.38655 0 87 0.38655 1
gene 1 30 31 1.20942 0 88 1.20942 1
gene 1 30 32 -0.357422 0 89 -0.357422 1
gene 1 30 33 -0.897031 0 90 -0.897031 1
genomeend 1

/* Organism #2 Fitness: 15554.8 Error: 0 */
genomestart 2
trait 1 0.552788 0 0 0.869965 0 0.975716 0.974524 0 
node 1 1 1 1
node 2 1 1 1
node 3 1 1 1
node 4 1 1 1
node 5 1 1 1
node 6 1 1 1
node 7 1 1 1
node 8 1 1 1
node 9 1 1 1
node 10 1 1 1
node 11 1 1 1
node 12 1 1 1
node 13 1 1 1
node 14 1 1 1
node 15 1 1 1
node 16 1 1 1
node 17 1 1 1
node 18 1 1 1
node 19 1 1 1
node 20 1 1 1
node 21 1 1 1
node 22 1 1 1
node 23 1 1 1
node 24 1 1 1
node 25 1 1 1
node 26 1 1 1
node 27 1 1 1
node 28 1 1 1
node 29 1 1 1
node 30 1 1 3
node 31 1 0 2
node 32 1 0 2
node 33 1 0 2
gene 1 1 31 -3.57955 0 1 -3.57955 1
gene 1 1 32 -4.07302 0 2 -4.07302 1
gene 1 1 33 -2.52191 0 3 -2.52191 1
gene 1 2 31 -1.457 0 4 -1.457 1
gene 1 2 32 -1.87791 0 5 -1.87791 1
gene 1 2 33 -3.17639 0 6 -3.17639 1
gene 1 3 31 -0.075579 0 7 -0.075579 1
gene 1 3 32 0.101086 0 8 0.101086 1
gene 1 3 33 -0.610721 0 9 -0.610721 1
gene 1 4 31 3.89847 0 10 3.89847 1
gene 1 4 32 -4.38677 0 11 -4.38677 1
gene 1 4 33 -0.545998 0 12 -0.545998 1
gene 1 5 31 1.56677 0 13 1.56677 1
gene 1 5 32 1.72992 0 14 1.72992 1
gene 1 5 33 0.569071 0 15 0.569071 1
gene 1 6 31 1.77429 0 16 1.77429 1
gene 1 6 32 1.26337 0 17 1.26337 1
gene 1 6 33 1.22032 0 18 1.22032 1
gene 1 7 31 4.62654 0 19 4.62654 1
gene 1 7 32 -3.03171 0 20 -3.03171 1
gene 1 7 33 0.914839 0 21 0.914839 1
gene 1 8 31 0.554662 0 22 0.554662 1
gene 1 8 32 -4.6333 0 23 -4.6333 1
gene 1 8 33 0.0549749 0 24 0.0549749 1
gene 1 9 31 -2.57522 0 25 -2.57522 1
gene 1 9 32 2.72569 0 26 2.72569 1
gene 1 9 33 2.16671 0 27 2.16671 1
gene 1 10 31 0.237762 0 28 0.237762 1
gene 1 10 32 0.447445 0 29 0.447445 1
gene 1 10 33 0.748057 0 30 0.748057 1
gene 1 11 31 -5 0 31 -5 1
gene 1 11 32 -4.18549 0 32 -4.18549 1
gene 1 11 33 2.62479 0 33 2.62479 1
gene 1 12 31 -2.92157 0 34 -2.92157 1
gene 1 12 32 1.2226 0 35 1.2226 1
gene 1 12 33 1.52348 0 36 1.52348 1
gene 1 13 31 -0.426313 0 37 -0.426313 1
gene 1 13 32 0.629079 0 38 0.629079 1
gene 1 13 33 5 0 39 5 1
gene 1 14 31 -1.34141 0 40 -1.34141 1
gene 1 14 32 -2.38922 0 41 -2.38922 1
gene 1 14 33 -3.9364 0 42 -3.9364 1
gene 1 15 31 -3.24388 0 43 -3.24388 1
gene 1 15 32 1.79682 0 44 1.79682 1
gene 1 15 33 3.59371 0 45 3.59371 1
gene 1 16 31 0.954217 0 46 0.954217 1
gene 1 16 32 -3.56195 0 47 -3.56195 1
gene 1 16 33 1.80781 0 48 1.80781 1
gene 1 17 31 -5 0 49 -5 1
gene 1 17 32 -4.05322 0 50 -4.05322 1
gene 1 17 33 -0.451195 0 51 -0.451195 1
gene 1 18 31 -5 0 52 -5 1
gene 1 18 32 1.50205 0 53 1.50205 1
gene 1 18 33 0.92624 0 54 0.92624 1
gene 1 19 31 -3.30727 0 55 -3.30727 1
gene 1 19 32 -4.28945 0 56 -4.28945 1
gene 1 19 33 -0.71356 0 57 -0.71356 1
gene 1 20 31 1.61265 0 58 1.61265 1
gene 1 20 32 0.959856 0 59 0.959856 1
gene 1 20 33 -0.0575352 0 60 -0.0575352 1
gene 1 21 31 1.39397 0 61 1.39397 1
gene 1 21 32 -0.826779 0 62 -0.826779 1
gene 1 21 33 -4.30055 0 63 -4.30055 1
gene 1 22 31 -1.01844 0 64 -1.01844 1
gene 1 22 32 4.88316 0 65 4.88316 1
gene 1 22 33 5 0 66 5 1
gene 1 23 31 -2.81352 0 67 -2.81352 1
gene 1 23 32 4.5169 0 68 4.5169 1
gene 1 23 33 2.22789 0 69 2.22789 1
gene 1 24 31 -0.566222 0 70 -0.566222 1
gene 1 24 32 1.71347 0 71 1.71347 1
gene 1 24 33 3.98934 0 72 3.98934 1
gene 1 25 31 -0.737296 0 73 -0.737296 1
gene 1 25 32 -0.709242 0 74 -0.709242 1
gene 1 25 33 -0.875448 0 75 -0.875448 1
gene 1 26 31 -0.850166 0 76 -0.850166 1
gene 1 26 32 -0.887385 0 77 -0.887385 1
gene 1 26 33 0.202498 0 78 0.202498 1
gene 1 27 31 -0.109807 0 79 -0.109807 1
gene 1 27 32 0.518375 0 80 0.518375 1
gene 1 27 33 0.398469 0 81 0.398469 1
gene 1 28 31 3.49536 0 82 3.49536 1
gene 1 28 32 -0.403642 0 83 -0.403642 1
gene 1 28 33 -1.00449 0 84 -1.00449 1
gene 1 29 31 -0.617466 0 85 -0.617466 1
gene 1 29 32 0.624682 0 86 0.624682 1
gene 1 29 33 -0.237994 0 87 -0.237994 1
gene 1 30 31 1.23475 0 88 1.23475 1
gene 1 30 32 -0.472538 0 89 -0.472538 1
gene 1 30 33 -0.467851 0 90 -0.467851 1
genomeend 2

/* Organism #3 Fitness: 14675.8 Error: 0 */
genomestart 3
trait 1 0.0579966 0 0 0.565155 0.781177 1 0.974524 0.0650409 
node 1 1 1 1
node 2 1 1 1
node 3 1 1 1
node 4 1 1 1
node 5 1 1 1
node 6 1 1 1
node 7 1 1 1
node 8 1 1 1
node 9 1 1 1
node 10 1 1 1
node 11 1 1 1
node 12 1 1 1
node 13 1 1 1
node 14 1 1 1
node 15 1 1 1
node 16 1 1 1
node 17 1 1 1
node 18 1 1 1
node 19 1 1 1
node 20 1 1 1
node 21 1 1 1
node 22 1 1 1
node 23 1 1 1
node 24 1 1 1
node 25 1 1 1
node 26 1 1 1
node 27 1 1 1
node 28 1 1 1
node 29 1 1 1
node 30 1 1 3
node 31 1 0 2
node 32 1 0 2
node 33 1 0 2
gene 1 1 31 -5 0 1 -5 1
gene 1 1 32 -1.29756 0 2 -1.29756 1
gene 1 1 33 -4.50413 0 3 -4.50413 1
gene 1 2 31 -3.85323 0 4 -3.85323 1
gene 1 2 32 0.504377 0 5 0.504377 1
gene 1 2 33 0.389746 0 6 0.389746 1
gene 1 3 31 0.104565 0 7 0.104565 1
gene 1 3 32 0.706218 0 8 0.706218 1
gene 1 3 33 0.106952 0 9 0.106952 1
gene 1 4 31 2.29914 0 10 2.29914 1
gene 1 4 32 -4.24982 0 11 -4.24982 1
gene 1 4 33 0.351113 0 12 0.351113 1
gene 1 5 31 2.15417 0 13 2.15417 1
gene 1 5 32 0.866262 0 14 0.866262 1
gene 1 5 33 1.61293 0 15 1.61293 1
gene 1 6 31 0.762874 0 16 0.762874 1
gene 1 6 32 1.71519 0 17 1.71519 1
gene 1 6 33 1.12842 0 18 1.12842 1
gene 1 7 31 5 0 19 5 1
gene 1 7 32 -2.7145 0 20 -2.7145 1
gene 1 7 33 1.21245 0 21 1.21245 1
gene 1 8 31 -0.331959 0 22 -0.331959 1
gene 1 8 32 -4.12459 0 23 -4.12459 1
gene 1 8 33 -1.31013 0 24 -1.31013 1
gene 1 9 31 -2.72919 0 25 -2.72919 1
gene 1 9 32 0.382441 0 26 0.382441 1
gene 1 9 33 3.6847 0 27 3.6847 1
gene 1 10 31 -1.28402 0 28 -1.28402 1
gene 1 10 32 1.13637 0 29 1.13637 1
gene 1 10 33 2.22307 0 30 2.22307 1
gene 1 11 31 -3.49187 0 31 -3.49187 1
gene 1 11 32 -2.02631 0 32 -2.02631 1
gene 1 11 33 1.64794 0 33 1.64794 1
gene 1 12 31 -4.0393 0 34 -4.0393 1
gene 1 12 32 1.26619 0 35 1.26619 1
gene 1 12 33 0.243552 0 36 0.243552 1
gene 1 13 31 -0.888829 0 37 -0.888829 1
gene 1 13 32 1.7828 0 38 1.7828 1
gene 1 13 33 4.08538 0 39 4.08538 1
gene 1 14 31 -1.92652 0 40 -1.92652 1
gene 1 14 32 -3.30279 0 41 -3.30279 1
gene 1 14 33 -1.95852 0 42 -1.95852 1
gene 1 15 31 -0.0907928 0 43 -0.0907928 1
gene 1 15 32 1.71227 0 44 1.71227 1
gene 1 15 33 2.69279 0 45 2.69279 1
gene 1 16 31 -0.196094 0 46 -0.196094 1
gene 1 16 32 -4.92581 0 47 -4.92581 1
gene 1 16 33 0.21456 0 48 0.21456 1
gene 1 17 31 -3.54983 0 49 -3.54983 1
gene 1 17 32 -2.28129 0 50 -2.28129 1
gene 1 17 33 -1.24025 0 51 -1.24025 1
gene 1 18 31 -4.0862 0 52 -4.0862 1
gene 1 18 32 0.767335 0 53 0.767335 1
gene 1 18 33 -1.8909 0 54 -1.8909 1
gene 1 19 31 -2.45506 0 55 -2.45506 1
gene 1 19 32 -4.34072 0 56 -4.34072 1
gene 1 19 33 0.210906 0 57 0.210906 1
gene 1 20 31 0.120126 0 58 0.120126 1
gene 1 20 32 0.567799 0 59 0.567799 1
gene 1 20 33 -0.57002 0 60 -0.57002 1
gene 1 21 31 1.60337 0 61 1.60337 1
gene 1 21 32 1.00139 0 62 1.00139 1
gene 1 21 33 -4.75576 0 63 -4.75576 1
gene 1 22 31 0.973017 0 64 0.973017 1
gene 1 22 32 3.00124 0 65 3.00124 1
gene 1 22 33 4.7659 0 66 4.7659 1
gene 1 23 31 -0.803034 0 67 -0.803034 1
gene 1 23 32 5 0 68 5 1
gene 1 23 33 0.113896 0 69 0.113896 1
gene 1 24 31 0.0667106 0 70 0.0667106 1
gene 1 24 32 -0.626165 0 71 -0.626165 1
gene 1 24 33 4.54655 0 72 4.54655 1
gene 1 25 31 0.437941 0 73 0.437941 1
gene 1 25 32 -0.131601 0 74 -0.131601 1
gene 1 25 33 1.02093 0 75 1.02093 1
gene 1 26 31 -0.895814 0 76 -0.895814 1
gene 1 26 32 0.363956 0 77 0.363956 1
gene 1 26 33 2.06829 0 78 2.06829 1
gene 1 27 31 -0.207903 0 79 -0.207903 1
gene 1 27 32 -3.35265 0 80 -3.35265 1
gene 1 27 33 0.315584 0 81 0.315584 1
gene 1 28 31 -1.86929 0 82 -1.86929 1
gene 1 28 32 0.355496 0 83 0.355496 1
gene 1 28 33 0.17468 0 84 0.17468 1
gene 1 29 31 -1.16915 0 85 -1.16915 1
gene 1 29 32 -0.41766 0 86 -0.41766 1
gene 1 29 33 -0.939962 0 87 -0.939962 1
gene 1 30 31 0.941947 0 88 0.941947 1
gene 1 30 32 -1.16002 0 89 -1.16002 1
gene 1 30 33 -1.20655 0 90 -1.20655 1
genomeend 3

/* Organism #4 Fitness: 14397.9 Error: 0 */
genomestart 4
trait 1 0.552788 0 0 0.869965 0 0.975716 0.974524 0 
node 1 1 1 1
node 2 1 1 1
node 3 1 1 1
node 4 1 1 1
node 5 1 1 1
node 6 1 1 1
node 7 1 1 1
node 8 1 1 1
node 9 1 1 1
node 10 1 1 1
node 11 1 1 1
node 12 1 1 1
node 13 1 1 1
node 14 1 1 1
node 15 1 1 1
node 16 1 1 1
node 17 1 1 1
node 18 1 1 1
node 19 1 1 1
node 20 1 1 1
node 21 1 1 1
node 22 1 1 1
node 23 1 1 1
node 24 1 1 1
node 25 1 1 1
node 26 1 1 1
node 27 1 1 1
node 28 1 1 1
node 29 1 1 1
node 30 1 1 3
node 31 1 0 2
node 32 1 0 2
node 33 1 0 2
gene 1 1 31 -5 0 1 -5 1
gene 1 1 32 -3.5242 0 2 -3.5242 1
gene 1 1 33 -2.98077 0 3 -2.98077 1
gene 1 2 31 -1.58363 0 4 -1.58363 1
gene 1 2 32 -2.2081 0 5 -2.2081 1
gene 1 2 33 -1.98934 0 6 -1.98934 1
gene 1 3 31 -1.25563 0 7 -1.25563 1
gene 1 3 32 -0.325942 0 8 -0.325942 1
gene 1 3 33 -1.25162 0 9 -1.25162 1
gene 1 4 31 3.13173 0 10 3.13173 1
gene 1 4 32 -5 0 11 -5 1
gene 1 4 33 -0.249319 0 12 -0.249319 1
gene 1 5 31 0.983358 0 13 0.983358 1
gene 1 5 32 2.11471 0 14 2.11471 1
gene 1 5 33 1.22144 0 15 1.22144 1
gene 1 6 31 0.843745 0 16 0.843745 1
gene 1 6 32 0.124187 0 17 0.124187 1
gene 1 6 33 2.35719 0 18 2.35719 1
gene 1 7 31 5 0 19 5 1
gene 1 7 32 -1.65438 0 20 -1.65438 1
gene 1 7 33 1.08994 0 21 1.08994 1
gene 1 8 31 -0.0330989 0 22 -0.0330989 1
gene 1 8 32 -4.20851 0 23 -4.20851 1
gene 1 8 33 -0.569576 0 24 -0.569576 1
gene 1 9 31 -2.57172 0 25 -2.57172 1
gene 1 9 32 2.94249 0 26 2.94249 1
gene 1 9 33 4.1626 0 27 4.1626 1
gene 1 10 31 -1.11437 0 28 -1.11437 1
gene 1 10 32 1.92379 0 29 1.92379 1
gene 1 10 33 2.29074 0 30 2.29074 1
gene 1 11 31 -5 0 31 -5 1
gene 1 11 32 -3.20009 0 32 -3.20009 1
gene 1 11 33 2.34135 0 33 2.34135 1
gene 1 12 31 -4.85708 0 34 -4.85708 1
gene 1 12 32 -1.11411 0 35 -1.11411 1
gene 1 12 33 1.33561 0 36 1.33561 1
gene 1 13 31 -2.54299 0 37 -2.54299 1
gene 1 13 32 2.03896 0 38 2.03896 1
gene 1 13 33 5 0 39 5 1
gene 1 14 31 -3.70854 0 40 -3.70854 1
gene 1 14 32 -2.7126 0 41 -2.7126 1
gene 1 14 33 -5 0 42 -5 1
gene 1 15 31 -3.82106 0 43 -3.82106 1
gene 1 15 32 1.00704 0 44 1.00704 1
gene 1 15 33 2.90493 0 45 2.90493 1
gene 1 16 31 -1.18477 0 46 -1.18477 1
gene 1 16 32 -3.71157 0 47 -3.71157 1
gene 1 16 33 3.26247 0 48 3.26247 1
gene 1 17 31 -5 0 49 -5 1
gene 1 17 32 -4.46999 0 50 -4.46999 1
gene 1 17 33 0.78182 0 51 0.78182 1
gene 1 18 31 -3.99271 0 52 -3.99271 1
gene 1 18 32 1.24918 0 53 1.24918 1
gene 1 18 33 -1.91338 0 54 -1.91338 1
gene 1 19 31 -3.30725 0 55 -3.30725 1
gene 1 19 32 -3.52862 0 56 -3.52862 1
gene 1 19 33 -1.02089 0 57 -1.02089 1
gene 1 20 31 0.276742 0 58 0.276742 1
gene 1 20 32 -0.0204224 0 59 -0.0204224 1
gene 1 20 33 -2.22083 0 60 -2.22083 1
gene 1 21 31 1.3967 0 61 1.3967 1
gene 1 21 32 -1.08815 0 62 -1.08815 1
gene 1 21 33 -5 0 63 -5 1
gene 1 22 31 -2.42436 0 64 -2.42436 1
gene 1 22 32 3.85056 0 65 3.85056 1
gene 1 22 33 5 0 66 5 1
gene 1 23 31 -1.95946 0 67 -1.95946 1
gene 1 23 32 4.7955 0 68 4.7955 1
gene 1 23 33 1.02553 0 69 1.02553 1
gene 1 24 31 1.78357 0 70 1.78357 1
gene 1 24 32 0.157615 0 71 0.157615 1
gene 1 24 33 2.32418 0 72 2.32418 1
gene 1 25 31 -1.08321 0 73 -1.08321 1
gene 1 25 32 0.474731 0 74 0.474731 1
gene 1 25 33 -1.22716 0 75 -1.22716 1
gene 1 26 31 -0.502815 0 76 -0.502815 1
gene 1 26 32 -0.580318 0 77 -0.580318 1
gene 1 26 33 -0.442121 0 78 -0.442121 1
gene 1 27 31 -0.139 0 79 -0.139 1
gene 1 27 32 -0.283473 0 80 -0.283473 1
gene 1 27 33 -0.400814 0 81 -0.400814 1
gene 1 28 31 2.44833 0 82 2.44833 1
gene 1 28 32 0.132391 0 83 0.132391 1
gene 1 28 33 -0.536897 0 84 -0.536897 1
gene 1 29 31 0.470274 0 85 0.470274 1
gene 1 29 32 -0.46521 0 86 -0.46521 1
gene 1 29 33 -2.60123 0 87 -2.60123 1
gene 1 30 31 2.04154 0 88 2.04154 1
gene 1 30 32 -1.02025 0 89 -1.02025 1
gene 1 30 33 -0.438599 0 90 -0.438599 1
genomeend 4

/* Organism #5 Fitness: 14412.2 Error: 0 */
genomestart 5
trait 1 0.552788 0 0 0.869965 0 0.975716 0.974524 0 
node 1 1 1 1
node 2 1 1 1
node 3 1 1 1
node 4 1 1 1
node 5 1 1 1
node 6 1 1 1
node 7 1 1 1
node 8 1 1 1
node 9 1 1 1
node 10 1 1 1
node 11 1 1 1
node 12 1 1 1
node 13 1 1 1
node 14 1 1 1
node 15 1 1 1
node 16 1 1 1
node 17 1 1 1
node 18 1 1 1
node 19 1 1 1
node 20 1 1 1
node 21 1 1 1
node 22 1 1 1
node 23 1 1 1
node 24 1 1 1
node 25 1 1 1
node 26 1 1 1
node 27 1 1 1
node 28 1 1 1
node 29 1 1 1
node 30 1 1 3
node 31 1 0 2
node 32 1 0 2
node 33 1 0 2
gene 1 1 31 -4.47031 0 1 -4.47031 1
gene 1 1 32 -2.89513 0 2 -2.89513 1
gene 1 1 33 0.0672242 0 3 0.0672242 1
gene 1 2 31 -1.86992 0 4 -1.86992 1
gene 1 2 32 -1.91039 0 5 -1.91039 1
gene 1 2 33 -1.78825 0 6 -1.78825 1
gene 1 3 31 0.920445 0 7 0.920445 1
gene 1 3 32 1.75144 0 8 1.75144 1
gene 1 3 33 -1.68224 0 9 -1.68224 1
gene 1 4 31 4.08389 0 10 4.08389 1
gene 1 4 32 -4.53612 0 11 -4.53612 1
gene 1 4 33 -2.33927 0 12 -2.33927 1
gene 1 5 31 1.1178 0 13 1.1178 1
gene 1 5 32 -0.387977 0 14 -0.387977 1
gene 1 5 33 0.554542 0 15 0.554542 1
gene 1 6 31 2.33191 0 16 2.33191 1
gene 1 6 32 1.18574 0 17 1.18574 1
gene 1 6 33 1.23671 0 18 1.23671 1
gene 1 7 31 4.74683 0 19 4.74683 1
gene 1 7 32 -1.68232 0 20 -1.68232 1
gene 1 7 33 1.48488 0 21 1.48488 1
gene 1 8 31 1.19172 0 22 1.19172 1
gene 1 8 32 -5 0 23 -5 1
gene 1 8 33 0.500405 0 24 0.500405 1
gene 1 9 31 -3.61826 0 25 -3.61826 1
gene 1 9 32 2.80501 0 26 2.80501 1
gene 1 9 33 2.46043 0 27 2.46043 1
gene 1 10 31 -0.588138 0 28 -0.588138 1
gene 1 10 32 -0.0635767 0 29 -0.0635767 1
gene 1 10 33 0.276975 0 30 0.276975 1
gene 1 11 31 1.60585 0 31 1.60585 1
gene 1 11 32 -3.22958 0 32 -3.22958 1
gene 1 11 33 3.12765 0 33 3.12765 1
gene 1 12 31 -3.41354 0 34 -3.41354 1
gene 1 12 32 -0.345336 0 35 -0.345336 1
gene 1 12 33 -1.65479 0 36 -1.65479 1
gene 1 13 31 -1.38407 0 37 -1.38407 1
gene 1 13 32 0.99979 0 38 0.99979 1
gene 1 13 33 3.40697 0 39 3.40697 1
gene 1 14 31 -2.59451 0 40 -2.59451 1
gene 1 14 32 -3.55321 0 41 -3.55321 1
gene 1 14 33 -4.89761 0 42 -4.89761 1
gene 1 15 31 -1.38753 0 43 -1.38753 1
gene 1 15 32 1.59147 0 44 1.59147 1
gene 1 15 33 3.33897 0 45 3.33897 1
gene 1 16 31 -0.406659 0 46 -0.406659 1
gene 1 16 32 -0.471893 0 47 -0.471893 1
gene 1 16 33 2.55733 0 48 2.55733 1
gene 1 17 31 -5 0 49 -5 1
gene 1 17 32 -4.86111 0 50 -4.86111 1
gene 1 17 33 -1.31721 0 51 -1.31721 1
gene 1 18 31 -5 0 52 -5 1
gene 1 18 32 1.97624 0 53 1.97624 1
gene 1 18 33 -0.391518 0 54 -0.391518 1
gene 1 19 31 -2.05905 0 55 -2.05905 1
gene 1 19 32 -3.87476 0 56 -3.87476 1
gene 1 19 33 -0.867512 0 57 -0.867512 1
gene 1 20 31 1.18065 0 58 1.18065 1
gene 1 20 32 0.346081 0 59 0.346081 1
gene 1 20 33 -0.992295 0 60 -0.992295 1
gene 1 21 31 1.3378 0 61 1.3378 1
gene 1 21 32 0.503216 0 62 0.503216 1
gene 1 21 33 -4.89546 0 63 -4.89546 1
gene 1 22 31 -1.74576 0 64 -1.74576 1
gene 1 22 32 4.47531 0 65 4.47531 1
gene 1 22 33 5 0 66 5 1
gene 1 23 31 -3.38269 0 67 -3.38269 1
gene 1 23 32 5 0 68 5 1
gene 1 23 33 1.40243 0 69 1.40243 1
gene 1 24 31 1.61187 0 70 1.61187 1
gene 1 24 32 1.43264 0 71 1.43264 1
gene 1 24 33 3.46032 0 72 3.46032 1
gene 1 25 31 -0.245676 0 73 -0.245676 1
gene 1 25 32 -1.61935 0 74 -1.61935 1
gene 1 25 33 -0.139079 0 75 -0.139079 1
gene 1 26 31 -1.82031 0 76 -1.82031 1
gene 1 26 32 0.635726 0 77 0.635726 1
gene 1 26 33 0.148469 0 78 0.148469 1
gene 1 27 31 -0.267272 0 79 -0.267272 1
gene 1 27 32 0.723013 0 80 0.723013 1
gene 1 27 33 1.35785 0 81 1.35785 1
gene 1 28 31 3.90076 0 82 3.90076 1
gene 1 28 32 0.770035 0 83 0.770035 1
gene 1 28 33 -0.600704 0 84 -0.600704 1
gene 1 29 31 -0.311604 0 85 -0.311604 1
gene 1 29 32 2.017 0 86 2.017 1
gene 1 29 33 -0.126045 0 87 -0.126045 1
gene 1 30 31 0.375647 0 88 0.375647 1
gene 1 30 32 0.0317915 0 89 0.0317915 1
gene 1 30 33 0.859848 0 90 0.859848 1
genomeend 5

/* Organism #6 Fitness: 14294.7 Error: 0 */
genomestart 6
trait 1 0.552788 0 0 0.869965 0 0.975716 0.974524 0 
node 1 1 1 1
node 2 1 1 1
node 3 1 1 1
node 4 1 1 1
node 5 1 1 1
node 6 1 1 1
node 7 1 1 1
node 8 1 1 1
node 9 1 1 1
node 10 1 1 1
node 11 1 1 1
node 12 1 1 1
node 13 1 1 1
node 14 1 1 1
node 15 1 1 1
node 16 1 1 1
node 17 1 1 1
node 18 1 1 1
node 19 1 1 1
node 20 1 1 1
node 21 1 1 1
node 22 1 1 1
node 23 1 1 1
node 24 1 1 1
node 25 1 1 1
node 26 1 1 1
node 27 1 1 1
node 28 1 1 1
node 29 1 1 1
node 30 1 1 3
node 31 1 0 2
node 32 1 0 2
node 33 1 0 2
gene 1 1 31 -5 0 1 -5 1
gene 1 1 32 -2.76053 0 2 -2.76053 1
gene 1 1 33 -2.16974 0 3 -2.16974 1
gene 1 2 31 -2.06406 0 4 -2.06406 1
gene 1 2 32 -1.67126 0 5 -1.67126 1
gene 1 2 33 -2.62821 0 6 -2.62821 1
gene 1 3 31 -0.503818 0 7 -0.503818 1
gene 1 3 32 -0.936137 0 8 -0.936137 1
gene 1 3 33 -0.628151 0 9 -0.628151 1
gene 1 4 31 3.14089 0 10 3.14089 1
gene 1 4 32 -4.67145 0 11 -4.67145 1
gene 1 4 33 -1.16239 0 12 -1.16239 1
gene 1 5 31 0.558305 0 13 0.558305 1
gene 1 5 32 1.59722 0 14 1.59722 1
gene 1 5 33 0.724929 0 15 0.724929 1
gene 1 6 31 1.67981 0 16 1.67981 1
gene 1 6 32 0.491826 0 17 0.491826 1
gene 1 6 33 1.9874 0 18 1.9874 1
gene 1 7 31 5 0 19 5 1
gene 1 7 32 -2.59361 0 20 -2.59361 1
gene 1 7 33 1.23695 0 21 1.23695 1
gene 1 8 31 0.779821 0 22 0.779821 1
gene 1 8 32 -4.16311 0 23 -4.16311 1
gene 1 8 33 -1.03607 0 24 -1.03607 1
gene 1 9 31 -3.1119 0 25 -3.1119 1
gene 1 9 32 2.43231 0 26 2.43231 1
gene 1 9 33 3.38136 0 27 3.38136 1
gene 1 10 31 -1.32007 0 28 -1.32007 1
gene 1 10 32 1.40513 0 29 1.40513 1
gene 1 10 33 1.4962 0 30 1.4962 1
gene 1 11 31 -5 0 31 -5 1
gene 1 11 32 -3.76245 0 32 -3.76245 1
gene 1 11 33 2.59142 0 33 2.59142 1
gene 1 12 31 -4.58544 0 34 -4.58544 1
gene 1 12 32 -1.22795 0 35 -1.22795 1
gene 1 12 33 1.18498 0 36 1.18498 1
gene 1 13 31 -2.17193 0 37 -2.17193 1
gene 1 13 32 2.67939 0 38 2.67939 1
gene 1 13 33 4.64593 0 39 4.64593 1
gene 1 14 31 -2.91919 0 40 -2.91919 1
gene 1 14 32 -3.04047 0 41 -3.04047 1
gene 1 14 33 -4.80218 0 42 -4.80218 1
gene 1 15 31 -2.94347 0 43 -2.94347 1
gene 1 15 32 0.723165 0 44 0.723165 1
gene 1 15 33 2.51825 0 45 2.51825 1
gene 1 16 31 -0.844521 0 46 -0.844521 1
gene 1 16 32 -3.15856 0 47 -3.15856 1
gene 1 16 33 2.96731 0 48 2.96731 1
gene 1 17 31 -5 0 49 -5 1
gene 1 17 32 -5 0 50 -5 1
gene 1 17 33 0.481106 0 51 0.481106 1
gene 1 18 31 -4.05306 0 52 -4.05306 1
gene 1 18 32 2.08089 0 53 2.08089 1
gene 1 18 33 -1.02726 0 54 -1.02726 1
gene 1 19 31 -2.98236 0 55 -2.98236 1
gene 1 19 32 -3.35212 0 56 -3.35212 1
gene 1 19 33 -0.676169 0 57 -0.676169 1
gene 1 20 31 0.617322 0 58 0.617322 1
gene 1 20 32 -0.571864 0 59 -0.571864 1
gene 1 20 33 -1.36931 0 60 -1.36931 1
gene 1 21 31 1.92217 0 61 1.92217 1
gene 1 21 32 -1.11497 0 62 -1.11497 1
gene 1 21 33 -4.74033 0 63 -4.74033 1
gene 1 22 31 -1.62888 0 64 -1.62888 1
gene 1 22 32 3.17006 0 65 3.17006 1
gene 1 22 33 5 0 66 5 1
gene 1 23 31 -1.94399 0 67 -1.94399 1
gene 1 23 32 4.44183 0 68 4.44183 1
gene 1 23 33 0.259604 0 69 0.259604 1
gene 1 24 31 1.31173 0 70 1.31173 1
gene 1 24 32 0.931277 0 71 0.931277 1
gene 1 24 33 1.99305 0 72 1.99305 1
gene 1 25 31 -1.68317 0 73 -1.68317 1
gene 1 25 32 0.474731 0 74 0.474731 1
gene 1 25 33 -1.22716 0 75 -1.22716 1
gene 1 26 31 -0.850166 0 76 -0.850166 1
gene 1 26 32 0.16226 0 77 0.16226 1
gene 1 26 33 -0.788368 0 78 -0.788368 1
gene 1 27 31 -0.612838 0 79 -0.612838 1
gene 1 27 32 1.39747 0 80 1.39747 1
gene 1 27 33 -0.400814 0 81 -0.400814 1
gene 1 28 31 3.17919 0 82 3.17919 1
gene 1 28 32 -0.610089 0 83 -0.610089 1
gene 1 28 33 -0.536897 0 84 -0.536897 1
gene 1 29 31 -0.799792 0 85 -0.799792 1
gene 1 29 32 -0.411591 0 86 -0.411591 1
gene 1 29 33 -2.60123 0 87 -2.60123 1
gene 1 30 31 1.23475 0 88 1.23475 1
gene 1 30 32 -0.106583 0 89 -0.106583 1
gene 1 30 33 -0.438599 0 90 -0.438599 1
genomeend 6

/* Organism #7 Fitness: 13110.8 Error: 0 */
genomestart 7
trait 1 0.552788 0 0 0.869965 0 0.975716 0.974524 0 
node 1 1 1 1
node 2 1 1 1
node 3 1 1 1
node 4 1 1 1
node 5 1 1 1
node 6 1 1 1
node 7 1 1 1
node 8 1 1 1
node 9 1 1 1
node 10 1 1 1
node 11 1 1 1
node 12 1 1 1
node 13 1 1 1
node 14 1 1 1
node 15 1 1 1
node 16 1 1 1
node 17 1 1 1
node 18 1 1 1
node 19 1 1 1
node 20 1 1 1
node 21 1 1 1
node 22 1 1 1
node 23 1 1 1
node 24 1 1 1
node 25 1 1 1
node 26 1 1 1
node 27 1 1 1
node 28 1 1 1
node 29 1 1 1
node 30 1 1 3
node 31 1 0 2
node 32 1 0 2
node 33 1 0 2
gene 1 1 31 -3.87441 0 1 -3.87441 1
gene 1 1 32 -0.593512 0 2 -0.593512 1
gene 1 1 33 -2.00378 0 3 -2.00378 1
gene 1 2 31 -2.24041 0 4 -2.24041 1
gene 1 2 32 0.507239 0 5 0.507239 1
gene 1 2 33 -0.156254 0 6 -0.156254 1
gene 1 3 31 0.0644449 0 7 0.0644449 1
gene 1 3 32 0.395827 0 8 0.395827 1
gene 1 3 33 0.350559 0 9 0.350559 1
gene 1 4 31 2.09824 0 10 2.09824 1
gene 1 4 32 -4.24829 0 11 -4.24829 1
gene 1 4 33 2.98699 0 12 2.98699 1
gene 1 5 31 2.87421 0 13 2.87421 1
gene 1 5 32 -3.03858 0 14 -3.03858 1
gene 1 5 33 -2.78081 0 15 -2.78081 1
gene 1 6 31 0.847675 0 16 0.847675 1
gene 1 6 32 2.70318 0 17 2.70318 1
gene 1 6 33 -0.351859 0 18 -0.351859 1
gene 1 7 31 5 0 19 5 1
gene 1 7 32 -2.7998 0 20 -2.7998 1
gene 1 7 33 0.0217719 0 21 0.0217719 1
gene 1 8 31 1.24322 0 22 1.24322 1
gene 1 8 32 -3.41812 0 23 -3.41812 1
gene 1 8 33 -4.05804 0 24 -4.05804 1
gene 1 9 31 -3.60825 0 25 -3.60825 1
gene 1 9 32 2.80062 0 26 2.80062 1
gene 1 9 33 1.63036 0 27 1.63036 1
gene 1 10 31 0.364244 0 28 0.364244 1
gene 1 10 32 -0.273628 0 29 -0.273628 1
gene 1 10 33 -1.23789 0 30 -1.23789 1
gene 1 11 31 0.426286 0 31 0.426286 1
gene 1 11 32 -1.9931 0 32 -1.9931 1
gene 1 11 33 4.56389 0 33 4.56389 1
gene 1 12 31 -0.174149 0 34 -0.174149 1
gene 1 12 32 -1.31725 0 35 -1.31725 1
gene 1 12 33 2.35972 0 36 2.35972 1
gene 1 13 31 0.671703 0 37 0.671703 1
gene 1 13 32 0.711517 0 38 0.711517 1
gene 1 13 33 2.73276 0 39 2.73276 1
gene 1 14 31 0.998522 0 40 0.998522 1
gene 1 14 32 2.70983 0 41 2.70983 1
gene 1 14 33 -4.03637 0 42 -4.03637 1
gene 1 15 31 -0.560292 0 43 -0.560292 1
gene 1 15 32 0.0133546 0 44 0.0133546 1
gene 1 15 33 4.20862 0 45 4.20862 1
gene 1 16 31 -0.123818 0 46 -0.123818 1
gene 1 16 32 -0.692552 0 47 -0.692552 1
gene 1 16 33 3.28394 0 48 3.28394 1
gene 1 17 31 -4.85873 0 49 -4.85873 1
gene 1 17 32 -3.20069 0 50 -3.20069 1
gene 1 17 33 -0.576934 0 51 -0.576934 1
gene 1 18 31 -3.14834 0 52 -3.14834 1
gene 1 18 32 0.95638 0 53 0.95638 1
gene 1 18 33 -2.33722 0 54 -2.33722 1
gene 1 19 31 -4.59077 0 55 -4.59077 1
gene 1 19 32 0.694608 0 56 0.694608 1
gene 1 19 33 -2.40734 0 57 -2.40734 1
gene 1 20 31 0.969223 0 58 0.969223 1
gene 1 20 32 -0.110389 0 59 -0.110389 1
gene 1 20 33 -3.66317 0 60 -3.66317 1
gene 1 21 31 1.46484 0 61 1.46484 1
gene 1 21 32 1.39622 0 62 1.39622 1
gene 1 21 33 -4.95576 0 63 -4.95576 1
gene 1 22 31 0.814812 0 64 0.814812 1
gene 1 22 32 3.33788 0 65 3.33788 1
gene 1 22 33 2.92229 0 66 2.92229 1
gene 1 23 31 -4.8163 0 67 -4.8163 1
gene 1 23 32 0.577068 0 68 0.577068 1
gene 1 23 33 2.45789 0 69 2.45789 1
gene 1 24 31 1.77376 0 70 1.77376 1
gene 1 24 32 0.275838 0 71 0.275838 1
gene 1 24 33 1.94159 0 72 1.94159 1
gene 1 25 31 0.535289 0 73 0.535289 1
gene 1 25 32 0.575653 0 74 0.575653 1
gene 1 25 33 0.418854 0 75 0.418854 1
gene 1 26 31 0.330728 0 76 0.330728 1
gene 1 26 32 -0.170499 0 77 -0.170499 1
gene 1 26 33 -0.725985 0 78 -0.725985 1
gene 1 27 31 -1.26761 0 79 -1.26761 1
gene 1 27 32 0.597818 0 80 0.597818 1
gene 1 27 33 0.727299 0 81 0.727299 1
gene 1 28 31 0.563322 0 82 0.563322 1
gene 1 28 32 -1.30452 0 83 -1.30452 1
gene 1 28 33 -1.15387 0 84 -1.15387 1
gene 1 29 31 1.22829 0 85 1.22829 1
gene 1 29 32 -0.91289 0 86 -0.91289 1
gene 1 29 33 -0.773213 0 87 -0.773213 1
gene 1 30 31 0.529543 0 88 0.529543 1
gene 1 30 32 -1.15447 0 89 -1.15447 1
gene 1 30 33 -1.93555 0 90 -1.93555 1
genomeend 7

/* Organism #8 Fitness: 13010.1 Error: 0 */
genomestart 8
trait 1 0.552788 0 0 0.869965 0 0.975716 0.974524 0 
node 1 1 1 1
node 2 1 1 1
node 3 1 1 1
node 4 1 1 1
node 5 1 1 1
node 6 1 1 1
node 7 1 1 1
node 8 1 1 1
node 9 1 1 1
node 10 1 1 1
node 11 1 1 1
node 12 1 1 1
node 13 1 1 1
node 14 1 1 1
node 15 1 1 1
node 16 1 1 1
node 17 1 1 1
node 18 1 1 1
node 19 1 1 1
node 20 1 1 1
node 21 1 1 1
node 22 1 1 1
node 23 1 1 1
node 24 1 1 1
node 25 1 1 1
node 26 1 1 1
node 27 1 1 1
node 28 1 1 1
node 29 1 1 1
node 30 1 1 3
node 31 1 0 2
node 32 1 0 2
node 33 1 0 2
gene 1 1 31 -3.41895 0 1 -3.41895 1
gene 1 1 32 -4.50576 0 2 -4.50576 1
gene 1 1 33 -2.8191 0 3 -2.8191 1
gene 1 2 31 -1.58815 0 4 -1.58815 1
gene 1 2 32 -2.63165 0 5 -2.63165 1
gene 1 2 33 -3.97101 0 6 -3.97101 1
gene 1 3 31 -0.867357 0 7 -0.867357 1
gene 1 3 32 0.366245 0 8 0.366245 1
gene 1 3 33 -0.884679 0 9 -0.884679 1
gene 1 4 31 4.07309 0 10 4.07309 1
gene 1 4 32 -4.617 0 11 -4.617 1
gene 1 4 33 0.426942 0 12 0.426942 1
gene 1 5 31 1.77849 0 13 1.77849 1
gene 1 5 32 2.34842 0 14 2.34842 1
gene 1 5 33 0.164912 0 15 0.164912 1
gene 1 6 31 1.42043 0 16 1.42043 1
gene 1 6 32 1.26863 0 17 1.26863 1
gene 1 6 33 1.44544 0 18 1.44544 1
gene 1 7 31 3.8173 0 19 3.8173 1
gene 1 7 32 -3.98429 0 20 -3.98429 1
gene 1 7 33 0.441465 0 21 0.441465 1
gene 1 8 31 0.701312 0 22 0.701312 1
gene 1 8 32 -5 0 23 -5 1
gene 1 8 33 0.141215 0 24 0.141215 1
gene 1 9 31 -2.4888 0 25 -2.4888 1
gene 1 9 32 2.22358 0 26 2.22358 1
gene 1 9 33 2.81269 0 27 2.81269 1
gene 1 10 31 0.579112 0 28 0.579112 1
gene 1 10 32 0.276972 0 29 0.276972 1
gene 1 10 33 0.80475 0 30 0.80475 1
gene 1 11 31 -5 0 31 -5 1
gene 1 11 32 -3.78223 0 32 -3.78223 1
gene 1 11 33 2.61982 0 33 2.61982 1
gene 1 12 31 -2.61837 0 34 -2.61837 1
gene 1 12 32 1.07082 0 35 1.07082 1
gene 1 12 33 1.00911 0 36 1.00911 1
gene 1 13 31 -0.182261 0 37 -0.182261 1
gene 1 13 32 1.25229 0 38 1.25229 1
gene 1 13 33 4.04204 0 39 4.04204 1
gene 1 14 31 -1.23634 0 40 -1.23634 1
gene 1 14 32 -2.44956 0 41 -2.44956 1
gene 1 14 33 -3.71612 0 42 -3.71612 1
gene 1 15 31 -2.89633 0 43 -2.89633 1
gene 1 15 32 1.6258 0 44 1.6258 1
gene 1 15 33 3.20625 0 45 3.20625 1
gene 1 16 31 0.5356 0 46 0.5356 1
gene 1 16 32 -3.42415 0 47 -3.42415 1
gene 1 16 33 0.991225 0 48 0.991225 1
gene 1 17 31 -5 0 49 -5 1
gene 1 17 32 -3.64761 0 50 -3.64761 1
gene 1 17 33 -0.03756 0 51 -0.03756 1
gene 1 18 31 -5 0 52 -5 1
gene 1 18 32 2.2126 0 53 2.2126 1
gene 1 18 33 1.53915 0 54 1.53915 1
gene 1 19 31 -2.33651 0 55 -2.33651 1
gene 1 19 32 -5 0 56 -5 1
gene 1 19 33 -1.03007 0 57 -1.03007 1
gene 1 20 31 1.15472 0 58 1.15472 1
gene 1 20 32 0.894132 0 59 0.894132 1
gene 1 20 33 -0.309728 0 60 -0.309728 1
gene 1 21 31 1.22251 0 61 1.22251 1
gene 1 21 32 -0.526965 0 62 -0.526965 1
gene 1 21 33 -5 0 63 -5 1
gene 1 22 31 -1.89358 0 64 -1.89358 1
gene 1 22 32 5 0 65 5 1
gene 1 22 33 4.3519 0 66 4.3519 1
gene 1 23 31 -3.29292 0 67 -3.29292 1
gene 1 23 32 5 0 68 5 1
gene 1 23 33 1.91564 0 69 1.91564 1
gene 1 24 31 -0.950158 0 70 -0.950158 1
gene 1 24 32 2.60163 0 71 2.60163 1
gene 1 24 33 3.32662 0 72 3.32662 1
gene 1 25 31 0.188535 0 73 0.188535 1
gene 1 25 32 -0.709242 0 74 -0.709242 1
gene 1 25 33 -1.1632 0 75 -1.1632 1
gene 1 26 31 -0.938667 0 76 -0.938667 1
gene 1 26 32 -0.887385 0 77 -0.887385 1
gene 1 26 33 0.300252 0 78 0.300252 1
gene 1 27 31 0.709822 0 79 0.709822 1
gene 1 27 32 -0.0740848 0 80 -0.0740848 1
gene 1 27 33 0.533006 0 81 0.533006 1
gene 1 28 31 3.49536 0 82 3.49536 1
gene 1 28 32 -0.403642 0 83 -0.403642 1
gene 1 28 33 -1.86436 0 84 -1.86436 1
gene 1 29 31 -0.426678 0 85 -0.426678 1
gene 1 29 32 1.55903 0 86 1.55903 1
gene 1 29 33 0.308495 0 87 0.308495 1
gene 1 30 31 1.43342 0 88 1.43342 1
gene 1 30 32 -0.67526 0 89 -0.67526 1
gene 1 30 33 -0.467851 0 90 -0.467851 1
genomeend 8

/* Organism #9 Fitness: 14639.6 Error: 0 */
genomestart 9
trait 1 0.552788 0 0 0.869965 0 0.597076 0.974524 0 
node 1 1 1 1
node 2 1 1 1
node 3 1 1 1
node 4 1 1 1
node 5 1 1 1
node 6 1 1 1
node 7 1 1 1
node 8 1 1 1
node 9 1 1 1
node 10 1 1 1
node 11 1 1 1
node 12 1 1 1
node 13 1 1 1
node 14 1 1 1
node 15 1 1 1
node 16 1 1 1
node 17 1 1 1
node 18 1 1 1
node 19 1 1 1
node 20 1 1 1
node 21 1 1 1
node 22 1 1 1
node 23 1 1 1
node 24 1 1 1
node 25 1 1 1
node 26 1 1 1
node 27 1 1 1
node 28 1 1 1
node 29 1 1 1
node 30 1 1 3
node 31 1 0 2
node 32 1 0 2
node 33 1 0 2
gene 1 1 31 -5 0 1 -5 1
gene 1 1 32 -1.83591 0 2 -1.83591 1
gene 1 1 33 -1.43151 0 3 -1.43151 1
gene 1 2 31 -3.36301 0 4 -3.36301 1
gene 1 2 32 -0.0916509 0 5 -0.0916509 1
gene 1 2 33 -2.3886 0 6 -2.3886 1
gene 1 3 31 -2.12203 0 7 -2.12203 1
gene 1 3 32 0.770986 0 8 0.770986 1
gene 1 3 33 0.230648 0 9 0.230648 1
gene 1 4 31 0.518973 0 10 0.518973 1
gene 1 4 32 -3.13136 0 11 -3.13136 1
gene 1 4 33 -1.50254 0 12 -1.50254 1
gene 1 5 31 2.83926 0 13 2.83926 1
gene 1 5 32 -3.50008 0 14 -3.50008 1
gene 1 5 33 -1.12456 0 15 -1.12456 1
gene 1 6 31 2.59719 0 16 2.59719 1
gene 1 6 32 3.17072 0 17 3.17072 1
gene 1 6 33 0.672517 0 18 0.672517 1
gene 1 7 31 4.48865 0 19 4.48865 1
gene 1 7 32 -1.93183 0 20 -1.93183 1
gene 1 7 33 -0.207775 0 21 -0.207775 1
gene 1 8 31 0.589842 0 22 0.589842 1
gene 1 8 32 -4.85211 0 23 -4.85211 1
gene 1 8 33 -2.71263 0 24 -2.71263 1
gene 1 9 31 -1.70361 0 25 -1.70361 1
gene 1 9 32 1.09354 0 26 1.09354 1
gene 1 9 33 3.67427 0 27 3.67427 1
gene 1 10 31 2.06074 0 28 2.06074 1
gene 1 10 32 2.60044 0 29 2.60044 1
gene 1 10 33 0.771711 0 30 0.771711 1
gene 1 11 31 -4.30613 0 31 -4.30613 1
gene 1 11 32 -3.27923 0 32 -3.27923 1
gene 1 11 33 2.04967 0 33 2.04967 1
gene 1 12 31 -2.51344 0 34 -2.51344 1
gene 1 12 32 2.22626 0 35 2.22626 1
gene 1 12 33 0.199568 0 36 0.199568 1
gene 1 13 31 -2.77563 0 37 -2.77563 1
gene 1 13 32 1.33937 0 38 1.33937 1
gene 1 13 33 4.62709 0 39 4.62709 1
gene 1 14 31 -0.346371 0 40 -0.346371 1
gene 1 14 32 -3.79533 0 41 -3.79533 1
gene 1 14 33 -3.06507 0 42 -3.06507 1
gene 1 15 31 -0.0813959 0 43 -0.0813959 1
gene 1 15 32 0.714642 0 44 0.714642 1
gene 1 15 33 2.39651 0 45 2.39651 1
gene 1 16 31 0.883335 0 46 0.883335 1
gene 1 16 32 -0.0458905 0 47 -0.0458905 1
gene 1 16 33 -0.574814 0 48 -0.574814 1
gene 1 17 31 -4.66237 0 49 -4.66237 1
gene 1 17 32 -5 0 50 -5 1
gene 1 17 33 0.488538 0 51 0.488538 1
gene 1 18 31 -5 0 52 -5 1
gene 1 18 32 3.36603 0 53 3.36603 1
gene 1 18 33 -3.3774 0 54 -3.3774 1
gene 1 19 31 -1.9276 0 55 -1.9276 1
gene 1 19 32 -4.07186 0 56 -4.07186 1
gene 1 19 33 -0.663442 0 57 -0.663442 1
gene 1 20 31 -0.870983 0 58 -0.870983 1
gene 1 20 32 0.871563 0 59 0.871563 1
gene 1 20 33 -3.52039 0 60 -3.52039 1
gene 1 21 31 1.35798 0 61 1.35798 1
gene 1 21 32 -0.20903 0 62 -0.20903 1
gene 1 21 33 -4.21993 0 63 -4.21993 1
gene 1 22 31 -1.56761 0 64 -1.56761 1
gene 1 22 32 1.73781 0 65 1.73781 1
gene 1 22 33 5 0 66 5 1
gene 1 23 31 -2.32267 0 67 -2.32267 1
gene 1 23 32 3.06814 0 68 3.06814 1
gene 1 23 33 -1.20208 0 69 -1.20208 1
gene 1 24 31 2.81509 0 70 2.81509 1
gene 1 24 32 0.899496 0 71 0.899496 1
gene 1 24 33 2.10117 0 72 2.10117 1
gene 1 25 31 0.26856 0 73 0.26856 1
gene 1 25 32 0.7677 0 74 0.7677 1
gene 1 25 33 1.4021 0 75 1.4021 1
gene 1 26 31 0.0331908 0 76 0.0331908 1
gene 1 26 32 1.17634 0 77 1.17634 1
gene 1 26 33 1.00289 0 78 1.00289 1
gene 1 27 31 0.232113 0 79 0.232113 1
gene 1 27 32 -3.82511 0 80 -3.82511 1
gene 1 27 33 -0.198112 0 81 -0.198112 1
gene 1 28 31 1.161 0 82 1.161 1
gene 1 28 32 -0.309782 0 83 -0.309782 1
gene 1 28 33 -0.975682 0 84 -0.975682 1
gene 1 29 31 0.471936 0 85 0.471936 1
gene 1 29 32 -0.371809 0 86 -0.371809 1
gene 1 29 33 0.611788 0 87 0.611788 1
gene 1 30 31 2.27027 0 88 2.27027 1
gene 1 30 32 -1.26797 0 89 -1.26797 1
gene 1 30 33 0.406317 0 90 0.406317 1
genomeend 9

/* Organism #10 Fitness: 13626.8 Error: 0 */
genomestart 10
trait 1 0.552788 0 0 0.869965 0 0.975716 0.974524 0 
node 1 1 1 1
node 2 1 1 1
node 3 1 1 1
node 4 1 1 1
node 5 1 1 1
node 6 1 1 1
node 7 1 1 1
node 8 1 1 1
node 9 1 1 1
node 10 1 1 1
node 11 1 1 1
node 12 1 1 1
node 13 1 1 1
node 14 1 1 1
node 15 1 1 1
node 16 1 1 1
node 17 1 1 1
node 18 1 1 1
node 19 1 1 1
node 20 1 1 1
node 21 1 1 1
node 22 1 1 1
node 23 1 1 1
node 24 1 1 1
node 25 1 1 1
node 26 1 1 1
node 27 1 1 1
node 28 1 1 1
node 29 1 1 1
node 30 1 1 3
node 31 1 0 2
node 32 1 0 2
node 33 1 0 2
gene 1 1 31 -3.71466 0 1 -3.71466 1
gene 1 1 32 -4.81859 0 2 -4.81859 1
gene 1 1 33 -1.85653 0 3 -1.85653 1
gene 1 2 31 -2.08476 0 4 -2.08476 1
gene 1 2 32 -1.17969 0 5 -1.17969 1
gene 1 2 33 -4.02412 0 6 -4.02412 1
gene 1 3 31 0.559356 0 7 0.559356 1
gene 1 3 32 0.524123 0 8 0.524123 1
gene 1 3 33 -1.47119 0 9 -1.47119 1
gene 1 4 31 3.2496 0 10 3.2496 1
gene 1 4 32 -3.42926 0 11 -3.42926 1
gene 1 4 33 0.388613 0 12 0.388613 1
gene 1 5 31 1.74067 0 13 1.74067 1
gene 1 5 32 1.44915 0 14 1.44915 1
gene 1 5 33 1.17467 0 15 1.17467 1
gene 1 6 31 0.908035 0 16 0.908035 1
gene 1 6 32 0.399309 0 17 0.399309 1
gene 1 6 33 0.247418 0 18 0.247418 1
gene 1 7 31 5 0 19 5 1
gene 1 7 32 -2.63983 0 20 -2.63983 1
gene 1 7 33 1.423 0 21 1.423 1
gene 1 8 31 -0.232951 0 22 -0.232951 1
gene 1 8 32 -4.38365 0 23 -4.38365 1
gene 1 8 33 -0.891521 0 24 -0.891521 1
gene 1 9 31 -2.11788 0 25 -2.11788 1
gene 1 9 32 3.08745 0 26 3.08745 1
gene 1 9 33 1.25504 0 27 1.25504 1
gene 1 10 31 0.909537 0 28 0.909537 1
gene 1 10 32 -0.0433799 0 29 -0.0433799 1
gene 1 10 33 0.486528 0 30 0.486528 1
gene 1 11 31 -5 0 31 -5 1
gene 1 11 32 -4.28763 0 32 -4.28763 1
gene 1 11 33 3.26988 0 33 3.26988 1
gene 1 12 31 -3.75128 0 34 -3.75128 1
gene 1 12 32 1.44932 0 35 1.44932 1
gene 1 12 33 1.63934 0 36 1.63934 1
gene 1 13 31 -0.797298 0 37 -0.797298 1
gene 1 13 32 -0.0916825 0 38 -0.0916825 1
gene 1 13 33 5 0 39 5 1
gene 1 14 31 -1.10093 0 40 -1.10093 1
gene 1 14 32 -1.49037 0 41 -1.49037 1
gene 1 14 33 -4.58841 0 42 -4.58841 1
gene 1 15 31 -2.5932 0 43 -2.5932 1
gene 1 15 32 2.22595 0 44 2.22595 1
gene 1 15 33 2.69078 0 45 2.69078 1
gene 1 16 31 0.139071 0 46 0.139071 1
gene 1 16 32 -3.90904 0 47 -3.90904 1
gene 1 16 33 1.8348 0 48 1.8348 1
gene 1 17 31 -5 0 49 -5 1
gene 1 17 32 -3.99551 0 50 -3.99551 1
gene 1 17 33 -1.09041 0 51 -1.09041 1
gene 1 18 31 -5 0 52 -5 1
gene 1 18 32 1.3955 0 53 1.3955 1
gene 1 18 33 1.80366 0 54 1.80366 1
gene 1 19 31 -3.03545 0 55 -3.03545 1
gene 1 19 32 -4.1547 0 56 -4.1547 1
gene 1 19 33 -0.0627889 0 57 -0.0627889 1
gene 1 20 31 1.60925 0 58 1.60925 1
gene 1 20 32 0.00875985 0 59 0.00875985 1
gene 1 20 33 -0.797553 0 60 -0.797553 1
gene 1 21 31 0.513446 0 61 0.513446 1
gene 1 21 32 0.00360754 0 62 0.00360754 1
gene 1 21 33 -3.54016 0 63 -3.54016 1
gene 1 22 31 -0.938651 0 64 -0.938651 1
gene 1 22 32 4.37844 0 65 4.37844 1
gene 1 22 33 5 0 66 5 1
gene 1 23 31 -3.56128 0 67 -3.56128 1
gene 1 23 32 4.07577 0 68 4.07577 1
gene 1 23 33 1.99822 0 69 1.99822 1
gene 1 24 31 -0.824243 0 70 -0.824243 1
gene 1 24 32 0.856835 0 71 0.856835 1
gene 1 24 33 4.17828 0 72 4.17828 1
gene 1 25 31 -0.651602 0 73 -0.651602 1
gene 1 25 32 -0.91751 0 74 -0.91751 1
gene 1 25 33 -0.593511 0 75 -0.593511 1
gene 1 26 31 -0.850166 0 76 -0.850166 1
gene 1 26 32 -1.05302 0 77 -1.05302 1
gene 1 26 33 -0.192808 0 78 -0.192808 1
gene 1 27 31 0.345553 0 79 0.345553 1
gene 1 27 32 -0.099243 0 80 -0.099243 1
gene 1 27 33 0.579361 0 81 0.579361 1
gene 1 28 31 3.8652 0 82 3.8652 1
gene 1 28 32 -0.340135 0 83 -0.340135 1
gene 1 28 33 -0.73919 0 84 -0.73919 1
gene 1 29 31 -0.617466 0 85 -0.617466 1
gene 1 29 32 0.832085 0 86 0.832085 1
gene 1 29 33 -0.725455 0 87 -0.725455 1
gene 1 30 31 1.23475 0 88 1.23475 1
gene 1 30 32 0.521143 0 89 0.521143 1
gene 1 30 33 -0.467851 0 90 -0.467851 1
genomeend 10

/* Organism #11 Fitness: 14091.2 Error: 0 */
genomestart 11
trait 1 0.552788 0 0 0.869965 0 0.975716 0.974524 0 
node 1 1 1 1
node 2 1 1 1
node 3 1 1 1
node 4 1 1 1
node 5 1 1 1
node 6 1 1 1
node 7 1 1 1
node 8 1 1 1
node 9 1 1 1
node 10 1 1 1
node 11 1 1 1
node 12 1 1 1
node 13 1 1 1
node 14 1 1 1
node 15 1 1 1
node 16 1 1 1
node 17 1 1 1
node 18 1 1 1
node 19 1 1 1
node 20 1 1 1
node 21 1 1 1
node 22 1 1 1
node 23 1 1 1
node 24 1 1 1
node 25 1 1 1
node 26 1 1 1
node 27 1 1 1
node 28 1 1 1
node 29 1 1 1
node 30 1 1 3
node 31 1 0 2
node 32 1 0 2
node 33 1 0 2
gene 1 1 31 -4.95138 0 1 -4.95138 1
gene 1 1 32 -3.4707 0 2 -3.4707 1
gene 1 1 33 0.393609 0 3 0.393609 1
gene 1 2 31 -2.07353 0 4 -2.07353 1
gene 1 2 32 -1.67799 0 5 -1.67799 1
gene 1 2 33 -1.805 0 6 -1.805 1
gene 1 3 31 -0.0316298 0 7 -0.0316298 1
gene 1 3 32 1.40424 0 8 1.40424 1
gene 1 3 33 -1.93435 0 9 -1.93435 1
gene 1 4 31 4.14436 0 10 4.14436 1
gene 1 4 32 -3.65483 0 11 -3.65483 1
gene 1 4 33 -2.71406 0 12 -2.71406 1
gene 1 5 31 1.71516 0 13 1.71516 1
gene 1 5 32 -0.636835 0 14 -0.636835 1
gene 1 5 33 -0.161113 0 15 -0.161113 1
gene 1 6 31 1.96516 0 16 1.96516 1
gene 1 6 32 0.478504 0 17 0.478504 1
gene 1 6 33 1.14582 0 18 1.14582 1
gene 1 7 31 5 0 19 5 1
gene 1 7 32 -1.05494 0 20 -1.05494 1
gene 1 7 33 2.32144 0 21 2.32144 1
gene 1 8 31 0.530961 0 22 0.530961 1
gene 1 8 32 -4.45006 0 23 -4.45006 1
gene 1 8 33 0.806174 0 24 0.806174 1
gene 1 9 31 -3.03815 0 25 -3.03815 1
gene 1 9 32 1.88513 0 26 1.88513 1
gene 1 9 33 2.38013 0 27 2.38013 1
gene 1 10 31 -0.815088 0 28 -0.815088 1
gene 1 10 32 -0.715832 0 29 -0.715832 1
gene 1 10 33 0.3178 0 30 0.3178 1
gene 1 11 31 1.45484 0 31 1.45484 1
gene 1 11 32 -3.68866 0 32 -3.68866 1
gene 1 11 33 3.10248 0 33 3.10248 1
gene 1 12 31 -3.59928 0 34 -3.59928 1
gene 1 12 32 -0.291695 0 35 -0.291695 1
gene 1 12 33 -1.05332 0 36 -1.05332 1
gene 1 13 31 -2.06149 0 37 -2.06149 1
gene 1 13 32 0.0715404 0 38 0.0715404 1
gene 1 13 33 3.02211 0 39 3.02211 1
gene 1 14 31 -1.73499 0 40 -1.73499 1
gene 1 14 32 -3.2969 0 41 -3.2969 1
gene 1 14 33 -3.95097 0 42 -3.95097 1
gene 1 15 31 -1.68529 0 43 -1.68529 1
gene 1 15 32 2.17943 0 44 2.17943 1
gene 1 15 33 3.45693 0 45 3.45693 1
gene 1 16 31 -1.38255 0 46 -1.38255 1
gene 1 16 32 -0.58101 0 47 -0.58101 1
gene 1 16 33 1.89 0 48 1.89 1
gene 1 17 31 -5 0 49 -5 1
gene 1 17 32 -4.62249 0 50 -4.62249 1
gene 1 17 33 -0.561616 0 51 -0.561616 1
gene 1 18 31 -5 0 52 -5 1
gene 1 18 32 1.66794 0 53 1.66794 1
gene 1 18 33 -1.2767 0 54 -1.2767 1
gene 1 19 31 -1.57407 0 55 -1.57407 1
gene 1 19 32 -2.93735 0 56 -2.93735 1
gene 1 19 33 -0.368172 0 57 -0.368172 1
gene 1 20 31 1.69608 0 58 1.69608 1
gene 1 20 32 -0.436972 0 59 -0.436972 1
gene 1 20 33 -1.29082 0 60 -1.29082 1
gene 1 21 31 2.15385 0 61 2.15385 1
gene 1 21 32 0.993364 0 62 0.993364 1
gene 1 21 33 -5 0 63 -5 1
gene 1 22 31 -1.27103 0 64 -1.27103 1
gene 1 22 32 3.83028 0 65 3.83028 1
gene 1 22 33 5 0 66 5 1
gene 1 23 31 -4.07897 0 67 -4.07897 1
gene 1 23 32 4.73045 0 68 4.73045 1
gene 1 23 33 0.605318 0 69 0.605318 1
gene 1 24 31 1.58329 0 70 1.58329 1
gene 1 24 32 1.29186 0 71 1.29186 1
gene 1 24 33 2.8671 0 72 2.8671 1
gene 1 25 31 -1.11189 0 73 -1.11189 1
gene 1 25 32 -1.61935 0 74 -1.61935 1
gene 1 25 33 -0.912013 0 75 -0.912013 1
gene 1 26 31 -0.885612 0 76 -0.885612 1
gene 1 26 32 0.570589 0 77 0.570589 1
gene 1 26 33 0.148469 0 78 0.148469 1
gene 1 27 31 -0.267272 0 79 -0.267272 1
gene 1 27 32 0.311114 0 80 0.311114 1
gene 1 27 33 1.35785 0 81 1.35785 1
gene 1 28 31 4.29571 0 82 4.29571 1
gene 1 28 32 0.136835 0 83 0.136835 1
gene 1 28 33 -0.632609 0 84 -0.632609 1
gene 1 29 31 -0.862088 0 85 -0.862088 1
gene 1 29 32 -0.738323 0 86 -0.738323 1
gene 1 29 33 0.884107 0 87 0.884107 1
gene 1 30 31 0.115485 0 88 0.115485 1
gene 1 30 32 -0.101887 0 89 -0.101887 1
gene 1 30 33 0.225644 0 90 0.225644 1
genomeend 11

/* Organism #12 Fitness: 12695 Error: 0 */
genomestart 12
trait 1 0.552788 0 0 0.869965 0 0.975716 0.974524 0 
node 1 1 1 1
node 2 1 1 1
node 3 1 1 1
node 4 1 1 1
node 5 1 1 1
node 6 1 1 1
node 7 1 1 1
node 8 1 1 1
node 9 1 1 1
node 10 1 1 1
node 11 1 1 1
node 12 1 1 1
node 13 1 1 1
node 14 1 1 1
node 15 1 1 1
node 16 1 1 1
node 17 1 1 1
node 18 1 1 1
node 19 1 1 1
node 20 1 1 1
node 21 1 1 1
node 22 1 1 1
node 23 1 1 1
node 24 1 1 1
node 25 1 1 1
node 26 1 1 1
node 27 1 1 1
node 28 1 1 1
node 29 1 1 1
node 30 1 1 3
node 31 1 0 2
node 32 1 0 2
node 33 1 0 2
gene 1 1 31 -3.98711 0 1 -3.98711 1
gene 1 1 32 -1.89718 0 2 -1.89718 1
gene 1 1 33 -1.68794 0 3 -1.68794 1
gene 1 2 31 -1.24683 0 4 -1.24683 1
gene 1 2 32 -0.477007 0 5 -0.477007 1
gene 1 2 33 0.36734 0 6 0.36734 1
gene 1 3 31 0.116394 0 7 0.116394 1
gene 1 3 32 -1.35736 0 8 -1.35736 1
gene 1 3 33 3.00337 0 9 3.00337 1
gene 1 4 31 1.51172 0 10 1.51172 1
gene 1 4 32 -5 0 11 -5 1
gene 1 4 33 3.57809 0 12 3.57809 1
gene 1 5 31 3.56133 0 13 3.56133 1
gene 1 5 32 -2.21162 0 14 -2.21162 1
gene 1 5 33 -2.03163 0 15 -2.03163 1
gene 1 6 31 0.856677 0 16 0.856677 1
gene 1 6 32 2.91449 0 17 2.91449 1
gene 1 6 33 0.521814 0 18 0.521814 1
gene 1 7 31 5 0 19 5 1
gene 1 7 32 -1.8859 0 20 -1.8859 1
gene 1 7 33 1.68202 0 21 1.68202 1
gene 1 8 31 1.90264 0 22 1.90264 1
gene 1 8 32 -4.55131 0 23 -4.55131 1
gene 1 8 33 -4.0295 0 24 -4.0295 1
gene 1 9 31 -3.39909 0 25 -3.39909 1
gene 1 9 32 2.03512 0 26 2.03512 1
gene 1 9 33 0.732537 0 27 0.732537 1
gene 1 10 31 3.80337 0 28 3.80337 1
gene 1 10 32 0.150021 0 29 0.150021 1
gene 1 10 33 -0.141192 0 30 -0.141192 1
gene 1 11 31 -4.00086 0 31 -4.00086 1
gene 1 11 32 -2.69064 0 32 -2.69064 1
gene 1 11 33 5 0 33 5 1
gene 1 12 31 -5 0 34 -5 1
gene 1 12 32 -0.900501 0 35 -0.900501 1
gene 1 12 33 1.16688 0 36 1.16688 1
gene 1 13 31 -1.68565 0 37 -1.68565 1
gene 1 13 32 0.0234398 0 38 0.0234398 1
gene 1 13 33 1.8679 0 39 1.8679 1
gene 1 14 31 1.48529 0 40 1.48529 1
gene 1 14 32 1.40705 0 41 1.40705 1
gene 1 14 33 -3.54245 0 42 -3.54245 1
gene 1 15 31 -0.720475 0 43 -0.720475 1
gene 1 15 32 -0.0276874 0 44 -0.0276874 1
gene 1 15 33 3.95279 0 45 3.95279 1
gene 1 16 31 -0.316343 0 46 -0.316343 1
gene 1 16 32 -2.21805 0 47 -2.21805 1
gene 1 16 33 2.96674 0 48 2.96674 1
gene 1 17 31 -5 0 49 -5 1
gene 1 17 32 -2.4791 0 50 -2.4791 1
gene 1 17 33 -0.922661 0 51 -0.922661 1
gene 1 18 31 -3.04078 0 52 -3.04078 1
gene 1 18 32 1.79337 0 53 1.79337 1
gene 1 18 33 -2.34123 0 54 -2.34123 1
gene 1 19 31 -5 0 55 -5 1
gene 1 19 32 -3.93017 0 56 -3.93017 1
gene 1 19 33 -2.7636 0 57 -2.7636 1
gene 1 20 31 1.1064 0 58 1.1064 1
gene 1 20 32 -0.1519 0 59 -0.1519 1
gene 1 20 33 -3.52827 0 60 -3.52827 1
gene 1 21 31 1.76862 0 61 1.76862 1
gene 1 21 32 0.346573 0 62 0.346573 1
gene 1 21 33 -5 0 63 -5 1
gene 1 22 31 -0.422684 0 64 -0.422684 1
gene 1 22 32 2.93069 0 65 2.93069 1
gene 1 22 33 2.64881 0 66 2.64881 1
gene 1 23 31 -4.7399 0 67 -4.7399 1
gene 1 23 32 5 0 68 5 1
gene 1 23 33 1.91663 0 69 1.91663 1
gene 1 24 31 3.22541 0 70 3.22541 1
gene 1 24 32 1.16661 0 71 1.16661 1
gene 1 24 33 1.01435 0 72 1.01435 1
gene 1 25 31 -0.858392 0 73 -0.858392 1
gene 1 25 32 0.214291 0 74 0.214291 1
gene 1 25 33 -0.948681 0 75 -0.948681 1
gene 1 26 31 0.293717 0 76 0.293717 1
gene 1 26 32 -0.170499 0 77 -0.170499 1
gene 1 26 33 0.242425 0 78 0.242425 1
gene 1 27 31 -1.26761 0 79 -1.26761 1
gene 1 27 32 -1.20869 0 80 -1.20869 1
gene 1 27 33 0.0895321 0 81 0.0895321 1
gene 1 28 31 0.703771 0 82 0.703771 1
gene 1 28 32 -0.788658 0 83 -0.788658 1
gene 1 28 33 -0.418853 0 84 -0.418853 1
gene 1 29 31 0.775414 0 85 0.775414 1
gene 1 29 32 -0.837121 0 86 -0.837121 1
gene 1 29 33 0.868655 0 87 0.868655 1
gene 1 30 31 1.42739 0 88 1.42739 1
gene 1 30 32 -0.669722 0 89 -0.669722 1
gene 1 30 33 -0.400083 0 90 -0.400083 1
genomeend 12

/* Organism #13 Fitness: 13841.4 Error: 0 */
genomestart 13
trait 1 0.552788 0 0 0.869965 0 0.975716 0.974524 0 
node 1 1 1 1
node 2 1 1 1
node 3 1 1 1
node 4 1 1 1
node 5 1 1 1
node 6 1 1 1
node 7 1 1 1
node 8 1 1 1
node 9 1 1 1
node 10 1 1 1
node 11 1 1 1
node 12 1 1 1
node 13 1 1 1
node 14 1 1 1
node 15 1 1 1
node 16 1 1 1
node 17 1 1 1
node 18 1 1 1
node 19 1 1 1
node 20 1 1 1
node 21 1 1 1
node 22 1 1 1
node 23 1 1 1
node 24 1 1 1
node 25 1 1 1
node 26 1 1 1
node 27 1 1 1
node 28 1 1 1
node 29 1 1 1
node 30 1 1 3
node 31 1 0 2
node 32 1 0 2
node 33 1 0 2
gene 1 1 31 -3.87441 0 1 -3.87441 1
gene 1 1 32 -1.75579 0 2 -1.75579 1
gene 1 1 33 -2.21671 0 3 -2.21671 1
gene 1 2 31 -2.24041 0 4 -2.24041 1
gene 1 2 32 -0.0889917 0 5 -0.0889917 1
gene 1 2 33 0.782316 0 6 0.782316 1
gene 1 3 31 -0.198561 0 7 -0.198561 1
gene 1 3 32 -1.33206 0 8 -1.33206 1
gene 1 3 33 2.34444 0 9 2.34444 1
gene 1 4 31 2.09824 0 10 2.09824 1
gene 1 4 32 -4.50253 0 11 -4.50253 1
gene 1 4 33 3.75164 0 12 3.75164 1
gene 1 5 31 3.44191 0 13 3.44191 1
gene 1 5 32 -3.03858 0 14 -3.03858 1
gene 1 5 33 -2.07385 0 15 -2.07385 1
gene 1 6 31 1.76645 0 16 1.76645 1
gene 1 6 32 3.19248 0 17 3.19248 1
gene 1 6 33 1.01616 0 18 1.01616 1
gene 1 7 31 5 0 19 5 1
gene 1 7 32 -2.42252 0 20 -2.42252 1
gene 1 7 33 0.734806 0 21 0.734806 1
gene 1 8 31 1.11077 0 22 1.11077 1
gene 1 8 32 -4.08931 0 23 -4.08931 1
gene 1 8 33 -4.16747 0 24 -4.16747 1
gene 1 9 31 -4.23435 0 25 -4.23435 1
gene 1 9 32 2.02503 0 26 2.02503 1
gene 1 9 33 1.00996 0 27 1.00996 1
gene 1 10 31 2.97742 0 28 2.97742 1
gene 1 10 32 0.471629 0 29 0.471629 1
gene 1 10 33 -0.891742 0 30 -0.891742 1
gene 1 11 31 -4.61059 0 31 -4.61059 1
gene 1 11 32 -1.73434 0 32 -1.73434 1
gene 1 11 33 4.56389 0 33 4.56389 1
gene 1 12 31 -5 0 34 -5 1
gene 1 12 32 -1.31285 0 35 -1.31285 1
gene 1 12 33 1.83565 0 36 1.83565 1
gene 1 13 31 -2.61223 0 37 -2.61223 1
gene 1 13 32 0.0012004 0 38 0.0012004 1
gene 1 13 33 2.7685 0 39 2.7685 1
gene 1 14 31 0.486452 0 40 0.486452 1
gene 1 14 32 2.39452 0 41 2.39452 1
gene 1 14 33 -3.79603 0 42 -3.79603 1
gene 1 15 31 -1.09855 0 43 -1.09855 1
gene 1 15 32 -0.763403 0 44 -0.763403 1
gene 1 15 33 3.47829 0 45 3.47829 1
gene 1 16 31 -0.123818 0 46 -0.123818 1
gene 1 16 32 -1.5149 0 47 -1.5149 1
gene 1 16 33 2.91506 0 48 2.91506 1
gene 1 17 31 -4.95611 0 49 -4.95611 1
gene 1 17 32 -3.17576 0 50 -3.17576 1
gene 1 17 33 -0.0481328 0 51 -0.0481328 1
gene 1 18 31 -3.14834 0 52 -3.14834 1
gene 1 18 32 1.49345 0 53 1.49345 1
gene 1 18 33 -3.18233 0 54 -3.18233 1
gene 1 19 31 -4.59077 0 55 -4.59077 1
gene 1 19 32 -4.06424 0 56 -4.06424 1
gene 1 19 33 -1.76959 0 57 -1.76959 1
gene 1 20 31 0.163804 0 58 0.163804 1
gene 1 20 32 0.451475 0 59 0.451475 1
gene 1 20 33 -3.48246 0 60 -3.48246 1
gene 1 21 31 1.45673 0 61 1.45673 1
gene 1 21 32 0.925871 0 62 0.925871 1
gene 1 21 33 -4.12957 0 63 -4.12957 1
gene 1 22 31 0.302133 0 64 0.302133 1
gene 1 22 32 3.33788 0 65 3.33788 1
gene 1 22 33 2.5178 0 66 2.5178 1
gene 1 23 31 -4.67801 0 67 -4.67801 1
gene 1 23 32 5 0 68 5 1
gene 1 23 33 2.02674 0 69 2.02674 1
gene 1 24 31 2.51003 0 70 2.51003 1
gene 1 24 32 0.766801 0 71 0.766801 1
gene 1 24 33 1.93107 0 72 1.93107 1
gene 1 25 31 -0.941667 0 73 -0.941667 1
gene 1 25 32 -0.0278752 0 74 -0.0278752 1
gene 1 25 33 1.41085 0 75 1.41085 1
gene 1 26 31 -0.100287 0 76 -0.100287 1
gene 1 26 32 -0.170499 0 77 -0.170499 1
gene 1 26 33 -0.12511 0 78 -0.12511 1
gene 1 27 31 -1.26761 0 79 -1.26761 1
gene 1 27 32 -0.292288 0 80 -0.292288 1
gene 1 27 33 -0.874169 0 81 -0.874169 1
gene 1 28 31 -0.176655 0 82 -0.176655 1
gene 1 28 32 -0.584315 0 83 -0.584315 1
gene 1 28 33 -0.418853 0 84 -0.418853 1
gene 1 29 31 0.775414 0 85 0.775414 1
gene 1 29 32 -0.683512 0 86 -0.683512 1
gene 1 29 33 -0.0140844 0 87 -0.0140844 1
gene 1 30 31 1.20942 0 88 1.20942 1
gene 1 30 32 -0.357422 0 89 -0.357422 1
gene 1 30 33 -1.26305 0 90 -1.26305 1
genomeend 13

/* Organism #14 Fitness: 13166.2 Error: 0 */
genomestart 14
trait 1 0.552788 0 0 0.869965 0 0.975716 0.974524 0 
node 1 1 1 1
node 2 1 1 1
node 3 1 1 1
node 4 1 1 1
node 5 1 1 1
node 6 1 1 1
node 7 1 1 1
node 8 1 1 1
node 9 1 1 1
node 10 1 1 1
node 11 1 1 1
node 12 1 1 1
node 13 1 1 1
node 14 1 1 1
node 15 1 1 1
node 16 1 1 1
node 17 1 1 1
node 18 1 1 1
node 19 1 1 1
node 20 1 1 1
node 21 1 1 1
node 22 1 1 1
node 23 1 1 1
node 24 1 1 1
node 25 1 1 1
node 26 1 1 1
node 27 1 1 1
node 28 1 1 1
node 29 1 1 1
node 30 1 1 3
node 31 1 0 2
node 32 1 0 2
node 33 1 0 2
gene 1 1 31 -3.90917 0 1 -3.90917 1
gene 1 1 32 -1.94086 0 2 -1.94086 1
gene 1 1 33 0.877788 0 3 0.877788 1
gene 1 2 31 -1.91085 0 4 -1.91085 1
gene 1 2 32 -2.04944 0 5 -2.04944 1
gene 1 2 33 -2.28703 0 6 -2.28703 1
gene 1 3 31 1.71466 0 7 1.71466 1
gene 1 3 32 1.52535 0 8 1.52535 1
gene 1 3 33 -2.14062 0 9 -2.14062 1
gene 1 4 31 4.63203 0 10 4.63203 1
gene 1 4 32 -5 0 11 -5 1
gene 1 4 33 -1.6947 0 12 -1.6947 1
gene 1 5 31 1.71346 0 13 1.71346 1
gene 1 5 32 0.500954 0 14 0.500954 1
gene 1 5 33 0.362696 0 15 0.362696 1
gene 1 6 31 2.82029 0 16 2.82029 1
gene 1 6 32 2.03017 0 17 2.03017 1
gene 1 6 33 0.678544 0 18 0.678544 1
gene 1 7 31 4.55267 0 19 4.55267 1
gene 1 7 32 -2.35425 0 20 -2.35425 1
gene 1 7 33 1.19966 0 21 1.19966 1
gene 1 8 31 0.861356 0 22 0.861356 1
gene 1 8 32 -4.27515 0 23 -4.27515 1
gene 1 8 33 0.599186 0 24 0.599186 1
gene 1 9 31 -3.5202 0 25 -3.5202 1
gene 1 9 32 2.02225 0 26 2.02225 1
gene 1 9 33 2.8382 0 27 2.8382 1
gene 1 10 31 -1.07389 0 28 -1.07389 1
gene 1 10 32 -0.423902 0 29 -0.423902 1
gene 1 10 33 0.659852 0 30 0.659852 1
gene 1 11 31 1.4449 0 31 1.4449 1
gene 1 11 32 -3.52796 0 32 -3.52796 1
gene 1 11 33 3.1273 0 33 3.1273 1
gene 1 12 31 -4.0393 0 34 -4.0393 1
gene 1 12 32 -0.405477 0 35 -0.405477 1
gene 1 12 33 -1.64107 0 36 -1.64107 1
gene 1 13 31 -1.43396 0 37 -1.43396 1
gene 1 13 32 1.06426 0 38 1.06426 1
gene 1 13 33 3.83765 0 39 3.83765 1
gene 1 14 31 -2.25213 0 40 -2.25213 1
gene 1 14 32 -3.32641 0 41 -3.32641 1
gene 1 14 33 -4.7075 0 42 -4.7075 1
gene 1 15 31 -0.92595 0 43 -0.92595 1
gene 1 15 32 1.87139 0 44 1.87139 1
gene 1 15 33 3.71401 0 45 3.71401 1
gene 1 16 31 -0.21495 0 46 -0.21495 1
gene 1 16 32 -0.636405 0 47 -0.636405 1
gene 1 16 33 3.3955 0 48 3.3955 1
gene 1 17 31 -5 0 49 -5 1
gene 1 17 32 -3.99975 0 50 -3.99975 1
gene 1 17 33 -0.634216 0 51 -0.634216 1
gene 1 18 31 -5 0 52 -5 1
gene 1 18 32 2.53789 0 53 2.53789 1
gene 1 18 33 -0.749893 0 54 -0.749893 1
gene 1 19 31 -2.69324 0 55 -2.69324 1
gene 1 19 32 -4.07887 0 56 -4.07887 1
gene 1 19 33 -0.0126253 0 57 -0.0126253 1
gene 1 20 31 0.952168 0 58 0.952168 1
gene 1 20 32 -0.345312 0 59 -0.345312 1
gene 1 20 33 -0.507323 0 60 -0.507323 1
gene 1 21 31 1.56024 0 61 1.56024 1
gene 1 21 32 0.124312 0 62 0.124312 1
gene 1 21 33 -3.99255 0 63 -3.99255 1
gene 1 22 31 -1.73286 0 64 -1.73286 1
gene 1 22 32 4.95292 0 65 4.95292 1
gene 1 22 33 4.52959 0 66 4.52959 1
gene 1 23 31 -3.84328 0 67 -3.84328 1
gene 1 23 32 4.34088 0 68 4.34088 1
gene 1 23 33 0.574186 0 69 0.574186 1
gene 1 24 31 2.57976 0 70 2.57976 1
gene 1 24 32 0.733102 0 71 0.733102 1
gene 1 24 33 2.73187 0 72 2.73187 1
gene 1 25 31 -0.860315 0 73 -0.860315 1
gene 1 25 32 -1.7044 0 74 -1.7044 1
gene 1 25 33 -0.139079 0 75 -0.139079 1
gene 1 26 31 -1.82031 0 76 -1.82031 1
gene 1 26 32 0.635726 0 77 0.635726 1
gene 1 26 33 1.0148 0 78 1.0148 1
gene 1 27 31 -0.193788 0 79 -0.193788 1
gene 1 27 32 0.429291 0 80 0.429291 1
gene 1 27 33 0.358443 0 81 0.358443 1
gene 1 28 31 3.17291 0 82 3.17291 1
gene 1 28 32 0.933906 0 83 0.933906 1
gene 1 28 33 0.846065 0 84 0.846065 1
gene 1 29 31 0.0642029 0 85 0.0642029 1
gene 1 29 32 1.61947 0 86 1.61947 1
gene 1 29 33 -0.204422 0 87 -0.204422 1
gene 1 30 31 1.01642 0 88 1.01642 1
gene 1 30 32 -0.633739 0 89 -0.633739 1
gene 1 30 33 0.859848 0 90 0.859848 1
genomeend 14

/* Organism #15 Fitness: 14945.4 Error: 0 */
genomestart 15
trait 1 0.542681 0 0 1 0 0.975716 0.419249 0.235046 
node 1 1 1 1
node 2 1 1 1
node 3 1 1 1
node 4 1 1 1
node 5 1 1 1
node 6 1 1 1
node 7 1 1 1
node 8 1 1 1
node 9 1 1 1
node 10 1 1 1
node 11 1 1 1
node 12 1 1 1
node 13 1 1 1
node 14 1 1 1
node 15 1 1 1
node 16 1 1 1
node 17 1 1 1
node 18 1 1 1
node 19 1 1 1
node 20 1 1 1
node 21 1 1 1
node 22 1 1 1
node 23 1 1 1
node 24 1 1 1
node 25 1 1 1
node 26 1 1 1
node 27 1 1 1
node 28 1 1 1
node 29 1 1 1
node 30 1 1 3
node 31 1 0 2
node 32 1 0 2
node 33 1 0 2
gene 1 1 31 -4.4072 0 1 -4.4072 1
gene 1 1 32 -1.319 0 2 -1.319 1
gene 1 1 33 -0.724272 0 3 -0.724272 1
gene 1 2 31 -2.77007 0 4 -2.77007 1
gene 1 2 32 -0.278755 0 5 -0.278755 1
gene 1 2 33 -3.18892 0 6 -3.18892 1
gene 1 3 31 -1.3613 0 7 -1.3613 1
gene 1 3 32 -0.411332 0 8 -0.411332 1
gene 1 3 33 -0.361479 0 9 -0.361479 1
gene 1 4 31 2.50043 0 10 2.50043 1
gene 1 4 32 -2.2874 0 11 -2.2874 1
gene 1 4 33 -0.0615146 0 12 -0.0615146 1
gene 1 5 31 2.04293 0 13 2.04293 1
gene 1 5 32 -3.10357 0 14 -3.10357 1
gene 1 5 33 -0.163152 0 15 -0.163152 1
gene 1 6 31 1.91251 0 16 1.91251 1
gene 1 6 32 3.0902 0 17 3.0902 1
gene 1 6 33 -1.07655 0 18 -1.07655 1
gene 1 7 31 4.58871 0 19 4.58871 1
gene 1 7 32 -1.7044 0 20 -1.7044 1
gene 1 7 33 -0.954214 0 21 -0.954214 1
gene 1 8 31 -0.565237 0 22 -0.565237 1
gene 1 8 32 -4.52995 0 23 -4.52995 1
gene 1 8 33 -1.83033 0 24 -1.83033 1
gene 1 9 31 -2.72082 0 25 -2.72082 1
gene 1 9 32 1.81227 0 26 1.81227 1
gene 1 9 33 3.49375 0 27 3.49375 1
gene 1 10 31 0.455366 0 28 0.455366 1
gene 1 10 32 1.67719 0 29 1.67719 1
gene 1 10 33 0.19892 0 30 0.19892 1
gene 1 11 31 -4.49093 0 31 -4.49093 1
gene 1 11 32 -2.71466 0 32 -2.71466 1
gene 1 11 33 3.07008 0 33 3.07008 1
gene 1 12 31 -3.10405 0 34 -3.10405 1
gene 1 12 32 2.12927 0 35 2.12927 1
gene 1 12 33 1.69924 0 36 1.69924 1
gene 1 13 31 -1.55204 0 37 -1.55204 1
gene 1 13 32 1.41231 0 38 1.41231 1
gene 1 13 33 5 0 39 5 1
gene 1 14 31 0.0177039 0 40 0.0177039 1
gene 1 14 32 -4.98243 0 41 -4.98243 1
gene 1 14 33 -2.89145 0 42 -2.89145 1
gene 1 15 31 -1.54545 0 43 -1.54545 1
gene 1 15 32 -0.556956 0 44 -0.556956 1
gene 1 15 33 2.50792 0 45 2.50792 1
gene 1 16 31 0.590755 0 46 0.590755 1
gene 1 16 32 -0.689897 0 47 -0.689897 1
gene 1 16 33 -0.24095 0 48 -0.24095 1
gene 1 17 31 -3.95612 0 49 -3.95612 1
gene 1 17 32 -3.77751 0 50 -3.77751 1
gene 1 17 33 1.6801 0 51 1.6801 1
gene 1 18 31 -4.67245 0 52 -4.67245 1
gene 1 18 32 0.868905 0 53 0.868905 1
gene 1 18 33 -2.32571 0 54 -2.32571 1
gene 1 19 31 -0.882452 0 55 -0.882452 1
gene 1 19 32 -3.65806 0 56 -3.65806 1
gene 1 19 33 -0.106582 0 57 -0.106582 1
gene 1 20 31 -0.688656 0 58 -0.688656 1
gene 1 20 32 -0.106031 0 59 -0.106031 1
gene 1 20 33 -2.48725 0 60 -2.48725 1
gene 1 21 31 2.1789 0 61 2.1789 1
gene 1 21 32 -0.62261 0 62 -0.62261 1
gene 1 21 33 -4.78022 0 63 -4.78022 1
gene 1 22 31 -0.60788 0 64 -0.60788 1
gene 1 22 32 2.60813 0 65 2.60813 1
gene 1 22 33 4.26678 0 66 4.26678 1
gene 1 23 31 -1.3096 0 67 -1.3096 1
gene 1 23 32 3.73377 0 68 3.73377 1
gene 1 23 33 -0.417517 0 69 -0.417517 1
gene 1 24 31 3.16339 0 70 3.16339 1
gene 1 24 32 1.01834 0 71 1.01834 1
gene 1 24 33 2.46586 0 72 2.46586 1
gene 1 25 31 -0.735819 0 73 -0.735819 1
gene 1 25 32 0.797467 0 74 0.797467 1
gene 1 25 33 -2.27165 0 75 -2.27165 1
gene 1 26 31 0.328612 0 76 0.328612 1
gene 1 26 32 0.025965 0 77 0.025965 1
gene 1 26 33 0.679418 0 78 0.679418 1
gene 1 27 31 -1.23511 0 79 -1.23511 1
gene 1 27 32 -0.282469 0 80 -0.282469 1
gene 1 27 33 -0.101543 0 81 -0.101543 1
gene 1 28 31 -0.680983 0 82 -0.680983 1
gene 1 28 32 0.748556 0 83 0.748556 1
gene 1 28 33 -2.01882 0 84 -2.01882 1
gene 1 29 31 -3.99637 0 85 -3.99637 1
gene 1 29 32 1.12642 0 86 1.12642 1
gene 1 29 33 0.745804 0 87 0.745804 1
gene 1 30 31 1.67795 0 88 1.67795 1
gene 1 30 32 -0.322884 0 89 -0.322884 1
gene 1 30 33 -0.245431 0 90 -0.245431 1
genomeend 15

/* Organism #16 Fitness: 14319.3 Error: 0 */
genomestart 16
trait 1 0.552788 0 0 0.869965 0 0.975716 0.974524 0 
node 1 1 1 1
node 2 1 1 1
node 3 1 1 1
node 4 1 1 1
node 5 1 1 1
node 6 1 1 1
node 7 1 1 1
node 8 1 1 1
node 9 1 1 1
node 10 1 1 1
node 11 1 1 1
node 12 1 1 1
node 13 1 1 1
node 14 1 1 1
node 15 1 1 1
node 16 1 1 1
node 17 1 1 1
node 18 1 1 1
node 19 1 1 1
node 20 1 1 1
node 21 1 1 1
node 22 1 1 1
node 23 1 1 1
node 24 1 1 1
node 25 1 1 1
node 26 1 1 1
node 27 1 1 1
node 28 1 1 1
node 29 1 1 1
node 30 1 1 3
node 31 1 0 2
node 32 1 0 2
node 33 1 0 2
gene 1 1 31 -4.89477 0 1 -4.89477 1
gene 1 1 32 -2.95378 0 2 -2.95378 1
gene 1 1 33 -2.5125 0 3 -2.5125 1
gene 1 2 31 -0.966734 0 4 -0.966734 1
gene 1 2 32 -2.88273 0 5 -2.88273 1
gene 1 2 33 -1.86279 0 6 -1.86279 1
gene 1 3 31 -0.226216 0 7 -0.226216 1
gene 1 3 32 1.54386 0 8 1.54386 1
gene 1 3 33 -0.461449 0 9 -0.461449 1
gene 1 4 31 2.64844 0 10 2.64844 1
gene 1 4 32 -5 0 11 -5 1
gene 1 4 33 -0.371845 0 12 -0.371845 1
gene 1 5 31 1.83833 0 13 1.83833 1
gene 1 5 32 0.402201 0 14 0.402201 1
gene 1 5 33 0.102676 0 15 0.102676 1
gene 1 6 31 3.26183 0 16 3.26183 1
gene 1 6 32 0.546087 0 17 0.546087 1
gene 1 6 33 1.59848 0 18 1.59848 1
gene 1 7 31 3.78048 0 19 3.78048 1
gene 1 7 32 -4.92371 0 20 -4.92371 1
gene 1 7 33 0.81989 0 21 0.81989 1
gene 1 8 31 2.84489 0 22 2.84489 1
gene 1 8 32 -4.91663 0 23 -4.91663 1
gene 1 8 33 -1.55243 0 24 -1.55243 1
gene 1 9 31 -3.91606 0 25 -3.91606 1
gene 1 9 32 1.65676 0 26 1.65676 1
gene 1 9 33 2.83289 0 27 2.83289 1
gene 1 10 31 0.526699 0 28 0.526699 1
gene 1 10 32 1.33854 0 29 1.33854 1
gene 1 10 33 0.853027 0 30 0.853027 1
gene 1 11 31 -4.13651 0 31 -4.13651 1
gene 1 11 32 -4.71586 0 32 -4.71586 1
gene 1 11 33 1.82172 0 33 1.82172 1
gene 1 12 31 -0.613291 0 34 -0.613291 1
gene 1 12 32 -1.39861 0 35 -1.39861 1
gene 1 12 33 1.22334 0 36 1.22334 1
gene 1 13 31 -1.36084 0 37 -1.36084 1
gene 1 13 32 -0.636533 0 38 -0.636533 1
gene 1 13 33 4.54437 0 39 4.54437 1
gene 1 14 31 -2.25941 0 40 -2.25941 1
gene 1 14 32 -4.03084 0 41 -4.03084 1
gene 1 14 33 -5 0 42 -5 1
gene 1 15 31 -1.72728 0 43 -1.72728 1
gene 1 15 32 -0.165786 0 44 -0.165786 1
gene 1 15 33 4.07011 0 45 4.07011 1
gene 1 16 31 1.09909 0 46 1.09909 1
gene 1 16 32 -2.19092 0 47 -2.19092 1
gene 1 16 33 -0.244034 0 48 -0.244034 1
gene 1 17 31 -4.7044 0 49 -4.7044 1
gene 1 17 32 -4.50921 0 50 -4.50921 1
gene 1 17 33 -2.07878 0 51 -2.07878 1
gene 1 18 31 -5 0 52 -5 1
gene 1 18 32 2.80603 0 53 2.80603 1
gene 1 18 33 -0.85668 0 54 -0.85668 1
gene 1 19 31 -1.6088 0 55 -1.6088 1
gene 1 19 32 -4.528 0 56 -4.528 1
gene 1 19 33 0.531054 0 57 0.531054 1
gene 1 20 31 2.06233 0 58 2.06233 1
gene 1 20 32 1.86766 0 59 1.86766 1
gene 1 20 33 1.13422 0 60 1.13422 1
gene 1 21 31 0.958874 0 61 0.958874 1
gene 1 21 32 0.399126 0 62 0.399126 1
gene 1 21 33 -3.34771 0 63 -3.34771 1
gene 1 22 31 -0.667373 0 64 -0.667373 1
gene 1 22 32 5 0 65 5 1
gene 1 22 33 3.14991 0 66 3.14991 1
gene 1 23 31 -4.98044 0 67 -4.98044 1
gene 1 23 32 4.16672 0 68 4.16672 1
gene 1 23 33 1.50854 0 69 1.50854 1
gene 1 24 31 0.95694 0 70 0.95694 1
gene 1 24 32 1.61658 0 71 1.61658 1
gene 1 24 33 5 0 72 5 1
gene 1 25 31 0.612079 0 73 0.612079 1
gene 1 25 32 0.0675016 0 74 0.0675016 1
gene 1 25 33 2.01359 0 75 2.01359 1
gene 1 26 31 -0.271683 0 76 -0.271683 1
gene 1 26 32 -0.2592 0 77 -0.2592 1
gene 1 26 33 0.0332034 0 78 0.0332034 1
gene 1 27 31 0.971665 0 79 0.971665 1
gene 1 27 32 1.35411 0 80 1.35411 1
gene 1 27 33 0.746496 0 81 0.746496 1
gene 1 28 31 0.227354 0 82 0.227354 1
gene 1 28 32 2.6189 0 83 2.6189 1
gene 1 28 33 -0.204202 0 84 -0.204202 1
gene 1 29 31 -1.01647 0 85 -1.01647 1
gene 1 29 32 2.57002 0 86 2.57002 1
gene 1 29 33 -1.2533 0 87 -1.2533 1
gene 1 30 31 -0.486142 0 88 -0.486142 1
gene 1 30 32 -2.03313 0 89 -2.03313 1
gene 1 30 33 2.36206 0 90 2.36206 1
genomeend 16

/* Organism #17 Fitness: 14354.2 Error: 0 */
genomestart 17
trait 1 0.552788 0 0 0.647533 0 0.975716 1 0 
node 1 1 1 1
node 2 1 1 1
node 3 1 1 1
node 4 1 1 1
node 5 1 1 1
node 6 1 1 1
node 7 1 1 1
node 8 1 1 1
node 9 1 1 1
node 10 1 1 1
node 11 1 1 1
node 12 1 1 1
node 13 1 1 1
node 14 1 1 1
node 15 1 1 1
node 16 1 1 1
node 17 1 1 1
node 18 1 1 1
node 19 1 1 1
node 20 1 1 1
node 21 1 1 1
node 22 1 1 1
node 23 1 1 1
node 24 1 1 1
node 25 1 1 1
node 26 1 1 1
node 27 1 1 1
node 28 1 1 1
node 29 1 1 1
node 30 1 1 3
node 31 1 0 2
node 32 1 0 2
node 33 1 0 2
gene 1 1 31 -2.91706 0 1 -2.91706 1
gene 1 1 32 -1.66504 0 2 -1.66504 1
gene 1 1 33 -1.59966 0 3 -1.59966 1
gene 1 2 31 -1.07152 0 4 -1.07152 1
gene 1 2 32 -0.868795 0 5 -0.868795 1
gene 1 2 33 1.38941 0 6 1.38941 1
gene 1 3 31 -2.00005 0 7 -2.00005 1
gene 1 3 32 -1.28269 0 8 -1.28269 1
gene 1 3 33 0.998213 0 9 0.998213 1
gene 1 4 31 2.41111 0 10 2.41111 1
gene 1 4 32 -5 0 11 -5 1
gene 1 4 33 2.63687 0 12 2.63687 1
gene 1 5 31 1.50956 0 13 1.50956 1
gene 1 5 32 -4.08828 0 14 -4.08828 1
gene 1 5 33 -0.26092 0 15 -0.26092 1
gene 1 6 31 0.621647 0 16 0.621647 1
gene 1 6 32 1.81306 0 17 1.81306 1
gene 1 6 33 0.21902 0 18 0.21902 1
gene 1 7 31 4.88289 0 19 4.88289 1
gene 1 7 32 -2.00654 0 20 -2.00654 1
gene 1 7 33 1.06907 0 21 1.06907 1
gene 1 8 31 -0.424299 0 22 -0.424299 1
gene 1 8 32 -4.55411 0 23 -4.55411 1
gene 1 8 33 -3.71825 0 24 -3.71825 1
gene 1 9 31 -4.02727 0 25 -4.02727 1
gene 1 9 32 1.68504 0 26 1.68504 1
gene 1 9 33 1.87724 0 27 1.87724 1
gene 1 10 31 2.72146 0 28 2.72146 1
gene 1 10 32 1.20171 0 29 1.20171 1
gene 1 10 33 0.459371 0 30 0.459371 1
gene 1 11 31 -5 0 31 -5 1
gene 1 11 32 -2.36749 0 32 -2.36749 1
gene 1 11 33 4.1188 0 33 4.1188 1
gene 1 12 31 -5 0 34 -5 1
gene 1 12 32 -3.29191 0 35 -3.29191 1
gene 1 12 33 2.71821 0 36 2.71821 1
gene 1 13 31 -3.2825 0 37 -3.2825 1
gene 1 13 32 -0.120011 0 38 -0.120011 1
gene 1 13 33 3.62137 0 39 3.62137 1
gene 1 14 31 -0.999658 0 40 -0.999658 1
gene 1 14 32 2.883 0 41 2.883 1
gene 1 14 33 -3.59757 0 42 -3.59757 1
gene 1 15 31 -0.71008 0 43 -0.71008 1
gene 1 15 32 -0.490686 0 44 -0.490686 1
gene 1 15 33 3.7864 0 45 3.7864 1
gene 1 16 31 0.718167 0 46 0.718167 1
gene 1 16 32 -2.32755 0 47 -2.32755 1
gene 1 16 33 2.17576 0 48 2.17576 1
gene 1 17 31 -3.88537 0 49 -3.88537 1
gene 1 17 32 -4.70232 0 50 -4.70232 1
gene 1 17 33 0.454703 0 51 0.454703 1
gene 1 18 31 -4.16095 0 52 -4.16095 1
gene 1 18 32 3.32585 0 53 3.32585 1
gene 1 18 33 -2.84038 0 54 -2.84038 1
gene 1 19 31 -3.10176 0 55 -3.10176 1
gene 1 19 32 -4.49901 0 56 -4.49901 1
gene 1 19 33 -0.198672 0 57 -0.198672 1
gene 1 20 31 0.0666643 0 58 0.0666643 1
gene 1 20 32 -0.585972 0 59 -0.585972 1
gene 1 20 33 -3.80567 0 60 -3.80567 1
gene 1 21 31 1.68064 0 61 1.68064 1
gene 1 21 32 -0.673556 0 62 -0.673556 1
gene 1 21 33 -4.26469 0 63 -4.26469 1
gene 1 22 31 1.01946 0 64 1.01946 1
gene 1 22 32 5 0 65 5 1
gene 1 22 33 1.48457 0 66 1.48457 1
gene 1 23 31 -1.61265 0 67 -1.61265 1
gene 1 23 32 4.56714 0 68 4.56714 1
gene 1 23 33 0.287575 0 69 0.287575 1
gene 1 24 31 4.29674 0 70 4.29674 1
gene 1 24 32 0.57054 0 71 0.57054 1
gene 1 24 33 1.69278 0 72 1.69278 1
gene 1 25 31 -0.983388 0 73 -0.983388 1
gene 1 25 32 -0.570208 0 74 -0.570208 1
gene 1 25 33 1.79861 0 75 1.79861 1
gene 1 26 31 0.562726 0 76 0.562726 1
gene 1 26 32 0.218647 0 77 0.218647 1
gene 1 26 33 0.0910322 0 78 0.0910322 1
gene 1 27 31 0.785759 0 79 0.785759 1
gene 1 27 32 0.313986 0 80 0.313986 1
gene 1 27 33 -0.960922 0 81 -0.960922 1
gene 1 28 31 0.63688 0 82 0.63688 1
gene 1 28 32 -0.446677 0 83 -0.446677 1
gene 1 28 33 -0.913778 0 84 -0.913778 1
gene 1 29 31 0.0184509 0 85 0.0184509 1
gene 1 29 32 1.67411 0 86 1.67411 1
gene 1 29 33 -0.954962 0 87 -0.954962 1
gene 1 30 31 1.20942 0 88 1.20942 1
gene 1 30 32 -0.165293 0 89 -0.165293 1
gene 1 30 33 -0.0388067 0 90 -0.0388067 1
genomeend 17

/* Organism #18 Fitness: 13862.6 Error: 0 */
genomestart 18
trait 1 0.552788 0 0 0.869965 0 0.975716 0.974524 0 
node 1 1 1 1
node 2 1 1 1
node 3 1 1 1
node 4 1 1 1
node 5 1 1 1
node 6 1 1 1
node 7 1 1 1
node 8 1 1 1
node 9 1 1 1
node 10 1 1 1
node 11 1 1 1
node 12 1 1 1
node 13 1 1 1
node 14 1 1 1
node 15 1 1 1
node 16 1 1 1
node 17 1 1 1
node 18 1 1 1
node 19 1 1 1
node 20 1 1 1
node 21 1 1 1
node 22 1 1 1
node 23 1 1 1
node 24 1 1 1
node 25 1 1 1
node 26 1 1 1
node 27 1 1 1
node 28 1 1 1
node 29 1 1 1
node 30 1 1 3
node 31 1 0 2
node 32 1 0 2
node 33 1 0 2
gene 1 1 31 -4.89904 0 1 -4.89904 1
gene 1 1 32 -2.56785 0 2 -2.56785 1
gene 1 1 33 -2.37571 0 3 -2.37571 1
gene 1 2 31 -1.13771 0 4 -1.13771 1
gene 1 2 32 -1.75592 0 5 -1.75592 1
gene 1 2 33 -2.25891 0 6 -2.25891 1
gene 1 3 31 -1.24521 0 7 -1.24521 1
gene 1 3 32 -0.493464 0 8 -0.493464 1
gene 1 3 33 -1.96328 0 9 -1.96328 1
gene 1 4 31 2.71446 0 10 2.71446 1
gene 1 4 32 -5 0 11 -5 1
gene 1 4 33 -0.760268 0 12 -0.760268 1
gene 1 5 31 0.363152 0 13 0.363152 1
gene 1 5 32 2.23502 0 14 2.23502 1
gene 1 5 33 1.22592 0 15 1.22592 1
gene 1 6 31 0.215953 0 16 0.215953 1
gene 1 6 32 -0.0327263 0 17 -0.0327263 1
gene 1 6 33 2.01828 0 18 2.01828 1
gene 1 7 31 5 0 19 5 1
gene 1 7 32 -0.746677 0 20 -0.746677 1
gene 1 7 33 0.594707 0 21 0.594707 1
gene 1 8 31 0.377847 0 22 0.377847 1
gene 1 8 32 -3.92323 0 23 -3.92323 1
gene 1 8 33 0.234134 0 24 0.234134 1
gene 1 9 31 -1.58251 0 25 -1.58251 1
gene 1 9 32 2.13489 0 26 2.13489 1
gene 1 9 33 5 0 27 5 1
gene 1 10 31 -2.03036 0 28 -2.03036 1
gene 1 10 32 2.01015 0 29 2.01015 1
gene 1 10 33 3.16387 0 30 3.16387 1
gene 1 11 31 -4.52427 0 31 -4.52427 1
gene 1 11 32 -3.72813 0 32 -3.72813 1
gene 1 11 33 1.75737 0 33 1.75737 1
gene 1 12 31 -3.95087 0 34 -3.95087 1
gene 1 12 32 -1.45032 0 35 -1.45032 1
gene 1 12 33 0.656028 0 36 0.656028 1
gene 1 13 31 -3.14111 0 37 -3.14111 1
gene 1 13 32 2.50218 0 38 2.50218 1
gene 1 13 33 5 0 39 5 1
gene 1 14 31 -3.73368 0 40 -3.73368 1
gene 1 14 32 -2.47928 0 41 -2.47928 1
gene 1 14 33 -5 0 42 -5 1
gene 1 15 31 -2.85731 0 43 -2.85731 1
gene 1 15 32 1.35914 0 44 1.35914 1
gene 1 15 33 2.54078 0 45 2.54078 1
gene 1 16 31 -2.03326 0 46 -2.03326 1
gene 1 16 32 -2.95928 0 47 -2.95928 1
gene 1 16 33 2.81932 0 48 2.81932 1
gene 1 17 31 -5 0 49 -5 1
gene 1 17 32 -5 0 50 -5 1
gene 1 17 33 0.998513 0 51 0.998513 1
gene 1 18 31 -4.87463 0 52 -4.87463 1
gene 1 18 32 0.911605 0 53 0.911605 1
gene 1 18 33 -0.921739 0 54 -0.921739 1
gene 1 19 31 -2.48281 0 55 -2.48281 1
gene 1 19 32 -4.4182 0 56 -4.4182 1
gene 1 19 33 -1.31607 0 57 -1.31607 1
gene 1 20 31 -0.21894 0 58 -0.21894 1
gene 1 20 32 0.730487 0 59 0.730487 1
gene 1 20 33 -1.74372 0 60 -1.74372 1
gene 1 21 31 0.656018 0 61 0.656018 1
gene 1 21 32 -1.88024 0 62 -1.88024 1
gene 1 21 33 -4.84915 0 63 -4.84915 1
gene 1 22 31 -3.3299 0 64 -3.3299 1
gene 1 22 32 4.43888 0 65 4.43888 1
gene 1 22 33 4.16459 0 66 4.16459 1
gene 1 23 31 -1.44652 0 67 -1.44652 1
gene 1 23 32 5 0 68 5 1
gene 1 23 33 1.07593 0 69 1.07593 1
gene 1 24 31 2.30048 0 70 2.30048 1
gene 1 24 32 -0.667012 0 71 -0.667012 1
gene 1 24 33 2.1528 0 72 2.1528 1
gene 1 25 31 -2.03078 0 73 -2.03078 1
gene 1 25 32 1.25771 0 74 1.25771 1
gene 1 25 33 -1.22716 0 75 -1.22716 1
gene 1 26 31 -0.502815 0 76 -0.502815 1
gene 1 26 32 -0.580318 0 77 -0.580318 1
gene 1 26 33 0.29479 0 78 0.29479 1
gene 1 27 31 0.579394 0 79 0.579394 1
gene 1 27 32 -0.283473 0 80 -0.283473 1
gene 1 27 33 -0.0192473 0 81 -0.0192473 1
gene 1 28 31 0.552943 0 82 0.552943 1
gene 1 28 32 0.312643 0 83 0.312643 1
gene 1 28 33 -0.536897 0 84 -0.536897 1
gene 1 29 31 -0.326156 0 85 -0.326156 1
gene 1 29 32 -0.46521 0 86 -0.46521 1
gene 1 29 33 -2.4918 0 87 -2.4918 1
gene 1 30 31 2.36476 0 88 2.36476 1
gene 1 30 32 -1.02025 0 89 -1.02025 1
gene 1 30 33 -0.438599 0 90 -0.438599 1
genomeend 18

/* Organism #19 Fitness: 14039.4 Error: 0 */
genomestart 19
trait 1 0.552788 0 0 0.777823 0 0.975716 1 0 
node 1 1 1 1
node 2 1 1 1
node 3 1 1 1
node 4 1 1 1
node 5 1 1 1
node 6 1 1 1
node 7 1 1 1
node 8 1 1 1
node 9 1 1 1
node 10 1 1 1
node 11 1 1 1
node 12 1 1 1
node 13 1 1 1
node 14 1 1 1
node 15 1 1 1
node 16 1 1 1
node 17 1 1 1
node 18 1 1 1
node 19 1 1 1
node 20 1 1 1
node 21 1 1 1
node 22 1 1 1
node 23 1 1 1
node 24 1 1 1
node 25 1 1 1
node 26 1 1 1
node 27 1 1 1
node 28 1 1 1
node 29 1 1 1
node 30 1 1 3
node 31 1 0 2
node 32 1 0 2
node 33 1 0 2
gene 1 1 31 -2.5355 0 1 -2.5355 1
gene 1 1 32 -3.59456 0 2 -3.59456 1
gene 1 1 33 -0.336967 0 3 -0.336967 1
gene 1 2 31 -3.09227 0 4 -3.09227 1
gene 1 2 32 -1.98995 0 5 -1.98995 1
gene 1 2 33 -3.05214 0 6 -3.05214 1
gene 1 3 31 -1.63064 0 7 -1.63064 1
gene 1 3 32 -0.981376 0 8 -0.981376 1
gene 1 3 33 0.769476 0 9 0.769476 1
gene 1 4 31 3.18118 0 10 3.18118 1
gene 1 4 32 -4.01162 0 11 -4.01162 1
gene 1 4 33 0.188799 0 12 0.188799 1
gene 1 5 31 0.667938 0 13 0.667938 1
gene 1 5 32 -0.19248 0 14 -0.19248 1
gene 1 5 33 1.03018 0 15 1.03018 1
gene 1 6 31 0.972494 0 16 0.972494 1
gene 1 6 32 0.307105 0 17 0.307105 1
gene 1 6 33 0.588826 0 18 0.588826 1
gene 1 7 31 5 0 19 5 1
gene 1 7 32 -4.0361 0 20 -4.0361 1
gene 1 7 33 0.264919 0 21 0.264919 1
gene 1 8 31 -1.37801 0 22 -1.37801 1
gene 1 8 32 -3.43532 0 23 -3.43532 1
gene 1 8 33 -1.87489 0 24 -1.87489 1
gene 1 9 31 -3.39199 0 25 -3.39199 1
gene 1 9 32 1.52533 0 26 1.52533 1
gene 1 9 33 3.93555 0 27 3.93555 1
gene 1 10 31 2.39738 0 28 2.39738 1
gene 1 10 32 1.76741 0 29 1.76741 1
gene 1 10 33 1.30356 0 30 1.30356 1
gene 1 11 31 -2.08273 0 31 -2.08273 1
gene 1 11 32 -3.86908 0 32 -3.86908 1
gene 1 11 33 3.72008 0 33 3.72008 1
gene 1 12 31 -4.6714 0 34 -4.6714 1
gene 1 12 32 1.42003 0 35 1.42003 1
gene 1 12 33 0.941622 0 36 0.941622 1
gene 1 13 31 -0.976479 0 37 -0.976479 1
gene 1 13 32 0.472458 0 38 0.472458 1
gene 1 13 33 4.72638 0 39 4.72638 1
gene 1 14 31 -3.04662 0 40 -3.04662 1
gene 1 14 32 -0.232192 0 41 -0.232192 1
gene 1 14 33 -3.62534 0 42 -3.62534 1
gene 1 15 31 0.610628 0 43 0.610628 1
gene 1 15 32 0.884293 0 44 0.884293 1
gene 1 15 33 1.02442 0 45 1.02442 1
gene 1 16 31 1.27218 0 46 1.27218 1
gene 1 16 32 -3.02084 0 47 -3.02084 1
gene 1 16 33 -1.32944 0 48 -1.32944 1
gene 1 17 31 -4.31883 0 49 -4.31883 1
gene 1 17 32 -5 0 50 -5 1
gene 1 17 33 -2.45889 0 51 -2.45889 1
gene 1 18 31 -4.36491 0 52 -4.36491 1
gene 1 18 32 1.74002 0 53 1.74002 1
gene 1 18 33 -0.981764 0 54 -0.981764 1
gene 1 19 31 -2.10225 0 55 -2.10225 1
gene 1 19 32 -4.95625 0 56 -4.95625 1
gene 1 19 33 1.27104 0 57 1.27104 1
gene 1 20 31 -0.216109 0 58 -0.216109 1
gene 1 20 32 0.308281 0 59 0.308281 1
gene 1 20 33 0.750104 0 60 0.750104 1
gene 1 21 31 4.50715 0 61 4.50715 1
gene 1 21 32 -1.80773 0 62 -1.80773 1
gene 1 21 33 -5 0 63 -5 1
gene 1 22 31 0.0683514 0 64 0.0683514 1
gene 1 22 32 3.37611 0 65 3.37611 1
gene 1 22 33 4.85947 0 66 4.85947 1
gene 1 23 31 -0.642353 0 67 -0.642353 1
gene 1 23 32 3.77961 0 68 3.77961 1
gene 1 23 33 0.391243 0 69 0.391243 1
gene 1 24 31 -1.15001 0 70 -1.15001 1
gene 1 24 32 -1.82684 0 71 -1.82684 1
gene 1 24 33 3.73279 0 72 3.73279 1
gene 1 25 31 -0.420758 0 73 -0.420758 1
gene 1 25 32 0.618675 0 74 0.618675 1
gene 1 25 33 0.298229 0 75 0.298229 1
gene 1 26 31 -1.17492 0 76 -1.17492 1
gene 1 26 32 1.00221 0 77 1.00221 1
gene 1 26 33 0.433833 0 78 0.433833 1
gene 1 27 31 0.66756 0 79 0.66756 1
gene 1 27 32 -0.504145 0 80 -0.504145 1
gene 1 27 33 0.996401 0 81 0.996401 1
gene 1 28 31 -0.607999 0 82 -0.607999 1
gene 1 28 32 0.199326 0 83 0.199326 1
gene 1 28 33 -0.924298 0 84 -0.924298 1
gene 1 29 31 -2.20517 0 85 -2.20517 1
gene 1 29 32 1.06183 0 86 1.06183 1
gene 1 29 33 0.415445 0 87 0.415445 1
gene 1 30 31 1.91171 0 88 1.91171 1
gene 1 30 32 -1.15232 0 89 -1.15232 1
gene 1 30 33 3.02914 0 90 3.02914 1
genomeend 19

/* Organism #20 Fitness: 103.2 Error: 0 */
genomestart 20
trait 1 0.552788 0 0 0.777823 0.934533 0.975716 0.395067 0 
node 1 1 1 1
node 2 1 1 1
node 3 1 1 1
node 4 1 1 1
node 5 1 1 1
node 6 1 1 1
node 7 1 1 1
node 8 1 1 1
node 9 1 1 1
node 10 1 1 1
node 11 1 1 1
node 12 1 1 1
node 13 1 1 1
node 14 1 1 1
node 15 1 1 1
node 16 1 1 1
node 17 1 1 1
node 18 1 1 1
node 19 1 1 1
node 20 1 1 1
node 21 1 1 1
node 22 1 1 1
node 23 1 1 1
node 24 1 1 1
node 25 1 1 1
node 26 1 1 1
node 27 1 1 1
node 28 1 1 1
node 29 1 1 1
node 30 1 1 3
node 31 1 0 2
node 32 1 0 2
node 33 1 0 2
gene 1 1 31 -2.76875 0 1 -2.76875 1
gene 1 1 32 -4.2088 0 2 -4.2088 1
gene 1 1 33 0.385501 0 3 0.385501 1
gene 1 2 31 -3.80657 0 4 -3.80657 1
gene 1 2 32 -1.44084 0 5 -1.44084 1
gene 1 2 33 -2.33462 0 6 -2.33462 1
gene 1 3 31 -0.978588 0 7 -0.978588 1
gene 1 3 32 -1.06602 0 8 -1.06602 1
gene 1 3 33 0.759375 0 9 0.759375 1
gene 1 4 31 0.0176265 0 10 0.0176265 1
gene 1 4 32 -3.35391 0 11 -3.35391 1
gene 1 4 33 0.188799 0 12 0.188799 1
gene 1 5 31 0.0490707 0 13 0.0490707 1
gene 1 5 32 0.512594 0 14 0.512594 1
gene 1 5 33 1.03018 0 15 1.03018 1
gene 1 6 31 0.192266 0 16 0.192266 1
gene 1 6 32 0.299498 0 17 0.299498 1
gene 1 6 33 1.50223 0 18 1.50223 1
gene 1 7 31 5 0 19 5 1
gene 1 7 32 -3.50459 0 20 -3.50459 1
gene 1 7 33 0.994387 0 21 0.994387 1
gene 1 8 31 -1.47098 0 22 -1.47098 1
gene 1 8 32 -4.12849 0 23 -4.12849 1
gene 1 8 33 -0.630689 0 24 -0.630689 1
gene 1 9 31 -3.46697 0 25 -3.46697 1
gene 1 9 32 -0.0920786 0 26 -0.0920786 1
gene 1 9 33 0.673992 0 27 0.673992 1
gene 1 10 31 2.39738 0 28 2.39738 1
gene 1 10 32 1.76741 0 29 1.76741 1
gene 1 10 33 1.06288 0 30 1.06288 1
gene 1 11 31 -2.40463 0 31 -2.40463 1
gene 1 11 32 -4.75555 0 32 -4.75555 1
gene 1 11 33 4.26873 0 33 4.26873 1
gene 1 12 31 -4.70228 0 34 -4.70228 1
gene 1 12 32 1.42003 0 35 1.42003 1
gene 1 12 33 0.147575 0 36 0.147575 1
gene 1 13 31 -0.927816 0 37 -0.927816 1
gene 1 13 32 0.472458 0 38 0.472458 1
gene 1 13 33 5 0 39 5 1
gene 1 14 31 -3.7809 0 40 -3.7809 1
gene 1 14 32 -0.232192 0 41 -0.232192 1
gene 1 14 33 -2.6578 0 42 -2.6578 1
gene 1 15 31 1.60274 0 43 1.60274 1
gene 1 15 32 1.31623 0 44 1.31623 1
gene 1 15 33 2.01649 0 45 2.01649 1
gene 1 16 31 2.21945 0 46 2.21945 1
gene 1 16 32 -3.09862 0 47 -3.09862 1
gene 1 16 33 -0.39119 0 48 -0.39119 1
gene 1 17 31 -3.51792 0 49 -3.51792 1
gene 1 17 32 -0.231116 0 50 -0.231116 1
gene 1 17 33 -2.6722 0 51 -2.6722 1
gene 1 18 31 -5 0 52 -5 1
gene 1 18 32 0.830192 0 53 0.830192 1
gene 1 18 33 0.410282 0 54 0.410282 1
gene 1 19 31 -0.873938 0 55 -0.873938 1
gene 1 19 32 0.375781 0 56 0.375781 1
gene 1 19 33 1.26315 0 57 1.26315 1
gene 1 20 31 -0.660364 0 58 -0.660364 1
gene 1 20 32 1.238 0 59 1.238 1
gene 1 20 33 1.62395 0 60 1.62395 1
gene 1 21 31 5 0 61 5 1
gene 1 21 32 -1.98972 0 62 -1.98972 1
gene 1 21 33 -5 0 63 -5 1
gene 1 22 31 0.0683514 0 64 0.0683514 1
gene 1 22 32 3.07697 0 65 3.07697 1
gene 1 22 33 0.349855 0 66 0.349855 1
gene 1 23 31 0.0828589 0 67 0.0828589 1
gene 1 23 32 4.32643 0 68 4.32643 1
gene 1 23 33 0.535789 0 69 0.535789 1
gene 1 24 31 -0.979326 0 70 -0.979326 1
gene 1 24 32 -1.82684 0 71 -1.82684 1
gene 1 24 33 -0.450386 0 72 -0.450386 1
gene 1 25 31 -0.0099198 0 73 -0.0099198 1
gene 1 25 32 0.85166 0 74 0.85166 1
gene 1 25 33 0.298229 0 75 0.298229 1
gene 1 26 31 -0.424689 0 76 -0.424689 1
gene 1 26 32 1.38688 0 77 1.38688 1
gene 1 26 33 0.433833 0 78 0.433833 1
gene 1 27 31 0.977015 0 79 0.977015 1
gene 1 27 32 -0.377133 0 80 -0.377133 1
gene 1 27 33 0.985421 0 81 0.985421 1
gene 1 28 31 -0.842236 0 82 -0.842236 1
gene 1 28 32 0.562006 0 83 0.562006 1
gene 1 28 33 -1.40644 0 84 -1.40644 1
gene 1 29 31 -0.610914 0 85 -0.610914 1
gene 1 29 32 1.68475 0 86 1.68475 1
gene 1 29 33 0.893956 0 87 0.893956 1
gene 1 30 31 2.34361 0 88 2.34361 1
gene 1 30 32 -0.471307 0 89 -0.471307 1
gene 1 30 33 2.45812 0 90 2.45812 1
genomeend 20

/* Organism #21 Fitness: 3981.3 Error: 0 */
genomestart 21
trait 1 0.552788 0.0819375 0 0.869965 0 0.975716 1 0.602465 
node 1 1 1 1
node 2 1 1 1
node 3 1 1 1
node 4 1 1 1
node 5 1 1 1
node 6 1 1 1
node 7 1 1 1
node 8 1 1 1
node 9 1 1 1
node 10 1 1 1
node 11 1 1 1
node 12 1 1 1
node 13 1 1 1
node 14 1 1 1
node 15 1 1 1
node 16 1 1 1
node 17 1 1 1
node 18 1 1 1
node 19 1 1 1
node 20 1 1 1
node 21 1 1 1
node 22 1 1 1
node 23 1 1 1
node 24 1 1 1
node 25 1 1 1
node 26 1 1 1
node 27 1 1 1
node 28 1 1 1
node 29 1 1 1
node 30 1 1 3
node 31 1 0 2
node 32 1 0 2
node 33 1 0 2
gene 1 1 31 -3.72394 0 1 -3.72394 1
gene 1 1 32 -3.89098 0 2 -3.89098 1
gene 1 1 33 -3.37978 0 3 -3.37978 1
gene 1 2 31 -2.5354 0 4 -2.5354 1
gene 1 2 32 -3.52035 0 5 -3.52035 1
gene 1 2 33 -3.77853 0 6 -3.77853 1
gene 1 3 31 -0.12737 0 7 -0.12737 1
gene 1 3 32 0.191007 0 8 0.191007 1
gene 1 3 33 -0.633345 0 9 -0.633345 1
gene 1 4 31 3.70331 0 10 3.70331 1
gene 1 4 32 -3.82279 0 11 -3.82279 1
gene 1 4 33 0.745602 0 12 0.745602 1
gene 1 5 31 2.33554 0 13 2.33554 1
gene 1 5 32 3.28857 0 14 3.28857 1
gene 1 5 33 -0.742506 0 15 -0.742506 1
gene 1 6 31 0.632332 0 16 0.632332 1
gene 1 6 32 0.809503 0 17 0.809503 1
gene 1 6 33 0.607343 0 18 0.607343 1
gene 1 7 31 3.46277 0 19 3.46277 1
gene 1 7 32 -3.41181 0 20 -3.41181 1
gene 1 7 33 0.957761 0 21 0.957761 1
gene 1 8 31 1.1559 0 22 1.1559 1
gene 1 8 32 -4.46537 0 23 -4.46537 1
gene 1 8 33 -0.746352 0 24 -0.746352 1
gene 1 9 31 -3.40553 0 25 -3.40553 1
gene 1 9 32 1.50612 0 26 1.50612 1
gene 1 9 33 2.21243 0 27 2.21243 1
gene 1 10 31 0.525789 0 28 0.525789 1
gene 1 10 32 1.17622 0 29 1.17622 1
gene 1 10 33 -0.172153 0 30 -0.172153 1
gene 1 11 31 -5 0 31 -5 1
gene 1 11 32 -3.61418 0 32 -3.61418 1
gene 1 11 33 3.08395 0 33 3.08395 1
gene 1 12 31 -1.9407 0 34 -1.9407 1
gene 1 12 32 2.05851 0 35 2.05851 1
gene 1 12 33 0.384638 0 36 0.384638 1
gene 1 13 31 0.751972 0 37 0.751972 1
gene 1 13 32 0.452941 0 38 0.452941 1
gene 1 13 33 4.79594 0 39 4.79594 1
gene 1 14 31 -1.6897 0 40 -1.6897 1
gene 1 14 32 -1.78711 0 41 -1.78711 1
gene 1 14 33 -3.64301 0 42 -3.64301 1
gene 1 15 31 -2.54491 0 43 -2.54491 1
gene 1 15 32 0.804179 0 44 0.804179 1
gene 1 15 33 2.85712 0 45 2.85712 1
gene 1 16 31 -0.434947 0 46 -0.434947 1
gene 1 16 32 -3.77074 0 47 -3.77074 1
gene 1 16 33 1.54426 0 48 1.54426 1
gene 1 17 31 -4.50055 0 49 -4.50055 1
gene 1 17 32 -3.47842 0 50 -3.47842 1
gene 1 17 33 -0.279921 0 51 -0.279921 1
gene 1 18 31 -5 0 52 -5 1
gene 1 18 32 2.58588 0 53 2.58588 1
gene 1 18 33 2.11566 0 54 2.11566 1
gene 1 19 31 -3.19568 0 55 -3.19568 1
gene 1 19 32 -4.63225 0 56 -4.63225 1
gene 1 19 33 -1.2871 0 57 -1.2871 1
gene 1 20 31 0.797769 0 58 0.797769 1
gene 1 20 32 1.7024 0 59 1.7024 1
gene 1 20 33 0.129746 0 60 0.129746 1
gene 1 21 31 2.19249 0 61 2.19249 1
gene 1 21 32 -0.750624 0 62 -0.750624 1
gene 1 21 33 -4.06051 0 63 -4.06051 1
gene 1 22 31 -1.26046 0 64 -1.26046 1
gene 1 22 32 5 0 65 5 1
gene 1 22 33 3.66458 0 66 3.66458 1
gene 1 23 31 -3.99949 0 67 -3.99949 1
gene 1 23 32 5 0 68 5 1
gene 1 23 33 1.11382 0 69 1.11382 1
gene 1 24 31 -0.609933 0 70 -0.609933 1
gene 1 24 32 2.01424 0 71 2.01424 1
gene 1 24 33 2.60054 0 72 2.60054 1
gene 1 25 31 0.564158 0 73 0.564158 1
gene 1 25 32 -0.646298 0 74 -0.646298 1
gene 1 25 33 -0.558533 0 75 -0.558533 1
gene 1 26 31 -0.628683 0 76 -0.628683 1
gene 1 26 32 -1.0014 0 77 -1.0014 1
gene 1 26 33 -0.615586 0 78 -0.615586 1
gene 1 27 31 -0.231496 0 79 -0.231496 1
gene 1 27 32 -0.0740848 0 80 -0.0740848 1
gene 1 27 33 1.18598 0 81 1.18598 1
gene 1 28 31 3.87441 0 82 3.87441 1
gene 1 28 32 -0.814786 0 83 -0.814786 1
gene 1 28 33 -1.86436 0 84 -1.86436 1
gene 1 29 31 -0.363105 0 85 -0.363105 1
gene 1 29 32 2.50555 0 86 2.50555 1
gene 1 29 33 0.308495 0 87 0.308495 1
gene 1 30 31 0.524868 0 88 0.524868 1
gene 1 30 32 -0.171155 0 89 -0.171155 1
gene 1 30 33 -0.962272 0 90 -0.962272 1
genomeend 21

/* Organism #22 Fitness: 13265.7 Error: 0 */
genomestart 22
trait 1 0.552788 0 0 0.869965 0 0.975716 0.974524 0 
node 1 1 1 1
node 2 1 1 1
node 3 1 1 1
node 4 1 1 1
node 5 1 1 1
node 6 1 1 1
node 7 1 1 1
node 8 1 1 1
node 9 1 1 1
node 10 1 1 1
node 11 1 1 1
node 12 1 1 1
node 13 1 1 1
node 14 1 1 1
node 15 1 1 1
node 16 1 1 1
node 17 1 1 1
node 18 1 1 1
node 19 1 1 1
node 20 1 1 1
node 21 1 1 1
node 22 1 1 1
node 23 1 1 1
node 24 1 1 1
node 25 1 1 1
node 26 1 1 1
node 27 1 1 1
node 28 1 1 1
node 29 1 1 1
node 30 1 1 3
node 31 1 0 2
node 32 1 0 2
node 33 1 0 2
gene 1 1 31 -4.99654 0 1 -4.99654 1
gene 1 1 32 -2.74696 0 2 -2.74696 1
gene 1 1 33 1.06501 0 3 1.06501 1
gene 1 2 31 -1.99349 0 4 -1.99349 1
gene 1 2 32 -1.05649 0 5 -1.05649 1
gene 1 2 33 -1.28212 0 6 -1.28212 1
gene 1 3 31 1.26013 0 7 1.26013 1
gene 1 3 32 1.93597 0 8 1.93597 1
gene 1 3 33 -0.909629 0 9 -0.909629 1
gene 1 4 31 3.3932 0 10 3.3932 1
gene 1 4 32 -4.02223 0 11 -4.02223 1
gene 1 4 33 -2.2462 0 12 -2.2462 1
gene 1 5 31 0.819333 0 13 0.819333 1
gene 1 5 32 0.118075 0 14 0.118075 1
gene 1 5 33 1.00899 0 15 1.00899 1
gene 1 6 31 1.97233 0 16 1.97233 1
gene 1 6 32 1.24293 0 17 1.24293 1
gene 1 6 33 0.809061 0 18 0.809061 1
gene 1 7 31 4.46597 0 19 4.46597 1
gene 1 7 32 -1.57986 0 20 -1.57986 1
gene 1 7 33 2.26494 0 21 2.26494 1
gene 1 8 31 0.771123 0 22 0.771123 1
gene 1 8 32 -4.95279 0 23 -4.95279 1
gene 1 8 33 0.171269 0 24 0.171269 1
gene 1 9 31 -3.22127 0 25 -3.22127 1
gene 1 9 32 3.52541 0 26 3.52541 1
gene 1 9 33 1.68263 0 27 1.68263 1
gene 1 10 31 -0.767788 0 28 -0.767788 1
gene 1 10 32 -0.447715 0 29 -0.447715 1
gene 1 10 33 -0.414269 0 30 -0.414269 1
gene 1 11 31 0.79578 0 31 0.79578 1
gene 1 11 32 -3.17204 0 32 -3.17204 1
gene 1 11 33 3.40387 0 33 3.40387 1
gene 1 12 31 -3.18324 0 34 -3.18324 1
gene 1 12 32 -0.735869 0 35 -0.735869 1
gene 1 12 33 -1.724 0 36 -1.724 1
gene 1 13 31 -2.04033 0 37 -2.04033 1
gene 1 13 32 0.846444 0 38 0.846444 1
gene 1 13 33 3.53861 0 39 3.53861 1
gene 1 14 31 -1.67904 0 40 -1.67904 1
gene 1 14 32 -3.84111 0 41 -3.84111 1
gene 1 14 33 -3.92936 0 42 -3.92936 1
gene 1 15 31 -1.94684 0 43 -1.94684 1
gene 1 15 32 2.17567 0 44 2.17567 1
gene 1 15 33 3.10442 0 45 3.10442 1
gene 1 16 31 -0.684434 0 46 -0.684434 1
gene 1 16 32 0.433232 0 47 0.433232 1
gene 1 16 33 2.63942 0 48 2.63942 1
gene 1 17 31 -4.83476 0 49 -4.83476 1
gene 1 17 32 -4.47428 0 50 -4.47428 1
gene 1 17 33 -2.14635 0 51 -2.14635 1
gene 1 18 31 -4.11991 0 52 -4.11991 1
gene 1 18 32 0.979829 0 53 0.979829 1
gene 1 18 33 -1.30717 0 54 -1.30717 1
gene 1 19 31 -1.75129 0 55 -1.75129 1
gene 1 19 32 -4.39931 0 56 -4.39931 1
gene 1 19 33 -1.72177 0 57 -1.72177 1
gene 1 20 31 1.11815 0 58 1.11815 1
gene 1 20 32 -0.390706 0 59 -0.390706 1
gene 1 20 33 -0.573959 0 60 -0.573959 1
gene 1 21 31 1.53831 0 61 1.53831 1
gene 1 21 32 0.415353 0 62 0.415353 1
gene 1 21 33 -4.2407 0 63 -4.2407 1
gene 1 22 31 -1.5138 0 64 -1.5138 1
gene 1 22 32 4.66864 0 65 4.66864 1
gene 1 22 33 4.99206 0 66 4.99206 1
gene 1 23 31 -3.10632 0 67 -3.10632 1
gene 1 23 32 5 0 68 5 1
gene 1 23 33 1.07529 0 69 1.07529 1
gene 1 24 31 1.78279 0 70 1.78279 1
gene 1 24 32 1.67576 0 71 1.67576 1
gene 1 24 33 3.3189 0 72 3.3189 1
gene 1 25 31 0.320801 0 73 0.320801 1
gene 1 25 32 0.574418 0 74 0.574418 1
gene 1 25 33 -0.458224 0 75 -0.458224 1
gene 1 26 31 -0.680747 0 76 -0.680747 1
gene 1 26 32 0.773856 0 77 0.773856 1
gene 1 26 33 0.148469 0 78 0.148469 1
gene 1 27 31 0.515999 0 79 0.515999 1
gene 1 27 32 0.723013 0 80 0.723013 1
gene 1 27 33 1.35785 0 81 1.35785 1
gene 1 28 31 3.90076 0 82 3.90076 1
gene 1 28 32 0.371137 0 83 0.371137 1
gene 1 28 33 -0.600704 0 84 -0.600704 1
gene 1 29 31 -1.03913 0 85 -1.03913 1
gene 1 29 32 2.017 0 86 2.017 1
gene 1 29 33 -0.126045 0 87 -0.126045 1
gene 1 30 31 0.375647 0 88 0.375647 1
gene 1 30 32 0.706237 0 89 0.706237 1
gene 1 30 33 0.859848 0 90 0.859848 1
genomeend 22

/* Organism #23 Fitness: 12550.3 Error: 0 */
genomestart 23
trait 1 0.552788 0 0 0.869965 0 0.975716 0.974524 0 
node 1 1 1 1
node 2 1 1 1
node 3 1 1 1
node 4 1 1 1
node 5 1 1 1
node 6 1 1 1
node 7 1 1 1
node 8 1 1 1
node 9 1 1 1
node 10 1 1 1
node 11 1 1 1
node 12 1 1 1
node 13 1 1 1
node 14 1 1 1
node 15 1 1 1
node 16 1 1 1
node 17 1 1 1
node 18 1 1 1
node 19 1 1 1
node 20 1 1 1
node 21 1 1 1
node 22 1 1 1
node 23 1 1 1
node 24 1 1 1
node 25 1 1 1
node 26 1 1 1
node 27 1 1 1
node 28 1 1 1
node 29 1 1 1
node 30 1 1 3
node 31 1 0 2
node 32 1 0 2
node 33 1 0 2
gene 1 1 31 -5 0 1 -5 1
gene 1 1 32 -2.84558 0 2 -2.84558 1
gene 1 1 33 -2.60619 0 3 -2.60619 1
gene 1 2 31 -0.002686 0 4 -0.002686 1
gene 1 2 32 -2.94174 0 5 -2.94174 1
gene 1 2 33 -1.58308 0 6 -1.58308 1
gene 1 3 31 -0.0580347 0 7 -0.0580347 1
gene 1 3 32 2.33722 0 8 2.33722 1
gene 1 3 33 -0.805832 0 9 -0.805832 1
gene 1 4 31 2.74889 0 10 2.74889 1
gene 1 4 32 -5 0 11 -5 1
gene 1 4 33 -0.401794 0 12 -0.401794 1
gene 1 5 31 1.93065 0 13 1.93065 1
gene 1 5 32 0.608583 0 14 0.608583 1
gene 1 5 33 -0.386599 0 15 -0.386599 1
gene 1 6 31 2.5635 0 16 2.5635 1
gene 1 6 32 -0.405293 0 17 -0.405293 1
gene 1 6 33 2.24723 0 18 2.24723 1
gene 1 7 31 3.66525 0 19 3.66525 1
gene 1 7 32 -5 0 20 -5 1
gene 1 7 33 0.235972 0 21 0.235972 1
gene 1 8 31 2.43703 0 22 2.43703 1
gene 1 8 32 -4.11273 0 23 -4.11273 1
gene 1 8 33 -1.60394 0 24 -1.60394 1
gene 1 9 31 -3.3981 0 25 -3.3981 1
gene 1 9 32 1.82536 0 26 1.82536 1
gene 1 9 33 2.00181 0 27 2.00181 1
gene 1 10 31 0.545545 0 28 0.545545 1
gene 1 10 32 2.32244 0 29 2.32244 1
gene 1 10 33 0.945193 0 30 0.945193 1
gene 1 11 31 -3.75706 0 31 -3.75706 1
gene 1 11 32 -3.87274 0 32 -3.87274 1
gene 1 11 33 2.80521 0 33 2.80521 1
gene 1 12 31 0.175932 0 34 0.175932 1
gene 1 12 32 -0.447667 0 35 -0.447667 1
gene 1 12 33 1.75142 0 36 1.75142 1
gene 1 13 31 -0.469881 0 37 -0.469881 1
gene 1 13 32 -0.11299 0 38 -0.11299 1
gene 1 13 33 3.88309 0 39 3.88309 1
gene 1 14 31 -2.48017 0 40 -2.48017 1
gene 1 14 32 -3.77453 0 41 -3.77453 1
gene 1 14 33 -5 0 42 -5 1
gene 1 15 31 -2.3845 0 43 -2.3845 1
gene 1 15 32 -1.07676 0 44 -1.07676 1
gene 1 15 33 3.0798 0 45 3.0798 1
gene 1 16 31 0.305468 0 46 0.305468 1
gene 1 16 32 -3.13268 0 47 -3.13268 1
gene 1 16 33 0.274505 0 48 0.274505 1
gene 1 17 31 -4.48633 0 49 -4.48633 1
gene 1 17 32 -5 0 50 -5 1
gene 1 17 33 -1.12056 0 51 -1.12056 1
gene 1 18 31 -5 0 52 -5 1
gene 1 18 32 2.14986 0 53 2.14986 1
gene 1 18 33 -0.736239 0 54 -0.736239 1
gene 1 19 31 -1.98924 0 55 -1.98924 1
gene 1 19 32 -3.83923 0 56 -3.83923 1
gene 1 19 33 0.216459 0 57 0.216459 1
gene 1 20 31 1.08188 0 58 1.08188 1
gene 1 20 32 1.29559 0 59 1.29559 1
gene 1 20 33 0.718521 0 60 0.718521 1
gene 1 21 31 1.89403 0 61 1.89403 1
gene 1 21 32 1.2213 0 62 1.2213 1
gene 1 21 33 -3.63804 0 63 -3.63804 1
gene 1 22 31 -1.60136 0 64 -1.60136 1
gene 1 22 32 5 0 65 5 1
gene 1 22 33 2.71959 0 66 2.71959 1
gene 1 23 31 -4.53872 0 67 -4.53872 1
gene 1 23 32 4.6423 0 68 4.6423 1
gene 1 23 33 1.96383 0 69 1.96383 1
gene 1 24 31 1.83426 0 70 1.83426 1
gene 1 24 32 2.54322 0 71 2.54322 1
gene 1 24 33 5 0 72 5 1
gene 1 25 31 1.18695 0 73 1.18695 1
gene 1 25 32 0.0675016 0 74 0.0675016 1
gene 1 25 33 2.02117 0 75 2.02117 1
gene 1 26 31 -0.562362 0 76 -0.562362 1
gene 1 26 32 -0.553468 0 77 -0.553468 1
gene 1 26 33 0.0419703 0 78 0.0419703 1
gene 1 27 31 1.25791 0 79 1.25791 1
gene 1 27 32 2.12045 0 80 2.12045 1
gene 1 27 33 0.746496 0 81 0.746496 1
gene 1 28 31 0.227354 0 82 0.227354 1
gene 1 28 32 2.95084 0 83 2.95084 1
gene 1 28 33 -0.413006 0 84 -0.413006 1
gene 1 29 31 -1.29091 0 85 -1.29091 1
gene 1 29 32 2.57002 0 86 2.57002 1
gene 1 29 33 -0.378808 0 87 -0.378808 1
gene 1 30 31 -1.3092 0 88 -1.3092 1
gene 1 30 32 -1.79518 0 89 -1.79518 1
gene 1 30 33 2.12507 0 90 2.12507 1
genomeend 23

/* Organism #24 Fitness: 13269.2 Error: 0 */
genomestart 24
trait 1 0.552788 0 0 0.869965 0 0.975716 0.974524 0 
node 1 1 1 1
node 2 1 1 1
node 3 1 1 1
node 4 1 1 1
node 5 1 1 1
node 6 1 1 1
node 7 1 1 1
node 8 1 1 1
node 9 1 1 1
node 10 1 1 1
node 11 1 1 1
node 12 1 1 1
node 13 1 1 1
node 14 1 1 1
node 15 1 1 1
node 16 1 1 1
node 17 1 1 1
node 18 1 1 1
node 19 1 1 1
node 20 1 1 1
node 21 1 1 1
node 22 1 1 1
node 23 1 1 1
node 24 1 1 1
node 25 1 1 1
node 26 1 1 1
node 27 1 1 1
node 28 1 1 1
node 29 1 1 1
node 30 1 1 3
node 31 1 0 2
node 32 1 0 2
node 33 1 0 2
gene 1 1 31 -3.56625 0 1 -3.56625 1
gene 1 1 32 -2.68625 0 2 -2.68625 1
gene 1 1 33 1.61597 0 3 1.61597 1
gene 1 2 31 -1.82913 0 4 -1.82913 1
gene 1 2 32 -1.84339 0 5 -1.84339 1
gene 1 2 33 -2.25054 0 6 -2.25054 1
gene 1 3 31 1.89298 0 7 1.89298 1
gene 1 3 32 1.31811 0 8 1.31811 1
gene 1 3 33 -1.38826 0 9 -1.38826 1
gene 1 4 31 4.63 0 10 4.63 1
gene 1 4 32 -5 0 11 -5 1
gene 1 4 33 -0.778727 0 12 -0.778727 1
gene 1 5 31 0.714541 0 13 0.714541 1
gene 1 5 32 0.400397 0 14 0.400397 1
gene 1 5 33 0.566482 0 15 0.566482 1
gene 1 6 31 2.46868 0 16 2.46868 1
gene 1 6 32 1.63013 0 17 1.63013 1
gene 1 6 33 0.566711 0 18 0.566711 1
gene 1 7 31 4.01216 0 19 4.01216 1
gene 1 7 32 -2.55592 0 20 -2.55592 1
gene 1 7 33 0.651155 0 21 0.651155 1
gene 1 8 31 0.993442 0 22 0.993442 1
gene 1 8 32 -3.44615 0 23 -3.44615 1
gene 1 8 33 -0.0178804 0 24 -0.0178804 1
gene 1 9 31 -3.3268 0 25 -3.3268 1
gene 1 9 32 1.468 0 26 1.468 1
gene 1 9 33 2.91984 0 27 2.91984 1
gene 1 10 31 -1.77175 0 28 -1.77175 1
gene 1 10 32 -1.40918 0 29 -1.40918 1
gene 1 10 33 0.58109 0 30 0.58109 1
gene 1 11 31 0.527399 0 31 0.527399 1
gene 1 11 32 -4.43617 0 32 -4.43617 1
gene 1 11 33 2.868 0 33 2.868 1
gene 1 12 31 -4.57158 0 34 -4.57158 1
gene 1 12 32 0.251985 0 35 0.251985 1
gene 1 12 33 -2.23033 0 36 -2.23033 1
gene 1 13 31 -1.33294 0 37 -1.33294 1
gene 1 13 32 1.38473 0 38 1.38473 1
gene 1 13 33 4.18289 0 39 4.18289 1
gene 1 14 31 -1.70321 0 40 -1.70321 1
gene 1 14 32 -3.03137 0 41 -3.03137 1
gene 1 14 33 -4.31597 0 42 -4.31597 1
gene 1 15 31 0.0636427 0 43 0.0636427 1
gene 1 15 32 1.1518 0 44 1.1518 1
gene 1 15 33 4.21713 0 45 4.21713 1
gene 1 16 31 0.775429 0 46 0.775429 1
gene 1 16 32 -0.372525 0 47 -0.372525 1
gene 1 16 33 3.23719 0 48 3.23719 1
gene 1 17 31 -4.29396 0 49 -4.29396 1
gene 1 17 32 -3.2269 0 50 -3.2269 1
gene 1 17 33 -0.694598 0 51 -0.694598 1
gene 1 18 31 -5 0 52 -5 1
gene 1 18 32 2.87782 0 53 2.87782 1
gene 1 18 33 -1.43882 0 54 -1.43882 1
gene 1 19 31 -1.91398 0 55 -1.91398 1
gene 1 19 32 -4.27802 0 56 -4.27802 1
gene 1 19 33 0.616779 0 57 0.616779 1
gene 1 20 31 0.55868 0 58 0.55868 1
gene 1 20 32 -1.04555 0 59 -1.04555 1
gene 1 20 33 -0.507978 0 60 -0.507978 1
gene 1 21 31 1.99567 0 61 1.99567 1
gene 1 21 32 0.270236 0 62 0.270236 1
gene 1 21 33 -4.58438 0 63 -4.58438 1
gene 1 22 31 -1.50348 0 64 -1.50348 1
gene 1 22 32 4.0277 0 65 4.0277 1
gene 1 22 33 5 0 66 5 1
gene 1 23 31 -2.91155 0 67 -2.91155 1
gene 1 23 32 5 0 68 5 1
gene 1 23 33 0.250603 0 69 0.250603 1
gene 1 24 31 2.29908 0 70 2.29908 1
gene 1 24 32 1.05368 0 71 1.05368 1
gene 1 24 33 2.22081 0 72 2.22081 1
gene 1 25 31 -0.80169 0 73 -0.80169 1
gene 1 25 32 -1.7044 0 74 -1.7044 1
gene 1 25 33 -0.139079 0 75 -0.139079 1
gene 1 26 31 -2.08141 0 76 -2.08141 1
gene 1 26 32 0.635726 0 77 0.635726 1
gene 1 26 33 1.0148 0 78 1.0148 1
gene 1 27 31 -0.177008 0 79 -0.177008 1
gene 1 27 32 0.571693 0 80 0.571693 1
gene 1 27 33 -0.470669 0 81 -0.470669 1
gene 1 28 31 0.340171 0 82 0.340171 1
gene 1 28 32 -0.776448 0 83 -0.776448 1
gene 1 28 33 0.531431 0 84 0.531431 1
gene 1 29 31 0.00521401 0 85 0.00521401 1
gene 1 29 32 1.61947 0 86 1.61947 1
gene 1 29 33 0.967813 0 87 0.967813 1
gene 1 30 31 1.01642 0 88 1.01642 1
gene 1 30 32 -0.670721 0 89 -0.670721 1
gene 1 30 33 0.659545 0 90 0.659545 1
genomeend 24

/* Organism #25 Fitness: 11072.1 Error: 0 */
genomestart 25
trait 1 0.552788 0 0 0.869965 0 0.975716 0.974524 0 
node 1 1 1 1
node 2 1 1 1
node 3 1 1 1
node 4 1 1 1
node 5 1 1 1
node 6 1 1 1
node 7 1 1 1
node 8 1 1 1
node 9 1 1 1
node 10 1 1 1
node 11 1 1 1
node 12 1 1 1
node 13 1 1 1
node 14 1 1 1
node 15 1 1 1
node 16 1 1 1
node 17 1 1 1
node 18 1 1 1
node 19 1 1 1
node 20 1 1 1
node 21 1 1 1
node 22 1 1 1
node 23 1 1 1
node 24 1 1 1
node 25 1 1 1
node 26 1 1 1
node 27 1 1 1
node 28 1 1 1
node 29 1 1 1
node 30 1 1 3
node 31 1 0 2
node 32 1 0 2
node 33 1 0 2
gene 1 1 31 -4.28563 0 1 -4.28563 1
gene 1 1 32 -2.39779 0 2 -2.39779 1
gene 1 1 33 -1.94783 0 3 -1.94783 1
gene 1 2 31 -2.50208 0 4 -2.50208 1
gene 1 2 32 0.276709 0 5 0.276709 1
gene 1 2 33 0.956665 0 6 0.956665 1
gene 1 3 31 0.0239098 0 7 0.0239098 1
gene 1 3 32 -1.61934 0 8 -1.61934 1
gene 1 3 33 2.11175 0 9 2.11175 1
gene 1 4 31 2.76016 0 10 2.76016 1
gene 1 4 32 -4.76818 0 11 -4.76818 1
gene 1 4 33 3.13818 0 12 3.13818 1
gene 1 5 31 3.70258 0 13 3.70258 1
gene 1 5 32 -3.50333 0 14 -3.50333 1
gene 1 5 33 -1.97552 0 15 -1.97552 1
gene 1 6 31 1.63573 0 16 1.63573 1
gene 1 6 32 3.08484 0 17 3.08484 1
gene 1 6 33 0.554677 0 18 0.554677 1
gene 1 7 31 4.70347 0 19 4.70347 1
gene 1 7 32 -3.12962 0 20 -3.12962 1
gene 1 7 33 1.48028 0 21 1.48028 1
gene 1 8 31 1.00929 0 22 1.00929 1
gene 1 8 32 -4.70984 0 23 -4.70984 1
gene 1 8 33 -3.70142 0 24 -3.70142 1
gene 1 9 31 -3.77807 0 25 -3.77807 1
gene 1 9 32 1.49855 0 26 1.49855 1
gene 1 9 33 1.92394 0 27 1.92394 1
gene 1 10 31 2.83433 0 28 2.83433 1
gene 1 10 32 -0.0886953 0 29 -0.0886953 1
gene 1 10 33 -0.998834 0 30 -0.998834 1
gene 1 11 31 -4.0691 0 31 -4.0691 1
gene 1 11 32 -1.61785 0 32 -1.61785 1
gene 1 11 33 3.61754 0 33 3.61754 1
gene 1 12 31 -4.03188 0 34 -4.03188 1
gene 1 12 32 -1.27806 0 35 -1.27806 1
gene 1 12 33 1.1847 0 36 1.1847 1
gene 1 13 31 -2.52855 0 37 -2.52855 1
gene 1 13 32 -0.160273 0 38 -0.160273 1
gene 1 13 33 2.95016 0 39 2.95016 1
gene 1 14 31 1.4773 0 40 1.4773 1
gene 1 14 32 2.17827 0 41 2.17827 1
gene 1 14 33 -3.29914 0 42 -3.29914 1
gene 1 15 31 -1.83321 0 43 -1.83321 1
gene 1 15 32 -1.4251 0 44 -1.4251 1
gene 1 15 33 2.53703 0 45 2.53703 1
gene 1 16 31 -0.328457 0 46 -0.328457 1
gene 1 16 32 -1.76675 0 47 -1.76675 1
gene 1 16 33 2.10711 0 48 2.10711 1
gene 1 17 31 -5 0 49 -5 1
gene 1 17 32 -3.47149 0 50 -3.47149 1
gene 1 17 33 0.796545 0 51 0.796545 1
gene 1 18 31 -3.57931 0 52 -3.57931 1
gene 1 18 32 1.01059 0 53 1.01059 1
gene 1 18 33 -3.13986 0 54 -3.13986 1
gene 1 19 31 -5 0 55 -5 1
gene 1 19 32 -4.37786 0 56 -4.37786 1
gene 1 19 33 -1.46282 0 57 -1.46282 1
gene 1 20 31 0.27638 0 58 0.27638 1
gene 1 20 32 0.695973 0 59 0.695973 1
gene 1 20 33 -3.54422 0 60 -3.54422 1
gene 1 21 31 2.36002 0 61 2.36002 1
gene 1 21 32 1.72923 0 62 1.72923 1
gene 1 21 33 -4.06538 0 63 -4.06538 1
gene 1 22 31 0.796103 0 64 0.796103 1
gene 1 22 32 4.00947 0 65 4.00947 1
gene 1 22 33 1.67587 0 66 1.67587 1
gene 1 23 31 -4.76299 0 67 -4.76299 1
gene 1 23 32 5 0 68 5 1
gene 1 23 33 2.35903 0 69 2.35903 1
gene 1 24 31 2.28058 0 70 2.28058 1
gene 1 24 32 -0.0198693 0 71 -0.0198693 1
