/* Organism #66 Fitness: 10464.910000 Time: 0 */
genomestart 66
trait 1 1.000000 1.000000 0.996753 0.979367 0.000000 0.372028 0.402686 0.798871 
node 1 1 1 1
node 2 1 1 1
node 3 1 1 1
node 4 1 1 1
node 5 1 1 1
node 6 1 1 1
node 7 1 1 1
node 8 1 1 1
node 9 1 1 1
node 10 1 1 1
node 11 1 1 1
node 12 1 1 1
node 13 1 1 1
node 14 1 1 1
node 15 1 1 1
node 16 1 1 1
node 17 1 1 1
node 18 1 1 1
node 19 1 1 1
node 20 1 1 1
node 21 1 1 1
node 22 1 1 1
node 23 1 1 1
node 24 1 1 1
node 25 1 1 1
node 26 1 1 1
node 27 1 1 1
node 28 1 1 1
node 29 1 1 1
node 30 1 1 3
node 31 1 0 2
node 32 1 0 2
node 33 1 0 2
gene 1 1 31 -5 0 1 -5 1
gene 1 1 32 -3.46309 0 2 -3.46309 1
gene 1 1 33 0.673941 0 3 0.673941 1
gene 1 2 31 -0.0571841 0 4 -0.0571841 1
gene 1 2 32 0.063181 0 5 0.063181 1
gene 1 2 33 -3.95584 0 6 -3.95584 1
gene 1 3 31 -0.940446 0 7 -0.940446 1
gene 1 3 32 0.722023 0 8 0.722023 1
gene 1 3 33 -3.30311 0 9 -3.30311 1
gene 1 4 31 3.55492 0 10 3.55492 1
gene 1 4 32 3.68841 0 11 3.68841 1
gene 1 4 33 -1.17379 0 12 -1.17379 1
gene 1 5 31 -2.11404 0 13 -2.11404 1
gene 1 5 32 -0.260072 0 14 -0.260072 1
gene 1 5 33 -0.604832 0 15 -0.604832 1
gene 1 6 31 -1.92508 0 16 -1.92508 1
gene 1 6 32 0.642208 0 17 0.642208 1
gene 1 6 33 -0.659378 0 18 -0.659378 1
gene 1 7 31 -3.27232 0 19 -3.27232 1
gene 1 7 32 1.07118 0 20 1.07118 1
gene 1 7 33 0.792946 0 21 0.792946 1
gene 1 8 31 2.23418 0 22 2.23418 1
gene 1 8 32 1.73689 0 23 1.73689 1
gene 1 8 33 -0.694359 0 24 -0.694359 1
gene 1 9 31 1.84037 0 25 1.84037 1
gene 1 9 32 0.270372 0 26 0.270372 1
gene 1 9 33 2.98811 0 27 2.98811 1
gene 1 10 31 1.09943 0 28 1.09943 1
gene 1 10 32 2.60598 0 29 2.60598 1
gene 1 10 33 1.89344 0 30 1.89344 1
gene 1 11 31 -1.89692 0 31 -1.89692 1
gene 1 11 32 -1.15403 0 32 -1.15403 1
gene 1 11 33 0.552553 0 33 0.552553 1
gene 1 12 31 -0.603256 0 34 -0.603256 1
gene 1 12 32 -3.64791 0 35 -3.64791 1
gene 1 12 33 0.397155 0 36 0.397155 1
gene 1 13 31 -3.2829 0 37 -3.2829 1
gene 1 13 32 0.5996 0 38 0.5996 1
gene 1 13 33 -4.04725 0 39 -4.04725 1
gene 1 14 31 0.991005 0 40 0.991005 1
gene 1 14 32 2.00979 0 41 2.00979 1
gene 1 14 33 1.71204 0 42 1.71204 1
gene 1 15 31 -1.37746 0 43 -1.37746 1
gene 1 15 32 2.67715 0 44 2.67715 1
gene 1 15 33 2.40361 0 45 2.40361 1
gene 1 16 31 0.2608 0 46 0.2608 1
gene 1 16 32 3.06953 0 47 3.06953 1
gene 1 16 33 4.72009 0 48 4.72009 1
gene 1 17 31 0.279665 0 49 0.279665 1
gene 1 17 32 -1.31364 0 50 -1.31364 1
gene 1 17 33 -0.0304339 0 51 -0.0304339 1
gene 1 18 31 -5 0 52 -5 1
gene 1 18 32 -0.864851 0 53 -0.864851 1
gene 1 18 33 0.84764 0 54 0.84764 1
gene 1 19 31 -1.70361 0 55 -1.70361 1
gene 1 19 32 -0.900028 0 56 -0.900028 1
gene 1 19 33 0.344032 0 57 0.344032 1
gene 1 20 31 2.40959 0 58 2.40959 1
gene 1 20 32 2.35139 0 59 2.35139 1
gene 1 20 33 0.235893 0 60 0.235893 1
gene 1 21 31 1.86171 0 61 1.86171 1
gene 1 21 32 0.612687 0 62 0.612687 1
gene 1 21 33 -0.116352 0 63 -0.116352 1
gene 1 22 31 1.31218 0 64 1.31218 1
gene 1 22 32 1.14897 0 65 1.14897 1
gene 1 22 33 2.78942 0 66 2.78942 1
gene 1 23 31 -3.20954 0 67 -3.20954 1
gene 1 23 32 -2.17051 0 68 -2.17051 1
gene 1 23 33 0.28665 0 69 0.28665 1
gene 1 24 31 2.81345 0 70 2.81345 1
gene 1 24 32 -4.37073 0 71 -4.37073 1
gene 1 24 33 -1.01444 0 72 -1.01444 1
gene 1 25 31 0.0398204 0 73 0.0398204 1
gene 1 25 32 -0.352081 0 74 -0.352081 1
gene 1 25 33 -2.78313 0 75 -2.78313 1
gene 1 26 31 -1.07576 0 76 -1.07576 1
gene 1 26 32 0.79878 0 77 0.79878 1
gene 1 26 33 0.663985 0 78 0.663985 1
gene 1 27 31 -0.75216 0 79 -0.75216 1
gene 1 27 32 2.02505 0 80 2.02505 1
gene 1 27 33 2.70617 0 81 2.70617 1
gene 1 28 31 1.57429 0 82 1.57429 1
gene 1 28 32 -0.308947 0 83 -0.308947 1
gene 1 28 33 -1.77003 0 84 -1.77003 1
gene 1 29 31 0.252476 0 85 0.252476 1
gene 1 29 32 -0.546187 0 86 -0.546187 1
gene 1 29 33 -0.715713 0 87 -0.715713 1
gene 1 30 31 -0.264137 0 88 -0.264137 1
gene 1 30 32 -1.08587 0 89 -1.08587 1
gene 1 30 33 0.274307 0 90 0.274307 1
genomeend 66


