/* Organism #9 Fitness: 20257.730000 Time: 0 */
genomestart 9
trait 1 0.100000 0.000000 0.630715 0.715482 0.063610 0.000000 0.000000 0.257958 
node 1 1 1 1
node 2 1 1 1
node 3 1 1 1
node 4 1 1 1
node 5 1 1 1
node 6 1 1 1
node 7 1 1 1
node 8 1 1 1
node 9 1 1 1
node 10 1 1 1
node 11 1 1 1
node 12 1 1 1
node 13 1 1 1
node 14 1 1 1
node 15 1 1 1
node 16 1 1 1
node 17 1 1 1
node 18 1 1 1
node 19 1 1 1
node 20 1 1 1
node 21 1 1 1
node 22 1 1 1
node 23 1 1 1
node 24 1 1 1
node 25 1 1 1
node 26 1 1 1
node 27 1 1 1
node 28 1 1 1
node 29 1 1 1
node 30 1 1 1
node 31 1 1 1
node 32 1 1 1
node 33 1 1 1
node 34 1 1 1
node 35 1 1 3
node 36 1 0 2
node 37 1 0 2
node 38 1 0 2
node 39 1 0 2
gene 1 1 36 -2.40177 0 1 -2.40177 1
gene 1 1 37 3.16822 0 2 3.16822 1
gene 1 1 38 -1.62599 0 3 -1.62599 1
gene 1 1 39 -0.461127 0 4 -0.461127 1
gene 1 2 36 0.200743 0 5 0.200743 1
gene 1 2 37 2.95395 0 6 2.95395 1
gene 1 2 38 -0.798656 0 7 -0.798656 1
gene 1 2 39 -2.63549 0 8 -2.63549 1
gene 1 3 36 1.58893 0 9 1.58893 1
gene 1 3 37 -0.496866 0 10 -0.496866 1
gene 1 3 38 -1.84639 0 11 -1.84639 1
gene 1 3 39 -1.43615 0 12 -1.43615 1
gene 1 4 36 -1.24853 0 13 -1.24853 1
gene 1 4 37 1.80178 0 14 1.80178 1
gene 1 4 38 1.41048 0 15 1.41048 1
gene 1 4 39 0.44072 0 16 0.44072 1
gene 1 5 36 -0.60395 0 17 -0.60395 1
gene 1 5 37 -0.708325 0 18 -0.708325 1
gene 1 5 38 1.01014 0 19 1.01014 1
gene 1 5 39 0.988535 0 20 0.988535 1
gene 1 6 36 1.51263 0 21 1.51263 1
gene 1 6 37 -2.26837 0 22 -2.26837 1
gene 1 6 38 1.91281 0 23 1.91281 1
gene 1 6 39 -0.018355 0 24 -0.018355 1
gene 1 7 36 4.31888 0 25 4.31888 1
gene 1 7 37 -3.11532 0 26 -3.11532 1
gene 1 7 38 -0.98345 0 27 -0.98345 1
gene 1 7 39 -3.43544 0 28 -3.43544 1
gene 1 8 36 0.38163 0 29 0.38163 1
gene 1 8 37 4.34211 0 30 4.34211 1
gene 1 8 38 0.135984 0 31 0.135984 1
gene 1 8 39 -4.899 0 32 -4.899 1
gene 1 9 36 -0.569499 0 33 -0.569499 1
gene 1 9 37 0.957023 0 34 0.957023 1
gene 1 9 38 -0.138071 0 35 -0.138071 1
gene 1 9 39 -0.794414 0 36 -0.794414 1
gene 1 10 36 1.66765 0 37 1.66765 1
gene 1 10 37 -3.70203 0 38 -3.70203 1
gene 1 10 38 1.96105 0 39 1.96105 1
gene 1 10 39 -2.45379 0 40 -2.45379 1
gene 1 11 36 4.3879 0 41 4.3879 1
gene 1 11 37 -0.966367 0 42 -0.966367 1
gene 1 11 38 0.303811 0 43 0.303811 1
gene 1 11 39 -1.85496 0 44 -1.85496 1
gene 1 12 36 4.01627 0 45 4.01627 1
gene 1 12 37 -4.62434 0 46 -4.62434 1
gene 1 12 38 -1.14483 0 47 -1.14483 1
gene 1 12 39 -3.9692 0 48 -3.9692 1
gene 1 13 36 0.671793 0 49 0.671793 1
gene 1 13 37 3.44502 0 50 3.44502 1
gene 1 13 38 2.38667 0 51 2.38667 1
gene 1 13 39 -2.2984 0 52 -2.2984 1
gene 1 14 36 4.09943 0 53 4.09943 1
gene 1 14 37 1.12891 0 54 1.12891 1
gene 1 14 38 -0.227968 0 55 -0.227968 1
gene 1 14 39 -5 0 56 -5 1
gene 1 15 36 -2.29289 0 57 -2.29289 1
gene 1 15 37 2.65741 0 58 2.65741 1
gene 1 15 38 0.0407175 0 59 0.0407175 1
gene 1 15 39 -0.779351 0 60 -0.779351 1
gene 1 16 36 0.433925 0 61 0.433925 1
gene 1 16 37 1.50719 0 62 1.50719 1
gene 1 16 38 -0.808178 0 63 -0.808178 1
gene 1 16 39 1.42482 0 64 1.42482 1
gene 1 17 36 2.62101 0 65 2.62101 1
gene 1 17 37 2.40819 0 66 2.40819 1
gene 1 17 38 5 0 67 5 1
gene 1 17 39 -1.69068 0 68 -1.69068 1
gene 1 18 36 -1.55961 0 69 -1.55961 1
gene 1 18 37 3.89903 0 70 3.89903 1
gene 1 18 38 0.843951 0 71 0.843951 1
gene 1 18 39 1.32733 0 72 1.32733 1
gene 1 19 36 2.08764 0 73 2.08764 1
gene 1 19 37 0.508355 0 74 0.508355 1
gene 1 19 38 -0.311445 0 75 -0.311445 1
gene 1 19 39 -0.567 0 76 -0.567 1
gene 1 20 36 4.23881 0 77 4.23881 1
gene 1 20 37 -0.915648 0 78 -0.915648 1
gene 1 20 38 2.09385 0 79 2.09385 1
gene 1 20 39 3.28937 0 80 3.28937 1
gene 1 21 36 1.07878 0 81 1.07878 1
gene 1 21 37 -4.62205 0 82 -4.62205 1
gene 1 21 38 -2.67391 0 83 -2.67391 1
gene 1 21 39 -0.547147 0 84 -0.547147 1
gene 1 22 36 -1.62938 0 85 -1.62938 1
gene 1 22 37 3.70824 0 86 3.70824 1
gene 1 22 38 -2.70865 0 87 -2.70865 1
gene 1 22 39 -2.10853 0 88 -2.10853 1
gene 1 23 36 1.16005 0 89 1.16005 1
gene 1 23 37 -1.36254 0 90 -1.36254 1
gene 1 23 38 1.13349 0 91 1.13349 1
gene 1 23 39 -1.33752 0 92 -1.33752 1
gene 1 24 36 3.0808 0 93 3.0808 1
gene 1 24 37 -0.819751 0 94 -0.819751 1
gene 1 24 38 -1.21967 0 95 -1.21967 1
gene 1 24 39 4.09878 0 96 4.09878 1
gene 1 25 36 -2.27705 0 97 -2.27705 1
gene 1 25 37 2.5242 0 98 2.5242 1
gene 1 25 38 -1.99832 0 99 -1.99832 1
gene 1 25 39 -1.32242 0 100 -1.32242 1
gene 1 26 36 -2.29806 0 101 -2.29806 1
gene 1 26 37 -1.03005 0 102 -1.03005 1
gene 1 26 38 2.1774 0 103 2.1774 1
gene 1 26 39 -4.02599 0 104 -4.02599 1
gene 1 27 36 -2.29058 0 105 -2.29058 1
gene 1 27 37 -1.18852 0 106 -1.18852 1
gene 1 27 38 3.62645 0 107 3.62645 1
gene 1 27 39 0.728493 0 108 0.728493 1
gene 1 28 36 0.213642 0 109 0.213642 1
gene 1 28 37 2.37972 0 110 2.37972 1
gene 1 28 38 -4.2722 0 111 -4.2722 1
gene 1 28 39 0.672442 0 112 0.672442 1
gene 1 29 36 1.60052 0 113 1.60052 1
gene 1 29 37 -0.65975 0 114 -0.65975 1
gene 1 29 38 -1.64538 0 115 -1.64538 1
gene 1 29 39 -1.80172 0 116 -1.80172 1
gene 1 30 36 -4.66317 0 117 -4.66317 1
gene 1 30 37 1.09193 0 118 1.09193 1
gene 1 30 38 -0.342629 0 119 -0.342629 1
gene 1 30 39 0.281473 0 120 0.281473 1
gene 1 31 36 -0.63898 0 121 -0.63898 1
gene 1 31 37 0.606862 0 122 0.606862 1
gene 1 31 38 -0.382104 0 123 -0.382104 1
gene 1 31 39 -0.273925 0 124 -0.273925 1
gene 1 32 36 -0.34126 0 125 -0.34126 1
gene 1 32 37 -0.894613 0 126 -0.894613 1
gene 1 32 38 -0.120935 0 127 -0.120935 1
gene 1 32 39 1.51444 0 128 1.51444 1
gene 1 33 36 -0.635682 0 129 -0.635682 1
gene 1 33 37 -0.729746 0 130 -0.729746 1
gene 1 33 38 -0.510427 0 131 -0.510427 1
gene 1 33 39 -0.0094644 0 132 -0.0094644 1
gene 1 34 36 0.0162917 0 133 0.0162917 1
gene 1 34 37 -0.84845 0 134 -0.84845 1
gene 1 34 38 -0.176221 0 135 -0.176221 1
gene 1 34 39 -0.611205 0 136 -0.611205 1
gene 1 35 36 5 0 137 5 1
gene 1 35 37 0.875798 0 138 0.875798 1
gene 1 35 38 0.85952 0 139 0.85952 1
gene 1 35 39 0.332955 0 140 0.332955 1
genomeend 9


