/* Organism #14 Fitness: 40378.442000 Time: 0 */
genomestart 14
trait 1 1.000000 0.223030 1.000000 0.000000 0.000000 0.371945 1.000000 1.000000 
node 1 1 1 1
node 2 1 1 1
node 3 1 1 1
node 4 1 1 1
node 5 1 1 1
node 6 1 1 1
node 7 1 1 1
node 8 1 1 1
node 9 1 1 1
node 10 1 1 1
node 11 1 1 1
node 12 1 1 1
node 13 1 1 1
node 14 1 1 1
node 15 1 1 1
node 16 1 1 1
node 17 1 1 1
node 18 1 1 1
node 19 1 1 1
node 20 1 1 1
node 21 1 1 1
node 22 1 1 1
node 23 1 1 1
node 24 1 1 1
node 25 1 1 1
node 26 1 1 3
node 27 1 0 2
node 28 1 0 2
node 29 1 0 2
gene 1 1 27 0.561967 0 1 0.561967 1
gene 1 1 28 -0.778699 0 2 -0.778699 1
gene 1 1 29 1.78385 0 3 1.78385 1
gene 1 2 27 -0.558695 0 4 -0.558695 1
gene 1 2 28 0.0871528 0 5 0.0871528 1
gene 1 2 29 -0.672933 0 6 -0.672933 1
gene 1 3 27 -0.520746 0 7 -0.520746 1
gene 1 3 28 -0.362623 0 8 -0.362623 1
gene 1 3 29 0.396774 0 9 0.396774 1
gene 1 4 27 2.03712 0 10 2.03712 1
gene 1 4 28 0.645352 0 11 0.645352 1
gene 1 4 29 -0.405758 0 12 -0.405758 1
gene 1 5 27 0.082061 0 13 0.082061 1
gene 1 5 28 4.29915 0 14 4.29915 1
gene 1 5 29 -0.827065 0 15 -0.827065 1
gene 1 6 27 -0.122043 0 16 -0.122043 1
gene 1 6 28 3.69307 0 17 3.69307 1
gene 1 6 29 -1.17165 0 18 -1.17165 1
gene 1 7 27 1.00472 0 19 1.00472 1
gene 1 7 28 -2.32977 0 20 -2.32977 1
gene 1 7 29 -3.76435 0 21 -3.76435 1
gene 1 8 27 -0.814023 0 22 -0.814023 1
gene 1 8 28 -0.813139 0 23 -0.813139 1
gene 1 8 29 -0.540688 0 24 -0.540688 1
gene 1 9 27 0.258163 0 25 0.258163 1
gene 1 9 28 -0.216499 0 26 -0.216499 1
gene 1 9 29 -0.290075 0 27 -0.290075 1
gene 1 10 27 -0.045008 0 28 -0.045008 1
gene 1 10 28 -0.237971 0 29 -0.237971 1
gene 1 10 29 -2.71117 0 30 -2.71117 1
gene 1 11 27 -0.0995915 0 31 -0.0995915 1
gene 1 11 28 -1.54302 0 32 -1.54302 1
gene 1 11 29 -1.24575 0 33 -1.24575 1
gene 1 12 27 0.617328 0 34 0.617328 1
gene 1 12 28 0.016877 0 35 0.016877 1
gene 1 12 29 -2.06129 0 36 -2.06129 1
gene 1 13 27 -4.09658 0 37 -4.09658 1
gene 1 13 28 -3.23666 0 38 -3.23666 1
gene 1 13 29 1.70452 0 39 1.70452 1
gene 1 14 27 -3.4252 0 40 -3.4252 1
gene 1 14 28 1.90971 0 41 1.90971 1
gene 1 14 29 2.91572 0 42 2.91572 1
gene 1 15 27 0.723421 0 43 0.723421 1
gene 1 15 28 0.969229 0 44 0.969229 1
gene 1 15 29 0.734845 0 45 0.734845 1
gene 1 16 27 -1.1073 0 46 -1.1073 1
gene 1 16 28 1.49165 0 47 1.49165 1
gene 1 16 29 0.264525 0 48 0.264525 1
gene 1 17 27 0.780866 0 49 0.780866 1
gene 1 17 28 0.821214 0 50 0.821214 1
gene 1 17 29 -3.36282 0 51 -3.36282 1
gene 1 18 27 -2.52836 0 52 -2.52836 1
gene 1 18 28 1.1144 0 53 1.1144 1
gene 1 18 29 -1.20384 0 54 -1.20384 1
gene 1 19 27 2.09376 0 55 2.09376 1
gene 1 19 28 -0.291055 0 56 -0.291055 1
gene 1 19 29 0.348269 0 57 0.348269 1
gene 1 20 27 1.87336 0 58 1.87336 1
gene 1 20 28 0.676234 0 59 0.676234 1
gene 1 20 29 -0.173775 0 60 -0.173775 1
gene 1 21 27 -2.33189 0 61 -2.33189 1
gene 1 21 28 0.0359335 0 62 0.0359335 1
gene 1 21 29 -0.360324 0 63 -0.360324 1
gene 1 22 27 0.728105 0 64 0.728105 1
gene 1 22 28 5 0 65 5 1
gene 1 22 29 0.261394 0 66 0.261394 1
gene 1 23 27 -1.17481 0 67 -1.17481 1
gene 1 23 28 0.260047 0 68 0.260047 1
gene 1 23 29 1.08064 0 69 1.08064 1
gene 1 24 27 0.289423 0 70 0.289423 1
gene 1 24 28 0.58022 0 71 0.58022 1
gene 1 24 29 -2.67471 0 72 -2.67471 1
gene 1 25 27 -1.23368 0 73 -1.23368 1
gene 1 25 28 -0.432242 0 74 -0.432242 1
gene 1 25 29 -0.63911 0 75 -0.63911 1
gene 1 26 27 -5 0 76 -5 1
gene 1 26 28 -4.11049 0 77 -4.11049 1
gene 1 26 29 -0.878241 0 78 -0.878241 1
genomeend 14


