/* Organism #4 Fitness: 13884.200000 Time: 0 */
genomestart 4
trait 1 0.476943 0.000000 0.631534 0.351894 0.000000 0.000000 0.000000 0.000000 
node 1 1 1 1
node 2 1 1 1
node 3 1 1 1
node 4 1 1 1
node 5 1 1 1
node 6 1 1 1
node 7 1 1 1
node 8 1 1 1
node 9 1 1 1
node 10 1 1 1
node 11 1 1 1
node 12 1 1 1
node 13 1 1 1
node 14 1 1 1
node 15 1 1 1
node 16 1 1 1
node 17 1 1 1
node 18 1 1 1
node 19 1 1 1
node 20 1 1 1
node 21 1 1 1
node 22 1 1 1
node 23 1 1 1
node 24 1 1 1
node 25 1 1 1
node 26 1 1 1
node 27 1 1 1
node 28 1 1 1
node 29 1 1 1
node 30 1 1 3
node 31 1 0 2
node 32 1 0 2
node 33 1 0 2
gene 1 1 31 -4.26971 0 1 -4.26971 1
gene 1 1 32 -3.65511 0 2 -3.65511 1
gene 1 1 33 -0.891472 0 3 -0.891472 1
gene 1 2 31 -0.594839 0 4 -0.594839 1
gene 1 2 32 -0.275504 0 5 -0.275504 1
gene 1 2 33 0.830261 0 6 0.830261 1
gene 1 3 31 1.23713 0 7 1.23713 1
gene 1 3 32 1.37368 0 8 1.37368 1
gene 1 3 33 -3.63475 0 9 -3.63475 1
gene 1 4 31 1.71819 0 10 1.71819 1
gene 1 4 32 -4.53125 0 11 -4.53125 1
gene 1 4 33 -1.14357 0 12 -1.14357 1
gene 1 5 31 2.78101 0 13 2.78101 1
gene 1 5 32 -2.69881 0 14 -2.69881 1
gene 1 5 33 -0.313012 0 15 -0.313012 1
gene 1 6 31 -0.390991 0 16 -0.390991 1
gene 1 6 32 -0.61944 0 17 -0.61944 1
gene 1 6 33 -1.30466 0 18 -1.30466 1
gene 1 7 31 3.89142 0 19 3.89142 1
gene 1 7 32 0.405361 0 20 0.405361 1
gene 1 7 33 1.54957 0 21 1.54957 1
gene 1 8 31 -0.576797 0 22 -0.576797 1
gene 1 8 32 -2.15758 0 23 -2.15758 1
gene 1 8 33 0.532967 0 24 0.532967 1
gene 1 9 31 -0.530775 0 25 -0.530775 1
gene 1 9 32 -4.27329 0 26 -4.27329 1
gene 1 9 33 -0.570646 0 27 -0.570646 1
gene 1 10 31 -0.283314 0 28 -0.283314 1
gene 1 10 32 0.244099 0 29 0.244099 1
gene 1 10 33 -0.908065 0 30 -0.908065 1
gene 1 11 31 2.87016 0 31 2.87016 1
gene 1 11 32 -0.169086 0 32 -0.169086 1
gene 1 11 33 0.94167 0 33 0.94167 1
gene 1 12 31 -2.56443 0 34 -2.56443 1
gene 1 12 32 -0.461045 0 35 -0.461045 1
gene 1 12 33 -0.475789 0 36 -0.475789 1
gene 1 13 31 -0.198606 0 37 -0.198606 1
gene 1 13 32 -1.39462 0 38 -1.39462 1
gene 1 13 33 0.0318432 0 39 0.0318432 1
gene 1 14 31 -1.25949 0 40 -1.25949 1
gene 1 14 32 -0.683101 0 41 -0.683101 1
gene 1 14 33 -1.61561 0 42 -1.61561 1
gene 1 15 31 2.74632 0 43 2.74632 1
gene 1 15 32 -2.90396 0 44 -2.90396 1
gene 1 15 33 -2.31699 0 45 -2.31699 1
gene 1 16 31 -0.478158 0 46 -0.478158 1
gene 1 16 32 -1.86962 0 47 -1.86962 1
gene 1 16 33 1.66192 0 48 1.66192 1
gene 1 17 31 -4.16866 0 49 -4.16866 1
gene 1 17 32 -2.04082 0 50 -2.04082 1
gene 1 17 33 -2.372 0 51 -2.372 1
gene 1 18 31 -2.69555 0 52 -2.69555 1
gene 1 18 32 -1.97224 0 53 -1.97224 1
gene 1 18 33 -1.16606 0 54 -1.16606 1
gene 1 19 31 -3.09564 0 55 -3.09564 1
gene 1 19 32 -0.735425 0 56 -0.735425 1
gene 1 19 33 1.85059 0 57 1.85059 1
gene 1 20 31 0.121878 0 58 0.121878 1
gene 1 20 32 0.23548 0 59 0.23548 1
gene 1 20 33 0.197347 0 60 0.197347 1
gene 1 21 31 -1.32219 0 61 -1.32219 1
gene 1 21 32 0.685945 0 62 0.685945 1
gene 1 21 33 -2.59807 0 63 -2.59807 1
gene 1 22 31 -2.70591 0 64 -2.70591 1
gene 1 22 32 1.15078 0 65 1.15078 1
gene 1 22 33 0.416634 0 66 0.416634 1
gene 1 23 31 -1.44026 0 67 -1.44026 1
gene 1 23 32 -4.42081 0 68 -4.42081 1
gene 1 23 33 -0.996941 0 69 -0.996941 1
gene 1 24 31 1.26946 0 70 1.26946 1
gene 1 24 32 2.61815 0 71 2.61815 1
gene 1 24 33 0.849514 0 72 0.849514 1
gene 1 25 31 0.755831 0 73 0.755831 1
gene 1 25 32 -0.0840802 0 74 -0.0840802 1
gene 1 25 33 0.27796 0 75 0.27796 1
gene 1 26 31 0.161469 0 76 0.161469 1
gene 1 26 32 0.325002 0 77 0.325002 1
gene 1 26 33 0.806194 0 78 0.806194 1
gene 1 27 31 0.638143 0 79 0.638143 1
gene 1 27 32 -0.492617 0 80 -0.492617 1
gene 1 27 33 1.26222 0 81 1.26222 1
gene 1 28 31 -2.22113 0 82 -2.22113 1
gene 1 28 32 -2.05343 0 83 -2.05343 1
gene 1 28 33 1.74021 0 84 1.74021 1
gene 1 29 31 0.582691 0 85 0.582691 1
gene 1 29 32 0.312356 0 86 0.312356 1
gene 1 29 33 -0.544703 0 87 -0.544703 1
gene 1 30 31 1.17218 0 88 1.17218 1
gene 1 30 32 -2.93514 0 89 -2.93514 1
gene 1 30 33 -1.44799 0 90 -1.44799 1
genomeend 4


