/* Organism #79 Fitness: 14062.900000 Time: 0 */
genomestart 79
trait 1 0.544545 0.000000 1.000000 0.105461 0.000000 0.159962 0.000000 0.468175 
node 1 1 1 1
node 2 1 1 1
node 3 1 1 1
node 4 1 1 1
node 5 1 1 1
node 6 1 1 1
node 7 1 1 1
node 8 1 1 1
node 9 1 1 1
node 10 1 1 1
node 11 1 1 1
node 12 1 1 1
node 13 1 1 1
node 14 1 1 1
node 15 1 1 1
node 16 1 1 1
node 17 1 1 1
node 18 1 1 1
node 19 1 1 1
node 20 1 1 1
node 21 1 1 1
node 22 1 1 1
node 23 1 1 1
node 24 1 1 1
node 25 1 1 1
node 26 1 1 1
node 27 1 1 1
node 28 1 1 1
node 29 1 1 1
node 30 1 1 3
node 31 1 0 2
node 32 1 0 2
node 33 1 0 2
gene 1 1 31 -3.82004 0 1 -3.82004 1
gene 1 1 32 -4.79343 0 2 -4.79343 1
gene 1 1 33 -0.420029 0 3 -0.420029 1
gene 1 2 31 -2.22558 0 4 -2.22558 1
gene 1 2 32 -2.54617 0 5 -2.54617 1
gene 1 2 33 1.94811 0 6 1.94811 1
gene 1 3 31 1.27416 0 7 1.27416 1
gene 1 3 32 2.74007 0 8 2.74007 1
gene 1 3 33 -1.63063 0 9 -1.63063 1
gene 1 4 31 0.896901 0 10 0.896901 1
gene 1 4 32 -1.37634 0 11 -1.37634 1
gene 1 4 33 1.4607 0 12 1.4607 1
gene 1 5 31 1.74112 0 13 1.74112 1
gene 1 5 32 -2.46928 0 14 -2.46928 1
gene 1 5 33 3.21018 0 15 3.21018 1
gene 1 6 31 1.38126 0 16 1.38126 1
gene 1 6 32 -2.39353 0 17 -2.39353 1
gene 1 6 33 -3.60719 0 18 -3.60719 1
gene 1 7 31 4.26606 0 19 4.26606 1
gene 1 7 32 3.45705 0 20 3.45705 1
gene 1 7 33 -1.92083 0 21 -1.92083 1
gene 1 8 31 -0.224357 0 22 -0.224357 1
gene 1 8 32 -5 0 23 -5 1
gene 1 8 33 1.84122 0 24 1.84122 1
gene 1 9 31 2.08118 0 25 2.08118 1
gene 1 9 32 -1.1583 0 26 -1.1583 1
gene 1 9 33 0.173026 0 27 0.173026 1
gene 1 10 31 -1.95703 0 28 -1.95703 1
gene 1 10 32 4.86132 0 29 4.86132 1
gene 1 10 33 1.63091 0 30 1.63091 1
gene 1 11 31 2.39638 0 31 2.39638 1
gene 1 11 32 1.80181 0 32 1.80181 1
gene 1 11 33 -0.67366 0 33 -0.67366 1
gene 1 12 31 2.98021 0 34 2.98021 1
gene 1 12 32 2.18137 0 35 2.18137 1
gene 1 12 33 -0.101447 0 36 -0.101447 1
gene 1 13 31 1.22561 0 37 1.22561 1
gene 1 13 32 -1.71635 0 38 -1.71635 1
gene 1 13 33 2.22439 0 39 2.22439 1
gene 1 14 31 -0.159202 0 40 -0.159202 1
gene 1 14 32 -1.71108 0 41 -1.71108 1
gene 1 14 33 -3.10345 0 42 -3.10345 1
gene 1 15 31 3.58088 0 43 3.58088 1
gene 1 15 32 -3.81368 0 44 -3.81368 1
gene 1 15 33 -2.63761 0 45 -2.63761 1
gene 1 16 31 -1.43233 0 46 -1.43233 1
gene 1 16 32 0.19255 0 47 0.19255 1
gene 1 16 33 1.30669 0 48 1.30669 1
gene 1 17 31 -4.91161 0 49 -4.91161 1
gene 1 17 32 -1.20934 0 50 -1.20934 1
gene 1 17 33 -0.0148442 0 51 -0.0148442 1
gene 1 18 31 -0.0917699 0 52 -0.0917699 1
gene 1 18 32 -1.05031 0 53 -1.05031 1
gene 1 18 33 -0.661704 0 54 -0.661704 1
gene 1 19 31 -3.7992 0 55 -3.7992 1
gene 1 19 32 -3.74202 0 56 -3.74202 1
gene 1 19 33 0.344364 0 57 0.344364 1
gene 1 20 31 0.405931 0 58 0.405931 1
gene 1 20 32 -1.05179 0 59 -1.05179 1
gene 1 20 33 2.43073 0 60 2.43073 1
gene 1 21 31 -0.362573 0 61 -0.362573 1
gene 1 21 32 -0.797279 0 62 -0.797279 1
gene 1 21 33 -5 0 63 -5 1
gene 1 22 31 -3.41409 0 64 -3.41409 1
gene 1 22 32 0.47555 0 65 0.47555 1
gene 1 22 33 0.95082 0 66 0.95082 1
gene 1 23 31 -1.00628 0 67 -1.00628 1
gene 1 23 32 -2.34197 0 68 -2.34197 1
gene 1 23 33 -2.59226 0 69 -2.59226 1
gene 1 24 31 2.06518 0 70 2.06518 1
gene 1 24 32 5 0 71 5 1
gene 1 24 33 2.21608 0 72 2.21608 1
gene 1 25 31 -0.271923 0 73 -0.271923 1
gene 1 25 32 -2.17595 0 74 -2.17595 1
gene 1 25 33 -0.226112 0 75 -0.226112 1
gene 1 26 31 -0.0804398 0 76 -0.0804398 1
gene 1 26 32 -0.876378 0 77 -0.876378 1
gene 1 26 33 0.101865 0 78 0.101865 1
gene 1 27 31 -0.357619 0 79 -0.357619 1
gene 1 27 32 1.22569 0 80 1.22569 1
gene 1 27 33 -1.0123 0 81 -1.0123 1
gene 1 28 31 -0.764949 0 82 -0.764949 1
gene 1 28 32 -1.19671 0 83 -1.19671 1
gene 1 28 33 -0.923395 0 84 -0.923395 1
gene 1 29 31 3.07437 0 85 3.07437 1
gene 1 29 32 -1.264 0 86 -1.264 1
gene 1 29 33 0.0225789 0 87 0.0225789 1
gene 1 30 31 0.556031 0 88 0.556031 1
gene 1 30 32 -0.699831 0 89 -0.699831 1
gene 1 30 33 -1.55516 0 90 -1.55516 1
genomeend 79


