/* Organism #8 Fitness: 15544.000000 Time: 0 */
genomestart 8
trait 1 0.000000 0.000000 0.395310 0.334906 0.000000 0.853695 0.656478 0.000000 
node 1 1 1 1
node 2 1 1 1
node 3 1 1 1
node 4 1 1 1
node 5 1 1 1
node 6 1 1 1
node 7 1 1 1
node 8 1 1 1
node 9 1 1 1
node 10 1 1 1
node 11 1 1 1
node 12 1 1 1
node 13 1 1 1
node 14 1 1 1
node 15 1 1 1
node 16 1 1 1
node 17 1 1 1
node 18 1 1 1
node 19 1 1 1
node 20 1 1 1
node 21 1 1 1
node 22 1 1 1
node 23 1 1 1
node 24 1 1 1
node 25 1 1 1
node 26 1 1 1
node 27 1 1 1
node 28 1 1 1
node 29 1 1 1
node 30 1 1 3
node 31 1 0 2
node 32 1 0 2
node 33 1 0 2
gene 1 1 31 -3.89781 0 1 -3.89781 1
gene 1 1 32 -2.07886 0 2 -2.07886 1
gene 1 1 33 4.02345 0 3 4.02345 1
gene 1 2 31 -2.53684 0 4 -2.53684 1
gene 1 2 32 3.86383 0 5 3.86383 1
gene 1 2 33 5 0 6 5 1
gene 1 3 31 -0.980621 0 7 -0.980621 1
gene 1 3 32 1.70583 0 8 1.70583 1
gene 1 3 33 3.28886 0 9 3.28886 1
gene 1 4 31 3.34105 0 10 3.34105 1
gene 1 4 32 1.97031 0 11 1.97031 1
gene 1 4 33 -1.66699 0 12 -1.66699 1
gene 1 5 31 -0.147531 0 13 -0.147531 1
gene 1 5 32 2.43142 0 14 2.43142 1
gene 1 5 33 3.83121 0 15 3.83121 1
gene 1 6 31 5 0 16 5 1
gene 1 6 32 -1.6831 0 17 -1.6831 1
gene 1 6 33 2.21504 0 18 2.21504 1
gene 1 7 31 5 0 19 5 1
gene 1 7 32 4.21482 0 20 4.21482 1
gene 1 7 33 2.72843 0 21 2.72843 1
gene 1 8 31 1.60185 0 22 1.60185 1
gene 1 8 32 -3.63938 0 23 -3.63938 1
gene 1 8 33 5 0 24 5 1
gene 1 9 31 2.50998 0 25 2.50998 1
gene 1 9 32 0.0256024 0 26 0.0256024 1
gene 1 9 33 -0.734982 0 27 -0.734982 1
gene 1 10 31 0.441128 0 28 0.441128 1
gene 1 10 32 0.379919 0 29 0.379919 1
gene 1 10 33 0.058145 0 30 0.058145 1
gene 1 11 31 -0.44798 0 31 -0.44798 1
gene 1 11 32 1.28649 0 32 1.28649 1
gene 1 11 33 -1.79531 0 33 -1.79531 1
gene 1 12 31 0.641791 0 34 0.641791 1
gene 1 12 32 4.25186 0 35 4.25186 1
gene 1 12 33 -0.165891 0 36 -0.165891 1
gene 1 13 31 -3.97416 0 37 -3.97416 1
gene 1 13 32 -0.0325007 0 38 -0.0325007 1
gene 1 13 33 -3.56352 0 39 -3.56352 1
gene 1 14 31 0.44569 0 40 0.44569 1
gene 1 14 32 -1.9333 0 41 -1.9333 1
gene 1 14 33 2.38212 0 42 2.38212 1
gene 1 15 31 3.33936 0 43 3.33936 1
gene 1 15 32 3.8016 0 44 3.8016 1
gene 1 15 33 2.91434 0 45 2.91434 1
gene 1 16 31 -3.48863 0 46 -3.48863 1
gene 1 16 32 -1.02767 0 47 -1.02767 1
gene 1 16 33 -1.64623 0 48 -1.64623 1
gene 1 17 31 -4.17325 0 49 -4.17325 1
gene 1 17 32 -1.50294 0 50 -1.50294 1
gene 1 17 33 -0.106144 0 51 -0.106144 1
gene 1 18 31 -1.78822 0 52 -1.78822 1
gene 1 18 32 -5 0 53 -5 1
gene 1 18 33 1.39073 0 54 1.39073 1
gene 1 19 31 1.10793 0 55 1.10793 1
gene 1 19 32 -4.93011 0 56 -4.93011 1
gene 1 19 33 3.50908 0 57 3.50908 1
gene 1 20 31 -1.0291 0 58 -1.0291 1
gene 1 20 32 0.782406 0 59 0.782406 1
gene 1 20 33 -4.63589 0 60 -4.63589 1
gene 1 21 31 1.85532 0 61 1.85532 1
gene 1 21 32 1.55515 0 62 1.55515 1
gene 1 21 33 1.67959 0 63 1.67959 1
gene 1 22 31 1.8856 0 64 1.8856 1
gene 1 22 32 -3.66584 0 65 -3.66584 1
gene 1 22 33 -3.89048 0 66 -3.89048 1
gene 1 23 31 -1.73978 0 67 -1.73978 1
gene 1 23 32 3.10991 0 68 3.10991 1
gene 1 23 33 -2.93774 0 69 -2.93774 1
gene 1 24 31 1.87299 0 70 1.87299 1
gene 1 24 32 -0.759571 0 71 -0.759571 1
gene 1 24 33 -1.0125 0 72 -1.0125 1
gene 1 25 31 -1.76464 0 73 -1.76464 1
gene 1 25 32 -0.295353 0 74 -0.295353 1
gene 1 25 33 1.24294 0 75 1.24294 1
gene 1 26 31 2.19595 0 76 2.19595 1
gene 1 26 32 -0.367291 0 77 -0.367291 1
gene 1 26 33 1.22612 0 78 1.22612 1
gene 1 27 31 -0.959171 0 79 -0.959171 1
gene 1 27 32 -1.67644 0 80 -1.67644 1
gene 1 27 33 0.935134 0 81 0.935134 1
gene 1 28 31 -0.20293 0 82 -0.20293 1
gene 1 28 32 -0.179942 0 83 -0.179942 1
gene 1 28 33 -0.706596 0 84 -0.706596 1
gene 1 29 31 -0.22589 0 85 -0.22589 1
gene 1 29 32 -1.37817 0 86 -1.37817 1
gene 1 29 33 -1.44807 0 87 -1.44807 1
gene 1 30 31 -1.44687 0 88 -1.44687 1
gene 1 30 32 0.877151 0 89 0.877151 1
gene 1 30 33 -0.8431 0 90 -0.8431 1
genomeend 8


