
/* Species #1 : (Size 100) (AF 0) (Age 50)  */


/* Organism #0 Fitness: 13802.9 Error: 0 */
genomestart 0
trait 1 0 0 0.39531 0.334906 0 0.853695 0.656478 0 
node 1 1 1 1
node 2 1 1 1
node 3 1 1 1
node 4 1 1 1
node 5 1 1 1
node 6 1 1 1
node 7 1 1 1
node 8 1 1 1
node 9 1 1 1
node 10 1 1 1
node 11 1 1 1
node 12 1 1 1
node 13 1 1 1
node 14 1 1 1
node 15 1 1 1
node 16 1 1 1
node 17 1 1 1
node 18 1 1 1
node 19 1 1 1
node 20 1 1 1
node 21 1 1 1
node 22 1 1 1
node 23 1 1 1
node 24 1 1 1
node 25 1 1 1
node 26 1 1 1
node 27 1 1 1
node 28 1 1 1
node 29 1 1 1
node 30 1 1 3
node 31 1 0 2
node 32 1 0 2
node 33 1 0 2
gene 1 1 31 -2.32987 0 1 -2.32987 1
gene 1 1 32 -5 0 2 -5 1
gene 1 1 33 1.46829 0 3 1.46829 1
gene 1 2 31 0.322431 0 4 0.322431 1
gene 1 2 32 1.37781 0 5 1.37781 1
gene 1 2 33 3.19705 0 6 3.19705 1
gene 1 3 31 -2.53026 0 7 -2.53026 1
gene 1 3 32 0.67279 0 8 0.67279 1
gene 1 3 33 4.31402 0 9 4.31402 1
gene 1 4 31 0.469242 0 10 0.469242 1
gene 1 4 32 0.0603457 0 11 0.0603457 1
gene 1 4 33 0.599216 0 12 0.599216 1
gene 1 5 31 2.5357 0 13 2.5357 1
gene 1 5 32 0.489095 0 14 0.489095 1
gene 1 5 33 3.15353 0 15 3.15353 1
gene 1 6 31 2.61772 0 16 2.61772 1
gene 1 6 32 -2.02342 0 17 -2.02342 1
gene 1 6 33 -0.0619166 0 18 -0.0619166 1
gene 1 7 31 5 0 19 5 1
gene 1 7 32 3.19409 0 20 3.19409 1
gene 1 7 33 1.75757 0 21 1.75757 1
gene 1 8 31 0.376802 0 22 0.376802 1
gene 1 8 32 -1.14838 0 23 -1.14838 1
gene 1 8 33 0.458567 0 24 0.458567 1
gene 1 9 31 0.41001 0 25 0.41001 1
gene 1 9 32 -0.257947 0 26 -0.257947 1
gene 1 9 33 -1.66533 0 27 -1.66533 1
gene 1 10 31 0.490198 0 28 0.490198 1
gene 1 10 32 -0.214561 0 29 -0.214561 1
gene 1 10 33 0.154589 0 30 0.154589 1
gene 1 11 31 2.18687 0 31 2.18687 1
gene 1 11 32 -0.532476 0 32 -0.532476 1
gene 1 11 33 -0.295596 0 33 -0.295596 1
gene 1 12 31 1.91916 0 34 1.91916 1
gene 1 12 32 -0.0490022 0 35 -0.0490022 1
gene 1 12 33 -1.10985 0 36 -1.10985 1
gene 1 13 31 -0.22924 0 37 -0.22924 1
gene 1 13 32 1.45517 0 38 1.45517 1
gene 1 13 33 -3.29549 0 39 -3.29549 1
gene 1 14 31 0.177789 0 40 0.177789 1
gene 1 14 32 2.78895 0 41 2.78895 1
gene 1 14 33 0.325481 0 42 0.325481 1
gene 1 15 31 0.855577 0 43 0.855577 1
gene 1 15 32 4.02463 0 44 4.02463 1
gene 1 15 33 0.783142 0 45 0.783142 1
gene 1 16 31 -0.529504 0 46 -0.529504 1
gene 1 16 32 0.563731 0 47 0.563731 1
gene 1 16 33 -1.07076 0 48 -1.07076 1
gene 1 17 31 -1.2429 0 49 -1.2429 1
gene 1 17 32 -4.84878 0 50 -4.84878 1
gene 1 17 33 -3.29459 0 51 -3.29459 1
gene 1 18 31 -0.969861 0 52 -0.969861 1
gene 1 18 32 -4.95188 0 53 -4.95188 1
gene 1 18 33 -0.805119 0 54 -0.805119 1
gene 1 19 31 0.902317 0 55 0.902317 1
gene 1 19 32 -4.21531 0 56 -4.21531 1
gene 1 19 33 0.278816 0 57 0.278816 1
gene 1 20 31 -1.98203 0 58 -1.98203 1
gene 1 20 32 1.08714 0 59 1.08714 1
gene 1 20 33 -1.41336 0 60 -1.41336 1
gene 1 21 31 -1.61627 0 61 -1.61627 1
gene 1 21 32 -1.69745 0 62 -1.69745 1
gene 1 21 33 1.19335 0 63 1.19335 1
gene 1 22 31 0.483324 0 64 0.483324 1
gene 1 22 32 -0.640229 0 65 -0.640229 1
gene 1 22 33 0.105102 0 66 0.105102 1
gene 1 23 31 -1.07767 0 67 -1.07767 1
gene 1 23 32 5 0 68 5 1
gene 1 23 33 -3.95468 0 69 -3.95468 1
gene 1 24 31 0.108793 0 70 0.108793 1
gene 1 24 32 -1.00632 0 71 -1.00632 1
gene 1 24 33 0.97287 0 72 0.97287 1
gene 1 25 31 -4.71468 0 73 -4.71468 1
gene 1 25 32 0.724793 0 74 0.724793 1
gene 1 25 33 -0.237339 0 75 -0.237339 1
gene 1 26 31 0.264035 0 76 0.264035 1
gene 1 26 32 0.719139 0 77 0.719139 1
gene 1 26 33 0.966084 0 78 0.966084 1
gene 1 27 31 0.921778 0 79 0.921778 1
gene 1 27 32 -0.0978228 0 80 -0.0978228 1
gene 1 27 33 1.09047 0 81 1.09047 1
gene 1 28 31 0.805189 0 82 0.805189 1
gene 1 28 32 0.256562 0 83 0.256562 1
gene 1 28 33 0.89517 0 84 0.89517 1
gene 1 29 31 -0.59096 0 85 -0.59096 1
gene 1 29 32 -0.948947 0 86 -0.948947 1
gene 1 29 33 1.29863 0 87 1.29863 1
gene 1 30 31 -0.853027 0 88 -0.853027 1
gene 1 30 32 1.28143 0 89 1.28143 1
gene 1 30 33 -1.71961 0 90 -1.71961 1
genomeend 0

/* Organism #1 Fitness: 13653.1 Error: 0 */
genomestart 1
trait 1 0 0 0.39531 0.334906 0 0.853695 0.656478 0 
node 1 1 1 1
node 2 1 1 1
node 3 1 1 1
node 4 1 1 1
node 5 1 1 1
node 6 1 1 1
node 7 1 1 1
node 8 1 1 1
node 9 1 1 1
node 10 1 1 1
node 11 1 1 1
node 12 1 1 1
node 13 1 1 1
node 14 1 1 1
node 15 1 1 1
node 16 1 1 1
node 17 1 1 1
node 18 1 1 1
node 19 1 1 1
node 20 1 1 1
node 21 1 1 1
node 22 1 1 1
node 23 1 1 1
node 24 1 1 1
node 25 1 1 1
node 26 1 1 1
node 27 1 1 1
node 28 1 1 1
node 29 1 1 1
node 30 1 1 3
node 31 1 0 2
node 32 1 0 2
node 33 1 0 2
gene 1 1 31 -1.82795 0 1 -1.82795 1
gene 1 1 32 -3.88659 0 2 -3.88659 1
gene 1 1 33 0.514482 0 3 0.514482 1
gene 1 2 31 -0.760812 0 4 -0.760812 1
gene 1 2 32 -0.59872 0 5 -0.59872 1
gene 1 2 33 4.03053 0 6 4.03053 1
gene 1 3 31 -3.38947 0 7 -3.38947 1
gene 1 3 32 -0.276522 0 8 -0.276522 1
gene 1 3 33 4.24211 0 9 4.24211 1
gene 1 4 31 3.41399 0 10 3.41399 1
gene 1 4 32 0.144322 0 11 0.144322 1
gene 1 4 33 0.476589 0 12 0.476589 1
gene 1 5 31 2.70869 0 13 2.70869 1
gene 1 5 32 1.11819 0 14 1.11819 1
gene 1 5 33 2.16298 0 15 2.16298 1
gene 1 6 31 3.66578 0 16 3.66578 1
gene 1 6 32 -2.70491 0 17 -2.70491 1
gene 1 6 33 3.04802 0 18 3.04802 1
gene 1 7 31 5 0 19 5 1
gene 1 7 32 1.21794 0 20 1.21794 1
gene 1 7 33 3.16706 0 21 3.16706 1
gene 1 8 31 0.0269962 0 22 0.0269962 1
gene 1 8 32 -0.373468 0 23 -0.373468 1
gene 1 8 33 1.86518 0 24 1.86518 1
gene 1 9 31 0.9995 0 25 0.9995 1
gene 1 9 32 0.161858 0 26 0.161858 1
gene 1 9 33 -1.26582 0 27 -1.26582 1
gene 1 10 31 -0.672107 0 28 -0.672107 1
gene 1 10 32 0.339814 0 29 0.339814 1
gene 1 10 33 -0.38372 0 30 -0.38372 1
gene 1 11 31 2.8455 0 31 2.8455 1
gene 1 11 32 -0.564181 0 32 -0.564181 1
gene 1 11 33 0.241703 0 33 0.241703 1
gene 1 12 31 -0.962096 0 34 -0.962096 1
gene 1 12 32 2.56547 0 35 2.56547 1
gene 1 12 33 0.92086 0 36 0.92086 1
gene 1 13 31 1.81535 0 37 1.81535 1
gene 1 13 32 1.75208 0 38 1.75208 1
gene 1 13 33 -3.63776 0 39 -3.63776 1
gene 1 14 31 4.8486 0 40 4.8486 1
gene 1 14 32 1.85633 0 41 1.85633 1
gene 1 14 33 0.210077 0 42 0.210077 1
gene 1 15 31 -0.106501 0 43 -0.106501 1
gene 1 15 32 3.28702 0 44 3.28702 1
gene 1 15 33 2.45636 0 45 2.45636 1
gene 1 16 31 -3.16809 0 46 -3.16809 1
gene 1 16 32 0.458591 0 47 0.458591 1
gene 1 16 33 -1.82373 0 48 -1.82373 1
gene 1 17 31 -1.59169 0 49 -1.59169 1
gene 1 17 32 -4.34534 0 50 -4.34534 1
gene 1 17 33 -2.49155 0 51 -2.49155 1
gene 1 18 31 -1.80202 0 52 -1.80202 1
gene 1 18 32 -4.87591 0 53 -4.87591 1
gene 1 18 33 -1.41697 0 54 -1.41697 1
gene 1 19 31 1.15547 0 55 1.15547 1
gene 1 19 32 -4.50378 0 56 -4.50378 1
gene 1 19 33 0.659868 0 57 0.659868 1
gene 1 20 31 -1.38498 0 58 -1.38498 1
gene 1 20 32 1.43188 0 59 1.43188 1
gene 1 20 33 -0.971149 0 60 -0.971149 1
gene 1 21 31 -2.33957 0 61 -2.33957 1
gene 1 21 32 -0.684385 0 62 -0.684385 1
gene 1 21 33 3.3308 0 63 3.3308 1
gene 1 22 31 0.289188 0 64 0.289188 1
gene 1 22 32 -2.46062 0 65 -2.46062 1
gene 1 22 33 -1.13083 0 66 -1.13083 1
gene 1 23 31 -1.6652 0 67 -1.6652 1
gene 1 23 32 3.88555 0 68 3.88555 1
gene 1 23 33 -4.21361 0 69 -4.21361 1
gene 1 24 31 -0.573818 0 70 -0.573818 1
gene 1 24 32 0.372646 0 71 0.372646 1
gene 1 24 33 0.666174 0 72 0.666174 1
gene 1 25 31 -2.93129 0 73 -2.93129 1
gene 1 25 32 0.403899 0 74 0.403899 1
gene 1 25 33 1.43106 0 75 1.43106 1
gene 1 26 31 0.531188 0 76 0.531188 1
gene 1 26 32 -0.50903 0 77 -0.50903 1
gene 1 26 33 1.03276 0 78 1.03276 1
gene 1 27 31 -0.455664 0 79 -0.455664 1
gene 1 27 32 0.200672 0 80 0.200672 1
gene 1 27 33 -0.301748 0 81 -0.301748 1
gene 1 28 31 0.684255 0 82 0.684255 1
gene 1 28 32 0.139906 0 83 0.139906 1
gene 1 28 33 0.407526 0 84 0.407526 1
gene 1 29 31 0.468238 0 85 0.468238 1
gene 1 29 32 0.439901 0 86 0.439901 1
gene 1 29 33 1.23485 0 87 1.23485 1
gene 1 30 31 -0.661548 0 88 -0.661548 1
gene 1 30 32 1.002 0 89 1.002 1
gene 1 30 33 -1.31193 0 90 -1.31193 1
genomeend 1

/* Organism #2 Fitness: 12130.1 Error: 0 */
genomestart 2
trait 1 0.679505 0 0.39531 0.459238 0.233202 0.853695 0 0 
node 1 1 1 1
node 2 1 1 1
node 3 1 1 1
node 4 1 1 1
node 5 1 1 1
node 6 1 1 1
node 7 1 1 1
node 8 1 1 1
node 9 1 1 1
node 10 1 1 1
node 11 1 1 1
node 12 1 1 1
node 13 1 1 1
node 14 1 1 1
node 15 1 1 1
node 16 1 1 1
node 17 1 1 1
node 18 1 1 1
node 19 1 1 1
node 20 1 1 1
node 21 1 1 1
node 22 1 1 1
node 23 1 1 1
node 24 1 1 1
node 25 1 1 1
node 26 1 1 1
node 27 1 1 1
node 28 1 1 1
node 29 1 1 1
node 30 1 1 3
node 31 1 0 2
node 32 1 0 2
node 33 1 0 2
gene 1 1 31 -3.77318 0 1 -3.77318 1
gene 1 1 32 -3.45457 0 2 -3.45457 1
gene 1 1 33 1.71562 0 3 1.71562 1
gene 1 2 31 1.07681 0 4 1.07681 1
gene 1 2 32 2.00916 0 5 2.00916 1
gene 1 2 33 0.779932 0 6 0.779932 1
gene 1 3 31 -2.24247 0 7 -2.24247 1
gene 1 3 32 1.70474 0 8 1.70474 1
gene 1 3 33 0.144553 0 9 0.144553 1
gene 1 4 31 2.81795 0 10 2.81795 1
gene 1 4 32 1.19769 0 11 1.19769 1
gene 1 4 33 1.40525 0 12 1.40525 1
gene 1 5 31 3.02337 0 13 3.02337 1
gene 1 5 32 1.76258 0 14 1.76258 1
gene 1 5 33 3.38251 0 15 3.38251 1
gene 1 6 31 2.23364 0 16 2.23364 1
gene 1 6 32 -0.721201 0 17 -0.721201 1
gene 1 6 33 4.39232 0 18 4.39232 1
gene 1 7 31 4.84351 0 19 4.84351 1
gene 1 7 32 3.53124 0 20 3.53124 1
gene 1 7 33 3.00642 0 21 3.00642 1
gene 1 8 31 2.77517 0 22 2.77517 1
gene 1 8 32 -0.618012 0 23 -0.618012 1
gene 1 8 33 -1.97824 0 24 -1.97824 1
gene 1 9 31 1.64977 0 25 1.64977 1
gene 1 9 32 -1.04658 0 26 -1.04658 1
gene 1 9 33 -0.79104 0 27 -0.79104 1
gene 1 10 31 -0.53429 0 28 -0.53429 1
gene 1 10 32 0.822142 0 29 0.822142 1
gene 1 10 33 -1.82775 0 30 -1.82775 1
gene 1 11 31 1.61282 0 31 1.61282 1
gene 1 11 32 1.5874 0 32 1.5874 1
gene 1 11 33 -3.00933 0 33 -3.00933 1
gene 1 12 31 1.74847 0 34 1.74847 1
gene 1 12 32 0.609266 0 35 0.609266 1
gene 1 12 33 0.195982 0 36 0.195982 1
gene 1 13 31 0.862407 0 37 0.862407 1
gene 1 13 32 1.99344 0 38 1.99344 1
gene 1 13 33 -3.60789 0 39 -3.60789 1
gene 1 14 31 3.12703 0 40 3.12703 1
gene 1 14 32 -2.40421 0 41 -2.40421 1
gene 1 14 33 0.732632 0 42 0.732632 1
gene 1 15 31 1.6928 0 43 1.6928 1
gene 1 15 32 0.326851 0 44 0.326851 1
gene 1 15 33 3.61795 0 45 3.61795 1
gene 1 16 31 0.280338 0 46 0.280338 1
gene 1 16 32 -4.95142 0 47 -4.95142 1
gene 1 16 33 -0.973866 0 48 -0.973866 1
gene 1 17 31 -3.67542 0 49 -3.67542 1
gene 1 17 32 -5 0 50 -5 1
gene 1 17 33 -3.87297 0 51 -3.87297 1
gene 1 18 31 1.55586 0 52 1.55586 1
gene 1 18 32 -5 0 53 -5 1
gene 1 18 33 -1.43428 0 54 -1.43428 1
gene 1 19 31 0.0839915 0 55 0.0839915 1
gene 1 19 32 -3.24401 0 56 -3.24401 1
gene 1 19 33 -0.554952 0 57 -0.554952 1
gene 1 20 31 -3.63824 0 58 -3.63824 1
gene 1 20 32 3.6658 0 59 3.6658 1
gene 1 20 33 -0.768003 0 60 -0.768003 1
gene 1 21 31 -0.318623 0 61 -0.318623 1
gene 1 21 32 -3.03282 0 62 -3.03282 1
gene 1 21 33 0.677805 0 63 0.677805 1
gene 1 22 31 2.26753 0 64 2.26753 1
gene 1 22 32 -3.72756 0 65 -3.72756 1
gene 1 22 33 1.15241 0 66 1.15241 1
gene 1 23 31 -1.1099 0 67 -1.1099 1
gene 1 23 32 2.59772 0 68 2.59772 1
gene 1 23 33 -1.18367 0 69 -1.18367 1
gene 1 24 31 1.35285 0 70 1.35285 1
gene 1 24 32 1.04411 0 71 1.04411 1
gene 1 24 33 0.288277 0 72 0.288277 1
gene 1 25 31 0.0615132 0 73 0.0615132 1
gene 1 25 32 0.0121452 0 74 0.0121452 1
gene 1 25 33 2.21972 0 75 2.21972 1
gene 1 26 31 0.0341846 0 76 0.0341846 1
gene 1 26 32 1.08658 0 77 1.08658 1
gene 1 26 33 0.734329 0 78 0.734329 1
gene 1 27 31 1.0445 0 79 1.0445 1
gene 1 27 32 -0.883129 0 80 -0.883129 1
gene 1 27 33 -0.81877 0 81 -0.81877 1
gene 1 28 31 -0.975315 0 82 -0.975315 1
gene 1 28 32 -0.541492 0 83 -0.541492 1
gene 1 28 33 0.348138 0 84 0.348138 1
gene 1 29 31 -0.0753062 0 85 -0.0753062 1
gene 1 29 32 -0.17878 0 86 -0.17878 1
gene 1 29 33 1.15113 0 87 1.15113 1
gene 1 30 31 -1.67618 0 88 -1.67618 1
gene 1 30 32 -1.19498 0 89 -1.19498 1
gene 1 30 33 -2.01406 0 90 -2.01406 1
genomeend 2

/* Organism #3 Fitness: 13497.6 Error: 0 */
genomestart 3
trait 1 0 0 0.39531 0.334906 0 0.853695 0.656478 0 
node 1 1 1 1
node 2 1 1 1
node 3 1 1 1
node 4 1 1 1
node 5 1 1 1
node 6 1 1 1
node 7 1 1 1
node 8 1 1 1
node 9 1 1 1
node 10 1 1 1
node 11 1 1 1
node 12 1 1 1
node 13 1 1 1
node 14 1 1 1
node 15 1 1 1
node 16 1 1 1
node 17 1 1 1
node 18 1 1 1
node 19 1 1 1
node 20 1 1 1
node 21 1 1 1
node 22 1 1 1
node 23 1 1 1
node 24 1 1 1
node 25 1 1 1
node 26 1 1 1
node 27 1 1 1
node 28 1 1 1
node 29 1 1 1
node 30 1 1 3
node 31 1 0 2
node 32 1 0 2
node 33 1 0 2
gene 1 1 31 -3.01088 0 1 -3.01088 1
gene 1 1 32 -3.68985 0 2 -3.68985 1
gene 1 1 33 1.02089 0 3 1.02089 1
gene 1 2 31 0.346039 0 4 0.346039 1
gene 1 2 32 1.35237 0 5 1.35237 1
gene 1 2 33 3.68375 0 6 3.68375 1
gene 1 3 31 -1.22504 0 7 -1.22504 1
gene 1 3 32 0.647033 0 8 0.647033 1
gene 1 3 33 4.31014 0 9 4.31014 1
gene 1 4 31 1.62015 0 10 1.62015 1
gene 1 4 32 2.08176 0 11 2.08176 1
gene 1 4 33 1.42304 0 12 1.42304 1
gene 1 5 31 2.61992 0 13 2.61992 1
gene 1 5 32 1.73264 0 14 1.73264 1
gene 1 5 33 1.41501 0 15 1.41501 1
gene 1 6 31 2.95673 0 16 2.95673 1
gene 1 6 32 -2.93836 0 17 -2.93836 1
gene 1 6 33 3.08158 0 18 3.08158 1
gene 1 7 31 4.10018 0 19 4.10018 1
gene 1 7 32 2.21912 0 20 2.21912 1
gene 1 7 33 2.43489 0 21 2.43489 1
gene 1 8 31 0.606082 0 22 0.606082 1
gene 1 8 32 0.175794 0 23 0.175794 1
gene 1 8 33 1.31704 0 24 1.31704 1
gene 1 9 31 0.0193374 0 25 0.0193374 1
gene 1 9 32 -0.081078 0 26 -0.081078 1
gene 1 9 33 -1.66828 0 27 -1.66828 1
gene 1 10 31 -0.0878689 0 28 -0.0878689 1
gene 1 10 32 -1.50332 0 29 -1.50332 1
gene 1 10 33 -1.51697 0 30 -1.51697 1
gene 1 11 31 1.1946 0 31 1.1946 1
gene 1 11 32 -1.6268 0 32 -1.6268 1
gene 1 11 33 -1.22864 0 33 -1.22864 1
gene 1 12 31 1.80112 0 34 1.80112 1
gene 1 12 32 0.864949 0 35 0.864949 1
gene 1 12 33 -1.18064 0 36 -1.18064 1
gene 1 13 31 -0.0342735 0 37 -0.0342735 1
gene 1 13 32 2.59626 0 38 2.59626 1
gene 1 13 33 -3.55789 0 39 -3.55789 1
gene 1 14 31 5 0 40 5 1
gene 1 14 32 2.84975 0 41 2.84975 1
gene 1 14 33 0.345483 0 42 0.345483 1
gene 1 15 31 1.46096 0 43 1.46096 1
gene 1 15 32 3.69564 0 44 3.69564 1
gene 1 15 33 1.00226 0 45 1.00226 1
gene 1 16 31 1.1302 0 46 1.1302 1
gene 1 16 32 1.22066 0 47 1.22066 1
gene 1 16 33 -1.61337 0 48 -1.61337 1
gene 1 17 31 -0.995631 0 49 -0.995631 1
gene 1 17 32 -4.16196 0 50 -4.16196 1
gene 1 17 33 -1.80751 0 51 -1.80751 1
gene 1 18 31 -0.748718 0 52 -0.748718 1
gene 1 18 32 -4.34145 0 53 -4.34145 1
gene 1 18 33 -2.20105 0 54 -2.20105 1
gene 1 19 31 -0.244277 0 55 -0.244277 1
gene 1 19 32 -3.82087 0 56 -3.82087 1
gene 1 19 33 0.284249 0 57 0.284249 1
gene 1 20 31 -1.24836 0 58 -1.24836 1
gene 1 20 32 1.52506 0 59 1.52506 1
gene 1 20 33 -2.87125 0 60 -2.87125 1
gene 1 21 31 -1.60121 0 61 -1.60121 1
gene 1 21 32 -0.679503 0 62 -0.679503 1
gene 1 21 33 0.467903 0 63 0.467903 1
gene 1 22 31 -0.630689 0 64 -0.630689 1
gene 1 22 32 -1.99398 0 65 -1.99398 1
gene 1 22 33 -0.528097 0 66 -0.528097 1
gene 1 23 31 0.0294456 0 67 0.0294456 1
gene 1 23 32 4.51362 0 68 4.51362 1
gene 1 23 33 -4.86952 0 69 -4.86952 1
gene 1 24 31 -1.06209 0 70 -1.06209 1
gene 1 24 32 0.517735 0 71 0.517735 1
gene 1 24 33 1.40085 0 72 1.40085 1
gene 1 25 31 -3.07121 0 73 -3.07121 1
gene 1 25 32 1.66382 0 74 1.66382 1
gene 1 25 33 -0.140972 0 75 -0.140972 1
gene 1 26 31 0.108781 0 76 0.108781 1
gene 1 26 32 0.938177 0 77 0.938177 1
gene 1 26 33 1.34356 0 78 1.34356 1
gene 1 27 31 0.496137 0 79 0.496137 1
gene 1 27 32 0.0388464 0 80 0.0388464 1
gene 1 27 33 0.602116 0 81 0.602116 1
gene 1 28 31 1.07733 0 82 1.07733 1
gene 1 28 32 0.48134 0 83 0.48134 1
gene 1 28 33 0.753307 0 84 0.753307 1
gene 1 29 31 -1.1461 0 85 -1.1461 1
gene 1 29 32 0.609839 0 86 0.609839 1
gene 1 29 33 -0.735763 0 87 -0.735763 1
gene 1 30 31 -0.787067 0 88 -0.787067 1
gene 1 30 32 0.445585 0 89 0.445585 1
gene 1 30 33 -0.938801 0 90 -0.938801 1
genomeend 3

/* Organism #4 Fitness: 13463.9 Error: 0 */
genomestart 4
trait 1 0 0 1 0.334906 0 0.853695 0 0.577735 
node 1 1 1 1
node 2 1 1 1
node 3 1 1 1
node 4 1 1 1
node 5 1 1 1
node 6 1 1 1
node 7 1 1 1
node 8 1 1 1
node 9 1 1 1
node 10 1 1 1
node 11 1 1 1
node 12 1 1 1
node 13 1 1 1
node 14 1 1 1
node 15 1 1 1
node 16 1 1 1
node 17 1 1 1
node 18 1 1 1
node 19 1 1 1
node 20 1 1 1
node 21 1 1 1
node 22 1 1 1
node 23 1 1 1
node 24 1 1 1
node 25 1 1 1
node 26 1 1 1
node 27 1 1 1
node 28 1 1 1
node 29 1 1 1
node 30 1 1 3
node 31 1 0 2
node 32 1 0 2
node 33 1 0 2
gene 1 1 31 -2.62307 0 1 -2.62307 1
gene 1 1 32 -2.66972 0 2 -2.66972 1
gene 1 1 33 0.582313 0 3 0.582313 1
gene 1 2 31 0.363973 0 4 0.363973 1
gene 1 2 32 0.0885736 0 5 0.0885736 1
gene 1 2 33 4.26417 0 6 4.26417 1
gene 1 3 31 -0.592537 0 7 -0.592537 1
gene 1 3 32 -1.01542 0 8 -1.01542 1
gene 1 3 33 4.09545 0 9 4.09545 1
gene 1 4 31 0.0209724 0 10 0.0209724 1
gene 1 4 32 0.0595427 0 11 0.0595427 1
gene 1 4 33 -0.00034952 0 12 -0.00034952 1
gene 1 5 31 1.90112 0 13 1.90112 1
gene 1 5 32 -0.235917 0 14 -0.235917 1
gene 1 5 33 -0.315485 0 15 -0.315485 1
gene 1 6 31 2.30775 0 16 2.30775 1
gene 1 6 32 2.00008 0 17 2.00008 1
gene 1 6 33 4.92556 0 18 4.92556 1
gene 1 7 31 5 0 19 5 1
gene 1 7 32 0.457771 0 20 0.457771 1
gene 1 7 33 -0.676316 0 21 -0.676316 1
gene 1 8 31 0.686982 0 22 0.686982 1
gene 1 8 32 -0.573556 0 23 -0.573556 1
gene 1 8 33 2.34305 0 24 2.34305 1
gene 1 9 31 -0.0899257 0 25 -0.0899257 1
gene 1 9 32 0.899527 0 26 0.899527 1
gene 1 9 33 -0.517155 0 27 -0.517155 1
gene 1 10 31 0.084921 0 28 0.084921 1
gene 1 10 32 -1.3857 0 29 -1.3857 1
gene 1 10 33 0.592162 0 30 0.592162 1
gene 1 11 31 1.66484 0 31 1.66484 1
gene 1 11 32 -0.537509 0 32 -0.537509 1
gene 1 11 33 0.271556 0 33 0.271556 1
gene 1 12 31 -1.82099 0 34 -1.82099 1
gene 1 12 32 0.243446 0 35 0.243446 1
gene 1 12 33 -2.28404 0 36 -2.28404 1
gene 1 13 31 1.75055 0 37 1.75055 1
gene 1 13 32 -0.417013 0 38 -0.417013 1
gene 1 13 33 -0.711411 0 39 -0.711411 1
gene 1 14 31 0.476263 0 40 0.476263 1
gene 1 14 32 0.410758 0 41 0.410758 1
gene 1 14 33 1.22656 0 42 1.22656 1
gene 1 15 31 0.420927 0 43 0.420927 1
gene 1 15 32 0.957942 0 44 0.957942 1
gene 1 15 33 0.779738 0 45 0.779738 1
gene 1 16 31 -2.76415 0 46 -2.76415 1
gene 1 16 32 -0.424803 0 47 -0.424803 1
gene 1 16 33 0.785215 0 48 0.785215 1
gene 1 17 31 -0.263921 0 49 -0.263921 1
gene 1 17 32 -4.86179 0 50 -4.86179 1
gene 1 17 33 -2.6114 0 51 -2.6114 1
gene 1 18 31 -0.45787 0 52 -0.45787 1
gene 1 18 32 -4.39916 0 53 -4.39916 1
gene 1 18 33 0.493827 0 54 0.493827 1
gene 1 19 31 -0.491826 0 55 -0.491826 1
gene 1 19 32 -5 0 56 -5 1
gene 1 19 33 0.834092 0 57 0.834092 1
gene 1 20 31 -0.714722 0 58 -0.714722 1
gene 1 20 32 0.784803 0 59 0.784803 1
gene 1 20 33 -3.24161 0 60 -3.24161 1
gene 1 21 31 1.48191 0 61 1.48191 1
gene 1 21 32 0.963808 0 62 0.963808 1
gene 1 21 33 -0.285481 0 63 -0.285481 1
gene 1 22 31 -0.438165 0 64 -0.438165 1
gene 1 22 32 1.38086 0 65 1.38086 1
gene 1 22 33 0.752202 0 66 0.752202 1
gene 1 23 31 0.243269 0 67 0.243269 1
gene 1 23 32 4.37892 0 68 4.37892 1
gene 1 23 33 -0.126309 0 69 -0.126309 1
gene 1 24 31 1.56492 0 70 1.56492 1
gene 1 24 32 -0.595159 0 71 -0.595159 1
gene 1 24 33 -0.422491 0 72 -0.422491 1
gene 1 25 31 -4.06495 0 73 -4.06495 1
gene 1 25 32 -0.0586739 0 74 -0.0586739 1
gene 1 25 33 -0.618031 0 75 -0.618031 1
gene 1 26 31 -0.12079 0 76 -0.12079 1
gene 1 26 32 -0.842547 0 77 -0.842547 1
gene 1 26 33 0.143453 0 78 0.143453 1
gene 1 27 31 -1.47806 0 79 -1.47806 1
gene 1 27 32 0.861368 0 80 0.861368 1
gene 1 27 33 0.345441 0 81 0.345441 1
gene 1 28 31 -0.967818 0 82 -0.967818 1
gene 1 28 32 -0.160024 0 83 -0.160024 1
gene 1 28 33 0.333793 0 84 0.333793 1
gene 1 29 31 -1.77516 0 85 -1.77516 1
gene 1 29 32 -1.45138 0 86 -1.45138 1
gene 1 29 33 -0.0691866 0 87 -0.0691866 1
gene 1 30 31 -0.92963 0 88 -0.92963 1
gene 1 30 32 1.7093 0 89 1.7093 1
gene 1 30 33 -0.992872 0 90 -0.992872 1
genomeend 4

/* Organism #5 Fitness: 13312.8 Error: 0 */
genomestart 5
trait 1 0 0 0.39531 0.334906 0 0.853695 0.656478 0 
node 1 1 1 1
node 2 1 1 1
node 3 1 1 1
node 4 1 1 1
node 5 1 1 1
node 6 1 1 1
node 7 1 1 1
node 8 1 1 1
node 9 1 1 1
node 10 1 1 1
node 11 1 1 1
node 12 1 1 1
node 13 1 1 1
node 14 1 1 1
node 15 1 1 1
node 16 1 1 1
node 17 1 1 1
node 18 1 1 1
node 19 1 1 1
node 20 1 1 1
node 21 1 1 1
node 22 1 1 1
node 23 1 1 1
node 24 1 1 1
node 25 1 1 1
node 26 1 1 1
node 27 1 1 1
node 28 1 1 1
node 29 1 1 1
node 30 1 1 3
node 31 1 0 2
node 32 1 0 2
node 33 1 0 2
gene 1 1 31 -2.88392 0 1 -2.88392 1
gene 1 1 32 -4.87546 0 2 -4.87546 1
gene 1 1 33 0.720774 0 3 0.720774 1
gene 1 2 31 -0.231464 0 4 -0.231464 1
gene 1 2 32 0.105362 0 5 0.105362 1
gene 1 2 33 3.11926 0 6 3.11926 1
gene 1 3 31 -1.89542 0 7 -1.89542 1
gene 1 3 32 1.66325 0 8 1.66325 1
gene 1 3 33 3.24478 0 9 3.24478 1
gene 1 4 31 2.22642 0 10 2.22642 1
gene 1 4 32 2.04521 0 11 2.04521 1
gene 1 4 33 0.903386 0 12 0.903386 1
gene 1 5 31 1.23231 0 13 1.23231 1
gene 1 5 32 0.536446 0 14 0.536446 1
gene 1 5 33 2.95281 0 15 2.95281 1
gene 1 6 31 3.33345 0 16 3.33345 1
gene 1 6 32 -3.27444 0 17 -3.27444 1
gene 1 6 33 4.10325 0 18 4.10325 1
gene 1 7 31 4.20481 0 19 4.20481 1
gene 1 7 32 2.67089 0 20 2.67089 1
gene 1 7 33 1.81957 0 21 1.81957 1
gene 1 8 31 0.221802 0 22 0.221802 1
gene 1 8 32 -0.086055 0 23 -0.086055 1
gene 1 8 33 1.672 0 24 1.672 1
gene 1 9 31 0.356601 0 25 0.356601 1
gene 1 9 32 -0.760972 0 26 -0.760972 1
gene 1 9 33 -2.14839 0 27 -2.14839 1
gene 1 10 31 -0.659579 0 28 -0.659579 1
gene 1 10 32 -1.36342 0 29 -1.36342 1
gene 1 10 33 -1.55735 0 30 -1.55735 1
gene 1 11 31 1.92289 0 31 1.92289 1
gene 1 11 32 -0.0708759 0 32 -0.0708759 1
gene 1 11 33 0.285838 0 33 0.285838 1
gene 1 12 31 0.858456 0 34 0.858456 1
gene 1 12 32 0.136845 0 35 0.136845 1
gene 1 12 33 -1.53103 0 36 -1.53103 1
gene 1 13 31 -0.00511061 0 37 -0.00511061 1
gene 1 13 32 1.05728 0 38 1.05728 1
gene 1 13 33 -1.62445 0 39 -1.62445 1
gene 1 14 31 5 0 40 5 1
gene 1 14 32 3.16141 0 41 3.16141 1
gene 1 14 33 1.70227 0 42 1.70227 1
gene 1 15 31 0.47709 0 43 0.47709 1
gene 1 15 32 3.82718 0 44 3.82718 1
gene 1 15 33 0.315711 0 45 0.315711 1
gene 1 16 31 0.215433 0 46 0.215433 1
gene 1 16 32 -0.46262 0 47 -0.46262 1
gene 1 16 33 -0.42112 0 48 -0.42112 1
gene 1 17 31 -0.946237 0 49 -0.946237 1
gene 1 17 32 -4.77205 0 50 -4.77205 1
gene 1 17 33 -3.13732 0 51 -3.13732 1
gene 1 18 31 -0.79518 0 52 -0.79518 1
gene 1 18 32 -4.80077 0 53 -4.80077 1
gene 1 18 33 -0.927628 0 54 -0.927628 1
gene 1 19 31 -0.104658 0 55 -0.104658 1
gene 1 19 32 -4.8564 0 56 -4.8564 1
gene 1 19 33 0.655772 0 57 0.655772 1
gene 1 20 31 -1.63361 0 58 -1.63361 1
gene 1 20 32 1.65836 0 59 1.65836 1
gene 1 20 33 -1.68528 0 60 -1.68528 1
gene 1 21 31 -0.33279 0 61 -0.33279 1
gene 1 21 32 -1.26958 0 62 -1.26958 1
gene 1 21 33 0.550967 0 63 0.550967 1
gene 1 22 31 -0.992727 0 64 -0.992727 1
gene 1 22 32 -3.00076 0 65 -3.00076 1
gene 1 22 33 0.705836 0 66 0.705836 1
gene 1 23 31 -0.989755 0 67 -0.989755 1
gene 1 23 32 4.29135 0 68 4.29135 1
gene 1 23 33 -4.7632 0 69 -4.7632 1
gene 1 24 31 -1.77609 0 70 -1.77609 1
gene 1 24 32 -0.950709 0 71 -0.950709 1
gene 1 24 33 1.2555 0 72 1.2555 1
gene 1 25 31 -3.38341 0 73 -3.38341 1
gene 1 25 32 0.73977 0 74 0.73977 1
gene 1 25 33 -1.07223 0 75 -1.07223 1
gene 1 26 31 -0.303795 0 76 -0.303795 1
gene 1 26 32 1.6502 0 77 1.6502 1
gene 1 26 33 1.34356 0 78 1.34356 1
gene 1 27 31 0.861344 0 79 0.861344 1
gene 1 27 32 -0.197174 0 80 -0.197174 1
gene 1 27 33 1.46403 0 81 1.46403 1
gene 1 28 31 -0.271108 0 82 -0.271108 1
gene 1 28 32 0.744206 0 83 0.744206 1
gene 1 28 33 0.116787 0 84 0.116787 1
gene 1 29 31 -1.1461 0 85 -1.1461 1
gene 1 29 32 -1.6452 0 86 -1.6452 1
gene 1 29 33 0.0733909 0 87 0.0733909 1
gene 1 30 31 -0.570941 0 88 -0.570941 1
gene 1 30 32 1.30576 0 89 1.30576 1
gene 1 30 33 -1.67392 0 90 -1.67392 1
genomeend 5

/* Organism #6 Fitness: 12524.2 Error: 0 */
genomestart 6
trait 1 0 0 0.39531 0.334906 0 0.853695 0.656478 0 
node 1 1 1 1
node 2 1 1 1
node 3 1 1 1
node 4 1 1 1
node 5 1 1 1
node 6 1 1 1
node 7 1 1 1
node 8 1 1 1
node 9 1 1 1
node 10 1 1 1
node 11 1 1 1
node 12 1 1 1
node 13 1 1 1
node 14 1 1 1
node 15 1 1 1
node 16 1 1 1
node 17 1 1 1
node 18 1 1 1
node 19 1 1 1
node 20 1 1 1
node 21 1 1 1
node 22 1 1 1
node 23 1 1 1
node 24 1 1 1
node 25 1 1 1
node 26 1 1 1
node 27 1 1 1
node 28 1 1 1
node 29 1 1 1
node 30 1 1 3
node 31 1 0 2
node 32 1 0 2
node 33 1 0 2
gene 1 1 31 -1.10325 0 1 -1.10325 1
gene 1 1 32 -3.72156 0 2 -3.72156 1
gene 1 1 33 0.270145 0 3 0.270145 1
gene 1 2 31 -0.141093 0 4 -0.141093 1
gene 1 2 32 0.834784 0 5 0.834784 1
gene 1 2 33 4.41754 0 6 4.41754 1
gene 1 3 31 -3.89432 0 7 -3.89432 1
gene 1 3 32 0.416099 0 8 0.416099 1
gene 1 3 33 4.07009 0 9 4.07009 1
gene 1 4 31 1.76254 0 10 1.76254 1
gene 1 4 32 0.427272 0 11 0.427272 1
gene 1 4 33 0.295408 0 12 0.295408 1
gene 1 5 31 3.56638 0 13 3.56638 1
gene 1 5 32 0.893066 0 14 0.893066 1
gene 1 5 33 2.14387 0 15 2.14387 1
gene 1 6 31 2.45999 0 16 2.45999 1
gene 1 6 32 -2.71711 0 17 -2.71711 1
gene 1 6 33 2.95428 0 18 2.95428 1
gene 1 7 31 4.29692 0 19 4.29692 1
gene 1 7 32 0.28596 0 20 0.28596 1
gene 1 7 33 3.10136 0 21 3.10136 1
gene 1 8 31 0.926856 0 22 0.926856 1
gene 1 8 32 0.0263245 0 23 0.0263245 1
gene 1 8 33 0.983826 0 24 0.983826 1
gene 1 9 31 -0.597035 0 25 -0.597035 1
gene 1 9 32 -0.625329 0 26 -0.625329 1
gene 1 9 33 -0.458443 0 27 -0.458443 1
gene 1 10 31 0.147757 0 28 0.147757 1
gene 1 10 32 -0.507128 0 29 -0.507128 1
gene 1 10 33 -1.45171 0 30 -1.45171 1
gene 1 11 31 1.63378 0 31 1.63378 1
gene 1 11 32 -1.89824 0 32 -1.89824 1
gene 1 11 33 -1.68698 0 33 -1.68698 1
gene 1 12 31 0.658431 0 34 0.658431 1
gene 1 12 32 1.96065 0 35 1.96065 1
gene 1 12 33 0.694503 0 36 0.694503 1
gene 1 13 31 1.01244 0 37 1.01244 1
gene 1 13 32 1.68742 0 38 1.68742 1
gene 1 13 33 -4.05312 0 39 -4.05312 1
gene 1 14 31 3.69233 0 40 3.69233 1
gene 1 14 32 3.47998 0 41 3.47998 1
gene 1 14 33 -0.368924 0 42 -0.368924 1
gene 1 15 31 0.925612 0 43 0.925612 1
gene 1 15 32 3.71832 0 44 3.71832 1
gene 1 15 33 1.62147 0 45 1.62147 1
gene 1 16 31 -1.09261 0 46 -1.09261 1
gene 1 16 32 0.000469724 0 47 0.000469724 1
gene 1 16 33 -2.90269 0 48 -2.90269 1
gene 1 17 31 -0.705699 0 49 -0.705699 1
gene 1 17 32 -4.74484 0 50 -4.74484 1
gene 1 17 33 -2.59303 0 51 -2.59303 1
gene 1 18 31 -2.32724 0 52 -2.32724 1
gene 1 18 32 -5 0 53 -5 1
gene 1 18 33 -1.40307 0 54 -1.40307 1
gene 1 19 31 1.69462 0 55 1.69462 1
gene 1 19 32 -4.79228 0 56 -4.79228 1
gene 1 19 33 0.838102 0 57 0.838102 1
gene 1 20 31 -1.56144 0 58 -1.56144 1
gene 1 20 32 1.28256 0 59 1.28256 1
gene 1 20 33 -0.87548 0 60 -0.87548 1
gene 1 21 31 -2.86379 0 61 -2.86379 1
gene 1 21 32 0.42642 0 62 0.42642 1
gene 1 21 33 2.76423 0 63 2.76423 1
gene 1 22 31 -0.359745 0 64 -0.359745 1
gene 1 22 32 -2.18118 0 65 -2.18118 1
gene 1 22 33 -1.07854 0 66 -1.07854 1
gene 1 23 31 -0.977611 0 67 -0.977611 1
gene 1 23 32 5 0 68 5 1
gene 1 23 33 -3.49839 0 69 -3.49839 1
gene 1 24 31 -0.642496 0 70 -0.642496 1
gene 1 24 32 -1.03059 0 71 -1.03059 1
gene 1 24 33 0.313242 0 72 0.313242 1
gene 1 25 31 -3.91876 0 73 -3.91876 1
gene 1 25 32 0.181664 0 74 0.181664 1
gene 1 25 33 -0.0100978 0 75 -0.0100978 1
gene 1 26 31 -0.101965 0 76 -0.101965 1
gene 1 26 32 -0.975534 0 77 -0.975534 1
gene 1 26 33 1.26096 0 78 1.26096 1
gene 1 27 31 -0.0770586 0 79 -0.0770586 1
gene 1 27 32 1.34336 0 80 1.34336 1
gene 1 27 33 2.8369 0 81 2.8369 1
gene 1 28 31 0.840104 0 82 0.840104 1
gene 1 28 32 0.535187 0 83 0.535187 1
gene 1 28 33 0.430111 0 84 0.430111 1
gene 1 29 31 -1.47551 0 85 -1.47551 1
gene 1 29 32 0.563971 0 86 0.563971 1
gene 1 29 33 1.24208 0 87 1.24208 1
gene 1 30 31 -1.26574 0 88 -1.26574 1
gene 1 30 32 0.909909 0 89 0.909909 1
gene 1 30 33 -1.02815 0 90 -1.02815 1
genomeend 6

/* Organism #7 Fitness: 13383.3 Error: 0 */
genomestart 7
trait 1 0.679505 0 0.39531 0.459238 0.233202 0.853695 0 0 
node 1 1 1 1
node 2 1 1 1
node 3 1 1 1
node 4 1 1 1
node 5 1 1 1
node 6 1 1 1
node 7 1 1 1
node 8 1 1 1
node 9 1 1 1
node 10 1 1 1
node 11 1 1 1
node 12 1 1 1
node 13 1 1 1
node 14 1 1 1
node 15 1 1 1
node 16 1 1 1
node 17 1 1 1
node 18 1 1 1
node 19 1 1 1
node 20 1 1 1
node 21 1 1 1
node 22 1 1 1
node 23 1 1 1
node 24 1 1 1
node 25 1 1 1
node 26 1 1 1
node 27 1 1 1
node 28 1 1 1
node 29 1 1 1
node 30 1 1 3
node 31 1 0 2
node 32 1 0 2
node 33 1 0 2
gene 1 1 31 -2.64545 0 1 -2.64545 1
gene 1 1 32 -2.11629 0 2 -2.11629 1
gene 1 1 33 1.21865 0 3 1.21865 1
gene 1 2 31 -0.690941 0 4 -0.690941 1
gene 1 2 32 3.94209 0 5 3.94209 1
gene 1 2 33 0.945752 0 6 0.945752 1
gene 1 3 31 -2.75368 0 7 -2.75368 1
gene 1 3 32 1.64775 0 8 1.64775 1
gene 1 3 33 -0.365126 0 9 -0.365126 1
gene 1 4 31 3.54007 0 10 3.54007 1
gene 1 4 32 0.814919 0 11 0.814919 1
gene 1 4 33 1.44374 0 12 1.44374 1
gene 1 5 31 2.95442 0 13 2.95442 1
gene 1 5 32 0.114385 0 14 0.114385 1
gene 1 5 33 2.0995 0 15 2.0995 1
gene 1 6 31 2.8464 0 16 2.8464 1
gene 1 6 32 0.777144 0 17 0.777144 1
gene 1 6 33 4.32819 0 18 4.32819 1
gene 1 7 31 3.65481 0 19 3.65481 1
gene 1 7 32 2.94488 0 20 2.94488 1
gene 1 7 33 2.82682 0 21 2.82682 1
gene 1 8 31 1.70991 0 22 1.70991 1
gene 1 8 32 -0.951676 0 23 -0.951676 1
gene 1 8 33 -0.135035 0 24 -0.135035 1
gene 1 9 31 1.97975 0 25 1.97975 1
gene 1 9 32 -1.87056 0 26 -1.87056 1
gene 1 9 33 0.998002 0 27 0.998002 1
gene 1 10 31 1.24057 0 28 1.24057 1
gene 1 10 32 1.92449 0 29 1.92449 1
gene 1 10 33 -0.180893 0 30 -0.180893 1
gene 1 11 31 1.14454 0 31 1.14454 1
gene 1 11 32 1.55442 0 32 1.55442 1
gene 1 11 33 -2.39198 0 33 -2.39198 1
gene 1 12 31 0.980246 0 34 0.980246 1
gene 1 12 32 0.260873 0 35 0.260873 1
gene 1 12 33 0.660987 0 36 0.660987 1
gene 1 13 31 2.07625 0 37 2.07625 1
gene 1 13 32 5 0 38 5 1
gene 1 13 33 -2.19294 0 39 -2.19294 1
gene 1 14 31 3.67807 0 40 3.67807 1
gene 1 14 32 -3.2077 0 41 -3.2077 1
gene 1 14 33 0.0346806 0 42 0.0346806 1
gene 1 15 31 1.71593 0 43 1.71593 1
gene 1 15 32 0.910221 0 44 0.910221 1
gene 1 15 33 -0.477981 0 45 -0.477981 1
gene 1 16 31 -0.451894 0 46 -0.451894 1
gene 1 16 32 0.0518207 0 47 0.0518207 1
gene 1 16 33 -0.231639 0 48 -0.231639 1
gene 1 17 31 -4.58744 0 49 -4.58744 1
gene 1 17 32 -4.63546 0 50 -4.63546 1
gene 1 17 33 -1.16633 0 51 -1.16633 1
gene 1 18 31 0.906236 0 52 0.906236 1
gene 1 18 32 -5 0 53 -5 1
gene 1 18 33 -0.328653 0 54 -0.328653 1
gene 1 19 31 0.110599 0 55 0.110599 1
gene 1 19 32 -2.78391 0 56 -2.78391 1
gene 1 19 33 -0.730238 0 57 -0.730238 1
gene 1 20 31 -2.25451 0 58 -2.25451 1
gene 1 20 32 1.94285 0 59 1.94285 1
gene 1 20 33 -0.193887 0 60 -0.193887 1
gene 1 21 31 -1.08938 0 61 -1.08938 1
gene 1 21 32 -2.93877 0 62 -2.93877 1
gene 1 21 33 0.403539 0 63 0.403539 1
gene 1 22 31 2.04396 0 64 2.04396 1
gene 1 22 32 -3.85074 0 65 -3.85074 1
gene 1 22 33 -0.755906 0 66 -0.755906 1
gene 1 23 31 -1.86679 0 67 -1.86679 1
gene 1 23 32 -0.711279 0 68 -0.711279 1
gene 1 23 33 0.221231 0 69 0.221231 1
gene 1 24 31 -1.03395 0 70 -1.03395 1
gene 1 24 32 0.672523 0 71 0.672523 1
gene 1 24 33 -0.383852 0 72 -0.383852 1
gene 1 25 31 -0.802104 0 73 -0.802104 1
gene 1 25 32 -0.922377 0 74 -0.922377 1
gene 1 25 33 1.74466 0 75 1.74466 1
gene 1 26 31 -0.857293 0 76 -0.857293 1
gene 1 26 32 1.3167 0 77 1.3167 1
gene 1 26 33 -0.0863759 0 78 -0.0863759 1
gene 1 27 31 0.921671 0 79 0.921671 1
gene 1 27 32 -0.264706 0 80 -0.264706 1
gene 1 27 33 -2.17603 0 81 -2.17603 1
gene 1 28 31 0.0537419 0 82 0.0537419 1
gene 1 28 32 -0.359082 0 83 -0.359082 1
gene 1 28 33 -0.337695 0 84 -0.337695 1
gene 1 29 31 -0.0478133 0 85 -0.0478133 1
gene 1 29 32 1.35948 0 86 1.35948 1
gene 1 29 33 0.116185 0 87 0.116185 1
gene 1 30 31 -1.00479 0 88 -1.00479 1
gene 1 30 32 0.414672 0 89 0.414672 1
gene 1 30 33 -1.89741 0 90 -1.89741 1
genomeend 7

/* Organism #8 Fitness: 12919.2 Error: 0 */
genomestart 8
trait 1 0 0 0 0.459238 0.183595 0.853695 0 0.133056 
node 1 1 1 1
node 2 1 1 1
node 3 1 1 1
node 4 1 1 1
node 5 1 1 1
node 6 1 1 1
node 7 1 1 1
node 8 1 1 1
node 9 1 1 1
node 10 1 1 1
node 11 1 1 1
node 12 1 1 1
node 13 1 1 1
node 14 1 1 1
node 15 1 1 1
node 16 1 1 1
node 17 1 1 1
node 18 1 1 1
node 19 1 1 1
node 20 1 1 1
node 21 1 1 1
node 22 1 1 1
node 23 1 1 1
node 24 1 1 1
node 25 1 1 1
node 26 1 1 1
node 27 1 1 1
node 28 1 1 1
node 29 1 1 1
node 30 1 1 3
node 31 1 0 2
node 32 1 0 2
node 33 1 0 2
gene 1 1 31 -4.00277 0 1 -4.00277 1
gene 1 1 32 -3.69076 0 2 -3.69076 1
gene 1 1 33 1.49696 0 3 1.49696 1
gene 1 2 31 0.962029 0 4 0.962029 1
gene 1 2 32 1.74641 0 5 1.74641 1
gene 1 2 33 1.25998 0 6 1.25998 1
gene 1 3 31 -2.92007 0 7 -2.92007 1
gene 1 3 32 2.26567 0 8 2.26567 1
gene 1 3 33 -0.296594 0 9 -0.296594 1
gene 1 4 31 1.55585 0 10 1.55585 1
gene 1 4 32 1.90173 0 11 1.90173 1
gene 1 4 33 0.00369407 0 12 0.00369407 1
gene 1 5 31 1.88198 0 13 1.88198 1
gene 1 5 32 1.44547 0 14 1.44547 1
gene 1 5 33 3.10366 0 15 3.10366 1
gene 1 6 31 1.84693 0 16 1.84693 1
gene 1 6 32 -1.24959 0 17 -1.24959 1
gene 1 6 33 3.44621 0 18 3.44621 1
gene 1 7 31 4.51835 0 19 4.51835 1
gene 1 7 32 2.51104 0 20 2.51104 1
gene 1 7 33 2.10198 0 21 2.10198 1
gene 1 8 31 1.34035 0 22 1.34035 1
gene 1 8 32 0.630828 0 23 0.630828 1
gene 1 8 33 -0.720272 0 24 -0.720272 1
gene 1 9 31 2.05689 0 25 2.05689 1
gene 1 9 32 -1.26826 0 26 -1.26826 1
gene 1 9 33 -1.47404 0 27 -1.47404 1
gene 1 10 31 -0.723322 0 28 -0.723322 1
gene 1 10 32 0.305286 0 29 0.305286 1
gene 1 10 33 0.776487 0 30 0.776487 1
gene 1 11 31 1.21469 0 31 1.21469 1
gene 1 11 32 2.64125 0 32 2.64125 1
gene 1 11 33 -4.29182 0 33 -4.29182 1
gene 1 12 31 2.02667 0 34 2.02667 1
gene 1 12 32 0.0710658 0 35 0.0710658 1
gene 1 12 33 -0.0855224 0 36 -0.0855224 1
gene 1 13 31 1.91872 0 37 1.91872 1
gene 1 13 32 1.89356 0 38 1.89356 1
gene 1 13 33 -3.21738 0 39 -3.21738 1
gene 1 14 31 3.02003 0 40 3.02003 1
gene 1 14 32 -1.95981 0 41 -1.95981 1
gene 1 14 33 0.555274 0 42 0.555274 1
gene 1 15 31 0.836394 0 43 0.836394 1
gene 1 15 32 -0.999544 0 44 -0.999544 1
gene 1 15 33 2.49 0 45 2.49 1
gene 1 16 31 -0.133352 0 46 -0.133352 1
gene 1 16 32 -3.67486 0 47 -3.67486 1
gene 1 16 33 1.22169 0 48 1.22169 1
gene 1 17 31 -4.07817 0 49 -4.07817 1
gene 1 17 32 -4.12824 0 50 -4.12824 1
gene 1 17 33 -2.50441 0 51 -2.50441 1
gene 1 18 31 -0.0148598 0 52 -0.0148598 1
gene 1 18 32 -5 0 53 -5 1
gene 1 18 33 0.40236 0 54 0.40236 1
gene 1 19 31 -0.975991 0 55 -0.975991 1
gene 1 19 32 -2.63705 0 56 -2.63705 1
gene 1 19 33 1.58658 0 57 1.58658 1
gene 1 20 31 -3.02883 0 58 -3.02883 1
gene 1 20 32 2.84887 0 59 2.84887 1
gene 1 20 33 -0.773024 0 60 -0.773024 1
gene 1 21 31 -1.22907 0 61 -1.22907 1
gene 1 21 32 -3.33447 0 62 -3.33447 1
gene 1 21 33 -0.496654 0 63 -0.496654 1
gene 1 22 31 1.80086 0 64 1.80086 1
gene 1 22 32 -4.04311 0 65 -4.04311 1
gene 1 22 33 -0.510987 0 66 -0.510987 1
gene 1 23 31 -1.94144 0 67 -1.94144 1
gene 1 23 32 3.48541 0 68 3.48541 1
gene 1 23 33 -0.598149 0 69 -0.598149 1
gene 1 24 31 -0.421929 0 70 -0.421929 1
gene 1 24 32 3.47121 0 71 3.47121 1
gene 1 24 33 1.462 0 72 1.462 1
gene 1 25 31 -0.133697 0 73 -0.133697 1
gene 1 25 32 -0.657685 0 74 -0.657685 1
gene 1 25 33 1.47073 0 75 1.47073 1
gene 1 26 31 0.355923 0 76 0.355923 1
gene 1 26 32 2.04233 0 77 2.04233 1
gene 1 26 33 1.68777 0 78 1.68777 1
gene 1 27 31 0.875631 0 79 0.875631 1
gene 1 27 32 -0.61888 0 80 -0.61888 1
gene 1 27 33 -1.57356 0 81 -1.57356 1
gene 1 28 31 -1.06202 0 82 -1.06202 1
gene 1 28 32 -0.223573 0 83 -0.223573 1
gene 1 28 33 0.597646 0 84 0.597646 1
gene 1 29 31 0.744189 0 85 0.744189 1
gene 1 29 32 -0.740004 0 86 -0.740004 1
gene 1 29 33 -0.388661 0 87 -0.388661 1
gene 1 30 31 0.133636 0 88 0.133636 1
gene 1 30 32 -0.420537 0 89 -0.420537 1
gene 1 30 33 -2.61056 0 90 -2.61056 1
genomeend 8

/* Organism #9 Fitness: 13142.3 Error: 0 */
genomestart 9
trait 1 0.679505 0 0.39531 0.459238 0.233202 0.853695 0 0 
node 1 1 1 1
node 2 1 1 1
node 3 1 1 1
node 4 1 1 1
node 5 1 1 1
node 6 1 1 1
node 7 1 1 1
node 8 1 1 1
node 9 1 1 1
node 10 1 1 1
node 11 1 1 1
node 12 1 1 1
node 13 1 1 1
node 14 1 1 1
node 15 1 1 1
node 16 1 1 1
node 17 1 1 1
node 18 1 1 1
node 19 1 1 1
node 20 1 1 1
node 21 1 1 1
node 22 1 1 1
node 23 1 1 1
node 24 1 1 1
node 25 1 1 1
node 26 1 1 1
node 27 1 1 1
node 28 1 1 1
node 29 1 1 1
node 30 1 1 3
node 31 1 0 2
node 32 1 0 2
node 33 1 0 2
gene 1 1 31 -1.55694 0 1 -1.55694 1
gene 1 1 32 -1.29753 0 2 -1.29753 1
gene 1 1 33 0.284467 0 3 0.284467 1
gene 1 2 31 0.783627 0 4 0.783627 1
gene 1 2 32 0.441893 0 5 0.441893 1
gene 1 2 33 2.05021 0 6 2.05021 1
gene 1 3 31 -0.47049 0 7 -0.47049 1
gene 1 3 32 1.89902 0 8 1.89902 1
gene 1 3 33 0.938583 0 9 0.938583 1
gene 1 4 31 1.34014 0 10 1.34014 1
gene 1 4 32 -0.142986 0 11 -0.142986 1
gene 1 4 33 -2.10651 0 12 -2.10651 1
gene 1 5 31 4.60648 0 13 4.60648 1
gene 1 5 32 0.0142975 0 14 0.0142975 1
gene 1 5 33 2.11858 0 15 2.11858 1
gene 1 6 31 2.62824 0 16 2.62824 1
gene 1 6 32 0.0830029 0 17 0.0830029 1
gene 1 6 33 4.35334 0 18 4.35334 1
gene 1 7 31 4.40824 0 19 4.40824 1
gene 1 7 32 1.89449 0 20 1.89449 1
gene 1 7 33 2.31162 0 21 2.31162 1
gene 1 8 31 1.64282 0 22 1.64282 1
gene 1 8 32 -0.972984 0 23 -0.972984 1
gene 1 8 33 -1.34384 0 24 -1.34384 1
gene 1 9 31 -1.40685 0 25 -1.40685 1
gene 1 9 32 -0.719994 0 26 -0.719994 1
gene 1 9 33 0.417278 0 27 0.417278 1
gene 1 10 31 -1.67459 0 28 -1.67459 1
gene 1 10 32 -0.629201 0 29 -0.629201 1
gene 1 10 33 0.245018 0 30 0.245018 1
gene 1 11 31 -0.906364 0 31 -0.906364 1
gene 1 11 32 -0.444615 0 32 -0.444615 1
gene 1 11 33 -0.483898 0 33 -0.483898 1
gene 1 12 31 0.840351 0 34 0.840351 1
gene 1 12 32 1.00169 0 35 1.00169 1
gene 1 12 33 1.62681 0 36 1.62681 1
gene 1 13 31 0.726533 0 37 0.726533 1
gene 1 13 32 1.53942 0 38 1.53942 1
gene 1 13 33 -4.95394 0 39 -4.95394 1
gene 1 14 31 2.21531 0 40 2.21531 1
gene 1 14 32 -0.107549 0 41 -0.107549 1
gene 1 14 33 0.787854 0 42 0.787854 1
gene 1 15 31 2.38896 0 43 2.38896 1
gene 1 15 32 -2.1301 0 44 -2.1301 1
gene 1 15 33 2.75879 0 45 2.75879 1
gene 1 16 31 0.107361 0 46 0.107361 1
gene 1 16 32 -0.523611 0 47 -0.523611 1
gene 1 16 33 1.00768 0 48 1.00768 1
gene 1 17 31 -4.55784 0 49 -4.55784 1
gene 1 17 32 -1.11434 0 50 -1.11434 1
gene 1 17 33 -2.02551 0 51 -2.02551 1
gene 1 18 31 -1.13971 0 52 -1.13971 1
gene 1 18 32 -5 0 53 -5 1
gene 1 18 33 -1.63876 0 54 -1.63876 1
gene 1 19 31 1.04802 0 55 1.04802 1
gene 1 19 32 -2.47475 0 56 -2.47475 1
gene 1 19 33 1.14524 0 57 1.14524 1
gene 1 20 31 -1.84599 0 58 -1.84599 1
gene 1 20 32 1.34538 0 59 1.34538 1
gene 1 20 33 -0.331172 0 60 -0.331172 1
gene 1 21 31 -3.16644 0 61 -3.16644 1
gene 1 21 32 -0.569131 0 62 -0.569131 1
gene 1 21 33 -0.161752 0 63 -0.161752 1
gene 1 22 31 -1.28854 0 64 -1.28854 1
gene 1 22 32 -1.02398 0 65 -1.02398 1
gene 1 22 33 0.820483 0 66 0.820483 1
gene 1 23 31 -1.19052 0 67 -1.19052 1
gene 1 23 32 5 0 68 5 1
gene 1 23 33 -2.3571 0 69 -2.3571 1
gene 1 24 31 -0.296229 0 70 -0.296229 1
gene 1 24 32 0.987814 0 71 0.987814 1
gene 1 24 33 -3.20741 0 72 -3.20741 1
gene 1 25 31 -3.95749 0 73 -3.95749 1
gene 1 25 32 -0.178971 0 74 -0.178971 1
gene 1 25 33 0.338774 0 75 0.338774 1
gene 1 26 31 -0.110368 0 76 -0.110368 1
gene 1 26 32 -0.243505 0 77 -0.243505 1
gene 1 26 33 0.749762 0 78 0.749762 1
gene 1 27 31 -1.08992 0 79 -1.08992 1
gene 1 27 32 0.775294 0 80 0.775294 1
gene 1 27 33 0.973997 0 81 0.973997 1
gene 1 28 31 -0.609924 0 82 -0.609924 1
gene 1 28 32 0.71413 0 83 0.71413 1
gene 1 28 33 1.43377 0 84 1.43377 1
gene 1 29 31 -1.41786 0 85 -1.41786 1
gene 1 29 32 -0.672453 0 86 -0.672453 1
gene 1 29 33 0.378305 0 87 0.378305 1
gene 1 30 31 -0.421423 0 88 -0.421423 1
gene 1 30 32 -0.0985918 0 89 -0.0985918 1
gene 1 30 33 -4.20967 0 90 -4.20967 1
genomeend 9

/* Organism #10 Fitness: 13676.5 Error: 0 */
genomestart 10
trait 1 0.679505 0 0.39531 0.459238 0.233202 0.853695 0 0 
node 1 1 1 1
node 2 1 1 1
node 3 1 1 1
node 4 1 1 1
node 5 1 1 1
node 6 1 1 1
node 7 1 1 1
node 8 1 1 1
node 9 1 1 1
node 10 1 1 1
node 11 1 1 1
node 12 1 1 1
node 13 1 1 1
node 14 1 1 1
node 15 1 1 1
node 16 1 1 1
node 17 1 1 1
node 18 1 1 1
node 19 1 1 1
node 20 1 1 1
node 21 1 1 1
node 22 1 1 1
node 23 1 1 1
node 24 1 1 1
node 25 1 1 1
node 26 1 1 1
node 27 1 1 1
node 28 1 1 1
node 29 1 1 1
node 30 1 1 3
node 31 1 0 2
node 32 1 0 2
node 33 1 0 2
gene 1 1 31 -2.04357 0 1 -2.04357 1
gene 1 1 32 -1.28463 0 2 -1.28463 1
gene 1 1 33 0.618098 0 3 0.618098 1
gene 1 2 31 1.33579 0 4 1.33579 1
gene 1 2 32 1.30189 0 5 1.30189 1
gene 1 2 33 2.55601 0 6 2.55601 1
gene 1 3 31 -0.590794 0 7 -0.590794 1
gene 1 3 32 1.2738 0 8 1.2738 1
gene 1 3 33 1.83164 0 9 1.83164 1
gene 1 4 31 1.00283 0 10 1.00283 1
gene 1 4 32 0.568095 0 11 0.568095 1
gene 1 4 33 -1.57873 0 12 -1.57873 1
gene 1 5 31 3.63441 0 13 3.63441 1
gene 1 5 32 -0.804464 0 14 -0.804464 1
gene 1 5 33 1.87775 0 15 1.87775 1
gene 1 6 31 2.35108 0 16 2.35108 1
gene 1 6 32 0.562098 0 17 0.562098 1
gene 1 6 33 5 0 18 5 1
gene 1 7 31 4.50968 0 19 4.50968 1
gene 1 7 32 1.66189 0 20 1.66189 1
gene 1 7 33 1.72931 0 21 1.72931 1
gene 1 8 31 1.13292 0 22 1.13292 1
gene 1 8 32 -0.126306 0 23 -0.126306 1
gene 1 8 33 -1.80637 0 24 -1.80637 1
gene 1 9 31 -0.416303 0 25 -0.416303 1
gene 1 9 32 -1.24956 0 26 -1.24956 1
gene 1 9 33 1.2951 0 27 1.2951 1
gene 1 10 31 -1.3941 0 28 -1.3941 1
gene 1 10 32 0.245908 0 29 0.245908 1
gene 1 10 33 -0.581166 0 30 -0.581166 1
gene 1 11 31 -1.29711 0 31 -1.29711 1
gene 1 11 32 -0.0974437 0 32 -0.0974437 1
gene 1 11 33 -0.0229064 0 33 -0.0229064 1
gene 1 12 31 0.042034 0 34 0.042034 1
gene 1 12 32 1.43972 0 35 1.43972 1
gene 1 12 33 1.46775 0 36 1.46775 1
gene 1 13 31 0.627205 0 37 0.627205 1
gene 1 13 32 1.98856 0 38 1.98856 1
gene 1 13 33 -5 0 39 -5 1
gene 1 14 31 1.72948 0 40 1.72948 1
gene 1 14 32 -0.148562 0 41 -0.148562 1
gene 1 14 33 0.959733 0 42 0.959733 1
gene 1 15 31 1.94818 0 43 1.94818 1
gene 1 15 32 -2.53379 0 44 -2.53379 1
gene 1 15 33 2.00391 0 45 2.00391 1
gene 1 16 31 -0.500706 0 46 -0.500706 1
gene 1 16 32 -0.945587 0 47 -0.945587 1
gene 1 16 33 1.23283 0 48 1.23283 1
gene 1 17 31 -5 0 49 -5 1
gene 1 17 32 -0.763366 0 50 -0.763366 1
gene 1 17 33 -2.9485 0 51 -2.9485 1
gene 1 18 31 -0.281592 0 52 -0.281592 1
gene 1 18 32 -4.92124 0 53 -4.92124 1
gene 1 18 33 -1.35363 0 54 -1.35363 1
gene 1 19 31 0.450036 0 55 0.450036 1
gene 1 19 32 -3.20937 0 56 -3.20937 1
gene 1 19 33 1.40681 0 57 1.40681 1
gene 1 20 31 -1.03023 0 58 -1.03023 1
gene 1 20 32 1.49668 0 59 1.49668 1
gene 1 20 33 0.490294 0 60 0.490294 1
gene 1 21 31 -3.31979 0 61 -3.31979 1
gene 1 21 32 -0.26882 0 62 -0.26882 1
gene 1 21 33 0.199898 0 63 0.199898 1
gene 1 22 31 -1.51857 0 64 -1.51857 1
gene 1 22 32 -1.02952 0 65 -1.02952 1
gene 1 22 33 0.365586 0 66 0.365586 1
gene 1 23 31 -0.886208 0 67 -0.886208 1
gene 1 23 32 4.4794 0 68 4.4794 1
gene 1 23 33 -3.0345 0 69 -3.0345 1
gene 1 24 31 -1.09862 0 70 -1.09862 1
gene 1 24 32 0.969336 0 71 0.969336 1
gene 1 24 33 -3.61559 0 72 -3.61559 1
gene 1 25 31 -3.77609 0 73 -3.77609 1
gene 1 25 32 -0.636302 0 74 -0.636302 1
gene 1 25 33 0.0962793 0 75 0.0962793 1
gene 1 26 31 0.747729 0 76 0.747729 1
gene 1 26 32 -0.339604 0 77 -0.339604 1
gene 1 26 33 0.773501 0 78 0.773501 1
gene 1 27 31 -1.08992 0 79 -1.08992 1
gene 1 27 32 -0.627225 0 80 -0.627225 1
gene 1 27 33 1.19867 0 81 1.19867 1
gene 1 28 31 0.0229288 0 82 0.0229288 1
gene 1 28 32 0.667558 0 83 0.667558 1
gene 1 28 33 0.281587 0 84 0.281587 1
gene 1 29 31 -1.49451 0 85 -1.49451 1
gene 1 29 32 0.497194 0 86 0.497194 1
gene 1 29 33 -0.0600356 0 87 -0.0600356 1
gene 1 30 31 -0.053437 0 88 -0.053437 1
gene 1 30 32 -0.0985918 0 89 -0.0985918 1
gene 1 30 33 -4.97614 0 90 -4.97614 1
genomeend 10

/* Organism #11 Fitness: 12738.6 Error: 0 */
genomestart 11
trait 1 0 0 0.39531 0.334906 0 0.853695 0.656478 0 
node 1 1 1 1
node 2 1 1 1
node 3 1 1 1
node 4 1 1 1
node 5 1 1 1
node 6 1 1 1
node 7 1 1 1
node 8 1 1 1
node 9 1 1 1
node 10 1 1 1
node 11 1 1 1
node 12 1 1 1
node 13 1 1 1
node 14 1 1 1
node 15 1 1 1
node 16 1 1 1
node 17 1 1 1
node 18 1 1 1
node 19 1 1 1
node 20 1 1 1
node 21 1 1 1
node 22 1 1 1
node 23 1 1 1
node 24 1 1 1
node 25 1 1 1
node 26 1 1 1
node 27 1 1 1
node 28 1 1 1
node 29 1 1 1
node 30 1 1 3
node 31 1 0 2
node 32 1 0 2
node 33 1 0 2
gene 1 1 31 -2.68532 0 1 -2.68532 1
gene 1 1 32 -4.04335 0 2 -4.04335 1
gene 1 1 33 1.44205 0 3 1.44205 1
gene 1 2 31 -0.680197 0 4 -0.680197 1
gene 1 2 32 0.525417 0 5 0.525417 1
gene 1 2 33 3.2523 0 6 3.2523 1
gene 1 3 31 -1.84414 0 7 -1.84414 1
gene 1 3 32 1.64293 0 8 1.64293 1
gene 1 3 33 3.03307 0 9 3.03307 1
gene 1 4 31 2.53768 0 10 2.53768 1
gene 1 4 32 1.25127 0 11 1.25127 1
gene 1 4 33 0.259302 0 12 0.259302 1
gene 1 5 31 0.393866 0 13 0.393866 1
gene 1 5 32 1.20957 0 14 1.20957 1
gene 1 5 33 3.47971 0 15 3.47971 1
gene 1 6 31 3.17881 0 16 3.17881 1
gene 1 6 32 -2.81395 0 17 -2.81395 1
gene 1 6 33 4.93776 0 18 4.93776 1
gene 1 7 31 5 0 19 5 1
gene 1 7 32 2.34525 0 20 2.34525 1
gene 1 7 33 2.03683 0 21 2.03683 1
gene 1 8 31 -0.245401 0 22 -0.245401 1
gene 1 8 32 -0.417013 0 23 -0.417013 1
gene 1 8 33 2.07963 0 24 2.07963 1
gene 1 9 31 0.911473 0 25 0.911473 1
gene 1 9 32 -0.426397 0 26 -0.426397 1
gene 1 9 33 -2.91595 0 27 -2.91595 1
gene 1 10 31 -1.21514 0 28 -1.21514 1
gene 1 10 32 -0.708437 0 29 -0.708437 1
gene 1 10 33 -1.48986 0 30 -1.48986 1
gene 1 11 31 2.05932 0 31 2.05932 1
gene 1 11 32 0.894243 0 32 0.894243 1
gene 1 11 33 1.28394 0 33 1.28394 1
gene 1 12 31 1.35469 0 34 1.35469 1
gene 1 12 32 0.953019 0 35 0.953019 1
gene 1 12 33 -1.40951 0 36 -1.40951 1
gene 1 13 31 0.002018 0 37 0.002018 1
gene 1 13 32 0.971521 0 38 0.971521 1
gene 1 13 33 -2.29706 0 39 -2.29706 1
gene 1 14 31 4.9069 0 40 4.9069 1
gene 1 14 32 2.93091 0 41 2.93091 1
gene 1 14 33 2.69659 0 42 2.69659 1
gene 1 15 31 -0.452441 0 43 -0.452441 1
gene 1 15 32 2.86538 0 44 2.86538 1
gene 1 15 33 0.450249 0 45 0.450249 1
gene 1 16 31 -0.525777 0 46 -0.525777 1
gene 1 16 32 -1.33634 0 47 -1.33634 1
gene 1 16 33 -0.0339675 0 48 -0.0339675 1
gene 1 17 31 -1.22262 0 49 -1.22262 1
gene 1 17 32 -5 0 50 -5 1
gene 1 17 33 -3.81975 0 51 -3.81975 1
gene 1 18 31 -1.38539 0 52 -1.38539 1
gene 1 18 32 -3.89526 0 53 -3.89526 1
gene 1 18 33 -0.754308 0 54 -0.754308 1
gene 1 19 31 -0.700902 0 55 -0.700902 1
gene 1 19 32 -5 0 56 -5 1
gene 1 19 33 0.101997 0 57 0.101997 1
gene 1 20 31 -1.35327 0 58 -1.35327 1
gene 1 20 32 1.87144 0 59 1.87144 1
gene 1 20 33 -2.44191 0 60 -2.44191 1
gene 1 21 31 -1.20967 0 61 -1.20967 1
gene 1 21 32 -0.408983 0 62 -0.408983 1
gene 1 21 33 1.03245 0 63 1.03245 1
gene 1 22 31 -0.809758 0 64 -0.809758 1
gene 1 22 32 -2.01405 0 65 -2.01405 1
gene 1 22 33 0.92458 0 66 0.92458 1
gene 1 23 31 -0.525093 0 67 -0.525093 1
gene 1 23 32 4.34836 0 68 4.34836 1
gene 1 23 33 -4.99944 0 69 -4.99944 1
gene 1 24 31 -1.21441 0 70 -1.21441 1
gene 1 24 32 -0.758278 0 71 -0.758278 1
gene 1 24 33 1.2203 0 72 1.2203 1
gene 1 25 31 -2.86767 0 73 -2.86767 1
gene 1 25 32 0.00528174 0 74 0.00528174 1
gene 1 25 33 -1.07223 0 75 -1.07223 1
gene 1 26 31 0.401432 0 76 0.401432 1
gene 1 26 32 1.6502 0 77 1.6502 1
gene 1 26 33 0.400821 0 78 0.400821 1
gene 1 27 31 0.36369 0 79 0.36369 1
gene 1 27 32 -0.197174 0 80 -0.197174 1
gene 1 27 33 1.50927 0 81 1.50927 1
gene 1 28 31 -0.271108 0 82 -0.271108 1
gene 1 28 32 0.846567 0 83 0.846567 1
gene 1 28 33 -0.391333 0 84 -0.391333 1
gene 1 29 31 -2.05624 0 85 -2.05624 1
gene 1 29 32 -1.91099 0 86 -1.91099 1
gene 1 29 33 0.0733909 0 87 0.0733909 1
gene 1 30 31 -0.595955 0 88 -0.595955 1
gene 1 30 32 1.30576 0 89 1.30576 1
gene 1 30 33 -1.67392 0 90 -1.67392 1
genomeend 11

/* Organism #12 Fitness: 12420.5 Error: 0 */
genomestart 12
trait 1 0 0 0.39531 0.334906 0 0.853695 0.656478 0 
node 1 1 1 1
node 2 1 1 1
node 3 1 1 1
node 4 1 1 1
node 5 1 1 1
node 6 1 1 1
node 7 1 1 1
node 8 1 1 1
node 9 1 1 1
node 10 1 1 1
node 11 1 1 1
node 12 1 1 1
node 13 1 1 1
node 14 1 1 1
node 15 1 1 1
node 16 1 1 1
node 17 1 1 1
node 18 1 1 1
node 19 1 1 1
node 20 1 1 1
node 21 1 1 1
node 22 1 1 1
node 23 1 1 1
node 24 1 1 1
node 25 1 1 1
node 26 1 1 1
node 27 1 1 1
node 28 1 1 1
node 29 1 1 1
node 30 1 1 3
node 31 1 0 2
node 32 1 0 2
node 33 1 0 2
gene 1 1 31 -1.40366 0 1 -1.40366 1
gene 1 1 32 -4.73074 0 2 -4.73074 1
gene 1 1 33 0.561874 0 3 0.561874 1
gene 1 2 31 -0.849572 0 4 -0.849572 1
gene 1 2 32 -0.436922 0 5 -0.436922 1
gene 1 2 33 3.26001 0 6 3.26001 1
gene 1 3 31 -4.32317 0 7 -4.32317 1
gene 1 3 32 0.274033 0 8 0.274033 1
gene 1 3 33 2.77056 0 9 2.77056 1
gene 1 4 31 3.37913 0 10 3.37913 1
gene 1 4 32 0.843449 0 11 0.843449 1
gene 1 4 33 -0.0319201 0 12 -0.0319201 1
gene 1 5 31 1.97617 0 13 1.97617 1
gene 1 5 32 0.291014 0 14 0.291014 1
gene 1 5 33 2.18753 0 15 2.18753 1
gene 1 6 31 3.46273 0 16 3.46273 1
gene 1 6 32 -2.66212 0 17 -2.66212 1
gene 1 6 33 2.79177 0 18 2.79177 1
gene 1 7 31 4.6492 0 19 4.6492 1
gene 1 7 32 2.08959 0 20 2.08959 1
gene 1 7 33 2.79334 0 21 2.79334 1
gene 1 8 31 -1.46214 0 22 -1.46214 1
gene 1 8 32 -0.7328 0 23 -0.7328 1
gene 1 8 33 2.39413 0 24 2.39413 1
gene 1 9 31 -0.317541 0 25 -0.317541 1
gene 1 9 32 1.15659 0 26 1.15659 1
gene 1 9 33 -2.3128 0 27 -2.3128 1
gene 1 10 31 -0.540369 0 28 -0.540369 1
gene 1 10 32 -0.678955 0 29 -0.678955 1
gene 1 10 33 -0.490821 0 30 -0.490821 1
gene 1 11 31 2.83048 0 31 2.83048 1
gene 1 11 32 -0.976035 0 32 -0.976035 1
gene 1 11 33 -1.29521 0 33 -1.29521 1
gene 1 12 31 -0.898153 0 34 -0.898153 1
gene 1 12 32 2.36255 0 35 2.36255 1
gene 1 12 33 0.508237 0 36 0.508237 1
gene 1 13 31 1.35734 0 37 1.35734 1
gene 1 13 32 1.95685 0 38 1.95685 1
gene 1 13 33 -3.49706 0 39 -3.49706 1
gene 1 14 31 4.33991 0 40 4.33991 1
gene 1 14 32 1.67422 0 41 1.67422 1
gene 1 14 33 0.230152 0 42 0.230152 1
gene 1 15 31 -0.018582 0 43 -0.018582 1
gene 1 15 32 3.02191 0 44 3.02191 1
gene 1 15 33 2.08182 0 45 2.08182 1
gene 1 16 31 -3.12924 0 46 -3.12924 1
gene 1 16 32 -1.05827 0 47 -1.05827 1
gene 1 16 33 -2.25121 0 48 -2.25121 1
gene 1 17 31 -1.98572 0 49 -1.98572 1
gene 1 17 32 -3.86461 0 50 -3.86461 1
gene 1 17 33 -3.49162 0 51 -3.49162 1
gene 1 18 31 -2.02441 0 52 -2.02441 1
gene 1 18 32 -4.31858 0 53 -4.31858 1
gene 1 18 33 -0.971459 0 54 -0.971459 1
gene 1 19 31 1.60407 0 55 1.60407 1
gene 1 19 32 -4.35977 0 56 -4.35977 1
gene 1 19 33 0.778666 0 57 0.778666 1
gene 1 20 31 -0.262702 0 58 -0.262702 1
gene 1 20 32 1.56052 0 59 1.56052 1
gene 1 20 33 -1.39533 0 60 -1.39533 1
gene 1 21 31 -2.44503 0 61 -2.44503 1
gene 1 21 32 -0.223043 0 62 -0.223043 1
gene 1 21 33 2.92814 0 63 2.92814 1
gene 1 22 31 0.347885 0 64 0.347885 1
gene 1 22 32 -3.23691 0 65 -3.23691 1
gene 1 22 33 -1.81739 0 66 -1.81739 1
gene 1 23 31 -0.243961 0 67 -0.243961 1
gene 1 23 32 5 0 68 5 1
gene 1 23 33 -3.75788 0 69 -3.75788 1
gene 1 24 31 -0.147932 0 70 -0.147932 1
gene 1 24 32 0.571394 0 71 0.571394 1
gene 1 24 33 1.11909 0 72 1.11909 1
gene 1 25 31 -3.17502 0 73 -3.17502 1
gene 1 25 32 0.19305 0 74 0.19305 1
gene 1 25 33 0.142224 0 75 0.142224 1
gene 1 26 31 -0.0900494 0 76 -0.0900494 1
gene 1 26 32 -0.67552 0 77 -0.67552 1
gene 1 26 33 1.34136 0 78 1.34136 1
gene 1 27 31 0.00504998 0 79 0.00504998 1
gene 1 27 32 0.267885 0 80 0.267885 1
gene 1 27 33 0.879764 0 81 0.879764 1
gene 1 28 31 1.41094 0 82 1.41094 1
gene 1 28 32 1.12471 0 83 1.12471 1
gene 1 28 33 0.761493 0 84 0.761493 1
gene 1 29 31 -0.0231442 0 85 -0.0231442 1
gene 1 29 32 0.376812 0 86 0.376812 1
gene 1 29 33 1.44851 0 87 1.44851 1
gene 1 30 31 -1.46548 0 88 -1.46548 1
gene 1 30 32 0.483822 0 89 0.483822 1
gene 1 30 33 -2.19329 0 90 -2.19329 1
genomeend 12

/* Organism #13 Fitness: 12032.8 Error: 0 */
genomestart 13
trait 1 0.125354 0 0.39531 0.459238 0.233202 0.853695 0 0.298189 
node 1 1 1 1
node 2 1 1 1
node 3 1 1 1
node 4 1 1 1
node 5 1 1 1
node 6 1 1 1
node 7 1 1 1
node 8 1 1 1
node 9 1 1 1
node 10 1 1 1
node 11 1 1 1
node 12 1 1 1
node 13 1 1 1
node 14 1 1 1
node 15 1 1 1
node 16 1 1 1
node 17 1 1 1
node 18 1 1 1
node 19 1 1 1
node 20 1 1 1
node 21 1 1 1
node 22 1 1 1
node 23 1 1 1
node 24 1 1 1
node 25 1 1 1
node 26 1 1 1
node 27 1 1 1
node 28 1 1 1
node 29 1 1 1
node 30 1 1 3
node 31 1 0 2
node 32 1 0 2
node 33 1 0 2
gene 1 1 31 -3.49132 0 1 -3.49132 1
gene 1 1 32 -3.34845 0 2 -3.34845 1
gene 1 1 33 1.19947 0 3 1.19947 1
gene 1 2 31 0.763225 0 4 0.763225 1
gene 1 2 32 3.21332 0 5 3.21332 1
gene 1 2 33 0.868933 0 6 0.868933 1
gene 1 3 31 -1.70446 0 7 -1.70446 1
gene 1 3 32 0.308813 0 8 0.308813 1
gene 1 3 33 -0.416769 0 9 -0.416769 1
gene 1 4 31 2.58663 0 10 2.58663 1
gene 1 4 32 1.60579 0 11 1.60579 1
gene 1 4 33 -0.253334 0 12 -0.253334 1
gene 1 5 31 2.46262 0 13 2.46262 1
gene 1 5 32 2.48788 0 14 2.48788 1
gene 1 5 33 2.39668 0 15 2.39668 1
gene 1 6 31 1.78042 0 16 1.78042 1
gene 1 6 32 -0.968937 0 17 -0.968937 1
gene 1 6 33 4.36044 0 18 4.36044 1
gene 1 7 31 3.61844 0 19 3.61844 1
gene 1 7 32 3.30905 0 20 3.30905 1
gene 1 7 33 2.67506 0 21 2.67506 1
gene 1 8 31 2.62322 0 22 2.62322 1
gene 1 8 32 -0.339556 0 23 -0.339556 1
gene 1 8 33 -1.66037 0 24 -1.66037 1
gene 1 9 31 -0.988381 0 25 -0.988381 1
gene 1 9 32 -1.64237 0 26 -1.64237 1
gene 1 9 33 -0.398356 0 27 -0.398356 1
gene 1 10 31 -0.702159 0 28 -0.702159 1
gene 1 10 32 -0.725803 0 29 -0.725803 1
gene 1 10 33 -0.98724 0 30 -0.98724 1
gene 1 11 31 2.04004 0 31 2.04004 1
gene 1 11 32 1.06894 0 32 1.06894 1
gene 1 11 33 -4.01531 0 33 -4.01531 1
gene 1 12 31 2.28292 0 34 2.28292 1
gene 1 12 32 0.0620532 0 35 0.0620532 1
gene 1 12 33 0.0664748 0 36 0.0664748 1
gene 1 13 31 0.785856 0 37 0.785856 1
gene 1 13 32 3.5284 0 38 3.5284 1
gene 1 13 33 -3.20127 0 39 -3.20127 1
gene 1 14 31 1.67505 0 40 1.67505 1
gene 1 14 32 -1.33932 0 41 -1.33932 1
gene 1 14 33 -0.530875 0 42 -0.530875 1
gene 1 15 31 0.0548483 0 43 0.0548483 1
gene 1 15 32 0.51348 0 44 0.51348 1
gene 1 15 33 -0.698107 0 45 -0.698107 1
gene 1 16 31 -0.372516 0 46 -0.372516 1
gene 1 16 32 -0.368668 0 47 -0.368668 1
gene 1 16 33 -0.517345 0 48 -0.517345 1
gene 1 17 31 -4.55647 0 49 -4.55647 1
gene 1 17 32 -5 0 50 -5 1
gene 1 17 33 -2.97488 0 51 -2.97488 1
gene 1 18 31 0.990609 0 52 0.990609 1
gene 1 18 32 -5 0 53 -5 1
gene 1 18 33 -1.66001 0 54 -1.66001 1
gene 1 19 31 0.459787 0 55 0.459787 1
gene 1 19 32 -3.00316 0 56 -3.00316 1
gene 1 19 33 -0.603418 0 57 -0.603418 1
gene 1 20 31 -2.47638 0 58 -2.47638 1
gene 1 20 32 2.35195 0 59 2.35195 1
gene 1 20 33 -0.7833 0 60 -0.7833 1
gene 1 21 31 -0.0667902 0 61 -0.0667902 1
gene 1 21 32 -3.19334 0 62 -3.19334 1
gene 1 21 33 -0.635677 0 63 -0.635677 1
gene 1 22 31 0.9307 0 64 0.9307 1
gene 1 22 32 -4.5013 0 65 -4.5013 1
gene 1 22 33 0.562643 0 66 0.562643 1
gene 1 23 31 0.0626718 0 67 0.0626718 1
gene 1 23 32 3.3821 0 68 3.3821 1
gene 1 23 33 -0.444921 0 69 -0.444921 1
gene 1 24 31 -0.118462 0 70 -0.118462 1
gene 1 24 32 1.66349 0 71 1.66349 1
gene 1 24 33 1.22706 0 72 1.22706 1
gene 1 25 31 -0.100465 0 73 -0.100465 1
gene 1 25 32 -0.118541 0 74 -0.118541 1
gene 1 25 33 1.6296 0 75 1.6296 1
gene 1 26 31 -0.791028 0 76 -0.791028 1
gene 1 26 32 1.08658 0 77 1.08658 1
gene 1 26 33 0.894654 0 78 0.894654 1
gene 1 27 31 0.878733 0 79 0.878733 1
gene 1 27 32 -0.883129 0 80 -0.883129 1
gene 1 27 33 0.465289 0 81 0.465289 1
gene 1 28 31 -0.253248 0 82 -0.253248 1
gene 1 28 32 -0.674971 0 83 -0.674971 1
gene 1 28 33 0.906632 0 84 0.906632 1
gene 1 29 31 0.681871 0 85 0.681871 1
gene 1 29 32 0.53527 0 86 0.53527 1
gene 1 29 33 -0.494119 0 87 -0.494119 1
gene 1 30 31 -1.11154 0 88 -1.11154 1
gene 1 30 32 -0.094851 0 89 -0.094851 1
gene 1 30 33 0.829981 0 90 0.829981 1
genomeend 13

/* Organism #14 Fitness: 13781.4 Error: 0 */
genomestart 14
trait 1 0.679505 0 0.39531 0.459238 0.233202 0.853695 0 0 
node 1 1 1 1
node 2 1 1 1
node 3 1 1 1
node 4 1 1 1
node 5 1 1 1
node 6 1 1 1
node 7 1 1 1
node 8 1 1 1
node 9 1 1 1
node 10 1 1 1
node 11 1 1 1
node 12 1 1 1
node 13 1 1 1
node 14 1 1 1
node 15 1 1 1
node 16 1 1 1
node 17 1 1 1
node 18 1 1 1
node 19 1 1 1
node 20 1 1 1
node 21 1 1 1
node 22 1 1 1
node 23 1 1 1
node 24 1 1 1
node 25 1 1 1
node 26 1 1 1
node 27 1 1 1
node 28 1 1 1
node 29 1 1 1
node 30 1 1 3
node 31 1 0 2
node 32 1 0 2
node 33 1 0 2
gene 1 1 31 0.303284 0 1 0.303284 1
gene 1 1 32 -3.12198 0 2 -3.12198 1
gene 1 1 33 0.171511 0 3 0.171511 1
gene 1 2 31 -1.81895 0 4 -1.81895 1
gene 1 2 32 3.80356 0 5 3.80356 1
gene 1 2 33 -0.0953107 0 6 -0.0953107 1
gene 1 3 31 -1.93646 0 7 -1.93646 1
gene 1 3 32 2.82745 0 8 2.82745 1
gene 1 3 33 5 0 9 5 1
gene 1 4 31 -0.077882 0 10 -0.077882 1
gene 1 4 32 2.88702 0 11 2.88702 1
gene 1 4 33 0.860584 0 12 0.860584 1
gene 1 5 31 3.80324 0 13 3.80324 1
gene 1 5 32 2.01673 0 14 2.01673 1
gene 1 5 33 -1.093 0 15 -1.093 1
gene 1 6 31 3.35709 0 16 3.35709 1
gene 1 6 32 -2.12364 0 17 -2.12364 1
gene 1 6 33 3.49864 0 18 3.49864 1
gene 1 7 31 4.38047 0 19 4.38047 1
gene 1 7 32 2.43033 0 20 2.43033 1
gene 1 7 33 0.640413 0 21 0.640413 1
gene 1 8 31 1.85175 0 22 1.85175 1
gene 1 8 32 0.128955 0 23 0.128955 1
gene 1 8 33 3.11254 0 24 3.11254 1
gene 1 9 31 2.74525 0 25 2.74525 1
gene 1 9 32 -3.95973 0 26 -3.95973 1
gene 1 9 33 -2.5857 0 27 -2.5857 1
gene 1 10 31 1.13147 0 28 1.13147 1
gene 1 10 32 0.147488 0 29 0.147488 1
gene 1 10 33 1.1484 0 30 1.1484 1
gene 1 11 31 -2.2909 0 31 -2.2909 1
gene 1 11 32 -1.81787 0 32 -1.81787 1
gene 1 11 33 -0.0121903 0 33 -0.0121903 1
gene 1 12 31 -0.000162382 0 34 -0.000162382 1
gene 1 12 32 0.856237 0 35 0.856237 1
gene 1 12 33 -0.0943184 0 36 -0.0943184 1
gene 1 13 31 0.953073 0 37 0.953073 1
gene 1 13 32 0.514707 0 38 0.514707 1
gene 1 13 33 -1.73018 0 39 -1.73018 1
gene 1 14 31 4.81477 0 40 4.81477 1
gene 1 14 32 2.08622 0 41 2.08622 1
gene 1 14 33 -0.366122 0 42 -0.366122 1
gene 1 15 31 -0.112266 0 43 -0.112266 1
gene 1 15 32 1.08087 0 44 1.08087 1
gene 1 15 33 -1.47744 0 45 -1.47744 1
gene 1 16 31 0.597769 0 46 0.597769 1
gene 1 16 32 -0.784017 0 47 -0.784017 1
gene 1 16 33 3.94031 0 48 3.94031 1
gene 1 17 31 -5 0 49 -5 1
gene 1 17 32 -4.33932 0 50 -4.33932 1
gene 1 17 33 -2.66132 0 51 -2.66132 1
gene 1 18 31 -0.643276 0 52 -0.643276 1
gene 1 18 32 -4.54572 0 53 -4.54572 1
gene 1 18 33 -0.436622 0 54 -0.436622 1
gene 1 19 31 1.19581 0 55 1.19581 1
gene 1 19 32 -2.82165 0 56 -2.82165 1
gene 1 19 33 -1.35949 0 57 -1.35949 1
gene 1 20 31 -3.67841 0 58 -3.67841 1
gene 1 20 32 2.5023 0 59 2.5023 1
gene 1 20 33 -0.281332 0 60 -0.281332 1
gene 1 21 31 -2.42201 0 61 -2.42201 1
gene 1 21 32 0.416122 0 62 0.416122 1
gene 1 21 33 -1.45707 0 63 -1.45707 1
gene 1 22 31 1.30897 0 64 1.30897 1
gene 1 22 32 -2.62674 0 65 -2.62674 1
gene 1 22 33 -1.67086 0 66 -1.67086 1
gene 1 23 31 3.06004 0 67 3.06004 1
gene 1 23 32 -0.24312 0 68 -0.24312 1
gene 1 23 33 -1.5819 0 69 -1.5819 1
gene 1 24 31 1.12328 0 70 1.12328 1
gene 1 24 32 3.56424 0 71 3.56424 1
gene 1 24 33 -1.91856 0 72 -1.91856 1
gene 1 25 31 -4.24673 0 73 -4.24673 1
gene 1 25 32 0.640756 0 74 0.640756 1
gene 1 25 33 0.021626 0 75 0.021626 1
gene 1 26 31 -0.308452 0 76 -0.308452 1
gene 1 26 32 -0.520949 0 77 -0.520949 1
gene 1 26 33 -0.195209 0 78 -0.195209 1
gene 1 27 31 0.956655 0 79 0.956655 1
gene 1 27 32 -1.44945 0 80 -1.44945 1
gene 1 27 33 -0.0492038 0 81 -0.0492038 1
gene 1 28 31 -0.916214 0 82 -0.916214 1
gene 1 28 32 0.836111 0 83 0.836111 1
gene 1 28 33 0.00745238 0 84 0.00745238 1
gene 1 29 31 -0.861046 0 85 -0.861046 1
gene 1 29 32 0.401 0 86 0.401 1
gene 1 29 33 -0.5835 0 87 -0.5835 1
gene 1 30 31 -3.62887 0 88 -3.62887 1
gene 1 30 32 -0.991355 0 89 -0.991355 1
gene 1 30 33 0.478598 0 90 0.478598 1
genomeend 14

/* Organism #15 Fitness: 13288.9 Error: 0 */
genomestart 15
trait 1 0 0.46996 0.39531 0 0 0.811729 0 0 
node 1 1 1 1
node 2 1 1 1
node 3 1 1 1
node 4 1 1 1
node 5 1 1 1
node 6 1 1 1
node 7 1 1 1
node 8 1 1 1
node 9 1 1 1
node 10 1 1 1
node 11 1 1 1
node 12 1 1 1
node 13 1 1 1
node 14 1 1 1
node 15 1 1 1
node 16 1 1 1
node 17 1 1 1
node 18 1 1 1
node 19 1 1 1
node 20 1 1 1
node 21 1 1 1
node 22 1 1 1
node 23 1 1 1
node 24 1 1 1
node 25 1 1 1
node 26 1 1 1
node 27 1 1 1
node 28 1 1 1
node 29 1 1 1
node 30 1 1 3
node 31 1 0 2
node 32 1 0 2
node 33 1 0 2
gene 1 1 31 -2.88498 0 1 -2.88498 1
gene 1 1 32 -4.52786 0 2 -4.52786 1
gene 1 1 33 1.03674 0 3 1.03674 1
gene 1 2 31 -0.371685 0 4 -0.371685 1
gene 1 2 32 0.914348 0 5 0.914348 1
gene 1 2 33 2.65859 0 6 2.65859 1
gene 1 3 31 -1.38556 0 7 -1.38556 1
gene 1 3 32 0.895083 0 8 0.895083 1
gene 1 3 33 3.8339 0 9 3.8339 1
gene 1 4 31 3.10283 0 10 3.10283 1
gene 1 4 32 1.30497 0 11 1.30497 1
gene 1 4 33 -0.0122772 0 12 -0.0122772 1
gene 1 5 31 0.869338 0 13 0.869338 1
gene 1 5 32 1.76794 0 14 1.76794 1
gene 1 5 33 1.482 0 15 1.482 1
gene 1 6 31 1.72585 0 16 1.72585 1
gene 1 6 32 -2.55453 0 17 -2.55453 1
gene 1 6 33 3.30342 0 18 3.30342 1
gene 1 7 31 4.28436 0 19 4.28436 1
gene 1 7 32 1.66362 0 20 1.66362 1
gene 1 7 33 1.458 0 21 1.458 1
gene 1 8 31 1.21658 0 22 1.21658 1
gene 1 8 32 -0.585159 0 23 -0.585159 1
gene 1 8 33 1.56524 0 24 1.56524 1
gene 1 9 31 -0.0308574 0 25 -0.0308574 1
gene 1 9 32 0.450856 0 26 0.450856 1
gene 1 9 33 -0.552012 0 27 -0.552012 1
gene 1 10 31 -0.101984 0 28 -0.101984 1
gene 1 10 32 -1.02827 0 29 -1.02827 1
gene 1 10 33 -1.08075 0 30 -1.08075 1
gene 1 11 31 0.641456 0 31 0.641456 1
gene 1 11 32 -1.39182 0 32 -1.39182 1
gene 1 11 33 -0.625948 0 33 -0.625948 1
gene 1 12 31 1.42267 0 34 1.42267 1
gene 1 12 32 0.748208 0 35 0.748208 1
gene 1 12 33 -2.07021 0 36 -2.07021 1
gene 1 13 31 -0.314664 0 37 -0.314664 1
gene 1 13 32 2.04301 0 38 2.04301 1
gene 1 13 33 -2.96665 0 39 -2.96665 1
gene 1 14 31 4.48356 0 40 4.48356 1
gene 1 14 32 2.38792 0 41 2.38792 1
gene 1 14 33 0.767679 0 42 0.767679 1
gene 1 15 31 1.52742 0 43 1.52742 1
gene 1 15 32 3.49427 0 44 3.49427 1
gene 1 15 33 -0.298962 0 45 -0.298962 1
gene 1 16 31 0.178106 0 46 0.178106 1
gene 1 16 32 0.78233 0 47 0.78233 1
gene 1 16 33 -1.68825 0 48 -1.68825 1
gene 1 17 31 -0.632615 0 49 -0.632615 1
gene 1 17 32 -3.86351 0 50 -3.86351 1
gene 1 17 33 -2.03578 0 51 -2.03578 1
gene 1 18 31 -0.76876 0 52 -0.76876 1
gene 1 18 32 -4.457 0 53 -4.457 1
gene 1 18 33 -1.97916 0 54 -1.97916 1
gene 1 19 31 0.194367 0 55 0.194367 1
gene 1 19 32 -4.14131 0 56 -4.14131 1
gene 1 19 33 -0.557543 0 57 -0.557543 1
gene 1 20 31 -0.989098 0 58 -0.989098 1
gene 1 20 32 1.44554 0 59 1.44554 1
gene 1 20 33 -1.37191 0 60 -1.37191 1
gene 1 21 31 -1.1611 0 61 -1.1611 1
gene 1 21 32 -1.34868 0 62 -1.34868 1
gene 1 21 33 1.35679 0 63 1.35679 1
gene 1 22 31 -1.07097 0 64 -1.07097 1
gene 1 22 32 -3.2273 0 65 -3.2273 1
gene 1 22 33 0.76696 0 66 0.76696 1
gene 1 23 31 0.739547 0 67 0.739547 1
gene 1 23 32 5 0 68 5 1
gene 1 23 33 -4.38958 0 69 -4.38958 1
gene 1 24 31 -1.48332 0 70 -1.48332 1
gene 1 24 32 0.722407 0 71 0.722407 1
gene 1 24 33 0.391613 0 72 0.391613 1
gene 1 25 31 -3.56235 0 73 -3.56235 1
gene 1 25 32 -0.128524 0 74 -0.128524 1
gene 1 25 33 -1.22836 0 75 -1.22836 1
gene 1 26 31 -0.446121 0 76 -0.446121 1
gene 1 26 32 0.76746 0 77 0.76746 1
gene 1 26 33 1.54579 0 78 1.54579 1
gene 1 27 31 0.169426 0 79 0.169426 1
gene 1 27 32 -0.197174 0 80 -0.197174 1
gene 1 27 33 1.27872 0 81 1.27872 1
gene 1 28 31 0.126006 0 82 0.126006 1
gene 1 28 32 1.68052 0 83 1.68052 1
gene 1 28 33 -0.87751 0 84 -0.87751 1
gene 1 29 31 -1.1461 0 85 -1.1461 1
gene 1 29 32 -0.854215 0 86 -0.854215 1
gene 1 29 33 0.368613 0 87 0.368613 1
gene 1 30 31 -1.75277 0 88 -1.75277 1
gene 1 30 32 0.122344 0 89 0.122344 1
gene 1 30 33 -2.53709 0 90 -2.53709 1
genomeend 15

/* Organism #16 Fitness: 12237.6 Error: 0 */
genomestart 16
trait 1 0 0 0.39531 0.334906 0 0.853695 0.656478 0 
node 1 1 1 1
node 2 1 1 1
node 3 1 1 1
node 4 1 1 1
node 5 1 1 1
node 6 1 1 1
node 7 1 1 1
node 8 1 1 1
node 9 1 1 1
node 10 1 1 1
node 11 1 1 1
node 12 1 1 1
node 13 1 1 1
node 14 1 1 1
node 15 1 1 1
node 16 1 1 1
node 17 1 1 1
node 18 1 1 1
node 19 1 1 1
node 20 1 1 1
node 21 1 1 1
node 22 1 1 1
node 23 1 1 1
node 24 1 1 1
node 25 1 1 1
node 26 1 1 1
node 27 1 1 1
node 28 1 1 1
node 29 1 1 1
node 30 1 1 3
node 31 1 0 2
node 32 1 0 2
node 33 1 0 2
gene 1 1 31 -3.30749 0 1 -3.30749 1
gene 1 1 32 -4.47399 0 2 -4.47399 1
gene 1 1 33 1.46049 0 3 1.46049 1
gene 1 2 31 -0.149241 0 4 -0.149241 1
gene 1 2 32 0.542532 0 5 0.542532 1
gene 1 2 33 -0.473674 0 6 -0.473674 1
gene 1 3 31 -1.22504 0 7 -1.22504 1
gene 1 3 32 -0.27051 0 8 -0.27051 1
gene 1 3 33 5 0 9 5 1
gene 1 4 31 -0.418271 0 10 -0.418271 1
gene 1 4 32 1.85935 0 11 1.85935 1
gene 1 4 33 1.29625 0 12 1.29625 1
gene 1 5 31 2.8652 0 13 2.8652 1
gene 1 5 32 0.536656 0 14 0.536656 1
gene 1 5 33 0.73994 0 15 0.73994 1
gene 1 6 31 -0.922979 0 16 -0.922979 1
gene 1 6 32 -3.88863 0 17 -3.88863 1
gene 1 6 33 -0.192773 0 18 -0.192773 1
gene 1 7 31 4.10018 0 19 4.10018 1
gene 1 7 32 1.86498 0 20 1.86498 1
gene 1 7 33 2.58023 0 21 2.58023 1
gene 1 8 31 0.21477 0 22 0.21477 1
gene 1 8 32 0.175794 0 23 0.175794 1
gene 1 8 33 2.02123 0 24 2.02123 1
gene 1 9 31 0.911533 0 25 0.911533 1
gene 1 9 32 0.262239 0 26 0.262239 1
gene 1 9 33 0.798425 0 27 0.798425 1
gene 1 10 31 0.337114 0 28 0.337114 1
gene 1 10 32 -0.887232 0 29 -0.887232 1
gene 1 10 33 -2.28788 0 30 -2.28788 1
gene 1 11 31 1.04395 0 31 1.04395 1
gene 1 11 32 -1.57492 0 32 -1.57492 1
gene 1 11 33 -0.969876 0 33 -0.969876 1
gene 1 12 31 0.210894 0 34 0.210894 1
gene 1 12 32 0.403555 0 35 0.403555 1
gene 1 12 33 -0.801362 0 36 -0.801362 1
gene 1 13 31 -0.611736 0 37 -0.611736 1
gene 1 13 32 2.43504 0 38 2.43504 1
gene 1 13 33 -0.945252 0 39 -0.945252 1
gene 1 14 31 5 0 40 5 1
gene 1 14 32 0.0483469 0 41 0.0483469 1
gene 1 14 33 0.00808233 0 42 0.00808233 1
gene 1 15 31 0.686753 0 43 0.686753 1
gene 1 15 32 4.28764 0 44 4.28764 1
gene 1 15 33 -0.998122 0 45 -0.998122 1
gene 1 16 31 1.79784 0 46 1.79784 1
gene 1 16 32 0.52354 0 47 0.52354 1
gene 1 16 33 0.516092 0 48 0.516092 1
gene 1 17 31 0.838073 0 49 0.838073 1
gene 1 17 32 -4.79436 0 50 -4.79436 1
gene 1 17 33 -1.80751 0 51 -1.80751 1
gene 1 18 31 -0.748718 0 52 -0.748718 1
gene 1 18 32 -3.53982 0 53 -3.53982 1
gene 1 18 33 -2.51986 0 54 -2.51986 1
gene 1 19 31 -0.345836 0 55 -0.345836 1
gene 1 19 32 -3.82087 0 56 -3.82087 1
gene 1 19 33 -0.176377 0 57 -0.176377 1
gene 1 20 31 0.0976087 0 58 0.0976087 1
gene 1 20 32 1.12771 0 59 1.12771 1
gene 1 20 33 -3.84718 0 60 -3.84718 1
gene 1 21 31 -2.20548 0 61 -2.20548 1
gene 1 21 32 -1.11253 0 62 -1.11253 1
gene 1 21 33 0.981973 0 63 0.981973 1
gene 1 22 31 -0.524521 0 64 -0.524521 1
gene 1 22 32 -2.41419 0 65 -2.41419 1
gene 1 22 33 0.331666 0 66 0.331666 1
gene 1 23 31 -0.774648 0 67 -0.774648 1
gene 1 23 32 5 0 68 5 1
gene 1 23 33 -4.66599 0 69 -4.66599 1
gene 1 24 31 -1.82719 0 70 -1.82719 1
gene 1 24 32 0.835581 0 71 0.835581 1
gene 1 24 33 0.490714 0 72 0.490714 1
gene 1 25 31 -2.52116 0 73 -2.52116 1
gene 1 25 32 1.65203 0 74 1.65203 1
gene 1 25 33 -1.02832 0 75 -1.02832 1
gene 1 26 31 -0.0660816 0 76 -0.0660816 1
gene 1 26 32 0.396207 0 77 0.396207 1
gene 1 26 33 1.85576 0 78 1.85576 1
gene 1 27 31 -0.105532 0 79 -0.105532 1
gene 1 27 32 0.687274 0 80 0.687274 1
gene 1 27 33 0.317234 0 81 0.317234 1
gene 1 28 31 0.313082 0 82 0.313082 1
gene 1 28 32 0.932393 0 83 0.932393 1
gene 1 28 33 -0.590942 0 84 -0.590942 1
gene 1 29 31 0.0587075 0 85 0.0587075 1
gene 1 29 32 1.04709 0 86 1.04709 1
gene 1 29 33 -1.52374 0 87 -1.52374 1
gene 1 30 31 -1.3586 0 88 -1.3586 1
gene 1 30 32 1.33109 0 89 1.33109 1
gene 1 30 33 -0.811543 0 90 -0.811543 1
genomeend 16

/* Organism #17 Fitness: 12293.6 Error: 0 */
genomestart 17
trait 1 0 0 0.39531 0.334906 0 0.853695 0.656478 0 
node 1 1 1 1
node 2 1 1 1
node 3 1 1 1
node 4 1 1 1
node 5 1 1 1
node 6 1 1 1
node 7 1 1 1
node 8 1 1 1
node 9 1 1 1
node 10 1 1 1
node 11 1 1 1
node 12 1 1 1
node 13 1 1 1
node 14 1 1 1
node 15 1 1 1
node 16 1 1 1
node 17 1 1 1
node 18 1 1 1
node 19 1 1 1
node 20 1 1 1
node 21 1 1 1
node 22 1 1 1
node 23 1 1 1
node 24 1 1 1
node 25 1 1 1
node 26 1 1 1
node 27 1 1 1
node 28 1 1 1
node 29 1 1 1
node 30 1 1 3
node 31 1 0 2
node 32 1 0 2
node 33 1 0 2
gene 1 1 31 -3.40171 0 1 -3.40171 1
gene 1 1 32 -4.60046 0 2 -4.60046 1
gene 1 1 33 0.433143 0 3 0.433143 1
gene 1 2 31 -0.41101 0 4 -0.41101 1
gene 1 2 32 0.00822064 0 5 0.00822064 1
gene 1 2 33 4.69414 0 6 4.69414 1
gene 1 3 31 -2.95021 0 7 -2.95021 1
gene 1 3 32 2.85228 0 8 2.85228 1
gene 1 3 33 2.57987 0 9 2.57987 1
gene 1 4 31 1.60295 0 10 1.60295 1
gene 1 4 32 1.63865 0 11 1.63865 1
gene 1 4 33 1.29609 0 12 1.29609 1
gene 1 5 31 0.13328 0 13 0.13328 1
gene 1 5 32 0.591472 0 14 0.591472 1
gene 1 5 33 3.86618 0 15 3.86618 1
gene 1 6 31 2.16341 0 16 2.16341 1
gene 1 6 32 -3.71733 0 17 -3.71733 1
gene 1 6 33 3.2702 0 18 3.2702 1
gene 1 7 31 5 0 19 5 1
gene 1 7 32 2.04305 0 20 2.04305 1
gene 1 7 33 2.71857 0 21 2.71857 1
gene 1 8 31 0.100241 0 22 0.100241 1
gene 1 8 32 0.964642 0 23 0.964642 1
gene 1 8 33 2.21543 0 24 2.21543 1
gene 1 9 31 0.810563 0 25 0.810563 1
gene 1 9 32 0.411859 0 26 0.411859 1
gene 1 9 33 -2.5398 0 27 -2.5398 1
gene 1 10 31 -1.24943 0 28 -1.24943 1
gene 1 10 32 0.087896 0 29 0.087896 1
gene 1 10 33 -1.61741 0 30 -1.61741 1
gene 1 11 31 1.95845 0 31 1.95845 1
gene 1 11 32 0.353958 0 32 0.353958 1
gene 1 11 33 1.57156 0 33 1.57156 1
gene 1 12 31 1.73142 0 34 1.73142 1
gene 1 12 32 1.55238 0 35 1.55238 1
gene 1 12 33 -2.73597 0 36 -2.73597 1
gene 1 13 31 -0.967865 0 37 -0.967865 1
gene 1 13 32 0.882198 0 38 0.882198 1
gene 1 13 33 -2.59163 0 39 -2.59163 1
gene 1 14 31 5 0 40 5 1
gene 1 14 32 1.56024 0 41 1.56024 1
gene 1 14 33 1.88564 0 42 1.88564 1
gene 1 15 31 -1.60758 0 43 -1.60758 1
gene 1 15 32 1.97714 0 44 1.97714 1
gene 1 15 33 2.21465 0 45 2.21465 1
gene 1 16 31 -1.84351 0 46 -1.84351 1
gene 1 16 32 -1.999 0 47 -1.999 1
gene 1 16 33 0.937039 0 48 0.937039 1
gene 1 17 31 -1.10532 0 49 -1.10532 1
gene 1 17 32 -4.5524 0 50 -4.5524 1
gene 1 17 33 -4.10765 0 51 -4.10765 1
gene 1 18 31 -0.651219 0 52 -0.651219 1
gene 1 18 32 -4.47312 0 53 -4.47312 1
gene 1 18 33 -1.64696 0 54 -1.64696 1
gene 1 19 31 -1.83985 0 55 -1.83985 1
gene 1 19 32 -4.21447 0 56 -4.21447 1
gene 1 19 33 0.202907 0 57 0.202907 1
gene 1 20 31 -1.9312 0 58 -1.9312 1
gene 1 20 32 0.443464 0 59 0.443464 1
gene 1 20 33 -2.74794 0 60 -2.74794 1
gene 1 21 31 -0.735177 0 61 -0.735177 1
gene 1 21 32 1.07492 0 62 1.07492 1
gene 1 21 33 1.14673 0 63 1.14673 1
gene 1 22 31 0.0586975 0 64 0.0586975 1
gene 1 22 32 -1.87443 0 65 -1.87443 1
gene 1 22 33 1.08567 0 66 1.08567 1
gene 1 23 31 -1.42207 0 67 -1.42207 1
gene 1 23 32 3.03109 0 68 3.03109 1
gene 1 23 33 -3.29275 0 69 -3.29275 1
gene 1 24 31 -2.45173 0 70 -2.45173 1
gene 1 24 32 -0.571639 0 71 -0.571639 1
gene 1 24 33 1.83767 0 72 1.83767 1
gene 1 25 31 -3.08786 0 73 -3.08786 1
gene 1 25 32 0.00528174 0 74 0.00528174 1
gene 1 25 33 0.0367361 0 75 0.0367361 1
gene 1 26 31 1.03105 0 76 1.03105 1
gene 1 26 32 0.958788 0 77 0.958788 1
gene 1 26 33 -0.670182 0 78 -0.670182 1
gene 1 27 31 0.626138 0 79 0.626138 1
gene 1 27 32 0.405117 0 80 0.405117 1
gene 1 27 33 1.69473 0 81 1.69473 1
gene 1 28 31 -1.13059 0 82 -1.13059 1
gene 1 28 32 0.970571 0 83 0.970571 1
gene 1 28 33 0.761557 0 84 0.761557 1
gene 1 29 31 -2.05624 0 85 -2.05624 1
gene 1 29 32 -1.85044 0 86 -1.85044 1
gene 1 29 33 0.730136 0 87 0.730136 1
gene 1 30 31 -1.01672 0 88 -1.01672 1
gene 1 30 32 2.13465 0 89 2.13465 1
gene 1 30 33 -1.71604 0 90 -1.71604 1
genomeend 17

/* Organism #18 Fitness: 11727 Error: 0 */
genomestart 18
trait 1 0.679505 0 0.39531 0.459238 0.233202 0.853695 0 0 
node 1 1 1 1
node 2 1 1 1
node 3 1 1 1
node 4 1 1 1
node 5 1 1 1
node 6 1 1 1
node 7 1 1 1
node 8 1 1 1
node 9 1 1 1
node 10 1 1 1
node 11 1 1 1
node 12 1 1 1
node 13 1 1 1
node 14 1 1 1
node 15 1 1 1
node 16 1 1 1
node 17 1 1 1
node 18 1 1 1
node 19 1 1 1
node 20 1 1 1
node 21 1 1 1
node 22 1 1 1
node 23 1 1 1
node 24 1 1 1
node 25 1 1 1
node 26 1 1 1
node 27 1 1 1
node 28 1 1 1
node 29 1 1 1
node 30 1 1 3
node 31 1 0 2
node 32 1 0 2
node 33 1 0 2
gene 1 1 31 -0.028996 0 1 -0.028996 1
gene 1 1 32 -4.018 0 2 -4.018 1
gene 1 1 33 0.125321 0 3 0.125321 1
gene 1 2 31 -2.49393 0 4 -2.49393 1
gene 1 2 32 3.02506 0 5 3.02506 1
gene 1 2 33 0.513042 0 6 0.513042 1
gene 1 3 31 -1.10233 0 7 -1.10233 1
gene 1 3 32 3.051 0 8 3.051 1
gene 1 3 33 5 0 9 5 1
gene 1 4 31 -0.124609 0 10 -0.124609 1
gene 1 4 32 3.32961 0 11 3.32961 1
gene 1 4 33 0.148633 0 12 0.148633 1
gene 1 5 31 4.01808 0 13 4.01808 1
gene 1 5 32 1.90198 0 14 1.90198 1
gene 1 5 33 -0.506604 0 15 -0.506604 1
gene 1 6 31 4.24098 0 16 4.24098 1
gene 1 6 32 -2.8579 0 17 -2.8579 1
gene 1 6 33 3.54521 0 18 3.54521 1
gene 1 7 31 3.93985 0 19 3.93985 1
gene 1 7 32 3.28259 0 20 3.28259 1
gene 1 7 33 0.685885 0 21 0.685885 1
gene 1 8 31 1.43618 0 22 1.43618 1
gene 1 8 32 0.888916 0 23 0.888916 1
gene 1 8 33 2.47368 0 24 2.47368 1
gene 1 9 31 1.75034 0 25 1.75034 1
gene 1 9 32 -3.64486 0 26 -3.64486 1
gene 1 9 33 -3.47121 0 27 -3.47121 1
gene 1 10 31 0.764894 0 28 0.764894 1
gene 1 10 32 0.294066 0 29 0.294066 1
gene 1 10 33 0.182576 0 30 0.182576 1
gene 1 11 31 -2.10058 0 31 -2.10058 1
gene 1 11 32 -1.26415 0 32 -1.26415 1
gene 1 11 33 -0.508232 0 33 -0.508232 1
gene 1 12 31 -0.384636 0 34 -0.384636 1
gene 1 12 32 1.1143 0 35 1.1143 1
gene 1 12 33 -0.0687963 0 36 -0.0687963 1
gene 1 13 31 0.445259 0 37 0.445259 1
gene 1 13 32 0.224358 0 38 0.224358 1
gene 1 13 33 -1.0558 0 39 -1.0558 1
gene 1 14 31 4.85395 0 40 4.85395 1
gene 1 14 32 1.21761 0 41 1.21761 1
gene 1 14 33 0.121431 0 42 0.121431 1
gene 1 15 31 -0.499216 0 43 -0.499216 1
gene 1 15 32 1.42432 0 44 1.42432 1
gene 1 15 33 -1.46151 0 45 -1.46151 1
gene 1 16 31 1.21494 0 46 1.21494 1
gene 1 16 32 -0.690644 0 47 -0.690644 1
gene 1 16 33 3.33134 0 48 3.33134 1
gene 1 17 31 -4.33682 0 49 -4.33682 1
gene 1 17 32 -3.41291 0 50 -3.41291 1
gene 1 17 33 -3.44587 0 51 -3.44587 1
gene 1 18 31 0.0302996 0 52 0.0302996 1
gene 1 18 32 -5 0 53 -5 1
gene 1 18 33 -1.26511 0 54 -1.26511 1
gene 1 19 31 0.316282 0 55 0.316282 1
gene 1 19 32 -3.17557 0 56 -3.17557 1
gene 1 19 33 -2.09557 0 57 -2.09557 1
gene 1 20 31 -4.6289 0 58 -4.6289 1
gene 1 20 32 2.1715 0 59 2.1715 1
gene 1 20 33 -0.269279 0 60 -0.269279 1
gene 1 21 31 -2.56849 0 61 -2.56849 1
gene 1 21 32 -0.0562688 0 62 -0.0562688 1
gene 1 21 33 -0.973934 0 63 -0.973934 1
gene 1 22 31 1.98242 0 64 1.98242 1
gene 1 22 32 -2.12347 0 65 -2.12347 1
gene 1 22 33 -1.75701 0 66 -1.75701 1
gene 1 23 31 3.80953 0 67 3.80953 1
gene 1 23 32 -1.13728 0 68 -1.13728 1
gene 1 23 33 -0.777041 0 69 -0.777041 1
gene 1 24 31 0.407245 0 70 0.407245 1
gene 1 24 32 4.42795 0 71 4.42795 1
gene 1 24 33 -2.19468 0 72 -2.19468 1
gene 1 25 31 -5 0 73 -5 1
gene 1 25 32 0.640756 0 74 0.640756 1
gene 1 25 33 0.437068 0 75 0.437068 1
gene 1 26 31 -1.14522 0 76 -1.14522 1
gene 1 26 32 -1.47292 0 77 -1.47292 1
gene 1 26 33 -0.195209 0 78 -0.195209 1
gene 1 27 31 0.990745 0 79 0.990745 1
gene 1 27 32 -1.44945 0 80 -1.44945 1
gene 1 27 33 -0.0492038 0 81 -0.0492038 1
gene 1 28 31 -0.916214 0 82 -0.916214 1
gene 1 28 32 0.836111 0 83 0.836111 1
gene 1 28 33 0.00745238 0 84 0.00745238 1
gene 1 29 31 -0.843526 0 85 -0.843526 1
gene 1 29 32 0.401 0 86 0.401 1
gene 1 29 33 -0.5835 0 87 -0.5835 1
gene 1 30 31 -3.53495 0 88 -3.53495 1
gene 1 30 32 -0.991355 0 89 -0.991355 1
gene 1 30 33 1.33341 0 90 1.33341 1
genomeend 18

/* Organism #19 Fitness: 13162.8 Error: 0 */
genomestart 19
trait 1 0 0 0.39531 0.334906 0 0.853695 0.656478 0 
node 1 1 1 1
node 2 1 1 1
node 3 1 1 1
node 4 1 1 1
node 5 1 1 1
node 6 1 1 1
node 7 1 1 1
node 8 1 1 1
node 9 1 1 1
node 10 1 1 1
node 11 1 1 1
node 12 1 1 1
node 13 1 1 1
node 14 1 1 1
node 15 1 1 1
node 16 1 1 1
node 17 1 1 1
node 18 1 1 1
node 19 1 1 1
node 20 1 1 1
node 21 1 1 1
node 22 1 1 1
node 23 1 1 1
node 24 1 1 1
node 25 1 1 1
node 26 1 1 1
node 27 1 1 1
node 28 1 1 1
node 29 1 1 1
node 30 1 1 3
node 31 1 0 2
node 32 1 0 2
node 33 1 0 2
gene 1 1 31 -2.32987 0 1 -2.32987 1
gene 1 1 32 -4.65348 0 2 -4.65348 1
gene 1 1 33 1.33014 0 3 1.33014 1
gene 1 2 31 -0.157857 0 4 -0.157857 1
gene 1 2 32 0.827076 0 5 0.827076 1
gene 1 2 33 3.20826 0 6 3.20826 1
gene 1 3 31 -1.7311 0 7 -1.7311 1
gene 1 3 32 1.14864 0 8 1.14864 1
gene 1 3 33 4.13787 0 9 4.13787 1
gene 1 4 31 2.43718 0 10 2.43718 1
gene 1 4 32 1.33923 0 11 1.33923 1
gene 1 4 33 0.683106 0 12 0.683106 1
gene 1 5 31 1.6354 0 13 1.6354 1
gene 1 5 32 0.953708 0 14 0.953708 1
gene 1 5 33 2.38798 0 15 2.38798 1
gene 1 6 31 2.61416 0 16 2.61416 1
gene 1 6 32 -2.48594 0 17 -2.48594 1
gene 1 6 33 3.25299 0 18 3.25299 1
gene 1 7 31 5 0 19 5 1
gene 1 7 32 2.39152 0 20 2.39152 1
gene 1 7 33 2.22086 0 21 2.22086 1
gene 1 8 31 0.56948 0 22 0.56948 1
gene 1 8 32 -0.634149 0 23 -0.634149 1
gene 1 8 33 0.902134 0 24 0.902134 1
gene 1 9 31 0.41001 0 25 0.41001 1
gene 1 9 32 -0.487845 0 26 -0.487845 1
gene 1 9 33 -1.18073 0 27 -1.18073 1
gene 1 10 31 0.0710385 0 28 0.0710385 1
gene 1 10 32 -1.18732 0 29 -1.18732 1
gene 1 10 33 -0.905125 0 30 -0.905125 1
gene 1 11 31 1.62493 0 31 1.62493 1
gene 1 11 32 -0.639144 0 32 -0.639144 1
gene 1 11 33 -0.668857 0 33 -0.668857 1
gene 1 12 31 1.41929 0 34 1.41929 1
gene 1 12 32 0.917788 0 35 0.917788 1
gene 1 12 33 -1.10985 0 36 -1.10985 1
gene 1 13 31 -0.8142 0 37 -0.8142 1
gene 1 13 32 2.00176 0 38 2.00176 1
gene 1 13 33 -2.61001 0 39 -2.61001 1
gene 1 14 31 4.83671 0 40 4.83671 1
gene 1 14 32 3.2817 0 41 3.2817 1
gene 1 14 33 1.0162 0 42 1.0162 1
gene 1 15 31 0.812486 0 43 0.812486 1
gene 1 15 32 3.137 0 44 3.137 1
gene 1 15 33 0.531661 0 45 0.531661 1
gene 1 16 31 0.183186 0 46 0.183186 1
gene 1 16 32 0.288914 0 47 0.288914 1
gene 1 16 33 -1.07076 0 48 -1.07076 1
gene 1 17 31 -1.39421 0 49 -1.39421 1
gene 1 17 32 -4.49741 0 50 -4.49741 1
gene 1 17 33 -2.49147 0 51 -2.49147 1
gene 1 18 31 -0.996871 0 52 -0.996871 1
gene 1 18 32 -4.99615 0 53 -4.99615 1
gene 1 18 33 -1.34568 0 54 -1.34568 1
gene 1 19 31 0.589475 0 55 0.589475 1
gene 1 19 32 -4.2922 0 56 -4.2922 1
gene 1 19 33 0.278816 0 57 0.278816 1
gene 1 20 31 -1.8591 0 58 -1.8591 1
gene 1 20 32 1.98529 0 59 1.98529 1
gene 1 20 33 -2.034 0 60 -2.034 1
gene 1 21 31 -1.17127 0 61 -1.17127 1
gene 1 21 32 -0.764271 0 62 -0.764271 1
gene 1 21 33 1.38518 0 63 1.38518 1
gene 1 22 31 -0.1109 0 64 -0.1109 1
gene 1 22 32 -2.77902 0 65 -2.77902 1
gene 1 22 33 0.401738 0 66 0.401738 1
gene 1 23 31 -0.189476 0 67 -0.189476 1
gene 1 23 32 4.85988 0 68 4.85988 1
gene 1 23 33 -4.13292 0 69 -4.13292 1
gene 1 24 31 -1.29411 0 70 -1.29411 1
gene 1 24 32 -0.0370017 0 71 -0.0370017 1
gene 1 24 33 0.720302 0 72 0.720302 1
gene 1 25 31 -4.06542 0 73 -4.06542 1
gene 1 25 32 0.73977 0 74 0.73977 1
gene 1 25 33 -0.455091 0 75 -0.455091 1
gene 1 26 31 -0.303795 0 76 -0.303795 1
gene 1 26 32 0.76746 0 77 0.76746 1
gene 1 26 33 1.34356 0 78 1.34356 1
gene 1 27 31 0.212728 0 79 0.212728 1
gene 1 27 32 -0.197174 0 80 -0.197174 1
gene 1 27 33 0.602116 0 81 0.602116 1
gene 1 28 31 0.126006 0 82 0.126006 1
gene 1 28 32 0.898259 0 83 0.898259 1
gene 1 28 33 0.475009 0 84 0.475009 1
gene 1 29 31 -1.1461 0 85 -1.1461 1
gene 1 29 32 -0.71561 0 86 -0.71561 1
gene 1 29 33 0.62015 0 87 0.62015 1
gene 1 30 31 -0.787067 0 88 -0.787067 1
gene 1 30 32 1.0471 0 89 1.0471 1
gene 1 30 33 -1.63787 0 90 -1.63787 1
genomeend 19

/* Organism #20 Fitness: 11073.8 Error: 0 */
genomestart 20
trait 1 0.125354 0 0.39531 0.459238 0.233202 0.853695 0 0.298189 
node 1 1 1 1
node 2 1 1 1
node 3 1 1 1
node 4 1 1 1
node 5 1 1 1
node 6 1 1 1
node 7 1 1 1
node 8 1 1 1
node 9 1 1 1
node 10 1 1 1
node 11 1 1 1
node 12 1 1 1
node 13 1 1 1
node 14 1 1 1
node 15 1 1 1
node 16 1 1 1
node 17 1 1 1
node 18 1 1 1
node 19 1 1 1
node 20 1 1 1
node 21 1 1 1
node 22 1 1 1
node 23 1 1 1
node 24 1 1 1
node 25 1 1 1
node 26 1 1 1
node 27 1 1 1
node 28 1 1 1
node 29 1 1 1
node 30 1 1 3
node 31 1 0 2
node 32 1 0 2
node 33 1 0 2
gene 1 1 31 -3.36116 0 1 -3.36116 1
gene 1 1 32 -3.70809 0 2 -3.70809 1
gene 1 1 33 1.96967 0 3 1.96967 1
gene 1 2 31 0.932549 0 4 0.932549 1
gene 1 2 32 3.99546 0 5 3.99546 1
gene 1 2 33 0.307906 0 6 0.307906 1
gene 1 3 31 -2.18586 0 7 -2.18586 1
gene 1 3 32 1.24519 0 8 1.24519 1
gene 1 3 33 0.396872 0 9 0.396872 1
gene 1 4 31 3.08602 0 10 3.08602 1
gene 1 4 32 2.40404 0 11 2.40404 1
gene 1 4 33 -0.579243 0 12 -0.579243 1
gene 1 5 31 2.46375 0 13 2.46375 1
gene 1 5 32 2.11712 0 14 2.11712 1
gene 1 5 33 2.69873 0 15 2.69873 1
gene 1 6 31 2.59036 0 16 2.59036 1
gene 1 6 32 -1.45878 0 17 -1.45878 1
gene 1 6 33 3.52452 0 18 3.52452 1
gene 1 7 31 3.31177 0 19 3.31177 1
gene 1 7 32 4.2346 0 20 4.2346 1
gene 1 7 33 1.90608 0 21 1.90608 1
gene 1 8 31 2.78273 0 22 2.78273 1
gene 1 8 32 -0.569924 0 23 -0.569924 1
gene 1 8 33 -1.15635 0 24 -1.15635 1
gene 1 9 31 -1.86682 0 25 -1.86682 1
gene 1 9 32 -2.33524 0 26 -2.33524 1
gene 1 9 33 -0.688873 0 27 -0.688873 1
gene 1 10 31 -0.660664 0 28 -0.660664 1
gene 1 10 32 0.0662279 0 29 0.0662279 1
gene 1 10 33 0.00724435 0 30 0.00724435 1
gene 1 11 31 1.93464 0 31 1.93464 1
gene 1 11 32 0.950913 0 32 0.950913 1
gene 1 11 33 -4.40509 0 33 -4.40509 1
gene 1 12 31 1.45464 0 34 1.45464 1
gene 1 12 32 0.0716914 0 35 0.0716914 1
gene 1 12 33 -0.0205362 0 36 -0.0205362 1
gene 1 13 31 0.895011 0 37 0.895011 1
gene 1 13 32 2.77445 0 38 2.77445 1
gene 1 13 33 -2.84451 0 39 -2.84451 1
gene 1 14 31 2.19774 0 40 2.19774 1
gene 1 14 32 -1.99772 0 41 -1.99772 1
gene 1 14 33 -0.772334 0 42 -0.772334 1
gene 1 15 31 -0.736736 0 43 -0.736736 1
gene 1 15 32 0.931403 0 44 0.931403 1
gene 1 15 33 -1.67377 0 45 -1.67377 1
gene 1 16 31 -1.20441 0 46 -1.20441 1
gene 1 16 32 -0.921524 0 47 -0.921524 1
gene 1 16 33 -0.387598 0 48 -0.387598 1
gene 1 17 31 -4.87326 0 49 -4.87326 1
gene 1 17 32 -4.93955 0 50 -4.93955 1
gene 1 17 33 -3.79551 0 51 -3.79551 1
gene 1 18 31 1.26603 0 52 1.26603 1
gene 1 18 32 -5 0 53 -5 1
gene 1 18 33 -2.01556 0 54 -2.01556 1
gene 1 19 31 -0.167565 0 55 -0.167565 1
gene 1 19 32 -3.89831 0 56 -3.89831 1
gene 1 19 33 0.351702 0 57 0.351702 1
gene 1 20 31 -3.17675 0 58 -3.17675 1
gene 1 20 32 3.04307 0 59 3.04307 1
gene 1 20 33 -0.869782 0 60 -0.869782 1
gene 1 21 31 0.854713 0 61 0.854713 1
gene 1 21 32 -3.96128 0 62 -3.96128 1
gene 1 21 33 0.293135 0 63 0.293135 1
gene 1 22 31 1.07208 0 64 1.07208 1
gene 1 22 32 -5 0 65 -5 1
gene 1 22 33 0.948289 0 66 0.948289 1
gene 1 23 31 -0.515209 0 67 -0.515209 1
gene 1 23 32 3.40588 0 68 3.40588 1
gene 1 23 33 0.0143066 0 69 0.0143066 1
gene 1 24 31 -0.185476 0 70 -0.185476 1
gene 1 24 32 1.0863 0 71 1.0863 1
gene 1 24 33 0.754549 0 72 0.754549 1
gene 1 25 31 0.56134 0 73 0.56134 1
gene 1 25 32 -0.165991 0 74 -0.165991 1
gene 1 25 33 0.124217 0 75 0.124217 1
gene 1 26 31 -0.791028 0 76 -0.791028 1
gene 1 26 32 0.658136 0 77 0.658136 1
gene 1 26 33 0.00698171 0 78 0.00698171 1
gene 1 27 31 0.763888 0 79 0.763888 1
gene 1 27 32 -0.145815 0 80 -0.145815 1
gene 1 27 33 -0.0468894 0 81 -0.0468894 1
gene 1 28 31 0.731437 0 82 0.731437 1
gene 1 28 32 -0.674971 0 83 -0.674971 1
gene 1 28 33 -0.183212 0 84 -0.183212 1
gene 1 29 31 -0.130592 0 85 -0.130592 1
gene 1 29 32 -0.0413172 0 86 -0.0413172 1
gene 1 29 33 -0.494119 0 87 -0.494119 1
gene 1 30 31 -1.57296 0 88 -1.57296 1
gene 1 30 32 -0.094851 0 89 -0.094851 1
gene 1 30 33 0.686016 0 90 0.686016 1
genomeend 20

/* Organism #21 Fitness: 13614.4 Error: 0 */
genomestart 21
trait 1 0 0 1 0.334906 0 0.853695 0 0.577735 
node 1 1 1 1
node 2 1 1 1
node 3 1 1 1
node 4 1 1 1
node 5 1 1 1
node 6 1 1 1
node 7 1 1 1
node 8 1 1 1
node 9 1 1 1
node 10 1 1 1
node 11 1 1 1
node 12 1 1 1
node 13 1 1 1
node 14 1 1 1
node 15 1 1 1
node 16 1 1 1
node 17 1 1 1
node 18 1 1 1
node 19 1 1 1
node 20 1 1 1
node 21 1 1 1
node 22 1 1 1
node 23 1 1 1
node 24 1 1 1
node 25 1 1 1
node 26 1 1 1
node 27 1 1 1
node 28 1 1 1
node 29 1 1 1
node 30 1 1 3
node 31 1 0 2
node 32 1 0 2
node 33 1 0 2
gene 1 1 31 -3.43406 0 1 -3.43406 1
gene 1 1 32 -2.47857 0 2 -2.47857 1
gene 1 1 33 0.940524 0 3 0.940524 1
gene 1 2 31 1.29085 0 4 1.29085 1
gene 1 2 32 0.750223 0 5 0.750223 1
gene 1 2 33 3.50371 0 6 3.50371 1
gene 1 3 31 -0.71414 0 7 -0.71414 1
gene 1 3 32 -0.300485 0 8 -0.300485 1
gene 1 3 33 4.26092 0 9 4.26092 1
gene 1 4 31 -0.00766673 0 10 -0.00766673 1
gene 1 4 32 0.564593 0 11 0.564593 1
gene 1 4 33 0.655519 0 12 0.655519 1
gene 1 5 31 1.44362 0 13 1.44362 1
gene 1 5 32 -0.00722178 0 14 -0.00722178 1
gene 1 5 33 -0.81265 0 15 -0.81265 1
gene 1 6 31 3.01372 0 16 3.01372 1
gene 1 6 32 2.61259 0 17 2.61259 1
gene 1 6 33 4.23169 0 18 4.23169 1
gene 1 7 31 5 0 19 5 1
gene 1 7 32 1.25269 0 20 1.25269 1
gene 1 7 33 -1.12917 0 21 -1.12917 1
gene 1 8 31 0.863162 0 22 0.863162 1
gene 1 8 32 -0.962035 0 23 -0.962035 1
gene 1 8 33 3.18218 0 24 3.18218 1
gene 1 9 31 0.232125 0 25 0.232125 1
gene 1 9 32 0.468344 0 26 0.468344 1
gene 1 9 33 -1.45635 0 27 -1.45635 1
gene 1 10 31 0.275241 0 28 0.275241 1
gene 1 10 32 -1.49708 0 29 -1.49708 1
gene 1 10 33 0.432078 0 30 0.432078 1
gene 1 11 31 1.84894 0 31 1.84894 1
gene 1 11 32 -1.00731 0 32 -1.00731 1
gene 1 11 33 1.07439 0 33 1.07439 1
gene 1 12 31 -2.50949 0 34 -2.50949 1
gene 1 12 32 1.11178 0 35 1.11178 1
gene 1 12 33 -1.48464 0 36 -1.48464 1
gene 1 13 31 2.55577 0 37 2.55577 1
gene 1 13 32 -0.800165 0 38 -0.800165 1
gene 1 13 33 -0.705813 0 39 -0.705813 1
gene 1 14 31 -0.289511 0 40 -0.289511 1
gene 1 14 32 -0.222302 0 41 -0.222302 1
gene 1 14 33 1.12888 0 42 1.12888 1
gene 1 15 31 0.632156 0 43 0.632156 1
gene 1 15 32 0.298567 0 44 0.298567 1
gene 1 15 33 0.0266678 0 45 0.0266678 1
gene 1 16 31 -3.04314 0 46 -3.04314 1
gene 1 16 32 -0.525444 0 47 -0.525444 1
gene 1 16 33 1.14455 0 48 1.14455 1
gene 1 17 31 -0.16162 0 49 -0.16162 1
gene 1 17 32 -5 0 50 -5 1
gene 1 17 33 -2.03715 0 51 -2.03715 1
gene 1 18 31 -1.37503 0 52 -1.37503 1
gene 1 18 32 -5 0 53 -5 1
gene 1 18 33 0.565709 0 54 0.565709 1
gene 1 19 31 0.312068 0 55 0.312068 1
gene 1 19 32 -4.68286 0 56 -4.68286 1
gene 1 19 33 1.54571 0 57 1.54571 1
gene 1 20 31 -1.4475 0 58 -1.4475 1
gene 1 20 32 1.76087 0 59 1.76087 1
gene 1 20 33 -3.34269 0 60 -3.34269 1
gene 1 21 31 1.84892 0 61 1.84892 1
gene 1 21 32 1.84366 0 62 1.84366 1
gene 1 21 33 -0.417892 0 63 -0.417892 1
gene 1 22 31 -0.562482 0 64 -0.562482 1
gene 1 22 32 1.85303 0 65 1.85303 1
gene 1 22 33 0.478393 0 66 0.478393 1
gene 1 23 31 -0.591511 0 67 -0.591511 1
gene 1 23 32 4.67048 0 68 4.67048 1
gene 1 23 33 -0.202799 0 69 -0.202799 1
gene 1 24 31 1.72333 0 70 1.72333 1
gene 1 24 32 -0.954388 0 71 -0.954388 1
gene 1 24 33 0.0671689 0 72 0.0671689 1
gene 1 25 31 -3.9672 0 73 -3.9672 1
gene 1 25 32 -0.0586739 0 74 -0.0586739 1
gene 1 25 33 -1.23947 0 75 -1.23947 1
gene 1 26 31 0.643754 0 76 0.643754 1
gene 1 26 32 -0.371433 0 77 -0.371433 1
gene 1 26 33 0.143453 0 78 0.143453 1
gene 1 27 31 0.503946 0 79 0.503946 1
gene 1 27 32 0.717334 0 80 0.717334 1
gene 1 27 33 0.631096 0 81 0.631096 1
gene 1 28 31 -0.967818 0 82 -0.967818 1
gene 1 28 32 -0.160024 0 83 -0.160024 1
gene 1 28 33 0.583171 0 84 0.583171 1
gene 1 29 31 -1.77516 0 85 -1.77516 1
gene 1 29 32 -2.11098 0 86 -2.11098 1
gene 1 29 33 0.682602 0 87 0.682602 1
gene 1 30 31 -1.29379 0 88 -1.29379 1
gene 1 30 32 -0.143184 0 89 -0.143184 1
gene 1 30 33 -0.361792 0 90 -0.361792 1
genomeend 21

/* Organism #22 Fitness: 247.2 Error: 0 */
genomestart 22
trait 1 0 0 0.39531 0.334906 0 0.853695 0.656478 0 
node 1 1 1 1
node 2 1 1 1
node 3 1 1 1
node 4 1 1 1
node 5 1 1 1
node 6 1 1 1
node 7 1 1 1
node 8 1 1 1
node 9 1 1 1
node 10 1 1 1
node 11 1 1 1
node 12 1 1 1
node 13 1 1 1
node 14 1 1 1
node 15 1 1 1
node 16 1 1 1
node 17 1 1 1
node 18 1 1 1
node 19 1 1 1
node 20 1 1 1
node 21 1 1 1
node 22 1 1 1
node 23 1 1 1
node 24 1 1 1
node 25 1 1 1
node 26 1 1 1
node 27 1 1 1
node 28 1 1 1
node 29 1 1 1
node 30 1 1 3
node 31 1 0 2
node 32 1 0 2
node 33 1 0 2
gene 1 1 31 -2.83338 0 1 -2.83338 1
gene 1 1 32 -0.406903 0 2 -0.406903 1
gene 1 1 33 0.0363038 0 3 0.0363038 1
gene 1 2 31 0.886462 0 4 0.886462 1
gene 1 2 32 0.434116 0 5 0.434116 1
gene 1 2 33 3.11926 0 6 3.11926 1
gene 1 3 31 -2.59571 0 7 -2.59571 1
gene 1 3 32 2.32397 0 8 2.32397 1
gene 1 3 33 2.5844 0 9 2.5844 1
gene 1 4 31 3.02348 0 10 3.02348 1
gene 1 4 32 1.60292 0 11 1.60292 1
gene 1 4 33 1.1209 0 12 1.1209 1
gene 1 5 31 2.1196 0 13 2.1196 1
gene 1 5 32 -0.386277 0 14 -0.386277 1
gene 1 5 33 3.82422 0 15 3.82422 1
gene 1 6 31 3.33345 0 16 3.33345 1
gene 1 6 32 -3.43891 0 17 -3.43891 1
gene 1 6 33 4.3872 0 18 4.3872 1
gene 1 7 31 4.20481 0 19 4.20481 1
gene 1 7 32 2.12611 0 20 2.12611 1
gene 1 7 33 -0.0180997 0 21 -0.0180997 1
gene 1 8 31 0.157166 0 22 0.157166 1
gene 1 8 32 -0.430054 0 23 -0.430054 1
gene 1 8 33 0.538787 0 24 0.538787 1
gene 1 9 31 0.0131643 0 25 0.0131643 1
gene 1 9 32 0.149344 0 26 0.149344 1
gene 1 9 33 -1.28707 0 27 -1.28707 1
gene 1 10 31 -0.315188 0 28 -0.315188 1
gene 1 10 32 -1.53182 0 29 -1.53182 1
gene 1 10 33 -0.792375 0 30 -0.792375 1
gene 1 11 31 -0.895823 0 31 -0.895823 1
gene 1 11 32 0.529274 0 32 0.529274 1
gene 1 11 33 0.186205 0 33 0.186205 1
gene 1 12 31 0.858456 0 34 0.858456 1
gene 1 12 32 0.136845 0 35 0.136845 1
gene 1 12 33 -1.53103 0 36 -1.53103 1
gene 1 13 31 -0.0747453 0 37 -0.0747453 1
gene 1 13 32 0.318792 0 38 0.318792 1
gene 1 13 33 -2.55974 0 39 -2.55974 1
gene 1 14 31 -0.579529 0 40 -0.579529 1
gene 1 14 32 3.16141 0 41 3.16141 1
gene 1 14 33 2.48689 0 42 2.48689 1
gene 1 15 31 0.471813 0 43 0.471813 1
gene 1 15 32 3.22937 0 44 3.22937 1
gene 1 15 33 -0.169208 0 45 -0.169208 1
gene 1 16 31 -0.322612 0 46 -0.322612 1
gene 1 16 32 -1.45712 0 47 -1.45712 1
gene 1 16 33 -0.439875 0 48 -0.439875 1
gene 1 17 31 -0.0514819 0 49 -0.0514819 1
gene 1 17 32 -5 0 50 -5 1
gene 1 17 33 -4.03367 0 51 -4.03367 1
gene 1 18 31 0.584837 0 52 0.584837 1
gene 1 18 32 -0.46911 0 53 -0.46911 1
gene 1 18 33 -0.0344544 0 54 -0.0344544 1
gene 1 19 31 -0.500472 0 55 -0.500472 1
gene 1 19 32 -5 0 56 -5 1
gene 1 19 33 1.2424 0 57 1.2424 1
gene 1 20 31 -1.68006 0 58 -1.68006 1
gene 1 20 32 2.3724 0 59 2.3724 1
gene 1 20 33 -0.757804 0 60 -0.757804 1
gene 1 21 31 -0.33279 0 61 -0.33279 1
gene 1 21 32 -1.51637 0 62 -1.51637 1
gene 1 21 33 0.550967 0 63 0.550967 1
gene 1 22 31 -0.312023 0 64 -0.312023 1
gene 1 22 32 -3.22971 0 65 -3.22971 1
gene 1 22 33 -0.0469403 0 66 -0.0469403 1
gene 1 23 31 -1.76907 0 67 -1.76907 1
gene 1 23 32 3.91316 0 68 3.91316 1
gene 1 23 33 -3.89501 0 69 -3.89501 1
gene 1 24 31 -1.59147 0 70 -1.59147 1
gene 1 24 32 -1.85771 0 71 -1.85771 1
gene 1 24 33 1.17161 0 72 1.17161 1
gene 1 25 31 -3.8833 0 73 -3.8833 1
gene 1 25 32 0.900061 0 74 0.900061 1
gene 1 25 33 -1.73512 0 75 -1.73512 1
gene 1 26 31 0.188806 0 76 0.188806 1
gene 1 26 32 0.187476 0 77 0.187476 1
gene 1 26 33 0.601542 0 78 0.601542 1
gene 1 27 31 1.03631 0 79 1.03631 1
gene 1 27 32 0.183923 0 80 0.183923 1
gene 1 27 33 0.764603 0 81 0.764603 1
gene 1 28 31 -0.2448 0 82 -0.2448 1
gene 1 28 32 0.946583 0 83 0.946583 1
gene 1 28 33 -0.812574 0 84 -0.812574 1
gene 1 29 31 -0.278284 0 85 -0.278284 1
gene 1 29 32 -1.80296 0 86 -1.80296 1
gene 1 29 33 -0.715993 0 87 -0.715993 1
gene 1 30 31 -0.221616 0 88 -0.221616 1
gene 1 30 32 2.18979 0 89 2.18979 1
gene 1 30 33 -1.56637 0 90 -1.56637 1
genomeend 22

/* Organism #23 Fitness: 8439.1 Error: 0 */
genomestart 23
trait 1 0.679505 0 0.39531 0.459238 0.233202 0.853695 0 0 
node 1 1 1 1
node 2 1 1 1
node 3 1 1 1
node 4 1 1 1
node 5 1 1 1
node 6 1 1 1
node 7 1 1 1
node 8 1 1 1
node 9 1 1 1
node 10 1 1 1
node 11 1 1 1
node 12 1 1 1
node 13 1 1 1
node 14 1 1 1
node 15 1 1 1
node 16 1 1 1
node 17 1 1 1
node 18 1 1 1
node 19 1 1 1
node 20 1 1 1
node 21 1 1 1
node 22 1 1 1
node 23 1 1 1
node 24 1 1 1
node 25 1 1 1
node 26 1 1 1
node 27 1 1 1
node 28 1 1 1
node 29 1 1 1
node 30 1 1 3
node 31 1 0 2
node 32 1 0 2
node 33 1 0 2
gene 1 1 31 0.165081 0 1 0.165081 1
gene 1 1 32 -3.94277 0 2 -3.94277 1
gene 1 1 33 1.11794 0 3 1.11794 1
gene 1 2 31 -1.52453 0 4 -1.52453 1
gene 1 2 32 3.56059 0 5 3.56059 1
gene 1 2 33 0.564925 0 6 0.564925 1
gene 1 3 31 -1.20561 0 7 -1.20561 1
gene 1 3 32 3.18929 0 8 3.18929 1
gene 1 3 33 4.36294 0 9 4.36294 1
gene 1 4 31 -0.0564136 0 10 -0.0564136 1
gene 1 4 32 -0.780197 0 11 -0.780197 1
gene 1 4 33 0.860584 0 12 0.860584 1
gene 1 5 31 3.80324 0 13 3.80324 1
gene 1 5 32 2.43744 0 14 2.43744 1
gene 1 5 33 -1.70152 0 15 -1.70152 1
gene 1 6 31 0.360702 0 16 0.360702 1
gene 1 6 32 -2.18199 0 17 -2.18199 1
gene 1 6 33 3.89955 0 18 3.89955 1
gene 1 7 31 4.79512 0 19 4.79512 1
gene 1 7 32 2.47652 0 20 2.47652 1
gene 1 7 33 0.865292 0 21 0.865292 1
gene 1 8 31 0.818529 0 22 0.818529 1
gene 1 8 32 1.11385 0 23 1.11385 1
gene 1 8 33 0.513371 0 24 0.513371 1
gene 1 9 31 1.99198 0 25 1.99198 1
gene 1 9 32 0.588639 0 26 0.588639 1
gene 1 9 33 -2.45868 0 27 -2.45868 1
gene 1 10 31 0.985385 0 28 0.985385 1
gene 1 10 32 -0.510381 0 29 -0.510381 1
gene 1 10 33 0.834797 0 30 0.834797 1
gene 1 11 31 -2.02568 0 31 -2.02568 1
gene 1 11 32 0.939856 0 32 0.939856 1
gene 1 11 33 0.679494 0 33 0.679494 1
gene 1 12 31 -0.430724 0 34 -0.430724 1
gene 1 12 32 1.34372 0 35 1.34372 1
gene 1 12 33 -0.0943184 0 36 -0.0943184 1
gene 1 13 31 -0.908005 0 37 -0.908005 1
gene 1 13 32 1.17741 0 38 1.17741 1
gene 1 13 33 -1.01103 0 39 -1.01103 1
gene 1 14 31 5 0 40 5 1
gene 1 14 32 2.79107 0 41 2.79107 1
gene 1 14 33 -0.83685 0 42 -0.83685 1
gene 1 15 31 0.371042 0 43 0.371042 1
gene 1 15 32 0.715966 0 44 0.715966 1
gene 1 15 33 -0.941226 0 45 -0.941226 1
gene 1 16 31 -0.00800242 0 46 -0.00800242 1
gene 1 16 32 0.150253 0 47 0.150253 1
gene 1 16 33 -0.580067 0 48 -0.580067 1
gene 1 17 31 -5 0 49 -5 1
gene 1 17 32 -3.8984 0 50 -3.8984 1
gene 1 17 33 0.116821 0 51 0.116821 1
gene 1 18 31 -0.446623 0 52 -0.446623 1
gene 1 18 32 0.498943 0 53 0.498943 1
gene 1 18 33 -0.44521 0 54 -0.44521 1
gene 1 19 31 0.23896 0 55 0.23896 1
gene 1 19 32 -3.76499 0 56 -3.76499 1
gene 1 19 33 -2.06984 0 57 -2.06984 1
gene 1 20 31 -0.667019 0 58 -0.667019 1
gene 1 20 32 0.959437 0 59 0.959437 1
gene 1 20 33 -0.379315 0 60 -0.379315 1
gene 1 21 31 -3.33946 0 61 -3.33946 1
gene 1 21 32 -0.266947 0 62 -0.266947 1
gene 1 21 33 -1.79176 0 63 -1.79176 1
gene 1 22 31 0.757173 0 64 0.757173 1
gene 1 22 32 -3.39172 0 65 -3.39172 1
gene 1 22 33 -1.20918 0 66 -1.20918 1
gene 1 23 31 3.79519 0 67 3.79519 1
gene 1 23 32 -0.24312 0 68 -0.24312 1
gene 1 23 33 -1.98098 0 69 -1.98098 1
gene 1 24 31 1.12328 0 70 1.12328 1
gene 1 24 32 3.56424 0 71 3.56424 1
gene 1 24 33 -2.0824 0 72 -2.0824 1
gene 1 25 31 -4.24673 0 73 -4.24673 1
gene 1 25 32 0.835986 0 74 0.835986 1
gene 1 25 33 -0.414034 0 75 -0.414034 1
gene 1 26 31 -1.12555 0 76 -1.12555 1
gene 1 26 32 0.424366 0 77 0.424366 1
gene 1 26 33 -0.195209 0 78 -0.195209 1
gene 1 27 31 1.78162 0 79 1.78162 1
gene 1 27 32 -1.34892 0 80 -1.34892 1
gene 1 27 33 0.0221984 0 81 0.0221984 1
gene 1 28 31 -0.706785 0 82 -0.706785 1
gene 1 28 32 1.18706 0 83 1.18706 1
gene 1 28 33 0.00745238 0 84 0.00745238 1
gene 1 29 31 -0.837644 0 85 -0.837644 1
gene 1 29 32 0.299247 0 86 0.299247 1
gene 1 29 33 -0.224491 0 87 -0.224491 1
gene 1 30 31 -4.13835 0 88 -4.13835 1
gene 1 30 32 -0.17012 0 89 -0.17012 1
gene 1 30 33 0.359408 0 90 0.359408 1
genomeend 23

/* Organism #24 Fitness: 10964.7 Error: 0 */
genomestart 24
trait 1 0 0 0.39531 0.334906 0 0.853695 0.656478 0 
node 1 1 1 1
node 2 1 1 1
node 3 1 1 1
node 4 1 1 1
node 5 1 1 1
node 6 1 1 1
node 7 1 1 1
node 8 1 1 1
node 9 1 1 1
node 10 1 1 1
node 11 1 1 1
node 12 1 1 1
node 13 1 1 1
node 14 1 1 1
node 15 1 1 1
node 16 1 1 1
node 17 1 1 1
node 18 1 1 1
node 19 1 1 1
node 20 1 1 1
node 21 1 1 1
node 22 1 1 1
node 23 1 1 1
node 24 1 1 1
node 25 1 1 1
node 26 1 1 1
node 27 1 1 1
node 28 1 1 1
node 29 1 1 1
node 30 1 1 3
node 31 1 0 2
node 32 1 0 2
node 33 1 0 2
gene 1 1 31 -1.85459 0 1 -1.85459 1
gene 1 1 32 -5 0 2 -5 1
gene 1 1 33 0.653298 0 3 0.653298 1
gene 1 2 31 -0.00730957 0 4 -0.00730957 1
gene 1 2 32 0.97502 0 5 0.97502 1
gene 1 2 33 4.01354 0 6 4.01354 1
gene 1 3 31 -3.31922 0 7 -3.31922 1
gene 1 3 32 0.232002 0 8 0.232002 1
gene 1 3 33 4.34816 0 9 4.34816 1
gene 1 4 31 1.18491 0 10 1.18491 1
gene 1 4 32 -0.137793 0 11 -0.137793 1
gene 1 4 33 0.893834 0 12 0.893834 1
gene 1 5 31 3.49946 0 13 3.49946 1
gene 1 5 32 1.25153 0 14 1.25153 1
gene 1 5 33 3.13326 0 15 3.13326 1
gene 1 6 31 3.11235 0 16 3.11235 1
gene 1 6 32 -2.163 0 17 -2.163 1
gene 1 6 33 -0.819297 0 18 -0.819297 1
gene 1 7 31 4.04786 0 19 4.04786 1
gene 1 7 32 2.46647 0 20 2.46647 1
gene 1 7 33 2.14485 0 21 2.14485 1
gene 1 8 31 0.39307 0 22 0.39307 1
gene 1 8 32 -1.6015 0 23 -1.6015 1
gene 1 8 33 -0.537191 0 24 -0.537191 1
gene 1 9 31 1.35251 0 25 1.35251 1
gene 1 9 32 0.35901 0 26 0.35901 1
gene 1 9 33 -2.12587 0 27 -2.12587 1
gene 1 10 31 -0.108803 0 28 -0.108803 1
gene 1 10 32 0.530361 0 29 0.530361 1
gene 1 10 33 -0.0465768 0 30 -0.0465768 1
gene 1 11 31 1.26681 0 31 1.26681 1
gene 1 11 32 -0.702568 0 32 -0.702568 1
gene 1 11 33 -0.849123 0 33 -0.849123 1
gene 1 12 31 1.50091 0 34 1.50091 1
gene 1 12 32 0.557653 0 35 0.557653 1
gene 1 12 33 -0.794381 0 36 -0.794381 1
gene 1 13 31 -0.526887 0 37 -0.526887 1
gene 1 13 32 1.29013 0 38 1.29013 1
gene 1 13 33 -4.21014 0 39 -4.21014 1
gene 1 14 31 -0.655889 0 40 -0.655889 1
gene 1 14 32 2.69511 0 41 2.69511 1
gene 1 14 33 0.803149 0 42 0.803149 1
gene 1 15 31 1.70829 0 43 1.70829 1
gene 1 15 32 4.42895 0 44 4.42895 1
gene 1 15 33 -0.0267065 0 45 -0.0267065 1
gene 1 16 31 -1.19896 0 46 -1.19896 1
gene 1 16 32 0.672738 0 47 0.672738 1
gene 1 16 33 -0.957735 0 48 -0.957735 1
gene 1 17 31 -0.36689 0 49 -0.36689 1
gene 1 17 32 -5 0 50 -5 1
gene 1 17 33 -3.86228 0 51 -3.86228 1
gene 1 18 31 -1.17976 0 52 -1.17976 1
gene 1 18 32 -5 0 53 -5 1
gene 1 18 33 -0.576495 0 54 -0.576495 1
gene 1 19 31 1.0179 0 55 1.0179 1
gene 1 19 32 -4.48841 0 56 -4.48841 1
gene 1 19 33 0.776604 0 57 0.776604 1
gene 1 20 31 -2.24633 0 58 -2.24633 1
gene 1 20 32 1.7559 0 59 1.7559 1
gene 1 20 33 -1.05311 0 60 -1.05311 1
gene 1 21 31 -1.26357 0 61 -1.26357 1
gene 1 21 32 -0.749766 0 62 -0.749766 1
gene 1 21 33 1.04982 0 63 1.04982 1
gene 1 22 31 1.29281 0 64 1.29281 1
gene 1 22 32 -1.52205 0 65 -1.52205 1
gene 1 22 33 0.114391 0 66 0.114391 1
gene 1 23 31 -0.441623 0 67 -0.441623 1
gene 1 23 32 5 0 68 5 1
gene 1 23 33 -4.30282 0 69 -4.30282 1
gene 1 24 31 0.685048 0 70 0.685048 1
gene 1 24 32 -1.31862 0 71 -1.31862 1
gene 1 24 33 0.594535 0 72 0.594535 1
gene 1 25 31 -5 0 73 -5 1
gene 1 25 32 0.724793 0 74 0.724793 1
gene 1 25 33 0.220657 0 75 0.220657 1
gene 1 26 31 0.249338 0 76 0.249338 1
gene 1 26 32 1.18893 0 77 1.18893 1
gene 1 26 33 0.817931 0 78 0.817931 1
gene 1 27 31 0.921778 0 79 0.921778 1
gene 1 27 32 0.375017 0 80 0.375017 1
gene 1 27 33 1.21428 0 81 1.21428 1
gene 1 28 31 1.30733 0 82 1.30733 1
gene 1 28 32 -0.762297 0 83 -0.762297 1
gene 1 28 33 0.89517 0 84 0.89517 1
gene 1 29 31 -1.14391 0 85 -1.14391 1
gene 1 29 32 -1.66836 0 86 -1.66836 1
gene 1 29 33 1.29863 0 87 1.29863 1
gene 1 30 31 -1.03819 0 88 -1.03819 1
gene 1 30 32 1.28143 0 89 1.28143 1
gene 1 30 33 0.764814 0 90 0.764814 1
genomeend 24

/* Organism #25 Fitness: 9378.4 Error: 0 */
genomestart 25
trait 1 0.679505 0 0.39531 0.459238 0.233202 0.853695 0 0 
node 1 1 1 1
node 2 1 1 1
node 3 1 1 1
node 4 1 1 1
node 5 1 1 1
node 6 1 1 1
node 7 1 1 1
node 8 1 1 1
node 9 1 1 1
node 10 1 1 1
node 11 1 1 1
node 12 1 1 1
node 13 1 1 1
node 14 1 1 1
node 15 1 1 1
node 16 1 1 1
node 17 1 1 1
node 18 1 1 1
node 19 1 1 1
node 20 1 1 1
node 21 1 1 1
node 22 1 1 1
node 23 1 1 1
node 24 1 1 1
node 25 1 1 1
node 26 1 1 1
node 27 1 1 1
node 28 1 1 1
node 29 1 1 1
node 30 1 1 3
node 31 1 0 2
node 32 1 0 2
node 33 1 0 2
gene 1 1 31 -2.14097 0 1 -2.14097 1
gene 1 1 32 -1.49327 0 2 -1.49327 1
gene 1 1 33 -0.207936 0 3 -0.207936 1
gene 1 2 31 0.730617 0 4 0.730617 1
gene 1 2 32 1.07073 0 5 1.07073 1
gene 1 2 33 1.83832 0 6 1.83832 1
gene 1 3 31 0.387976 0 7 0.387976 1
gene 1 3 32 1.67832 0 8 1.67832 1
gene 1 3 33 0.701061 0 9 0.701061 1
gene 1 4 31 1.96748 0 10 1.96748 1
gene 1 4 32 -0.335058 0 11 -0.335058 1
gene 1 4 33 -2.11298 0 12 -2.11298 1
gene 1 5 31 4.24563 0 13 4.24563 1
gene 1 5 32 0.763608 0 14 0.763608 1
gene 1 5 33 2.49753 0 15 2.49753 1
gene 1 6 31 3.22175 0 16 3.22175 1
gene 1 6 32 -0.1459 0 17 -0.1459 1
gene 1 6 33 4.42344 0 18 4.42344 1
gene 1 7 31 3.59329 0 19 3.59329 1
gene 1 7 32 1.86956 0 20 1.86956 1
gene 1 7 33 1.43729 0 21 1.43729 1
gene 1 8 31 1.13456 0 22 1.13456 1
gene 1 8 32 -0.74207 0 23 -0.74207 1
gene 1 8 33 -2.29077 0 24 -2.29077 1
gene 1 9 31 -1.00305 0 25 -1.00305 1
gene 1 9 32 -1.6028 0 26 -1.6028 1
gene 1 9 33 -0.507399 0 27 -0.507399 1
gene 1 10 31 -0.861128 0 28 -0.861128 1
gene 1 10 32 -0.924012 0 29 -0.924012 1
gene 1 10 33 -0.328021 0 30 -0.328021 1
gene 1 11 31 -0.624093 0 31 -0.624093 1
gene 1 11 32 -0.376242 0 32 -0.376242 1
gene 1 11 33 -0.687499 0 33 -0.687499 1
gene 1 12 31 0.395186 0 34 0.395186 1
gene 1 12 32 0.076283 0 35 0.076283 1
gene 1 12 33 1.34762 0 36 1.34762 1
gene 1 13 31 -0.222229 0 37 -0.222229 1
