/* Organism #19 Fitness: 15520.600000 Time: 0 */
genomestart 19
trait 1 0.000000 0.000000 0.395310 0.334906 0.000000 0.853695 0.656478 0.000000 
node 1 1 1 1
node 2 1 1 1
node 3 1 1 1
node 4 1 1 1
node 5 1 1 1
node 6 1 1 1
node 7 1 1 1
node 8 1 1 1
node 9 1 1 1
node 10 1 1 1
node 11 1 1 1
node 12 1 1 1
node 13 1 1 1
node 14 1 1 1
node 15 1 1 1
node 16 1 1 1
node 17 1 1 1
node 18 1 1 1
node 19 1 1 1
node 20 1 1 1
node 21 1 1 1
node 22 1 1 1
node 23 1 1 1
node 24 1 1 1
node 25 1 1 1
node 26 1 1 1
node 27 1 1 1
node 28 1 1 1
node 29 1 1 1
node 30 1 1 3
node 31 1 0 2
node 32 1 0 2
node 33 1 0 2
gene 1 1 31 -5 0 1 -5 1
gene 1 1 32 -5 0 2 -5 1
gene 1 1 33 2.28374 0 3 2.28374 1
gene 1 2 31 -1.71989 0 4 -1.71989 1
gene 1 2 32 4.29804 0 5 4.29804 1
gene 1 2 33 2.44911 0 6 2.44911 1
gene 1 3 31 -2.28045 0 7 -2.28045 1
gene 1 3 32 2.54141 0 8 2.54141 1
gene 1 3 33 2.26816 0 9 2.26816 1
gene 1 4 31 0.853832 0 10 0.853832 1
gene 1 4 32 0.317483 0 11 0.317483 1
gene 1 4 33 -1.45625 0 12 -1.45625 1
gene 1 5 31 0.647065 0 13 0.647065 1
gene 1 5 32 2.25967 0 14 2.25967 1
gene 1 5 33 4.84992 0 15 4.84992 1
gene 1 6 31 3.91491 0 16 3.91491 1
gene 1 6 32 -3.60068 0 17 -3.60068 1
gene 1 6 33 3.70146 0 18 3.70146 1
gene 1 7 31 4.5591 0 19 4.5591 1
gene 1 7 32 4.78846 0 20 4.78846 1
gene 1 7 33 3.55737 0 21 3.55737 1
gene 1 8 31 2.51535 0 22 2.51535 1
gene 1 8 32 -4.94203 0 23 -4.94203 1
gene 1 8 33 2.99795 0 24 2.99795 1
gene 1 9 31 2.57351 0 25 2.57351 1
gene 1 9 32 0.62425 0 26 0.62425 1
gene 1 9 33 -1.8733 0 27 -1.8733 1
gene 1 10 31 -0.365552 0 28 -0.365552 1
gene 1 10 32 0.593466 0 29 0.593466 1
gene 1 10 33 -1.64079 0 30 -1.64079 1
gene 1 11 31 -0.653316 0 31 -0.653316 1
gene 1 11 32 -0.999143 0 32 -0.999143 1
gene 1 11 33 -1.7299 0 33 -1.7299 1
gene 1 12 31 -0.0923285 0 34 -0.0923285 1
gene 1 12 32 2.36955 0 35 2.36955 1
gene 1 12 33 -0.617238 0 36 -0.617238 1
gene 1 13 31 -2.65513 0 37 -2.65513 1
gene 1 13 32 -0.818866 0 38 -0.818866 1
gene 1 13 33 -4.50698 0 39 -4.50698 1
gene 1 14 31 2.49205 0 40 2.49205 1
gene 1 14 32 -4.08277 0 41 -4.08277 1
gene 1 14 33 1.27098 0 42 1.27098 1
gene 1 15 31 3.52039 0 43 3.52039 1
gene 1 15 32 5 0 44 5 1
gene 1 15 33 1.71143 0 45 1.71143 1
gene 1 16 31 -3.41225 0 46 -3.41225 1
gene 1 16 32 -0.465182 0 47 -0.465182 1
gene 1 16 33 -0.879422 0 48 -0.879422 1
gene 1 17 31 -5 0 49 -5 1
gene 1 17 32 -3.1783 0 50 -3.1783 1
gene 1 17 33 -2.23454 0 51 -2.23454 1
gene 1 18 31 -1.40039 0 52 -1.40039 1
gene 1 18 32 -3.7509 0 53 -3.7509 1
gene 1 18 33 -0.408415 0 54 -0.408415 1
gene 1 19 31 1.04232 0 55 1.04232 1
gene 1 19 32 -5 0 56 -5 1
gene 1 19 33 3.33878 0 57 3.33878 1
gene 1 20 31 -0.332973 0 58 -0.332973 1
gene 1 20 32 0.594581 0 59 0.594581 1
gene 1 20 33 -5 0 60 -5 1
gene 1 21 31 1.01847 0 61 1.01847 1
gene 1 21 32 1.29436 0 62 1.29436 1
gene 1 21 33 1.58922 0 63 1.58922 1
gene 1 22 31 3.64513 0 64 3.64513 1
gene 1 22 32 -4.91553 0 65 -4.91553 1
gene 1 22 33 -1.6358 0 66 -1.6358 1
gene 1 23 31 -0.384283 0 67 -0.384283 1
gene 1 23 32 4.92184 0 68 4.92184 1
gene 1 23 33 -4.45977 0 69 -4.45977 1
gene 1 24 31 0.576873 0 70 0.576873 1
gene 1 24 32 -2.71919 0 71 -2.71919 1
gene 1 24 33 -1.91161 0 72 -1.91161 1
gene 1 25 31 -3.58593 0 73 -3.58593 1
gene 1 25 32 0.539417 0 74 0.539417 1
gene 1 25 33 -0.495971 0 75 -0.495971 1
gene 1 26 31 0.988073 0 76 0.988073 1
gene 1 26 32 0.228191 0 77 0.228191 1
gene 1 26 33 0.147869 0 78 0.147869 1
gene 1 27 31 -0.415655 0 79 -0.415655 1
gene 1 27 32 -0.0597916 0 80 -0.0597916 1
gene 1 27 33 2.18485 0 81 2.18485 1
gene 1 28 31 -0.24251 0 82 -0.24251 1
gene 1 28 32 -0.274615 0 83 -0.274615 1
gene 1 28 33 -1.10628 0 84 -1.10628 1
gene 1 29 31 1.31947 0 85 1.31947 1
gene 1 29 32 -0.645624 0 86 -0.645624 1
gene 1 29 33 -0.516474 0 87 -0.516474 1
gene 1 30 31 -1.06425 0 88 -1.06425 1
gene 1 30 32 0.998437 0 89 0.998437 1
gene 1 30 33 0.740543 0 90 0.740543 1
genomeend 19


