/* Organism #3 Fitness: 14758.600000 Time: 0 */
genomestart 3
trait 1 0.000000 1.000000 1.000000 0.000000 0.000000 0.782089 0.000000 0.000000 
node 1 1 1 1
node 2 1 1 1
node 3 1 1 1
node 4 1 1 1
node 5 1 1 1
node 6 1 1 1
node 7 1 1 1
node 8 1 1 1
node 9 1 1 1
node 10 1 1 1
node 11 1 1 1
node 12 1 1 1
node 13 1 1 1
node 14 1 1 1
node 15 1 1 1
node 16 1 1 1
node 17 1 1 1
node 18 1 1 1
node 19 1 1 1
node 20 1 1 1
node 21 1 1 1
node 22 1 1 1
node 23 1 1 1
node 24 1 1 1
node 25 1 1 1
node 26 1 1 1
node 27 1 1 1
node 28 1 1 1
node 29 1 1 1
node 30 1 1 3
node 31 1 0 2
node 32 1 0 2
node 33 1 0 2
gene 1 1 31 -0.725929 0 1 -0.725929 1
gene 1 1 32 -5 0 2 -5 1
gene 1 1 33 1.59696 0 3 1.59696 1
gene 1 2 31 -2.91117 0 4 -2.91117 1
gene 1 2 32 5 0 5 5 1
gene 1 2 33 1.82617 0 6 1.82617 1
gene 1 3 31 -2.10594 0 7 -2.10594 1
gene 1 3 32 1.92102 0 8 1.92102 1
gene 1 3 33 -0.808812 0 9 -0.808812 1
gene 1 4 31 -2.11436 0 10 -2.11436 1
gene 1 4 32 3.6435 0 11 3.6435 1
gene 1 4 33 3.43337 0 12 3.43337 1
gene 1 5 31 5 0 13 5 1
gene 1 5 32 0.92217 0 14 0.92217 1
gene 1 5 33 -4.23313 0 15 -4.23313 1
gene 1 6 31 -3.13749 0 16 -3.13749 1
gene 1 6 32 2.17225 0 17 2.17225 1
gene 1 6 33 -2.43246 0 18 -2.43246 1
gene 1 7 31 -0.48986 0 19 -0.48986 1
gene 1 7 32 1.98983 0 20 1.98983 1
gene 1 7 33 0.810229 0 21 0.810229 1
gene 1 8 31 1.93511 0 22 1.93511 1
gene 1 8 32 -0.796776 0 23 -0.796776 1
gene 1 8 33 -0.518608 0 24 -0.518608 1
gene 1 9 31 1.05144 0 25 1.05144 1
gene 1 9 32 0.37132 0 26 0.37132 1
gene 1 9 33 3.88734 0 27 3.88734 1
gene 1 10 31 1.96378 0 28 1.96378 1
gene 1 10 32 2.53688 0 29 2.53688 1
gene 1 10 33 -0.536863 0 30 -0.536863 1
gene 1 11 31 0.283186 0 31 0.283186 1
gene 1 11 32 -1.0452 0 32 -1.0452 1
gene 1 11 33 -0.766785 0 33 -0.766785 1
gene 1 12 31 -5 0 34 -5 1
gene 1 12 32 -0.367213 0 35 -0.367213 1
gene 1 12 33 0.686244 0 36 0.686244 1
gene 1 13 31 -0.776617 0 37 -0.776617 1
gene 1 13 32 3.13312 0 38 3.13312 1
gene 1 13 33 0.939241 0 39 0.939241 1
gene 1 14 31 -2.62241 0 40 -2.62241 1
gene 1 14 32 1.03683 0 41 1.03683 1
gene 1 14 33 1.80303 0 42 1.80303 1
gene 1 15 31 -0.383575 0 43 -0.383575 1
gene 1 15 32 0.375305 0 44 0.375305 1
gene 1 15 33 1.13073 0 45 1.13073 1
gene 1 16 31 -1.65398 0 46 -1.65398 1
gene 1 16 32 2.82855 0 47 2.82855 1
gene 1 16 33 -3.34552 0 48 -3.34552 1
gene 1 17 31 -2.34523 0 49 -2.34523 1
gene 1 17 32 -1.26531 0 50 -1.26531 1
gene 1 17 33 -1.49499 0 51 -1.49499 1
gene 1 18 31 -5 0 52 -5 1
gene 1 18 32 -4.59028 0 53 -4.59028 1
gene 1 18 33 -2.19298 0 54 -2.19298 1
gene 1 19 31 -1.24351 0 55 -1.24351 1
gene 1 19 32 -5 0 56 -5 1
gene 1 19 33 3.70574 0 57 3.70574 1
gene 1 20 31 -3.03602 0 58 -3.03602 1
gene 1 20 32 -0.000963892 0 59 -0.000963892 1
gene 1 20 33 -1.03257 0 60 -1.03257 1
gene 1 21 31 -0.240327 0 61 -0.240327 1
gene 1 21 32 -0.280624 0 62 -0.280624 1
gene 1 21 33 0.416238 0 63 0.416238 1
gene 1 22 31 2.6496 0 64 2.6496 1
gene 1 22 32 -3.68375 0 65 -3.68375 1
gene 1 22 33 5 0 66 5 1
gene 1 23 31 4.3364 0 67 4.3364 1
gene 1 23 32 -2.43379 0 68 -2.43379 1
gene 1 23 33 0.444051 0 69 0.444051 1
gene 1 24 31 1.80442 0 70 1.80442 1
gene 1 24 32 0.218392 0 71 0.218392 1
gene 1 24 33 -1.49092 0 72 -1.49092 1
gene 1 25 31 0.748849 0 73 0.748849 1
gene 1 25 32 0.208397 0 74 0.208397 1
gene 1 25 33 0.915831 0 75 0.915831 1
gene 1 26 31 -0.839605 0 76 -0.839605 1
gene 1 26 32 -0.47851 0 77 -0.47851 1
gene 1 26 33 -0.646871 0 78 -0.646871 1
gene 1 27 31 -0.83109 0 79 -0.83109 1
gene 1 27 32 -0.945389 0 80 -0.945389 1
gene 1 27 33 -0.632577 0 81 -0.632577 1
gene 1 28 31 -0.38271 0 82 -0.38271 1
gene 1 28 32 0.127524 0 83 0.127524 1
gene 1 28 33 -0.288748 0 84 -0.288748 1
gene 1 29 31 -2.33499 0 85 -2.33499 1
gene 1 29 32 0.00648962 0 86 0.00648962 1
gene 1 29 33 0.317836 0 87 0.317836 1
gene 1 30 31 0.931481 0 88 0.931481 1
gene 1 30 32 0.756295 0 89 0.756295 1
gene 1 30 33 0.576556 0 90 0.576556 1
genomeend 3


