/* Organism #5 Fitness: 16206.800000 Time: 0 */
genomestart 5
trait 1 0.000000 1.000000 1.000000 0.000000 0.000000 0.782089 0.000000 0.000000 
node 1 1 1 1
node 2 1 1 1
node 3 1 1 1
node 4 1 1 1
node 5 1 1 1
node 6 1 1 1
node 7 1 1 1
node 8 1 1 1
node 9 1 1 1
node 10 1 1 1
node 11 1 1 1
node 12 1 1 1
node 13 1 1 1
node 14 1 1 1
node 15 1 1 1
node 16 1 1 1
node 17 1 1 1
node 18 1 1 1
node 19 1 1 1
node 20 1 1 1
node 21 1 1 1
node 22 1 1 1
node 23 1 1 1
node 24 1 1 1
node 25 1 1 1
node 26 1 1 1
node 27 1 1 1
node 28 1 1 1
node 29 1 1 1
node 30 1 1 3
node 31 1 0 2
node 32 1 0 2
node 33 1 0 2
gene 1 1 31 -0.542729 0 1 -0.542729 1
gene 1 1 32 -3.82951 0 2 -3.82951 1
gene 1 1 33 -1.0759 0 3 -1.0759 1
gene 1 2 31 -4.12963 0 4 -4.12963 1
gene 1 2 32 4.37595 0 5 4.37595 1
gene 1 2 33 1.9221 0 6 1.9221 1
gene 1 3 31 -2.78723 0 7 -2.78723 1
gene 1 3 32 2.08044 0 8 2.08044 1
gene 1 3 33 1.15256 0 9 1.15256 1
gene 1 4 31 -1.16889 0 10 -1.16889 1
gene 1 4 32 1.9026 0 11 1.9026 1
gene 1 4 33 1.29466 0 12 1.29466 1
gene 1 5 31 5 0 13 5 1
gene 1 5 32 2.74489 0 14 2.74489 1
gene 1 5 33 -1.92041 0 15 -1.92041 1
gene 1 6 31 -1.78771 0 16 -1.78771 1
gene 1 6 32 1.56731 0 17 1.56731 1
gene 1 6 33 -0.457047 0 18 -0.457047 1
gene 1 7 31 -0.0287682 0 19 -0.0287682 1
gene 1 7 32 2.48306 0 20 2.48306 1
gene 1 7 33 1.71798 0 21 1.71798 1
gene 1 8 31 0.211075 0 22 0.211075 1
gene 1 8 32 -1.41832 0 23 -1.41832 1
gene 1 8 33 -2.61859 0 24 -2.61859 1
gene 1 9 31 1.14111 0 25 1.14111 1
gene 1 9 32 -0.815073 0 26 -0.815073 1
gene 1 9 33 4.00453 0 27 4.00453 1
gene 1 10 31 3.84236 0 28 3.84236 1
gene 1 10 32 3.43353 0 29 3.43353 1
gene 1 10 33 -0.921878 0 30 -0.921878 1
gene 1 11 31 0.924109 0 31 0.924109 1
gene 1 11 32 -0.323459 0 32 -0.323459 1
gene 1 11 33 0.349743 0 33 0.349743 1
gene 1 12 31 2.42387 0 34 2.42387 1
gene 1 12 32 -0.0167605 0 35 -0.0167605 1
gene 1 12 33 0.153402 0 36 0.153402 1
gene 1 13 31 -1.32754 0 37 -1.32754 1
gene 1 13 32 2.1711 0 38 2.1711 1
gene 1 13 33 1.29577 0 39 1.29577 1
gene 1 14 31 -1.86707 0 40 -1.86707 1
gene 1 14 32 3.83243 0 41 3.83243 1
gene 1 14 33 2.71545 0 42 2.71545 1
gene 1 15 31 0.244304 0 43 0.244304 1
gene 1 15 32 -0.917912 0 44 -0.917912 1
gene 1 15 33 -0.793248 0 45 -0.793248 1
gene 1 16 31 -0.840526 0 46 -0.840526 1
gene 1 16 32 1.5496 0 47 1.5496 1
gene 1 16 33 -2.11671 0 48 -2.11671 1
gene 1 17 31 -0.716494 0 49 -0.716494 1
gene 1 17 32 -1.96747 0 50 -1.96747 1
gene 1 17 33 -2.12012 0 51 -2.12012 1
gene 1 18 31 -4.58406 0 52 -4.58406 1
gene 1 18 32 -4.95827 0 53 -4.95827 1
gene 1 18 33 1.77071 0 54 1.77071 1
gene 1 19 31 -4.03734 0 55 -4.03734 1
gene 1 19 32 -4.99458 0 56 -4.99458 1
gene 1 19 33 3.08977 0 57 3.08977 1
gene 1 20 31 -1.3358 0 58 -1.3358 1
gene 1 20 32 0.499923 0 59 0.499923 1
gene 1 20 33 -2.44566 0 60 -2.44566 1
gene 1 21 31 0.804318 0 61 0.804318 1
gene 1 21 32 -2.76244 0 62 -2.76244 1
gene 1 21 33 -0.0584342 0 63 -0.0584342 1
gene 1 22 31 3.48387 0 64 3.48387 1
gene 1 22 32 -2.10119 0 65 -2.10119 1
gene 1 22 33 1.11092 0 66 1.11092 1
gene 1 23 31 1.84548 0 67 1.84548 1
gene 1 23 32 -2.7578 0 68 -2.7578 1
gene 1 23 33 0.410073 0 69 0.410073 1
gene 1 24 31 3.7484 0 70 3.7484 1
gene 1 24 32 0.192934 0 71 0.192934 1
gene 1 24 33 -0.663874 0 72 -0.663874 1
gene 1 25 31 0.431871 0 73 0.431871 1
gene 1 25 32 -0.578369 0 74 -0.578369 1
gene 1 25 33 -0.015297 0 75 -0.015297 1
gene 1 26 31 -1.13983 0 76 -1.13983 1
gene 1 26 32 1.43518 0 77 1.43518 1
gene 1 26 33 0.788171 0 78 0.788171 1
gene 1 27 31 0.910839 0 79 0.910839 1
gene 1 27 32 0.168805 0 80 0.168805 1
gene 1 27 33 -0.383536 0 81 -0.383536 1
gene 1 28 31 -0.908026 0 82 -0.908026 1
gene 1 28 32 -0.400031 0 83 -0.400031 1
gene 1 28 33 0.965086 0 84 0.965086 1
gene 1 29 31 -0.656448 0 85 -0.656448 1
gene 1 29 32 1.4529 0 86 1.4529 1
gene 1 29 33 1.10669 0 87 1.10669 1
gene 1 30 31 0.00987699 0 88 0.00987699 1
gene 1 30 32 0.7972 0 89 0.7972 1
gene 1 30 33 -0.272204 0 90 -0.272204 1
genomeend 5


