/* Organism #4 Fitness: 14530.500000 Time: 0 */
genomestart 4
trait 1 0.000000 1.000000 1.000000 0.000000 0.462632 0.782089 0.000000 0.953964 
node 1 1 1 1
node 2 1 1 1
node 3 1 1 1
node 4 1 1 1
node 5 1 1 1
node 6 1 1 1
node 7 1 1 1
node 8 1 1 1
node 9 1 1 1
node 10 1 1 1
node 11 1 1 1
node 12 1 1 1
node 13 1 1 1
node 14 1 1 1
node 15 1 1 1
node 16 1 1 1
node 17 1 1 1
node 18 1 1 1
node 19 1 1 1
node 20 1 1 1
node 21 1 1 1
node 22 1 1 1
node 23 1 1 1
node 24 1 1 1
node 25 1 1 1
node 26 1 1 1
node 27 1 1 1
node 28 1 1 1
node 29 1 1 1
node 30 1 1 3
node 31 1 0 2
node 32 1 0 2
node 33 1 0 2
gene 1 1 31 1.3202 0 1 1.3202 1
gene 1 1 32 -4.7638 0 2 -4.7638 1
gene 1 1 33 -0.302146 0 3 -0.302146 1
gene 1 2 31 -3.38597 0 4 -3.38597 1
gene 1 2 32 3.9228 0 5 3.9228 1
gene 1 2 33 2.2008 0 6 2.2008 1
gene 1 3 31 -2.24052 0 7 -2.24052 1
gene 1 3 32 2.87374 0 8 2.87374 1
gene 1 3 33 -2.43379 0 9 -2.43379 1
gene 1 4 31 -2.33966 0 10 -2.33966 1
gene 1 4 32 2.26074 0 11 2.26074 1
gene 1 4 33 -0.805847 0 12 -0.805847 1
gene 1 5 31 -0.0188291 0 13 -0.0188291 1
gene 1 5 32 0.587141 0 14 0.587141 1
gene 1 5 33 -3.24959 0 15 -3.24959 1
gene 1 6 31 -0.654205 0 16 -0.654205 1
gene 1 6 32 1.96366 0 17 1.96366 1
gene 1 6 33 2.41491 0 18 2.41491 1
gene 1 7 31 2.60232 0 19 2.60232 1
gene 1 7 32 -0.836019 0 20 -0.836019 1
gene 1 7 33 -1.60865 0 21 -1.60865 1
gene 1 8 31 -0.29889 0 22 -0.29889 1
gene 1 8 32 2.70103 0 23 2.70103 1
gene 1 8 33 -0.731285 0 24 -0.731285 1
gene 1 9 31 1.08381 0 25 1.08381 1
gene 1 9 32 -1.3983 0 26 -1.3983 1
gene 1 9 33 2.40294 0 27 2.40294 1
gene 1 10 31 1.45612 0 28 1.45612 1
gene 1 10 32 2.31685 0 29 2.31685 1
gene 1 10 33 -0.698943 0 30 -0.698943 1
gene 1 11 31 0.416262 0 31 0.416262 1
gene 1 11 32 1.50322 0 32 1.50322 1
gene 1 11 33 1.1398 0 33 1.1398 1
gene 1 12 31 -0.689705 0 34 -0.689705 1
gene 1 12 32 2.43231 0 35 2.43231 1
gene 1 12 33 -2.9251 0 36 -2.9251 1
gene 1 13 31 -0.624901 0 37 -0.624901 1
gene 1 13 32 3.7084 0 38 3.7084 1
gene 1 13 33 -2.15118 0 39 -2.15118 1
gene 1 14 31 -0.940453 0 40 -0.940453 1
gene 1 14 32 -4.92823 0 41 -4.92823 1
gene 1 14 33 4.02171 0 42 4.02171 1
gene 1 15 31 -0.505922 0 43 -0.505922 1
gene 1 15 32 0.710482 0 44 0.710482 1
gene 1 15 33 -2.17976 0 45 -2.17976 1
gene 1 16 31 0.481858 0 46 0.481858 1
gene 1 16 32 0.494346 0 47 0.494346 1
gene 1 16 33 -1.66545 0 48 -1.66545 1
gene 1 17 31 -0.634005 0 49 -0.634005 1
gene 1 17 32 -1.51346 0 50 -1.51346 1
gene 1 17 33 -1.9867 0 51 -1.9867 1
gene 1 18 31 -3.93606 0 52 -3.93606 1
gene 1 18 32 -3.48223 0 53 -3.48223 1
gene 1 18 33 1.57218 0 54 1.57218 1
gene 1 19 31 -1.53912 0 55 -1.53912 1
gene 1 19 32 -4.61052 0 56 -4.61052 1
gene 1 19 33 3.96032 0 57 3.96032 1
gene 1 20 31 -1.75076 0 58 -1.75076 1
gene 1 20 32 0.631662 0 59 0.631662 1
gene 1 20 33 -1.61949 0 60 -1.61949 1
gene 1 21 31 0.776298 0 61 0.776298 1
gene 1 21 32 -0.0702087 0 62 -0.0702087 1
gene 1 21 33 0.261136 0 63 0.261136 1
gene 1 22 31 -0.120953 0 64 -0.120953 1
gene 1 22 32 -2.3936 0 65 -2.3936 1
gene 1 22 33 2.31404 0 66 2.31404 1
gene 1 23 31 3.16522 0 67 3.16522 1
gene 1 23 32 -1.96504 0 68 -1.96504 1
gene 1 23 33 2.07248 0 69 2.07248 1
gene 1 24 31 0.885794 0 70 0.885794 1
gene 1 24 32 -0.0607326 0 71 -0.0607326 1
gene 1 24 33 -2.69981 0 72 -2.69981 1
gene 1 25 31 1.19718 0 73 1.19718 1
gene 1 25 32 0.0016909 0 74 0.0016909 1
gene 1 25 33 -1.11142 0 75 -1.11142 1
gene 1 26 31 0.219503 0 76 0.219503 1
gene 1 26 32 -0.256124 0 77 -0.256124 1
gene 1 26 33 -0.085613 0 78 -0.085613 1
gene 1 27 31 1.90423 0 79 1.90423 1
gene 1 27 32 -0.118559 0 80 -0.118559 1
gene 1 27 33 1.75456 0 81 1.75456 1
gene 1 28 31 0.280176 0 82 0.280176 1
gene 1 28 32 -1.01926 0 83 -1.01926 1
gene 1 28 33 -0.540395 0 84 -0.540395 1
gene 1 29 31 -0.298903 0 85 -0.298903 1
gene 1 29 32 0.298366 0 86 0.298366 1
gene 1 29 33 1.40254 0 87 1.40254 1
gene 1 30 31 -0.427747 0 88 -0.427747 1
gene 1 30 32 0.425513 0 89 0.425513 1
gene 1 30 33 -0.211798 0 90 -0.211798 1
genomeend 4


