/* Organism #3 Fitness: 15256.700000 Time: 0 */
genomestart 3
trait 1 0.604359 0.226512 0.760222 0.109481 0.000000 0.132760 0.539204 0.372474 
node 1 1 1 1
node 2 1 1 1
node 3 1 1 1
node 4 1 1 1
node 5 1 1 1
node 6 1 1 1
node 7 1 1 1
node 8 1 1 1
node 9 1 1 1
node 10 1 1 1
node 11 1 1 1
node 12 1 1 1
node 13 1 1 1
node 14 1 1 1
node 15 1 1 1
node 16 1 1 1
node 17 1 1 1
node 18 1 1 1
node 19 1 1 1
node 20 1 1 1
node 21 1 1 1
node 22 1 1 1
node 23 1 1 1
node 24 1 1 1
node 25 1 1 1
node 26 1 1 1
node 27 1 1 1
node 28 1 1 1
node 29 1 1 1
node 30 1 1 3
node 31 1 0 2
node 32 1 0 2
node 33 1 0 2
gene 1 1 31 -3.19559 0 1 -3.19559 1
gene 1 1 32 -5 0 2 -5 1
gene 1 1 33 -0.192908 0 3 -0.192908 1
gene 1 2 31 -5 0 4 -5 1
gene 1 2 32 4.2515 0 5 4.2515 1
gene 1 2 33 2.35543 0 6 2.35543 1
gene 1 3 31 0.108803 0 7 0.108803 1
gene 1 3 32 2.65866 0 8 2.65866 1
gene 1 3 33 -0.357946 0 9 -0.357946 1
gene 1 4 31 -0.884241 0 10 -0.884241 1
gene 1 4 32 2.05902 0 11 2.05902 1
gene 1 4 33 0.468913 0 12 0.468913 1
gene 1 5 31 4.68467 0 13 4.68467 1
gene 1 5 32 2.14654 0 14 2.14654 1
gene 1 5 33 -1.63176 0 15 -1.63176 1
gene 1 6 31 1.67265 0 16 1.67265 1
gene 1 6 32 3.27793 0 17 3.27793 1
gene 1 6 33 -2.69463 0 18 -2.69463 1
gene 1 7 31 4.34903 0 19 4.34903 1
gene 1 7 32 -1.47634 0 20 -1.47634 1
gene 1 7 33 -3.29028 0 21 -3.29028 1
gene 1 8 31 0.162915 0 22 0.162915 1
gene 1 8 32 -1.88522 0 23 -1.88522 1
gene 1 8 33 -3.293 0 24 -3.293 1
gene 1 9 31 -1.37126 0 25 -1.37126 1
gene 1 9 32 -1.06863 0 26 -1.06863 1
gene 1 9 33 0.285558 0 27 0.285558 1
gene 1 10 31 -0.272856 0 28 -0.272856 1
gene 1 10 32 -1.02133 0 29 -1.02133 1
gene 1 10 33 -0.423304 0 30 -0.423304 1
gene 1 11 31 -0.962138 0 31 -0.962138 1
gene 1 11 32 4.42886 0 32 4.42886 1
gene 1 11 33 -4.58994 0 33 -4.58994 1
gene 1 12 31 -0.621874 0 34 -0.621874 1
gene 1 12 32 1.76909 0 35 1.76909 1
gene 1 12 33 -0.724341 0 36 -0.724341 1
gene 1 13 31 2.5559 0 37 2.5559 1
gene 1 13 32 -3.43178 0 38 -3.43178 1
gene 1 13 33 1.1627 0 39 1.1627 1
gene 1 14 31 3.17953 0 40 3.17953 1
gene 1 14 32 2.65027 0 41 2.65027 1
gene 1 14 33 -2.86835 0 42 -2.86835 1
gene 1 15 31 -2.69369 0 43 -2.69369 1
gene 1 15 32 -3.67632 0 44 -3.67632 1
gene 1 15 33 4.36583 0 45 4.36583 1
gene 1 16 31 2.03144 0 46 2.03144 1
gene 1 16 32 0.986084 0 47 0.986084 1
gene 1 16 33 -4.64697 0 48 -4.64697 1
gene 1 17 31 -1.91272 0 49 -1.91272 1
gene 1 17 32 -4.35101 0 50 -4.35101 1
gene 1 17 33 1.4243 0 51 1.4243 1
gene 1 18 31 -0.772293 0 52 -0.772293 1
gene 1 18 32 -3.72511 0 53 -3.72511 1
gene 1 18 33 0.855005 0 54 0.855005 1
gene 1 19 31 -1.8004 0 55 -1.8004 1
gene 1 19 32 -5 0 56 -5 1
gene 1 19 33 2.90204 0 57 2.90204 1
gene 1 20 31 -3.58511 0 58 -3.58511 1
gene 1 20 32 0.857764 0 59 0.857764 1
gene 1 20 33 0.959293 0 60 0.959293 1
gene 1 21 31 -2.17137 0 61 -2.17137 1
gene 1 21 32 0.226052 0 62 0.226052 1
gene 1 21 33 -0.718867 0 63 -0.718867 1
gene 1 22 31 -5 0 64 -5 1
gene 1 22 32 -4.55735 0 65 -4.55735 1
gene 1 22 33 -4.08445 0 66 -4.08445 1
gene 1 23 31 2.7668 0 67 2.7668 1
gene 1 23 32 -2.60075 0 68 -2.60075 1
gene 1 23 33 -0.138378 0 69 -0.138378 1
gene 1 24 31 3.03864 0 70 3.03864 1
gene 1 24 32 1.603 0 71 1.603 1
gene 1 24 33 -0.117044 0 72 -0.117044 1
gene 1 25 31 0.768339 0 73 0.768339 1
gene 1 25 32 -1.64212 0 74 -1.64212 1
gene 1 25 33 0.0268675 0 75 0.0268675 1
gene 1 26 31 -0.746522 0 76 -0.746522 1
gene 1 26 32 -0.607687 0 77 -0.607687 1
gene 1 26 33 1.24575 0 78 1.24575 1
gene 1 27 31 0.395792 0 79 0.395792 1
gene 1 27 32 -0.363889 0 80 -0.363889 1
gene 1 27 33 -0.850877 0 81 -0.850877 1
gene 1 28 31 -0.760849 0 82 -0.760849 1
gene 1 28 32 -0.569308 0 83 -0.569308 1
gene 1 28 33 0.0855263 0 84 0.0855263 1
gene 1 29 31 0.540174 0 85 0.540174 1
gene 1 29 32 -1.06004 0 86 -1.06004 1
gene 1 29 33 -0.0741834 0 87 -0.0741834 1
gene 1 30 31 -0.957753 0 88 -0.957753 1
gene 1 30 32 2.30787 0 89 2.30787 1
gene 1 30 33 0.912824 0 90 0.912824 1
genomeend 3


