/* Organism #0 Fitness: 14430.200000 Time: 0 */
genomestart 0
trait 1 0.604359 0.466830 0.340346 0.000000 0.000000 0.535397 0.000000 0.361419 
node 1 1 1 1
node 2 1 1 1
node 3 1 1 1
node 4 1 1 1
node 5 1 1 1
node 6 1 1 1
node 7 1 1 1
node 8 1 1 1
node 9 1 1 1
node 10 1 1 1
node 11 1 1 1
node 12 1 1 1
node 13 1 1 1
node 14 1 1 1
node 15 1 1 1
node 16 1 1 1
node 17 1 1 1
node 18 1 1 1
node 19 1 1 1
node 20 1 1 1
node 21 1 1 1
node 22 1 1 1
node 23 1 1 1
node 24 1 1 1
node 25 1 1 1
node 26 1 1 1
node 27 1 1 1
node 28 1 1 1
node 29 1 1 1
node 30 1 1 3
node 31 1 0 2
node 32 1 0 2
node 33 1 0 2
gene 1 1 31 0.301048 0 1 0.301048 1
gene 1 1 32 -2.02812 0 2 -2.02812 1
gene 1 1 33 -0.745937 0 3 -0.745937 1
gene 1 2 31 -0.95049 0 4 -0.95049 1
gene 1 2 32 2.11723 0 5 2.11723 1
gene 1 2 33 -0.773391 0 6 -0.773391 1
gene 1 3 31 -1.76178 0 7 -1.76178 1
gene 1 3 32 2.41373 0 8 2.41373 1
gene 1 3 33 0.927517 0 9 0.927517 1
gene 1 4 31 -2.61255 0 10 -2.61255 1
gene 1 4 32 1.41706 0 11 1.41706 1
gene 1 4 33 -0.991996 0 12 -0.991996 1
gene 1 5 31 -0.182877 0 13 -0.182877 1
gene 1 5 32 0.760001 0 14 0.760001 1
gene 1 5 33 1.00252 0 15 1.00252 1
gene 1 6 31 3.49033 0 16 3.49033 1
gene 1 6 32 0.421506 0 17 0.421506 1
gene 1 6 33 -2.29867 0 18 -2.29867 1
gene 1 7 31 1.80018 0 19 1.80018 1
gene 1 7 32 0.121222 0 20 0.121222 1
gene 1 7 33 -0.337489 0 21 -0.337489 1
gene 1 8 31 1.47177 0 22 1.47177 1
gene 1 8 32 -2.08834 0 23 -2.08834 1
gene 1 8 33 -0.181405 0 24 -0.181405 1
gene 1 9 31 -0.826679 0 25 -0.826679 1
gene 1 9 32 -2.50361 0 26 -2.50361 1
gene 1 9 33 -0.725414 0 27 -0.725414 1
gene 1 10 31 1.55223 0 28 1.55223 1
gene 1 10 32 0.711149 0 29 0.711149 1
gene 1 10 33 -0.828043 0 30 -0.828043 1
gene 1 11 31 1.13039 0 31 1.13039 1
gene 1 11 32 0.128386 0 32 0.128386 1
gene 1 11 33 0.698708 0 33 0.698708 1
gene 1 12 31 0.38507 0 34 0.38507 1
gene 1 12 32 -1.50084 0 35 -1.50084 1
gene 1 12 33 1.02103 0 36 1.02103 1
gene 1 13 31 1.91862 0 37 1.91862 1
gene 1 13 32 0.618023 0 38 0.618023 1
gene 1 13 33 0.0647498 0 39 0.0647498 1
gene 1 14 31 0.186862 0 40 0.186862 1
gene 1 14 32 0.583365 0 41 0.583365 1
gene 1 14 33 -4.37206 0 42 -4.37206 1
gene 1 15 31 0.605507 0 43 0.605507 1
gene 1 15 32 -0.130898 0 44 -0.130898 1
gene 1 15 33 1.62831 0 45 1.62831 1
gene 1 16 31 -0.172876 0 46 -0.172876 1
gene 1 16 32 3.11774 0 47 3.11774 1
gene 1 16 33 -1.20951 0 48 -1.20951 1
gene 1 17 31 -4.10001 0 49 -4.10001 1
gene 1 17 32 -2.70205 0 50 -2.70205 1
gene 1 17 33 1.01045 0 51 1.01045 1
gene 1 18 31 0.770067 0 52 0.770067 1
gene 1 18 32 -2.23204 0 53 -2.23204 1
gene 1 18 33 -0.488607 0 54 -0.488607 1
gene 1 19 31 0.0374885 0 55 0.0374885 1
gene 1 19 32 -3.2087 0 56 -3.2087 1
gene 1 19 33 3.64883 0 57 3.64883 1
gene 1 20 31 -2.0019 0 58 -2.0019 1
gene 1 20 32 1.17465 0 59 1.17465 1
gene 1 20 33 -1.66664 0 60 -1.66664 1
gene 1 21 31 -2.39441 0 61 -2.39441 1
gene 1 21 32 3.20494 0 62 3.20494 1
gene 1 21 33 0.378195 0 63 0.378195 1
gene 1 22 31 0.814154 0 64 0.814154 1
gene 1 22 32 -1.64718 0 65 -1.64718 1
gene 1 22 33 1.84381 0 66 1.84381 1
gene 1 23 31 0.897853 0 67 0.897853 1
gene 1 23 32 1.25533 0 68 1.25533 1
gene 1 23 33 0.745285 0 69 0.745285 1
gene 1 24 31 2.59199 0 70 2.59199 1
gene 1 24 32 2.49993 0 71 2.49993 1
gene 1 24 33 0.946845 0 72 0.946845 1
gene 1 25 31 -0.0240964 0 73 -0.0240964 1
gene 1 25 32 -0.84098 0 74 -0.84098 1
gene 1 25 33 -0.114532 0 75 -0.114532 1
gene 1 26 31 -0.716461 0 76 -0.716461 1
gene 1 26 32 0.323534 0 77 0.323534 1
gene 1 26 33 0.450844 0 78 0.450844 1
gene 1 27 31 0.0697472 0 79 0.0697472 1
gene 1 27 32 -0.816898 0 80 -0.816898 1
gene 1 27 33 1.21375 0 81 1.21375 1
gene 1 28 31 -0.346687 0 82 -0.346687 1
gene 1 28 32 1.22782 0 83 1.22782 1
gene 1 28 33 -0.285643 0 84 -0.285643 1
gene 1 29 31 0.32982 0 85 0.32982 1
gene 1 29 32 -1.56721 0 86 -1.56721 1
gene 1 29 33 -2.2053 0 87 -2.2053 1
gene 1 30 31 -0.453308 0 88 -0.453308 1
gene 1 30 32 0.630679 0 89 0.630679 1
gene 1 30 33 0.390197 0 90 0.390197 1
genomeend 0


