/* Organism #51 Fitness: 37195.500000 Time: 0 */
genomestart 51
trait 1 1.000000 1.000000 0.282507 0.587972 0.701560 1.000000 0.000000 0.826692 
node 1 1 1 1
node 2 1 1 1
node 3 1 1 1
node 4 1 1 1
node 5 1 1 1
node 6 1 1 1
node 7 1 1 1
node 8 1 1 1
node 9 1 1 1
node 10 1 1 1
node 11 1 1 1
node 12 1 1 1
node 13 1 1 1
node 14 1 1 1
node 15 1 1 1
node 16 1 1 1
node 17 1 1 1
node 18 1 1 1
node 19 1 1 1
node 20 1 1 1
node 21 1 1 1
node 22 1 1 1
node 23 1 1 1
node 24 1 1 1
node 25 1 1 1
node 26 1 1 1
node 27 1 1 1
node 28 1 1 1
node 29 1 1 1
node 30 1 1 3
node 31 1 0 2
node 32 1 0 2
node 33 1 0 2
gene 1 1 31 -4.25761 0 1 -4.25761 1
gene 1 1 32 -0.577979 0 2 -0.577979 1
gene 1 1 33 -4.45985 0 3 -4.45985 1
gene 1 2 31 1.94362 0 4 1.94362 1
gene 1 2 32 0.0260718 0 5 0.0260718 1
gene 1 2 33 1.48455 0 6 1.48455 1
gene 1 3 31 0.483877 0 7 0.483877 1
gene 1 3 32 -0.716063 0 8 -0.716063 1
gene 1 3 33 -0.113008 0 9 -0.113008 1
gene 1 4 31 -4.36335 0 10 -4.36335 1
gene 1 4 32 -0.0325664 0 11 -0.0325664 1
gene 1 4 33 -0.103329 0 12 -0.103329 1
gene 1 5 31 -1.91023 0 13 -1.91023 1
gene 1 5 32 -1.6162 0 14 -1.6162 1
gene 1 5 33 -0.755172 0 15 -0.755172 1
gene 1 6 31 0.506045 0 16 0.506045 1
gene 1 6 32 2.80905 0 17 2.80905 1
gene 1 6 33 5 0 18 5 1
gene 1 7 31 5 0 19 5 1
gene 1 7 32 1.4603 0 20 1.4603 1
gene 1 7 33 0.185407 0 21 0.185407 1
gene 1 8 31 0.164521 0 22 0.164521 1
gene 1 8 32 3.23594 0 23 3.23594 1
gene 1 8 33 -1.67195 0 24 -1.67195 1
gene 1 9 31 -0.452744 0 25 -0.452744 1
gene 1 9 32 -3.59073 0 26 -3.59073 1
gene 1 9 33 5 0 27 5 1
gene 1 10 31 -1.06721 0 28 -1.06721 1
gene 1 10 32 -0.0797751 0 29 -0.0797751 1
gene 1 10 33 0.401654 0 30 0.401654 1
gene 1 11 31 0.151062 0 31 0.151062 1
gene 1 11 32 0.927758 0 32 0.927758 1
gene 1 11 33 -2.52881 0 33 -2.52881 1
gene 1 12 31 -0.0911516 0 34 -0.0911516 1
gene 1 12 32 -0.290436 0 35 -0.290436 1
gene 1 12 33 0.0403338 0 36 0.0403338 1
gene 1 13 31 -2.65729 0 37 -2.65729 1
gene 1 13 32 -2.26819 0 38 -2.26819 1
gene 1 13 33 -0.19681 0 39 -0.19681 1
gene 1 14 31 -1.10866 0 40 -1.10866 1
gene 1 14 32 3.72253 0 41 3.72253 1
gene 1 14 33 -1.29827 0 42 -1.29827 1
gene 1 15 31 2.41068 0 43 2.41068 1
gene 1 15 32 -0.828312 0 44 -0.828312 1
gene 1 15 33 0.460573 0 45 0.460573 1
gene 1 16 31 -0.783993 0 46 -0.783993 1
gene 1 16 32 -1.03959 0 47 -1.03959 1
gene 1 16 33 -0.584343 0 48 -0.584343 1
gene 1 17 31 2.94721 0 49 2.94721 1
gene 1 17 32 1.78059 0 50 1.78059 1
gene 1 17 33 0.433264 0 51 0.433264 1
gene 1 18 31 -3.66428 0 52 -3.66428 1
gene 1 18 32 -2.96658 0 53 -2.96658 1
gene 1 18 33 2.55428 0 54 2.55428 1
gene 1 19 31 -4.03105 0 55 -4.03105 1
gene 1 19 32 -2.3913 0 56 -2.3913 1
gene 1 19 33 0.154697 0 57 0.154697 1
gene 1 20 31 0.797021 0 58 0.797021 1
gene 1 20 32 -0.59494 0 59 -0.59494 1
gene 1 20 33 -0.669951 0 60 -0.669951 1
gene 1 21 31 -2.86142 0 61 -2.86142 1
gene 1 21 32 0.767455 0 62 0.767455 1
gene 1 21 33 0.734317 0 63 0.734317 1
gene 1 22 31 2.67655 0 64 2.67655 1
gene 1 22 32 -0.297074 0 65 -0.297074 1
gene 1 22 33 1.56999 0 66 1.56999 1
gene 1 23 31 2.60202 0 67 2.60202 1
gene 1 23 32 -0.874402 0 68 -0.874402 1
gene 1 23 33 -2.52391 0 69 -2.52391 1
gene 1 24 31 -2.03105 0 70 -2.03105 1
gene 1 24 32 1.34305 0 71 1.34305 1
gene 1 24 33 0.0782067 0 72 0.0782067 1
gene 1 25 31 -2.56211 0 73 -2.56211 1
gene 1 25 32 -1.11247 0 74 -1.11247 1
gene 1 25 33 -0.292554 0 75 -0.292554 1
gene 1 26 31 -0.325772 0 76 -0.325772 1
gene 1 26 32 -1.71317 0 77 -1.71317 1
gene 1 26 33 0.13403 0 78 0.13403 1
gene 1 27 31 0.184943 0 79 0.184943 1
gene 1 27 32 -0.783761 0 80 -0.783761 1
gene 1 27 33 -0.234904 0 81 -0.234904 1
gene 1 28 31 -0.981002 0 82 -0.981002 1
gene 1 28 32 0.0539958 0 83 0.0539958 1
gene 1 28 33 -1.84827 0 84 -1.84827 1
gene 1 29 31 0.0605206 0 85 0.0605206 1
gene 1 29 32 0.422793 0 86 0.422793 1
gene 1 29 33 0.0399375 0 87 0.0399375 1
gene 1 30 31 -0.447295 0 88 -0.447295 1
gene 1 30 32 -1.52203 0 89 -1.52203 1
gene 1 30 33 0.248687 0 90 0.248687 1
genomeend 51


