/* Organism #84 Fitness: 38092.000000 Time: 0 */
genomestart 84
trait 1 0.000000 0.000000 0.046743 0.138567 0.304646 0.440955 0.000000 0.683589 
node 1 1 1 1
node 2 1 1 1
node 3 1 1 1
node 4 1 1 1
node 5 1 1 1
node 6 1 1 1
node 7 1 1 1
node 8 1 1 1
node 9 1 1 1
node 10 1 1 1
node 11 1 1 1
node 12 1 1 1
node 13 1 1 1
node 14 1 1 1
node 15 1 1 1
node 16 1 1 1
node 17 1 1 1
node 18 1 1 1
node 19 1 1 1
node 20 1 1 1
node 21 1 1 1
node 22 1 1 1
node 23 1 1 1
node 24 1 1 1
node 25 1 1 1
node 26 1 1 1
node 27 1 1 1
node 28 1 1 1
node 29 1 1 1
node 30 1 1 3
node 31 1 0 2
node 32 1 0 2
node 33 1 0 2
gene 1 1 31 -2.83841 0 1 -2.83841 1
gene 1 1 32 1.00745 0 2 1.00745 1
gene 1 1 33 0.873096 0 3 0.873096 1
gene 1 2 31 1.54414 0 4 1.54414 1
gene 1 2 32 0.158892 0 5 0.158892 1
gene 1 2 33 1.69811 0 6 1.69811 1
gene 1 3 31 -3.78468 0 7 -3.78468 1
gene 1 3 32 -1.41819 0 8 -1.41819 1
gene 1 3 33 -0.129266 0 9 -0.129266 1
gene 1 4 31 -5 0 10 -5 1
gene 1 4 32 -0.952595 0 11 -0.952595 1
gene 1 4 33 -2.78508 0 12 -2.78508 1
gene 1 5 31 -0.797867 0 13 -0.797867 1
gene 1 5 32 -0.855685 0 14 -0.855685 1
gene 1 5 33 -4.51151 0 15 -4.51151 1
gene 1 6 31 -0.848453 0 16 -0.848453 1
gene 1 6 32 -3.37286 0 17 -3.37286 1
gene 1 6 33 -0.183032 0 18 -0.183032 1
gene 1 7 31 1.53925 0 19 1.53925 1
gene 1 7 32 0.323877 0 20 0.323877 1
gene 1 7 33 -0.927384 0 21 -0.927384 1
gene 1 8 31 -2.50403 0 22 -2.50403 1
gene 1 8 32 -4.01314 0 23 -4.01314 1
gene 1 8 33 0.331924 0 24 0.331924 1
gene 1 9 31 1.46365 0 25 1.46365 1
gene 1 9 32 0.365215 0 26 0.365215 1
gene 1 9 33 0.137518 0 27 0.137518 1
gene 1 10 31 0.259471 0 28 0.259471 1
gene 1 10 32 -1.3164 0 29 -1.3164 1
gene 1 10 33 1.08732 0 30 1.08732 1
gene 1 11 31 3.65887 0 31 3.65887 1
gene 1 11 32 -3.12598 0 32 -3.12598 1
gene 1 11 33 -2.21995 0 33 -2.21995 1
gene 1 12 31 -1.16364 0 34 -1.16364 1
gene 1 12 32 -5 0 35 -5 1
gene 1 12 33 2.63802 0 36 2.63802 1
gene 1 13 31 -1.23119 0 37 -1.23119 1
gene 1 13 32 0.524958 0 38 0.524958 1
gene 1 13 33 -3.86584 0 39 -3.86584 1
gene 1 14 31 -1.74442 0 40 -1.74442 1
gene 1 14 32 -0.891664 0 41 -0.891664 1
gene 1 14 33 -2.23315 0 42 -2.23315 1
gene 1 15 31 -1.02377 0 43 -1.02377 1
gene 1 15 32 2.56385 0 44 2.56385 1
gene 1 15 33 0.825992 0 45 0.825992 1
gene 1 16 31 -2.01424 0 46 -2.01424 1
gene 1 16 32 0.0925635 0 47 0.0925635 1
gene 1 16 33 4.75796 0 48 4.75796 1
gene 1 17 31 -0.656996 0 49 -0.656996 1
gene 1 17 32 -2.92626 0 50 -2.92626 1
gene 1 17 33 -4.45314 0 51 -4.45314 1
gene 1 18 31 -1.44754 0 52 -1.44754 1
gene 1 18 32 -2.5795 0 53 -2.5795 1
gene 1 18 33 -0.458732 0 54 -0.458732 1
gene 1 19 31 0.285981 0 55 0.285981 1
gene 1 19 32 -0.751881 0 56 -0.751881 1
gene 1 19 33 0.609915 0 57 0.609915 1
gene 1 20 31 -0.0604807 0 58 -0.0604807 1
gene 1 20 32 -3.59216 0 59 -3.59216 1
gene 1 20 33 -1.88519 0 60 -1.88519 1
gene 1 21 31 -4.53677 0 61 -4.53677 1
gene 1 21 32 1.94265 0 62 1.94265 1
gene 1 21 33 -0.989712 0 63 -0.989712 1
gene 1 22 31 3.2449 0 64 3.2449 1
gene 1 22 32 3.48789 0 65 3.48789 1
gene 1 22 33 -2.23616 0 66 -2.23616 1
gene 1 23 31 2.11098 0 67 2.11098 1
gene 1 23 32 1.66925 0 68 1.66925 1
gene 1 23 33 -1.70757 0 69 -1.70757 1
gene 1 24 31 -0.348061 0 70 -0.348061 1
gene 1 24 32 -4.1478 0 71 -4.1478 1
gene 1 24 33 -4.96286 0 72 -4.96286 1
gene 1 25 31 -1.26259 0 73 -1.26259 1
gene 1 25 32 -0.750704 0 74 -0.750704 1
gene 1 25 33 -0.27712 0 75 -0.27712 1
gene 1 26 31 0.364734 0 76 0.364734 1
gene 1 26 32 0.911531 0 77 0.911531 1
gene 1 26 33 -0.674512 0 78 -0.674512 1
gene 1 27 31 -0.540782 0 79 -0.540782 1
gene 1 27 32 0.17005 0 80 0.17005 1
gene 1 27 33 0.319575 0 81 0.319575 1
gene 1 28 31 -0.992073 0 82 -0.992073 1
gene 1 28 32 0.67382 0 83 0.67382 1
gene 1 28 33 -1.20333 0 84 -1.20333 1
gene 1 29 31 0.788819 0 85 0.788819 1
gene 1 29 32 -0.964891 0 86 -0.964891 1
gene 1 29 33 0.779141 0 87 0.779141 1
gene 1 30 31 -0.270185 0 88 -0.270185 1
gene 1 30 32 -1.61135 0 89 -1.61135 1
gene 1 30 33 0.0698227 0 90 0.0698227 1
genomeend 84


