/* Organism #15 Fitness: 35146.952000 Time: 0 */
genomestart 15
trait 1 1.000000 1.000000 0.000000 1.000000 0.099176 0.507714 0.000000 0.783770 
node 1 1 1 1
node 2 1 1 1
node 3 1 1 1
node 4 1 1 1
node 5 1 1 1
node 6 1 1 1
node 7 1 1 1
node 8 1 1 1
node 9 1 1 1
node 10 1 1 1
node 11 1 1 1
node 12 1 1 1
node 13 1 1 1
node 14 1 1 1
node 15 1 1 1
node 16 1 1 1
node 17 1 1 1
node 18 1 1 1
node 19 1 1 1
node 20 1 1 1
node 21 1 1 1
node 22 1 1 1
node 23 1 1 1
node 24 1 1 1
node 25 1 1 1
node 26 1 1 1
node 27 1 1 1
node 28 1 1 1
node 29 1 1 1
node 30 1 1 3
node 31 1 0 2
node 32 1 0 2
node 33 1 0 2
gene 1 1 31 0.758977 0 1 0.758977 1
gene 1 1 32 3.74934 0 2 3.74934 1
gene 1 1 33 1.30998 0 3 1.30998 1
gene 1 2 31 2.94767 0 4 2.94767 1
gene 1 2 32 -3.07932 0 5 -3.07932 1
gene 1 2 33 0.626906 0 6 0.626906 1
gene 1 3 31 0.272152 0 7 0.272152 1
gene 1 3 32 3.27095 0 8 3.27095 1
gene 1 3 33 -1.40203 0 9 -1.40203 1
gene 1 4 31 -3.61034 0 10 -3.61034 1
gene 1 4 32 -0.167823 0 11 -0.167823 1
gene 1 4 33 -3.33294 0 12 -3.33294 1
gene 1 5 31 4.16431 0 13 4.16431 1
gene 1 5 32 -3.19047 0 14 -3.19047 1
gene 1 5 33 -0.0846424 0 15 -0.0846424 1
gene 1 6 31 -0.304257 0 16 -0.304257 1
gene 1 6 32 3.69696 0 17 3.69696 1
gene 1 6 33 2.30412 0 18 2.30412 1
gene 1 7 31 1.70956 0 19 1.70956 1
gene 1 7 32 -2.58544 0 20 -2.58544 1
gene 1 7 33 5 0 21 5 1
gene 1 8 31 -1.64536 0 22 -1.64536 1
gene 1 8 32 -3.15935 0 23 -3.15935 1
gene 1 8 33 3.54595 0 24 3.54595 1
gene 1 9 31 -4.13444 0 25 -4.13444 1
gene 1 9 32 0.216953 0 26 0.216953 1
gene 1 9 33 -1.50463 0 27 -1.50463 1
gene 1 10 31 0.672241 0 28 0.672241 1
gene 1 10 32 0.0773618 0 29 0.0773618 1
gene 1 10 33 0.238443 0 30 0.238443 1
gene 1 11 31 4.04573 0 31 4.04573 1
gene 1 11 32 -5 0 32 -5 1
gene 1 11 33 3.04591 0 33 3.04591 1
gene 1 12 31 -2.86678 0 34 -2.86678 1
gene 1 12 32 1.03365 0 35 1.03365 1
gene 1 12 33 -1.74693 0 36 -1.74693 1
gene 1 13 31 -0.414827 0 37 -0.414827 1
gene 1 13 32 1.25684 0 38 1.25684 1
gene 1 13 33 -2.52711 0 39 -2.52711 1
gene 1 14 31 -1.82043 0 40 -1.82043 1
gene 1 14 32 -1.03836 0 41 -1.03836 1
gene 1 14 33 -1.05878 0 42 -1.05878 1
gene 1 15 31 2.60363 0 43 2.60363 1
gene 1 15 32 -4.81536 0 44 -4.81536 1
gene 1 15 33 3.20342 0 45 3.20342 1
gene 1 16 31 2.39927 0 46 2.39927 1
gene 1 16 32 -1.79931 0 47 -1.79931 1
gene 1 16 33 4.76928 0 48 4.76928 1
gene 1 17 31 -0.369559 0 49 -0.369559 1
gene 1 17 32 -1.94926 0 50 -1.94926 1
gene 1 17 33 1.05387 0 51 1.05387 1
gene 1 18 31 -2.922 0 52 -2.922 1
gene 1 18 32 -0.0970437 0 53 -0.0970437 1
gene 1 18 33 1.72421 0 54 1.72421 1
gene 1 19 31 -1.8372 0 55 -1.8372 1
gene 1 19 32 -3.1686 0 56 -3.1686 1
gene 1 19 33 -1.42039 0 57 -1.42039 1
gene 1 20 31 -3.20215 0 58 -3.20215 1
gene 1 20 32 -3.1186 0 59 -3.1186 1
gene 1 20 33 2.80453 0 60 2.80453 1
gene 1 21 31 -3.04193 0 61 -3.04193 1
gene 1 21 32 -0.815748 0 62 -0.815748 1
gene 1 21 33 -3.70476 0 63 -3.70476 1
gene 1 22 31 -0.945039 0 64 -0.945039 1
gene 1 22 32 0.000374516 0 65 0.000374516 1
gene 1 22 33 -0.781985 0 66 -0.781985 1
gene 1 23 31 3.62621 0 67 3.62621 1
gene 1 23 32 0.0287061 0 68 0.0287061 1
gene 1 23 33 0.318634 0 69 0.318634 1
gene 1 24 31 0.0385798 0 70 0.0385798 1
gene 1 24 32 -0.868551 0 71 -0.868551 1
gene 1 24 33 -0.456296 0 72 -0.456296 1
gene 1 25 31 3.48701 0 73 3.48701 1
gene 1 25 32 -0.167961 0 74 -0.167961 1
gene 1 25 33 1.41361 0 75 1.41361 1
gene 1 26 31 -0.666709 0 76 -0.666709 1
gene 1 26 32 0.31466 0 77 0.31466 1
gene 1 26 33 0.664088 0 78 0.664088 1
gene 1 27 31 0.816434 0 79 0.816434 1
gene 1 27 32 -0.42139 0 80 -0.42139 1
gene 1 27 33 -0.129948 0 81 -0.129948 1
gene 1 28 31 1.50434 0 82 1.50434 1
gene 1 28 32 1.15311 0 83 1.15311 1
gene 1 28 33 -0.210723 0 84 -0.210723 1
gene 1 29 31 -0.271852 0 85 -0.271852 1
gene 1 29 32 -0.497567 0 86 -0.497567 1
gene 1 29 33 -0.448707 0 87 -0.448707 1
gene 1 30 31 -0.0846742 0 88 -0.0846742 1
gene 1 30 32 -0.153994 0 89 -0.153994 1
gene 1 30 33 -0.338087 0 90 -0.338087 1
genomeend 15


