/* Organism #11 Fitness: 35919.670000 Time: 0 */
genomestart 11
trait 1 0.992931 1.000000 0.858488 0.587972 0.701560 1.000000 0.000000 0.826692 
node 1 1 1 1
node 2 1 1 1
node 3 1 1 1
node 4 1 1 1
node 5 1 1 1
node 6 1 1 1
node 7 1 1 1
node 8 1 1 1
node 9 1 1 1
node 10 1 1 1
node 11 1 1 1
node 12 1 1 1
node 13 1 1 1
node 14 1 1 1
node 15 1 1 1
node 16 1 1 1
node 17 1 1 1
node 18 1 1 1
node 19 1 1 1
node 20 1 1 1
node 21 1 1 1
node 22 1 1 1
node 23 1 1 1
node 24 1 1 1
node 25 1 1 1
node 26 1 1 1
node 27 1 1 1
node 28 1 1 1
node 29 1 1 1
node 30 1 1 3
node 31 1 0 2
node 32 1 0 2
node 33 1 0 2
gene 1 1 31 -4.1979 0 1 -4.1979 1
gene 1 1 32 -0.146836 0 2 -0.146836 1
gene 1 1 33 -2.84544 0 3 -2.84544 1
gene 1 2 31 1.19387 0 4 1.19387 1
gene 1 2 32 1.635 0 5 1.635 1
gene 1 2 33 -0.166821 0 6 -0.166821 1
gene 1 3 31 1.09403 0 7 1.09403 1
gene 1 3 32 -0.255896 0 8 -0.255896 1
gene 1 3 33 0.694742 0 9 0.694742 1
gene 1 4 31 -5 0 10 -5 1
gene 1 4 32 0.19742 0 11 0.19742 1
gene 1 4 33 -0.174667 0 12 -0.174667 1
gene 1 5 31 3.44621 0 13 3.44621 1
gene 1 5 32 0.0709456 0 14 0.0709456 1
gene 1 5 33 -1.84079 0 15 -1.84079 1
gene 1 6 31 0.0311964 0 16 0.0311964 1
gene 1 6 32 0.867421 0 17 0.867421 1
gene 1 6 33 4.98332 0 18 4.98332 1
gene 1 7 31 3.64044 0 19 3.64044 1
gene 1 7 32 -1.21775 0 20 -1.21775 1
gene 1 7 33 -1.39393 0 21 -1.39393 1
gene 1 8 31 1.14553 0 22 1.14553 1
gene 1 8 32 1.89328 0 23 1.89328 1
gene 1 8 33 -2.27252 0 24 -2.27252 1
gene 1 9 31 1.4301 0 25 1.4301 1
gene 1 9 32 -1.12367 0 26 -1.12367 1
gene 1 9 33 4.72051 0 27 4.72051 1
gene 1 10 31 -0.468224 0 28 -0.468224 1
gene 1 10 32 -0.19365 0 29 -0.19365 1
gene 1 10 33 -0.451991 0 30 -0.451991 1
gene 1 11 31 1.78565 0 31 1.78565 1
gene 1 11 32 0.0660927 0 32 0.0660927 1
gene 1 11 33 -2.38042 0 33 -2.38042 1
gene 1 12 31 3.32588 0 34 3.32588 1
gene 1 12 32 0.237268 0 35 0.237268 1
gene 1 12 33 -0.66067 0 36 -0.66067 1
gene 1 13 31 -1.37222 0 37 -1.37222 1
gene 1 13 32 -1.23101 0 38 -1.23101 1
gene 1 13 33 0.593432 0 39 0.593432 1
gene 1 14 31 -0.279008 0 40 -0.279008 1
gene 1 14 32 4.68689 0 41 4.68689 1
gene 1 14 33 0.197041 0 42 0.197041 1
gene 1 15 31 -0.0737476 0 43 -0.0737476 1
gene 1 15 32 -0.402151 0 44 -0.402151 1
gene 1 15 33 0.721799 0 45 0.721799 1
gene 1 16 31 -0.649124 0 46 -0.649124 1
gene 1 16 32 -2.36102 0 47 -2.36102 1
gene 1 16 33 -1.99749 0 48 -1.99749 1
gene 1 17 31 -0.15693 0 49 -0.15693 1
gene 1 17 32 0.828722 0 50 0.828722 1
gene 1 17 33 -1.15075 0 51 -1.15075 1
gene 1 18 31 -2.71588 0 52 -2.71588 1
gene 1 18 32 -0.811965 0 53 -0.811965 1
gene 1 18 33 2.14685 0 54 2.14685 1
gene 1 19 31 -0.50082 0 55 -0.50082 1
gene 1 19 32 -0.462593 0 56 -0.462593 1
gene 1 19 33 -1.31143 0 57 -1.31143 1
gene 1 20 31 1.76146 0 58 1.76146 1
gene 1 20 32 -0.710589 0 59 -0.710589 1
gene 1 20 33 0.758355 0 60 0.758355 1
gene 1 21 31 -2.7004 0 61 -2.7004 1
gene 1 21 32 -1.04757 0 62 -1.04757 1
gene 1 21 33 0.925904 0 63 0.925904 1
gene 1 22 31 0.686931 0 64 0.686931 1
gene 1 22 32 2.4244 0 65 2.4244 1
gene 1 22 33 0.00628218 0 66 0.00628218 1
gene 1 23 31 -0.396684 0 67 -0.396684 1
gene 1 23 32 -0.345481 0 68 -0.345481 1
gene 1 23 33 -3.70319 0 69 -3.70319 1
gene 1 24 31 0.384202 0 70 0.384202 1
gene 1 24 32 -2.30562 0 71 -2.30562 1
gene 1 24 33 0.360365 0 72 0.360365 1
gene 1 25 31 -1.80584 0 73 -1.80584 1
gene 1 25 32 -0.529044 0 74 -0.529044 1
gene 1 25 33 -0.543219 0 75 -0.543219 1
gene 1 26 31 0.265144 0 76 0.265144 1
gene 1 26 32 -0.943964 0 77 -0.943964 1
gene 1 26 33 0.0740386 0 78 0.0740386 1
gene 1 27 31 2.19033 0 79 2.19033 1
gene 1 27 32 0.387119 0 80 0.387119 1
gene 1 27 33 -0.552822 0 81 -0.552822 1
gene 1 28 31 -1.16567 0 82 -1.16567 1
gene 1 28 32 -0.990438 0 83 -0.990438 1
gene 1 28 33 1.04074 0 84 1.04074 1
gene 1 29 31 -0.729368 0 85 -0.729368 1
gene 1 29 32 -0.306105 0 86 -0.306105 1
gene 1 29 33 -1.71846 0 87 -1.71846 1
gene 1 30 31 -1.93415 0 88 -1.93415 1
gene 1 30 32 -1.26358 0 89 -1.26358 1
gene 1 30 33 0.919218 0 90 0.919218 1
genomeend 11


