/* Organism #19 Fitness: 37246.096000 Time: 0 */
genomestart 19
trait 1 0.820001 0.000000 0.009753 0.000000 0.591962 0.157707 0.938257 0.427603 
node 1 1 1 1
node 2 1 1 1
node 3 1 1 1
node 4 1 1 1
node 5 1 1 1
node 6 1 1 1
node 7 1 1 1
node 8 1 1 1
node 9 1 1 1
node 10 1 1 1
node 11 1 1 1
node 12 1 1 1
node 13 1 1 1
node 14 1 1 1
node 15 1 1 1
node 16 1 1 1
node 17 1 1 1
node 18 1 1 1
node 19 1 1 1
node 20 1 1 1
node 21 1 1 1
node 22 1 1 1
node 23 1 1 1
node 24 1 1 1
node 25 1 1 1
node 26 1 1 1
node 27 1 1 1
node 28 1 1 1
node 29 1 1 1
node 30 1 1 3
node 31 1 0 2
node 32 1 0 2
node 33 1 0 2
gene 1 1 31 3.41917 0 1 3.41917 1
gene 1 1 32 -5 0 2 -5 1
gene 1 1 33 0.599063 0 3 0.599063 1
gene 1 2 31 -1.8214 0 4 -1.8214 1
gene 1 2 32 2.55221 0 5 2.55221 1
gene 1 2 33 2.74566 0 6 2.74566 1
gene 1 3 31 3.72706 0 7 3.72706 1
gene 1 3 32 -3.56825 0 8 -3.56825 1
gene 1 3 33 1.53684 0 9 1.53684 1
gene 1 4 31 -0.801496 0 10 -0.801496 1
gene 1 4 32 -0.512054 0 11 -0.512054 1
gene 1 4 33 2.43505 0 12 2.43505 1
gene 1 5 31 1.24868 0 13 1.24868 1
gene 1 5 32 -0.775999 0 14 -0.775999 1
gene 1 5 33 -4.07081 0 15 -4.07081 1
gene 1 6 31 -0.0848727 0 16 -0.0848727 1
gene 1 6 32 0.682507 0 17 0.682507 1
gene 1 6 33 -4.18886 0 18 -4.18886 1
gene 1 7 31 -4.28491 0 19 -4.28491 1
gene 1 7 32 0.00266817 0 20 0.00266817 1
gene 1 7 33 3.08544 0 21 3.08544 1
gene 1 8 31 0.77021 0 22 0.77021 1
gene 1 8 32 3.36529 0 23 3.36529 1
gene 1 8 33 2.71466 0 24 2.71466 1
gene 1 9 31 0.105586 0 25 0.105586 1
gene 1 9 32 -4.40912 0 26 -4.40912 1
gene 1 9 33 0.752335 0 27 0.752335 1
gene 1 10 31 -4.39622 0 28 -4.39622 1
gene 1 10 32 1.47598 0 29 1.47598 1
gene 1 10 33 0.584033 0 30 0.584033 1
gene 1 11 31 -0.518464 0 31 -0.518464 1
gene 1 11 32 0.10558 0 32 0.10558 1
gene 1 11 33 0.139272 0 33 0.139272 1
gene 1 12 31 -2.1138 0 34 -2.1138 1
gene 1 12 32 4.89286 0 35 4.89286 1
gene 1 12 33 -3.57 0 36 -3.57 1
gene 1 13 31 -4.18711 0 37 -4.18711 1
gene 1 13 32 4.16716 0 38 4.16716 1
gene 1 13 33 1.26065 0 39 1.26065 1
gene 1 14 31 0.14 0 40 0.14 1
gene 1 14 32 -0.2216 0 41 -0.2216 1
gene 1 14 33 0.538492 0 42 0.538492 1
gene 1 15 31 5 0 43 5 1
gene 1 15 32 1.0075 0 44 1.0075 1
gene 1 15 33 0.495801 0 45 0.495801 1
gene 1 16 31 0.572118 0 46 0.572118 1
gene 1 16 32 0.29169 0 47 0.29169 1
gene 1 16 33 1.90577 0 48 1.90577 1
gene 1 17 31 3.63496 0 49 3.63496 1
gene 1 17 32 0.923141 0 50 0.923141 1
gene 1 17 33 -1.08093 0 51 -1.08093 1
gene 1 18 31 -4.59815 0 52 -4.59815 1
gene 1 18 32 -1.48724 0 53 -1.48724 1
gene 1 18 33 -2.80939 0 54 -2.80939 1
gene 1 19 31 -0.518282 0 55 -0.518282 1
gene 1 19 32 0.0680255 0 56 0.0680255 1
gene 1 19 33 -1.52682 0 57 -1.52682 1
gene 1 20 31 -1.85258 0 58 -1.85258 1
gene 1 20 32 0.136223 0 59 0.136223 1
gene 1 20 33 -2.42906 0 60 -2.42906 1
gene 1 21 31 -0.279291 0 61 -0.279291 1
gene 1 21 32 -2.98604 0 62 -2.98604 1
gene 1 21 33 0.126989 0 63 0.126989 1
gene 1 22 31 3.6482 0 64 3.6482 1
gene 1 22 32 -0.63921 0 65 -0.63921 1
gene 1 22 33 -1.93427 0 66 -1.93427 1
gene 1 23 31 3.15844 0 67 3.15844 1
gene 1 23 32 3.11307 0 68 3.11307 1
gene 1 23 33 -5 0 69 -5 1
gene 1 24 31 -1.04025 0 70 -1.04025 1
gene 1 24 32 -2.18703 0 71 -2.18703 1
gene 1 24 33 -0.382257 0 72 -0.382257 1
gene 1 25 31 -1.16939 0 73 -1.16939 1
gene 1 25 32 0.391473 0 74 0.391473 1
gene 1 25 33 -0.246763 0 75 -0.246763 1
gene 1 26 31 0.787651 0 76 0.787651 1
gene 1 26 32 0.366802 0 77 0.366802 1
gene 1 26 33 -0.79557 0 78 -0.79557 1
gene 1 27 31 -0.573154 0 79 -0.573154 1
gene 1 27 32 0.413883 0 80 0.413883 1
gene 1 27 33 -0.363421 0 81 -0.363421 1
gene 1 28 31 0.324928 0 82 0.324928 1
gene 1 28 32 -1.01286 0 83 -1.01286 1
gene 1 28 33 -1.4071 0 84 -1.4071 1
gene 1 29 31 -0.288803 0 85 -0.288803 1
gene 1 29 32 -1.33003 0 86 -1.33003 1
gene 1 29 33 0.748479 0 87 0.748479 1
gene 1 30 31 5 0 88 5 1
gene 1 30 32 2.26117 0 89 2.26117 1
gene 1 30 33 2.00025 0 90 2.00025 1
genomeend 19


