/* Organism #28 Fitness: 34888.370000 Time: 0 */
genomestart 28
trait 1 0.526836 0.204992 1.000000 0.000000 0.400102 1.000000 0.190895 1.000000 
node 1 1 1 1
node 2 1 1 1
node 3 1 1 1
node 4 1 1 1
node 5 1 1 1
node 6 1 1 1
node 7 1 1 1
node 8 1 1 1
node 9 1 1 1
node 10 1 1 1
node 11 1 1 1
node 12 1 1 1
node 13 1 1 1
node 14 1 1 1
node 15 1 1 1
node 16 1 1 1
node 17 1 1 1
node 18 1 1 1
node 19 1 1 1
node 20 1 1 1
node 21 1 1 1
node 22 1 1 1
node 23 1 1 1
node 24 1 1 1
node 25 1 1 1
node 26 1 1 1
node 27 1 1 1
node 28 1 1 1
node 29 1 1 1
node 30 1 1 3
node 31 1 0 2
node 32 1 0 2
node 33 1 0 2
gene 1 1 31 -3.32405 0 1 -3.32405 1
gene 1 1 32 -1.39157 0 2 -1.39157 1
gene 1 1 33 2.73808 0 3 2.73808 1
gene 1 2 31 2.13714 0 4 2.13714 1
gene 1 2 32 -0.949153 0 5 -0.949153 1
gene 1 2 33 -1.09094 0 6 -1.09094 1
gene 1 3 31 0.704986 0 7 0.704986 1
gene 1 3 32 -3.00856 0 8 -3.00856 1
gene 1 3 33 2.58948 0 9 2.58948 1
gene 1 4 31 3.07519 0 10 3.07519 1
gene 1 4 32 -2.43728 0 11 -2.43728 1
gene 1 4 33 0.168887 0 12 0.168887 1
gene 1 5 31 4.93427 0 13 4.93427 1
gene 1 5 32 4.11282 0 14 4.11282 1
gene 1 5 33 0.209921 0 15 0.209921 1
gene 1 6 31 4.27808 0 16 4.27808 1
gene 1 6 32 0.135605 0 17 0.135605 1
gene 1 6 33 -5 0 18 -5 1
gene 1 7 31 3.64261 0 19 3.64261 1
gene 1 7 32 0.557706 0 20 0.557706 1
gene 1 7 33 1.85762 0 21 1.85762 1
gene 1 8 31 -1.57333 0 22 -1.57333 1
gene 1 8 32 5 0 23 5 1
gene 1 8 33 -1.85601 0 24 -1.85601 1
gene 1 9 31 -1.92199 0 25 -1.92199 1
gene 1 9 32 2.37946 0 26 2.37946 1
gene 1 9 33 1.82426 0 27 1.82426 1
gene 1 10 31 0.618015 0 28 0.618015 1
gene 1 10 32 3.39062 0 29 3.39062 1
gene 1 10 33 -2.58278 0 30 -2.58278 1
gene 1 11 31 1.69406 0 31 1.69406 1
gene 1 11 32 0.800371 0 32 0.800371 1
gene 1 11 33 1.98028 0 33 1.98028 1
gene 1 12 31 5 0 34 5 1
gene 1 12 32 0.946795 0 35 0.946795 1
gene 1 12 33 2.86969 0 36 2.86969 1
gene 1 13 31 -0.841618 0 37 -0.841618 1
gene 1 13 32 -0.939384 0 38 -0.939384 1
gene 1 13 33 4.30598 0 39 4.30598 1
gene 1 14 31 1.16251 0 40 1.16251 1
gene 1 14 32 2.56658 0 41 2.56658 1
gene 1 14 33 1.04738 0 42 1.04738 1
gene 1 15 31 0.863729 0 43 0.863729 1
gene 1 15 32 -0.378969 0 44 -0.378969 1
gene 1 15 33 0.225999 0 45 0.225999 1
gene 1 16 31 -2.53318 0 46 -2.53318 1
gene 1 16 32 -0.178911 0 47 -0.178911 1
gene 1 16 33 -2.52065 0 48 -2.52065 1
gene 1 17 31 0.440819 0 49 0.440819 1
gene 1 17 32 4.39545 0 50 4.39545 1
gene 1 17 33 1.18887 0 51 1.18887 1
gene 1 18 31 5 0 52 5 1
gene 1 18 32 1.38663 0 53 1.38663 1
gene 1 18 33 -4.73653 0 54 -4.73653 1
gene 1 19 31 2.92904 0 55 2.92904 1
gene 1 19 32 2.91021 0 56 2.91021 1
gene 1 19 33 5 0 57 5 1
gene 1 20 31 1.13239 0 58 1.13239 1
gene 1 20 32 1.31468 0 59 1.31468 1
gene 1 20 33 2.48485 0 60 2.48485 1
gene 1 21 31 -0.334887 0 61 -0.334887 1
gene 1 21 32 -3.35944 0 62 -3.35944 1
gene 1 21 33 -2.38401 0 63 -2.38401 1
gene 1 22 31 -0.320158 0 64 -0.320158 1
gene 1 22 32 2.27871 0 65 2.27871 1
gene 1 22 33 4.4829 0 66 4.4829 1
gene 1 23 31 -3.4362 0 67 -3.4362 1
gene 1 23 32 0.12119 0 68 0.12119 1
gene 1 23 33 0.790755 0 69 0.790755 1
gene 1 24 31 2.41272 0 70 2.41272 1
gene 1 24 32 0.721101 0 71 0.721101 1
gene 1 24 33 -0.986914 0 72 -0.986914 1
gene 1 25 31 3.39325 0 73 3.39325 1
gene 1 25 32 -1.3681 0 74 -1.3681 1
gene 1 25 33 1.51207 0 75 1.51207 1
gene 1 26 31 1.39297 0 76 1.39297 1
gene 1 26 32 1.89228 0 77 1.89228 1
gene 1 26 33 -1.12492 0 78 -1.12492 1
gene 1 27 31 0.673738 0 79 0.673738 1
gene 1 27 32 -0.519165 0 80 -0.519165 1
gene 1 27 33 1.33941 0 81 1.33941 1
gene 1 28 31 -0.261842 0 82 -0.261842 1
gene 1 28 32 -0.623378 0 83 -0.623378 1
gene 1 28 33 0.777021 0 84 0.777021 1
gene 1 29 31 -0.542223 0 85 -0.542223 1
gene 1 29 32 0.339101 0 86 0.339101 1
gene 1 29 33 1.24468 0 87 1.24468 1
gene 1 30 31 0.767192 0 88 0.767192 1
gene 1 30 32 -0.261955 0 89 -0.261955 1
gene 1 30 33 -1.42771 0 90 -1.42771 1
genomeend 28


