/* Organism #3 Fitness: 13961.120000 Time: 0 */
genomestart 3
trait 1 0.000000 0.000000 0.000000 0.000000 0.000000 0.076071 0.000000 0.000000 
node 1 1 1 1
node 2 1 1 1
node 3 1 1 1
node 4 1 1 1
node 5 1 1 1
node 6 1 1 1
node 7 1 1 1
node 8 1 1 1
node 9 1 1 1
node 10 1 1 1
node 11 1 1 1
node 12 1 1 1
node 13 1 1 1
node 14 1 1 1
node 15 1 1 1
node 16 1 1 1
node 17 1 1 1
node 18 1 1 1
node 19 1 1 1
node 20 1 1 1
node 21 1 1 1
node 22 1 1 1
node 23 1 1 1
node 24 1 1 1
node 25 1 1 1
node 26 1 1 1
node 27 1 1 1
node 28 1 1 1
node 29 1 1 1
node 30 1 1 1
node 31 1 1 3
node 32 1 0 2
node 33 1 0 2
node 34 1 0 2
node 35 1 0 0
node 36 1 0 0
node 37 1 0 1
gene 1 1 32 -5 0 1 -5 1
gene 1 1 33 0.408952 0 2 0.408952 1
gene 1 2 32 -1.34947 0 3 -1.34947 1
gene 1 2 33 0.36973 0 4 0.36973 1
gene 1 3 32 -2.49869 0 5 -2.49869 1
gene 1 3 33 -0.663038 0 6 -0.663038 1
gene 1 4 32 4.26991 0 7 4.26991 1
gene 1 4 33 3.17232 0 8 3.17232 1
gene 1 5 32 1.59208 0 9 1.59208 1
gene 1 5 33 3.42835 0 10 3.42835 1
gene 1 6 32 0.209303 0 11 0.209303 1
gene 1 6 33 -4.58372 0 12 -4.58372 1
gene 1 7 32 5 0 13 5 1
gene 1 7 33 2.41768 0 14 2.41768 1
gene 1 8 32 -0.74048 0 15 -0.74048 1
gene 1 8 33 1.99267 0 16 1.99267 1
gene 1 9 32 -1.09213 0 17 -1.09213 1
gene 1 9 33 3.60393 0 18 3.60393 1
gene 1 10 32 3.82385 0 19 3.82385 1
gene 1 10 33 -0.595366 0 20 -0.595366 1
gene 1 11 32 5 0 21 5 1
gene 1 11 33 0.654667 0 22 0.654667 1
gene 1 12 32 -5 0 23 -5 1
gene 1 12 33 0.247145 0 24 0.247145 1
gene 1 13 32 1.84513 0 25 1.84513 1
gene 1 13 33 0.721001 0 26 0.721001 1
gene 1 14 32 -3.36255 0 27 -3.36255 1
gene 1 14 33 -0.271486 0 28 -0.271486 1
gene 1 15 32 -3.47322 0 29 -3.47322 1
gene 1 15 33 1.95901 0 30 1.95901 1
gene 1 16 32 -2.07675 0 31 -2.07675 1
gene 1 16 33 1.00869 0 32 1.00869 1
gene 1 17 32 1.00256 0 33 1.00256 1
gene 1 17 33 -4.89046 0 34 -4.89046 1
gene 1 18 32 5 0 35 5 1
gene 1 18 33 1.17074 0 36 1.17074 1
gene 1 19 32 2.82093 0 37 2.82093 1
gene 1 19 33 1.90562 0 38 1.90562 1
gene 1 20 32 0.756369 0 39 0.756369 1
gene 1 20 33 0.744292 0 40 0.744292 1
gene 1 21 32 -0.452974 0 41 -0.452974 1
gene 1 21 33 -4.74142 0 42 -4.74142 1
gene 1 22 32 -0.869556 0 43 -0.869556 1
gene 1 22 33 1.70867 0 44 1.70867 1
gene 1 23 32 -4.83075 0 45 -4.83075 1
gene 1 23 33 2.74515 0 46 2.74515 1
gene 1 24 32 -0.102483 0 47 -0.102483 1
gene 1 24 33 -2.31782 0 48 -2.31782 1
gene 1 25 32 -3.82141 0 49 -3.82141 1
gene 1 25 33 0.738044 0 50 0.738044 1
gene 1 26 32 -4.2015 0 51 -4.2015 1
gene 1 26 33 -5 0 52 -5 1
gene 1 27 32 -0.513931 0 53 -0.513931 1
gene 1 27 33 0.277088 0 54 0.277088 1
gene 1 28 32 -4.46826 0 55 -4.46826 1
gene 1 28 33 -0.614269 0 56 -0.614269 1
gene 1 29 32 -1.97485 0 57 -1.97485 1
gene 1 29 33 -3.01812 0 58 -3.01812 1
gene 1 30 32 -5 0 59 -5 1
gene 1 30 33 -5 0 60 -5 1
gene 1 31 32 -1.24048 0 61 -1.24048 1
gene 1 31 33 -4.50815 0 62 -4.50815 1
gene 1 1 35 0.364447 0 63 0.364447 1
gene 1 1 36 -2.57182 0 64 -2.57182 1
gene 1 2 35 2.18756 0 65 2.18756 1
gene 1 2 36 -4.51763 0 66 -4.51763 1
gene 1 3 35 -1.84565 0 67 -1.84565 1
gene 1 3 36 2.23199 0 68 2.23199 1
gene 1 4 35 -1.94631 0 69 -1.94631 1
gene 1 4 36 -2.82255 0 70 -2.82255 1
gene 1 5 35 4.95991 0 71 4.95991 1
gene 1 5 36 -3.88712 0 72 -3.88712 1
gene 1 6 35 -1.64829 0 73 -1.64829 1
gene 1 6 36 2.75202 0 74 2.75202 1
gene 1 7 35 4.78715 0 75 4.78715 1
gene 1 7 36 -1.57022 0 76 -1.57022 1
gene 1 8 35 -3.20119 0 77 -3.20119 1
gene 1 8 36 -3.91448 0 78 -3.91448 1
gene 1 9 35 -4.66752 0 79 -4.66752 1
gene 1 9 36 0.696056 0 80 0.696056 1
gene 1 10 35 -5 0 81 -5 1
gene 1 10 36 -4.16294 0 82 -4.16294 1
gene 1 11 35 -3.55255 0 83 -3.55255 1
gene 1 11 36 -1.16115 0 84 -1.16115 1
gene 1 12 35 -1.96484 0 85 -1.96484 1
gene 1 12 36 -1.68457 0 86 -1.68457 1
gene 1 13 35 0.761518 0 87 0.761518 1
gene 1 13 36 -0.827705 0 88 -0.827705 1
gene 1 14 35 1.40382 0 89 1.40382 1
gene 1 14 36 -5 0 90 -5 1
gene 1 15 35 0.609625 0 91 0.609625 1
gene 1 15 36 4.46633 0 92 4.46633 1
gene 1 16 35 2.78301 0 93 2.78301 1
gene 1 16 36 -1.86018 0 94 -1.86018 1
gene 1 17 35 -1.48137 0 95 -1.48137 1
gene 1 17 36 -4.44242 0 96 -4.44242 1
gene 1 18 35 -3.00482 0 97 -3.00482 1
gene 1 18 36 -0.200231 0 98 -0.200231 1
gene 1 19 35 1.31824 0 99 1.31824 1
gene 1 19 36 -0.0968472 0 100 -0.0968472 1
gene 1 20 35 -4.11642 0 101 -4.11642 1
gene 1 20 36 -0.925692 0 102 -0.925692 1
gene 1 21 35 -1.60677 0 103 -1.60677 1
gene 1 21 36 -1.01263 0 104 -1.01263 1
gene 1 22 35 -1.44586 0 105 -1.44586 1
gene 1 22 36 -4.33744 0 106 -4.33744 1
gene 1 23 35 0.694756 0 107 0.694756 1
gene 1 23 36 1.18886 0 108 1.18886 1
gene 1 24 35 2.45905 0 109 2.45905 1
gene 1 24 36 1.2786 0 110 1.2786 1
gene 1 25 35 -0.457774 0 111 -0.457774 1
gene 1 25 36 -0.199976 0 112 -0.199976 1
gene 1 26 35 -0.0544681 0 113 -0.0544681 1
gene 1 26 36 -0.337355 0 114 -0.337355 1
gene 1 27 35 2.70686 0 115 2.70686 1
gene 1 27 36 0.0861635 0 116 0.0861635 1
gene 1 28 35 1.76183 0 117 1.76183 1
gene 1 28 36 -0.834589 0 118 -0.834589 1
gene 1 29 35 1.21119 0 119 1.21119 1
gene 1 29 36 -0.68964 0 120 -0.68964 1
gene 1 30 35 -0.192667 0 121 -0.192667 1
gene 1 30 36 -3.06143 0 122 -3.06143 1
gene 1 31 35 -0.202995 0 123 -0.202995 1
gene 1 31 36 -0.608375 0 124 -0.608375 1
gene 1 35 32 -0.295796 0 125 -0.295796 1
gene 1 35 33 1.78245 0 126 1.78245 1
gene 1 35 34 0.20326 0 127 0.20326 1
gene 1 36 32 -0.362606 0 128 -0.362606 1
gene 1 36 33 -0.958947 0 129 -0.958947 1
gene 1 36 34 0.277776 0 130 0.277776 1
gene 1 35 35 1.70894 1 131 1.70894 1
gene 1 36 36 -1.65646 1 132 -1.65646 1
gene 1 34 37 1.46761 1 133 1.46761 1
gene 1 37 32 -1.65097 0 134 -1.65097 1
gene 1 37 33 -0.609724 0 135 -0.609724 1
gene 1 37 34 -0.483413 0 136 -0.483413 1
genomeend 3


