/* Organism #9 Fitness: 14301.484000 Time: 0 */
genomestart 9
trait 1 0.111160 0.535869 0.137184 0.000000 1.000000 1.000000 0.773809 0.430454 
node 1 1 1 1
node 2 1 1 1
node 3 1 1 1
node 4 1 1 1
node 5 1 1 1
node 6 1 1 1
node 7 1 1 1
node 8 1 1 1
node 9 1 1 1
node 10 1 1 1
node 11 1 1 1
node 12 1 1 1
node 13 1 1 1
node 14 1 1 1
node 15 1 1 1
node 16 1 1 1
node 17 1 1 1
node 18 1 1 1
node 19 1 1 1
node 20 1 1 1
node 21 1 1 1
node 22 1 1 1
node 23 1 1 1
node 24 1 1 1
node 25 1 1 1
node 26 1 1 1
node 27 1 1 1
node 28 1 1 1
node 29 1 1 1
node 30 1 1 1
node 31 1 1 3
node 32 1 0 2
node 33 1 0 2
node 34 1 0 2
node 35 1 0 0
node 36 1 0 0
node 37 1 0 1
gene 1 1 32 -0.723096 0 1 -0.723096 1
gene 1 1 33 -3.76038 0 2 -3.76038 1
gene 1 2 32 -1.50044 0 3 -1.50044 1
gene 1 2 33 4.37502 0 4 4.37502 1
gene 1 3 32 -0.379207 0 5 -0.379207 1
gene 1 3 33 1.31856 0 6 1.31856 1
gene 1 4 32 -0.737489 0 7 -0.737489 1
gene 1 4 33 2.35761 0 8 2.35761 1
gene 1 5 32 0.755338 0 9 0.755338 1
gene 1 5 33 2.20767 0 10 2.20767 1
gene 1 6 32 2.0135 0 11 2.0135 1
gene 1 6 33 0.296648 0 12 0.296648 1
gene 1 7 32 -1.03176 0 13 -1.03176 1
gene 1 7 33 0.0125804 0 14 0.0125804 1
gene 1 8 32 1.89809 0 15 1.89809 1
gene 1 8 33 -0.772012 0 16 -0.772012 1
gene 1 9 32 -1.09671 0 17 -1.09671 1
gene 1 9 33 0.808362 0 18 0.808362 1
gene 1 10 32 -3.30519 0 19 -3.30519 1
gene 1 10 33 1.46988 0 20 1.46988 1
gene 1 11 32 -2.21334 0 21 -2.21334 1
gene 1 11 33 -1.87246 0 22 -1.87246 1
gene 1 12 32 -4.4808 0 23 -4.4808 1
gene 1 12 33 -0.798045 0 24 -0.798045 1
gene 1 13 32 0.969329 0 25 0.969329 1
gene 1 13 33 0.551661 0 26 0.551661 1
gene 1 14 32 -2.67739 0 27 -2.67739 1
gene 1 14 33 1.3057 0 28 1.3057 1
gene 1 15 32 -1.43223 0 29 -1.43223 1
gene 1 15 33 0.634023 0 30 0.634023 1
gene 1 16 32 1.71619 0 31 1.71619 1
gene 1 16 33 -0.744342 0 32 -0.744342 1
gene 1 17 32 -2.96018 0 33 -2.96018 1
gene 1 17 33 1.68098 0 34 1.68098 1
gene 1 18 32 -4.02876 0 35 -4.02876 1
gene 1 18 33 3.4535 0 36 3.4535 1
gene 1 19 32 0.445802 0 37 0.445802 1
gene 1 19 33 0.233609 0 38 0.233609 1
gene 1 20 32 2.70536 0 39 2.70536 1
gene 1 20 33 0.0404226 0 40 0.0404226 1
gene 1 21 32 0.385435 0 41 0.385435 1
gene 1 21 33 2.71519 0 42 2.71519 1
gene 1 22 32 -3.14718 0 43 -3.14718 1
gene 1 22 33 -2.02135 0 44 -2.02135 1
gene 1 23 32 1.77097 0 45 1.77097 1
gene 1 23 33 -1.57315 0 46 -1.57315 1
gene 1 24 32 -1.56851 0 47 -1.56851 1
gene 1 24 33 -0.801447 0 48 -0.801447 1
gene 1 25 32 -3.1491 0 49 -3.1491 1
gene 1 25 33 -2.31525 0 50 -2.31525 1
gene 1 26 32 0.411962 0 51 0.411962 1
gene 1 26 33 -2.90595 0 52 -2.90595 1
gene 1 27 32 -1.09045 0 53 -1.09045 1
gene 1 27 33 -0.333308 0 54 -0.333308 1
gene 1 28 32 -3.47101 0 55 -3.47101 1
gene 1 28 33 -0.092393 0 56 -0.092393 1
gene 1 29 32 1.0046 0 57 1.0046 1
gene 1 29 33 0.826184 0 58 0.826184 1
gene 1 30 32 -2.72967 0 59 -2.72967 1
gene 1 30 33 -4.27634 0 60 -4.27634 1
gene 1 31 32 -1.01446 0 61 -1.01446 1
gene 1 31 33 0.0812488 0 62 0.0812488 1
gene 1 1 35 -1.65056 0 63 -1.65056 1
gene 1 1 36 -2.24329 0 64 -2.24329 1
gene 1 2 35 2.76529 0 65 2.76529 1
gene 1 2 36 -0.497993 0 66 -0.497993 1
gene 1 3 35 -0.702916 0 67 -0.702916 1
gene 1 3 36 -1.65204 0 68 -1.65204 1
gene 1 4 35 0.990977 0 69 0.990977 1
gene 1 4 36 -0.283778 0 70 -0.283778 1
gene 1 5 35 -2.25438 0 71 -2.25438 1
gene 1 5 36 -0.368513 0 72 -0.368513 1
gene 1 6 35 -0.0831288 0 73 -0.0831288 1
gene 1 6 36 0.116942 0 74 0.116942 1
gene 1 7 35 2.28763 0 75 2.28763 1
gene 1 7 36 -0.0446736 0 76 -0.0446736 1
gene 1 8 35 -1.47271 0 77 -1.47271 1
gene 1 8 36 -4.18879 0 78 -4.18879 1
gene 1 9 35 -3.37903 0 79 -3.37903 1
gene 1 9 36 -1.31133 0 80 -1.31133 1
gene 1 10 35 1.43374 0 81 1.43374 1
gene 1 10 36 5 0 82 5 1
gene 1 11 35 2.86705 0 83 2.86705 1
gene 1 11 36 4.5868 0 84 4.5868 1
gene 1 12 35 -0.467164 0 85 -0.467164 1
gene 1 12 36 2.15179 0 86 2.15179 1
gene 1 13 35 -0.911947 0 87 -0.911947 1
gene 1 13 36 -1.79545 0 88 -1.79545 1
gene 1 14 35 -1.9594 0 89 -1.9594 1
gene 1 14 36 2.4211 0 90 2.4211 1
gene 1 15 35 -2.27197 0 91 -2.27197 1
gene 1 15 36 -3.09727 0 92 -3.09727 1
gene 1 16 35 -5 0 93 -5 1
gene 1 16 36 0.2797 0 94 0.2797 1
gene 1 17 35 -3.32165 0 95 -3.32165 1
gene 1 17 36 -4.18621 0 96 -4.18621 1
gene 1 18 35 -0.3821 0 97 -0.3821 1
gene 1 18 36 0.478942 0 98 0.478942 1
gene 1 19 35 2.52075 0 99 2.52075 1
gene 1 19 36 0.555076 0 100 0.555076 1
gene 1 20 35 -3.05453 0 101 -3.05453 1
gene 1 20 36 -1.69984 0 102 -1.69984 1
gene 1 21 35 -0.029039 0 103 -0.029039 1
gene 1 21 36 -3.06361 0 104 -3.06361 1
gene 1 22 35 -1.87458 0 105 -1.87458 1
gene 1 22 36 -2.52271 0 106 -2.52271 1
gene 1 23 35 -5 0 107 -5 1
gene 1 23 36 -4.38456 0 108 -4.38456 1
gene 1 24 35 -0.619564 0 109 -0.619564 1
gene 1 24 36 0.00189994 0 110 0.00189994 1
gene 1 25 35 -1.19376 0 111 -1.19376 1
gene 1 25 36 -0.76186 0 112 -0.76186 1
gene 1 26 35 -0.340024 0 113 -0.340024 1
gene 1 26 36 -0.426401 0 114 -0.426401 1
gene 1 27 35 0.707747 0 115 0.707747 1
gene 1 27 36 0.50228 0 116 0.50228 1
gene 1 28 35 0.574226 0 117 0.574226 1
gene 1 28 36 0.577976 0 118 0.577976 1
gene 1 29 35 -0.654388 0 119 -0.654388 1
gene 1 29 36 0.220329 0 120 0.220329 1
gene 1 30 35 -0.306717 0 121 -0.306717 1
gene 1 30 36 -0.170152 0 122 -0.170152 1
gene 1 31 35 -0.140575 0 123 -0.140575 1
gene 1 31 36 1.66011 0 124 1.66011 1
gene 1 35 32 -0.342143 0 125 -0.342143 1
gene 1 35 33 -0.530616 0 126 -0.530616 1
gene 1 35 34 -0.0713142 0 127 -0.0713142 1
gene 1 36 32 0.355369 0 128 0.355369 1
gene 1 36 33 -0.403391 0 129 -0.403391 1
gene 1 36 34 -0.322503 0 130 -0.322503 1
gene 1 35 35 -0.174695 1 131 -0.174695 1
gene 1 36 36 -0.599157 1 132 -0.599157 1
gene 1 34 37 0.278263 1 133 0.278263 1
gene 1 37 32 -1.10238 0 134 -1.10238 1
gene 1 37 33 -0.511889 0 135 -0.511889 1
gene 1 37 34 -0.228867 0 136 -0.228867 1
genomeend 9


