/* Organism #4 Fitness: 13771.322000 Time: 0 */
genomestart 4
trait 1 0.553978 0.000000 0.840416 0.000000 0.506297 0.317338 0.000000 0.276967 
node 1 1 1 1
node 2 1 1 1
node 3 1 1 1
node 4 1 1 1
node 5 1 1 1
node 6 1 1 1
node 7 1 1 1
node 8 1 1 1
node 9 1 1 1
node 10 1 1 1
node 11 1 1 1
node 12 1 1 1
node 13 1 1 1
node 14 1 1 1
node 15 1 1 1
node 16 1 1 1
node 17 1 1 1
node 18 1 1 1
node 19 1 1 1
node 20 1 1 1
node 21 1 1 1
node 22 1 1 1
node 23 1 1 1
node 24 1 1 1
node 25 1 1 1
node 26 1 1 1
node 27 1 1 1
node 28 1 1 1
node 29 1 1 1
node 30 1 1 1
node 31 1 1 3
node 32 1 0 2
node 33 1 0 2
node 34 1 0 2
node 35 1 0 0
node 36 1 0 0
node 37 1 0 1
gene 1 1 32 -4.70988 0 1 -4.70988 1
gene 1 1 33 4.17527 0 2 4.17527 1
gene 1 2 32 -0.659989 0 3 -0.659989 1
gene 1 2 33 1.56524 0 4 1.56524 1
gene 1 3 32 -1.90386 0 5 -1.90386 1
gene 1 3 33 -1.47983 0 6 -1.47983 1
gene 1 4 32 2.55112 0 7 2.55112 1
gene 1 4 33 -0.862935 0 8 -0.862935 1
gene 1 5 32 1.83335 0 9 1.83335 1
gene 1 5 33 -2.01354 0 10 -2.01354 1
gene 1 6 32 1.53246 0 11 1.53246 1
gene 1 6 33 3.13113 0 12 3.13113 1
gene 1 7 32 4.1411 0 13 4.1411 1
gene 1 7 33 2.63783 0 14 2.63783 1
gene 1 8 32 0.24896 0 15 0.24896 1
gene 1 8 33 -1.20515 0 16 -1.20515 1
gene 1 9 32 2.50589 0 17 2.50589 1
gene 1 9 33 -1.37263 0 18 -1.37263 1
gene 1 10 32 -2.01508 0 19 -2.01508 1
gene 1 10 33 0.00221862 0 20 0.00221862 1
gene 1 11 32 -0.734955 0 21 -0.734955 1
gene 1 11 33 -0.704765 0 22 -0.704765 1
gene 1 12 32 2.27878 0 23 2.27878 1
gene 1 12 33 -1.84806 0 24 -1.84806 1
gene 1 13 32 1.06842 0 25 1.06842 1
gene 1 13 33 0.64566 0 26 0.64566 1
gene 1 14 32 0.609432 0 27 0.609432 1
gene 1 14 33 4.80629 0 28 4.80629 1
gene 1 15 32 0.42392 0 29 0.42392 1
gene 1 15 33 1.70004 0 30 1.70004 1
gene 1 16 32 0.48922 0 31 0.48922 1
gene 1 16 33 -1.48538 0 32 -1.48538 1
gene 1 17 32 2.82343 0 33 2.82343 1
gene 1 17 33 -2.13228 0 34 -2.13228 1
gene 1 18 32 2.31048 0 35 2.31048 1
gene 1 18 33 1.50139 0 36 1.50139 1
gene 1 19 32 2.24739 0 37 2.24739 1
gene 1 19 33 0.630382 0 38 0.630382 1
gene 1 20 32 -0.706595 0 39 -0.706595 1
gene 1 20 33 1.06834 0 40 1.06834 1
gene 1 21 32 1.52901 0 41 1.52901 1
gene 1 21 33 0.0296729 0 42 0.0296729 1
gene 1 22 32 -2.47542 0 43 -2.47542 1
gene 1 22 33 -0.805459 0 44 -0.805459 1
gene 1 23 32 -0.292791 0 45 -0.292791 1
gene 1 23 33 1.90627 0 46 1.90627 1
gene 1 24 32 2.45954 0 47 2.45954 1
gene 1 24 33 0.324402 0 48 0.324402 1
gene 1 25 32 2.22372 0 49 2.22372 1
gene 1 25 33 -2.64217 0 50 -2.64217 1
gene 1 26 32 -1.27089 0 51 -1.27089 1
gene 1 26 33 1.7671 0 52 1.7671 1
gene 1 27 32 1.32391 0 53 1.32391 1
gene 1 27 33 2.93231 0 54 2.93231 1
gene 1 28 32 -2.43304 0 55 -2.43304 1
gene 1 28 33 0.163956 0 56 0.163956 1
gene 1 29 32 -2.94987 0 57 -2.94987 1
gene 1 29 33 -3.60059 0 58 -3.60059 1
gene 1 30 32 -4.58376 0 59 -4.58376 1
gene 1 30 33 -4.22389 0 60 -4.22389 1
gene 1 31 32 -1.74846 0 61 -1.74846 1
gene 1 31 33 -1.62714 0 62 -1.62714 1
gene 1 1 35 1.54668 0 63 1.54668 1
gene 1 1 36 -3.50832 0 64 -3.50832 1
gene 1 2 35 1.43278 0 65 1.43278 1
gene 1 2 36 3.5337 0 66 3.5337 1
gene 1 3 35 0.433534 0 67 0.433534 1
gene 1 3 36 -2.01367 0 68 -2.01367 1
gene 1 4 35 0.382075 0 69 0.382075 1
gene 1 4 36 0.854055 0 70 0.854055 1
gene 1 5 35 -0.110939 0 71 -0.110939 1
gene 1 5 36 -0.504668 0 72 -0.504668 1
gene 1 6 35 -1.2214 0 73 -1.2214 1
gene 1 6 36 1.0473 0 74 1.0473 1
gene 1 7 35 -2.9471 0 75 -2.9471 1
gene 1 7 36 1.06379 0 76 1.06379 1
gene 1 8 35 -2.38212 0 77 -2.38212 1
gene 1 8 36 -3.70552 0 78 -3.70552 1
gene 1 9 35 2.42968 0 79 2.42968 1
gene 1 9 36 1.4041 0 80 1.4041 1
gene 1 10 35 0.0997949 0 81 0.0997949 1
gene 1 10 36 -1.60443 0 82 -1.60443 1
gene 1 11 35 -0.211577 0 83 -0.211577 1
gene 1 11 36 -3.59696 0 84 -3.59696 1
gene 1 12 35 4.81245 0 85 4.81245 1
gene 1 12 36 -0.746679 0 86 -0.746679 1
gene 1 13 35 -0.538811 0 87 -0.538811 1
gene 1 13 36 -2.01107 0 88 -2.01107 1
gene 1 14 35 3.69957 0 89 3.69957 1
gene 1 14 36 -0.444494 0 90 -0.444494 1
gene 1 15 35 -2.07111 0 91 -2.07111 1
gene 1 15 36 1.2134 0 92 1.2134 1
gene 1 16 35 -0.544681 0 93 -0.544681 1
gene 1 16 36 -0.5923 0 94 -0.5923 1
gene 1 17 35 2.58249 0 95 2.58249 1
gene 1 17 36 4.2687 0 96 4.2687 1
gene 1 18 35 0.77493 0 97 0.77493 1
gene 1 18 36 0.973934 0 98 0.973934 1
gene 1 19 35 1.15972 0 99 1.15972 1
gene 1 19 36 0.361839 0 100 0.361839 1
gene 1 20 35 0.451211 0 101 0.451211 1
gene 1 20 36 -2.98329 0 102 -2.98329 1
gene 1 21 35 2.17267 0 103 2.17267 1
gene 1 21 36 -1.68059 0 104 -1.68059 1
gene 1 22 35 1.03939 0 105 1.03939 1
gene 1 22 36 -1.99765 0 106 -1.99765 1
gene 1 23 35 -3.45001 0 107 -3.45001 1
gene 1 23 36 -2.4072 0 108 -2.4072 1
gene 1 24 35 -0.411282 0 109 -0.411282 1
gene 1 24 36 -2.1807 0 110 -2.1807 1
gene 1 25 35 0.702135 0 111 0.702135 1
gene 1 25 36 0.776602 0 112 0.776602 1
gene 1 26 35 -1.18767 0 113 -1.18767 1
gene 1 26 36 -0.802812 0 114 -0.802812 1
gene 1 27 35 -0.0893113 0 115 -0.0893113 1
gene 1 27 36 -2.88715 0 116 -2.88715 1
gene 1 28 35 -0.289169 0 117 -0.289169 1
gene 1 28 36 -0.547231 0 118 -0.547231 1
gene 1 29 35 5 0 119 5 1
gene 1 29 36 0.0108373 0 120 0.0108373 1
gene 1 30 35 -0.113275 0 121 -0.113275 1
gene 1 30 36 0.796404 0 122 0.796404 1
gene 1 31 35 -1.53115 0 123 -1.53115 1
gene 1 31 36 0.309265 0 124 0.309265 1
gene 1 35 32 -1.12384 0 125 -1.12384 1
gene 1 35 33 0.0334659 0 126 0.0334659 1
gene 1 35 34 -1.30986 0 127 -1.30986 1
gene 1 36 32 -0.0450457 0 128 -0.0450457 1
gene 1 36 33 -1.33843 0 129 -1.33843 1
gene 1 36 34 -0.235589 0 130 -0.235589 1
gene 1 35 35 0.96994 1 131 0.96994 1
gene 1 36 36 -0.172285 1 132 -0.172285 1
gene 1 34 37 -1.38478 1 133 -1.38478 1
gene 1 37 32 -0.544 0 134 -0.544 1
gene 1 37 33 -0.714633 0 135 -0.714633 1
gene 1 37 34 -0.0692798 0 136 -0.0692798 1
genomeend 4


