/* Organism #1 Fitness: 14260.840000 Time: 0 */
genomestart 1
trait 1 0.703495 1.000000 0.037572 0.884130 0.706830 0.518319 1.000000 0.000000 
node 1 1 1 1
node 2 1 1 1
node 3 1 1 1
node 4 1 1 1
node 5 1 1 1
node 6 1 1 1
node 7 1 1 1
node 8 1 1 1
node 9 1 1 1
node 10 1 1 1
node 11 1 1 1
node 12 1 1 1
node 13 1 1 1
node 14 1 1 1
node 15 1 1 1
node 16 1 1 1
node 17 1 1 1
node 18 1 1 1
node 19 1 1 1
node 20 1 1 1
node 21 1 1 1
node 22 1 1 1
node 23 1 1 1
node 24 1 1 1
node 25 1 1 1
node 26 1 1 1
node 27 1 1 1
node 28 1 1 1
node 29 1 1 1
node 30 1 1 1
node 31 1 1 3
node 32 1 0 2
node 33 1 0 2
node 34 1 0 2
node 35 1 0 0
node 36 1 0 0
node 37 1 0 1
gene 1 1 32 -0.0403024 0 1 -0.0403024 1
gene 1 1 33 -2.99138 0 2 -2.99138 1
gene 1 2 32 -1.25747 0 3 -1.25747 1
gene 1 2 33 5 0 4 5 1
gene 1 3 32 0.91325 0 5 0.91325 1
gene 1 3 33 0.986016 0 6 0.986016 1
gene 1 4 32 0.596652 0 7 0.596652 1
gene 1 4 33 3.0088 0 8 3.0088 1
gene 1 5 32 0.131583 0 9 0.131583 1
gene 1 5 33 2.65684 0 10 2.65684 1
gene 1 6 32 -4.13591 0 11 -4.13591 1
gene 1 6 33 1.31805 0 12 1.31805 1
gene 1 7 32 2.97684 0 13 2.97684 1
gene 1 7 33 0.412032 0 14 0.412032 1
gene 1 8 32 -1.08049 0 15 -1.08049 1
gene 1 8 33 -3.91087 0 16 -3.91087 1
gene 1 9 32 -1.57666 0 17 -1.57666 1
gene 1 9 33 -2.99645 0 18 -2.99645 1
gene 1 10 32 1.39001 0 19 1.39001 1
gene 1 10 33 -4.32571 0 20 -4.32571 1
gene 1 11 32 -3.58113 0 21 -3.58113 1
gene 1 11 33 -2.83223 0 22 -2.83223 1
gene 1 12 32 -0.883555 0 23 -0.883555 1
gene 1 12 33 2.26241 0 24 2.26241 1
gene 1 13 32 -1.42623 0 25 -1.42623 1
gene 1 13 33 0.195697 0 26 0.195697 1
gene 1 14 32 2.20089 0 27 2.20089 1
gene 1 14 33 2.27381 0 28 2.27381 1
gene 1 15 32 1.12765 0 29 1.12765 1
gene 1 15 33 1.2374 0 30 1.2374 1
gene 1 16 32 -4.77558 0 31 -4.77558 1
gene 1 16 33 3.12605 0 32 3.12605 1
gene 1 17 32 1.61011 0 33 1.61011 1
gene 1 17 33 1.07072 0 34 1.07072 1
gene 1 18 32 -0.762979 0 35 -0.762979 1
gene 1 18 33 4.46099 0 36 4.46099 1
gene 1 19 32 -3.21221 0 37 -3.21221 1
gene 1 19 33 1.74421 0 38 1.74421 1
gene 1 20 32 0.327554 0 39 0.327554 1
gene 1 20 33 -1.25902 0 40 -1.25902 1
gene 1 21 32 -5 0 41 -5 1
gene 1 21 33 5 0 42 5 1
gene 1 22 32 0.663626 0 43 0.663626 1
gene 1 22 33 -2.60499 0 44 -2.60499 1
gene 1 23 32 -3.39563 0 45 -3.39563 1
gene 1 23 33 -0.0140876 0 46 -0.0140876 1
gene 1 24 32 2.90376 0 47 2.90376 1
gene 1 24 33 1.24307 0 48 1.24307 1
gene 1 25 32 -1.08743 0 49 -1.08743 1
gene 1 25 33 -1.1 0 50 -1.1 1
gene 1 26 32 1.84397 0 51 1.84397 1
gene 1 26 33 -1.3406 0 52 -1.3406 1
gene 1 27 32 -0.525176 0 53 -0.525176 1
gene 1 27 33 0.859133 0 54 0.859133 1
gene 1 28 32 -0.591624 0 55 -0.591624 1
gene 1 28 33 1.13001 0 56 1.13001 1
gene 1 29 32 1.66215 0 57 1.66215 1
gene 1 29 33 0.0211123 0 58 0.0211123 1
gene 1 30 32 -3.79176 0 59 -3.79176 1
gene 1 30 33 -5 0 60 -5 1
gene 1 31 32 -0.572453 0 61 -0.572453 1
gene 1 31 33 2.45978 0 62 2.45978 1
gene 1 1 35 -4.60595 0 63 -4.60595 1
gene 1 1 36 -0.2331 0 64 -0.2331 1
gene 1 2 35 4.76404 0 65 4.76404 1
gene 1 2 36 0.118086 0 66 0.118086 1
gene 1 3 35 0.853455 0 67 0.853455 1
gene 1 3 36 -3.07168 0 68 -3.07168 1
gene 1 4 35 -2.00454 0 69 -2.00454 1
gene 1 4 36 -1.52947 0 70 -1.52947 1
gene 1 5 35 -1.56085 0 71 -1.56085 1
gene 1 5 36 0.89372 0 72 0.89372 1
gene 1 6 35 -3.08715 0 73 -3.08715 1
gene 1 6 36 -5 0 74 -5 1
gene 1 7 35 0.172866 0 75 0.172866 1
gene 1 7 36 1.14111 0 76 1.14111 1
gene 1 8 35 0.749625 0 77 0.749625 1
gene 1 8 36 -0.100752 0 78 -0.100752 1
gene 1 9 35 0.615068 0 79 0.615068 1
gene 1 9 36 -0.450323 0 80 -0.450323 1
gene 1 10 35 -4.36476 0 81 -4.36476 1
gene 1 10 36 0.503068 0 82 0.503068 1
gene 1 11 35 -2.25112 0 83 -2.25112 1
gene 1 11 36 -0.651131 0 84 -0.651131 1
gene 1 12 35 -0.0278776 0 85 -0.0278776 1
gene 1 12 36 -0.410082 0 86 -0.410082 1
gene 1 13 35 -1.07818 0 87 -1.07818 1
gene 1 13 36 -1.08291 0 88 -1.08291 1
gene 1 14 35 -4.72301 0 89 -4.72301 1
gene 1 14 36 0.906684 0 90 0.906684 1
gene 1 15 35 -0.110267 0 91 -0.110267 1
gene 1 15 36 1.41046 0 92 1.41046 1
gene 1 16 35 0.710467 0 93 0.710467 1
gene 1 16 36 3.03077 0 94 3.03077 1
gene 1 17 35 2.08419 0 95 2.08419 1
gene 1 17 36 2.12509 0 96 2.12509 1
gene 1 18 35 4.14017 0 97 4.14017 1
gene 1 18 36 0.149271 0 98 0.149271 1
gene 1 19 35 -0.0875047 0 99 -0.0875047 1
gene 1 19 36 -1.06919 0 100 -1.06919 1
gene 1 20 35 -0.527435 0 101 -0.527435 1
gene 1 20 36 -2.98173 0 102 -2.98173 1
gene 1 21 35 0.543621 0 103 0.543621 1
gene 1 21 36 -2.64032 0 104 -2.64032 1
gene 1 22 35 -1.23712 0 105 -1.23712 1
gene 1 22 36 0.536872 0 106 0.536872 1
gene 1 23 35 0.185826 0 107 0.185826 1
gene 1 23 36 -0.323905 0 108 -0.323905 1
gene 1 24 35 -0.55428 0 109 -0.55428 1
gene 1 24 36 -0.958662 0 110 -0.958662 1
gene 1 25 35 -0.271928 0 111 -0.271928 1
gene 1 25 36 -0.684146 0 112 -0.684146 1
gene 1 26 35 -0.579792 0 113 -0.579792 1
gene 1 26 36 0.92611 0 114 0.92611 1
gene 1 27 35 -1.31558 0 115 -1.31558 1
gene 1 27 36 -1.56186 0 116 -1.56186 1
gene 1 28 35 -0.98419 0 117 -0.98419 1
gene 1 28 36 -0.361862 0 118 -0.361862 1
gene 1 29 35 0.785477 0 119 0.785477 1
gene 1 29 36 0.609871 0 120 0.609871 1
gene 1 30 35 4.38446 0 121 4.38446 1
gene 1 30 36 -1.47328 0 122 -1.47328 1
gene 1 31 35 -1.18232 0 123 -1.18232 1
gene 1 31 36 -1.26816 0 124 -1.26816 1
gene 1 35 32 0.385957 0 125 0.385957 1
gene 1 35 33 -0.992687 0 126 -0.992687 1
gene 1 35 34 -3.37221 0 127 -3.37221 1
gene 1 36 32 -0.0929955 0 128 -0.0929955 1
gene 1 36 33 0.663348 0 129 0.663348 1
gene 1 36 34 -1.88082 0 130 -1.88082 1
gene 1 35 35 -1.5673 1 131 -1.5673 1
gene 1 36 36 1.06496 1 132 1.06496 1
gene 1 34 37 0.64389 1 133 0.64389 1
gene 1 37 32 -1.80461 0 134 -1.80461 1
gene 1 37 33 0.310842 0 135 0.310842 1
gene 1 37 34 1.10465 0 136 1.10465 1
genomeend 1


