/* Organism #2 Fitness: 14524.310000 Time: 0 */
genomestart 2
trait 1 0.100000 0.000000 0.000000 0.000000 0.000000 0.000000 0.000000 0.276694 
node 1 1 1 1
node 2 1 1 1
node 3 1 1 1
node 4 1 1 1
node 5 1 1 1
node 6 1 1 1
node 7 1 1 1
node 8 1 1 1
node 9 1 1 1
node 10 1 1 1
node 11 1 1 1
node 12 1 1 1
node 13 1 1 1
node 14 1 1 1
node 15 1 1 1
node 16 1 1 1
node 17 1 1 1
node 18 1 1 1
node 19 1 1 1
node 20 1 1 1
node 21 1 1 1
node 22 1 1 1
node 23 1 1 1
node 24 1 1 1
node 25 1 1 1
node 26 1 1 1
node 27 1 1 1
node 28 1 1 1
node 29 1 1 1
node 30 1 1 1
node 31 1 1 3
node 32 1 0 2
node 33 1 0 2
node 34 1 0 2
node 35 1 0 0
node 36 1 0 0
node 37 1 0 1
gene 1 1 32 3.01549 0 1 3.01549 1
gene 1 1 33 -3.26775 0 2 -3.26775 1
gene 1 2 32 0.617372 0 3 0.617372 1
gene 1 2 33 4.01401 0 4 4.01401 1
gene 1 3 32 -4.4698 0 5 -4.4698 1
gene 1 3 33 2.96573 0 6 2.96573 1
gene 1 4 32 -4.14553 0 7 -4.14553 1
gene 1 4 33 1.22598 0 8 1.22598 1
gene 1 5 32 0.113716 0 9 0.113716 1
gene 1 5 33 1.19872 0 10 1.19872 1
gene 1 6 32 1.58001 0 11 1.58001 1
gene 1 6 33 2.12986 0 12 2.12986 1
gene 1 7 32 -0.141016 0 13 -0.141016 1
gene 1 7 33 0.395021 0 14 0.395021 1
gene 1 8 32 2.13752 0 15 2.13752 1
gene 1 8 33 -2.67946 0 16 -2.67946 1
gene 1 9 32 -2.52063 0 17 -2.52063 1
gene 1 9 33 3.61621 0 18 3.61621 1
gene 1 10 32 -0.269564 0 19 -0.269564 1
gene 1 10 33 -0.693585 0 20 -0.693585 1
gene 1 11 32 0.429196 0 21 0.429196 1
gene 1 11 33 0.224938 0 22 0.224938 1
gene 1 12 32 -0.0151826 0 23 -0.0151826 1
gene 1 12 33 0.626697 0 24 0.626697 1
gene 1 13 32 2.77913 0 25 2.77913 1
gene 1 13 33 1.34536 0 26 1.34536 1
gene 1 14 32 -2.93033 0 27 -2.93033 1
gene 1 14 33 -2.12288 0 28 -2.12288 1
gene 1 15 32 -3.03287 0 29 -3.03287 1
gene 1 15 33 1.51152 0 30 1.51152 1
gene 1 16 32 -0.59389 0 31 -0.59389 1
gene 1 16 33 -3.31911 0 32 -3.31911 1
gene 1 17 32 -0.114628 0 33 -0.114628 1
gene 1 17 33 2.50927 0 34 2.50927 1
gene 1 18 32 -1.91979 0 35 -1.91979 1
gene 1 18 33 3.20657 0 36 3.20657 1
gene 1 19 32 -4.80228 0 37 -4.80228 1
gene 1 19 33 1.47756 0 38 1.47756 1
gene 1 20 32 -4.4282 0 39 -4.4282 1
gene 1 20 33 0.196195 0 40 0.196195 1
gene 1 21 32 -3.35726 0 41 -3.35726 1
gene 1 21 33 1.62924 0 42 1.62924 1
gene 1 22 32 -1.78559 0 43 -1.78559 1
gene 1 22 33 -2.41817 0 44 -2.41817 1
gene 1 23 32 1.98361 0 45 1.98361 1
gene 1 23 33 -4.14278 0 46 -4.14278 1
gene 1 24 32 -3.09481 0 47 -3.09481 1
gene 1 24 33 -1.03779 0 48 -1.03779 1
gene 1 25 32 -3.88828 0 49 -3.88828 1
gene 1 25 33 -0.344018 0 50 -0.344018 1
gene 1 26 32 1.05985 0 51 1.05985 1
gene 1 26 33 2.03794 0 52 2.03794 1
gene 1 27 32 -1.02525 0 53 -1.02525 1
gene 1 27 33 -0.485037 0 54 -0.485037 1
gene 1 28 32 0.463975 0 55 0.463975 1
gene 1 28 33 1.02983 0 56 1.02983 1
gene 1 29 32 3.2548 0 57 3.2548 1
gene 1 29 33 3.9401 0 58 3.9401 1
gene 1 30 32 0.109064 0 59 0.109064 1
gene 1 30 33 -4.75102 0 60 -4.75102 1
gene 1 31 32 0.1133 0 61 0.1133 1
gene 1 31 33 -3.32192 0 62 -3.32192 1
gene 1 1 35 1.11077 0 63 1.11077 1
gene 1 1 36 2.07711 0 64 2.07711 1
gene 1 2 35 -0.960179 0 65 -0.960179 1
gene 1 2 36 4.20953 0 66 4.20953 1
gene 1 3 35 1.47867 0 67 1.47867 1
gene 1 3 36 -2.21708 0 68 -2.21708 1
gene 1 4 35 0.899736 0 69 0.899736 1
gene 1 4 36 1.54633 0 70 1.54633 1
gene 1 5 35 1.21017 0 71 1.21017 1
gene 1 5 36 0.774215 0 72 0.774215 1
gene 1 6 35 -0.187804 0 73 -0.187804 1
gene 1 6 36 0.504003 0 74 0.504003 1
gene 1 7 35 0.306212 0 75 0.306212 1
gene 1 7 36 -1.01878 0 76 -1.01878 1
gene 1 8 35 -4.30527 0 77 -4.30527 1
gene 1 8 36 2.70124 0 78 2.70124 1
gene 1 9 35 -3.47955 0 79 -3.47955 1
gene 1 9 36 2.76846 0 80 2.76846 1
gene 1 10 35 1.60745 0 81 1.60745 1
gene 1 10 36 0.982913 0 82 0.982913 1
gene 1 11 35 0.483981 0 83 0.483981 1
gene 1 11 36 2.58123 0 84 2.58123 1
gene 1 12 35 3.50685 0 85 3.50685 1
gene 1 12 36 -1.04214 0 86 -1.04214 1
gene 1 13 35 -0.694924 0 87 -0.694924 1
gene 1 13 36 -3.14275 0 88 -3.14275 1
gene 1 14 35 3.58464 0 89 3.58464 1
gene 1 14 36 -3.39819 0 90 -3.39819 1
gene 1 15 35 2.74034 0 91 2.74034 1
gene 1 15 36 0.710363 0 92 0.710363 1
gene 1 16 35 2.25046 0 93 2.25046 1
gene 1 16 36 3.55429 0 94 3.55429 1
gene 1 17 35 0.157789 0 95 0.157789 1
gene 1 17 36 1.50866 0 96 1.50866 1
gene 1 18 35 -4.83722 0 97 -4.83722 1
gene 1 18 36 -3.95843 0 98 -3.95843 1
gene 1 19 35 1.11986 0 99 1.11986 1
gene 1 19 36 1.71694 0 100 1.71694 1
gene 1 20 35 1.28952 0 101 1.28952 1
gene 1 20 36 0.364892 0 102 0.364892 1
gene 1 21 35 -3.93378 0 103 -3.93378 1
gene 1 21 36 0.940064 0 104 0.940064 1
gene 1 22 35 1.3642 0 105 1.3642 1
gene 1 22 36 2.81229 0 106 2.81229 1
gene 1 23 35 -0.0258371 0 107 -0.0258371 1
gene 1 23 36 -0.987873 0 108 -0.987873 1
gene 1 24 35 2.38057 0 109 2.38057 1
gene 1 24 36 -0.0962077 0 110 -0.0962077 1
gene 1 25 35 -0.547587 0 111 -0.547587 1
gene 1 25 36 0.347574 0 112 0.347574 1
gene 1 26 35 0.205097 0 113 0.205097 1
gene 1 26 36 -0.727377 0 114 -0.727377 1
gene 1 27 35 -1.99069 0 115 -1.99069 1
gene 1 27 36 1.22719 0 116 1.22719 1
gene 1 28 35 -1.17238 0 117 -1.17238 1
gene 1 28 36 0.00742503 0 118 0.00742503 1
gene 1 29 35 -1.57621 0 119 -1.57621 1
gene 1 29 36 0.282715 0 120 0.282715 1
gene 1 30 35 -0.962178 0 121 -0.962178 1
gene 1 30 36 1.1424 0 122 1.1424 1
gene 1 31 35 -0.108406 0 123 -0.108406 1
gene 1 31 36 -1.82749 0 124 -1.82749 1
gene 1 35 32 -1.51414 0 125 -1.51414 1
gene 1 35 33 -0.149926 0 126 -0.149926 1
gene 1 35 34 -1.71816 0 127 -1.71816 1
gene 1 36 32 -0.831187 0 128 -0.831187 1
gene 1 36 33 0.12395 0 129 0.12395 1
gene 1 36 34 -4.40177 0 130 -4.40177 1
gene 1 35 35 -0.69022 1 131 -0.69022 1
gene 1 36 36 0.532775 1 132 0.532775 1
gene 1 34 37 0.13827 1 133 0.13827 1
gene 1 37 32 -0.55459 0 134 -0.55459 1
gene 1 37 33 -1.53097 0 135 -1.53097 1
gene 1 37 34 -0.0249856 0 136 -0.0249856 1
genomeend 2


