/* Organism #1 Fitness: 13815.446000 Time: 0 */
genomestart 1
trait 1 0.000000 0.000000 0.000000 0.262192 0.067225 0.209378 0.046249 1.000000 
node 1 1 1 1
node 2 1 1 1
node 3 1 1 1
node 4 1 1 1
node 5 1 1 1
node 6 1 1 1
node 7 1 1 1
node 8 1 1 1
node 9 1 1 1
node 10 1 1 1
node 11 1 1 1
node 12 1 1 1
node 13 1 1 1
node 14 1 1 1
node 15 1 1 1
node 16 1 1 1
node 17 1 1 1
node 18 1 1 1
node 19 1 1 1
node 20 1 1 1
node 21 1 1 1
node 22 1 1 1
node 23 1 1 1
node 24 1 1 1
node 25 1 1 1
node 26 1 1 1
node 27 1 1 1
node 28 1 1 1
node 29 1 1 1
node 30 1 1 1
node 31 1 1 3
node 32 1 0 2
node 33 1 0 2
node 34 1 0 2
node 35 1 0 0
node 36 1 0 0
node 37 1 0 1
gene 1 1 32 -4.43761 0 1 -4.43761 1
gene 1 1 33 0.615738 0 2 0.615738 1
gene 1 2 32 -1.43423 0 3 -1.43423 1
gene 1 2 33 -2.94386 0 4 -2.94386 1
gene 1 3 32 -0.15802 0 5 -0.15802 1
gene 1 3 33 1.16903 0 6 1.16903 1
gene 1 4 32 1.36215 0 7 1.36215 1
gene 1 4 33 3.08497 0 8 3.08497 1
gene 1 5 32 0.20923 0 9 0.20923 1
gene 1 5 33 3.40928 0 10 3.40928 1
gene 1 6 32 1.56514 0 11 1.56514 1
gene 1 6 33 -3.65656 0 12 -3.65656 1
gene 1 7 32 5 0 13 5 1
gene 1 7 33 1.98202 0 14 1.98202 1
gene 1 8 32 -1.30653 0 15 -1.30653 1
gene 1 8 33 4.58011 0 16 4.58011 1
gene 1 9 32 -2.79758 0 17 -2.79758 1
gene 1 9 33 1.10416 0 18 1.10416 1
gene 1 10 32 -2.23564 0 19 -2.23564 1
gene 1 10 33 1.70353 0 20 1.70353 1
gene 1 11 32 0.499454 0 21 0.499454 1
gene 1 11 33 -1.74964 0 22 -1.74964 1
gene 1 12 32 -1.64357 0 23 -1.64357 1
gene 1 12 33 3.62968 0 24 3.62968 1
gene 1 13 32 -0.757633 0 25 -0.757633 1
gene 1 13 33 2.47152 0 26 2.47152 1
gene 1 14 32 4.29828 0 27 4.29828 1
gene 1 14 33 -0.583767 0 28 -0.583767 1
gene 1 15 32 -0.252931 0 29 -0.252931 1
gene 1 15 33 5 0 30 5 1
gene 1 16 32 0.143765 0 31 0.143765 1
gene 1 16 33 -3.10841 0 32 -3.10841 1
gene 1 17 32 1.43573 0 33 1.43573 1
gene 1 17 33 -0.0457518 0 34 -0.0457518 1
gene 1 18 32 3.49517 0 35 3.49517 1
gene 1 18 33 -1.74983 0 36 -1.74983 1
gene 1 19 32 1.54095 0 37 1.54095 1
gene 1 19 33 -3.55408 0 38 -3.55408 1
gene 1 20 32 1.51856 0 39 1.51856 1
gene 1 20 33 1.517 0 40 1.517 1
gene 1 21 32 0.806027 0 41 0.806027 1
gene 1 21 33 -0.4597 0 42 -0.4597 1
gene 1 22 32 0.670407 0 43 0.670407 1
gene 1 22 33 1.33685 0 44 1.33685 1
gene 1 23 32 -2.76838 0 45 -2.76838 1
gene 1 23 33 -1.08407 0 46 -1.08407 1
gene 1 24 32 1.08704 0 47 1.08704 1
gene 1 24 33 -0.47761 0 48 -0.47761 1
gene 1 25 32 0.105056 0 49 0.105056 1
gene 1 25 33 3.68499 0 50 3.68499 1
gene 1 26 32 -0.758577 0 51 -0.758577 1
gene 1 26 33 -4.95071 0 52 -4.95071 1
gene 1 27 32 0.923544 0 53 0.923544 1
gene 1 27 33 -0.315367 0 54 -0.315367 1
gene 1 28 32 4.59324 0 55 4.59324 1
gene 1 28 33 1.15162 0 56 1.15162 1
gene 1 29 32 0.189695 0 57 0.189695 1
gene 1 29 33 0.376367 0 58 0.376367 1
gene 1 30 32 -5 0 59 -5 1
gene 1 30 33 -5 0 60 -5 1
gene 1 31 32 2.91344 0 61 2.91344 1
gene 1 31 33 0.527213 0 62 0.527213 1
gene 1 1 35 1.82831 0 63 1.82831 1
gene 1 1 36 1.34047 0 64 1.34047 1
gene 1 2 35 5 0 65 5 1
gene 1 2 36 -2.53173 0 66 -2.53173 1
gene 1 3 35 2.0356 0 67 2.0356 1
gene 1 3 36 -1.2627 0 68 -1.2627 1
gene 1 4 35 -1.4556 0 69 -1.4556 1
gene 1 4 36 0.0979587 0 70 0.0979587 1
gene 1 5 35 3.81325 0 71 3.81325 1
gene 1 5 36 -2.2176 0 72 -2.2176 1
gene 1 6 35 0.967676 0 73 0.967676 1
gene 1 6 36 -1.11748 0 74 -1.11748 1
gene 1 7 35 0.354769 0 75 0.354769 1
gene 1 7 36 -0.0572284 0 76 -0.0572284 1
gene 1 8 35 0.717405 0 77 0.717405 1
gene 1 8 36 -1.58426 0 78 -1.58426 1
gene 1 9 35 3.10315 0 79 3.10315 1
gene 1 9 36 -0.316644 0 80 -0.316644 1
gene 1 10 35 0.31085 0 81 0.31085 1
gene 1 10 36 1.37014 0 82 1.37014 1
gene 1 11 35 -4.07761 0 83 -4.07761 1
gene 1 11 36 -0.0710629 0 84 -0.0710629 1
gene 1 12 35 -0.159669 0 85 -0.159669 1
gene 1 12 36 -3.79583 0 86 -3.79583 1
gene 1 13 35 0.925167 0 87 0.925167 1
gene 1 13 36 -1.56739 0 88 -1.56739 1
gene 1 14 35 -0.532086 0 89 -0.532086 1
gene 1 14 36 -1.29005 0 90 -1.29005 1
gene 1 15 35 -1.27609 0 91 -1.27609 1
gene 1 15 36 1.57461 0 92 1.57461 1
gene 1 16 35 -0.640107 0 93 -0.640107 1
gene 1 16 36 -4.4992 0 94 -4.4992 1
gene 1 17 35 2.9484 0 95 2.9484 1
gene 1 17 36 -0.109894 0 96 -0.109894 1
gene 1 18 35 -1.89268 0 97 -1.89268 1
gene 1 18 36 -0.613311 0 98 -0.613311 1
gene 1 19 35 -1.68422 0 99 -1.68422 1
gene 1 19 36 -0.953469 0 100 -0.953469 1
gene 1 20 35 3.32962 0 101 3.32962 1
gene 1 20 36 1.24321 0 102 1.24321 1
gene 1 21 35 -0.37365 0 103 -0.37365 1
gene 1 21 36 0.607021 0 104 0.607021 1
gene 1 22 35 -1.35947 0 105 -1.35947 1
gene 1 22 36 1.50821 0 106 1.50821 1
gene 1 23 35 -1.1166 0 107 -1.1166 1
gene 1 23 36 3.01161 0 108 3.01161 1
gene 1 24 35 -1.80683 0 109 -1.80683 1
gene 1 24 36 0.529454 0 110 0.529454 1
gene 1 25 35 -0.0675622 0 111 -0.0675622 1
gene 1 25 36 -0.22032 0 112 -0.22032 1
gene 1 26 35 -0.866833 0 113 -0.866833 1
gene 1 26 36 1.56034 0 114 1.56034 1
gene 1 27 35 0.175705 0 115 0.175705 1
gene 1 27 36 0.603682 0 116 0.603682 1
gene 1 28 35 0.46115 0 117 0.46115 1
gene 1 28 36 -0.0279401 0 118 -0.0279401 1
gene 1 29 35 -0.310383 0 119 -0.310383 1
gene 1 29 36 0.0904836 0 120 0.0904836 1
gene 1 30 35 0.215314 0 121 0.215314 1
gene 1 30 36 -0.629216 0 122 -0.629216 1
gene 1 31 35 0.0922426 0 123 0.0922426 1
gene 1 31 36 1.11896 0 124 1.11896 1
gene 1 35 32 -0.680804 0 125 -0.680804 1
gene 1 35 33 -1.55683 0 126 -1.55683 1
gene 1 35 34 -0.237234 0 127 -0.237234 1
gene 1 36 32 -0.568139 0 128 -0.568139 1
gene 1 36 33 -1.30716 0 129 -1.30716 1
gene 1 36 34 0.732177 0 130 0.732177 1
gene 1 35 35 -0.201079 1 131 -0.201079 1
gene 1 36 36 0.806362 1 132 0.806362 1
gene 1 34 37 2.04489 1 133 2.04489 1
gene 1 37 32 0.703462 0 134 0.703462 1
gene 1 37 33 -3.14033 0 135 -3.14033 1
gene 1 37 34 -3.11986 0 136 -3.11986 1
genomeend 1


