/* Organism #1 Fitness: 19919.250000 Time: 0 */
genomestart 1
trait 1 0.100000 0.000000 0.000000 0.000000 0.000000 0.000000 0.000000 0.000000 
node 1 1 1 1
node 2 1 1 1
node 3 1 1 1
node 4 1 1 1
node 5 1 1 1
node 6 1 1 1
node 7 1 1 1
node 8 1 1 1
node 9 1 1 1
node 10 1 1 1
node 11 1 1 1
node 12 1 1 1
node 13 1 1 1
node 14 1 1 1
node 15 1 1 1
node 16 1 1 1
node 17 1 1 1
node 18 1 1 1
node 19 1 1 1
node 20 1 1 1
node 21 1 1 1
node 22 1 1 1
node 23 1 1 1
node 24 1 1 1
node 25 1 1 1
node 26 1 1 1
node 27 1 1 1
node 28 1 1 3
node 29 1 0 2
node 30 1 0 2
node 31 1 0 2
node 32 1 0 2
node 33 1 0 2
gene 1 1 29 2.51184 0 1 2.51184 1
gene 1 1 30 -0.329799 0 2 -0.329799 1
gene 1 1 31 0.100306 0 3 0.100306 1
gene 1 1 32 -0.356041 0 4 -0.356041 1
gene 1 1 33 -5 0 5 -5 1
gene 1 2 29 2.14718 0 6 2.14718 1
gene 1 2 30 -0.830818 0 7 -0.830818 1
gene 1 2 31 0.302118 0 8 0.302118 1
gene 1 2 32 -0.0345902 0 9 -0.0345902 1
gene 1 2 33 -0.618583 0 10 -0.618583 1
gene 1 3 29 0.610029 0 11 0.610029 1
gene 1 3 30 3.894 0 12 3.894 1
gene 1 3 31 -0.282225 0 13 -0.282225 1
gene 1 3 32 0.0338187 0 14 0.0338187 1
gene 1 3 33 -0.297013 0 15 -0.297013 1
gene 1 4 29 0.0898954 0 16 0.0898954 1
gene 1 4 30 1.03642 0 17 1.03642 1
gene 1 4 31 1.05989 0 18 1.05989 1
gene 1 4 32 2.89655 0 19 2.89655 1
gene 1 4 33 0.568084 0 20 0.568084 1
gene 1 5 29 -1.43956 0 21 -1.43956 1
gene 1 5 30 2.52263 0 22 2.52263 1
gene 1 5 31 -0.324735 0 23 -0.324735 1
gene 1 5 32 -0.700363 0 24 -0.700363 1
gene 1 5 33 -0.103703 0 25 -0.103703 1
gene 1 6 29 4.18227 0 26 4.18227 1
gene 1 6 30 3.21816 0 27 3.21816 1
gene 1 6 31 0.607565 0 28 0.607565 1
gene 1 6 32 -2.42838 0 29 -2.42838 1
gene 1 6 33 1.82569 0 30 1.82569 1
gene 1 7 29 2.05164 0 31 2.05164 1
gene 1 7 30 0.706257 0 32 0.706257 1
gene 1 7 31 -2.87771 0 33 -2.87771 1
gene 1 7 32 0.42407 0 34 0.42407 1
gene 1 7 33 0.724539 0 35 0.724539 1
gene 1 8 29 -3.31794 0 36 -3.31794 1
gene 1 8 30 1.45155 0 37 1.45155 1
gene 1 8 31 -2.14516 0 38 -2.14516 1
gene 1 8 32 1.79873 0 39 1.79873 1
gene 1 8 33 2.7803 0 40 2.7803 1
gene 1 9 29 2.11712 0 41 2.11712 1
gene 1 9 30 4.01478 0 42 4.01478 1
gene 1 9 31 0.603748 0 43 0.603748 1
gene 1 9 32 1.23228 0 44 1.23228 1
gene 1 9 33 -0.301489 0 45 -0.301489 1
gene 1 10 29 1.00757 0 46 1.00757 1
gene 1 10 30 -3.95749 0 47 -3.95749 1
gene 1 10 31 -0.652211 0 48 -0.652211 1
gene 1 10 32 -0.338309 0 49 -0.338309 1
gene 1 10 33 1.92588 0 50 1.92588 1
gene 1 11 29 -3.06661 0 51 -3.06661 1
gene 1 11 30 -0.0772988 0 52 -0.0772988 1
gene 1 11 31 -1.75871 0 53 -1.75871 1
gene 1 11 32 1.4719 0 54 1.4719 1
gene 1 11 33 1.60766 0 55 1.60766 1
gene 1 12 29 3.14825 0 56 3.14825 1
gene 1 12 30 3.74217 0 57 3.74217 1
gene 1 12 31 3.5608 0 58 3.5608 1
gene 1 12 32 1.18276 0 59 1.18276 1
gene 1 12 33 -2.90072 0 60 -2.90072 1
gene 1 13 29 1.64849 0 61 1.64849 1
gene 1 13 30 -0.295989 0 62 -0.295989 1
gene 1 13 31 -2.03103 0 63 -2.03103 1
gene 1 13 32 -0.544661 0 64 -0.544661 1
gene 1 13 33 1.41057 0 65 1.41057 1
gene 1 14 29 -1.0617 0 66 -1.0617 1
gene 1 14 30 0.741268 0 67 0.741268 1
gene 1 14 31 0.763153 0 68 0.763153 1
gene 1 14 32 -0.214624 0 69 -0.214624 1
gene 1 14 33 1.00366 0 70 1.00366 1
gene 1 15 29 0.311202 0 71 0.311202 1
gene 1 15 30 1.13375 0 72 1.13375 1
gene 1 15 31 -1.9078 0 73 -1.9078 1
gene 1 15 32 -1.48281 0 74 -1.48281 1
gene 1 15 33 0.0941582 0 75 0.0941582 1
gene 1 16 29 -0.122874 0 76 -0.122874 1
gene 1 16 30 -3.33016 0 77 -3.33016 1
gene 1 16 31 0.844447 0 78 0.844447 1
gene 1 16 32 1.82661 0 79 1.82661 1
gene 1 16 33 -0.602285 0 80 -0.602285 1
gene 1 17 29 1.32265 0 81 1.32265 1
gene 1 17 30 1.3465 0 82 1.3465 1
gene 1 17 31 3.75142 0 83 3.75142 1
gene 1 17 32 0.794842 0 84 0.794842 1
gene 1 17 33 -2.2532 0 85 -2.2532 1
gene 1 18 29 -0.636507 0 86 -0.636507 1
gene 1 18 30 2.9074 0 87 2.9074 1
gene 1 18 31 1.21629 0 88 1.21629 1
gene 1 18 32 -0.10978 0 89 -0.10978 1
gene 1 18 33 4.89034 0 90 4.89034 1
gene 1 19 29 2.70356 0 91 2.70356 1
gene 1 19 30 4.96523 0 92 4.96523 1
gene 1 19 31 -1.44191 0 93 -1.44191 1
gene 1 19 32 -3.14234 0 94 -3.14234 1
gene 1 19 33 0.269817 0 95 0.269817 1
gene 1 20 29 1.37701 0 96 1.37701 1
gene 1 20 30 -2.57149 0 97 -2.57149 1
gene 1 20 31 0.0619929 0 98 0.0619929 1
gene 1 20 32 1.26718 0 99 1.26718 1
gene 1 20 33 1.86902 0 100 1.86902 1
gene 1 21 29 0.349707 0 101 0.349707 1
gene 1 21 30 -0.141173 0 102 -0.141173 1
gene 1 21 31 -2.22014 0 103 -2.22014 1
gene 1 21 32 2.26733 0 104 2.26733 1
gene 1 21 33 -0.650914 0 105 -0.650914 1
gene 1 22 29 1.46784 0 106 1.46784 1
gene 1 22 30 -0.209024 0 107 -0.209024 1
gene 1 22 31 0.531482 0 108 0.531482 1
gene 1 22 32 1.51154 0 109 1.51154 1
gene 1 22 33 1.54876 0 110 1.54876 1
gene 1 23 29 -1.68693 0 111 -1.68693 1
gene 1 23 30 -1.41134 0 112 -1.41134 1
gene 1 23 31 1.52337 0 113 1.52337 1
gene 1 23 32 1.98048 0 114 1.98048 1
gene 1 23 33 -1.11892 0 115 -1.11892 1
gene 1 24 29 0.700202 0 116 0.700202 1
gene 1 24 30 -0.47847 0 117 -0.47847 1
gene 1 24 31 1.02117 0 118 1.02117 1
gene 1 24 32 -1.31284 0 119 -1.31284 1
gene 1 24 33 -0.207651 0 120 -0.207651 1
gene 1 25 29 -0.0560566 0 121 -0.0560566 1
gene 1 25 30 -0.776765 0 122 -0.776765 1
gene 1 25 31 0.632682 0 123 0.632682 1
gene 1 25 32 -0.181206 0 124 -0.181206 1
gene 1 25 33 -0.636579 0 125 -0.636579 1
gene 1 26 29 0.427632 0 126 0.427632 1
gene 1 26 30 0.712406 0 127 0.712406 1
gene 1 26 31 -1.27095 0 128 -1.27095 1
gene 1 26 32 -0.499189 0 129 -0.499189 1
gene 1 26 33 -0.218554 0 130 -0.218554 1
gene 1 27 29 0.59371 0 131 0.59371 1
gene 1 27 30 -0.926969 0 132 -0.926969 1
gene 1 27 31 0.791904 0 133 0.791904 1
gene 1 27 32 -0.761506 0 134 -0.761506 1
gene 1 27 33 -0.183367 0 135 -0.183367 1
gene 1 28 29 0.474167 0 136 0.474167 1
gene 1 28 30 0.433728 0 137 0.433728 1
gene 1 28 31 -0.592807 0 138 -0.592807 1
gene 1 28 32 -1.41123 0 139 -1.41123 1
gene 1 28 33 0.805591 0 140 0.805591 1
genomeend 1


