/* Organism #4 Fitness: 16952.794000 Time: 0 */
genomestart 4
trait 1 0.000000 0.000000 0.000000 0.812896 0.909117 0.000000 0.291862 0.052786 
node 1 1 1 1
node 2 1 1 1
node 3 1 1 1
node 4 1 1 1
node 5 1 1 1
node 6 1 1 1
node 7 1 1 1
node 8 1 1 1
node 9 1 1 1
node 10 1 1 1
node 11 1 1 1
node 12 1 1 1
node 13 1 1 1
node 14 1 1 1
node 15 1 1 1
node 16 1 1 1
node 17 1 1 1
node 18 1 1 1
node 19 1 1 1
node 20 1 1 1
node 21 1 1 1
node 22 1 1 1
node 23 1 1 1
node 24 1 1 1
node 25 1 1 1
node 26 1 1 1
node 27 1 1 3
node 28 1 0 2
node 29 1 0 2
node 30 1 0 2
node 31 1 0 2
gene 1 1 28 -3.01621 0 1 -3.01621 1
gene 1 1 29 -0.589575 0 2 -0.589575 1
gene 1 1 30 0.247244 0 3 0.247244 1
gene 1 1 31 -0.549057 0 4 -0.549057 1
gene 1 2 28 0.165097 0 5 0.165097 1
gene 1 2 29 -0.590861 0 6 -0.590861 1
gene 1 2 30 1.71577 0 7 1.71577 1
gene 1 2 31 -0.0625237 0 8 -0.0625237 1
gene 1 3 28 -1.39756 0 9 -1.39756 1
gene 1 3 29 -4.48212 0 10 -4.48212 1
gene 1 3 30 -2.15894 0 11 -2.15894 1
gene 1 3 31 -2.07149 0 12 -2.07149 1
gene 1 4 28 3.46686 0 13 3.46686 1
gene 1 4 29 2.49041 0 14 2.49041 1
gene 1 4 30 4.13399 0 15 4.13399 1
gene 1 4 31 -1.44667 0 16 -1.44667 1
gene 1 5 28 1.19116 0 17 1.19116 1
gene 1 5 29 2.6627 0 18 2.6627 1
gene 1 5 30 1.6339 0 19 1.6339 1
gene 1 5 31 -3.71381 0 20 -3.71381 1
gene 1 6 28 -2.16464 0 21 -2.16464 1
gene 1 6 29 2.36647 0 22 2.36647 1
gene 1 6 30 1.37931 0 23 1.37931 1
gene 1 6 31 -4.4832 0 24 -4.4832 1
gene 1 7 28 1.20405 0 25 1.20405 1
gene 1 7 29 0.12789 0 26 0.12789 1
gene 1 7 30 -1.46253 0 27 -1.46253 1
gene 1 7 31 -4.82936 0 28 -4.82936 1
gene 1 8 28 -2.38748 0 29 -2.38748 1
gene 1 8 29 3.4064 0 30 3.4064 1
gene 1 8 30 -2.57886 0 31 -2.57886 1
gene 1 8 31 2.9317 0 32 2.9317 1
gene 1 9 28 -5 0 33 -5 1
gene 1 9 29 3.37774 0 34 3.37774 1
gene 1 9 30 3.41066 0 35 3.41066 1
gene 1 9 31 -0.583423 0 36 -0.583423 1
gene 1 10 28 -1.70306 0 37 -1.70306 1
gene 1 10 29 5 0 38 5 1
gene 1 10 30 1.87752 0 39 1.87752 1
gene 1 10 31 2.57231 0 40 2.57231 1
gene 1 11 28 3.98427 0 41 3.98427 1
gene 1 11 29 -2.39253 0 42 -2.39253 1
gene 1 11 30 -2.74903 0 43 -2.74903 1
gene 1 11 31 -0.376378 0 44 -0.376378 1
gene 1 12 28 5 0 45 5 1
gene 1 12 29 -4.54727 0 46 -4.54727 1
gene 1 12 30 0.0152494 0 47 0.0152494 1
gene 1 12 31 2.78959 0 48 2.78959 1
gene 1 13 28 -1.21372 0 49 -1.21372 1
gene 1 13 29 2.74349 0 50 2.74349 1
gene 1 13 30 5 0 51 5 1
gene 1 13 31 0.806595 0 52 0.806595 1
gene 1 14 28 -4.73474 0 53 -4.73474 1
gene 1 14 29 2.67251 0 54 2.67251 1
gene 1 14 30 -2.38687 0 55 -2.38687 1
gene 1 14 31 0.75457 0 56 0.75457 1
gene 1 15 28 -3.48715 0 57 -3.48715 1
gene 1 15 29 -0.829867 0 58 -0.829867 1
gene 1 15 30 -1.46964 0 59 -1.46964 1
gene 1 15 31 0.0649709 0 60 0.0649709 1
gene 1 16 28 0.655917 0 61 0.655917 1
gene 1 16 29 1.90033 0 62 1.90033 1
gene 1 16 30 0.626287 0 63 0.626287 1
gene 1 16 31 -5 0 64 -5 1
gene 1 17 28 0.263925 0 65 0.263925 1
gene 1 17 29 1.09794 0 66 1.09794 1
gene 1 17 30 0.266979 0 67 0.266979 1
gene 1 17 31 2.66348 0 68 2.66348 1
gene 1 18 28 -1.80173 0 69 -1.80173 1
gene 1 18 29 -2.37587 0 70 -2.37587 1
gene 1 18 30 -1.49349 0 71 -1.49349 1
gene 1 18 31 -3.3885 0 72 -3.3885 1
gene 1 19 28 -0.570831 0 73 -0.570831 1
gene 1 19 29 0.950745 0 74 0.950745 1
gene 1 19 30 1.10134 0 75 1.10134 1
gene 1 19 31 0.971875 0 76 0.971875 1
gene 1 20 28 -3.53784 0 77 -3.53784 1
gene 1 20 29 -1.839 0 78 -1.839 1
gene 1 20 30 -3.45403 0 79 -3.45403 1
gene 1 20 31 3.43174 0 80 3.43174 1
gene 1 21 28 3.84899 0 81 3.84899 1
gene 1 21 29 0.270888 0 82 0.270888 1
gene 1 21 30 0.674382 0 83 0.674382 1
gene 1 21 31 -0.797628 0 84 -0.797628 1
gene 1 22 28 2.61725 0 85 2.61725 1
gene 1 22 29 -0.398977 0 86 -0.398977 1
gene 1 22 30 -4.82565 0 87 -4.82565 1
gene 1 22 31 -1.17478 0 88 -1.17478 1
gene 1 23 28 -0.545238 0 89 -0.545238 1
gene 1 23 29 0.478662 0 90 0.478662 1
gene 1 23 30 1.73488 0 91 1.73488 1
gene 1 23 31 -0.585849 0 92 -0.585849 1
gene 1 24 28 0.771976 0 93 0.771976 1
gene 1 24 29 -0.237581 0 94 -0.237581 1
gene 1 24 30 -0.06621 0 95 -0.06621 1
gene 1 24 31 -1.40034 0 96 -1.40034 1
gene 1 25 28 4.0685 0 97 4.0685 1
gene 1 25 29 4.50267 0 98 4.50267 1
gene 1 25 30 1.33888 0 99 1.33888 1
gene 1 25 31 0.811801 0 100 0.811801 1
gene 1 26 28 -0.112419 0 101 -0.112419 1
gene 1 26 29 -0.850046 0 102 -0.850046 1
gene 1 26 30 -1.4503 0 103 -1.4503 1
gene 1 26 31 0.520658 0 104 0.520658 1
gene 1 27 28 -0.831372 0 105 -0.831372 1
gene 1 27 29 0.668575 0 106 0.668575 1
gene 1 27 30 -1.6725 0 107 -1.6725 1
gene 1 27 31 1.74955 0 108 1.74955 1
genomeend 4


