/* Organism #5 Fitness: 12746.900000 Time: 0 */
genomestart 5
trait 1 0.000000 0.530939 0.000000 0.000000 0.000000 0.000000 0.000000 0.900526 
node 1 1 1 1
node 2 1 1 1
node 3 1 1 1
node 4 1 1 1
node 5 1 1 1
node 6 1 1 1
node 7 1 1 1
node 8 1 1 1
node 9 1 1 1
node 10 1 1 1
node 11 1 1 1
node 12 1 1 1
node 13 1 1 1
node 14 1 1 1
node 15 1 1 1
node 16 1 1 1
node 17 1 1 1
node 18 1 1 1
node 19 1 1 1
node 20 1 1 1
node 21 1 1 1
node 22 1 1 1
node 23 1 1 1
node 24 1 1 1
node 25 1 1 1
node 26 1 1 1
node 27 1 1 1
node 28 1 1 1
node 29 1 1 1
node 30 1 1 3
node 31 1 0 2
node 32 1 0 2
node 33 1 0 2
gene 1 1 31 0.309479 0 1 0.309479 1
gene 1 1 32 1.02095 0 2 1.02095 1
gene 1 1 33 2.55022 0 3 2.55022 1
gene 1 2 31 1.98426 0 4 1.98426 1
gene 1 2 32 -0.298685 0 5 -0.298685 1
gene 1 2 33 0.275042 0 6 0.275042 1
gene 1 3 31 -1.75205 0 7 -1.75205 1
gene 1 3 32 0.305914 0 8 0.305914 1
gene 1 3 33 -0.0623681 0 9 -0.0623681 1
gene 1 4 31 0.373152 0 10 0.373152 1
gene 1 4 32 -2.26164 0 11 -2.26164 1
gene 1 4 33 -2.17778 0 12 -2.17778 1
gene 1 5 31 -0.193948 0 13 -0.193948 1
gene 1 5 32 1.90988 0 14 1.90988 1
gene 1 5 33 -0.283537 0 15 -0.283537 1
gene 1 6 31 -0.403774 0 16 -0.403774 1
gene 1 6 32 0.431271 0 17 0.431271 1
gene 1 6 33 -0.755715 0 18 -0.755715 1
gene 1 7 31 -0.369907 0 19 -0.369907 1
gene 1 7 32 -3.11316 0 20 -3.11316 1
gene 1 7 33 0.0838498 0 21 0.0838498 1
gene 1 8 31 0.868943 0 22 0.868943 1
gene 1 8 32 -0.454848 0 23 -0.454848 1
gene 1 8 33 -0.821594 0 24 -0.821594 1
gene 1 9 31 0.325061 0 25 0.325061 1
gene 1 9 32 5 0 26 5 1
gene 1 9 33 0.898108 0 27 0.898108 1
gene 1 10 31 1.20656 0 28 1.20656 1
gene 1 10 32 2.12907 0 29 2.12907 1
gene 1 10 33 -1.03845 0 30 -1.03845 1
gene 1 11 31 3.90121 0 31 3.90121 1
gene 1 11 32 -0.479873 0 32 -0.479873 1
gene 1 11 33 0.830389 0 33 0.830389 1
gene 1 12 31 1.2815 0 34 1.2815 1
gene 1 12 32 -3.39012 0 35 -3.39012 1
gene 1 12 33 0.0950073 0 36 0.0950073 1
gene 1 13 31 -0.127781 0 37 -0.127781 1
gene 1 13 32 -3.52676 0 38 -3.52676 1
gene 1 13 33 -0.272366 0 39 -0.272366 1
gene 1 14 31 -0.942096 0 40 -0.942096 1
gene 1 14 32 4.32943 0 41 4.32943 1
gene 1 14 33 -0.14566 0 42 -0.14566 1
gene 1 15 31 -0.491213 0 43 -0.491213 1
gene 1 15 32 3.69224 0 44 3.69224 1
gene 1 15 33 -1.08868 0 45 -1.08868 1
gene 1 16 31 0.0470162 0 46 0.0470162 1
gene 1 16 32 2.53532 0 47 2.53532 1
gene 1 16 33 0.27058 0 48 0.27058 1
gene 1 17 31 -0.407628 0 49 -0.407628 1
gene 1 17 32 -3.86606 0 50 -3.86606 1
gene 1 17 33 -0.0702943 0 51 -0.0702943 1
gene 1 18 31 -0.215089 0 52 -0.215089 1
gene 1 18 32 0.0368653 0 53 0.0368653 1
gene 1 18 33 -0.467478 0 54 -0.467478 1
gene 1 19 31 0.22077 0 55 0.22077 1
gene 1 19 32 1.92326 0 56 1.92326 1
gene 1 19 33 2.58245 0 57 2.58245 1
gene 1 20 31 0.864089 0 58 0.864089 1
gene 1 20 32 0.0924883 0 59 0.0924883 1
gene 1 20 33 -1.60011 0 60 -1.60011 1
gene 1 21 31 -1.79363 0 61 -1.79363 1
gene 1 21 32 0.652984 0 62 0.652984 1
gene 1 21 33 1.38978 0 63 1.38978 1
gene 1 22 31 -1.17851 0 64 -1.17851 1
gene 1 22 32 0.300907 0 65 0.300907 1
gene 1 22 33 -1.66018 0 66 -1.66018 1
gene 1 23 31 -4.24893 0 67 -4.24893 1
gene 1 23 32 0.314136 0 68 0.314136 1
gene 1 23 33 3.45102 0 69 3.45102 1
gene 1 24 31 0.145215 0 70 0.145215 1
gene 1 24 32 -1.59633 0 71 -1.59633 1
gene 1 24 33 0.5741 0 72 0.5741 1
gene 1 25 31 -1.54319 0 73 -1.54319 1
gene 1 25 32 0.111238 0 74 0.111238 1
gene 1 25 33 -1.78777 0 75 -1.78777 1
gene 1 26 31 -0.930028 0 76 -0.930028 1
gene 1 26 32 -0.94074 0 77 -0.94074 1
gene 1 26 33 -1.79629 0 78 -1.79629 1
gene 1 27 31 -1.84756 0 79 -1.84756 1
gene 1 27 32 0.82449 0 80 0.82449 1
gene 1 27 33 0.555747 0 81 0.555747 1
gene 1 28 31 -0.883262 0 82 -0.883262 1
gene 1 28 32 -0.505607 0 83 -0.505607 1
gene 1 28 33 -3.14788 0 84 -3.14788 1
gene 1 29 31 0.55033 0 85 0.55033 1
gene 1 29 32 1.66209 0 86 1.66209 1
gene 1 29 33 -0.31234 0 87 -0.31234 1
gene 1 30 31 -1.2271 0 88 -1.2271 1
gene 1 30 32 -0.61064 0 89 -0.61064 1
gene 1 30 33 0.758322 0 90 0.758322 1
genomeend 5


