/* Organism #2 Fitness: 10873.400000 Time: 0 */
genomestart 2
trait 1 0.000000 0.530939 0.000000 0.000000 0.000000 0.000000 0.165957 1.000000 
node 1 1 1 1
node 2 1 1 1
node 3 1 1 1
node 4 1 1 1
node 5 1 1 1
node 6 1 1 1
node 7 1 1 1
node 8 1 1 1
node 9 1 1 1
node 10 1 1 1
node 11 1 1 1
node 12 1 1 1
node 13 1 1 1
node 14 1 1 1
node 15 1 1 1
node 16 1 1 1
node 17 1 1 1
node 18 1 1 1
node 19 1 1 1
node 20 1 1 1
node 21 1 1 1
node 22 1 1 1
node 23 1 1 1
node 24 1 1 1
node 25 1 1 1
node 26 1 1 1
node 27 1 1 1
node 28 1 1 1
node 29 1 1 1
node 30 1 1 3
node 31 1 0 2
node 32 1 0 2
node 33 1 0 2
gene 1 1 31 -1.41386 0 1 -1.41386 1
gene 1 1 32 -1.45554 0 2 -1.45554 1
gene 1 1 33 0.881993 0 3 0.881993 1
gene 1 2 31 4.21489 0 4 4.21489 1
gene 1 2 32 -0.639135 0 5 -0.639135 1
gene 1 2 33 -2.5952 0 6 -2.5952 1
gene 1 3 31 -1.76444 0 7 -1.76444 1
gene 1 3 32 0.00260278 0 8 0.00260278 1
gene 1 3 33 -5 0 9 -5 1
gene 1 4 31 0.597831 0 10 0.597831 1
gene 1 4 32 4.67238 0 11 4.67238 1
gene 1 4 33 0.842122 0 12 0.842122 1
gene 1 5 31 -2.4027 0 13 -2.4027 1
gene 1 5 32 2.17347 0 14 2.17347 1
gene 1 5 33 3.816 0 15 3.816 1
gene 1 6 31 1.51015 0 16 1.51015 1
gene 1 6 32 0.658247 0 17 0.658247 1
gene 1 6 33 -0.410099 0 18 -0.410099 1
gene 1 7 31 -1.28138 0 19 -1.28138 1
gene 1 7 32 0.261278 0 20 0.261278 1
gene 1 7 33 0.0698777 0 21 0.0698777 1
gene 1 8 31 -1.04713 0 22 -1.04713 1
gene 1 8 32 2.72987 0 23 2.72987 1
gene 1 8 33 -0.540636 0 24 -0.540636 1
gene 1 9 31 0.681459 0 25 0.681459 1
gene 1 9 32 2.10897 0 26 2.10897 1
gene 1 9 33 -5 0 27 -5 1
gene 1 10 31 -2.13367 0 28 -2.13367 1
gene 1 10 32 -0.318384 0 29 -0.318384 1
gene 1 10 33 -1.57111 0 30 -1.57111 1
gene 1 11 31 0.135346 0 31 0.135346 1
gene 1 11 32 4.40952 0 32 4.40952 1
gene 1 11 33 2.77012 0 33 2.77012 1
gene 1 12 31 -2.94029 0 34 -2.94029 1
gene 1 12 32 1.21013 0 35 1.21013 1
gene 1 12 33 -1.91414 0 36 -1.91414 1
gene 1 13 31 2.24476 0 37 2.24476 1
gene 1 13 32 -4.30083 0 38 -4.30083 1
gene 1 13 33 -2.29466 0 39 -2.29466 1
gene 1 14 31 2.6932 0 40 2.6932 1
gene 1 14 32 5 0 41 5 1
gene 1 14 33 0.465065 0 42 0.465065 1
gene 1 15 31 -2.01111 0 43 -2.01111 1
gene 1 15 32 4.2823 0 44 4.2823 1
gene 1 15 33 1.13066 0 45 1.13066 1
gene 1 16 31 -1.64769 0 46 -1.64769 1
gene 1 16 32 3.29063 0 47 3.29063 1
gene 1 16 33 1.8299 0 48 1.8299 1
gene 1 17 31 -3.17062 0 49 -3.17062 1
gene 1 17 32 0.621619 0 50 0.621619 1
gene 1 17 33 3.25964 0 51 3.25964 1
gene 1 18 31 0.390193 0 52 0.390193 1
gene 1 18 32 0.642748 0 53 0.642748 1
gene 1 18 33 2.83459 0 54 2.83459 1
gene 1 19 31 -2.75408 0 55 -2.75408 1
gene 1 19 32 -0.968076 0 56 -0.968076 1
gene 1 19 33 1.87524 0 57 1.87524 1
gene 1 20 31 -1.60485 0 58 -1.60485 1
gene 1 20 32 0.474519 0 59 0.474519 1
gene 1 20 33 0.0634262 0 60 0.0634262 1
gene 1 21 31 5 0 61 5 1
gene 1 21 32 0.00439994 0 62 0.00439994 1
gene 1 21 33 0.281465 0 63 0.281465 1
gene 1 22 31 2.92338 0 64 2.92338 1
gene 1 22 32 -2.86823 0 65 -2.86823 1
gene 1 22 33 -0.660418 0 66 -0.660418 1
gene 1 23 31 0.808211 0 67 0.808211 1
gene 1 23 32 -3.46852 0 68 -3.46852 1
gene 1 23 33 4.62877 0 69 4.62877 1
gene 1 24 31 -0.561267 0 70 -0.561267 1
gene 1 24 32 1.997 0 71 1.997 1
gene 1 24 33 5 0 72 5 1
gene 1 25 31 0.598254 0 73 0.598254 1
gene 1 25 32 0.435721 0 74 0.435721 1
gene 1 25 33 1.84455 0 75 1.84455 1
gene 1 26 31 -0.732699 0 76 -0.732699 1
gene 1 26 32 -0.238841 0 77 -0.238841 1
gene 1 26 33 3.98695 0 78 3.98695 1
gene 1 27 31 -0.509831 0 79 -0.509831 1
gene 1 27 32 0.462171 0 80 0.462171 1
gene 1 27 33 -0.247339 0 81 -0.247339 1
gene 1 28 31 1.82869 0 82 1.82869 1
gene 1 28 32 1.01162 0 83 1.01162 1
gene 1 28 33 0.58171 0 84 0.58171 1
gene 1 29 31 1.53013 0 85 1.53013 1
gene 1 29 32 -0.914218 0 86 -0.914218 1
gene 1 29 33 0.678574 0 87 0.678574 1
gene 1 30 31 -2.70061 0 88 -2.70061 1
gene 1 30 32 -1.94544 0 89 -1.94544 1
gene 1 30 33 -0.306302 0 90 -0.306302 1
genomeend 2


