
/* Species #1 : (Size 100) (AF 0) (Age 100)  */


/* Organism #0 Fitness: 13589.5 Error: 0 */
genomestart 0
trait 1 0.0896452 0 0.949784 0 0 0 0 0.148593 
node 1 1 1 1
node 2 1 1 1
node 3 1 1 1
node 4 1 1 1
node 5 1 1 1
node 6 1 1 1
node 7 1 1 1
node 8 1 1 1
node 9 1 1 1
node 10 1 1 1
node 11 1 1 1
node 12 1 1 1
node 13 1 1 1
node 14 1 1 1
node 15 1 1 1
node 16 1 1 1
node 17 1 1 1
node 18 1 1 1
node 19 1 1 1
node 20 1 1 1
node 21 1 1 1
node 22 1 1 1
node 23 1 1 1
node 24 1 1 1
node 25 1 1 1
node 26 1 1 1
node 27 1 1 1
node 28 1 1 1
node 29 1 1 1
node 30 1 1 3
node 31 1 0 2
node 32 1 0 2
node 33 1 0 2
gene 1 1 31 -0.723465 0 1 -0.723465 1
gene 1 1 32 -1.26234 0 2 -1.26234 1
gene 1 1 33 1.52963 0 3 1.52963 1
gene 1 2 31 -0.443502 0 4 -0.443502 1
gene 1 2 32 3.0734 0 5 3.0734 1
gene 1 2 33 1.39356 0 6 1.39356 1
gene 1 3 31 -0.248588 0 7 -0.248588 1
gene 1 3 32 2.3272 0 8 2.3272 1
gene 1 3 33 -2.56806 0 9 -2.56806 1
gene 1 4 31 2.34664 0 10 2.34664 1
gene 1 4 32 0.960469 0 11 0.960469 1
gene 1 4 33 4.15064 0 12 4.15064 1
gene 1 5 31 0.3161 0 13 0.3161 1
gene 1 5 32 1.82912 0 14 1.82912 1
gene 1 5 33 -0.545517 0 15 -0.545517 1
gene 1 6 31 0.728259 0 16 0.728259 1
gene 1 6 32 3.10975 0 17 3.10975 1
gene 1 6 33 1.25977 0 18 1.25977 1
gene 1 7 31 -0.472226 0 19 -0.472226 1
gene 1 7 32 0.204728 0 20 0.204728 1
gene 1 7 33 -0.617615 0 21 -0.617615 1
gene 1 8 31 -2.76682 0 22 -2.76682 1
gene 1 8 32 -0.316797 0 23 -0.316797 1
gene 1 8 33 -4.02021 0 24 -4.02021 1
gene 1 9 31 1.84672 0 25 1.84672 1
gene 1 9 32 0.737788 0 26 0.737788 1
gene 1 9 33 -2.65921 0 27 -2.65921 1
gene 1 10 31 -0.630413 0 28 -0.630413 1
gene 1 10 32 -1.77552 0 29 -1.77552 1
gene 1 10 33 1.20438 0 30 1.20438 1
gene 1 11 31 -0.086647 0 31 -0.086647 1
gene 1 11 32 -2.32602 0 32 -2.32602 1
gene 1 11 33 -1.28559 0 33 -1.28559 1
gene 1 12 31 -2.25715 0 34 -2.25715 1
gene 1 12 32 -2.42475 0 35 -2.42475 1
gene 1 12 33 3.60528 0 36 3.60528 1
gene 1 13 31 0.912577 0 37 0.912577 1
gene 1 13 32 4.3399 0 38 4.3399 1
gene 1 13 33 2.11938 0 39 2.11938 1
gene 1 14 31 -1.02403 0 40 -1.02403 1
gene 1 14 32 2.97838 0 41 2.97838 1
gene 1 14 33 -0.633392 0 42 -0.633392 1
gene 1 15 31 -3.53826 0 43 -3.53826 1
gene 1 15 32 -1.23782 0 44 -1.23782 1
gene 1 15 33 -4.98555 0 45 -4.98555 1
gene 1 16 31 -2.57144 0 46 -2.57144 1
gene 1 16 32 -0.0319519 0 47 -0.0319519 1
gene 1 16 33 -2.33651 0 48 -2.33651 1
gene 1 17 31 -5 0 49 -5 1
gene 1 17 32 -4.1675 0 50 -4.1675 1
gene 1 17 33 2.24179 0 51 2.24179 1
gene 1 18 31 1.63237 0 52 1.63237 1
gene 1 18 32 -3.44947 0 53 -3.44947 1
gene 1 18 33 1.39229 0 54 1.39229 1
gene 1 19 31 -1.60439 0 55 -1.60439 1
gene 1 19 32 -1.47954 0 56 -1.47954 1
gene 1 19 33 -1.02732 0 57 -1.02732 1
gene 1 20 31 -1.99551 0 58 -1.99551 1
gene 1 20 32 1.123 0 59 1.123 1
gene 1 20 33 2.22633 0 60 2.22633 1
gene 1 21 31 -0.729917 0 61 -0.729917 1
gene 1 21 32 0.319089 0 62 0.319089 1
gene 1 21 33 -2.70571 0 63 -2.70571 1
gene 1 22 31 0.142153 0 64 0.142153 1
gene 1 22 32 -0.127271 0 65 -0.127271 1
gene 1 22 33 1.15968 0 66 1.15968 1
gene 1 23 31 4.02926 0 67 4.02926 1
gene 1 23 32 -1.03593 0 68 -1.03593 1
gene 1 23 33 2.3796 0 69 2.3796 1
gene 1 24 31 0.81862 0 70 0.81862 1
gene 1 24 32 -2.58294 0 71 -2.58294 1
gene 1 24 33 -1.68989 0 72 -1.68989 1
gene 1 25 31 1.76135 0 73 1.76135 1
gene 1 25 32 -0.840124 0 74 -0.840124 1
gene 1 25 33 -0.299208 0 75 -0.299208 1
gene 1 26 31 0.617802 0 76 0.617802 1
gene 1 26 32 -0.453219 0 77 -0.453219 1
gene 1 26 33 -0.66086 0 78 -0.66086 1
gene 1 27 31 0.408857 0 79 0.408857 1
gene 1 27 32 -0.7623 0 80 -0.7623 1
gene 1 27 33 -0.832358 0 81 -0.832358 1
gene 1 28 31 -2.57477 0 82 -2.57477 1
gene 1 28 32 0.626525 0 83 0.626525 1
gene 1 28 33 0.288203 0 84 0.288203 1
gene 1 29 31 -0.045295 0 85 -0.045295 1
gene 1 29 32 0.399005 0 86 0.399005 1
gene 1 29 33 -0.250812 0 87 -0.250812 1
gene 1 30 31 -1.05016 0 88 -1.05016 1
gene 1 30 32 0.392332 0 89 0.392332 1
gene 1 30 33 -0.441544 0 90 -0.441544 1
genomeend 0

/* Organism #1 Fitness: 14638.5 Error: 0 */
genomestart 1
trait 1 0.0896452 0 0.949784 0 0 0 0 0.148593 
node 1 1 1 1
node 2 1 1 1
node 3 1 1 1
node 4 1 1 1
node 5 1 1 1
node 6 1 1 1
node 7 1 1 1
node 8 1 1 1
node 9 1 1 1
node 10 1 1 1
node 11 1 1 1
node 12 1 1 1
node 13 1 1 1
node 14 1 1 1
node 15 1 1 1
node 16 1 1 1
node 17 1 1 1
node 18 1 1 1
node 19 1 1 1
node 20 1 1 1
node 21 1 1 1
node 22 1 1 1
node 23 1 1 1
node 24 1 1 1
node 25 1 1 1
node 26 1 1 1
node 27 1 1 1
node 28 1 1 1
node 29 1 1 1
node 30 1 1 3
node 31 1 0 2
node 32 1 0 2
node 33 1 0 2
gene 1 1 31 -0.790601 0 1 -0.790601 1
gene 1 1 32 -1.43207 0 2 -1.43207 1
gene 1 1 33 2.37041 0 3 2.37041 1
gene 1 2 31 -1.16388 0 4 -1.16388 1
gene 1 2 32 2.77031 0 5 2.77031 1
gene 1 2 33 1.41959 0 6 1.41959 1
gene 1 3 31 -0.360603 0 7 -0.360603 1
gene 1 3 32 3.30503 0 8 3.30503 1
gene 1 3 33 -2.82598 0 9 -2.82598 1
gene 1 4 31 1.57596 0 10 1.57596 1
gene 1 4 32 0.713999 0 11 0.713999 1
gene 1 4 33 3.80601 0 12 3.80601 1
gene 1 5 31 1.30097 0 13 1.30097 1
gene 1 5 32 1.21755 0 14 1.21755 1
gene 1 5 33 -0.411994 0 15 -0.411994 1
gene 1 6 31 -0.21346 0 16 -0.21346 1
gene 1 6 32 3.16625 0 17 3.16625 1
gene 1 6 33 1.42194 0 18 1.42194 1
gene 1 7 31 -0.870614 0 19 -0.870614 1
gene 1 7 32 -0.0827971 0 20 -0.0827971 1
gene 1 7 33 -1.01058 0 21 -1.01058 1
gene 1 8 31 -3.20863 0 22 -3.20863 1
gene 1 8 32 -0.347117 0 23 -0.347117 1
gene 1 8 33 -3.18187 0 24 -3.18187 1
gene 1 9 31 2.04122 0 25 2.04122 1
gene 1 9 32 1.18751 0 26 1.18751 1
gene 1 9 33 -3.65014 0 27 -3.65014 1
gene 1 10 31 -0.930432 0 28 -0.930432 1
gene 1 10 32 -2.63716 0 29 -2.63716 1
gene 1 10 33 2.02946 0 30 2.02946 1
gene 1 11 31 -0.675511 0 31 -0.675511 1
gene 1 11 32 -1.91757 0 32 -1.91757 1
gene 1 11 33 -0.487503 0 33 -0.487503 1
gene 1 12 31 -2.05243 0 34 -2.05243 1
gene 1 12 32 -1.55905 0 35 -1.55905 1
gene 1 12 33 2.93641 0 36 2.93641 1
gene 1 13 31 1.77165 0 37 1.77165 1
gene 1 13 32 3.35802 0 38 3.35802 1
gene 1 13 33 1.84118 0 39 1.84118 1
gene 1 14 31 -1.39013 0 40 -1.39013 1
gene 1 14 32 2.61432 0 41 2.61432 1
gene 1 14 33 -1.60752 0 42 -1.60752 1
gene 1 15 31 -3.7332 0 43 -3.7332 1
gene 1 15 32 -1.50126 0 44 -1.50126 1
gene 1 15 33 -5 0 45 -5 1
gene 1 16 31 -1.63039 0 46 -1.63039 1
gene 1 16 32 -0.745153 0 47 -0.745153 1
gene 1 16 33 -2.04544 0 48 -2.04544 1
gene 1 17 31 -5 0 49 -5 1
gene 1 17 32 -4.00412 0 50 -4.00412 1
gene 1 17 33 2.46859 0 51 2.46859 1
gene 1 18 31 1.76087 0 52 1.76087 1
gene 1 18 32 -4.29423 0 53 -4.29423 1
gene 1 18 33 0.626645 0 54 0.626645 1
gene 1 19 31 -2.49993 0 55 -2.49993 1
gene 1 19 32 -1.37308 0 56 -1.37308 1
gene 1 19 33 -0.570212 0 57 -0.570212 1
gene 1 20 31 -1.94157 0 58 -1.94157 1
gene 1 20 32 1.61598 0 59 1.61598 1
gene 1 20 33 3.04372 0 60 3.04372 1
gene 1 21 31 0.0732487 0 61 0.0732487 1
gene 1 21 32 0.272829 0 62 0.272829 1
gene 1 21 33 -2.34179 0 63 -2.34179 1
gene 1 22 31 -0.265272 0 64 -0.265272 1
gene 1 22 32 -0.0915172 0 65 -0.0915172 1
gene 1 22 33 1.38004 0 66 1.38004 1
gene 1 23 31 4.69402 0 67 4.69402 1
gene 1 23 32 -0.510785 0 68 -0.510785 1
gene 1 23 33 3.00665 0 69 3.00665 1
gene 1 24 31 0.863823 0 70 0.863823 1
gene 1 24 32 -2.03238 0 71 -2.03238 1
gene 1 24 33 -0.976253 0 72 -0.976253 1
gene 1 25 31 2.65404 0 73 2.65404 1
gene 1 25 32 -0.953171 0 74 -0.953171 1
gene 1 25 33 -0.826385 0 75 -0.826385 1
gene 1 26 31 0.456606 0 76 0.456606 1
gene 1 26 32 -0.453219 0 77 -0.453219 1
gene 1 26 33 -0.954378 0 78 -0.954378 1
gene 1 27 31 -0.557979 0 79 -0.557979 1
gene 1 27 32 -0.7623 0 80 -0.7623 1
gene 1 27 33 -0.506897 0 81 -0.506897 1
gene 1 28 31 -2.53567 0 82 -2.53567 1
gene 1 28 32 -0.161968 0 83 -0.161968 1
gene 1 28 33 -0.339367 0 84 -0.339367 1
gene 1 29 31 -0.882364 0 85 -0.882364 1
gene 1 29 32 0.586977 0 86 0.586977 1
gene 1 29 33 -0.186792 0 87 -0.186792 1
gene 1 30 31 -0.781777 0 88 -0.781777 1
gene 1 30 32 0.762189 0 89 0.762189 1
gene 1 30 33 0.416102 0 90 0.416102 1
genomeend 1

/* Organism #2 Fitness: 14736.4 Error: 0 */
genomestart 2
trait 1 0.0896452 0 1 0 0 0 0 0.148593 
node 1 1 1 1
node 2 1 1 1
node 3 1 1 1
node 4 1 1 1
node 5 1 1 1
node 6 1 1 1
node 7 1 1 1
node 8 1 1 1
node 9 1 1 1
node 10 1 1 1
node 11 1 1 1
node 12 1 1 1
node 13 1 1 1
node 14 1 1 1
node 15 1 1 1
node 16 1 1 1
node 17 1 1 1
node 18 1 1 1
node 19 1 1 1
node 20 1 1 1
node 21 1 1 1
node 22 1 1 1
node 23 1 1 1
node 24 1 1 1
node 25 1 1 1
node 26 1 1 1
node 27 1 1 1
node 28 1 1 1
node 29 1 1 1
node 30 1 1 3
node 31 1 0 2
node 32 1 0 2
node 33 1 0 2
gene 1 1 31 0.975269 0 1 0.975269 1
gene 1 1 32 -1.69576 0 2 -1.69576 1
gene 1 1 33 0.646382 0 3 0.646382 1
gene 1 2 31 -0.01298 0 4 -0.01298 1
gene 1 2 32 3.10668 0 5 3.10668 1
gene 1 2 33 2.73721 0 6 2.73721 1
gene 1 3 31 0.180484 0 7 0.180484 1
gene 1 3 32 2.44307 0 8 2.44307 1
gene 1 3 33 -3.09526 0 9 -3.09526 1
gene 1 4 31 2.03129 0 10 2.03129 1
gene 1 4 32 1.22184 0 11 1.22184 1
gene 1 4 33 3.88134 0 12 3.88134 1
gene 1 5 31 -2.30948 0 13 -2.30948 1
gene 1 5 32 3.46689 0 14 3.46689 1
gene 1 5 33 2.84617 0 15 2.84617 1
gene 1 6 31 0.8534 0 16 0.8534 1
gene 1 6 32 2.50984 0 17 2.50984 1
gene 1 6 33 1.68885 0 18 1.68885 1
gene 1 7 31 -0.215439 0 19 -0.215439 1
gene 1 7 32 1.10601 0 20 1.10601 1
gene 1 7 33 1.78881 0 21 1.78881 1
gene 1 8 31 -1.83346 0 22 -1.83346 1
gene 1 8 32 -2.18836 0 23 -2.18836 1
gene 1 8 33 -1.85075 0 24 -1.85075 1
gene 1 9 31 1.37486 0 25 1.37486 1
gene 1 9 32 -0.492764 0 26 -0.492764 1
gene 1 9 33 -2.18282 0 27 -2.18282 1
gene 1 10 31 -1.06849 0 28 -1.06849 1
gene 1 10 32 -3.04729 0 29 -3.04729 1
gene 1 10 33 1.43059 0 30 1.43059 1
gene 1 11 31 0.158183 0 31 0.158183 1
gene 1 11 32 -0.832843 0 32 -0.832843 1
gene 1 11 33 -1.62386 0 33 -1.62386 1
gene 1 12 31 -0.553593 0 34 -0.553593 1
gene 1 12 32 -1.06233 0 35 -1.06233 1
gene 1 12 33 2.83188 0 36 2.83188 1
gene 1 13 31 1.01868 0 37 1.01868 1
gene 1 13 32 3.11707 0 38 3.11707 1
gene 1 13 33 1.61919 0 39 1.61919 1
gene 1 14 31 0.285699 0 40 0.285699 1
gene 1 14 32 1.56447 0 41 1.56447 1
gene 1 14 33 -0.272251 0 42 -0.272251 1
gene 1 15 31 -1.23001 0 43 -1.23001 1
gene 1 15 32 -1.35556 0 44 -1.35556 1
gene 1 15 33 -5 0 45 -5 1
gene 1 16 31 -0.609664 0 46 -0.609664 1
gene 1 16 32 0.354442 0 47 0.354442 1
gene 1 16 33 -3.6367 0 48 -3.6367 1
gene 1 17 31 -4.95334 0 49 -4.95334 1
gene 1 17 32 -3.11741 0 50 -3.11741 1
gene 1 17 33 3.03239 0 51 3.03239 1
gene 1 18 31 1.42608 0 52 1.42608 1
gene 1 18 32 -4.16877 0 53 -4.16877 1
gene 1 18 33 0.25847 0 54 0.25847 1
gene 1 19 31 -1.85379 0 55 -1.85379 1
gene 1 19 32 -2.16258 0 56 -2.16258 1
gene 1 19 33 -1.04168 0 57 -1.04168 1
gene 1 20 31 -1.72556 0 58 -1.72556 1
gene 1 20 32 1.01052 0 59 1.01052 1
gene 1 20 33 3.5364 0 60 3.5364 1
gene 1 21 31 0.20056 0 61 0.20056 1
gene 1 21 32 -0.965689 0 62 -0.965689 1
gene 1 21 33 -0.728111 0 63 -0.728111 1
gene 1 22 31 1.36218 0 64 1.36218 1
gene 1 22 32 -1.64367 0 65 -1.64367 1
gene 1 22 33 1.76571 0 66 1.76571 1
gene 1 23 31 5 0 67 5 1
gene 1 23 32 -1.10835 0 68 -1.10835 1
gene 1 23 33 4.05045 0 69 4.05045 1
gene 1 24 31 1.73626 0 70 1.73626 1
gene 1 24 32 -0.424844 0 71 -0.424844 1
gene 1 24 33 -1.63529 0 72 -1.63529 1
gene 1 25 31 1.32542 0 73 1.32542 1
gene 1 25 32 0.352466 0 74 0.352466 1
gene 1 25 33 -1.81156 0 75 -1.81156 1
gene 1 26 31 0.32842 0 76 0.32842 1
gene 1 26 32 -0.576375 0 77 -0.576375 1
gene 1 26 33 -0.19574 0 78 -0.19574 1
gene 1 27 31 0.610921 0 79 0.610921 1
gene 1 27 32 -1.57992 0 80 -1.57992 1
gene 1 27 33 -0.669174 0 81 -0.669174 1
gene 1 28 31 -2.37959 0 82 -2.37959 1
gene 1 28 32 1.02715 0 83 1.02715 1
gene 1 28 33 0.288203 0 84 0.288203 1
gene 1 29 31 -0.300547 0 85 -0.300547 1
gene 1 29 32 -0.609784 0 86 -0.609784 1
gene 1 29 33 0.0260172 0 87 0.0260172 1
gene 1 30 31 -0.939729 0 88 -0.939729 1
gene 1 30 32 -0.253089 0 89 -0.253089 1
gene 1 30 33 0.576439 0 90 0.576439 1
genomeend 2

/* Organism #3 Fitness: 14127.6 Error: 0 */
genomestart 3
trait 1 0.0896452 0 0.949784 0 0 0 0 0.148593 
node 1 1 1 1
node 2 1 1 1
node 3 1 1 1
node 4 1 1 1
node 5 1 1 1
node 6 1 1 1
node 7 1 1 1
node 8 1 1 1
node 9 1 1 1
node 10 1 1 1
node 11 1 1 1
node 12 1 1 1
node 13 1 1 1
node 14 1 1 1
node 15 1 1 1
node 16 1 1 1
node 17 1 1 1
node 18 1 1 1
node 19 1 1 1
node 20 1 1 1
node 21 1 1 1
node 22 1 1 1
node 23 1 1 1
node 24 1 1 1
node 25 1 1 1
node 26 1 1 1
node 27 1 1 1
node 28 1 1 1
node 29 1 1 1
node 30 1 1 3
node 31 1 0 2
node 32 1 0 2
node 33 1 0 2
gene 1 1 31 -0.103439 0 1 -0.103439 1
gene 1 1 32 -0.535531 0 2 -0.535531 1
gene 1 1 33 2.87741 0 3 2.87741 1
gene 1 2 31 -0.0468569 0 4 -0.0468569 1
gene 1 2 32 2.57611 0 5 2.57611 1
gene 1 2 33 1.62459 0 6 1.62459 1
gene 1 3 31 0.0602221 0 7 0.0602221 1
gene 1 3 32 2.09021 0 8 2.09021 1
gene 1 3 33 -1.6495 0 9 -1.6495 1
gene 1 4 31 2.69153 0 10 2.69153 1
gene 1 4 32 2.39406 0 11 2.39406 1
gene 1 4 33 4.51444 0 12 4.51444 1
gene 1 5 31 -0.877137 0 13 -0.877137 1
gene 1 5 32 2.12641 0 14 2.12641 1
gene 1 5 33 0.847106 0 15 0.847106 1
gene 1 6 31 3.01153 0 16 3.01153 1
gene 1 6 32 2.43548 0 17 2.43548 1
gene 1 6 33 0.535075 0 18 0.535075 1
gene 1 7 31 0.180625 0 19 0.180625 1
gene 1 7 32 0.532987 0 20 0.532987 1
gene 1 7 33 0.285297 0 21 0.285297 1
gene 1 8 31 -2.56172 0 22 -2.56172 1
gene 1 8 32 -0.80648 0 23 -0.80648 1
gene 1 8 33 -1.88833 0 24 -1.88833 1
gene 1 9 31 1.98259 0 25 1.98259 1
gene 1 9 32 0.491498 0 26 0.491498 1
gene 1 9 33 -1.67036 0 27 -1.67036 1
gene 1 10 31 -1.41978 0 28 -1.41978 1
gene 1 10 32 -2.3271 0 29 -2.3271 1
gene 1 10 33 1.56253 0 30 1.56253 1
gene 1 11 31 0.0577011 0 31 0.0577011 1
gene 1 11 32 -1.86433 0 32 -1.86433 1
gene 1 11 33 -1.32065 0 33 -1.32065 1
gene 1 12 31 -0.308659 0 34 -0.308659 1
gene 1 12 32 -1.74389 0 35 -1.74389 1
gene 1 12 33 1.5166 0 36 1.5166 1
gene 1 13 31 0.83819 0 37 0.83819 1
gene 1 13 32 3.01361 0 38 3.01361 1
gene 1 13 33 3.05502 0 39 3.05502 1
gene 1 14 31 -0.129862 0 40 -0.129862 1
gene 1 14 32 3.54317 0 41 3.54317 1
gene 1 14 33 -0.67604 0 42 -0.67604 1
gene 1 15 31 -2.54094 0 43 -2.54094 1
gene 1 15 32 -0.437803 0 44 -0.437803 1
gene 1 15 33 -5 0 45 -5 1
gene 1 16 31 -1.35208 0 46 -1.35208 1
gene 1 16 32 -0.198345 0 47 -0.198345 1
gene 1 16 33 -1.05125 0 48 -1.05125 1
gene 1 17 31 -4.56027 0 49 -4.56027 1
gene 1 17 32 -3.88649 0 50 -3.88649 1
gene 1 17 33 2.22013 0 51 2.22013 1
gene 1 18 31 0.510361 0 52 0.510361 1
gene 1 18 32 -4.15209 0 53 -4.15209 1
gene 1 18 33 2.12175 0 54 2.12175 1
gene 1 19 31 -1.07305 0 55 -1.07305 1
gene 1 19 32 -2.48582 0 56 -2.48582 1
gene 1 19 33 -0.75415 0 57 -0.75415 1
gene 1 20 31 -1.94359 0 58 -1.94359 1
gene 1 20 32 0.286575 0 59 0.286575 1
gene 1 20 33 2.40785 0 60 2.40785 1
gene 1 21 31 -0.706853 0 61 -0.706853 1
gene 1 21 32 -0.269505 0 62 -0.269505 1
gene 1 21 33 -0.621201 0 63 -0.621201 1
gene 1 22 31 0.308236 0 64 0.308236 1
gene 1 22 32 0.461624 0 65 0.461624 1
gene 1 22 33 -0.496188 0 66 -0.496188 1
gene 1 23 31 3.31078 0 67 3.31078 1
gene 1 23 32 -1.11672 0 68 -1.11672 1
gene 1 23 33 2.05101 0 69 2.05101 1
gene 1 24 31 2.77806 0 70 2.77806 1
gene 1 24 32 -0.597727 0 71 -0.597727 1
gene 1 24 33 -0.978599 0 72 -0.978599 1
gene 1 25 31 1.35084 0 73 1.35084 1
gene 1 25 32 -0.215209 0 74 -0.215209 1
gene 1 25 33 -0.561547 0 75 -0.561547 1
gene 1 26 31 1.23134 0 76 1.23134 1
gene 1 26 32 0.464628 0 77 0.464628 1
gene 1 26 33 -0.120161 0 78 -0.120161 1
gene 1 27 31 -0.0424314 0 79 -0.0424314 1
gene 1 27 32 -0.647223 0 80 -0.647223 1
gene 1 27 33 -0.402621 0 81 -0.402621 1
gene 1 28 31 -1.85012 0 82 -1.85012 1
gene 1 28 32 0.736203 0 83 0.736203 1
gene 1 28 33 0.288203 0 84 0.288203 1
gene 1 29 31 1.02598 0 85 1.02598 1
gene 1 29 32 0.0318026 0 86 0.0318026 1
gene 1 29 33 -0.103839 0 87 -0.103839 1
gene 1 30 31 -0.939729 0 88 -0.939729 1
gene 1 30 32 0.714896 0 89 0.714896 1
gene 1 30 33 -0.603143 0 90 -0.603143 1
genomeend 3

/* Organism #4 Fitness: 13626.3 Error: 0 */
genomestart 4
trait 1 0.0896452 0 0.949784 0 0 0 0 0.148593 
node 1 1 1 1
node 2 1 1 1
node 3 1 1 1
node 4 1 1 1
node 5 1 1 1
node 6 1 1 1
node 7 1 1 1
node 8 1 1 1
node 9 1 1 1
node 10 1 1 1
node 11 1 1 1
node 12 1 1 1
node 13 1 1 1
node 14 1 1 1
node 15 1 1 1
node 16 1 1 1
node 17 1 1 1
node 18 1 1 1
node 19 1 1 1
node 20 1 1 1
node 21 1 1 1
node 22 1 1 1
node 23 1 1 1
node 24 1 1 1
node 25 1 1 1
node 26 1 1 1
node 27 1 1 1
node 28 1 1 1
node 29 1 1 1
node 30 1 1 3
node 31 1 0 2
node 32 1 0 2
node 33 1 0 2
gene 1 1 31 0.261779 0 1 0.261779 1
gene 1 1 32 -1.93249 0 2 -1.93249 1
gene 1 1 33 1.45189 0 3 1.45189 1
gene 1 2 31 -0.807324 0 4 -0.807324 1
gene 1 2 32 2.72126 0 5 2.72126 1
gene 1 2 33 0.726975 0 6 0.726975 1
gene 1 3 31 -0.933702 0 7 -0.933702 1
gene 1 3 32 3.20245 0 8 3.20245 1
gene 1 3 33 -1.86042 0 9 -1.86042 1
gene 1 4 31 3.24347 0 10 3.24347 1
gene 1 4 32 1.20592 0 11 1.20592 1
gene 1 4 33 4.25355 0 12 4.25355 1
gene 1 5 31 0.972318 0 13 0.972318 1
gene 1 5 32 2.17298 0 14 2.17298 1
gene 1 5 33 0.00866958 0 15 0.00866958 1
gene 1 6 31 0.531854 0 16 0.531854 1
gene 1 6 32 3.60351 0 17 3.60351 1
gene 1 6 33 1.72686 0 18 1.72686 1
gene 1 7 31 -0.925412 0 19 -0.925412 1
gene 1 7 32 0.267753 0 20 0.267753 1
gene 1 7 33 0.123911 0 21 0.123911 1
gene 1 8 31 -2.73782 0 22 -2.73782 1
gene 1 8 32 0.29352 0 23 0.29352 1
gene 1 8 33 -4.726 0 24 -4.726 1
gene 1 9 31 1.23235 0 25 1.23235 1
gene 1 9 32 1.25161 0 26 1.25161 1
gene 1 9 33 -2.70194 0 27 -2.70194 1
gene 1 10 31 -1.44754 0 28 -1.44754 1
gene 1 10 32 -2.44453 0 29 -2.44453 1
gene 1 10 33 2.12744 0 30 2.12744 1
gene 1 11 31 -0.142089 0 31 -0.142089 1
gene 1 11 32 -1.72963 0 32 -1.72963 1
gene 1 11 33 -1.32904 0 33 -1.32904 1
gene 1 12 31 -2.76338 0 34 -2.76338 1
gene 1 12 32 -2.62682 0 35 -2.62682 1
gene 1 12 33 3.02366 0 36 3.02366 1
gene 1 13 31 0.565829 0 37 0.565829 1
gene 1 13 32 5 0 38 5 1
gene 1 13 33 2.64309 0 39 2.64309 1
gene 1 14 31 -1.21816 0 40 -1.21816 1
gene 1 14 32 3.28707 0 41 3.28707 1
gene 1 14 33 0.0759476 0 42 0.0759476 1
gene 1 15 31 -3.90477 0 43 -3.90477 1
gene 1 15 32 -0.739518 0 44 -0.739518 1
gene 1 15 33 -4.25515 0 45 -4.25515 1
gene 1 16 31 -2.19414 0 46 -2.19414 1
gene 1 16 32 -0.0932548 0 47 -0.0932548 1
gene 1 16 33 -2.63772 0 48 -2.63772 1
gene 1 17 31 -4.02493 0 49 -4.02493 1
gene 1 17 32 -4.7745 0 50 -4.7745 1
gene 1 17 33 3.0491 0 51 3.0491 1
gene 1 18 31 1.59743 0 52 1.59743 1
gene 1 18 32 -3.18165 0 53 -3.18165 1
gene 1 18 33 1.57585 0 54 1.57585 1
gene 1 19 31 -2.37035 0 55 -2.37035 1
gene 1 19 32 -0.560315 0 56 -0.560315 1
gene 1 19 33 -1.30851 0 57 -1.30851 1
gene 1 20 31 -1.10489 0 58 -1.10489 1
gene 1 20 32 0.422025 0 59 0.422025 1
gene 1 20 33 3.13008 0 60 3.13008 1
gene 1 21 31 -1.14967 0 61 -1.14967 1
gene 1 21 32 0.119269 0 62 0.119269 1
gene 1 21 33 -1.77565 0 63 -1.77565 1
gene 1 22 31 0.483968 0 64 0.483968 1
gene 1 22 32 -0.939166 0 65 -0.939166 1
gene 1 22 33 1.65648 0 66 1.65648 1
gene 1 23 31 3.873 0 67 3.873 1
gene 1 23 32 -1.59413 0 68 -1.59413 1
gene 1 23 33 1.96733 0 69 1.96733 1
gene 1 24 31 0.407538 0 70 0.407538 1
gene 1 24 32 -3.3609 0 71 -3.3609 1
gene 1 24 33 -1.3691 0 72 -1.3691 1
gene 1 25 31 1.50506 0 73 1.50506 1
gene 1 25 32 -0.0870352 0 74 -0.0870352 1
gene 1 25 33 0.651659 0 75 0.651659 1
gene 1 26 31 -0.266762 0 76 -0.266762 1
gene 1 26 32 -0.453219 0 77 -0.453219 1
gene 1 26 33 -0.66086 0 78 -0.66086 1
gene 1 27 31 0.0649875 0 79 0.0649875 1
gene 1 27 32 -1.68403 0 80 -1.68403 1
gene 1 27 33 -0.832358 0 81 -0.832358 1
gene 1 28 31 -3.42809 0 82 -3.42809 1
gene 1 28 32 0.626525 0 83 0.626525 1
gene 1 28 33 0.288203 0 84 0.288203 1
gene 1 29 31 0.0115446 0 85 0.0115446 1
gene 1 29 32 1.09545 0 86 1.09545 1
gene 1 29 33 -0.250812 0 87 -0.250812 1
gene 1 30 31 -0.980142 0 88 -0.980142 1
gene 1 30 32 0.392332 0 89 0.392332 1
gene 1 30 33 -0.441544 0 90 -0.441544 1
genomeend 4

/* Organism #5 Fitness: 13269 Error: 0 */
genomestart 5
trait 1 0.0896452 0 1 0 0 0 0 0.148593 
node 1 1 1 1
node 2 1 1 1
node 3 1 1 1
node 4 1 1 1
node 5 1 1 1
node 6 1 1 1
node 7 1 1 1
node 8 1 1 1
node 9 1 1 1
node 10 1 1 1
node 11 1 1 1
node 12 1 1 1
node 13 1 1 1
node 14 1 1 1
node 15 1 1 1
node 16 1 1 1
node 17 1 1 1
node 18 1 1 1
node 19 1 1 1
node 20 1 1 1
node 21 1 1 1
node 22 1 1 1
node 23 1 1 1
node 24 1 1 1
node 25 1 1 1
node 26 1 1 1
node 27 1 1 1
node 28 1 1 1
node 29 1 1 1
node 30 1 1 3
node 31 1 0 2
node 32 1 0 2
node 33 1 0 2
gene 1 1 31 0.840076 0 1 0.840076 1
gene 1 1 32 -0.869035 0 2 -0.869035 1
gene 1 1 33 1.56441 0 3 1.56441 1
gene 1 2 31 -0.446346 0 4 -0.446346 1
gene 1 2 32 2.62755 0 5 2.62755 1
gene 1 2 33 2.64995 0 6 2.64995 1
gene 1 3 31 0.382053 0 7 0.382053 1
gene 1 3 32 2.50674 0 8 2.50674 1
gene 1 3 33 -3.20092 0 9 -3.20092 1
gene 1 4 31 1.5399 0 10 1.5399 1
gene 1 4 32 0.901902 0 11 0.901902 1
gene 1 4 33 4.36481 0 12 4.36481 1
gene 1 5 31 -2.21065 0 13 -2.21065 1
gene 1 5 32 4.44408 0 14 4.44408 1
gene 1 5 33 2.22349 0 15 2.22349 1
gene 1 6 31 0.619034 0 16 0.619034 1
gene 1 6 32 2.74303 0 17 2.74303 1
gene 1 6 33 2.43289 0 18 2.43289 1
gene 1 7 31 -0.509943 0 19 -0.509943 1
gene 1 7 32 1.01102 0 20 1.01102 1
gene 1 7 33 2.32258 0 21 2.32258 1
gene 1 8 31 -1.5535 0 22 -1.5535 1
gene 1 8 32 -2.038 0 23 -2.038 1
gene 1 8 33 -2.04901 0 24 -2.04901 1
gene 1 9 31 1.59485 0 25 1.59485 1
gene 1 9 32 -0.55595 0 26 -0.55595 1
gene 1 9 33 -2.58979 0 27 -2.58979 1
gene 1 10 31 -0.557692 0 28 -0.557692 1
gene 1 10 32 -3.30563 0 29 -3.30563 1
gene 1 10 33 0.664148 0 30 0.664148 1
gene 1 11 31 0.0437866 0 31 0.0437866 1
gene 1 11 32 -1.33702 0 32 -1.33702 1
gene 1 11 33 -1.6004 0 33 -1.6004 1
gene 1 12 31 -0.363414 0 34 -0.363414 1
gene 1 12 32 -1.6238 0 35 -1.6238 1
gene 1 12 33 2.37563 0 36 2.37563 1
gene 1 13 31 0.148079 0 37 0.148079 1
gene 1 13 32 4.03467 0 38 4.03467 1
gene 1 13 33 2.34303 0 39 2.34303 1
gene 1 14 31 1.16736 0 40 1.16736 1
gene 1 14 32 0.575581 0 41 0.575581 1
gene 1 14 33 -0.628817 0 42 -0.628817 1
gene 1 15 31 -1.21388 0 43 -1.21388 1
gene 1 15 32 -0.68534 0 44 -0.68534 1
gene 1 15 33 -4.22051 0 45 -4.22051 1
gene 1 16 31 -0.743408 0 46 -0.743408 1
gene 1 16 32 0.941519 0 47 0.941519 1
gene 1 16 33 -3.79919 0 48 -3.79919 1
gene 1 17 31 -5 0 49 -5 1
gene 1 17 32 -3.91917 0 50 -3.91917 1
gene 1 17 33 4.01437 0 51 4.01437 1
gene 1 18 31 1.37589 0 52 1.37589 1
gene 1 18 32 -5 0 53 -5 1
gene 1 18 33 0.361048 0 54 0.361048 1
gene 1 19 31 -1.52419 0 55 -1.52419 1
gene 1 19 32 -2.19439 0 56 -2.19439 1
gene 1 19 33 -0.143761 0 57 -0.143761 1
gene 1 20 31 -1.645 0 58 -1.645 1
gene 1 20 32 0.37004 0 59 0.37004 1
gene 1 20 33 3.82148 0 60 3.82148 1
gene 1 21 31 -0.0780641 0 61 -0.0780641 1
gene 1 21 32 -0.662683 0 62 -0.662683 1
gene 1 21 33 -0.88363 0 63 -0.88363 1
gene 1 22 31 0.600664 0 64 0.600664 1
gene 1 22 32 -0.901607 0 65 -0.901607 1
gene 1 22 33 1.42632 0 66 1.42632 1
gene 1 23 31 5 0 67 5 1
gene 1 23 32 -1.61597 0 68 -1.61597 1
gene 1 23 33 3.8124 0 69 3.8124 1
gene 1 24 31 1.1499 0 70 1.1499 1
gene 1 24 32 0.0427113 0 71 0.0427113 1
gene 1 24 33 -1.56876 0 72 -1.56876 1
gene 1 25 31 0.856962 0 73 0.856962 1
gene 1 25 32 0.352466 0 74 0.352466 1
gene 1 25 33 -2.59929 0 75 -2.59929 1
gene 1 26 31 -0.129856 0 76 -0.129856 1
gene 1 26 32 -1.22556 0 77 -1.22556 1
gene 1 26 33 0.887239 0 78 0.887239 1
gene 1 27 31 1.03922 0 79 1.03922 1
gene 1 27 32 -2.18188 0 80 -2.18188 1
gene 1 27 33 -1.5695 0 81 -1.5695 1
gene 1 28 31 0.966855 0 82 0.966855 1
gene 1 28 32 0.251701 0 83 0.251701 1
gene 1 28 33 -0.118446 0 84 -0.118446 1
gene 1 29 31 -1.22354 0 85 -1.22354 1
gene 1 29 32 -0.648995 0 86 -0.648995 1
gene 1 29 33 -0.637031 0 87 -0.637031 1
gene 1 30 31 -1.01286 0 88 -1.01286 1
gene 1 30 32 0.39757 0 89 0.39757 1
gene 1 30 33 1.04293 0 90 1.04293 1
genomeend 5

/* Organism #6 Fitness: 13484.9 Error: 0 */
genomestart 6
trait 1 0.0896452 0 0.949784 0 0 0 0 0.148593 
node 1 1 1 1
node 2 1 1 1
node 3 1 1 1
node 4 1 1 1
node 5 1 1 1
node 6 1 1 1
node 7 1 1 1
node 8 1 1 1
node 9 1 1 1
node 10 1 1 1
node 11 1 1 1
node 12 1 1 1
node 13 1 1 1
node 14 1 1 1
node 15 1 1 1
node 16 1 1 1
node 17 1 1 1
node 18 1 1 1
node 19 1 1 1
node 20 1 1 1
node 21 1 1 1
node 22 1 1 1
node 23 1 1 1
node 24 1 1 1
node 25 1 1 1
node 26 1 1 1
node 27 1 1 1
node 28 1 1 1
node 29 1 1 1
node 30 1 1 3
node 31 1 0 2
node 32 1 0 2
node 33 1 0 2
gene 1 1 31 -0.775348 0 1 -0.775348 1
gene 1 1 32 0.931303 0 2 0.931303 1
gene 1 1 33 3.25282 0 3 3.25282 1
gene 1 2 31 -1.22003 0 4 -1.22003 1
gene 1 2 32 2.72194 0 5 2.72194 1
gene 1 2 33 3.46308 0 6 3.46308 1
gene 1 3 31 1.51923 0 7 1.51923 1
gene 1 3 32 3.58336 0 8 3.58336 1
gene 1 3 33 -0.88226 0 9 -0.88226 1
gene 1 4 31 1.0821 0 10 1.0821 1
gene 1 4 32 1.51955 0 11 1.51955 1
gene 1 4 33 5 0 12 5 1
gene 1 5 31 -0.069459 0 13 -0.069459 1
gene 1 5 32 1.63798 0 14 1.63798 1
gene 1 5 33 0.189456 0 15 0.189456 1
gene 1 6 31 1.37772 0 16 1.37772 1
gene 1 6 32 2.82982 0 17 2.82982 1
gene 1 6 33 1.77594 0 18 1.77594 1
gene 1 7 31 -2.17651 0 19 -2.17651 1
gene 1 7 32 -0.777169 0 20 -0.777169 1
gene 1 7 33 0.741815 0 21 0.741815 1
gene 1 8 31 -2.14212 0 22 -2.14212 1
gene 1 8 32 -0.841812 0 23 -0.841812 1
gene 1 8 33 -3.90021 0 24 -3.90021 1
gene 1 9 31 -1.14122 0 25 -1.14122 1
gene 1 9 32 -0.29735 0 26 -0.29735 1
gene 1 9 33 -1.12004 0 27 -1.12004 1
gene 1 10 31 0.483632 0 28 0.483632 1
gene 1 10 32 -0.99751 0 29 -0.99751 1
gene 1 10 33 2.23889 0 30 2.23889 1
gene 1 11 31 -2.21713 0 31 -2.21713 1
gene 1 11 32 -0.87277 0 32 -0.87277 1
gene 1 11 33 -1.56425 0 33 -1.56425 1
gene 1 12 31 0.0342001 0 34 0.0342001 1
gene 1 12 32 -1.56581 0 35 -1.56581 1
gene 1 12 33 3.28135 0 36 3.28135 1
gene 1 13 31 1.82808 0 37 1.82808 1
gene 1 13 32 0.268328 0 38 0.268328 1
gene 1 13 33 2.32783 0 39 2.32783 1
gene 1 14 31 0.833892 0 40 0.833892 1
gene 1 14 32 4.83013 0 41 4.83013 1
gene 1 14 33 0.873353 0 42 0.873353 1
gene 1 15 31 -3.53488 0 43 -3.53488 1
gene 1 15 32 1.73255 0 44 1.73255 1
gene 1 15 33 -4.7141 0 45 -4.7141 1
gene 1 16 31 -1.75991 0 46 -1.75991 1
gene 1 16 32 -0.188971 0 47 -0.188971 1
gene 1 16 33 -2.63021 0 48 -2.63021 1
gene 1 17 31 -3.36744 0 49 -3.36744 1
gene 1 17 32 -4.32966 0 50 -4.32966 1
gene 1 17 33 0.717117 0 51 0.717117 1
gene 1 18 31 1.79184 0 52 1.79184 1
gene 1 18 32 -3.62917 0 53 -3.62917 1
gene 1 18 33 -0.394509 0 54 -0.394509 1
gene 1 19 31 -2.17602 0 55 -2.17602 1
gene 1 19 32 -3.39284 0 56 -3.39284 1
gene 1 19 33 -1.24148 0 57 -1.24148 1
gene 1 20 31 -0.443003 0 58 -0.443003 1
gene 1 20 32 0.473021 0 59 0.473021 1
gene 1 20 33 2.7277 0 60 2.7277 1
gene 1 21 31 0.546918 0 61 0.546918 1
gene 1 21 32 0.863724 0 62 0.863724 1
gene 1 21 33 -1.49341 0 63 -1.49341 1
gene 1 22 31 0.711213 0 64 0.711213 1
gene 1 22 32 -0.498483 0 65 -0.498483 1
gene 1 22 33 -0.984413 0 66 -0.984413 1
gene 1 23 31 3.63498 0 67 3.63498 1
gene 1 23 32 -2.49864 0 68 -2.49864 1
gene 1 23 33 3.6189 0 69 3.6189 1
gene 1 24 31 1.86301 0 70 1.86301 1
gene 1 24 32 -1.54374 0 71 -1.54374 1
gene 1 24 33 -2.14238 0 72 -2.14238 1
gene 1 25 31 -0.530593 0 73 -0.530593 1
gene 1 25 32 -0.496587 0 74 -0.496587 1
gene 1 25 33 -0.305016 0 75 -0.305016 1
gene 1 26 31 0.78504 0 76 0.78504 1
gene 1 26 32 -0.896358 0 77 -0.896358 1
gene 1 26 33 0.343622 0 78 0.343622 1
gene 1 27 31 0.338197 0 79 0.338197 1
gene 1 27 32 0.670195 0 80 0.670195 1
gene 1 27 33 -0.00857448 0 81 -0.00857448 1
gene 1 28 31 -0.784613 0 82 -0.784613 1
gene 1 28 32 1.05201 0 83 1.05201 1
gene 1 28 33 -1.30533 0 84 -1.30533 1
gene 1 29 31 1.23175 0 85 1.23175 1
gene 1 29 32 -1.52275 0 86 -1.52275 1
gene 1 29 33 -0.724195 0 87 -0.724195 1
gene 1 30 31 -1.13438 0 88 -1.13438 1
gene 1 30 32 0.590215 0 89 0.590215 1
gene 1 30 33 -1.01789 0 90 -1.01789 1
genomeend 6

/* Organism #7 Fitness: 13334 Error: 0 */
genomestart 7
trait 1 0.0896452 0 0.949784 0 0 0 0 0.148593 
node 1 1 1 1
node 2 1 1 1
node 3 1 1 1
node 4 1 1 1
node 5 1 1 1
node 6 1 1 1
node 7 1 1 1
node 8 1 1 1
node 9 1 1 1
node 10 1 1 1
node 11 1 1 1
node 12 1 1 1
node 13 1 1 1
node 14 1 1 1
node 15 1 1 1
node 16 1 1 1
node 17 1 1 1
node 18 1 1 1
node 19 1 1 1
node 20 1 1 1
node 21 1 1 1
node 22 1 1 1
node 23 1 1 1
node 24 1 1 1
node 25 1 1 1
node 26 1 1 1
node 27 1 1 1
node 28 1 1 1
node 29 1 1 1
node 30 1 1 3
node 31 1 0 2
node 32 1 0 2
node 33 1 0 2
gene 1 1 31 -0.0418352 0 1 -0.0418352 1
gene 1 1 32 -1.0265 0 2 -1.0265 1
gene 1 1 33 2.60045 0 3 2.60045 1
gene 1 2 31 -0.986724 0 4 -0.986724 1
gene 1 2 32 3.02904 0 5 3.02904 1
gene 1 2 33 0.914989 0 6 0.914989 1
gene 1 3 31 0.968047 0 7 0.968047 1
gene 1 3 32 1.53344 0 8 1.53344 1
gene 1 3 33 -2.13505 0 9 -2.13505 1
gene 1 4 31 2.12614 0 10 2.12614 1
gene 1 4 32 2.987 0 11 2.987 1
gene 1 4 33 4.45175 0 12 4.45175 1
gene 1 5 31 -0.0634368 0 13 -0.0634368 1
gene 1 5 32 1.3641 0 14 1.3641 1
gene 1 5 33 0.490233 0 15 0.490233 1
gene 1 6 31 3.66538 0 16 3.66538 1
gene 1 6 32 3.31061 0 17 3.31061 1
gene 1 6 33 0.97744 0 18 0.97744 1
gene 1 7 31 0.382881 0 19 0.382881 1
gene 1 7 32 -0.295365 0 20 -0.295365 1
gene 1 7 33 0.799988 0 21 0.799988 1
gene 1 8 31 -3.0124 0 22 -3.0124 1
gene 1 8 32 -1.14785 0 23 -1.14785 1
gene 1 8 33 -1.49455 0 24 -1.49455 1
gene 1 9 31 2.3958 0 25 2.3958 1
gene 1 9 32 -0.467713 0 26 -0.467713 1
gene 1 9 33 -2.19884 0 27 -2.19884 1
gene 1 10 31 -1.16772 0 28 -1.16772 1
gene 1 10 32 -2.83458 0 29 -2.83458 1
gene 1 10 33 1.25929 0 30 1.25929 1
gene 1 11 31 0.885446 0 31 0.885446 1
gene 1 11 32 -2.60439 0 32 -2.60439 1
gene 1 11 33 -1.34557 0 33 -1.34557 1
gene 1 12 31 -0.116534 0 34 -0.116534 1
gene 1 12 32 -1.38513 0 35 -1.38513 1
gene 1 12 33 2.29561 0 36 2.29561 1
gene 1 13 31 1.07873 0 37 1.07873 1
gene 1 13 32 3.42582 0 38 3.42582 1
gene 1 13 33 2.55781 0 39 2.55781 1
gene 1 14 31 -0.732496 0 40 -0.732496 1
gene 1 14 32 3.69491 0 41 3.69491 1
gene 1 14 33 -0.376902 0 42 -0.376902 1
gene 1 15 31 -2.21163 0 43 -2.21163 1
gene 1 15 32 -0.219589 0 44 -0.219589 1
gene 1 15 33 -4.93239 0 45 -4.93239 1
gene 1 16 31 -2.00188 0 46 -2.00188 1
gene 1 16 32 -0.217483 0 47 -0.217483 1
gene 1 16 33 -1.18441 0 48 -1.18441 1
gene 1 17 31 -4.7345 0 49 -4.7345 1
gene 1 17 32 -3.26817 0 50 -3.26817 1
gene 1 17 33 3.05529 0 51 3.05529 1
gene 1 18 31 0.464118 0 52 0.464118 1
gene 1 18 32 -4.24236 0 53 -4.24236 1
gene 1 18 33 1.41615 0 54 1.41615 1
gene 1 19 31 -0.578342 0 55 -0.578342 1
gene 1 19 32 -2.43963 0 56 -2.43963 1
gene 1 19 33 -1.21101 0 57 -1.21101 1
gene 1 20 31 -2.17841 0 58 -2.17841 1
gene 1 20 32 0.511581 0 59 0.511581 1
gene 1 20 33 2.93744 0 60 2.93744 1
gene 1 21 31 -0.556701 0 61 -0.556701 1
gene 1 21 32 -0.561725 0 62 -0.561725 1
gene 1 21 33 -1.13956 0 63 -1.13956 1
gene 1 22 31 -0.214603 0 64 -0.214603 1
gene 1 22 32 -0.407497 0 65 -0.407497 1
gene 1 22 33 -0.799992 0 66 -0.799992 1
gene 1 23 31 3.15428 0 67 3.15428 1
gene 1 23 32 -2.04946 0 68 -2.04946 1
gene 1 23 33 2.21494 0 69 2.21494 1
gene 1 24 31 1.86524 0 70 1.86524 1
gene 1 24 32 -1.04386 0 71 -1.04386 1
gene 1 24 33 0.00682803 0 72 0.00682803 1
gene 1 25 31 1.09138 0 73 1.09138 1
gene 1 25 32 -0.215209 0 74 -0.215209 1
gene 1 25 33 -0.561547 0 75 -0.561547 1
gene 1 26 31 0.339205 0 76 0.339205 1
gene 1 26 32 0.464628 0 77 0.464628 1
gene 1 26 33 0.121065 0 78 0.121065 1
gene 1 27 31 0.654946 0 79 0.654946 1
gene 1 27 32 -0.647223 0 80 -0.647223 1
gene 1 27 33 -0.402621 0 81 -0.402621 1
gene 1 28 31 -1.85012 0 82 -1.85012 1
gene 1 28 32 0.736203 0 83 0.736203 1
gene 1 28 33 -0.108567 0 84 -0.108567 1
gene 1 29 31 0.496825 0 85 0.496825 1
gene 1 29 32 -0.927003 0 86 -0.927003 1
gene 1 29 33 0.217349 0 87 0.217349 1
gene 1 30 31 -0.939729 0 88 -0.939729 1
gene 1 30 32 0.564522 0 89 0.564522 1
gene 1 30 33 -0.549725 0 90 -0.549725 1
genomeend 7

/* Organism #8 Fitness: 14257.3 Error: 0 */
genomestart 8
trait 1 0.0896452 0 0.949784 0 0 0 0 0.148593 
node 1 1 1 1
node 2 1 1 1
node 3 1 1 1
node 4 1 1 1
node 5 1 1 1
node 6 1 1 1
node 7 1 1 1
node 8 1 1 1
node 9 1 1 1
node 10 1 1 1
node 11 1 1 1
node 12 1 1 1
node 13 1 1 1
node 14 1 1 1
node 15 1 1 1
node 16 1 1 1
node 17 1 1 1
node 18 1 1 1
node 19 1 1 1
node 20 1 1 1
node 21 1 1 1
node 22 1 1 1
node 23 1 1 1
node 24 1 1 1
node 25 1 1 1
node 26 1 1 1
node 27 1 1 1
node 28 1 1 1
node 29 1 1 1
node 30 1 1 3
node 31 1 0 2
node 32 1 0 2
node 33 1 0 2
gene 1 1 31 -0.928785 0 1 -0.928785 1
gene 1 1 32 -0.984111 0 2 -0.984111 1
gene 1 1 33 2.79696 0 3 2.79696 1
gene 1 2 31 -0.387312 0 4 -0.387312 1
gene 1 2 32 2.27648 0 5 2.27648 1
gene 1 2 33 2.64943 0 6 2.64943 1
gene 1 3 31 1.63386 0 7 1.63386 1
gene 1 3 32 3.04659 0 8 3.04659 1
gene 1 3 33 -1.50768 0 9 -1.50768 1
gene 1 4 31 0.661088 0 10 0.661088 1
gene 1 4 32 1.30024 0 11 1.30024 1
gene 1 4 33 3.76539 0 12 3.76539 1
gene 1 5 31 0.460693 0 13 0.460693 1
gene 1 5 32 2.05125 0 14 2.05125 1
gene 1 5 33 0.982238 0 15 0.982238 1
gene 1 6 31 1.56869 0 16 1.56869 1
gene 1 6 32 2.47356 0 17 2.47356 1
gene 1 6 33 1.48331 0 18 1.48331 1
gene 1 7 31 -1.67348 0 19 -1.67348 1
gene 1 7 32 -0.128206 0 20 -0.128206 1
gene 1 7 33 0.684907 0 21 0.684907 1
gene 1 8 31 -2.67066 0 22 -2.67066 1
gene 1 8 32 -0.476004 0 23 -0.476004 1
gene 1 8 33 -3.02563 0 24 -3.02563 1
gene 1 9 31 0.659694 0 25 0.659694 1
gene 1 9 32 -0.748382 0 26 -0.748382 1
gene 1 9 33 0.04938 0 27 0.04938 1
gene 1 10 31 0.749497 0 28 0.749497 1
gene 1 10 32 -2.03521 0 29 -2.03521 1
gene 1 10 33 3.08681 0 30 3.08681 1
gene 1 11 31 -2.24125 0 31 -2.24125 1
gene 1 11 32 -2.24784 0 32 -2.24784 1
gene 1 11 33 -2.08661 0 33 -2.08661 1
gene 1 12 31 -0.65684 0 34 -0.65684 1
gene 1 12 32 -2.39814 0 35 -2.39814 1
gene 1 12 33 2.63397 0 36 2.63397 1
gene 1 13 31 1.41246 0 37 1.41246 1
gene 1 13 32 1.57175 0 38 1.57175 1
gene 1 13 33 3.96247 0 39 3.96247 1
gene 1 14 31 0.585497 0 40 0.585497 1
gene 1 14 32 3.69063 0 41 3.69063 1
gene 1 14 33 -0.833334 0 42 -0.833334 1
gene 1 15 31 -2.41364 0 43 -2.41364 1
gene 1 15 32 0.36484 0 44 0.36484 1
gene 1 15 33 -3.96962 0 45 -3.96962 1
gene 1 16 31 -0.951793 0 46 -0.951793 1
gene 1 16 32 0.336109 0 47 0.336109 1
gene 1 16 33 -2.32271 0 48 -2.32271 1
gene 1 17 31 -4.55052 0 49 -4.55052 1
gene 1 17 32 -4.25682 0 50 -4.25682 1
gene 1 17 33 0.517297 0 51 0.517297 1
gene 1 18 31 1.3662 0 52 1.3662 1
gene 1 18 32 -3.55629 0 53 -3.55629 1
gene 1 18 33 0.420889 0 54 0.420889 1
gene 1 19 31 -1.41418 0 55 -1.41418 1
gene 1 19 32 -2.9057 0 56 -2.9057 1
gene 1 19 33 -0.845762 0 57 -0.845762 1
gene 1 20 31 -0.922892 0 58 -0.922892 1
gene 1 20 32 -0.640581 0 59 -0.640581 1
gene 1 20 33 2.67136 0 60 2.67136 1
gene 1 21 31 0.908867 0 61 0.908867 1
gene 1 21 32 0.340793 0 62 0.340793 1
gene 1 21 33 -1.47425 0 63 -1.47425 1
gene 1 22 31 0.825613 0 64 0.825613 1
gene 1 22 32 -0.467566 0 65 -0.467566 1
gene 1 22 33 -0.46883 0 66 -0.46883 1
gene 1 23 31 4.28886 0 67 4.28886 1
gene 1 23 32 -0.827412 0 68 -0.827412 1
gene 1 23 33 2.99799 0 69 2.99799 1
gene 1 24 31 2.49014 0 70 2.49014 1
gene 1 24 32 -1.65128 0 71 -1.65128 1
gene 1 24 33 -2.53806 0 72 -2.53806 1
gene 1 25 31 -0.784095 0 73 -0.784095 1
gene 1 25 32 0.245863 0 74 0.245863 1
gene 1 25 33 -1.18832 0 75 -1.18832 1
gene 1 26 31 0.572808 0 76 0.572808 1
gene 1 26 32 -0.730054 0 77 -0.730054 1
gene 1 26 33 0.320731 0 78 0.320731 1
gene 1 27 31 0.658651 0 79 0.658651 1
gene 1 27 32 0.791197 0 80 0.791197 1
gene 1 27 33 -0.0239684 0 81 -0.0239684 1
gene 1 28 31 -2.9347 0 82 -2.9347 1
gene 1 28 32 1.05201 0 83 1.05201 1
gene 1 28 33 1.1886 0 84 1.1886 1
gene 1 29 31 1.23175 0 85 1.23175 1
gene 1 29 32 -0.764867 0 86 -0.764867 1
gene 1 29 33 -0.724195 0 87 -0.724195 1
gene 1 30 31 -0.152942 0 88 -0.152942 1
gene 1 30 32 1.33859 0 89 1.33859 1
gene 1 30 33 -1.15129 0 90 -1.15129 1
genomeend 8

/* Organism #9 Fitness: 13998.6 Error: 0 */
genomestart 9
trait 1 0.0896452 0 0.949784 0 0 0 0 0.148593 
node 1 1 1 1
node 2 1 1 1
node 3 1 1 1
node 4 1 1 1
node 5 1 1 1
node 6 1 1 1
node 7 1 1 1
node 8 1 1 1
node 9 1 1 1
node 10 1 1 1
node 11 1 1 1
node 12 1 1 1
node 13 1 1 1
node 14 1 1 1
node 15 1 1 1
node 16 1 1 1
node 17 1 1 1
node 18 1 1 1
node 19 1 1 1
node 20 1 1 1
node 21 1 1 1
node 22 1 1 1
node 23 1 1 1
node 24 1 1 1
node 25 1 1 1
node 26 1 1 1
node 27 1 1 1
node 28 1 1 1
node 29 1 1 1
node 30 1 1 3
node 31 1 0 2
node 32 1 0 2
node 33 1 0 2
gene 1 1 31 -2.48334 0 1 -2.48334 1
gene 1 1 32 0.43981 0 2 0.43981 1
gene 1 1 33 2.57408 0 3 2.57408 1
gene 1 2 31 -0.0156233 0 4 -0.0156233 1
gene 1 2 32 3.16859 0 5 3.16859 1
gene 1 2 33 1.30644 0 6 1.30644 1
gene 1 3 31 1.02808 0 7 1.02808 1
gene 1 3 32 3.14509 0 8 3.14509 1
gene 1 3 33 -0.641352 0 9 -0.641352 1
gene 1 4 31 1.98225 0 10 1.98225 1
gene 1 4 32 0.965339 0 11 0.965339 1
gene 1 4 33 2.23951 0 12 2.23951 1
gene 1 5 31 -1.45539 0 13 -1.45539 1
gene 1 5 32 3.55393 0 14 3.55393 1
gene 1 5 33 1.52736 0 15 1.52736 1
gene 1 6 31 1.99515 0 16 1.99515 1
gene 1 6 32 3.26982 0 17 3.26982 1
gene 1 6 33 1.43303 0 18 1.43303 1
gene 1 7 31 -0.0287024 0 19 -0.0287024 1
gene 1 7 32 0.947051 0 20 0.947051 1
gene 1 7 33 0.415063 0 21 0.415063 1
gene 1 8 31 -3.01627 0 22 -3.01627 1
gene 1 8 32 -2.75381 0 23 -2.75381 1
gene 1 8 33 -3.91605 0 24 -3.91605 1
gene 1 9 31 -0.0862797 0 25 -0.0862797 1
gene 1 9 32 0.43131 0 26 0.43131 1
gene 1 9 33 -0.591163 0 27 -0.591163 1
gene 1 10 31 -0.132047 0 28 -0.132047 1
gene 1 10 32 -2.01059 0 29 -2.01059 1
gene 1 10 33 2.34575 0 30 2.34575 1
gene 1 11 31 -1.71901 0 31 -1.71901 1
gene 1 11 32 -2.21167 0 32 -2.21167 1
gene 1 11 33 -2.50573 0 33 -2.50573 1
gene 1 12 31 -1.33784 0 34 -1.33784 1
gene 1 12 32 -1.73733 0 35 -1.73733 1
gene 1 12 33 2.26826 0 36 2.26826 1
gene 1 13 31 1.1361 0 37 1.1361 1
gene 1 13 32 3.31705 0 38 3.31705 1
gene 1 13 33 2.36263 0 39 2.36263 1
gene 1 14 31 0.688546 0 40 0.688546 1
gene 1 14 32 3.01264 0 41 3.01264 1
gene 1 14 33 -1.59335 0 42 -1.59335 1
gene 1 15 31 -2.49897 0 43 -2.49897 1
gene 1 15 32 -0.588604 0 44 -0.588604 1
gene 1 15 33 -5 0 45 -5 1
gene 1 16 31 -1.1489 0 46 -1.1489 1
gene 1 16 32 1.02171 0 47 1.02171 1
gene 1 16 33 -0.710616 0 48 -0.710616 1
gene 1 17 31 -5 0 49 -5 1
gene 1 17 32 -4.67047 0 50 -4.67047 1
gene 1 17 33 1.45997 0 51 1.45997 1
gene 1 18 31 0.803097 0 52 0.803097 1
gene 1 18 32 -4.38585 0 53 -4.38585 1
gene 1 18 33 0.759088 0 54 0.759088 1
gene 1 19 31 -1.38603 0 55 -1.38603 1
gene 1 19 32 -3.39676 0 56 -3.39676 1
gene 1 19 33 -3.07951 0 57 -3.07951 1
gene 1 20 31 -1.19708 0 58 -1.19708 1
gene 1 20 32 -0.554562 0 59 -0.554562 1
gene 1 20 33 3.81811 0 60 3.81811 1
gene 1 21 31 0.208668 0 61 0.208668 1
gene 1 21 32 -1.49899 0 62 -1.49899 1
gene 1 21 33 -1.53536 0 63 -1.53536 1
gene 1 22 31 -0.134902 0 64 -0.134902 1
gene 1 22 32 0.0628614 0 65 0.0628614 1
gene 1 22 33 0.533788 0 66 0.533788 1
gene 1 23 31 3.76616 0 67 3.76616 1
gene 1 23 32 -1.42193 0 68 -1.42193 1
gene 1 23 33 3.74124 0 69 3.74124 1
gene 1 24 31 2.04033 0 70 2.04033 1
gene 1 24 32 -1.86616 0 71 -1.86616 1
gene 1 24 33 -2.30298 0 72 -2.30298 1
gene 1 25 31 1.73991 0 73 1.73991 1
gene 1 25 32 0.595482 0 74 0.595482 1
gene 1 25 33 0.0887579 0 75 0.0887579 1
gene 1 26 31 -0.160752 0 76 -0.160752 1
gene 1 26 32 0.895865 0 77 0.895865 1
gene 1 26 33 -0.639123 0 78 -0.639123 1
gene 1 27 31 -0.55246 0 79 -0.55246 1
gene 1 27 32 -1.47585 0 80 -1.47585 1
gene 1 27 33 0.357303 0 81 0.357303 1
gene 1 28 31 0.225339 0 82 0.225339 1
gene 1 28 32 0.169422 0 83 0.169422 1
gene 1 28 33 1.92459 0 84 1.92459 1
gene 1 29 31 0.845694 0 85 0.845694 1
gene 1 29 32 -0.207597 0 86 -0.207597 1
gene 1 29 33 -1.1817 0 87 -1.1817 1
gene 1 30 31 -0.939729 0 88 -0.939729 1
gene 1 30 32 0.720574 0 89 0.720574 1
gene 1 30 33 -0.870813 0 90 -0.870813 1
genomeend 9

/* Organism #10 Fitness: 13695.2 Error: 0 */
genomestart 10
trait 1 0.0896452 0 0.949784 0 0 0 0 0.148593 
node 1 1 1 1
node 2 1 1 1
node 3 1 1 1
node 4 1 1 1
node 5 1 1 1
node 6 1 1 1
node 7 1 1 1
node 8 1 1 1
node 9 1 1 1
node 10 1 1 1
node 11 1 1 1
node 12 1 1 1
node 13 1 1 1
node 14 1 1 1
node 15 1 1 1
node 16 1 1 1
node 17 1 1 1
node 18 1 1 1
node 19 1 1 1
node 20 1 1 1
node 21 1 1 1
node 22 1 1 1
node 23 1 1 1
node 24 1 1 1
node 25 1 1 1
node 26 1 1 1
node 27 1 1 1
node 28 1 1 1
node 29 1 1 1
node 30 1 1 3
node 31 1 0 2
node 32 1 0 2
node 33 1 0 2
gene 1 1 31 1.48808 0 1 1.48808 1
gene 1 1 32 -0.661346 0 2 -0.661346 1
gene 1 1 33 1.40091 0 3 1.40091 1
gene 1 2 31 -2.2525 0 4 -2.2525 1
gene 1 2 32 3.43306 0 5 3.43306 1
gene 1 2 33 0.872296 0 6 0.872296 1
gene 1 3 31 -0.340174 0 7 -0.340174 1
gene 1 3 32 2.94263 0 8 2.94263 1
gene 1 3 33 -2.29958 0 9 -2.29958 1
gene 1 4 31 3.038 0 10 3.038 1
gene 1 4 32 1.43139 0 11 1.43139 1
gene 1 4 33 3.06309 0 12 3.06309 1
gene 1 5 31 -2.80378 0 13 -2.80378 1
gene 1 5 32 2.86932 0 14 2.86932 1
gene 1 5 33 1.92384 0 15 1.92384 1
gene 1 6 31 2.59723 0 16 2.59723 1
gene 1 6 32 2.33227 0 17 2.33227 1
gene 1 6 33 1.96209 0 18 1.96209 1
gene 1 7 31 -0.0370602 0 19 -0.0370602 1
gene 1 7 32 -0.643186 0 20 -0.643186 1
gene 1 7 33 -0.886922 0 21 -0.886922 1
gene 1 8 31 -4.14919 0 22 -4.14919 1
gene 1 8 32 -0.923641 0 23 -0.923641 1
gene 1 8 33 -0.2271 0 24 -0.2271 1
gene 1 9 31 3.52824 0 25 3.52824 1
gene 1 9 32 0.0946489 0 26 0.0946489 1
gene 1 9 33 0.70569 0 27 0.70569 1
gene 1 10 31 -0.378584 0 28 -0.378584 1
gene 1 10 32 -0.937142 0 29 -0.937142 1
gene 1 10 33 2.54358 0 30 2.54358 1
gene 1 11 31 -0.0763456 0 31 -0.0763456 1
gene 1 11 32 -2.01244 0 32 -2.01244 1
gene 1 11 33 1.50827 0 33 1.50827 1
gene 1 12 31 -0.0333134 0 34 -0.0333134 1
gene 1 12 32 -1.74206 0 35 -1.74206 1
gene 1 12 33 1.99679 0 36 1.99679 1
gene 1 13 31 -0.174727 0 37 -0.174727 1
gene 1 13 32 1.50987 0 38 1.50987 1
gene 1 13 33 2.95259 0 39 2.95259 1
gene 1 14 31 -1.42254 0 40 -1.42254 1
gene 1 14 32 4.5604 0 41 4.5604 1
gene 1 14 33 -0.293457 0 42 -0.293457 1
gene 1 15 31 -0.811202 0 43 -0.811202 1
gene 1 15 32 1.23848 0 44 1.23848 1
gene 1 15 33 -4.91992 0 45 -4.91992 1
gene 1 16 31 -0.741933 0 46 -0.741933 1
gene 1 16 32 -0.210574 0 47 -0.210574 1
gene 1 16 33 -0.720785 0 48 -0.720785 1
gene 1 17 31 -5 0 49 -5 1
gene 1 17 32 -3.54651 0 50 -3.54651 1
gene 1 17 33 2.32975 0 51 2.32975 1
gene 1 18 31 0.558905 0 52 0.558905 1
gene 1 18 32 -5 0 53 -5 1
gene 1 18 33 4.01017 0 54 4.01017 1
gene 1 19 31 -0.0928653 0 55 -0.0928653 1
gene 1 19 32 -2.47478 0 56 -2.47478 1
gene 1 19 33 1.034 0 57 1.034 1
gene 1 20 31 -1.67113 0 58 -1.67113 1
gene 1 20 32 0.512566 0 59 0.512566 1
gene 1 20 33 1.96437 0 60 1.96437 1
gene 1 21 31 -0.332671 0 61 -0.332671 1
gene 1 21 32 -0.364397 0 62 -0.364397 1
gene 1 21 33 -0.0548401 0 63 -0.0548401 1
gene 1 22 31 -1.71728 0 64 -1.71728 1
gene 1 22 32 -0.424842 0 65 -0.424842 1
gene 1 22 33 -0.754123 0 66 -0.754123 1
gene 1 23 31 3.10392 0 67 3.10392 1
gene 1 23 32 -1.60417 0 68 -1.60417 1
gene 1 23 33 1.5372 0 69 1.5372 1
gene 1 24 31 2.2769 0 70 2.2769 1
gene 1 24 32 0.64041 0 71 0.64041 1
gene 1 24 33 -1.92793 0 72 -1.92793 1
gene 1 25 31 -0.0953468 0 73 -0.0953468 1
gene 1 25 32 -0.753791 0 74 -0.753791 1
gene 1 25 33 0.460288 0 75 0.460288 1
gene 1 26 31 1.23205 0 76 1.23205 1
gene 1 26 32 -0.666124 0 77 -0.666124 1
gene 1 26 33 0.75416 0 78 0.75416 1
gene 1 27 31 -0.0424314 0 79 -0.0424314 1
gene 1 27 32 -1.11784 0 80 -1.11784 1
gene 1 27 33 0.820049 0 81 0.820049 1
gene 1 28 31 0.503777 0 82 0.503777 1
gene 1 28 32 -0.762963 0 83 -0.762963 1
gene 1 28 33 -0.254336 0 84 -0.254336 1
gene 1 29 31 -0.855072 0 85 -0.855072 1
gene 1 29 32 0.595781 0 86 0.595781 1
gene 1 29 33 -0.868407 0 87 -0.868407 1
gene 1 30 31 0.0910734 0 88 0.0910734 1
gene 1 30 32 0.63494 0 89 0.63494 1
gene 1 30 33 -1.37694 0 90 -1.37694 1
genomeend 10

/* Organism #11 Fitness: 13175.6 Error: 0 */
genomestart 11
trait 1 0.0896452 0 1 0 0 0 0 0.148593 
node 1 1 1 1
node 2 1 1 1
node 3 1 1 1
node 4 1 1 1
node 5 1 1 1
node 6 1 1 1
node 7 1 1 1
node 8 1 1 1
node 9 1 1 1
node 10 1 1 1
node 11 1 1 1
node 12 1 1 1
node 13 1 1 1
node 14 1 1 1
node 15 1 1 1
node 16 1 1 1
node 17 1 1 1
node 18 1 1 1
node 19 1 1 1
node 20 1 1 1
node 21 1 1 1
node 22 1 1 1
node 23 1 1 1
node 24 1 1 1
node 25 1 1 1
node 26 1 1 1
node 27 1 1 1
node 28 1 1 1
node 29 1 1 1
node 30 1 1 3
node 31 1 0 2
node 32 1 0 2
node 33 1 0 2
gene 1 1 31 -0.0259949 0 1 -0.0259949 1
gene 1 1 32 -0.787472 0 2 -0.787472 1
gene 1 1 33 2.34283 0 3 2.34283 1
gene 1 2 31 0.248973 0 4 0.248973 1
gene 1 2 32 2.8261 0 5 2.8261 1
gene 1 2 33 3.4646 0 6 3.4646 1
gene 1 3 31 -0.165068 0 7 -0.165068 1
gene 1 3 32 3.18325 0 8 3.18325 1
gene 1 3 33 -3.19729 0 9 -3.19729 1
gene 1 4 31 0.58328 0 10 0.58328 1
gene 1 4 32 0.956905 0 11 0.956905 1
gene 1 4 33 4.76009 0 12 4.76009 1
gene 1 5 31 -2.83455 0 13 -2.83455 1
gene 1 5 32 4.17283 0 14 4.17283 1
gene 1 5 33 2.06608 0 15 2.06608 1
gene 1 6 31 1.50216 0 16 1.50216 1
gene 1 6 32 2.19489 0 17 2.19489 1
gene 1 6 33 3.15646 0 18 3.15646 1
gene 1 7 31 -0.100147 0 19 -0.100147 1
gene 1 7 32 0.44011 0 20 0.44011 1
gene 1 7 33 1.48449 0 21 1.48449 1
gene 1 8 31 -1.12164 0 22 -1.12164 1
gene 1 8 32 -2.96076 0 23 -2.96076 1
gene 1 8 33 -1.29806 0 24 -1.29806 1
gene 1 9 31 0.636631 0 25 0.636631 1
gene 1 9 32 -1.07697 0 26 -1.07697 1
gene 1 9 33 -2.8104 0 27 -2.8104 1
gene 1 10 31 0.369172 0 28 0.369172 1
gene 1 10 32 -2.60408 0 29 -2.60408 1
gene 1 10 33 1.03094 0 30 1.03094 1
gene 1 11 31 1.03325 0 31 1.03325 1
gene 1 11 32 -2.28257 0 32 -2.28257 1
gene 1 11 33 -1.14774 0 33 -1.14774 1
gene 1 12 31 0.523568 0 34 0.523568 1
gene 1 12 32 -1.5886 0 35 -1.5886 1
gene 1 12 33 3.15079 0 36 3.15079 1
gene 1 13 31 -0.35705 0 37 -0.35705 1
gene 1 13 32 4.43797 0 38 4.43797 1
gene 1 13 33 2.82171 0 39 2.82171 1
gene 1 14 31 1.12239 0 40 1.12239 1
gene 1 14 32 0.559568 0 41 0.559568 1
gene 1 14 33 0.330684 0 42 0.330684 1
gene 1 15 31 -1.23006 0 43 -1.23006 1
gene 1 15 32 -1.4805 0 44 -1.4805 1
gene 1 15 33 -3.93542 0 45 -3.93542 1
gene 1 16 31 -0.954418 0 46 -0.954418 1
gene 1 16 32 0.350934 0 47 0.350934 1
gene 1 16 33 -4.1862 0 48 -4.1862 1
gene 1 17 31 -5 0 49 -5 1
gene 1 17 32 -4.89949 0 50 -4.89949 1
gene 1 17 33 3.78804 0 51 3.78804 1
gene 1 18 31 0.425631 0 52 0.425631 1
gene 1 18 32 -5 0 53 -5 1
gene 1 18 33 1.18871 0 54 1.18871 1
gene 1 19 31 -1.30495 0 55 -1.30495 1
gene 1 19 32 -2.58507 0 56 -2.58507 1
gene 1 19 33 -0.935264 0 57 -0.935264 1
gene 1 20 31 -1.01311 0 58 -1.01311 1
gene 1 20 32 1.00746 0 59 1.00746 1
gene 1 20 33 4.43352 0 60 4.43352 1
gene 1 21 31 -0.773507 0 61 -0.773507 1
gene 1 21 32 0.0889761 0 62 0.0889761 1
gene 1 21 33 -0.408882 0 63 -0.408882 1
gene 1 22 31 0.418527 0 64 0.418527 1
gene 1 22 32 -1.8033 0 65 -1.8033 1
gene 1 22 33 1.47012 0 66 1.47012 1
gene 1 23 31 5 0 67 5 1
gene 1 23 32 -1.14299 0 68 -1.14299 1
gene 1 23 33 2.9737 0 69 2.9737 1
gene 1 24 31 0.704584 0 70 0.704584 1
gene 1 24 32 -0.585298 0 71 -0.585298 1
gene 1 24 33 -0.843965 0 72 -0.843965 1
gene 1 25 31 0.786977 0 73 0.786977 1
gene 1 25 32 0.352466 0 74 0.352466 1
gene 1 25 33 -2.59929 0 75 -2.59929 1
gene 1 26 31 -0.0659434 0 76 -0.0659434 1
gene 1 26 32 -1.22556 0 77 -1.22556 1
gene 1 26 33 1.88179 0 78 1.88179 1
gene 1 27 31 0.58491 0 79 0.58491 1
gene 1 27 32 -0.146162 0 80 -0.146162 1
gene 1 27 33 -1.5695 0 81 -1.5695 1
gene 1 28 31 0.00934703 0 82 0.00934703 1
gene 1 28 32 0.887537 0 83 0.887537 1
gene 1 28 33 0.677469 0 84 0.677469 1
gene 1 29 31 0.347805 0 85 0.347805 1
gene 1 29 32 -0.820203 0 86 -0.820203 1
gene 1 29 33 -1.10462 0 87 -1.10462 1
gene 1 30 31 -0.0804663 0 88 -0.0804663 1
gene 1 30 32 0.39757 0 89 0.39757 1
gene 1 30 33 -0.877914 0 90 -0.877914 1
genomeend 11

/* Organism #12 Fitness: 13815.8 Error: 0 */
genomestart 12
trait 1 0.0896452 0 0.949784 0 0 0 0 0.148593 
node 1 1 1 1
node 2 1 1 1
node 3 1 1 1
node 4 1 1 1
node 5 1 1 1
node 6 1 1 1
node 7 1 1 1
node 8 1 1 1
node 9 1 1 1
node 10 1 1 1
node 11 1 1 1
node 12 1 1 1
node 13 1 1 1
node 14 1 1 1
node 15 1 1 1
node 16 1 1 1
node 17 1 1 1
node 18 1 1 1
node 19 1 1 1
node 20 1 1 1
node 21 1 1 1
node 22 1 1 1
node 23 1 1 1
node 24 1 1 1
node 25 1 1 1
node 26 1 1 1
node 27 1 1 1
node 28 1 1 1
node 29 1 1 1
node 30 1 1 3
node 31 1 0 2
node 32 1 0 2
node 33 1 0 2
gene 1 1 31 -0.762676 0 1 -0.762676 1
gene 1 1 32 -1.8508 0 2 -1.8508 1
gene 1 1 33 0.70721 0 3 0.70721 1
gene 1 2 31 -0.890283 0 4 -0.890283 1
gene 1 2 32 2.10928 0 5 2.10928 1
gene 1 2 33 0.825583 0 6 0.825583 1
gene 1 3 31 -0.588603 0 7 -0.588603 1
gene 1 3 32 2.57076 0 8 2.57076 1
gene 1 3 33 -3.06918 0 9 -3.06918 1
gene 1 4 31 2.61326 0 10 2.61326 1
gene 1 4 32 1.7849 0 11 1.7849 1
gene 1 4 33 3.72928 0 12 3.72928 1
gene 1 5 31 0.294055 0 13 0.294055 1
gene 1 5 32 2.44786 0 14 2.44786 1
gene 1 5 33 -0.965527 0 15 -0.965527 1
gene 1 6 31 0.21632 0 16 0.21632 1
gene 1 6 32 2.51825 0 17 2.51825 1
gene 1 6 33 1.3545 0 18 1.3545 1
gene 1 7 31 -0.241172 0 19 -0.241172 1
gene 1 7 32 0.142118 0 20 0.142118 1
gene 1 7 33 -1.21171 0 21 -1.21171 1
gene 1 8 31 -1.79892 0 22 -1.79892 1
gene 1 8 32 0.176355 0 23 0.176355 1
gene 1 8 33 -4.02352 0 24 -4.02352 1
gene 1 9 31 1.06308 0 25 1.06308 1
gene 1 9 32 0.715305 0 26 0.715305 1
gene 1 9 33 -2.89044 0 27 -2.89044 1
gene 1 10 31 -0.12596 0 28 -0.12596 1
gene 1 10 32 -1.09336 0 29 -1.09336 1
gene 1 10 33 0.852601 0 30 0.852601 1
gene 1 11 31 0.203872 0 31 0.203872 1
gene 1 11 32 -2.41328 0 32 -2.41328 1
gene 1 11 33 -0.296621 0 33 -0.296621 1
gene 1 12 31 -1.51554 0 34 -1.51554 1
gene 1 12 32 -1.89001 0 35 -1.89001 1
gene 1 12 33 3.49051 0 36 3.49051 1
gene 1 13 31 1.6109 0 37 1.6109 1
gene 1 13 32 5 0 38 5 1
gene 1 13 33 2.69375 0 39 2.69375 1
gene 1 14 31 -1.63727 0 40 -1.63727 1
gene 1 14 32 3.72496 0 41 3.72496 1
gene 1 14 33 0.195259 0 42 0.195259 1
gene 1 15 31 -3.58782 0 43 -3.58782 1
gene 1 15 32 -1.61067 0 44 -1.61067 1
gene 1 15 33 -3.99611 0 45 -3.99611 1
gene 1 16 31 -1.67827 0 46 -1.67827 1
gene 1 16 32 0.729413 0 47 0.729413 1
gene 1 16 33 -2.40203 0 48 -2.40203 1
gene 1 17 31 -5 0 49 -5 1
gene 1 17 32 -4.63657 0 50 -4.63657 1
gene 1 17 33 2.73078 0 51 2.73078 1
gene 1 18 31 1.55389 0 52 1.55389 1
gene 1 18 32 -3.39702 0 53 -3.39702 1
gene 1 18 33 1.46288 0 54 1.46288 1
gene 1 19 31 -2.39837 0 55 -2.39837 1
gene 1 19 32 -1.68358 0 56 -1.68358 1
gene 1 19 33 -0.253519 0 57 -0.253519 1
gene 1 20 31 -1.26233 0 58 -1.26233 1
gene 1 20 32 1.71651 0 59 1.71651 1
gene 1 20 33 2.31503 0 60 2.31503 1
gene 1 21 31 -0.65859 0 61 -0.65859 1
gene 1 21 32 -0.543724 0 62 -0.543724 1
gene 1 21 33 -2.66345 0 63 -2.66345 1
gene 1 22 31 -0.221634 0 64 -0.221634 1
gene 1 22 32 -0.287013 0 65 -0.287013 1
gene 1 22 33 1.52867 0 66 1.52867 1
gene 1 23 31 4.61573 0 67 4.61573 1
gene 1 23 32 -0.819763 0 68 -0.819763 1
gene 1 23 33 2.27586 0 69 2.27586 1
gene 1 24 31 1.22166 0 70 1.22166 1
gene 1 24 32 -3.16666 0 71 -3.16666 1
gene 1 24 33 -2.01738 0 72 -2.01738 1
gene 1 25 31 1.36223 0 73 1.36223 1
gene 1 25 32 -1.60824 0 74 -1.60824 1
gene 1 25 33 -0.299208 0 75 -0.299208 1
gene 1 26 31 0.982924 0 76 0.982924 1
gene 1 26 32 0.286316 0 77 0.286316 1
gene 1 26 33 0.182412 0 78 0.182412 1
gene 1 27 31 -0.400964 0 79 -0.400964 1
gene 1 27 32 0.433157 0 80 0.433157 1
gene 1 27 33 -0.832358 0 81 -0.832358 1
gene 1 28 31 -2.57477 0 82 -2.57477 1
gene 1 28 32 1.01401 0 83 1.01401 1
gene 1 28 33 0.76763 0 84 0.76763 1
gene 1 29 31 -0.045295 0 85 -0.045295 1
gene 1 29 32 -0.957254 0 86 -0.957254 1
gene 1 29 33 -0.250812 0 87 -0.250812 1
gene 1 30 31 -1.05016 0 88 -1.05016 1
gene 1 30 32 1.08562 0 89 1.08562 1
gene 1 30 33 -0.724025 0 90 -0.724025 1
genomeend 12

/* Organism #13 Fitness: 13386.4 Error: 0 */
genomestart 13
trait 1 0.0896452 0 0.949784 0 0 0 0 0.148593 
node 1 1 1 1
node 2 1 1 1
node 3 1 1 1
node 4 1 1 1
node 5 1 1 1
node 6 1 1 1
node 7 1 1 1
node 8 1 1 1
node 9 1 1 1
node 10 1 1 1
node 11 1 1 1
node 12 1 1 1
node 13 1 1 1
node 14 1 1 1
node 15 1 1 1
node 16 1 1 1
node 17 1 1 1
node 18 1 1 1
node 19 1 1 1
node 20 1 1 1
node 21 1 1 1
node 22 1 1 1
node 23 1 1 1
node 24 1 1 1
node 25 1 1 1
node 26 1 1 1
node 27 1 1 1
node 28 1 1 1
node 29 1 1 1
node 30 1 1 3
node 31 1 0 2
node 32 1 0 2
node 33 1 0 2
gene 1 1 31 0.024295 0 1 0.024295 1
gene 1 1 32 -0.489968 0 2 -0.489968 1
gene 1 1 33 1.94415 0 3 1.94415 1
gene 1 2 31 0.663822 0 4 0.663822 1
gene 1 2 32 1.9682 0 5 1.9682 1
gene 1 2 33 2.32441 0 6 2.32441 1
gene 1 3 31 -0.220428 0 7 -0.220428 1
gene 1 3 32 1.85631 0 8 1.85631 1
gene 1 3 33 -1.6299 0 9 -1.6299 1
gene 1 4 31 1.86528 0 10 1.86528 1
gene 1 4 32 0.769576 0 11 0.769576 1
gene 1 4 33 4.68852 0 12 4.68852 1
gene 1 5 31 -0.956794 0 13 -0.956794 1
gene 1 5 32 1.01206 0 14 1.01206 1
gene 1 5 33 1.46994 0 15 1.46994 1
gene 1 6 31 2.1536 0 16 2.1536 1
gene 1 6 32 2.26198 0 17 2.26198 1
gene 1 6 33 0.623737 0 18 0.623737 1
gene 1 7 31 -1.56591 0 19 -1.56591 1
gene 1 7 32 1.18201 0 20 1.18201 1
gene 1 7 33 0.776327 0 21 0.776327 1
gene 1 8 31 -3.02433 0 22 -3.02433 1
gene 1 8 32 -0.843591 0 23 -0.843591 1
gene 1 8 33 -2.90365 0 24 -2.90365 1
gene 1 9 31 1.30757 0 25 1.30757 1
gene 1 9 32 -1.00579 0 26 -1.00579 1
gene 1 9 33 -0.855211 0 27 -0.855211 1
gene 1 10 31 0.252828 0 28 0.252828 1
gene 1 10 32 -2.41374 0 29 -2.41374 1
gene 1 10 33 2.11731 0 30 2.11731 1
gene 1 11 31 -0.285066 0 31 -0.285066 1
gene 1 11 32 -0.706522 0 32 -0.706522 1
gene 1 11 33 -1.98781 0 33 -1.98781 1
gene 1 12 31 0.344735 0 34 0.344735 1
gene 1 12 32 -1.6594 0 35 -1.6594 1
gene 1 12 33 1.97899 0 36 1.97899 1
gene 1 13 31 -0.145347 0 37 -0.145347 1
gene 1 13 32 2.54044 0 38 2.54044 1
gene 1 13 33 1.37176 0 39 1.37176 1
gene 1 14 31 -0.747897 0 40 -0.747897 1
gene 1 14 32 3.38894 0 41 3.38894 1
gene 1 14 33 -1.17113 0 42 -1.17113 1
gene 1 15 31 -3.07141 0 43 -3.07141 1
gene 1 15 32 0.387126 0 44 0.387126 1
gene 1 15 33 -4.76072 0 45 -4.76072 1
gene 1 16 31 -0.106689 0 46 -0.106689 1
gene 1 16 32 0.626034 0 47 0.626034 1
gene 1 16 33 -2.00734 0 48 -2.00734 1
gene 1 17 31 -5 0 49 -5 1
gene 1 17 32 -4.40866 0 50 -4.40866 1
gene 1 17 33 2.00841 0 51 2.00841 1
gene 1 18 31 0.419644 0 52 0.419644 1
gene 1 18 32 -4.3302 0 53 -4.3302 1
gene 1 18 33 1.87013 0 54 1.87013 1
gene 1 19 31 -1.35973 0 55 -1.35973 1
gene 1 19 32 -3.56052 0 56 -3.56052 1
gene 1 19 33 -0.99229 0 57 -0.99229 1
gene 1 20 31 -2.15168 0 58 -2.15168 1
gene 1 20 32 0.97964 0 59 0.97964 1
gene 1 20 33 1.54129 0 60 1.54129 1
gene 1 21 31 0.253138 0 61 0.253138 1
gene 1 21 32 -1.28262 0 62 -1.28262 1
gene 1 21 33 -0.548151 0 63 -0.548151 1
gene 1 22 31 -0.0807162 0 64 -0.0807162 1
gene 1 22 32 0.476128 0 65 0.476128 1
gene 1 22 33 0.71074 0 66 0.71074 1
gene 1 23 31 4.22709 0 67 4.22709 1
gene 1 23 32 -1.26457 0 68 -1.26457 1
gene 1 23 33 3.69378 0 69 3.69378 1
gene 1 24 31 1.50092 0 70 1.50092 1
gene 1 24 32 -1.83844 0 71 -1.83844 1
gene 1 24 33 -2.49197 0 72 -2.49197 1
gene 1 25 31 1.47363 0 73 1.47363 1
gene 1 25 32 -0.095883 0 74 -0.095883 1
gene 1 25 33 -1.00853 0 75 -1.00853 1
gene 1 26 31 -0.759871 0 76 -0.759871 1
gene 1 26 32 -0.576375 0 77 -0.576375 1
gene 1 26 33 -0.132789 0 78 -0.132789 1
gene 1 27 31 -0.404399 0 79 -0.404399 1
gene 1 27 32 0.0336132 0 80 0.0336132 1
gene 1 27 33 -1.18185 0 81 -1.18185 1
gene 1 28 31 -2.57477 0 82 -2.57477 1
gene 1 28 32 0.736203 0 83 0.736203 1
gene 1 28 33 0.206265 0 84 0.206265 1
gene 1 29 31 -0.321569 0 85 -0.321569 1
gene 1 29 32 0.654143 0 86 0.654143 1
gene 1 29 33 -1.13927 0 87 -1.13927 1
gene 1 30 31 -0.939729 0 88 -0.939729 1
gene 1 30 32 1.06839 0 89 1.06839 1
gene 1 30 33 -2.0319 0 90 -2.0319 1
genomeend 13

/* Organism #14 Fitness: 13430.7 Error: 0 */
genomestart 14
trait 1 0.0896452 0 0.949784 0 0 0 0 0.148593 
node 1 1 1 1
node 2 1 1 1
node 3 1 1 1
node 4 1 1 1
node 5 1 1 1
node 6 1 1 1
node 7 1 1 1
node 8 1 1 1
node 9 1 1 1
node 10 1 1 1
node 11 1 1 1
node 12 1 1 1
node 13 1 1 1
node 14 1 1 1
node 15 1 1 1
node 16 1 1 1
node 17 1 1 1
node 18 1 1 1
node 19 1 1 1
node 20 1 1 1
node 21 1 1 1
node 22 1 1 1
node 23 1 1 1
node 24 1 1 1
node 25 1 1 1
node 26 1 1 1
node 27 1 1 1
node 28 1 1 1
node 29 1 1 1
node 30 1 1 3
node 31 1 0 2
node 32 1 0 2
node 33 1 0 2
gene 1 1 31 -1.72468 0 1 -1.72468 1
gene 1 1 32 -0.0444398 0 2 -0.0444398 1
gene 1 1 33 3.07481 0 3 3.07481 1
gene 1 2 31 -1.30959 0 4 -1.30959 1
gene 1 2 32 2.35747 0 5 2.35747 1
gene 1 2 33 2.87902 0 6 2.87902 1
gene 1 3 31 2.25723 0 7 2.25723 1
gene 1 3 32 3.70854 0 8 3.70854 1
gene 1 3 33 -0.528088 0 9 -0.528088 1
gene 1 4 31 1.12178 0 10 1.12178 1
gene 1 4 32 2.02836 0 11 2.02836 1
gene 1 4 33 4.43949 0 12 4.43949 1
gene 1 5 31 -0.0942314 0 13 -0.0942314 1
gene 1 5 32 1.21051 0 14 1.21051 1
gene 1 5 33 0.449755 0 15 0.449755 1
gene 1 6 31 0.81867 0 16 0.81867 1
gene 1 6 32 2.48714 0 17 2.48714 1
gene 1 6 33 1.8208 0 18 1.8208 1
gene 1 7 31 -1.8376 0 19 -1.8376 1
gene 1 7 32 -0.498956 0 20 -0.498956 1
gene 1 7 33 0.651853 0 21 0.651853 1
gene 1 8 31 -2.86725 0 22 -2.86725 1
gene 1 8 32 0.0555685 0 23 0.0555685 1
gene 1 8 33 -3.69512 0 24 -3.69512 1
gene 1 9 31 -0.283004 0 25 -0.283004 1
gene 1 9 32 -0.994907 0 26 -0.994907 1
gene 1 9 33 -0.710733 0 27 -0.710733 1
gene 1 10 31 0.778913 0 28 0.778913 1
gene 1 10 32 -1.06557 0 29 -1.06557 1
gene 1 10 33 2.49814 0 30 2.49814 1
gene 1 11 31 -1.27129 0 31 -1.27129 1
gene 1 11 32 -1.8532 0 32 -1.8532 1
gene 1 11 33 -2.15975 0 33 -2.15975 1
gene 1 12 31 0.193197 0 34 0.193197 1
gene 1 12 32 -2.37303 0 35 -2.37303 1
gene 1 12 33 3.45529 0 36 3.45529 1
gene 1 13 31 1.97674 0 37 1.97674 1
gene 1 13 32 1.24431 0 38 1.24431 1
gene 1 13 33 3.29115 0 39 3.29115 1
gene 1 14 31 0.673568 0 40 0.673568 1
gene 1 14 32 4.42983 0 41 4.42983 1
gene 1 14 33 0.150787 0 42 0.150787 1
gene 1 15 31 -2.604 0 43 -2.604 1
gene 1 15 32 1.10279 0 44 1.10279 1
gene 1 15 33 -4.20366 0 45 -4.20366 1
gene 1 16 31 -1.56414 0 46 -1.56414 1
gene 1 16 32 0.739497 0 47 0.739497 1
gene 1 16 33 -2.37773 0 48 -2.37773 1
gene 1 17 31 -3.77679 0 49 -3.77679 1
gene 1 17 32 -4.60156 0 50 -4.60156 1
gene 1 17 33 -0.0059635 0 51 -0.0059635 1
gene 1 18 31 1.37782 0 52 1.37782 1
gene 1 18 32 -3.66555 0 53 -3.66555 1
gene 1 18 33 -0.326097 0 54 -0.326097 1
gene 1 19 31 -1.87586 0 55 -1.87586 1
gene 1 19 32 -3.01352 0 56 -3.01352 1
gene 1 19 33 -0.417705 0 57 -0.417705 1
gene 1 20 31 -1.20014 0 58 -1.20014 1
gene 1 20 32 -0.403249 0 59 -0.403249 1
gene 1 20 33 2.46725 0 60 2.46725 1
gene 1 21 31 0.265077 0 61 0.265077 1
gene 1 21 32 1.30851 0 62 1.30851 1
gene 1 21 33 -1.07909 0 63 -1.07909 1
gene 1 22 31 0.348121 0 64 0.348121 1
gene 1 22 32 -1.41897 0 65 -1.41897 1
gene 1 22 33 -0.899235 0 66 -0.899235 1
gene 1 23 31 3.44793 0 67 3.44793 1
gene 1 23 32 -1.54346 0 68 -1.54346 1
gene 1 23 33 3.71101 0 69 3.71101 1
gene 1 24 31 2.05654 0 70 2.05654 1
gene 1 24 32 -1.17653 0 71 -1.17653 1
gene 1 24 33 -2.22483 0 72 -2.22483 1
gene 1 25 31 -0.0439107 0 73 -0.0439107 1
gene 1 25 32 0.075274 0 74 0.075274 1
gene 1 25 33 -0.838325 0 75 -0.838325 1
gene 1 26 31 -0.755012 0 76 -0.755012 1
gene 1 26 32 -0.896358 0 77 -0.896358 1
gene 1 26 33 0.320731 0 78 0.320731 1
gene 1 27 31 1.21872 0 79 1.21872 1
gene 1 27 32 0.670195 0 80 0.670195 1
gene 1 27 33 -0.750383 0 81 -0.750383 1
gene 1 28 31 0.0396464 0 82 0.0396464 1
gene 1 28 32 1.05201 0 83 1.05201 1
gene 1 28 33 -0.797571 0 84 -0.797571 1
gene 1 29 31 1.23175 0 85 1.23175 1
gene 1 29 32 -1.69822 0 86 -1.69822 1
gene 1 29 33 -0.724195 0 87 -0.724195 1
gene 1 30 31 -0.152942 0 88 -0.152942 1
gene 1 30 32 1.7304 0 89 1.7304 1
gene 1 30 33 -1.15129 0 90 -1.15129 1
genomeend 14

/* Organism #15 Fitness: 13202.1 Error: 0 */
genomestart 15
trait 1 0.0896452 0 0.949784 0 0 0 0 0.148593 
node 1 1 1 1
node 2 1 1 1
node 3 1 1 1
node 4 1 1 1
node 5 1 1 1
node 6 1 1 1
node 7 1 1 1
node 8 1 1 1
node 9 1 1 1
node 10 1 1 1
node 11 1 1 1
node 12 1 1 1
node 13 1 1 1
node 14 1 1 1
node 15 1 1 1
node 16 1 1 1
node 17 1 1 1
node 18 1 1 1
node 19 1 1 1
node 20 1 1 1
node 21 1 1 1
node 22 1 1 1
node 23 1 1 1
node 24 1 1 1
node 25 1 1 1
node 26 1 1 1
node 27 1 1 1
node 28 1 1 1
node 29 1 1 1
node 30 1 1 3
node 31 1 0 2
node 32 1 0 2
node 33 1 0 2
gene 1 1 31 -1.00923 0 1 -1.00923 1
gene 1 1 32 -0.960714 0 2 -0.960714 1
gene 1 1 33 2.92216 0 3 2.92216 1
gene 1 2 31 -0.971281 0 4 -0.971281 1
gene 1 2 32 2.55012 0 5 2.55012 1
gene 1 2 33 2.42981 0 6 2.42981 1
gene 1 3 31 0.814539 0 7 0.814539 1
gene 1 3 32 3.74247 0 8 3.74247 1
gene 1 3 33 -2.16963 0 9 -2.16963 1
gene 1 4 31 1.11112 0 10 1.11112 1
gene 1 4 32 1.39118 0 11 1.39118 1
gene 1 4 33 3.43327 0 12 3.43327 1
gene 1 5 31 1.29778 0 13 1.29778 1
gene 1 5 32 1.15955 0 14 1.15955 1
gene 1 5 33 0.127059 0 15 0.127059 1
gene 1 6 31 0.751744 0 16 0.751744 1
gene 1 6 32 2.32827 0 17 2.32827 1
gene 1 6 33 1.31714 0 18 1.31714 1
gene 1 7 31 -1.77355 0 19 -1.77355 1
gene 1 7 32 0.22982 0 20 0.22982 1
gene 1 7 33 1.19077 0 21 1.19077 1
gene 1 8 31 -2.56207 0 22 -2.56207 1
gene 1 8 32 -0.69071 0 23 -0.69071 1
gene 1 8 33 -2.61181 0 24 -2.61181 1
gene 1 9 31 1.60035 0 25 1.60035 1
gene 1 9 32 -1.02386 0 26 -1.02386 1
gene 1 9 33 -0.490726 0 27 -0.490726 1
gene 1 10 31 1.44756 0 28 1.44756 1
gene 1 10 32 -2.59927 0 29 -2.59927 1
gene 1 10 33 2.56753 0 30 2.56753 1
gene 1 11 31 -3.23385 0 31 -3.23385 1
gene 1 11 32 -3.24133 0 32 -3.24133 1
gene 1 11 33 -1.13565 0 33 -1.13565 1
gene 1 12 31 -0.211919 0 34 -0.211919 1
gene 1 12 32 -3.09899 0 35 -3.09899 1
gene 1 12 33 2.37855 0 36 2.37855 1
gene 1 13 31 1.73394 0 37 1.73394 1
gene 1 13 32 2.48613 0 38 2.48613 1
gene 1 13 33 4.24234 0 39 4.24234 1
gene 1 14 31 -0.0310798 0 40 -0.0310798 1
gene 1 14 32 4.08953 0 41 4.08953 1
gene 1 14 33 -0.179947 0 42 -0.179947 1
gene 1 15 31 -3.21937 0 43 -3.21937 1
gene 1 15 32 -0.323567 0 44 -0.323567 1
gene 1 15 33 -4.5299 0 45 -4.5299 1
gene 1 16 31 -0.450435 0 46 -0.450435 1
gene 1 16 32 -0.429676 0 47 -0.429676 1
gene 1 16 33 -3.29671 0 48 -3.29671 1
gene 1 17 31 -5 0 49 -5 1
gene 1 17 32 -4.39669 0 50 -4.39669 1
gene 1 17 33 1.27486 0 51 1.27486 1
gene 1 18 31 0.738904 0 52 0.738904 1
gene 1 18 32 -3.81643 0 53 -3.81643 1
gene 1 18 33 1.15279 0 54 1.15279 1
gene 1 19 31 -2.15312 0 55 -2.15312 1
gene 1 19 32 -3.76511 0 56 -3.76511 1
gene 1 19 33 -0.271925 0 57 -0.271925 1
gene 1 20 31 -1.27099 0 58 -1.27099 1
gene 1 20 32 -0.317063 0 59 -0.317063 1
gene 1 20 33 3.22479 0 60 3.22479 1
gene 1 21 31 0.594885 0 61 0.594885 1
gene 1 21 32 1.18531 0 62 1.18531 1
gene 1 21 33 -2.18936 0 63 -2.18936 1
gene 1 22 31 1.07916 0 64 1.07916 1
gene 1 22 32 -1.15232 0 65 -1.15232 1
gene 1 22 33 -0.999505 0 66 -0.999505 1
gene 1 23 31 5 0 67 5 1
gene 1 23 32 -0.129802 0 68 -0.129802 1
gene 1 23 33 3.74202 0 69 3.74202 1
gene 1 24 31 3.41652 0 70 3.41652 1
gene 1 24 32 -1.67592 0 71 -1.67592 1
gene 1 24 33 -1.68746 0 72 -1.68746 1
gene 1 25 31 -1.42312 0 73 -1.42312 1
gene 1 25 32 0.0761613 0 74 0.0761613 1
gene 1 25 33 -1.21221 0 75 -1.21221 1
gene 1 26 31 0.572808 0 76 0.572808 1
gene 1 26 32 0.772303 0 77 0.772303 1
gene 1 26 33 0.320731 0 78 0.320731 1
gene 1 27 31 0.658651 0 79 0.658651 1
gene 1 27 32 0.514298 0 80 0.514298 1
gene 1 27 33 0.721321 0 81 0.721321 1
gene 1 28 31 -2.9347 0 82 -2.9347 1
gene 1 28 32 1.18326 0 83 1.18326 1
gene 1 28 33 1.88805 0 84 1.88805 1
gene 1 29 31 0.825588 0 85 0.825588 1
gene 1 29 32 0.0381321 0 86 0.0381321 1
gene 1 29 33 -1.62164 0 87 -1.62164 1
gene 1 30 31 -0.152942 0 88 -0.152942 1
gene 1 30 32 1.33859 0 89 1.33859 1
gene 1 30 33 -0.93154 0 90 -0.93154 1
genomeend 15

/* Organism #16 Fitness: 13995.3 Error: 0 */
genomestart 16
trait 1 0.0896452 0 1 0 0 0 0 0.148593 
node 1 1 1 1
node 2 1 1 1
node 3 1 1 1
node 4 1 1 1
node 5 1 1 1
node 6 1 1 1
node 7 1 1 1
node 8 1 1 1
node 9 1 1 1
node 10 1 1 1
node 11 1 1 1
node 12 1 1 1
node 13 1 1 1
node 14 1 1 1
node 15 1 1 1
node 16 1 1 1
node 17 1 1 1
node 18 1 1 1
node 19 1 1 1
node 20 1 1 1
node 21 1 1 1
node 22 1 1 1
node 23 1 1 1
node 24 1 1 1
node 25 1 1 1
node 26 1 1 1
node 27 1 1 1
node 28 1 1 1
node 29 1 1 1
node 30 1 1 3
node 31 1 0 2
node 32 1 0 2
node 33 1 0 2
gene 1 1 31 0.352165 0 1 0.352165 1
gene 1 1 32 0.102571 0 2 0.102571 1
gene 1 1 33 1.92348 0 3 1.92348 1
gene 1 2 31 -0.594169 0 4 -0.594169 1
gene 1 2 32 2.65413 0 5 2.65413 1
gene 1 2 33 2.70617 0 6 2.70617 1
gene 1 3 31 0.00513925 0 7 0.00513925 1
gene 1 3 32 1.5885 0 8 1.5885 1
gene 1 3 33 -3.696 0 9 -3.696 1
gene 1 4 31 1.84671 0 10 1.84671 1
gene 1 4 32 1.15298 0 11 1.15298 1
gene 1 4 33 4.44788 0 12 4.44788 1
gene 1 5 31 -3.16296 0 13 -3.16296 1
gene 1 5 32 5 0 14 5 1
gene 1 5 33 2.27079 0 15 2.27079 1
gene 1 6 31 1.56234 0 16 1.56234 1
gene 1 6 32 3.72981 0 17 3.72981 1
gene 1 6 33 1.80395 0 18 1.80395 1
gene 1 7 31 -1.01308 0 19 -1.01308 1
gene 1 7 32 1.59289 0 20 1.59289 1
gene 1 7 33 1.87354 0 21 1.87354 1
gene 1 8 31 -2.35374 0 22 -2.35374 1
gene 1 8 32 -2.26752 0 23 -2.26752 1
gene 1 8 33 -2.99403 0 24 -2.99403 1
gene 1 9 31 0.973118 0 25 0.973118 1
gene 1 9 32 -1.10442 0 26 -1.10442 1
gene 1 9 33 -1.96403 0 27 -1.96403 1
gene 1 10 31 -0.670834 0 28 -0.670834 1
gene 1 10 32 -4.17035 0 29 -4.17035 1
gene 1 10 33 0.0369733 0 30 0.0369733 1
gene 1 11 31 0.0200314 0 31 0.0200314 1
gene 1 11 32 -1.84737 0 32 -1.84737 1
gene 1 11 33 -1.44339 0 33 -1.44339 1
gene 1 12 31 -0.67429 0 34 -0.67429 1
gene 1 12 32 -0.700784 0 35 -0.700784 1
gene 1 12 33 3.10415 0 36 3.10415 1
gene 1 13 31 -0.0224978 0 37 -0.0224978 1
gene 1 13 32 3.23272 0 38 3.23272 1
gene 1 13 33 2.43927 0 39 2.43927 1
gene 1 14 31 0.842675 0 40 0.842675 1
gene 1 14 32 1.39665 0 41 1.39665 1
gene 1 14 33 -1.26365 0 42 -1.26365 1
gene 1 15 31 -0.874765 0 43 -0.874765 1
gene 1 15 32 -0.586441 0 44 -0.586441 1
gene 1 15 33 -4.6112 0 45 -4.6112 1
gene 1 16 31 -0.0536973 0 46 -0.0536973 1
gene 1 16 32 1.34715 0 47 1.34715 1
gene 1 16 33 -4.30709 0 48 -4.30709 1
gene 1 17 31 -5 0 49 -5 1
gene 1 17 32 -4.26261 0 50 -4.26261 1
gene 1 17 33 3.27204 0 51 3.27204 1
gene 1 18 31 1.14423 0 52 1.14423 1
gene 1 18 32 -4.66991 0 53 -4.66991 1
gene 1 18 33 -0.538543 0 54 -0.538543 1
gene 1 19 31 -2.17036 0 55 -2.17036 1
gene 1 19 32 -2.52392 0 56 -2.52392 1
gene 1 19 33 -0.790504 0 57 -0.790504 1
gene 1 20 31 -1.17157 0 58 -1.17157 1
gene 1 20 32 1.32431 0 59 1.32431 1
gene 1 20 33 2.98751 0 60 2.98751 1
gene 1 21 31 0.267536 0 61 0.267536 1
gene 1 21 32 -1.11932 0 62 -1.11932 1
gene 1 21 33 -0.695709 0 63 -0.695709 1
gene 1 22 31 1.43417 0 64 1.43417 1
gene 1 22 32 -0.217726 0 65 -0.217726 1
gene 1 22 33 0.942115 0 66 0.942115 1
gene 1 23 31 5 0 67 5 1
gene 1 23 32 -2.2137 0 68 -2.2137 1
gene 1 23 33 3.75641 0 69 3.75641 1
gene 1 24 31 0.412333 0 70 0.412333 1
gene 1 24 32 -0.28217 0 71 -0.28217 1
gene 1 24 33 -0.956493 0 72 -0.956493 1
gene 1 25 31 0.968772 0 73 0.968772 1
gene 1 25 32 0.352466 0 74 0.352466 1
gene 1 25 33 -2.63378 0 75 -2.63378 1
gene 1 26 31 -0.129856 0 76 -0.129856 1
gene 1 26 32 -1.31717 0 77 -1.31717 1
gene 1 26 33 0.739635 0 78 0.739635 1
gene 1 27 31 1.03922 0 79 1.03922 1
gene 1 27 32 -2.18188 0 80 -2.18188 1
gene 1 27 33 -1.42148 0 81 -1.42148 1
gene 1 28 31 0.966855 0 82 0.966855 1
gene 1 28 32 0.251701 0 83 0.251701 1
gene 1 28 33 0.391454 0 84 0.391454 1
gene 1 29 31 -1.55998 0 85 -1.55998 1
gene 1 29 32 -1.24204 0 86 -1.24204 1
gene 1 29 33 -0.189658 0 87 -0.189658 1
gene 1 30 31 -0.76782 0 88 -0.76782 1
gene 1 30 32 -0.23123 0 89 -0.23123 1
gene 1 30 33 0.0865758 0 90 0.0865758 1
genomeend 16

/* Organism #17 Fitness: 14324 Error: 0 */
genomestart 17
trait 1 0.0896452 0 0.949784 0.792856 0 0 0 0.148593 
node 1 1 1 1
node 2 1 1 1
node 3 1 1 1
node 4 1 1 1
node 5 1 1 1
node 6 1 1 1
node 7 1 1 1
node 8 1 1 1
node 9 1 1 1
node 10 1 1 1
node 11 1 1 1
node 12 1 1 1
node 13 1 1 1
node 14 1 1 1
node 15 1 1 1
node 16 1 1 1
node 17 1 1 1
node 18 1 1 1
node 19 1 1 1
node 20 1 1 1
node 21 1 1 1
node 22 1 1 1
node 23 1 1 1
node 24 1 1 1
node 25 1 1 1
node 26 1 1 1
node 27 1 1 1
node 28 1 1 1
node 29 1 1 1
node 30 1 1 3
node 31 1 0 2
node 32 1 0 2
node 33 1 0 2
gene 1 1 31 -1.46044 0 1 -1.46044 1
gene 1 1 32 -1.4269 0 2 -1.4269 1
gene 1 1 33 3.09021 0 3 3.09021 1
gene 1 2 31 -1.62688 0 4 -1.62688 1
gene 1 2 32 2.59235 0 5 2.59235 1
gene 1 2 33 3.75672 0 6 3.75672 1
gene 1 3 31 1.21198 0 7 1.21198 1
gene 1 3 32 3.36985 0 8 3.36985 1
gene 1 3 33 -1.3606 0 9 -1.3606 1
gene 1 4 31 1.24074 0 10 1.24074 1
gene 1 4 32 2.57154 0 11 2.57154 1
gene 1 4 33 3.27219 0 12 3.27219 1
gene 1 5 31 0.339922 0 13 0.339922 1
gene 1 5 32 1.08956 0 14 1.08956 1
gene 1 5 33 0.521143 0 15 0.521143 1
gene 1 6 31 1.93208 0 16 1.93208 1
gene 1 6 32 2.66068 0 17 2.66068 1
gene 1 6 33 2.65528 0 18 2.65528 1
gene 1 7 31 -2.40997 0 19 -2.40997 1
gene 1 7 32 -1.52491 0 20 -1.52491 1
gene 1 7 33 0.156488 0 21 0.156488 1
gene 1 8 31 -2.96396 0 22 -2.96396 1
gene 1 8 32 -2.19602 0 23 -2.19602 1
gene 1 8 33 -4.34603 0 24 -4.34603 1
gene 1 9 31 1.92163 0 25 1.92163 1
gene 1 9 32 -1.42504 0 26 -1.42504 1
gene 1 9 33 -0.398478 0 27 -0.398478 1
gene 1 10 31 0.705401 0 28 0.705401 1
gene 1 10 32 -0.606437 0 29 -0.606437 1
gene 1 10 33 2.61873 0 30 2.61873 1
gene 1 11 31 -2.63753 0 31 -2.63753 1
gene 1 11 32 -1.09591 0 32 -1.09591 1
gene 1 11 33 -0.662497 0 33 -0.662497 1
gene 1 12 31 0.541494 0 34 0.541494 1
gene 1 12 32 -2.37308 0 35 -2.37308 1
gene 1 12 33 1.80827 0 36 1.80827 1
gene 1 13 31 2.65569 0 37 2.65569 1
gene 1 13 32 2.8333 0 38 2.8333 1
gene 1 13 33 2.94314 0 39 2.94314 1
gene 1 14 31 -1.36407 0 40 -1.36407 1
gene 1 14 32 3.98189 0 41 3.98189 1
gene 1 14 33 -0.860653 0 42 -0.860653 1
gene 1 15 31 -2.80562 0 43 -2.80562 1
gene 1 15 32 0.265904 0 44 0.265904 1
gene 1 15 33 -5 0 45 -5 1
gene 1 16 31 -0.41266 0 46 -0.41266 1
gene 1 16 32 0.566431 0 47 0.566431 1
gene 1 16 33 -3.39201 0 48 -3.39201 1
gene 1 17 31 -4.38371 0 49 -4.38371 1
gene 1 17 32 -3.56117 0 50 -3.56117 1
gene 1 17 33 1.80867 0 51 1.80867 1
gene 1 18 31 1.59252 0 52 1.59252 1
gene 1 18 32 -2.19453 0 53 -2.19453 1
gene 1 18 33 1.40085 0 54 1.40085 1
gene 1 19 31 -1.65938 0 55 -1.65938 1
gene 1 19 32 -4.40961 0 56 -4.40961 1
gene 1 19 33 0.843025 0 57 0.843025 1
gene 1 20 31 -1.65277 0 58 -1.65277 1
gene 1 20 32 -1.8498 0 59 -1.8498 1
gene 1 20 33 2.11652 0 60 2.11652 1
gene 1 21 31 0.115944 0 61 0.115944 1
gene 1 21 32 0.674935 0 62 0.674935 1
gene 1 21 33 -1.24581 0 63 -1.24581 1
gene 1 22 31 1.21825 0 64 1.21825 1
gene 1 22 32 -0.96259 0 65 -0.96259 1
gene 1 22 33 -0.74028 0 66 -0.74028 1
gene 1 23 31 4.89928 0 67 4.89928 1
gene 1 23 32 -1.22143 0 68 -1.22143 1
gene 1 23 33 2.76821 0 69 2.76821 1
gene 1 24 31 2.58602 0 70 2.58602 1
gene 1 24 32 -0.624748 0 71 -0.624748 1
gene 1 24 33 -2.42242 0 72 -2.42242 1
gene 1 25 31 -0.649065 0 73 -0.649065 1
gene 1 25 32 0.0776378 0 74 0.0776378 1
gene 1 25 33 -2.02625 0 75 -2.02625 1
gene 1 26 31 0.0720482 0 76 0.0720482 1
gene 1 26 32 -0.807314 0 77 -0.807314 1
gene 1 26 33 0.320731 0 78 0.320731 1
gene 1 27 31 0.658651 0 79 0.658651 1
gene 1 27 32 0.736029 0 80 0.736029 1
gene 1 27 33 -0.318921 0 81 -0.318921 1
gene 1 28 31 -2.35772 0 82 -2.35772 1
gene 1 28 32 1.65913 0 83 1.65913 1
gene 1 28 33 1.92858 0 84 1.92858 1
gene 1 29 31 0.454606 0 85 0.454606 1
gene 1 29 32 -1.61746 0 86 -1.61746 1
gene 1 29 33 -0.627233 0 87 -0.627233 1
gene 1 30 31 0.430535 0 88 0.430535 1
gene 1 30 32 2.19002 0 89 2.19002 1
gene 1 30 33 -0.671839 0 90 -0.671839 1
genomeend 17

/* Organism #18 Fitness: 13759.8 Error: 0 */
genomestart 18
trait 1 0.0896452 0 0.949784 0 0 0 0 0.148593 
node 1 1 1 1
node 2 1 1 1
node 3 1 1 1
node 4 1 1 1
node 5 1 1 1
node 6 1 1 1
node 7 1 1 1
node 8 1 1 1
node 9 1 1 1
node 10 1 1 1
node 11 1 1 1
node 12 1 1 1
node 13 1 1 1
node 14 1 1 1
node 15 1 1 1
node 16 1 1 1
node 17 1 1 1
node 18 1 1 1
node 19 1 1 1
node 20 1 1 1
node 21 1 1 1
node 22 1 1 1
node 23 1 1 1
node 24 1 1 1
node 25 1 1 1
node 26 1 1 1
node 27 1 1 1
node 28 1 1 1
node 29 1 1 1
node 30 1 1 3
node 31 1 0 2
node 32 1 0 2
node 33 1 0 2
gene 1 1 31 -1.8472 0 1 -1.8472 1
gene 1 1 32 -0.996771 0 2 -0.996771 1
gene 1 1 33 3.62755 0 3 3.62755 1
gene 1 2 31 -0.619436 0 4 -0.619436 1
gene 1 2 32 2.28685 0 5 2.28685 1
gene 1 2 33 2.52292 0 6 2.52292 1
gene 1 3 31 1.56713 0 7 1.56713 1
gene 1 3 32 3.81642 0 8 3.81642 1
gene 1 3 33 -2.30305 0 9 -2.30305 1
gene 1 4 31 -0.286772 0 10 -0.286772 1
gene 1 4 32 1.03261 0 11 1.03261 1
gene 1 4 33 2.91594 0 12 2.91594 1
gene 1 5 31 0.575836 0 13 0.575836 1
gene 1 5 32 2.69754 0 14 2.69754 1
gene 1 5 33 0.257303 0 15 0.257303 1
gene 1 6 31 2.54154 0 16 2.54154 1
gene 1 6 32 3.00207 0 17 3.00207 1
gene 1 6 33 2.31885 0 18 2.31885 1
gene 1 7 31 -1.10939 0 19 -1.10939 1
gene 1 7 32 -0.894883 0 20 -0.894883 1
gene 1 7 33 0.32927 0 21 0.32927 1
gene 1 8 31 -1.73236 0 22 -1.73236 1
gene 1 8 32 0.347563 0 23 0.347563 1
gene 1 8 33 -4.0029 0 24 -4.0029 1
gene 1 9 31 0.646906 0 25 0.646906 1
gene 1 9 32 -1.42353 0 26 -1.42353 1
gene 1 9 33 -0.276658 0 27 -0.276658 1
gene 1 10 31 1.34958 0 28 1.34958 1
gene 1 10 32 -1.38371 0 29 -1.38371 1
gene 1 10 33 3.06445 0 30 3.06445 1
gene 1 11 31 -2.27711 0 31 -2.27711 1
gene 1 11 32 -1.49574 0 32 -1.49574 1
gene 1 11 33 -1.73874 0 33 -1.73874 1
gene 1 12 31 0.0812366 0 34 0.0812366 1
gene 1 12 32 -2.51729 0 35 -2.51729 1
gene 1 12 33 1.79282 0 36 1.79282 1
gene 1 13 31 1.64183 0 37 1.64183 1
gene 1 13 32 1.87694 0 38 1.87694 1
gene 1 13 33 3.2159 0 39 3.2159 1
gene 1 14 31 1.53249 0 40 1.53249 1
gene 1 14 32 3.31645 0 41 3.31645 1
gene 1 14 33 -1.27481 0 42 -1.27481 1
gene 1 15 31 -2.90881 0 43 -2.90881 1
gene 1 15 32 -0.0997217 0 44 -0.0997217 1
gene 1 15 33 -4.55701 0 45 -4.55701 1
gene 1 16 31 -1.19875 0 46 -1.19875 1
gene 1 16 32 1.11943 0 47 1.11943 1
gene 1 16 33 -1.8618 0 48 -1.8618 1
gene 1 17 31 -5 0 49 -5 1
gene 1 17 32 -3.33363 0 50 -3.33363 1
gene 1 17 33 0.0603861 0 51 0.0603861 1
gene 1 18 31 0.496947 0 52 0.496947 1
gene 1 18 32 -3.06118 0 53 -3.06118 1
gene 1 18 33 1.02527 0 54 1.02527 1
gene 1 19 31 -1.24351 0 55 -1.24351 1
gene 1 19 32 -3.88926 0 56 -3.88926 1
gene 1 19 33 -1.33199 0 57 -1.33199 1
gene 1 20 31 -0.385173 0 58 -0.385173 1
gene 1 20 32 -0.879735 0 59 -0.879735 1
gene 1 20 33 2.83748 0 60 2.83748 1
gene 1 21 31 1.00143 0 61 1.00143 1
gene 1 21 32 -0.156356 0 62 -0.156356 1
gene 1 21 33 -1.84098 0 63 -1.84098 1
gene 1 22 31 0.479786 0 64 0.479786 1
gene 1 22 32 -0.647637 0 65 -0.647637 1
gene 1 22 33 -1.44998 0 66 -1.44998 1
gene 1 23 31 4.94055 0 67 4.94055 1
gene 1 23 32 -0.987442 0 68 -0.987442 1
gene 1 23 33 3.80605 0 69 3.80605 1
gene 1 24 31 2.46884 0 70 2.46884 1
gene 1 24 32 -1.88812 0 71 -1.88812 1
gene 1 24 33 -2.49957 0 72 -2.49957 1
gene 1 25 31 -1.14525 0 73 -1.14525 1
gene 1 25 32 -0.0964404 0 74 -0.0964404 1
gene 1 25 33 -0.562605 0 75 -0.562605 1
gene 1 26 31 0.572808 0 76 0.572808 1
gene 1 26 32 0.055037 0 77 0.055037 1
gene 1 26 33 -0.272423 0 78 -0.272423 1
gene 1 27 31 -0.239715 0 79 -0.239715 1
gene 1 27 32 -0.0801997 0 80 -0.0801997 1
gene 1 27 33 0.119857 0 81 0.119857 1
gene 1 28 31 -0.182319 0 82 -0.182319 1
gene 1 28 32 0.651125 0 83 0.651125 1
gene 1 28 33 1.1886 0 84 1.1886 1
gene 1 29 31 2.21776 0 85 2.21776 1
gene 1 29 32 -1.02818 0 86 -1.02818 1
gene 1 29 33 0.700642 0 87 0.700642 1
gene 1 30 31 0.237628 0 88 0.237628 1
gene 1 30 32 1.36863 0 89 1.36863 1
gene 1 30 33 -0.447589 0 90 -0.447589 1
genomeend 18

/* Organism #19 Fitness: 13400.6 Error: 0 */
genomestart 19
trait 1 0.0896452 0 0.949784 0.792856 0 0 0 0.148593 
node 1 1 1 1
node 2 1 1 1
node 3 1 1 1
node 4 1 1 1
node 5 1 1 1
node 6 1 1 1
node 7 1 1 1
node 8 1 1 1
node 9 1 1 1
node 10 1 1 1
node 11 1 1 1
node 12 1 1 1
node 13 1 1 1
node 14 1 1 1
node 15 1 1 1
node 16 1 1 1
node 17 1 1 1
node 18 1 1 1
node 19 1 1 1
node 20 1 1 1
node 21 1 1 1
node 22 1 1 1
node 23 1 1 1
node 24 1 1 1
node 25 1 1 1
node 26 1 1 1
node 27 1 1 1
node 28 1 1 1
node 29 1 1 1
node 30 1 1 3
node 31 1 0 2
node 32 1 0 2
node 33 1 0 2
gene 1 1 31 -1.66866 0 1 -1.66866 1
gene 1 1 32 -0.496554 0 2 -0.496554 1
gene 1 1 33 3.74781 0 3 3.74781 1
gene 1 2 31 -0.737996 0 4 -0.737996 1
gene 1 2 32 2.3636 0 5 2.3636 1
gene 1 2 33 3.14775 0 6 3.14775 1
gene 1 3 31 1.91819 0 7 1.91819 1
gene 1 3 32 2.86786 0 8 2.86786 1
gene 1 3 33 -1.71133 0 9 -1.71133 1
gene 1 4 31 1.48299 0 10 1.48299 1
gene 1 4 32 1.81121 0 11 1.81121 1
gene 1 4 33 3.14877 0 12 3.14877 1
gene 1 5 31 0.0595258 0 13 0.0595258 1
gene 1 5 32 1.26853 0 14 1.26853 1
gene 1 5 33 0.473643 0 15 0.473643 1
gene 1 6 31 0.95532 0 16 0.95532 1
gene 1 6 32 2.70472 0 17 2.70472 1
gene 1 6 33 2.34278 0 18 2.34278 1
gene 1 7 31 -1.68389 0 19 -1.68389 1
gene 1 7 32 -0.601086 0 20 -0.601086 1
gene 1 7 33 0.112328 0 21 0.112328 1
gene 1 8 31 -3.53177 0 22 -3.53177 1
gene 1 8 32 -1.43855 0 23 -1.43855 1
gene 1 8 33 -3.34861 0 24 -3.34861 1
gene 1 9 31 1.00962 0 25 1.00962 1
gene 1 9 32 -1.33761 0 26 -1.33761 1
gene 1 9 33 0.179342 0 27 0.179342 1
gene 1 10 31 1.49839 0 28 1.49839 1
gene 1 10 32 -1.14639 0 29 -1.14639 1
gene 1 10 33 2.16885 0 30 2.16885 1
gene 1 11 31 -1.73911 0 31 -1.73911 1
gene 1 11 32 -1.40825 0 32 -1.40825 1
gene 1 11 33 -1.33607 0 33 -1.33607 1
gene 1 12 31 -0.237364 0 34 -0.237364 1
gene 1 12 32 -1.60747 0 35 -1.60747 1
gene 1 12 33 1.91046 0 36 1.91046 1
gene 1 13 31 2.29205 0 37 2.29205 1
gene 1 13 32 2.20868 0 38 2.20868 1
gene 1 13 33 3.30394 0 39 3.30394 1
gene 1 14 31 -0.39836 0 40 -0.39836 1
gene 1 14 32 3.36073 0 41 3.36073 1
gene 1 14 33 -0.768056 0 42 -0.768056 1
gene 1 15 31 -2.59329 0 43 -2.59329 1
gene 1 15 32 0.445105 0 44 0.445105 1
gene 1 15 33 -4.76401 0 45 -4.76401 1
gene 1 16 31 -0.592152 0 46 -0.592152 1
gene 1 16 32 0.906061 0 47 0.906061 1
gene 1 16 33 -3.20072 0 48 -3.20072 1
gene 1 17 31 -4.84099 0 49 -4.84099 1
gene 1 17 32 -3.88087 0 50 -3.88087 1
gene 1 17 33 1.2245 0 51 1.2245 1
gene 1 18 31 2.23001 0 52 2.23001 1
gene 1 18 32 -2.70428 0 53 -2.70428 1
gene 1 18 33 1.36108 0 54 1.36108 1
gene 1 19 31 -1.60865 0 55 -1.60865 1
gene 1 19 32 -3.85577 0 56 -3.85577 1
gene 1 19 33 -0.131231 0 57 -0.131231 1
gene 1 20 31 -1.41667 0 58 -1.41667 1
gene 1 20 32 -1.05582 0 59 -1.05582 1
gene 1 20 33 2.59225 0 60 2.59225 1
gene 1 21 31 0.668385 0 61 0.668385 1
gene 1 21 32 1.02743 0 62 1.02743 1
gene 1 21 33 -1.59298 0 63 -1.59298 1
gene 1 22 31 0.932536 0 64 0.932536 1
gene 1 22 32 0.0040715 0 65 0.0040715 1
gene 1 22 33 -1.18248 0 66 -1.18248 1
gene 1 23 31 4.95173 0 67 4.95173 1
gene 1 23 32 -1.718 0 68 -1.718 1
gene 1 23 33 2.6261 0 69 2.6261 1
gene 1 24 31 2.67861 0 70 2.67861 1
gene 1 24 32 -0.893954 0 71 -0.893954 1
gene 1 24 33 -2.66522 0 72 -2.66522 1
gene 1 25 31 -1.37509 0 73 -1.37509 1
gene 1 25 32 0.245863 0 74 0.245863 1
gene 1 25 33 -1.62184 0 75 -1.62184 1
gene 1 26 31 -0.268636 0 76 -0.268636 1
gene 1 26 32 -0.730054 0 77 -0.730054 1
gene 1 26 33 0.320731 0 78 0.320731 1
gene 1 27 31 0.658651 0 79 0.658651 1
gene 1 27 32 1.34782 0 80 1.34782 1
gene 1 27 33 -0.473788 0 81 -0.473788 1
gene 1 28 31 -2.35772 0 82 -2.35772 1
gene 1 28 32 1.05201 0 83 1.05201 1
gene 1 28 33 1.92858 0 84 1.92858 1
gene 1 29 31 1.70234 0 85 1.70234 1
gene 1 29 32 -1.1209 0 86 -1.1209 1
gene 1 29 33 -0.592132 0 87 -0.592132 1
gene 1 30 31 -0.192114 0 88 -0.192114 1
gene 1 30 32 1.33859 0 89 1.33859 1
gene 1 30 33 -0.671839 0 90 -0.671839 1
genomeend 19

/* Organism #20 Fitness: 5516.2 Error: 0 */
genomestart 20
trait 1 0.0896452 0 0.949784 0 0 0 0 0.148593 
node 1 1 1 1
node 2 1 1 1
node 3 1 1 1
node 4 1 1 1
node 5 1 1 1
node 6 1 1 1
node 7 1 1 1
node 8 1 1 1
node 9 1 1 1
node 10 1 1 1
node 11 1 1 1
node 12 1 1 1
node 13 1 1 1
node 14 1 1 1
node 15 1 1 1
node 16 1 1 1
node 17 1 1 1
node 18 1 1 1
node 19 1 1 1
node 20 1 1 1
node 21 1 1 1
node 22 1 1 1
node 23 1 1 1
node 24 1 1 1
node 25 1 1 1
node 26 1 1 1
node 27 1 1 1
node 28 1 1 1
node 29 1 1 1
node 30 1 1 3
node 31 1 0 2
node 32 1 0 2
node 33 1 0 2
gene 1 1 31 -1.43236 0 1 -1.43236 1
gene 1 1 32 1.86786 0 2 1.86786 1
gene 1 1 33 2.71604 0 3 2.71604 1
gene 1 2 31 -0.697196 0 4 -0.697196 1
gene 1 2 32 1.98096 0 5 1.98096 1
gene 1 2 33 3.53739 0 6 3.53739 1
gene 1 3 31 1.49476 0 7 1.49476 1
gene 1 3 32 2.85038 0 8 2.85038 1
gene 1 3 33 -1.67353 0 9 -1.67353 1
gene 1 4 31 0.398632 0 10 0.398632 1
gene 1 4 32 1.25314 0 11 1.25314 1
gene 1 4 33 4.22772 0 12 4.22772 1
gene 1 5 31 0.828575 0 13 0.828575 1
gene 1 5 32 1.89675 0 14 1.89675 1
gene 1 5 33 -0.355814 0 15 -0.355814 1
gene 1 6 31 2.272 0 16 2.272 1
gene 1 6 32 2.56406 0 17 2.56406 1
gene 1 6 33 1.80686 0 18 1.80686 1
gene 1 7 31 -1.58872 0 19 -1.58872 1
gene 1 7 32 -1.10772 0 20 -1.10772 1
gene 1 7 33 1.18136 0 21 1.18136 1
gene 1 8 31 -2.56833 0 22 -2.56833 1
gene 1 8 32 0.0409368 0 23 0.0409368 1
gene 1 8 33 -4.16325 0 24 -4.16325 1
gene 1 9 31 -0.938275 0 25 -0.938275 1
gene 1 9 32 -0.827255 0 26 -0.827255 1
gene 1 9 33 -0.307102 0 27 -0.307102 1
gene 1 10 31 0.682511 0 28 0.682511 1
gene 1 10 32 -1.87514 0 29 -1.87514 1
gene 1 10 33 2.45283 0 30 2.45283 1
gene 1 11 31 -2.39241 0 31 -2.39241 1
gene 1 11 32 -0.429764 0 32 -0.429764 1
gene 1 11 33 -1.35198 0 33 -1.35198 1
gene 1 12 31 0.126769 0 34 0.126769 1
gene 1 12 32 -1.53702 0 35 -1.53702 1
gene 1 12 33 2.59264 0 36 2.59264 1
gene 1 13 31 2.82217 0 37 2.82217 1
gene 1 13 32 -0.252843 0 38 -0.252843 1
gene 1 13 33 1.65728 0 39 1.65728 1
gene 1 14 31 0.319135 0 40 0.319135 1
gene 1 14 32 5 0 41 5 1
gene 1 14 33 0.82301 0 42 0.82301 1
gene 1 15 31 -4.20158 0 43 -4.20158 1
gene 1 15 32 1.71742 0 44 1.71742 1
gene 1 15 33 -5 0 45 -5 1
gene 1 16 31 -0.822453 0 46 -0.822453 1
gene 1 16 32 -0.889383 0 47 -0.889383 1
gene 1 16 33 -3.46021 0 48 -3.46021 1
gene 1 17 31 -3.48782 0 49 -3.48782 1
gene 1 17 32 -3.58918 0 50 -3.58918 1
gene 1 17 33 0.87272 0 51 0.87272 1
gene 1 18 31 1.06225 0 52 1.06225 1
gene 1 18 32 -3.15285 0 53 -3.15285 1
gene 1 18 33 0.524643 0 54 0.524643 1
gene 1 19 31 -2.4998 0 55 -2.4998 1
gene 1 19 32 -3.61725 0 56 -3.61725 1
gene 1 19 33 -1.05315 0 57 -1.05315 1
gene 1 20 31 -0.334188 0 58 -0.334188 1
gene 1 20 32 0.150957 0 59 0.150957 1
gene 1 20 33 1.94473 0 60 1.94473 1
gene 1 21 31 0.559199 0 61 0.559199 1
gene 1 21 32 0.108827 0 62 0.108827 1
gene 1 21 33 -1.05519 0 63 -1.05519 1
gene 1 22 31 0.548548 0 64 0.548548 1
gene 1 22 32 -0.808947 0 65 -0.808947 1
gene 1 22 33 -0.696076 0 66 -0.696076 1
gene 1 23 31 4.3494 0 67 4.3494 1
gene 1 23 32 -1.76471 0 68 -1.76471 1
gene 1 23 33 4.59719 0 69 4.59719 1
gene 1 24 31 1.98764 0 70 1.98764 1
gene 1 24 32 -0.929364 0 71 -0.929364 1
gene 1 24 33 -1.33485 0 72 -1.33485 1
gene 1 25 31 -1.28644 0 73 -1.28644 1
gene 1 25 32 -0.496587 0 74 -0.496587 1
gene 1 25 33 -0.959601 0 75 -0.959601 1
gene 1 26 31 0.78504 0 76 0.78504 1
gene 1 26 32 -1.03203 0 77 -1.03203 1
gene 1 26 33 0.113967 0 78 0.113967 1
gene 1 27 31 -0.508959 0 79 -0.508959 1
gene 1 27 32 0.670195 0 80 0.670195 1
gene 1 27 33 -0.703342 0 81 -0.703342 1
gene 1 28 31 -0.273745 0 82 -0.273745 1
gene 1 28 32 -0.628858 0 83 -0.628858 1
gene 1 28 33 0.166128 0 84 0.166128 1
gene 1 29 31 1.23175 0 85 1.23175 1
gene 1 29 32 0.726903 0 86 0.726903 1
gene 1 29 33 0.80065 0 87 0.80065 1
gene 1 30 31 -0.513768 0 88 -0.513768 1
gene 1 30 32 0.11823 0 89 0.11823 1
gene 1 30 33 -1.01789 0 90 -1.01789 1
genomeend 20

/* Organism #21 Fitness: 12852.1 Error: 0 */
genomestart 21
trait 1 0.0896452 0 0.949784 0 0 0 0 0.148593 
node 1 1 1 1
node 2 1 1 1
node 3 1 1 1
node 4 1 1 1
node 5 1 1 1
node 6 1 1 1
node 7 1 1 1
node 8 1 1 1
node 9 1 1 1
node 10 1 1 1
node 11 1 1 1
node 12 1 1 1
node 13 1 1 1
node 14 1 1 1
node 15 1 1 1
node 16 1 1 1
node 17 1 1 1
node 18 1 1 1
node 19 1 1 1
node 20 1 1 1
node 21 1 1 1
node 22 1 1 1
node 23 1 1 1
node 24 1 1 1
node 25 1 1 1
node 26 1 1 1
node 27 1 1 1
node 28 1 1 1
node 29 1 1 1
node 30 1 1 3
node 31 1 0 2
node 32 1 0 2
node 33 1 0 2
gene 1 1 31 -0.437664 0 1 -0.437664 1
gene 1 1 32 -1.66034 0 2 -1.66034 1
gene 1 1 33 3.38547 0 3 3.38547 1
gene 1 2 31 -1.14483 0 4 -1.14483 1
gene 1 2 32 2.00627 0 5 2.00627 1
gene 1 2 33 2.69073 0 6 2.69073 1
gene 1 3 31 0.995342 0 7 0.995342 1
gene 1 3 32 3.46594 0 8 3.46594 1
gene 1 3 33 -1.24386 0 9 -1.24386 1
gene 1 4 31 -0.299238 0 10 -0.299238 1
gene 1 4 32 0.513772 0 11 0.513772 1
gene 1 4 33 3.7713 0 12 3.7713 1
gene 1 5 31 0.00800677 0 13 0.00800677 1
gene 1 5 32 2.07436 0 14 2.07436 1
gene 1 5 33 1.0195 0 15 1.0195 1
gene 1 6 31 2.26579 0 16 2.26579 1
gene 1 6 32 2.23646 0 17 2.23646 1
gene 1 6 33 0.840529 0 18 0.840529 1
gene 1 7 31 -2.49594 0 19 -2.49594 1
gene 1 7 32 0.287359 0 20 0.287359 1
gene 1 7 33 0.632528 0 21 0.632528 1
gene 1 8 31 -2.8416 0 22 -2.8416 1
gene 1 8 32 -0.767444 0 23 -0.767444 1
gene 1 8 33 -2.56392 0 24 -2.56392 1
gene 1 9 31 0.132173 0 25 0.132173 1
gene 1 9 32 -1.59073 0 26 -1.59073 1
gene 1 9 33 0.640369 0 27 0.640369 1
gene 1 10 31 0.0574888 0 28 0.0574888 1
gene 1 10 32 -2.08188 0 29 -2.08188 1
gene 1 10 33 3.84481 0 30 3.84481 1
gene 1 11 31 -1.44485 0 31 -1.44485 1
gene 1 11 32 -2.12528 0 32 -2.12528 1
gene 1 11 33 -1.24877 0 33 -1.24877 1
gene 1 12 31 -0.161231 0 34 -0.161231 1
gene 1 12 32 -3.39083 0 35 -3.39083 1
gene 1 12 33 3.06981 0 36 3.06981 1
gene 1 13 31 1.20746 0 37 1.20746 1
gene 1 13 32 0.765791 0 38 0.765791 1
gene 1 13 33 4.17903 0 39 4.17903 1
gene 1 14 31 0.547675 0 40 0.547675 1
gene 1 14 32 3.02015 0 41 3.02015 1
gene 1 14 33 -1.0628 0 42 -1.0628 1
gene 1 15 31 -1.67461 0 43 -1.67461 1
gene 1 15 32 0.051036 0 44 0.051036 1
gene 1 15 33 -4.55452 0 45 -4.55452 1
gene 1 16 31 -0.468377 0 46 -0.468377 1
gene 1 16 32 0.88073 0 47 0.88073 1
gene 1 16 33 -1.65168 0 48 -1.65168 1
gene 1 17 31 -3.7127 0 49 -3.7127 1
gene 1 17 32 -3.342 0 50 -3.342 1
gene 1 17 33 0.623442 0 51 0.623442 1
gene 1 18 31 0.833999 0 52 0.833999 1
gene 1 18 32 -4.39987 0 53 -4.39987 1
gene 1 18 33 1.33566 0 54 1.33566 1
gene 1 19 31 -1.76902 0 55 -1.76902 1
gene 1 19 32 -2.81139 0 56 -2.81139 1
gene 1 19 33 -1.35968 0 57 -1.35968 1
gene 1 20 31 -0.287619 0 58 -0.287619 1
gene 1 20 32 -1.12568 0 59 -1.12568 1
gene 1 20 33 3.06873 0 60 3.06873 1
gene 1 21 31 0.388196 0 61 0.388196 1
gene 1 21 32 0.484314 0 62 0.484314 1
gene 1 21 33 -2.13521 0 63 -2.13521 1
gene 1 22 31 1.26224 0 64 1.26224 1
gene 1 22 32 -1.23412 0 65 -1.23412 1
gene 1 22 33 -1.44444 0 66 -1.44444 1
gene 1 23 31 4.662 0 67 4.662 1
gene 1 23 32 -0.422676 0 68 -0.422676 1
gene 1 23 33 3.25275 0 69 3.25275 1
gene 1 24 31 2.66447 0 70 2.66447 1
gene 1 24 32 -1.84366 0 71 -1.84366 1
gene 1 24 33 -2.85049 0 72 -2.85049 1
gene 1 25 31 -1.74883 0 73 -1.74883 1
gene 1 25 32 0.940339 0 74 0.940339 1
gene 1 25 33 -0.787272 0 75 -0.787272 1
gene 1 26 31 -0.306244 0 76 -0.306244 1
gene 1 26 32 -1.22151 0 77 -1.22151 1
gene 1 26 33 0.320731 0 78 0.320731 1
gene 1 27 31 -0.144508 0 79 -0.144508 1
gene 1 27 32 0.791197 0 80 0.791197 1
gene 1 27 33 0.438028 0 81 0.438028 1
gene 1 28 31 -2.9347 0 82 -2.9347 1
gene 1 28 32 1.90542 0 83 1.90542 1
gene 1 28 33 0.85437 0 84 0.85437 1
gene 1 29 31 -0.958292 0 85 -0.958292 1
gene 1 29 32 -0.764867 0 86 -0.764867 1
gene 1 29 33 -0.944577 0 87 -0.944577 1
gene 1 30 31 -0.479201 0 88 -0.479201 1
gene 1 30 32 1.23972 0 89 1.23972 1
gene 1 30 33 -0.177052 0 90 -0.177052 1
genomeend 21

/* Organism #22 Fitness: 6773.6 Error: 0 */
genomestart 22
trait 1 0.0896452 0 0.949784 0 0 0 0.369491 0.148593 
node 1 1 1 1
node 2 1 1 1
node 3 1 1 1
node 4 1 1 1
node 5 1 1 1
node 6 1 1 1
node 7 1 1 1
node 8 1 1 1
node 9 1 1 1
node 10 1 1 1
node 11 1 1 1
node 12 1 1 1
node 13 1 1 1
node 14 1 1 1
node 15 1 1 1
node 16 1 1 1
node 17 1 1 1
node 18 1 1 1
node 19 1 1 1
node 20 1 1 1
node 21 1 1 1
node 22 1 1 1
node 23 1 1 1
node 24 1 1 1
node 25 1 1 1
node 26 1 1 1
node 27 1 1 1
node 28 1 1 1
node 29 1 1 1
node 30 1 1 3
node 31 1 0 2
node 32 1 0 2
node 33 1 0 2
gene 1 1 31 0.709653 0 1 0.709653 1
gene 1 1 32 -1.17386 0 2 -1.17386 1
gene 1 1 33 1.94415 0 3 1.94415 1
gene 1 2 31 0.199254 0 4 0.199254 1
gene 1 2 32 1.48864 0 5 1.48864 1
gene 1 2 33 1.59475 0 6 1.59475 1
gene 1 3 31 -0.85599 0 7 -0.85599 1
gene 1 3 32 2.84739 0 8 2.84739 1
gene 1 3 33 -1.99047 0 9 -1.99047 1
gene 1 4 31 1.54542 0 10 1.54542 1
gene 1 4 32 0.769576 0 11 0.769576 1
gene 1 4 33 5 0 12 5 1
gene 1 5 31 -1.77834 0 13 -1.77834 1
gene 1 5 32 1.84692 0 14 1.84692 1
gene 1 5 33 2.34637 0 15 2.34637 1
gene 1 6 31 -0.944359 0 16 -0.944359 1
gene 1 6 32 3.23905 0 17 3.23905 1
gene 1 6 33 0.309675 0 18 0.309675 1
gene 1 7 31 0.173849 0 19 0.173849 1
gene 1 7 32 0.915581 0 20 0.915581 1
gene 1 7 33 0.824337 0 21 0.824337 1
gene 1 8 31 -2.90501 0 22 -2.90501 1
gene 1 8 32 0.12223 0 23 0.12223 1
gene 1 8 33 -3.06425 0 24 -3.06425 1
gene 1 9 31 1.19484 0 25 1.19484 1
gene 1 9 32 -0.295471 0 26 -0.295471 1
gene 1 9 33 -0.835906 0 27 -0.835906 1
gene 1 10 31 0.252828 0 28 0.252828 1
gene 1 10 32 -0.755364 0 29 -0.755364 1
gene 1 10 33 2.34252 0 30 2.34252 1
gene 1 11 31 -0.369319 0 31 -0.369319 1
gene 1 11 32 -0.748654 0 32 -0.748654 1
gene 1 11 33 -1.20507 0 33 -1.20507 1
gene 1 12 31 0.312793 0 34 0.312793 1
gene 1 12 32 -1.6594 0 35 -1.6594 1
gene 1 12 33 2.90837 0 36 2.90837 1
gene 1 13 31 -0.932185 0 37 -0.932185 1
gene 1 13 32 3.00269 0 38 3.00269 1
gene 1 13 33 2.31845 0 39 2.31845 1
gene 1 14 31 -0.147158 0 40 -0.147158 1
gene 1 14 32 2.64469 0 41 2.64469 1
gene 1 14 33 -1.57254 0 42 -1.57254 1
gene 1 15 31 -3.44677 0 43 -3.44677 1
gene 1 15 32 0.874758 0 44 0.874758 1
gene 1 15 33 -4.76072 0 45 -4.76072 1
gene 1 16 31 0.401503 0 46 0.401503 1
gene 1 16 32 0.388768 0 47 0.388768 1
gene 1 16 33 0.7374 0 48 0.7374 1
gene 1 17 31 -0.322654 0 49 -0.322654 1
gene 1 17 32 -4.24178 0 50 -4.24178 1
gene 1 17 33 2.54491 0 51 2.54491 1
gene 1 18 31 0.899167 0 52 0.899167 1
gene 1 18 32 -4.44548 0 53 -4.44548 1
gene 1 18 33 2.43612 0 54 2.43612 1
gene 1 19 31 -0.367466 0 55 -0.367466 1
gene 1 19 32 -4.06734 0 56 -4.06734 1
gene 1 19 33 -0.819987 0 57 -0.819987 1
gene 1 20 31 -3.10274 0 58 -3.10274 1
gene 1 20 32 -0.963964 0 59 -0.963964 1
gene 1 20 33 2.15535 0 60 2.15535 1
gene 1 21 31 0.379705 0 61 0.379705 1
gene 1 21 32 -1.86835 0 62 -1.86835 1
gene 1 21 33 -0.581842 0 63 -0.581842 1
gene 1 22 31 -0.0807162 0 64 -0.0807162 1
gene 1 22 32 0.476128 0 65 0.476128 1
gene 1 22 33 1.06764 0 66 1.06764 1
gene 1 23 31 4.65189 0 67 4.65189 1
gene 1 23 32 -0.997892 0 68 -0.997892 1
gene 1 23 33 -0.344808 0 69 -0.344808 1
gene 1 24 31 0.895052 0 70 0.895052 1
gene 1 24 32 -1.83844 0 71 -1.83844 1
gene 1 24 33 -2.26873 0 72 -2.26873 1
gene 1 25 31 0.748421 0 73 0.748421 1
gene 1 25 32 0.435979 0 74 0.435979 1
gene 1 25 33 0.130832 0 75 0.130832 1
gene 1 26 31 -0.664653 0 76 -0.664653 1
gene 1 26 32 -1.50958 0 77 -1.50958 1
gene 1 26 33 -0.882075 0 78 -0.882075 1
gene 1 27 31 0.274814 0 79 0.274814 1
gene 1 27 32 -0.647279 0 80 -0.647279 1
gene 1 27 33 -2.135 0 81 -2.135 1
gene 1 28 31 -2.57477 0 82 -2.57477 1
gene 1 28 32 0.0688846 0 83 0.0688846 1
gene 1 28 33 -0.670418 0 84 -0.670418 1
gene 1 29 31 0.387041 0 85 0.387041 1
gene 1 29 32 -0.120013 0 86 -0.120013 1
gene 1 29 33 -1.51315 0 87 -1.51315 1
gene 1 30 31 -1.2675 0 88 -1.2675 1
gene 1 30 32 1.06839 0 89 1.06839 1
gene 1 30 33 -2.14709 0 90 -2.14709 1
genomeend 22

/* Organism #23 Fitness: 12166.6 Error: 0 */
genomestart 23
trait 1 0.0896452 0 0.949784 0 0 0 0 0.148593 
node 1 1 1 1
node 2 1 1 1
node 3 1 1 1
node 4 1 1 1
node 5 1 1 1
node 6 1 1 1
node 7 1 1 1
node 8 1 1 1
node 9 1 1 1
node 10 1 1 1
node 11 1 1 1
node 12 1 1 1
node 13 1 1 1
node 14 1 1 1
node 15 1 1 1
node 16 1 1 1
node 17 1 1 1
node 18 1 1 1
node 19 1 1 1
node 20 1 1 1
node 21 1 1 1
node 22 1 1 1
node 23 1 1 1
node 24 1 1 1
node 25 1 1 1
node 26 1 1 1
node 27 1 1 1
node 28 1 1 1
node 29 1 1 1
node 30 1 1 3
node 31 1 0 2
node 32 1 0 2
node 33 1 0 2
gene 1 1 31 -2.51385 0 1 -2.51385 1
gene 1 1 32 0.833667 0 2 0.833667 1
gene 1 1 33 3.24742 0 3 3.24742 1
gene 1 2 31 -0.457731 0 4 -0.457731 1
gene 1 2 32 2.67864 0 5 2.67864 1
gene 1 2 33 2.52801 0 6 2.52801 1
gene 1 3 31 1.85025 0 7 1.85025 1
gene 1 3 32 3.54435 0 8 3.54435 1
gene 1 3 33 -0.314733 0 9 -0.314733 1
gene 1 4 31 1.13648 0 10 1.13648 1
gene 1 4 32 1.30949 0 11 1.30949 1
gene 1 4 33 3.70156 0 12 3.70156 1
gene 1 5 31 0.523267 0 13 0.523267 1
gene 1 5 32 1.68402 0 14 1.68402 1
gene 1 5 33 -0.297163 0 15 -0.297163 1
gene 1 6 31 1.79265 0 16 1.79265 1
gene 1 6 32 2.52891 0 17 2.52891 1
gene 1 6 33 0.985731 0 18 0.985731 1
gene 1 7 31 -2.60686 0 19 -2.60686 1
gene 1 7 32 -0.586582 0 20 -0.586582 1
gene 1 7 33 -0.0421812 0 21 -0.0421812 1
gene 1 8 31 -3.08661 0 22 -3.08661 1
gene 1 8 32 0.0718801 0 23 0.0718801 1
gene 1 8 33 -3.69167 0 24 -3.69167 1
gene 1 9 31 -0.159973 0 25 -0.159973 1
gene 1 9 32 -1.1475 0 26 -1.1475 1
gene 1 9 33 -1.00982 0 27 -1.00982 1
gene 1 10 31 1.07806 0 28 1.07806 1
gene 1 10 32 -1.61697 0 29 -1.61697 1
gene 1 10 33 1.84052 0 30 1.84052 1
gene 1 11 31 -1.42677 0 31 -1.42677 1
gene 1 11 32 -1.49694 0 32 -1.49694 1
gene 1 11 33 -1.86145 0 33 -1.86145 1
gene 1 12 31 0.844485 0 34 0.844485 1
gene 1 12 32 -1.7869 0 35 -1.7869 1
gene 1 12 33 4.25239 0 36 4.25239 1
gene 1 13 31 2.17113 0 37 2.17113 1
gene 1 13 32 1.49226 0 38 1.49226 1
gene 1 13 33 2.82047 0 39 2.82047 1
gene 1 14 31 0.641524 0 40 0.641524 1
gene 1 14 32 4.35752 0 41 4.35752 1
gene 1 14 33 0.843846 0 42 0.843846 1
gene 1 15 31 -1.64825 0 43 -1.64825 1
gene 1 15 32 1.54276 0 44 1.54276 1
gene 1 15 33 -4.12154 0 45 -4.12154 1
gene 1 16 31 -1.48725 0 46 -1.48725 1
gene 1 16 32 0.537005 0 47 0.537005 1
gene 1 16 33 -2.44006 0 48 -2.44006 1
gene 1 17 31 -4.20116 0 49 -4.20116 1
gene 1 17 32 -5 0 50 -5 1
gene 1 17 33 -0.549206 0 51 -0.549206 1
gene 1 18 31 0.773823 0 52 0.773823 1
gene 1 18 32 -3.13488 0 53 -3.13488 1
gene 1 18 33 -0.442333 0 54 -0.442333 1
gene 1 19 31 -1.83037 0 55 -1.83037 1
gene 1 19 32 -2.80316 0 56 -2.80316 1
gene 1 19 33 0.0465607 0 57 0.0465607 1
gene 1 20 31 -0.567276 0 58 -0.567276 1
gene 1 20 32 0.306607 0 59 0.306607 1
gene 1 20 33 1.52829 0 60 1.52829 1
gene 1 21 31 -0.615718 0 61 -0.615718 1
gene 1 21 32 2.0743 0 62 2.0743 1
gene 1 21 33 -1.84102 0 63 -1.84102 1
gene 1 22 31 1.3353 0 64 1.3353 1
gene 1 22 32 -1.68116 0 65 -1.68116 1
gene 1 22 33 -0.391276 0 66 -0.391276 1
gene 1 23 31 2.98302 0 67 2.98302 1
gene 1 23 32 -1.53612 0 68 -1.53612 1
gene 1 23 33 3.16323 0 69 3.16323 1
gene 1 24 31 2.23956 0 70 2.23956 1
gene 1 24 32 -1.24649 0 71 -1.24649 1
gene 1 24 33 -2.43027 0 72 -2.43027 1
gene 1 25 31 -0.92735 0 73 -0.92735 1
gene 1 25 32 0.466673 0 74 0.466673 1
gene 1 25 33 -0.838325 0 75 -0.838325 1
gene 1 26 31 -0.895895 0 76 -0.895895 1
gene 1 26 32 -0.223837 0 77 -0.223837 1
gene 1 26 33 0.220295 0 78 0.220295 1
gene 1 27 31 0.684858 0 79 0.684858 1
gene 1 27 32 1.32889 0 80 1.32889 1
gene 1 27 33 0.702609 0 81 0.702609 1
gene 1 28 31 0.0396464 0 82 0.0396464 1
gene 1 28 32 1.42768 0 83 1.42768 1
gene 1 28 33 -0.797571 0 84 -0.797571 1
gene 1 29 31 1.40395 0 85 1.40395 1
gene 1 29 32 -1.69822 0 86 -1.69822 1
gene 1 29 33 -1.23237 0 87 -1.23237 1
gene 1 30 31 -0.0849633 0 88 -0.0849633 1
gene 1 30 32 0.512952 0 89 0.512952 1
gene 1 30 33 -1.15129 0 90 -1.15129 1
genomeend 23

/* Organism #24 Fitness: 1384.2 Error: 0 */
genomestart 24
trait 1 0.0896452 0 0.949784 0 0 0 0 0.148593 
node 1 1 1 1
node 2 1 1 1
node 3 1 1 1
node 4 1 1 1
node 5 1 1 1
node 6 1 1 1
node 7 1 1 1
node 8 1 1 1
node 9 1 1 1
node 10 1 1 1
node 11 1 1 1
node 12 1 1 1
node 13 1 1 1
node 14 1 1 1
node 15 1 1 1
node 16 1 1 1
node 17 1 1 1
node 18 1 1 1
node 19 1 1 1
node 20 1 1 1
node 21 1 1 1
node 22 1 1 1
node 23 1 1 1
node 24 1 1 1
node 25 1 1 1
node 26 1 1 1
node 27 1 1 1
node 28 1 1 1
node 29 1 1 1
node 30 1 1 3
node 31 1 0 2
node 32 1 0 2
node 33 1 0 2
gene 1 1 31 -1.00923 0 1 -1.00923 1
gene 1 1 32 -0.667531 0 2 -0.667531 1
gene 1 1 33 3.03612 0 3 3.03612 1
gene 1 2 31 -0.53384 0 4 -0.53384 1
gene 1 2 32 2.33579 0 5 2.33579 1
gene 1 2 33 0.627632 0 6 0.627632 1
gene 1 3 31 1.43687 0 7 1.43687 1
gene 1 3 32 3.62682 0 8 3.62682 1
gene 1 3 33 -2.80148 0 9 -2.80148 1
gene 1 4 31 1.1655 0 10 1.1655 1
gene 1 4 32 0.616548 0 11 0.616548 1
gene 1 4 33 3.43327 0 12 3.43327 1
gene 1 5 31 0.0768246 0 13 0.0768246 1
gene 1 5 32 1.63172 0 14 1.63172 1
gene 1 5 33 -0.681089 0 15 -0.681089 1
gene 1 6 31 1.37036 0 16 1.37036 1
gene 1 6 32 -0.562273 0 17 -0.562273 1
gene 1 6 33 -0.341722 0 18 -0.341722 1
gene 1 7 31 -2.63856 0 19 -2.63856 1
gene 1 7 32 -0.277999 0 20 -0.277999 1
gene 1 7 33 1.19928 0 21 1.19928 1
gene 1 8 31 -2.56207 0 22 -2.56207 1
gene 1 8 32 -0.936619 0 23 -0.936619 1
gene 1 8 33 -3.32055 0 24 -3.32055 1
gene 1 9 31 2.52397 0 25 2.52397 1
gene 1 9 32 -1.02386 0 26 -1.02386 1
gene 1 9 33 -0.11138 0 27 -0.11138 1
gene 1 10 31 0.793779 0 28 0.793779 1
gene 1 10 32 -3.1645 0 29 -3.1645 1
gene 1 10 33 2.52454 0 30 2.52454 1
gene 1 11 31 -3.01153 0 31 -3.01153 1
gene 1 11 32 -3.44612 0 32 -3.44612 1
gene 1 11 33 -1.41922 0 33 -1.41922 1
gene 1 12 31 -0.784561 0 34 -0.784561 1
gene 1 12 32 -2.58955 0 35 -2.58955 1
gene 1 12 33 2.07028 0 36 2.07028 1
gene 1 13 31 1.13715 0 37 1.13715 1
gene 1 13 32 3.48345 0 38 3.48345 1
gene 1 13 33 0.625501 0 39 0.625501 1
gene 1 14 31 -0.11319 0 40 -0.11319 1
gene 1 14 32 3.57476 0 41 3.57476 1
gene 1 14 33 -0.784817 0 42 -0.784817 1
gene 1 15 31 -2.43405 0 43 -2.43405 1
gene 1 15 32 -0.456493 0 44 -0.456493 1
gene 1 15 33 -4.64977 0 45 -4.64977 1
gene 1 16 31 -0.554305 0 46 -0.554305 1
gene 1 16 32 -0.374835 0 47 -0.374835 1
gene 1 16 33 -3.11295 0 48 -3.11295 1
gene 1 17 31 -4.71724 0 49 -4.71724 1
gene 1 17 32 -4.61358 0 50 -4.61358 1
gene 1 17 33 -0.493931 0 51 -0.493931 1
gene 1 18 31 0.616494 0 52 0.616494 1
gene 1 18 32 -4.45802 0 53 -4.45802 1
gene 1 18 33 0.164711 0 54 0.164711 1
gene 1 19 31 -3.02374 0 55 -3.02374 1
gene 1 19 32 -3.97797 0 56 -3.97797 1
gene 1 19 33 -0.380903 0 57 -0.380903 1
gene 1 20 31 -0.332657 0 58 -0.332657 1
gene 1 20 32 -0.67176 0 59 -0.67176 1
gene 1 20 33 3.22479 0 60 3.22479 1
gene 1 21 31 -0.0922471 0 61 -0.0922471 1
gene 1 21 32 2.05383 0 62 2.05383 1
gene 1 21 33 -1.51711 0 63 -1.51711 1
gene 1 22 31 1.46106 0 64 1.46106 1
gene 1 22 32 0.570108 0 65 0.570108 1
gene 1 22 33 -0.253191 0 66 -0.253191 1
gene 1 23 31 5 0 67 5 1
gene 1 23 32 0.454533 0 68 0.454533 1
gene 1 23 33 2.90176 0 69 2.90176 1
gene 1 24 31 2.80443 0 70 2.80443 1
gene 1 24 32 -1.68891 0 71 -1.68891 1
gene 1 24 33 -0.557738 0 72 -0.557738 1
gene 1 25 31 -0.571918 0 73 -0.571918 1
gene 1 25 32 -0.602539 0 74 -0.602539 1
gene 1 25 33 -1.38536 0 75 -1.38536 1
gene 1 26 31 1.02724 0 76 1.02724 1
gene 1 26 32 0.849155 0 77 0.849155 1
gene 1 26 33 0.415976 0 78 0.415976 1
gene 1 27 31 -0.0347144 0 79 -0.0347144 1
gene 1 27 32 0.360322 0 80 0.360322 1
gene 1 27 33 1.41528 0 81 1.41528 1
gene 1 28 31 -3.74195 0 82 -3.74195 1
gene 1 28 32 1.7995 0 83 1.7995 1
gene 1 28 33 1.88805 0 84 1.88805 1
gene 1 29 31 -0.234225 0 85 -0.234225 1
gene 1 29 32 -0.863768 0 86 -0.863768 1
gene 1 29 33 -2.60007 0 87 -2.60007 1
gene 1 30 31 0.419859 0 88 0.419859 1
gene 1 30 32 0.715256 0 89 0.715256 1
gene 1 30 33 -1.41627 0 90 -1.41627 1
genomeend 24

/* Organism #25 Fitness: 12300.2 Error: 0 */
genomestart 25
trait 1 0.0896452 0 1 0 0 0 0 0.148593 
node 1 1 1 1
node 2 1 1 1
node 3 1 1 1
node 4 1 1 1
node 5 1 1 1
node 6 1 1 1
node 7 1 1 1
node 8 1 1 1
node 9 1 1 1
node 10 1 1 1
node 11 1 1 1
node 12 1 1 1
node 13 1 1 1
node 14 1 1 1
node 15 1 1 1
node 16 1 1 1
node 17 1 1 1
node 18 1 1 1
node 19 1 1 1
node 20 1 1 1
node 21 1 1 1
node 22 1 1 1
node 23 1 1 1
node 24 1 1 1
node 25 1 1 1
node 26 1 1 1
node 27 1 1 1
node 28 1 1 1
node 29 1 1 1
node 30 1 1 3
node 31 1 0 2
node 32 1 0 2
node 33 1 0 2
gene 1 1 31 0.554824 0 1 0.554824 1
gene 1 1 32 -0.0570146 0 2 -0.0570146 1
gene 1 1 33 0.56524 0 3 0.56524 1
gene 1 2 31 0.0655007 0 4 0.0655007 1
gene 1 2 32 3.22289 0 5 3.22289 1
gene 1 2 33 2.22099 0 6 2.22099 1
gene 1 3 31 0.203618 0 7 0.203618 1
gene 1 3 32 3.36351 0 8 3.36351 1
gene 1 3 33 -3.22262 0 9 -3.22262 1
gene 1 4 31 2.06433 0 10 2.06433 1
gene 1 4 32 0.858241 0 11 0.858241 1
gene 1 4 33 5 0 12 5 1
gene 1 5 31 -2.31616 0 13 -2.31616 1
gene 1 5 32 4.26467 0 14 4.26467 1
gene 1 5 33 2.29299 0 15 2.29299 1
gene 1 6 31 0.149892 0 16 0.149892 1
gene 1 6 32 3.27534 0 17 3.27534 1
gene 1 6 33 3.38585 0 18 3.38585 1
gene 1 7 31 0.0284022 0 19 0.0284022 1
gene 1 7 32 1.91573 0 20 1.91573 1
gene 1 7 33 3.1372 0 21 3.1372 1
gene 1 8 31 -0.502269 0 22 -0.502269 1
gene 1 8 32 -0.869583 0 23 -0.869583 1
gene 1 8 33 -2.94399 0 24 -2.94399 1
gene 1 9 31 1.74613 0 25 1.74613 1
gene 1 9 32 -0.294146 0 26 -0.294146 1
gene 1 9 33 -3.30107 0 27 -3.30107 1
gene 1 10 31 -1.13772 0 28 -1.13772 1
gene 1 10 32 -3.30563 0 29 -3.30563 1
gene 1 10 33 0.393586 0 30 0.393586 1
gene 1 11 31 -0.124945 0 31 -0.124945 1
gene 1 11 32 0.944942 0 32 0.944942 1
gene 1 11 33 -1.6004 0 33 -1.6004 1
gene 1 12 31 -0.930133 0 34 -0.930133 1
gene 1 12 32 -0.476959 0 35 -0.476959 1
gene 1 12 33 3.1129 0 36 3.1129 1
gene 1 13 31 0.776611 0 37 0.776611 1
gene 1 13 32 3.26126 0 38 3.26126 1
gene 1 13 33 2.92748 0 39 2.92748 1
gene 1 14 31 1.39879 0 40 1.39879 1
