/* Organism #0 Fitness: 15184.926000 Time: 0 */
genomestart 0
trait 1 1.000000 0.129628 0.666191 0.000000 0.000000 0.418197 0.587869 0.832663 
node 1 1 1 1
node 2 1 1 1
node 3 1 1 1
node 4 1 1 1
node 5 1 1 1
node 6 1 1 1
node 7 1 1 1
node 8 1 1 1
node 9 1 1 1
node 10 1 1 1
node 11 1 1 1
node 12 1 1 1
node 13 1 1 1
node 14 1 1 1
node 15 1 1 1
node 16 1 1 1
node 17 1 1 1
node 18 1 1 1
node 19 1 1 1
node 20 1 1 1
node 21 1 1 1
node 22 1 1 1
node 23 1 1 1
node 24 1 1 1
node 25 1 1 1
node 26 1 1 1
node 27 1 1 1
node 28 1 1 1
node 29 1 1 1
node 30 1 1 3
node 31 1 0 2
node 32 1 0 2
node 33 1 0 2
gene 1 1 31 -0.471956 0 1 -0.471956 1
gene 1 1 32 -3.80284 0 2 -3.80284 1
gene 1 1 33 0.188442 0 3 0.188442 1
gene 1 2 31 -0.840761 0 4 -0.840761 1
gene 1 2 32 4.11468 0 5 4.11468 1
gene 1 2 33 -0.249525 0 6 -0.249525 1
gene 1 3 31 -0.477402 0 7 -0.477402 1
gene 1 3 32 2.60484 0 8 2.60484 1
gene 1 3 33 1.8385 0 9 1.8385 1
gene 1 4 31 -0.967771 0 10 -0.967771 1
gene 1 4 32 1.75712 0 11 1.75712 1
gene 1 4 33 -0.194938 0 12 -0.194938 1
gene 1 5 31 -1.07439 0 13 -1.07439 1
gene 1 5 32 0.632505 0 14 0.632505 1
gene 1 5 33 0.387699 0 15 0.387699 1
gene 1 6 31 0.865158 0 16 0.865158 1
gene 1 6 32 1.27343 0 17 1.27343 1
gene 1 6 33 2.66012 0 18 2.66012 1
gene 1 7 31 -1.21418 0 19 -1.21418 1
gene 1 7 32 -0.191938 0 20 -0.191938 1
gene 1 7 33 -0.18267 0 21 -0.18267 1
gene 1 8 31 2.15558 0 22 2.15558 1
gene 1 8 32 -3.97215 0 23 -3.97215 1
gene 1 8 33 0.495525 0 24 0.495525 1
gene 1 9 31 0.308178 0 25 0.308178 1
gene 1 9 32 1.99322 0 26 1.99322 1
gene 1 9 33 -1.0451 0 27 -1.0451 1
gene 1 10 31 -3.29877 0 28 -3.29877 1
gene 1 10 32 -1.77954 0 29 -1.77954 1
gene 1 10 33 -0.531016 0 30 -0.531016 1
gene 1 11 31 -3.21952 0 31 -3.21952 1
gene 1 11 32 1.49049 0 32 1.49049 1
gene 1 11 33 -1.47261 0 33 -1.47261 1
gene 1 12 31 4.43509 0 34 4.43509 1
gene 1 12 32 2.2932 0 35 2.2932 1
gene 1 12 33 3.446 0 36 3.446 1
gene 1 13 31 -2.47317 0 37 -2.47317 1
gene 1 13 32 -1.632 0 38 -1.632 1
gene 1 13 33 -5 0 39 -5 1
gene 1 14 31 2.52684 0 40 2.52684 1
gene 1 14 32 -2.44949 0 41 -2.44949 1
gene 1 14 33 -1.38889 0 42 -1.38889 1
gene 1 15 31 1.62494 0 43 1.62494 1
gene 1 15 32 -1.37097 0 44 -1.37097 1
gene 1 15 33 0.495251 0 45 0.495251 1
gene 1 16 31 0.0651784 0 46 0.0651784 1
gene 1 16 32 -1.72633 0 47 -1.72633 1
gene 1 16 33 -0.360149 0 48 -0.360149 1
gene 1 17 31 -4.46144 0 49 -4.46144 1
gene 1 17 32 0.205902 0 50 0.205902 1
gene 1 17 33 -5 0 51 -5 1
gene 1 18 31 -0.271978 0 52 -0.271978 1
gene 1 18 32 -4.21561 0 53 -4.21561 1
gene 1 18 33 -5 0 54 -5 1
gene 1 19 31 -4.14636 0 55 -4.14636 1
gene 1 19 32 -5 0 56 -5 1
gene 1 19 33 2.08205 0 57 2.08205 1
gene 1 20 31 1.24336 0 58 1.24336 1
gene 1 20 32 -1.35178 0 59 -1.35178 1
gene 1 20 33 0.164872 0 60 0.164872 1
gene 1 21 31 2.57209 0 61 2.57209 1
gene 1 21 32 0.320827 0 62 0.320827 1
gene 1 21 33 -0.534637 0 63 -0.534637 1
gene 1 22 31 0.685211 0 64 0.685211 1
gene 1 22 32 -5 0 65 -5 1
gene 1 22 33 -0.383894 0 66 -0.383894 1
gene 1 23 31 4.3235 0 67 4.3235 1
gene 1 23 32 0.45358 0 68 0.45358 1
gene 1 23 33 -1.45237 0 69 -1.45237 1
gene 1 24 31 1.20755 0 70 1.20755 1
gene 1 24 32 2.14604 0 71 2.14604 1
gene 1 24 33 -2.67328 0 72 -2.67328 1
gene 1 25 31 -5 0 73 -5 1
gene 1 25 32 1.17496 0 74 1.17496 1
gene 1 25 33 0.198247 0 75 0.198247 1
gene 1 26 31 -0.832379 0 76 -0.832379 1
gene 1 26 32 0.208184 0 77 0.208184 1
gene 1 26 33 -1.20023 0 78 -1.20023 1
gene 1 27 31 0.65264 0 79 0.65264 1
gene 1 27 32 0.0175859 0 80 0.0175859 1
gene 1 27 33 0.730619 0 81 0.730619 1
gene 1 28 31 -0.545781 0 82 -0.545781 1
gene 1 28 32 0.13813 0 83 0.13813 1
gene 1 28 33 0.170224 0 84 0.170224 1
gene 1 29 31 0.652064 0 85 0.652064 1
gene 1 29 32 2.41283 0 86 2.41283 1
gene 1 29 33 1.14105 0 87 1.14105 1
gene 1 30 31 -0.685256 0 88 -0.685256 1
gene 1 30 32 1.0619 0 89 1.0619 1
gene 1 30 33 0.419547 0 90 0.419547 1
genomeend 0


