/* Organism #67 Fitness: 15272.500000 Time: 0 */
genomestart 67
trait 1 0.797335 0.180172 1.000000 0.039767 0.000000 0.505387 0.000000 0.550754 
node 1 1 1 1
node 2 1 1 1
node 3 1 1 1
node 4 1 1 1
node 5 1 1 1
node 6 1 1 1
node 7 1 1 1
node 8 1 1 1
node 9 1 1 1
node 10 1 1 1
node 11 1 1 1
node 12 1 1 1
node 13 1 1 1
node 14 1 1 1
node 15 1 1 1
node 16 1 1 1
node 17 1 1 1
node 18 1 1 1
node 19 1 1 1
node 20 1 1 1
node 21 1 1 1
node 22 1 1 1
node 23 1 1 1
node 24 1 1 1
node 25 1 1 1
node 26 1 1 1
node 27 1 1 1
node 28 1 1 1
node 29 1 1 1
node 30 1 1 3
node 31 1 0 2
node 32 1 0 2
node 33 1 0 2
gene 1 1 31 -1.36736 0 1 -1.36736 1
gene 1 1 32 -3.61196 0 2 -3.61196 1
gene 1 1 33 0.126674 0 3 0.126674 1
gene 1 2 31 -1.04776 0 4 -1.04776 1
gene 1 2 32 4.46463 0 5 4.46463 1
gene 1 2 33 -4.00047 0 6 -4.00047 1
gene 1 3 31 -0.586368 0 7 -0.586368 1
gene 1 3 32 2.1468 0 8 2.1468 1
gene 1 3 33 3.47223 0 9 3.47223 1
gene 1 4 31 2.64536 0 10 2.64536 1
gene 1 4 32 2.01593 0 11 2.01593 1
gene 1 4 33 1.00465 0 12 1.00465 1
gene 1 5 31 -0.748372 0 13 -0.748372 1
gene 1 5 32 0.661667 0 14 0.661667 1
gene 1 5 33 0.392957 0 15 0.392957 1
gene 1 6 31 1.27588 0 16 1.27588 1
gene 1 6 32 0.359893 0 17 0.359893 1
gene 1 6 33 0.800487 0 18 0.800487 1
gene 1 7 31 -0.7139 0 19 -0.7139 1
gene 1 7 32 -0.418986 0 20 -0.418986 1
gene 1 7 33 -0.99385 0 21 -0.99385 1
gene 1 8 31 1.01408 0 22 1.01408 1
gene 1 8 32 -1.86536 0 23 -1.86536 1
gene 1 8 33 -0.84027 0 24 -0.84027 1
gene 1 9 31 -2.01009 0 25 -2.01009 1
gene 1 9 32 1.84092 0 26 1.84092 1
gene 1 9 33 -4.80173 0 27 -4.80173 1
gene 1 10 31 -0.0577249 0 28 -0.0577249 1
gene 1 10 32 -1.36802 0 29 -1.36802 1
gene 1 10 33 0.0222947 0 30 0.0222947 1
gene 1 11 31 -1.68723 0 31 -1.68723 1
gene 1 11 32 2.10388 0 32 2.10388 1
gene 1 11 33 -1.62847 0 33 -1.62847 1
gene 1 12 31 0.768524 0 34 0.768524 1
gene 1 12 32 4.64596 0 35 4.64596 1
gene 1 12 33 -0.524295 0 36 -0.524295 1
gene 1 13 31 -2.52177 0 37 -2.52177 1
gene 1 13 32 -2.67936 0 38 -2.67936 1
gene 1 13 33 -3.01632 0 39 -3.01632 1
gene 1 14 31 -0.266108 0 40 -0.266108 1
gene 1 14 32 1.52585 0 41 1.52585 1
gene 1 14 33 3.02584 0 42 3.02584 1
gene 1 15 31 0.309102 0 43 0.309102 1
gene 1 15 32 0.909722 0 44 0.909722 1
gene 1 15 33 4.37748 0 45 4.37748 1
gene 1 16 31 -2.61523 0 46 -2.61523 1
gene 1 16 32 -1.97022 0 47 -1.97022 1
gene 1 16 33 1.61857 0 48 1.61857 1
gene 1 17 31 -4.98709 0 49 -4.98709 1
gene 1 17 32 0.348667 0 50 0.348667 1
gene 1 17 33 0.245213 0 51 0.245213 1
gene 1 18 31 0.638039 0 52 0.638039 1
gene 1 18 32 -4.86138 0 53 -4.86138 1
gene 1 18 33 -1.80473 0 54 -1.80473 1
gene 1 19 31 -2.48379 0 55 -2.48379 1
gene 1 19 32 -5 0 56 -5 1
gene 1 19 33 -0.0357837 0 57 -0.0357837 1
gene 1 20 31 1.21246 0 58 1.21246 1
gene 1 20 32 0.581947 0 59 0.581947 1
gene 1 20 33 -2.50407 0 60 -2.50407 1
gene 1 21 31 3.98565 0 61 3.98565 1
gene 1 21 32 1.92079 0 62 1.92079 1
gene 1 21 33 -0.318474 0 63 -0.318474 1
gene 1 22 31 -1.86205 0 64 -1.86205 1
gene 1 22 32 -4.16692 0 65 -4.16692 1
gene 1 22 33 -3.59233 0 66 -3.59233 1
gene 1 23 31 3.05112 0 67 3.05112 1
gene 1 23 32 -0.730175 0 68 -0.730175 1
gene 1 23 33 0.17224 0 69 0.17224 1
gene 1 24 31 -0.656732 0 70 -0.656732 1
gene 1 24 32 -1.73251 0 71 -1.73251 1
gene 1 24 33 -0.811812 0 72 -0.811812 1
gene 1 25 31 0.812296 0 73 0.812296 1
gene 1 25 32 -0.539237 0 74 -0.539237 1
gene 1 25 33 1.1429 0 75 1.1429 1
gene 1 26 31 1.4317 0 76 1.4317 1
gene 1 26 32 -2.01903 0 77 -2.01903 1
gene 1 26 33 -0.814378 0 78 -0.814378 1
gene 1 27 31 -1.00628 0 79 -1.00628 1
gene 1 27 32 0.053099 0 80 0.053099 1
gene 1 27 33 -0.0188323 0 81 -0.0188323 1
gene 1 28 31 0.634395 0 82 0.634395 1
gene 1 28 32 -0.581237 0 83 -0.581237 1
gene 1 28 33 0.0572244 0 84 0.0572244 1
gene 1 29 31 -1.1737 0 85 -1.1737 1
gene 1 29 32 -0.764715 0 86 -0.764715 1
gene 1 29 33 0.107378 0 87 0.107378 1
gene 1 30 31 -2.63784 0 88 -2.63784 1
gene 1 30 32 0.470483 0 89 0.470483 1
gene 1 30 33 -0.0855989 0 90 -0.0855989 1
genomeend 67


