/* Organism #76 Fitness: 19547.258000 Time: 0 */
genomestart 76
trait 1 1.000000 1.000000 0.632400 0.698083 0.298642 1.000000 0.000000 0.000000 
node 1 1 1 1
node 2 1 1 1
node 3 1 1 1
node 4 1 1 1
node 5 1 1 1
node 6 1 1 1
node 7 1 1 1
node 8 1 1 1
node 9 1 1 1
node 10 1 1 1
node 11 1 1 1
node 12 1 1 1
node 13 1 1 1
node 14 1 1 1
node 15 1 1 1
node 16 1 1 1
node 17 1 1 1
node 18 1 1 1
node 19 1 1 1
node 20 1 1 1
node 21 1 1 1
node 22 1 1 1
node 23 1 1 1
node 24 1 1 1
node 25 1 1 1
node 26 1 1 1
node 27 1 1 3
node 28 1 0 2
node 29 1 0 2
node 30 1 0 2
node 31 1 0 2
gene 1 1 28 -1.28816 0 1 -1.28816 1
gene 1 1 29 -1.57439 0 2 -1.57439 1
gene 1 1 30 -3.7913 0 3 -3.7913 1
gene 1 1 31 -2.41232 0 4 -2.41232 1
gene 1 2 28 -1.60948 0 5 -1.60948 1
gene 1 2 29 -2.38535 0 6 -2.38535 1
gene 1 2 30 -0.356612 0 7 -0.356612 1
gene 1 2 31 -2.11665 0 8 -2.11665 1
gene 1 3 28 -3.74699 0 9 -3.74699 1
gene 1 3 29 -2.90488 0 10 -2.90488 1
gene 1 3 30 -3.90351 0 11 -3.90351 1
gene 1 3 31 3.02514 0 12 3.02514 1
gene 1 4 28 -0.943001 0 13 -0.943001 1
gene 1 4 29 -1.52077 0 14 -1.52077 1
gene 1 4 30 -3.76165 0 15 -3.76165 1
gene 1 4 31 -0.25017 0 16 -0.25017 1
gene 1 5 28 -0.131029 0 17 -0.131029 1
gene 1 5 29 -0.471686 0 18 -0.471686 1
gene 1 5 30 -0.489946 0 19 -0.489946 1
gene 1 5 31 -0.280908 0 20 -0.280908 1
gene 1 6 28 -1.56077 0 21 -1.56077 1
gene 1 6 29 -2.29263 0 22 -2.29263 1
gene 1 6 30 -2.49812 0 23 -2.49812 1
gene 1 6 31 3.21288 0 24 3.21288 1
gene 1 7 28 -2.33738 0 25 -2.33738 1
gene 1 7 29 -1.40386 0 26 -1.40386 1
gene 1 7 30 -0.681339 0 27 -0.681339 1
gene 1 7 31 -2.75336 0 28 -2.75336 1
gene 1 8 28 -4.39746 0 29 -4.39746 1
gene 1 8 29 0.510202 0 30 0.510202 1
gene 1 8 30 -0.571687 0 31 -0.571687 1
gene 1 8 31 0.825679 0 32 0.825679 1
gene 1 9 28 1.64151 0 33 1.64151 1
gene 1 9 29 0.722105 0 34 0.722105 1
gene 1 9 30 -0.33494 0 35 -0.33494 1
gene 1 9 31 -0.99087 0 36 -0.99087 1
gene 1 10 28 2.93038 0 37 2.93038 1
gene 1 10 29 2.56801 0 38 2.56801 1
gene 1 10 30 4.10793 0 39 4.10793 1
gene 1 10 31 -0.246733 0 40 -0.246733 1
gene 1 11 28 -0.586652 0 41 -0.586652 1
gene 1 11 29 -2.99483 0 42 -2.99483 1
gene 1 11 30 -0.609666 0 43 -0.609666 1
gene 1 11 31 -0.398691 0 44 -0.398691 1
gene 1 12 28 -1.42424 0 45 -1.42424 1
gene 1 12 29 4.14791 0 46 4.14791 1
gene 1 12 30 -1.17995 0 47 -1.17995 1
gene 1 12 31 -2.63837 0 48 -2.63837 1
gene 1 13 28 0.338765 0 49 0.338765 1
gene 1 13 29 -2.15209 0 50 -2.15209 1
gene 1 13 30 -1.46676 0 51 -1.46676 1
gene 1 13 31 0.0539188 0 52 0.0539188 1
gene 1 14 28 3.43796 0 53 3.43796 1
gene 1 14 29 3.35653 0 54 3.35653 1
gene 1 14 30 -0.460665 0 55 -0.460665 1
gene 1 14 31 0.84196 0 56 0.84196 1
gene 1 15 28 3.50224 0 57 3.50224 1
gene 1 15 29 -3.08171 0 58 -3.08171 1
gene 1 15 30 0.346873 0 59 0.346873 1
gene 1 15 31 5 0 60 5 1
gene 1 16 28 -1.20785 0 61 -1.20785 1
gene 1 16 29 4.49717 0 62 4.49717 1
gene 1 16 30 2.20911 0 63 2.20911 1
gene 1 16 31 -3.64837 0 64 -3.64837 1
gene 1 17 28 -0.869269 0 65 -0.869269 1
gene 1 17 29 -0.335129 0 66 -0.335129 1
gene 1 17 30 -0.086212 0 67 -0.086212 1
gene 1 17 31 -4.21226 0 68 -4.21226 1
gene 1 18 28 -2.25843 0 69 -2.25843 1
gene 1 18 29 0.492169 0 70 0.492169 1
gene 1 18 30 1.58929 0 71 1.58929 1
gene 1 18 31 -0.813623 0 72 -0.813623 1
gene 1 19 28 -1.6665 0 73 -1.6665 1
gene 1 19 29 -3.0514 0 74 -3.0514 1
gene 1 19 30 1.74435 0 75 1.74435 1
gene 1 19 31 -2.98056 0 76 -2.98056 1
gene 1 20 28 3.39319 0 77 3.39319 1
gene 1 20 29 0.730848 0 78 0.730848 1
gene 1 20 30 -0.363799 0 79 -0.363799 1
gene 1 20 31 1.33923 0 80 1.33923 1
gene 1 21 28 1.76152 0 81 1.76152 1
gene 1 21 29 -0.885909 0 82 -0.885909 1
gene 1 21 30 2.0823 0 83 2.0823 1
gene 1 21 31 -1.30208 0 84 -1.30208 1
gene 1 22 28 -4.07743 0 85 -4.07743 1
gene 1 22 29 -2.90529 0 86 -2.90529 1
gene 1 22 30 1.6138 0 87 1.6138 1
gene 1 22 31 -0.72084 0 88 -0.72084 1
gene 1 23 28 0.546788 0 89 0.546788 1
gene 1 23 29 -1.14559 0 90 -1.14559 1
gene 1 23 30 0.0877339 0 91 0.0877339 1
gene 1 23 31 0.688224 0 92 0.688224 1
gene 1 24 28 -0.0279284 0 93 -0.0279284 1
gene 1 24 29 -0.141834 0 94 -0.141834 1
gene 1 24 30 -0.139024 0 95 -0.139024 1
gene 1 24 31 0.603272 0 96 0.603272 1
gene 1 25 28 1.42119 0 97 1.42119 1
gene 1 25 29 0.471027 0 98 0.471027 1
gene 1 25 30 0.014009 0 99 0.014009 1
gene 1 25 31 -2.56031 0 100 -2.56031 1
gene 1 26 28 0.648192 0 101 0.648192 1
gene 1 26 29 1.74325 0 102 1.74325 1
gene 1 26 30 -3.27808 0 103 -3.27808 1
gene 1 26 31 0.419082 0 104 0.419082 1
gene 1 27 28 -1.74999 0 105 -1.74999 1
gene 1 27 29 -0.972033 0 106 -0.972033 1
gene 1 27 30 0.441454 0 107 0.441454 1
gene 1 27 31 -0.638415 0 108 -0.638415 1
genomeend 76


