/* Organism #3 Fitness: 20100.910000 Time: 0 */
genomestart 3
trait 1 0.000000 0.000000 0.000000 0.000000 0.000000 0.452677 0.288431 0.385426 
node 1 1 1 1
node 2 1 1 1
node 3 1 1 1
node 4 1 1 1
node 5 1 1 1
node 6 1 1 1
node 7 1 1 1
node 8 1 1 1
node 9 1 1 1
node 10 1 1 1
node 11 1 1 1
node 12 1 1 1
node 13 1 1 1
node 14 1 1 1
node 15 1 1 1
node 16 1 1 1
node 17 1 1 1
node 18 1 1 1
node 19 1 1 1
node 20 1 1 1
node 21 1 1 1
node 22 1 1 1
node 23 1 1 1
node 24 1 1 1
node 25 1 1 1
node 26 1 1 1
node 27 1 1 3
node 28 1 0 2
node 29 1 0 2
node 30 1 0 2
node 31 1 0 2
gene 1 1 28 3.41289 0 1 3.41289 1
gene 1 1 29 -0.426657 0 2 -0.426657 1
gene 1 1 30 0.743799 0 3 0.743799 1
gene 1 1 31 -1.3409 0 4 -1.3409 1
gene 1 2 28 0.42117 0 5 0.42117 1
gene 1 2 29 -2.34591 0 6 -2.34591 1
gene 1 2 30 -1.16888 0 7 -1.16888 1
gene 1 2 31 1.63187 0 8 1.63187 1
gene 1 3 28 0.765445 0 9 0.765445 1
gene 1 3 29 -3.12867 0 10 -3.12867 1
gene 1 3 30 -0.158755 0 11 -0.158755 1
gene 1 3 31 -0.0827237 0 12 -0.0827237 1
gene 1 4 28 -2.05322 0 13 -2.05322 1
gene 1 4 29 -0.53411 0 14 -0.53411 1
gene 1 4 30 -1.75783 0 15 -1.75783 1
gene 1 4 31 -3.65495 0 16 -3.65495 1
gene 1 5 28 1.03118 0 17 1.03118 1
gene 1 5 29 1.72987 0 18 1.72987 1
gene 1 5 30 -0.440993 0 19 -0.440993 1
gene 1 5 31 -3.12309 0 20 -3.12309 1
gene 1 6 28 1.04473 0 21 1.04473 1
gene 1 6 29 -0.780676 0 22 -0.780676 1
gene 1 6 30 2.31902 0 23 2.31902 1
gene 1 6 31 0.262716 0 24 0.262716 1
gene 1 7 28 -2.22845 0 25 -2.22845 1
gene 1 7 29 -1.77189 0 26 -1.77189 1
gene 1 7 30 -0.120947 0 27 -0.120947 1
gene 1 7 31 1.4665 0 28 1.4665 1
gene 1 8 28 -1.22684 0 29 -1.22684 1
gene 1 8 29 1.56577 0 30 1.56577 1
gene 1 8 30 1.7813 0 31 1.7813 1
gene 1 8 31 1.94887 0 32 1.94887 1
gene 1 9 28 0.999283 0 33 0.999283 1
gene 1 9 29 -1.93704 0 34 -1.93704 1
gene 1 9 30 1.82645 0 35 1.82645 1
gene 1 9 31 1.56458 0 36 1.56458 1
gene 1 10 28 -0.951828 0 37 -0.951828 1
gene 1 10 29 0.58908 0 38 0.58908 1
gene 1 10 30 -1.18042 0 39 -1.18042 1
gene 1 10 31 -0.682602 0 40 -0.682602 1
gene 1 11 28 -1.67073 0 41 -1.67073 1
gene 1 11 29 0.373867 0 42 0.373867 1
gene 1 11 30 -0.248821 0 43 -0.248821 1
gene 1 11 31 2.85015 0 44 2.85015 1
gene 1 12 28 -1.46169 0 45 -1.46169 1
gene 1 12 29 -0.511081 0 46 -0.511081 1
gene 1 12 30 4.1953 0 47 4.1953 1
gene 1 12 31 0.436415 0 48 0.436415 1
gene 1 13 28 3.30258 0 49 3.30258 1
gene 1 13 29 -4.3895 0 50 -4.3895 1
gene 1 13 30 1.55024 0 51 1.55024 1
gene 1 13 31 -0.989317 0 52 -0.989317 1
gene 1 14 28 1.07317 0 53 1.07317 1
gene 1 14 29 2.15925 0 54 2.15925 1
gene 1 14 30 0.226554 0 55 0.226554 1
gene 1 14 31 0.506426 0 56 0.506426 1
gene 1 15 28 5 0 57 5 1
gene 1 15 29 1.04442 0 58 1.04442 1
gene 1 15 30 2.63096 0 59 2.63096 1
gene 1 15 31 1.74106 0 60 1.74106 1
gene 1 16 28 0.615781 0 61 0.615781 1
gene 1 16 29 -2.87878 0 62 -2.87878 1
gene 1 16 30 1.55205 0 63 1.55205 1
gene 1 16 31 0.596772 0 64 0.596772 1
gene 1 17 28 -0.593057 0 65 -0.593057 1
gene 1 17 29 -5 0 66 -5 1
gene 1 17 30 0.443018 0 67 0.443018 1
gene 1 17 31 -4.15527 0 68 -4.15527 1
gene 1 18 28 1.18103 0 69 1.18103 1
gene 1 18 29 -0.874842 0 70 -0.874842 1
gene 1 18 30 0.931366 0 71 0.931366 1
gene 1 18 31 -0.216502 0 72 -0.216502 1
gene 1 19 28 -3.78382 0 73 -3.78382 1
gene 1 19 29 -0.642538 0 74 -0.642538 1
gene 1 19 30 0.351391 0 75 0.351391 1
gene 1 19 31 1.79955 0 76 1.79955 1
gene 1 20 28 -2.75199 0 77 -2.75199 1
gene 1 20 29 2.09147 0 78 2.09147 1
gene 1 20 30 0.459261 0 79 0.459261 1
gene 1 20 31 -1.27845 0 80 -1.27845 1
gene 1 21 28 -0.757524 0 81 -0.757524 1
gene 1 21 29 -0.470711 0 82 -0.470711 1
gene 1 21 30 -1.34266 0 83 -1.34266 1
gene 1 21 31 -0.154864 0 84 -0.154864 1
gene 1 22 28 -4.05658 0 85 -4.05658 1
gene 1 22 29 0.98009 0 86 0.98009 1
gene 1 22 30 1.00277 0 87 1.00277 1
gene 1 22 31 0.272091 0 88 0.272091 1
gene 1 23 28 -0.70736 0 89 -0.70736 1
gene 1 23 29 -0.510836 0 90 -0.510836 1
gene 1 23 30 -0.180934 0 91 -0.180934 1
gene 1 23 31 1.13478 0 92 1.13478 1
gene 1 24 28 -1.24298 0 93 -1.24298 1
gene 1 24 29 -0.557747 0 94 -0.557747 1
gene 1 24 30 0.59406 0 95 0.59406 1
gene 1 24 31 -1.58041 0 96 -1.58041 1
gene 1 25 28 2.3614 0 97 2.3614 1
gene 1 25 29 0.868828 0 98 0.868828 1
gene 1 25 30 0.680551 0 99 0.680551 1
gene 1 25 31 0.663415 0 100 0.663415 1
gene 1 26 28 -0.606293 0 101 -0.606293 1
gene 1 26 29 3.04825 0 102 3.04825 1
gene 1 26 30 -0.674327 0 103 -0.674327 1
gene 1 26 31 2.77709 0 104 2.77709 1
gene 1 27 28 -4.54062 0 105 -4.54062 1
gene 1 27 29 -3.11281 0 106 -3.11281 1
gene 1 27 30 0.49957 0 107 0.49957 1
gene 1 27 31 -0.485836 0 108 -0.485836 1
genomeend 3


