/* Organism #5 Fitness: 20345.522000 Time: 0 */
genomestart 5
trait 1 0.469003 0.619288 0.762387 0.690879 0.359521 0.315451 0.800498 0.526589 
node 1 1 1 1
node 2 1 1 1
node 3 1 1 1
node 4 1 1 1
node 5 1 1 1
node 6 1 1 1
node 7 1 1 1
node 8 1 1 1
node 9 1 1 1
node 10 1 1 1
node 11 1 1 1
node 12 1 1 1
node 13 1 1 1
node 14 1 1 1
node 15 1 1 1
node 16 1 1 1
node 17 1 1 1
node 18 1 1 1
node 19 1 1 1
node 20 1 1 1
node 21 1 1 1
node 22 1 1 1
node 23 1 1 1
node 24 1 1 1
node 25 1 1 1
node 26 1 1 1
node 27 1 1 3
node 28 1 0 2
node 29 1 0 2
node 30 1 0 2
node 31 1 0 2
gene 1 1 28 -1.42297 0 1 -1.42297 1
gene 1 1 29 -1.85897 0 2 -1.85897 1
gene 1 1 30 -3.19542 0 3 -3.19542 1
gene 1 1 31 2.95253 0 4 2.95253 1
gene 1 2 28 -1.12177 0 5 -1.12177 1
gene 1 2 29 -0.726513 0 6 -0.726513 1
gene 1 2 30 -1.24205 0 7 -1.24205 1
gene 1 2 31 -0.11941 0 8 -0.11941 1
gene 1 3 28 -1.2175 0 9 -1.2175 1
gene 1 3 29 5 0 10 5 1
gene 1 3 30 -0.00388406 0 11 -0.00388406 1
gene 1 3 31 -1.8113 0 12 -1.8113 1
gene 1 4 28 1.69753 0 13 1.69753 1
gene 1 4 29 -0.218929 0 14 -0.218929 1
gene 1 4 30 -2.11909 0 15 -2.11909 1
gene 1 4 31 -5 0 16 -5 1
gene 1 5 28 -0.154226 0 17 -0.154226 1
gene 1 5 29 0.654661 0 18 0.654661 1
gene 1 5 30 -2.04306 0 19 -2.04306 1
gene 1 5 31 -0.120354 0 20 -0.120354 1
gene 1 6 28 0.928309 0 21 0.928309 1
gene 1 6 29 -1.98273 0 22 -1.98273 1
gene 1 6 30 -0.019812 0 23 -0.019812 1
gene 1 6 31 -1.43395 0 24 -1.43395 1
gene 1 7 28 3.00531 0 25 3.00531 1
gene 1 7 29 5 0 26 5 1
gene 1 7 30 -1.08312 0 27 -1.08312 1
gene 1 7 31 -0.658754 0 28 -0.658754 1
gene 1 8 28 0.78859 0 29 0.78859 1
gene 1 8 29 -0.0855407 0 30 -0.0855407 1
gene 1 8 30 -5 0 31 -5 1
gene 1 8 31 -1.40976 0 32 -1.40976 1
gene 1 9 28 -1.30569 0 33 -1.30569 1
gene 1 9 29 -1.58157 0 34 -1.58157 1
gene 1 9 30 -0.892547 0 35 -0.892547 1
gene 1 9 31 0.0829353 0 36 0.0829353 1
gene 1 10 28 -3.85308 0 37 -3.85308 1
gene 1 10 29 0.994017 0 38 0.994017 1
gene 1 10 30 -0.691965 0 39 -0.691965 1
gene 1 10 31 2.63006 0 40 2.63006 1
gene 1 11 28 -0.43848 0 41 -0.43848 1
gene 1 11 29 -1.28986 0 42 -1.28986 1
gene 1 11 30 0.999122 0 43 0.999122 1
gene 1 11 31 1.23907 0 44 1.23907 1
gene 1 12 28 -0.64415 0 45 -0.64415 1
gene 1 12 29 3.03115 0 46 3.03115 1
gene 1 12 30 0.629627 0 47 0.629627 1
gene 1 12 31 0.898191 0 48 0.898191 1
gene 1 13 28 -0.744751 0 49 -0.744751 1
gene 1 13 29 -0.618211 0 50 -0.618211 1
gene 1 13 30 1.02628 0 51 1.02628 1
gene 1 13 31 1.57878 0 52 1.57878 1
gene 1 14 28 -0.136775 0 53 -0.136775 1
gene 1 14 29 -0.222322 0 54 -0.222322 1
gene 1 14 30 -4.32453 0 55 -4.32453 1
gene 1 14 31 0.116965 0 56 0.116965 1
gene 1 15 28 -0.558601 0 57 -0.558601 1
gene 1 15 29 3.88938 0 58 3.88938 1
gene 1 15 30 -0.944172 0 59 -0.944172 1
gene 1 15 31 3.06946 0 60 3.06946 1
gene 1 16 28 0.951459 0 61 0.951459 1
gene 1 16 29 0.948281 0 62 0.948281 1
gene 1 16 30 2.06262 0 63 2.06262 1
gene 1 16 31 3.32862 0 64 3.32862 1
gene 1 17 28 1.02586 0 65 1.02586 1
gene 1 17 29 0.313515 0 66 0.313515 1
gene 1 17 30 -0.420625 0 67 -0.420625 1
gene 1 17 31 0.000619083 0 68 0.000619083 1
gene 1 18 28 -0.944315 0 69 -0.944315 1
gene 1 18 29 0.1189 0 70 0.1189 1
gene 1 18 30 3.17731 0 71 3.17731 1
gene 1 18 31 -0.644746 0 72 -0.644746 1
gene 1 19 28 3.07439 0 73 3.07439 1
gene 1 19 29 0.838003 0 74 0.838003 1
gene 1 19 30 -0.564408 0 75 -0.564408 1
gene 1 19 31 0.437079 0 76 0.437079 1
gene 1 20 28 2.85293 0 77 2.85293 1
gene 1 20 29 2.00235 0 78 2.00235 1
gene 1 20 30 4.30373 0 79 4.30373 1
gene 1 20 31 1.11494 0 80 1.11494 1
gene 1 21 28 -0.488462 0 81 -0.488462 1
gene 1 21 29 -0.251393 0 82 -0.251393 1
gene 1 21 30 -5 0 83 -5 1
gene 1 21 31 3.867 0 84 3.867 1
gene 1 22 28 0.26435 0 85 0.26435 1
gene 1 22 29 2.79194 0 86 2.79194 1
gene 1 22 30 -0.796837 0 87 -0.796837 1
gene 1 22 31 2.06253 0 88 2.06253 1
gene 1 23 28 -0.108472 0 89 -0.108472 1
gene 1 23 29 -0.205078 0 90 -0.205078 1
gene 1 23 30 0.354416 0 91 0.354416 1
gene 1 23 31 -1.44479 0 92 -1.44479 1
gene 1 24 28 -0.503221 0 93 -0.503221 1
gene 1 24 29 -0.37184 0 94 -0.37184 1
gene 1 24 30 1.45026 0 95 1.45026 1
gene 1 24 31 0.875854 0 96 0.875854 1
gene 1 25 28 -0.301047 0 97 -0.301047 1
gene 1 25 29 -3.04802 0 98 -3.04802 1
gene 1 25 30 2.22953 0 99 2.22953 1
gene 1 25 31 0.532946 0 100 0.532946 1
gene 1 26 28 -0.539909 0 101 -0.539909 1
gene 1 26 29 -1.94969 0 102 -1.94969 1
gene 1 26 30 0.638879 0 103 0.638879 1
gene 1 26 31 0.12628 0 104 0.12628 1
gene 1 27 28 2.71228 0 105 2.71228 1
gene 1 27 29 4.10179 0 106 4.10179 1
gene 1 27 30 -3.34689 0 107 -3.34689 1
gene 1 27 31 0.421564 0 108 0.421564 1
genomeend 5


