/* Organism #7 Fitness: 8863.762000 Time: 0 */
genomestart 7
trait 1 0.514694 0.287746 0.860797 0.329329 0.261074 0.000000 1.000000 0.366848 
node 1 1 1 1
node 2 1 1 1
node 3 1 1 1
node 4 1 1 1
node 5 1 1 1
node 6 1 1 1
node 7 1 1 1
node 8 1 1 1
node 9 1 1 1
node 10 1 1 1
node 11 1 1 1
node 12 1 1 1
node 13 1 1 1
node 14 1 1 1
node 15 1 1 1
node 16 1 1 1
node 17 1 1 1
node 18 1 1 1
node 19 1 1 1
node 20 1 1 1
node 21 1 1 1
node 22 1 1 1
node 23 1 1 1
node 24 1 1 1
node 25 1 1 1
node 26 1 1 1
node 27 1 1 1
node 28 1 1 1
node 29 1 1 1
node 30 1 1 1
node 31 1 1 1
node 32 1 1 1
node 33 1 1 1
node 34 1 1 1
node 35 1 1 3
node 36 1 0 2
node 37 1 0 2
node 38 1 0 2
node 39 1 0 2
gene 1 1 36 -0.477075 0 1 -0.477075 1
gene 1 1 37 -1.24981 0 2 -1.24981 1
gene 1 1 38 -4.70695 0 3 -4.70695 1
gene 1 1 39 3.95437 0 4 3.95437 1
gene 1 2 36 -4.30839 0 5 -4.30839 1
gene 1 2 37 4.53111 0 6 4.53111 1
gene 1 2 38 0.247391 0 7 0.247391 1
gene 1 2 39 3.286 0 8 3.286 1
gene 1 3 36 0.950659 0 9 0.950659 1
gene 1 3 37 2.08704 0 10 2.08704 1
gene 1 3 38 1.95653 0 11 1.95653 1
gene 1 3 39 4.97085 0 12 4.97085 1
gene 1 4 36 0.351838 0 13 0.351838 1
gene 1 4 37 4.00545 0 14 4.00545 1
gene 1 4 38 -1.0397 0 15 -1.0397 1
gene 1 4 39 -2.38024 0 16 -2.38024 1
gene 1 5 36 0.952653 0 17 0.952653 1
gene 1 5 37 1.13775 0 18 1.13775 1
gene 1 5 38 2.90988 0 19 2.90988 1
gene 1 5 39 -5 0 20 -5 1
gene 1 6 36 2.97837 0 21 2.97837 1
gene 1 6 37 -1.27153 0 22 -1.27153 1
gene 1 6 38 0.653755 0 23 0.653755 1
gene 1 6 39 1.97624 0 24 1.97624 1
gene 1 7 36 4.953 0 25 4.953 1
gene 1 7 37 -3.06062 0 26 -3.06062 1
gene 1 7 38 1.33318 0 27 1.33318 1
gene 1 7 39 0.311909 0 28 0.311909 1
gene 1 8 36 -0.869546 0 29 -0.869546 1
gene 1 8 37 -3.4107 0 30 -3.4107 1
gene 1 8 38 1.87107 0 31 1.87107 1
gene 1 8 39 2.8169 0 32 2.8169 1
gene 1 9 36 -3.43145 0 33 -3.43145 1
gene 1 9 37 -0.505768 0 34 -0.505768 1
gene 1 9 38 2.50432 0 35 2.50432 1
gene 1 9 39 -4.09268 0 36 -4.09268 1
gene 1 10 36 2.08464 0 37 2.08464 1
gene 1 10 37 1.82044 0 38 1.82044 1
gene 1 10 38 0.272579 0 39 0.272579 1
gene 1 10 39 -4.66946 0 40 -4.66946 1
gene 1 11 36 1.37701 0 41 1.37701 1
gene 1 11 37 -0.325172 0 42 -0.325172 1
gene 1 11 38 -3.17079 0 43 -3.17079 1
gene 1 11 39 2.87619 0 44 2.87619 1
gene 1 12 36 0.749344 0 45 0.749344 1
gene 1 12 37 -2.43871 0 46 -2.43871 1
gene 1 12 38 -1.54187 0 47 -1.54187 1
gene 1 12 39 1.8897 0 48 1.8897 1
gene 1 13 36 4.72701 0 49 4.72701 1
gene 1 13 37 -4.98197 0 50 -4.98197 1
gene 1 13 38 -0.68236 0 51 -0.68236 1
gene 1 13 39 2.88584 0 52 2.88584 1
gene 1 14 36 -0.087773 0 53 -0.087773 1
gene 1 14 37 -0.778533 0 54 -0.778533 1
gene 1 14 38 3.78592 0 55 3.78592 1
gene 1 14 39 3.45925 0 56 3.45925 1
gene 1 15 36 1.07153 0 57 1.07153 1
gene 1 15 37 3.60008 0 58 3.60008 1
gene 1 15 38 2.14262 0 59 2.14262 1
gene 1 15 39 -1.7702 0 60 -1.7702 1
gene 1 16 36 0.503964 0 61 0.503964 1
gene 1 16 37 2.79702 0 62 2.79702 1
gene 1 16 38 4.93151 0 63 4.93151 1
gene 1 16 39 -1.094 0 64 -1.094 1
gene 1 17 36 -4.6649 0 65 -4.6649 1
gene 1 17 37 2.03416 0 66 2.03416 1
gene 1 17 38 4.74265 0 67 4.74265 1
gene 1 17 39 -3.37466 0 68 -3.37466 1
gene 1 18 36 -3.66093 0 69 -3.66093 1
gene 1 18 37 3.5965 0 70 3.5965 1
gene 1 18 38 1.32006 0 71 1.32006 1
gene 1 18 39 -4.07505 0 72 -4.07505 1
gene 1 19 36 -4.96392 0 73 -4.96392 1
gene 1 19 37 -0.71453 0 74 -0.71453 1
gene 1 19 38 -2.09836 0 75 -2.09836 1
gene 1 19 39 -1.50973 0 76 -1.50973 1
gene 1 20 36 -0.753913 0 77 -0.753913 1
gene 1 20 37 1.21411 0 78 1.21411 1
gene 1 20 38 1.88324 0 79 1.88324 1
gene 1 20 39 5 0 80 5 1
gene 1 21 36 -1.61397 0 81 -1.61397 1
gene 1 21 37 0.960446 0 82 0.960446 1
gene 1 21 38 -0.103742 0 83 -0.103742 1
gene 1 21 39 -1.91031 0 84 -1.91031 1
gene 1 22 36 0.911828 0 85 0.911828 1
gene 1 22 37 4.24934 0 86 4.24934 1
gene 1 22 38 -1.46368 0 87 -1.46368 1
gene 1 22 39 -1.00933 0 88 -1.00933 1
gene 1 23 36 0.492855 0 89 0.492855 1
gene 1 23 37 -0.417576 0 90 -0.417576 1
gene 1 23 38 0.518825 0 91 0.518825 1
gene 1 23 39 -1.66294 0 92 -1.66294 1
gene 1 24 36 1.38017 0 93 1.38017 1
gene 1 24 37 -1.10881 0 94 -1.10881 1
gene 1 24 38 -0.714518 0 95 -0.714518 1
gene 1 24 39 0.637599 0 96 0.637599 1
gene 1 25 36 -1.11442 0 97 -1.11442 1
gene 1 25 37 0.653966 0 98 0.653966 1
gene 1 25 38 -3.25472 0 99 -3.25472 1
gene 1 25 39 0.825038 0 100 0.825038 1
gene 1 26 36 -2.86545 0 101 -2.86545 1
gene 1 26 37 -0.623158 0 102 -0.623158 1
gene 1 26 38 -0.17833 0 103 -0.17833 1
gene 1 26 39 0.723408 0 104 0.723408 1
gene 1 27 36 -3.1234 0 105 -3.1234 1
gene 1 27 37 -0.883044 0 106 -0.883044 1
gene 1 27 38 0.88797 0 107 0.88797 1
gene 1 27 39 -3.0162 0 108 -3.0162 1
gene 1 28 36 -2.86742 0 109 -2.86742 1
gene 1 28 37 -1.99427 0 110 -1.99427 1
gene 1 28 38 -0.301823 0 111 -0.301823 1
gene 1 28 39 -2.36589 0 112 -2.36589 1
gene 1 29 36 3.67644 0 113 3.67644 1
gene 1 29 37 -0.147544 0 114 -0.147544 1
gene 1 29 38 -1.55566 0 115 -1.55566 1
gene 1 29 39 -0.143699 0 116 -0.143699 1
gene 1 30 36 1.46773 0 117 1.46773 1
gene 1 30 37 -0.698167 0 118 -0.698167 1
gene 1 30 38 -0.239442 0 119 -0.239442 1
gene 1 30 39 1.25842 0 120 1.25842 1
gene 1 31 36 0.940036 0 121 0.940036 1
gene 1 31 37 0.974124 0 122 0.974124 1
gene 1 31 38 0.179107 0 123 0.179107 1
gene 1 31 39 0.844065 0 124 0.844065 1
gene 1 32 36 -1.66048 0 125 -1.66048 1
gene 1 32 37 0.43594 0 126 0.43594 1
gene 1 32 38 -0.252832 0 127 -0.252832 1
gene 1 32 39 0.225239 0 128 0.225239 1
gene 1 33 36 0.463643 0 129 0.463643 1
gene 1 33 37 -0.836916 0 130 -0.836916 1
gene 1 33 38 -0.778867 0 131 -0.778867 1
gene 1 33 39 -0.0570488 0 132 -0.0570488 1
gene 1 34 36 1.88884 0 133 1.88884 1
gene 1 34 37 0.640423 0 134 0.640423 1
gene 1 34 38 0.0958654 0 135 0.0958654 1
gene 1 34 39 -0.520008 0 136 -0.520008 1
gene 1 35 36 1.55004 0 137 1.55004 1
gene 1 35 37 -4.55255 0 138 -4.55255 1
gene 1 35 38 -0.115316 0 139 -0.115316 1
gene 1 35 39 -0.727226 0 140 -0.727226 1
genomeend 7


