/* Organism #2 Fitness: 16000.226000 Time: 0 */
genomestart 2
trait 1 0.115937 0.000000 0.000000 1.000000 1.000000 1.000000 1.000000 0.000000 
node 1 1 1 1
node 2 1 1 1
node 3 1 1 1
node 4 1 1 1
node 5 1 1 1
node 6 1 1 1
node 7 1 1 1
node 8 1 1 1
node 9 1 1 1
node 10 1 1 1
node 11 1 1 1
node 12 1 1 1
node 13 1 1 1
node 14 1 1 1
node 15 1 1 1
node 16 1 1 1
node 17 1 1 1
node 18 1 1 1
node 19 1 1 1
node 20 1 1 1
node 21 1 1 1
node 22 1 1 1
node 23 1 1 1
node 24 1 1 1
node 25 1 1 1
node 26 1 1 3
node 27 1 0 2
node 28 1 0 2
node 29 1 0 2
gene 1 1 27 0.263249 0 1 0.263249 1
gene 1 1 28 -0.713345 0 2 -0.713345 1
gene 1 1 29 4.41351 0 3 4.41351 1
gene 1 2 27 0.279122 0 4 0.279122 1
gene 1 2 28 1.06988 0 5 1.06988 1
gene 1 2 29 0.537475 0 6 0.537475 1
gene 1 3 27 0.968198 0 7 0.968198 1
gene 1 3 28 0.0557955 0 8 0.0557955 1
gene 1 3 29 1.93509 0 9 1.93509 1
gene 1 4 27 2.41499 0 10 2.41499 1
gene 1 4 28 -1.95734 0 11 -1.95734 1
gene 1 4 29 -0.097509 0 12 -0.097509 1
gene 1 5 27 0.964684 0 13 0.964684 1
gene 1 5 28 -1.73874 0 14 -1.73874 1
gene 1 5 29 -1.45207 0 15 -1.45207 1
gene 1 6 27 0.619826 0 16 0.619826 1
gene 1 6 28 0.643292 0 17 0.643292 1
gene 1 6 29 -0.321301 0 18 -0.321301 1
gene 1 7 27 2.55236 0 19 2.55236 1
gene 1 7 28 -1.42753 0 20 -1.42753 1
gene 1 7 29 2.17171 0 21 2.17171 1
gene 1 8 27 0.10406 0 22 0.10406 1
gene 1 8 28 -0.376203 0 23 -0.376203 1
gene 1 8 29 1.43643 0 24 1.43643 1
gene 1 9 27 -4.35923 0 25 -4.35923 1
gene 1 9 28 2.7146 0 26 2.7146 1
gene 1 9 29 0.155657 0 27 0.155657 1
gene 1 10 27 4.15715 0 28 4.15715 1
gene 1 10 28 -0.639445 0 29 -0.639445 1
gene 1 10 29 2.57054 0 30 2.57054 1
gene 1 11 27 0.145854 0 31 0.145854 1
gene 1 11 28 -2.88212 0 32 -2.88212 1
gene 1 11 29 4.61453 0 33 4.61453 1
gene 1 12 27 4.68884 0 34 4.68884 1
gene 1 12 28 0.551003 0 35 0.551003 1
gene 1 12 29 2.54287 0 36 2.54287 1
gene 1 13 27 -1.33335 0 37 -1.33335 1
gene 1 13 28 0.886699 0 38 0.886699 1
gene 1 13 29 -1.0585 0 39 -1.0585 1
gene 1 14 27 -0.711216 0 40 -0.711216 1
gene 1 14 28 -0.152054 0 41 -0.152054 1
gene 1 14 29 -1.17868 0 42 -1.17868 1
gene 1 15 27 -4.66605 0 43 -4.66605 1
gene 1 15 28 -2.35457 0 44 -2.35457 1
gene 1 15 29 -1.58835 0 45 -1.58835 1
gene 1 16 27 -4.67514 0 46 -4.67514 1
gene 1 16 28 -3.47749 0 47 -3.47749 1
gene 1 16 29 -3.89357 0 48 -3.89357 1
gene 1 17 27 0.390327 0 49 0.390327 1
gene 1 17 28 0.366863 0 50 0.366863 1
gene 1 17 29 -2.86259 0 51 -2.86259 1
gene 1 18 27 -3.65411 0 52 -3.65411 1
gene 1 18 28 -3.92459 0 53 -3.92459 1
gene 1 18 29 2.89754 0 54 2.89754 1
gene 1 19 27 -0.90749 0 55 -0.90749 1
gene 1 19 28 -1.55348 0 56 -1.55348 1
gene 1 19 29 -2.43891 0 57 -2.43891 1
gene 1 20 27 0.623898 0 58 0.623898 1
gene 1 20 28 -1.39038 0 59 -1.39038 1
gene 1 20 29 -4.71429 0 60 -4.71429 1
gene 1 21 27 2.03706 0 61 2.03706 1
gene 1 21 28 -0.668272 0 62 -0.668272 1
gene 1 21 29 -3.35845 0 63 -3.35845 1
gene 1 22 27 -0.0502774 0 64 -0.0502774 1
gene 1 22 28 -0.767743 0 65 -0.767743 1
gene 1 22 29 1.14755 0 66 1.14755 1
gene 1 23 27 0.389832 0 67 0.389832 1
gene 1 23 28 0.878784 0 68 0.878784 1
gene 1 23 29 -0.480406 0 69 -0.480406 1
gene 1 24 27 0.461657 0 70 0.461657 1
gene 1 24 28 -0.505684 0 71 -0.505684 1
gene 1 24 29 -0.156579 0 72 -0.156579 1
gene 1 25 27 -0.340312 0 73 -0.340312 1
gene 1 25 28 0.124513 0 74 0.124513 1
gene 1 25 29 1.25413 0 75 1.25413 1
gene 1 26 27 -0.194644 0 76 -0.194644 1
gene 1 26 28 -0.615705 0 77 -0.615705 1
gene 1 26 29 -0.240935 0 78 -0.240935 1
genomeend 2


