/* Organism #2 Fitness: 42103.468000 Time: 0 */
genomestart 2
trait 1 0.000000 1.000000 0.000000 0.000000 0.000000 0.802102 0.000000 0.319705 
node 1 1 1 1
node 2 1 1 1
node 3 1 1 1
node 4 1 1 1
node 5 1 1 1
node 6 1 1 1
node 7 1 1 1
node 8 1 1 1
node 9 1 1 1
node 10 1 1 1
node 11 1 1 1
node 12 1 1 1
node 13 1 1 1
node 14 1 1 1
node 15 1 1 1
node 16 1 1 1
node 17 1 1 1
node 18 1 1 1
node 19 1 1 1
node 20 1 1 1
node 21 1 1 1
node 22 1 1 1
node 23 1 1 1
node 24 1 1 1
node 25 1 1 1
node 26 1 1 3
node 27 1 0 2
node 28 1 0 2
node 29 1 0 2
gene 1 1 27 -1.17469 0 1 -1.17469 1
gene 1 1 28 5 0 2 5 1
gene 1 1 29 0.526865 0 3 0.526865 1
gene 1 2 27 4.20817 0 4 4.20817 1
gene 1 2 28 -5 0 5 -5 1
gene 1 2 29 3.6203 0 6 3.6203 1
gene 1 3 27 1.34858 0 7 1.34858 1
gene 1 3 28 4.98474 0 8 4.98474 1
gene 1 3 29 -1.63062 0 9 -1.63062 1
gene 1 4 27 4.5509 0 10 4.5509 1
gene 1 4 28 1.94957 0 11 1.94957 1
gene 1 4 29 -0.344856 0 12 -0.344856 1
gene 1 5 27 1.76644 0 13 1.76644 1
gene 1 5 28 -2.28685 0 14 -2.28685 1
gene 1 5 29 -1.87254 0 15 -1.87254 1
gene 1 6 27 -3.1657 0 16 -3.1657 1
gene 1 6 28 3.7379 0 17 3.7379 1
gene 1 6 29 0.361817 0 18 0.361817 1
gene 1 7 27 -2.72159 0 19 -2.72159 1
gene 1 7 28 1.0729 0 20 1.0729 1
gene 1 7 29 -0.463222 0 21 -0.463222 1
gene 1 8 27 -4.58772 0 22 -4.58772 1
gene 1 8 28 -2.06465 0 23 -2.06465 1
gene 1 8 29 -1.24983 0 24 -1.24983 1
gene 1 9 27 1.01513 0 25 1.01513 1
gene 1 9 28 2.11406 0 26 2.11406 1
gene 1 9 29 -0.798406 0 27 -0.798406 1
gene 1 10 27 -0.405881 0 28 -0.405881 1
gene 1 10 28 -1.02452 0 29 -1.02452 1
gene 1 10 29 -0.496301 0 30 -0.496301 1
gene 1 11 27 -0.024327 0 31 -0.024327 1
gene 1 11 28 2.93044 0 32 2.93044 1
gene 1 11 29 2.76731 0 33 2.76731 1
gene 1 12 27 5 0 34 5 1
gene 1 12 28 -4.9423 0 35 -4.9423 1
gene 1 12 29 -0.407178 0 36 -0.407178 1
gene 1 13 27 -1.37777 0 37 -1.37777 1
gene 1 13 28 -0.44058 0 38 -0.44058 1
gene 1 13 29 2.88757 0 39 2.88757 1
gene 1 14 27 5 0 40 5 1
gene 1 14 28 -3.78584 0 41 -3.78584 1
gene 1 14 29 1.08708 0 42 1.08708 1
gene 1 15 27 1.42227 0 43 1.42227 1
gene 1 15 28 2.39476 0 44 2.39476 1
gene 1 15 29 0.354571 0 45 0.354571 1
gene 1 16 27 -1.56633 0 46 -1.56633 1
gene 1 16 28 4.62511 0 47 4.62511 1
gene 1 16 29 2.27806 0 48 2.27806 1
gene 1 17 27 4.53928 0 49 4.53928 1
gene 1 17 28 3.12085 0 50 3.12085 1
gene 1 17 29 -4.70599 0 51 -4.70599 1
gene 1 18 27 -1.60671 0 52 -1.60671 1
gene 1 18 28 2.37667 0 53 2.37667 1
gene 1 18 29 1.86866 0 54 1.86866 1
gene 1 19 27 -1.48552 0 55 -1.48552 1
gene 1 19 28 -0.433542 0 56 -0.433542 1
gene 1 19 29 -0.290693 0 57 -0.290693 1
gene 1 20 27 0.00397252 0 58 0.00397252 1
gene 1 20 28 -0.273118 0 59 -0.273118 1
gene 1 20 29 -4.12715 0 60 -4.12715 1
gene 1 21 27 -0.857783 0 61 -0.857783 1
gene 1 21 28 -3.12709 0 62 -3.12709 1
gene 1 21 29 -1.43987 0 63 -1.43987 1
gene 1 22 27 0.928062 0 64 0.928062 1
gene 1 22 28 -0.229204 0 65 -0.229204 1
gene 1 22 29 -0.0973601 0 66 -0.0973601 1
gene 1 23 27 -0.517526 0 67 -0.517526 1
gene 1 23 28 0.995752 0 68 0.995752 1
gene 1 23 29 -0.754653 0 69 -0.754653 1
gene 1 24 27 0.212979 0 70 0.212979 1
gene 1 24 28 1.06893 0 71 1.06893 1
gene 1 24 29 -0.44566 0 72 -0.44566 1
gene 1 25 27 -0.189096 0 73 -0.189096 1
gene 1 25 28 1.1052 0 74 1.1052 1
gene 1 25 29 -4.87014 0 75 -4.87014 1
gene 1 26 27 3.04255 0 76 3.04255 1
gene 1 26 28 -0.247227 0 77 -0.247227 1
gene 1 26 29 -0.0453149 0 78 -0.0453149 1
genomeend 2


