/* Organism #7 Fitness: 13736.290000 Time: 0 */
genomestart 7
trait 1 0.770824 0.000000 0.000000 0.688467 0.443989 0.101849 0.000000 1.000000 
node 1 1 1 1
node 2 1 1 1
node 3 1 1 1
node 4 1 1 1
node 5 1 1 1
node 6 1 1 1
node 7 1 1 1
node 8 1 1 1
node 9 1 1 1
node 10 1 1 1
node 11 1 1 1
node 12 1 1 1
node 13 1 1 1
node 14 1 1 1
node 15 1 1 1
node 16 1 1 1
node 17 1 1 1
node 18 1 1 1
node 19 1 1 1
node 20 1 1 1
node 21 1 1 1
node 22 1 1 1
node 23 1 1 1
node 24 1 1 1
node 25 1 1 1
node 26 1 1 3
node 27 1 0 2
node 28 1 0 2
node 29 1 0 2
gene 1 1 27 -4.25206 0 1 -4.25206 1
gene 1 1 28 4.67756 0 2 4.67756 1
gene 1 1 29 1.10305 0 3 1.10305 1
gene 1 2 27 -1.48043 0 4 -1.48043 1
gene 1 2 28 0.234048 0 5 0.234048 1
gene 1 2 29 1.12992 0 6 1.12992 1
gene 1 3 27 0.327019 0 7 0.327019 1
gene 1 3 28 0.733764 0 8 0.733764 1
gene 1 3 29 -1.96247 0 9 -1.96247 1
gene 1 4 27 3.83129 0 10 3.83129 1
gene 1 4 28 2.28791 0 11 2.28791 1
gene 1 4 29 -1.31503 0 12 -1.31503 1
gene 1 5 27 1.09227 0 13 1.09227 1
gene 1 5 28 -0.599854 0 14 -0.599854 1
gene 1 5 29 -1.6312 0 15 -1.6312 1
gene 1 6 27 2.58414 0 16 2.58414 1
gene 1 6 28 0.872617 0 17 0.872617 1
gene 1 6 29 -1.66007 0 18 -1.66007 1
gene 1 7 27 5 0 19 5 1
gene 1 7 28 0.189098 0 20 0.189098 1
gene 1 7 29 0.409763 0 21 0.409763 1
gene 1 8 27 0.507618 0 22 0.507618 1
gene 1 8 28 -0.328321 0 23 -0.328321 1
gene 1 8 29 0.417522 0 24 0.417522 1
gene 1 9 27 -0.213093 0 25 -0.213093 1
gene 1 9 28 0.671819 0 26 0.671819 1
gene 1 9 29 -2.99351 0 27 -2.99351 1
gene 1 10 27 -0.907369 0 28 -0.907369 1
gene 1 10 28 -0.262407 0 29 -0.262407 1
gene 1 10 29 2.40214 0 30 2.40214 1
gene 1 11 27 0.280651 0 31 0.280651 1
gene 1 11 28 -5 0 32 -5 1
gene 1 11 29 0.135851 0 33 0.135851 1
gene 1 12 27 -0.150294 0 34 -0.150294 1
gene 1 12 28 0.487791 0 35 0.487791 1
gene 1 12 29 -0.449364 0 36 -0.449364 1
gene 1 13 27 -0.738847 0 37 -0.738847 1
gene 1 13 28 -0.269564 0 38 -0.269564 1
gene 1 13 29 1.42667 0 39 1.42667 1
gene 1 14 27 -1.83115 0 40 -1.83115 1
gene 1 14 28 1.09404 0 41 1.09404 1
gene 1 14 29 0.218371 0 42 0.218371 1
gene 1 15 27 -1.32077 0 43 -1.32077 1
gene 1 15 28 -0.345261 0 44 -0.345261 1
gene 1 15 29 2.48107 0 45 2.48107 1
gene 1 16 27 -4.54598 0 46 -4.54598 1
gene 1 16 28 1.59985 0 47 1.59985 1
gene 1 16 29 -0.217872 0 48 -0.217872 1
gene 1 17 27 1.67877 0 49 1.67877 1
gene 1 17 28 -0.2817 0 50 -0.2817 1
gene 1 17 29 0.773793 0 51 0.773793 1
gene 1 18 27 3.19078 0 52 3.19078 1
gene 1 18 28 -2.90272 0 53 -2.90272 1
gene 1 18 29 0.51861 0 54 0.51861 1
gene 1 19 27 2.1774 0 55 2.1774 1
gene 1 19 28 -0.433544 0 56 -0.433544 1
gene 1 19 29 -4.29286 0 57 -4.29286 1
gene 1 20 27 -1.33648 0 58 -1.33648 1
gene 1 20 28 -1.7255 0 59 -1.7255 1
gene 1 20 29 -1.10666 0 60 -1.10666 1
gene 1 21 27 4.60636 0 61 4.60636 1
gene 1 21 28 0.676485 0 62 0.676485 1
gene 1 21 29 2.14969 0 63 2.14969 1
gene 1 22 27 -0.987757 0 64 -0.987757 1
gene 1 22 28 -0.447322 0 65 -0.447322 1
gene 1 22 29 1.54567 0 66 1.54567 1
gene 1 23 27 0.0800465 0 67 0.0800465 1
gene 1 23 28 2.05954 0 68 2.05954 1
gene 1 23 29 -0.462662 0 69 -0.462662 1
gene 1 24 27 -0.792217 0 70 -0.792217 1
gene 1 24 28 -0.414006 0 71 -0.414006 1
gene 1 24 29 -0.0209699 0 72 -0.0209699 1
gene 1 25 27 0.627471 0 73 0.627471 1
gene 1 25 28 -1.02149 0 74 -1.02149 1
gene 1 25 29 -0.474613 0 75 -0.474613 1
gene 1 26 27 -5 0 76 -5 1
gene 1 26 28 -0.922822 0 77 -0.922822 1
gene 1 26 29 -0.136583 0 78 -0.136583 1
genomeend 7


