
/* Species #1 : (Size 100) (AF 0) (Age 150)  */


/* Organism #0 Fitness: 33494 Error: 0 */
genomestart 0
trait 1 0.841828 0.720221 0 0 0.39287 1 0 1 
node 1 1 1 1
node 2 1 1 1
node 3 1 1 1
node 4 1 1 1
node 5 1 1 1
node 6 1 1 1
node 7 1 1 1
node 8 1 1 1
node 9 1 1 1
node 10 1 1 1
node 11 1 1 1
node 12 1 1 1
node 13 1 1 1
node 14 1 1 1
node 15 1 1 1
node 16 1 1 1
node 17 1 1 1
node 18 1 1 1
node 19 1 1 1
node 20 1 1 1
node 21 1 1 1
node 22 1 1 1
node 23 1 1 1
node 24 1 1 1
node 25 1 1 1
node 26 1 1 1
node 27 1 1 1
node 28 1 1 1
node 29 1 1 1
node 30 1 1 3
node 31 1 0 2
node 32 1 0 2
node 33 1 0 2
gene 1 1 31 -0.458735 0 1 -0.458735 1
gene 1 1 32 -3.66552 0 2 -3.66552 1
gene 1 1 33 1.59241 0 3 1.59241 1
gene 1 2 31 -1.42987 0 4 -1.42987 1
gene 1 2 32 0.496706 0 5 0.496706 1
gene 1 2 33 0.102521 0 6 0.102521 1
gene 1 3 31 4.2001 0 7 4.2001 1
gene 1 3 32 -4.81178 0 8 -4.81178 1
gene 1 3 33 3.62507 0 9 3.62507 1
gene 1 4 31 2.46355 0 10 2.46355 1
gene 1 4 32 1.62437 0 11 1.62437 1
gene 1 4 33 0.731885 0 12 0.731885 1
gene 1 5 31 1.11148 0 13 1.11148 1
gene 1 5 32 5 0 14 5 1
gene 1 5 33 -0.301125 0 15 -0.301125 1
gene 1 6 31 3.43426 0 16 3.43426 1
gene 1 6 32 -3.35705 0 17 -3.35705 1
gene 1 6 33 1.31186 0 18 1.31186 1
gene 1 7 31 -0.226592 0 19 -0.226592 1
gene 1 7 32 -1.49806 0 20 -1.49806 1
gene 1 7 33 -3.88805 0 21 -3.88805 1
gene 1 8 31 0.817898 0 22 0.817898 1
gene 1 8 32 0.923134 0 23 0.923134 1
gene 1 8 33 0.330608 0 24 0.330608 1
gene 1 9 31 3.56321 0 25 3.56321 1
gene 1 9 32 -0.940817 0 26 -0.940817 1
gene 1 9 33 0.0435465 0 27 0.0435465 1
gene 1 10 31 -0.986279 0 28 -0.986279 1
gene 1 10 32 1.53944 0 29 1.53944 1
gene 1 10 33 -1.17639 0 30 -1.17639 1
gene 1 11 31 -5 0 31 -5 1
gene 1 11 32 0.919273 0 32 0.919273 1
gene 1 11 33 -1.09818 0 33 -1.09818 1
gene 1 12 31 -3.08759 0 34 -3.08759 1
gene 1 12 32 4.37239 0 35 4.37239 1
gene 1 12 33 -0.261802 0 36 -0.261802 1
gene 1 13 31 0.352146 0 37 0.352146 1
gene 1 13 32 -1.29973 0 38 -1.29973 1
gene 1 13 33 -1.02596 0 39 -1.02596 1
gene 1 14 31 0.925518 0 40 0.925518 1
gene 1 14 32 4.15708 0 41 4.15708 1
gene 1 14 33 -2.77619 0 42 -2.77619 1
gene 1 15 31 -0.0922455 0 43 -0.0922455 1
gene 1 15 32 0.154105 0 44 0.154105 1
gene 1 15 33 -1.21047 0 45 -1.21047 1
gene 1 16 31 3.71841 0 46 3.71841 1
gene 1 16 32 2.61956 0 47 2.61956 1
gene 1 16 33 -4.01174 0 48 -4.01174 1
gene 1 17 31 2.57898 0 49 2.57898 1
gene 1 17 32 1.87952 0 50 1.87952 1
gene 1 17 33 -0.189482 0 51 -0.189482 1
gene 1 18 31 2.26035 0 52 2.26035 1
gene 1 18 32 1.42985 0 53 1.42985 1
gene 1 18 33 -2.70435 0 54 -2.70435 1
gene 1 19 31 -0.0431823 0 55 -0.0431823 1
gene 1 19 32 -0.409189 0 56 -0.409189 1
gene 1 19 33 -1.29812 0 57 -1.29812 1
gene 1 20 31 0.686693 0 58 0.686693 1
gene 1 20 32 1.50378 0 59 1.50378 1
gene 1 20 33 2.19527 0 60 2.19527 1
gene 1 21 31 1.79078 0 61 1.79078 1
gene 1 21 32 -4.02652 0 62 -4.02652 1
gene 1 21 33 0.0856084 0 63 0.0856084 1
gene 1 22 31 0.906492 0 64 0.906492 1
gene 1 22 32 -1.4888 0 65 -1.4888 1
gene 1 22 33 0.832016 0 66 0.832016 1
gene 1 23 31 -3.21751 0 67 -3.21751 1
gene 1 23 32 3.43677 0 68 3.43677 1
gene 1 23 33 -4.0956 0 69 -4.0956 1
gene 1 24 31 -4.29543 0 70 -4.29543 1
gene 1 24 32 -0.49166 0 71 -0.49166 1
gene 1 24 33 -1.34681 0 72 -1.34681 1
gene 1 25 31 -1.27257 0 73 -1.27257 1
gene 1 25 32 0.0508116 0 74 0.0508116 1
gene 1 25 33 0.106286 0 75 0.106286 1
gene 1 26 31 -0.786103 0 76 -0.786103 1
gene 1 26 32 -1.78708 0 77 -1.78708 1
gene 1 26 33 -0.921078 0 78 -0.921078 1
gene 1 27 31 -0.661797 0 79 -0.661797 1
gene 1 27 32 0.582176 0 80 0.582176 1
gene 1 27 33 -0.0363679 0 81 -0.0363679 1
gene 1 28 31 0.18312 0 82 0.18312 1
gene 1 28 32 1.40817 0 83 1.40817 1
gene 1 28 33 -0.935397 0 84 -0.935397 1
gene 1 29 31 -0.142625 0 85 -0.142625 1
gene 1 29 32 -0.610643 0 86 -0.610643 1
gene 1 29 33 -1.07497 0 87 -1.07497 1
gene 1 30 31 0.331426 0 88 0.331426 1
gene 1 30 32 0.758473 0 89 0.758473 1
gene 1 30 33 0.571191 0 90 0.571191 1
genomeend 0

/* Organism #1 Fitness: 36420.8 Error: 0 */
genomestart 1
trait 1 0 1 0 0 0.0571666 0.579833 0 1 
node 1 1 1 1
node 2 1 1 1
node 3 1 1 1
node 4 1 1 1
node 5 1 1 1
node 6 1 1 1
node 7 1 1 1
node 8 1 1 1
node 9 1 1 1
node 10 1 1 1
node 11 1 1 1
node 12 1 1 1
node 13 1 1 1
node 14 1 1 1
node 15 1 1 1
node 16 1 1 1
node 17 1 1 1
node 18 1 1 1
node 19 1 1 1
node 20 1 1 1
node 21 1 1 1
node 22 1 1 1
node 23 1 1 1
node 24 1 1 1
node 25 1 1 1
node 26 1 1 1
node 27 1 1 1
node 28 1 1 1
node 29 1 1 1
node 30 1 1 3
node 31 1 0 2
node 32 1 0 2
node 33 1 0 2
gene 1 1 31 0.276366 0 1 0.276366 1
gene 1 1 32 -2.48427 0 2 -2.48427 1
gene 1 1 33 0.0706689 0 3 0.0706689 1
gene 1 2 31 -1.87098 0 4 -1.87098 1
gene 1 2 32 0.43034 0 5 0.43034 1
gene 1 2 33 -2.86546 0 6 -2.86546 1
gene 1 3 31 0.318148 0 7 0.318148 1
gene 1 3 32 -2.90889 0 8 -2.90889 1
gene 1 3 33 -0.653309 0 9 -0.653309 1
gene 1 4 31 -0.356662 0 10 -0.356662 1
gene 1 4 32 1.29603 0 11 1.29603 1
gene 1 4 33 0.156814 0 12 0.156814 1
gene 1 5 31 0.00389173 0 13 0.00389173 1
gene 1 5 32 -0.418897 0 14 -0.418897 1
gene 1 5 33 -3.38032 0 15 -3.38032 1
gene 1 6 31 0.489524 0 16 0.489524 1
gene 1 6 32 -3.25043 0 17 -3.25043 1
gene 1 6 33 0.696547 0 18 0.696547 1
gene 1 7 31 0.501465 0 19 0.501465 1
gene 1 7 32 -1.70384 0 20 -1.70384 1
gene 1 7 33 1.4936 0 21 1.4936 1
gene 1 8 31 0.77322 0 22 0.77322 1
gene 1 8 32 3.17748 0 23 3.17748 1
gene 1 8 33 -0.730773 0 24 -0.730773 1
gene 1 9 31 3.77906 0 25 3.77906 1
gene 1 9 32 -0.544628 0 26 -0.544628 1
gene 1 9 33 -0.336293 0 27 -0.336293 1
gene 1 10 31 -1.10248 0 28 -1.10248 1
gene 1 10 32 -4.33793 0 29 -4.33793 1
gene 1 10 33 0.308906 0 30 0.308906 1
gene 1 11 31 -2.66058 0 31 -2.66058 1
gene 1 11 32 -0.438165 0 32 -0.438165 1
gene 1 11 33 1.58962 0 33 1.58962 1
gene 1 12 31 -3.06205 0 34 -3.06205 1
gene 1 12 32 3.1393 0 35 3.1393 1
gene 1 12 33 0.252508 0 36 0.252508 1
gene 1 13 31 -1.42768 0 37 -1.42768 1
gene 1 13 32 0.336337 0 38 0.336337 1
gene 1 13 33 -0.0528783 0 39 -0.0528783 1
gene 1 14 31 -0.303579 0 40 -0.303579 1
gene 1 14 32 -0.26358 0 41 -0.26358 1
gene 1 14 33 0.00851544 0 42 0.00851544 1
gene 1 15 31 1.81662 0 43 1.81662 1
gene 1 15 32 0.0250872 0 44 0.0250872 1
gene 1 15 33 2.39569 0 45 2.39569 1
gene 1 16 31 -3.01391 0 46 -3.01391 1
gene 1 16 32 0.817642 0 47 0.817642 1
gene 1 16 33 0.865709 0 48 0.865709 1
gene 1 17 31 -0.669998 0 49 -0.669998 1
gene 1 17 32 -0.756483 0 50 -0.756483 1
gene 1 17 33 -0.659477 0 51 -0.659477 1
gene 1 18 31 1.63897 0 52 1.63897 1
gene 1 18 32 1.67989 0 53 1.67989 1
gene 1 18 33 -0.691341 0 54 -0.691341 1
gene 1 19 31 4.2261 0 55 4.2261 1
gene 1 19 32 -2.09327 0 56 -2.09327 1
gene 1 19 33 -3.03372 0 57 -3.03372 1
gene 1 20 31 0.329912 0 58 0.329912 1
gene 1 20 32 -0.624283 0 59 -0.624283 1
gene 1 20 33 0.626981 0 60 0.626981 1
gene 1 21 31 0.197967 0 61 0.197967 1
gene 1 21 32 -0.280774 0 62 -0.280774 1
gene 1 21 33 2.07019 0 63 2.07019 1
gene 1 22 31 1.99108 0 64 1.99108 1
gene 1 22 32 2.10741 0 65 2.10741 1
gene 1 22 33 -0.423874 0 66 -0.423874 1
gene 1 23 31 -1.60874 0 67 -1.60874 1
gene 1 23 32 5 0 68 5 1
gene 1 23 33 0.0333702 0 69 0.0333702 1
gene 1 24 31 -3.57387 0 70 -3.57387 1
gene 1 24 32 0.340706 0 71 0.340706 1
gene 1 24 33 -1.36523 0 72 -1.36523 1
gene 1 25 31 -0.151085 0 73 -0.151085 1
gene 1 25 32 -0.000544342 0 74 -0.000544342 1
gene 1 25 33 -0.516003 0 75 -0.516003 1
gene 1 26 31 -0.491826 0 76 -0.491826 1
gene 1 26 32 -1.79186 0 77 -1.79186 1
gene 1 26 33 -0.929322 0 78 -0.929322 1
gene 1 27 31 -0.0995413 0 79 -0.0995413 1
gene 1 27 32 -1.82193 0 80 -1.82193 1
gene 1 27 33 0.605691 0 81 0.605691 1
gene 1 28 31 -0.762151 0 82 -0.762151 1
gene 1 28 32 -1.3759 0 83 -1.3759 1
gene 1 28 33 1.82262 0 84 1.82262 1
gene 1 29 31 0.0425526 0 85 0.0425526 1
gene 1 29 32 -0.149023 0 86 -0.149023 1
gene 1 29 33 0.222625 0 87 0.222625 1
gene 1 30 31 -0.481311 0 88 -0.481311 1
gene 1 30 32 2.5556 0 89 2.5556 1
gene 1 30 33 0.32376 0 90 0.32376 1
genomeend 1

/* Organism #2 Fitness: 36135 Error: 0 */
genomestart 2
trait 1 0.664132 1 0 0 0.436997 1 0.243397 0.962336 
node 1 1 1 1
node 2 1 1 1
node 3 1 1 1
node 4 1 1 1
node 5 1 1 1
node 6 1 1 1
node 7 1 1 1
node 8 1 1 1
node 9 1 1 1
node 10 1 1 1
node 11 1 1 1
node 12 1 1 1
node 13 1 1 1
node 14 1 1 1
node 15 1 1 1
node 16 1 1 1
node 17 1 1 1
node 18 1 1 1
node 19 1 1 1
node 20 1 1 1
node 21 1 1 1
node 22 1 1 1
node 23 1 1 1
node 24 1 1 1
node 25 1 1 1
node 26 1 1 1
node 27 1 1 1
node 28 1 1 1
node 29 1 1 1
node 30 1 1 3
node 31 1 0 2
node 32 1 0 2
node 33 1 0 2
gene 1 1 31 2.07375 0 1 2.07375 1
gene 1 1 32 -3.92908 0 2 -3.92908 1
gene 1 1 33 4.88921 0 3 4.88921 1
gene 1 2 31 -2.21863 0 4 -2.21863 1
gene 1 2 32 -0.210237 0 5 -0.210237 1
gene 1 2 33 -2.60498 0 6 -2.60498 1
gene 1 3 31 1.40615 0 7 1.40615 1
gene 1 3 32 -5 0 8 -5 1
gene 1 3 33 1.01735 0 9 1.01735 1
gene 1 4 31 4.20365 0 10 4.20365 1
gene 1 4 32 0.772796 0 11 0.772796 1
gene 1 4 33 -0.624503 0 12 -0.624503 1
gene 1 5 31 -0.621642 0 13 -0.621642 1
gene 1 5 32 0.150581 0 14 0.150581 1
gene 1 5 33 0.263295 0 15 0.263295 1
gene 1 6 31 5 0 16 5 1
gene 1 6 32 -1.03657 0 17 -1.03657 1
gene 1 6 33 -0.770491 0 18 -0.770491 1
gene 1 7 31 -0.984619 0 19 -0.984619 1
gene 1 7 32 -3.15103 0 20 -3.15103 1
gene 1 7 33 -0.124255 0 21 -0.124255 1
gene 1 8 31 1.04728 0 22 1.04728 1
gene 1 8 32 1.81789 0 23 1.81789 1
gene 1 8 33 1.27734 0 24 1.27734 1
gene 1 9 31 4.1112 0 25 4.1112 1
gene 1 9 32 0.0246577 0 26 0.0246577 1
gene 1 9 33 2.99266 0 27 2.99266 1
gene 1 10 31 3.04406 0 28 3.04406 1
gene 1 10 32 -3.82251 0 29 -3.82251 1
gene 1 10 33 -3.01997 0 30 -3.01997 1
gene 1 11 31 -5 0 31 -5 1
gene 1 11 32 2.24353 0 32 2.24353 1
gene 1 11 33 1.04997 0 33 1.04997 1
gene 1 12 31 -0.645115 0 34 -0.645115 1
gene 1 12 32 0.212144 0 35 0.212144 1
gene 1 12 33 0.974911 0 36 0.974911 1
gene 1 13 31 1.04831 0 37 1.04831 1
gene 1 13 32 1.14385 0 38 1.14385 1
gene 1 13 33 0.011945 0 39 0.011945 1
gene 1 14 31 2.66644 0 40 2.66644 1
gene 1 14 32 1.34034 0 41 1.34034 1
gene 1 14 33 -0.978148 0 42 -0.978148 1
gene 1 15 31 2.17522 0 43 2.17522 1
gene 1 15 32 2.65812 0 44 2.65812 1
gene 1 15 33 -0.92213 0 45 -0.92213 1
gene 1 16 31 -0.843504 0 46 -0.843504 1
gene 1 16 32 -1.09425 0 47 -1.09425 1
gene 1 16 33 -1.71702 0 48 -1.71702 1
gene 1 17 31 2.75183 0 49 2.75183 1
gene 1 17 32 0.519228 0 50 0.519228 1
gene 1 17 33 1.38399 0 51 1.38399 1
gene 1 18 31 4.05668 0 52 4.05668 1
gene 1 18 32 -0.146374 0 53 -0.146374 1
gene 1 18 33 -0.0245891 0 54 -0.0245891 1
gene 1 19 31 2.16117 0 55 2.16117 1
gene 1 19 32 -0.530685 0 56 -0.530685 1
gene 1 19 33 -1.93087 0 57 -1.93087 1
gene 1 20 31 -2.42094 0 58 -2.42094 1
gene 1 20 32 -1.41535 0 59 -1.41535 1
gene 1 20 33 3.33624 0 60 3.33624 1
gene 1 21 31 1.99773 0 61 1.99773 1
gene 1 21 32 -3.52512 0 62 -3.52512 1
gene 1 21 33 2.13086 0 63 2.13086 1
gene 1 22 31 0.0741302 0 64 0.0741302 1
gene 1 22 32 0.785694 0 65 0.785694 1
gene 1 22 33 0.327228 0 66 0.327228 1
gene 1 23 31 -2.09947 0 67 -2.09947 1
gene 1 23 32 3.52475 0 68 3.52475 1
gene 1 23 33 -2.97741 0 69 -2.97741 1
gene 1 24 31 -5 0 70 -5 1
gene 1 24 32 2.21244 0 71 2.21244 1
gene 1 24 33 -0.435632 0 72 -0.435632 1
gene 1 25 31 0.0948031 0 73 0.0948031 1
gene 1 25 32 0.149563 0 74 0.149563 1
gene 1 25 33 0.18261 0 75 0.18261 1
gene 1 26 31 0.31513 0 76 0.31513 1
gene 1 26 32 -1.46476 0 77 -1.46476 1
gene 1 26 33 -0.806669 0 78 -0.806669 1
gene 1 27 31 1.51645 0 79 1.51645 1
gene 1 27 32 0.198445 0 80 0.198445 1
gene 1 27 33 -1.31692 0 81 -1.31692 1
gene 1 28 31 1.10935 0 82 1.10935 1
gene 1 28 32 -1.61202 0 83 -1.61202 1
gene 1 28 33 0.272725 0 84 0.272725 1
gene 1 29 31 -1.06583 0 85 -1.06583 1
gene 1 29 32 -0.305633 0 86 -0.305633 1
gene 1 29 33 0.00409328 0 87 0.00409328 1
gene 1 30 31 0.365869 0 88 0.365869 1
gene 1 30 32 3.79835 0 89 3.79835 1
gene 1 30 33 -0.174856 0 90 -0.174856 1
genomeend 2

/* Organism #3 Fitness: 39485.4 Error: 0 */
genomestart 3
trait 1 0.841828 0.720221 0 0 0.39287 1 0 1 
node 1 1 1 1
node 2 1 1 1
node 3 1 1 1
node 4 1 1 1
node 5 1 1 1
node 6 1 1 1
node 7 1 1 1
node 8 1 1 1
node 9 1 1 1
node 10 1 1 1
node 11 1 1 1
node 12 1 1 1
node 13 1 1 1
node 14 1 1 1
node 15 1 1 1
node 16 1 1 1
node 17 1 1 1
node 18 1 1 1
node 19 1 1 1
node 20 1 1 1
node 21 1 1 1
node 22 1 1 1
node 23 1 1 1
node 24 1 1 1
node 25 1 1 1
node 26 1 1 1
node 27 1 1 1
node 28 1 1 1
node 29 1 1 1
node 30 1 1 3
node 31 1 0 2
node 32 1 0 2
node 33 1 0 2
gene 1 1 31 0.491691 0 1 0.491691 1
gene 1 1 32 -4.10307 0 2 -4.10307 1
gene 1 1 33 0.73226 0 3 0.73226 1
gene 1 2 31 -2.84292 0 4 -2.84292 1
gene 1 2 32 0.571891 0 5 0.571891 1
gene 1 2 33 -1.4113 0 6 -1.4113 1
gene 1 3 31 4.21191 0 7 4.21191 1
gene 1 3 32 -5 0 8 -5 1
gene 1 3 33 3.46051 0 9 3.46051 1
gene 1 4 31 2.5225 0 10 2.5225 1
gene 1 4 32 -0.39704 0 11 -0.39704 1
gene 1 4 33 -1.10256 0 12 -1.10256 1
gene 1 5 31 1.49096 0 13 1.49096 1
gene 1 5 32 -0.227738 0 14 -0.227738 1
gene 1 5 33 0.854851 0 15 0.854851 1
gene 1 6 31 4.18615 0 16 4.18615 1
gene 1 6 32 -2.8701 0 17 -2.8701 1
gene 1 6 33 1.17005 0 18 1.17005 1
gene 1 7 31 -0.59907 0 19 -0.59907 1
gene 1 7 32 -0.492636 0 20 -0.492636 1
gene 1 7 33 -5 0 21 -5 1
gene 1 8 31 1.41048 0 22 1.41048 1
gene 1 8 32 0.725584 0 23 0.725584 1
gene 1 8 33 0.843853 0 24 0.843853 1
gene 1 9 31 4.32207 0 25 4.32207 1
gene 1 9 32 -0.418822 0 26 -0.418822 1
gene 1 9 33 -1.29814 0 27 -1.29814 1
gene 1 10 31 -1.08332 0 28 -1.08332 1
gene 1 10 32 1.85073 0 29 1.85073 1
gene 1 10 33 -2.39266 0 30 -2.39266 1
gene 1 11 31 -3.54531 0 31 -3.54531 1
gene 1 11 32 2.50693 0 32 2.50693 1
gene 1 11 33 -0.990205 0 33 -0.990205 1
gene 1 12 31 -2.49895 0 34 -2.49895 1
gene 1 12 32 -1.02026 0 35 -1.02026 1
gene 1 12 33 -0.404231 0 36 -0.404231 1
gene 1 13 31 -0.163054 0 37 -0.163054 1
gene 1 13 32 -2.80125 0 38 -2.80125 1
gene 1 13 33 -2.29063 0 39 -2.29063 1
gene 1 14 31 0.544415 0 40 0.544415 1
gene 1 14 32 5 0 41 5 1
gene 1 14 33 -2.77425 0 42 -2.77425 1
gene 1 15 31 -0.0140419 0 43 -0.0140419 1
gene 1 15 32 0.246993 0 44 0.246993 1
gene 1 15 33 -0.0760575 0 45 -0.0760575 1
gene 1 16 31 4.01921 0 46 4.01921 1
gene 1 16 32 2.38098 0 47 2.38098 1
gene 1 16 33 -3.32543 0 48 -3.32543 1
gene 1 17 31 2.75055 0 49 2.75055 1
gene 1 17 32 3.06257 0 50 3.06257 1
gene 1 17 33 -0.419734 0 51 -0.419734 1
gene 1 18 31 2.82924 0 52 2.82924 1
gene 1 18 32 2.80585 0 53 2.80585 1
gene 1 18 33 -3.83032 0 54 -3.83032 1
gene 1 19 31 -0.039579 0 55 -0.039579 1
gene 1 19 32 -0.874734 0 56 -0.874734 1
gene 1 19 33 -0.868214 0 57 -0.868214 1
gene 1 20 31 -0.26408 0 58 -0.26408 1
gene 1 20 32 1.73827 0 59 1.73827 1
gene 1 20 33 -0.247289 0 60 -0.247289 1
gene 1 21 31 2.26979 0 61 2.26979 1
gene 1 21 32 -0.567538 0 62 -0.567538 1
gene 1 21 33 0.424688 0 63 0.424688 1
gene 1 22 31 1.94058 0 64 1.94058 1
gene 1 22 32 -2.16724 0 65 -2.16724 1
gene 1 22 33 1.72771 0 66 1.72771 1
gene 1 23 31 0.336165 0 67 0.336165 1
gene 1 23 32 2.42249 0 68 2.42249 1
gene 1 23 33 -3.7233 0 69 -3.7233 1
gene 1 24 31 -4.34799 0 70 -4.34799 1
gene 1 24 32 -2.09051 0 71 -2.09051 1
gene 1 24 33 -2.60254 0 72 -2.60254 1
gene 1 25 31 1.46619 0 73 1.46619 1
gene 1 25 32 0.294371 0 74 0.294371 1
gene 1 25 33 -0.662963 0 75 -0.662963 1
gene 1 26 31 -0.34104 0 76 -0.34104 1
gene 1 26 32 -2.09138 0 77 -2.09138 1
gene 1 26 33 -1.33228 0 78 -1.33228 1
gene 1 27 31 -0.849187 0 79 -0.849187 1
gene 1 27 32 0.170136 0 80 0.170136 1
gene 1 27 33 -0.953148 0 81 -0.953148 1
gene 1 28 31 -0.878311 0 82 -0.878311 1
gene 1 28 32 -0.493254 0 83 -0.493254 1
gene 1 28 33 -1.43331 0 84 -1.43331 1
gene 1 29 31 -0.387768 0 85 -0.387768 1
gene 1 29 32 -1.08517 0 86 -1.08517 1
gene 1 29 33 -0.0959088 0 87 -0.0959088 1
gene 1 30 31 -0.451368 0 88 -0.451368 1
gene 1 30 32 0.213228 0 89 0.213228 1
gene 1 30 33 -0.907385 0 90 -0.907385 1
genomeend 3

/* Organism #4 Fitness: 34814.3 Error: 0 */
genomestart 4
trait 1 0.664132 1 0 0 0.436997 1 0.243397 0.962336 
node 1 1 1 1
node 2 1 1 1
node 3 1 1 1
node 4 1 1 1
node 5 1 1 1
node 6 1 1 1
node 7 1 1 1
node 8 1 1 1
node 9 1 1 1
node 10 1 1 1
node 11 1 1 1
node 12 1 1 1
node 13 1 1 1
node 14 1 1 1
node 15 1 1 1
node 16 1 1 1
node 17 1 1 1
node 18 1 1 1
node 19 1 1 1
node 20 1 1 1
node 21 1 1 1
node 22 1 1 1
node 23 1 1 1
node 24 1 1 1
node 25 1 1 1
node 26 1 1 1
node 27 1 1 1
node 28 1 1 1
node 29 1 1 1
node 30 1 1 3
node 31 1 0 2
node 32 1 0 2
node 33 1 0 2
gene 1 1 31 2.97806 0 1 2.97806 1
gene 1 1 32 -4.6474 0 2 -4.6474 1
gene 1 1 33 0.160116 0 3 0.160116 1
gene 1 2 31 -1.2049 0 4 -1.2049 1
gene 1 2 32 -1.48919 0 5 -1.48919 1
gene 1 2 33 -1.24976 0 6 -1.24976 1
gene 1 3 31 2.07293 0 7 2.07293 1
gene 1 3 32 -0.436824 0 8 -0.436824 1
gene 1 3 33 0.634389 0 9 0.634389 1
gene 1 4 31 2.64394 0 10 2.64394 1
gene 1 4 32 -5 0 11 -5 1
gene 1 4 33 2.34347 0 12 2.34347 1
gene 1 5 31 4.81861 0 13 4.81861 1
gene 1 5 32 0.424729 0 14 0.424729 1
gene 1 5 33 0.131148 0 15 0.131148 1
gene 1 6 31 0.866767 0 16 0.866767 1
gene 1 6 32 3.53843 0 17 3.53843 1
gene 1 6 33 0.0740951 0 18 0.0740951 1
gene 1 7 31 -2.27755 0 19 -2.27755 1
gene 1 7 32 1.13085 0 20 1.13085 1
gene 1 7 33 -0.357308 0 21 -0.357308 1
gene 1 8 31 1.43477 0 22 1.43477 1
gene 1 8 32 4.88857 0 23 4.88857 1
gene 1 8 33 -0.958597 0 24 -0.958597 1
gene 1 9 31 1.66497 0 25 1.66497 1
gene 1 9 32 0.975471 0 26 0.975471 1
gene 1 9 33 1.39444 0 27 1.39444 1
gene 1 10 31 2.32699 0 28 2.32699 1
gene 1 10 32 0.344263 0 29 0.344263 1
gene 1 10 33 0.336316 0 30 0.336316 1
gene 1 11 31 3.66744 0 31 3.66744 1
gene 1 11 32 0.430962 0 32 0.430962 1
gene 1 11 33 0.113277 0 33 0.113277 1
gene 1 12 31 -1.34616 0 34 -1.34616 1
gene 1 12 32 -2.57202 0 35 -2.57202 1
gene 1 12 33 2.23833 0 36 2.23833 1
gene 1 13 31 -0.991914 0 37 -0.991914 1
gene 1 13 32 -4.30241 0 38 -4.30241 1
gene 1 13 33 -1.20671 0 39 -1.20671 1
gene 1 14 31 -5 0 40 -5 1
gene 1 14 32 -0.0895584 0 41 -0.0895584 1
gene 1 14 33 -0.568722 0 42 -0.568722 1
gene 1 15 31 1.70906 0 43 1.70906 1
gene 1 15 32 1.73366 0 44 1.73366 1
gene 1 15 33 -0.735186 0 45 -0.735186 1
gene 1 16 31 -2.77339 0 46 -2.77339 1
gene 1 16 32 -3.04962 0 47 -3.04962 1
gene 1 16 33 2.7196 0 48 2.7196 1
gene 1 17 31 5 0 49 5 1
gene 1 17 32 0.952136 0 50 0.952136 1
gene 1 17 33 1.16866 0 51 1.16866 1
gene 1 18 31 2.9373 0 52 2.9373 1
gene 1 18 32 -1.52739 0 53 -1.52739 1
gene 1 18 33 -1.68236 0 54 -1.68236 1
gene 1 19 31 -0.638759 0 55 -0.638759 1
gene 1 19 32 -0.863059 0 56 -0.863059 1
gene 1 19 33 1.33892 0 57 1.33892 1
gene 1 20 31 -0.469549 0 58 -0.469549 1
gene 1 20 32 -0.213776 0 59 -0.213776 1
gene 1 20 33 -1.30792 0 60 -1.30792 1
gene 1 21 31 0.911339 0 61 0.911339 1
gene 1 21 32 -5 0 62 -5 1
gene 1 21 33 0.624416 0 63 0.624416 1
gene 1 22 31 -0.187307 0 64 -0.187307 1
gene 1 22 32 0.0304394 0 65 0.0304394 1
gene 1 22 33 -0.817264 0 66 -0.817264 1
gene 1 23 31 0.335353 0 67 0.335353 1
gene 1 23 32 1.5415 0 68 1.5415 1
gene 1 23 33 1.43289 0 69 1.43289 1
gene 1 24 31 -3.69018 0 70 -3.69018 1
gene 1 24 32 0.714455 0 71 0.714455 1
gene 1 24 33 2.70163 0 72 2.70163 1
gene 1 25 31 0.984042 0 73 0.984042 1
gene 1 25 32 -0.82759 0 74 -0.82759 1
gene 1 25 33 0.326785 0 75 0.326785 1
gene 1 26 31 1.37834 0 76 1.37834 1
gene 1 26 32 -0.719104 0 77 -0.719104 1
gene 1 26 33 0.6309 0 78 0.6309 1
gene 1 27 31 -1.21462 0 79 -1.21462 1
gene 1 27 32 -0.234734 0 80 -0.234734 1
gene 1 27 33 0.954139 0 81 0.954139 1
gene 1 28 31 1.57589 0 82 1.57589 1
gene 1 28 32 -1.86527 0 83 -1.86527 1
gene 1 28 33 1.01771 0 84 1.01771 1
gene 1 29 31 0.603681 0 85 0.603681 1
gene 1 29 32 0.0576726 0 86 0.0576726 1
gene 1 29 33 0.366662 0 87 0.366662 1
gene 1 30 31 -0.678605 0 88 -0.678605 1
gene 1 30 32 5 0 89 5 1
gene 1 30 33 0.422911 0 90 0.422911 1
genomeend 4

/* Organism #5 Fitness: 36167 Error: 0 */
genomestart 5
trait 1 0 1 0 0 0.0571666 0.579833 0 1 
node 1 1 1 1
node 2 1 1 1
node 3 1 1 1
node 4 1 1 1
node 5 1 1 1
node 6 1 1 1
node 7 1 1 1
node 8 1 1 1
node 9 1 1 1
node 10 1 1 1
node 11 1 1 1
node 12 1 1 1
node 13 1 1 1
node 14 1 1 1
node 15 1 1 1
node 16 1 1 1
node 17 1 1 1
node 18 1 1 1
node 19 1 1 1
node 20 1 1 1
node 21 1 1 1
node 22 1 1 1
node 23 1 1 1
node 24 1 1 1
node 25 1 1 1
node 26 1 1 1
node 27 1 1 1
node 28 1 1 1
node 29 1 1 1
node 30 1 1 3
node 31 1 0 2
node 32 1 0 2
node 33 1 0 2
gene 1 1 31 1.74855 0 1 1.74855 1
gene 1 1 32 -1.35333 0 2 -1.35333 1
gene 1 1 33 1.11441 0 3 1.11441 1
gene 1 2 31 -1.22539 0 4 -1.22539 1
gene 1 2 32 1.4274 0 5 1.4274 1
gene 1 2 33 -2.77234 0 6 -2.77234 1
gene 1 3 31 1.20875 0 7 1.20875 1
gene 1 3 32 -3.42648 0 8 -3.42648 1
gene 1 3 33 -3.5341 0 9 -3.5341 1
gene 1 4 31 2.8466 0 10 2.8466 1
gene 1 4 32 2.34628 0 11 2.34628 1
gene 1 4 33 1.32616 0 12 1.32616 1
gene 1 5 31 -1.35815 0 13 -1.35815 1
gene 1 5 32 1.1784 0 14 1.1784 1
gene 1 5 33 -1.89311 0 15 -1.89311 1
gene 1 6 31 -1.31784 0 16 -1.31784 1
gene 1 6 32 -4.15298 0 17 -4.15298 1
gene 1 6 33 -0.311983 0 18 -0.311983 1
gene 1 7 31 1.31332 0 19 1.31332 1
gene 1 7 32 -0.16289 0 20 -0.16289 1
gene 1 7 33 -0.0916014 0 21 -0.0916014 1
gene 1 8 31 -0.950071 0 22 -0.950071 1
gene 1 8 32 3.37288 0 23 3.37288 1
gene 1 8 33 -2.32087 0 24 -2.32087 1
gene 1 9 31 4.92107 0 25 4.92107 1
gene 1 9 32 -5 0 26 -5 1
gene 1 9 33 3.26018 0 27 3.26018 1
gene 1 10 31 1.60315 0 28 1.60315 1
gene 1 10 32 -5 0 29 -5 1
gene 1 10 33 0.476401 0 30 0.476401 1
gene 1 11 31 -2.7235 0 31 -2.7235 1
gene 1 11 32 1.05626 0 32 1.05626 1
gene 1 11 33 0.448531 0 33 0.448531 1
gene 1 12 31 -4.1962 0 34 -4.1962 1
gene 1 12 32 1.32434 0 35 1.32434 1
gene 1 12 33 0.47477 0 36 0.47477 1
gene 1 13 31 -1.50733 0 37 -1.50733 1
gene 1 13 32 -0.0847928 0 38 -0.0847928 1
gene 1 13 33 1.79197 0 39 1.79197 1
gene 1 14 31 1.10778 0 40 1.10778 1
gene 1 14 32 -0.173982 0 41 -0.173982 1
gene 1 14 33 -1.61734 0 42 -1.61734 1
gene 1 15 31 0.467313 0 43 0.467313 1
gene 1 15 32 0.0448064 0 44 0.0448064 1
gene 1 15 33 2.8698 0 45 2.8698 1
gene 1 16 31 -2.16783 0 46 -2.16783 1
gene 1 16 32 -0.872617 0 47 -0.872617 1
gene 1 16 33 1.67168 0 48 1.67168 1
gene 1 17 31 0.297613 0 49 0.297613 1
gene 1 17 32 -0.814239 0 50 -0.814239 1
gene 1 17 33 0.542402 0 51 0.542402 1
gene 1 18 31 -0.316066 0 52 -0.316066 1
gene 1 18 32 1.53306 0 53 1.53306 1
gene 1 18 33 2.28464 0 54 2.28464 1
gene 1 19 31 3.66365 0 55 3.66365 1
gene 1 19 32 -3.47098 0 56 -3.47098 1
gene 1 19 33 -3.65691 0 57 -3.65691 1
gene 1 20 31 0.86101 0 58 0.86101 1
gene 1 20 32 -0.957239 0 59 -0.957239 1
gene 1 20 33 2.38017 0 60 2.38017 1
gene 1 21 31 -0.133579 0 61 -0.133579 1
gene 1 21 32 -0.441495 0 62 -0.441495 1
gene 1 21 33 2.59533 0 63 2.59533 1
gene 1 22 31 2.94273 0 64 2.94273 1
gene 1 22 32 1.71157 0 65 1.71157 1
gene 1 22 33 0.177166 0 66 0.177166 1
gene 1 23 31 -1.87412 0 67 -1.87412 1
gene 1 23 32 3.02825 0 68 3.02825 1
gene 1 23 33 -2.18813 0 69 -2.18813 1
gene 1 24 31 -3.6599 0 70 -3.6599 1
gene 1 24 32 0.108852 0 71 0.108852 1
gene 1 24 33 -0.458366 0 72 -0.458366 1
gene 1 25 31 0.665786 0 73 0.665786 1
gene 1 25 32 1.47582 0 74 1.47582 1
gene 1 25 33 -1.50701 0 75 -1.50701 1
gene 1 26 31 0.0664665 0 76 0.0664665 1
gene 1 26 32 -0.93021 0 77 -0.93021 1
gene 1 26 33 -1.66052 0 78 -1.66052 1
gene 1 27 31 0.709508 0 79 0.709508 1
gene 1 27 32 0.233168 0 80 0.233168 1
gene 1 27 33 -0.737098 0 81 -0.737098 1
gene 1 28 31 -1.57429 0 82 -1.57429 1
gene 1 28 32 -0.832355 0 83 -0.832355 1
gene 1 28 33 -0.721311 0 84 -0.721311 1
gene 1 29 31 -1.12731 0 85 -1.12731 1
gene 1 29 32 0.967198 0 86 0.967198 1
gene 1 29 33 -1.60459 0 87 -1.60459 1
gene 1 30 31 0.694988 0 88 0.694988 1
gene 1 30 32 3.68254 0 89 3.68254 1
gene 1 30 33 -0.786194 0 90 -0.786194 1
genomeend 5

/* Organism #6 Fitness: 32418.8 Error: 0 */
genomestart 6
trait 1 0.664132 1 0 0 0.436997 1 0.243397 0.962336 
node 1 1 1 1
node 2 1 1 1
node 3 1 1 1
node 4 1 1 1
node 5 1 1 1
node 6 1 1 1
node 7 1 1 1
node 8 1 1 1
node 9 1 1 1
node 10 1 1 1
node 11 1 1 1
node 12 1 1 1
node 13 1 1 1
node 14 1 1 1
node 15 1 1 1
node 16 1 1 1
node 17 1 1 1
node 18 1 1 1
node 19 1 1 1
node 20 1 1 1
node 21 1 1 1
node 22 1 1 1
node 23 1 1 1
node 24 1 1 1
node 25 1 1 1
node 26 1 1 1
node 27 1 1 1
node 28 1 1 1
node 29 1 1 1
node 30 1 1 3
node 31 1 0 2
node 32 1 0 2
node 33 1 0 2
gene 1 1 31 0.183591 0 1 0.183591 1
gene 1 1 32 -1.62979 0 2 -1.62979 1
gene 1 1 33 3.70491 0 3 3.70491 1
gene 1 2 31 0.0108591 0 4 0.0108591 1
gene 1 2 32 1.11876 0 5 1.11876 1
gene 1 2 33 0.786466 0 6 0.786466 1
gene 1 3 31 1.99264 0 7 1.99264 1
gene 1 3 32 -4.23167 0 8 -4.23167 1
gene 1 3 33 -1.30383 0 9 -1.30383 1
gene 1 4 31 2.09501 0 10 2.09501 1
gene 1 4 32 0.929456 0 11 0.929456 1
gene 1 4 33 -0.944223 0 12 -0.944223 1
gene 1 5 31 -2.3422 0 13 -2.3422 1
gene 1 5 32 0.123088 0 14 0.123088 1
gene 1 5 33 2.54725 0 15 2.54725 1
gene 1 6 31 3.21078 0 16 3.21078 1
gene 1 6 32 -2.63461 0 17 -2.63461 1
gene 1 6 33 -0.350835 0 18 -0.350835 1
gene 1 7 31 -3.89486 0 19 -3.89486 1
gene 1 7 32 -4.24984 0 20 -4.24984 1
gene 1 7 33 0.1039 0 21 0.1039 1
gene 1 8 31 0.435787 0 22 0.435787 1
gene 1 8 32 0.0650215 0 23 0.0650215 1
gene 1 8 33 0.822261 0 24 0.822261 1
gene 1 9 31 1.81828 0 25 1.81828 1
gene 1 9 32 0.512883 0 26 0.512883 1
gene 1 9 33 5 0 27 5 1
gene 1 10 31 3.73955 0 28 3.73955 1
gene 1 10 32 0.666461 0 29 0.666461 1
gene 1 10 33 -4.62722 0 30 -4.62722 1
gene 1 11 31 -4.58753 0 31 -4.58753 1
gene 1 11 32 4.17477 0 32 4.17477 1
gene 1 11 33 3.14586 0 33 3.14586 1
gene 1 12 31 2.3154 0 34 2.3154 1
gene 1 12 32 -3.3074 0 35 -3.3074 1
gene 1 12 33 2.14589 0 36 2.14589 1
gene 1 13 31 0.931011 0 37 0.931011 1
gene 1 13 32 -2.80608 0 38 -2.80608 1
gene 1 13 33 2.16603 0 39 2.16603 1
gene 1 14 31 3.83442 0 40 3.83442 1
gene 1 14 32 -1.31635 0 41 -1.31635 1
gene 1 14 33 -2.05362 0 42 -2.05362 1
gene 1 15 31 1.36678 0 43 1.36678 1
gene 1 15 32 1.43899 0 44 1.43899 1
gene 1 15 33 -0.787807 0 45 -0.787807 1
gene 1 16 31 -2.82886 0 46 -2.82886 1
gene 1 16 32 -2.14905 0 47 -2.14905 1
gene 1 16 33 -0.65563 0 48 -0.65563 1
gene 1 17 31 -3.30857 0 49 -3.30857 1
gene 1 17 32 -0.699996 0 50 -0.699996 1
gene 1 17 33 -1.73788 0 51 -1.73788 1
gene 1 18 31 5 0 52 5 1
gene 1 18 32 -1.91144 0 53 -1.91144 1
gene 1 18 33 -0.919962 0 54 -0.919962 1
gene 1 19 31 4.72486 0 55 4.72486 1
gene 1 19 32 -0.569179 0 56 -0.569179 1
gene 1 19 33 -4.74964 0 57 -4.74964 1
gene 1 20 31 -1.52636 0 58 -1.52636 1
gene 1 20 32 -1.17991 0 59 -1.17991 1
gene 1 20 33 1.3851 0 60 1.3851 1
gene 1 21 31 1.639 0 61 1.639 1
gene 1 21 32 -2.23086 0 62 -2.23086 1
gene 1 21 33 1.5978 0 63 1.5978 1
gene 1 22 31 -0.35116 0 64 -0.35116 1
gene 1 22 32 0.290586 0 65 0.290586 1
gene 1 22 33 -1.13872 0 66 -1.13872 1
gene 1 23 31 -0.0137653 0 67 -0.0137653 1
gene 1 23 32 5 0 68 5 1
gene 1 23 33 2.32113 0 69 2.32113 1
gene 1 24 31 -1.79777 0 70 -1.79777 1
gene 1 24 32 2.99466 0 71 2.99466 1
gene 1 24 33 -3.59233 0 72 -3.59233 1
gene 1 25 31 2.61045 0 73 2.61045 1
gene 1 25 32 0.647161 0 74 0.647161 1
gene 1 25 33 -0.232702 0 75 -0.232702 1
gene 1 26 31 -0.249234 0 76 -0.249234 1
gene 1 26 32 0.769076 0 77 0.769076 1
gene 1 26 33 -1.59811 0 78 -1.59811 1
gene 1 27 31 -0.676127 0 79 -0.676127 1
gene 1 27 32 -1.73211 0 80 -1.73211 1
gene 1 27 33 0.585656 0 81 0.585656 1
gene 1 28 31 -0.26535 0 82 -0.26535 1
gene 1 28 32 0.126394 0 83 0.126394 1
gene 1 28 33 0.0231777 0 84 0.0231777 1
gene 1 29 31 0.190042 0 85 0.190042 1
gene 1 29 32 1.29876 0 86 1.29876 1
gene 1 29 33 -0.910866 0 87 -0.910866 1
gene 1 30 31 1.1591 0 88 1.1591 1
gene 1 30 32 3.88645 0 89 3.88645 1
gene 1 30 33 -1.27211 0 90 -1.27211 1
genomeend 6

/* Organism #7 Fitness: 37948.9 Error: 0 */
genomestart 7
trait 1 0.664132 1 0.337422 0.366571 0.436997 1 0.751497 0.962336 
node 1 1 1 1
node 2 1 1 1
node 3 1 1 1
node 4 1 1 1
node 5 1 1 1
node 6 1 1 1
node 7 1 1 1
node 8 1 1 1
node 9 1 1 1
node 10 1 1 1
node 11 1 1 1
node 12 1 1 1
node 13 1 1 1
node 14 1 1 1
node 15 1 1 1
node 16 1 1 1
node 17 1 1 1
node 18 1 1 1
node 19 1 1 1
node 20 1 1 1
node 21 1 1 1
node 22 1 1 1
node 23 1 1 1
node 24 1 1 1
node 25 1 1 1
node 26 1 1 1
node 27 1 1 1
node 28 1 1 1
node 29 1 1 1
node 30 1 1 3
node 31 1 0 2
node 32 1 0 2
node 33 1 0 2
gene 1 1 31 3.69178 0 1 3.69178 1
gene 1 1 32 -5 0 2 -5 1
gene 1 1 33 1.28282 0 3 1.28282 1
gene 1 2 31 -1.58448 0 4 -1.58448 1
gene 1 2 32 -0.841339 0 5 -0.841339 1
gene 1 2 33 -1.90189 0 6 -1.90189 1
gene 1 3 31 -1.82891 0 7 -1.82891 1
gene 1 3 32 -2.08367 0 8 -2.08367 1
gene 1 3 33 2.82556 0 9 2.82556 1
gene 1 4 31 1.8846 0 10 1.8846 1
gene 1 4 32 -5 0 11 -5 1
gene 1 4 33 2.87703 0 12 2.87703 1
gene 1 5 31 0.874863 0 13 0.874863 1
gene 1 5 32 2.68066 0 14 2.68066 1
gene 1 5 33 -1.68616 0 15 -1.68616 1
gene 1 6 31 2.06197 0 16 2.06197 1
gene 1 6 32 4.37726 0 17 4.37726 1
gene 1 6 33 -0.151748 0 18 -0.151748 1
gene 1 7 31 -1.00976 0 19 -1.00976 1
gene 1 7 32 0.609103 0 20 0.609103 1
gene 1 7 33 -1.29508 0 21 -1.29508 1
gene 1 8 31 1.7758 0 22 1.7758 1
gene 1 8 32 3.7701 0 23 3.7701 1
gene 1 8 33 0.0812348 0 24 0.0812348 1
gene 1 9 31 1.7208 0 25 1.7208 1
gene 1 9 32 1.70446 0 26 1.70446 1
gene 1 9 33 1.77139 0 27 1.77139 1
gene 1 10 31 3.99775 0 28 3.99775 1
gene 1 10 32 -0.317498 0 29 -0.317498 1
gene 1 10 33 0.642525 0 30 0.642525 1
gene 1 11 31 -1.04709 0 31 -1.04709 1
gene 1 11 32 -0.898013 0 32 -0.898013 1
gene 1 11 33 -1.17301 0 33 -1.17301 1
gene 1 12 31 -2.76713 0 34 -2.76713 1
gene 1 12 32 -1.66686 0 35 -1.66686 1
gene 1 12 33 -2.23419 0 36 -2.23419 1
gene 1 13 31 1.05929 0 37 1.05929 1
gene 1 13 32 -4.73809 0 38 -4.73809 1
gene 1 13 33 -1.7247 0 39 -1.7247 1
gene 1 14 31 -4.84113 0 40 -4.84113 1
gene 1 14 32 0.483888 0 41 0.483888 1
gene 1 14 33 0.192286 0 42 0.192286 1
gene 1 15 31 2.0238 0 43 2.0238 1
gene 1 15 32 1.36589 0 44 1.36589 1
gene 1 15 33 -1.86679 0 45 -1.86679 1
gene 1 16 31 -1.03813 0 46 -1.03813 1
gene 1 16 32 -2.51646 0 47 -2.51646 1
gene 1 16 33 4.47703 0 48 4.47703 1
gene 1 17 31 4.82447 0 49 4.82447 1
gene 1 17 32 -0.221796 0 50 -0.221796 1
gene 1 17 33 0.0214583 0 51 0.0214583 1
gene 1 18 31 4.12911 0 52 4.12911 1
gene 1 18 32 -0.058387 0 53 -0.058387 1
gene 1 18 33 -2.16331 0 54 -2.16331 1
gene 1 19 31 -1.38821 0 55 -1.38821 1
gene 1 19 32 1.01615 0 56 1.01615 1
gene 1 19 33 0.327737 0 57 0.327737 1
gene 1 20 31 0.324098 0 58 0.324098 1
gene 1 20 32 -1.36554 0 59 -1.36554 1
gene 1 20 33 -1.19205 0 60 -1.19205 1
gene 1 21 31 0.386467 0 61 0.386467 1
gene 1 21 32 -4.45958 0 62 -4.45958 1
gene 1 21 33 -0.151116 0 63 -0.151116 1
gene 1 22 31 -1.142 0 64 -1.142 1
gene 1 22 32 0.385163 0 65 0.385163 1
gene 1 22 33 -0.143076 0 66 -0.143076 1
gene 1 23 31 -0.606851 0 67 -0.606851 1
gene 1 23 32 2.36048 0 68 2.36048 1
gene 1 23 33 0.621157 0 69 0.621157 1
gene 1 24 31 -2.29847 0 70 -2.29847 1
gene 1 24 32 1.1548 0 71 1.1548 1
gene 1 24 33 0.34856 0 72 0.34856 1
gene 1 25 31 1.02588 0 73 1.02588 1
gene 1 25 32 -0.562581 0 74 -0.562581 1
gene 1 25 33 -0.425521 0 75 -0.425521 1
gene 1 26 31 0.105868 0 76 0.105868 1
gene 1 26 32 -0.402977 0 77 -0.402977 1
gene 1 26 33 0.996785 0 78 0.996785 1
gene 1 27 31 -1.76583 0 79 -1.76583 1
gene 1 27 32 -0.296273 0 80 -0.296273 1
gene 1 27 33 0.850759 0 81 0.850759 1
gene 1 28 31 0.162708 0 82 0.162708 1
gene 1 28 32 0.324777 0 83 0.324777 1
gene 1 28 33 1.92616 0 84 1.92616 1
gene 1 29 31 -0.561366 0 85 -0.561366 1
gene 1 29 32 0.571241 0 86 0.571241 1
gene 1 29 33 0.353026 0 87 0.353026 1
gene 1 30 31 -0.459222 0 88 -0.459222 1
gene 1 30 32 4.40239 0 89 4.40239 1
gene 1 30 33 0.537873 0 90 0.537873 1
genomeend 7

/* Organism #8 Fitness: 35245.2 Error: 0 */
genomestart 8
trait 1 0.664132 1 0 0 0.436997 1 0.243397 0.962336 
node 1 1 1 1
node 2 1 1 1
node 3 1 1 1
node 4 1 1 1
node 5 1 1 1
node 6 1 1 1
node 7 1 1 1
node 8 1 1 1
node 9 1 1 1
node 10 1 1 1
node 11 1 1 1
node 12 1 1 1
node 13 1 1 1
node 14 1 1 1
node 15 1 1 1
node 16 1 1 1
node 17 1 1 1
node 18 1 1 1
node 19 1 1 1
node 20 1 1 1
node 21 1 1 1
node 22 1 1 1
node 23 1 1 1
node 24 1 1 1
node 25 1 1 1
node 26 1 1 1
node 27 1 1 1
node 28 1 1 1
node 29 1 1 1
node 30 1 1 3
node 31 1 0 2
node 32 1 0 2
node 33 1 0 2
gene 1 1 31 1.19136 0 1 1.19136 1
gene 1 1 32 -2.30953 0 2 -2.30953 1
gene 1 1 33 4.2283 0 3 4.2283 1
gene 1 2 31 -0.985355 0 4 -0.985355 1
gene 1 2 32 0.314309 0 5 0.314309 1
gene 1 2 33 0.381659 0 6 0.381659 1
gene 1 3 31 2.26964 0 7 2.26964 1
gene 1 3 32 -3.42413 0 8 -3.42413 1
gene 1 3 33 -1.34771 0 9 -1.34771 1
gene 1 4 31 2.55167 0 10 2.55167 1
gene 1 4 32 1.26398 0 11 1.26398 1
gene 1 4 33 0.544586 0 12 0.544586 1
gene 1 5 31 -1.43396 0 13 -1.43396 1
gene 1 5 32 -0.248179 0 14 -0.248179 1
gene 1 5 33 3.34133 0 15 3.34133 1
gene 1 6 31 3.90436 0 16 3.90436 1
gene 1 6 32 -2.99095 0 17 -2.99095 1
gene 1 6 33 -0.901849 0 18 -0.901849 1
gene 1 7 31 -4.07803 0 19 -4.07803 1
gene 1 7 32 -3.35123 0 20 -3.35123 1
gene 1 7 33 1.08682 0 21 1.08682 1
gene 1 8 31 1.20754 0 22 1.20754 1
gene 1 8 32 0.435995 0 23 0.435995 1
gene 1 8 33 -0.466832 0 24 -0.466832 1
gene 1 9 31 1.03677 0 25 1.03677 1
gene 1 9 32 0.831568 0 26 0.831568 1
gene 1 9 33 5 0 27 5 1
gene 1 10 31 3.5956 0 28 3.5956 1
gene 1 10 32 0.127175 0 29 0.127175 1
gene 1 10 33 -4.27718 0 30 -4.27718 1
gene 1 11 31 -3.75668 0 31 -3.75668 1
gene 1 11 32 3.21374 0 32 3.21374 1
gene 1 11 33 3.29643 0 33 3.29643 1
gene 1 12 31 1.14757 0 34 1.14757 1
gene 1 12 32 -2.13625 0 35 -2.13625 1
gene 1 12 33 2.38449 0 36 2.38449 1
gene 1 13 31 0.857193 0 37 0.857193 1
gene 1 13 32 -3.60305 0 38 -3.60305 1
gene 1 13 33 1.99747 0 39 1.99747 1
gene 1 14 31 4.40446 0 40 4.40446 1
gene 1 14 32 -0.999323 0 41 -0.999323 1
gene 1 14 33 -0.725393 0 42 -0.725393 1
gene 1 15 31 1.09769 0 43 1.09769 1
gene 1 15 32 1.7264 0 44 1.7264 1
gene 1 15 33 -0.365467 0 45 -0.365467 1
gene 1 16 31 -3.70055 0 46 -3.70055 1
gene 1 16 32 -2.07972 0 47 -2.07972 1
gene 1 16 33 -0.547577 0 48 -0.547577 1
gene 1 17 31 -2.23216 0 49 -2.23216 1
gene 1 17 32 -1.36378 0 50 -1.36378 1
gene 1 17 33 -0.365616 0 51 -0.365616 1
gene 1 18 31 4.30368 0 52 4.30368 1
gene 1 18 32 -1.45327 0 53 -1.45327 1
gene 1 18 33 -1.60943 0 54 -1.60943 1
gene 1 19 31 3.50435 0 55 3.50435 1
gene 1 19 32 -0.282379 0 56 -0.282379 1
gene 1 19 33 -4.67867 0 57 -4.67867 1
gene 1 20 31 -1.78873 0 58 -1.78873 1
gene 1 20 32 -0.703425 0 59 -0.703425 1
gene 1 20 33 1.97047 0 60 1.97047 1
gene 1 21 31 2.2902 0 61 2.2902 1
gene 1 21 32 -1.34672 0 62 -1.34672 1
gene 1 21 33 0.422857 0 63 0.422857 1
gene 1 22 31 0.211253 0 64 0.211253 1
gene 1 22 32 0.126127 0 65 0.126127 1
gene 1 22 33 0.125897 0 66 0.125897 1
gene 1 23 31 1.00756 0 67 1.00756 1
gene 1 23 32 5 0 68 5 1
gene 1 23 33 2.16274 0 69 2.16274 1
gene 1 24 31 -2.3969 0 70 -2.3969 1
gene 1 24 32 3.0892 0 71 3.0892 1
gene 1 24 33 -3.53178 0 72 -3.53178 1
gene 1 25 31 3.00008 0 73 3.00008 1
gene 1 25 32 -0.573295 0 74 -0.573295 1
gene 1 25 33 0.616964 0 75 0.616964 1
gene 1 26 31 -0.247272 0 76 -0.247272 1
gene 1 26 32 -1.25105 0 77 -1.25105 1
gene 1 26 33 -0.79619 0 78 -0.79619 1
gene 1 27 31 -0.644324 0 79 -0.644324 1
gene 1 27 32 -1.39464 0 80 -1.39464 1
gene 1 27 33 -0.224025 0 81 -0.224025 1
gene 1 28 31 -0.26535 0 82 -0.26535 1
gene 1 28 32 -0.270709 0 83 -0.270709 1
gene 1 28 33 0.858177 0 84 0.858177 1
gene 1 29 31 0.190042 0 85 0.190042 1
gene 1 29 32 1.31585 0 86 1.31585 1
gene 1 29 33 -0.414906 0 87 -0.414906 1
gene 1 30 31 1.17592 0 88 1.17592 1
gene 1 30 32 3.88645 0 89 3.88645 1
gene 1 30 33 -1.10324 0 90 -1.10324 1
genomeend 8

/* Organism #9 Fitness: 33149.6 Error: 0 */
genomestart 9
trait 1 0.664132 1 0 0 0.436997 1 0.243397 0.962336 
node 1 1 1 1
node 2 1 1 1
node 3 1 1 1
node 4 1 1 1
node 5 1 1 1
node 6 1 1 1
node 7 1 1 1
node 8 1 1 1
node 9 1 1 1
node 10 1 1 1
node 11 1 1 1
node 12 1 1 1
node 13 1 1 1
node 14 1 1 1
node 15 1 1 1
node 16 1 1 1
node 17 1 1 1
node 18 1 1 1
node 19 1 1 1
node 20 1 1 1
node 21 1 1 1
node 22 1 1 1
node 23 1 1 1
node 24 1 1 1
node 25 1 1 1
node 26 1 1 1
node 27 1 1 1
node 28 1 1 1
node 29 1 1 1
node 30 1 1 3
node 31 1 0 2
node 32 1 0 2
node 33 1 0 2
gene 1 1 31 2.20725 0 1 2.20725 1
gene 1 1 32 -4.92703 0 2 -4.92703 1
gene 1 1 33 1.10419 0 3 1.10419 1
gene 1 2 31 -1.95457 0 4 -1.95457 1
gene 1 2 32 -1.8577 0 5 -1.8577 1
gene 1 2 33 -0.765022 0 6 -0.765022 1
gene 1 3 31 2.5453 0 7 2.5453 1
gene 1 3 32 -1.04973 0 8 -1.04973 1
gene 1 3 33 1.41663 0 9 1.41663 1
gene 1 4 31 2.15734 0 10 2.15734 1
gene 1 4 32 -5 0 11 -5 1
gene 1 4 33 2.02351 0 12 2.02351 1
gene 1 5 31 5 0 13 5 1
gene 1 5 32 0.902394 0 14 0.902394 1
gene 1 5 33 -0.332657 0 15 -0.332657 1
gene 1 6 31 0.82224 0 16 0.82224 1
gene 1 6 32 4.33082 0 17 4.33082 1
gene 1 6 33 0.239486 0 18 0.239486 1
gene 1 7 31 -1.74976 0 19 -1.74976 1
gene 1 7 32 1.13777 0 20 1.13777 1
gene 1 7 33 0.318265 0 21 0.318265 1
gene 1 8 31 1.57755 0 22 1.57755 1
gene 1 8 32 4.24347 0 23 4.24347 1
gene 1 8 33 -0.0173306 0 24 -0.0173306 1
gene 1 9 31 1.27509 0 25 1.27509 1
gene 1 9 32 1.3821 0 26 1.3821 1
gene 1 9 33 0.51813 0 27 0.51813 1
gene 1 10 31 1.76431 0 28 1.76431 1
gene 1 10 32 0.174997 0 29 0.174997 1
gene 1 10 33 0.954641 0 30 0.954641 1
gene 1 11 31 3.36273 0 31 3.36273 1
gene 1 11 32 -0.314703 0 32 -0.314703 1
gene 1 11 33 -0.761172 0 33 -0.761172 1
gene 1 12 31 -0.631601 0 34 -0.631601 1
gene 1 12 32 -2.04513 0 35 -2.04513 1
gene 1 12 33 1.92221 0 36 1.92221 1
gene 1 13 31 -0.520262 0 37 -0.520262 1
gene 1 13 32 -4.08833 0 38 -4.08833 1
gene 1 13 33 -1.52471 0 39 -1.52471 1
gene 1 14 31 -4.31261 0 40 -4.31261 1
gene 1 14 32 0.647108 0 41 0.647108 1
gene 1 14 33 -0.990145 0 42 -0.990145 1
gene 1 15 31 1.56444 0 43 1.56444 1
gene 1 15 32 1.67182 0 44 1.67182 1
gene 1 15 33 -0.820212 0 45 -0.820212 1
gene 1 16 31 -3.23302 0 46 -3.23302 1
gene 1 16 32 -2.7663 0 47 -2.7663 1
gene 1 16 33 3.04669 0 48 3.04669 1
gene 1 17 31 5 0 49 5 1
gene 1 17 32 1.74 0 50 1.74 1
gene 1 17 33 1.24193 0 51 1.24193 1
gene 1 18 31 2.23347 0 52 2.23347 1
gene 1 18 32 -1.6103 0 53 -1.6103 1
gene 1 18 33 -1.41339 0 54 -1.41339 1
gene 1 19 31 -0.150196 0 55 -0.150196 1
gene 1 19 32 -0.661143 0 56 -0.661143 1
gene 1 19 33 2.30089 0 57 2.30089 1
gene 1 20 31 0.481902 0 58 0.481902 1
gene 1 20 32 -0.0910629 0 59 -0.0910629 1
gene 1 20 33 -0.89303 0 60 -0.89303 1
gene 1 21 31 1.03187 0 61 1.03187 1
gene 1 21 32 -4.67684 0 62 -4.67684 1
gene 1 21 33 0.102483 0 63 0.102483 1
gene 1 22 31 -1.06164 0 64 -1.06164 1
gene 1 22 32 0.217687 0 65 0.217687 1
gene 1 22 33 -0.942473 0 66 -0.942473 1
gene 1 23 31 -0.00863364 0 67 -0.00863364 1
gene 1 23 32 1.69317 0 68 1.69317 1
gene 1 23 33 1.82613 0 69 1.82613 1
gene 1 24 31 -3.03266 0 70 -3.03266 1
gene 1 24 32 0.55765 0 71 0.55765 1
gene 1 24 33 1.895 0 72 1.895 1
gene 1 25 31 1.08424 0 73 1.08424 1
gene 1 25 32 -1.05299 0 74 -1.05299 1
gene 1 25 33 0.326785 0 75 0.326785 1
gene 1 26 31 0.830549 0 76 0.830549 1
gene 1 26 32 -0.719104 0 77 -0.719104 1
gene 1 26 33 -1.21668 0 78 -1.21668 1
gene 1 27 31 -1.21462 0 79 -1.21462 1
gene 1 27 32 -0.234734 0 80 -0.234734 1
gene 1 27 33 0.954139 0 81 0.954139 1
gene 1 28 31 1.02181 0 82 1.02181 1
gene 1 28 32 -1.3173 0 83 -1.3173 1
gene 1 28 33 1.01771 0 84 1.01771 1
gene 1 29 31 -0.372849 0 85 -0.372849 1
gene 1 29 32 0.0576726 0 86 0.0576726 1
gene 1 29 33 0.659978 0 87 0.659978 1
gene 1 30 31 -0.678605 0 88 -0.678605 1
gene 1 30 32 5 0 89 5 1
gene 1 30 33 -0.621654 0 90 -0.621654 1
genomeend 9

/* Organism #10 Fitness: 30236.3 Error: 0 */
genomestart 10
trait 1 0.664132 1 0 0 0.436997 1 0.243397 0.962336 
node 1 1 1 1
node 2 1 1 1
node 3 1 1 1
node 4 1 1 1
node 5 1 1 1
node 6 1 1 1
node 7 1 1 1
node 8 1 1 1
node 9 1 1 1
node 10 1 1 1
node 11 1 1 1
node 12 1 1 1
node 13 1 1 1
node 14 1 1 1
node 15 1 1 1
node 16 1 1 1
node 17 1 1 1
node 18 1 1 1
node 19 1 1 1
node 20 1 1 1
node 21 1 1 1
node 22 1 1 1
node 23 1 1 1
node 24 1 1 1
node 25 1 1 1
node 26 1 1 1
node 27 1 1 1
node 28 1 1 1
node 29 1 1 1
node 30 1 1 3
node 31 1 0 2
node 32 1 0 2
node 33 1 0 2
gene 1 1 31 2.05628 0 1 2.05628 1
gene 1 1 32 -4.89575 0 2 -4.89575 1
gene 1 1 33 2.16559 0 3 2.16559 1
gene 1 2 31 -2.14828 0 4 -2.14828 1
gene 1 2 32 -1.13451 0 5 -1.13451 1
gene 1 2 33 -1.93731 0 6 -1.93731 1
gene 1 3 31 -0.216537 0 7 -0.216537 1
gene 1 3 32 -1.8274 0 8 -1.8274 1
gene 1 3 33 1.89171 0 9 1.89171 1
gene 1 4 31 3.04688 0 10 3.04688 1
gene 1 4 32 -4.62893 0 11 -4.62893 1
gene 1 4 33 0.543397 0 12 0.543397 1
gene 1 5 31 -0.299115 0 13 -0.299115 1
gene 1 5 32 0.7246 0 14 0.7246 1
gene 1 5 33 0.246687 0 15 0.246687 1
gene 1 6 31 1.76085 0 16 1.76085 1
gene 1 6 32 4.80849 0 17 4.80849 1
gene 1 6 33 0.0443383 0 18 0.0443383 1
gene 1 7 31 -2.15733 0 19 -2.15733 1
gene 1 7 32 1.41343 0 20 1.41343 1
gene 1 7 33 -0.496591 0 21 -0.496591 1
gene 1 8 31 0.986905 0 22 0.986905 1
gene 1 8 32 5 0 23 5 1
gene 1 8 33 1.00874 0 24 1.00874 1
gene 1 9 31 1.08119 0 25 1.08119 1
gene 1 9 32 0.560589 0 26 0.560589 1
gene 1 9 33 0.561836 0 27 0.561836 1
gene 1 10 31 1.71591 0 28 1.71591 1
gene 1 10 32 1.79291 0 29 1.79291 1
gene 1 10 33 -0.433938 0 30 -0.433938 1
gene 1 11 31 -1.31809 0 31 -1.31809 1
gene 1 11 32 -0.705171 0 32 -0.705171 1
gene 1 11 33 0.232778 0 33 0.232778 1
gene 1 12 31 -1.86215 0 34 -1.86215 1
gene 1 12 32 -2.23513 0 35 -2.23513 1
gene 1 12 33 0.279494 0 36 0.279494 1
gene 1 13 31 -0.382991 0 37 -0.382991 1
gene 1 13 32 -3.35209 0 38 -3.35209 1
gene 1 13 33 -2.05183 0 39 -2.05183 1
gene 1 14 31 -4.77057 0 40 -4.77057 1
gene 1 14 32 -0.243703 0 41 -0.243703 1
gene 1 14 33 -0.807609 0 42 -0.807609 1
gene 1 15 31 1.94929 0 43 1.94929 1
gene 1 15 32 1.62977 0 44 1.62977 1
gene 1 15 33 0.151709 0 45 0.151709 1
gene 1 16 31 0.385667 0 46 0.385667 1
gene 1 16 32 -2.14827 0 47 -2.14827 1
gene 1 16 33 3.3704 0 48 3.3704 1
gene 1 17 31 4.50019 0 49 4.50019 1
gene 1 17 32 1.60035 0 50 1.60035 1
gene 1 17 33 0.417033 0 51 0.417033 1
gene 1 18 31 3.10679 0 52 3.10679 1
gene 1 18 32 -1.52704 0 53 -1.52704 1
gene 1 18 33 -1.71514 0 54 -1.71514 1
gene 1 19 31 0.846778 0 55 0.846778 1
gene 1 19 32 -0.373032 0 56 -0.373032 1
gene 1 19 33 -0.795981 0 57 -0.795981 1
gene 1 20 31 0.574974 0 58 0.574974 1
gene 1 20 32 -1.67369 0 59 -1.67369 1
gene 1 20 33 -1.05905 0 60 -1.05905 1
gene 1 21 31 1.12548 0 61 1.12548 1
gene 1 21 32 -4.99296 0 62 -4.99296 1
gene 1 21 33 -0.598585 0 63 -0.598585 1
gene 1 22 31 -1.76014 0 64 -1.76014 1
gene 1 22 32 -0.556187 0 65 -0.556187 1
gene 1 22 33 -0.0546331 0 66 -0.0546331 1
gene 1 23 31 -0.0733859 0 67 -0.0733859 1
gene 1 23 32 1.43619 0 68 1.43619 1
gene 1 23 33 1.62505 0 69 1.62505 1
gene 1 24 31 -3.11614 0 70 -3.11614 1
gene 1 24 32 1.26337 0 71 1.26337 1
gene 1 24 33 1.48523 0 72 1.48523 1
gene 1 25 31 1.08743 0 73 1.08743 1
gene 1 25 32 -1.06359 0 74 -1.06359 1
gene 1 25 33 1.31457 0 75 1.31457 1
gene 1 26 31 0.134669 0 76 0.134669 1
gene 1 26 32 0.0327779 0 77 0.0327779 1
gene 1 26 33 1.48086 0 78 1.48086 1
gene 1 27 31 -1.36808 0 79 -1.36808 1
gene 1 27 32 -0.409939 0 80 -0.409939 1
gene 1 27 33 -0.276273 0 81 -0.276273 1
gene 1 28 31 2.11076 0 82 2.11076 1
gene 1 28 32 -1.54491 0 83 -1.54491 1
gene 1 28 33 -0.929974 0 84 -0.929974 1
gene 1 29 31 -0.180088 0 85 -0.180088 1
gene 1 29 32 0.904069 0 86 0.904069 1
gene 1 29 33 0.0207305 0 87 0.0207305 1
gene 1 30 31 -1.18919 0 88 -1.18919 1
gene 1 30 32 5 0 89 5 1
gene 1 30 33 1.48922 0 90 1.48922 1
genomeend 10

/* Organism #11 Fitness: 31368.1 Error: 0 */
genomestart 11
trait 1 0.841828 0.720221 0 0 0.39287 1 0 1 
node 1 1 1 1
node 2 1 1 1
node 3 1 1 1
node 4 1 1 1
node 5 1 1 1
node 6 1 1 1
node 7 1 1 1
node 8 1 1 1
node 9 1 1 1
node 10 1 1 1
node 11 1 1 1
node 12 1 1 1
node 13 1 1 1
node 14 1 1 1
node 15 1 1 1
node 16 1 1 1
node 17 1 1 1
node 18 1 1 1
node 19 1 1 1
node 20 1 1 1
node 21 1 1 1
node 22 1 1 1
node 23 1 1 1
node 24 1 1 1
node 25 1 1 1
node 26 1 1 1
node 27 1 1 1
node 28 1 1 1
node 29 1 1 1
node 30 1 1 3
node 31 1 0 2
node 32 1 0 2
node 33 1 0 2
gene 1 1 31 -0.611821 0 1 -0.611821 1
gene 1 1 32 -3.09229 0 2 -3.09229 1
gene 1 1 33 0.675481 0 3 0.675481 1
gene 1 2 31 -2.88229 0 4 -2.88229 1
gene 1 2 32 0.0916671 0 5 0.0916671 1
gene 1 2 33 -1.07208 0 6 -1.07208 1
gene 1 3 31 4.86616 0 7 4.86616 1
gene 1 3 32 -5 0 8 -5 1
gene 1 3 33 4.34053 0 9 4.34053 1
gene 1 4 31 2.89767 0 10 2.89767 1
gene 1 4 32 0.91046 0 11 0.91046 1
gene 1 4 33 -1.40622 0 12 -1.40622 1
gene 1 5 31 1.23908 0 13 1.23908 1
gene 1 5 32 1.72556 0 14 1.72556 1
gene 1 5 33 1.57052 0 15 1.57052 1
gene 1 6 31 3.53984 0 16 3.53984 1
gene 1 6 32 -2.03102 0 17 -2.03102 1
gene 1 6 33 1.53649 0 18 1.53649 1
gene 1 7 31 0.254237 0 19 0.254237 1
gene 1 7 32 -0.514309 0 20 -0.514309 1
gene 1 7 33 -4.07352 0 21 -4.07352 1
gene 1 8 31 1.10559 0 22 1.10559 1
gene 1 8 32 1.84883 0 23 1.84883 1
gene 1 8 33 0.737331 0 24 0.737331 1
gene 1 9 31 2.9845 0 25 2.9845 1
gene 1 9 32 -0.313748 0 26 -0.313748 1
gene 1 9 33 -0.255981 0 27 -0.255981 1
gene 1 10 31 -1.73869 0 28 -1.73869 1
gene 1 10 32 0.841416 0 29 0.841416 1
gene 1 10 33 -1.62449 0 30 -1.62449 1
gene 1 11 31 -4.32287 0 31 -4.32287 1
gene 1 11 32 1.69998 0 32 1.69998 1
gene 1 11 33 -1.92699 0 33 -1.92699 1
gene 1 12 31 -2.09248 0 34 -2.09248 1
gene 1 12 32 -0.139719 0 35 -0.139719 1
gene 1 12 33 0.425313 0 36 0.425313 1
gene 1 13 31 0.561366 0 37 0.561366 1
gene 1 13 32 -2.31094 0 38 -2.31094 1
gene 1 13 33 -2.76143 0 39 -2.76143 1
gene 1 14 31 0.885995 0 40 0.885995 1
gene 1 14 32 3.54686 0 41 3.54686 1
gene 1 14 33 -2.0245 0 42 -2.0245 1
gene 1 15 31 0.561226 0 43 0.561226 1
gene 1 15 32 0.116783 0 44 0.116783 1
gene 1 15 33 0.703055 0 45 0.703055 1
gene 1 16 31 3.29839 0 46 3.29839 1
gene 1 16 32 3.92328 0 47 3.92328 1
gene 1 16 33 -4.20107 0 48 -4.20107 1
gene 1 17 31 2.56046 0 49 2.56046 1
gene 1 17 32 2.08724 0 50 2.08724 1
gene 1 17 33 0.790963 0 51 0.790963 1
gene 1 18 31 1.47237 0 52 1.47237 1
gene 1 18 32 2.51156 0 53 2.51156 1
gene 1 18 33 -4.0213 0 54 -4.0213 1
gene 1 19 31 0.0292922 0 55 0.0292922 1
gene 1 19 32 0.199732 0 56 0.199732 1
gene 1 19 33 -2.50596 0 57 -2.50596 1
gene 1 20 31 1.05635 0 58 1.05635 1
gene 1 20 32 2.48889 0 59 2.48889 1
gene 1 20 33 -0.567784 0 60 -0.567784 1
gene 1 21 31 1.53315 0 61 1.53315 1
gene 1 21 32 -1.7123 0 62 -1.7123 1
gene 1 21 33 0.319375 0 63 0.319375 1
gene 1 22 31 1.61624 0 64 1.61624 1
gene 1 22 32 -1.23762 0 65 -1.23762 1
gene 1 22 33 1.86085 0 66 1.86085 1
gene 1 23 31 -0.293418 0 67 -0.293418 1
gene 1 23 32 1.70273 0 68 1.70273 1
gene 1 23 33 -4.5172 0 69 -4.5172 1
gene 1 24 31 -3.56111 0 70 -3.56111 1
gene 1 24 32 -0.409785 0 71 -0.409785 1
gene 1 24 33 -2.19585 0 72 -2.19585 1
gene 1 25 31 0.024691 0 73 0.024691 1
gene 1 25 32 0.851446 0 74 0.851446 1
gene 1 25 33 -0.662963 0 75 -0.662963 1
gene 1 26 31 0.616943 0 76 0.616943 1
gene 1 26 32 -3.05816 0 77 -3.05816 1
gene 1 26 33 -1.12042 0 78 -1.12042 1
gene 1 27 31 -0.20819 0 79 -0.20819 1
gene 1 27 32 -0.739214 0 80 -0.739214 1
gene 1 27 33 0.163024 0 81 0.163024 1
gene 1 28 31 0.6815 0 82 0.6815 1
gene 1 28 32 0.230442 0 83 0.230442 1
gene 1 28 33 0.0584631 0 84 0.0584631 1
gene 1 29 31 0.475666 0 85 0.475666 1
gene 1 29 32 -1.15616 0 86 -1.15616 1
gene 1 29 33 -1.22278 0 87 -1.22278 1
gene 1 30 31 -0.0431459 0 88 -0.0431459 1
gene 1 30 32 1.25745 0 89 1.25745 1
gene 1 30 33 -0.597858 0 90 -0.597858 1
genomeend 11

/* Organism #12 Fitness: 35546.1 Error: 0 */
genomestart 12
trait 1 0.664132 1 0 0 0.436997 1 0.243397 0.962336 
node 1 1 1 1
node 2 1 1 1
node 3 1 1 1
node 4 1 1 1
node 5 1 1 1
node 6 1 1 1
node 7 1 1 1
node 8 1 1 1
node 9 1 1 1
node 10 1 1 1
node 11 1 1 1
node 12 1 1 1
node 13 1 1 1
node 14 1 1 1
node 15 1 1 1
node 16 1 1 1
node 17 1 1 1
node 18 1 1 1
node 19 1 1 1
node 20 1 1 1
node 21 1 1 1
node 22 1 1 1
node 23 1 1 1
node 24 1 1 1
node 25 1 1 1
node 26 1 1 1
node 27 1 1 1
node 28 1 1 1
node 29 1 1 1
node 30 1 1 3
node 31 1 0 2
node 32 1 0 2
node 33 1 0 2
gene 1 1 31 2.23816 0 1 2.23816 1
gene 1 1 32 -2.96931 0 2 -2.96931 1
gene 1 1 33 4.92577 0 3 4.92577 1
gene 1 2 31 -1.56073 0 4 -1.56073 1
gene 1 2 32 0.155134 0 5 0.155134 1
gene 1 2 33 -1.66741 0 6 -1.66741 1
gene 1 3 31 1.40615 0 7 1.40615 1
gene 1 3 32 -4.80435 0 8 -4.80435 1
gene 1 3 33 1.97474 0 9 1.97474 1
gene 1 4 31 3.26877 0 10 3.26877 1
gene 1 4 32 0.130395 0 11 0.130395 1
gene 1 4 33 0.161497 0 12 0.161497 1
gene 1 5 31 -1.29709 0 13 -1.29709 1
gene 1 5 32 -0.184076 0 14 -0.184076 1
gene 1 5 33 0.263295 0 15 0.263295 1
gene 1 6 31 4.51366 0 16 4.51366 1
gene 1 6 32 -1.29755 0 17 -1.29755 1
gene 1 6 33 -0.607637 0 18 -0.607637 1
gene 1 7 31 -0.288509 0 19 -0.288509 1
gene 1 7 32 -3.70721 0 20 -3.70721 1
gene 1 7 33 0.166581 0 21 0.166581 1
gene 1 8 31 1.04728 0 22 1.04728 1
gene 1 8 32 2.79204 0 23 2.79204 1
gene 1 8 33 1.27734 0 24 1.27734 1
gene 1 9 31 3.82575 0 25 3.82575 1
gene 1 9 32 -0.871111 0 26 -0.871111 1
gene 1 9 33 2.06116 0 27 2.06116 1
gene 1 10 31 4.02718 0 28 4.02718 1
gene 1 10 32 -4.58595 0 29 -4.58595 1
gene 1 10 33 -3.01997 0 30 -3.01997 1
gene 1 11 31 0.28309 0 31 0.28309 1
gene 1 11 32 2.67985 0 32 2.67985 1
gene 1 11 33 0.516896 0 33 0.516896 1
gene 1 12 31 -0.645115 0 34 -0.645115 1
gene 1 12 32 0.536862 0 35 0.536862 1
gene 1 12 33 0.0428842 0 36 0.0428842 1
gene 1 13 31 -0.701967 0 37 -0.701967 1
gene 1 13 32 -0.918261 0 38 -0.918261 1
gene 1 13 33 -0.87547 0 39 -0.87547 1
gene 1 14 31 2.66644 0 40 2.66644 1
gene 1 14 32 0.44899 0 41 0.44899 1
gene 1 14 33 -1.48156 0 42 -1.48156 1
gene 1 15 31 -0.188995 0 43 -0.188995 1
gene 1 15 32 3.28168 0 44 3.28168 1
gene 1 15 33 0.141746 0 45 0.141746 1
gene 1 16 31 -0.522119 0 46 -0.522119 1
gene 1 16 32 -1.34526 0 47 -1.34526 1
gene 1 16 33 -2.30643 0 48 -2.30643 1
gene 1 17 31 2.05167 0 49 2.05167 1
gene 1 17 32 0.798587 0 50 0.798587 1
gene 1 17 33 0.883198 0 51 0.883198 1
gene 1 18 31 3.37843 0 52 3.37843 1
gene 1 18 32 -0.471563 0 53 -0.471563 1
gene 1 18 33 0.773578 0 54 0.773578 1
gene 1 19 31 2.48787 0 55 2.48787 1
gene 1 19 32 0.196259 0 56 0.196259 1
gene 1 19 33 -2.23347 0 57 -2.23347 1
gene 1 20 31 -2.42094 0 58 -2.42094 1
gene 1 20 32 -1.41859 0 59 -1.41859 1
gene 1 20 33 3.33624 0 60 3.33624 1
gene 1 21 31 2.71116 0 61 2.71116 1
gene 1 21 32 -3.91941 0 62 -3.91941 1
gene 1 21 33 2.95386 0 63 2.95386 1
gene 1 22 31 -0.458516 0 64 -0.458516 1
gene 1 22 32 0.785694 0 65 0.785694 1
gene 1 22 33 0.949159 0 66 0.949159 1
gene 1 23 31 -2.07584 0 67 -2.07584 1
gene 1 23 32 0.0585023 0 68 0.0585023 1
gene 1 23 33 0.97204 0 69 0.97204 1
gene 1 24 31 -5 0 70 -5 1
gene 1 24 32 -0.664172 0 71 -0.664172 1
gene 1 24 33 -1.33657 0 72 -1.33657 1
gene 1 25 31 0.960152 0 73 0.960152 1
gene 1 25 32 0.895977 0 74 0.895977 1
gene 1 25 33 0.18261 0 75 0.18261 1
gene 1 26 31 0.31513 0 76 0.31513 1
gene 1 26 32 -1.46476 0 77 -1.46476 1
gene 1 26 33 -0.806669 0 78 -0.806669 1
gene 1 27 31 1.51645 0 79 1.51645 1
gene 1 27 32 -0.500499 0 80 -0.500499 1
gene 1 27 33 -1.04245 0 81 -1.04245 1
gene 1 28 31 -0.757181 0 82 -0.757181 1
gene 1 28 32 -0.825354 0 83 -0.825354 1
gene 1 28 33 1.07689 0 84 1.07689 1
gene 1 29 31 -1.06583 0 85 -1.06583 1
gene 1 29 32 -0.0907044 0 86 -0.0907044 1
gene 1 29 33 0.173935 0 87 0.173935 1
gene 1 30 31 0.659122 0 88 0.659122 1
gene 1 30 32 3.53836 0 89 3.53836 1
gene 1 30 33 -0.174856 0 90 -0.174856 1
genomeend 12

/* Organism #13 Fitness: 36427.5 Error: 0 */
genomestart 13
trait 1 0.841828 0.720221 0 0 0.39287 1 0 1 
node 1 1 1 1
node 2 1 1 1
node 3 1 1 1
node 4 1 1 1
node 5 1 1 1
node 6 1 1 1
node 7 1 1 1
node 8 1 1 1
node 9 1 1 1
node 10 1 1 1
node 11 1 1 1
node 12 1 1 1
node 13 1 1 1
node 14 1 1 1
node 15 1 1 1
node 16 1 1 1
node 17 1 1 1
node 18 1 1 1
node 19 1 1 1
node 20 1 1 1
node 21 1 1 1
node 22 1 1 1
node 23 1 1 1
node 24 1 1 1
node 25 1 1 1
node 26 1 1 1
node 27 1 1 1
node 28 1 1 1
node 29 1 1 1
node 30 1 1 3
node 31 1 0 2
node 32 1 0 2
node 33 1 0 2
gene 1 1 31 0.130604 0 1 0.130604 1
gene 1 1 32 -2.92392 0 2 -2.92392 1
gene 1 1 33 1.11455 0 3 1.11455 1
gene 1 2 31 -1.53193 0 4 -1.53193 1
gene 1 2 32 0.514448 0 5 0.514448 1
gene 1 2 33 -0.248469 0 6 -0.248469 1
gene 1 3 31 4.35475 0 7 4.35475 1
gene 1 3 32 -4.77484 0 8 -4.77484 1
gene 1 3 33 2.97911 0 9 2.97911 1
gene 1 4 31 1.83394 0 10 1.83394 1
gene 1 4 32 2.39004 0 11 2.39004 1
gene 1 4 33 1.24057 0 12 1.24057 1
gene 1 5 31 1.12079 0 13 1.12079 1
gene 1 5 32 4.83823 0 14 4.83823 1
gene 1 5 33 -0.0802841 0 15 -0.0802841 1
gene 1 6 31 2.86236 0 16 2.86236 1
gene 1 6 32 -3.2338 0 17 -3.2338 1
gene 1 6 33 0.795503 0 18 0.795503 1
gene 1 7 31 -0.83073 0 19 -0.83073 1
gene 1 7 32 -1.86064 0 20 -1.86064 1
gene 1 7 33 -3.69788 0 21 -3.69788 1
gene 1 8 31 0.225212 0 22 0.225212 1
gene 1 8 32 1.00262 0 23 1.00262 1
gene 1 8 33 0.625398 0 24 0.625398 1
gene 1 9 31 3.9591 0 25 3.9591 1
gene 1 9 32 -1.27508 0 26 -1.27508 1
gene 1 9 33 -0.189913 0 27 -0.189913 1
gene 1 10 31 -1.79129 0 28 -1.79129 1
gene 1 10 32 0.612859 0 29 0.612859 1
gene 1 10 33 -0.226155 0 30 -0.226155 1
gene 1 11 31 -4.42739 0 31 -4.42739 1
gene 1 11 32 1.27873 0 32 1.27873 1
gene 1 11 33 -1.12324 0 33 -1.12324 1
gene 1 12 31 -3.5752 0 34 -3.5752 1
gene 1 12 32 4.16646 0 35 4.16646 1
gene 1 12 33 -0.222374 0 36 -0.222374 1
gene 1 13 31 1.3373 0 37 1.3373 1
gene 1 13 32 -0.930999 0 38 -0.930999 1
gene 1 13 33 -0.803776 0 39 -0.803776 1
gene 1 14 31 0.728932 0 40 0.728932 1
gene 1 14 32 4.70762 0 41 4.70762 1
gene 1 14 33 -3.64267 0 42 -3.64267 1
gene 1 15 31 0.135419 0 43 0.135419 1
gene 1 15 32 0.515466 0 44 0.515466 1
gene 1 15 33 -1.65317 0 45 -1.65317 1
gene 1 16 31 3.18193 0 46 3.18193 1
gene 1 16 32 3.51279 0 47 3.51279 1
gene 1 16 33 -4.66743 0 48 -4.66743 1
gene 1 17 31 1.89709 0 49 1.89709 1
gene 1 17 32 2.65065 0 50 2.65065 1
gene 1 17 33 -0.109584 0 51 -0.109584 1
gene 1 18 31 3.05392 0 52 3.05392 1
gene 1 18 32 1.64724 0 53 1.64724 1
gene 1 18 33 -2.38767 0 54 -2.38767 1
gene 1 19 31 -0.405157 0 55 -0.405157 1
gene 1 19 32 -0.939321 0 56 -0.939321 1
gene 1 19 33 -0.794515 0 57 -0.794515 1
gene 1 20 31 0.214852 0 58 0.214852 1
gene 1 20 32 1.41847 0 59 1.41847 1
gene 1 20 33 2.23369 0 60 2.23369 1
gene 1 21 31 2.64121 0 61 2.64121 1
gene 1 21 32 -3.06321 0 62 -3.06321 1
gene 1 21 33 -0.289431 0 63 -0.289431 1
gene 1 22 31 1.1944 0 64 1.1944 1
gene 1 22 32 -1.52391 0 65 -1.52391 1
gene 1 22 33 1.09081 0 66 1.09081 1
gene 1 23 31 -4.09672 0 67 -4.09672 1
gene 1 23 32 4.26922 0 68 4.26922 1
gene 1 23 33 -4.59658 0 69 -4.59658 1
gene 1 24 31 -5 0 70 -5 1
gene 1 24 32 0.412094 0 71 0.412094 1
gene 1 24 33 -0.647429 0 72 -0.647429 1
gene 1 25 31 -0.292209 0 73 -0.292209 1
gene 1 25 32 -0.239155 0 74 -0.239155 1
gene 1 25 33 0.106286 0 75 0.106286 1
gene 1 26 31 -0.786103 0 76 -0.786103 1
gene 1 26 32 -0.144362 0 77 -0.144362 1
gene 1 26 33 -0.275741 0 78 -0.275741 1
gene 1 27 31 -0.661797 0 79 -0.661797 1
gene 1 27 32 0.899212 0 80 0.899212 1
gene 1 27 33 0.0317494 0 81 0.0317494 1
gene 1 28 31 -0.731133 0 82 -0.731133 1
gene 1 28 32 -0.465625 0 83 -0.465625 1
gene 1 28 33 -1.64246 0 84 -1.64246 1
gene 1 29 31 -0.142625 0 85 -0.142625 1
gene 1 29 32 -0.610643 0 86 -0.610643 1
gene 1 29 33 -1.07497 0 87 -1.07497 1
gene 1 30 31 0.741861 0 88 0.741861 1
gene 1 30 32 0.630878 0 89 0.630878 1
gene 1 30 33 0.642968 0 90 0.642968 1
genomeend 13

/* Organism #14 Fitness: 37766.8 Error: 0 */
genomestart 14
trait 1 0.841828 0.720221 0 0 0.39287 1 0 1 
node 1 1 1 1
node 2 1 1 1
node 3 1 1 1
node 4 1 1 1
node 5 1 1 1
node 6 1 1 1
node 7 1 1 1
node 8 1 1 1
node 9 1 1 1
node 10 1 1 1
node 11 1 1 1
node 12 1 1 1
node 13 1 1 1
node 14 1 1 1
node 15 1 1 1
node 16 1 1 1
node 17 1 1 1
node 18 1 1 1
node 19 1 1 1
node 20 1 1 1
node 21 1 1 1
node 22 1 1 1
node 23 1 1 1
node 24 1 1 1
node 25 1 1 1
node 26 1 1 1
node 27 1 1 1
node 28 1 1 1
node 29 1 1 1
node 30 1 1 3
node 31 1 0 2
node 32 1 0 2
node 33 1 0 2
gene 1 1 31 -0.458735 0 1 -0.458735 1
gene 1 1 32 -3.60646 0 2 -3.60646 1
gene 1 1 33 1.59241 0 3 1.59241 1
gene 1 2 31 -2.36974 0 4 -2.36974 1
gene 1 2 32 0.496706 0 5 0.496706 1
gene 1 2 33 -0.669081 0 6 -0.669081 1
gene 1 3 31 5 0 7 5 1
gene 1 3 32 -5 0 8 -5 1
gene 1 3 33 4.14256 0 9 4.14256 1
gene 1 4 31 2.34364 0 10 2.34364 1
gene 1 4 32 0.40392 0 11 0.40392 1
gene 1 4 33 -0.417334 0 12 -0.417334 1
gene 1 5 31 0.988982 0 13 0.988982 1
gene 1 5 32 0.762257 0 14 0.762257 1
gene 1 5 33 0.865186 0 15 0.865186 1
gene 1 6 31 3.43426 0 16 3.43426 1
gene 1 6 32 -2.66252 0 17 -2.66252 1
gene 1 6 33 1.24833 0 18 1.24833 1
gene 1 7 31 0.147151 0 19 0.147151 1
gene 1 7 32 -0.919788 0 20 -0.919788 1
gene 1 7 33 -4.47074 0 21 -4.47074 1
gene 1 8 31 1.41611 0 22 1.41611 1
gene 1 8 32 1.41869 0 23 1.41869 1
gene 1 8 33 0.481768 0 24 0.481768 1
gene 1 9 31 3.56321 0 25 3.56321 1
gene 1 9 32 -0.940817 0 26 -0.940817 1
gene 1 9 33 -0.676051 0 27 -0.676051 1
gene 1 10 31 -0.932109 0 28 -0.932109 1
gene 1 10 32 0.946932 0 29 0.946932 1
gene 1 10 33 -1.72021 0 30 -1.72021 1
gene 1 11 31 -4.53048 0 31 -4.53048 1
gene 1 11 32 1.54551 0 32 1.54551 1
gene 1 11 33 -1.1712 0 33 -1.1712 1
gene 1 12 31 -2.24438 0 34 -2.24438 1
gene 1 12 32 -0.876676 0 35 -0.876676 1
gene 1 12 33 0.158147 0 36 0.158147 1
gene 1 13 31 -0.107082 0 37 -0.107082 1
gene 1 13 32 -1.97732 0 38 -1.97732 1
gene 1 13 33 -1.78228 0 39 -1.78228 1
gene 1 14 31 1.13841 0 40 1.13841 1
gene 1 14 32 4.32431 0 41 4.32431 1
gene 1 14 33 -2.75295 0 42 -2.75295 1
gene 1 15 31 0.106025 0 43 0.106025 1
gene 1 15 32 -0.66071 0 44 -0.66071 1
gene 1 15 33 0.635133 0 45 0.635133 1
gene 1 16 31 3.194 0 46 3.194 1
gene 1 16 32 3.07157 0 47 3.07157 1
gene 1 16 33 -3.89927 0 48 -3.89927 1
gene 1 17 31 2.00967 0 49 2.00967 1
gene 1 17 32 2.0758 0 50 2.0758 1
gene 1 17 33 0.382182 0 51 0.382182 1
gene 1 18 31 1.98222 0 52 1.98222 1
gene 1 18 32 2.34374 0 53 2.34374 1
gene 1 18 33 -3.67885 0 54 -3.67885 1
gene 1 19 31 0.898557 0 55 0.898557 1
gene 1 19 32 -0.457132 0 56 -0.457132 1
gene 1 19 33 -1.59201 0 57 -1.59201 1
gene 1 20 31 0.287496 0 58 0.287496 1
gene 1 20 32 1.50378 0 59 1.50378 1
gene 1 20 33 0.29728 0 60 0.29728 1
gene 1 21 31 2.37159 0 61 2.37159 1
gene 1 21 32 -0.738133 0 62 -0.738133 1
gene 1 21 33 0.0856084 0 63 0.0856084 1
gene 1 22 31 1.53237 0 64 1.53237 1
gene 1 22 32 -1.76134 0 65 -1.76134 1
gene 1 22 33 1.04415 0 66 1.04415 1
gene 1 23 31 0.602809 0 67 0.602809 1
gene 1 23 32 2.53297 0 68 2.53297 1
gene 1 23 33 -4.0956 0 69 -4.0956 1
gene 1 24 31 -4.32124 0 70 -4.32124 1
gene 1 24 32 -1.30768 0 71 -1.30768 1
gene 1 24 33 -1.67737 0 72 -1.67737 1
gene 1 25 31 0.592678 0 73 0.592678 1
gene 1 25 32 0.851446 0 74 0.851446 1
gene 1 25 33 -0.662963 0 75 -0.662963 1
gene 1 26 31 0.133653 0 76 0.133653 1
gene 1 26 32 -2.20534 0 77 -2.20534 1
gene 1 26 33 -0.846009 0 78 -0.846009 1
gene 1 27 31 -0.878357 0 79 -0.878357 1
gene 1 27 32 0.170136 0 80 0.170136 1
gene 1 27 33 -0.894163 0 81 -0.894163 1
gene 1 28 31 0.308612 0 82 0.308612 1
gene 1 28 32 -0.493254 0 83 -0.493254 1
gene 1 28 33 -0.935397 0 84 -0.935397 1
gene 1 29 31 -0.387768 0 85 -0.387768 1
gene 1 29 32 -1.15616 0 86 -1.15616 1
gene 1 29 33 -0.25095 0 87 -0.25095 1
gene 1 30 31 -0.0431459 0 88 -0.0431459 1
gene 1 30 32 1.35483 0 89 1.35483 1
gene 1 30 33 -0.907385 0 90 -0.907385 1
genomeend 14

/* Organism #15 Fitness: 37244.6 Error: 0 */
genomestart 15
trait 1 0.664132 0.649244 0 0.928769 0.0593453 0.938559 0.368934 0.962336 
node 1 1 1 1
node 2 1 1 1
node 3 1 1 1
node 4 1 1 1
node 5 1 1 1
node 6 1 1 1
node 7 1 1 1
node 8 1 1 1
node 9 1 1 1
node 10 1 1 1
node 11 1 1 1
node 12 1 1 1
node 13 1 1 1
node 14 1 1 1
node 15 1 1 1
node 16 1 1 1
node 17 1 1 1
node 18 1 1 1
node 19 1 1 1
node 20 1 1 1
node 21 1 1 1
node 22 1 1 1
node 23 1 1 1
node 24 1 1 1
node 25 1 1 1
node 26 1 1 1
node 27 1 1 1
node 28 1 1 1
node 29 1 1 1
node 30 1 1 3
node 31 1 0 2
node 32 1 0 2
node 33 1 0 2
gene 1 1 31 2.75497 0 1 2.75497 1
gene 1 1 32 -5 0 2 -5 1
gene 1 1 33 -0.121008 0 3 -0.121008 1
gene 1 2 31 -0.879943 0 4 -0.879943 1
gene 1 2 32 -1.87509 0 5 -1.87509 1
gene 1 2 33 -1.21725 0 6 -1.21725 1
gene 1 3 31 3.12789 0 7 3.12789 1
gene 1 3 32 -0.851947 0 8 -0.851947 1
gene 1 3 33 1.41586 0 9 1.41586 1
gene 1 4 31 2.87572 0 10 2.87572 1
gene 1 4 32 -4.144 0 11 -4.144 1
gene 1 4 33 0.296393 0 12 0.296393 1
gene 1 5 31 5 0 13 5 1
gene 1 5 32 1.18838 0 14 1.18838 1
gene 1 5 33 -0.458856 0 15 -0.458856 1
gene 1 6 31 1.59613 0 16 1.59613 1
gene 1 6 32 3.23135 0 17 3.23135 1
gene 1 6 33 0.460056 0 18 0.460056 1
gene 1 7 31 -1.50179 0 19 -1.50179 1
gene 1 7 32 1.50345 0 20 1.50345 1
gene 1 7 33 0.947072 0 21 0.947072 1
gene 1 8 31 1.00891 0 22 1.00891 1
gene 1 8 32 4.26281 0 23 4.26281 1
gene 1 8 33 0.303869 0 24 0.303869 1
gene 1 9 31 1.28883 0 25 1.28883 1
gene 1 9 32 0.249455 0 26 0.249455 1
gene 1 9 33 2.76943 0 27 2.76943 1
gene 1 10 31 1.73907 0 28 1.73907 1
gene 1 10 32 1.00904 0 29 1.00904 1
gene 1 10 33 1.00816 0 30 1.00816 1
gene 1 11 31 3.75189 0 31 3.75189 1
gene 1 11 32 -0.416159 0 32 -0.416159 1
gene 1 11 33 0.231885 0 33 0.231885 1
gene 1 12 31 -0.639347 0 34 -0.639347 1
gene 1 12 32 -1.61854 0 35 -1.61854 1
gene 1 12 33 2.81829 0 36 2.81829 1
gene 1 13 31 -2.13304 0 37 -2.13304 1
gene 1 13 32 -5 0 38 -5 1
gene 1 13 33 -0.597437 0 39 -0.597437 1
gene 1 14 31 -4.59274 0 40 -4.59274 1
gene 1 14 32 -1.5452 0 41 -1.5452 1
gene 1 14 33 -0.774985 0 42 -0.774985 1
gene 1 15 31 0.961082 0 43 0.961082 1
gene 1 15 32 2.43763 0 44 2.43763 1
gene 1 15 33 0.681153 0 45 0.681153 1
gene 1 16 31 -2.06733 0 46 -2.06733 1
gene 1 16 32 -3.58092 0 47 -3.58092 1
gene 1 16 33 0.521183 0 48 0.521183 1
gene 1 17 31 4.58901 0 49 4.58901 1
gene 1 17 32 0.310649 0 50 0.310649 1
gene 1 17 33 1.13222 0 51 1.13222 1
gene 1 18 31 3.59151 0 52 3.59151 1
gene 1 18 32 -0.339245 0 53 -0.339245 1
gene 1 18 33 -1.77665 0 54 -1.77665 1
gene 1 19 31 -0.550011 0 55 -0.550011 1
gene 1 19 32 -0.601062 0 56 -0.601062 1
gene 1 19 33 0.399719 0 57 0.399719 1
gene 1 20 31 -0.540132 0 58 -0.540132 1
gene 1 20 32 -0.929368 0 59 -0.929368 1
gene 1 20 33 -2.07406 0 60 -2.07406 1
gene 1 21 31 0.875896 0 61 0.875896 1
gene 1 21 32 -4.30481 0 62 -4.30481 1
gene 1 21 33 0.534676 0 63 0.534676 1
gene 1 22 31 -0.190838 0 64 -0.190838 1
gene 1 22 32 -1.85017 0 65 -1.85017 1
gene 1 22 33 0.397601 0 66 0.397601 1
gene 1 23 31 -0.886488 0 67 -0.886488 1
gene 1 23 32 2.8027 0 68 2.8027 1
gene 1 23 33 1.7016 0 69 1.7016 1
gene 1 24 31 -2.34393 0 70 -2.34393 1
gene 1 24 32 0.266755 0 71 0.266755 1
gene 1 24 33 -0.135814 0 72 -0.135814 1
gene 1 25 31 0.391181 0 73 0.391181 1
gene 1 25 32 0.430957 0 74 0.430957 1
gene 1 25 33 0.930704 0 75 0.930704 1
gene 1 26 31 1.37834 0 76 1.37834 1
gene 1 26 32 0.259402 0 77 0.259402 1
gene 1 26 33 0.118224 0 78 0.118224 1
gene 1 27 31 -0.365348 0 79 -0.365348 1
gene 1 27 32 -0.250521 0 80 -0.250521 1
gene 1 27 33 1.87559 0 81 1.87559 1
gene 1 28 31 1.61342 0 82 1.61342 1
gene 1 28 32 -1.68652 0 83 -1.68652 1
gene 1 28 33 -0.293305 0 84 -0.293305 1
gene 1 29 31 0.979034 0 85 0.979034 1
gene 1 29 32 0.949868 0 86 0.949868 1
gene 1 29 33 1.23835 0 87 1.23835 1
gene 1 30 31 -0.678605 0 88 -0.678605 1
gene 1 30 32 3.88319 0 89 3.88319 1
gene 1 30 33 -0.666417 0 90 -0.666417 1
genomeend 15

/* Organism #16 Fitness: 28030.6 Error: 0 */
genomestart 16
trait 1 0.664132 1 0 0 0.436997 1 0.243397 0.962336 
node 1 1 1 1
node 2 1 1 1
node 3 1 1 1
node 4 1 1 1
node 5 1 1 1
node 6 1 1 1
node 7 1 1 1
node 8 1 1 1
node 9 1 1 1
node 10 1 1 1
node 11 1 1 1
node 12 1 1 1
node 13 1 1 1
node 14 1 1 1
node 15 1 1 1
node 16 1 1 1
node 17 1 1 1
node 18 1 1 1
node 19 1 1 1
node 20 1 1 1
node 21 1 1 1
node 22 1 1 1
node 23 1 1 1
node 24 1 1 1
node 25 1 1 1
node 26 1 1 1
node 27 1 1 1
node 28 1 1 1
node 29 1 1 1
node 30 1 1 3
node 31 1 0 2
node 32 1 0 2
node 33 1 0 2
gene 1 1 31 2.42198 0 1 2.42198 1
gene 1 1 32 -3.85019 0 2 -3.85019 1
gene 1 1 33 0.686472 0 3 0.686472 1
gene 1 2 31 -2.83252 0 4 -2.83252 1
gene 1 2 32 -2.4743 0 5 -2.4743 1
gene 1 2 33 0.738709 0 6 0.738709 1
gene 1 3 31 -0.88767 0 7 -0.88767 1
gene 1 3 32 -0.128546 0 8 -0.128546 1
gene 1 3 33 0.96848 0 9 0.96848 1
gene 1 4 31 -0.741841 0 10 -0.741841 1
gene 1 4 32 -4.62026 0 11 -4.62026 1
gene 1 4 33 -0.210753 0 12 -0.210753 1
gene 1 5 31 4.55371 0 13 4.55371 1
gene 1 5 32 -0.765865 0 14 -0.765865 1
gene 1 5 33 -0.875196 0 15 -0.875196 1
gene 1 6 31 0.385054 0 16 0.385054 1
gene 1 6 32 4.40727 0 17 4.40727 1
gene 1 6 33 0.0259475 0 18 0.0259475 1
gene 1 7 31 -0.956262 0 19 -0.956262 1
gene 1 7 32 2.13418 0 20 2.13418 1
gene 1 7 33 1.6962 0 21 1.6962 1
gene 1 8 31 2.71965 0 22 2.71965 1
gene 1 8 32 0.806339 0 23 0.806339 1
gene 1 8 33 0.721877 0 24 0.721877 1
gene 1 9 31 2.42183 0 25 2.42183 1
gene 1 9 32 1.98885 0 26 1.98885 1
gene 1 9 33 -0.298566 0 27 -0.298566 1
gene 1 10 31 0.479315 0 28 0.479315 1
gene 1 10 32 0.844509 0 29 0.844509 1
gene 1 10 33 1.12787 0 30 1.12787 1
gene 1 11 31 3.82921 0 31 3.82921 1
gene 1 11 32 -0.204806 0 32 -0.204806 1
gene 1 11 33 -0.955877 0 33 -0.955877 1
gene 1 12 31 -1.24707 0 34 -1.24707 1
gene 1 12 32 -1.10485 0 35 -1.10485 1
gene 1 12 33 2.33324 0 36 2.33324 1
gene 1 13 31 -0.593174 0 37 -0.593174 1
gene 1 13 32 -4.72406 0 38 -4.72406 1
gene 1 13 33 -1.62224 0 39 -1.62224 1
gene 1 14 31 -3.28337 0 40 -3.28337 1
gene 1 14 32 0.478927 0 41 0.478927 1
gene 1 14 33 -0.00417152 0 42 -0.00417152 1
gene 1 15 31 1.83209 0 43 1.83209 1
gene 1 15 32 2.29459 0 44 2.29459 1
gene 1 15 33 -0.584032 0 45 -0.584032 1
gene 1 16 31 -3.75917 0 46 -3.75917 1
gene 1 16 32 -1.95356 0 47 -1.95356 1
gene 1 16 33 4.36111 0 48 4.36111 1
gene 1 17 31 5 0 49 5 1
gene 1 17 32 3.09184 0 50 3.09184 1
gene 1 17 33 0.12253 0 51 0.12253 1
gene 1 18 31 1.70728 0 52 1.70728 1
gene 1 18 32 -0.796121 0 53 -0.796121 1
gene 1 18 33 0.568616 0 54 0.568616 1
gene 1 19 31 -0.949441 0 55 -0.949441 1
gene 1 19 32 -0.230941 0 56 -0.230941 1
gene 1 19 33 3.54145 0 57 3.54145 1
gene 1 20 31 -0.649335 0 58 -0.649335 1
gene 1 20 32 -1.34362 0 59 -1.34362 1
gene 1 20 33 -2.16695 0 60 -2.16695 1
gene 1 21 31 0.499317 0 61 0.499317 1
gene 1 21 32 -0.834233 0 62 -0.834233 1
gene 1 21 33 -0.197693 0 63 -0.197693 1
gene 1 22 31 -2.11808 0 64 -2.11808 1
gene 1 22 32 -0.5487 0 65 -0.5487 1
gene 1 22 33 0.972664 0 66 0.972664 1
gene 1 23 31 0.501538 0 67 0.501538 1
gene 1 23 32 0.35147 0 68 0.35147 1
gene 1 23 33 0.625968 0 69 0.625968 1
gene 1 24 31 0.106477 0 70 0.106477 1
gene 1 24 32 0.410324 0 71 0.410324 1
gene 1 24 33 1.21366 0 72 1.21366 1
gene 1 25 31 1.22478 0 73 1.22478 1
gene 1 25 32 1.08302 0 74 1.08302 1
gene 1 25 33 0.562145 0 75 0.562145 1
gene 1 26 31 -0.168784 0 76 -0.168784 1
gene 1 26 32 -1.05708 0 77 -1.05708 1
gene 1 26 33 -1.20613 0 78 -1.20613 1
gene 1 27 31 0.0740829 0 79 0.0740829 1
gene 1 27 32 -0.793707 0 80 -0.793707 1
gene 1 27 33 1.73876 0 81 1.73876 1
gene 1 28 31 0.185697 0 82 0.185697 1
gene 1 28 32 0.922586 0 83 0.922586 1
gene 1 28 33 1.01771 0 84 1.01771 1
gene 1 29 31 0.0568515 0 85 0.0568515 1
gene 1 29 32 -0.428873 0 86 -0.428873 1
gene 1 29 33 0.212299 0 87 0.212299 1
gene 1 30 31 -0.538133 0 88 -0.538133 1
gene 1 30 32 3.97655 0 89 3.97655 1
gene 1 30 33 0.204677 0 90 0.204677 1
genomeend 16

/* Organism #17 Fitness: 33633.8 Error: 0 */
genomestart 17
trait 1 0 1 0 0 0.0571666 0.579833 0 1 
node 1 1 1 1
node 2 1 1 1
node 3 1 1 1
node 4 1 1 1
node 5 1 1 1
node 6 1 1 1
node 7 1 1 1
node 8 1 1 1
node 9 1 1 1
node 10 1 1 1
node 11 1 1 1
node 12 1 1 1
node 13 1 1 1
node 14 1 1 1
node 15 1 1 1
node 16 1 1 1
node 17 1 1 1
node 18 1 1 1
node 19 1 1 1
node 20 1 1 1
node 21 1 1 1
node 22 1 1 1
node 23 1 1 1
node 24 1 1 1
node 25 1 1 1
node 26 1 1 1
node 27 1 1 1
node 28 1 1 1
node 29 1 1 1
node 30 1 1 3
node 31 1 0 2
node 32 1 0 2
node 33 1 0 2
gene 1 1 31 -0.317584 0 1 -0.317584 1
gene 1 1 32 -1.98998 0 2 -1.98998 1
gene 1 1 33 1.00788 0 3 1.00788 1
gene 1 2 31 -0.494173 0 4 -0.494173 1
gene 1 2 32 1.68566 0 5 1.68566 1
gene 1 2 33 -1.3009 0 6 -1.3009 1
gene 1 3 31 0.413994 0 7 0.413994 1
gene 1 3 32 -2.97393 0 8 -2.97393 1
gene 1 3 33 -3.54246 0 9 -3.54246 1
gene 1 4 31 3.32372 0 10 3.32372 1
gene 1 4 32 2.67567 0 11 2.67567 1
gene 1 4 33 2.30581 0 12 2.30581 1
gene 1 5 31 -2.1449 0 13 -2.1449 1
gene 1 5 32 0.609137 0 14 0.609137 1
gene 1 5 33 -2.94973 0 15 -2.94973 1
gene 1 6 31 0.575421 0 16 0.575421 1
gene 1 6 32 -3.84728 0 17 -3.84728 1
gene 1 6 33 0.108629 0 18 0.108629 1
gene 1 7 31 -0.896417 0 19 -0.896417 1
gene 1 7 32 -0.422803 0 20 -0.422803 1
gene 1 7 33 0.51187 0 21 0.51187 1
gene 1 8 31 -2.45472 0 22 -2.45472 1
gene 1 8 32 3.13777 0 23 3.13777 1
gene 1 8 33 -2.97395 0 24 -2.97395 1
gene 1 9 31 4.8581 0 25 4.8581 1
gene 1 9 32 -3.87901 0 26 -3.87901 1
gene 1 9 33 2.00962 0 27 2.00962 1
gene 1 10 31 1.51172 0 28 1.51172 1
gene 1 10 32 0.961804 0 29 0.961804 1
gene 1 10 33 -0.373023 0 30 -0.373023 1
gene 1 11 31 -0.900944 0 31 -0.900944 1
gene 1 11 32 -0.841155 0 32 -0.841155 1
gene 1 11 33 1.30793 0 33 1.30793 1
gene 1 12 31 -4.49118 0 34 -4.49118 1
gene 1 12 32 3.15995 0 35 3.15995 1
gene 1 12 33 2.22782 0 36 2.22782 1
gene 1 13 31 -0.147171 0 37 -0.147171 1
gene 1 13 32 -0.284524 0 38 -0.284524 1
gene 1 13 33 3.19597 0 39 3.19597 1
gene 1 14 31 1.53701 0 40 1.53701 1
gene 1 14 32 -1.63351 0 41 -1.63351 1
gene 1 14 33 0.400936 0 42 0.400936 1
gene 1 15 31 -0.131687 0 43 -0.131687 1
gene 1 15 32 0.718088 0 44 0.718088 1
gene 1 15 33 0.741119 0 45 0.741119 1
gene 1 16 31 -0.976055 0 46 -0.976055 1
gene 1 16 32 0.281874 0 47 0.281874 1
gene 1 16 33 2.28165 0 48 2.28165 1
gene 1 17 31 0.189484 0 49 0.189484 1
gene 1 17 32 -1.99171 0 50 -1.99171 1
gene 1 17 33 -0.0765023 0 51 -0.0765023 1
gene 1 18 31 -1.217 0 52 -1.217 1
gene 1 18 32 1.2606 0 53 1.2606 1
gene 1 18 33 2.76893 0 54 2.76893 1
gene 1 19 31 3.51602 0 55 3.51602 1
gene 1 19 32 -4.73502 0 56 -4.73502 1
gene 1 19 33 -3.30948 0 57 -3.30948 1
gene 1 20 31 -1.29475 0 58 -1.29475 1
gene 1 20 32 -0.329246 0 59 -0.329246 1
gene 1 20 33 3.60096 0 60 3.60096 1
gene 1 21 31 0.769754 0 61 0.769754 1
gene 1 21 32 -0.885069 0 62 -0.885069 1
gene 1 21 33 1.29229 0 63 1.29229 1
gene 1 22 31 -0.0602463 0 64 -0.0602463 1
gene 1 22 32 2.42698 0 65 2.42698 1
gene 1 22 33 -1.732 0 66 -1.732 1
gene 1 23 31 -2.3316 0 67 -2.3316 1
gene 1 23 32 2.93224 0 68 2.93224 1
gene 1 23 33 0.586461 0 69 0.586461 1
gene 1 24 31 -3.3481 0 70 -3.3481 1
gene 1 24 32 0.294894 0 71 0.294894 1
gene 1 24 33 0.370242 0 72 0.370242 1
gene 1 25 31 2.5591 0 73 2.5591 1
gene 1 25 32 0.70555 0 74 0.70555 1
gene 1 25 33 0.235754 0 75 0.235754 1
gene 1 26 31 1.01985 0 76 1.01985 1
gene 1 26 32 -1.60595 0 77 -1.60595 1
gene 1 26 33 -0.447836 0 78 -0.447836 1
gene 1 27 31 0.936547 0 79 0.936547 1
gene 1 27 32 -1.05083 0 80 -1.05083 1
gene 1 27 33 -0.388719 0 81 -0.388719 1
gene 1 28 31 -0.483021 0 82 -0.483021 1
gene 1 28 32 0.909085 0 83 0.909085 1
gene 1 28 33 -1.21171 0 84 -1.21171 1
gene 1 29 31 -0.817872 0 85 -0.817872 1
gene 1 29 32 0.619338 0 86 0.619338 1
gene 1 29 33 -1.24724 0 87 -1.24724 1
gene 1 30 31 2.20023 0 88 2.20023 1
gene 1 30 32 4.40919 0 89 4.40919 1
gene 1 30 33 1.31504 0 90 1.31504 1
genomeend 17

/* Organism #18 Fitness: 31952.5 Error: 0 */
genomestart 18
trait 1 0 1 0 0 0.0571666 0.579833 0 1 
node 1 1 1 1
node 2 1 1 1
node 3 1 1 1
node 4 1 1 1
node 5 1 1 1
node 6 1 1 1
node 7 1 1 1
node 8 1 1 1
node 9 1 1 1
node 10 1 1 1
node 11 1 1 1
node 12 1 1 1
node 13 1 1 1
node 14 1 1 1
node 15 1 1 1
node 16 1 1 1
node 17 1 1 1
node 18 1 1 1
node 19 1 1 1
node 20 1 1 1
node 21 1 1 1
node 22 1 1 1
node 23 1 1 1
node 24 1 1 1
node 25 1 1 1
node 26 1 1 1
node 27 1 1 1
node 28 1 1 1
node 29 1 1 1
node 30 1 1 3
node 31 1 0 2
node 32 1 0 2
node 33 1 0 2
gene 1 1 31 1.05327 0 1 1.05327 1
gene 1 1 32 -3.45043 0 2 -3.45043 1
gene 1 1 33 1.45395 0 3 1.45395 1
gene 1 2 31 -1.48326 0 4 -1.48326 1
gene 1 2 32 -0.156082 0 5 -0.156082 1
gene 1 2 33 -2.61759 0 6 -2.61759 1
gene 1 3 31 1.97232 0 7 1.97232 1
gene 1 3 32 -2.62159 0 8 -2.62159 1
gene 1 3 33 -0.98778 0 9 -0.98778 1
gene 1 4 31 1.12385 0 10 1.12385 1
gene 1 4 32 2.08628 0 11 2.08628 1
gene 1 4 33 -0.152252 0 12 -0.152252 1
gene 1 5 31 -0.324563 0 13 -0.324563 1
gene 1 5 32 -0.748957 0 14 -0.748957 1
gene 1 5 33 -3.22745 0 15 -3.22745 1
gene 1 6 31 -2.00255 0 16 -2.00255 1
gene 1 6 32 -3.93159 0 17 -3.93159 1
gene 1 6 33 0.133805 0 18 0.133805 1
gene 1 7 31 0.810807 0 19 0.810807 1
gene 1 7 32 -0.556412 0 20 -0.556412 1
gene 1 7 33 -0.0174326 0 21 -0.0174326 1
gene 1 8 31 -2.09708 0 22 -2.09708 1
gene 1 8 32 2.11184 0 23 2.11184 1
gene 1 8 33 0.517677 0 24 0.517677 1
gene 1 9 31 4.17558 0 25 4.17558 1
gene 1 9 32 -4.73008 0 26 -4.73008 1
gene 1 9 33 2.70568 0 27 2.70568 1
gene 1 10 31 0.219014 0 28 0.219014 1
gene 1 10 32 -3.98768 0 29 -3.98768 1
gene 1 10 33 -0.144925 0 30 -0.144925 1
gene 1 11 31 -1.73563 0 31 -1.73563 1
gene 1 11 32 0.730955 0 32 0.730955 1
gene 1 11 33 0.732462 0 33 0.732462 1
gene 1 12 31 -4.45739 0 34 -4.45739 1
gene 1 12 32 3.44183 0 35 3.44183 1
gene 1 12 33 1.35489 0 36 1.35489 1
gene 1 13 31 -1.13157 0 37 -1.13157 1
gene 1 13 32 -0.734539 0 38 -0.734539 1
gene 1 13 33 0.25343 0 39 0.25343 1
gene 1 14 31 1.09038 0 40 1.09038 1
gene 1 14 32 -0.548735 0 41 -0.548735 1
gene 1 14 33 -1.01869 0 42 -1.01869 1
gene 1 15 31 1.33424 0 43 1.33424 1
gene 1 15 32 0.54345 0 44 0.54345 1
gene 1 15 33 2.19676 0 45 2.19676 1
gene 1 16 31 -3.29261 0 46 -3.29261 1
gene 1 16 32 0.724491 0 47 0.724491 1
gene 1 16 33 -0.22215 0 48 -0.22215 1
gene 1 17 31 0.615806 0 49 0.615806 1
gene 1 17 32 -0.0717493 0 50 -0.0717493 1
gene 1 17 33 -1.75259 0 51 -1.75259 1
gene 1 18 31 2.0722 0 52 2.0722 1
gene 1 18 32 3.23821 0 53 3.23821 1
gene 1 18 33 2.28205 0 54 2.28205 1
gene 1 19 31 4.61164 0 55 4.61164 1
gene 1 19 32 -1.48939 0 56 -1.48939 1
gene 1 19 33 -2.52509 0 57 -2.52509 1
gene 1 20 31 0.661812 0 58 0.661812 1
gene 1 20 32 -1.19526 0 59 -1.19526 1
gene 1 20 33 0.441116 0 60 0.441116 1
gene 1 21 31 0.654354 0 61 0.654354 1
gene 1 21 32 -1.14974 0 62 -1.14974 1
gene 1 21 33 2.60111 0 63 2.60111 1
gene 1 22 31 3.64953 0 64 3.64953 1
gene 1 22 32 2.38046 0 65 2.38046 1
gene 1 22 33 1.17967 0 66 1.17967 1
gene 1 23 31 -0.499605 0 67 -0.499605 1
gene 1 23 32 5 0 68 5 1
gene 1 23 33 -0.962581 0 69 -0.962581 1
gene 1 24 31 -2.95771 0 70 -2.95771 1
gene 1 24 32 -0.910778 0 71 -0.910778 1
gene 1 24 33 -0.212516 0 72 -0.212516 1
gene 1 25 31 -0.0822772 0 73 -0.0822772 1
gene 1 25 32 0.249134 0 74 0.249134 1
gene 1 25 33 -0.585114 0 75 -0.585114 1
gene 1 26 31 0.46162 0 76 0.46162 1
gene 1 26 32 -0.93021 0 77 -0.93021 1
gene 1 26 33 -0.489004 0 78 -0.489004 1
gene 1 27 31 0.572757 0 79 0.572757 1
gene 1 27 32 -0.156619 0 80 -0.156619 1
gene 1 27 33 1.24849 0 81 1.24849 1
gene 1 28 31 -0.529075 0 82 -0.529075 1
gene 1 28 32 -1.21848 0 83 -1.21848 1
gene 1 28 33 1.15593 0 84 1.15593 1
gene 1 29 31 -0.958334 0 85 -0.958334 1
gene 1 29 32 0.692791 0 86 0.692791 1
gene 1 29 33 -0.07372 0 87 -0.07372 1
gene 1 30 31 1.49189 0 88 1.49189 1
gene 1 30 32 3.74679 0 89 3.74679 1
gene 1 30 33 1.35338 0 90 1.35338 1
genomeend 18

/* Organism #19 Fitness: 34687.6 Error: 0 */
genomestart 19
trait 1 0.664132 1 0 0 0.436997 1 0.243397 0.962336 
node 1 1 1 1
node 2 1 1 1
node 3 1 1 1
node 4 1 1 1
node 5 1 1 1
node 6 1 1 1
node 7 1 1 1
node 8 1 1 1
node 9 1 1 1
node 10 1 1 1
node 11 1 1 1
node 12 1 1 1
node 13 1 1 1
node 14 1 1 1
node 15 1 1 1
node 16 1 1 1
node 17 1 1 1
node 18 1 1 1
node 19 1 1 1
node 20 1 1 1
node 21 1 1 1
node 22 1 1 1
node 23 1 1 1
node 24 1 1 1
node 25 1 1 1
node 26 1 1 1
node 27 1 1 1
node 28 1 1 1
node 29 1 1 1
node 30 1 1 3
node 31 1 0 2
node 32 1 0 2
node 33 1 0 2
gene 1 1 31 3.61207 0 1 3.61207 1
gene 1 1 32 -5 0 2 -5 1
gene 1 1 33 -0.577126 0 3 -0.577126 1
gene 1 2 31 -1.62458 0 4 -1.62458 1
gene 1 2 32 -1.48919 0 5 -1.48919 1
gene 1 2 33 -0.25543 0 6 -0.25543 1
gene 1 3 31 2.75431 0 7 2.75431 1
gene 1 3 32 -0.945997 0 8 -0.945997 1
gene 1 3 33 1.41211 0 9 1.41211 1
gene 1 4 31 2.5159 0 10 2.5159 1
gene 1 4 32 -5 0 11 -5 1
gene 1 4 33 0.377691 0 12 0.377691 1
gene 1 5 31 4.85637 0 13 4.85637 1
gene 1 5 32 0.972472 0 14 0.972472 1
gene 1 5 33 0.131148 0 15 0.131148 1
gene 1 6 31 0.866767 0 16 0.866767 1
gene 1 6 32 3.62703 0 17 3.62703 1
gene 1 6 33 -0.0355448 0 18 -0.0355448 1
gene 1 7 31 -2.27755 0 19 -2.27755 1
gene 1 7 32 0.794105 0 20 0.794105 1
gene 1 7 33 0.365261 0 21 0.365261 1
gene 1 8 31 1.78276 0 22 1.78276 1
gene 1 8 32 5 0 23 5 1
gene 1 8 33 -0.375914 0 24 -0.375914 1
gene 1 9 31 1.15027 0 25 1.15027 1
gene 1 9 32 0.45571 0 26 0.45571 1
gene 1 9 33 2.27292 0 27 2.27292 1
gene 1 10 31 2.35225 0 28 2.35225 1
gene 1 10 32 0.0306405 0 29 0.0306405 1
gene 1 10 33 1.23461 0 30 1.23461 1
gene 1 11 31 3.03371 0 31 3.03371 1
gene 1 11 32 0.430962 0 32 0.430962 1
gene 1 11 33 0.500833 0 33 0.500833 1
gene 1 12 31 -1.34616 0 34 -1.34616 1
gene 1 12 32 -2.16219 0 35 -2.16219 1
gene 1 12 33 2.35866 0 36 2.35866 1
gene 1 13 31 -1.87837 0 37 -1.87837 1
gene 1 13 32 -4.692 0 38 -4.692 1
gene 1 13 33 -1.06783 0 39 -1.06783 1
gene 1 14 31 -4.08793 0 40 -4.08793 1
gene 1 14 32 -0.926754 0 41 -0.926754 1
gene 1 14 33 -0.24628 0 42 -0.24628 1
gene 1 15 31 0.963565 0 43 0.963565 1
gene 1 15 32 1.58954 0 44 1.58954 1
gene 1 15 33 -0.244387 0 45 -0.244387 1
gene 1 16 31 -2.46413 0 46 -2.46413 1
gene 1 16 32 -2.67732 0 47 -2.67732 1
gene 1 16 33 0.768511 0 48 0.768511 1
gene 1 17 31 5 0 49 5 1
gene 1 17 32 0.447968 0 50 0.447968 1
gene 1 17 33 0.474848 0 51 0.474848 1
gene 1 18 31 2.76927 0 52 2.76927 1
gene 1 18 32 -0.931717 0 53 -0.931717 1
gene 1 18 33 -1.55589 0 54 -1.55589 1
gene 1 19 31 -0.973744 0 55 -0.973744 1
gene 1 19 32 -0.0719614 0 56 -0.0719614 1
gene 1 19 33 0.545812 0 57 0.545812 1
gene 1 20 31 -0.0926256 0 58 -0.0926256 1
gene 1 20 32 -1.06243 0 59 -1.06243 1
gene 1 20 33 -1.54688 0 60 -1.54688 1
gene 1 21 31 0.465232 0 61 0.465232 1
gene 1 21 32 -4.89615 0 62 -4.89615 1
gene 1 21 33 0.541253 0 63 0.541253 1
gene 1 22 31 -0.187307 0 64 -0.187307 1
gene 1 22 32 -0.899321 0 65 -0.899321 1
gene 1 22 33 0.150225 0 66 0.150225 1
gene 1 23 31 -0.00511126 0 67 -0.00511126 1
gene 1 23 32 2.47058 0 68 2.47058 1
gene 1 23 33 1.56189 0 69 1.56189 1
gene 1 24 31 -2.94647 0 70 -2.94647 1
gene 1 24 32 0.685328 0 71 0.685328 1
gene 1 24 33 -0.791021 0 72 -0.791021 1
gene 1 25 31 1.36728 0 73 1.36728 1
gene 1 25 32 0.207481 0 74 0.207481 1
gene 1 25 33 0.326785 0 75 0.326785 1
gene 1 26 31 1.37834 0 76 1.37834 1
gene 1 26 32 -0.719104 0 77 -0.719104 1
gene 1 26 33 0.120025 0 78 0.120025 1
gene 1 27 31 -1.21462 0 79 -1.21462 1
gene 1 27 32 0.344866 0 80 0.344866 1
gene 1 27 33 1.84796 0 81 1.84796 1
gene 1 28 31 1.61342 0 82 1.61342 1
gene 1 28 32 -1.68652 0 83 -1.68652 1
gene 1 28 33 1.26691 0 84 1.26691 1
gene 1 29 31 0.979034 0 85 0.979034 1
gene 1 29 32 0.949868 0 86 0.949868 1
gene 1 29 33 1.23835 0 87 1.23835 1
gene 1 30 31 -0.678605 0 88 -0.678605 1
gene 1 30 32 4.02511 0 89 4.02511 1
gene 1 30 33 -0.324177 0 90 -0.324177 1
genomeend 19

/* Organism #20 Fitness: 30892.4 Error: 0 */
genomestart 20
trait 1 0 1 0 0 0.0571666 0.579833 0 1 
node 1 1 1 1
node 2 1 1 1
node 3 1 1 1
node 4 1 1 1
node 5 1 1 1
node 6 1 1 1
node 7 1 1 1
node 8 1 1 1
node 9 1 1 1
node 10 1 1 1
node 11 1 1 1
node 12 1 1 1
node 13 1 1 1
node 14 1 1 1
node 15 1 1 1
node 16 1 1 1
node 17 1 1 1
node 18 1 1 1
node 19 1 1 1
node 20 1 1 1
node 21 1 1 1
node 22 1 1 1
node 23 1 1 1
node 24 1 1 1
node 25 1 1 1
node 26 1 1 1
node 27 1 1 1
node 28 1 1 1
node 29 1 1 1
node 30 1 1 3
node 31 1 0 2
node 32 1 0 2
node 33 1 0 2
gene 1 1 31 0.802842 0 1 0.802842 1
gene 1 1 32 -2.1452 0 2 -2.1452 1
gene 1 1 33 -0.086107 0 3 -0.086107 1
gene 1 2 31 -2.10903 0 4 -2.10903 1
gene 1 2 32 0.6067 0 5 0.6067 1
gene 1 2 33 -2.91478 0 6 -2.91478 1
gene 1 3 31 0.114757 0 7 0.114757 1
gene 1 3 32 -2.70774 0 8 -2.70774 1
gene 1 3 33 -0.31626 0 9 -0.31626 1
gene 1 4 31 -0.236404 0 10 -0.236404 1
gene 1 4 32 0.78035 0 11 0.78035 1
gene 1 4 33 0.757471 0 12 0.757471 1
gene 1 5 31 1.00168 0 13 1.00168 1
gene 1 5 32 -0.127416 0 14 -0.127416 1
gene 1 5 33 -4.21143 0 15 -4.21143 1
gene 1 6 31 0.584201 0 16 0.584201 1
gene 1 6 32 -3.28233 0 17 -3.28233 1
gene 1 6 33 1.07204 0 18 1.07204 1
gene 1 7 31 1.05625 0 19 1.05625 1
gene 1 7 32 -2.57489 0 20 -2.57489 1
gene 1 7 33 2.20009 0 21 2.20009 1
gene 1 8 31 -0.224188 0 22 -0.224188 1
gene 1 8 32 2.9821 0 23 2.9821 1
gene 1 8 33 -0.849484 0 24 -0.849484 1
gene 1 9 31 2.9412 0 25 2.9412 1
gene 1 9 32 -0.448205 0 26 -0.448205 1
gene 1 9 33 -0.970799 0 27 -0.970799 1
gene 1 10 31 -2.03603 0 28 -2.03603 1
gene 1 10 32 -5 0 29 -5 1
gene 1 10 33 0.723934 0 30 0.723934 1
gene 1 11 31 -2.61285 0 31 -2.61285 1
gene 1 11 32 -0.652225 0 32 -0.652225 1
gene 1 11 33 1.13773 0 33 1.13773 1
gene 1 12 31 -3.41377 0 34 -3.41377 1
gene 1 12 32 3.02009 0 35 3.02009 1
gene 1 12 33 -0.492798 0 36 -0.492798 1
gene 1 13 31 -1.27114 0 37 -1.27114 1
gene 1 13 32 0.797974 0 38 0.797974 1
gene 1 13 33 -0.934972 0 39 -0.934972 1
gene 1 14 31 0.401139 0 40 0.401139 1
gene 1 14 32 -0.876194 0 41 -0.876194 1
gene 1 14 33 0.791681 0 42 0.791681 1
gene 1 15 31 0.90598 0 43 0.90598 1
gene 1 15 32 0.333636 0 44 0.333636 1
gene 1 15 33 1.41696 0 45 1.41696 1
gene 1 16 31 -2.86117 0 46 -2.86117 1
gene 1 16 32 0.516547 0 47 0.516547 1
gene 1 16 33 1.48405 0 48 1.48405 1
gene 1 17 31 -1.36243 0 49 -1.36243 1
gene 1 17 32 -1.52829 0 50 -1.52829 1
gene 1 17 33 -0.0712579 0 51 -0.0712579 1
gene 1 18 31 2.62002 0 52 2.62002 1
gene 1 18 32 1.1695 0 53 1.1695 1
gene 1 18 33 -1.3085 0 54 -1.3085 1
gene 1 19 31 5 0 55 5 1
gene 1 19 32 -2.20129 0 56 -2.20129 1
gene 1 19 33 -2.07988 0 57 -2.07988 1
gene 1 20 31 0.495714 0 58 0.495714 1
gene 1 20 32 0.362858 0 59 0.362858 1
gene 1 20 33 1.01983 0 60 1.01983 1
gene 1 21 31 -0.213194 0 61 -0.213194 1
gene 1 21 32 0.397169 0 62 0.397169 1
gene 1 21 33 2.16346 0 63 2.16346 1
gene 1 22 31 2.94819 0 64 2.94819 1
gene 1 22 32 2.01581 0 65 2.01581 1
gene 1 22 33 0.507923 0 66 0.507923 1
gene 1 23 31 -0.817527 0 67 -0.817527 1
gene 1 23 32 4.32514 0 68 4.32514 1
gene 1 23 33 0.176549 0 69 0.176549 1
gene 1 24 31 -4.49184 0 70 -4.49184 1
gene 1 24 32 1.27223 0 71 1.27223 1
gene 1 24 33 -2.15832 0 72 -2.15832 1
gene 1 25 31 -0.643094 0 73 -0.643094 1
gene 1 25 32 0.423805 0 74 0.423805 1
gene 1 25 33 -0.516003 0 75 -0.516003 1
gene 1 26 31 0.22987 0 76 0.22987 1
gene 1 26 32 -1.7469 0 77 -1.7469 1
gene 1 26 33 -0.929322 0 78 -0.929322 1
gene 1 27 31 -0.0995413 0 79 -0.0995413 1
gene 1 27 32 -1.82193 0 80 -1.82193 1
gene 1 27 33 -0.205122 0 81 -0.205122 1
gene 1 28 31 -1.76036 0 82 -1.76036 1
gene 1 28 32 -1.3759 0 83 -1.3759 1
gene 1 28 33 0.0249929 0 84 0.0249929 1
gene 1 29 31 -0.135954 0 85 -0.135954 1
gene 1 29 32 -0.149023 0 86 -0.149023 1
gene 1 29 33 0.222625 0 87 0.222625 1
gene 1 30 31 -0.481311 0 88 -0.481311 1
gene 1 30 32 2.5556 0 89 2.5556 1
gene 1 30 33 0.827942 0 90 0.827942 1
genomeend 20

/* Organism #21 Fitness: 31024.1 Error: 0 */
genomestart 21
trait 1 0.841828 0.720221 0 0 0.39287 1 0 1 
node 1 1 1 1
node 2 1 1 1
node 3 1 1 1
node 4 1 1 1
node 5 1 1 1
node 6 1 1 1
node 7 1 1 1
node 8 1 1 1
node 9 1 1 1
node 10 1 1 1
node 11 1 1 1
node 12 1 1 1
node 13 1 1 1
node 14 1 1 1
node 15 1 1 1
node 16 1 1 1
node 17 1 1 1
node 18 1 1 1
node 19 1 1 1
node 20 1 1 1
node 21 1 1 1
node 22 1 1 1
node 23 1 1 1
node 24 1 1 1
node 25 1 1 1
node 26 1 1 1
node 27 1 1 1
node 28 1 1 1
node 29 1 1 1
node 30 1 1 3
node 31 1 0 2
node 32 1 0 2
node 33 1 0 2
gene 1 1 31 -0.611821 0 1 -0.611821 1
gene 1 1 32 -3.09229 0 2 -3.09229 1
gene 1 1 33 1.48101 0 3 1.48101 1
gene 1 2 31 -3.24837 0 4 -3.24837 1
gene 1 2 32 0.215466 0 5 0.215466 1
gene 1 2 33 -2.06874 0 6 -2.06874 1
gene 1 3 31 4.86616 0 7 4.86616 1
gene 1 3 32 -4.66595 0 8 -4.66595 1
gene 1 3 33 4.56585 0 9 4.56585 1
gene 1 4 31 3.0594 0 10 3.0594 1
gene 1 4 32 0.91046 0 11 0.91046 1
gene 1 4 33 -0.622096 0 12 -0.622096 1
gene 1 5 31 1.19636 0 13 1.19636 1
gene 1 5 32 1.72556 0 14 1.72556 1
gene 1 5 33 -0.00759982 0 15 -0.00759982 1
gene 1 6 31 0.911273 0 16 0.911273 1
gene 1 6 32 -0.582542 0 17 -0.582542 1
gene 1 6 33 1.76302 0 18 1.76302 1
gene 1 7 31 1.09569 0 19 1.09569 1
gene 1 7 32 -0.204106 0 20 -0.204106 1
gene 1 7 33 -4.73131 0 21 -4.73131 1
gene 1 8 31 0.0626945 0 22 0.0626945 1
gene 1 8 32 0.51917 0 23 0.51917 1
gene 1 8 33 0.225308 0 24 0.225308 1
gene 1 9 31 2.88183 0 25 2.88183 1
gene 1 9 32 -0.270288 0 26 -0.270288 1
gene 1 9 33 0.838576 0 27 0.838576 1
gene 1 10 31 -2.41425 0 28 -2.41425 1
gene 1 10 32 0.313938 0 29 0.313938 1
gene 1 10 33 -0.739643 0 30 -0.739643 1
gene 1 11 31 0.32722 0 31 0.32722 1
gene 1 11 32 -0.868682 0 32 -0.868682 1
gene 1 11 33 -2.22471 0 33 -2.22471 1
gene 1 12 31 -2.51233 0 34 -2.51233 1
gene 1 12 32 0.46145 0 35 0.46145 1
gene 1 12 33 -0.540147 0 36 -0.540147 1
gene 1 13 31 0.509391 0 37 0.509391 1
gene 1 13 32 -2.08207 0 38 -2.08207 1
gene 1 13 33 -0.457954 0 39 -0.457954 1
gene 1 14 31 -0.421956 0 40 -0.421956 1
gene 1 14 32 3.26425 0 41 3.26425 1
gene 1 14 33 -1.4175 0 42 -1.4175 1
gene 1 15 31 0.381975 0 43 0.381975 1
gene 1 15 32 0.116783 0 44 0.116783 1
gene 1 15 33 1.2864 0 45 1.2864 1
gene 1 16 31 2.48777 0 46 2.48777 1
gene 1 16 32 0.635197 0 47 0.635197 1
gene 1 16 33 -3.56146 0 48 -3.56146 1
gene 1 17 31 2.61085 0 49 2.61085 1
gene 1 17 32 0.708979 0 50 0.708979 1
gene 1 17 33 -0.134634 0 51 -0.134634 1
gene 1 18 31 -0.358019 0 52 -0.358019 1
gene 1 18 32 2.44262 0 53 2.44262 1
gene 1 18 33 -3.44376 0 54 -3.44376 1
gene 1 19 31 -0.366525 0 55 -0.366525 1
gene 1 19 32 -0.426733 0 56 -0.426733 1
gene 1 19 33 -2.8189 0 57 -2.8189 1
gene 1 20 31 1.05635 0 58 1.05635 1
gene 1 20 32 2.48889 0 59 2.48889 1
gene 1 20 33 -1.04714 0 60 -1.04714 1
gene 1 21 31 0.650325 0 61 0.650325 1
gene 1 21 32 -1.7123 0 62 -1.7123 1
gene 1 21 33 -0.0463286 0 63 -0.0463286 1
gene 1 22 31 0.643474 0 64 0.643474 1
gene 1 22 32 0.981431 0 65 0.981431 1
gene 1 22 33 2.53433 0 66 2.53433 1
gene 1 23 31 -0.293418 0 67 -0.293418 1
gene 1 23 32 1.18922 0 68 1.18922 1
gene 1 23 33 -4.11743 0 69 -4.11743 1
gene 1 24 31 -3.56111 0 70 -3.56111 1
gene 1 24 32 -0.280368 0 71 -0.280368 1
gene 1 24 33 -2.87324 0 72 -2.87324 1
gene 1 25 31 0.406686 0 73 0.406686 1
gene 1 25 32 0.428962 0 74 0.428962 1
gene 1 25 33 0.177983 0 75 0.177983 1
gene 1 26 31 0.837666 0 76 0.837666 1
gene 1 26 32 -3.4306 0 77 -3.4306 1
gene 1 26 33 -0.189123 0 78 -0.189123 1
gene 1 27 31 0.328703 0 79 0.328703 1
gene 1 27 32 -0.978832 0 80 -0.978832 1
gene 1 27 33 -0.585425 0 81 -0.585425 1
gene 1 28 31 0.988982 0 82 0.988982 1
gene 1 28 32 0.549677 0 83 0.549677 1
gene 1 28 33 0.0584631 0 84 0.0584631 1
gene 1 29 31 0.508924 0 85 0.508924 1
gene 1 29 32 0.390377 0 86 0.390377 1
gene 1 29 33 -0.71681 0 87 -0.71681 1
gene 1 30 31 0.649831 0 88 0.649831 1
gene 1 30 32 1.25745 0 89 1.25745 1
gene 1 30 33 -0.407272 0 90 -0.407272 1
genomeend 21

/* Organism #22 Fitness: 34541.6 Error: 0 */
genomestart 22
trait 1 0.664132 1 0 0 0.436997 1 0.243397 0.962336 
node 1 1 1 1
node 2 1 1 1
node 3 1 1 1
node 4 1 1 1
node 5 1 1 1
node 6 1 1 1
node 7 1 1 1
node 8 1 1 1
node 9 1 1 1
node 10 1 1 1
node 11 1 1 1
node 12 1 1 1
node 13 1 1 1
node 14 1 1 1
node 15 1 1 1
node 16 1 1 1
node 17 1 1 1
node 18 1 1 1
node 19 1 1 1
node 20 1 1 1
node 21 1 1 1
node 22 1 1 1
node 23 1 1 1
node 24 1 1 1
node 25 1 1 1
node 26 1 1 1
node 27 1 1 1
node 28 1 1 1
node 29 1 1 1
node 30 1 1 3
node 31 1 0 2
node 32 1 0 2
node 33 1 0 2
gene 1 1 31 2.37646 0 1 2.37646 1
gene 1 1 32 -2.20923 0 2 -2.20923 1
gene 1 1 33 5 0 3 5 1
gene 1 2 31 -0.587904 0 4 -0.587904 1
gene 1 2 32 -0.8419 0 5 -0.8419 1
gene 1 2 33 -2.2672 0 6 -2.2672 1
gene 1 3 31 0.626225 0 7 0.626225 1
gene 1 3 32 -4.43906 0 8 -4.43906 1
gene 1 3 33 1.66475 0 9 1.66475 1
gene 1 4 31 3.60124 0 10 3.60124 1
gene 1 4 32 -0.664139 0 11 -0.664139 1
gene 1 4 33 1.03707 0 12 1.03707 1
gene 1 5 31 -0.978761 0 13 -0.978761 1
gene 1 5 32 -0.0774804 0 14 -0.0774804 1
gene 1 5 33 0.181368 0 15 0.181368 1
gene 1 6 31 4.67723 0 16 4.67723 1
gene 1 6 32 -1.28449 0 17 -1.28449 1
gene 1 6 33 -0.657614 0 18 -0.657614 1
gene 1 7 31 -0.263545 0 19 -0.263545 1
gene 1 7 32 -3.02929 0 20 -3.02929 1
gene 1 7 33 1.112 0 21 1.112 1
gene 1 8 31 1.50042 0 22 1.50042 1
gene 1 8 32 3.56469 0 23 3.56469 1
gene 1 8 33 1.12393 0 24 1.12393 1
gene 1 9 31 4.74191 0 25 4.74191 1
gene 1 9 32 -0.0114858 0 26 -0.0114858 1
gene 1 9 33 3.02512 0 27 3.02512 1
gene 1 10 31 3.84534 0 28 3.84534 1
gene 1 10 32 -4.7757 0 29 -4.7757 1
gene 1 10 33 -2.14851 0 30 -2.14851 1
gene 1 11 31 -0.0773373 0 31 -0.0773373 1
gene 1 11 32 2.77317 0 32 2.77317 1
gene 1 11 33 -0.426654 0 33 -0.426654 1
gene 1 12 31 -1.43489 0 34 -1.43489 1
gene 1 12 32 0.74563 0 35 0.74563 1
gene 1 12 33 0.0740563 0 36 0.0740563 1
gene 1 13 31 -0.115756 0 37 -0.115756 1
gene 1 13 32 -0.103308 0 38 -0.103308 1
gene 1 13 33 -0.673486 0 39 -0.673486 1
gene 1 14 31 3.33866 0 40 3.33866 1
gene 1 14 32 1.01079 0 41 1.01079 1
gene 1 14 33 -1.41491 0 42 -1.41491 1
gene 1 15 31 0.390613 0 43 0.390613 1
gene 1 15 32 2.74701 0 44 2.74701 1
gene 1 15 33 1.02276 0 45 1.02276 1
gene 1 16 31 -1.25936 0 46 -1.25936 1
gene 1 16 32 -0.982853 0 47 -0.982853 1
gene 1 16 33 -3.2365 0 48 -3.2365 1
gene 1 17 31 2.87138 0 49 2.87138 1
gene 1 17 32 0.622514 0 50 0.622514 1
gene 1 17 33 0.433533 0 51 0.433533 1
gene 1 18 31 3.36678 0 52 3.36678 1
gene 1 18 32 -1.36521 0 53 -1.36521 1
gene 1 18 33 0.409532 0 54 0.409532 1
gene 1 19 31 2.46732 0 55 2.46732 1
gene 1 19 32 0.540225 0 56 0.540225 1
gene 1 19 33 -2.71432 0 57 -2.71432 1
gene 1 20 31 -2.65561 0 58 -2.65561 1
gene 1 20 32 -1.45814 0 59 -1.45814 1
gene 1 20 33 4.31347 0 60 4.31347 1
gene 1 21 31 2.25356 0 61 2.25356 1
gene 1 21 32 -4.91191 0 62 -4.91191 1
gene 1 21 33 2.07732 0 63 2.07732 1
gene 1 22 31 -1.17921 0 64 -1.17921 1
gene 1 22 32 0.0935855 0 65 0.0935855 1
gene 1 22 33 1.59512 0 66 1.59512 1
gene 1 23 31 -2.02568 0 67 -2.02568 1
gene 1 23 32 0.112151 0 68 0.112151 1
gene 1 23 33 0.758961 0 69 0.758961 1
gene 1 24 31 -5 0 70 -5 1
gene 1 24 32 -0.473968 0 71 -0.473968 1
gene 1 24 33 -1.92505 0 72 -1.92505 1
gene 1 25 31 0.572823 0 73 0.572823 1
gene 1 25 32 0.895977 0 74 0.895977 1
gene 1 25 33 0.18261 0 75 0.18261 1
gene 1 26 31 -0.455506 0 76 -0.455506 1
gene 1 26 32 -1.46476 0 77 -1.46476 1
gene 1 26 33 -1.15583 0 78 -1.15583 1
gene 1 27 31 1.51645 0 79 1.51645 1
gene 1 27 32 0.773361 0 80 0.773361 1
gene 1 27 33 -1.04245 0 81 -1.04245 1
gene 1 28 31 -0.213029 0 82 -0.213029 1
gene 1 28 32 -0.824745 0 83 -0.824745 1
gene 1 28 33 -0.0321179 0 84 -0.0321179 1
gene 1 29 31 -1.06583 0 85 -1.06583 1
gene 1 29 32 -1.03958 0 86 -1.03958 1
gene 1 29 33 0.274736 0 87 0.274736 1
gene 1 30 31 0.659122 0 88 0.659122 1
gene 1 30 32 2.77831 0 89 2.77831 1
gene 1 30 33 0.637147 0 90 0.637147 1
genomeend 22

/* Organism #23 Fitness: 33638.1 Error: 0 */
genomestart 23
trait 1 0.664132 1 0 0 0.436997 1 0.243397 0.962336 
node 1 1 1 1
node 2 1 1 1
node 3 1 1 1
node 4 1 1 1
node 5 1 1 1
node 6 1 1 1
node 7 1 1 1
node 8 1 1 1
node 9 1 1 1
node 10 1 1 1
node 11 1 1 1
node 12 1 1 1
node 13 1 1 1
node 14 1 1 1
node 15 1 1 1
node 16 1 1 1
node 17 1 1 1
node 18 1 1 1
node 19 1 1 1
node 20 1 1 1
node 21 1 1 1
node 22 1 1 1
node 23 1 1 1
node 24 1 1 1
node 25 1 1 1
node 26 1 1 1
node 27 1 1 1
node 28 1 1 1
node 29 1 1 1
node 30 1 1 3
node 31 1 0 2
node 32 1 0 2
node 33 1 0 2
gene 1 1 31 2.83964 0 1 2.83964 1
gene 1 1 32 -3.91324 0 2 -3.91324 1
gene 1 1 33 -0.489357 0 3 -0.489357 1
gene 1 2 31 -0.422288 0 4 -0.422288 1
gene 1 2 32 -0.533597 0 5 -0.533597 1
gene 1 2 33 -0.8754 0 6 -0.8754 1
gene 1 3 31 2.72627 0 7 2.72627 1
gene 1 3 32 0.939527 0 8 0.939527 1
gene 1 3 33 0.448351 0 9 0.448351 1
gene 1 4 31 1.86373 0 10 1.86373 1
gene 1 4 32 -5 0 11 -5 1
gene 1 4 33 1.51326 0 12 1.51326 1
gene 1 5 31 4.35826 0 13 4.35826 1
gene 1 5 32 0.424729 0 14 0.424729 1
gene 1 5 33 -0.0126325 0 15 -0.0126325 1
gene 1 6 31 0.967739 0 16 0.967739 1
gene 1 6 32 3.96519 0 17 3.96519 1
gene 1 6 33 0.150886 0 18 0.150886 1
gene 1 7 31 -2.87279 0 19 -2.87279 1
gene 1 7 32 0.324006 0 20 0.324006 1
gene 1 7 33 0.386408 0 21 0.386408 1
gene 1 8 31 0.256473 0 22 0.256473 1
gene 1 8 32 4.59458 0 23 4.59458 1
gene 1 8 33 -0.00152869 0 24 -0.00152869 1
gene 1 9 31 1.67466 0 25 1.67466 1
gene 1 9 32 0.763573 0 26 0.763573 1
gene 1 9 33 1.39444 0 27 1.39444 1
gene 1 10 31 0.680989 0 28 0.680989 1
gene 1 10 32 0.679209 0 29 0.679209 1
gene 1 10 33 -0.599678 0 30 -0.599678 1
gene 1 11 31 0.318969 0 31 0.318969 1
gene 1 11 32 -0.191318 0 32 -0.191318 1
gene 1 11 33 -0.466811 0 33 -0.466811 1
gene 1 12 31 -0.504295 0 34 -0.504295 1
gene 1 12 32 -2.76224 0 35 -2.76224 1
gene 1 12 33 2.23833 0 36 2.23833 1
gene 1 13 31 -0.121812 0 37 -0.121812 1
gene 1 13 32 -3.56966 0 38 -3.56966 1
gene 1 13 33 0.9311 0 39 0.9311 1
gene 1 14 31 0.90289 0 40 0.90289 1
gene 1 14 32 0.338776 0 41 0.338776 1
gene 1 14 33 -0.568722 0 42 -0.568722 1
gene 1 15 31 1.47267 0 43 1.47267 1
gene 1 15 32 2.54323 0 44 2.54323 1
gene 1 15 33 0.0289141 0 45 0.0289141 1
gene 1 16 31 -3.01717 0 46 -3.01717 1
gene 1 16 32 -2.70007 0 47 -2.70007 1
gene 1 16 33 3.2278 0 48 3.2278 1
gene 1 17 31 5 0 49 5 1
gene 1 17 32 1.76183 0 50 1.76183 1
gene 1 17 33 0.814037 0 51 0.814037 1
gene 1 18 31 0.175011 0 52 0.175011 1
gene 1 18 32 -2.05471 0 53 -2.05471 1
gene 1 18 33 0.705547 0 54 0.705547 1
gene 1 19 31 -0.638759 0 55 -0.638759 1
gene 1 19 32 -1.2837 0 56 -1.2837 1
gene 1 19 33 1.51801 0 57 1.51801 1
gene 1 20 31 0.142957 0 58 0.142957 1
gene 1 20 32 0.779459 0 59 0.779459 1
gene 1 20 33 -1.37279 0 60 -1.37279 1
gene 1 21 31 -0.293852 0 61 -0.293852 1
gene 1 21 32 -0.999153 0 62 -0.999153 1
gene 1 21 33 -0.178636 0 63 -0.178636 1
gene 1 22 31 -0.472942 0 64 -0.472942 1
gene 1 22 32 -0.288768 0 65 -0.288768 1
gene 1 22 33 -0.819933 0 66 -0.819933 1
gene 1 23 31 0.921441 0 67 0.921441 1
gene 1 23 32 1.70233 0 68 1.70233 1
gene 1 23 33 0.973228 0 69 0.973228 1
gene 1 24 31 -4.10386 0 70 -4.10386 1
gene 1 24 32 -0.92576 0 71 -0.92576 1
gene 1 24 33 0.42425 0 72 0.42425 1
gene 1 25 31 0.984042 0 73 0.984042 1
gene 1 25 32 -0.422446 0 74 -0.422446 1
gene 1 25 33 1.2603 0 75 1.2603 1
gene 1 26 31 1.89946 0 76 1.89946 1
gene 1 26 32 -0.411737 0 77 -0.411737 1
gene 1 26 33 1.58581 0 78 1.58581 1
gene 1 27 31 -0.555772 0 79 -0.555772 1
gene 1 27 32 -0.320041 0 80 -0.320041 1
gene 1 27 33 0.748185 0 81 0.748185 1
gene 1 28 31 1.27798 0 82 1.27798 1
gene 1 28 32 -2.00948 0 83 -2.00948 1
gene 1 28 33 0.814433 0 84 0.814433 1
gene 1 29 31 0.0141072 0 85 0.0141072 1
gene 1 29 32 0.467667 0 86 0.467667 1
gene 1 29 33 0.366662 0 87 0.366662 1
gene 1 30 31 -0.678605 0 88 -0.678605 1
gene 1 30 32 4.02101 0 89 4.02101 1
gene 1 30 33 0.422911 0 90 0.422911 1
genomeend 23

/* Organism #24 Fitness: 5909.1 Error: 0 */
genomestart 24
trait 1 0.664132 1 0 0 0.436997 1 0.243397 0.962336 
node 1 1 1 1
node 2 1 1 1
node 3 1 1 1
node 4 1 1 1
node 5 1 1 1
node 6 1 1 1
node 7 1 1 1
node 8 1 1 1
node 9 1 1 1
node 10 1 1 1
node 11 1 1 1
node 12 1 1 1
node 13 1 1 1
node 14 1 1 1
node 15 1 1 1
node 16 1 1 1
node 17 1 1 1
node 18 1 1 1
node 19 1 1 1
node 20 1 1 1
node 21 1 1 1
node 22 1 1 1
node 23 1 1 1
node 24 1 1 1
node 25 1 1 1
node 26 1 1 1
node 27 1 1 1
node 28 1 1 1
node 29 1 1 1
node 30 1 1 3
node 31 1 0 2
node 32 1 0 2
node 33 1 0 2
gene 1 1 31 3.01454 0 1 3.01454 1
gene 1 1 32 -4.03073 0 2 -4.03073 1
gene 1 1 33 -0.267078 0 3 -0.267078 1
gene 1 2 31 -1.12529 0 4 -1.12529 1
gene 1 2 32 -1.94367 0 5 -1.94367 1
gene 1 2 33 -0.434851 0 6 -0.434851 1
gene 1 3 31 3.01009 0 7 3.01009 1
gene 1 3 32 -0.951164 0 8 -0.951164 1
gene 1 3 33 1.52744 0 9 1.52744 1
gene 1 4 31 3.27395 0 10 3.27395 1
gene 1 4 32 -5 0 11 -5 1
gene 1 4 33 1.95716 0 12 1.95716 1
gene 1 5 31 4.11835 0 13 4.11835 1
gene 1 5 32 0.66013 0 14 0.66013 1
gene 1 5 33 0.968215 0 15 0.968215 1
gene 1 6 31 0.669532 0 16 0.669532 1
gene 1 6 32 3.57393 0 17 3.57393 1
gene 1 6 33 0.840138 0 18 0.840138 1
gene 1 7 31 -3.03724 0 19 -3.03724 1
gene 1 7 32 0.17481 0 20 0.17481 1
gene 1 7 33 0.0664179 0 21 0.0664179 1
gene 1 8 31 1.04181 0 22 1.04181 1
gene 1 8 32 5 0 23 5 1
gene 1 8 33 -1.32072 0 24 -1.32072 1
gene 1 9 31 1.28178 0 25 1.28178 1
gene 1 9 32 0.763617 0 26 0.763617 1
gene 1 9 33 2.12755 0 27 2.12755 1
gene 1 10 31 2.55431 0 28 2.55431 1
gene 1 10 32 0.1921 0 29 0.1921 1
gene 1 10 33 1.11858 0 30 1.11858 1
gene 1 11 31 2.67303 0 31 2.67303 1
gene 1 11 32 1.27121 0 32 1.27121 1
gene 1 11 33 0.324303 0 33 0.324303 1
gene 1 12 31 -1.9493 0 34 -1.9493 1
gene 1 12 32 -3.48946 0 35 -3.48946 1
gene 1 12 33 1.62208 0 36 1.62208 1
gene 1 13 31 -1.87966 0 37 -1.87966 1
gene 1 13 32 -4.55028 0 38 -4.55028 1
gene 1 13 33 -0.761444 0 39 -0.761444 1
gene 1 14 31 -4.21645 0 40 -4.21645 1
gene 1 14 32 -0.259815 0 41 -0.259815 1
gene 1 14 33 -0.431978 0 42 -0.431978 1
gene 1 15 31 1.38525 0 43 1.38525 1
gene 1 15 32 1.2278 0 44 1.2278 1
gene 1 15 33 -0.835963 0 45 -0.835963 1
gene 1 16 31 -2.66268 0 46 -2.66268 1
gene 1 16 32 -3.04544 0 47 -3.04544 1
gene 1 16 33 3.26229 0 48 3.26229 1
gene 1 17 31 5 0 49 5 1
gene 1 17 32 0.963757 0 50 0.963757 1
gene 1 17 33 0.43766 0 51 0.43766 1
gene 1 18 31 3.55408 0 52 3.55408 1
gene 1 18 32 -1.53341 0 53 -1.53341 1
gene 1 18 33 -2.4065 0 54 -2.4065 1
gene 1 19 31 0.208072 0 55 0.208072 1
gene 1 19 32 -1.72773 0 56 -1.72773 1
gene 1 19 33 1.83703 0 57 1.83703 1
gene 1 20 31 -0.654324 0 58 -0.654324 1
gene 1 20 32 -0.724431 0 59 -0.724431 1
gene 1 20 33 -1.20326 0 60 -1.20326 1
gene 1 21 31 0.434111 0 61 0.434111 1
gene 1 21 32 -4.43171 0 62 -4.43171 1
gene 1 21 33 0.210072 0 63 0.210072 1
gene 1 22 31 0.556775 0 64 0.556775 1
gene 1 22 32 -0.465469 0 65 -0.465469 1
gene 1 22 33 -0.0871921 0 66 -0.0871921 1
gene 1 23 31 -0.382392 0 67 -0.382392 1
gene 1 23 32 1.00927 0 68 1.00927 1
gene 1 23 33 1.55722 0 69 1.55722 1
gene 1 24 31 -3.62955 0 70 -3.62955 1
gene 1 24 32 0.128227 0 71 0.128227 1
gene 1 24 33 1.88213 0 72 1.88213 1
gene 1 25 31 0.0128394 0 73 0.0128394 1
gene 1 25 32 -0.126315 0 74 -0.126315 1
gene 1 25 33 -0.615217 0 75 -0.615217 1
gene 1 26 31 -0.310161 0 76 -0.310161 1
gene 1 26 32 0.523308 0 77 0.523308 1
gene 1 26 33 -0.0167391 0 78 -0.0167391 1
gene 1 27 31 -1.55488 0 79 -1.55488 1
gene 1 27 32 -0.234734 0 80 -0.234734 1
gene 1 27 33 0.593743 0 81 0.593743 1
gene 1 28 31 1.396 0 82 1.396 1
gene 1 28 32 -2.36056 0 83 -2.36056 1
gene 1 28 33 1.50909 0 84 1.50909 1
gene 1 29 31 0.51975 0 85 0.51975 1
gene 1 29 32 0.483259 0 86 0.483259 1
gene 1 29 33 0.299473 0 87 0.299473 1
gene 1 30 31 -0.678605 0 88 -0.678605 1
gene 1 30 32 0.276982 0 89 0.276982 1
gene 1 30 33 0.934557 0 90 0.934557 1
genomeend 24

/* Organism #25 Fitness: 24699.1 Error: 0 */
genomestart 25
trait 1 0.664132 1 0 0 0.436997 1 0.243397 0.962336 
node 1 1 1 1
node 2 1 1 1
node 3 1 1 1
node 4 1 1 1
node 5 1 1 1
node 6 1 1 1
node 7 1 1 1
node 8 1 1 1
node 9 1 1 1
node 10 1 1 1
node 11 1 1 1
node 12 1 1 1
node 13 1 1 1
node 14 1 1 1
node 15 1 1 1
node 16 1 1 1
node 17 1 1 1
node 18 1 1 1
node 19 1 1 1
node 20 1 1 1
node 21 1 1 1
node 22 1 1 1
node 23 1 1 1
node 24 1 1 1
node 25 1 1 1
node 26 1 1 1
node 27 1 1 1
node 28 1 1 1
node 29 1 1 1
node 30 1 1 3
node 31 1 0 2
node 32 1 0 2
node 33 1 0 2
gene 1 1 31 -0.285776 0 1 -0.285776 1
gene 1 1 32 -2.2576 0 2 -2.2576 1
gene 1 1 33 4.07453 0 3 4.07453 1
gene 1 2 31 0.665086 0 4 0.665086 1
gene 1 2 32 1.50826 0 5 1.50826 1
gene 1 2 33 1.11183 0 6 1.11183 1
gene 1 3 31 2.18224 0 7 2.18224 1
gene 1 3 32 -4.51829 0 8 -4.51829 1
gene 1 3 33 -1.07153 0 9 -1.07153 1
gene 1 4 31 2.5037 0 10 2.5037 1
gene 1 4 32 0.706849 0 11 0.706849 1
gene 1 4 33 -0.382144 0 12 -0.382144 1
gene 1 5 31 -3.29029 0 13 -3.29029 1
gene 1 5 32 -0.400183 0 14 -0.400183 1
gene 1 5 33 3.01551 0 15 3.01551 1
gene 1 6 31 3.1974 0 16 3.1974 1
gene 1 6 32 -2.96716 0 17 -2.96716 1
gene 1 6 33 -0.357991 0 18 -0.357991 1
gene 1 7 31 -3.84756 0 19 -3.84756 1
gene 1 7 32 -5 0 20 -5 1
gene 1 7 33 0.794326 0 21 0.794326 1
gene 1 8 31 -0.252206 0 22 -0.252206 1
gene 1 8 32 -0.694105 0 23 -0.694105 1
gene 1 8 33 1.73512 0 24 1.73512 1
gene 1 9 31 1.2345 0 25 1.2345 1
gene 1 9 32 0.372661 0 26 0.372661 1
gene 1 9 33 5 0 27 5 1
gene 1 10 31 3.66294 0 28 3.66294 1
gene 1 10 32 1.14523 0 29 1.14523 1
gene 1 10 33 -4.36618 0 30 -4.36618 1
gene 1 11 31 -5 0 31 -5 1
gene 1 11 32 4.8309 0 32 4.8309 1
gene 1 11 33 4.08069 0 33 4.08069 1
gene 1 12 31 2.95845 0 34 2.95845 1
gene 1 12 32 -3.88626 0 35 -3.88626 1
gene 1 12 33 2.56322 0 36 2.56322 1
gene 1 13 31 0.0980608 0 37 0.0980608 1
gene 1 13 32 -3.11661 0 38 -3.11661 1
gene 1 13 33 2.78607 0 39 2.78607 1
gene 1 14 31 4.55212 0 40 4.55212 1
gene 1 14 32 -1.81042 0 41 -1.81042 1
gene 1 14 33 -3.05213 0 42 -3.05213 1
gene 1 15 31 1.4164 0 43 1.4164 1
gene 1 15 32 0.729284 0 44 0.729284 1
