/* Organism #0 Fitness: 11422.030000 Time: 0 */
genomestart 0
trait 1 0.000000 1.000000 0.466392 0.228705 0.301355 0.253647 0.489661 0.000000 
node 1 1 1 1
node 2 1 1 1
node 3 1 1 1
node 4 1 1 1
node 5 1 1 1
node 6 1 1 1
node 7 1 1 1
node 8 1 1 1
node 9 1 1 1
node 10 1 1 1
node 11 1 1 1
node 12 1 1 1
node 13 1 1 1
node 14 1 1 1
node 15 1 1 1
node 16 1 1 1
node 17 1 1 1
node 18 1 1 1
node 19 1 1 1
node 20 1 1 1
node 21 1 1 1
node 22 1 1 1
node 23 1 1 1
node 24 1 1 1
node 25 1 1 1
node 26 1 1 1
node 27 1 1 1
node 28 1 1 1
node 29 1 1 1
node 30 1 1 3
node 31 1 0 2
node 32 1 0 2
node 33 1 0 2
gene 1 1 31 0.410544 0 1 0.410544 1
gene 1 1 32 -2.31928 0 2 -2.31928 1
gene 1 1 33 -1.68182 0 3 -1.68182 1
gene 1 2 31 3.03851 0 4 3.03851 1
gene 1 2 32 -0.571395 0 5 -0.571395 1
gene 1 2 33 0.537119 0 6 0.537119 1
gene 1 3 31 -0.042069 0 7 -0.042069 1
gene 1 3 32 -0.920033 0 8 -0.920033 1
gene 1 3 33 -1.04359 0 9 -1.04359 1
gene 1 4 31 -0.865764 0 10 -0.865764 1
gene 1 4 32 0.869338 0 11 0.869338 1
gene 1 4 33 -2.5271 0 12 -2.5271 1
gene 1 5 31 -0.58434 0 13 -0.58434 1
gene 1 5 32 -1.40913 0 14 -1.40913 1
gene 1 5 33 3.02736 0 15 3.02736 1
gene 1 6 31 -1.53342 0 16 -1.53342 1
gene 1 6 32 -1.92073 0 17 -1.92073 1
gene 1 6 33 -4.21598 0 18 -4.21598 1
gene 1 7 31 0.500438 0 19 0.500438 1
gene 1 7 32 -1.41263 0 20 -1.41263 1
gene 1 7 33 3.40251 0 21 3.40251 1
gene 1 8 31 -1.70188 0 22 -1.70188 1
gene 1 8 32 -0.983093 0 23 -0.983093 1
gene 1 8 33 -2.24123 0 24 -2.24123 1
gene 1 9 31 -0.327064 0 25 -0.327064 1
gene 1 9 32 5 0 26 5 1
gene 1 9 33 -1.1764 0 27 -1.1764 1
gene 1 10 31 -3.46561 0 28 -3.46561 1
gene 1 10 32 0.494237 0 29 0.494237 1
gene 1 10 33 3.39393 0 30 3.39393 1
gene 1 11 31 -3.47197 0 31 -3.47197 1
gene 1 11 32 -0.944888 0 32 -0.944888 1
gene 1 11 33 -1.38497 0 33 -1.38497 1
gene 1 12 31 1.66024 0 34 1.66024 1
gene 1 12 32 -3.32456 0 35 -3.32456 1
gene 1 12 33 0.694086 0 36 0.694086 1
gene 1 13 31 0.885654 0 37 0.885654 1
gene 1 13 32 -5 0 38 -5 1
gene 1 13 33 0.513566 0 39 0.513566 1
gene 1 14 31 1.7958 0 40 1.7958 1
gene 1 14 32 -0.338661 0 41 -0.338661 1
gene 1 14 33 3.08631 0 42 3.08631 1
gene 1 15 31 3.30551 0 43 3.30551 1
gene 1 15 32 -0.927069 0 44 -0.927069 1
gene 1 15 33 -2.28776 0 45 -2.28776 1
gene 1 16 31 2.96052 0 46 2.96052 1
gene 1 16 32 5 0 47 5 1
gene 1 16 33 -0.936647 0 48 -0.936647 1
gene 1 17 31 -1.66285 0 49 -1.66285 1
gene 1 17 32 3.25853 0 50 3.25853 1
gene 1 17 33 -0.853263 0 51 -0.853263 1
gene 1 18 31 2.66213 0 52 2.66213 1
gene 1 18 32 0.439055 0 53 0.439055 1
gene 1 18 33 1.05095 0 54 1.05095 1
gene 1 19 31 2.55944 0 55 2.55944 1
gene 1 19 32 5 0 56 5 1
gene 1 19 33 4.67527 0 57 4.67527 1
gene 1 20 31 -0.403189 0 58 -0.403189 1
gene 1 20 32 -1.369 0 59 -1.369 1
gene 1 20 33 -2.01371 0 60 -2.01371 1
gene 1 21 31 2.49133 0 61 2.49133 1
gene 1 21 32 4.15208 0 62 4.15208 1
gene 1 21 33 0.164284 0 63 0.164284 1
gene 1 22 31 2.05349 0 64 2.05349 1
gene 1 22 32 -0.0323277 0 65 -0.0323277 1
gene 1 22 33 0.376515 0 66 0.376515 1
gene 1 23 31 0.634704 0 67 0.634704 1
gene 1 23 32 -3.12772 0 68 -3.12772 1
gene 1 23 33 0.839384 0 69 0.839384 1
gene 1 24 31 0.175083 0 70 0.175083 1
gene 1 24 32 -0.301596 0 71 -0.301596 1
gene 1 24 33 4.07425 0 72 4.07425 1
gene 1 25 31 -0.845843 0 73 -0.845843 1
gene 1 25 32 0.599054 0 74 0.599054 1
gene 1 25 33 0.194225 0 75 0.194225 1
gene 1 26 31 -0.638008 0 76 -0.638008 1
gene 1 26 32 0.528133 0 77 0.528133 1
gene 1 26 33 0.0287575 0 78 0.0287575 1
gene 1 27 31 0.119895 0 79 0.119895 1
gene 1 27 32 -0.89084 0 80 -0.89084 1
gene 1 27 33 -1.32372 0 81 -1.32372 1
gene 1 28 31 -0.306064 0 82 -0.306064 1
gene 1 28 32 0.527934 0 83 0.527934 1
gene 1 28 33 0.690082 0 84 0.690082 1
gene 1 29 31 -0.211592 0 85 -0.211592 1
gene 1 29 32 -0.812498 0 86 -0.812498 1
gene 1 29 33 2.06273 0 87 2.06273 1
gene 1 30 31 0.950396 0 88 0.950396 1
gene 1 30 32 -1.4121 0 89 -1.4121 1
gene 1 30 33 0.761423 0 90 0.761423 1
genomeend 0


