/* Organism #10 Fitness: 8746.544000 Time: 0 */
genomestart 10
trait 1 0.515917 0.583893 0.304033 1.000000 1.000000 0.054831 0.000000 0.851487 
node 1 1 1 1
node 2 1 1 1
node 3 1 1 1
node 4 1 1 1
node 5 1 1 1
node 6 1 1 1
node 7 1 1 1
node 8 1 1 1
node 9 1 1 1
node 10 1 1 1
node 11 1 1 1
node 12 1 1 1
node 13 1 1 1
node 14 1 1 1
node 15 1 1 1
node 16 1 1 1
node 17 1 1 1
node 18 1 1 1
node 19 1 1 1
node 20 1 1 1
node 21 1 1 1
node 22 1 1 1
node 23 1 1 1
node 24 1 1 1
node 25 1 1 1
node 26 1 1 1
node 27 1 1 1
node 28 1 1 1
node 29 1 1 1
node 30 1 1 1
node 31 1 1 1
node 32 1 1 1
node 33 1 1 1
node 34 1 1 1
node 35 1 1 1
node 36 1 1 1
node 37 1 1 1
node 38 1 1 1
node 39 1 1 1
node 40 1 1 3
node 41 1 0 2
node 42 1 0 2
node 43 1 0 2
node 44 1 0 2
node 45 1 0 2
gene 1 1 41 -0.830395 0 1 -0.830395 1
gene 1 1 42 -0.996673 0 2 -0.996673 1
gene 1 1 43 2.00137 0 3 2.00137 1
gene 1 1 44 1.33387 0 4 1.33387 1
gene 1 1 45 -1.24795 0 5 -1.24795 1
gene 1 2 41 -1.36393 0 6 -1.36393 1
gene 1 2 42 3.41455 0 7 3.41455 1
gene 1 2 43 4.58573 0 8 4.58573 1
gene 1 2 44 -2.29359 0 9 -2.29359 1
gene 1 2 45 -0.706612 0 10 -0.706612 1
gene 1 3 41 0.804156 0 11 0.804156 1
gene 1 3 42 0.802834 0 12 0.802834 1
gene 1 3 43 -5 0 13 -5 1
gene 1 3 44 -0.95311 0 14 -0.95311 1
gene 1 3 45 -2.22214 0 15 -2.22214 1
gene 1 4 41 0.376036 0 16 0.376036 1
gene 1 4 42 2.62266 0 17 2.62266 1
gene 1 4 43 5 0 18 5 1
gene 1 4 44 -1.09524 0 19 -1.09524 1
gene 1 4 45 0.0413112 0 20 0.0413112 1
gene 1 5 41 -0.886858 0 21 -0.886858 1
gene 1 5 42 1.51028 0 22 1.51028 1
gene 1 5 43 1.03087 0 23 1.03087 1
gene 1 5 44 5 0 24 5 1
gene 1 5 45 2.12784 0 25 2.12784 1
gene 1 6 41 2.2708 0 26 2.2708 1
gene 1 6 42 -0.402939 0 27 -0.402939 1
gene 1 6 43 1.02267 0 28 1.02267 1
gene 1 6 44 -3.90456 0 29 -3.90456 1
gene 1 6 45 -4.91644 0 30 -4.91644 1
gene 1 7 41 3.81946 0 31 3.81946 1
gene 1 7 42 -0.105931 0 32 -0.105931 1
gene 1 7 43 -1.62639 0 33 -1.62639 1
gene 1 7 44 -4.45678 0 34 -4.45678 1
gene 1 7 45 -0.537161 0 35 -0.537161 1
gene 1 8 41 2.38881 0 36 2.38881 1
gene 1 8 42 -3.80474 0 37 -3.80474 1
gene 1 8 43 0.553785 0 38 0.553785 1
gene 1 8 44 -1.85567 0 39 -1.85567 1
gene 1 8 45 1.51778 0 40 1.51778 1
gene 1 9 41 0.00676813 0 41 0.00676813 1
gene 1 9 42 1.85695 0 42 1.85695 1
gene 1 9 43 -3.21691 0 43 -3.21691 1
gene 1 9 44 -1.83377 0 44 -1.83377 1
gene 1 9 45 0.685069 0 45 0.685069 1
gene 1 10 41 2.05313 0 46 2.05313 1
gene 1 10 42 2.22569 0 47 2.22569 1
gene 1 10 43 0.871015 0 48 0.871015 1
gene 1 10 44 3.64688 0 49 3.64688 1
gene 1 10 45 3.02701 0 50 3.02701 1
gene 1 11 41 1.08408 0 51 1.08408 1
gene 1 11 42 0.89277 0 52 0.89277 1
gene 1 11 43 -1.69407 0 53 -1.69407 1
gene 1 11 44 0.821754 0 54 0.821754 1
gene 1 11 45 4.75326 0 55 4.75326 1
gene 1 12 41 2.81919 0 56 2.81919 1
gene 1 12 42 0.78531 0 57 0.78531 1
gene 1 12 43 0.24681 0 58 0.24681 1
gene 1 12 44 1.94608 0 59 1.94608 1
gene 1 12 45 -0.205332 0 60 -0.205332 1
gene 1 13 41 -4.52776 0 61 -4.52776 1
gene 1 13 42 2.38061 0 62 2.38061 1
gene 1 13 43 0.823459 0 63 0.823459 1
gene 1 13 44 0.38872 0 64 0.38872 1
gene 1 13 45 -2.18805 0 65 -2.18805 1
gene 1 14 41 0.572764 0 66 0.572764 1
gene 1 14 42 -0.493862 0 67 -0.493862 1
gene 1 14 43 -1.25901 0 68 -1.25901 1
gene 1 14 44 1.77481 0 69 1.77481 1
gene 1 14 45 1.07972 0 70 1.07972 1
gene 1 15 41 0.646315 0 71 0.646315 1
gene 1 15 42 -2.58597 0 72 -2.58597 1
gene 1 15 43 -0.355156 0 73 -0.355156 1
gene 1 15 44 0.231934 0 74 0.231934 1
gene 1 15 45 -0.521689 0 75 -0.521689 1
gene 1 16 41 1.04826 0 76 1.04826 1
gene 1 16 42 -0.642413 0 77 -0.642413 1
gene 1 16 43 -0.474118 0 78 -0.474118 1
gene 1 16 44 -2.46573 0 79 -2.46573 1
gene 1 16 45 -1.38404 0 80 -1.38404 1
gene 1 17 41 0.192849 0 81 0.192849 1
gene 1 17 42 -3.9622 0 82 -3.9622 1
gene 1 17 43 0.491579 0 83 0.491579 1
gene 1 17 44 -0.921207 0 84 -0.921207 1
gene 1 17 45 -2.05041 0 85 -2.05041 1
gene 1 18 41 5 0 86 5 1
gene 1 18 42 -0.521294 0 87 -0.521294 1
gene 1 18 43 -0.780882 0 88 -0.780882 1
gene 1 18 44 -0.0440124 0 89 -0.0440124 1
gene 1 18 45 -0.759984 0 90 -0.759984 1
gene 1 19 41 1.92267 0 91 1.92267 1
gene 1 19 42 -5 0 92 -5 1
gene 1 19 43 0.978449 0 93 0.978449 1
gene 1 19 44 -1.15078 0 94 -1.15078 1
gene 1 19 45 0.65899 0 95 0.65899 1
gene 1 20 41 -0.309634 0 96 -0.309634 1
gene 1 20 42 1.36951 0 97 1.36951 1
gene 1 20 43 -0.844135 0 98 -0.844135 1
gene 1 20 44 2.35582 0 99 2.35582 1
gene 1 20 45 -0.582597 0 100 -0.582597 1
gene 1 21 41 0.625319 0 101 0.625319 1
gene 1 21 42 -1.17178 0 102 -1.17178 1
gene 1 21 43 -0.540951 0 103 -0.540951 1
gene 1 21 44 4.80145 0 104 4.80145 1
gene 1 21 45 0.949017 0 105 0.949017 1
gene 1 22 41 0.225238 0 106 0.225238 1
gene 1 22 42 -3.46463 0 107 -3.46463 1
gene 1 22 43 0.0923328 0 108 0.0923328 1
gene 1 22 44 0.528874 0 109 0.528874 1
gene 1 22 45 0.313157 0 110 0.313157 1
gene 1 23 41 1.36357 0 111 1.36357 1
gene 1 23 42 4.39184 0 112 4.39184 1
gene 1 23 43 0.816103 0 113 0.816103 1
gene 1 23 44 0.23269 0 114 0.23269 1
gene 1 23 45 -0.330208 0 115 -0.330208 1
gene 1 24 41 -0.650245 0 116 -0.650245 1
gene 1 24 42 0.197361 0 117 0.197361 1
gene 1 24 43 1.47025 0 118 1.47025 1
gene 1 24 44 -1.25055 0 119 -1.25055 1
gene 1 24 45 -0.133493 0 120 -0.133493 1
gene 1 25 41 -5 0 121 -5 1
gene 1 25 42 0.703534 0 122 0.703534 1
gene 1 25 43 0.569448 0 123 0.569448 1
gene 1 25 44 -1.58688 0 124 -1.58688 1
gene 1 25 45 -0.912612 0 125 -0.912612 1
gene 1 26 41 0.420784 0 126 0.420784 1
gene 1 26 42 -2.10029 0 127 -2.10029 1
gene 1 26 43 0.274544 0 128 0.274544 1
gene 1 26 44 1.55142 0 129 1.55142 1
gene 1 26 45 -0.554321 0 130 -0.554321 1
gene 1 27 41 -0.528557 0 131 -0.528557 1
gene 1 27 42 1.30473 0 132 1.30473 1
gene 1 27 43 -1.57755 0 133 -1.57755 1
gene 1 27 44 -0.959092 0 134 -0.959092 1
gene 1 27 45 -2.21643 0 135 -2.21643 1
gene 1 28 41 -1.75506 0 136 -1.75506 1
gene 1 28 42 -0.344611 0 137 -0.344611 1
gene 1 28 43 0.86665 0 138 0.86665 1
gene 1 28 44 -0.550395 0 139 -0.550395 1
gene 1 28 45 0.585407 0 140 0.585407 1
gene 1 29 41 -2.04913 0 141 -2.04913 1
gene 1 29 42 1.03574 0 142 1.03574 1
gene 1 29 43 -5 0 143 -5 1
gene 1 29 44 2.79822 0 144 2.79822 1
gene 1 29 45 -1.18521 0 145 -1.18521 1
gene 1 30 41 -0.315045 0 146 -0.315045 1
gene 1 30 42 -0.579009 0 147 -0.579009 1
gene 1 30 43 2.85803 0 148 2.85803 1
gene 1 30 44 1.68559 0 149 1.68559 1
gene 1 30 45 -0.583475 0 150 -0.583475 1
gene 1 31 41 1.35075 0 151 1.35075 1
gene 1 31 42 0.612399 0 152 0.612399 1
gene 1 31 43 0.816537 0 153 0.816537 1
gene 1 31 44 -2.0739 0 154 -2.0739 1
gene 1 31 45 -2.29025 0 155 -2.29025 1
gene 1 32 41 1.18942 0 156 1.18942 1
gene 1 32 42 -1.57649 0 157 -1.57649 1
gene 1 32 43 -1.08997 0 158 -1.08997 1
gene 1 32 44 0.935639 0 159 0.935639 1
gene 1 32 45 0.492367 0 160 0.492367 1
gene 1 33 41 -0.573294 0 161 -0.573294 1
gene 1 33 42 0.2779 0 162 0.2779 1
gene 1 33 43 -2.09488 0 163 -2.09488 1
gene 1 33 44 -0.341224 0 164 -0.341224 1
gene 1 33 45 -0.0534634 0 165 -0.0534634 1
gene 1 34 41 0.95928 0 166 0.95928 1
gene 1 34 42 -0.927542 0 167 -0.927542 1
gene 1 34 43 1.35379 0 168 1.35379 1
gene 1 34 44 -0.454953 0 169 -0.454953 1
gene 1 34 45 -1.54271 0 170 -1.54271 1
gene 1 35 41 -0.448257 0 171 -0.448257 1
gene 1 35 42 0.0625246 0 172 0.0625246 1
gene 1 35 43 1.47882 0 173 1.47882 1
gene 1 35 44 -2.11123 0 174 -2.11123 1
gene 1 35 45 0.0591629 0 175 0.0591629 1
gene 1 36 41 -0.349578 0 176 -0.349578 1
gene 1 36 42 -0.298005 0 177 -0.298005 1
gene 1 36 43 -1.26067 0 178 -1.26067 1
gene 1 36 44 -0.348728 0 179 -0.348728 1
gene 1 36 45 0.690617 0 180 0.690617 1
gene 1 37 41 0.789438 0 181 0.789438 1
gene 1 37 42 -1.0935 0 182 -1.0935 1
gene 1 37 43 -1.04754 0 183 -1.04754 1
gene 1 37 44 -0.530942 0 184 -0.530942 1
gene 1 37 45 0.21863 0 185 0.21863 1
gene 1 38 41 -1.8968 0 186 -1.8968 1
gene 1 38 42 -0.243856 0 187 -0.243856 1
gene 1 38 43 0.801194 0 188 0.801194 1
gene 1 38 44 -0.856062 0 189 -0.856062 1
gene 1 38 45 -1.40869 0 190 -1.40869 1
gene 1 39 41 -0.163371 0 191 -0.163371 1
gene 1 39 42 -0.207289 0 192 -0.207289 1
gene 1 39 43 -0.0651229 0 193 -0.0651229 1
gene 1 39 44 3.46046 0 194 3.46046 1
gene 1 39 45 0.965794 0 195 0.965794 1
gene 1 40 41 -4.75996 0 196 -4.75996 1
gene 1 40 42 1.0432 0 197 1.0432 1
gene 1 40 43 -0.0829909 0 198 -0.0829909 1
gene 1 40 44 -1.1333 0 199 -1.1333 1
gene 1 40 45 0.850198 0 200 0.850198 1
genomeend 10


