/* Organism #0 Fitness: 9023.276000 Time: 0 */
genomestart 0
trait 1 0.526006 1.000000 0.630746 0.713388 0.323761 0.109754 0.308321 1.000000 
node 1 1 1 1
node 2 1 1 1
node 3 1 1 1
node 4 1 1 1
node 5 1 1 1
node 6 1 1 1
node 7 1 1 1
node 8 1 1 1
node 9 1 1 1
node 10 1 1 1
node 11 1 1 1
node 12 1 1 1
node 13 1 1 1
node 14 1 1 1
node 15 1 1 1
node 16 1 1 1
node 17 1 1 1
node 18 1 1 1
node 19 1 1 1
node 20 1 1 1
node 21 1 1 1
node 22 1 1 1
node 23 1 1 1
node 24 1 1 1
node 25 1 1 1
node 26 1 1 1
node 27 1 1 1
node 28 1 1 1
node 29 1 1 1
node 30 1 1 1
node 31 1 1 1
node 32 1 1 1
node 33 1 1 1
node 34 1 1 1
node 35 1 1 1
node 36 1 1 1
node 37 1 1 1
node 38 1 1 1
node 39 1 1 1
node 40 1 1 3
node 41 1 0 2
node 42 1 0 2
node 43 1 0 2
node 44 1 0 2
node 45 1 0 2
gene 1 1 41 -4.45053 0 1 -4.45053 1
gene 1 1 42 -4.95217 0 2 -4.95217 1
gene 1 1 43 4.12985 0 3 4.12985 1
gene 1 1 44 -1.05403 0 4 -1.05403 1
gene 1 1 45 1.94064 0 5 1.94064 1
gene 1 2 41 -3.18749 0 6 -3.18749 1
gene 1 2 42 4.90508 0 7 4.90508 1
gene 1 2 43 -0.773216 0 8 -0.773216 1
gene 1 2 44 4.0805 0 9 4.0805 1
gene 1 2 45 -3.04873 0 10 -3.04873 1
gene 1 3 41 0.534022 0 11 0.534022 1
gene 1 3 42 2.58666 0 12 2.58666 1
gene 1 3 43 -0.368256 0 13 -0.368256 1
gene 1 3 44 -4.4058 0 14 -4.4058 1
gene 1 3 45 0.294394 0 15 0.294394 1
gene 1 4 41 1.92892 0 16 1.92892 1
gene 1 4 42 1.9855 0 17 1.9855 1
gene 1 4 43 0.165613 0 18 0.165613 1
gene 1 4 44 -0.277734 0 19 -0.277734 1
gene 1 4 45 0.166425 0 20 0.166425 1
gene 1 5 41 0.695621 0 21 0.695621 1
gene 1 5 42 1.37964 0 22 1.37964 1
gene 1 5 43 3.00323 0 23 3.00323 1
gene 1 5 44 0.0429436 0 24 0.0429436 1
gene 1 5 45 -1.70072 0 25 -1.70072 1
gene 1 6 41 5 0 26 5 1
gene 1 6 42 0.730799 0 27 0.730799 1
gene 1 6 43 -4.06819 0 28 -4.06819 1
gene 1 6 44 -1.4127 0 29 -1.4127 1
gene 1 6 45 0.801078 0 30 0.801078 1
gene 1 7 41 4.58725 0 31 4.58725 1
gene 1 7 42 -1.91018 0 32 -1.91018 1
gene 1 7 43 1.34927 0 33 1.34927 1
gene 1 7 44 -2.4046 0 34 -2.4046 1
gene 1 7 45 -5 0 35 -5 1
gene 1 8 41 0.220874 0 36 0.220874 1
gene 1 8 42 -4.01045 0 37 -4.01045 1
gene 1 8 43 -0.947014 0 38 -0.947014 1
gene 1 8 44 -0.970205 0 39 -0.970205 1
gene 1 8 45 2.92908 0 40 2.92908 1
gene 1 9 41 1.74004 0 41 1.74004 1
gene 1 9 42 -2.70814 0 42 -2.70814 1
gene 1 9 43 -3.18738 0 43 -3.18738 1
gene 1 9 44 0.33564 0 44 0.33564 1
gene 1 9 45 2.09627 0 45 2.09627 1
gene 1 10 41 2.81536 0 46 2.81536 1
gene 1 10 42 -0.307852 0 47 -0.307852 1
gene 1 10 43 2.44039 0 48 2.44039 1
gene 1 10 44 2.94927 0 49 2.94927 1
gene 1 10 45 0.840934 0 50 0.840934 1
gene 1 11 41 2.76045 0 51 2.76045 1
gene 1 11 42 0.547985 0 52 0.547985 1
gene 1 11 43 2.26439 0 53 2.26439 1
gene 1 11 44 5 0 54 5 1
gene 1 11 45 3.27367 0 55 3.27367 1
gene 1 12 41 -3.88423 0 56 -3.88423 1
gene 1 12 42 -1.15094 0 57 -1.15094 1
gene 1 12 43 -1.0903 0 58 -1.0903 1
gene 1 12 44 0.45143 0 59 0.45143 1
gene 1 12 45 -0.527287 0 60 -0.527287 1
gene 1 13 41 -0.267919 0 61 -0.267919 1
gene 1 13 42 2.59647 0 62 2.59647 1
gene 1 13 43 0.708151 0 63 0.708151 1
gene 1 13 44 1.51516 0 64 1.51516 1
gene 1 13 45 -0.845813 0 65 -0.845813 1
gene 1 14 41 0.423287 0 66 0.423287 1
gene 1 14 42 -2.11321 0 67 -2.11321 1
gene 1 14 43 0.400989 0 68 0.400989 1
gene 1 14 44 0.0103685 0 69 0.0103685 1
gene 1 14 45 -4.19999 0 70 -4.19999 1
gene 1 15 41 2.52337 0 71 2.52337 1
gene 1 15 42 2.35668 0 72 2.35668 1
gene 1 15 43 -2.16868 0 73 -2.16868 1
gene 1 15 44 -2.97699 0 74 -2.97699 1
gene 1 15 45 -1.57453 0 75 -1.57453 1
gene 1 16 41 -0.125427 0 76 -0.125427 1
gene 1 16 42 -2.20266 0 77 -2.20266 1
gene 1 16 43 0.505346 0 78 0.505346 1
gene 1 16 44 1.97392 0 79 1.97392 1
gene 1 16 45 -1.52838 0 80 -1.52838 1
gene 1 17 41 -3.81794 0 81 -3.81794 1
gene 1 17 42 2.86369 0 82 2.86369 1
gene 1 17 43 4.01903 0 83 4.01903 1
gene 1 17 44 -2.01312 0 84 -2.01312 1
gene 1 17 45 1.4743 0 85 1.4743 1
gene 1 18 41 -3.54109 0 86 -3.54109 1
gene 1 18 42 3.96579 0 87 3.96579 1
gene 1 18 43 2.8634 0 88 2.8634 1
gene 1 18 44 2.98617 0 89 2.98617 1
gene 1 18 45 -0.0186567 0 90 -0.0186567 1
gene 1 19 41 -4.62691 0 91 -4.62691 1
gene 1 19 42 -0.101108 0 92 -0.101108 1
gene 1 19 43 1.95849 0 93 1.95849 1
gene 1 19 44 -3.9203 0 94 -3.9203 1
gene 1 19 45 1.61486 0 95 1.61486 1
gene 1 20 41 -0.25166 0 96 -0.25166 1
gene 1 20 42 0.410971 0 97 0.410971 1
gene 1 20 43 0.749606 0 98 0.749606 1
gene 1 20 44 -1.09799 0 99 -1.09799 1
gene 1 20 45 -5 0 100 -5 1
gene 1 21 41 -3.10862 0 101 -3.10862 1
gene 1 21 42 5 0 102 5 1
gene 1 21 43 -0.00605501 0 103 -0.00605501 1
gene 1 21 44 -2.19639 0 104 -2.19639 1
gene 1 21 45 -3.00826 0 105 -3.00826 1
gene 1 22 41 -4.30812 0 106 -4.30812 1
gene 1 22 42 -0.0861319 0 107 -0.0861319 1
gene 1 22 43 4.017 0 108 4.017 1
gene 1 22 44 -0.831693 0 109 -0.831693 1
gene 1 22 45 3.3134 0 110 3.3134 1
gene 1 23 41 0.0978127 0 111 0.0978127 1
gene 1 23 42 -4.00215 0 112 -4.00215 1
gene 1 23 43 -1.38696 0 113 -1.38696 1
gene 1 23 44 4.41333 0 114 4.41333 1
gene 1 23 45 1.31958 0 115 1.31958 1
gene 1 24 41 -3.1692 0 116 -3.1692 1
gene 1 24 42 -2.28108 0 117 -2.28108 1
gene 1 24 43 -0.164393 0 118 -0.164393 1
gene 1 24 44 -0.200324 0 119 -0.200324 1
gene 1 24 45 2.76154 0 120 2.76154 1
gene 1 25 41 -1.43973 0 121 -1.43973 1
gene 1 25 42 2.96237 0 122 2.96237 1
gene 1 25 43 -3.56645 0 123 -3.56645 1
gene 1 25 44 -0.534304 0 124 -0.534304 1
gene 1 25 45 -2.89311 0 125 -2.89311 1
gene 1 26 41 3.48628 0 126 3.48628 1
gene 1 26 42 -1.9505 0 127 -1.9505 1
gene 1 26 43 -1.86286 0 128 -1.86286 1
gene 1 26 44 -1.64657 0 129 -1.64657 1
gene 1 26 45 -4.74633 0 130 -4.74633 1
gene 1 27 41 -0.652446 0 131 -0.652446 1
gene 1 27 42 -3.24153 0 132 -3.24153 1
gene 1 27 43 -2.45774 0 133 -2.45774 1
gene 1 27 44 -1.94219 0 134 -1.94219 1
gene 1 27 45 -1.34425 0 135 -1.34425 1
gene 1 28 41 1.80894 0 136 1.80894 1
gene 1 28 42 -0.747013 0 137 -0.747013 1
gene 1 28 43 -4.28596 0 138 -4.28596 1
gene 1 28 44 -1.79526 0 139 -1.79526 1
gene 1 28 45 -0.801175 0 140 -0.801175 1
gene 1 29 41 0.472429 0 141 0.472429 1
gene 1 29 42 -0.69522 0 142 -0.69522 1
gene 1 29 43 -5 0 143 -5 1
gene 1 29 44 -1.77146 0 144 -1.77146 1
gene 1 29 45 4.31505 0 145 4.31505 1
gene 1 30 41 -0.738903 0 146 -0.738903 1
gene 1 30 42 0.0214455 0 147 0.0214455 1
gene 1 30 43 3.09398 0 148 3.09398 1
gene 1 30 44 1.23475 0 149 1.23475 1
gene 1 30 45 0.0289837 0 150 0.0289837 1
gene 1 31 41 2.16535 0 151 2.16535 1
gene 1 31 42 -2.84254 0 152 -2.84254 1
gene 1 31 43 -1.54975 0 153 -1.54975 1
gene 1 31 44 -1.16916 0 154 -1.16916 1
gene 1 31 45 -3.41623 0 155 -3.41623 1
gene 1 32 41 2.23429 0 156 2.23429 1
gene 1 32 42 1.26858 0 157 1.26858 1
gene 1 32 43 0.628918 0 158 0.628918 1
gene 1 32 44 0.794274 0 159 0.794274 1
gene 1 32 45 2.09415 0 160 2.09415 1
gene 1 33 41 -0.836837 0 161 -0.836837 1
gene 1 33 42 -0.694359 0 162 -0.694359 1
gene 1 33 43 2.99677 0 163 2.99677 1
gene 1 33 44 0.817291 0 164 0.817291 1
gene 1 33 45 -0.567579 0 165 -0.567579 1
gene 1 34 41 -1.81536 0 166 -1.81536 1
gene 1 34 42 1.60623 0 167 1.60623 1
gene 1 34 43 -0.597277 0 168 -0.597277 1
gene 1 34 44 1.43954 0 169 1.43954 1
gene 1 34 45 -0.925636 0 170 -0.925636 1
gene 1 35 41 1.23633 0 171 1.23633 1
gene 1 35 42 0.806019 0 172 0.806019 1
gene 1 35 43 0.0610437 0 173 0.0610437 1
gene 1 35 44 1.09958 0 174 1.09958 1
gene 1 35 45 0.877214 0 175 0.877214 1
gene 1 36 41 0.152493 0 176 0.152493 1
gene 1 36 42 -1.38346 0 177 -1.38346 1
gene 1 36 43 -0.892265 0 178 -0.892265 1
gene 1 36 44 -1.64826 0 179 -1.64826 1
gene 1 36 45 -0.463377 0 180 -0.463377 1
gene 1 37 41 -1.50291 0 181 -1.50291 1
gene 1 37 42 -0.649639 0 182 -0.649639 1
gene 1 37 43 -1.93729 0 183 -1.93729 1
gene 1 37 44 -0.091774 0 184 -0.091774 1
gene 1 37 45 -2.30853 0 185 -2.30853 1
gene 1 38 41 -0.576043 0 186 -0.576043 1
gene 1 38 42 2.24704 0 187 2.24704 1
gene 1 38 43 -0.0722889 0 188 -0.0722889 1
gene 1 38 44 -0.813732 0 189 -0.813732 1
gene 1 38 45 -1.57742 0 190 -1.57742 1
gene 1 39 41 0.88232 0 191 0.88232 1
gene 1 39 42 -0.767117 0 192 -0.767117 1
gene 1 39 43 -0.138603 0 193 -0.138603 1
gene 1 39 44 -0.24944 0 194 -0.24944 1
gene 1 39 45 -0.200431 0 195 -0.200431 1
gene 1 40 41 0.794726 0 196 0.794726 1
gene 1 40 42 -5 0 197 -5 1
gene 1 40 43 0.621702 0 198 0.621702 1
gene 1 40 44 -0.791696 0 199 -0.791696 1
gene 1 40 45 2.18259 0 200 2.18259 1
genomeend 0


