/* Organism #10 Fitness: 8493.530000 Time: 0 */
genomestart 10
trait 1 0.233623 0.291195 0.602973 0.158958 0.000000 0.000000 0.000000 0.000000 
node 1 1 1 1
node 2 1 1 1
node 3 1 1 1
node 4 1 1 1
node 5 1 1 1
node 6 1 1 1
node 7 1 1 1
node 8 1 1 1
node 9 1 1 1
node 10 1 1 1
node 11 1 1 1
node 12 1 1 1
node 13 1 1 1
node 14 1 1 1
node 15 1 1 1
node 16 1 1 1
node 17 1 1 1
node 18 1 1 1
node 19 1 1 1
node 20 1 1 1
node 21 1 1 1
node 22 1 1 1
node 23 1 1 1
node 24 1 1 1
node 25 1 1 1
node 26 1 1 1
node 27 1 1 1
node 28 1 1 1
node 29 1 1 1
node 30 1 1 1
node 31 1 1 1
node 32 1 1 1
node 33 1 1 1
node 34 1 1 1
node 35 1 1 1
node 36 1 1 1
node 37 1 1 1
node 38 1 1 1
node 39 1 1 1
node 40 1 1 3
node 41 1 0 2
node 42 1 0 2
node 43 1 0 2
node 44 1 0 2
node 45 1 0 2
gene 1 1 41 0.134351 0 1 0.134351 1
gene 1 1 42 -0.490157 0 2 -0.490157 1
gene 1 1 43 -2.68516 0 3 -2.68516 1
gene 1 1 44 2.49331 0 4 2.49331 1
gene 1 1 45 -3.51828 0 5 -3.51828 1
gene 1 2 41 -1.58064 0 6 -1.58064 1
gene 1 2 42 -0.676403 0 7 -0.676403 1
gene 1 2 43 -1.96554 0 8 -1.96554 1
gene 1 2 44 -0.635833 0 9 -0.635833 1
gene 1 2 45 -0.892825 0 10 -0.892825 1
gene 1 3 41 -1.65171 0 11 -1.65171 1
gene 1 3 42 -0.469294 0 12 -0.469294 1
gene 1 3 43 3.51594 0 13 3.51594 1
gene 1 3 44 -1.34926 0 14 -1.34926 1
gene 1 3 45 -1.1524 0 15 -1.1524 1
gene 1 4 41 2.06 0 16 2.06 1
gene 1 4 42 0.817886 0 17 0.817886 1
gene 1 4 43 2.33102 0 18 2.33102 1
gene 1 4 44 -1.65249 0 19 -1.65249 1
gene 1 4 45 -1.45589 0 20 -1.45589 1
gene 1 5 41 1.67455 0 21 1.67455 1
gene 1 5 42 0.0387982 0 22 0.0387982 1
gene 1 5 43 -1.64972 0 23 -1.64972 1
gene 1 5 44 -0.568273 0 24 -0.568273 1
gene 1 5 45 3.63823 0 25 3.63823 1
gene 1 6 41 3.09923 0 26 3.09923 1
gene 1 6 42 2.2426 0 27 2.2426 1
gene 1 6 43 -2.80632 0 28 -2.80632 1
gene 1 6 44 -0.80924 0 29 -0.80924 1
gene 1 6 45 -0.842509 0 30 -0.842509 1
gene 1 7 41 4.21959 0 31 4.21959 1
gene 1 7 42 1.12579 0 32 1.12579 1
gene 1 7 43 -2.6319 0 33 -2.6319 1
gene 1 7 44 0.318207 0 34 0.318207 1
gene 1 7 45 0.50318 0 35 0.50318 1
gene 1 8 41 0.834596 0 36 0.834596 1
gene 1 8 42 -0.617662 0 37 -0.617662 1
gene 1 8 43 -3.32555 0 38 -3.32555 1
gene 1 8 44 -2.9977 0 39 -2.9977 1
gene 1 8 45 0.899609 0 40 0.899609 1
gene 1 9 41 1.74917 0 41 1.74917 1
gene 1 9 42 -0.651373 0 42 -0.651373 1
gene 1 9 43 -2.16349 0 43 -2.16349 1
gene 1 9 44 -0.130904 0 44 -0.130904 1
gene 1 9 45 -1.45812 0 45 -1.45812 1
gene 1 10 41 2.24083 0 46 2.24083 1
gene 1 10 42 0.362425 0 47 0.362425 1
gene 1 10 43 1.10544 0 48 1.10544 1
gene 1 10 44 2.56031 0 49 2.56031 1
gene 1 10 45 -0.580827 0 50 -0.580827 1
gene 1 11 41 -1.56643 0 51 -1.56643 1
gene 1 11 42 1.63019 0 52 1.63019 1
gene 1 11 43 2.62339 0 53 2.62339 1
gene 1 11 44 -3.74614 0 54 -3.74614 1
gene 1 11 45 -0.755666 0 55 -0.755666 1
gene 1 12 41 -0.380736 0 56 -0.380736 1
gene 1 12 42 1.16599 0 57 1.16599 1
gene 1 12 43 1.40013 0 58 1.40013 1
gene 1 12 44 -0.386433 0 59 -0.386433 1
gene 1 12 45 3.05665 0 60 3.05665 1
gene 1 13 41 0.654996 0 61 0.654996 1
gene 1 13 42 0.326189 0 62 0.326189 1
gene 1 13 43 -3.20364 0 63 -3.20364 1
gene 1 13 44 0.688296 0 64 0.688296 1
gene 1 13 45 3.82464 0 65 3.82464 1
gene 1 14 41 -4.12121 0 66 -4.12121 1
gene 1 14 42 -2.63748 0 67 -2.63748 1
gene 1 14 43 1.16382 0 68 1.16382 1
gene 1 14 44 -2.32186 0 69 -2.32186 1
gene 1 14 45 1.07856 0 70 1.07856 1
gene 1 15 41 2.64946 0 71 2.64946 1
gene 1 15 42 2.60607 0 72 2.60607 1
gene 1 15 43 -0.266222 0 73 -0.266222 1
gene 1 15 44 0.798635 0 74 0.798635 1
gene 1 15 45 -0.473015 0 75 -0.473015 1
gene 1 16 41 -1.24586 0 76 -1.24586 1
gene 1 16 42 -1.26325 0 77 -1.26325 1
gene 1 16 43 -0.0644909 0 78 -0.0644909 1
gene 1 16 44 0.413512 0 79 0.413512 1
gene 1 16 45 2.25207 0 80 2.25207 1
gene 1 17 41 3.57876 0 81 3.57876 1
gene 1 17 42 -3.80196 0 82 -3.80196 1
gene 1 17 43 -1.80406 0 83 -1.80406 1
gene 1 17 44 -0.647606 0 84 -0.647606 1
gene 1 17 45 2.45207 0 85 2.45207 1
gene 1 18 41 1.93968 0 86 1.93968 1
gene 1 18 42 -2.65268 0 87 -2.65268 1
gene 1 18 43 -1.44206 0 88 -1.44206 1
gene 1 18 44 -2.82021 0 89 -2.82021 1
gene 1 18 45 -1.05251 0 90 -1.05251 1
gene 1 19 41 0.852002 0 91 0.852002 1
gene 1 19 42 -5 0 92 -5 1
gene 1 19 43 2.01178 0 93 2.01178 1
gene 1 19 44 -1.0824 0 94 -1.0824 1
gene 1 19 45 4.93691 0 95 4.93691 1
gene 1 20 41 2.05145 0 96 2.05145 1
gene 1 20 42 1.77219 0 97 1.77219 1
gene 1 20 43 0.746231 0 98 0.746231 1
gene 1 20 44 1.71892 0 99 1.71892 1
gene 1 20 45 -1.57362 0 100 -1.57362 1
gene 1 21 41 1.01611 0 101 1.01611 1
gene 1 21 42 -2.60676 0 102 -2.60676 1
gene 1 21 43 5 0 103 5 1
gene 1 21 44 2.39804 0 104 2.39804 1
gene 1 21 45 -3.70213 0 105 -3.70213 1
gene 1 22 41 2.68286 0 106 2.68286 1
gene 1 22 42 -0.166779 0 107 -0.166779 1
gene 1 22 43 -2.00022 0 108 -2.00022 1
gene 1 22 44 0.451182 0 109 0.451182 1
gene 1 22 45 -0.121396 0 110 -0.121396 1
gene 1 23 41 0.0993735 0 111 0.0993735 1
gene 1 23 42 0.706377 0 112 0.706377 1
gene 1 23 43 -1.13283 0 113 -1.13283 1
gene 1 23 44 -5 0 114 -5 1
gene 1 23 45 0.495328 0 115 0.495328 1
gene 1 24 41 -1.83752 0 116 -1.83752 1
gene 1 24 42 0.587926 0 117 0.587926 1
gene 1 24 43 -4.22527 0 118 -4.22527 1
gene 1 24 44 -0.952124 0 119 -0.952124 1
gene 1 24 45 4.13879 0 120 4.13879 1
gene 1 25 41 -3.02984 0 121 -3.02984 1
gene 1 25 42 1.34886 0 122 1.34886 1
gene 1 25 43 -1.70024 0 123 -1.70024 1
gene 1 25 44 3.06384 0 124 3.06384 1
gene 1 25 45 0.446369 0 125 0.446369 1
gene 1 26 41 0.517328 0 126 0.517328 1
gene 1 26 42 1.76176 0 127 1.76176 1
gene 1 26 43 -1.98597 0 128 -1.98597 1
gene 1 26 44 -1.28056 0 129 -1.28056 1
gene 1 26 45 4.14796 0 130 4.14796 1
gene 1 27 41 -1.70946 0 131 -1.70946 1
gene 1 27 42 -1.92535 0 132 -1.92535 1
gene 1 27 43 -0.0646865 0 133 -0.0646865 1
gene 1 27 44 0.43846 0 134 0.43846 1
gene 1 27 45 -3.25566 0 135 -3.25566 1
gene 1 28 41 3.08302 0 136 3.08302 1
gene 1 28 42 2.90141 0 137 2.90141 1
gene 1 28 43 1.45682 0 138 1.45682 1
gene 1 28 44 -1.91985 0 139 -1.91985 1
gene 1 28 45 -1.04564 0 140 -1.04564 1
gene 1 29 41 0.72584 0 141 0.72584 1
gene 1 29 42 -4.71459 0 142 -4.71459 1
gene 1 29 43 2.53717 0 143 2.53717 1
gene 1 29 44 -1.32309 0 144 -1.32309 1
gene 1 29 45 -0.442426 0 145 -0.442426 1
gene 1 30 41 -1.43746 0 146 -1.43746 1
gene 1 30 42 0.446455 0 147 0.446455 1
gene 1 30 43 -1.72546 0 148 -1.72546 1
gene 1 30 44 4.02424 0 149 4.02424 1
gene 1 30 45 -0.0840252 0 150 -0.0840252 1
gene 1 31 41 -0.421057 0 151 -0.421057 1
gene 1 31 42 0.354479 0 152 0.354479 1
gene 1 31 43 -0.501355 0 153 -0.501355 1
gene 1 31 44 0.0545532 0 154 0.0545532 1
gene 1 31 45 -1.3355 0 155 -1.3355 1
gene 1 32 41 -0.387401 0 156 -0.387401 1
gene 1 32 42 -0.446976 0 157 -0.446976 1
gene 1 32 43 1.08387 0 158 1.08387 1
gene 1 32 44 1.11459 0 159 1.11459 1
gene 1 32 45 0.7218 0 160 0.7218 1
gene 1 33 41 -1.08356 0 161 -1.08356 1
gene 1 33 42 1.62048 0 162 1.62048 1
gene 1 33 43 -0.752961 0 163 -0.752961 1
gene 1 33 44 2.39224 0 164 2.39224 1
gene 1 33 45 1.62649 0 165 1.62649 1
gene 1 34 41 -0.986888 0 166 -0.986888 1
gene 1 34 42 1.19248 0 167 1.19248 1
gene 1 34 43 -0.153328 0 168 -0.153328 1
gene 1 34 44 -0.0151973 0 169 -0.0151973 1
gene 1 34 45 0.870074 0 170 0.870074 1
gene 1 35 41 0.30276 0 171 0.30276 1
gene 1 35 42 -0.0842894 0 172 -0.0842894 1
gene 1 35 43 1.54641 0 173 1.54641 1
gene 1 35 44 0.0255402 0 174 0.0255402 1
gene 1 35 45 -0.630867 0 175 -0.630867 1
gene 1 36 41 0.0189792 0 176 0.0189792 1
gene 1 36 42 0.56838 0 177 0.56838 1
gene 1 36 43 -0.928253 0 178 -0.928253 1
gene 1 36 44 2.09597 0 179 2.09597 1
gene 1 36 45 0.743386 0 180 0.743386 1
gene 1 37 41 -0.450655 0 181 -0.450655 1
gene 1 37 42 -1.13372 0 182 -1.13372 1
gene 1 37 43 -2.47629 0 183 -2.47629 1
gene 1 37 44 0.927296 0 184 0.927296 1
gene 1 37 45 -0.1558 0 185 -0.1558 1
gene 1 38 41 -0.00544325 0 186 -0.00544325 1
gene 1 38 42 -0.325103 0 187 -0.325103 1
gene 1 38 43 -0.835576 0 188 -0.835576 1
gene 1 38 44 1.81203 0 189 1.81203 1
gene 1 38 45 0.0688365 0 190 0.0688365 1
gene 1 39 41 1.07724 0 191 1.07724 1
gene 1 39 42 0.466543 0 192 0.466543 1
gene 1 39 43 1.12499 0 193 1.12499 1
gene 1 39 44 -0.265061 0 194 -0.265061 1
gene 1 39 45 -2.0462 0 195 -2.0462 1
gene 1 40 41 -4.68354 0 196 -4.68354 1
gene 1 40 42 -0.0893284 0 197 -0.0893284 1
gene 1 40 43 -0.723729 0 198 -0.723729 1
gene 1 40 44 -0.095341 0 199 -0.095341 1
gene 1 40 45 0.262028 0 200 0.262028 1
genomeend 10


