/* Organism #7 Fitness: 8373.774000 Time: 0 */
genomestart 7
trait 1 0.000000 0.000000 0.512827 1.000000 0.000000 0.000000 0.000000 0.835085 
node 1 1 1 1
node 2 1 1 1
node 3 1 1 1
node 4 1 1 1
node 5 1 1 1
node 6 1 1 1
node 7 1 1 1
node 8 1 1 1
node 9 1 1 1
node 10 1 1 1
node 11 1 1 1
node 12 1 1 1
node 13 1 1 1
node 14 1 1 1
node 15 1 1 1
node 16 1 1 1
node 17 1 1 1
node 18 1 1 1
node 19 1 1 1
node 20 1 1 1
node 21 1 1 1
node 22 1 1 1
node 23 1 1 1
node 24 1 1 1
node 25 1 1 1
node 26 1 1 1
node 27 1 1 1
node 28 1 1 1
node 29 1 1 1
node 30 1 1 1
node 31 1 1 1
node 32 1 1 1
node 33 1 1 1
node 34 1 1 1
node 35 1 1 1
node 36 1 1 1
node 37 1 1 1
node 38 1 1 1
node 39 1 1 1
node 40 1 1 3
node 41 1 0 2
node 42 1 0 2
node 43 1 0 2
node 44 1 0 2
node 45 1 0 2
gene 1 1 41 -2.44897 0 1 -2.44897 1
gene 1 1 42 2.03428 0 2 2.03428 1
gene 1 1 43 -1.94806 0 3 -1.94806 1
gene 1 1 44 0.834474 0 4 0.834474 1
gene 1 1 45 0.374955 0 5 0.374955 1
gene 1 2 41 -0.892538 0 6 -0.892538 1
gene 1 2 42 0.0816209 0 7 0.0816209 1
gene 1 2 43 0.120453 0 8 0.120453 1
gene 1 2 44 -2.18022 0 9 -2.18022 1
gene 1 2 45 1.71562 0 10 1.71562 1
gene 1 3 41 -1.73826 0 11 -1.73826 1
gene 1 3 42 4.99151 0 12 4.99151 1
gene 1 3 43 0.283136 0 13 0.283136 1
gene 1 3 44 0.612786 0 14 0.612786 1
gene 1 3 45 0.585748 0 15 0.585748 1
gene 1 4 41 1.91144 0 16 1.91144 1
gene 1 4 42 -0.471618 0 17 -0.471618 1
gene 1 4 43 -0.965301 0 18 -0.965301 1
gene 1 4 44 -2.92391 0 19 -2.92391 1
gene 1 4 45 1.12042 0 20 1.12042 1
gene 1 5 41 2.834 0 21 2.834 1
gene 1 5 42 -0.995784 0 22 -0.995784 1
gene 1 5 43 -0.223738 0 23 -0.223738 1
gene 1 5 44 -1.70823 0 24 -1.70823 1
gene 1 5 45 0.290989 0 25 0.290989 1
gene 1 6 41 -0.017372 0 26 -0.017372 1
gene 1 6 42 1.65682 0 27 1.65682 1
gene 1 6 43 -0.403794 0 28 -0.403794 1
gene 1 6 44 -0.293775 0 29 -0.293775 1
gene 1 6 45 5 0 30 5 1
gene 1 7 41 3.23556 0 31 3.23556 1
gene 1 7 42 -1.46337 0 32 -1.46337 1
gene 1 7 43 -0.946736 0 33 -0.946736 1
gene 1 7 44 1.91976 0 34 1.91976 1
gene 1 7 45 -0.299279 0 35 -0.299279 1
gene 1 8 41 1.63286 0 36 1.63286 1
gene 1 8 42 -0.323541 0 37 -0.323541 1
gene 1 8 43 3.50535 0 38 3.50535 1
gene 1 8 44 -0.640314 0 39 -0.640314 1
gene 1 8 45 0.272501 0 40 0.272501 1
gene 1 9 41 -1.33408 0 41 -1.33408 1
gene 1 9 42 -3.37538 0 42 -3.37538 1
gene 1 9 43 1.23539 0 43 1.23539 1
gene 1 9 44 -0.798443 0 44 -0.798443 1
gene 1 9 45 -1.64015 0 45 -1.64015 1
gene 1 10 41 -0.396211 0 46 -0.396211 1
gene 1 10 42 0.239568 0 47 0.239568 1
gene 1 10 43 0.261662 0 48 0.261662 1
gene 1 10 44 -0.312807 0 49 -0.312807 1
gene 1 10 45 -0.516129 0 50 -0.516129 1
gene 1 11 41 -2.31794 0 51 -2.31794 1
gene 1 11 42 0.888563 0 52 0.888563 1
gene 1 11 43 -0.292325 0 53 -0.292325 1
gene 1 11 44 -0.970342 0 54 -0.970342 1
gene 1 11 45 5 0 55 5 1
gene 1 12 41 1.15562 0 56 1.15562 1
gene 1 12 42 0.421855 0 57 0.421855 1
gene 1 12 43 -0.960997 0 58 -0.960997 1
gene 1 12 44 -0.536429 0 59 -0.536429 1
gene 1 12 45 0.636834 0 60 0.636834 1
gene 1 13 41 -0.168714 0 61 -0.168714 1
gene 1 13 42 -0.75376 0 62 -0.75376 1
gene 1 13 43 0.593215 0 63 0.593215 1
gene 1 13 44 0.529318 0 64 0.529318 1
gene 1 13 45 -0.133644 0 65 -0.133644 1
gene 1 14 41 0.625087 0 66 0.625087 1
gene 1 14 42 -0.897184 0 67 -0.897184 1
gene 1 14 43 3.28065 0 68 3.28065 1
gene 1 14 44 -0.0327018 0 69 -0.0327018 1
gene 1 14 45 2.25811 0 70 2.25811 1
gene 1 15 41 -3.37494 0 71 -3.37494 1
gene 1 15 42 -1.31836 0 72 -1.31836 1
gene 1 15 43 0.08159 0 73 0.08159 1
gene 1 15 44 2.71743 0 74 2.71743 1
gene 1 15 45 2.51913 0 75 2.51913 1
gene 1 16 41 3.59163 0 76 3.59163 1
gene 1 16 42 4.41302 0 77 4.41302 1
gene 1 16 43 0.483866 0 78 0.483866 1
gene 1 16 44 0.927336 0 79 0.927336 1
gene 1 16 45 0.259617 0 80 0.259617 1
gene 1 17 41 3.51243 0 81 3.51243 1
gene 1 17 42 -4.2187 0 82 -4.2187 1
gene 1 17 43 1.52263 0 83 1.52263 1
gene 1 17 44 -5 0 84 -5 1
gene 1 17 45 0.944924 0 85 0.944924 1
gene 1 18 41 2.27753 0 86 2.27753 1
gene 1 18 42 -2.53637 0 87 -2.53637 1
gene 1 18 43 -0.616703 0 88 -0.616703 1
gene 1 18 44 -4.53838 0 89 -4.53838 1
gene 1 18 45 -0.536909 0 90 -0.536909 1
gene 1 19 41 -0.40754 0 91 -0.40754 1
gene 1 19 42 -4.01065 0 92 -4.01065 1
gene 1 19 43 1.45333e-06 0 93 1.45333e-06 1
gene 1 19 44 0.664688 0 94 0.664688 1
gene 1 19 45 0.532744 0 95 0.532744 1
gene 1 20 41 0.0841669 0 96 0.0841669 1
gene 1 20 42 0.670242 0 97 0.670242 1
gene 1 20 43 -1.06752 0 98 -1.06752 1
gene 1 20 44 0.770651 0 99 0.770651 1
gene 1 20 45 -0.189579 0 100 -0.189579 1
gene 1 21 41 -0.532647 0 101 -0.532647 1
gene 1 21 42 -0.448776 0 102 -0.448776 1
gene 1 21 43 -1.01047 0 103 -1.01047 1
gene 1 21 44 -2.27373 0 104 -2.27373 1
gene 1 21 45 0.207225 0 105 0.207225 1
gene 1 22 41 0.168906 0 106 0.168906 1
gene 1 22 42 3.40366 0 107 3.40366 1
gene 1 22 43 2.27603 0 108 2.27603 1
gene 1 22 44 0.35445 0 109 0.35445 1
gene 1 22 45 -2.75 0 110 -2.75 1
gene 1 23 41 0.251787 0 111 0.251787 1
gene 1 23 42 -0.0329731 0 112 -0.0329731 1
gene 1 23 43 -1.1676 0 113 -1.1676 1
gene 1 23 44 4.16697 0 114 4.16697 1
gene 1 23 45 0.0391098 0 115 0.0391098 1
gene 1 24 41 -1.9521 0 116 -1.9521 1
gene 1 24 42 -0.429908 0 117 -0.429908 1
gene 1 24 43 1.28714 0 118 1.28714 1
gene 1 24 44 0.683582 0 119 0.683582 1
gene 1 24 45 -2.2704 0 120 -2.2704 1
gene 1 25 41 -1.83004 0 121 -1.83004 1
gene 1 25 42 -1.36858 0 122 -1.36858 1
gene 1 25 43 -3.56265 0 123 -3.56265 1
gene 1 25 44 -0.766564 0 124 -0.766564 1
gene 1 25 45 0.329013 0 125 0.329013 1
gene 1 26 41 -0.777084 0 126 -0.777084 1
gene 1 26 42 0.266741 0 127 0.266741 1
gene 1 26 43 -0.0573889 0 128 -0.0573889 1
gene 1 26 44 0.466891 0 129 0.466891 1
gene 1 26 45 1.10229 0 130 1.10229 1
gene 1 27 41 0.487333 0 131 0.487333 1
gene 1 27 42 -3.52061 0 132 -3.52061 1
gene 1 27 43 0.0737726 0 133 0.0737726 1
gene 1 27 44 -1.8581 0 134 -1.8581 1
gene 1 27 45 3.39271 0 135 3.39271 1
gene 1 28 41 -3.30517 0 136 -3.30517 1
gene 1 28 42 0.300688 0 137 0.300688 1
gene 1 28 43 0.620332 0 138 0.620332 1
gene 1 28 44 -0.355167 0 139 -0.355167 1
gene 1 28 45 3.0033 0 140 3.0033 1
gene 1 29 41 3.05377 0 141 3.05377 1
gene 1 29 42 -2.18518 0 142 -2.18518 1
gene 1 29 43 -0.578218 0 143 -0.578218 1
gene 1 29 44 1.14816 0 144 1.14816 1
gene 1 29 45 -0.481876 0 145 -0.481876 1
gene 1 30 41 0.424909 0 146 0.424909 1
gene 1 30 42 0.25877 0 147 0.25877 1
gene 1 30 43 2.07275 0 148 2.07275 1
gene 1 30 44 0.404205 0 149 0.404205 1
gene 1 30 45 -3.94257 0 150 -3.94257 1
gene 1 31 41 0.0720886 0 151 0.0720886 1
gene 1 31 42 0.256755 0 152 0.256755 1
gene 1 31 43 0.14396 0 153 0.14396 1
gene 1 31 44 0.0880711 0 154 0.0880711 1
gene 1 31 45 0.640807 0 155 0.640807 1
gene 1 32 41 -0.330497 0 156 -0.330497 1
gene 1 32 42 0.449001 0 157 0.449001 1
gene 1 32 43 0.848553 0 158 0.848553 1
gene 1 32 44 0.921167 0 159 0.921167 1
gene 1 32 45 -1.14746 0 160 -1.14746 1
gene 1 33 41 -0.307078 0 161 -0.307078 1
gene 1 33 42 -0.858146 0 162 -0.858146 1
gene 1 33 43 -0.202778 0 163 -0.202778 1
gene 1 33 44 0.89437 0 164 0.89437 1
gene 1 33 45 0.161587 0 165 0.161587 1
gene 1 34 41 -1.84864 0 166 -1.84864 1
gene 1 34 42 0.467828 0 167 0.467828 1
gene 1 34 43 2.10056 0 168 2.10056 1
gene 1 34 44 -0.518238 0 169 -0.518238 1
gene 1 34 45 -0.601964 0 170 -0.601964 1
gene 1 35 41 0.0807132 0 171 0.0807132 1
gene 1 35 42 0.194451 0 172 0.194451 1
gene 1 35 43 0.560984 0 173 0.560984 1
gene 1 35 44 -1.11521 0 174 -1.11521 1
gene 1 35 45 -1.29166 0 175 -1.29166 1
gene 1 36 41 -0.739944 0 176 -0.739944 1
gene 1 36 42 1.53937 0 177 1.53937 1
gene 1 36 43 0.255617 0 178 0.255617 1
gene 1 36 44 -0.61811 0 179 -0.61811 1
gene 1 36 45 -0.698047 0 180 -0.698047 1
gene 1 37 41 1.64873 0 181 1.64873 1
gene 1 37 42 2.26105 0 182 2.26105 1
gene 1 37 43 0.0193652 0 183 0.0193652 1
gene 1 37 44 0.755335 0 184 0.755335 1
gene 1 37 45 -3.04309 0 185 -3.04309 1
gene 1 38 41 1.51244 0 186 1.51244 1
gene 1 38 42 0.450135 0 187 0.450135 1
gene 1 38 43 1.2261 0 188 1.2261 1
gene 1 38 44 -0.700889 0 189 -0.700889 1
gene 1 38 45 0.736973 0 190 0.736973 1
gene 1 39 41 -0.258436 0 191 -0.258436 1
gene 1 39 42 0.864832 0 192 0.864832 1
gene 1 39 43 0.798796 0 193 0.798796 1
gene 1 39 44 -0.486552 0 194 -0.486552 1
gene 1 39 45 -0.497887 0 195 -0.497887 1
gene 1 40 41 -4.56189 0 196 -4.56189 1
gene 1 40 42 1.48733 0 197 1.48733 1
gene 1 40 43 0.335421 0 198 0.335421 1
gene 1 40 44 2.09757 0 199 2.09757 1
gene 1 40 45 -0.0378988 0 200 -0.0378988 1
genomeend 7


