/* Organism #1 Fitness: 11913.400000 Time: 0 */
genomestart 1
trait 1 0.000000 0.675195 0.411540 0.000000 0.894627 0.000000 0.000000 0.922965 
node 1 1 1 1
node 2 1 1 1
node 3 1 1 1
node 4 1 1 1
node 5 1 1 1
node 6 1 1 1
node 7 1 1 1
node 8 1 1 1
node 9 1 1 1
node 10 1 1 1
node 11 1 1 1
node 12 1 1 1
node 13 1 1 1
node 14 1 1 1
node 15 1 1 1
node 16 1 1 1
node 17 1 1 1
node 18 1 1 1
node 19 1 1 1
node 20 1 1 1
node 21 1 1 1
node 22 1 1 1
node 23 1 1 1
node 24 1 1 1
node 25 1 1 1
node 26 1 1 1
node 27 1 1 1
node 28 1 1 1
node 29 1 1 1
node 30 1 1 3
node 31 1 0 2
node 32 1 0 2
node 33 1 0 2
gene 1 1 31 -3.79365 0 1 -3.79365 1
gene 1 1 32 2.26638 0 2 2.26638 1
gene 1 1 33 -0.523526 0 3 -0.523526 1
gene 1 2 31 -2.06412 0 4 -2.06412 1
gene 1 2 32 2.16934 0 5 2.16934 1
gene 1 2 33 2.65624 0 6 2.65624 1
gene 1 3 31 -0.771253 0 7 -0.771253 1
gene 1 3 32 1.63796 0 8 1.63796 1
gene 1 3 33 -2.60211 0 9 -2.60211 1
gene 1 4 31 -0.518094 0 10 -0.518094 1
gene 1 4 32 1.37018 0 11 1.37018 1
gene 1 4 33 -0.0274924 0 12 -0.0274924 1
gene 1 5 31 -1.97537 0 13 -1.97537 1
gene 1 5 32 0.934318 0 14 0.934318 1
gene 1 5 33 2.9174 0 15 2.9174 1
gene 1 6 31 -2.33995 0 16 -2.33995 1
gene 1 6 32 5 0 17 5 1
gene 1 6 33 -1.65969 0 18 -1.65969 1
gene 1 7 31 0.521015 0 19 0.521015 1
gene 1 7 32 -0.901087 0 20 -0.901087 1
gene 1 7 33 -0.851852 0 21 -0.851852 1
gene 1 8 31 -1.00526 0 22 -1.00526 1
gene 1 8 32 2.10935 0 23 2.10935 1
gene 1 8 33 1.37645 0 24 1.37645 1
gene 1 9 31 4.24374 0 25 4.24374 1
gene 1 9 32 1.94254 0 26 1.94254 1
gene 1 9 33 1.94766 0 27 1.94766 1
gene 1 10 31 1.72237 0 28 1.72237 1
gene 1 10 32 4.01944 0 29 4.01944 1
gene 1 10 33 -4.35179 0 30 -4.35179 1
gene 1 11 31 -4.08997 0 31 -4.08997 1
gene 1 11 32 4.1436 0 32 4.1436 1
gene 1 11 33 2.88581 0 33 2.88581 1
gene 1 12 31 -5 0 34 -5 1
gene 1 12 32 -4.3799 0 35 -4.3799 1
gene 1 12 33 -3.99226 0 36 -3.99226 1
gene 1 13 31 -3.36858 0 37 -3.36858 1
gene 1 13 32 0.291841 0 38 0.291841 1
gene 1 13 33 0.548616 0 39 0.548616 1
gene 1 14 31 1.92328 0 40 1.92328 1
gene 1 14 32 -2.37694 0 41 -2.37694 1
gene 1 14 33 5 0 42 5 1
gene 1 15 31 3.32354 0 43 3.32354 1
gene 1 15 32 -0.1071 0 44 -0.1071 1
gene 1 15 33 -1.62728 0 45 -1.62728 1
gene 1 16 31 5 0 46 5 1
gene 1 16 32 -0.428277 0 47 -0.428277 1
gene 1 16 33 -1.16708 0 48 -1.16708 1
gene 1 17 31 0.0221425 0 49 0.0221425 1
gene 1 17 32 3.69037 0 50 3.69037 1
gene 1 17 33 3.29702 0 51 3.29702 1
gene 1 18 31 0.910634 0 52 0.910634 1
gene 1 18 32 3.04395 0 53 3.04395 1
gene 1 18 33 1.15363 0 54 1.15363 1
gene 1 19 31 -0.0389574 0 55 -0.0389574 1
gene 1 19 32 -0.302993 0 56 -0.302993 1
gene 1 19 33 -0.233683 0 57 -0.233683 1
gene 1 20 31 0.623575 0 58 0.623575 1
gene 1 20 32 -2.59797 0 59 -2.59797 1
gene 1 20 33 0.592738 0 60 0.592738 1
gene 1 21 31 -1.48979 0 61 -1.48979 1
gene 1 21 32 -1.61856 0 62 -1.61856 1
gene 1 21 33 0.632827 0 63 0.632827 1
gene 1 22 31 0.0238841 0 64 0.0238841 1
gene 1 22 32 -1.16363 0 65 -1.16363 1
gene 1 22 33 -3.23927 0 66 -3.23927 1
gene 1 23 31 -0.591827 0 67 -0.591827 1
gene 1 23 32 0.660307 0 68 0.660307 1
gene 1 23 33 2.85508 0 69 2.85508 1
gene 1 24 31 0.776385 0 70 0.776385 1
gene 1 24 32 1.98257 0 71 1.98257 1
gene 1 24 33 3.50653 0 72 3.50653 1
gene 1 25 31 0.222143 0 73 0.222143 1
gene 1 25 32 2.13704 0 74 2.13704 1
gene 1 25 33 0.203351 0 75 0.203351 1
gene 1 26 31 -2.8244 0 76 -2.8244 1
gene 1 26 32 -0.752282 0 77 -0.752282 1
gene 1 26 33 -1.37863 0 78 -1.37863 1
gene 1 27 31 -0.874804 0 79 -0.874804 1
gene 1 27 32 -2.41769 0 80 -2.41769 1
gene 1 27 33 1.05509 0 81 1.05509 1
gene 1 28 31 -0.258813 0 82 -0.258813 1
gene 1 28 32 0.221525 0 83 0.221525 1
gene 1 28 33 -1.11727 0 84 -1.11727 1
gene 1 29 31 1.22009 0 85 1.22009 1
gene 1 29 32 -0.766956 0 86 -0.766956 1
gene 1 29 33 -0.113181 0 87 -0.113181 1
gene 1 30 31 0.107977 0 88 0.107977 1
gene 1 30 32 0.835966 0 89 0.835966 1
gene 1 30 33 -0.5026 0 90 -0.5026 1
genomeend 1


