/* Organism #1 Fitness: 11295.354000 Time: 0 */
genomestart 1
trait 1 0.000000 0.675195 0.411540 0.000000 0.894627 0.000000 0.000000 0.922965 
node 1 1 1 1
node 2 1 1 1
node 3 1 1 1
node 4 1 1 1
node 5 1 1 1
node 6 1 1 1
node 7 1 1 1
node 8 1 1 1
node 9 1 1 1
node 10 1 1 1
node 11 1 1 1
node 12 1 1 1
node 13 1 1 1
node 14 1 1 1
node 15 1 1 1
node 16 1 1 1
node 17 1 1 1
node 18 1 1 1
node 19 1 1 1
node 20 1 1 1
node 21 1 1 1
node 22 1 1 1
node 23 1 1 1
node 24 1 1 1
node 25 1 1 1
node 26 1 1 1
node 27 1 1 1
node 28 1 1 1
node 29 1 1 1
node 30 1 1 3
node 31 1 0 2
node 32 1 0 2
node 33 1 0 2
gene 1 1 31 -2.70699 0 1 -2.70699 1
gene 1 1 32 3.67271 0 2 3.67271 1
gene 1 1 33 -1.32688 0 3 -1.32688 1
gene 1 2 31 -1.61981 0 4 -1.61981 1
gene 1 2 32 3.29472 0 5 3.29472 1
gene 1 2 33 0.67113 0 6 0.67113 1
gene 1 3 31 0.766293 0 7 0.766293 1
gene 1 3 32 2.67254 0 8 2.67254 1
gene 1 3 33 -1.11082 0 9 -1.11082 1
gene 1 4 31 -1.08034 0 10 -1.08034 1
gene 1 4 32 0.611273 0 11 0.611273 1
gene 1 4 33 0.174735 0 12 0.174735 1
gene 1 5 31 -0.601478 0 13 -0.601478 1
gene 1 5 32 2.19768 0 14 2.19768 1
gene 1 5 33 2.26788 0 15 2.26788 1
gene 1 6 31 -1.99966 0 16 -1.99966 1
gene 1 6 32 4.75404 0 17 4.75404 1
gene 1 6 33 -1.97529 0 18 -1.97529 1
gene 1 7 31 1.79693 0 19 1.79693 1
gene 1 7 32 -0.188795 0 20 -0.188795 1
gene 1 7 33 -1.75073 0 21 -1.75073 1
gene 1 8 31 -2.63838 0 22 -2.63838 1
gene 1 8 32 2.85426 0 23 2.85426 1
gene 1 8 33 1.7131 0 24 1.7131 1
gene 1 9 31 4.69369 0 25 4.69369 1
gene 1 9 32 1.95289 0 26 1.95289 1
gene 1 9 33 3.51785 0 27 3.51785 1
gene 1 10 31 0.217518 0 28 0.217518 1
gene 1 10 32 5 0 29 5 1
gene 1 10 33 -1.94634 0 30 -1.94634 1
gene 1 11 31 -3.42102 0 31 -3.42102 1
gene 1 11 32 4.41656 0 32 4.41656 1
gene 1 11 33 1.23326 0 33 1.23326 1
gene 1 12 31 -3.8949 0 34 -3.8949 1
gene 1 12 32 -4.52251 0 35 -4.52251 1
gene 1 12 33 -3.11727 0 36 -3.11727 1
gene 1 13 31 -2.3653 0 37 -2.3653 1
gene 1 13 32 -0.776509 0 38 -0.776509 1
gene 1 13 33 0.0622821 0 39 0.0622821 1
gene 1 14 31 0.430731 0 40 0.430731 1
gene 1 14 32 -2.86719 0 41 -2.86719 1
gene 1 14 33 5 0 42 5 1
gene 1 15 31 1.42626 0 43 1.42626 1
gene 1 15 32 -1.68725 0 44 -1.68725 1
gene 1 15 33 -2.42395 0 45 -2.42395 1
gene 1 16 31 4.50047 0 46 4.50047 1
gene 1 16 32 -1.11803 0 47 -1.11803 1
gene 1 16 33 -2.2334 0 48 -2.2334 1
gene 1 17 31 1.50669 0 49 1.50669 1
gene 1 17 32 2.67529 0 50 2.67529 1
gene 1 17 33 2.92025 0 51 2.92025 1
gene 1 18 31 1.15864 0 52 1.15864 1
gene 1 18 32 2.49304 0 53 2.49304 1
gene 1 18 33 0.387544 0 54 0.387544 1
gene 1 19 31 0.861218 0 55 0.861218 1
gene 1 19 32 -0.544291 0 56 -0.544291 1
gene 1 19 33 -0.544555 0 57 -0.544555 1
gene 1 20 31 1.06277 0 58 1.06277 1
gene 1 20 32 -3.24089 0 59 -3.24089 1
gene 1 20 33 -0.364371 0 60 -0.364371 1
gene 1 21 31 -0.548172 0 61 -0.548172 1
gene 1 21 32 0.359691 0 62 0.359691 1
gene 1 21 33 -1.09933 0 63 -1.09933 1
gene 1 22 31 0.580483 0 64 0.580483 1
gene 1 22 32 0.285394 0 65 0.285394 1
gene 1 22 33 -3.30244 0 66 -3.30244 1
gene 1 23 31 -1.71132 0 67 -1.71132 1
gene 1 23 32 1.11122 0 68 1.11122 1
gene 1 23 33 2.55727 0 69 2.55727 1
gene 1 24 31 2.54149 0 70 2.54149 1
gene 1 24 32 2.91927 0 71 2.91927 1
gene 1 24 33 3.48453 0 72 3.48453 1
gene 1 25 31 -1.7825 0 73 -1.7825 1
gene 1 25 32 2.74314 0 74 2.74314 1
gene 1 25 33 -0.381717 0 75 -0.381717 1
gene 1 26 31 -2.68437 0 76 -2.68437 1
gene 1 26 32 -0.805785 0 77 -0.805785 1
gene 1 26 33 -0.990761 0 78 -0.990761 1
gene 1 27 31 0.102608 0 79 0.102608 1
gene 1 27 32 -2.80193 0 80 -2.80193 1
gene 1 27 33 1.48815 0 81 1.48815 1
gene 1 28 31 0.387228 0 82 0.387228 1
gene 1 28 32 -0.70524 0 83 -0.70524 1
gene 1 28 33 -0.716064 0 84 -0.716064 1
gene 1 29 31 -0.57614 0 85 -0.57614 1
gene 1 29 32 0.470662 0 86 0.470662 1
gene 1 29 33 0.0779918 0 87 0.0779918 1
gene 1 30 31 -0.277695 0 88 -0.277695 1
gene 1 30 32 -0.118553 0 89 -0.118553 1
gene 1 30 33 -0.121204 0 90 -0.121204 1
genomeend 1


