/* Organism #12 Fitness: 10793.100000 Time: 0 */
genomestart 12
trait 1 0.100000 0.000000 0.000000 0.000000 0.000000 0.431767 0.000000 0.922965 
node 1 1 1 1
node 2 1 1 1
node 3 1 1 1
node 4 1 1 1
node 5 1 1 1
node 6 1 1 1
node 7 1 1 1
node 8 1 1 1
node 9 1 1 1
node 10 1 1 1
node 11 1 1 1
node 12 1 1 1
node 13 1 1 1
node 14 1 1 1
node 15 1 1 1
node 16 1 1 1
node 17 1 1 1
node 18 1 1 1
node 19 1 1 1
node 20 1 1 1
node 21 1 1 1
node 22 1 1 1
node 23 1 1 1
node 24 1 1 1
node 25 1 1 1
node 26 1 1 1
node 27 1 1 1
node 28 1 1 1
node 29 1 1 1
node 30 1 1 3
node 31 1 0 2
node 32 1 0 2
node 33 1 0 2
gene 1 1 31 0.649627 0 1 0.649627 1
gene 1 1 32 2.3569 0 2 2.3569 1
gene 1 1 33 -0.531429 0 3 -0.531429 1
gene 1 2 31 -1.02888 0 4 -1.02888 1
gene 1 2 32 0.272801 0 5 0.272801 1
gene 1 2 33 0.595986 0 6 0.595986 1
gene 1 3 31 2.75897 0 7 2.75897 1
gene 1 3 32 3.71606 0 8 3.71606 1
gene 1 3 33 0.895343 0 9 0.895343 1
gene 1 4 31 -0.121192 0 10 -0.121192 1
gene 1 4 32 -0.167863 0 11 -0.167863 1
gene 1 4 33 -3.81693 0 12 -3.81693 1
gene 1 5 31 1.45053 0 13 1.45053 1
gene 1 5 32 -2.22046 0 14 -2.22046 1
gene 1 5 33 -0.6472 0 15 -0.6472 1
gene 1 6 31 2.31258 0 16 2.31258 1
gene 1 6 32 5 0 17 5 1
gene 1 6 33 -5 0 18 -5 1
gene 1 7 31 5 0 19 5 1
gene 1 7 32 -0.481972 0 20 -0.481972 1
gene 1 7 33 1.54845 0 21 1.54845 1
gene 1 8 31 0.986668 0 22 0.986668 1
gene 1 8 32 4.07349 0 23 4.07349 1
gene 1 8 33 1.17828 0 24 1.17828 1
gene 1 9 31 2.86805 0 25 2.86805 1
gene 1 9 32 -0.0621218 0 26 -0.0621218 1
gene 1 9 33 -0.808186 0 27 -0.808186 1
gene 1 10 31 0.574624 0 28 0.574624 1
gene 1 10 32 -1.93042 0 29 -1.93042 1
gene 1 10 33 -0.0807901 0 30 -0.0807901 1
gene 1 11 31 -1.01675 0 31 -1.01675 1
gene 1 11 32 -0.531229 0 32 -0.531229 1
gene 1 11 33 -0.850686 0 33 -0.850686 1
gene 1 12 31 -3.9193 0 34 -3.9193 1
gene 1 12 32 -3.18827 0 35 -3.18827 1
gene 1 12 33 -0.194773 0 36 -0.194773 1
gene 1 13 31 -0.317909 0 37 -0.317909 1
gene 1 13 32 0.947284 0 38 0.947284 1
gene 1 13 33 4.71359 0 39 4.71359 1
gene 1 14 31 0.994129 0 40 0.994129 1
gene 1 14 32 0.683694 0 41 0.683694 1
gene 1 14 33 2.85948 0 42 2.85948 1
gene 1 15 31 2.59574 0 43 2.59574 1
gene 1 15 32 -1.64818 0 44 -1.64818 1
gene 1 15 33 0.476212 0 45 0.476212 1
gene 1 16 31 4.95016 0 46 4.95016 1
gene 1 16 32 -5 0 47 -5 1
gene 1 16 33 1.38131 0 48 1.38131 1
gene 1 17 31 4.34689 0 49 4.34689 1
gene 1 17 32 -0.514645 0 50 -0.514645 1
gene 1 17 33 3.77855 0 51 3.77855 1
gene 1 18 31 -0.0930304 0 52 -0.0930304 1
gene 1 18 32 0.934924 0 53 0.934924 1
gene 1 18 33 3.78621 0 54 3.78621 1
gene 1 19 31 -0.0889345 0 55 -0.0889345 1
gene 1 19 32 5 0 56 5 1
gene 1 19 33 1.80411 0 57 1.80411 1
gene 1 20 31 3.10176 0 58 3.10176 1
gene 1 20 32 -0.238958 0 59 -0.238958 1
gene 1 20 33 -2.29241 0 60 -2.29241 1
gene 1 21 31 1.11099 0 61 1.11099 1
gene 1 21 32 -0.603316 0 62 -0.603316 1
gene 1 21 33 -1.04157 0 63 -1.04157 1
gene 1 22 31 -2.97916 0 64 -2.97916 1
gene 1 22 32 3.09096 0 65 3.09096 1
gene 1 22 33 -1.28553 0 66 -1.28553 1
gene 1 23 31 -1.92948 0 67 -1.92948 1
gene 1 23 32 -0.208363 0 68 -0.208363 1
gene 1 23 33 -2.02792 0 69 -2.02792 1
gene 1 24 31 -1.25698 0 70 -1.25698 1
gene 1 24 32 1.24416 0 71 1.24416 1
gene 1 24 33 2.57898 0 72 2.57898 1
gene 1 25 31 -3.35053 0 73 -3.35053 1
gene 1 25 32 0.0381424 0 74 0.0381424 1
gene 1 25 33 0.157199 0 75 0.157199 1
gene 1 26 31 -0.435592 0 76 -0.435592 1
gene 1 26 32 -0.912415 0 77 -0.912415 1
gene 1 26 33 -0.509848 0 78 -0.509848 1
gene 1 27 31 0.021992 0 79 0.021992 1
gene 1 27 32 0.00948194 0 80 0.00948194 1
gene 1 27 33 1.05563 0 81 1.05563 1
gene 1 28 31 0.277451 0 82 0.277451 1
gene 1 28 32 -0.698754 0 83 -0.698754 1
gene 1 28 33 -0.234789 0 84 -0.234789 1
gene 1 29 31 -0.00226597 0 85 -0.00226597 1
gene 1 29 32 0.47481 0 86 0.47481 1
gene 1 29 33 0.610897 0 87 0.610897 1
gene 1 30 31 -0.554163 0 88 -0.554163 1
gene 1 30 32 -0.000813455 0 89 -0.000813455 1
gene 1 30 33 -0.873212 0 90 -0.873212 1
genomeend 12


