/* Organism #0 Fitness: 10033.922000 Time: 0 */
genomestart 0
trait 1 0.800134 0.000000 0.000000 0.000000 0.000000 0.000000 0.926847 0.365269 
node 1 1 1 1
node 2 1 1 1
node 3 1 1 1
node 4 1 1 1
node 5 1 1 1
node 6 1 1 1
node 7 1 1 1
node 8 1 1 1
node 9 1 1 1
node 10 1 1 1
node 11 1 1 1
node 12 1 1 1
node 13 1 1 1
node 14 1 1 1
node 15 1 1 1
node 16 1 1 1
node 17 1 1 1
node 18 1 1 1
node 19 1 1 1
node 20 1 1 1
node 21 1 1 1
node 22 1 1 1
node 23 1 1 1
node 24 1 1 1
node 25 1 1 1
node 26 1 1 3
node 27 1 0 2
node 28 1 0 2
node 29 1 0 2
gene 1 1 27 -0.631858 0 1 -0.631858 1
gene 1 1 28 -0.288873 0 2 -0.288873 1
gene 1 1 29 -1.80186 0 3 -1.80186 1
gene 1 2 27 0.329676 0 4 0.329676 1
gene 1 2 28 1.63466 0 5 1.63466 1
gene 1 2 29 -1.58498 0 6 -1.58498 1
gene 1 3 27 -1.84694 0 7 -1.84694 1
gene 1 3 28 -1.02187 0 8 -1.02187 1
gene 1 3 29 -1.64465 0 9 -1.64465 1
gene 1 4 27 0.536178 0 10 0.536178 1
gene 1 4 28 1.29354 0 11 1.29354 1
gene 1 4 29 0.207855 0 12 0.207855 1
gene 1 5 27 3.20064 0 13 3.20064 1
gene 1 5 28 -2.2355 0 14 -2.2355 1
gene 1 5 29 2.10745 0 15 2.10745 1
gene 1 6 27 -0.0147978 0 16 -0.0147978 1
gene 1 6 28 1.25122 0 17 1.25122 1
gene 1 6 29 -3.81135 0 18 -3.81135 1
gene 1 7 27 1.80497 0 19 1.80497 1
gene 1 7 28 -3.12031 0 20 -3.12031 1
gene 1 7 29 0.735053 0 21 0.735053 1
gene 1 8 27 0.955732 0 22 0.955732 1
gene 1 8 28 -0.106432 0 23 -0.106432 1
gene 1 8 29 0.588153 0 24 0.588153 1
gene 1 9 27 -3.7925 0 25 -3.7925 1
gene 1 9 28 0.295493 0 26 0.295493 1
gene 1 9 29 3.77888 0 27 3.77888 1
gene 1 10 27 -5 0 28 -5 1
gene 1 10 28 -1.64804 0 29 -1.64804 1
gene 1 10 29 -3.19787 0 30 -3.19787 1
gene 1 11 27 -3.62992 0 27 -3.62992 1
gene 1 11 28 1.26011 0 32 1.26011 1
gene 1 11 29 -2.07575 0 33 -2.07575 1
gene 1 12 27 1.1177 0 34 1.1177 1
gene 1 12 28 2.28869 0 35 2.28869 1
gene 1 12 29 0.0181594 0 36 0.0181594 1
gene 1 13 27 0.799632 0 37 0.799632 1
gene 1 13 28 0.933135 0 38 0.933135 1
gene 1 13 29 0.00276359 0 39 0.00276359 1
gene 1 14 27 0.851034 0 40 0.851034 1
gene 1 14 28 2.03252 0 41 2.03252 1
gene 1 14 29 -0.695093 0 42 -0.695093 1
gene 1 15 27 1.68899 0 43 1.68899 1
gene 1 15 28 -0.0275365 0 44 -0.0275365 1
gene 1 15 29 -0.718001 0 45 -0.718001 1
gene 1 16 27 0.720413 0 46 0.720413 1
gene 1 16 28 -0.38419 0 47 -0.38419 1
gene 1 16 29 -3.08496 0 48 -3.08496 1
gene 1 17 27 3.13571 0 49 3.13571 1
gene 1 17 28 -0.885055 0 50 -0.885055 1
gene 1 17 29 -1.50174 0 51 -1.50174 1
gene 1 18 27 5 0 52 5 1
gene 1 18 28 -0.768098 0 53 -0.768098 1
gene 1 18 29 -1.20943 0 54 -1.20943 1
gene 1 19 27 -0.0129144 0 55 -0.0129144 1
gene 1 19 28 -0.971633 0 56 -0.971633 1
gene 1 19 29 -1.80908 0 57 -1.80908 1
gene 1 20 27 0.0476748 0 58 0.0476748 1
gene 1 20 28 0.222191 0 59 0.222191 1
gene 1 20 29 0.854532 0 60 0.854532 1
gene 1 21 27 -0.00194214 0 61 -0.00194214 1
gene 1 21 28 -2.02401 0 62 -2.02401 1
gene 1 21 29 -0.519426 0 63 -0.519426 1
gene 1 22 27 0.0809737 0 64 0.0809737 1
gene 1 22 28 -0.249572 0 65 -0.249572 1
gene 1 22 29 -0.507988 0 66 -0.507988 1
gene 1 23 27 -0.177182 0 67 -0.177182 1
gene 1 23 28 -1.02592 0 68 -1.02592 1
gene 1 23 29 -0.92251 0 69 -0.92251 1
gene 1 24 27 0.0612472 0 70 0.0612472 1
gene 1 24 28 -0.984638 0 71 -0.984638 1
gene 1 24 29 0.547676 0 72 0.547676 1
gene 1 25 27 -0.172901 0 73 -0.172901 1
gene 1 25 28 0.859633 0 74 0.859633 1
gene 1 25 29 1.73929 0 75 1.73929 1
gene 1 26 27 -5 0 76 -5 1
gene 1 26 28 0.117058 0 77 0.117058 1
gene 1 26 29 1.97535 0 78 1.97535 1
genomeend 0


