/* Organism #57 Fitness: 9170.896000 Time: 0 */
genomestart 57
trait 1 0.096389 1.000000 1.000000 0.463993 0.000000 0.000000 0.000000 0.421440 
node 1 1 1 1
node 2 1 1 1
node 3 1 1 1
node 4 1 1 1
node 5 1 1 1
node 6 1 1 1
node 7 1 1 1
node 8 1 1 1
node 9 1 1 1
node 10 1 1 1
node 11 1 1 1
node 12 1 1 1
node 13 1 1 1
node 14 1 1 1
node 15 1 1 1
node 16 1 1 1
node 17 1 1 1
node 18 1 1 1
node 19 1 1 1
node 20 1 1 1
node 21 1 1 1
node 22 1 1 1
node 23 1 1 1
node 24 1 1 1
node 25 1 1 1
node 26 1 1 3
node 27 1 0 2
node 28 1 0 2
node 29 1 0 2
gene 1 1 27 -0.147587 0 1 -0.147587 1
gene 1 1 28 -4.75877 0 2 -4.75877 1
gene 1 1 29 -0.913077 0 3 -0.913077 1
gene 1 2 27 0.80368 0 4 0.80368 1
gene 1 2 28 0.821731 0 5 0.821731 1
gene 1 2 29 1.19419 0 6 1.19419 1
gene 1 3 27 -4.21976 0 7 -4.21976 1
gene 1 3 28 -0.212823 0 8 -0.212823 1
gene 1 3 29 -0.30604 0 9 -0.30604 1
gene 1 4 27 -0.446982 0 10 -0.446982 1
gene 1 4 28 0.0253785 0 11 0.0253785 1
gene 1 4 29 0.854478 0 12 0.854478 1
gene 1 5 27 2.89263 0 13 2.89263 1
gene 1 5 28 1.6256 0 14 1.6256 1
gene 1 5 29 1.76807 0 15 1.76807 1
gene 1 6 27 -0.981443 0 16 -0.981443 1
gene 1 6 28 1.7745 0 17 1.7745 1
gene 1 6 29 -0.0102311 0 18 -0.0102311 1
gene 1 7 27 -2.86172 0 19 -2.86172 1
gene 1 7 28 1.93202 0 20 1.93202 1
gene 1 7 29 -1.32984 0 21 -1.32984 1
gene 1 8 27 0.969507 0 22 0.969507 1
gene 1 8 28 2.44309 0 23 2.44309 1
gene 1 8 29 0.656311 0 24 0.656311 1
gene 1 9 27 -0.222707 0 25 -0.222707 1
gene 1 9 28 -0.977045 0 26 -0.977045 1
gene 1 9 29 -1.87696 0 27 -1.87696 1
gene 1 10 27 -0.426266 0 28 -0.426266 1
gene 1 10 28 0.443421 0 29 0.443421 1
gene 1 10 29 1.29301 0 30 1.29301 1
gene 1 11 27 2.60403 0 27 2.60403 1
gene 1 11 28 -2.50358 0 32 -2.50358 1
gene 1 11 29 0.218002 0 33 0.218002 1
gene 1 12 27 -2.55682 0 34 -2.55682 1
gene 1 12 28 -0.353756 0 35 -0.353756 1
gene 1 12 29 -0.633094 0 36 -0.633094 1
gene 1 13 27 -3.16909 0 37 -3.16909 1
gene 1 13 28 -2.38753 0 38 -2.38753 1
gene 1 13 29 -5 0 39 -5 1
gene 1 14 27 -0.905638 0 40 -0.905638 1
gene 1 14 28 -1.5247 0 41 -1.5247 1
gene 1 14 29 -1.1377 0 42 -1.1377 1
gene 1 15 27 1.6046 0 43 1.6046 1
gene 1 15 28 -1.69207 0 44 -1.69207 1
gene 1 15 29 0.412309 0 45 0.412309 1
gene 1 16 27 3.88483 0 46 3.88483 1
gene 1 16 28 -1.62037 0 47 -1.62037 1
gene 1 16 29 1.39804 0 48 1.39804 1
gene 1 17 27 -1.05876 0 49 -1.05876 1
gene 1 17 28 1.65504 0 50 1.65504 1
gene 1 17 29 -4.29885 0 51 -4.29885 1
gene 1 18 27 -1.8825 0 52 -1.8825 1
gene 1 18 28 5 0 53 5 1
gene 1 18 29 -1.20878 0 54 -1.20878 1
gene 1 19 27 -2.52935 0 55 -2.52935 1
gene 1 19 28 0.837445 0 56 0.837445 1
gene 1 19 29 -0.417914 0 57 -0.417914 1
gene 1 20 27 1.95584 0 58 1.95584 1
gene 1 20 28 0.565025 0 59 0.565025 1
gene 1 20 29 -1.43077 0 60 -1.43077 1
gene 1 21 27 -2.39214 0 61 -2.39214 1
gene 1 21 28 -0.129677 0 62 -0.129677 1
gene 1 21 29 -2.51098 0 63 -2.51098 1
gene 1 22 27 -0.563659 0 64 -0.563659 1
gene 1 22 28 0.0359597 0 65 0.0359597 1
gene 1 22 29 0.470105 0 66 0.470105 1
gene 1 23 27 -0.081002 0 67 -0.081002 1
gene 1 23 28 -0.255173 0 68 -0.255173 1
gene 1 23 29 -0.714105 0 69 -0.714105 1
gene 1 24 27 -1.48968 0 70 -1.48968 1
gene 1 24 28 0.216093 0 71 0.216093 1
gene 1 24 29 1.92532 0 72 1.92532 1
gene 1 25 27 0.421737 0 73 0.421737 1
gene 1 25 28 -2.38168 0 74 -2.38168 1
gene 1 25 29 -0.160682 0 75 -0.160682 1
gene 1 26 27 -0.697492 0 76 -0.697492 1
gene 1 26 28 -4.43327 0 77 -4.43327 1
gene 1 26 29 0.211645 0 78 0.211645 1
genomeend 57


