/* Organism #0 Fitness: 7189.622000 Time: 0 */
genomestart 0
trait 1 0.755033 0.000000 0.000000 0.000000 0.000000 0.000000 0.820425 0.306901 
node 1 1 1 1
node 2 1 1 1
node 3 1 1 1
node 4 1 1 1
node 5 1 1 1
node 6 1 1 1
node 7 1 1 1
node 8 1 1 1
node 9 1 1 1
node 10 1 1 1
node 11 1 1 1
node 12 1 1 1
node 13 1 1 1
node 14 1 1 1
node 15 1 1 1
node 16 1 1 1
node 17 1 1 1
node 18 1 1 1
node 19 1 1 1
node 20 1 1 1
node 21 1 1 1
node 22 1 1 1
node 23 1 1 1
node 24 1 1 1
node 25 1 1 1
node 26 1 1 3
node 27 1 0 2
node 28 1 0 2
node 29 1 0 2
gene 1 1 27 0.471884 0 1 0.471884 1
gene 1 1 28 -0.084477 0 2 -0.084477 1
gene 1 1 29 -1.10199 0 3 -1.10199 1
gene 1 2 27 -1.66355 0 4 -1.66355 1
gene 1 2 28 0.107312 0 5 0.107312 1
gene 1 2 29 0.634794 0 6 0.634794 1
gene 1 3 27 0.843592 0 7 0.843592 1
gene 1 3 28 -0.245484 0 8 -0.245484 1
gene 1 3 29 1.41432 0 9 1.41432 1
gene 1 4 27 0.500461 0 10 0.500461 1
gene 1 4 28 0.442677 0 11 0.442677 1
gene 1 4 29 0.194058 0 12 0.194058 1
gene 1 5 27 -1.67154 0 13 -1.67154 1
gene 1 5 28 -0.243872 0 14 -0.243872 1
gene 1 5 29 -3.0063 0 15 -3.0063 1
gene 1 6 27 -1.18544 0 16 -1.18544 1
gene 1 6 28 1.70205 0 17 1.70205 1
gene 1 6 29 0.414847 0 18 0.414847 1
gene 1 7 27 -0.463899 0 19 -0.463899 1
gene 1 7 28 -2.2064 0 20 -2.2064 1
gene 1 7 29 -3.1818 0 21 -3.1818 1
gene 1 8 27 -0.524227 0 22 -0.524227 1
gene 1 8 28 -1.91527 0 23 -1.91527 1
gene 1 8 29 -1.49018 0 24 -1.49018 1
gene 1 9 27 0.86503 0 25 0.86503 1
gene 1 9 28 0.788482 0 26 0.788482 1
gene 1 9 29 -0.0335134 0 27 -0.0335134 1
gene 1 10 27 0.705584 0 28 0.705584 1
gene 1 10 28 -1.78639 0 29 -1.78639 1
gene 1 10 29 0.312856 0 30 0.312856 1
gene 1 11 27 -0.631176 0 27 -0.631176 1
gene 1 11 28 0.290511 0 32 0.290511 1
gene 1 11 29 0.108547 0 33 0.108547 1
gene 1 12 27 -0.665333 0 34 -0.665333 1
gene 1 12 28 0.547816 0 35 0.547816 1
gene 1 12 29 0.035014 0 36 0.035014 1
gene 1 13 27 -1.7268 0 37 -1.7268 1
gene 1 13 28 1.0437 0 38 1.0437 1
gene 1 13 29 -2.16278 0 39 -2.16278 1
gene 1 14 27 -0.988641 0 40 -0.988641 1
gene 1 14 28 -1.44736 0 41 -1.44736 1
gene 1 14 29 -0.0427777 0 42 -0.0427777 1
gene 1 15 27 3.15395 0 43 3.15395 1
gene 1 15 28 -2.9653 0 44 -2.9653 1
gene 1 15 29 -2.26879 0 45 -2.26879 1
gene 1 16 27 2.3997 0 46 2.3997 1
gene 1 16 28 -0.0526633 0 47 -0.0526633 1
gene 1 16 29 -1.76415 0 48 -1.76415 1
gene 1 17 27 -1.90695 0 49 -1.90695 1
gene 1 17 28 2.68414 0 50 2.68414 1
gene 1 17 29 0.646298 0 51 0.646298 1
gene 1 18 27 3.057 0 52 3.057 1
gene 1 18 28 3.62812 0 53 3.62812 1
gene 1 18 29 0.376087 0 54 0.376087 1
gene 1 19 27 -1.61502 0 55 -1.61502 1
gene 1 19 28 4.60112 0 56 4.60112 1
gene 1 19 29 1.42725 0 57 1.42725 1
gene 1 20 27 0.884169 0 58 0.884169 1
gene 1 20 28 1.12028 0 59 1.12028 1
gene 1 20 29 -0.418379 0 60 -0.418379 1
gene 1 21 27 -0.370068 0 61 -0.370068 1
gene 1 21 28 -0.30059 0 62 -0.30059 1
gene 1 21 29 2.39151 0 63 2.39151 1
gene 1 22 27 -0.234124 0 64 -0.234124 1
gene 1 22 28 -0.130966 0 65 -0.130966 1
gene 1 22 29 0.989792 0 66 0.989792 1
gene 1 23 27 -1.65127 0 67 -1.65127 1
gene 1 23 28 -0.339013 0 68 -0.339013 1
gene 1 23 29 0.83197 0 69 0.83197 1
gene 1 24 27 -1.14306 0 70 -1.14306 1
gene 1 24 28 -0.00268837 0 71 -0.00268837 1
gene 1 24 29 0.56976 0 72 0.56976 1
gene 1 25 27 0.0197293 0 73 0.0197293 1
gene 1 25 28 -0.392736 0 74 -0.392736 1
gene 1 25 29 0.284839 0 75 0.284839 1
gene 1 26 27 -3.59321 0 76 -3.59321 1
gene 1 26 28 -5 0 77 -5 1
gene 1 26 29 0.16067 0 78 0.16067 1
genomeend 0


