/* Organism #3 Fitness: 9912.654000 Time: 0 */
genomestart 3
trait 1 0.938877 0.158893 0.746923 0.000000 0.108972 0.171526 0.000000 0.899877 
node 1 1 1 1
node 2 1 1 1
node 3 1 1 1
node 4 1 1 1
node 5 1 1 1
node 6 1 1 1
node 7 1 1 1
node 8 1 1 1
node 9 1 1 1
node 10 1 1 1
node 11 1 1 1
node 12 1 1 1
node 13 1 1 1
node 14 1 1 1
node 15 1 1 1
node 16 1 1 1
node 17 1 1 1
node 18 1 1 1
node 19 1 1 1
node 20 1 1 1
node 21 1 1 1
node 22 1 1 1
node 23 1 1 1
node 24 1 1 1
node 25 1 1 1
node 26 1 1 3
node 27 1 0 2
node 28 1 0 2
node 29 1 0 2
gene 1 1 27 0.261879 0 1 0.261879 1
gene 1 1 28 -0.981307 0 2 -0.981307 1
gene 1 1 29 -2.24618 0 3 -2.24618 1
gene 1 2 27 0.327839 0 4 0.327839 1
gene 1 2 28 2.0977 0 5 2.0977 1
gene 1 2 29 1.89566 0 6 1.89566 1
gene 1 3 27 -0.926296 0 7 -0.926296 1
gene 1 3 28 1.13772 0 8 1.13772 1
gene 1 3 29 1.09135 0 9 1.09135 1
gene 1 4 27 0.486508 0 10 0.486508 1
gene 1 4 28 3.2085 0 11 3.2085 1
gene 1 4 29 3.34358 0 12 3.34358 1
gene 1 5 27 -3.44987 0 13 -3.44987 1
gene 1 5 28 -0.173318 0 14 -0.173318 1
gene 1 5 29 -0.307139 0 15 -0.307139 1
gene 1 6 27 -4.34116 0 16 -4.34116 1
gene 1 6 28 -0.424639 0 17 -0.424639 1
gene 1 6 29 1.17972 0 18 1.17972 1
gene 1 7 27 2.38019 0 19 2.38019 1
gene 1 7 28 -1.64235 0 20 -1.64235 1
gene 1 7 29 -0.0953305 0 21 -0.0953305 1
gene 1 8 27 2.45706 0 22 2.45706 1
gene 1 8 28 -3.22922 0 23 -3.22922 1
gene 1 8 29 1.76727 0 24 1.76727 1
gene 1 9 27 0.260202 0 25 0.260202 1
gene 1 9 28 -1.81641 0 26 -1.81641 1
gene 1 9 29 -1.21822 0 27 -1.21822 1
gene 1 10 27 -3.15776 0 28 -3.15776 1
gene 1 10 28 0.727215 0 29 0.727215 1
gene 1 10 29 -1.56251 0 30 -1.56251 1
gene 1 11 27 2.30331 0 27 2.30331 1
gene 1 11 28 0.914829 0 32 0.914829 1
gene 1 11 29 -0.515899 0 33 -0.515899 1
gene 1 12 27 -0.956471 0 34 -0.956471 1
gene 1 12 28 1.25015 0 35 1.25015 1
gene 1 12 29 1.24912 0 36 1.24912 1
gene 1 13 27 -2.00368 0 37 -2.00368 1
gene 1 13 28 -1.64445 0 38 -1.64445 1
gene 1 13 29 0.728884 0 39 0.728884 1
gene 1 14 27 0.470023 0 40 0.470023 1
gene 1 14 28 1.37103 0 41 1.37103 1
gene 1 14 29 0.285 0 42 0.285 1
gene 1 15 27 -0.117829 0 43 -0.117829 1
gene 1 15 28 -2.20023 0 44 -2.20023 1
gene 1 15 29 -0.486012 0 45 -0.486012 1
gene 1 16 27 -2.48207 0 46 -2.48207 1
gene 1 16 28 1.61096 0 47 1.61096 1
gene 1 16 29 -0.548797 0 48 -0.548797 1
gene 1 17 27 0.189151 0 49 0.189151 1
gene 1 17 28 1.42519 0 50 1.42519 1
gene 1 17 29 0.365159 0 51 0.365159 1
gene 1 18 27 0.683759 0 52 0.683759 1
gene 1 18 28 3.55178 0 53 3.55178 1
gene 1 18 29 -1.07862 0 54 -1.07862 1
gene 1 19 27 -1.45384 0 55 -1.45384 1
gene 1 19 28 0.840028 0 56 0.840028 1
gene 1 19 29 -1.14988 0 57 -1.14988 1
gene 1 20 27 -2.16485 0 58 -2.16485 1
gene 1 20 28 0.29996 0 59 0.29996 1
gene 1 20 29 -2.39289 0 60 -2.39289 1
gene 1 21 27 -2.63455 0 61 -2.63455 1
gene 1 21 28 -0.159264 0 62 -0.159264 1
gene 1 21 29 -3.57343 0 63 -3.57343 1
gene 1 22 27 0.187481 0 64 0.187481 1
gene 1 22 28 0.0172597 0 65 0.0172597 1
gene 1 22 29 -1.67 0 66 -1.67 1
gene 1 23 27 -0.688044 0 67 -0.688044 1
gene 1 23 28 -0.12458 0 68 -0.12458 1
gene 1 23 29 0.62969 0 69 0.62969 1
gene 1 24 27 0.178242 0 70 0.178242 1
gene 1 24 28 0.106457 0 71 0.106457 1
gene 1 24 29 3.13027 0 72 3.13027 1
gene 1 25 27 1.12583 0 73 1.12583 1
gene 1 25 28 0.467038 0 74 0.467038 1
gene 1 25 29 0.120177 0 75 0.120177 1
gene 1 26 27 -0.20913 0 76 -0.20913 1
gene 1 26 28 -4.15903 0 77 -4.15903 1
gene 1 26 29 0.509883 0 78 0.509883 1
genomeend 3


