/* Organism #2 Fitness: 6280.606000 Time: 0 */
genomestart 2
trait 1 0.908516 0.234938 0.647334 0.000000 0.500365 0.000000 0.000000 0.000000 
node 1 1 1 1
node 2 1 1 1
node 3 1 1 1
node 4 1 1 1
node 5 1 1 1
node 6 1 1 1
node 7 1 1 1
node 8 1 1 1
node 9 1 1 1
node 10 1 1 1
node 11 1 1 1
node 12 1 1 1
node 13 1 1 1
node 14 1 1 1
node 15 1 1 1
node 16 1 1 1
node 17 1 1 1
node 18 1 1 1
node 19 1 1 1
node 20 1 1 1
node 21 1 1 1
node 22 1 1 1
node 23 1 1 1
node 24 1 1 1
node 25 1 1 1
node 26 1 1 3
node 27 1 0 2
node 28 1 0 2
node 29 1 0 2
gene 1 1 27 2.15732 0 1 2.15732 1
gene 1 1 28 0.653517 0 2 0.653517 1
gene 1 1 29 -0.147353 0 3 -0.147353 1
gene 1 2 27 0.521498 0 4 0.521498 1
gene 1 2 28 1.46564 0 5 1.46564 1
gene 1 2 29 -0.800959 0 6 -0.800959 1
gene 1 3 27 -0.25314 0 7 -0.25314 1
gene 1 3 28 -0.804076 0 8 -0.804076 1
gene 1 3 29 -0.0900752 0 9 -0.0900752 1
gene 1 4 27 1.13241 0 10 1.13241 1
gene 1 4 28 -0.236392 0 11 -0.236392 1
gene 1 4 29 -0.162941 0 12 -0.162941 1
gene 1 5 27 1.76013 0 13 1.76013 1
gene 1 5 28 0.265976 0 14 0.265976 1
gene 1 5 29 0.455663 0 15 0.455663 1
gene 1 6 27 1.41122 0 16 1.41122 1
gene 1 6 28 -0.672247 0 17 -0.672247 1
gene 1 6 29 -0.630811 0 18 -0.630811 1
gene 1 7 27 4.14988 0 19 4.14988 1
gene 1 7 28 -0.745719 0 20 -0.745719 1
gene 1 7 29 0.685241 0 21 0.685241 1
gene 1 8 27 0.358631 0 22 0.358631 1
gene 1 8 28 1.54653 0 23 1.54653 1
gene 1 8 29 0.346954 0 24 0.346954 1
gene 1 9 27 -1.65458 0 25 -1.65458 1
gene 1 9 28 0.0273839 0 26 0.0273839 1
gene 1 9 29 0.762649 0 27 0.762649 1
gene 1 10 27 -4.15772 0 28 -4.15772 1
gene 1 10 28 3.67088 0 29 3.67088 1
gene 1 10 29 1.52671 0 30 1.52671 1
gene 1 11 27 -0.872576 0 27 -0.872576 1
gene 1 11 28 -0.565233 0 32 -0.565233 1
gene 1 11 29 -2.38692 0 33 -2.38692 1
gene 1 12 27 0.616885 0 34 0.616885 1
gene 1 12 28 -1.49099 0 35 -1.49099 1
gene 1 12 29 -2.90603 0 36 -2.90603 1
gene 1 13 27 -4.11981 0 37 -4.11981 1
gene 1 13 28 3.01419 0 38 3.01419 1
gene 1 13 29 2.28615 0 39 2.28615 1
gene 1 14 27 -0.967909 0 40 -0.967909 1
gene 1 14 28 2.82671 0 41 2.82671 1
gene 1 14 29 -0.0273916 0 42 -0.0273916 1
gene 1 15 27 2.40056 0 43 2.40056 1
gene 1 15 28 0.286064 0 44 0.286064 1
gene 1 15 29 -0.45284 0 45 -0.45284 1
gene 1 16 27 3.55093 0 46 3.55093 1
gene 1 16 28 3.15645 0 47 3.15645 1
gene 1 16 29 0.942115 0 48 0.942115 1
gene 1 17 27 1.30038 0 49 1.30038 1
gene 1 17 28 -1.04484 0 50 -1.04484 1
gene 1 17 29 2.57047 0 51 2.57047 1
gene 1 18 27 3.65697 0 52 3.65697 1
gene 1 18 28 0.454582 0 53 0.454582 1
gene 1 18 29 2.51103 0 54 2.51103 1
gene 1 19 27 0.249894 0 55 0.249894 1
gene 1 19 28 1.56769 0 56 1.56769 1
gene 1 19 29 -0.430441 0 57 -0.430441 1
gene 1 20 27 -0.506479 0 58 -0.506479 1
gene 1 20 28 1.57298 0 59 1.57298 1
gene 1 20 29 0.968402 0 60 0.968402 1
gene 1 21 27 -0.147269 0 61 -0.147269 1
gene 1 21 28 -0.248017 0 62 -0.248017 1
gene 1 21 29 0.0409246 0 63 0.0409246 1
gene 1 22 27 0.0516593 0 64 0.0516593 1
gene 1 22 28 -0.36192 0 65 -0.36192 1
gene 1 22 29 0.359962 0 66 0.359962 1
gene 1 23 27 -0.328943 0 67 -0.328943 1
gene 1 23 28 -1.12025 0 68 -1.12025 1
gene 1 23 29 0.182397 0 69 0.182397 1
gene 1 24 27 0.173963 0 70 0.173963 1
gene 1 24 28 -1.09443 0 71 -1.09443 1
gene 1 24 29 1.70254 0 72 1.70254 1
gene 1 25 27 -3.22601 0 73 -3.22601 1
gene 1 25 28 -3.26182 0 74 -3.26182 1
gene 1 25 29 -0.468565 0 75 -0.468565 1
gene 1 26 27 -0.47887 0 76 -0.47887 1
gene 1 26 28 -0.770706 0 77 -0.770706 1
gene 1 26 29 -1.04095 0 78 -1.04095 1
genomeend 2


