/* Organism #0 Fitness: 15033.400000 Time: 0 */
genomestart 0
trait 1 0.656685 0.000000 0.000000 0.000000 0.000000 0.000000 0.373010 0.000000 
node 1 1 1 1
node 2 1 1 1
node 3 1 1 1
node 4 1 1 1
node 5 1 1 1
node 6 1 1 1
node 7 1 1 1
node 8 1 1 1
node 9 1 1 1
node 10 1 1 1
node 11 1 1 1
node 12 1 1 1
node 13 1 1 1
node 14 1 1 1
node 15 1 1 1
node 16 1 1 1
node 17 1 1 1
node 18 1 1 1
node 19 1 1 1
node 20 1 1 1
node 21 1 1 1
node 22 1 1 1
node 23 1 1 1
node 24 1 1 1
node 25 1 1 1
node 26 1 1 1
node 27 1 1 1
node 28 1 1 1
node 29 1 1 1
node 30 1 1 3
node 31 1 0 2
node 32 1 0 2
node 33 1 0 2
gene 1 1 31 0.691862 0 1 0.691862 1
gene 1 1 32 -2.29068 0 2 -2.29068 1
gene 1 1 33 -3.35896 0 3 -3.35896 1
gene 1 2 31 -1.62527 0 4 -1.62527 1
gene 1 2 32 -2.22261 0 5 -2.22261 1
gene 1 2 33 0.0115132 0 6 0.0115132 1
gene 1 3 31 0.043529 0 7 0.043529 1
gene 1 3 32 -0.241773 0 8 -0.241773 1
gene 1 3 33 -2.53059 0 9 -2.53059 1
gene 1 4 31 1.67053 0 10 1.67053 1
gene 1 4 32 -2.78416 0 11 -2.78416 1
gene 1 4 33 2.43932 0 12 2.43932 1
gene 1 5 31 1.82183 0 13 1.82183 1
gene 1 5 32 1.32548 0 14 1.32548 1
gene 1 5 33 -1.09922 0 15 -1.09922 1
gene 1 6 31 2.4842 0 16 2.4842 1
gene 1 6 32 -3.48676 0 17 -3.48676 1
gene 1 6 33 0.808357 0 18 0.808357 1
gene 1 7 31 0.375276 0 19 0.375276 1
gene 1 7 32 -0.0136038 0 20 -0.0136038 1
gene 1 7 33 -3.42974 0 21 -3.42974 1
gene 1 8 31 5 0 22 5 1
gene 1 8 32 -2.33922 0 23 -2.33922 1
gene 1 8 33 -0.907919 0 24 -0.907919 1
gene 1 9 31 1.83029 0 25 1.83029 1
gene 1 9 32 -1.78853 0 26 -1.78853 1
gene 1 9 33 -1.56439 0 27 -1.56439 1
gene 1 10 31 0.238435 0 28 0.238435 1
gene 1 10 32 -0.0127515 0 29 -0.0127515 1
gene 1 10 33 -1.45911 0 30 -1.45911 1
gene 1 11 31 0.237881 0 31 0.237881 1
gene 1 11 32 1.04964 0 32 1.04964 1
gene 1 11 33 -1.28676 0 33 -1.28676 1
gene 1 12 31 0.928327 0 34 0.928327 1
gene 1 12 32 3.88351 0 35 3.88351 1
gene 1 12 33 1.73768 0 36 1.73768 1
gene 1 13 31 0.637821 0 37 0.637821 1
gene 1 13 32 -0.19114 0 38 -0.19114 1
gene 1 13 33 -0.0646803 0 39 -0.0646803 1
gene 1 14 31 -1.33173 0 40 -1.33173 1
gene 1 14 32 0.198066 0 41 0.198066 1
gene 1 14 33 0.335179 0 42 0.335179 1
gene 1 15 31 0.69382 0 43 0.69382 1
gene 1 15 32 -0.0012881 0 44 -0.0012881 1
gene 1 15 33 0.896479 0 45 0.896479 1
gene 1 16 31 0.238127 0 46 0.238127 1
gene 1 16 32 1.94352 0 47 1.94352 1
gene 1 16 33 -0.252972 0 48 -0.252972 1
gene 1 17 31 -3.07996 0 49 -3.07996 1
gene 1 17 32 -3.05434 0 50 -3.05434 1
gene 1 17 33 0.764802 0 51 0.764802 1
gene 1 18 31 -4.28989 0 52 -4.28989 1
gene 1 18 32 -4.17474 0 53 -4.17474 1
gene 1 18 33 -0.49111 0 54 -0.49111 1
gene 1 19 31 -1.69735 0 55 -1.69735 1
gene 1 19 32 0.516368 0 56 0.516368 1
gene 1 19 33 -1.46367 0 57 -1.46367 1
gene 1 20 31 0.442618 0 58 0.442618 1
gene 1 20 32 0.791198 0 59 0.791198 1
gene 1 20 33 -2.38568 0 60 -2.38568 1
gene 1 21 31 -0.269911 0 61 -0.269911 1
gene 1 21 32 0.521747 0 62 0.521747 1
gene 1 21 33 -2.75912 0 63 -2.75912 1
gene 1 22 31 -1.88432 0 64 -1.88432 1
gene 1 22 32 1.83286 0 65 1.83286 1
gene 1 22 33 1.07515 0 66 1.07515 1
gene 1 23 31 -1.34444 0 67 -1.34444 1
gene 1 23 32 5 0 68 5 1
gene 1 23 33 -0.604984 0 69 -0.604984 1
gene 1 24 31 0.476039 0 70 0.476039 1
gene 1 24 32 2.16578 0 71 2.16578 1
gene 1 24 33 -0.492683 0 72 -0.492683 1
gene 1 25 31 1.43408 0 73 1.43408 1
gene 1 25 32 -0.637205 0 74 -0.637205 1
gene 1 25 33 -0.962018 0 75 -0.962018 1
gene 1 26 31 -0.0100565 0 76 -0.0100565 1
gene 1 26 32 0.044587 0 77 0.044587 1
gene 1 26 33 0.714324 0 78 0.714324 1
gene 1 27 31 0.918122 0 79 0.918122 1
gene 1 27 32 -1.09117 0 80 -1.09117 1
gene 1 27 33 -2.74561 0 81 -2.74561 1
gene 1 28 31 0.708829 0 82 0.708829 1
gene 1 28 32 0.556406 0 83 0.556406 1
gene 1 28 33 0.51694 0 84 0.51694 1
gene 1 29 31 0.187643 0 85 0.187643 1
gene 1 29 32 0.712242 0 86 0.712242 1
gene 1 29 33 1.12715 0 87 1.12715 1
gene 1 30 31 0.980239 0 88 0.980239 1
gene 1 30 32 -0.687125 0 89 -0.687125 1
gene 1 30 33 -0.171899 0 90 -0.171899 1
genomeend 0


