/* Organism #4 Fitness: 19550.446000 Time: 0 */
genomestart 4
trait 1 0.100000 0.000000 0.000000 0.000000 0.000000 0.000000 0.000000 0.000000 
node 1 1 1 1
node 2 1 1 1
node 3 1 1 1
node 4 1 1 1
node 5 1 1 1
node 6 1 1 1
node 7 1 1 1
node 8 1 1 1
node 9 1 1 1
node 10 1 1 1
node 11 1 1 1
node 12 1 1 1
node 13 1 1 1
node 14 1 1 1
node 15 1 1 1
node 16 1 1 1
node 17 1 1 1
node 18 1 1 1
node 19 1 1 1
node 20 1 1 1
node 21 1 1 1
node 22 1 1 1
node 23 1 1 1
node 24 1 1 1
node 25 1 1 1
node 26 1 1 1
node 27 1 1 1
node 28 1 1 1
node 29 1 1 1
node 30 1 1 1
node 31 1 1 1
node 32 1 1 1
node 33 1 1 1
node 34 1 1 1
node 35 1 1 1
node 36 1 1 1
node 37 1 1 1
node 38 1 1 1
node 39 1 1 1
node 40 1 1 3
node 41 1 0 2
node 42 1 0 2
node 43 1 0 2
node 44 1 0 2
node 45 1 0 2
gene 1 1 41 3.22034 0 1 3.22034 1
gene 1 1 42 -1.36263 0 2 -1.36263 1
gene 1 1 43 1.35676 0 3 1.35676 1
gene 1 1 44 -3.57984 0 4 -3.57984 1
gene 1 1 45 3.995 0 5 3.995 1
gene 1 2 41 -0.873036 0 6 -0.873036 1
gene 1 2 42 -0.560396 0 7 -0.560396 1
gene 1 2 43 3.52885 0 8 3.52885 1
gene 1 2 44 0.174866 0 9 0.174866 1
gene 1 2 45 -3.09983 0 10 -3.09983 1
gene 1 3 41 -1.84671 0 11 -1.84671 1
gene 1 3 42 1.14693 0 12 1.14693 1
gene 1 3 43 -2.13923 0 13 -2.13923 1
gene 1 3 44 -3.09864 0 14 -3.09864 1
gene 1 3 45 -3.71207 0 15 -3.71207 1
gene 1 4 41 0.22553 0 16 0.22553 1
gene 1 4 42 3.22747 0 17 3.22747 1
gene 1 4 43 -3.31697 0 18 -3.31697 1
gene 1 4 44 -5 0 19 -5 1
gene 1 4 45 -0.899782 0 20 -0.899782 1
gene 1 5 41 0.0282275 0 21 0.0282275 1
gene 1 5 42 -1.36459 0 22 -1.36459 1
gene 1 5 43 -3.89068 0 23 -3.89068 1
gene 1 5 44 -1.56518 0 24 -1.56518 1
gene 1 5 45 -0.704568 0 25 -0.704568 1
gene 1 6 41 -0.816908 0 26 -0.816908 1
gene 1 6 42 -2.75417 0 27 -2.75417 1
gene 1 6 43 -4.40505 0 28 -4.40505 1
gene 1 6 44 -3.83645 0 29 -3.83645 1
gene 1 6 45 -2.96858 0 30 -2.96858 1
gene 1 7 41 -0.11577 0 31 -0.11577 1
gene 1 7 42 0.306551 0 32 0.306551 1
gene 1 7 43 -1.75888 0 33 -1.75888 1
gene 1 7 44 -1.27119 0 34 -1.27119 1
gene 1 7 45 -3.86132 0 35 -3.86132 1
gene 1 8 41 -0.932658 0 36 -0.932658 1
gene 1 8 42 -2.84534 0 37 -2.84534 1
gene 1 8 43 -2.18747 0 38 -2.18747 1
gene 1 8 44 -2.74829 0 39 -2.74829 1
gene 1 8 45 0.535236 0 40 0.535236 1
gene 1 9 41 -1.88217 0 41 -1.88217 1
gene 1 9 42 0.358586 0 42 0.358586 1
gene 1 9 43 0.872474 0 43 0.872474 1
gene 1 9 44 0.596045 0 44 0.596045 1
gene 1 9 45 -3.38991 0 45 -3.38991 1
gene 1 10 41 -4.4235 0 46 -4.4235 1
gene 1 10 42 1.12134 0 47 1.12134 1
gene 1 10 43 -2.6308 0 48 -2.6308 1
gene 1 10 44 2.64904 0 49 2.64904 1
gene 1 10 45 2.62595 0 50 2.62595 1
gene 1 11 41 -0.177132 0 51 -0.177132 1
gene 1 11 42 3.23828 0 52 3.23828 1
gene 1 11 43 5 0 53 5 1
gene 1 11 44 -4.80714 0 54 -4.80714 1
gene 1 11 45 -0.0653944 0 55 -0.0653944 1
gene 1 12 41 -4.29255 0 56 -4.29255 1
gene 1 12 42 -0.272212 0 57 -0.272212 1
gene 1 12 43 3.60035 0 58 3.60035 1
gene 1 12 44 2.20355 0 59 2.20355 1
gene 1 12 45 2.34899 0 60 2.34899 1
gene 1 13 41 -0.512358 0 61 -0.512358 1
gene 1 13 42 0.202842 0 62 0.202842 1
gene 1 13 43 -0.414888 0 63 -0.414888 1
gene 1 13 44 -0.543802 0 64 -0.543802 1
gene 1 13 45 0.015984 0 65 0.015984 1
gene 1 14 41 2.28987 0 66 2.28987 1
gene 1 14 42 -5 0 67 -5 1
gene 1 14 43 -1.39636 0 68 -1.39636 1
gene 1 14 44 3.41096 0 69 3.41096 1
gene 1 14 45 2.71161 0 70 2.71161 1
gene 1 15 41 4.13568 0 71 4.13568 1
gene 1 15 42 0.576254 0 72 0.576254 1
gene 1 15 43 -0.0173402 0 73 -0.0173402 1
gene 1 15 44 -1.63414 0 74 -1.63414 1
gene 1 15 45 1.79583 0 75 1.79583 1
gene 1 16 41 2.28105 0 76 2.28105 1
gene 1 16 42 -4.83279 0 77 -4.83279 1
gene 1 16 43 -1.41934 0 78 -1.41934 1
gene 1 16 44 -1.39405 0 79 -1.39405 1
gene 1 16 45 4.32244 0 80 4.32244 1
gene 1 17 41 3.20232 0 81 3.20232 1
gene 1 17 42 4.84189 0 82 4.84189 1
gene 1 17 43 2.09969 0 83 2.09969 1
gene 1 17 44 -2.07321 0 84 -2.07321 1
gene 1 17 45 3.34438 0 85 3.34438 1
gene 1 18 41 3.34733 0 86 3.34733 1
gene 1 18 42 1.00454 0 87 1.00454 1
gene 1 18 43 2.37595 0 88 2.37595 1
gene 1 18 44 0.462955 0 89 0.462955 1
gene 1 18 45 -0.641594 0 90 -0.641594 1
gene 1 19 41 -1.82972 0 91 -1.82972 1
gene 1 19 42 -1.21643 0 92 -1.21643 1
gene 1 19 43 -0.261867 0 93 -0.261867 1
gene 1 19 44 -0.234574 0 94 -0.234574 1
gene 1 19 45 -0.159673 0 95 -0.159673 1
gene 1 20 41 -3.08472 0 96 -3.08472 1
gene 1 20 42 0.181388 0 97 0.181388 1
gene 1 20 43 -2.9799 0 98 -2.9799 1
gene 1 20 44 -4.82663 0 99 -4.82663 1
gene 1 20 45 0.583232 0 100 0.583232 1
gene 1 21 41 -4.13365 0 101 -4.13365 1
gene 1 21 42 4.23089 0 102 4.23089 1
gene 1 21 43 2.58915 0 103 2.58915 1
gene 1 21 44 0.903746 0 104 0.903746 1
gene 1 21 45 2.25197 0 105 2.25197 1
gene 1 22 41 -1.48191 0 106 -1.48191 1
gene 1 22 42 0.532266 0 107 0.532266 1
gene 1 22 43 -0.95739 0 108 -0.95739 1
gene 1 22 44 -3.33089 0 109 -3.33089 1
gene 1 22 45 0.197654 0 110 0.197654 1
gene 1 23 41 -4.44553 0 111 -4.44553 1
gene 1 23 42 4.47616 0 112 4.47616 1
gene 1 23 43 -0.0267756 0 113 -0.0267756 1
gene 1 23 44 -2.8158 0 114 -2.8158 1
gene 1 23 45 -2.05758 0 115 -2.05758 1
gene 1 24 41 -1.44179 0 116 -1.44179 1
gene 1 24 42 -4.46293 0 117 -4.46293 1
gene 1 24 43 5 0 118 5 1
gene 1 24 44 1.4981 0 119 1.4981 1
gene 1 24 45 0.328129 0 120 0.328129 1
gene 1 25 41 -3.94848 0 121 -3.94848 1
gene 1 25 42 -0.922357 0 122 -0.922357 1
gene 1 25 43 -0.933351 0 123 -0.933351 1
gene 1 25 44 0.557537 0 124 0.557537 1
gene 1 25 45 1.09749 0 125 1.09749 1
gene 1 26 41 -4.89179 0 126 -4.89179 1
gene 1 26 42 1.51951 0 127 1.51951 1
gene 1 26 43 -3.31265 0 128 -3.31265 1
gene 1 26 44 -0.806136 0 129 -0.806136 1
gene 1 26 45 -1.58694 0 130 -1.58694 1
gene 1 27 41 -0.0389562 0 131 -0.0389562 1
gene 1 27 42 2.28747 0 132 2.28747 1
gene 1 27 43 2.86673 0 133 2.86673 1
gene 1 27 44 -2.63024 0 134 -2.63024 1
gene 1 27 45 3.01082 0 135 3.01082 1
gene 1 28 41 0.624699 0 136 0.624699 1
gene 1 28 42 -0.827117 0 137 -0.827117 1
gene 1 28 43 -2.2191 0 138 -2.2191 1
gene 1 28 44 1.94496 0 139 1.94496 1
gene 1 28 45 2.8503 0 140 2.8503 1
gene 1 29 41 -1.26927 0 141 -1.26927 1
gene 1 29 42 -1.80809 0 142 -1.80809 1
gene 1 29 43 -2.91248 0 143 -2.91248 1
gene 1 29 44 -1.55772 0 144 -1.55772 1
gene 1 29 45 -4.13942 0 145 -4.13942 1
gene 1 30 41 4.53823 0 146 4.53823 1
gene 1 30 42 3.52837 0 147 3.52837 1
gene 1 30 43 4.5722 0 148 4.5722 1
gene 1 30 44 4.34442 0 149 4.34442 1
gene 1 30 45 -0.455297 0 150 -0.455297 1
gene 1 31 41 2.14542 0 151 2.14542 1
gene 1 31 42 -1.18633 0 152 -1.18633 1
gene 1 31 43 -0.784145 0 153 -0.784145 1
gene 1 31 44 4.9808 0 154 4.9808 1
gene 1 31 45 2.63903 0 155 2.63903 1
gene 1 32 41 -3.83355 0 156 -3.83355 1
gene 1 32 42 -1.56908 0 157 -1.56908 1
gene 1 32 43 -0.510227 0 158 -0.510227 1
gene 1 32 44 -3.88782 0 159 -3.88782 1
gene 1 32 45 1.48194 0 160 1.48194 1
gene 1 33 41 1.49825 0 161 1.49825 1
gene 1 33 42 -0.0790101 0 162 -0.0790101 1
gene 1 33 43 3.07965 0 163 3.07965 1
gene 1 33 44 0.310189 0 164 0.310189 1
gene 1 33 45 0.839909 0 165 0.839909 1
gene 1 34 41 0.56212 0 166 0.56212 1
gene 1 34 42 0.318116 0 167 0.318116 1
gene 1 34 43 0.839435 0 168 0.839435 1
gene 1 34 44 -0.857071 0 169 -0.857071 1
gene 1 34 45 0.889781 0 170 0.889781 1
gene 1 35 41 -0.111022 0 171 -0.111022 1
gene 1 35 42 -0.718828 0 172 -0.718828 1
gene 1 35 43 -1.42537 0 173 -1.42537 1
gene 1 35 44 1.26455 0 174 1.26455 1
gene 1 35 45 2.15971 0 175 2.15971 1
gene 1 36 41 -0.871578 0 176 -0.871578 1
gene 1 36 42 0.369458 0 177 0.369458 1
gene 1 36 43 0.265246 0 178 0.265246 1
gene 1 36 44 -0.120122 0 179 -0.120122 1
gene 1 36 45 0.372823 0 180 0.372823 1
gene 1 37 41 -0.860348 0 181 -0.860348 1
gene 1 37 42 -2.14411 0 182 -2.14411 1
gene 1 37 43 1.01991 0 183 1.01991 1
gene 1 37 44 -0.181241 0 184 -0.181241 1
gene 1 37 45 0.778578 0 185 0.778578 1
gene 1 38 41 -0.751865 0 186 -0.751865 1
gene 1 38 42 -0.776809 0 187 -0.776809 1
gene 1 38 43 0.201325 0 188 0.201325 1
gene 1 38 44 0.315801 0 189 0.315801 1
gene 1 38 45 0.913325 0 190 0.913325 1
gene 1 39 41 -0.790983 0 191 -0.790983 1
gene 1 39 42 -0.414833 0 192 -0.414833 1
gene 1 39 43 -0.457633 0 193 -0.457633 1
gene 1 39 44 -1.30203 0 194 -1.30203 1
gene 1 39 45 -1.19925 0 195 -1.19925 1
gene 1 40 41 0.641802 0 196 0.641802 1
gene 1 40 42 -0.43826 0 197 -0.43826 1
gene 1 40 43 -1.51866 0 198 -1.51866 1
gene 1 40 44 -0.767727 0 199 -0.767727 1
gene 1 40 45 -1.20008 0 200 -1.20008 1
genomeend 4


