/* Organism #7 Fitness: 20196.430000 Time: 0 */
genomestart 7
trait 1 0.406015 0.505576 0.000000 0.135316 0.000000 0.000000 0.182123 0.551345 
node 1 1 1 1
node 2 1 1 1
node 3 1 1 1
node 4 1 1 1
node 5 1 1 1
node 6 1 1 1
node 7 1 1 1
node 8 1 1 1
node 9 1 1 1
node 10 1 1 1
node 11 1 1 1
node 12 1 1 1
node 13 1 1 1
node 14 1 1 1
node 15 1 1 1
node 16 1 1 1
node 17 1 1 1
node 18 1 1 1
node 19 1 1 1
node 20 1 1 1
node 21 1 1 1
node 22 1 1 1
node 23 1 1 1
node 24 1 1 1
node 25 1 1 1
node 26 1 1 1
node 27 1 1 1
node 28 1 1 3
node 29 1 0 2
node 30 1 0 2
node 31 1 0 2
node 32 1 0 2
node 33 1 0 2
gene 1 1 29 0.858498 0 1 0.858498 1
gene 1 1 30 -0.561915 0 2 -0.561915 1
gene 1 1 31 -1.66332 0 3 -1.66332 1
gene 1 1 32 -0.571609 0 4 -0.571609 1
gene 1 1 33 0.843887 0 5 0.843887 1
gene 1 2 29 -3.65078 0 6 -3.65078 1
gene 1 2 30 0.735103 0 7 0.735103 1
gene 1 2 31 1.56532 0 8 1.56532 1
gene 1 2 32 -0.138478 0 9 -0.138478 1
gene 1 2 33 -0.10256 0 10 -0.10256 1
gene 1 3 29 1.64165 0 11 1.64165 1
gene 1 3 30 5 0 12 5 1
gene 1 3 31 4.00371 0 13 4.00371 1
gene 1 3 32 0.1545 0 14 0.1545 1
gene 1 3 33 -0.89501 0 15 -0.89501 1
gene 1 4 29 -2.92755 0 16 -2.92755 1
gene 1 4 30 -1.46776 0 17 -1.46776 1
gene 1 4 31 -0.862412 0 18 -0.862412 1
gene 1 4 32 0.0208162 0 19 0.0208162 1
gene 1 4 33 2.00374 0 20 2.00374 1
gene 1 5 29 2.17448 0 21 2.17448 1
gene 1 5 30 2.72866 0 22 2.72866 1
gene 1 5 31 3.12001 0 23 3.12001 1
gene 1 5 32 4.30962 0 24 4.30962 1
gene 1 5 33 0.0417669 0 25 0.0417669 1
gene 1 6 29 2.56239 0 26 2.56239 1
gene 1 6 30 -0.174964 0 27 -0.174964 1
gene 1 6 31 2.93552 0 28 2.93552 1
gene 1 6 32 -2.1071 0 29 -2.1071 1
gene 1 6 33 1.55745 0 30 1.55745 1
gene 1 7 29 5 0 31 5 1
gene 1 7 30 0.763959 0 32 0.763959 1
gene 1 7 31 -3.58305 0 33 -3.58305 1
gene 1 7 32 -2.06942 0 34 -2.06942 1
gene 1 7 33 -1.29205 0 35 -1.29205 1
gene 1 8 29 5 0 36 5 1
gene 1 8 30 0.1053 0 37 0.1053 1
gene 1 8 31 -3.30081 0 38 -3.30081 1
gene 1 8 32 -4.13321 0 39 -4.13321 1
gene 1 8 33 4.80196 0 40 4.80196 1
gene 1 9 29 4.9734 0 41 4.9734 1
gene 1 9 30 0.936537 0 42 0.936537 1
gene 1 9 31 0.419868 0 43 0.419868 1
gene 1 9 32 -1.76969 0 44 -1.76969 1
gene 1 9 33 0.364816 0 45 0.364816 1
gene 1 10 29 0.103417 0 46 0.103417 1
gene 1 10 30 -1.48712 0 47 -1.48712 1
gene 1 10 31 5 0 48 5 1
gene 1 10 32 0.068059 0 49 0.068059 1
gene 1 10 33 -0.653587 0 50 -0.653587 1
gene 1 11 29 5 0 51 5 1
gene 1 11 30 -3.90161 0 52 -3.90161 1
gene 1 11 31 -3.79648 0 53 -3.79648 1
gene 1 11 32 -0.69851 0 54 -0.69851 1
gene 1 11 33 -2.24462 0 55 -2.24462 1
gene 1 12 29 -0.226239 0 56 -0.226239 1
gene 1 12 30 -1.82865 0 57 -1.82865 1
gene 1 12 31 1.43913 0 58 1.43913 1
gene 1 12 32 -5 0 59 -5 1
gene 1 12 33 -2.01404 0 60 -2.01404 1
gene 1 13 29 -0.642485 0 61 -0.642485 1
gene 1 13 30 1.63039 0 62 1.63039 1
gene 1 13 31 0.440184 0 63 0.440184 1
gene 1 13 32 2.74066 0 64 2.74066 1
gene 1 13 33 -0.270573 0 65 -0.270573 1
gene 1 14 29 -2.95239 0 66 -2.95239 1
gene 1 14 30 -1.26281 0 67 -1.26281 1
gene 1 14 31 -1.72591 0 68 -1.72591 1
gene 1 14 32 -4.7627 0 69 -4.7627 1
gene 1 14 33 -0.638048 0 70 -0.638048 1
gene 1 15 29 -0.21774 0 71 -0.21774 1
gene 1 15 30 -2.83461 0 72 -2.83461 1
gene 1 15 31 0.387071 0 73 0.387071 1
gene 1 15 32 -1.97454 0 74 -1.97454 1
gene 1 15 33 3.8508 0 75 3.8508 1
gene 1 16 29 -1.24672 0 76 -1.24672 1
gene 1 16 30 0.208799 0 77 0.208799 1
gene 1 16 31 0.683048 0 78 0.683048 1
gene 1 16 32 -0.400574 0 79 -0.400574 1
gene 1 16 33 -2.77587 0 80 -2.77587 1
gene 1 17 29 1.16087 0 81 1.16087 1
gene 1 17 30 1.94479 0 82 1.94479 1
gene 1 17 31 1.18585 0 83 1.18585 1
gene 1 17 32 -1.28243 0 84 -1.28243 1
gene 1 17 33 -0.558298 0 85 -0.558298 1
gene 1 18 29 -0.0866473 0 86 -0.0866473 1
gene 1 18 30 2.05595 0 87 2.05595 1
gene 1 18 31 1.25464 0 88 1.25464 1
gene 1 18 32 -3.22552 0 89 -3.22552 1
gene 1 18 33 2.36677 0 90 2.36677 1
gene 1 19 29 0.611768 0 91 0.611768 1
gene 1 19 30 3.73954 0 92 3.73954 1
gene 1 19 31 -3.33936 0 93 -3.33936 1
gene 1 19 32 2.83189 0 94 2.83189 1
gene 1 19 33 -0.20813 0 95 -0.20813 1
gene 1 20 29 4.95176 0 96 4.95176 1
gene 1 20 30 -2.9291 0 97 -2.9291 1
gene 1 20 31 2.43864 0 98 2.43864 1
gene 1 20 32 2.81495 0 99 2.81495 1
gene 1 20 33 0.659357 0 100 0.659357 1
gene 1 21 29 0.0377898 0 101 0.0377898 1
gene 1 21 30 -1.58283 0 102 -1.58283 1
gene 1 21 31 0.131913 0 103 0.131913 1
gene 1 21 32 -1.67957 0 104 -1.67957 1
gene 1 21 33 -3.00708 0 105 -3.00708 1
gene 1 22 29 -2.69614 0 106 -2.69614 1
gene 1 22 30 -1.29451 0 107 -1.29451 1
gene 1 22 31 -4.94208 0 108 -4.94208 1
gene 1 22 32 1.11341 0 109 1.11341 1
gene 1 22 33 -1.61606 0 110 -1.61606 1
gene 1 23 29 -0.10011 0 111 -0.10011 1
gene 1 23 30 -1.75699 0 112 -1.75699 1
gene 1 23 31 0.714682 0 113 0.714682 1
gene 1 23 32 0.370291 0 114 0.370291 1
gene 1 23 33 -0.253982 0 115 -0.253982 1
gene 1 24 29 0.871658 0 116 0.871658 1
gene 1 24 30 -1.85411 0 117 -1.85411 1
gene 1 24 31 -0.354471 0 118 -0.354471 1
gene 1 24 32 -0.167248 0 119 -0.167248 1
gene 1 24 33 -0.854124 0 120 -0.854124 1
gene 1 25 29 0.102198 0 121 0.102198 1
gene 1 25 30 0.5695 0 122 0.5695 1
gene 1 25 31 0.773686 0 123 0.773686 1
gene 1 25 32 0.756247 0 124 0.756247 1
gene 1 25 33 -0.0100018 0 125 -0.0100018 1
gene 1 26 29 -0.743922 0 126 -0.743922 1
gene 1 26 30 -3.76128 0 127 -3.76128 1
gene 1 26 31 -0.624186 0 128 -0.624186 1
gene 1 26 32 -0.147619 0 129 -0.147619 1
gene 1 26 33 1.33705 0 130 1.33705 1
gene 1 27 29 2.48823 0 131 2.48823 1
gene 1 27 30 -0.966828 0 132 -0.966828 1
gene 1 27 31 0.531677 0 133 0.531677 1
gene 1 27 32 0.509199 0 134 0.509199 1
gene 1 27 33 1.33607 0 135 1.33607 1
gene 1 28 29 2.24056 0 136 2.24056 1
gene 1 28 30 4.25589 0 137 4.25589 1
gene 1 28 31 -3.50234 0 138 -3.50234 1
gene 1 28 32 -0.56041 0 139 -0.56041 1
gene 1 28 33 -2.63062 0 140 -2.63062 1
genomeend 7


