/* Organism #0 Fitness: 19715.464000 Time: 0 */
genomestart 0
trait 1 1.000000 0.595137 0.450571 0.000000 0.000000 0.111688 0.851035 0.722020 
node 1 1 1 1
node 2 1 1 1
node 3 1 1 1
node 4 1 1 1
node 5 1 1 1
node 6 1 1 1
node 7 1 1 1
node 8 1 1 1
node 9 1 1 1
node 10 1 1 1
node 11 1 1 1
node 12 1 1 1
node 13 1 1 1
node 14 1 1 1
node 15 1 1 1
node 16 1 1 1
node 17 1 1 1
node 18 1 1 1
node 19 1 1 1
node 20 1 1 1
node 21 1 1 1
node 22 1 1 1
node 23 1 1 1
node 24 1 1 1
node 25 1 1 1
node 26 1 1 1
node 27 1 1 1
node 28 1 1 3
node 29 1 0 2
node 30 1 0 2
node 31 1 0 2
node 32 1 0 2
node 33 1 0 2
gene 1 1 29 0.0693897 0 1 0.0693897 1
gene 1 1 30 -0.812779 0 2 -0.812779 1
gene 1 1 31 0.781816 0 3 0.781816 1
gene 1 1 32 -2.67076 0 4 -2.67076 1
gene 1 1 33 0.194269 0 5 0.194269 1
gene 1 2 29 2.90891 0 6 2.90891 1
gene 1 2 30 4.12106 0 7 4.12106 1
gene 1 2 31 1.17399 0 8 1.17399 1
gene 1 2 32 -1.60597 0 9 -1.60597 1
gene 1 2 33 1.32676 0 10 1.32676 1
gene 1 3 29 4.54463 0 11 4.54463 1
gene 1 3 30 3.20716 0 12 3.20716 1
gene 1 3 31 1.03046 0 13 1.03046 1
gene 1 3 32 -0.890543 0 14 -0.890543 1
gene 1 3 33 5 0 15 5 1
gene 1 4 29 -0.88689 0 16 -0.88689 1
gene 1 4 30 0.03139 0 17 0.03139 1
gene 1 4 31 -3.05494 0 18 -3.05494 1
gene 1 4 32 0.619119 0 19 0.619119 1
gene 1 4 33 -2.62047 0 20 -2.62047 1
gene 1 5 29 0.591715 0 21 0.591715 1
gene 1 5 30 -1.23546 0 22 -1.23546 1
gene 1 5 31 1.43078 0 23 1.43078 1
gene 1 5 32 0.00441706 0 24 0.00441706 1
gene 1 5 33 0.26039 0 25 0.26039 1
gene 1 6 29 3.19843 0 26 3.19843 1
gene 1 6 30 1.09196 0 27 1.09196 1
gene 1 6 31 0.188961 0 28 0.188961 1
gene 1 6 32 -0.785627 0 29 -0.785627 1
gene 1 6 33 -0.657674 0 30 -0.657674 1
gene 1 7 29 2.44698 0 31 2.44698 1
gene 1 7 30 2.47062 0 32 2.47062 1
gene 1 7 31 -0.142103 0 33 -0.142103 1
gene 1 7 32 -3.17592 0 34 -3.17592 1
gene 1 7 33 -0.0782745 0 35 -0.0782745 1
gene 1 8 29 -0.904837 0 36 -0.904837 1
gene 1 8 30 0.355069 0 37 0.355069 1
gene 1 8 31 -2.60366 0 38 -2.60366 1
gene 1 8 32 -0.530994 0 39 -0.530994 1
gene 1 8 33 -2.71707 0 40 -2.71707 1
gene 1 9 29 -1.58445 0 41 -1.58445 1
gene 1 9 30 2.9199 0 42 2.9199 1
gene 1 9 31 4.79872 0 43 4.79872 1
gene 1 9 32 -0.499215 0 44 -0.499215 1
gene 1 9 33 -3.98159 0 45 -3.98159 1
gene 1 10 29 0.466509 0 46 0.466509 1
gene 1 10 30 -0.611696 0 47 -0.611696 1
gene 1 10 31 0.677674 0 48 0.677674 1
gene 1 10 32 -1.39414 0 49 -1.39414 1
gene 1 10 33 -1.2814 0 50 -1.2814 1
gene 1 11 29 -1.56748 0 51 -1.56748 1
gene 1 11 30 1.93405 0 52 1.93405 1
gene 1 11 31 -4.32595 0 53 -4.32595 1
gene 1 11 32 4.05573 0 54 4.05573 1
gene 1 11 33 1.19745 0 55 1.19745 1
gene 1 12 29 -1.32039 0 56 -1.32039 1
gene 1 12 30 1.25318 0 57 1.25318 1
gene 1 12 31 -1.43399 0 58 -1.43399 1
gene 1 12 32 -5 0 59 -5 1
gene 1 12 33 -1.10532 0 60 -1.10532 1
gene 1 13 29 -0.195907 0 61 -0.195907 1
gene 1 13 30 3.23386 0 62 3.23386 1
gene 1 13 31 1.3245 0 63 1.3245 1
gene 1 13 32 2.0329 0 64 2.0329 1
gene 1 13 33 -2.68529 0 65 -2.68529 1
gene 1 14 29 2.9435 0 66 2.9435 1
gene 1 14 30 -0.571043 0 67 -0.571043 1
gene 1 14 31 -2.40616 0 68 -2.40616 1
gene 1 14 32 -1.00603 0 69 -1.00603 1
gene 1 14 33 1.45892 0 70 1.45892 1
gene 1 15 29 -0.29909 0 71 -0.29909 1
gene 1 15 30 1.34666 0 72 1.34666 1
gene 1 15 31 2.64643 0 73 2.64643 1
gene 1 15 32 -2.16865 0 74 -2.16865 1
gene 1 15 33 -0.311476 0 75 -0.311476 1
gene 1 16 29 2.53482 0 76 2.53482 1
gene 1 16 30 -0.395722 0 77 -0.395722 1
gene 1 16 31 3.38764 0 78 3.38764 1
gene 1 16 32 -1.66714 0 79 -1.66714 1
gene 1 16 33 -0.874014 0 80 -0.874014 1
gene 1 17 29 -2.0749 0 81 -2.0749 1
gene 1 17 30 2.46257 0 82 2.46257 1
gene 1 17 31 1.31106 0 83 1.31106 1
gene 1 17 32 0.26182 0 84 0.26182 1
gene 1 17 33 -0.526825 0 85 -0.526825 1
gene 1 18 29 0.20771 0 86 0.20771 1
gene 1 18 30 0.111147 0 87 0.111147 1
gene 1 18 31 0.584325 0 88 0.584325 1
gene 1 18 32 -2.46278 0 89 -2.46278 1
gene 1 18 33 -0.401669 0 90 -0.401669 1
gene 1 19 29 2.49108 0 91 2.49108 1
gene 1 19 30 -0.340533 0 92 -0.340533 1
gene 1 19 31 -0.3321 0 93 -0.3321 1
gene 1 19 32 -1.44375 0 94 -1.44375 1
gene 1 19 33 0.1622 0 95 0.1622 1
gene 1 20 29 -2.87945 0 96 -2.87945 1
gene 1 20 30 -0.685016 0 97 -0.685016 1
gene 1 20 31 -0.973742 0 98 -0.973742 1
gene 1 20 32 3.26776 0 99 3.26776 1
gene 1 20 33 -1.51003 0 100 -1.51003 1
gene 1 21 29 -0.373989 0 101 -0.373989 1
gene 1 21 30 -0.277314 0 102 -0.277314 1
gene 1 21 31 1.09607 0 103 1.09607 1
gene 1 21 32 2.25491 0 104 2.25491 1
gene 1 21 33 1.908 0 105 1.908 1
gene 1 22 29 -1.39086 0 106 -1.39086 1
gene 1 22 30 1.23095 0 107 1.23095 1
gene 1 22 31 -0.385029 0 108 -0.385029 1
gene 1 22 32 -0.497707 0 109 -0.497707 1
gene 1 22 33 -0.655212 0 110 -0.655212 1
gene 1 23 29 1.02152 0 111 1.02152 1
gene 1 23 30 -2.27092 0 112 -2.27092 1
gene 1 23 31 -1.07782 0 113 -1.07782 1
gene 1 23 32 -2.96253 0 114 -2.96253 1
gene 1 23 33 -1.74082 0 115 -1.74082 1
gene 1 24 29 2.57774 0 116 2.57774 1
gene 1 24 30 -0.904405 0 117 -0.904405 1
gene 1 24 31 -0.767151 0 118 -0.767151 1
gene 1 24 32 -0.688427 0 119 -0.688427 1
gene 1 24 33 -0.519845 0 120 -0.519845 1
gene 1 25 29 0.583632 0 121 0.583632 1
gene 1 25 30 -0.225553 0 122 -0.225553 1
gene 1 25 31 0.8506 0 123 0.8506 1
gene 1 25 32 1.11006 0 124 1.11006 1
gene 1 25 33 -0.945222 0 125 -0.945222 1
gene 1 26 29 -4.01858 0 126 -4.01858 1
gene 1 26 30 1.34381 0 127 1.34381 1
gene 1 26 31 -0.255899 0 128 -0.255899 1
gene 1 26 32 0.052833 0 129 0.052833 1
gene 1 26 33 0.389639 0 130 0.389639 1
gene 1 27 29 -0.407085 0 131 -0.407085 1
gene 1 27 30 0.743455 0 132 0.743455 1
gene 1 27 31 -0.253771 0 133 -0.253771 1
gene 1 27 32 -1.00265 0 134 -1.00265 1
gene 1 27 33 -0.887683 0 135 -0.887683 1
gene 1 28 29 5 0 136 5 1
gene 1 28 30 1.22651 0 137 1.22651 1
gene 1 28 31 0.579349 0 138 0.579349 1
gene 1 28 32 0.487494 0 139 0.487494 1
gene 1 28 33 0.746431 0 140 0.746431 1
genomeend 0


