/* Organism #1 Fitness: 14263.374000 Time: 0 */
genomestart 1
trait 1 1.000000 0.000000 0.000000 0.702330 0.000000 0.643610 0.000000 0.000000 
node 1 1 1 1
node 2 1 1 1
node 3 1 1 1
node 4 1 1 1
node 5 1 1 1
node 6 1 1 1
node 7 1 1 1
node 8 1 1 1
node 9 1 1 1
node 10 1 1 1
node 11 1 1 1
node 12 1 1 1
node 13 1 1 1
node 14 1 1 1
node 15 1 1 1
node 16 1 1 1
node 17 1 1 1
node 18 1 1 1
node 19 1 1 1
node 20 1 1 1
node 21 1 1 1
node 22 1 1 1
node 23 1 1 1
node 24 1 1 1
node 25 1 1 1
node 26 1 1 1
node 27 1 1 1
node 28 1 1 1
node 29 1 1 1
node 30 1 1 3
node 31 1 0 2
node 32 1 0 2
node 33 1 0 2
gene 1 1 31 -2.7802 0 1 -2.7802 1
gene 1 1 32 -5 0 2 -5 1
gene 1 1 33 3.91176 0 3 3.91176 1
gene 1 2 31 -0.134966 0 4 -0.134966 1
gene 1 2 32 0.291146 0 5 0.291146 1
gene 1 2 33 0.279461 0 6 0.279461 1
gene 1 3 31 -0.432103 0 7 -0.432103 1
gene 1 3 32 -4.30136 0 8 -4.30136 1
gene 1 3 33 -1.82606 0 9 -1.82606 1
gene 1 4 31 2.26908 0 10 2.26908 1
gene 1 4 32 2.66187 0 11 2.66187 1
gene 1 4 33 -0.431442 0 12 -0.431442 1
gene 1 5 31 4.95649 0 13 4.95649 1
gene 1 5 32 -4.08449 0 14 -4.08449 1
gene 1 5 33 -0.704781 0 15 -0.704781 1
gene 1 6 31 2.95552 0 16 2.95552 1
gene 1 6 32 2.94502 0 17 2.94502 1
gene 1 6 33 -3.60724 0 18 -3.60724 1
gene 1 7 31 5 0 19 5 1
gene 1 7 32 -1.14891 0 20 -1.14891 1
gene 1 7 33 -1.97698 0 21 -1.97698 1
gene 1 8 31 2.65586 0 22 2.65586 1
gene 1 8 32 -2.52706 0 23 -2.52706 1
gene 1 8 33 3.40832 0 24 3.40832 1
gene 1 9 31 -2.57082 0 25 -2.57082 1
gene 1 9 32 0.726995 0 26 0.726995 1
gene 1 9 33 3.9803 0 27 3.9803 1
gene 1 10 31 -1.36225 0 28 -1.36225 1
gene 1 10 32 -0.793997 0 29 -0.793997 1
gene 1 10 33 -0.862236 0 30 -0.862236 1
gene 1 11 31 -3.52659 0 31 -3.52659 1
gene 1 11 32 4.47187 0 32 4.47187 1
gene 1 11 33 -0.71425 0 33 -0.71425 1
gene 1 12 31 -3.00616 0 34 -3.00616 1
gene 1 12 32 -2.99045 0 35 -2.99045 1
gene 1 12 33 1.45051 0 36 1.45051 1
gene 1 13 31 -5 0 37 -5 1
gene 1 13 32 0.774453 0 38 0.774453 1
gene 1 13 33 -3.20126 0 39 -3.20126 1
gene 1 14 31 3.71984 0 40 3.71984 1
gene 1 14 32 -5 0 41 -5 1
gene 1 14 33 -1.93785 0 42 -1.93785 1
gene 1 15 31 -2.14602 0 43 -2.14602 1
gene 1 15 32 1.13544 0 44 1.13544 1
gene 1 15 33 -0.0656664 0 45 -0.0656664 1
gene 1 16 31 -3.22656 0 46 -3.22656 1
gene 1 16 32 3.7554 0 47 3.7554 1
gene 1 16 33 4.823 0 48 4.823 1
gene 1 17 31 -3.78663 0 49 -3.78663 1
gene 1 17 32 -3.21381 0 50 -3.21381 1
gene 1 17 33 -3.57481 0 51 -3.57481 1
gene 1 18 31 -1.98891 0 52 -1.98891 1
gene 1 18 32 -4.35574 0 53 -4.35574 1
gene 1 18 33 -4.02374 0 54 -4.02374 1
gene 1 19 31 -2.90934 0 55 -2.90934 1
gene 1 19 32 -1.84104 0 56 -1.84104 1
gene 1 19 33 -3.24078 0 57 -3.24078 1
gene 1 20 31 -0.399341 0 58 -0.399341 1
gene 1 20 32 2.26446 0 59 2.26446 1
gene 1 20 33 0.316812 0 60 0.316812 1
gene 1 21 31 -0.997526 0 61 -0.997526 1
gene 1 21 32 3.88566 0 62 3.88566 1
gene 1 21 33 -3.00527 0 63 -3.00527 1
gene 1 22 31 -2.33643 0 64 -2.33643 1
gene 1 22 32 -4.73878 0 65 -4.73878 1
gene 1 22 33 2.07568 0 66 2.07568 1
gene 1 23 31 0.394504 0 67 0.394504 1
gene 1 23 32 3.67413 0 68 3.67413 1
gene 1 23 33 0.0234318 0 69 0.0234318 1
gene 1 24 31 0.590686 0 70 0.590686 1
gene 1 24 32 3.49402 0 71 3.49402 1
gene 1 24 33 0.44954 0 72 0.44954 1
gene 1 25 31 -3.42168 0 73 -3.42168 1
gene 1 25 32 1.17941 0 74 1.17941 1
gene 1 25 33 1.17926 0 75 1.17926 1
gene 1 26 31 0.364412 0 76 0.364412 1
gene 1 26 32 -1.80807 0 77 -1.80807 1
gene 1 26 33 0.842941 0 78 0.842941 1
gene 1 27 31 -0.635534 0 79 -0.635534 1
gene 1 27 32 -1.81688 0 80 -1.81688 1
gene 1 27 33 1.15354 0 81 1.15354 1
gene 1 28 31 -0.623321 0 82 -0.623321 1
gene 1 28 32 1.08643 0 83 1.08643 1
gene 1 28 33 -0.833086 0 84 -0.833086 1
gene 1 29 31 1.56096 0 85 1.56096 1
gene 1 29 32 0.668278 0 86 0.668278 1
gene 1 29 33 2.22313 0 87 2.22313 1
gene 1 30 31 0.907893 0 88 0.907893 1
gene 1 30 32 -1.04631 0 89 -1.04631 1
gene 1 30 33 0.867375 0 90 0.867375 1
genomeend 1


