/* Organism #9 Fitness: 12871.000000 Time: 0 */
genomestart 9
trait 1 1.000000 0.000000 0.000000 0.135816 0.000000 0.000000 0.000000 0.000000 
node 1 1 1 1
node 2 1 1 1
node 3 1 1 1
node 4 1 1 1
node 5 1 1 1
node 6 1 1 1
node 7 1 1 1
node 8 1 1 1
node 9 1 1 1
node 10 1 1 1
node 11 1 1 1
node 12 1 1 1
node 13 1 1 1
node 14 1 1 1
node 15 1 1 1
node 16 1 1 1
node 17 1 1 1
node 18 1 1 1
node 19 1 1 1
node 20 1 1 1
node 21 1 1 1
node 22 1 1 1
node 23 1 1 1
node 24 1 1 1
node 25 1 1 1
node 26 1 1 1
node 27 1 1 1
node 28 1 1 1
node 29 1 1 1
node 30 1 1 3
node 31 1 0 2
node 32 1 0 2
node 33 1 0 2
gene 1 1 31 -0.843583 0 1 -0.843583 1
gene 1 1 32 -3.78488 0 2 -3.78488 1
gene 1 1 33 -0.443251 0 3 -0.443251 1
gene 1 2 31 1.43427 0 4 1.43427 1
gene 1 2 32 -0.670752 0 5 -0.670752 1
gene 1 2 33 -0.762175 0 6 -0.762175 1
gene 1 3 31 -0.644133 0 7 -0.644133 1
gene 1 3 32 -4.17677 0 8 -4.17677 1
gene 1 3 33 -2.20135 0 9 -2.20135 1
gene 1 4 31 2.67546 0 10 2.67546 1
gene 1 4 32 1.35808 0 11 1.35808 1
gene 1 4 33 1.65186 0 12 1.65186 1
gene 1 5 31 3.20813 0 13 3.20813 1
gene 1 5 32 0.929624 0 14 0.929624 1
gene 1 5 33 -2.56829 0 15 -2.56829 1
gene 1 6 31 4.151 0 16 4.151 1
gene 1 6 32 -1.24385 0 17 -1.24385 1
gene 1 6 33 1.05037 0 18 1.05037 1
gene 1 7 31 4.89229 0 19 4.89229 1
gene 1 7 32 -0.442214 0 20 -0.442214 1
gene 1 7 33 -3.17731 0 21 -3.17731 1
gene 1 8 31 3.58331 0 22 3.58331 1
gene 1 8 32 -1.08872 0 23 -1.08872 1
gene 1 8 33 -0.275112 0 24 -0.275112 1
gene 1 9 31 0.542218 0 25 0.542218 1
gene 1 9 32 0.222886 0 26 0.222886 1
gene 1 9 33 2.52322 0 27 2.52322 1
gene 1 10 31 -0.432793 0 28 -0.432793 1
gene 1 10 32 -1.96006 0 29 -1.96006 1
gene 1 10 33 -0.64953 0 30 -0.64953 1
gene 1 11 31 -2.10517 0 31 -2.10517 1
gene 1 11 32 1.59864 0 32 1.59864 1
gene 1 11 33 -1.48194 0 33 -1.48194 1
gene 1 12 31 -0.766927 0 34 -0.766927 1
gene 1 12 32 -3.5825 0 35 -3.5825 1
gene 1 12 33 -0.690521 0 36 -0.690521 1
gene 1 13 31 -3.21415 0 37 -3.21415 1
gene 1 13 32 1.50125 0 38 1.50125 1
gene 1 13 33 -4.86565 0 39 -4.86565 1
gene 1 14 31 1.66087 0 40 1.66087 1
gene 1 14 32 -3.43904 0 41 -3.43904 1
gene 1 14 33 2.46407 0 42 2.46407 1
gene 1 15 31 -3.95326 0 43 -3.95326 1
gene 1 15 32 -1.02474 0 44 -1.02474 1
gene 1 15 33 1.32431 0 45 1.32431 1
gene 1 16 31 -1.6886 0 46 -1.6886 1
gene 1 16 32 1.24549 0 47 1.24549 1
gene 1 16 33 0.477465 0 48 0.477465 1
gene 1 17 31 -4.82178 0 49 -4.82178 1
gene 1 17 32 -2.87943 0 50 -2.87943 1
gene 1 17 33 -5 0 51 -5 1
gene 1 18 31 -5 0 52 -5 1
gene 1 18 32 -5 0 53 -5 1
gene 1 18 33 -3.25468 0 54 -3.25468 1
gene 1 19 31 0.0498063 0 55 0.0498063 1
gene 1 19 32 -4.11267 0 56 -4.11267 1
gene 1 19 33 -4.26643 0 57 -4.26643 1
gene 1 20 31 -1.42467 0 58 -1.42467 1
gene 1 20 32 1.50777 0 59 1.50777 1
gene 1 20 33 1.00016 0 60 1.00016 1
gene 1 21 31 2.13366 0 61 2.13366 1
gene 1 21 32 4.28143 0 62 4.28143 1
gene 1 21 33 -0.0529388 0 63 -0.0529388 1
gene 1 22 31 1.35861 0 64 1.35861 1
gene 1 22 32 -2.84028 0 65 -2.84028 1
gene 1 22 33 2.05376 0 66 2.05376 1
gene 1 23 31 0.508989 0 67 0.508989 1
gene 1 23 32 3.22875 0 68 3.22875 1
gene 1 23 33 -1.29254 0 69 -1.29254 1
gene 1 24 31 1.75621 0 70 1.75621 1
gene 1 24 32 1.66284 0 71 1.66284 1
gene 1 24 33 -1.14402 0 72 -1.14402 1
gene 1 25 31 -3.81959 0 73 -3.81959 1
gene 1 25 32 0.317233 0 74 0.317233 1
gene 1 25 33 -0.0111777 0 75 -0.0111777 1
gene 1 26 31 0.281653 0 76 0.281653 1
gene 1 26 32 0.0104823 0 77 0.0104823 1
gene 1 26 33 0.274822 0 78 0.274822 1
gene 1 27 31 1.82363 0 79 1.82363 1
gene 1 27 32 0.802193 0 80 0.802193 1
gene 1 27 33 -0.44499 0 81 -0.44499 1
gene 1 28 31 1.01543 0 82 1.01543 1
gene 1 28 32 0.680233 0 83 0.680233 1
gene 1 28 33 -0.539541 0 84 -0.539541 1
gene 1 29 31 -0.541715 0 85 -0.541715 1
gene 1 29 32 0.479089 0 86 0.479089 1
gene 1 29 33 -1.24507 0 87 -1.24507 1
gene 1 30 31 -0.564886 0 88 -0.564886 1
gene 1 30 32 1.17549 0 89 1.17549 1
gene 1 30 33 1.1765 0 90 1.1765 1
genomeend 9


