/* Organism #3 Fitness: 41266.930000 Time: 0 */
genomestart 3
trait 1 0.994782 0.281089 0.000000 0.000000 0.125698 1.000000 0.548947 0.000000 
node 1 1 1 1
node 2 1 1 1
node 3 1 1 1
node 4 1 1 1
node 5 1 1 1
node 6 1 1 1
node 7 1 1 1
node 8 1 1 1
node 9 1 1 1
node 10 1 1 1
node 11 1 1 1
node 12 1 1 1
node 13 1 1 1
node 14 1 1 1
node 15 1 1 1
node 16 1 1 1
node 17 1 1 1
node 18 1 1 1
node 19 1 1 1
node 20 1 1 1
node 21 1 1 1
node 22 1 1 1
node 23 1 1 1
node 24 1 1 1
node 25 1 1 1
node 26 1 1 1
node 27 1 1 1
node 28 1 1 1
node 29 1 1 1
node 30 1 1 1
node 31 1 1 3
node 32 1 0 2
node 33 1 0 2
node 34 1 0 2
node 35 1 0 0
node 36 1 0 0
node 37 1 0 1
gene 1 1 32 -5 0 1 -5 1
gene 1 1 33 0.245184 0 2 0.245184 1
gene 1 2 32 -3.15316 0 3 -3.15316 1
gene 1 2 33 2.09359 0 4 2.09359 1
gene 1 3 32 2.38059 0 5 2.38059 1
gene 1 3 33 5 0 6 5 1
gene 1 4 32 2.70742 0 7 2.70742 1
gene 1 4 33 4.50505 0 8 4.50505 1
gene 1 5 32 -4.52581 0 9 -4.52581 1
gene 1 5 33 -1.14696 0 10 -1.14696 1
gene 1 6 32 4.0767 0 11 4.0767 1
gene 1 6 33 -4.84579 0 12 -4.84579 1
gene 1 7 32 0.458716 0 13 0.458716 1
gene 1 7 33 2.77377 0 14 2.77377 1
gene 1 8 32 0.307415 0 15 0.307415 1
gene 1 8 33 -0.7326 0 16 -0.7326 1
gene 1 9 32 0.909637 0 17 0.909637 1
gene 1 9 33 -3.70735 0 18 -3.70735 1
gene 1 10 32 0.73988 0 19 0.73988 1
gene 1 10 33 0.773435 0 20 0.773435 1
gene 1 11 32 1.35291 0 21 1.35291 1
gene 1 11 33 2.28745 0 22 2.28745 1
gene 1 12 32 4.51956 0 23 4.51956 1
gene 1 12 33 -2.83596 0 24 -2.83596 1
gene 1 13 32 -2.35591 0 25 -2.35591 1
gene 1 13 33 -4.3721 0 26 -4.3721 1
gene 1 14 32 -4.04239 0 27 -4.04239 1
gene 1 14 33 -0.295282 0 28 -0.295282 1
gene 1 15 32 0.233611 0 29 0.233611 1
gene 1 15 33 -1.12958 0 30 -1.12958 1
gene 1 16 32 -1.17145 0 31 -1.17145 1
gene 1 16 33 -1.71846 0 32 -1.71846 1
gene 1 17 32 1.88359 0 33 1.88359 1
gene 1 17 33 -0.13311 0 34 -0.13311 1
gene 1 18 32 -1.29566 0 35 -1.29566 1
gene 1 18 33 -1.19118 0 36 -1.19118 1
gene 1 19 32 2.54934 0 37 2.54934 1
gene 1 19 33 2.36433 0 38 2.36433 1
gene 1 20 32 4.29647 0 39 4.29647 1
gene 1 20 33 2.05809 0 40 2.05809 1
gene 1 21 32 -3.44652 0 41 -3.44652 1
gene 1 21 33 -1.25159 0 42 -1.25159 1
gene 1 22 32 -0.0136282 0 43 -0.0136282 1
gene 1 22 33 -0.987008 0 44 -0.987008 1
gene 1 23 32 3.81211 0 45 3.81211 1
gene 1 23 33 -1.33745 0 46 -1.33745 1
gene 1 24 32 5 0 47 5 1
gene 1 24 33 -5 0 48 -5 1
gene 1 25 32 -1.42282 0 49 -1.42282 1
gene 1 25 33 -5 0 50 -5 1
gene 1 26 32 2.85486 0 51 2.85486 1
gene 1 26 33 1.0932 0 52 1.0932 1
gene 1 27 32 0.849022 0 53 0.849022 1
gene 1 27 33 -0.278015 0 54 -0.278015 1
gene 1 28 32 -4.91708 0 55 -4.91708 1
gene 1 28 33 -0.768219 0 56 -0.768219 1
gene 1 29 32 1.10264 0 57 1.10264 1
gene 1 29 33 -0.869752 0 58 -0.869752 1
gene 1 30 32 -5 0 59 -5 1
gene 1 30 33 -4.24834 0 60 -4.24834 1
gene 1 31 32 -3.11925 0 61 -3.11925 1
gene 1 31 33 -4.05656 0 62 -4.05656 1
gene 1 1 35 4.6156 0 63 4.6156 1
gene 1 1 36 -0.757522 0 64 -0.757522 1
gene 1 2 35 0.894079 0 65 0.894079 1
gene 1 2 36 -0.53587 0 66 -0.53587 1
gene 1 3 35 -0.332873 0 67 -0.332873 1
gene 1 3 36 -3.74163 0 68 -3.74163 1
gene 1 4 35 2.79559 0 69 2.79559 1
gene 1 4 36 -3.88348 0 70 -3.88348 1
gene 1 5 35 -0.833097 0 71 -0.833097 1
gene 1 5 36 0.849612 0 72 0.849612 1
gene 1 6 35 -2.02554 0 73 -2.02554 1
gene 1 6 36 -1.09609 0 74 -1.09609 1
gene 1 7 35 0.763575 0 75 0.763575 1
gene 1 7 36 -1.07275 0 76 -1.07275 1
gene 1 8 35 1.96083 0 77 1.96083 1
gene 1 8 36 0.453336 0 78 0.453336 1
gene 1 9 35 3.4136 0 79 3.4136 1
gene 1 9 36 0.069474 0 80 0.069474 1
gene 1 10 35 -0.34797 0 81 -0.34797 1
gene 1 10 36 1.66647 0 82 1.66647 1
gene 1 11 35 2.4797 0 83 2.4797 1
gene 1 11 36 -1.70772 0 84 -1.70772 1
gene 1 12 35 -0.320637 0 85 -0.320637 1
gene 1 12 36 -4.1077 0 86 -4.1077 1
gene 1 13 35 3.73932 0 87 3.73932 1
gene 1 13 36 -5 0 88 -5 1
gene 1 14 35 1.42367 0 89 1.42367 1
gene 1 14 36 1.50971 0 90 1.50971 1
gene 1 15 35 -1.99321 0 91 -1.99321 1
gene 1 15 36 0.119172 0 92 0.119172 1
gene 1 16 35 3.13957 0 93 3.13957 1
gene 1 16 36 -0.310843 0 94 -0.310843 1
gene 1 17 35 -4.28879 0 95 -4.28879 1
gene 1 17 36 1.83045 0 96 1.83045 1
gene 1 18 35 1.41933 0 97 1.41933 1
gene 1 18 36 -5 0 98 -5 1
gene 1 19 35 -1.99286 0 99 -1.99286 1
gene 1 19 36 -2.8044 0 100 -2.8044 1
gene 1 20 35 -1.18069 0 101 -1.18069 1
gene 1 20 36 1.89595 0 102 1.89595 1
gene 1 21 35 -0.817769 0 103 -0.817769 1
gene 1 21 36 -3.34487 0 104 -3.34487 1
gene 1 22 35 0.0943047 0 105 0.0943047 1
gene 1 22 36 -1.29735 0 106 -1.29735 1
gene 1 23 35 2.19998 0 107 2.19998 1
gene 1 23 36 -4.41669 0 108 -4.41669 1
gene 1 24 35 -1.24682 0 109 -1.24682 1
gene 1 24 36 1.08062 0 110 1.08062 1
gene 1 25 35 -0.258982 0 111 -0.258982 1
gene 1 25 36 0.254277 0 112 0.254277 1
gene 1 26 35 -1.35112 0 113 -1.35112 1
gene 1 26 36 -0.358658 0 114 -0.358658 1
gene 1 27 35 1.0546 0 115 1.0546 1
gene 1 27 36 -0.834771 0 116 -0.834771 1
gene 1 28 35 0.904687 0 117 0.904687 1
gene 1 28 36 1.35306 0 118 1.35306 1
gene 1 29 35 0.872378 0 119 0.872378 1
gene 1 29 36 0.30092 0 120 0.30092 1
gene 1 30 35 -1.76798 0 121 -1.76798 1
gene 1 30 36 -0.573883 0 122 -0.573883 1
gene 1 31 35 -0.35591 0 123 -0.35591 1
gene 1 31 36 1.65245 0 124 1.65245 1
gene 1 35 32 0.0918625 0 125 0.0918625 1
gene 1 35 33 -0.66007 0 126 -0.66007 1
gene 1 35 34 -0.171377 0 127 -0.171377 1
gene 1 36 32 0.755657 0 128 0.755657 1
gene 1 36 33 -1.38476 0 129 -1.38476 1
gene 1 36 34 0.348628 0 130 0.348628 1
gene 1 35 35 -1.03894 1 131 -1.03894 1
gene 1 36 36 0.837609 1 132 0.837609 1
gene 1 34 37 -0.157715 1 133 -0.157715 1
gene 1 37 32 -2.58942 0 134 -2.58942 1
gene 1 37 33 0.4522 0 135 0.4522 1
gene 1 37 34 -0.952766 0 136 -0.952766 1
genomeend 3


