/* Organism #11 Fitness: 41471.168000 Time: 0 */
genomestart 11
trait 1 0.974212 0.000000 0.649274 0.230495 0.000000 0.000000 1.000000 1.000000 
node 1 1 1 1
node 2 1 1 1
node 3 1 1 1
node 4 1 1 1
node 5 1 1 1
node 6 1 1 1
node 7 1 1 1
node 8 1 1 1
node 9 1 1 1
node 10 1 1 1
node 11 1 1 1
node 12 1 1 1
node 13 1 1 1
node 14 1 1 1
node 15 1 1 1
node 16 1 1 1
node 17 1 1 1
node 18 1 1 1
node 19 1 1 1
node 20 1 1 1
node 21 1 1 1
node 22 1 1 1
node 23 1 1 1
node 24 1 1 1
node 25 1 1 1
node 26 1 1 1
node 27 1 1 1
node 28 1 1 1
node 29 1 1 1
node 30 1 1 1
node 31 1 1 3
node 32 1 0 2
node 33 1 0 2
node 34 1 0 2
node 35 1 0 0
node 36 1 0 0
node 37 1 0 1
gene 1 1 32 -0.289208 0 1 -0.289208 1
gene 1 1 33 -3.57413 0 2 -3.57413 1
gene 1 2 32 -2.35958 0 3 -2.35958 1
gene 1 2 33 3.17913 0 4 3.17913 1
gene 1 3 32 -0.235266 0 5 -0.235266 1
gene 1 3 33 4.5065 0 6 4.5065 1
gene 1 4 32 2.11834 0 7 2.11834 1
gene 1 4 33 1.90875 0 8 1.90875 1
gene 1 5 32 -4.94616 0 9 -4.94616 1
gene 1 5 33 2.23618 0 10 2.23618 1
gene 1 6 32 5 0 11 5 1
gene 1 6 33 -5 0 12 -5 1
gene 1 7 32 -3.08758 0 13 -3.08758 1
gene 1 7 33 1.80639 0 14 1.80639 1
gene 1 8 32 -1.40166 0 15 -1.40166 1
gene 1 8 33 -4.73471 0 16 -4.73471 1
gene 1 9 32 0.277756 0 17 0.277756 1
gene 1 9 33 -0.4218 0 18 -0.4218 1
gene 1 10 32 -5 0 19 -5 1
gene 1 10 33 0.271826 0 20 0.271826 1
gene 1 11 32 -1.91704 0 21 -1.91704 1
gene 1 11 33 0.133206 0 22 0.133206 1
gene 1 12 32 2.19429 0 23 2.19429 1
gene 1 12 33 4.98248 0 24 4.98248 1
gene 1 13 32 -4.55172 0 25 -4.55172 1
gene 1 13 33 5 0 26 5 1
gene 1 14 32 1.6594 0 27 1.6594 1
gene 1 14 33 1.61834 0 28 1.61834 1
gene 1 15 32 -1.88574 0 29 -1.88574 1
gene 1 15 33 2.02125 0 30 2.02125 1
gene 1 16 32 0.0618053 0 31 0.0618053 1
gene 1 16 33 -4.26271 0 32 -4.26271 1
gene 1 17 32 2.73106 0 33 2.73106 1
gene 1 17 33 0.025951 0 34 0.025951 1
gene 1 18 32 -1.58604 0 35 -1.58604 1
gene 1 18 33 -1.76939 0 36 -1.76939 1
gene 1 19 32 1.24232 0 37 1.24232 1
gene 1 19 33 0.178344 0 38 0.178344 1
gene 1 20 32 3.35003 0 39 3.35003 1
gene 1 20 33 -0.160017 0 40 -0.160017 1
gene 1 21 32 -0.433725 0 41 -0.433725 1
gene 1 21 33 -2.6617 0 42 -2.6617 1
gene 1 22 32 2.44774 0 43 2.44774 1
gene 1 22 33 -4.64935 0 44 -4.64935 1
gene 1 23 32 -0.315989 0 45 -0.315989 1
gene 1 23 33 0.706498 0 46 0.706498 1
gene 1 24 32 1.69949 0 47 1.69949 1
gene 1 24 33 -0.615322 0 48 -0.615322 1
gene 1 25 32 -0.196669 0 49 -0.196669 1
gene 1 25 33 3.47661 0 50 3.47661 1
gene 1 26 32 -2.14221 0 51 -2.14221 1
gene 1 26 33 4.33801 0 52 4.33801 1
gene 1 27 32 -0.767958 0 53 -0.767958 1
gene 1 27 33 3.17622 0 54 3.17622 1
gene 1 28 32 2.50523 0 55 2.50523 1
gene 1 28 33 -5 0 56 -5 1
gene 1 29 32 -4.22015 0 57 -4.22015 1
gene 1 29 33 -1.10646 0 58 -1.10646 1
gene 1 30 32 -5 0 59 -5 1
gene 1 30 33 -3.42255 0 60 -3.42255 1
gene 1 31 32 -1.80693 0 61 -1.80693 1
gene 1 31 33 2.96074 0 62 2.96074 1
gene 1 1 35 0.469944 0 63 0.469944 1
gene 1 1 36 -0.966666 0 64 -0.966666 1
gene 1 2 35 -1.55414 0 65 -1.55414 1
gene 1 2 36 -4.07367 0 66 -4.07367 1
gene 1 3 35 0.267605 0 67 0.267605 1
gene 1 3 36 -4.10194 0 68 -4.10194 1
gene 1 4 35 0.203209 0 69 0.203209 1
gene 1 4 36 3.28577 0 70 3.28577 1
gene 1 5 35 -0.266933 0 71 -0.266933 1
gene 1 5 36 -2.93775 0 72 -2.93775 1
gene 1 6 35 -3.68707 0 73 -3.68707 1
gene 1 6 36 -2.08346 0 74 -2.08346 1
gene 1 7 35 1.54182 0 75 1.54182 1
gene 1 7 36 -1.59132 0 76 -1.59132 1
gene 1 8 35 3.11887 0 77 3.11887 1
gene 1 8 36 2.62813 0 78 2.62813 1
gene 1 9 35 -0.495769 0 79 -0.495769 1
gene 1 9 36 -3.63462 0 80 -3.63462 1
gene 1 10 35 -3.67125 0 81 -3.67125 1
gene 1 10 36 -4.43209 0 82 -4.43209 1
gene 1 11 35 4.54438 0 83 4.54438 1
gene 1 11 36 0.195206 0 84 0.195206 1
gene 1 12 35 -5 0 85 -5 1
gene 1 12 36 -0.112415 0 86 -0.112415 1
gene 1 13 35 -3.89209 0 87 -3.89209 1
gene 1 13 36 0.612411 0 88 0.612411 1
gene 1 14 35 -0.742176 0 89 -0.742176 1
gene 1 14 36 -4.12183 0 90 -4.12183 1
gene 1 15 35 -2.87113 0 91 -2.87113 1
gene 1 15 36 -5 0 92 -5 1
gene 1 16 35 3.53767 0 93 3.53767 1
gene 1 16 36 -3.9205 0 94 -3.9205 1
gene 1 17 35 -2.0464 0 95 -2.0464 1
gene 1 17 36 -3.75581 0 96 -3.75581 1
gene 1 18 35 -4.91126 0 97 -4.91126 1
gene 1 18 36 2.2177 0 98 2.2177 1
gene 1 19 35 -4.9754 0 99 -4.9754 1
gene 1 19 36 -0.221649 0 100 -0.221649 1
gene 1 20 35 2.00382 0 101 2.00382 1
gene 1 20 36 -3.50356 0 102 -3.50356 1
gene 1 21 35 -5 0 103 -5 1
gene 1 21 36 -0.444296 0 104 -0.444296 1
gene 1 22 35 3.95533 0 105 3.95533 1
gene 1 22 36 0.35829 0 106 0.35829 1
gene 1 23 35 -2.80988 0 107 -2.80988 1
gene 1 23 36 -1.75045 0 108 -1.75045 1
gene 1 24 35 1.86959 0 109 1.86959 1
gene 1 24 36 -1.2758 0 110 -1.2758 1
gene 1 25 35 0.970478 0 111 0.970478 1
gene 1 25 36 -2.272 0 112 -2.272 1
gene 1 26 35 -1.16265 0 113 -1.16265 1
gene 1 26 36 -0.610017 0 114 -0.610017 1
gene 1 27 35 0.626316 0 115 0.626316 1
gene 1 27 36 0.877035 0 116 0.877035 1
gene 1 28 35 -0.427098 0 117 -0.427098 1
gene 1 28 36 -0.358855 0 118 -0.358855 1
gene 1 29 35 1.95501 0 119 1.95501 1
gene 1 29 36 -1.98423 0 120 -1.98423 1
gene 1 30 35 0.738112 0 121 0.738112 1
gene 1 30 36 -2.07723 0 122 -2.07723 1
gene 1 31 35 0.263976 0 123 0.263976 1
gene 1 31 36 0.236697 0 124 0.236697 1
gene 1 35 32 -0.0188795 0 125 -0.0188795 1
gene 1 35 33 0.249258 0 126 0.249258 1
gene 1 35 34 0.0756359 0 127 0.0756359 1
gene 1 36 32 0.53041 0 128 0.53041 1
gene 1 36 33 1.38813 0 129 1.38813 1
gene 1 36 34 1.06154 0 130 1.06154 1
gene 1 35 35 -0.151749 1 131 -0.151749 1
gene 1 36 36 -0.897557 1 132 -0.897557 1
gene 1 34 37 0.0733247 1 133 0.0733247 1
gene 1 37 32 -0.52721 0 134 -0.52721 1
gene 1 37 33 -0.673673 0 135 -0.673673 1
gene 1 37 34 -0.435717 0 136 -0.435717 1
genomeend 11


