/* Organism #2 Fitness: 41412.754000 Time: 0 */
genomestart 2
trait 1 0.084916 0.000000 0.000000 1.000000 1.000000 0.739242 0.696589 1.000000 
node 1 1 1 1
node 2 1 1 1
node 3 1 1 1
node 4 1 1 1
node 5 1 1 1
node 6 1 1 1
node 7 1 1 1
node 8 1 1 1
node 9 1 1 1
node 10 1 1 1
node 11 1 1 1
node 12 1 1 1
node 13 1 1 1
node 14 1 1 1
node 15 1 1 1
node 16 1 1 1
node 17 1 1 1
node 18 1 1 1
node 19 1 1 1
node 20 1 1 1
node 21 1 1 1
node 22 1 1 1
node 23 1 1 1
node 24 1 1 1
node 25 1 1 1
node 26 1 1 1
node 27 1 1 1
node 28 1 1 1
node 29 1 1 1
node 30 1 1 1
node 31 1 1 3
node 32 1 0 2
node 33 1 0 2
node 34 1 0 2
node 35 1 0 0
node 36 1 0 0
node 37 1 0 1
gene 1 1 32 -1.40553 0 1 -1.40553 1
gene 1 1 33 5 0 2 5 1
gene 1 2 32 4.49771 0 3 4.49771 1
gene 1 2 33 -3.88989 0 4 -3.88989 1
gene 1 3 32 -0.908517 0 5 -0.908517 1
gene 1 3 33 -0.237051 0 6 -0.237051 1
gene 1 4 32 0.838561 0 7 0.838561 1
gene 1 4 33 1.00143 0 8 1.00143 1
gene 1 5 32 0.628963 0 9 0.628963 1
gene 1 5 33 0.550317 0 10 0.550317 1
gene 1 6 32 -2.81197 0 11 -2.81197 1
gene 1 6 33 0.202857 0 12 0.202857 1
gene 1 7 32 -3.65378 0 13 -3.65378 1
gene 1 7 33 1.62293 0 14 1.62293 1
gene 1 8 32 -2.08699 0 15 -2.08699 1
gene 1 8 33 -2.61277 0 16 -2.61277 1
gene 1 9 32 -2.99657 0 17 -2.99657 1
gene 1 9 33 4.48056 0 18 4.48056 1
gene 1 10 32 -1.25431 0 19 -1.25431 1
gene 1 10 33 2.5485 0 20 2.5485 1
gene 1 11 32 0.469768 0 21 0.469768 1
gene 1 11 33 -3.42696 0 22 -3.42696 1
gene 1 12 32 1.48729 0 23 1.48729 1
gene 1 12 33 -0.674635 0 24 -0.674635 1
gene 1 13 32 -0.143667 0 25 -0.143667 1
gene 1 13 33 -3.04413 0 26 -3.04413 1
gene 1 14 32 -0.444334 0 27 -0.444334 1
gene 1 14 33 4.07832 0 28 4.07832 1
gene 1 15 32 -5 0 29 -5 1
gene 1 15 33 -3.42724 0 30 -3.42724 1
gene 1 16 32 -2.62565 0 31 -2.62565 1
gene 1 16 33 2.19023 0 32 2.19023 1
gene 1 17 32 -1.2378 0 33 -1.2378 1
gene 1 17 33 2.89862 0 34 2.89862 1
gene 1 18 32 -0.476907 0 35 -0.476907 1
gene 1 18 33 -1.04468 0 36 -1.04468 1
gene 1 19 32 -0.285476 0 37 -0.285476 1
gene 1 19 33 -1.03227 0 38 -1.03227 1
gene 1 20 32 -1.1476 0 39 -1.1476 1
gene 1 20 33 1.02872 0 40 1.02872 1
gene 1 21 32 1.80702 0 41 1.80702 1
gene 1 21 33 1.05659 0 42 1.05659 1
gene 1 22 32 2.38197 0 43 2.38197 1
gene 1 22 33 -0.0307947 0 44 -0.0307947 1
gene 1 23 32 0.431588 0 45 0.431588 1
gene 1 23 33 3.66986 0 46 3.66986 1
gene 1 24 32 1.69127 0 47 1.69127 1
gene 1 24 33 -0.442317 0 48 -0.442317 1
gene 1 25 32 -2.65466 0 49 -2.65466 1
gene 1 25 33 -0.405331 0 50 -0.405331 1
gene 1 26 32 2.80556 0 51 2.80556 1
gene 1 26 33 -0.771276 0 52 -0.771276 1
gene 1 27 32 0.827608 0 53 0.827608 1
gene 1 27 33 4.55742 0 54 4.55742 1
gene 1 28 32 0.481842 0 55 0.481842 1
gene 1 28 33 -0.0230618 0 56 -0.0230618 1
gene 1 29 32 -0.165535 0 57 -0.165535 1
gene 1 29 33 -2.21484 0 58 -2.21484 1
gene 1 30 32 3.56644 0 59 3.56644 1
gene 1 30 33 0.288978 0 60 0.288978 1
gene 1 31 32 1.95955 0 61 1.95955 1
gene 1 31 33 -2.64884 0 62 -2.64884 1
gene 1 1 35 -1.10783 0 63 -1.10783 1
gene 1 1 36 -0.389277 0 64 -0.389277 1
gene 1 2 35 -2.68479 0 65 -2.68479 1
gene 1 2 36 -0.559194 0 66 -0.559194 1
gene 1 3 35 -1.88404 0 67 -1.88404 1
gene 1 3 36 -0.535939 0 68 -0.535939 1
gene 1 4 35 2.33759 0 69 2.33759 1
gene 1 4 36 -0.128446 0 70 -0.128446 1
gene 1 5 35 -2.86693 0 71 -2.86693 1
gene 1 5 36 0.903223 0 72 0.903223 1
gene 1 6 35 -1.82323 0 73 -1.82323 1
gene 1 6 36 0.515896 0 74 0.515896 1
gene 1 7 35 0.179443 0 75 0.179443 1
gene 1 7 36 1.31649 0 76 1.31649 1
gene 1 8 35 0.205656 0 77 0.205656 1
gene 1 8 36 3.624 0 78 3.624 1
gene 1 9 35 1.90873 0 79 1.90873 1
gene 1 9 36 -3.64369 0 80 -3.64369 1
gene 1 10 35 -1.4925 0 81 -1.4925 1
gene 1 10 36 0.22745 0 82 0.22745 1
gene 1 11 35 -0.748631 0 83 -0.748631 1
gene 1 11 36 1.35507 0 84 1.35507 1
gene 1 12 35 -3.18165 0 85 -3.18165 1
gene 1 12 36 -2.57479 0 86 -2.57479 1
gene 1 13 35 3.48569 0 87 3.48569 1
gene 1 13 36 1.94684 0 88 1.94684 1
gene 1 14 35 -2.32363 0 89 -2.32363 1
gene 1 14 36 2.84758 0 90 2.84758 1
gene 1 15 35 -1.72237 0 91 -1.72237 1
gene 1 15 36 -4.36741 0 92 -4.36741 1
gene 1 16 35 1.21125 0 93 1.21125 1
gene 1 16 36 1.36348 0 94 1.36348 1
gene 1 17 35 -1.70323 0 95 -1.70323 1
gene 1 17 36 -0.596812 0 96 -0.596812 1
gene 1 18 35 -1.10192 0 97 -1.10192 1
gene 1 18 36 4.00131 0 98 4.00131 1
gene 1 19 35 0.16113 0 99 0.16113 1
gene 1 19 36 -4.12028 0 100 -4.12028 1
gene 1 20 35 -0.742135 0 101 -0.742135 1
gene 1 20 36 0.866696 0 102 0.866696 1
gene 1 21 35 2.76622 0 103 2.76622 1
gene 1 21 36 0.300975 0 104 0.300975 1
gene 1 22 35 0.3192 0 105 0.3192 1
gene 1 22 36 0.16687 0 106 0.16687 1
gene 1 23 35 -0.4095 0 107 -0.4095 1
gene 1 23 36 0.152624 0 108 0.152624 1
gene 1 24 35 0.938996 0 109 0.938996 1
gene 1 24 36 0.456965 0 110 0.456965 1
gene 1 25 35 0.938792 0 111 0.938792 1
gene 1 25 36 0.590206 0 112 0.590206 1
gene 1 26 35 -0.0873571 0 113 -0.0873571 1
gene 1 26 36 0.121506 0 114 0.121506 1
gene 1 27 35 -1.76878 0 115 -1.76878 1
gene 1 27 36 -1.92042 0 116 -1.92042 1
gene 1 28 35 0.300474 0 117 0.300474 1
gene 1 28 36 1.83547 0 118 1.83547 1
gene 1 29 35 -0.666334 0 119 -0.666334 1
gene 1 29 36 -0.619813 0 120 -0.619813 1
gene 1 30 35 -0.731999 0 121 -0.731999 1
gene 1 30 36 1.8464 0 122 1.8464 1
gene 1 31 35 -0.855769 0 123 -0.855769 1
gene 1 31 36 -0.205622 0 124 -0.205622 1
gene 1 35 32 0.058576 0 125 0.058576 1
gene 1 35 33 1.34831 0 126 1.34831 1
gene 1 35 34 -0.453715 0 127 -0.453715 1
gene 1 36 32 0.585538 0 128 0.585538 1
gene 1 36 33 0.740612 0 129 0.740612 1
gene 1 36 34 -0.0439178 0 130 -0.0439178 1
gene 1 35 35 -2.0416 1 131 -2.0416 1
gene 1 36 36 0.73537 1 132 0.73537 1
gene 1 34 37 0.0201393 1 133 0.0201393 1
gene 1 37 32 -0.138616 0 134 -0.138616 1
gene 1 37 33 0.0650499 0 135 0.0650499 1
gene 1 37 34 -0.921044 0 136 -0.921044 1
genomeend 2


