/* Organism #1 Fitness: 17169.586000 Time: 0 */
genomestart 1
trait 1 0.000000 0.000000 0.000000 0.535061 0.000000 0.594155 0.570278 0.000000 
node 1 1 1 1
node 2 1 1 1
node 3 1 1 1
node 4 1 1 1
node 5 1 1 1
node 6 1 1 1
node 7 1 1 1
node 8 1 1 1
node 9 1 1 1
node 10 1 1 1
node 11 1 1 1
node 12 1 1 1
node 13 1 1 1
node 14 1 1 1
node 15 1 1 1
node 16 1 1 1
node 17 1 1 1
node 18 1 1 1
node 19 1 1 1
node 20 1 1 1
node 21 1 1 1
node 22 1 1 1
node 23 1 1 1
node 24 1 1 1
node 25 1 1 1
node 26 1 1 1
node 27 1 1 1
node 28 1 1 3
node 29 1 0 2
node 30 1 0 2
node 31 1 0 2
node 32 1 0 2
node 33 1 0 2
gene 1 1 29 -0.816136 0 1 -0.816136 1
gene 1 1 30 -0.647657 0 2 -0.647657 1
gene 1 1 31 -0.715203 0 3 -0.715203 1
gene 1 1 32 -1.59468 0 4 -1.59468 1
gene 1 1 33 -3.05161 0 5 -3.05161 1
gene 1 2 29 -3.73849 0 6 -3.73849 1
gene 1 2 30 -1.08304 0 7 -1.08304 1
gene 1 2 31 -0.288462 0 8 -0.288462 1
gene 1 2 32 0.113565 0 9 0.113565 1
gene 1 2 33 -3.18137 0 10 -3.18137 1
gene 1 3 29 0.285825 0 11 0.285825 1
gene 1 3 30 1.96758 0 12 1.96758 1
gene 1 3 31 -0.945146 0 13 -0.945146 1
gene 1 3 32 -3.36507 0 14 -3.36507 1
gene 1 3 33 -0.722139 0 15 -0.722139 1
gene 1 4 29 0.314569 0 16 0.314569 1
gene 1 4 30 0.990421 0 17 0.990421 1
gene 1 4 31 -0.364039 0 18 -0.364039 1
gene 1 4 32 -2.07758 0 19 -2.07758 1
gene 1 4 33 0.930504 0 20 0.930504 1
gene 1 5 29 0.68994 0 21 0.68994 1
gene 1 5 30 2.95796 0 22 2.95796 1
gene 1 5 31 -2.38089 0 23 -2.38089 1
gene 1 5 32 -4.28721 0 24 -4.28721 1
gene 1 5 33 -0.841231 0 25 -0.841231 1
gene 1 6 29 -1.66139 0 26 -1.66139 1
gene 1 6 30 -1.47282 0 27 -1.47282 1
gene 1 6 31 -2.51477 0 28 -2.51477 1
gene 1 6 32 1.85125 0 29 1.85125 1
gene 1 6 33 -2.4475 0 30 -2.4475 1
gene 1 7 29 -0.0988109 0 31 -0.0988109 1
gene 1 7 30 -0.967085 0 32 -0.967085 1
gene 1 7 31 -2.20533 0 33 -2.20533 1
gene 1 7 32 -2.55813 0 34 -2.55813 1
gene 1 7 33 1.35471 0 35 1.35471 1
gene 1 8 29 3.29185 0 36 3.29185 1
gene 1 8 30 0.766597 0 37 0.766597 1
gene 1 8 31 0.619615 0 38 0.619615 1
gene 1 8 32 -2.10903 0 39 -2.10903 1
gene 1 8 33 -1.7992 0 40 -1.7992 1
gene 1 9 29 2.37872 0 41 2.37872 1
gene 1 9 30 -2.24342 0 42 -2.24342 1
gene 1 9 31 0.895339 0 43 0.895339 1
gene 1 9 32 0.038406 0 44 0.038406 1
gene 1 9 33 -1.2726 0 45 -1.2726 1
gene 1 10 29 1.66041 0 46 1.66041 1
gene 1 10 30 -1.12342 0 47 -1.12342 1
gene 1 10 31 0.0766568 0 48 0.0766568 1
gene 1 10 32 -0.764704 0 49 -0.764704 1
gene 1 10 33 -1.01619 0 50 -1.01619 1
gene 1 11 29 3.85537 0 51 3.85537 1
gene 1 11 30 -4.72926 0 52 -4.72926 1
gene 1 11 31 -0.266457 0 53 -0.266457 1
gene 1 11 32 0.491553 0 54 0.491553 1
gene 1 11 33 0.887294 0 55 0.887294 1
gene 1 12 29 2.00363 0 56 2.00363 1
gene 1 12 30 -0.147973 0 57 -0.147973 1
gene 1 12 31 0.344697 0 58 0.344697 1
gene 1 12 32 2.90428 0 59 2.90428 1
gene 1 12 33 -0.252942 0 60 -0.252942 1
gene 1 13 29 -4.52395 0 61 -4.52395 1
gene 1 13 30 4.87682 0 62 4.87682 1
gene 1 13 31 -1.58228 0 63 -1.58228 1
gene 1 13 32 0.380238 0 64 0.380238 1
gene 1 13 33 -1.80831 0 65 -1.80831 1
gene 1 14 29 -2.55635 0 66 -2.55635 1
gene 1 14 30 4.33945 0 67 4.33945 1
gene 1 14 31 -0.815838 0 68 -0.815838 1
gene 1 14 32 -1.34699 0 69 -1.34699 1
gene 1 14 33 0.983145 0 70 0.983145 1
gene 1 15 29 0.278675 0 71 0.278675 1
gene 1 15 30 -0.851215 0 72 -0.851215 1
gene 1 15 31 0.386452 0 73 0.386452 1
gene 1 15 32 0.0486786 0 74 0.0486786 1
gene 1 15 33 0.750982 0 75 0.750982 1
gene 1 16 29 0.0535157 0 76 0.0535157 1
gene 1 16 30 0.554725 0 77 0.554725 1
gene 1 16 31 2.40688 0 78 2.40688 1
gene 1 16 32 -0.154217 0 79 -0.154217 1
gene 1 16 33 -3.49556 0 80 -3.49556 1
gene 1 17 29 -0.279992 0 81 -0.279992 1
gene 1 17 30 -0.483522 0 82 -0.483522 1
gene 1 17 31 -1.93733 0 83 -1.93733 1
gene 1 17 32 0.0964405 0 84 0.0964405 1
gene 1 17 33 0.602408 0 85 0.602408 1
gene 1 18 29 -5 0 86 -5 1
gene 1 18 30 1.69014 0 87 1.69014 1
gene 1 18 31 -3.43503 0 88 -3.43503 1
gene 1 18 32 -1.5971 0 89 -1.5971 1
gene 1 18 33 0.903271 0 90 0.903271 1
gene 1 19 29 -0.59267 0 91 -0.59267 1
gene 1 19 30 -0.423516 0 92 -0.423516 1
gene 1 19 31 0.524761 0 93 0.524761 1
gene 1 19 32 -2.78882 0 94 -2.78882 1
gene 1 19 33 0.079449 0 95 0.079449 1
gene 1 20 29 -0.556121 0 96 -0.556121 1
gene 1 20 30 -0.866162 0 97 -0.866162 1
gene 1 20 31 -0.913334 0 98 -0.913334 1
gene 1 20 32 -2.93942 0 99 -2.93942 1
gene 1 20 33 -0.733659 0 100 -0.733659 1
gene 1 21 29 2.06087 0 101 2.06087 1
gene 1 21 30 2.66944 0 102 2.66944 1
gene 1 21 31 -3.08593 0 103 -3.08593 1
gene 1 21 32 0.355002 0 104 0.355002 1
gene 1 21 33 -0.115215 0 105 -0.115215 1
gene 1 22 29 0.716528 0 106 0.716528 1
gene 1 22 30 0.376514 0 107 0.376514 1
gene 1 22 31 3.17453 0 108 3.17453 1
gene 1 22 32 0.66283 0 109 0.66283 1
gene 1 22 33 -0.635859 0 110 -0.635859 1
gene 1 23 29 3.27223 0 111 3.27223 1
gene 1 23 30 0.109578 0 112 0.109578 1
gene 1 23 31 0.882007 0 113 0.882007 1
gene 1 23 32 0.356178 0 114 0.356178 1
gene 1 23 33 0.925003 0 115 0.925003 1
gene 1 24 29 0.0392989 0 116 0.0392989 1
gene 1 24 30 0.977792 0 117 0.977792 1
gene 1 24 31 -1.31701 0 118 -1.31701 1
gene 1 24 32 1.24021 0 119 1.24021 1
gene 1 24 33 0.753601 0 120 0.753601 1
gene 1 25 29 3.9758 0 121 3.9758 1
gene 1 25 30 2.79457 0 122 2.79457 1
gene 1 25 31 0.661445 0 123 0.661445 1
gene 1 25 32 0.851627 0 124 0.851627 1
gene 1 25 33 -1.87272 0 125 -1.87272 1
gene 1 26 29 -0.751534 0 126 -0.751534 1
gene 1 26 30 -1.74115 0 127 -1.74115 1
gene 1 26 31 -0.0984302 0 128 -0.0984302 1
gene 1 26 32 -1.56992 0 129 -1.56992 1
gene 1 26 33 1.22926 0 130 1.22926 1
gene 1 27 29 0.488458 0 131 0.488458 1
gene 1 27 30 0.644158 0 132 0.644158 1
gene 1 27 31 -0.491292 0 133 -0.491292 1
gene 1 27 32 0.656169 0 134 0.656169 1
gene 1 27 33 -1.22392 0 135 -1.22392 1
gene 1 28 29 1.26858 0 136 1.26858 1
gene 1 28 30 -2.00912 0 137 -2.00912 1
gene 1 28 31 -1.4383 0 138 -1.4383 1
gene 1 28 32 -1.14979 0 139 -1.14979 1
gene 1 28 33 -0.107182 0 140 -0.107182 1
genomeend 1


