/* Organism #8 Fitness: 16965.176000 Time: 0 */
genomestart 8
trait 1 0.000000 1.000000 0.000000 0.000000 0.348565 0.656295 0.220140 0.748559 
node 1 1 1 1
node 2 1 1 1
node 3 1 1 1
node 4 1 1 1
node 5 1 1 1
node 6 1 1 1
node 7 1 1 1
node 8 1 1 1
node 9 1 1 1
node 10 1 1 1
node 11 1 1 1
node 12 1 1 1
node 13 1 1 1
node 14 1 1 1
node 15 1 1 1
node 16 1 1 1
node 17 1 1 1
node 18 1 1 1
node 19 1 1 1
node 20 1 1 1
node 21 1 1 1
node 22 1 1 1
node 23 1 1 1
node 24 1 1 1
node 25 1 1 1
node 26 1 1 1
node 27 1 1 1
node 28 1 1 3
node 29 1 0 2
node 30 1 0 2
node 31 1 0 2
node 32 1 0 2
node 33 1 0 2
gene 1 1 29 -5 0 1 -5 1
gene 1 1 30 -3.54023 0 2 -3.54023 1
gene 1 1 31 -0.744653 0 3 -0.744653 1
gene 1 1 32 -0.838029 0 4 -0.838029 1
gene 1 1 33 0.400555 0 5 0.400555 1
gene 1 2 29 1.26552 0 6 1.26552 1
gene 1 2 30 -0.299847 0 7 -0.299847 1
gene 1 2 31 -1.57931 0 8 -1.57931 1
gene 1 2 32 -2.58281 0 9 -2.58281 1
gene 1 2 33 0.958556 0 10 0.958556 1
gene 1 3 29 -0.43651 0 11 -0.43651 1
gene 1 3 30 -2.58048 0 12 -2.58048 1
gene 1 3 31 -3.99051 0 13 -3.99051 1
gene 1 3 32 -3.42959 0 14 -3.42959 1
gene 1 3 33 0.0891525 0 15 0.0891525 1
gene 1 4 29 5 0 16 5 1
gene 1 4 30 3.75152 0 17 3.75152 1
gene 1 4 31 2.82633 0 18 2.82633 1
gene 1 4 32 -3.2542 0 19 -3.2542 1
gene 1 4 33 2.26362 0 20 2.26362 1
gene 1 5 29 3.858 0 21 3.858 1
gene 1 5 30 3.4263 0 22 3.4263 1
gene 1 5 31 -3.01465 0 23 -3.01465 1
gene 1 5 32 1.20418 0 24 1.20418 1
gene 1 5 33 -3.16988 0 25 -3.16988 1
gene 1 6 29 0.246893 0 26 0.246893 1
gene 1 6 30 -1.98706 0 27 -1.98706 1
gene 1 6 31 1.58358 0 28 1.58358 1
gene 1 6 32 3.6014 0 29 3.6014 1
gene 1 6 33 2.94522 0 30 2.94522 1
gene 1 7 29 0.111889 0 31 0.111889 1
gene 1 7 30 -0.283166 0 32 -0.283166 1
gene 1 7 31 -0.396267 0 33 -0.396267 1
gene 1 7 32 -2.40204 0 34 -2.40204 1
gene 1 7 33 -2.00148 0 35 -2.00148 1
gene 1 8 29 2.65443 0 36 2.65443 1
gene 1 8 30 -3.70693 0 37 -3.70693 1
gene 1 8 31 0.719035 0 38 0.719035 1
gene 1 8 32 -2.0444 0 39 -2.0444 1
gene 1 8 33 -1.53252 0 40 -1.53252 1
gene 1 9 29 2.30702 0 41 2.30702 1
gene 1 9 30 -2.65364 0 42 -2.65364 1
gene 1 9 31 -2.51746 0 43 -2.51746 1
gene 1 9 32 -1.49735 0 44 -1.49735 1
gene 1 9 33 2.00666 0 45 2.00666 1
gene 1 10 29 -4.91134 0 46 -4.91134 1
gene 1 10 30 4.11734 0 47 4.11734 1
gene 1 10 31 0.907754 0 48 0.907754 1
gene 1 10 32 -3.8626 0 49 -3.8626 1
gene 1 10 33 2.32756 0 50 2.32756 1
gene 1 11 29 -5 0 51 -5 1
gene 1 11 30 0.207355 0 52 0.207355 1
gene 1 11 31 0.822504 0 53 0.822504 1
gene 1 11 32 -1.31986 0 54 -1.31986 1
gene 1 11 33 -0.496572 0 55 -0.496572 1
gene 1 12 29 -5 0 56 -5 1
gene 1 12 30 1.04076 0 57 1.04076 1
gene 1 12 31 2.34269 0 58 2.34269 1
gene 1 12 32 0.980552 0 59 0.980552 1
gene 1 12 33 -1.30435 0 60 -1.30435 1
gene 1 13 29 -0.262611 0 61 -0.262611 1
gene 1 13 30 -4.089 0 62 -4.089 1
gene 1 13 31 3.23586 0 63 3.23586 1
gene 1 13 32 -1.18737 0 64 -1.18737 1
gene 1 13 33 1.56267 0 65 1.56267 1
gene 1 14 29 -1.87058 0 66 -1.87058 1
gene 1 14 30 -1.33024 0 67 -1.33024 1
gene 1 14 31 0.49345 0 68 0.49345 1
gene 1 14 32 -0.240747 0 69 -0.240747 1
gene 1 14 33 0.404345 0 70 0.404345 1
gene 1 15 29 0.0619267 0 71 0.0619267 1
gene 1 15 30 1.34103 0 72 1.34103 1
gene 1 15 31 -0.338155 0 73 -0.338155 1
gene 1 15 32 1.76323 0 74 1.76323 1
gene 1 15 33 -0.210936 0 75 -0.210936 1
gene 1 16 29 3.42018 0 76 3.42018 1
gene 1 16 30 -4.76738 0 77 -4.76738 1
gene 1 16 31 0.296331 0 78 0.296331 1
gene 1 16 32 1.1538 0 79 1.1538 1
gene 1 16 33 -2.04186 0 80 -2.04186 1
gene 1 17 29 -0.075169 0 81 -0.075169 1
gene 1 17 30 3.99787 0 82 3.99787 1
gene 1 17 31 0.805199 0 83 0.805199 1
gene 1 17 32 0.654481 0 84 0.654481 1
gene 1 17 33 -1.58822 0 85 -1.58822 1
gene 1 18 29 2.93942 0 86 2.93942 1
gene 1 18 30 0.0407785 0 87 0.0407785 1
gene 1 18 31 -2.30398 0 88 -2.30398 1
gene 1 18 32 -0.18441 0 89 -0.18441 1
gene 1 18 33 -0.768105 0 90 -0.768105 1
gene 1 19 29 -1.30435 0 91 -1.30435 1
gene 1 19 30 0.332606 0 92 0.332606 1
gene 1 19 31 -1.05014 0 93 -1.05014 1
gene 1 19 32 -0.415829 0 94 -0.415829 1
gene 1 19 33 1.12754 0 95 1.12754 1
gene 1 20 29 -0.578519 0 96 -0.578519 1
gene 1 20 30 4.18863 0 97 4.18863 1
gene 1 20 31 0.619713 0 98 0.619713 1
gene 1 20 32 -4.26955 0 99 -4.26955 1
gene 1 20 33 -2.27708 0 100 -2.27708 1
gene 1 21 29 0.0327821 0 101 0.0327821 1
gene 1 21 30 0.116213 0 102 0.116213 1
gene 1 21 31 -2.00618 0 103 -2.00618 1
gene 1 21 32 -0.671922 0 104 -0.671922 1
gene 1 21 33 3.35749 0 105 3.35749 1
gene 1 22 29 -0.602089 0 106 -0.602089 1
gene 1 22 30 1.93663 0 107 1.93663 1
gene 1 22 31 2.38872 0 108 2.38872 1
gene 1 22 32 0.221722 0 109 0.221722 1
gene 1 22 33 -0.793151 0 110 -0.793151 1
gene 1 23 29 1.98684 0 111 1.98684 1
gene 1 23 30 -3.87013 0 112 -3.87013 1
gene 1 23 31 -0.897076 0 113 -0.897076 1
gene 1 23 32 0.133178 0 114 0.133178 1
gene 1 23 33 1.07518 0 115 1.07518 1
gene 1 24 29 -0.994677 0 116 -0.994677 1
gene 1 24 30 -0.59994 0 117 -0.59994 1
gene 1 24 31 1.53301 0 118 1.53301 1
gene 1 24 32 0.207904 0 119 0.207904 1
gene 1 24 33 0.58838 0 120 0.58838 1
gene 1 25 29 -3.52978 0 121 -3.52978 1
gene 1 25 30 -4.69575 0 122 -4.69575 1
gene 1 25 31 -0.197448 0 123 -0.197448 1
gene 1 25 32 -0.976241 0 124 -0.976241 1
gene 1 25 33 1.23487 0 125 1.23487 1
gene 1 26 29 5 0 126 5 1
gene 1 26 30 -0.312145 0 127 -0.312145 1
gene 1 26 31 -1.49313 0 128 -1.49313 1
gene 1 26 32 2.39215 0 129 2.39215 1
gene 1 26 33 -0.20208 0 130 -0.20208 1
gene 1 27 29 -0.984976 0 131 -0.984976 1
gene 1 27 30 -1.33895 0 132 -1.33895 1
gene 1 27 31 0.489004 0 133 0.489004 1
gene 1 27 32 -1.3707 0 134 -1.3707 1
gene 1 27 33 -0.734514 0 135 -0.734514 1
gene 1 28 29 0.81718 0 136 0.81718 1
gene 1 28 30 0.583169 0 137 0.583169 1
gene 1 28 31 -3.93595 0 138 -3.93595 1
gene 1 28 32 -0.0472323 0 139 -0.0472323 1
gene 1 28 33 1.10665 0 140 1.10665 1
genomeend 8


