/* Organism #21 Fitness: 7532.300000 Time: 0 */
genomestart 21
trait 1 0.000000 0.962228 0.027453 0.575778 0.000000 0.000000 0.000000 0.000000 
node 1 1 1 1
node 2 1 1 1
node 3 1 1 1
node 4 1 1 1
node 5 1 1 1
node 6 1 1 1
node 7 1 1 1
node 8 1 1 1
node 9 1 1 1
node 10 1 1 1
node 11 1 1 1
node 12 1 1 1
node 13 1 1 1
node 14 1 1 1
node 15 1 1 1
node 16 1 1 1
node 17 1 1 1
node 18 1 1 1
node 19 1 1 1
node 20 1 1 1
node 21 1 1 1
node 22 1 1 1
node 23 1 1 1
node 24 1 1 1
node 25 1 1 1
node 26 1 1 1
node 27 1 1 1
node 28 1 1 1
node 29 1 1 1
node 30 1 1 3
node 31 1 0 2
node 32 1 0 2
node 33 1 0 2
gene 1 1 31 -1.66204 0 1 -1.66204 1
gene 1 1 32 -0.282706 0 2 -0.282706 1
gene 1 1 33 4.08612 0 3 4.08612 1
gene 1 2 31 -0.268496 0 4 -0.268496 1
gene 1 2 32 3.74061 0 5 3.74061 1
gene 1 2 33 0.0124319 0 6 0.0124319 1
gene 1 3 31 -0.290274 0 7 -0.290274 1
gene 1 3 32 -1.61516 0 8 -1.61516 1
gene 1 3 33 -0.655549 0 9 -0.655549 1
gene 1 4 31 2.30926 0 10 2.30926 1
gene 1 4 32 1.19426 0 11 1.19426 1
gene 1 4 33 1.46536 0 12 1.46536 1
gene 1 5 31 1.62533 0 13 1.62533 1
gene 1 5 32 -1.85098 0 14 -1.85098 1
gene 1 5 33 -0.25149 0 15 -0.25149 1
gene 1 6 31 0.370906 0 16 0.370906 1
gene 1 6 32 -2.52275 0 17 -2.52275 1
gene 1 6 33 -1.09122 0 18 -1.09122 1
gene 1 7 31 1.28113 0 19 1.28113 1
gene 1 7 32 2.69949 0 20 2.69949 1
gene 1 7 33 -0.0579721 0 21 -0.0579721 1
gene 1 8 31 -2.60961 0 22 -2.60961 1
gene 1 8 32 1.49243 0 23 1.49243 1
gene 1 8 33 -0.637866 0 24 -0.637866 1
gene 1 9 31 -0.257407 0 25 -0.257407 1
gene 1 9 32 1.24357 0 26 1.24357 1
gene 1 9 33 -0.579835 0 27 -0.579835 1
gene 1 10 31 -0.0251801 0 28 -0.0251801 1
gene 1 10 32 1.32077 0 29 1.32077 1
gene 1 10 33 2.23089 0 30 2.23089 1
gene 1 11 31 4.4697 0 31 4.4697 1
gene 1 11 32 -0.462004 0 32 -0.462004 1
gene 1 11 33 -0.22368 0 33 -0.22368 1
gene 1 12 31 -0.210381 0 34 -0.210381 1
gene 1 12 32 3.88363 0 35 3.88363 1
gene 1 12 33 -0.789777 0 36 -0.789777 1
gene 1 13 31 -2.00059 0 37 -2.00059 1
gene 1 13 32 2.28506 0 38 2.28506 1
gene 1 13 33 -0.757394 0 39 -0.757394 1
gene 1 14 31 2.34347 0 40 2.34347 1
gene 1 14 32 3.3589 0 41 3.3589 1
gene 1 14 33 -0.645052 0 42 -0.645052 1
gene 1 15 31 -0.424331 0 43 -0.424331 1
gene 1 15 32 0.692243 0 44 0.692243 1
gene 1 15 33 -4.08847 0 45 -4.08847 1
gene 1 16 31 1.74656 0 46 1.74656 1
gene 1 16 32 0.502719 0 47 0.502719 1
gene 1 16 33 -0.39671 0 48 -0.39671 1
gene 1 17 31 -2.03982 0 49 -2.03982 1
gene 1 17 32 -2.63695 0 50 -2.63695 1
gene 1 17 33 -1.09691 0 51 -1.09691 1
gene 1 18 31 -0.623665 0 52 -0.623665 1
gene 1 18 32 1.28985 0 53 1.28985 1
gene 1 18 33 -1.04748 0 54 -1.04748 1
gene 1 19 31 0.526588 0 55 0.526588 1
gene 1 19 32 -4.31825 0 56 -4.31825 1
gene 1 19 33 0.143887 0 57 0.143887 1
gene 1 20 31 -0.520333 0 58 -0.520333 1
gene 1 20 32 -3.10093 0 59 -3.10093 1
gene 1 20 33 0.304278 0 60 0.304278 1
gene 1 21 31 -3.25891 0 61 -3.25891 1
gene 1 21 32 -0.0717581 0 62 -0.0717581 1
gene 1 21 33 -1.37851 0 63 -1.37851 1
gene 1 22 31 -0.863306 0 64 -0.863306 1
gene 1 22 32 -1.85881 0 65 -1.85881 1
gene 1 22 33 0.0951144 0 66 0.0951144 1
gene 1 23 31 -1.4652 0 67 -1.4652 1
gene 1 23 32 1.21777 0 68 1.21777 1
gene 1 23 33 -2.59168 0 69 -2.59168 1
gene 1 24 31 2.36672 0 70 2.36672 1
gene 1 24 32 -1.71336 0 71 -1.71336 1
gene 1 24 33 0.274485 0 72 0.274485 1
gene 1 25 31 -0.00607016 0 73 -0.00607016 1
gene 1 25 32 1.3278 0 74 1.3278 1
gene 1 25 33 -0.0994499 0 75 -0.0994499 1
gene 1 26 31 0.258049 0 76 0.258049 1
gene 1 26 32 1.36917 0 77 1.36917 1
gene 1 26 33 0.437758 0 78 0.437758 1
gene 1 27 31 -0.41345 0 79 -0.41345 1
gene 1 27 32 -1.64718 0 80 -1.64718 1
gene 1 27 33 0.628499 0 81 0.628499 1
gene 1 28 31 0.951874 0 82 0.951874 1
gene 1 28 32 -0.67059 0 83 -0.67059 1
gene 1 28 33 0.41451 0 84 0.41451 1
gene 1 29 31 0.492583 0 85 0.492583 1
gene 1 29 32 1.21968 0 86 1.21968 1
gene 1 29 33 -0.549454 0 87 -0.549454 1
gene 1 30 31 -0.609843 0 88 -0.609843 1
gene 1 30 32 -0.490802 0 89 -0.490802 1
gene 1 30 33 -0.982581 0 90 -0.982581 1
genomeend 21


