/* Organism #7 Fitness: 11389.500000 Time: 0 */
genomestart 7
trait 1 0.000000 0.000000 0.982017 0.000000 0.000000 0.846223 0.567708 0.000000 
node 1 1 1 1
node 2 1 1 1
node 3 1 1 1
node 4 1 1 1
node 5 1 1 1
node 6 1 1 1
node 7 1 1 1
node 8 1 1 1
node 9 1 1 1
node 10 1 1 1
node 11 1 1 1
node 12 1 1 1
node 13 1 1 1
node 14 1 1 1
node 15 1 1 1
node 16 1 1 1
node 17 1 1 1
node 18 1 1 1
node 19 1 1 1
node 20 1 1 1
node 21 1 1 1
node 22 1 1 1
node 23 1 1 1
node 24 1 1 1
node 25 1 1 1
node 26 1 1 1
node 27 1 1 1
node 28 1 1 1
node 29 1 1 1
node 30 1 1 3
node 31 1 0 2
node 32 1 0 2
node 33 1 0 2
gene 1 1 31 -1.09564 0 1 -1.09564 1
gene 1 1 32 3.13079 0 2 3.13079 1
gene 1 1 33 -0.718157 0 3 -0.718157 1
gene 1 2 31 1.1311 0 4 1.1311 1
gene 1 2 32 1.77678 0 5 1.77678 1
gene 1 2 33 1.52665 0 6 1.52665 1
gene 1 3 31 1.25894 0 7 1.25894 1
gene 1 3 32 -0.524686 0 8 -0.524686 1
gene 1 3 33 -2.74769 0 9 -2.74769 1
gene 1 4 31 -0.39966 0 10 -0.39966 1
gene 1 4 32 -1.86213 0 11 -1.86213 1
gene 1 4 33 0.206541 0 12 0.206541 1
gene 1 5 31 -0.459681 0 13 -0.459681 1
gene 1 5 32 2.0499 0 14 2.0499 1
gene 1 5 33 -0.572531 0 15 -0.572531 1
gene 1 6 31 0.82255 0 16 0.82255 1
gene 1 6 32 -1.83326 0 17 -1.83326 1
gene 1 6 33 0.0696411 0 18 0.0696411 1
gene 1 7 31 0.910925 0 19 0.910925 1
gene 1 7 32 0.622387 0 20 0.622387 1
gene 1 7 33 -0.167966 0 21 -0.167966 1
gene 1 8 31 0.122668 0 22 0.122668 1
gene 1 8 32 -0.736966 0 23 -0.736966 1
gene 1 8 33 -3.52446 0 24 -3.52446 1
gene 1 9 31 0.364963 0 25 0.364963 1
gene 1 9 32 -1.18806 0 26 -1.18806 1
gene 1 9 33 -2.24087 0 27 -2.24087 1
gene 1 10 31 1.12816 0 28 1.12816 1
gene 1 10 32 -0.903833 0 29 -0.903833 1
gene 1 10 33 0.311711 0 30 0.311711 1
gene 1 11 31 -4.03989 0 31 -4.03989 1
gene 1 11 32 1.06648 0 32 1.06648 1
gene 1 11 33 0.81229 0 33 0.81229 1
gene 1 12 31 -3.73012 0 34 -3.73012 1
gene 1 12 32 -1.75604 0 35 -1.75604 1
gene 1 12 33 1.38467 0 36 1.38467 1
gene 1 13 31 -5 0 37 -5 1
gene 1 13 32 -0.268936 0 38 -0.268936 1
gene 1 13 33 -0.626246 0 39 -0.626246 1
gene 1 14 31 -3.20216 0 40 -3.20216 1
gene 1 14 32 -0.426572 0 41 -0.426572 1
gene 1 14 33 -0.732065 0 42 -0.732065 1
gene 1 15 31 1.50177 0 43 1.50177 1
gene 1 15 32 0.189645 0 44 0.189645 1
gene 1 15 33 0.889855 0 45 0.889855 1
gene 1 16 31 5 0 46 5 1
gene 1 16 32 -1.0694 0 47 -1.0694 1
gene 1 16 33 -0.455387 0 48 -0.455387 1
gene 1 17 31 1.7853 0 49 1.7853 1
gene 1 17 32 2.64804 0 50 2.64804 1
gene 1 17 33 -2.73693 0 51 -2.73693 1
gene 1 18 31 0.268052 0 52 0.268052 1
gene 1 18 32 1.59216 0 53 1.59216 1
gene 1 18 33 -4.83268 0 54 -4.83268 1
gene 1 19 31 1.3339 0 55 1.3339 1
gene 1 19 32 1.40849 0 56 1.40849 1
gene 1 19 33 1.45457 0 57 1.45457 1
gene 1 20 31 -0.295978 0 58 -0.295978 1
gene 1 20 32 -1.22322 0 59 -1.22322 1
gene 1 20 33 0.655369 0 60 0.655369 1
gene 1 21 31 -3.0442 0 61 -3.0442 1
gene 1 21 32 3.66223 0 62 3.66223 1
gene 1 21 33 -4.05093 0 63 -4.05093 1
gene 1 22 31 -1.84533 0 64 -1.84533 1
gene 1 22 32 -1.09143 0 65 -1.09143 1
gene 1 22 33 1.09436 0 66 1.09436 1
gene 1 23 31 1.5796 0 67 1.5796 1
gene 1 23 32 0.484722 0 68 0.484722 1
gene 1 23 33 -0.0158464 0 69 -0.0158464 1
gene 1 24 31 -0.30924 0 70 -0.30924 1
gene 1 24 32 0.28512 0 71 0.28512 1
gene 1 24 33 -0.929005 0 72 -0.929005 1
gene 1 25 31 -0.130194 0 73 -0.130194 1
gene 1 25 32 2.69293 0 74 2.69293 1
gene 1 25 33 -3.75723 0 75 -3.75723 1
gene 1 26 31 0.483158 0 76 0.483158 1
gene 1 26 32 0.779849 0 77 0.779849 1
gene 1 26 33 1.36866 0 78 1.36866 1
gene 1 27 31 1.88447 0 79 1.88447 1
gene 1 27 32 0.210217 0 80 0.210217 1
gene 1 27 33 0.401934 0 81 0.401934 1
gene 1 28 31 0.845151 0 82 0.845151 1
gene 1 28 32 -0.56225 0 83 -0.56225 1
gene 1 28 33 -0.321777 0 84 -0.321777 1
gene 1 29 31 0.520242 0 85 0.520242 1
gene 1 29 32 0.798593 0 86 0.798593 1
gene 1 29 33 0.926587 0 87 0.926587 1
gene 1 30 31 -0.575165 0 88 -0.575165 1
gene 1 30 32 -0.000691398 0 89 -0.000691398 1
gene 1 30 33 -0.324535 0 90 -0.324535 1
genomeend 7


