/* Organism #83 Fitness: 36105.538000 Time: 0 */
genomestart 83
trait 1 0.000000 0.670325 0.000000 0.000000 0.000000 0.000000 0.000000 0.000000 
node 1 1 1 1
node 2 1 1 1
node 3 1 1 1
node 4 1 1 1
node 5 1 1 1
node 6 1 1 1
node 7 1 1 1
node 8 1 1 1
node 9 1 1 1
node 10 1 1 1
node 11 1 1 1
node 12 1 1 1
node 13 1 1 1
node 14 1 1 1
node 15 1 1 1
node 16 1 1 1
node 17 1 1 1
node 18 1 1 1
node 19 1 1 1
node 20 1 1 1
node 21 1 1 1
node 22 1 1 1
node 23 1 1 1
node 24 1 1 1
node 25 1 1 1
node 26 1 1 1
node 27 1 1 1
node 28 1 1 1
node 29 1 1 1
node 30 1 1 3
node 31 1 0 2
node 32 1 0 2
node 33 1 0 2
gene 1 1 31 1.43507 0 1 1.43507 1
gene 1 1 32 -4.1816 0 2 -4.1816 1
gene 1 1 33 2.4492 0 3 2.4492 1
gene 1 2 31 -0.87645 0 4 -0.87645 1
gene 1 2 32 2.07105 0 5 2.07105 1
gene 1 2 33 3.28002 0 6 3.28002 1
gene 1 3 31 0.973113 0 7 0.973113 1
gene 1 3 32 4.72084 0 8 4.72084 1
gene 1 3 33 -1.42916 0 9 -1.42916 1
gene 1 4 31 -2.50823 0 10 -2.50823 1
gene 1 4 32 2.32316 0 11 2.32316 1
gene 1 4 33 -0.508501 0 12 -0.508501 1
gene 1 5 31 4.40902 0 13 4.40902 1
gene 1 5 32 -5 0 14 -5 1
gene 1 5 33 -0.79516 0 15 -0.79516 1
gene 1 6 31 -4.47136 0 16 -4.47136 1
gene 1 6 32 1.77294 0 17 1.77294 1
gene 1 6 33 -2.06098 0 18 -2.06098 1
gene 1 7 31 4.34197 0 19 4.34197 1
gene 1 7 32 -3.00871 0 20 -3.00871 1
gene 1 7 33 -4.28273 0 21 -4.28273 1
gene 1 8 31 -0.884594 0 22 -0.884594 1
gene 1 8 32 -1.75009 0 23 -1.75009 1
gene 1 8 33 -4.18751 0 24 -4.18751 1
gene 1 9 31 -3.17561 0 25 -3.17561 1
gene 1 9 32 3.22524 0 26 3.22524 1
gene 1 9 33 1.08455 0 27 1.08455 1
gene 1 10 31 -0.339313 0 28 -0.339313 1
gene 1 10 32 2.39043 0 29 2.39043 1
gene 1 10 33 -0.442339 0 30 -0.442339 1
gene 1 11 31 -1.11253 0 31 -1.11253 1
gene 1 11 32 4.91557 0 32 4.91557 1
gene 1 11 33 0.645925 0 33 0.645925 1
gene 1 12 31 2.65693 0 34 2.65693 1
gene 1 12 32 -0.434883 0 35 -0.434883 1
gene 1 12 33 4.74731 0 36 4.74731 1
gene 1 13 31 -0.753 0 37 -0.753 1
gene 1 13 32 -0.035035 0 38 -0.035035 1
gene 1 13 33 0.160533 0 39 0.160533 1
gene 1 14 31 5 0 40 5 1
gene 1 14 32 -1.40608 0 41 -1.40608 1
gene 1 14 33 0.179504 0 42 0.179504 1
gene 1 15 31 0.13092 0 43 0.13092 1
gene 1 15 32 -0.752423 0 44 -0.752423 1
gene 1 15 33 -1.69878 0 45 -1.69878 1
gene 1 16 31 3.78683 0 46 3.78683 1
gene 1 16 32 -3.58746 0 47 -3.58746 1
gene 1 16 33 -3.69094 0 48 -3.69094 1
gene 1 17 31 -0.355434 0 49 -0.355434 1
gene 1 17 32 -2.16567 0 50 -2.16567 1
gene 1 17 33 0.0359912 0 51 0.0359912 1
gene 1 18 31 -0.796595 0 52 -0.796595 1
gene 1 18 32 1.604 0 53 1.604 1
gene 1 18 33 3.1419 0 54 3.1419 1
gene 1 19 31 -2.18881 0 55 -2.18881 1
gene 1 19 32 -1.35797 0 56 -1.35797 1
gene 1 19 33 -4.87845 0 57 -4.87845 1
gene 1 20 31 -0.926852 0 58 -0.926852 1
gene 1 20 32 -0.476907 0 59 -0.476907 1
gene 1 20 33 -0.42765 0 60 -0.42765 1
gene 1 21 31 0.452048 0 61 0.452048 1
gene 1 21 32 0.578416 0 62 0.578416 1
gene 1 21 33 -3.40012 0 63 -3.40012 1
gene 1 22 31 -2.75593 0 64 -2.75593 1
gene 1 22 32 1.67343 0 65 1.67343 1
gene 1 22 33 -0.684555 0 66 -0.684555 1
gene 1 23 31 2.80571 0 67 2.80571 1
gene 1 23 32 1.35669 0 68 1.35669 1
gene 1 23 33 1.36882 0 69 1.36882 1
gene 1 24 31 0.42621 0 70 0.42621 1
gene 1 24 32 0.0304816 0 71 0.0304816 1
gene 1 24 33 1.02789 0 72 1.02789 1
gene 1 25 31 -1.26122 0 73 -1.26122 1
gene 1 25 32 -0.960904 0 74 -0.960904 1
gene 1 25 33 -1.24068 0 75 -1.24068 1
gene 1 26 31 0.550803 0 76 0.550803 1
gene 1 26 32 -0.0150385 0 77 -0.0150385 1
gene 1 26 33 0.0532119 0 78 0.0532119 1
gene 1 27 31 0.0852189 0 79 0.0852189 1
gene 1 27 32 0.403849 0 80 0.403849 1
gene 1 27 33 0.299538 0 81 0.299538 1
gene 1 28 31 0.545828 0 82 0.545828 1
gene 1 28 32 0.588003 0 83 0.588003 1
gene 1 28 33 1.53007 0 84 1.53007 1
gene 1 29 31 -0.930458 0 85 -0.930458 1
gene 1 29 32 2.03399 0 86 2.03399 1
gene 1 29 33 1.31256 0 87 1.31256 1
gene 1 30 31 -0.953116 0 88 -0.953116 1
gene 1 30 32 -2.52818 0 89 -2.52818 1
gene 1 30 33 -0.224464 0 90 -0.224464 1
genomeend 83


