/* Organism #9 Fitness: 34395.022000 Time: 0 */
genomestart 9
trait 1 0.000000 0.351179 0.912244 0.000000 1.000000 1.000000 1.000000 1.000000 
node 1 1 1 1
node 2 1 1 1
node 3 1 1 1
node 4 1 1 1
node 5 1 1 1
node 6 1 1 1
node 7 1 1 1
node 8 1 1 1
node 9 1 1 1
node 10 1 1 1
node 11 1 1 1
node 12 1 1 1
node 13 1 1 1
node 14 1 1 1
node 15 1 1 1
node 16 1 1 1
node 17 1 1 1
node 18 1 1 1
node 19 1 1 1
node 20 1 1 1
node 21 1 1 1
node 22 1 1 1
node 23 1 1 1
node 24 1 1 1
node 25 1 1 1
node 26 1 1 3
node 27 1 0 2
node 28 1 0 2
node 29 1 0 2
gene 1 1 27 -0.115652 0 1 -0.115652 1
gene 1 1 28 -1.3294 0 2 -1.3294 1
gene 1 1 29 1.6168 0 3 1.6168 1
gene 1 2 27 4.14424 0 4 4.14424 1
gene 1 2 28 0.10815 0 5 0.10815 1
gene 1 2 29 3.80451 0 6 3.80451 1
gene 1 3 27 1.60528 0 7 1.60528 1
gene 1 3 28 -1.74839 0 8 -1.74839 1
gene 1 3 29 -4.37671 0 9 -4.37671 1
gene 1 4 27 -4.12986 0 10 -4.12986 1
gene 1 4 28 0.546047 0 11 0.546047 1
gene 1 4 29 -4.49689 0 12 -4.49689 1
gene 1 5 27 2.88682 0 13 2.88682 1
gene 1 5 28 -2.51996 0 14 -2.51996 1
gene 1 5 29 -5 0 15 -5 1
gene 1 6 27 -4.0012 0 16 -4.0012 1
gene 1 6 28 0.139357 0 17 0.139357 1
gene 1 6 29 2.43963 0 18 2.43963 1
gene 1 7 27 0.427112 0 19 0.427112 1
gene 1 7 28 3.28974 0 20 3.28974 1
gene 1 7 29 -0.579555 0 21 -0.579555 1
gene 1 8 27 -0.651796 0 22 -0.651796 1
gene 1 8 28 5 0 23 5 1
gene 1 8 29 -1.33099 0 24 -1.33099 1
gene 1 9 27 -0.29831 0 25 -0.29831 1
gene 1 9 28 0.294971 0 26 0.294971 1
gene 1 9 29 0.75178 0 27 0.75178 1
gene 1 10 27 4.26744 0 28 4.26744 1
gene 1 10 28 -1.83557 0 29 -1.83557 1
gene 1 10 29 -0.552024 0 30 -0.552024 1
gene 1 11 27 -0.662204 0 31 -0.662204 1
gene 1 11 28 -1.18002 0 32 -1.18002 1
gene 1 11 29 -0.641772 0 33 -0.641772 1
gene 1 12 27 -0.418197 0 34 -0.418197 1
gene 1 12 28 3.51946 0 35 3.51946 1
gene 1 12 29 -1.0132 0 36 -1.0132 1
gene 1 13 27 0.14226 0 37 0.14226 1
gene 1 13 28 -2.23794 0 38 -2.23794 1
gene 1 13 29 1.84687 0 39 1.84687 1
gene 1 14 27 4.06601 0 40 4.06601 1
gene 1 14 28 -2.4124 0 41 -2.4124 1
gene 1 14 29 -2.92697 0 42 -2.92697 1
gene 1 15 27 -2.61577 0 43 -2.61577 1
gene 1 15 28 -4.02545 0 44 -4.02545 1
gene 1 15 29 1.93902 0 45 1.93902 1
gene 1 16 27 0.620486 0 46 0.620486 1
gene 1 16 28 1.78879 0 47 1.78879 1
gene 1 16 29 -3.48024 0 48 -3.48024 1
gene 1 17 27 4.70966 0 49 4.70966 1
gene 1 17 28 2.1635 0 50 2.1635 1
gene 1 17 29 -3.1637 0 51 -3.1637 1
gene 1 18 27 1.97032 0 52 1.97032 1
gene 1 18 28 -0.117126 0 53 -0.117126 1
gene 1 18 29 -0.0124986 0 54 -0.0124986 1
gene 1 19 27 0.92342 0 55 0.92342 1
gene 1 19 28 -3.14284 0 56 -3.14284 1
gene 1 19 29 -1.7973 0 57 -1.7973 1
gene 1 20 27 -0.0643081 0 58 -0.0643081 1
gene 1 20 28 1.09176 0 59 1.09176 1
gene 1 20 29 -2.42796 0 60 -2.42796 1
gene 1 21 27 2.98676 0 61 2.98676 1
gene 1 21 28 -3.23452 0 62 -3.23452 1
gene 1 21 29 2.57932 0 63 2.57932 1
gene 1 22 27 1.52515 0 64 1.52515 1
gene 1 22 28 -0.544249 0 65 -0.544249 1
gene 1 22 29 -0.499443 0 66 -0.499443 1
gene 1 23 27 0.377857 0 67 0.377857 1
gene 1 23 28 -1.55856 0 68 -1.55856 1
gene 1 23 29 -0.296103 0 69 -0.296103 1
gene 1 24 27 -0.710937 0 70 -0.710937 1
gene 1 24 28 1.13142 0 71 1.13142 1
gene 1 24 29 -1.12711 0 72 -1.12711 1
gene 1 25 27 1.53461 0 73 1.53461 1
gene 1 25 28 0.38857 0 74 0.38857 1
gene 1 25 29 1.34551 0 75 1.34551 1
gene 1 26 27 0.129968 0 76 0.129968 1
gene 1 26 28 2.04475 0 77 2.04475 1
gene 1 26 29 -0.976832 0 78 -0.976832 1
genomeend 9


