/* Organism #0 Fitness: 37025.500000 Time: 0 */
genomestart 0
trait 1 0.000000 0.288523 0.000000 0.583857 0.402666 0.000000 0.529408 0.000000 
node 1 1 1 1
node 2 1 1 1
node 3 1 1 1
node 4 1 1 1
node 5 1 1 1
node 6 1 1 1
node 7 1 1 1
node 8 1 1 1
node 9 1 1 1
node 10 1 1 1
node 11 1 1 1
node 12 1 1 1
node 13 1 1 1
node 14 1 1 1
node 15 1 1 1
node 16 1 1 1
node 17 1 1 1
node 18 1 1 1
node 19 1 1 1
node 20 1 1 1
node 21 1 1 1
node 22 1 1 1
node 23 1 1 1
node 24 1 1 1
node 25 1 1 1
node 26 1 1 1
node 27 1 1 1
node 28 1 1 1
node 29 1 1 1
node 30 1 1 3
node 31 1 0 2
node 32 1 0 2
node 33 1 0 2
gene 1 1 31 4.41014 0 1 4.41014 1
gene 1 1 32 -3.83048 0 2 -3.83048 1
gene 1 1 33 -2.23011 0 3 -2.23011 1
gene 1 2 31 0.706186 0 4 0.706186 1
gene 1 2 32 0.647652 0 5 0.647652 1
gene 1 2 33 -2.44 0 6 -2.44 1
gene 1 3 31 0.66618 0 7 0.66618 1
gene 1 3 32 -1.8565 0 8 -1.8565 1
gene 1 3 33 -2.78297 0 9 -2.78297 1
gene 1 4 31 4.13787 0 10 4.13787 1
gene 1 4 32 -1.0347 0 11 -1.0347 1
gene 1 4 33 -0.336978 0 12 -0.336978 1
gene 1 5 31 -2.34909 0 13 -2.34909 1
gene 1 5 32 3.17173 0 14 3.17173 1
gene 1 5 33 -1.04978 0 15 -1.04978 1
gene 1 6 31 2.55035 0 16 2.55035 1
gene 1 6 32 -0.887305 0 17 -0.887305 1
gene 1 6 33 0.785263 0 18 0.785263 1
gene 1 7 31 5 0 19 5 1
gene 1 7 32 0.941905 0 20 0.941905 1
gene 1 7 33 1.71104 0 21 1.71104 1
gene 1 8 31 -1.23563 0 22 -1.23563 1
gene 1 8 32 5 0 23 5 1
gene 1 8 33 3.18163 0 24 3.18163 1
gene 1 9 31 3.57833 0 25 3.57833 1
gene 1 9 32 2.10156 0 26 2.10156 1
gene 1 9 33 1.55011 0 27 1.55011 1
gene 1 10 31 3.77864 0 28 3.77864 1
gene 1 10 32 0.555115 0 29 0.555115 1
gene 1 10 33 0.792362 0 30 0.792362 1
gene 1 11 31 -0.66843 0 31 -0.66843 1
gene 1 11 32 -0.233694 0 32 -0.233694 1
gene 1 11 33 -1.53344 0 33 -1.53344 1
gene 1 12 31 1.57476 0 34 1.57476 1
gene 1 12 32 -2.46393 0 35 -2.46393 1
gene 1 12 33 0.394503 0 36 0.394503 1
gene 1 13 31 -0.0446288 0 37 -0.0446288 1
gene 1 13 32 -2.22988 0 38 -2.22988 1
gene 1 13 33 3.51634 0 39 3.51634 1
gene 1 14 31 -3.75615 0 40 -3.75615 1
gene 1 14 32 1.47446 0 41 1.47446 1
gene 1 14 33 -5 0 42 -5 1
gene 1 15 31 -2.61729 0 43 -2.61729 1
gene 1 15 32 -5 0 44 -5 1
gene 1 15 33 -1.3809 0 45 -1.3809 1
gene 1 16 31 5 0 46 5 1
gene 1 16 32 -0.492118 0 47 -0.492118 1
gene 1 16 33 0.878091 0 48 0.878091 1
gene 1 17 31 -0.570112 0 49 -0.570112 1
gene 1 17 32 2.8162 0 50 2.8162 1
gene 1 17 33 -1.54001 0 51 -1.54001 1
gene 1 18 31 -1.23916 0 52 -1.23916 1
gene 1 18 32 2.30851 0 53 2.30851 1
gene 1 18 33 1.4595 0 54 1.4595 1
gene 1 19 31 -1.77204 0 55 -1.77204 1
gene 1 19 32 0.13467 0 56 0.13467 1
gene 1 19 33 1.80009 0 57 1.80009 1
gene 1 20 31 1.0222 0 58 1.0222 1
gene 1 20 32 1.45882 0 59 1.45882 1
gene 1 20 33 -1.49734 0 60 -1.49734 1
gene 1 21 31 5 0 61 5 1
gene 1 21 32 -2.72292 0 62 -2.72292 1
gene 1 21 33 1.69825 0 63 1.69825 1
gene 1 22 31 2.61424 0 64 2.61424 1
gene 1 22 32 1.34855 0 65 1.34855 1
gene 1 22 33 -1.57117 0 66 -1.57117 1
gene 1 23 31 -0.768761 0 67 -0.768761 1
gene 1 23 32 -1.87932 0 68 -1.87932 1
gene 1 23 33 -1.14397 0 69 -1.14397 1
gene 1 24 31 -1.70176 0 70 -1.70176 1
gene 1 24 32 -1.74346 0 71 -1.74346 1
gene 1 24 33 -0.0971384 0 72 -0.0971384 1
gene 1 25 31 -1.7994 0 73 -1.7994 1
gene 1 25 32 0.231012 0 74 0.231012 1
gene 1 25 33 -0.86475 0 75 -0.86475 1
gene 1 26 31 0.54347 0 76 0.54347 1
gene 1 26 32 -0.3926 0 77 -0.3926 1
gene 1 26 33 0.867561 0 78 0.867561 1
gene 1 27 31 1.45221 0 79 1.45221 1
gene 1 27 32 -0.764127 0 80 -0.764127 1
gene 1 27 33 1.83225 0 81 1.83225 1
gene 1 28 31 -1.30931 0 82 -1.30931 1
gene 1 28 32 0.83634 0 83 0.83634 1
gene 1 28 33 3.68408 0 84 3.68408 1
gene 1 29 31 0.0766523 0 85 0.0766523 1
gene 1 29 32 -0.191732 0 86 -0.191732 1
gene 1 29 33 -0.803743 0 87 -0.803743 1
gene 1 30 31 2.89632 0 88 2.89632 1
gene 1 30 32 -0.494769 0 89 -0.494769 1
gene 1 30 33 1.12288 0 90 1.12288 1
genomeend 0


