/* Organism #0 Fitness: 39168.700000 Time: 0 */
genomestart 0
trait 1 0.000000 0.212743 0.000000 0.427592 0.173935 1.000000 0.148765 1.000000 
node 1 1 1 1
node 2 1 1 1
node 3 1 1 1
node 4 1 1 1
node 5 1 1 1
node 6 1 1 1
node 7 1 1 1
node 8 1 1 1
node 9 1 1 1
node 10 1 1 1
node 11 1 1 1
node 12 1 1 1
node 13 1 1 1
node 14 1 1 1
node 15 1 1 1
node 16 1 1 1
node 17 1 1 1
node 18 1 1 1
node 19 1 1 1
node 20 1 1 1
node 21 1 1 1
node 22 1 1 1
node 23 1 1 1
node 24 1 1 1
node 25 1 1 1
node 26 1 1 1
node 27 1 1 1
node 28 1 1 1
node 29 1 1 1
node 30 1 1 3
node 31 1 0 2
node 32 1 0 2
node 33 1 0 2
gene 1 1 31 4.18494 0 1 4.18494 1
gene 1 1 32 -4.30658 0 2 -4.30658 1
gene 1 1 33 -5 0 3 -5 1
gene 1 2 31 -3.72327 0 4 -3.72327 1
gene 1 2 32 -2.50721 0 5 -2.50721 1
gene 1 2 33 0.312768 0 6 0.312768 1
gene 1 3 31 0.741839 0 7 0.741839 1
gene 1 3 32 0.299308 0 8 0.299308 1
gene 1 3 33 -4.84109 0 9 -4.84109 1
gene 1 4 31 -0.7613 0 10 -0.7613 1
gene 1 4 32 -3.94752 0 11 -3.94752 1
gene 1 4 33 -0.798713 0 12 -0.798713 1
gene 1 5 31 -3.22883 0 13 -3.22883 1
gene 1 5 32 -1.15461 0 14 -1.15461 1
gene 1 5 33 -2.10587 0 15 -2.10587 1
gene 1 6 31 5 0 16 5 1
gene 1 6 32 0.53999 0 17 0.53999 1
gene 1 6 33 -4.04715 0 18 -4.04715 1
gene 1 7 31 3.4933 0 19 3.4933 1
gene 1 7 32 1.30824 0 20 1.30824 1
gene 1 7 33 4.99614 0 21 4.99614 1
gene 1 8 31 2.45462 0 22 2.45462 1
gene 1 8 32 5 0 23 5 1
gene 1 8 33 2.7008 0 24 2.7008 1
gene 1 9 31 1.82449 0 25 1.82449 1
gene 1 9 32 0.646225 0 26 0.646225 1
gene 1 9 33 0.213061 0 27 0.213061 1
gene 1 10 31 1.22589 0 28 1.22589 1
gene 1 10 32 0.523642 0 29 0.523642 1
gene 1 10 33 1.41012 0 30 1.41012 1
gene 1 11 31 1.38073 0 31 1.38073 1
gene 1 11 32 -0.313089 0 32 -0.313089 1
gene 1 11 33 -1.44098 0 33 -1.44098 1
gene 1 12 31 4.32459 0 34 4.32459 1
gene 1 12 32 -3.26884 0 35 -3.26884 1
gene 1 12 33 2.08322 0 36 2.08322 1
gene 1 13 31 -3.31848 0 37 -3.31848 1
gene 1 13 32 0.137636 0 38 0.137636 1
gene 1 13 33 4.21247 0 39 4.21247 1
gene 1 14 31 2.94703 0 40 2.94703 1
gene 1 14 32 2.48421 0 41 2.48421 1
gene 1 14 33 0.252148 0 42 0.252148 1
gene 1 15 31 -3.90595 0 43 -3.90595 1
gene 1 15 32 -0.919209 0 44 -0.919209 1
gene 1 15 33 0.625396 0 45 0.625396 1
gene 1 16 31 3.00174 0 46 3.00174 1
gene 1 16 32 0.561689 0 47 0.561689 1
gene 1 16 33 -1.50527 0 48 -1.50527 1
gene 1 17 31 -0.580557 0 49 -0.580557 1
gene 1 17 32 0.329987 0 50 0.329987 1
gene 1 17 33 -0.141096 0 51 -0.141096 1
gene 1 18 31 -3.38649 0 52 -3.38649 1
gene 1 18 32 -1.06577 0 53 -1.06577 1
gene 1 18 33 0.613443 0 54 0.613443 1
gene 1 19 31 -2.39628 0 55 -2.39628 1
gene 1 19 32 0.0433107 0 56 0.0433107 1
gene 1 19 33 3.5083 0 57 3.5083 1
gene 1 20 31 2.56554 0 58 2.56554 1
gene 1 20 32 -2.02041 0 59 -2.02041 1
gene 1 20 33 -1.29082 0 60 -1.29082 1
gene 1 21 31 1.78479 0 61 1.78479 1
gene 1 21 32 -4.91525 0 62 -4.91525 1
gene 1 21 33 -1.23485 0 63 -1.23485 1
gene 1 22 31 -0.39614 0 64 -0.39614 1
gene 1 22 32 3.61846 0 65 3.61846 1
gene 1 22 33 0.118573 0 66 0.118573 1
gene 1 23 31 -0.0846225 0 67 -0.0846225 1
gene 1 23 32 0.0326115 0 68 0.0326115 1
gene 1 23 33 -1.12121 0 69 -1.12121 1
gene 1 24 31 -2.49771 0 70 -2.49771 1
gene 1 24 32 -2.09891 0 71 -2.09891 1
gene 1 24 33 0.2407 0 72 0.2407 1
gene 1 25 31 -1.51701 0 73 -1.51701 1
gene 1 25 32 1.7145 0 74 1.7145 1
gene 1 25 33 -1.79189 0 75 -1.79189 1
gene 1 26 31 -1.92936 0 76 -1.92936 1
gene 1 26 32 0.256119 0 77 0.256119 1
gene 1 26 33 0.14985 0 78 0.14985 1
gene 1 27 31 -0.224028 0 79 -0.224028 1
gene 1 27 32 -0.0513109 0 80 -0.0513109 1
gene 1 27 33 -0.598749 0 81 -0.598749 1
gene 1 28 31 -0.331796 0 82 -0.331796 1
gene 1 28 32 -1.49387 0 83 -1.49387 1
gene 1 28 33 -0.0848116 0 84 -0.0848116 1
gene 1 29 31 -2.70355 0 85 -2.70355 1
gene 1 29 32 -0.103187 0 86 -0.103187 1
gene 1 29 33 -0.251384 0 87 -0.251384 1
gene 1 30 31 3.7957 0 88 3.7957 1
gene 1 30 32 4.13769 0 89 4.13769 1
gene 1 30 33 0.98979 0 90 0.98979 1
genomeend 0


