/* Organism #10 Fitness: 13226.800000 Time: 0 */
genomestart 10
trait 1 1.000000 0.000000 0.000000 0.000000 0.000000 0.601659 0.256178 0.000000 
node 1 1 1 1
node 2 1 1 1
node 3 1 1 1
node 4 1 1 1
node 5 1 1 1
node 6 1 1 1
node 7 1 1 1
node 8 1 1 1
node 9 1 1 1
node 10 1 1 1
node 11 1 1 1
node 12 1 1 1
node 13 1 1 1
node 14 1 1 1
node 15 1 1 1
node 16 1 1 1
node 17 1 1 1
node 18 1 1 1
node 19 1 1 1
node 20 1 1 1
node 21 1 1 1
node 22 1 1 1
node 23 1 1 1
node 24 1 1 1
node 25 1 1 1
node 26 1 1 1
node 27 1 1 1
node 28 1 1 1
node 29 1 1 1
node 30 1 1 3
node 31 1 0 2
node 32 1 0 2
node 33 1 0 2
gene 1 1 31 -3.16894 0 1 -3.16894 1
gene 1 1 32 0.524846 0 2 0.524846 1
gene 1 1 33 2.79984 0 3 2.79984 1
gene 1 2 31 -1.97533 0 4 -1.97533 1
gene 1 2 32 -0.848483 0 5 -0.848483 1
gene 1 2 33 -0.177678 0 6 -0.177678 1
gene 1 3 31 -1.13761 0 7 -1.13761 1
gene 1 3 32 1.71255 0 8 1.71255 1
gene 1 3 33 0.985049 0 9 0.985049 1
gene 1 4 31 0.631876 0 10 0.631876 1
gene 1 4 32 0.946487 0 11 0.946487 1
gene 1 4 33 0.599039 0 12 0.599039 1
gene 1 5 31 1.51348 0 13 1.51348 1
gene 1 5 32 -2.70165 0 14 -2.70165 1
gene 1 5 33 -0.409388 0 15 -0.409388 1
gene 1 6 31 1.27864 0 16 1.27864 1
gene 1 6 32 -0.410603 0 17 -0.410603 1
gene 1 6 33 -5 0 18 -5 1
gene 1 7 31 4.00527 0 19 4.00527 1
gene 1 7 32 -1.38927 0 20 -1.38927 1
gene 1 7 33 2.86801 0 21 2.86801 1
gene 1 8 31 -0.258857 0 22 -0.258857 1
gene 1 8 32 0.737498 0 23 0.737498 1
gene 1 8 33 1.01545 0 24 1.01545 1
gene 1 9 31 1.33596 0 25 1.33596 1
gene 1 9 32 -1.69057 0 26 -1.69057 1
gene 1 9 33 -4.67234 0 27 -4.67234 1
gene 1 10 31 0.921956 0 28 0.921956 1
gene 1 10 32 -1.18557 0 29 -1.18557 1
gene 1 10 33 -2.09317 0 30 -2.09317 1
gene 1 11 31 -1.76199 0 31 -1.76199 1
gene 1 11 32 -0.0849394 0 32 -0.0849394 1
gene 1 11 33 -0.536218 0 33 -0.536218 1
gene 1 12 31 -0.0268453 0 34 -0.0268453 1
gene 1 12 32 -0.804513 0 35 -0.804513 1
gene 1 12 33 1.62085 0 36 1.62085 1
gene 1 13 31 3.67185 0 37 3.67185 1
gene 1 13 32 0.812843 0 38 0.812843 1
gene 1 13 33 -0.718871 0 39 -0.718871 1
gene 1 14 31 0.532913 0 40 0.532913 1
gene 1 14 32 -0.0300063 0 41 -0.0300063 1
gene 1 14 33 -0.453712 0 42 -0.453712 1
gene 1 15 31 2.20416 0 43 2.20416 1
gene 1 15 32 -1.91493 0 44 -1.91493 1
gene 1 15 33 3.73849 0 45 3.73849 1
gene 1 16 31 1.70648 0 46 1.70648 1
gene 1 16 32 0.726885 0 47 0.726885 1
gene 1 16 33 -0.188931 0 48 -0.188931 1
gene 1 17 31 -4.42542 0 49 -4.42542 1
gene 1 17 32 -0.490818 0 50 -0.490818 1
gene 1 17 33 0.854593 0 51 0.854593 1
gene 1 18 31 -4.34919 0 52 -4.34919 1
gene 1 18 32 -1.19151 0 53 -1.19151 1
gene 1 18 33 -0.649729 0 54 -0.649729 1
gene 1 19 31 -0.297093 0 55 -0.297093 1
gene 1 19 32 -0.336037 0 56 -0.336037 1
gene 1 19 33 -1.03737 0 57 -1.03737 1
gene 1 20 31 0.0507545 0 58 0.0507545 1
gene 1 20 32 -0.988612 0 59 -0.988612 1
gene 1 20 33 0.20636 0 60 0.20636 1
gene 1 21 31 -0.209982 0 61 -0.209982 1
gene 1 21 32 -0.618895 0 62 -0.618895 1
gene 1 21 33 2.83144 0 63 2.83144 1
gene 1 22 31 -0.0982364 0 64 -0.0982364 1
gene 1 22 32 1.90315 0 65 1.90315 1
gene 1 22 33 1.17535 0 66 1.17535 1
gene 1 23 31 -0.226161 0 67 -0.226161 1
gene 1 23 32 -0.920756 0 68 -0.920756 1
gene 1 23 33 -2.55364 0 69 -2.55364 1
gene 1 24 31 -0.034002 0 70 -0.034002 1
gene 1 24 32 -0.178364 0 71 -0.178364 1
gene 1 24 33 3.98925 0 72 3.98925 1
gene 1 25 31 -0.0847017 0 73 -0.0847017 1
gene 1 25 32 -1.79716 0 74 -1.79716 1
gene 1 25 33 -0.982039 0 75 -0.982039 1
gene 1 26 31 -0.47924 0 76 -0.47924 1
gene 1 26 32 -0.362818 0 77 -0.362818 1
gene 1 26 33 0.449271 0 78 0.449271 1
gene 1 27 31 -0.845837 0 79 -0.845837 1
gene 1 27 32 0.153626 0 80 0.153626 1
gene 1 27 33 -0.758524 0 81 -0.758524 1
gene 1 28 31 -0.2328 0 82 -0.2328 1
gene 1 28 32 0.502792 0 83 0.502792 1
gene 1 28 33 2.47728 0 84 2.47728 1
gene 1 29 31 -1.19873 0 85 -1.19873 1
gene 1 29 32 -2.87623 0 86 -2.87623 1
gene 1 29 33 -0.627121 0 87 -0.627121 1
gene 1 30 31 0.975712 0 88 0.975712 1
gene 1 30 32 -2.83997 0 89 -2.83997 1
gene 1 30 33 -1.06339 0 90 -1.06339 1
genomeend 10


