/* Organism #14 Fitness: 14497.200000 Time: 0 */
genomestart 14
trait 1 1.000000 0.000000 0.000000 0.000000 0.000000 1.000000 0.256178 0.775748 
node 1 1 1 1
node 2 1 1 1
node 3 1 1 1
node 4 1 1 1
node 5 1 1 1
node 6 1 1 1
node 7 1 1 1
node 8 1 1 1
node 9 1 1 1
node 10 1 1 1
node 11 1 1 1
node 12 1 1 1
node 13 1 1 1
node 14 1 1 1
node 15 1 1 1
node 16 1 1 1
node 17 1 1 1
node 18 1 1 1
node 19 1 1 1
node 20 1 1 1
node 21 1 1 1
node 22 1 1 1
node 23 1 1 1
node 24 1 1 1
node 25 1 1 1
node 26 1 1 1
node 27 1 1 1
node 28 1 1 1
node 29 1 1 1
node 30 1 1 3
node 31 1 0 2
node 32 1 0 2
node 33 1 0 2
gene 1 1 31 -4.12288 0 1 -4.12288 1
gene 1 1 32 1.42975 0 2 1.42975 1
gene 1 1 33 4.83084 0 3 4.83084 1
gene 1 2 31 1.8645 0 4 1.8645 1
gene 1 2 32 0.258188 0 5 0.258188 1
gene 1 2 33 0.189466 0 6 0.189466 1
gene 1 3 31 0.683742 0 7 0.683742 1
gene 1 3 32 0.708923 0 8 0.708923 1
gene 1 3 33 -0.0374125 0 9 -0.0374125 1
gene 1 4 31 1.75789 0 10 1.75789 1
gene 1 4 32 0.550395 0 11 0.550395 1
gene 1 4 33 -1.17409 0 12 -1.17409 1
gene 1 5 31 0.174416 0 13 0.174416 1
gene 1 5 32 1.34217 0 14 1.34217 1
gene 1 5 33 -1.7446 0 15 -1.7446 1
gene 1 6 31 2.32712 0 16 2.32712 1
gene 1 6 32 0.324268 0 17 0.324268 1
gene 1 6 33 1.74583 0 18 1.74583 1
gene 1 7 31 4.12485 0 19 4.12485 1
gene 1 7 32 -4.47849 0 20 -4.47849 1
gene 1 7 33 1.58176 0 21 1.58176 1
gene 1 8 31 1.13413 0 22 1.13413 1
gene 1 8 32 -0.0808857 0 23 -0.0808857 1
gene 1 8 33 -0.83209 0 24 -0.83209 1
gene 1 9 31 -4.03536 0 25 -4.03536 1
gene 1 9 32 -0.341195 0 26 -0.341195 1
gene 1 9 33 0.950436 0 27 0.950436 1
gene 1 10 31 1.32747 0 28 1.32747 1
gene 1 10 32 -0.747369 0 29 -0.747369 1
gene 1 10 33 0.404776 0 30 0.404776 1
gene 1 11 31 -0.999836 0 31 -0.999836 1
gene 1 11 32 2.48287 0 32 2.48287 1
gene 1 11 33 -0.907545 0 33 -0.907545 1
gene 1 12 31 -0.198678 0 34 -0.198678 1
gene 1 12 32 -2.09136 0 35 -2.09136 1
gene 1 12 33 0.253715 0 36 0.253715 1
gene 1 13 31 3.20541 0 37 3.20541 1
gene 1 13 32 1.29567 0 38 1.29567 1
gene 1 13 33 -1.19419 0 39 -1.19419 1
gene 1 14 31 -1.38942 0 40 -1.38942 1
gene 1 14 32 2.85552 0 41 2.85552 1
gene 1 14 33 -0.513603 0 42 -0.513603 1
gene 1 15 31 -0.259644 0 43 -0.259644 1
gene 1 15 32 -2.582 0 44 -2.582 1
gene 1 15 33 3.84115 0 45 3.84115 1
gene 1 16 31 1.22921 0 46 1.22921 1
gene 1 16 32 0.522822 0 47 0.522822 1
gene 1 16 33 1.96713 0 48 1.96713 1
gene 1 17 31 -4.99439 0 49 -4.99439 1
gene 1 17 32 1.98863 0 50 1.98863 1
gene 1 17 33 -1.66607 0 51 -1.66607 1
gene 1 18 31 -4.38487 0 52 -4.38487 1
gene 1 18 32 -0.0594153 0 53 -0.0594153 1
gene 1 18 33 0.0796285 0 54 0.0796285 1
gene 1 19 31 -2.27439 0 55 -2.27439 1
gene 1 19 32 -2.28635 0 56 -2.28635 1
gene 1 19 33 1.12901 0 57 1.12901 1
gene 1 20 31 0.0620764 0 58 0.0620764 1
gene 1 20 32 -0.124179 0 59 -0.124179 1
gene 1 20 33 0.0166605 0 60 0.0166605 1
gene 1 21 31 0.358549 0 61 0.358549 1
gene 1 21 32 -3.86035 0 62 -3.86035 1
gene 1 21 33 -1.50921 0 63 -1.50921 1
gene 1 22 31 -1.55847 0 64 -1.55847 1
gene 1 22 32 4.50921 0 65 4.50921 1
gene 1 22 33 0.143562 0 66 0.143562 1
gene 1 23 31 -1.20573 0 67 -1.20573 1
gene 1 23 32 0.256402 0 68 0.256402 1
gene 1 23 33 -0.590844 0 69 -0.590844 1
gene 1 24 31 0.653862 0 70 0.653862 1
gene 1 24 32 -1.26237 0 71 -1.26237 1
gene 1 24 33 5 0 72 5 1
gene 1 25 31 0.855544 0 73 0.855544 1
gene 1 25 32 -0.580927 0 74 -0.580927 1
gene 1 25 33 0.179269 0 75 0.179269 1
gene 1 26 31 -0.397858 0 76 -0.397858 1
gene 1 26 32 0.09281 0 77 0.09281 1
gene 1 26 33 -2.12253 0 78 -2.12253 1
gene 1 27 31 -0.17789 0 79 -0.17789 1
gene 1 27 32 -0.648649 0 80 -0.648649 1
gene 1 27 33 0.24436 0 81 0.24436 1
gene 1 28 31 0.0417204 0 82 0.0417204 1
gene 1 28 32 -0.00239293 0 83 -0.00239293 1
gene 1 28 33 0.0453038 0 84 0.0453038 1
gene 1 29 31 0.203516 0 85 0.203516 1
gene 1 29 32 -2.61712 0 86 -2.61712 1
gene 1 29 33 -1.48142 0 87 -1.48142 1
gene 1 30 31 1.07626 0 88 1.07626 1
gene 1 30 32 -3.45025 0 89 -3.45025 1
gene 1 30 33 -1.52605 0 90 -1.52605 1
genomeend 14


