/* Organism #0 Fitness: 10106.600000 Time: 0 */
genomestart 0
trait 1 0.757729 0.492559 0.715607 0.000000 0.000000 0.000000 0.767165 0.241018 
node 1 1 1 1
node 2 1 1 1
node 3 1 1 1
node 4 1 1 1
node 5 1 1 1
node 6 1 1 1
node 7 1 1 1
node 8 1 1 1
node 9 1 1 1
node 10 1 1 1
node 11 1 1 1
node 12 1 1 1
node 13 1 1 1
node 14 1 1 1
node 15 1 1 1
node 16 1 1 1
node 17 1 1 1
node 18 1 1 1
node 19 1 1 1
node 20 1 1 1
node 21 1 1 1
node 22 1 1 1
node 23 1 1 1
node 24 1 1 1
node 25 1 1 1
node 26 1 1 1
node 27 1 1 1
node 28 1 1 1
node 29 1 1 1
node 30 1 1 3
node 31 1 0 2
node 32 1 0 2
node 33 1 0 2
gene 1 1 31 0.416212 0 1 0.416212 1
gene 1 1 32 -1.61916 0 2 -1.61916 1
gene 1 1 33 0.0459028 0 3 0.0459028 1
gene 1 2 31 0.0346837 0 4 0.0346837 1
gene 1 2 32 0.81036 0 5 0.81036 1
gene 1 2 33 -1.00131 0 6 -1.00131 1
gene 1 3 31 0.67113 0 7 0.67113 1
gene 1 3 32 1.09383 0 8 1.09383 1
gene 1 3 33 0.409298 0 9 0.409298 1
gene 1 4 31 -1.88549 0 10 -1.88549 1
gene 1 4 32 -1.38748 0 11 -1.38748 1
gene 1 4 33 0.334028 0 12 0.334028 1
gene 1 5 31 0.779206 0 13 0.779206 1
gene 1 5 32 -3.07464 0 14 -3.07464 1
gene 1 5 33 3.85751 0 15 3.85751 1
gene 1 6 31 -3.25588 0 16 -3.25588 1
gene 1 6 32 0.736573 0 17 0.736573 1
gene 1 6 33 1.10834 0 18 1.10834 1
gene 1 7 31 -1.89702 0 19 -1.89702 1
gene 1 7 32 1.1411 0 20 1.1411 1
gene 1 7 33 -4.12788 0 21 -4.12788 1
gene 1 8 31 -0.6339 0 22 -0.6339 1
gene 1 8 32 0.722837 0 23 0.722837 1
gene 1 8 33 -2.41763 0 24 -2.41763 1
gene 1 9 31 -0.952715 0 25 -0.952715 1
gene 1 9 32 4.92234 0 26 4.92234 1
gene 1 9 33 3.13178 0 27 3.13178 1
gene 1 10 31 -2.22459 0 28 -2.22459 1
gene 1 10 32 2.67975 0 29 2.67975 1
gene 1 10 33 0.270981 0 30 0.270981 1
gene 1 11 31 0.166967 0 31 0.166967 1
gene 1 11 32 2.28827 0 32 2.28827 1
gene 1 11 33 -0.860345 0 33 -0.860345 1
gene 1 12 31 0.0551144 0 34 0.0551144 1
gene 1 12 32 -2.67639 0 35 -2.67639 1
gene 1 12 33 -2.03401 0 36 -2.03401 1
gene 1 13 31 4.15342 0 37 4.15342 1
gene 1 13 32 -4.48905 0 38 -4.48905 1
gene 1 13 33 1.17059 0 39 1.17059 1
gene 1 14 31 1.41776 0 40 1.41776 1
gene 1 14 32 -1.46775 0 41 -1.46775 1
gene 1 14 33 0.342964 0 42 0.342964 1
gene 1 15 31 3.12134 0 43 3.12134 1
gene 1 15 32 0.527468 0 44 0.527468 1
gene 1 15 33 2.19976 0 45 2.19976 1
gene 1 16 31 0.659468 0 46 0.659468 1
gene 1 16 32 -0.218617 0 47 -0.218617 1
gene 1 16 33 4.63963 0 48 4.63963 1
gene 1 17 31 -0.802422 0 49 -0.802422 1
gene 1 17 32 -0.67334 0 50 -0.67334 1
gene 1 17 33 1.37957 0 51 1.37957 1
gene 1 18 31 5 0 52 5 1
gene 1 18 32 -0.0496079 0 53 -0.0496079 1
gene 1 18 33 -2.11448 0 54 -2.11448 1
gene 1 19 31 3.40789 0 55 3.40789 1
gene 1 19 32 0.530191 0 56 0.530191 1
gene 1 19 33 0.990821 0 57 0.990821 1
gene 1 20 31 0.300377 0 58 0.300377 1
gene 1 20 32 1.33228 0 59 1.33228 1
gene 1 20 33 0.0288468 0 60 0.0288468 1
gene 1 21 31 -1.44917 0 61 -1.44917 1
gene 1 21 32 1.0107 0 62 1.0107 1
gene 1 21 33 0.910367 0 63 0.910367 1
gene 1 22 31 0.0494503 0 64 0.0494503 1
gene 1 22 32 -2.73136 0 65 -2.73136 1
gene 1 22 33 1.26636 0 66 1.26636 1
gene 1 23 31 0.21866 0 67 0.21866 1
gene 1 23 32 -0.145904 0 68 -0.145904 1
gene 1 23 33 0.863553 0 69 0.863553 1
gene 1 24 31 0.473065 0 70 0.473065 1
gene 1 24 32 -4.19758 0 71 -4.19758 1
gene 1 24 33 -2.50794 0 72 -2.50794 1
gene 1 25 31 -2.20782 0 73 -2.20782 1
gene 1 25 32 -1.19792 0 74 -1.19792 1
gene 1 25 33 0.961784 0 75 0.961784 1
gene 1 26 31 -0.206333 0 76 -0.206333 1
gene 1 26 32 0.68422 0 77 0.68422 1
gene 1 26 33 -0.206294 0 78 -0.206294 1
gene 1 27 31 -0.33872 0 79 -0.33872 1
gene 1 27 32 -0.366845 0 80 -0.366845 1
gene 1 27 33 -0.283193 0 81 -0.283193 1
gene 1 28 31 1.27555 0 82 1.27555 1
gene 1 28 32 1.56919 0 83 1.56919 1
gene 1 28 33 -0.391716 0 84 -0.391716 1
gene 1 29 31 0.828175 0 85 0.828175 1
gene 1 29 32 2.13771 0 86 2.13771 1
gene 1 29 33 1.86354 0 87 1.86354 1
gene 1 30 31 0.315779 0 88 0.315779 1
gene 1 30 32 0.763553 0 89 0.763553 1
gene 1 30 33 -0.663267 0 90 -0.663267 1
genomeend 0


