/* Organism #14 Fitness: 38534.700000 Time: 0 */
genomestart 14
trait 1 0.100000 0.000000 0.000000 0.000000 0.000000 0.000000 0.000000 0.000000 
node 1 1 1 1
node 2 1 1 1
node 3 1 1 1
node 4 1 1 1
node 5 1 1 1
node 6 1 1 1
node 7 1 1 1
node 8 1 1 1
node 9 1 1 1
node 10 1 1 1
node 11 1 1 1
node 12 1 1 1
node 13 1 1 1
node 14 1 1 1
node 15 1 1 1
node 16 1 1 1
node 17 1 1 1
node 18 1 1 1
node 19 1 1 1
node 20 1 1 1
node 21 1 1 1
node 22 1 1 1
node 23 1 1 1
node 24 1 1 1
node 25 1 1 1
node 26 1 1 1
node 27 1 1 1
node 28 1 1 1
node 29 1 1 1
node 30 1 1 3
node 31 1 0 2
node 32 1 0 2
node 33 1 0 2
gene 1 1 31 2.75201 0 1 2.75201 1
gene 1 1 32 -5 0 2 -5 1
gene 1 1 33 0.88276 0 3 0.88276 1
gene 1 2 31 -3.76621 0 4 -3.76621 1
gene 1 2 32 4.51077 0 5 4.51077 1
gene 1 2 33 1.34823 0 6 1.34823 1
gene 1 3 31 0.421714 0 7 0.421714 1
gene 1 3 32 -3.70801 0 8 -3.70801 1
gene 1 3 33 -1.30942 0 9 -1.30942 1
gene 1 4 31 -0.207178 0 10 -0.207178 1
gene 1 4 32 2.15968 0 11 2.15968 1
gene 1 4 33 -2.64378 0 12 -2.64378 1
gene 1 5 31 0.879758 0 13 0.879758 1
gene 1 5 32 -0.240209 0 14 -0.240209 1
gene 1 5 33 0.13415 0 15 0.13415 1
gene 1 6 31 -0.538756 0 16 -0.538756 1
gene 1 6 32 3.32578 0 17 3.32578 1
gene 1 6 33 -3.68043 0 18 -3.68043 1
gene 1 7 31 -3.36506 0 19 -3.36506 1
gene 1 7 32 -2.01784 0 20 -2.01784 1
gene 1 7 33 2.37735 0 21 2.37735 1
gene 1 8 31 -1.12977 0 22 -1.12977 1
gene 1 8 32 0.74462 0 23 0.74462 1
gene 1 8 33 -2.44028 0 24 -2.44028 1
gene 1 9 31 4.0859 0 25 4.0859 1
gene 1 9 32 -1.46607 0 26 -1.46607 1
gene 1 9 33 0.536574 0 27 0.536574 1
gene 1 10 31 -1.87313 0 28 -1.87313 1
gene 1 10 32 0.727112 0 29 0.727112 1
gene 1 10 33 2.25513 0 30 2.25513 1
gene 1 11 31 0.0355706 0 31 0.0355706 1
gene 1 11 32 -1.90349 0 32 -1.90349 1
gene 1 11 33 2.56441 0 33 2.56441 1
gene 1 12 31 -3.84786 0 34 -3.84786 1
gene 1 12 32 -0.963093 0 35 -0.963093 1
gene 1 12 33 -1.19976 0 36 -1.19976 1
gene 1 13 31 0.293795 0 37 0.293795 1
gene 1 13 32 -3.59499 0 38 -3.59499 1
gene 1 13 33 -0.435819 0 39 -0.435819 1
gene 1 14 31 -0.64896 0 40 -0.64896 1
gene 1 14 32 0.857607 0 41 0.857607 1
gene 1 14 33 3.3922 0 42 3.3922 1
gene 1 15 31 -0.842973 0 43 -0.842973 1
gene 1 15 32 1.64739 0 44 1.64739 1
gene 1 15 33 3.47312 0 45 3.47312 1
gene 1 16 31 1.16107 0 46 1.16107 1
gene 1 16 32 -0.690733 0 47 -0.690733 1
gene 1 16 33 -1.97625 0 48 -1.97625 1
gene 1 17 31 -0.427001 0 49 -0.427001 1
gene 1 17 32 2.7815 0 50 2.7815 1
gene 1 17 33 0.202579 0 51 0.202579 1
gene 1 18 31 1.84635 0 52 1.84635 1
gene 1 18 32 4.09806 0 53 4.09806 1
gene 1 18 33 0.0630026 0 54 0.0630026 1
gene 1 19 31 0.742571 0 55 0.742571 1
gene 1 19 32 5 0 56 5 1
gene 1 19 33 -1.05996 0 57 -1.05996 1
gene 1 20 31 1.51436 0 58 1.51436 1
gene 1 20 32 0.779898 0 59 0.779898 1
gene 1 20 33 -5 0 60 -5 1
gene 1 21 31 -4.09789 0 61 -4.09789 1
gene 1 21 32 3.92355 0 62 3.92355 1
gene 1 21 33 -5 0 63 -5 1
gene 1 22 31 3.08316 0 64 3.08316 1
gene 1 22 32 -1.37993 0 65 -1.37993 1
gene 1 22 33 -2.8525 0 66 -2.8525 1
gene 1 23 31 -0.13524 0 67 -0.13524 1
gene 1 23 32 -1.13078 0 68 -1.13078 1
gene 1 23 33 -1.18448 0 69 -1.18448 1
gene 1 24 31 -1.40816 0 70 -1.40816 1
gene 1 24 32 0.104838 0 71 0.104838 1
gene 1 24 33 2.79966 0 72 2.79966 1
gene 1 25 31 0.482924 0 73 0.482924 1
gene 1 25 32 0.917523 0 74 0.917523 1
gene 1 25 33 0.509958 0 75 0.509958 1
gene 1 26 31 0.89486 0 76 0.89486 1
gene 1 26 32 -0.495103 0 77 -0.495103 1
gene 1 26 33 2.82923 0 78 2.82923 1
gene 1 27 31 1.3521 0 79 1.3521 1
gene 1 27 32 0.493997 0 80 0.493997 1
gene 1 27 33 -0.727179 0 81 -0.727179 1
gene 1 28 31 -1.90419 0 82 -1.90419 1
gene 1 28 32 -0.756885 0 83 -0.756885 1
gene 1 28 33 0.841466 0 84 0.841466 1
gene 1 29 31 1.13677 0 85 1.13677 1
gene 1 29 32 -2.91852 0 86 -2.91852 1
gene 1 29 33 0.910373 0 87 0.910373 1
gene 1 30 31 1.93499 0 88 1.93499 1
gene 1 30 32 0.513693 0 89 0.513693 1
gene 1 30 33 -0.934426 0 90 -0.934426 1
genomeend 14


