
/* Species #1 : (Size 100) (AF 0) (Age 50)  */


/* Organism #0 Fitness: 34728.3 Error: 0 */
genomestart 0
trait 1 0.1 0 0 0 0 0 0 0 
node 1 1 1 1
node 2 1 1 1
node 3 1 1 1
node 4 1 1 1
node 5 1 1 1
node 6 1 1 1
node 7 1 1 1
node 8 1 1 1
node 9 1 1 1
node 10 1 1 1
node 11 1 1 1
node 12 1 1 1
node 13 1 1 1
node 14 1 1 1
node 15 1 1 1
node 16 1 1 1
node 17 1 1 1
node 18 1 1 1
node 19 1 1 1
node 20 1 1 1
node 21 1 1 1
node 22 1 1 1
node 23 1 1 1
node 24 1 1 1
node 25 1 1 1
node 26 1 1 1
node 27 1 1 1
node 28 1 1 1
node 29 1 1 1
node 30 1 1 3
node 31 1 0 2
node 32 1 0 2
node 33 1 0 2
gene 1 1 31 1.99227 0 1 1.99227 1
gene 1 1 32 -5 0 2 -5 1
gene 1 1 33 0.941693 0 3 0.941693 1
gene 1 2 31 -3.73454 0 4 -3.73454 1
gene 1 2 32 3.7967 0 5 3.7967 1
gene 1 2 33 1.80382 0 6 1.80382 1
gene 1 3 31 1.01799 0 7 1.01799 1
gene 1 3 32 -3.74933 0 8 -3.74933 1
gene 1 3 33 -2.02152 0 9 -2.02152 1
gene 1 4 31 -0.00990277 0 10 -0.00990277 1
gene 1 4 32 2.58072 0 11 2.58072 1
gene 1 4 33 -2.53301 0 12 -2.53301 1
gene 1 5 31 0.648061 0 13 0.648061 1
gene 1 5 32 -1.03205 0 14 -1.03205 1
gene 1 5 33 0.434816 0 15 0.434816 1
gene 1 6 31 -0.184893 0 16 -0.184893 1
gene 1 6 32 3.44804 0 17 3.44804 1
gene 1 6 33 -3.38999 0 18 -3.38999 1
gene 1 7 31 -3.81431 0 19 -3.81431 1
gene 1 7 32 -1.99139 0 20 -1.99139 1
gene 1 7 33 2.4233 0 21 2.4233 1
gene 1 8 31 -1.07026 0 22 -1.07026 1
gene 1 8 32 0.472487 0 23 0.472487 1
gene 1 8 33 -1.77093 0 24 -1.77093 1
gene 1 9 31 3.29327 0 25 3.29327 1
gene 1 9 32 -2.35996 0 26 -2.35996 1
gene 1 9 33 0.516229 0 27 0.516229 1
gene 1 10 31 -2.32976 0 28 -2.32976 1
gene 1 10 32 0.723409 0 29 0.723409 1
gene 1 10 33 2.03015 0 30 2.03015 1
gene 1 11 31 0.05936 0 31 0.05936 1
gene 1 11 32 -2.87426 0 32 -2.87426 1
gene 1 11 33 1.62533 0 33 1.62533 1
gene 1 12 31 -4.13066 0 34 -4.13066 1
gene 1 12 32 -1.56287 0 35 -1.56287 1
gene 1 12 33 -0.832466 0 36 -0.832466 1
gene 1 13 31 -0.611453 0 37 -0.611453 1
gene 1 13 32 -3.12931 0 38 -3.12931 1
gene 1 13 33 -1.41898 0 39 -1.41898 1
gene 1 14 31 -0.0834358 0 40 -0.0834358 1
gene 1 14 32 0.594335 0 41 0.594335 1
gene 1 14 33 3.59704 0 42 3.59704 1
gene 1 15 31 -1.43593 0 43 -1.43593 1
gene 1 15 32 0.793354 0 44 0.793354 1
gene 1 15 33 3.15372 0 45 3.15372 1
gene 1 16 31 0.538013 0 46 0.538013 1
gene 1 16 32 -0.42342 0 47 -0.42342 1
gene 1 16 33 -1.85174 0 48 -1.85174 1
gene 1 17 31 -1.2683 0 49 -1.2683 1
gene 1 17 32 2.9702 0 50 2.9702 1
gene 1 17 33 1.1848 0 51 1.1848 1
gene 1 18 31 1.97816 0 52 1.97816 1
gene 1 18 32 3.25946 0 53 3.25946 1
gene 1 18 33 0.0611032 0 54 0.0611032 1
gene 1 19 31 1.71052 0 55 1.71052 1
gene 1 19 32 4.76388 0 56 4.76388 1
gene 1 19 33 -1.17446 0 57 -1.17446 1
gene 1 20 31 1.71151 0 58 1.71151 1
gene 1 20 32 0.424403 0 59 0.424403 1
gene 1 20 33 -4.25741 0 60 -4.25741 1
gene 1 21 31 -4.0017 0 61 -4.0017 1
gene 1 21 32 3.23795 0 62 3.23795 1
gene 1 21 33 -4.81144 0 63 -4.81144 1
gene 1 22 31 2.17432 0 64 2.17432 1
gene 1 22 32 -2.02025 0 65 -2.02025 1
gene 1 22 33 -1.86739 0 66 -1.86739 1
gene 1 23 31 0.102933 0 67 0.102933 1
gene 1 23 32 -1.77438 0 68 -1.77438 1
gene 1 23 33 -0.243275 0 69 -0.243275 1
gene 1 24 31 -1.75301 0 70 -1.75301 1
gene 1 24 32 0.77936 0 71 0.77936 1
gene 1 24 33 3.05227 0 72 3.05227 1
gene 1 25 31 -0.449487 0 73 -0.449487 1
gene 1 25 32 -0.72423 0 74 -0.72423 1
gene 1 25 33 0.768087 0 75 0.768087 1
gene 1 26 31 0.808823 0 76 0.808823 1
gene 1 26 32 -1.34756 0 77 -1.34756 1
gene 1 26 33 2.03557 0 78 2.03557 1
gene 1 27 31 1.3521 0 79 1.3521 1
gene 1 27 32 0.493997 0 80 0.493997 1
gene 1 27 33 -1.19411 0 81 -1.19411 1
gene 1 28 31 -0.924401 0 82 -0.924401 1
gene 1 28 32 0.115841 0 83 0.115841 1
gene 1 28 33 0.23833 0 84 0.23833 1
gene 1 29 31 1.13677 0 85 1.13677 1
gene 1 29 32 -2.91852 0 86 -2.91852 1
gene 1 29 33 1.46375 0 87 1.46375 1
gene 1 30 31 1.21853 0 88 1.21853 1
gene 1 30 32 0.513693 0 89 0.513693 1
gene 1 30 33 -0.0108945 0 90 -0.0108945 1
genomeend 0

/* Organism #1 Fitness: 26560.7 Error: 0 */
genomestart 1
trait 1 0.1 0 0 0 0 0 0 0 
node 1 1 1 1
node 2 1 1 1
node 3 1 1 1
node 4 1 1 1
node 5 1 1 1
node 6 1 1 1
node 7 1 1 1
node 8 1 1 1
node 9 1 1 1
node 10 1 1 1
node 11 1 1 1
node 12 1 1 1
node 13 1 1 1
node 14 1 1 1
node 15 1 1 1
node 16 1 1 1
node 17 1 1 1
node 18 1 1 1
node 19 1 1 1
node 20 1 1 1
node 21 1 1 1
node 22 1 1 1
node 23 1 1 1
node 24 1 1 1
node 25 1 1 1
node 26 1 1 1
node 27 1 1 1
node 28 1 1 1
node 29 1 1 1
node 30 1 1 3
node 31 1 0 2
node 32 1 0 2
node 33 1 0 2
gene 1 1 31 1.48397 0 1 1.48397 1
gene 1 1 32 -4.42779 0 2 -4.42779 1
gene 1 1 33 -1.0373 0 3 -1.0373 1
gene 1 2 31 -3.97849 0 4 -3.97849 1
gene 1 2 32 -0.246855 0 5 -0.246855 1
gene 1 2 33 0.890634 0 6 0.890634 1
gene 1 3 31 1.33068 0 7 1.33068 1
gene 1 3 32 -0.117545 0 8 -0.117545 1
gene 1 3 33 -0.241801 0 9 -0.241801 1
gene 1 4 31 1.29 0 10 1.29 1
gene 1 4 32 -1.45853 0 11 -1.45853 1
gene 1 4 33 -0.0849437 0 12 -0.0849437 1
gene 1 5 31 -0.988887 0 13 -0.988887 1
gene 1 5 32 -0.0352154 0 14 -0.0352154 1
gene 1 5 33 2.56956 0 15 2.56956 1
gene 1 6 31 0.0333607 0 16 0.0333607 1
gene 1 6 32 4.16964 0 17 4.16964 1
gene 1 6 33 -4.47625 0 18 -4.47625 1
gene 1 7 31 -4.8797 0 19 -4.8797 1
gene 1 7 32 -3.54819 0 20 -3.54819 1
gene 1 7 33 -1.72297 0 21 -1.72297 1
gene 1 8 31 1.29914 0 22 1.29914 1
gene 1 8 32 2.21926 0 23 2.21926 1
gene 1 8 33 -2.23507 0 24 -2.23507 1
gene 1 9 31 0.851803 0 25 0.851803 1
gene 1 9 32 -2.46907 0 26 -2.46907 1
gene 1 9 33 0.58157 0 27 0.58157 1
gene 1 10 31 0.385103 0 28 0.385103 1
gene 1 10 32 1.32188 0 29 1.32188 1
gene 1 10 33 -2.95065 0 30 -2.95065 1
gene 1 11 31 -0.964435 0 31 -0.964435 1
gene 1 11 32 -2.08414 0 32 -2.08414 1
gene 1 11 33 1.00551 0 33 1.00551 1
gene 1 12 31 -0.899287 0 34 -0.899287 1
gene 1 12 32 -1.72354 0 35 -1.72354 1
gene 1 12 33 -2.56488 0 36 -2.56488 1
gene 1 13 31 -0.496312 0 37 -0.496312 1
gene 1 13 32 0.361121 0 38 0.361121 1
gene 1 13 33 0.0683235 0 39 0.0683235 1
gene 1 14 31 -0.763026 0 40 -0.763026 1
gene 1 14 32 3.09664 0 41 3.09664 1
gene 1 14 33 -0.129372 0 42 -0.129372 1
gene 1 15 31 -2.44823 0 43 -2.44823 1
gene 1 15 32 0.174405 0 44 0.174405 1
gene 1 15 33 -1.52271 0 45 -1.52271 1
gene 1 16 31 0.572284 0 46 0.572284 1
gene 1 16 32 2.77279 0 47 2.77279 1
gene 1 16 33 -1.52577 0 48 -1.52577 1
gene 1 17 31 -0.621032 0 49 -0.621032 1
gene 1 17 32 2.87447 0 50 2.87447 1
gene 1 17 33 1.71673 0 51 1.71673 1
gene 1 18 31 -0.356239 0 52 -0.356239 1
gene 1 18 32 1.63781 0 53 1.63781 1
gene 1 18 33 0.210718 0 54 0.210718 1
gene 1 19 31 -1.01656 0 55 -1.01656 1
gene 1 19 32 4.17465 0 56 4.17465 1
gene 1 19 33 1.82071 0 57 1.82071 1
gene 1 20 31 0.0545297 0 58 0.0545297 1
gene 1 20 32 0.597405 0 59 0.597405 1
gene 1 20 33 0.000990321 0 60 0.000990321 1
gene 1 21 31 -3.37662 0 61 -3.37662 1
gene 1 21 32 5 0 62 5 1
gene 1 21 33 -0.362992 0 63 -0.362992 1
gene 1 22 31 -1.58232 0 64 -1.58232 1
gene 1 22 32 -1.62829 0 65 -1.62829 1
gene 1 22 33 -1.43335 0 66 -1.43335 1
gene 1 23 31 -0.599604 0 67 -0.599604 1
gene 1 23 32 -0.542038 0 68 -0.542038 1
gene 1 23 33 -3.18379 0 69 -3.18379 1
gene 1 24 31 -1.93252 0 70 -1.93252 1
gene 1 24 32 0.1413 0 71 0.1413 1
gene 1 24 33 2.65321 0 72 2.65321 1
gene 1 25 31 -0.590787 0 73 -0.590787 1
gene 1 25 32 -0.0331301 0 74 -0.0331301 1
gene 1 25 33 -0.140565 0 75 -0.140565 1
gene 1 26 31 -0.467182 0 76 -0.467182 1
gene 1 26 32 -1.20263 0 77 -1.20263 1
gene 1 26 33 -0.681094 0 78 -0.681094 1
gene 1 27 31 -1.18025 0 79 -1.18025 1
gene 1 27 32 -1.27543 0 80 -1.27543 1
gene 1 27 33 0.82464 0 81 0.82464 1
gene 1 28 31 -3.2222 0 82 -3.2222 1
gene 1 28 32 -2.00571 0 83 -2.00571 1
gene 1 28 33 0.646888 0 84 0.646888 1
gene 1 29 31 -1.18684 0 85 -1.18684 1
gene 1 29 32 2.37844 0 86 2.37844 1
gene 1 29 33 -0.42622 0 87 -0.42622 1
gene 1 30 31 2.89434 0 88 2.89434 1
gene 1 30 32 0.0144464 0 89 0.0144464 1
gene 1 30 33 1.26661 0 90 1.26661 1
genomeend 1

/* Organism #2 Fitness: 36278.4 Error: 0 */
genomestart 2
trait 1 0.1 0 0 0.33625 0.247444 0.872765 0 0 
node 1 1 1 1
node 2 1 1 1
node 3 1 1 1
node 4 1 1 1
node 5 1 1 1
node 6 1 1 1
node 7 1 1 1
node 8 1 1 1
node 9 1 1 1
node 10 1 1 1
node 11 1 1 1
node 12 1 1 1
node 13 1 1 1
node 14 1 1 1
node 15 1 1 1
node 16 1 1 1
node 17 1 1 1
node 18 1 1 1
node 19 1 1 1
node 20 1 1 1
node 21 1 1 1
node 22 1 1 1
node 23 1 1 1
node 24 1 1 1
node 25 1 1 1
node 26 1 1 1
node 27 1 1 1
node 28 1 1 1
node 29 1 1 1
node 30 1 1 3
node 31 1 0 2
node 32 1 0 2
node 33 1 0 2
gene 1 1 31 2.22945 0 1 2.22945 1
gene 1 1 32 -3.79263 0 2 -3.79263 1
gene 1 1 33 2.3826 0 3 2.3826 1
gene 1 2 31 -2.29946 0 4 -2.29946 1
gene 1 2 32 4.47964 0 5 4.47964 1
gene 1 2 33 3.00126 0 6 3.00126 1
gene 1 3 31 3.83996 0 7 3.83996 1
gene 1 3 32 -2.14781 0 8 -2.14781 1
gene 1 3 33 -0.576978 0 9 -0.576978 1
gene 1 4 31 -0.590177 0 10 -0.590177 1
gene 1 4 32 1.59963 0 11 1.59963 1
gene 1 4 33 -1.94596 0 12 -1.94596 1
gene 1 5 31 2.16542 0 13 2.16542 1
gene 1 5 32 0.169667 0 14 0.169667 1
gene 1 5 33 0.141077 0 15 0.141077 1
gene 1 6 31 -0.921696 0 16 -0.921696 1
gene 1 6 32 2.25434 0 17 2.25434 1
gene 1 6 33 -4.16367 0 18 -4.16367 1
gene 1 7 31 -3.56274 0 19 -3.56274 1
gene 1 7 32 -2.69646 0 20 -2.69646 1
gene 1 7 33 3.13123 0 21 3.13123 1
gene 1 8 31 0.352397 0 22 0.352397 1
gene 1 8 32 0.826279 0 23 0.826279 1
gene 1 8 33 -0.333022 0 24 -0.333022 1
gene 1 9 31 2.66459 0 25 2.66459 1
gene 1 9 32 -3.27012 0 26 -3.27012 1
gene 1 9 33 0.758791 0 27 0.758791 1
gene 1 10 31 1.59685 0 28 1.59685 1
gene 1 10 32 -1.18869 0 29 -1.18869 1
gene 1 10 33 0.592444 0 30 0.592444 1
gene 1 11 31 -0.987435 0 31 -0.987435 1
gene 1 11 32 2.1669 0 32 2.1669 1
gene 1 11 33 0.695355 0 33 0.695355 1
gene 1 12 31 -3.17937 0 34 -3.17937 1
gene 1 12 32 0.707665 0 35 0.707665 1
gene 1 12 33 -0.910701 0 36 -0.910701 1
gene 1 13 31 -0.548754 0 37 -0.548754 1
gene 1 13 32 -2.87252 0 38 -2.87252 1
gene 1 13 33 -1.41353 0 39 -1.41353 1
gene 1 14 31 0.712655 0 40 0.712655 1
gene 1 14 32 -3.03748 0 41 -3.03748 1
gene 1 14 33 0.610073 0 42 0.610073 1
gene 1 15 31 0.97662 0 43 0.97662 1
gene 1 15 32 -2.07727 0 44 -2.07727 1
gene 1 15 33 4.23417 0 45 4.23417 1
gene 1 16 31 0.993371 0 46 0.993371 1
gene 1 16 32 -1.26737 0 47 -1.26737 1
gene 1 16 33 -2.16272 0 48 -2.16272 1
gene 1 17 31 0.0406013 0 49 0.0406013 1
gene 1 17 32 5 0 50 5 1
gene 1 17 33 1.88166 0 51 1.88166 1
gene 1 18 31 3.93757 0 52 3.93757 1
gene 1 18 32 0.833854 0 53 0.833854 1
gene 1 18 33 -1.88219 0 54 -1.88219 1
gene 1 19 31 4.17717 0 55 4.17717 1
gene 1 19 32 3.73547 0 56 3.73547 1
gene 1 19 33 -4.04302 0 57 -4.04302 1
gene 1 20 31 0.0911269 0 58 0.0911269 1
gene 1 20 32 1.67025 0 59 1.67025 1
gene 1 20 33 -3.7542 0 60 -3.7542 1
gene 1 21 31 -3.66473 0 61 -3.66473 1
gene 1 21 32 3.77186 0 62 3.77186 1
gene 1 21 33 -4.01578 0 63 -4.01578 1
gene 1 22 31 0.0644288 0 64 0.0644288 1
gene 1 22 32 -4.86424 0 65 -4.86424 1
gene 1 22 33 -2.16713 0 66 -2.16713 1
gene 1 23 31 -1.31402 0 67 -1.31402 1
gene 1 23 32 0.461899 0 68 0.461899 1
gene 1 23 33 -0.266795 0 69 -0.266795 1
gene 1 24 31 -1.82897 0 70 -1.82897 1
gene 1 24 32 0.037053 0 71 0.037053 1
gene 1 24 33 1.88918 0 72 1.88918 1
gene 1 25 31 -1.6493 0 73 -1.6493 1
gene 1 25 32 0.496071 0 74 0.496071 1
gene 1 25 33 -1.06906 0 75 -1.06906 1
gene 1 26 31 0.481133 0 76 0.481133 1
gene 1 26 32 -0.819357 0 77 -0.819357 1
gene 1 26 33 -0.752352 0 78 -0.752352 1
gene 1 27 31 0.467707 0 79 0.467707 1
gene 1 27 32 -0.438939 0 80 -0.438939 1
gene 1 27 33 -0.86473 0 81 -0.86473 1
gene 1 28 31 -0.405077 0 82 -0.405077 1
gene 1 28 32 -0.0759285 0 83 -0.0759285 1
gene 1 28 33 -1.10698 0 84 -1.10698 1
gene 1 29 31 -0.196222 0 85 -0.196222 1
gene 1 29 32 -1.47699 0 86 -1.47699 1
gene 1 29 33 -1.25809 0 87 -1.25809 1
gene 1 30 31 0.0425806 0 88 0.0425806 1
gene 1 30 32 -1.18473 0 89 -1.18473 1
gene 1 30 33 0.311218 0 90 0.311218 1
genomeend 2

/* Organism #3 Fitness: 32783.9 Error: 0 */
genomestart 3
trait 1 0.1 0 0 0 0 0 0 0 
node 1 1 1 1
node 2 1 1 1
node 3 1 1 1
node 4 1 1 1
node 5 1 1 1
node 6 1 1 1
node 7 1 1 1
node 8 1 1 1
node 9 1 1 1
node 10 1 1 1
node 11 1 1 1
node 12 1 1 1
node 13 1 1 1
node 14 1 1 1
node 15 1 1 1
node 16 1 1 1
node 17 1 1 1
node 18 1 1 1
node 19 1 1 1
node 20 1 1 1
node 21 1 1 1
node 22 1 1 1
node 23 1 1 1
node 24 1 1 1
node 25 1 1 1
node 26 1 1 1
node 27 1 1 1
node 28 1 1 1
node 29 1 1 1
node 30 1 1 3
node 31 1 0 2
node 32 1 0 2
node 33 1 0 2
gene 1 1 31 3.09625 0 1 3.09625 1
gene 1 1 32 -4.294 0 2 -4.294 1
gene 1 1 33 0.249786 0 3 0.249786 1
gene 1 2 31 -4.29582 0 4 -4.29582 1
gene 1 2 32 4.07005 0 5 4.07005 1
gene 1 2 33 -1.12454 0 6 -1.12454 1
gene 1 3 31 -1.7394 0 7 -1.7394 1
gene 1 3 32 1.00437 0 8 1.00437 1
gene 1 3 33 0.274859 0 9 0.274859 1
gene 1 4 31 0.110557 0 10 0.110557 1
gene 1 4 32 0.379199 0 11 0.379199 1
gene 1 4 33 -0.0871404 0 12 -0.0871404 1
gene 1 5 31 -0.347355 0 13 -0.347355 1
gene 1 5 32 -2.63954 0 14 -2.63954 1
gene 1 5 33 -0.0391784 0 15 -0.0391784 1
gene 1 6 31 -0.230463 0 16 -0.230463 1
gene 1 6 32 4.18492 0 17 4.18492 1
gene 1 6 33 -1.37228 0 18 -1.37228 1
gene 1 7 31 -3.78683 0 19 -3.78683 1
gene 1 7 32 -0.0753746 0 20 -0.0753746 1
gene 1 7 33 0.534124 0 21 0.534124 1
gene 1 8 31 -0.662383 0 22 -0.662383 1
gene 1 8 32 -0.0770184 0 23 -0.0770184 1
gene 1 8 33 0.380337 0 24 0.380337 1
gene 1 9 31 -0.958091 0 25 -0.958091 1
gene 1 9 32 2.73119 0 26 2.73119 1
gene 1 9 33 -2.34697 0 27 -2.34697 1
gene 1 10 31 1.29795 0 28 1.29795 1
gene 1 10 32 -2.91266 0 29 -2.91266 1
gene 1 10 33 -0.00382708 0 30 -0.00382708 1
gene 1 11 31 -1.59432 0 31 -1.59432 1
gene 1 11 32 0.601226 0 32 0.601226 1
gene 1 11 33 2.14479 0 33 2.14479 1
gene 1 12 31 -1.82576 0 34 -1.82576 1
gene 1 12 32 0.334232 0 35 0.334232 1
gene 1 12 33 0.239574 0 36 0.239574 1
gene 1 13 31 -2.7183 0 37 -2.7183 1
gene 1 13 32 1.93693 0 38 1.93693 1
gene 1 13 33 -0.275652 0 39 -0.275652 1
gene 1 14 31 -1.6529 0 40 -1.6529 1
gene 1 14 32 0.63299 0 41 0.63299 1
gene 1 14 33 4.3831 0 42 4.3831 1
gene 1 15 31 -0.599459 0 43 -0.599459 1
gene 1 15 32 0.260526 0 44 0.260526 1
gene 1 15 33 -1.20142 0 45 -1.20142 1
gene 1 16 31 4.0373 0 46 4.0373 1
gene 1 16 32 0.656519 0 47 0.656519 1
gene 1 16 33 -0.956705 0 48 -0.956705 1
gene 1 17 31 0.764778 0 49 0.764778 1
gene 1 17 32 0.747319 0 50 0.747319 1
gene 1 17 33 -3.31731 0 51 -3.31731 1
gene 1 18 31 4.64243 0 52 4.64243 1
gene 1 18 32 -0.672766 0 53 -0.672766 1
gene 1 18 33 -2.0222 0 54 -2.0222 1
gene 1 19 31 0.53561 0 55 0.53561 1
gene 1 19 32 -2.68529 0 56 -2.68529 1
gene 1 19 33 1.48652 0 57 1.48652 1
gene 1 20 31 0.719627 0 58 0.719627 1
gene 1 20 32 1.14731 0 59 1.14731 1
gene 1 20 33 0.73307 0 60 0.73307 1
gene 1 21 31 -0.733898 0 61 -0.733898 1
gene 1 21 32 1.98031 0 62 1.98031 1
gene 1 21 33 -0.513825 0 63 -0.513825 1
gene 1 22 31 1.30149 0 64 1.30149 1
gene 1 22 32 -0.146763 0 65 -0.146763 1
gene 1 22 33 -1.08005 0 66 -1.08005 1
gene 1 23 31 -0.546944 0 67 -0.546944 1
gene 1 23 32 -2.70049 0 68 -2.70049 1
gene 1 23 33 -0.253131 0 69 -0.253131 1
gene 1 24 31 -4.00579 0 70 -4.00579 1
gene 1 24 32 1.43042 0 71 1.43042 1
gene 1 24 33 -4.02694 0 72 -4.02694 1
gene 1 25 31 0.0343664 0 73 0.0343664 1
gene 1 25 32 -0.216284 0 74 -0.216284 1
gene 1 25 33 -1.52534 0 75 -1.52534 1
gene 1 26 31 0.273181 0 76 0.273181 1
gene 1 26 32 -1.35339 0 77 -1.35339 1
gene 1 26 33 0.267697 0 78 0.267697 1
gene 1 27 31 -0.962443 0 79 -0.962443 1
gene 1 27 32 0.799955 0 80 0.799955 1
gene 1 27 33 -0.0678883 0 81 -0.0678883 1
gene 1 28 31 -3.64552 0 82 -3.64552 1
gene 1 28 32 -0.0750836 0 83 -0.0750836 1
gene 1 28 33 -0.927007 0 84 -0.927007 1
gene 1 29 31 1.39956 0 85 1.39956 1
gene 1 29 32 -0.484032 0 86 -0.484032 1
gene 1 29 33 0.333598 0 87 0.333598 1
gene 1 30 31 -0.885139 0 88 -0.885139 1
gene 1 30 32 3.18336 0 89 3.18336 1
gene 1 30 33 -0.777472 0 90 -0.777472 1
genomeend 3

/* Organism #4 Fitness: 35674.9 Error: 0 */
genomestart 4
trait 1 0.1 0 0 0 0 0 0 0 
node 1 1 1 1
node 2 1 1 1
node 3 1 1 1
node 4 1 1 1
node 5 1 1 1
node 6 1 1 1
node 7 1 1 1
node 8 1 1 1
node 9 1 1 1
node 10 1 1 1
node 11 1 1 1
node 12 1 1 1
node 13 1 1 1
node 14 1 1 1
node 15 1 1 1
node 16 1 1 1
node 17 1 1 1
node 18 1 1 1
node 19 1 1 1
node 20 1 1 1
node 21 1 1 1
node 22 1 1 1
node 23 1 1 1
node 24 1 1 1
node 25 1 1 1
node 26 1 1 1
node 27 1 1 1
node 28 1 1 1
node 29 1 1 1
node 30 1 1 3
node 31 1 0 2
node 32 1 0 2
node 33 1 0 2
gene 1 1 31 1.01388 0 1 1.01388 1
gene 1 1 32 -4.35676 0 2 -4.35676 1
gene 1 1 33 1.96739 0 3 1.96739 1
gene 1 2 31 -2.87762 0 4 -2.87762 1
gene 1 2 32 4.69603 0 5 4.69603 1
gene 1 2 33 2.93087 0 6 2.93087 1
gene 1 3 31 0.650148 0 7 0.650148 1
gene 1 3 32 -3.92633 0 8 -3.92633 1
gene 1 3 33 -0.320578 0 9 -0.320578 1
gene 1 4 31 -0.0446583 0 10 -0.0446583 1
gene 1 4 32 1.61158 0 11 1.61158 1
gene 1 4 33 -2.0478 0 12 -2.0478 1
gene 1 5 31 1.35472 0 13 1.35472 1
gene 1 5 32 -1.64232 0 14 -1.64232 1
gene 1 5 33 -2.33422 0 15 -2.33422 1
gene 1 6 31 -0.976908 0 16 -0.976908 1
gene 1 6 32 2.06616 0 17 2.06616 1
gene 1 6 33 -4.87637 0 18 -4.87637 1
gene 1 7 31 -4.09785 0 19 -4.09785 1
gene 1 7 32 -4.53417 0 20 -4.53417 1
gene 1 7 33 1.63889 0 21 1.63889 1
gene 1 8 31 -1.19861 0 22 -1.19861 1
gene 1 8 32 0.0668378 0 23 0.0668378 1
gene 1 8 33 0.314786 0 24 0.314786 1
gene 1 9 31 4.4364 0 25 4.4364 1
gene 1 9 32 -1.7699 0 26 -1.7699 1
gene 1 9 33 -0.406955 0 27 -0.406955 1
gene 1 10 31 0.715029 0 28 0.715029 1
gene 1 10 32 2.30885 0 29 2.30885 1
gene 1 10 33 1.43259 0 30 1.43259 1
gene 1 11 31 -2.48404 0 31 -2.48404 1
gene 1 11 32 0.117711 0 32 0.117711 1
gene 1 11 33 2.03441 0 33 2.03441 1
gene 1 12 31 -4.50616 0 34 -4.50616 1
gene 1 12 32 0.241878 0 35 0.241878 1
gene 1 12 33 -0.355621 0 36 -0.355621 1
gene 1 13 31 -3.68041 0 37 -3.68041 1
gene 1 13 32 -4.67424 0 38 -4.67424 1
gene 1 13 33 -0.0352224 0 39 -0.0352224 1
gene 1 14 31 0.233061 0 40 0.233061 1
gene 1 14 32 -0.221444 0 41 -0.221444 1
gene 1 14 33 4.43222 0 42 4.43222 1
gene 1 15 31 0.577868 0 43 0.577868 1
gene 1 15 32 -0.62931 0 44 -0.62931 1
gene 1 15 33 1.12588 0 45 1.12588 1
gene 1 16 31 0.111822 0 46 0.111822 1
gene 1 16 32 -1.61336 0 47 -1.61336 1
gene 1 16 33 -0.709865 0 48 -0.709865 1
gene 1 17 31 0.203926 0 49 0.203926 1
gene 1 17 32 4.98609 0 50 4.98609 1
gene 1 17 33 3.44373 0 51 3.44373 1
gene 1 18 31 2.68956 0 52 2.68956 1
gene 1 18 32 1.33326 0 53 1.33326 1
gene 1 18 33 -1.60886 0 54 -1.60886 1
gene 1 19 31 2.7218 0 55 2.7218 1
gene 1 19 32 4.3901 0 56 4.3901 1
gene 1 19 33 -2.51873 0 57 -2.51873 1
gene 1 20 31 0.926172 0 58 0.926172 1
gene 1 20 32 0.588755 0 59 0.588755 1
gene 1 20 33 -1.67866 0 60 -1.67866 1
gene 1 21 31 -5 0 61 -5 1
gene 1 21 32 3.43122 0 62 3.43122 1
gene 1 21 33 -4.23976 0 63 -4.23976 1
gene 1 22 31 1.00582 0 64 1.00582 1
gene 1 22 32 -2.48087 0 65 -2.48087 1
gene 1 22 33 -2.21534 0 66 -2.21534 1
gene 1 23 31 -0.617317 0 67 -0.617317 1
gene 1 23 32 -0.947603 0 68 -0.947603 1
gene 1 23 33 1.68758 0 69 1.68758 1
gene 1 24 31 -1.07795 0 70 -1.07795 1
gene 1 24 32 1.8585 0 71 1.8585 1
gene 1 24 33 3.42156 0 72 3.42156 1
gene 1 25 31 -1.21043 0 73 -1.21043 1
gene 1 25 32 0.308211 0 74 0.308211 1
gene 1 25 33 -0.0854618 0 75 -0.0854618 1
gene 1 26 31 0.547911 0 76 0.547911 1
gene 1 26 32 -1.82276 0 77 -1.82276 1
gene 1 26 33 -0.13101 0 78 -0.13101 1
gene 1 27 31 2.61556 0 79 2.61556 1
gene 1 27 32 -1.02531 0 80 -1.02531 1
gene 1 27 33 0.474044 0 81 0.474044 1
gene 1 28 31 -0.625713 0 82 -0.625713 1
gene 1 28 32 0.534847 0 83 0.534847 1
gene 1 28 33 -0.97959 0 84 -0.97959 1
gene 1 29 31 0.943165 0 85 0.943165 1
gene 1 29 32 0.880771 0 86 0.880771 1
gene 1 29 33 1.23975 0 87 1.23975 1
gene 1 30 31 1.0863 0 88 1.0863 1
gene 1 30 32 0.556104 0 89 0.556104 1
gene 1 30 33 -1.11103 0 90 -1.11103 1
genomeend 4

/* Organism #5 Fitness: 35452.7 Error: 0 */
genomestart 5
trait 1 0.1 0 0 0 0 0 0 0 
node 1 1 1 1
node 2 1 1 1
node 3 1 1 1
node 4 1 1 1
node 5 1 1 1
node 6 1 1 1
node 7 1 1 1
node 8 1 1 1
node 9 1 1 1
node 10 1 1 1
node 11 1 1 1
node 12 1 1 1
node 13 1 1 1
node 14 1 1 1
node 15 1 1 1
node 16 1 1 1
node 17 1 1 1
node 18 1 1 1
node 19 1 1 1
node 20 1 1 1
node 21 1 1 1
node 22 1 1 1
node 23 1 1 1
node 24 1 1 1
node 25 1 1 1
node 26 1 1 1
node 27 1 1 1
node 28 1 1 1
node 29 1 1 1
node 30 1 1 3
node 31 1 0 2
node 32 1 0 2
node 33 1 0 2
gene 1 1 31 0.295733 0 1 0.295733 1
gene 1 1 32 -5 0 2 -5 1
gene 1 1 33 0.0865524 0 3 0.0865524 1
gene 1 2 31 -3.47839 0 4 -3.47839 1
gene 1 2 32 4.86179 0 5 4.86179 1
gene 1 2 33 2.16859 0 6 2.16859 1
gene 1 3 31 2.12494 0 7 2.12494 1
gene 1 3 32 -2.68525 0 8 -2.68525 1
gene 1 3 33 -1.89 0 9 -1.89 1
gene 1 4 31 -2.36556 0 10 -2.36556 1
gene 1 4 32 3.37958 0 11 3.37958 1
gene 1 4 33 -0.732839 0 12 -0.732839 1
gene 1 5 31 1.98628 0 13 1.98628 1
gene 1 5 32 -1.92524 0 14 -1.92524 1
gene 1 5 33 0.495843 0 15 0.495843 1
gene 1 6 31 -2.2818 0 16 -2.2818 1
gene 1 6 32 4.14263 0 17 4.14263 1
gene 1 6 33 -3.72157 0 18 -3.72157 1
gene 1 7 31 -3.35073 0 19 -3.35073 1
gene 1 7 32 -2.23289 0 20 -2.23289 1
gene 1 7 33 2.21099 0 21 2.21099 1
gene 1 8 31 -1.10762 0 22 -1.10762 1
gene 1 8 32 0.191029 0 23 0.191029 1
gene 1 8 33 0.235856 0 24 0.235856 1
gene 1 9 31 4.65797 0 25 4.65797 1
gene 1 9 32 -1.94174 0 26 -1.94174 1
gene 1 9 33 -0.411839 0 27 -0.411839 1
gene 1 10 31 -1.88389 0 28 -1.88389 1
gene 1 10 32 1.82523 0 29 1.82523 1
gene 1 10 33 1.74184 0 30 1.74184 1
gene 1 11 31 -1.6068 0 31 -1.6068 1
gene 1 11 32 -1.40842 0 32 -1.40842 1
gene 1 11 33 0.734412 0 33 0.734412 1
gene 1 12 31 -3.08581 0 34 -3.08581 1
gene 1 12 32 -1.82144 0 35 -1.82144 1
gene 1 12 33 -0.647874 0 36 -0.647874 1
gene 1 13 31 -0.373213 0 37 -0.373213 1
gene 1 13 32 -3.28072 0 38 -3.28072 1
gene 1 13 33 -1.19318 0 39 -1.19318 1
gene 1 14 31 0.45101 0 40 0.45101 1
gene 1 14 32 0.0902002 0 41 0.0902002 1
gene 1 14 33 2.59549 0 42 2.59549 1
gene 1 15 31 0.337123 0 43 0.337123 1
gene 1 15 32 0.026032 0 44 0.026032 1
gene 1 15 33 0.833174 0 45 0.833174 1
gene 1 16 31 0.477926 0 46 0.477926 1
gene 1 16 32 -1.32288 0 47 -1.32288 1
gene 1 16 33 -0.885666 0 48 -0.885666 1
gene 1 17 31 -1.09581 0 49 -1.09581 1
gene 1 17 32 4.94 0 50 4.94 1
gene 1 17 33 1.39897 0 51 1.39897 1
gene 1 18 31 0.928176 0 52 0.928176 1
gene 1 18 32 1.73931 0 53 1.73931 1
gene 1 18 33 -0.799858 0 54 -0.799858 1
gene 1 19 31 2.17805 0 55 2.17805 1
gene 1 19 32 4.19259 0 56 4.19259 1
gene 1 19 33 -0.375614 0 57 -0.375614 1
gene 1 20 31 0.394816 0 58 0.394816 1
gene 1 20 32 0.947263 0 59 0.947263 1
gene 1 20 33 -2.72728 0 60 -2.72728 1
gene 1 21 31 -5 0 61 -5 1
gene 1 21 32 5 0 62 5 1
gene 1 21 33 -5 0 63 -5 1
gene 1 22 31 3.26011 0 64 3.26011 1
gene 1 22 32 -3.15636 0 65 -3.15636 1
gene 1 22 33 -1.08107 0 66 -1.08107 1
gene 1 23 31 0.857787 0 67 0.857787 1
gene 1 23 32 -1.47349 0 68 -1.47349 1
gene 1 23 33 -0.719609 0 69 -0.719609 1
gene 1 24 31 -2.66158 0 70 -2.66158 1
gene 1 24 32 0.0745559 0 71 0.0745559 1
gene 1 24 33 2.44032 0 72 2.44032 1
gene 1 25 31 -0.921384 0 73 -0.921384 1
gene 1 25 32 -0.824037 0 74 -0.824037 1
gene 1 25 33 -1.19694 0 75 -1.19694 1
gene 1 26 31 0.699831 0 76 0.699831 1
gene 1 26 32 -0.421362 0 77 -0.421362 1
gene 1 26 33 2.71283 0 78 2.71283 1
gene 1 27 31 -0.818253 0 79 -0.818253 1
gene 1 27 32 -0.0488626 0 80 -0.0488626 1
gene 1 27 33 -0.610237 0 81 -0.610237 1
gene 1 28 31 0.945423 0 82 0.945423 1
gene 1 28 32 -0.164196 0 83 -0.164196 1
gene 1 28 33 -0.744134 0 84 -0.744134 1
gene 1 29 31 0.968496 0 85 0.968496 1
gene 1 29 32 -2.74267 0 86 -2.74267 1
gene 1 29 33 0.574488 0 87 0.574488 1
gene 1 30 31 2.08779 0 88 2.08779 1
gene 1 30 32 -0.352054 0 89 -0.352054 1
gene 1 30 33 0.278247 0 90 0.278247 1
genomeend 5

/* Organism #6 Fitness: 34972.2 Error: 0 */
genomestart 6
trait 1 0.1 0 0 0 0 0 0 0 
node 1 1 1 1
node 2 1 1 1
node 3 1 1 1
node 4 1 1 1
node 5 1 1 1
node 6 1 1 1
node 7 1 1 1
node 8 1 1 1
node 9 1 1 1
node 10 1 1 1
node 11 1 1 1
node 12 1 1 1
node 13 1 1 1
node 14 1 1 1
node 15 1 1 1
node 16 1 1 1
node 17 1 1 1
node 18 1 1 1
node 19 1 1 1
node 20 1 1 1
node 21 1 1 1
node 22 1 1 1
node 23 1 1 1
node 24 1 1 1
node 25 1 1 1
node 26 1 1 1
node 27 1 1 1
node 28 1 1 1
node 29 1 1 1
node 30 1 1 3
node 31 1 0 2
node 32 1 0 2
node 33 1 0 2
gene 1 1 31 1.01388 0 1 1.01388 1
gene 1 1 32 -4.21164 0 2 -4.21164 1
gene 1 1 33 1.47073 0 3 1.47073 1
gene 1 2 31 -2.98415 0 4 -2.98415 1
gene 1 2 32 5 0 5 5 1
gene 1 2 33 3.07277 0 6 3.07277 1
gene 1 3 31 0.650148 0 7 0.650148 1
gene 1 3 32 0.939941 0 8 0.939941 1
gene 1 3 33 -1.09843 0 9 -1.09843 1
gene 1 4 31 -0.129153 0 10 -0.129153 1
gene 1 4 32 2.14397 0 11 2.14397 1
gene 1 4 33 -1.23899 0 12 -1.23899 1
gene 1 5 31 0.420499 0 13 0.420499 1
gene 1 5 32 -2.19027 0 14 -2.19027 1
gene 1 5 33 0.296914 0 15 0.296914 1
gene 1 6 31 -0.779129 0 16 -0.779129 1
gene 1 6 32 0.745067 0 17 0.745067 1
gene 1 6 33 -0.176482 0 18 -0.176482 1
gene 1 7 31 -4.24101 0 19 -4.24101 1
gene 1 7 32 -4.49053 0 20 -4.49053 1
gene 1 7 33 2.52961 0 21 2.52961 1
gene 1 8 31 -0.405546 0 22 -0.405546 1
gene 1 8 32 -0.597989 0 23 -0.597989 1
gene 1 8 33 0.293582 0 24 0.293582 1
gene 1 9 31 4.4364 0 25 4.4364 1
gene 1 9 32 -0.990442 0 26 -0.990442 1
gene 1 9 33 -0.938414 0 27 -0.938414 1
gene 1 10 31 0.36055 0 28 0.36055 1
gene 1 10 32 1.97596 0 29 1.97596 1
gene 1 10 33 0.718132 0 30 0.718132 1
gene 1 11 31 -1.76662 0 31 -1.76662 1
gene 1 11 32 -0.431939 0 32 -0.431939 1
gene 1 11 33 -0.356269 0 33 -0.356269 1
gene 1 12 31 -0.633938 0 34 -0.633938 1
gene 1 12 32 0.731066 0 35 0.731066 1
gene 1 12 33 -0.824451 0 36 -0.824451 1
gene 1 13 31 -3.68041 0 37 -3.68041 1
gene 1 13 32 -4.80858 0 38 -4.80858 1
gene 1 13 33 0.632279 0 39 0.632279 1
gene 1 14 31 0.325168 0 40 0.325168 1
gene 1 14 32 0.492649 0 41 0.492649 1
gene 1 14 33 4.0307 0 42 4.0307 1
gene 1 15 31 0.577868 0 43 0.577868 1
gene 1 15 32 -0.524417 0 44 -0.524417 1
gene 1 15 33 -0.381562 0 45 -0.381562 1
gene 1 16 31 0.866272 0 46 0.866272 1
gene 1 16 32 -1.61067 0 47 -1.61067 1
gene 1 16 33 0.16147 0 48 0.16147 1
gene 1 17 31 -0.536882 0 49 -0.536882 1
gene 1 17 32 -0.142477 0 50 -0.142477 1
gene 1 17 33 4.17549 0 51 4.17549 1
gene 1 18 31 -0.195445 0 52 -0.195445 1
gene 1 18 32 1.65986 0 53 1.65986 1
gene 1 18 33 -2.33208 0 54 -2.33208 1
gene 1 19 31 -0.406493 0 55 -0.406493 1
gene 1 19 32 4.3901 0 56 4.3901 1
gene 1 19 33 -2.51873 0 57 -2.51873 1
gene 1 20 31 1.50097 0 58 1.50097 1
gene 1 20 32 1.43503 0 59 1.43503 1
gene 1 20 33 -2.50281 0 60 -2.50281 1
gene 1 21 31 -0.222875 0 61 -0.222875 1
gene 1 21 32 2.67134 0 62 2.67134 1
gene 1 21 33 -3.25497 0 63 -3.25497 1
gene 1 22 31 0.751904 0 64 0.751904 1
gene 1 22 32 -2.27971 0 65 -2.27971 1
gene 1 22 33 -1.89962 0 66 -1.89962 1
gene 1 23 31 -0.683751 0 67 -0.683751 1
gene 1 23 32 -0.779549 0 68 -0.779549 1
gene 1 23 33 2.4425 0 69 2.4425 1
gene 1 24 31 -1.57246 0 70 -1.57246 1
gene 1 24 32 2.33747 0 71 2.33747 1
gene 1 24 33 3.22065 0 72 3.22065 1
gene 1 25 31 -1.14855 0 73 -1.14855 1
gene 1 25 32 0.997603 0 74 0.997603 1
gene 1 25 33 -0.0854618 0 75 -0.0854618 1
gene 1 26 31 -0.39238 0 76 -0.39238 1
gene 1 26 32 -2.52246 0 77 -2.52246 1
gene 1 26 33 -0.60024 0 78 -0.60024 1
gene 1 27 31 2.7358 0 79 2.7358 1
gene 1 27 32 -1.21492 0 80 -1.21492 1
gene 1 27 33 1.29385 0 81 1.29385 1
gene 1 28 31 -1.3683 0 82 -1.3683 1
gene 1 28 32 0.68826 0 83 0.68826 1
gene 1 28 33 -1.35846 0 84 -1.35846 1
gene 1 29 31 0.800985 0 85 0.800985 1
gene 1 29 32 0.0309377 0 86 0.0309377 1
gene 1 29 33 -0.299708 0 87 -0.299708 1
gene 1 30 31 1.25493 0 88 1.25493 1
gene 1 30 32 0.5875 0 89 0.5875 1
gene 1 30 33 -0.376741 0 90 -0.376741 1
genomeend 6

/* Organism #7 Fitness: 32254 Error: 0 */
genomestart 7
trait 1 0.1 0 0 0 0 0 0 0 
node 1 1 1 1
node 2 1 1 1
node 3 1 1 1
node 4 1 1 1
node 5 1 1 1
node 6 1 1 1
node 7 1 1 1
node 8 1 1 1
node 9 1 1 1
node 10 1 1 1
node 11 1 1 1
node 12 1 1 1
node 13 1 1 1
node 14 1 1 1
node 15 1 1 1
node 16 1 1 1
node 17 1 1 1
node 18 1 1 1
node 19 1 1 1
node 20 1 1 1
node 21 1 1 1
node 22 1 1 1
node 23 1 1 1
node 24 1 1 1
node 25 1 1 1
node 26 1 1 1
node 27 1 1 1
node 28 1 1 1
node 29 1 1 1
node 30 1 1 3
node 31 1 0 2
node 32 1 0 2
node 33 1 0 2
gene 1 1 31 1.76805 0 1 1.76805 1
gene 1 1 32 -4.23153 0 2 -4.23153 1
gene 1 1 33 2.98098 0 3 2.98098 1
gene 1 2 31 -2.12825 0 4 -2.12825 1
gene 1 2 32 4.10034 0 5 4.10034 1
gene 1 2 33 3.08136 0 6 3.08136 1
gene 1 3 31 2.95748 0 7 2.95748 1
gene 1 3 32 -0.997354 0 8 -0.997354 1
gene 1 3 33 -0.581652 0 9 -0.581652 1
gene 1 4 31 -0.573144 0 10 -0.573144 1
gene 1 4 32 1.18333 0 11 1.18333 1
gene 1 4 33 -0.172119 0 12 -0.172119 1
gene 1 5 31 2.80476 0 13 2.80476 1
gene 1 5 32 -1.76986 0 14 -1.76986 1
gene 1 5 33 0.484145 0 15 0.484145 1
gene 1 6 31 -1.04594 0 16 -1.04594 1
gene 1 6 32 1.55338 0 17 1.55338 1
gene 1 6 33 -4.79507 0 18 -4.79507 1
gene 1 7 31 -3.66311 0 19 -3.66311 1
gene 1 7 32 -2.00814 0 20 -2.00814 1
gene 1 7 33 -0.547286 0 21 -0.547286 1
gene 1 8 31 0.358153 0 22 0.358153 1
gene 1 8 32 0.618805 0 23 0.618805 1
gene 1 8 33 -0.306416 0 24 -0.306416 1
gene 1 9 31 2.87422 0 25 2.87422 1
gene 1 9 32 -2.47706 0 26 -2.47706 1
gene 1 9 33 -0.531857 0 27 -0.531857 1
gene 1 10 31 2.30061 0 28 2.30061 1
gene 1 10 32 0.473229 0 29 0.473229 1
gene 1 10 33 -0.288088 0 30 -0.288088 1
gene 1 11 31 0.698375 0 31 0.698375 1
gene 1 11 32 2.30101 0 32 2.30101 1
gene 1 11 33 0.0392616 0 33 0.0392616 1
gene 1 12 31 -2.57298 0 34 -2.57298 1
gene 1 12 32 -0.279468 0 35 -0.279468 1
gene 1 12 33 -1.32688 0 36 -1.32688 1
gene 1 13 31 0.189824 0 37 0.189824 1
gene 1 13 32 -2.35606 0 38 -2.35606 1
gene 1 13 33 -1.78505 0 39 -1.78505 1
gene 1 14 31 0.25566 0 40 0.25566 1
gene 1 14 32 -4.15533 0 41 -4.15533 1
gene 1 14 33 -0.937573 0 42 -0.937573 1
gene 1 15 31 0.758956 0 43 0.758956 1
gene 1 15 32 -2.4099 0 44 -2.4099 1
gene 1 15 33 4.08535 0 45 4.08535 1
gene 1 16 31 2.13062 0 46 2.13062 1
gene 1 16 32 -1.98539 0 47 -1.98539 1
gene 1 16 33 -2.95781 0 48 -2.95781 1
gene 1 17 31 -0.772087 0 49 -0.772087 1
gene 1 17 32 4.09144 0 50 4.09144 1
gene 1 17 33 0.572696 0 51 0.572696 1
gene 1 18 31 4.66087 0 52 4.66087 1
gene 1 18 32 2.47503 0 53 2.47503 1
gene 1 18 33 -1.94993 0 54 -1.94993 1
gene 1 19 31 5 0 55 5 1
gene 1 19 32 4.61756 0 56 4.61756 1
gene 1 19 33 0.461859 0 57 0.461859 1
gene 1 20 31 -0.691312 0 58 -0.691312 1
gene 1 20 32 0.110072 0 59 0.110072 1
gene 1 20 33 -3.1874 0 60 -3.1874 1
gene 1 21 31 0.13538 0 61 0.13538 1
gene 1 21 32 0.389415 0 62 0.389415 1
gene 1 21 33 -4.26252 0 63 -4.26252 1
gene 1 22 31 0.00663826 0 64 0.00663826 1
gene 1 22 32 -0.466221 0 65 -0.466221 1
gene 1 22 33 -3.00269 0 66 -3.00269 1
gene 1 23 31 -0.141377 0 67 -0.141377 1
gene 1 23 32 -0.809781 0 68 -0.809781 1
gene 1 23 33 -0.308017 0 69 -0.308017 1
gene 1 24 31 0.0543448 0 70 0.0543448 1
gene 1 24 32 -0.225277 0 71 -0.225277 1
gene 1 24 33 3.64699 0 72 3.64699 1
gene 1 25 31 -2.18161 0 73 -2.18161 1
gene 1 25 32 1.80723 0 74 1.80723 1
gene 1 25 33 -0.487435 0 75 -0.487435 1
gene 1 26 31 0.119118 0 76 0.119118 1
gene 1 26 32 -1.69047 0 77 -1.69047 1
gene 1 26 33 0.517021 0 78 0.517021 1
gene 1 27 31 0.975366 0 79 0.975366 1
gene 1 27 32 1.96101 0 80 1.96101 1
gene 1 27 33 -0.143734 0 81 -0.143734 1
gene 1 28 31 0.193248 0 82 0.193248 1
gene 1 28 32 0.609376 0 83 0.609376 1
gene 1 28 33 0.630865 0 84 0.630865 1
gene 1 29 31 -1.41569 0 85 -1.41569 1
gene 1 29 32 0.044621 0 86 0.044621 1
gene 1 29 33 -0.648041 0 87 -0.648041 1
gene 1 30 31 0.375272 0 88 0.375272 1
gene 1 30 32 -1.19089 0 89 -1.19089 1
gene 1 30 33 0.927519 0 90 0.927519 1
genomeend 7

/* Organism #8 Fitness: 35309.2 Error: 0 */
genomestart 8
trait 1 0.1 0 0 0 0 0 0 0 
node 1 1 1 1
node 2 1 1 1
node 3 1 1 1
node 4 1 1 1
node 5 1 1 1
node 6 1 1 1
node 7 1 1 1
node 8 1 1 1
node 9 1 1 1
node 10 1 1 1
node 11 1 1 1
node 12 1 1 1
node 13 1 1 1
node 14 1 1 1
node 15 1 1 1
node 16 1 1 1
node 17 1 1 1
node 18 1 1 1
node 19 1 1 1
node 20 1 1 1
node 21 1 1 1
node 22 1 1 1
node 23 1 1 1
node 24 1 1 1
node 25 1 1 1
node 26 1 1 1
node 27 1 1 1
node 28 1 1 1
node 29 1 1 1
node 30 1 1 3
node 31 1 0 2
node 32 1 0 2
node 33 1 0 2
gene 1 1 31 0.579659 0 1 0.579659 1
gene 1 1 32 -5 0 2 -5 1
gene 1 1 33 1.759 0 3 1.759 1
gene 1 2 31 -4.66353 0 4 -4.66353 1
gene 1 2 32 3.39724 0 5 3.39724 1
gene 1 2 33 1.23494 0 6 1.23494 1
gene 1 3 31 2.50915 0 7 2.50915 1
gene 1 3 32 -2.30033 0 8 -2.30033 1
gene 1 3 33 -3.25265 0 9 -3.25265 1
gene 1 4 31 -3.90633 0 10 -3.90633 1
gene 1 4 32 3.29763 0 11 3.29763 1
gene 1 4 33 -0.976606 0 12 -0.976606 1
gene 1 5 31 0.588453 0 13 0.588453 1
gene 1 5 32 -1.45323 0 14 -1.45323 1
gene 1 5 33 -1.50599 0 15 -1.50599 1
gene 1 6 31 -1.22222 0 16 -1.22222 1
gene 1 6 32 3.70872 0 17 3.70872 1
gene 1 6 33 -4.97796 0 18 -4.97796 1
gene 1 7 31 -1.49208 0 19 -1.49208 1
gene 1 7 32 -0.635976 0 20 -0.635976 1
gene 1 7 33 2.16702 0 21 2.16702 1
gene 1 8 31 -1.55936 0 22 -1.55936 1
gene 1 8 32 0.207512 0 23 0.207512 1
gene 1 8 33 -1.34559 0 24 -1.34559 1
gene 1 9 31 4.81871 0 25 4.81871 1
gene 1 9 32 -0.662501 0 26 -0.662501 1
gene 1 9 33 -0.553353 0 27 -0.553353 1
gene 1 10 31 -1.18247 0 28 -1.18247 1
gene 1 10 32 2.07997 0 29 2.07997 1
gene 1 10 33 1.88777 0 30 1.88777 1
gene 1 11 31 -2.44515 0 31 -2.44515 1
gene 1 11 32 -1.67925 0 32 -1.67925 1
gene 1 11 33 0.976776 0 33 0.976776 1
gene 1 12 31 -4.15893 0 34 -4.15893 1
gene 1 12 32 -2.93864 0 35 -2.93864 1
gene 1 12 33 0.188408 0 36 0.188408 1
gene 1 13 31 -1.0286 0 37 -1.0286 1
gene 1 13 32 -3.43254 0 38 -3.43254 1
gene 1 13 33 -1.46018 0 39 -1.46018 1
gene 1 14 31 1.41592 0 40 1.41592 1
gene 1 14 32 1.30121 0 41 1.30121 1
gene 1 14 33 2.81221 0 42 2.81221 1
gene 1 15 31 1.77336 0 43 1.77336 1
gene 1 15 32 -1.62374 0 44 -1.62374 1
gene 1 15 33 -0.219796 0 45 -0.219796 1
gene 1 16 31 1.47036 0 46 1.47036 1
gene 1 16 32 -1.57319 0 47 -1.57319 1
gene 1 16 33 0.714225 0 48 0.714225 1
gene 1 17 31 0.0283596 0 49 0.0283596 1
gene 1 17 32 5 0 50 5 1
gene 1 17 33 1.88712 0 51 1.88712 1
gene 1 18 31 2.2775 0 52 2.2775 1
gene 1 18 32 1.39879 0 53 1.39879 1
gene 1 18 33 0.115152 0 54 0.115152 1
gene 1 19 31 2.38328 0 55 2.38328 1
gene 1 19 32 4.53162 0 56 4.53162 1
gene 1 19 33 0.38578 0 57 0.38578 1
gene 1 20 31 -0.0964023 0 58 -0.0964023 1
gene 1 20 32 0.697181 0 59 0.697181 1
gene 1 20 33 -3.43585 0 60 -3.43585 1
gene 1 21 31 -5 0 61 -5 1
gene 1 21 32 2.98397 0 62 2.98397 1
gene 1 21 33 -3.73228 0 63 -3.73228 1
gene 1 22 31 2.31317 0 64 2.31317 1
gene 1 22 32 -1.30282 0 65 -1.30282 1
gene 1 22 33 0.699822 0 66 0.699822 1
gene 1 23 31 0.50679 0 67 0.50679 1
gene 1 23 32 0.297079 0 68 0.297079 1
gene 1 23 33 0.459818 0 69 0.459818 1
gene 1 24 31 -2.35348 0 70 -2.35348 1
gene 1 24 32 0.192421 0 71 0.192421 1
gene 1 24 33 1.99898 0 72 1.99898 1
gene 1 25 31 0.286679 0 73 0.286679 1
gene 1 25 32 0.833767 0 74 0.833767 1
gene 1 25 33 -0.33619 0 75 -0.33619 1
gene 1 26 31 0.0154604 0 76 0.0154604 1
gene 1 26 32 0.541585 0 77 0.541585 1
gene 1 26 33 -1.96422 0 78 -1.96422 1
gene 1 27 31 -0.837927 0 79 -0.837927 1
gene 1 27 32 -0.860733 0 80 -0.860733 1
gene 1 27 33 0.054833 0 81 0.054833 1
gene 1 28 31 0.902903 0 82 0.902903 1
gene 1 28 32 0.526447 0 83 0.526447 1
gene 1 28 33 -1.71596 0 84 -1.71596 1
gene 1 29 31 0.61133 0 85 0.61133 1
gene 1 29 32 -1.48248 0 86 -1.48248 1
gene 1 29 33 1.85309 0 87 1.85309 1
gene 1 30 31 0.812276 0 88 0.812276 1
gene 1 30 32 -1.31749 0 89 -1.31749 1
gene 1 30 33 0.328372 0 90 0.328372 1
genomeend 8

/* Organism #9 Fitness: 37308.1 Error: 0 */
genomestart 9
trait 1 0.1 0 0 0 0 0 0 0 
node 1 1 1 1
node 2 1 1 1
node 3 1 1 1
node 4 1 1 1
node 5 1 1 1
node 6 1 1 1
node 7 1 1 1
node 8 1 1 1
node 9 1 1 1
node 10 1 1 1
node 11 1 1 1
node 12 1 1 1
node 13 1 1 1
node 14 1 1 1
node 15 1 1 1
node 16 1 1 1
node 17 1 1 1
node 18 1 1 1
node 19 1 1 1
node 20 1 1 1
node 21 1 1 1
node 22 1 1 1
node 23 1 1 1
node 24 1 1 1
node 25 1 1 1
node 26 1 1 1
node 27 1 1 1
node 28 1 1 1
node 29 1 1 1
node 30 1 1 3
node 31 1 0 2
node 32 1 0 2
node 33 1 0 2
gene 1 1 31 1.51787 0 1 1.51787 1
gene 1 1 32 -4.00606 0 2 -4.00606 1
gene 1 1 33 1.5141 0 3 1.5141 1
gene 1 2 31 -2.78516 0 4 -2.78516 1
gene 1 2 32 4.94155 0 5 4.94155 1
gene 1 2 33 3.70093 0 6 3.70093 1
gene 1 3 31 0.842562 0 7 0.842562 1
gene 1 3 32 -3.91566 0 8 -3.91566 1
gene 1 3 33 -0.645514 0 9 -0.645514 1
gene 1 4 31 0.168499 0 10 0.168499 1
gene 1 4 32 0.649379 0 11 0.649379 1
gene 1 4 33 -2.45275 0 12 -2.45275 1
gene 1 5 31 1.9018 0 13 1.9018 1
gene 1 5 32 -1.54912 0 14 -1.54912 1
gene 1 5 33 -2.9709 0 15 -2.9709 1
gene 1 6 31 -0.904369 0 16 -0.904369 1
gene 1 6 32 3.01087 0 17 3.01087 1
gene 1 6 33 -4.79552 0 18 -4.79552 1
gene 1 7 31 -4.01349 0 19 -4.01349 1
gene 1 7 32 -5 0 20 -5 1
gene 1 7 33 2.04497 0 21 2.04497 1
gene 1 8 31 -1.18143 0 22 -1.18143 1
gene 1 8 32 -0.848381 0 23 -0.848381 1
gene 1 8 33 0.866686 0 24 0.866686 1
gene 1 9 31 3.75912 0 25 3.75912 1
gene 1 9 32 -2.19682 0 26 -2.19682 1
gene 1 9 33 0.154356 0 27 0.154356 1
gene 1 10 31 0.873909 0 28 0.873909 1
gene 1 10 32 1.8158 0 29 1.8158 1
gene 1 10 33 1.69401 0 30 1.69401 1
gene 1 11 31 -1.52676 0 31 -1.52676 1
gene 1 11 32 -0.810855 0 32 -0.810855 1
gene 1 11 33 2.02644 0 33 2.02644 1
gene 1 12 31 -4.36711 0 34 -4.36711 1
gene 1 12 32 0.305952 0 35 0.305952 1
gene 1 12 33 -0.442731 0 36 -0.442731 1
gene 1 13 31 -4.26734 0 37 -4.26734 1
gene 1 13 32 -5 0 38 -5 1
gene 1 13 33 0.684615 0 39 0.684615 1
gene 1 14 31 0.972074 0 40 0.972074 1
gene 1 14 32 0.612338 0 41 0.612338 1
gene 1 14 33 5 0 42 5 1
gene 1 15 31 0.503092 0 43 0.503092 1
gene 1 15 32 -1.4304 0 44 -1.4304 1
gene 1 15 33 0.415398 0 45 0.415398 1
gene 1 16 31 0.198773 0 46 0.198773 1
gene 1 16 32 -2.06412 0 47 -2.06412 1
gene 1 16 33 -0.298304 0 48 -0.298304 1
gene 1 17 31 -0.123754 0 49 -0.123754 1
gene 1 17 32 4.73943 0 50 4.73943 1
gene 1 17 33 2.74348 0 51 2.74348 1
gene 1 18 31 1.8022 0 52 1.8022 1
gene 1 18 32 1.39107 0 53 1.39107 1
gene 1 18 33 -1.99598 0 54 -1.99598 1
gene 1 19 31 3.03974 0 55 3.03974 1
gene 1 19 32 4.50628 0 56 4.50628 1
gene 1 19 33 -2.4357 0 57 -2.4357 1
gene 1 20 31 0.841798 0 58 0.841798 1
gene 1 20 32 1.13129 0 59 1.13129 1
gene 1 20 33 -1.31887 0 60 -1.31887 1
gene 1 21 31 -5 0 61 -5 1
gene 1 21 32 3.54846 0 62 3.54846 1
gene 1 21 33 -3.31913 0 63 -3.31913 1
gene 1 22 31 1.52397 0 64 1.52397 1
gene 1 22 32 -2.1483 0 65 -2.1483 1
gene 1 22 33 -1.66619 0 66 -1.66619 1
gene 1 23 31 0.0990779 0 67 0.0990779 1
gene 1 23 32 -0.284734 0 68 -0.284734 1
gene 1 23 33 1.10092 0 69 1.10092 1
gene 1 24 31 -1.64796 0 70 -1.64796 1
gene 1 24 32 1.12651 0 71 1.12651 1
gene 1 24 33 2.97823 0 72 2.97823 1
gene 1 25 31 -1.16668 0 73 -1.16668 1
gene 1 25 32 -0.592899 0 74 -0.592899 1
gene 1 25 33 -0.0854618 0 75 -0.0854618 1
gene 1 26 31 0.547911 0 76 0.547911 1
gene 1 26 32 -2.57825 0 77 -2.57825 1
gene 1 26 33 -0.473161 0 78 -0.473161 1
gene 1 27 31 2.61556 0 79 2.61556 1
gene 1 27 32 -1.21046 0 80 -1.21046 1
gene 1 27 33 0.474044 0 81 0.474044 1
gene 1 28 31 0.932274 0 82 0.932274 1
gene 1 28 32 0.708168 0 83 0.708168 1
gene 1 28 33 -1.88059 0 84 -1.88059 1
gene 1 29 31 1.23856 0 85 1.23856 1
gene 1 29 32 0.703446 0 86 0.703446 1
gene 1 29 33 0.517624 0 87 0.517624 1
gene 1 30 31 1.31717 0 88 1.31717 1
gene 1 30 32 0.947886 0 89 0.947886 1
gene 1 30 33 -1.11103 0 90 -1.11103 1
genomeend 9

/* Organism #10 Fitness: 33548.9 Error: 0 */
genomestart 10
trait 1 0.1 0 0 0 0 0 0 0 
node 1 1 1 1
node 2 1 1 1
node 3 1 1 1
node 4 1 1 1
node 5 1 1 1
node 6 1 1 1
node 7 1 1 1
node 8 1 1 1
node 9 1 1 1
node 10 1 1 1
node 11 1 1 1
node 12 1 1 1
node 13 1 1 1
node 14 1 1 1
node 15 1 1 1
node 16 1 1 1
node 17 1 1 1
node 18 1 1 1
node 19 1 1 1
node 20 1 1 1
node 21 1 1 1
node 22 1 1 1
node 23 1 1 1
node 24 1 1 1
node 25 1 1 1
node 26 1 1 1
node 27 1 1 1
node 28 1 1 1
node 29 1 1 1
node 30 1 1 3
node 31 1 0 2
node 32 1 0 2
node 33 1 0 2
gene 1 1 31 0.186045 0 1 0.186045 1
gene 1 1 32 -5 0 2 -5 1
gene 1 1 33 2.262 0 3 2.262 1
gene 1 2 31 -2.82126 0 4 -2.82126 1
gene 1 2 32 3.31748 0 5 3.31748 1
gene 1 2 33 2.43543 0 6 2.43543 1
gene 1 3 31 0.979945 0 7 0.979945 1
gene 1 3 32 -3.84688 0 8 -3.84688 1
gene 1 3 33 0.911323 0 9 0.911323 1
gene 1 4 31 -0.127012 0 10 -0.127012 1
gene 1 4 32 1.27198 0 11 1.27198 1
gene 1 4 33 -1.44482 0 12 -1.44482 1
gene 1 5 31 1.87893 0 13 1.87893 1
gene 1 5 32 -2.16227 0 14 -2.16227 1
gene 1 5 33 -2.41133 0 15 -2.41133 1
gene 1 6 31 -2.68171 0 16 -2.68171 1
gene 1 6 32 1.58993 0 17 1.58993 1
gene 1 6 33 -3.15018 0 18 -3.15018 1
gene 1 7 31 -3.96576 0 19 -3.96576 1
gene 1 7 32 -4.04828 0 20 -4.04828 1
gene 1 7 33 2.01207 0 21 2.01207 1
gene 1 8 31 0.560919 0 22 0.560919 1
gene 1 8 32 -0.534132 0 23 -0.534132 1
gene 1 8 33 0.583145 0 24 0.583145 1
gene 1 9 31 0.672829 0 25 0.672829 1
gene 1 9 32 -0.537109 0 26 -0.537109 1
gene 1 9 33 -0.444031 0 27 -0.444031 1
gene 1 10 31 -0.120798 0 28 -0.120798 1
gene 1 10 32 1.52154 0 29 1.52154 1
gene 1 10 33 0.140516 0 30 0.140516 1
gene 1 11 31 -2.3208 0 31 -2.3208 1
gene 1 11 32 0.235839 0 32 0.235839 1
gene 1 11 33 1.90372 0 33 1.90372 1
gene 1 12 31 -0.813191 0 34 -0.813191 1
gene 1 12 32 0.0197438 0 35 0.0197438 1
gene 1 12 33 0.600723 0 36 0.600723 1
gene 1 13 31 -3.4851 0 37 -3.4851 1
gene 1 13 32 -2.97939 0 38 -2.97939 1
gene 1 13 33 -0.120465 0 39 -0.120465 1
gene 1 14 31 0.563478 0 40 0.563478 1
gene 1 14 32 0.0792965 0 41 0.0792965 1
gene 1 14 33 3.57217 0 42 3.57217 1
gene 1 15 31 -0.673389 0 43 -0.673389 1
gene 1 15 32 -0.925567 0 44 -0.925567 1
gene 1 15 33 0.551289 0 45 0.551289 1
gene 1 16 31 -0.635158 0 46 -0.635158 1
gene 1 16 32 -1.64993 0 47 -1.64993 1
gene 1 16 33 0.240285 0 48 0.240285 1
gene 1 17 31 0.283193 0 49 0.283193 1
gene 1 17 32 4.24223 0 50 4.24223 1
gene 1 17 33 3.17615 0 51 3.17615 1
gene 1 18 31 2.08185 0 52 2.08185 1
gene 1 18 32 1.93919 0 53 1.93919 1
gene 1 18 33 -0.910114 0 54 -0.910114 1
gene 1 19 31 4.15194 0 55 4.15194 1
gene 1 19 32 5 0 56 5 1
gene 1 19 33 -2.31932 0 57 -2.31932 1
gene 1 20 31 0.734141 0 58 0.734141 1
gene 1 20 32 0.657658 0 59 0.657658 1
gene 1 20 33 -2.34319 0 60 -2.34319 1
gene 1 21 31 -5 0 61 -5 1
gene 1 21 32 4.79922 0 62 4.79922 1
gene 1 21 33 -4.81314 0 63 -4.81314 1
gene 1 22 31 -0.887591 0 64 -0.887591 1
gene 1 22 32 0.250073 0 65 0.250073 1
gene 1 22 33 -3.5742 0 66 -3.5742 1
gene 1 23 31 0.301724 0 67 0.301724 1
gene 1 23 32 -1.56484 0 68 -1.56484 1
gene 1 23 33 1.83039 0 69 1.83039 1
gene 1 24 31 0.637444 0 70 0.637444 1
gene 1 24 32 0.777847 0 71 0.777847 1
gene 1 24 33 4.62008 0 72 4.62008 1
gene 1 25 31 -1.8168 0 73 -1.8168 1
gene 1 25 32 0.149128 0 74 0.149128 1
gene 1 25 33 -1.34506 0 75 -1.34506 1
gene 1 26 31 1.51698 0 76 1.51698 1
gene 1 26 32 -2.36338 0 77 -2.36338 1
gene 1 26 33 -0.359019 0 78 -0.359019 1
gene 1 27 31 1.79156 0 79 1.79156 1
gene 1 27 32 -1.39308 0 80 -1.39308 1
gene 1 27 33 0.530967 0 81 0.530967 1
gene 1 28 31 -1.49379 0 82 -1.49379 1
gene 1 28 32 -0.620829 0 83 -0.620829 1
gene 1 28 33 0.138347 0 84 0.138347 1
gene 1 29 31 -0.945238 0 85 -0.945238 1
gene 1 29 32 -1.88302 0 86 -1.88302 1
gene 1 29 33 0.838193 0 87 0.838193 1
gene 1 30 31 0.574356 0 88 0.574356 1
gene 1 30 32 0.634418 0 89 0.634418 1
gene 1 30 33 -0.330271 0 90 -0.330271 1
genomeend 10

/* Organism #11 Fitness: 31089.6 Error: 0 */
genomestart 11
trait 1 0.1 0 0 0.33625 0.247444 0.872765 0 0 
node 1 1 1 1
node 2 1 1 1
node 3 1 1 1
node 4 1 1 1
node 5 1 1 1
node 6 1 1 1
node 7 1 1 1
node 8 1 1 1
node 9 1 1 1
node 10 1 1 1
node 11 1 1 1
node 12 1 1 1
node 13 1 1 1
node 14 1 1 1
node 15 1 1 1
node 16 1 1 1
node 17 1 1 1
node 18 1 1 1
node 19 1 1 1
node 20 1 1 1
node 21 1 1 1
node 22 1 1 1
node 23 1 1 1
node 24 1 1 1
node 25 1 1 1
node 26 1 1 1
node 27 1 1 1
node 28 1 1 1
node 29 1 1 1
node 30 1 1 3
node 31 1 0 2
node 32 1 0 2
node 33 1 0 2
gene 1 1 31 2.2046 0 1 2.2046 1
gene 1 1 32 -4.68632 0 2 -4.68632 1
gene 1 1 33 1.8703 0 3 1.8703 1
gene 1 2 31 -2.00018 0 4 -2.00018 1
gene 1 2 32 4.56521 0 5 4.56521 1
gene 1 2 33 3.65885 0 6 3.65885 1
gene 1 3 31 2.91645 0 7 2.91645 1
gene 1 3 32 -1.58387 0 8 -1.58387 1
gene 1 3 33 -0.929857 0 9 -0.929857 1
gene 1 4 31 0.176765 0 10 0.176765 1
gene 1 4 32 1.17406 0 11 1.17406 1
gene 1 4 33 -2.67544 0 12 -2.67544 1
gene 1 5 31 2.85966 0 13 2.85966 1
gene 1 5 32 -0.383819 0 14 -0.383819 1
gene 1 5 33 0.673568 0 15 0.673568 1
gene 1 6 31 -0.142385 0 16 -0.142385 1
gene 1 6 32 1.57778 0 17 1.57778 1
gene 1 6 33 -5 0 18 -5 1
gene 1 7 31 -4.41207 0 19 -4.41207 1
gene 1 7 32 -2.66247 0 20 -2.66247 1
gene 1 7 33 2.28118 0 21 2.28118 1
gene 1 8 31 0.552193 0 22 0.552193 1
gene 1 8 32 0.458495 0 23 0.458495 1
gene 1 8 33 -0.925677 0 24 -0.925677 1
gene 1 9 31 2.35815 0 25 2.35815 1
gene 1 9 32 -3.37952 0 26 -3.37952 1
gene 1 9 33 0.708885 0 27 0.708885 1
gene 1 10 31 1.91971 0 28 1.91971 1
gene 1 10 32 -0.194996 0 29 -0.194996 1
gene 1 10 33 1.01109 0 30 1.01109 1
gene 1 11 31 -0.27971 0 31 -0.27971 1
gene 1 11 32 2.43532 0 32 2.43532 1
gene 1 11 33 -0.175497 0 33 -0.175497 1
gene 1 12 31 -3.89716 0 34 -3.89716 1
gene 1 12 32 0.885656 0 35 0.885656 1
gene 1 12 33 -0.502827 0 36 -0.502827 1
gene 1 13 31 0.00719512 0 37 0.00719512 1
gene 1 13 32 -2.16533 0 38 -2.16533 1
gene 1 13 33 -1.13821 0 39 -1.13821 1
gene 1 14 31 1.62004 0 40 1.62004 1
gene 1 14 32 -2.47027 0 41 -2.47027 1
gene 1 14 33 0.208713 0 42 0.208713 1
gene 1 15 31 1.15057 0 43 1.15057 1
gene 1 15 32 -1.50927 0 44 -1.50927 1
gene 1 15 33 4.23834 0 45 4.23834 1
gene 1 16 31 0.894088 0 46 0.894088 1
gene 1 16 32 -0.71322 0 47 -0.71322 1
gene 1 16 33 -2.03624 0 48 -2.03624 1
gene 1 17 31 -0.94326 0 49 -0.94326 1
gene 1 17 32 5 0 50 5 1
gene 1 17 33 2.8173 0 51 2.8173 1
gene 1 18 31 3.13884 0 52 3.13884 1
gene 1 18 32 0.847187 0 53 0.847187 1
gene 1 18 33 -1.29648 0 54 -1.29648 1
gene 1 19 31 4.65931 0 55 4.65931 1
gene 1 19 32 3.29298 0 56 3.29298 1
gene 1 19 33 -3.20362 0 57 -3.20362 1
gene 1 20 31 -0.221224 0 58 -0.221224 1
gene 1 20 32 0.849328 0 59 0.849328 1
gene 1 20 33 -4.04533 0 60 -4.04533 1
gene 1 21 31 -3.77005 0 61 -3.77005 1
gene 1 21 32 4.34925 0 62 4.34925 1
gene 1 21 33 -3.70593 0 63 -3.70593 1
gene 1 22 31 0.337871 0 64 0.337871 1
gene 1 22 32 -4.6128 0 65 -4.6128 1
gene 1 22 33 -1.40071 0 66 -1.40071 1
gene 1 23 31 -0.405069 0 67 -0.405069 1
gene 1 23 32 1.40449 0 68 1.40449 1
gene 1 23 33 0.29959 0 69 0.29959 1
gene 1 24 31 -1.00306 0 70 -1.00306 1
gene 1 24 32 0.0349177 0 71 0.0349177 1
gene 1 24 33 2.73107 0 72 2.73107 1
gene 1 25 31 -1.70638 0 73 -1.70638 1
gene 1 25 32 0.496071 0 74 0.496071 1
gene 1 25 33 -0.658216 0 75 -0.658216 1
gene 1 26 31 0.481133 0 76 0.481133 1
gene 1 26 32 -1.06674 0 77 -1.06674 1
gene 1 26 33 -1.56613 0 78 -1.56613 1
gene 1 27 31 0.957546 0 79 0.957546 1
gene 1 27 32 -0.278093 0 80 -0.278093 1
gene 1 27 33 0.0322874 0 81 0.0322874 1
gene 1 28 31 -1.27925 0 82 -1.27925 1
gene 1 28 32 0.89156 0 83 0.89156 1
gene 1 28 33 -0.624585 0 84 -0.624585 1
gene 1 29 31 -0.289673 0 85 -0.289673 1
gene 1 29 32 0.125703 0 86 0.125703 1
gene 1 29 33 -1.35863 0 87 -1.35863 1
gene 1 30 31 -0.0807178 0 88 -0.0807178 1
gene 1 30 32 -0.885005 0 89 -0.885005 1
gene 1 30 33 0.094659 0 90 0.094659 1
genomeend 11

/* Organism #12 Fitness: 34640 Error: 0 */
genomestart 12
trait 1 0.1 0 0 0 0 0 0 0 
node 1 1 1 1
node 2 1 1 1
node 3 1 1 1
node 4 1 1 1
node 5 1 1 1
node 6 1 1 1
node 7 1 1 1
node 8 1 1 1
node 9 1 1 1
node 10 1 1 1
node 11 1 1 1
node 12 1 1 1
node 13 1 1 1
node 14 1 1 1
node 15 1 1 1
node 16 1 1 1
node 17 1 1 1
node 18 1 1 1
node 19 1 1 1
node 20 1 1 1
node 21 1 1 1
node 22 1 1 1
node 23 1 1 1
node 24 1 1 1
node 25 1 1 1
node 26 1 1 1
node 27 1 1 1
node 28 1 1 1
node 29 1 1 1
node 30 1 1 3
node 31 1 0 2
node 32 1 0 2
node 33 1 0 2
gene 1 1 31 0.515792 0 1 0.515792 1
gene 1 1 32 -5 0 2 -5 1
gene 1 1 33 2.57599 0 3 2.57599 1
gene 1 2 31 -3.16885 0 4 -3.16885 1
gene 1 2 32 4.75409 0 5 4.75409 1
gene 1 2 33 2.23574 0 6 2.23574 1
gene 1 3 31 2.09349 0 7 2.09349 1
gene 1 3 32 -2.83796 0 8 -2.83796 1
gene 1 3 33 -0.0531523 0 9 -0.0531523 1
gene 1 4 31 -1.26051 0 10 -1.26051 1
gene 1 4 32 1.47784 0 11 1.47784 1
gene 1 4 33 -1.58995 0 12 -1.58995 1
gene 1 5 31 0.995855 0 13 0.995855 1
gene 1 5 32 -1.87413 0 14 -1.87413 1
gene 1 5 33 -1.96243 0 15 -1.96243 1
gene 1 6 31 -1.83528 0 16 -1.83528 1
gene 1 6 32 1.69088 0 17 1.69088 1
gene 1 6 33 -4.75 0 18 -4.75 1
gene 1 7 31 -3.51438 0 19 -3.51438 1
gene 1 7 32 -3.44161 0 20 -3.44161 1
gene 1 7 33 2.57456 0 21 2.57456 1
gene 1 8 31 -0.56502 0 22 -0.56502 1
gene 1 8 32 0.991712 0 23 0.991712 1
gene 1 8 33 -0.526789 0 24 -0.526789 1
gene 1 9 31 3.88504 0 25 3.88504 1
gene 1 9 32 -2.52966 0 26 -2.52966 1
gene 1 9 33 0.0278372 0 27 0.0278372 1
gene 1 10 31 0.998103 0 28 0.998103 1
gene 1 10 32 1.41397 0 29 1.41397 1
gene 1 10 33 0.325079 0 30 0.325079 1
gene 1 11 31 -1.8866 0 31 -1.8866 1
gene 1 11 32 -0.27371 0 32 -0.27371 1
gene 1 11 33 1.9861 0 33 1.9861 1
gene 1 12 31 -5 0 34 -5 1
gene 1 12 32 -0.64014 0 35 -0.64014 1
gene 1 12 33 -0.817928 0 36 -0.817928 1
gene 1 13 31 -3.17053 0 37 -3.17053 1
gene 1 13 32 -3.275 0 38 -3.275 1
gene 1 13 33 0.510135 0 39 0.510135 1
gene 1 14 31 0.232782 0 40 0.232782 1
gene 1 14 32 0.0912855 0 41 0.0912855 1
gene 1 14 33 4.34833 0 42 4.34833 1
gene 1 15 31 0.463881 0 43 0.463881 1
gene 1 15 32 -0.0877924 0 44 -0.0877924 1
gene 1 15 33 1.48703 0 45 1.48703 1
gene 1 16 31 1.29805 0 46 1.29805 1
gene 1 16 32 -1.39124 0 47 -1.39124 1
gene 1 16 33 0.202621 0 48 0.202621 1
gene 1 17 31 0.671039 0 49 0.671039 1
gene 1 17 32 3.66006 0 50 3.66006 1
gene 1 17 33 2.75693 0 51 2.75693 1
gene 1 18 31 1.75807 0 52 1.75807 1
gene 1 18 32 2.59996 0 53 2.59996 1
gene 1 18 33 -1.55336 0 54 -1.55336 1
gene 1 19 31 3.58096 0 55 3.58096 1
gene 1 19 32 4.27873 0 56 4.27873 1
gene 1 19 33 -0.722799 0 57 -0.722799 1
gene 1 20 31 0.425532 0 58 0.425532 1
gene 1 20 32 0.501398 0 59 0.501398 1
gene 1 20 33 -0.741788 0 60 -0.741788 1
gene 1 21 31 -5 0 61 -5 1
gene 1 21 32 4.85247 0 62 4.85247 1
gene 1 21 33 -5 0 63 -5 1
gene 1 22 31 2.54474 0 64 2.54474 1
gene 1 22 32 -1.79206 0 65 -1.79206 1
gene 1 22 33 -2.94798 0 66 -2.94798 1
gene 1 23 31 -0.874301 0 67 -0.874301 1
gene 1 23 32 -2.42622 0 68 -2.42622 1
gene 1 23 33 0.694794 0 69 0.694794 1
gene 1 24 31 -0.525038 0 70 -0.525038 1
gene 1 24 32 1.47 0 71 1.47 1
gene 1 24 33 4.29591 0 72 4.29591 1
gene 1 25 31 -0.265305 0 73 -0.265305 1
gene 1 25 32 1.07738 0 74 1.07738 1
gene 1 25 33 -1.00973 0 75 -1.00973 1
gene 1 26 31 0.79006 0 76 0.79006 1
gene 1 26 32 -2.80201 0 77 -2.80201 1
gene 1 26 33 0.841032 0 78 0.841032 1
gene 1 27 31 1.99748 0 79 1.99748 1
gene 1 27 32 -0.738259 0 80 -0.738259 1
gene 1 27 33 0.474044 0 81 0.474044 1
gene 1 28 31 -1.39836 0 82 -1.39836 1
gene 1 28 32 -1.47442 0 83 -1.47442 1
gene 1 28 33 -0.2548 0 84 -0.2548 1
gene 1 29 31 0.771709 0 85 0.771709 1
gene 1 29 32 -1.25199 0 86 -1.25199 1
gene 1 29 33 0.638089 0 87 0.638089 1
gene 1 30 31 0.739904 0 88 0.739904 1
gene 1 30 32 0.67991 0 89 0.67991 1
gene 1 30 33 -1.594 0 90 -1.594 1
genomeend 12

/* Organism #13 Fitness: 29141.4 Error: 0 */
genomestart 13
trait 1 0 0 0.776735 0.41789 0 0.397105 0 0.390259 
node 1 1 1 1
node 2 1 1 1
node 3 1 1 1
node 4 1 1 1
node 5 1 1 1
node 6 1 1 1
node 7 1 1 1
node 8 1 1 1
node 9 1 1 1
node 10 1 1 1
node 11 1 1 1
node 12 1 1 1
node 13 1 1 1
node 14 1 1 1
node 15 1 1 1
node 16 1 1 1
node 17 1 1 1
node 18 1 1 1
node 19 1 1 1
node 20 1 1 1
node 21 1 1 1
node 22 1 1 1
node 23 1 1 1
node 24 1 1 1
node 25 1 1 1
node 26 1 1 1
node 27 1 1 1
node 28 1 1 1
node 29 1 1 1
node 30 1 1 3
node 31 1 0 2
node 32 1 0 2
node 33 1 0 2
gene 1 1 31 -0.618132 0 1 -0.618132 1
gene 1 1 32 -4.97835 0 2 -4.97835 1
gene 1 1 33 -2.70509 0 3 -2.70509 1
gene 1 2 31 -4.28454 0 4 -4.28454 1
gene 1 2 32 4.31875 0 5 4.31875 1
gene 1 2 33 -1.3996 0 6 -1.3996 1
gene 1 3 31 0.654286 0 7 0.654286 1
gene 1 3 32 0.143539 0 8 0.143539 1
gene 1 3 33 -2.68796 0 9 -2.68796 1
gene 1 4 31 -0.375803 0 10 -0.375803 1
gene 1 4 32 -0.63906 0 11 -0.63906 1
gene 1 4 33 -1.17678 0 12 -1.17678 1
gene 1 5 31 -2.21364 0 13 -2.21364 1
gene 1 5 32 -0.159681 0 14 -0.159681 1
gene 1 5 33 -1.18195 0 15 -1.18195 1
gene 1 6 31 0.880465 0 16 0.880465 1
gene 1 6 32 1.02503 0 17 1.02503 1
gene 1 6 33 0.352694 0 18 0.352694 1
gene 1 7 31 -4.6976 0 19 -4.6976 1
gene 1 7 32 -0.701458 0 20 -0.701458 1
gene 1 7 33 2.05337 0 21 2.05337 1
gene 1 8 31 1.14183 0 22 1.14183 1
gene 1 8 32 -1.35793 0 23 -1.35793 1
gene 1 8 33 0.258604 0 24 0.258604 1
gene 1 9 31 0.27824 0 25 0.27824 1
gene 1 9 32 1.3481 0 26 1.3481 1
gene 1 9 33 -2.19628 0 27 -2.19628 1
gene 1 10 31 -1.18173 0 28 -1.18173 1
gene 1 10 32 -1.78592 0 29 -1.78592 1
gene 1 10 33 0.0785513 0 30 0.0785513 1
gene 1 11 31 -2.13247 0 31 -2.13247 1
gene 1 11 32 -0.422481 0 32 -0.422481 1
gene 1 11 33 1.78851 0 33 1.78851 1
gene 1 12 31 0.205306 0 34 0.205306 1
gene 1 12 32 -0.0336864 0 35 -0.0336864 1
gene 1 12 33 0.897391 0 36 0.897391 1
gene 1 13 31 -3.14906 0 37 -3.14906 1
gene 1 13 32 0.0806277 0 38 0.0806277 1
gene 1 13 33 0.514707 0 39 0.514707 1
gene 1 14 31 1.80934 0 40 1.80934 1
gene 1 14 32 -1.21193 0 41 -1.21193 1
gene 1 14 33 0.857115 0 42 0.857115 1
gene 1 15 31 -0.359352 0 43 -0.359352 1
gene 1 15 32 -0.43169 0 44 -0.43169 1
gene 1 15 33 0.651332 0 45 0.651332 1
gene 1 16 31 2.11988 0 46 2.11988 1
gene 1 16 32 1.16858 0 47 1.16858 1
gene 1 16 33 -0.880215 0 48 -0.880215 1
gene 1 17 31 -0.504562 0 49 -0.504562 1
gene 1 17 32 0.511877 0 50 0.511877 1
gene 1 17 33 0.771716 0 51 0.771716 1
gene 1 18 31 3.36299 0 52 3.36299 1
gene 1 18 32 0.480455 0 53 0.480455 1
gene 1 18 33 3.30606 0 54 3.30606 1
gene 1 19 31 -0.533365 0 55 -0.533365 1
gene 1 19 32 -2.60394 0 56 -2.60394 1
gene 1 19 33 -0.574407 0 57 -0.574407 1
gene 1 20 31 -0.313662 0 58 -0.313662 1
gene 1 20 32 1.637 0 59 1.637 1
gene 1 20 33 1.80614 0 60 1.80614 1
gene 1 21 31 1.25451 0 61 1.25451 1
gene 1 21 32 3.16192 0 62 3.16192 1
gene 1 21 33 2.173 0 63 2.173 1
gene 1 22 31 0.109376 0 64 0.109376 1
gene 1 22 32 -0.654628 0 65 -0.654628 1
gene 1 22 33 -0.529051 0 66 -0.529051 1
gene 1 23 31 -0.449666 0 67 -0.449666 1
gene 1 23 32 -2.34671 0 68 -2.34671 1
gene 1 23 33 -1.20181 0 69 -1.20181 1
gene 1 24 31 -3.44767 0 70 -3.44767 1
gene 1 24 32 1.76478 0 71 1.76478 1
gene 1 24 33 -0.0677601 0 72 -0.0677601 1
gene 1 25 31 1.65541 0 73 1.65541 1
gene 1 25 32 -0.304093 0 74 -0.304093 1
gene 1 25 33 -0.205563 0 75 -0.205563 1
gene 1 26 31 -1.03041 0 76 -1.03041 1
gene 1 26 32 -2.14124 0 77 -2.14124 1
gene 1 26 33 -0.494702 0 78 -0.494702 1
gene 1 27 31 0.958731 0 79 0.958731 1
gene 1 27 32 1.29594 0 80 1.29594 1
gene 1 27 33 -0.724782 0 81 -0.724782 1
gene 1 28 31 0.991434 0 82 0.991434 1
gene 1 28 32 0.661455 0 83 0.661455 1
gene 1 28 33 0.345643 0 84 0.345643 1
gene 1 29 31 -0.349367 0 85 -0.349367 1
gene 1 29 32 -0.817053 0 86 -0.817053 1
gene 1 29 33 0.704734 0 87 0.704734 1
gene 1 30 31 0.786132 0 88 0.786132 1
gene 1 30 32 2.90104 0 89 2.90104 1
gene 1 30 33 0.0524897 0 90 0.0524897 1
genomeend 13

/* Organism #14 Fitness: 38534.7 Error: 0 */
genomestart 14
trait 1 0.1 0 0 0 0 0 0 0 
node 1 1 1 1
node 2 1 1 1
node 3 1 1 1
node 4 1 1 1
node 5 1 1 1
node 6 1 1 1
node 7 1 1 1
node 8 1 1 1
node 9 1 1 1
node 10 1 1 1
node 11 1 1 1
node 12 1 1 1
node 13 1 1 1
node 14 1 1 1
node 15 1 1 1
node 16 1 1 1
node 17 1 1 1
node 18 1 1 1
node 19 1 1 1
node 20 1 1 1
node 21 1 1 1
node 22 1 1 1
node 23 1 1 1
node 24 1 1 1
node 25 1 1 1
node 26 1 1 1
node 27 1 1 1
node 28 1 1 1
node 29 1 1 1
node 30 1 1 3
node 31 1 0 2
node 32 1 0 2
node 33 1 0 2
gene 1 1 31 2.75201 0 1 2.75201 1
gene 1 1 32 -5 0 2 -5 1
gene 1 1 33 0.88276 0 3 0.88276 1
gene 1 2 31 -3.76621 0 4 -3.76621 1
gene 1 2 32 4.51077 0 5 4.51077 1
gene 1 2 33 1.34823 0 6 1.34823 1
gene 1 3 31 0.421714 0 7 0.421714 1
gene 1 3 32 -3.70801 0 8 -3.70801 1
gene 1 3 33 -1.30942 0 9 -1.30942 1
gene 1 4 31 -0.207178 0 10 -0.207178 1
gene 1 4 32 2.15968 0 11 2.15968 1
gene 1 4 33 -2.64378 0 12 -2.64378 1
gene 1 5 31 0.879758 0 13 0.879758 1
gene 1 5 32 -0.240209 0 14 -0.240209 1
gene 1 5 33 0.13415 0 15 0.13415 1
gene 1 6 31 -0.538756 0 16 -0.538756 1
gene 1 6 32 3.32578 0 17 3.32578 1
gene 1 6 33 -3.68043 0 18 -3.68043 1
gene 1 7 31 -3.36506 0 19 -3.36506 1
gene 1 7 32 -2.01784 0 20 -2.01784 1
gene 1 7 33 2.37735 0 21 2.37735 1
gene 1 8 31 -1.12977 0 22 -1.12977 1
gene 1 8 32 0.74462 0 23 0.74462 1
gene 1 8 33 -2.44028 0 24 -2.44028 1
gene 1 9 31 4.0859 0 25 4.0859 1
gene 1 9 32 -1.46607 0 26 -1.46607 1
gene 1 9 33 0.536574 0 27 0.536574 1
gene 1 10 31 -1.87313 0 28 -1.87313 1
gene 1 10 32 0.727112 0 29 0.727112 1
gene 1 10 33 2.25513 0 30 2.25513 1
gene 1 11 31 0.0355706 0 31 0.0355706 1
gene 1 11 32 -1.90349 0 32 -1.90349 1
gene 1 11 33 2.56441 0 33 2.56441 1
gene 1 12 31 -3.84786 0 34 -3.84786 1
gene 1 12 32 -0.963093 0 35 -0.963093 1
gene 1 12 33 -1.19976 0 36 -1.19976 1
gene 1 13 31 0.293795 0 37 0.293795 1
gene 1 13 32 -3.59499 0 38 -3.59499 1
gene 1 13 33 -0.435819 0 39 -0.435819 1
gene 1 14 31 -0.64896 0 40 -0.64896 1
gene 1 14 32 0.857607 0 41 0.857607 1
gene 1 14 33 3.3922 0 42 3.3922 1
gene 1 15 31 -0.842973 0 43 -0.842973 1
gene 1 15 32 1.64739 0 44 1.64739 1
gene 1 15 33 3.47312 0 45 3.47312 1
gene 1 16 31 1.16107 0 46 1.16107 1
gene 1 16 32 -0.690733 0 47 -0.690733 1
gene 1 16 33 -1.97625 0 48 -1.97625 1
gene 1 17 31 -0.427001 0 49 -0.427001 1
gene 1 17 32 2.7815 0 50 2.7815 1
gene 1 17 33 0.202579 0 51 0.202579 1
gene 1 18 31 1.84635 0 52 1.84635 1
gene 1 18 32 4.09806 0 53 4.09806 1
gene 1 18 33 0.0630026 0 54 0.0630026 1
gene 1 19 31 0.742571 0 55 0.742571 1
gene 1 19 32 5 0 56 5 1
gene 1 19 33 -1.05996 0 57 -1.05996 1
gene 1 20 31 1.51436 0 58 1.51436 1
gene 1 20 32 0.779898 0 59 0.779898 1
gene 1 20 33 -5 0 60 -5 1
gene 1 21 31 -4.09789 0 61 -4.09789 1
gene 1 21 32 3.92355 0 62 3.92355 1
gene 1 21 33 -5 0 63 -5 1
gene 1 22 31 3.08316 0 64 3.08316 1
gene 1 22 32 -1.37993 0 65 -1.37993 1
gene 1 22 33 -2.8525 0 66 -2.8525 1
gene 1 23 31 -0.13524 0 67 -0.13524 1
gene 1 23 32 -1.13078 0 68 -1.13078 1
gene 1 23 33 -1.18448 0 69 -1.18448 1
gene 1 24 31 -1.40816 0 70 -1.40816 1
gene 1 24 32 0.104838 0 71 0.104838 1
gene 1 24 33 2.79966 0 72 2.79966 1
gene 1 25 31 0.482924 0 73 0.482924 1
gene 1 25 32 0.917523 0 74 0.917523 1
gene 1 25 33 0.509958 0 75 0.509958 1
gene 1 26 31 0.89486 0 76 0.89486 1
gene 1 26 32 -0.495103 0 77 -0.495103 1
gene 1 26 33 2.82923 0 78 2.82923 1
gene 1 27 31 1.3521 0 79 1.3521 1
gene 1 27 32 0.493997 0 80 0.493997 1
gene 1 27 33 -0.727179 0 81 -0.727179 1
gene 1 28 31 -1.90419 0 82 -1.90419 1
gene 1 28 32 -0.756885 0 83 -0.756885 1
gene 1 28 33 0.841466 0 84 0.841466 1
gene 1 29 31 1.13677 0 85 1.13677 1
gene 1 29 32 -2.91852 0 86 -2.91852 1
gene 1 29 33 0.910373 0 87 0.910373 1
gene 1 30 31 1.93499 0 88 1.93499 1
gene 1 30 32 0.513693 0 89 0.513693 1
gene 1 30 33 -0.934426 0 90 -0.934426 1
genomeend 14

/* Organism #15 Fitness: 32887.1 Error: 0 */
genomestart 15
trait 1 0.1 0 0 0 0 0 0 0 
node 1 1 1 1
node 2 1 1 1
node 3 1 1 1
node 4 1 1 1
node 5 1 1 1
node 6 1 1 1
node 7 1 1 1
node 8 1 1 1
node 9 1 1 1
node 10 1 1 1
node 11 1 1 1
node 12 1 1 1
node 13 1 1 1
node 14 1 1 1
node 15 1 1 1
node 16 1 1 1
node 17 1 1 1
node 18 1 1 1
node 19 1 1 1
node 20 1 1 1
node 21 1 1 1
node 22 1 1 1
node 23 1 1 1
node 24 1 1 1
node 25 1 1 1
node 26 1 1 1
node 27 1 1 1
node 28 1 1 1
node 29 1 1 1
node 30 1 1 3
node 31 1 0 2
node 32 1 0 2
node 33 1 0 2
gene 1 1 31 -0.210723 0 1 -0.210723 1
gene 1 1 32 -5 0 2 -5 1
gene 1 1 33 2.32252 0 3 2.32252 1
gene 1 2 31 -2.28675 0 4 -2.28675 1
gene 1 2 32 2.6232 0 5 2.6232 1
gene 1 2 33 3.23609 0 6 3.23609 1
gene 1 3 31 1.05126 0 7 1.05126 1
gene 1 3 32 -3.51094 0 8 -3.51094 1
gene 1 3 33 1.67616 0 9 1.67616 1
gene 1 4 31 0.0631292 0 10 0.0631292 1
gene 1 4 32 0.954536 0 11 0.954536 1
gene 1 4 33 -1.24157 0 12 -1.24157 1
gene 1 5 31 1.34597 0 13 1.34597 1
gene 1 5 32 -1.6764 0 14 -1.6764 1
gene 1 5 33 -2.00952 0 15 -2.00952 1
gene 1 6 31 -2.05838 0 16 -2.05838 1
gene 1 6 32 1.68171 0 17 1.68171 1
gene 1 6 33 -3.69435 0 18 -3.69435 1
gene 1 7 31 -4.06831 0 19 -4.06831 1
gene 1 7 32 -3.24598 0 20 -3.24598 1
gene 1 7 33 2.64329 0 21 2.64329 1
gene 1 8 31 1.29502 0 22 1.29502 1
gene 1 8 32 0.242128 0 23 0.242128 1
gene 1 8 33 0.665442 0 24 0.665442 1
gene 1 9 31 0.00822009 0 25 0.00822009 1
gene 1 9 32 -0.084364 0 26 -0.084364 1
gene 1 9 33 0.445724 0 27 0.445724 1
gene 1 10 31 0.58165 0 28 0.58165 1
gene 1 10 32 2.00678 0 29 2.00678 1
gene 1 10 33 -0.143196 0 30 -0.143196 1
gene 1 11 31 -2.51176 0 31 -2.51176 1
gene 1 11 32 -0.337131 0 32 -0.337131 1
gene 1 11 33 1.59716 0 33 1.59716 1
gene 1 12 31 -1.70514 0 34 -1.70514 1
gene 1 12 32 -0.28092 0 35 -0.28092 1
gene 1 12 33 0.840872 0 36 0.840872 1
gene 1 13 31 -3.28776 0 37 -3.28776 1
gene 1 13 32 -2.06684 0 38 -2.06684 1
gene 1 13 33 -0.649316 0 39 -0.649316 1
gene 1 14 31 0.315579 0 40 0.315579 1
gene 1 14 32 -0.648162 0 41 -0.648162 1
gene 1 14 33 3.87466 0 42 3.87466 1
gene 1 15 31 0.130699 0 43 0.130699 1
gene 1 15 32 -0.549593 0 44 -0.549593 1
gene 1 15 33 -0.179275 0 45 -0.179275 1
gene 1 16 31 -0.620849 0 46 -0.620849 1
gene 1 16 32 -2.24589 0 47 -2.24589 1
gene 1 16 33 1.18779 0 48 1.18779 1
gene 1 17 31 -0.486944 0 49 -0.486944 1
gene 1 17 32 3.90178 0 50 3.90178 1
gene 1 17 33 2.60579 0 51 2.60579 1
gene 1 18 31 2.30692 0 52 2.30692 1
gene 1 18 32 2.61194 0 53 2.61194 1
gene 1 18 33 -0.740733 0 54 -0.740733 1
gene 1 19 31 4.62072 0 55 4.62072 1
gene 1 19 32 5 0 56 5 1
gene 1 19 33 -1.59971 0 57 -1.59971 1
gene 1 20 31 0.815263 0 58 0.815263 1
gene 1 20 32 -0.00250635 0 59 -0.00250635 1
gene 1 20 33 -1.99139 0 60 -1.99139 1
gene 1 21 31 -4.30853 0 61 -4.30853 1
gene 1 21 32 4.01419 0 62 4.01419 1
gene 1 21 33 -5 0 63 -5 1
gene 1 22 31 -0.644683 0 64 -0.644683 1
gene 1 22 32 0.397088 0 65 0.397088 1
gene 1 22 33 -3.96101 0 66 -3.96101 1
gene 1 23 31 0.922295 0 67 0.922295 1
gene 1 23 32 -0.969943 0 68 -0.969943 1
gene 1 23 33 2.04315 0 69 2.04315 1
gene 1 24 31 1.28781 0 70 1.28781 1
gene 1 24 32 0.786635 0 71 0.786635 1
gene 1 24 33 3.93698 0 72 3.93698 1
gene 1 25 31 -1.35773 0 73 -1.35773 1
gene 1 25 32 0.845889 0 74 0.845889 1
gene 1 25 33 -1.34506 0 75 -1.34506 1
gene 1 26 31 1.51698 0 76 1.51698 1
gene 1 26 32 -2.36338 0 77 -2.36338 1
gene 1 26 33 -1.16998 0 78 -1.16998 1
gene 1 27 31 -0.808745 0 79 -0.808745 1
gene 1 27 32 -1.33272 0 80 -1.33272 1
gene 1 27 33 0.530967 0 81 0.530967 1
gene 1 28 31 0.665183 0 82 0.665183 1
gene 1 28 32 -1.11613 0 83 -1.11613 1
gene 1 28 33 -0.415212 0 84 -0.415212 1
gene 1 29 31 -1.43667 0 85 -1.43667 1
gene 1 29 32 0.906752 0 86 0.906752 1
gene 1 29 33 0.838193 0 87 0.838193 1
gene 1 30 31 0.787908 0 88 0.787908 1
gene 1 30 32 1.29177 0 89 1.29177 1
gene 1 30 33 -1.20481 0 90 -1.20481 1
genomeend 15

/* Organism #16 Fitness: 31060.4 Error: 0 */
genomestart 16
trait 1 0 0 0.776735 0.41789 0 0.397105 0 0.433345 
node 1 1 1 1
node 2 1 1 1
node 3 1 1 1
node 4 1 1 1
node 5 1 1 1
node 6 1 1 1
node 7 1 1 1
node 8 1 1 1
node 9 1 1 1
node 10 1 1 1
node 11 1 1 1
node 12 1 1 1
node 13 1 1 1
node 14 1 1 1
node 15 1 1 1
node 16 1 1 1
node 17 1 1 1
node 18 1 1 1
node 19 1 1 1
node 20 1 1 1
node 21 1 1 1
node 22 1 1 1
node 23 1 1 1
node 24 1 1 1
node 25 1 1 1
node 26 1 1 1
node 27 1 1 1
node 28 1 1 1
node 29 1 1 1
node 30 1 1 3
node 31 1 0 2
node 32 1 0 2
node 33 1 0 2
gene 1 1 31 1.79227 0 1 1.79227 1
gene 1 1 32 -4.74708 0 2 -4.74708 1
gene 1 1 33 -1.50054 0 3 -1.50054 1
gene 1 2 31 -5 0 4 -5 1
gene 1 2 32 5 0 5 5 1
gene 1 2 33 -0.3419 0 6 -0.3419 1
gene 1 3 31 -0.157513 0 7 -0.157513 1
gene 1 3 32 -0.470358 0 8 -0.470358 1
gene 1 3 33 -1.22519 0 9 -1.22519 1
gene 1 4 31 -0.370553 0 10 -0.370553 1
gene 1 4 32 -0.138833 0 11 -0.138833 1
gene 1 4 33 0.980575 0 12 0.980575 1
gene 1 5 31 -0.199797 0 13 -0.199797 1
gene 1 5 32 -1.64285 0 14 -1.64285 1
gene 1 5 33 -0.983127 0 15 -0.983127 1
gene 1 6 31 -1.28004 0 16 -1.28004 1
gene 1 6 32 -0.609577 0 17 -0.609577 1
gene 1 6 33 -0.138522 0 18 -0.138522 1
gene 1 7 31 -4.26212 0 19 -4.26212 1
gene 1 7 32 -0.108351 0 20 -0.108351 1
gene 1 7 33 1.23157 0 21 1.23157 1
gene 1 8 31 1.20443 0 22 1.20443 1
gene 1 8 32 -0.930754 0 23 -0.930754 1
gene 1 8 33 1.04653 0 24 1.04653 1
gene 1 9 31 0.58836 0 25 0.58836 1
gene 1 9 32 0.831488 0 26 0.831488 1
gene 1 9 33 -1.84266 0 27 -1.84266 1
gene 1 10 31 -1.12267 0 28 -1.12267 1
gene 1 10 32 -2.30908 0 29 -2.30908 1
gene 1 10 33 2.7204 0 30 2.7204 1
gene 1 11 31 -1.85253 0 31 -1.85253 1
gene 1 11 32 -4.38423 0 32 -4.38423 1
gene 1 11 33 0.491962 0 33 0.491962 1
gene 1 12 31 0.603916 0 34 0.603916 1
gene 1 12 32 0.395073 0 35 0.395073 1
gene 1 12 33 -1.4491 0 36 -1.4491 1
gene 1 13 31 -3.64323 0 37 -3.64323 1
gene 1 13 32 -0.834466 0 38 -0.834466 1
gene 1 13 33 -1.27157 0 39 -1.27157 1
gene 1 14 31 1.25859 0 40 1.25859 1
gene 1 14 32 -1.22091 0 41 -1.22091 1
gene 1 14 33 5 0 42 5 1
gene 1 15 31 -0.00826831 0 43 -0.00826831 1
gene 1 15 32 0.528782 0 44 0.528782 1
gene 1 15 33 1.69762 0 45 1.69762 1
gene 1 16 31 0.931322 0 46 0.931322 1
gene 1 16 32 1.897 0 47 1.897 1
gene 1 16 33 -1.58906 0 48 -1.58906 1
gene 1 17 31 0.492216 0 49 0.492216 1
gene 1 17 32 2.2084 0 50 2.2084 1
gene 1 17 33 1.7726 0 51 1.7726 1
gene 1 18 31 3.81226 0 52 3.81226 1
gene 1 18 32 0.319508 0 53 0.319508 1
gene 1 18 33 3.95552 0 54 3.95552 1
gene 1 19 31 -1.28535 0 55 -1.28535 1
gene 1 19 32 -1.85172 0 56 -1.85172 1
gene 1 19 33 1.04345 0 57 1.04345 1
gene 1 20 31 -0.785607 0 58 -0.785607 1
gene 1 20 32 0.851397 0 59 0.851397 1
gene 1 20 33 2.09802 0 60 2.09802 1
gene 1 21 31 1.15496 0 61 1.15496 1
gene 1 21 32 3.48994 0 62 3.48994 1
gene 1 21 33 0.343692 0 63 0.343692 1
gene 1 22 31 0.748345 0 64 0.748345 1
gene 1 22 32 -0.478698 0 65 -0.478698 1
gene 1 22 33 0.965271 0 66 0.965271 1
gene 1 23 31 -0.651183 0 67 -0.651183 1
gene 1 23 32 -2.85226 0 68 -2.85226 1
gene 1 23 33 -2.40812 0 69 -2.40812 1
gene 1 24 31 -2.43134 0 70 -2.43134 1
gene 1 24 32 3.11106 0 71 3.11106 1
gene 1 24 33 -1.2211 0 72 -1.2211 1
gene 1 25 31 1.14915 0 73 1.14915 1
gene 1 25 32 -1.0706 0 74 -1.0706 1
gene 1 25 33 -0.686406 0 75 -0.686406 1
gene 1 26 31 0.751247 0 76 0.751247 1
gene 1 26 32 -3.08181 0 77 -3.08181 1
gene 1 26 33 -0.0901121 0 78 -0.0901121 1
gene 1 27 31 -1.08513 0 79 -1.08513 1
gene 1 27 32 1.60527 0 80 1.60527 1
gene 1 27 33 -0.75149 0 81 -0.75149 1
gene 1 28 31 0.151194 0 82 0.151194 1
gene 1 28 32 0.833934 0 83 0.833934 1
gene 1 28 33 0.167185 0 84 0.167185 1
gene 1 29 31 -0.390952 0 85 -0.390952 1
gene 1 29 32 0.395662 0 86 0.395662 1
gene 1 29 33 -0.28773 0 87 -0.28773 1
gene 1 30 31 0.577321 0 88 0.577321 1
gene 1 30 32 2.53937 0 89 2.53937 1
gene 1 30 33 0.464795 0 90 0.464795 1
genomeend 16

/* Organism #17 Fitness: 31186.2 Error: 0 */
genomestart 17
trait 1 0.1 0 0 0 0 0 0 0 
node 1 1 1 1
node 2 1 1 1
node 3 1 1 1
node 4 1 1 1
node 5 1 1 1
node 6 1 1 1
node 7 1 1 1
node 8 1 1 1
node 9 1 1 1
node 10 1 1 1
node 11 1 1 1
node 12 1 1 1
node 13 1 1 1
node 14 1 1 1
node 15 1 1 1
node 16 1 1 1
node 17 1 1 1
node 18 1 1 1
node 19 1 1 1
node 20 1 1 1
node 21 1 1 1
node 22 1 1 1
node 23 1 1 1
node 24 1 1 1
node 25 1 1 1
node 26 1 1 1
node 27 1 1 1
node 28 1 1 1
node 29 1 1 1
node 30 1 1 3
node 31 1 0 2
node 32 1 0 2
node 33 1 0 2
gene 1 1 31 1.31141 0 1 1.31141 1
gene 1 1 32 -4.80582 0 2 -4.80582 1
gene 1 1 33 0.680997 0 3 0.680997 1
gene 1 2 31 -3.55306 0 4 -3.55306 1
gene 1 2 32 4.74411 0 5 4.74411 1
gene 1 2 33 1.23401 0 6 1.23401 1
gene 1 3 31 1.26098 0 7 1.26098 1
gene 1 3 32 -2.71027 0 8 -2.71027 1
gene 1 3 33 -0.741992 0 9 -0.741992 1
gene 1 4 31 -0.0120395 0 10 -0.0120395 1
gene 1 4 32 3.7406 0 11 3.7406 1
gene 1 4 33 -2.9054 0 12 -2.9054 1
gene 1 5 31 0.913821 0 13 0.913821 1
gene 1 5 32 0.22483 0 14 0.22483 1
gene 1 5 33 0.14771 0 15 0.14771 1
gene 1 6 31 -2.13549 0 16 -2.13549 1
gene 1 6 32 4.86974 0 17 4.86974 1
gene 1 6 33 -4.0156 0 18 -4.0156 1
gene 1 7 31 -2.24825 0 19 -2.24825 1
gene 1 7 32 -1.16244 0 20 -1.16244 1
gene 1 7 33 2.44557 0 21 2.44557 1
gene 1 8 31 -0.484398 0 22 -0.484398 1
gene 1 8 32 0.0655836 0 23 0.0655836 1
gene 1 8 33 -3.27492 0 24 -3.27492 1
gene 1 9 31 4.31315 0 25 4.31315 1
gene 1 9 32 -2.4832 0 26 -2.4832 1
gene 1 9 33 0.661291 0 27 0.661291 1
gene 1 10 31 -1.18801 0 28 -1.18801 1
gene 1 10 32 0.325481 0 29 0.325481 1
gene 1 10 33 1.31483 0 30 1.31483 1
gene 1 11 31 -0.137321 0 31 -0.137321 1
gene 1 11 32 -3.57139 0 32 -3.57139 1
gene 1 11 33 4.27687 0 33 4.27687 1
gene 1 12 31 -2.5598 0 34 -2.5598 1
gene 1 12 32 -0.670847 0 35 -0.670847 1
gene 1 12 33 -0.965449 0 36 -0.965449 1
gene 1 13 31 -0.545603 0 37 -0.545603 1
gene 1 13 32 -2.79707 0 38 -2.79707 1
gene 1 13 33 0.0364262 0 39 0.0364262 1
gene 1 14 31 -1.06573 0 40 -1.06573 1
gene 1 14 32 0.218967 0 41 0.218967 1
gene 1 14 33 5 0 42 5 1
gene 1 15 31 0.204083 0 43 0.204083 1
gene 1 15 32 1.37006 0 44 1.37006 1
gene 1 15 33 4.72009 0 45 4.72009 1
gene 1 16 31 0.654567 0 46 0.654567 1
gene 1 16 32 -0.791339 0 47 -0.791339 1
gene 1 16 33 -2.38385 0 48 -2.38385 1
gene 1 17 31 0.125619 0 49 0.125619 1
gene 1 17 32 2.42866 0 50 2.42866 1
gene 1 17 33 0.383718 0 51 0.383718 1
gene 1 18 31 2.84951 0 52 2.84951 1
gene 1 18 32 2.95572 0 53 2.95572 1
gene 1 18 33 -0.371318 0 54 -0.371318 1
gene 1 19 31 -0.167505 0 55 -0.167505 1
gene 1 19 32 4.6845 0 56 4.6845 1
gene 1 19 33 -0.590727 0 57 -0.590727 1
gene 1 20 31 2.71887 0 58 2.71887 1
gene 1 20 32 -0.338545 0 59 -0.338545 1
gene 1 20 33 -3.72681 0 60 -3.72681 1
gene 1 21 31 -5 0 61 -5 1
gene 1 21 32 4.3788 0 62 4.3788 1
gene 1 21 33 -4.51355 0 63 -4.51355 1
gene 1 22 31 1.6962 0 64 1.6962 1
gene 1 22 32 -2.2138 0 65 -2.2138 1
gene 1 22 33 -3.1515 0 66 -3.1515 1
gene 1 23 31 0.150508 0 67 0.150508 1
gene 1 23 32 -1.2538 0 68 -1.2538 1
gene 1 23 33 -1.50837 0 69 -1.50837 1
gene 1 24 31 -0.379746 0 70 -0.379746 1
gene 1 24 32 1.71523 0 71 1.71523 1
gene 1 24 33 2.50381 0 72 2.50381 1
gene 1 25 31 -0.210064 0 73 -0.210064 1
gene 1 25 32 0.77716 0 74 0.77716 1
gene 1 25 33 0.65515 0 75 0.65515 1
gene 1 26 31 1.95064 0 76 1.95064 1
gene 1 26 32 0.865571 0 77 0.865571 1
gene 1 26 33 2.32841 0 78 2.32841 1
gene 1 27 31 1.3521 0 79 1.3521 1
gene 1 27 32 1.28226 0 80 1.28226 1
gene 1 27 33 -0.85797 0 81 -0.85797 1
gene 1 28 31 1.31541 0 82 1.31541 1
gene 1 28 32 -1.09066 0 83 -1.09066 1
gene 1 28 33 1.7575 0 84 1.7575 1
gene 1 29 31 -0.805567 0 85 -0.805567 1
gene 1 29 32 -2.91852 0 86 -2.91852 1
gene 1 29 33 1.56579 0 87 1.56579 1
gene 1 30 31 -0.18227 0 88 -0.18227 1
gene 1 30 32 1.12702 0 89 1.12702 1
gene 1 30 33 -0.720123 0 90 -0.720123 1
genomeend 17

/* Organism #18 Fitness: 31124.3 Error: 0 */
genomestart 18
trait 1 0 0 0.776735 0.41789 0 0.397105 0 0.433345 
node 1 1 1 1
node 2 1 1 1
node 3 1 1 1
node 4 1 1 1
node 5 1 1 1
node 6 1 1 1
node 7 1 1 1
node 8 1 1 1
node 9 1 1 1
node 10 1 1 1
node 11 1 1 1
node 12 1 1 1
node 13 1 1 1
node 14 1 1 1
node 15 1 1 1
node 16 1 1 1
node 17 1 1 1
node 18 1 1 1
node 19 1 1 1
node 20 1 1 1
node 21 1 1 1
node 22 1 1 1
node 23 1 1 1
node 24 1 1 1
node 25 1 1 1
node 26 1 1 1
node 27 1 1 1
node 28 1 1 1
node 29 1 1 1
node 30 1 1 3
node 31 1 0 2
node 32 1 0 2
node 33 1 0 2
gene 1 1 31 -0.0421149 0 1 -0.0421149 1
gene 1 1 32 -4.33212 0 2 -4.33212 1
gene 1 1 33 -2.5198 0 3 -2.5198 1
gene 1 2 31 -4.40657 0 4 -4.40657 1
gene 1 2 32 4.50755 0 5 4.50755 1
gene 1 2 33 -1.74005 0 6 -1.74005 1
gene 1 3 31 -1.02558 0 7 -1.02558 1
gene 1 3 32 1.50552 0 8 1.50552 1
gene 1 3 33 -1.81607 0 9 -1.81607 1
gene 1 4 31 -0.0340746 0 10 -0.0340746 1
gene 1 4 32 0.298112 0 11 0.298112 1
gene 1 4 33 -0.3261 0 12 -0.3261 1
gene 1 5 31 -1.90726 0 13 -1.90726 1
gene 1 5 32 -0.687434 0 14 -0.687434 1
gene 1 5 33 -0.757742 0 15 -0.757742 1
gene 1 6 31 -0.685243 0 16 -0.685243 1
gene 1 6 32 0.918177 0 17 0.918177 1
gene 1 6 33 -0.120915 0 18 -0.120915 1
gene 1 7 31 -4.36207 0 19 -4.36207 1
gene 1 7 32 0.874764 0 20 0.874764 1
gene 1 7 33 0.243428 0 21 0.243428 1
gene 1 8 31 0.57442 0 22 0.57442 1
gene 1 8 32 -0.37992 0 23 -0.37992 1
gene 1 8 33 0.31638 0 24 0.31638 1
gene 1 9 31 0.99597 0 25 0.99597 1
gene 1 9 32 2.19967 0 26 2.19967 1
gene 1 9 33 -2.99468 0 27 -2.99468 1
gene 1 10 31 -0.0179864 0 28 -0.0179864 1
gene 1 10 32 -1.94842 0 29 -1.94842 1
gene 1 10 33 1.46611 0 30 1.46611 1
gene 1 11 31 -2.50537 0 31 -2.50537 1
gene 1 11 32 -2.97697 0 32 -2.97697 1
gene 1 11 33 2.72741 0 33 2.72741 1
gene 1 12 31 -0.672223 0 34 -0.672223 1
gene 1 12 32 0.801175 0 35 0.801175 1
gene 1 12 33 -1.65258 0 36 -1.65258 1
gene 1 13 31 -3.76063 0 37 -3.76063 1
gene 1 13 32 1.16037 0 38 1.16037 1
gene 1 13 33 -0.936709 0 39 -0.936709 1
gene 1 14 31 0.85613 0 40 0.85613 1
gene 1 14 32 -2.37773 0 41 -2.37773 1
gene 1 14 33 5 0 42 5 1
gene 1 15 31 -1.35506 0 43 -1.35506 1
gene 1 15 32 -0.361928 0 44 -0.361928 1
gene 1 15 33 1.27138 0 45 1.27138 1
gene 1 16 31 2.24449 0 46 2.24449 1
gene 1 16 32 1.26332 0 47 1.26332 1
gene 1 16 33 -0.550932 0 48 -0.550932 1
gene 1 17 31 0.522369 0 49 0.522369 1
gene 1 17 32 0.623024 0 50 0.623024 1
gene 1 17 33 0.578261 0 51 0.578261 1
gene 1 18 31 2.96988 0 52 2.96988 1
gene 1 18 32 0.425927 0 53 0.425927 1
gene 1 18 33 2.11846 0 54 2.11846 1
gene 1 19 31 1.0254 0 55 1.0254 1
gene 1 19 32 -3.27632 0 56 -3.27632 1
gene 1 19 33 0.661216 0 57 0.661216 1
gene 1 20 31 -0.848043 0 58 -0.848043 1
gene 1 20 32 2.21463 0 59 2.21463 1
gene 1 20 33 1.9684 0 60 1.9684 1
gene 1 21 31 1.032 0 61 1.032 1
gene 1 21 32 1.81174 0 62 1.81174 1
gene 1 21 33 1.2759 0 63 1.2759 1
gene 1 22 31 2.01084 0 64 2.01084 1
gene 1 22 32 0.265754 0 65 0.265754 1
gene 1 22 33 2.12561 0 66 2.12561 1
gene 1 23 31 -1.01504 0 67 -1.01504 1
gene 1 23 32 -2.94937 0 68 -2.94937 1
gene 1 23 33 -1.6584 0 69 -1.6584 1
gene 1 24 31 -2.27794 0 70 -2.27794 1
gene 1 24 32 0.82518 0 71 0.82518 1
gene 1 24 33 -0.890506 0 72 -0.890506 1
gene 1 25 31 1.55036 0 73 1.55036 1
gene 1 25 32 0.716696 0 74 0.716696 1
gene 1 25 33 -1.03329 0 75 -1.03329 1
gene 1 26 31 0.253884 0 76 0.253884 1
gene 1 26 32 -1.33733 0 77 -1.33733 1
gene 1 26 33 -0.0273374 0 78 -0.0273374 1
gene 1 27 31 -1.74177 0 79 -1.74177 1
gene 1 27 32 1.42877 0 80 1.42877 1
gene 1 27 33 -0.195006 0 81 -0.195006 1
gene 1 28 31 0.50427 0 82 0.50427 1
gene 1 28 32 1.35829 0 83 1.35829 1
gene 1 28 33 -0.179502 0 84 -0.179502 1
gene 1 29 31 -0.737622 0 85 -0.737622 1
gene 1 29 32 -0.0112965 0 86 -0.0112965 1
gene 1 29 33 0.94415 0 87 0.94415 1
gene 1 30 31 -0.415124 0 88 -0.415124 1
gene 1 30 32 2.27393 0 89 2.27393 1
gene 1 30 33 -0.2932 0 90 -0.2932 1
genomeend 18

/* Organism #19 Fitness: 34315.5 Error: 0 */
genomestart 19
trait 1 0.705267 0 0 0 0 0 0 0 
node 1 1 1 1
node 2 1 1 1
node 3 1 1 1
node 4 1 1 1
node 5 1 1 1
node 6 1 1 1
node 7 1 1 1
node 8 1 1 1
node 9 1 1 1
node 10 1 1 1
node 11 1 1 1
node 12 1 1 1
node 13 1 1 1
node 14 1 1 1
node 15 1 1 1
node 16 1 1 1
node 17 1 1 1
node 18 1 1 1
node 19 1 1 1
node 20 1 1 1
node 21 1 1 1
node 22 1 1 1
node 23 1 1 1
node 24 1 1 1
node 25 1 1 1
node 26 1 1 1
node 27 1 1 1
node 28 1 1 1
node 29 1 1 1
node 30 1 1 3
node 31 1 0 2
node 32 1 0 2
node 33 1 0 2
gene 1 1 31 0.515792 0 1 0.515792 1
gene 1 1 32 -5 0 2 -5 1
gene 1 1 33 3.56925 0 3 3.56925 1
gene 1 2 31 -3.11369 0 4 -3.11369 1
gene 1 2 32 4.75111 0 5 4.75111 1
gene 1 2 33 2.30456 0 6 2.30456 1
gene 1 3 31 1.48478 0 7 1.48478 1
gene 1 3 32 -3.50533 0 8 -3.50533 1
gene 1 3 33 -0.859338 0 9 -0.859338 1
gene 1 4 31 -1.26051 0 10 -1.26051 1
gene 1 4 32 0.25648 0 11 0.25648 1
gene 1 4 33 -1.08822 0 12 -1.08822 1
gene 1 5 31 1.51227 0 13 1.51227 1
gene 1 5 32 -0.923822 0 14 -0.923822 1
gene 1 5 33 -2.34659 0 15 -2.34659 1
gene 1 6 31 -1.83528 0 16 -1.83528 1
gene 1 6 32 0.892333 0 17 0.892333 1
gene 1 6 33 -5 0 18 -5 1
gene 1 7 31 0.222641 0 19 0.222641 1
gene 1 7 32 -3.79379 0 20 -3.79379 1
gene 1 7 33 2.97722 0 21 2.97722 1
gene 1 8 31 -0.0730846 0 22 -0.0730846 1
gene 1 8 32 1.515 0 23 1.515 1
gene 1 8 33 -0.921448 0 24 -0.921448 1
gene 1 9 31 0.119192 0 25 0.119192 1
gene 1 9 32 -1.76381 0 26 -1.76381 1
gene 1 9 33 0.846756 0 27 0.846756 1
gene 1 10 31 0.797037 0 28 0.797037 1
gene 1 10 32 1.81576 0 29 1.81576 1
gene 1 10 33 1.27898 0 30 1.27898 1
gene 1 11 31 -0.512704 0 31 -0.512704 1
gene 1 11 32 -0.0678255 0 32 -0.0678255 1
gene 1 11 33 0.822449 0 33 0.822449 1
gene 1 12 31 -4.64434 0 34 -4.64434 1
gene 1 12 32 0.220539 0 35 0.220539 1
gene 1 12 33 -1.15841 0 36 -1.15841 1
gene 1 13 31 -0.863898 0 37 -0.863898 1
gene 1 13 32 -3.275 0 38 -3.275 1
gene 1 13 33 1.0452 0 39 1.0452 1
gene 1 14 31 0.0763984 0 40 0.0763984 1
gene 1 14 32 -0.25027 0 41 -0.25027 1
gene 1 14 33 0.347065 0 42 0.347065 1
gene 1 15 31 -0.210756 0 43 -0.210756 1
gene 1 15 32 -0.840689 0 44 -0.840689 1
gene 1 15 33 -0.795527 0 45 -0.795527 1
gene 1 16 31 0.374744 0 46 0.374744 1
gene 1 16 32 -0.743928 0 47 -0.743928 1
gene 1 16 33 -0.563446 0 48 -0.563446 1
gene 1 17 31 0.708225 0 49 0.708225 1
gene 1 17 32 3.66006 0 50 3.66006 1
gene 1 17 33 2.81353 0 51 2.81353 1
gene 1 18 31 1.19834 0 52 1.19834 1
gene 1 18 32 1.91533 0 53 1.91533 1
gene 1 18 33 0.954588 0 54 0.954588 1
gene 1 19 31 3.58096 0 55 3.58096 1
gene 1 19 32 4.27873 0 56 4.27873 1
gene 1 19 33 -0.848969 0 57 -0.848969 1
gene 1 20 31 0.688707 0 58 0.688707 1
gene 1 20 32 0.942288 0 59 0.942288 1
gene 1 20 33 -0.0610979 0 60 -0.0610979 1
gene 1 21 31 -0.0777036 0 61 -0.0777036 1
gene 1 21 32 4.85588 0 62 4.85588 1
gene 1 21 33 -5 0 63 -5 1
gene 1 22 31 2.56698 0 64 2.56698 1
gene 1 22 32 -0.293456 0 65 -0.293456 1
gene 1 22 33 -3.66643 0 66 -3.66643 1
gene 1 23 31 -0.2366 0 67 -0.2366 1
gene 1 23 32 -1.51112 0 68 -1.51112 1
gene 1 23 33 0.590308 0 69 0.590308 1
gene 1 24 31 -0.198369 0 70 -0.198369 1
gene 1 24 32 0.57432 0 71 0.57432 1
gene 1 24 33 4.27213 0 72 4.27213 1
gene 1 25 31 0.664449 0 73 0.664449 1
gene 1 25 32 0.789152 0 74 0.789152 1
gene 1 25 33 -0.0698395 0 75 -0.0698395 1
gene 1 26 31 1.47034 0 76 1.47034 1
gene 1 26 32 -2.80201 0 77 -2.80201 1
gene 1 26 33 0.841032 0 78 0.841032 1
gene 1 27 31 1.3159 0 79 1.3159 1
gene 1 27 32 0.243061 0 80 0.243061 1
gene 1 27 33 0.900992 0 81 0.900992 1
gene 1 28 31 -1.47343 0 82 -1.47343 1
gene 1 28 32 -1.95983 0 83 -1.95983 1
gene 1 28 33 0.0878147 0 84 0.0878147 1
gene 1 29 31 1.37297 0 85 1.37297 1
gene 1 29 32 -1.22639 0 86 -1.22639 1
gene 1 29 33 1.48658 0 87 1.48658 1
gene 1 30 31 0.543818 0 88 0.543818 1
gene 1 30 32 1.01148 0 89 1.01148 1
gene 1 30 33 -0.898169 0 90 -0.898169 1
genomeend 19

/* Organism #20 Fitness: 34291.2 Error: 0 */
genomestart 20
trait 1 0.1 0 0 0 0 0 0 0 
node 1 1 1 1
node 2 1 1 1
node 3 1 1 1
node 4 1 1 1
node 5 1 1 1
node 6 1 1 1
node 7 1 1 1
node 8 1 1 1
node 9 1 1 1
node 10 1 1 1
node 11 1 1 1
node 12 1 1 1
node 13 1 1 1
node 14 1 1 1
node 15 1 1 1
node 16 1 1 1
node 17 1 1 1
node 18 1 1 1
node 19 1 1 1
node 20 1 1 1
node 21 1 1 1
node 22 1 1 1
node 23 1 1 1
node 24 1 1 1
node 25 1 1 1
node 26 1 1 1
node 27 1 1 1
node 28 1 1 1
node 29 1 1 1
node 30 1 1 3
node 31 1 0 2
node 32 1 0 2
node 33 1 0 2
gene 1 1 31 0.607007 0 1 0.607007 1
gene 1 1 32 -3.67918 0 2 -3.67918 1
gene 1 1 33 1.26563 0 3 1.26563 1
gene 1 2 31 -3.51687 0 4 -3.51687 1
gene 1 2 32 5 0 5 5 1
gene 1 2 33 2.3479 0 6 2.3479 1
gene 1 3 31 -0.289554 0 7 -0.289554 1
gene 1 3 32 0.598023 0 8 0.598023 1
gene 1 3 33 -1.27128 0 9 -1.27128 1
gene 1 4 31 -0.392061 0 10 -0.392061 1
gene 1 4 32 3.07098 0 11 3.07098 1
gene 1 4 33 -0.66806 0 12 -0.66806 1
gene 1 5 31 -0.134746 0 13 -0.134746 1
gene 1 5 32 -1.89612 0 14 -1.89612 1
gene 1 5 33 -0.124996 0 15 -0.124996 1
gene 1 6 31 -0.697685 0 16 -0.697685 1
gene 1 6 32 1.3646 0 17 1.3646 1
gene 1 6 33 -1.13967 0 18 -1.13967 1
gene 1 7 31 -4.627 0 19 -4.627 1
gene 1 7 32 -5 0 20 -5 1
gene 1 7 33 2.33422 0 21 2.33422 1
gene 1 8 31 -0.22447 0 22 -0.22447 1
gene 1 8 32 -0.980198 0 23 -0.980198 1
gene 1 8 33 -0.341053 0 24 -0.341053 1
gene 1 9 31 3.49403 0 25 3.49403 1
gene 1 9 32 -1.79903 0 26 -1.79903 1
gene 1 9 33 -0.0167176 0 27 -0.0167176 1
gene 1 10 31 -0.6311 0 28 -0.6311 1
gene 1 10 32 1.48311 0 29 1.48311 1
gene 1 10 33 -0.0270177 0 30 -0.0270177 1
gene 1 11 31 -2.0576 0 31 -2.0576 1
gene 1 11 32 -0.955095 0 32 -0.955095 1
gene 1 11 33 -1.34278 0 33 -1.34278 1
gene 1 12 31 -1.43739 0 34 -1.43739 1
gene 1 12 32 0.418544 0 35 0.418544 1
gene 1 12 33 -0.0882878 0 36 -0.0882878 1
gene 1 13 31 -4.66778 0 37 -4.66778 1
gene 1 13 32 -4.24081 0 38 -4.24081 1
gene 1 13 33 1.45584 0 39 1.45584 1
gene 1 14 31 1.08503 0 40 1.08503 1
gene 1 14 32 0.212093 0 41 0.212093 1
gene 1 14 33 4.38087 0 42 4.38087 1
gene 1 15 31 1.2502 0 43 1.2502 1
gene 1 15 32 -0.243771 0 44 -0.243771 1
gene 1 15 33 -1.00743 0 45 -1.00743 1
gene 1 16 31 0.146005 0 46 0.146005 1
gene 1 16 32 -1.29934 0 47 -1.29934 1
gene 1 16 33 -0.63946 0 48 -0.63946 1
gene 1 17 31 0.349223 0 49 0.349223 1
gene 1 17 32 0.747696 0 50 0.747696 1
gene 1 17 33 4.53135 0 51 4.53135 1
gene 1 18 31 -0.519346 0 52 -0.519346 1
gene 1 18 32 1.51094 0 53 1.51094 1
gene 1 18 33 -3.09759 0 54 -3.09759 1
gene 1 19 31 -0.373922 0 55 -0.373922 1
gene 1 19 32 4.39643 0 56 4.39643 1
gene 1 19 33 -2.1941 0 57 -2.1941 1
gene 1 20 31 1.44584 0 58 1.44584 1
gene 1 20 32 2.32852 0 59 2.32852 1
gene 1 20 33 -2.14602 0 60 -2.14602 1
gene 1 21 31 0.634224 0 61 0.634224 1
gene 1 21 32 3.17772 0 62 3.17772 1
gene 1 21 33 -3.34641 0 63 -3.34641 1
gene 1 22 31 1.56501 0 64 1.56501 1
gene 1 22 32 -2.64763 0 65 -2.64763 1
gene 1 22 33 -2.04621 0 66 -2.04621 1
gene 1 23 31 -1.56189 0 67 -1.56189 1
gene 1 23 32 0.0540037 0 68 0.0540037 1
gene 1 23 33 1.70727 0 69 1.70727 1
gene 1 24 31 -2.47586 0 70 -2.47586 1
gene 1 24 32 1.47723 0 71 1.47723 1
gene 1 24 33 2.78018 0 72 2.78018 1
gene 1 25 31 -1.35031 0 73 -1.35031 1
gene 1 25 32 0.997603 0 74 0.997603 1
gene 1 25 33 -0.0854618 0 75 -0.0854618 1
gene 1 26 31 -0.645916 0 76 -0.645916 1
gene 1 26 32 -2.52246 0 77 -2.52246 1
gene 1 26 33 -0.60024 0 78 -0.60024 1
gene 1 27 31 2.7358 0 79 2.7358 1
gene 1 27 32 -1.21492 0 80 -1.21492 1
gene 1 27 33 1.29385 0 81 1.29385 1
gene 1 28 31 0.421442 0 82 0.421442 1
gene 1 28 32 0.918092 0 83 0.918092 1
gene 1 28 33 -1.81974 0 84 -1.81974 1
gene 1 29 31 0.800985 0 85 0.800985 1
gene 1 29 32 0.504713 0 86 0.504713 1
gene 1 29 33 -0.0453643 0 87 -0.0453643 1
gene 1 30 31 1.98049 0 88 1.98049 1
gene 1 30 32 1.09755 0 89 1.09755 1
gene 1 30 33 -0.0694723 0 90 -0.0694723 1
genomeend 20

/* Organism #21 Fitness: 30826.7 Error: 0 */
genomestart 21
trait 1 0.705267 0 0 0 0 0 0 0 
node 1 1 1 1
node 2 1 1 1
node 3 1 1 1
node 4 1 1 1
node 5 1 1 1
node 6 1 1 1
node 7 1 1 1
node 8 1 1 1
node 9 1 1 1
node 10 1 1 1
node 11 1 1 1
node 12 1 1 1
node 13 1 1 1
node 14 1 1 1
node 15 1 1 1
node 16 1 1 1
node 17 1 1 1
node 18 1 1 1
node 19 1 1 1
node 20 1 1 1
node 21 1 1 1
node 22 1 1 1
node 23 1 1 1
node 24 1 1 1
node 25 1 1 1
node 26 1 1 1
node 27 1 1 1
node 28 1 1 1
node 29 1 1 1
node 30 1 1 3
node 31 1 0 2
node 32 1 0 2
node 33 1 0 2
gene 1 1 31 0.403335 0 1 0.403335 1
gene 1 1 32 -4.97907 0 2 -4.97907 1
gene 1 1 33 2.65666 0 3 2.65666 1
gene 1 2 31 -2.16013 0 4 -2.16013 1
gene 1 2 32 5 0 5 5 1
gene 1 2 33 2.14643 0 6 2.14643 1
gene 1 3 31 2.0649 0 7 2.0649 1
gene 1 3 32 -3.85159 0 8 -3.85159 1
gene 1 3 33 -1.14771 0 9 -1.14771 1
gene 1 4 31 -0.309498 0 10 -0.309498 1
gene 1 4 32 -0.306217 0 11 -0.306217 1
gene 1 4 33 -1.96439 0 12 -1.96439 1
gene 1 5 31 1.6459 0 13 1.6459 1
gene 1 5 32 -1.88041 0 14 -1.88041 1
gene 1 5 33 -2.84121 0 15 -2.84121 1
gene 1 6 31 -2.3407 0 16 -2.3407 1
gene 1 6 32 1.48462 0 17 1.48462 1
gene 1 6 33 -5 0 18 -5 1
gene 1 7 31 0.693874 0 19 0.693874 1
gene 1 7 32 -3.7157 0 20 -3.7157 1
gene 1 7 33 2.6865 0 21 2.6865 1
gene 1 8 31 -0.544199 0 22 -0.544199 1
gene 1 8 32 1.27321 0 23 1.27321 1
gene 1 8 33 -0.335618 0 24 -0.335618 1
gene 1 9 31 -0.0348903 0 25 -0.0348903 1
gene 1 9 32 -0.960839 0 26 -0.960839 1
gene 1 9 33 1.00272 0 27 1.00272 1
gene 1 10 31 1.69498 0 28 1.69498 1
gene 1 10 32 1.46118 0 29 1.46118 1
gene 1 10 33 1.07158 0 30 1.07158 1
gene 1 11 31 -0.561863 0 31 -0.561863 1
gene 1 11 32 -0.772079 0 32 -0.772079 1
gene 1 11 33 0.44096 0 33 0.44096 1
gene 1 12 31 -3.9815 0 34 -3.9815 1
gene 1 12 32 1.20497 0 35 1.20497 1
gene 1 12 33 -0.704456 0 36 -0.704456 1
gene 1 13 31 -0.416005 0 37 -0.416005 1
gene 1 13 32 -4.00206 0 38 -4.00206 1
gene 1 13 33 1.02151 0 39 1.02151 1
gene 1 14 31 0.0380811 0 40 0.0380811 1
gene 1 14 32 -1.00911 0 41 -1.00911 1
gene 1 14 33 1.31463 0 42 1.31463 1
gene 1 15 31 -0.0675815 0 43 -0.0675815 1
gene 1 15 32 -1.63268 0 44 -1.63268 1
gene 1 15 33 -0.383055 0 45 -0.383055 1
gene 1 16 31 0.840287 0 46 0.840287 1
gene 1 16 32 -1.04453 0 47 -1.04453 1
gene 1 16 33 -1.11472 0 48 -1.11472 1
gene 1 17 31 1.5203 0 49 1.5203 1
gene 1 17 32 4.08596 0 50 4.08596 1
gene 1 17 33 2.54789 0 51 2.54789 1
gene 1 18 31 1.66979 0 52 1.66979 1
gene 1 18 32 2.5271 0 53 2.5271 1
gene 1 18 33 1.14698 0 54 1.14698 1
gene 1 19 31 3.84714 0 55 3.84714 1
gene 1 19 32 3.69155 0 56 3.69155 1
gene 1 19 33 -1.80258 0 57 -1.80258 1
gene 1 20 31 1.52036 0 58 1.52036 1
gene 1 20 32 1.41888 0 59 1.41888 1
gene 1 20 33 0.625581 0 60 0.625581 1
gene 1 21 31 0.567432 0 61 0.567432 1
gene 1 21 32 4.06122 0 62 4.06122 1
gene 1 21 33 -4.27397 0 63 -4.27397 1
gene 1 22 31 3.32002 0 64 3.32002 1
gene 1 22 32 -1.15868 0 65 -1.15868 1
gene 1 22 33 -4.4684 0 66 -4.4684 1
gene 1 23 31 -0.386162 0 67 -0.386162 1
gene 1 23 32 -1.91265 0 68 -1.91265 1
gene 1 23 33 -0.323723 0 69 -0.323723 1
gene 1 24 31 0.254377 0 70 0.254377 1
gene 1 24 32 0.197201 0 71 0.197201 1
gene 1 24 33 3.61845 0 72 3.61845 1
gene 1 25 31 0.568576 0 73 0.568576 1
gene 1 25 32 -0.108685 0 74 -0.108685 1
gene 1 25 33 -0.0698395 0 75 -0.0698395 1
gene 1 26 31 1.06734 0 76 1.06734 1
gene 1 26 32 -2.80201 0 77 -2.80201 1
gene 1 26 33 0.465418 0 78 0.465418 1
gene 1 27 31 1.3159 0 79 1.3159 1
gene 1 27 32 0.243061 0 80 0.243061 1
gene 1 27 33 0.399336 0 81 0.399336 1
gene 1 28 31 -1.62876 0 82 -1.62876 1
gene 1 28 32 -1.95983 0 83 -1.95983 1
gene 1 28 33 -0.802223 0 84 -0.802223 1
gene 1 29 31 1.37297 0 85 1.37297 1
gene 1 29 32 -0.859078 0 86 -0.859078 1
gene 1 29 33 1.70626 0 87 1.70626 1
gene 1 30 31 0.626965 0 88 0.626965 1
gene 1 30 32 -0.91844 0 89 -0.91844 1
gene 1 30 33 -0.898169 0 90 -0.898169 1
genomeend 21

/* Organism #22 Fitness: 37577.7 Error: 0 */
genomestart 22
trait 1 0 0 0.776735 0.41789 0 0.397105 0 0.433345 
node 1 1 1 1
node 2 1 1 1
node 3 1 1 1
node 4 1 1 1
node 5 1 1 1
node 6 1 1 1
node 7 1 1 1
node 8 1 1 1
node 9 1 1 1
node 10 1 1 1
node 11 1 1 1
node 12 1 1 1
node 13 1 1 1
node 14 1 1 1
node 15 1 1 1
node 16 1 1 1
node 17 1 1 1
node 18 1 1 1
node 19 1 1 1
node 20 1 1 1
node 21 1 1 1
node 22 1 1 1
node 23 1 1 1
node 24 1 1 1
node 25 1 1 1
node 26 1 1 1
node 27 1 1 1
node 28 1 1 1
node 29 1 1 1
node 30 1 1 3
node 31 1 0 2
node 32 1 0 2
node 33 1 0 2
gene 1 1 31 1.4059 0 1 1.4059 1
gene 1 1 32 -3.90859 0 2 -3.90859 1
gene 1 1 33 -1.65653 0 3 -1.65653 1
gene 1 2 31 -5 0 4 -5 1
gene 1 2 32 5 0 5 5 1
gene 1 2 33 -0.114318 0 6 -0.114318 1
gene 1 3 31 0.0785983 0 7 0.0785983 1
gene 1 3 32 0.0942254 0 8 0.0942254 1
gene 1 3 33 -1.75427 0 9 -1.75427 1
gene 1 4 31 -1.03755 0 10 -1.03755 1
gene 1 4 32 0.61478 0 11 0.61478 1
gene 1 4 33 0.17841 0 12 0.17841 1
gene 1 5 31 -0.527406 0 13 -0.527406 1
gene 1 5 32 -1.63601 0 14 -1.63601 1
gene 1 5 33 -1.69835 0 15 -1.69835 1
gene 1 6 31 -1.50061 0 16 -1.50061 1
gene 1 6 32 0.0422995 0 17 0.0422995 1
gene 1 6 33 -0.0498559 0 18 -0.0498559 1
gene 1 7 31 -4.8109 0 19 -4.8109 1
gene 1 7 32 -0.0162905 0 20 -0.0162905 1
gene 1 7 33 0.483467 0 21 0.483467 1
gene 1 8 31 1.94272 0 22 1.94272 1
gene 1 8 32 -0.793766 0 23 -0.793766 1
gene 1 8 33 0.343855 0 24 0.343855 1
gene 1 9 31 0.197147 0 25 0.197147 1
gene 1 9 32 0.332418 0 26 0.332418 1
gene 1 9 33 -1.45781 0 27 -1.45781 1
gene 1 10 31 -1.85698 0 28 -1.85698 1
gene 1 10 32 -2.75536 0 29 -2.75536 1
gene 1 10 33 3.6886 0 30 3.6886 1
gene 1 11 31 -2.50959 0 31 -2.50959 1
gene 1 11 32 -4.71969 0 32 -4.71969 1
gene 1 11 33 1.28637 0 33 1.28637 1
gene 1 12 31 0.806922 0 34 0.806922 1
gene 1 12 32 -0.0622248 0 35 -0.0622248 1
gene 1 12 33 -1.36399 0 36 -1.36399 1
gene 1 13 31 -2.81043 0 37 -2.81043 1
gene 1 13 32 -0.981046 0 38 -0.981046 1
gene 1 13 33 -0.546127 0 39 -0.546127 1
gene 1 14 31 0.3197 0 40 0.3197 1
gene 1 14 32 -1.48628 0 41 -1.48628 1
gene 1 14 33 4.47715 0 42 4.47715 1
gene 1 15 31 -0.116504 0 43 -0.116504 1
gene 1 15 32 0.61115 0 44 0.61115 1
gene 1 15 33 0.940492 0 45 0.940492 1
gene 1 16 31 0.136557 0 46 0.136557 1
gene 1 16 32 2.88828 0 47 2.88828 1
gene 1 16 33 -2.33744 0 48 -2.33744 1
gene 1 17 31 0.855057 0 49 0.855057 1
gene 1 17 32 2.15002 0 50 2.15002 1
gene 1 17 33 2.43197 0 51 2.43197 1
gene 1 18 31 4.69563 0 52 4.69563 1
gene 1 18 32 -0.205909 0 53 -0.205909 1
gene 1 18 33 4.95095 0 54 4.95095 1
gene 1 19 31 -1.40762 0 55 -1.40762 1
gene 1 19 32 -2.64192 0 56 -2.64192 1
gene 1 19 33 0.772844 0 57 0.772844 1
gene 1 20 31 -1.6905 0 58 -1.6905 1
gene 1 20 32 1.7936 0 59 1.7936 1
gene 1 20 33 3.03827 0 60 3.03827 1
gene 1 21 31 0.818962 0 61 0.818962 1
gene 1 21 32 3.75178 0 62 3.75178 1
gene 1 21 33 0.295949 0 63 0.295949 1
gene 1 22 31 -0.0670112 0 64 -0.0670112 1
gene 1 22 32 -0.984392 0 65 -0.984392 1
gene 1 22 33 0.0309343 0 66 0.0309343 1
gene 1 23 31 -1.41727 0 67 -1.41727 1
gene 1 23 32 -2.60849 0 68 -2.60849 1
gene 1 23 33 -2.58659 0 69 -2.58659 1
gene 1 24 31 -3.01542 0 70 -3.01542 1
gene 1 24 32 3.57539 0 71 3.57539 1
gene 1 24 33 -1.00275 0 72 -1.00275 1
gene 1 25 31 1.63967 0 73 1.63967 1
gene 1 25 32 -0.645746 0 74 -0.645746 1
gene 1 25 33 -0.301392 0 75 -0.301392 1
gene 1 26 31 0.751247 0 76 0.751247 1
gene 1 26 32 0.171683 0 77 0.171683 1
gene 1 26 33 -0.0901121 0 78 -0.0901121 1
gene 1 27 31 -1.87558 0 79 -1.87558 1
gene 1 27 32 0.990402 0 80 0.990402 1
gene 1 27 33 -0.0574447 0 81 -0.0574447 1
gene 1 28 31 -0.912391 0 82 -0.912391 1
gene 1 28 32 0.197503 0 83 0.197503 1
gene 1 28 33 0.771057 0 84 0.771057 1
gene 1 29 31 -1.27148 0 85 -1.27148 1
gene 1 29 32 0.666519 0 86 0.666519 1
gene 1 29 33 0.617225 0 87 0.617225 1
gene 1 30 31 0.577321 0 88 0.577321 1
gene 1 30 32 2.2955 0 89 2.2955 1
gene 1 30 33 1.06304 0 90 1.06304 1
genomeend 22

/* Organism #23 Fitness: 35047.8 Error: 0 */
genomestart 23
trait 1 0.1 0 0 0 0 0 0 0 
node 1 1 1 1
node 2 1 1 1
node 3 1 1 1
node 4 1 1 1
node 5 1 1 1
node 6 1 1 1
node 7 1 1 1
node 8 1 1 1
node 9 1 1 1
node 10 1 1 1
node 11 1 1 1
node 12 1 1 1
node 13 1 1 1
node 14 1 1 1
node 15 1 1 1
node 16 1 1 1
node 17 1 1 1
node 18 1 1 1
node 19 1 1 1
node 20 1 1 1
node 21 1 1 1
node 22 1 1 1
node 23 1 1 1
node 24 1 1 1
node 25 1 1 1
node 26 1 1 1
node 27 1 1 1
node 28 1 1 1
node 29 1 1 1
node 30 1 1 3
node 31 1 0 2
node 32 1 0 2
node 33 1 0 2
gene 1 1 31 2.59224 0 1 2.59224 1
gene 1 1 32 -4.44725 0 2 -4.44725 1
gene 1 1 33 0.992043 0 3 0.992043 1
gene 1 2 31 -3.76758 0 4 -3.76758 1
gene 1 2 32 4.51077 0 5 4.51077 1
gene 1 2 33 1.59803 0 6 1.59803 1
gene 1 3 31 0.421714 0 7 0.421714 1
gene 1 3 32 -4.08143 0 8 -4.08143 1
gene 1 3 33 -0.944776 0 9 -0.944776 1
gene 1 4 31 -0.493427 0 10 -0.493427 1
gene 1 4 32 2.72278 0 11 2.72278 1
gene 1 4 33 -2.14719 0 12 -2.14719 1
gene 1 5 31 0.96997 0 13 0.96997 1
gene 1 5 32 -0.755864 0 14 -0.755864 1
gene 1 5 33 0.0110836 0 15 0.0110836 1
gene 1 6 31 -0.538756 0 16 -0.538756 1
gene 1 6 32 4.1958 0 17 4.1958 1
gene 1 6 33 0.318476 0 18 0.318476 1
gene 1 7 31 -4.32571 0 19 -4.32571 1
gene 1 7 32 -1.58485 0 20 -1.58485 1
gene 1 7 33 1.87081 0 21 1.87081 1
gene 1 8 31 -1.06794 0 22 -1.06794 1
gene 1 8 32 0.74462 0 23 0.74462 1
gene 1 8 33 -2.10511 0 24 -2.10511 1
gene 1 9 31 4.00891 0 25 4.00891 1
gene 1 9 32 -2.30513 0 26 -2.30513 1
gene 1 9 33 0.219616 0 27 0.219616 1
gene 1 10 31 -1.23751 0 28 -1.23751 1
gene 1 10 32 0.124721 0 29 0.124721 1
gene 1 10 33 2.35445 0 30 2.35445 1
gene 1 11 31 0.385986 0 31 0.385986 1
gene 1 11 32 -2.41894 0 32 -2.41894 1
gene 1 11 33 2.71157 0 33 2.71157 1
gene 1 12 31 -0.354852 0 34 -0.354852 1
gene 1 12 32 -0.139876 0 35 -0.139876 1
gene 1 12 33 -0.689075 0 36 -0.689075 1
gene 1 13 31 0.546042 0 37 0.546042 1
gene 1 13 32 -4.24644 0 38 -4.24644 1
gene 1 13 33 -0.69595 0 39 -0.69595 1
gene 1 14 31 -1.09187 0 40 -1.09187 1
gene 1 14 32 0.857607 0 41 0.857607 1
gene 1 14 33 4.34481 0 42 4.34481 1
gene 1 15 31 -1.1822 0 43 -1.1822 1
gene 1 15 32 1.64739 0 44 1.64739 1
gene 1 15 33 -0.65886 0 45 -0.65886 1
gene 1 16 31 1.39167 0 46 1.39167 1
gene 1 16 32 -0.154212 0 47 -0.154212 1
gene 1 16 33 -2.27596 0 48 -2.27596 1
gene 1 17 31 -0.427001 0 49 -0.427001 1
gene 1 17 32 2.60903 0 50 2.60903 1
gene 1 17 33 -0.0908062 0 51 -0.0908062 1
gene 1 18 31 0.991506 0 52 0.991506 1
gene 1 18 32 0.918696 0 53 0.918696 1
gene 1 18 33 0.917659 0 54 0.917659 1
gene 1 19 31 -0.255328 0 55 -0.255328 1
gene 1 19 32 4.57458 0 56 4.57458 1
gene 1 19 33 -1.05996 0 57 -1.05996 1
gene 1 20 31 0.644275 0 58 0.644275 1
gene 1 20 32 0.0374324 0 59 0.0374324 1
gene 1 20 33 -4.8042 0 60 -4.8042 1
gene 1 21 31 -4.42731 0 61 -4.42731 1
gene 1 21 32 4.41728 0 62 4.41728 1
gene 1 21 33 -4.79582 0 63 -4.79582 1
gene 1 22 31 3.6911 0 64 3.6911 1
gene 1 22 32 -1.32007 0 65 -1.32007 1
gene 1 22 33 -3.55231 0 66 -3.55231 1
gene 1 23 31 -0.352102 0 67 -0.352102 1
gene 1 23 32 -1.99405 0 68 -1.99405 1
gene 1 23 33 -0.893979 0 69 -0.893979 1
gene 1 24 31 -0.649488 0 70 -0.649488 1
gene 1 24 32 -0.605851 0 71 -0.605851 1
gene 1 24 33 2.16707 0 72 2.16707 1
gene 1 25 31 0.00594324 0 73 0.00594324 1
gene 1 25 32 -0.583084 0 74 -0.583084 1
gene 1 25 33 1.19695 0 75 1.19695 1
gene 1 26 31 0.89486 0 76 0.89486 1
gene 1 26 32 0.0953942 0 77 0.0953942 1
gene 1 26 33 -0.784703 0 78 -0.784703 1
gene 1 27 31 2.16731 0 79 2.16731 1
gene 1 27 32 0.172478 0 80 0.172478 1
gene 1 27 33 -0.756185 0 81 -0.756185 1
gene 1 28 31 -1.22602 0 82 -1.22602 1
gene 1 28 32 0.217944 0 83 0.217944 1
gene 1 28 33 1.67913 0 84 1.67913 1
gene 1 29 31 -0.121343 0 85 -0.121343 1
gene 1 29 32 -3.74227 0 86 -3.74227 1
gene 1 29 33 1.28071 0 87 1.28071 1
gene 1 30 31 2.67233 0 88 2.67233 1
gene 1 30 32 -0.28118 0 89 -0.28118 1
gene 1 30 33 -0.649032 0 90 -0.649032 1
genomeend 23

/* Organism #24 Fitness: 24116.1 Error: 0 */
genomestart 24
trait 1 0.1 0 0 0.199725 0.0234839 0.393817 0 0 
node 1 1 1 1
node 2 1 1 1
node 3 1 1 1
node 4 1 1 1
node 5 1 1 1
node 6 1 1 1
node 7 1 1 1
node 8 1 1 1
node 9 1 1 1
node 10 1 1 1
node 11 1 1 1
node 12 1 1 1
node 13 1 1 1
node 14 1 1 1
node 15 1 1 1
node 16 1 1 1
node 17 1 1 1
node 18 1 1 1
node 19 1 1 1
node 20 1 1 1
node 21 1 1 1
node 22 1 1 1
node 23 1 1 1
node 24 1 1 1
node 25 1 1 1
node 26 1 1 1
node 27 1 1 1
node 28 1 1 1
node 29 1 1 1
node 30 1 1 3
node 31 1 0 2
node 32 1 0 2
node 33 1 0 2
gene 1 1 31 0.933462 0 1 0.933462 1
gene 1 1 32 -3.60894 0 2 -3.60894 1
gene 1 1 33 2.98098 0 3 2.98098 1
gene 1 2 31 0.224591 0 4 0.224591 1
gene 1 2 32 4.34737 0 5 4.34737 1
gene 1 2 33 2.2555 0 6 2.2555 1
gene 1 3 31 3.60552 0 7 3.60552 1
gene 1 3 32 -0.836215 0 8 -0.836215 1
gene 1 3 33 -0.121086 0 9 -0.121086 1
gene 1 4 31 -0.331016 0 10 -0.331016 1
gene 1 4 32 0.587691 0 11 0.587691 1
gene 1 4 33 -0.57519 0 12 -0.57519 1
gene 1 5 31 3.61093 0 13 3.61093 1
gene 1 5 32 -0.475136 0 14 -0.475136 1
gene 1 5 33 0.0993176 0 15 0.0993176 1
gene 1 6 31 0.372899 0 16 0.372899 1
gene 1 6 32 2.11408 0 17 2.11408 1
gene 1 6 33 -4.79507 0 18 -4.79507 1
gene 1 7 31 -4.04018 0 19 -4.04018 1
gene 1 7 32 -2.12147 0 20 -2.12147 1
gene 1 7 33 -1.32291 0 21 -1.32291 1
gene 1 8 31 1.00749 0 22 1.00749 1
gene 1 8 32 0.479627 0 23 0.479627 1
gene 1 8 33 0.727373 0 24 0.727373 1
gene 1 9 31 3.29981 0 25 3.29981 1
gene 1 9 32 -2.90815 0 26 -2.90815 1
gene 1 9 33 -0.141095 0 27 -0.141095 1
gene 1 10 31 0.725061 0 28 0.725061 1
gene 1 10 32 1.12496 0 29 1.12496 1
gene 1 10 33 -0.714495 0 30 -0.714495 1
gene 1 11 31 1.14482 0 31 1.14482 1
gene 1 11 32 0.645299 0 32 0.645299 1
gene 1 11 33 0.64557 0 33 0.64557 1
gene 1 12 31 -2.57298 0 34 -2.57298 1
gene 1 12 32 -1.08072 0 35 -1.08072 1
gene 1 12 33 -0.898588 0 36 -0.898588 1
gene 1 13 31 0.329658 0 37 0.329658 1
gene 1 13 32 -2.20267 0 38 -2.20267 1
gene 1 13 33 -1.72444 0 39 -1.72444 1
gene 1 14 31 0.25566 0 40 0.25566 1
gene 1 14 32 -4.99361 0 41 -4.99361 1
gene 1 14 33 -0.627417 0 42 -0.627417 1
gene 1 15 31 0.476552 0 43 0.476552 1
gene 1 15 32 -3.01929 0 44 -3.01929 1
gene 1 15 33 0.0835223 0 45 0.0835223 1
gene 1 16 31 2.22024 0 46 2.22024 1
gene 1 16 32 -1.98481 0 47 -1.98481 1
gene 1 16 33 -0.3771 0 48 -0.3771 1
gene 1 17 31 0.991163 0 49 0.991163 1
gene 1 17 32 4.31128 0 50 4.31128 1
gene 1 17 33 0.396228 0 51 0.396228 1
gene 1 18 31 -0.636663 0 52 -0.636663 1
gene 1 18 32 2.22527 0 53 2.22527 1
gene 1 18 33 -1.94993 0 54 -1.94993 1
gene 1 19 31 0.0795686 0 55 0.0795686 1
gene 1 19 32 -0.449247 0 56 -0.449247 1
gene 1 19 33 -0.695063 0 57 -0.695063 1
gene 1 20 31 -0.899091 0 58 -0.899091 1
gene 1 20 32 0.822526 0 59 0.822526 1
gene 1 20 33 -2.32658 0 60 -2.32658 1
gene 1 21 31 0.13538 0 61 0.13538 1
gene 1 21 32 -0.424899 0 62 -0.424899 1
gene 1 21 33 -3.55135 0 63 -3.55135 1
gene 1 22 31 0.00663826 0 64 0.00663826 1
gene 1 22 32 -0.549812 0 65 -0.549812 1
gene 1 22 33 -2.08715 0 66 -2.08715 1
gene 1 23 31 -0.940917 0 67 -0.940917 1
gene 1 23 32 -1.76538 0 68 -1.76538 1
gene 1 23 33 0.112973 0 69 0.112973 1
gene 1 24 31 0.0543448 0 70 0.0543448 1
gene 1 24 32 -0.549519 0 71 -0.549519 1
gene 1 24 33 3.82585 0 72 3.82585 1
gene 1 25 31 -3.17071 0 73 -3.17071 1
gene 1 25 32 1.80723 0 74 1.80723 1
gene 1 25 33 0.121399 0 75 0.121399 1
gene 1 26 31 0.230371 0 76 0.230371 1
gene 1 26 32 -0.830973 0 77 -0.830973 1
gene 1 26 33 -0.337123 0 78 -0.337123 1
gene 1 27 31 0.50307 0 79 0.50307 1
gene 1 27 32 1.96101 0 80 1.96101 1
gene 1 27 33 0.628704 0 81 0.628704 1
gene 1 28 31 -0.657492 0 82 -0.657492 1
gene 1 28 32 1.18606 0 83 1.18606 1
gene 1 28 33 0.630865 0 84 0.630865 1
gene 1 29 31 -0.539989 0 85 -0.539989 1
gene 1 29 32 0.727897 0 86 0.727897 1
gene 1 29 33 -0.720047 0 87 -0.720047 1
gene 1 30 31 1.11222 0 88 1.11222 1
gene 1 30 32 -0.304999 0 89 -0.304999 1
gene 1 30 33 1.15879 0 90 1.15879 1
genomeend 24

/* Organism #25 Fitness: 30822.8 Error: 0 */
genomestart 25
trait 1 0.1 0 0 0 0 0 0 0 
node 1 1 1 1
node 2 1 1 1
node 3 1 1 1
node 4 1 1 1
node 5 1 1 1
node 6 1 1 1
node 7 1 1 1
node 8 1 1 1
node 9 1 1 1
node 10 1 1 1
node 11 1 1 1
node 12 1 1 1
node 13 1 1 1
node 14 1 1 1
node 15 1 1 1
node 16 1 1 1
node 17 1 1 1
node 18 1 1 1
node 19 1 1 1
node 20 1 1 1
node 21 1 1 1
node 22 1 1 1
node 23 1 1 1
node 24 1 1 1
node 25 1 1 1
node 26 1 1 1
node 27 1 1 1
node 28 1 1 1
node 29 1 1 1
node 30 1 1 3
node 31 1 0 2
node 32 1 0 2
node 33 1 0 2
gene 1 1 31 0.875249 0 1 0.875249 1
gene 1 1 32 -4.55329 0 2 -4.55329 1
gene 1 1 33 3.1664 0 3 3.1664 1
gene 1 2 31 -1.85733 0 4 -1.85733 1
gene 1 2 32 3.22376 0 5 3.22376 1
gene 1 2 33 3.84301 0 6 3.84301 1
gene 1 3 31 1.98498 0 7 1.98498 1
gene 1 3 32 -0.656533 0 8 -0.656533 1
gene 1 3 33 -0.0380161 0 9 -0.0380161 1
gene 1 4 31 -0.610008 0 10 -0.610008 1
gene 1 4 32 2.02614 0 11 2.02614 1
gene 1 4 33 -0.551556 0 12 -0.551556 1
gene 1 5 31 2.40558 0 13 2.40558 1
gene 1 5 32 -1.70858 0 14 -1.70858 1
gene 1 5 33 0.131536 0 15 0.131536 1
gene 1 6 31 -0.976899 0 16 -0.976899 1
gene 1 6 32 1.94308 0 17 1.94308 1
gene 1 6 33 -4.98959 0 18 -4.98959 1
gene 1 7 31 -3.29212 0 19 -3.29212 1
gene 1 7 32 -1.51436 0 20 -1.51436 1
gene 1 7 33 -1.06628 0 21 -1.06628 1
gene 1 8 31 -0.199426 0 22 -0.199426 1
gene 1 8 32 0.947214 0 23 0.947214 1
gene 1 8 33 -0.215988 0 24 -0.215988 1
gene 1 9 31 2.6068 0 25 2.6068 1
gene 1 9 32 -3.21615 0 26 -3.21615 1
gene 1 9 33 0.403183 0 27 0.403183 1
gene 1 10 31 2.71792 0 28 2.71792 1
gene 1 10 32 0.0775989 0 29 0.0775989 1
gene 1 10 33 0.294901 0 30 0.294901 1
gene 1 11 31 1.26474 0 31 1.26474 1
gene 1 11 32 1.30333 0 32 1.30333 1
gene 1 11 33 -0.76789 0 33 -0.76789 1
gene 1 12 31 -1.97382 0 34 -1.97382 1
gene 1 12 32 -1.1561 0 35 -1.1561 1
gene 1 12 33 -0.943107 0 36 -0.943107 1
gene 1 13 31 -0.470546 0 37 -0.470546 1
gene 1 13 32 -1.47863 0 38 -1.47863 1
gene 1 13 33 -1.84807 0 39 -1.84807 1
gene 1 14 31 1.03822 0 40 1.03822 1
gene 1 14 32 -3.87421 0 41 -3.87421 1
gene 1 14 33 -1.21669 0 42 -1.21669 1
gene 1 15 31 0.449833 0 43 0.449833 1
gene 1 15 32 -1.7476 0 44 -1.7476 1
gene 1 15 33 3.65862 0 45 3.65862 1
gene 1 16 31 1.3297 0 46 1.3297 1
gene 1 16 32 -1.80099 0 47 -1.80099 1
gene 1 16 33 -3.04383 0 48 -3.04383 1
gene 1 17 31 -1.07534 0 49 -1.07534 1
gene 1 17 32 4.57636 0 50 4.57636 1
gene 1 17 33 0.533274 0 51 0.533274 1
gene 1 18 31 3.79315 0 52 3.79315 1
