/* Organism #1 Fitness: 14507.758000 Time: 0 */
genomestart 1
trait 1 0.000000 0.898448 1.000000 0.376728 0.866769 0.000000 1.000000 0.000000 
node 1 1 1 1
node 2 1 1 1
node 3 1 1 1
node 4 1 1 1
node 5 1 1 1
node 6 1 1 1
node 7 1 1 1
node 8 1 1 1
node 9 1 1 1
node 10 1 1 1
node 11 1 1 1
node 12 1 1 1
node 13 1 1 1
node 14 1 1 1
node 15 1 1 1
node 16 1 1 1
node 17 1 1 1
node 18 1 1 1
node 19 1 1 1
node 20 1 1 1
node 21 1 1 1
node 22 1 1 1
node 23 1 1 1
node 24 1 1 1
node 25 1 1 1
node 26 1 1 1
node 27 1 1 1
node 28 1 1 1
node 29 1 1 1
node 30 1 1 3
node 31 1 0 2
node 32 1 0 2
node 33 1 0 2
gene 1 1 31 1.6843 0 1 1.6843 1
gene 1 1 32 -3.20097 0 2 -3.20097 1
gene 1 1 33 1.35401 0 3 1.35401 1
gene 1 2 31 0.773443 0 4 0.773443 1
gene 1 2 32 4.072 0 5 4.072 1
gene 1 2 33 2.04804 0 6 2.04804 1
gene 1 3 31 1.17656 0 7 1.17656 1
gene 1 3 32 2.29739 0 8 2.29739 1
gene 1 3 33 -2.18922 0 9 -2.18922 1
gene 1 4 31 -3.80146 0 10 -3.80146 1
gene 1 4 32 1.63671 0 11 1.63671 1
gene 1 4 33 -1.42246 0 12 -1.42246 1
gene 1 5 31 3.65866 0 13 3.65866 1
gene 1 5 32 1.08112 0 14 1.08112 1
gene 1 5 33 -0.749768 0 15 -0.749768 1
gene 1 6 31 1.17879 0 16 1.17879 1
gene 1 6 32 1.34852 0 17 1.34852 1
gene 1 6 33 1.93639 0 18 1.93639 1
gene 1 7 31 0.347226 0 19 0.347226 1
gene 1 7 32 -1.14521 0 20 -1.14521 1
gene 1 7 33 -0.127132 0 21 -0.127132 1
gene 1 8 31 1.59615 0 22 1.59615 1
gene 1 8 32 -1.91113 0 23 -1.91113 1
gene 1 8 33 0.943688 0 24 0.943688 1
gene 1 9 31 3.37476 0 25 3.37476 1
gene 1 9 32 4.43211 0 26 4.43211 1
gene 1 9 33 -0.544847 0 27 -0.544847 1
gene 1 10 31 5 0 28 5 1
gene 1 10 32 2.2363 0 29 2.2363 1
gene 1 10 33 -5 0 30 -5 1
gene 1 11 31 -1.78229 0 31 -1.78229 1
gene 1 11 32 -3.17999 0 32 -3.17999 1
gene 1 11 33 -3.9365 0 33 -3.9365 1
gene 1 12 31 0.0261799 0 34 0.0261799 1
gene 1 12 32 -0.65301 0 35 -0.65301 1
gene 1 12 33 1.2939 0 36 1.2939 1
gene 1 13 31 2.12301 0 37 2.12301 1
gene 1 13 32 3.0978 0 38 3.0978 1
gene 1 13 33 1.5024 0 39 1.5024 1
gene 1 14 31 1.74408 0 40 1.74408 1
gene 1 14 32 0.471999 0 41 0.471999 1
gene 1 14 33 -2.48231 0 42 -2.48231 1
gene 1 15 31 2.00698 0 43 2.00698 1
gene 1 15 32 -1.01411 0 44 -1.01411 1
gene 1 15 33 -2.94471 0 45 -2.94471 1
gene 1 16 31 1.96892 0 46 1.96892 1
gene 1 16 32 1.82199 0 47 1.82199 1
gene 1 16 33 -2.41934 0 48 -2.41934 1
gene 1 17 31 1.70928 0 49 1.70928 1
gene 1 17 32 0.688876 0 50 0.688876 1
gene 1 17 33 -0.705099 0 51 -0.705099 1
gene 1 18 31 0.952925 0 52 0.952925 1
gene 1 18 32 4.63444 0 53 4.63444 1
gene 1 18 33 -4.73449 0 54 -4.73449 1
gene 1 19 31 -0.0646471 0 55 -0.0646471 1
gene 1 19 32 1.01959 0 56 1.01959 1
gene 1 19 33 3.64505 0 57 3.64505 1
gene 1 20 31 -4.01368 0 58 -4.01368 1
gene 1 20 32 0.0794923 0 59 0.0794923 1
gene 1 20 33 -1.208 0 60 -1.208 1
gene 1 21 31 -0.587536 0 61 -0.587536 1
gene 1 21 32 3.12756 0 62 3.12756 1
gene 1 21 33 -0.482814 0 63 -0.482814 1
gene 1 22 31 -0.730929 0 64 -0.730929 1
gene 1 22 32 -4.29998 0 65 -4.29998 1
gene 1 22 33 0.385091 0 66 0.385091 1
gene 1 23 31 -4.74888 0 67 -4.74888 1
gene 1 23 32 -1.3196 0 68 -1.3196 1
gene 1 23 33 0.652775 0 69 0.652775 1
gene 1 24 31 4.44379 0 70 4.44379 1
gene 1 24 32 0.439966 0 71 0.439966 1
gene 1 24 33 -4.54106 0 72 -4.54106 1
gene 1 25 31 -1.50213 0 73 -1.50213 1
gene 1 25 32 -0.728958 0 74 -0.728958 1
gene 1 25 33 1.6989 0 75 1.6989 1
gene 1 26 31 0.411123 0 76 0.411123 1
gene 1 26 32 0.946128 0 77 0.946128 1
gene 1 26 33 -0.959648 0 78 -0.959648 1
gene 1 27 31 -2.21696 0 79 -2.21696 1
gene 1 27 32 3.00632 0 80 3.00632 1
gene 1 27 33 -0.802851 0 81 -0.802851 1
gene 1 28 31 -3.25626 0 82 -3.25626 1
gene 1 28 32 -0.0655392 0 83 -0.0655392 1
gene 1 28 33 0.0898518 0 84 0.0898518 1
gene 1 29 31 1.00175 0 85 1.00175 1
gene 1 29 32 0.292904 0 86 0.292904 1
gene 1 29 33 1.27746 0 87 1.27746 1
gene 1 30 31 -3.20232 0 88 -3.20232 1
gene 1 30 32 -4.97427 0 89 -4.97427 1
gene 1 30 33 -0.517015 0 90 -0.517015 1
genomeend 1


