/* Organism #0 Fitness: 10579.022000 Time: 0 */
genomestart 0
trait 1 0.100000 0.000000 0.015206 1.000000 0.000000 0.404952 0.000000 0.602170 
node 1 1 1 1
node 2 1 1 1
node 3 1 1 1
node 4 1 1 1
node 5 1 1 1
node 6 1 1 1
node 7 1 1 1
node 8 1 1 1
node 9 1 1 1
node 10 1 1 1
node 11 1 1 1
node 12 1 1 1
node 13 1 1 1
node 14 1 1 1
node 15 1 1 1
node 16 1 1 1
node 17 1 1 1
node 18 1 1 1
node 19 1 1 1
node 20 1 1 1
node 21 1 1 1
node 22 1 1 1
node 23 1 1 1
node 24 1 1 1
node 25 1 1 1
node 26 1 1 3
node 27 1 0 2
node 28 1 0 2
node 29 1 0 2
gene 1 1 27 -1.21415 0 1 -1.21415 1
gene 1 1 28 -1.35112 0 2 -1.35112 1
gene 1 1 29 0.237291 0 3 0.237291 1
gene 1 2 27 -0.555516 0 4 -0.555516 1
gene 1 2 28 0.919719 0 5 0.919719 1
gene 1 2 29 0.426361 0 6 0.426361 1
gene 1 3 27 -0.658512 0 7 -0.658512 1
gene 1 3 28 -0.405868 0 8 -0.405868 1
gene 1 3 29 -2.4984 0 9 -2.4984 1
gene 1 4 27 -3.0237 0 10 -3.0237 1
gene 1 4 28 0.578833 0 11 0.578833 1
gene 1 4 29 -0.739443 0 12 -0.739443 1
gene 1 5 27 -1.48261 0 13 -1.48261 1
gene 1 5 28 2.5277 0 14 2.5277 1
gene 1 5 29 1.46481 0 15 1.46481 1
gene 1 6 27 -3.07441 0 16 -3.07441 1
gene 1 6 28 2.40074 0 17 2.40074 1
gene 1 6 29 4.55464 0 18 4.55464 1
gene 1 7 27 -3.83035 0 19 -3.83035 1
gene 1 7 28 -0.930448 0 20 -0.930448 1
gene 1 7 29 2.79736 0 21 2.79736 1
gene 1 8 27 -4.76514 0 22 -4.76514 1
gene 1 8 28 0.734047 0 23 0.734047 1
gene 1 8 29 0.859882 0 24 0.859882 1
gene 1 9 27 -1.68693 0 25 -1.68693 1
gene 1 9 28 0.808251 0 26 0.808251 1
gene 1 9 29 0.813526 0 27 0.813526 1
gene 1 10 27 -1.67968 0 28 -1.67968 1
gene 1 10 28 -1.90626 0 29 -1.90626 1
gene 1 10 29 -0.380974 0 30 -0.380974 1
gene 1 11 27 3.7458 0 27 3.7458 1
gene 1 11 28 -3.49196 0 32 -3.49196 1
gene 1 11 29 0.395665 0 33 0.395665 1
gene 1 12 27 0.283166 0 34 0.283166 1
gene 1 12 28 -1.02072 0 35 -1.02072 1
gene 1 12 29 -1.42247 0 36 -1.42247 1
gene 1 13 27 0.385162 0 37 0.385162 1
gene 1 13 28 3.01065 0 38 3.01065 1
gene 1 13 29 0.931937 0 39 0.931937 1
gene 1 14 27 1.67371 0 40 1.67371 1
gene 1 14 28 -1.79662 0 41 -1.79662 1
gene 1 14 29 0.247803 0 42 0.247803 1
gene 1 15 27 3.50706 0 43 3.50706 1
gene 1 15 28 -0.442653 0 44 -0.442653 1
gene 1 15 29 -2.62404 0 45 -2.62404 1
gene 1 16 27 -0.826086 0 46 -0.826086 1
gene 1 16 28 -0.393863 0 47 -0.393863 1
gene 1 16 29 0.394961 0 48 0.394961 1
gene 1 17 27 -0.328289 0 49 -0.328289 1
gene 1 17 28 2.31362 0 50 2.31362 1
gene 1 17 29 1.79992 0 51 1.79992 1
gene 1 18 27 -0.274512 0 52 -0.274512 1
gene 1 18 28 5 0 53 5 1
gene 1 18 29 0.484362 0 54 0.484362 1
gene 1 19 27 -0.43936 0 55 -0.43936 1
gene 1 19 28 1.41191 0 56 1.41191 1
gene 1 19 29 2.32599 0 57 2.32599 1
gene 1 20 27 -0.376001 0 58 -0.376001 1
gene 1 20 28 -0.91104 0 59 -0.91104 1
gene 1 20 29 1.02437 0 60 1.02437 1
gene 1 21 27 0.0736318 0 61 0.0736318 1
gene 1 21 28 0.0580707 0 62 0.0580707 1
gene 1 21 29 -1.35853 0 63 -1.35853 1
gene 1 22 27 -0.137421 0 64 -0.137421 1
gene 1 22 28 -0.0546437 0 65 -0.0546437 1
gene 1 22 29 -0.471278 0 66 -0.471278 1
gene 1 23 27 -0.86767 0 67 -0.86767 1
gene 1 23 28 -0.00312318 0 68 -0.00312318 1
gene 1 23 29 -0.307234 0 69 -0.307234 1
gene 1 24 27 -1.25796 0 70 -1.25796 1
gene 1 24 28 0.0253347 0 71 0.0253347 1
gene 1 24 29 0.770856 0 72 0.770856 1
gene 1 25 27 0.327441 0 73 0.327441 1
gene 1 25 28 -0.329193 0 74 -0.329193 1
gene 1 25 29 -0.253063 0 75 -0.253063 1
gene 1 26 27 -0.770192 0 76 -0.770192 1
gene 1 26 28 -5 0 77 -5 1
gene 1 26 29 0.249617 0 78 0.249617 1
genomeend 0


