/* Organism #7 Fitness: 8323.878000 Time: 0 */
genomestart 7
trait 1 0.000000 1.000000 0.000000 0.128357 0.332085 1.000000 0.533993 0.000000 
node 1 1 1 1
node 2 1 1 1
node 3 1 1 1
node 4 1 1 1
node 5 1 1 1
node 6 1 1 1
node 7 1 1 1
node 8 1 1 1
node 9 1 1 1
node 10 1 1 1
node 11 1 1 1
node 12 1 1 1
node 13 1 1 1
node 14 1 1 1
node 15 1 1 1
node 16 1 1 1
node 17 1 1 1
node 18 1 1 1
node 19 1 1 1
node 20 1 1 1
node 21 1 1 1
node 22 1 1 1
node 23 1 1 1
node 24 1 1 1
node 25 1 1 1
node 26 1 1 3
node 27 1 0 2
node 28 1 0 2
node 29 1 0 2
gene 1 1 27 -2.13673 0 1 -2.13673 1
gene 1 1 28 0.988743 0 2 0.988743 1
gene 1 1 29 -1.2673 0 3 -1.2673 1
gene 1 2 27 1.21865 0 4 1.21865 1
gene 1 2 28 -0.921287 0 5 -0.921287 1
gene 1 2 29 -0.502781 0 6 -0.502781 1
gene 1 3 27 -2.48785 0 7 -2.48785 1
gene 1 3 28 -3.27613 0 8 -3.27613 1
gene 1 3 29 -0.474923 0 9 -0.474923 1
gene 1 4 27 -0.710286 0 10 -0.710286 1
gene 1 4 28 0.506913 0 11 0.506913 1
gene 1 4 29 4.59753 0 12 4.59753 1
gene 1 5 27 1.81001 0 13 1.81001 1
gene 1 5 28 -3.23564 0 14 -3.23564 1
gene 1 5 29 0.943032 0 15 0.943032 1
gene 1 6 27 2.76037 0 16 2.76037 1
gene 1 6 28 -2.16122 0 17 -2.16122 1
gene 1 6 29 -1.65914 0 18 -1.65914 1
gene 1 7 27 4.4969 0 19 4.4969 1
gene 1 7 28 2.90636 0 20 2.90636 1
gene 1 7 29 1.15933 0 21 1.15933 1
gene 1 8 27 0.556342 0 22 0.556342 1
gene 1 8 28 0.545901 0 23 0.545901 1
gene 1 8 29 -0.313194 0 24 -0.313194 1
gene 1 9 27 1.69627 0 25 1.69627 1
gene 1 9 28 1.51436 0 26 1.51436 1
gene 1 9 29 1.334 0 27 1.334 1
gene 1 10 27 -0.188417 0 28 -0.188417 1
gene 1 10 28 4.1679 0 29 4.1679 1
gene 1 10 29 -3.21363 0 30 -3.21363 1
gene 1 11 27 1.20404 0 27 1.20404 1
gene 1 11 28 0.849389 0 32 0.849389 1
gene 1 11 29 0.693822 0 33 0.693822 1
gene 1 12 27 -4.61688 0 34 -4.61688 1
gene 1 12 28 -1.76435 0 35 -1.76435 1
gene 1 12 29 5 0 36 5 1
gene 1 13 27 -0.761739 0 37 -0.761739 1
gene 1 13 28 1.21614 0 38 1.21614 1
gene 1 13 29 0.577094 0 39 0.577094 1
gene 1 14 27 0.287529 0 40 0.287529 1
gene 1 14 28 -2.20008 0 41 -2.20008 1
gene 1 14 29 1.78296 0 42 1.78296 1
gene 1 15 27 -1.30257 0 43 -1.30257 1
gene 1 15 28 0.141279 0 44 0.141279 1
gene 1 15 29 -0.495314 0 45 -0.495314 1
gene 1 16 27 -2.65991 0 46 -2.65991 1
gene 1 16 28 -2.18828 0 47 -2.18828 1
gene 1 16 29 2.19934 0 48 2.19934 1
gene 1 17 27 3.2939 0 49 3.2939 1
gene 1 17 28 -0.373689 0 50 -0.373689 1
gene 1 17 29 -4.60694 0 51 -4.60694 1
gene 1 18 27 3.056 0 52 3.056 1
gene 1 18 28 -0.696099 0 53 -0.696099 1
gene 1 18 29 -0.364201 0 54 -0.364201 1
gene 1 19 27 3.00883 0 55 3.00883 1
gene 1 19 28 -0.593458 0 56 -0.593458 1
gene 1 19 29 -0.574641 0 57 -0.574641 1
gene 1 20 27 0.604404 0 58 0.604404 1
gene 1 20 28 0.761254 0 59 0.761254 1
gene 1 20 29 0.80136 0 60 0.80136 1
gene 1 21 27 -0.167211 0 61 -0.167211 1
gene 1 21 28 -2.21617 0 62 -2.21617 1
gene 1 21 29 -2.18656 0 63 -2.18656 1
gene 1 22 27 -0.09271 0 64 -0.09271 1
gene 1 22 28 -1.49799 0 65 -1.49799 1
gene 1 22 29 0.190196 0 66 0.190196 1
gene 1 23 27 -0.597898 0 67 -0.597898 1
gene 1 23 28 -0.320651 0 68 -0.320651 1
gene 1 23 29 1.8992 0 69 1.8992 1
gene 1 24 27 0.100037 0 70 0.100037 1
gene 1 24 28 -3.06404 0 71 -3.06404 1
gene 1 24 29 -1.29179 0 72 -1.29179 1
gene 1 25 27 -0.396422 0 73 -0.396422 1
gene 1 25 28 -0.34656 0 74 -0.34656 1
gene 1 25 29 0.415907 0 75 0.415907 1
gene 1 26 27 -5 0 76 -5 1
gene 1 26 28 -1.66752 0 77 -1.66752 1
gene 1 26 29 0.209769 0 78 0.209769 1
genomeend 7


