/* Organism #99 Fitness: 34961.094000 Time: 0 */
genomestart 99
trait 1 0.000000 0.967132 0.440633 0.799700 0.236482 0.057286 0.000000 1.000000 
node 1 1 1 1
node 2 1 1 1
node 3 1 1 1
node 4 1 1 1
node 5 1 1 1
node 6 1 1 1
node 7 1 1 1
node 8 1 1 1
node 9 1 1 1
node 10 1 1 1
node 11 1 1 1
node 12 1 1 1
node 13 1 1 1
node 14 1 1 1
node 15 1 1 1
node 16 1 1 1
node 17 1 1 1
node 18 1 1 1
node 19 1 1 1
node 20 1 1 1
node 21 1 1 1
node 22 1 1 1
node 23 1 1 1
node 24 1 1 1
node 25 1 1 1
node 26 1 1 1
node 27 1 1 1
node 28 1 1 1
node 29 1 1 1
node 30 1 1 3
node 31 1 0 2
node 32 1 0 2
node 33 1 0 2
gene 1 1 31 -5 0 1 -5 1
gene 1 1 32 0.889726 0 2 0.889726 1
gene 1 1 33 0.958723 0 3 0.958723 1
gene 1 2 31 0.966173 0 4 0.966173 1
gene 1 2 32 0.305158 0 5 0.305158 1
gene 1 2 33 0.608086 0 6 0.608086 1
gene 1 3 31 0.795555 0 7 0.795555 1
gene 1 3 32 3.29589 0 8 3.29589 1
gene 1 3 33 4.64055 0 9 4.64055 1
gene 1 4 31 -0.717051 0 10 -0.717051 1
gene 1 4 32 1.0416 0 11 1.0416 1
gene 1 4 33 -1.44317 0 12 -1.44317 1
gene 1 5 31 -0.298476 0 13 -0.298476 1
gene 1 5 32 -0.336184 0 14 -0.336184 1
gene 1 5 33 2.8194 0 15 2.8194 1
gene 1 6 31 -1.08559 0 16 -1.08559 1
gene 1 6 32 -4.44959 0 17 -4.44959 1
gene 1 6 33 -0.894576 0 18 -0.894576 1
gene 1 7 31 -0.22989 0 19 -0.22989 1
gene 1 7 32 -3.09896 0 20 -3.09896 1
gene 1 7 33 -0.351506 0 21 -0.351506 1
gene 1 8 31 0.550681 0 22 0.550681 1
gene 1 8 32 0.916264 0 23 0.916264 1
gene 1 8 33 0.786856 0 24 0.786856 1
gene 1 9 31 0.184462 0 25 0.184462 1
gene 1 9 32 0.463866 0 26 0.463866 1
gene 1 9 33 0.569522 0 27 0.569522 1
gene 1 10 31 -1.37394 0 28 -1.37394 1
gene 1 10 32 -0.470039 0 29 -0.470039 1
gene 1 10 33 2.24519 0 30 2.24519 1
gene 1 11 31 0.472999 0 31 0.472999 1
gene 1 11 32 -0.469204 0 32 -0.469204 1
gene 1 11 33 -0.272957 0 33 -0.272957 1
gene 1 12 31 -0.0533477 0 34 -0.0533477 1
gene 1 12 32 -1.41454 0 35 -1.41454 1
gene 1 12 33 0.494233 0 36 0.494233 1
gene 1 13 31 0.934486 0 37 0.934486 1
gene 1 13 32 -2.05556 0 38 -2.05556 1
gene 1 13 33 -0.14178 0 39 -0.14178 1
gene 1 14 31 0.135642 0 40 0.135642 1
gene 1 14 32 0.722722 0 41 0.722722 1
gene 1 14 33 0.350201 0 42 0.350201 1
gene 1 15 31 -0.0219088 0 43 -0.0219088 1
gene 1 15 32 1.01998 0 44 1.01998 1
gene 1 15 33 0.846559 0 45 0.846559 1
gene 1 16 31 -3.00913 0 46 -3.00913 1
gene 1 16 32 0.470314 0 47 0.470314 1
gene 1 16 33 2.35891 0 48 2.35891 1
gene 1 17 31 -1.34853 0 49 -1.34853 1
gene 1 17 32 -2.29605 0 50 -2.29605 1
gene 1 17 33 0.63528 0 51 0.63528 1
gene 1 18 31 -3.12393 0 52 -3.12393 1
gene 1 18 32 2.12424 0 53 2.12424 1
gene 1 18 33 0.479081 0 54 0.479081 1
gene 1 19 31 -4.06844 0 55 -4.06844 1
gene 1 19 32 0.167592 0 56 0.167592 1
gene 1 19 33 -0.0641797 0 57 -0.0641797 1
gene 1 20 31 -0.077291 0 58 -0.077291 1
gene 1 20 32 0.213748 0 59 0.213748 1
gene 1 20 33 2.30535 0 60 2.30535 1
gene 1 21 31 2.46677 0 61 2.46677 1
gene 1 21 32 -3.24516 0 62 -3.24516 1
gene 1 21 33 0.539075 0 63 0.539075 1
gene 1 22 31 -2.6871 0 64 -2.6871 1
gene 1 22 32 4.06582 0 65 4.06582 1
gene 1 22 33 -2.34703 0 66 -2.34703 1
gene 1 23 31 -1.24629 0 67 -1.24629 1
gene 1 23 32 -1.67255 0 68 -1.67255 1
gene 1 23 33 0.185333 0 69 0.185333 1
gene 1 24 31 -0.40974 0 70 -0.40974 1
gene 1 24 32 -5 0 71 -5 1
gene 1 24 33 -1.31541 0 72 -1.31541 1
gene 1 25 31 -0.909828 0 73 -0.909828 1
gene 1 25 32 0.919309 0 74 0.919309 1
gene 1 25 33 -0.863816 0 75 -0.863816 1
gene 1 26 31 0.186582 0 76 0.186582 1
gene 1 26 32 0.521676 0 77 0.521676 1
gene 1 26 33 0.527454 0 78 0.527454 1
gene 1 27 31 -0.639519 0 79 -0.639519 1
gene 1 27 32 0.573089 0 80 0.573089 1
gene 1 27 33 2.16097 0 81 2.16097 1
gene 1 28 31 -0.234713 0 82 -0.234713 1
gene 1 28 32 -0.0466511 0 83 -0.0466511 1
gene 1 28 33 0.227377 0 84 0.227377 1
gene 1 29 31 0.140299 0 85 0.140299 1
gene 1 29 32 1.90717 0 86 1.90717 1
gene 1 29 33 0.537054 0 87 0.537054 1
gene 1 30 31 1.74893 0 88 1.74893 1
gene 1 30 32 -3.34505 0 89 -3.34505 1
gene 1 30 33 0.0116003 0 90 0.0116003 1
genomeend 99


