/* Organism #45 Fitness: 10942.376000 Time: 0 */
genomestart 45
trait 1 1.000000 0.520888 0.615161 0.751029 1.000000 0.000000 0.000000 0.000000 
node 1 1 1 1
node 2 1 1 1
node 3 1 1 1
node 4 1 1 1
node 5 1 1 1
node 6 1 1 1
node 7 1 1 1
node 8 1 1 1
node 9 1 1 1
node 10 1 1 1
node 11 1 1 1
node 12 1 1 1
node 13 1 1 1
node 14 1 1 1
node 15 1 1 1
node 16 1 1 1
node 17 1 1 1
node 18 1 1 1
node 19 1 1 1
node 20 1 1 1
node 21 1 1 1
node 22 1 1 1
node 23 1 1 1
node 24 1 1 1
node 25 1 1 1
node 26 1 1 1
node 27 1 1 1
node 28 1 1 1
node 29 1 1 1
node 30 1 1 3
node 31 1 0 2
node 32 1 0 2
node 33 1 0 2
gene 1 1 31 -0.834271 0 1 -0.834271 1
gene 1 1 32 -0.711894 0 2 -0.711894 1
gene 1 1 33 1.32011 0 3 1.32011 1
gene 1 2 31 -2.02032 0 4 -2.02032 1
gene 1 2 32 1.01834 0 5 1.01834 1
gene 1 2 33 -0.210036 0 6 -0.210036 1
gene 1 3 31 0.425046 0 7 0.425046 1
gene 1 3 32 0.0491094 0 8 0.0491094 1
gene 1 3 33 -0.011666 0 9 -0.011666 1
gene 1 4 31 0.589458 0 10 0.589458 1
gene 1 4 32 -2.46374 0 11 -2.46374 1
gene 1 4 33 0.499329 0 12 0.499329 1
gene 1 5 31 0.952276 0 13 0.952276 1
gene 1 5 32 0.231188 0 14 0.231188 1
gene 1 5 33 -0.320171 0 15 -0.320171 1
gene 1 6 31 -0.0151231 0 16 -0.0151231 1
gene 1 6 32 -1.47119 0 17 -1.47119 1
gene 1 6 33 2.17639 0 18 2.17639 1
gene 1 7 31 -1.24677 0 19 -1.24677 1
gene 1 7 32 -1.95146 0 20 -1.95146 1
gene 1 7 33 0.333952 0 21 0.333952 1
gene 1 8 31 3.95948 0 22 3.95948 1
gene 1 8 32 1.84758 0 23 1.84758 1
gene 1 8 33 0.239034 0 24 0.239034 1
gene 1 9 31 3.64144 0 25 3.64144 1
gene 1 9 32 -1.2486 0 26 -1.2486 1
gene 1 9 33 -1.94115 0 27 -1.94115 1
gene 1 10 31 2.04828 0 28 2.04828 1
gene 1 10 32 1.50756 0 29 1.50756 1
gene 1 10 33 -0.0157086 0 30 -0.0157086 1
gene 1 11 31 5 0 31 5 1
gene 1 11 32 0.426732 0 32 0.426732 1
gene 1 11 33 0.972296 0 33 0.972296 1
gene 1 12 31 -2.5439 0 34 -2.5439 1
gene 1 12 32 -0.0185169 0 35 -0.0185169 1
gene 1 12 33 -1.16541 0 36 -1.16541 1
gene 1 13 31 0.870267 0 37 0.870267 1
gene 1 13 32 -0.223125 0 38 -0.223125 1
gene 1 13 33 0.254784 0 39 0.254784 1
gene 1 14 31 4.11456 0 40 4.11456 1
gene 1 14 32 -5 0 41 -5 1
gene 1 14 33 -0.200824 0 42 -0.200824 1
gene 1 15 31 3.23034 0 43 3.23034 1
gene 1 15 32 -2.74874 0 44 -2.74874 1
gene 1 15 33 -0.746633 0 45 -0.746633 1
gene 1 16 31 -0.448648 0 46 -0.448648 1
gene 1 16 32 -1.41837 0 47 -1.41837 1
gene 1 16 33 0.615817 0 48 0.615817 1
gene 1 17 31 -0.8057 0 49 -0.8057 1
gene 1 17 32 -4.15445 0 50 -4.15445 1
gene 1 17 33 0.172139 0 51 0.172139 1
gene 1 18 31 -2.09452 0 52 -2.09452 1
gene 1 18 32 -1.16547 0 53 -1.16547 1
gene 1 18 33 0.974647 0 54 0.974647 1
gene 1 19 31 1.7229 0 55 1.7229 1
gene 1 19 32 0.780986 0 56 0.780986 1
gene 1 19 33 1.34925 0 57 1.34925 1
gene 1 20 31 -1.62555 0 58 -1.62555 1
gene 1 20 32 1.21473 0 59 1.21473 1
gene 1 20 33 1.19327 0 60 1.19327 1
gene 1 21 31 0.489392 0 61 0.489392 1
gene 1 21 32 0.713168 0 62 0.713168 1
gene 1 21 33 -1.33697 0 63 -1.33697 1
gene 1 22 31 -2.13038 0 64 -2.13038 1
gene 1 22 32 -1.48752 0 65 -1.48752 1
gene 1 22 33 0.156672 0 66 0.156672 1
gene 1 23 31 1.12199 0 67 1.12199 1
gene 1 23 32 0.279559 0 68 0.279559 1
gene 1 23 33 -4.43195 0 69 -4.43195 1
gene 1 24 31 -0.587135 0 70 -0.587135 1
gene 1 24 32 0.0442522 0 71 0.0442522 1
gene 1 24 33 0.0502535 0 72 0.0502535 1
gene 1 25 31 1.28133 0 73 1.28133 1
gene 1 25 32 -0.905034 0 74 -0.905034 1
gene 1 25 33 -1.34183 0 75 -1.34183 1
gene 1 26 31 -0.781475 0 76 -0.781475 1
gene 1 26 32 1.00356 0 77 1.00356 1
gene 1 26 33 -1.94279 0 78 -1.94279 1
gene 1 27 31 -0.767552 0 79 -0.767552 1
gene 1 27 32 -0.0371676 0 80 -0.0371676 1
gene 1 27 33 0.593524 0 81 0.593524 1
gene 1 28 31 1.52504 0 82 1.52504 1
gene 1 28 32 -1.18822 0 83 -1.18822 1
gene 1 28 33 0.396615 0 84 0.396615 1
gene 1 29 31 0.652146 0 85 0.652146 1
gene 1 29 32 -1.11307 0 86 -1.11307 1
gene 1 29 33 0.112189 0 87 0.112189 1
gene 1 30 31 -0.92143 0 88 -0.92143 1
gene 1 30 32 0.0814195 0 89 0.0814195 1
gene 1 30 33 1.6359 0 90 1.6359 1
genomeend 45


