
/* Species #1 : (Size 100) (AF 0) (Age 50)  */


/* Organism #0 Fitness: 12132.1 Error: 0 */
genomestart 0
trait 1 0.386924 0.404857 0 0.300106 0 0 0 0 
node 1 1 1 1
node 2 1 1 1
node 3 1 1 1
node 4 1 1 1
node 5 1 1 1
node 6 1 1 1
node 7 1 1 1
node 8 1 1 1
node 9 1 1 1
node 10 1 1 1
node 11 1 1 1
node 12 1 1 1
node 13 1 1 1
node 14 1 1 1
node 15 1 1 1
node 16 1 1 1
node 17 1 1 1
node 18 1 1 1
node 19 1 1 1
node 20 1 1 1
node 21 1 1 1
node 22 1 1 1
node 23 1 1 1
node 24 1 1 1
node 25 1 1 1
node 26 1 1 1
node 27 1 1 1
node 28 1 1 1
node 29 1 1 1
node 30 1 1 3
node 31 1 0 2
node 32 1 0 2
node 33 1 0 2
gene 1 1 31 0.423018 0 1 0.423018 1
gene 1 1 32 0.840786 0 2 0.840786 1
gene 1 1 33 -2.92074 0 3 -2.92074 1
gene 1 2 31 -1.50132 0 4 -1.50132 1
gene 1 2 32 0.252395 0 5 0.252395 1
gene 1 2 33 0.729291 0 6 0.729291 1
gene 1 3 31 -3.09248 0 7 -3.09248 1
gene 1 3 32 -0.852752 0 8 -0.852752 1
gene 1 3 33 0.684787 0 9 0.684787 1
gene 1 4 31 -3.24044 0 10 -3.24044 1
gene 1 4 32 0.147708 0 11 0.147708 1
gene 1 4 33 2.0375 0 12 2.0375 1
gene 1 5 31 2.39906 0 13 2.39906 1
gene 1 5 32 -3.6208 0 14 -3.6208 1
gene 1 5 33 2.00097 0 15 2.00097 1
gene 1 6 31 -0.993722 0 16 -0.993722 1
gene 1 6 32 1.10091 0 17 1.10091 1
gene 1 6 33 0.500633 0 18 0.500633 1
gene 1 7 31 -0.620152 0 19 -0.620152 1
gene 1 7 32 -0.55608 0 20 -0.55608 1
gene 1 7 33 1.34367 0 21 1.34367 1
gene 1 8 31 -1.05029 0 22 -1.05029 1
gene 1 8 32 -3.8347 0 23 -3.8347 1
gene 1 8 33 -1.43256 0 24 -1.43256 1
gene 1 9 31 5 0 25 5 1
gene 1 9 32 1.21171 0 26 1.21171 1
gene 1 9 33 -1.1707 0 27 -1.1707 1
gene 1 10 31 5 0 28 5 1
gene 1 10 32 -0.447171 0 29 -0.447171 1
gene 1 10 33 -0.596727 0 30 -0.596727 1
gene 1 11 31 3.70514 0 31 3.70514 1
gene 1 11 32 -2.25579 0 32 -2.25579 1
gene 1 11 33 -3.12001 0 33 -3.12001 1
gene 1 12 31 -0.215266 0 34 -0.215266 1
gene 1 12 32 -1.50444 0 35 -1.50444 1
gene 1 12 33 -0.988903 0 36 -0.988903 1
gene 1 13 31 -3.44704 0 37 -3.44704 1
gene 1 13 32 -2.13847 0 38 -2.13847 1
gene 1 13 33 1.4243 0 39 1.4243 1
gene 1 14 31 1.14903 0 40 1.14903 1
gene 1 14 32 3.8542 0 41 3.8542 1
gene 1 14 33 1.10074 0 42 1.10074 1
gene 1 15 31 1.59407 0 43 1.59407 1
gene 1 15 32 0.353645 0 44 0.353645 1
gene 1 15 33 -0.759902 0 45 -0.759902 1
gene 1 16 31 4.21386 0 46 4.21386 1
gene 1 16 32 2.80416 0 47 2.80416 1
gene 1 16 33 0.318836 0 48 0.318836 1
gene 1 17 31 -0.71005 0 49 -0.71005 1
gene 1 17 32 0.966332 0 50 0.966332 1
gene 1 17 33 -0.662187 0 51 -0.662187 1
gene 1 18 31 0.894232 0 52 0.894232 1
gene 1 18 32 -3.68647 0 53 -3.68647 1
gene 1 18 33 1.20385 0 54 1.20385 1
gene 1 19 31 -2.9969 0 55 -2.9969 1
gene 1 19 32 1.31935 0 56 1.31935 1
gene 1 19 33 0.13438 0 57 0.13438 1
gene 1 20 31 0.033194 0 58 0.033194 1
gene 1 20 32 -1.58875 0 59 -1.58875 1
gene 1 20 33 0.244032 0 60 0.244032 1
gene 1 21 31 0.14579 0 61 0.14579 1
gene 1 21 32 -1.67259 0 62 -1.67259 1
gene 1 21 33 -1.91453 0 63 -1.91453 1
gene 1 22 31 3.10943 0 64 3.10943 1
gene 1 22 32 -0.95122 0 65 -0.95122 1
gene 1 22 33 1.13263 0 66 1.13263 1
gene 1 23 31 -0.0538065 0 67 -0.0538065 1
gene 1 23 32 0.793679 0 68 0.793679 1
gene 1 23 33 2.07459 0 69 2.07459 1
gene 1 24 31 0.850695 0 70 0.850695 1
gene 1 24 32 0.390456 0 71 0.390456 1
gene 1 24 33 2.24526 0 72 2.24526 1
gene 1 25 31 0.201849 0 73 0.201849 1
gene 1 25 32 -0.251575 0 74 -0.251575 1
gene 1 25 33 -0.0416046 0 75 -0.0416046 1
gene 1 26 31 0.0527988 0 76 0.0527988 1
gene 1 26 32 0.0722164 0 77 0.0722164 1
gene 1 26 33 -1.3222 0 78 -1.3222 1
gene 1 27 31 -1.49596 0 79 -1.49596 1
gene 1 27 32 0.118635 0 80 0.118635 1
gene 1 27 33 0.154625 0 81 0.154625 1
gene 1 28 31 -0.0860986 0 82 -0.0860986 1
gene 1 28 32 1.35747 0 83 1.35747 1
gene 1 28 33 0.25936 0 84 0.25936 1
gene 1 29 31 -1.14931 0 85 -1.14931 1
gene 1 29 32 0.257172 0 86 0.257172 1
gene 1 29 33 -0.904468 0 87 -0.904468 1
gene 1 30 31 -0.539343 0 88 -0.539343 1
gene 1 30 32 -0.32776 0 89 -0.32776 1
gene 1 30 33 0.635305 0 90 0.635305 1
genomeend 0

/* Organism #1 Fitness: 12244 Error: 0 */
genomestart 1
trait 1 0.386924 0 0 1 0 0 0.594135 0 
node 1 1 1 1
node 2 1 1 1
node 3 1 1 1
node 4 1 1 1
node 5 1 1 1
node 6 1 1 1
node 7 1 1 1
node 8 1 1 1
node 9 1 1 1
node 10 1 1 1
node 11 1 1 1
node 12 1 1 1
node 13 1 1 1
node 14 1 1 1
node 15 1 1 1
node 16 1 1 1
node 17 1 1 1
node 18 1 1 1
node 19 1 1 1
node 20 1 1 1
node 21 1 1 1
node 22 1 1 1
node 23 1 1 1
node 24 1 1 1
node 25 1 1 1
node 26 1 1 1
node 27 1 1 1
node 28 1 1 1
node 29 1 1 1
node 30 1 1 3
node 31 1 0 2
node 32 1 0 2
node 33 1 0 2
gene 1 1 31 -1.70917 0 1 -1.70917 1
gene 1 1 32 0.746963 0 2 0.746963 1
gene 1 1 33 -2.83172 0 3 -2.83172 1
gene 1 2 31 -1.50933 0 4 -1.50933 1
gene 1 2 32 0.668225 0 5 0.668225 1
gene 1 2 33 -3.54407 0 6 -3.54407 1
gene 1 3 31 -4.61435 0 7 -4.61435 1
gene 1 3 32 -0.257498 0 8 -0.257498 1
gene 1 3 33 0.492427 0 9 0.492427 1
gene 1 4 31 -4.63022 0 10 -4.63022 1
gene 1 4 32 -0.42817 0 11 -0.42817 1
gene 1 4 33 2.02952 0 12 2.02952 1
gene 1 5 31 2.79003 0 13 2.79003 1
gene 1 5 32 -4.44283 0 14 -4.44283 1
gene 1 5 33 3.86992 0 15 3.86992 1
gene 1 6 31 -0.681129 0 16 -0.681129 1
gene 1 6 32 2.90468 0 17 2.90468 1
gene 1 6 33 1.31852 0 18 1.31852 1
gene 1 7 31 1.08494 0 19 1.08494 1
gene 1 7 32 -1.48213 0 20 -1.48213 1
gene 1 7 33 0.29023 0 21 0.29023 1
gene 1 8 31 -1.68915 0 22 -1.68915 1
gene 1 8 32 -4.10421 0 23 -4.10421 1
gene 1 8 33 -2.0085 0 24 -2.0085 1
gene 1 9 31 5 0 25 5 1
gene 1 9 32 0.788136 0 26 0.788136 1
gene 1 9 33 0.359007 0 27 0.359007 1
gene 1 10 31 4.53027 0 28 4.53027 1
gene 1 10 32 0.806793 0 29 0.806793 1
gene 1 10 33 0.511726 0 30 0.511726 1
gene 1 11 31 4.56938 0 31 4.56938 1
gene 1 11 32 -2.77429 0 32 -2.77429 1
gene 1 11 33 -1.38497 0 33 -1.38497 1
gene 1 12 31 1.15228 0 34 1.15228 1
gene 1 12 32 -0.290626 0 35 -0.290626 1
gene 1 12 33 -1.14813 0 36 -1.14813 1
gene 1 13 31 -4.76494 0 37 -4.76494 1
gene 1 13 32 -2.50338 0 38 -2.50338 1
gene 1 13 33 1.30639 0 39 1.30639 1
gene 1 14 31 1.11708 0 40 1.11708 1
gene 1 14 32 4.11382 0 41 4.11382 1
gene 1 14 33 1.68755 0 42 1.68755 1
gene 1 15 31 1.35035 0 43 1.35035 1
gene 1 15 32 -0.144935 0 44 -0.144935 1
gene 1 15 33 -0.296194 0 45 -0.296194 1
gene 1 16 31 5 0 46 5 1
gene 1 16 32 1.79046 0 47 1.79046 1
gene 1 16 33 0.490765 0 48 0.490765 1
gene 1 17 31 -0.038327 0 49 -0.038327 1
gene 1 17 32 -0.540921 0 50 -0.540921 1
gene 1 17 33 -1.37563 0 51 -1.37563 1
gene 1 18 31 1.40709 0 52 1.40709 1
gene 1 18 32 -4.14877 0 53 -4.14877 1
gene 1 18 33 0.226238 0 54 0.226238 1
gene 1 19 31 -2.98521 0 55 -2.98521 1
gene 1 19 32 1.12258 0 56 1.12258 1
gene 1 19 33 0.245867 0 57 0.245867 1
gene 1 20 31 -0.635504 0 58 -0.635504 1
gene 1 20 32 -0.786572 0 59 -0.786572 1
gene 1 20 33 -0.612889 0 60 -0.612889 1
gene 1 21 31 1.4608 0 61 1.4608 1
gene 1 21 32 -1.61545 0 62 -1.61545 1
gene 1 21 33 -0.962627 0 63 -0.962627 1
gene 1 22 31 3.99578 0 64 3.99578 1
gene 1 22 32 0.199616 0 65 0.199616 1
gene 1 22 33 1.64772 0 66 1.64772 1
gene 1 23 31 -1.29593 0 67 -1.29593 1
gene 1 23 32 -1.73037 0 68 -1.73037 1
gene 1 23 33 3.57276 0 69 3.57276 1
gene 1 24 31 0.262556 0 70 0.262556 1
gene 1 24 32 -0.588713 0 71 -0.588713 1
gene 1 24 33 2.20916 0 72 2.20916 1
gene 1 25 31 0.88775 0 73 0.88775 1
gene 1 25 32 0.805258 0 74 0.805258 1
gene 1 25 33 -1.5194 0 75 -1.5194 1
gene 1 26 31 0.605407 0 76 0.605407 1
gene 1 26 32 0.311243 0 77 0.311243 1
gene 1 26 33 -0.00914876 0 78 -0.00914876 1
gene 1 27 31 -1.20585 0 79 -1.20585 1
gene 1 27 32 -0.681013 0 80 -0.681013 1
gene 1 27 33 0.213446 0 81 0.213446 1
gene 1 28 31 -0.751707 0 82 -0.751707 1
gene 1 28 32 -0.347587 0 83 -0.347587 1
gene 1 28 33 2.1994 0 84 2.1994 1
gene 1 29 31 0.323564 0 85 0.323564 1
gene 1 29 32 0.141017 0 86 0.141017 1
gene 1 29 33 -0.724675 0 87 -0.724675 1
gene 1 30 31 -0.687683 0 88 -0.687683 1
gene 1 30 32 -0.9741 0 89 -0.9741 1
gene 1 30 33 0.112845 0 90 0.112845 1
genomeend 1

/* Organism #2 Fitness: 13661 Error: 0 */
genomestart 2
trait 1 0.386924 0.154454 0 0.300106 0.416151 0.448184 0 0 
node 1 1 1 1
node 2 1 1 1
node 3 1 1 1
node 4 1 1 1
node 5 1 1 1
node 6 1 1 1
node 7 1 1 1
node 8 1 1 1
node 9 1 1 1
node 10 1 1 1
node 11 1 1 1
node 12 1 1 1
node 13 1 1 1
node 14 1 1 1
node 15 1 1 1
node 16 1 1 1
node 17 1 1 1
node 18 1 1 1
node 19 1 1 1
node 20 1 1 1
node 21 1 1 1
node 22 1 1 1
node 23 1 1 1
node 24 1 1 1
node 25 1 1 1
node 26 1 1 1
node 27 1 1 1
node 28 1 1 1
node 29 1 1 1
node 30 1 1 3
node 31 1 0 2
node 32 1 0 2
node 33 1 0 2
gene 1 1 31 0.383295 0 1 0.383295 1
gene 1 1 32 0.623402 0 2 0.623402 1
gene 1 1 33 0.832213 0 3 0.832213 1
gene 1 2 31 -2.34701 0 4 -2.34701 1
gene 1 2 32 -0.0740852 0 5 -0.0740852 1
gene 1 2 33 -0.430571 0 6 -0.430571 1
gene 1 3 31 -2.55953 0 7 -2.55953 1
gene 1 3 32 -0.889789 0 8 -0.889789 1
gene 1 3 33 2.44613 0 9 2.44613 1
gene 1 4 31 -2.05232 0 10 -2.05232 1
gene 1 4 32 1.78761 0 11 1.78761 1
gene 1 4 33 1.13641 0 12 1.13641 1
gene 1 5 31 1.96473 0 13 1.96473 1
gene 1 5 32 -2.44073 0 14 -2.44073 1
gene 1 5 33 4.12313 0 15 4.12313 1
gene 1 6 31 0.825891 0 16 0.825891 1
gene 1 6 32 -0.857865 0 17 -0.857865 1
gene 1 6 33 1.45481 0 18 1.45481 1
gene 1 7 31 -0.873895 0 19 -0.873895 1
gene 1 7 32 -0.60952 0 20 -0.60952 1
gene 1 7 33 5 0 21 5 1
gene 1 8 31 -1.37734 0 22 -1.37734 1
gene 1 8 32 0.222096 0 23 0.222096 1
gene 1 8 33 -1.11406 0 24 -1.11406 1
gene 1 9 31 3.59457 0 25 3.59457 1
gene 1 9 32 0.0904556 0 26 0.0904556 1
gene 1 9 33 3.53925 0 27 3.53925 1
gene 1 10 31 5 0 28 5 1
gene 1 10 32 0.167053 0 29 0.167053 1
gene 1 10 33 -1.00841 0 30 -1.00841 1
gene 1 11 31 3.38827 0 31 3.38827 1
gene 1 11 32 -0.359719 0 32 -0.359719 1
gene 1 11 33 -2.67306 0 33 -2.67306 1
gene 1 12 31 2.82636 0 34 2.82636 1
gene 1 12 32 -1.51516 0 35 -1.51516 1
gene 1 12 33 -1.70597 0 36 -1.70597 1
gene 1 13 31 -0.977804 0 37 -0.977804 1
gene 1 13 32 -3.06461 0 38 -3.06461 1
gene 1 13 33 -0.225235 0 39 -0.225235 1
gene 1 14 31 -1.31565 0 40 -1.31565 1
gene 1 14 32 2.78179 0 41 2.78179 1
gene 1 14 33 0.481507 0 42 0.481507 1
gene 1 15 31 1.04617 0 43 1.04617 1
gene 1 15 32 1.99234 0 44 1.99234 1
gene 1 15 33 1.56425 0 45 1.56425 1
gene 1 16 31 5 0 46 5 1
gene 1 16 32 2.16113 0 47 2.16113 1
gene 1 16 33 0.517658 0 48 0.517658 1
gene 1 17 31 -2.64537 0 49 -2.64537 1
gene 1 17 32 -0.0675979 0 50 -0.0675979 1
gene 1 17 33 -0.602251 0 51 -0.602251 1
gene 1 18 31 -0.901606 0 52 -0.901606 1
gene 1 18 32 -4.35034 0 53 -4.35034 1
gene 1 18 33 0.898319 0 54 0.898319 1
gene 1 19 31 0.000134539 0 55 0.000134539 1
gene 1 19 32 0.406309 0 56 0.406309 1
gene 1 19 33 -0.199773 0 57 -0.199773 1
gene 1 20 31 -0.726041 0 58 -0.726041 1
gene 1 20 32 0.144291 0 59 0.144291 1
gene 1 20 33 -1.70874 0 60 -1.70874 1
gene 1 21 31 1.80773 0 61 1.80773 1
gene 1 21 32 -2.06735 0 62 -2.06735 1
gene 1 21 33 -0.208824 0 63 -0.208824 1
gene 1 22 31 3.96522 0 64 3.96522 1
gene 1 22 32 0.526539 0 65 0.526539 1
gene 1 22 33 0.863206 0 66 0.863206 1
gene 1 23 31 -0.896129 0 67 -0.896129 1
gene 1 23 32 -3.03773 0 68 -3.03773 1
gene 1 23 33 3.57477 0 69 3.57477 1
gene 1 24 31 4.53714 0 70 4.53714 1
gene 1 24 32 -0.647113 0 71 -0.647113 1
gene 1 24 33 1.26116 0 72 1.26116 1
gene 1 25 31 0.818773 0 73 0.818773 1
gene 1 25 32 -0.806903 0 74 -0.806903 1
gene 1 25 33 0.0721909 0 75 0.0721909 1
gene 1 26 31 0.55203 0 76 0.55203 1
gene 1 26 32 -0.691017 0 77 -0.691017 1
gene 1 26 33 -0.910317 0 78 -0.910317 1
gene 1 27 31 1.15712 0 79 1.15712 1
gene 1 27 32 0.536741 0 80 0.536741 1
gene 1 27 33 -0.206532 0 81 -0.206532 1
gene 1 28 31 -0.148279 0 82 -0.148279 1
gene 1 28 32 0.444216 0 83 0.444216 1
gene 1 28 33 -1.33278 0 84 -1.33278 1
gene 1 29 31 -0.907769 0 85 -0.907769 1
gene 1 29 32 1.31416 0 86 1.31416 1
gene 1 29 33 2.19634 0 87 2.19634 1
gene 1 30 31 0.0481286 0 88 0.0481286 1
gene 1 30 32 -0.716354 0 89 -0.716354 1
gene 1 30 33 -0.0973217 0 90 -0.0973217 1
genomeend 2

/* Organism #3 Fitness: 14436.1 Error: 0 */
genomestart 3
trait 1 0.386924 0.404857 0 0.300106 0 0 0 0 
node 1 1 1 1
node 2 1 1 1
node 3 1 1 1
node 4 1 1 1
node 5 1 1 1
node 6 1 1 1
node 7 1 1 1
node 8 1 1 1
node 9 1 1 1
node 10 1 1 1
node 11 1 1 1
node 12 1 1 1
node 13 1 1 1
node 14 1 1 1
node 15 1 1 1
node 16 1 1 1
node 17 1 1 1
node 18 1 1 1
node 19 1 1 1
node 20 1 1 1
node 21 1 1 1
node 22 1 1 1
node 23 1 1 1
node 24 1 1 1
node 25 1 1 1
node 26 1 1 1
node 27 1 1 1
node 28 1 1 1
node 29 1 1 1
node 30 1 1 3
node 31 1 0 2
node 32 1 0 2
node 33 1 0 2
gene 1 1 31 0.686138 0 1 0.686138 1
gene 1 1 32 -0.677961 0 2 -0.677961 1
gene 1 1 33 0.207973 0 3 0.207973 1
gene 1 2 31 0.136644 0 4 0.136644 1
gene 1 2 32 -0.724378 0 5 -0.724378 1
gene 1 2 33 -3.59667 0 6 -3.59667 1
gene 1 3 31 -2.0263 0 7 -2.0263 1
gene 1 3 32 -0.747874 0 8 -0.747874 1
gene 1 3 33 -0.793736 0 9 -0.793736 1
gene 1 4 31 0.276439 0 10 0.276439 1
gene 1 4 32 -1.97266 0 11 -1.97266 1
gene 1 4 33 0.722556 0 12 0.722556 1
gene 1 5 31 4.04877 0 13 4.04877 1
gene 1 5 32 -2.94867 0 14 -2.94867 1
gene 1 5 33 1.15574 0 15 1.15574 1
gene 1 6 31 0.69671 0 16 0.69671 1
gene 1 6 32 -1.38326 0 17 -1.38326 1
gene 1 6 33 0.377814 0 18 0.377814 1
gene 1 7 31 -0.0328499 0 19 -0.0328499 1
gene 1 7 32 -0.26394 0 20 -0.26394 1
gene 1 7 33 0.469167 0 21 0.469167 1
gene 1 8 31 -0.752623 0 22 -0.752623 1
gene 1 8 32 -4.07522 0 23 -4.07522 1
gene 1 8 33 -2.33561 0 24 -2.33561 1
gene 1 9 31 4.60689 0 25 4.60689 1
gene 1 9 32 0.160429 0 26 0.160429 1
gene 1 9 33 3.10519 0 27 3.10519 1
gene 1 10 31 5 0 28 5 1
gene 1 10 32 -0.0607491 0 29 -0.0607491 1
gene 1 10 33 0.235322 0 30 0.235322 1
gene 1 11 31 4.00916 0 31 4.00916 1
gene 1 11 32 -2.16048 0 32 -2.16048 1
gene 1 11 33 -1.28631 0 33 -1.28631 1
gene 1 12 31 0.303112 0 34 0.303112 1
gene 1 12 32 -2.56514 0 35 -2.56514 1
gene 1 12 33 -0.223688 0 36 -0.223688 1
gene 1 13 31 -5 0 37 -5 1
gene 1 13 32 -4.11544 0 38 -4.11544 1
gene 1 13 33 1.31737 0 39 1.31737 1
gene 1 14 31 3.61545 0 40 3.61545 1
gene 1 14 32 2.15085 0 41 2.15085 1
gene 1 14 33 2.62677 0 42 2.62677 1
gene 1 15 31 2.72765 0 43 2.72765 1
gene 1 15 32 1.26594 0 44 1.26594 1
gene 1 15 33 0.872823 0 45 0.872823 1
gene 1 16 31 3.20662 0 46 3.20662 1
gene 1 16 32 3.3574 0 47 3.3574 1
gene 1 16 33 0.615328 0 48 0.615328 1
gene 1 17 31 -2.35288 0 49 -2.35288 1
gene 1 17 32 1.12372 0 50 1.12372 1
gene 1 17 33 1.38569 0 51 1.38569 1
gene 1 18 31 -0.480602 0 52 -0.480602 1
gene 1 18 32 -3.61219 0 53 -3.61219 1
gene 1 18 33 2.79157 0 54 2.79157 1
gene 1 19 31 0.22001 0 55 0.22001 1
gene 1 19 32 1.25169 0 56 1.25169 1
gene 1 19 33 -0.645115 0 57 -0.645115 1
gene 1 20 31 -2.32559 0 58 -2.32559 1
gene 1 20 32 -2.53585 0 59 -2.53585 1
gene 1 20 33 -1.69399 0 60 -1.69399 1
gene 1 21 31 2.1785 0 61 2.1785 1
gene 1 21 32 -0.104013 0 62 -0.104013 1
gene 1 21 33 -2.14344 0 63 -2.14344 1
gene 1 22 31 3.52209 0 64 3.52209 1
gene 1 22 32 1.4021 0 65 1.4021 1
gene 1 22 33 -0.152386 0 66 -0.152386 1
gene 1 23 31 0.884826 0 67 0.884826 1
gene 1 23 32 -1.89766 0 68 -1.89766 1
gene 1 23 33 3.78985 0 69 3.78985 1
gene 1 24 31 2.86524 0 70 2.86524 1
gene 1 24 32 0.170196 0 71 0.170196 1
gene 1 24 33 -0.932968 0 72 -0.932968 1
gene 1 25 31 2.87757 0 73 2.87757 1
gene 1 25 32 -0.237651 0 74 -0.237651 1
gene 1 25 33 -0.208391 0 75 -0.208391 1
gene 1 26 31 -0.642681 0 76 -0.642681 1
gene 1 26 32 -1.45472 0 77 -1.45472 1
gene 1 26 33 -3.20309 0 78 -3.20309 1
gene 1 27 31 0.561476 0 79 0.561476 1
gene 1 27 32 0.23244 0 80 0.23244 1
gene 1 27 33 -0.588941 0 81 -0.588941 1
gene 1 28 31 -0.951226 0 82 -0.951226 1
gene 1 28 32 -1.8262 0 83 -1.8262 1
gene 1 28 33 1.18944 0 84 1.18944 1
gene 1 29 31 -1.09667 0 85 -1.09667 1
gene 1 29 32 -0.189039 0 86 -0.189039 1
gene 1 29 33 -1.49492 0 87 -1.49492 1
gene 1 30 31 -0.421223 0 88 -0.421223 1
gene 1 30 32 -0.155142 0 89 -0.155142 1
gene 1 30 33 0.0498716 0 90 0.0498716 1
genomeend 3

/* Organism #4 Fitness: 11522.2 Error: 0 */
genomestart 4
trait 1 0.1 0.404857 0 0 0 0 0 0 
node 1 1 1 1
node 2 1 1 1
node 3 1 1 1
node 4 1 1 1
node 5 1 1 1
node 6 1 1 1
node 7 1 1 1
node 8 1 1 1
node 9 1 1 1
node 10 1 1 1
node 11 1 1 1
node 12 1 1 1
node 13 1 1 1
node 14 1 1 1
node 15 1 1 1
node 16 1 1 1
node 17 1 1 1
node 18 1 1 1
node 19 1 1 1
node 20 1 1 1
node 21 1 1 1
node 22 1 1 1
node 23 1 1 1
node 24 1 1 1
node 25 1 1 1
node 26 1 1 1
node 27 1 1 1
node 28 1 1 1
node 29 1 1 1
node 30 1 1 3
node 31 1 0 2
node 32 1 0 2
node 33 1 0 2
gene 1 1 31 -0.0629033 0 1 -0.0629033 1
gene 1 1 32 -0.00996681 0 2 -0.00996681 1
gene 1 1 33 -2.65161 0 3 -2.65161 1
gene 1 2 31 -4.57882 0 4 -4.57882 1
gene 1 2 32 -0.343685 0 5 -0.343685 1
gene 1 2 33 -3.08454 0 6 -3.08454 1
gene 1 3 31 -5 0 7 -5 1
gene 1 3 32 0.553777 0 8 0.553777 1
gene 1 3 33 -1.35222 0 9 -1.35222 1
gene 1 4 31 -1.90837 0 10 -1.90837 1
gene 1 4 32 3.4116 0 11 3.4116 1
gene 1 4 33 2.37313 0 12 2.37313 1
gene 1 5 31 1.07168 0 13 1.07168 1
gene 1 5 32 -0.42282 0 14 -0.42282 1
gene 1 5 33 2.63074 0 15 2.63074 1
gene 1 6 31 -2.56925 0 16 -2.56925 1
gene 1 6 32 -1.92757 0 17 -1.92757 1
gene 1 6 33 3.63859 0 18 3.63859 1
gene 1 7 31 -3.98329 0 19 -3.98329 1
gene 1 7 32 -0.178572 0 20 -0.178572 1
gene 1 7 33 2.95283 0 21 2.95283 1
gene 1 8 31 1.66627 0 22 1.66627 1
gene 1 8 32 -0.533547 0 23 -0.533547 1
gene 1 8 33 -3.73309 0 24 -3.73309 1
gene 1 9 31 4.06717 0 25 4.06717 1
gene 1 9 32 4.48214 0 26 4.48214 1
gene 1 9 33 4.89775 0 27 4.89775 1
gene 1 10 31 3.88545 0 28 3.88545 1
gene 1 10 32 1.26889 0 29 1.26889 1
gene 1 10 33 3.14164 0 30 3.14164 1
gene 1 11 31 5 0 31 5 1
gene 1 11 32 -0.218953 0 32 -0.218953 1
gene 1 11 33 -2.50232 0 33 -2.50232 1
gene 1 12 31 2.68324 0 34 2.68324 1
gene 1 12 32 1.24073 0 35 1.24073 1
gene 1 12 33 -0.0623634 0 36 -0.0623634 1
gene 1 13 31 -2.67828 0 37 -2.67828 1
gene 1 13 32 -5 0 38 -5 1
gene 1 13 33 0.343767 0 39 0.343767 1
gene 1 14 31 1.38096 0 40 1.38096 1
gene 1 14 32 -0.858367 0 41 -0.858367 1
gene 1 14 33 1.20069 0 42 1.20069 1
gene 1 15 31 0.21111 0 43 0.21111 1
gene 1 15 32 0.892422 0 44 0.892422 1
gene 1 15 33 -1.39817 0 45 -1.39817 1
gene 1 16 31 2.38832 0 46 2.38832 1
gene 1 16 32 3.71361 0 47 3.71361 1
gene 1 16 33 -0.314013 0 48 -0.314013 1
gene 1 17 31 -0.807571 0 49 -0.807571 1
gene 1 17 32 -2.30629 0 50 -2.30629 1
gene 1 17 33 0.298574 0 51 0.298574 1
gene 1 18 31 -0.800853 0 52 -0.800853 1
gene 1 18 32 -3.00752 0 53 -3.00752 1
gene 1 18 33 1.95375 0 54 1.95375 1
gene 1 19 31 -0.448597 0 55 -0.448597 1
gene 1 19 32 -2.42342 0 56 -2.42342 1
gene 1 19 33 -1.73866 0 57 -1.73866 1
gene 1 20 31 -0.282921 0 58 -0.282921 1
gene 1 20 32 -3.22727 0 59 -3.22727 1
gene 1 20 33 -0.905252 0 60 -0.905252 1
gene 1 21 31 0.98974 0 61 0.98974 1
gene 1 21 32 1.10841 0 62 1.10841 1
gene 1 21 33 -0.655995 0 63 -0.655995 1
gene 1 22 31 1.02482 0 64 1.02482 1
gene 1 22 32 1.41266 0 65 1.41266 1
gene 1 22 33 3.04911 0 66 3.04911 1
gene 1 23 31 1.0978 0 67 1.0978 1
gene 1 23 32 -1.36713 0 68 -1.36713 1
gene 1 23 33 -0.911753 0 69 -0.911753 1
gene 1 24 31 1.97503 0 70 1.97503 1
gene 1 24 32 -0.483827 0 71 -0.483827 1
gene 1 24 33 3.10804 0 72 3.10804 1
gene 1 25 31 0.697533 0 73 0.697533 1
gene 1 25 32 -1.08431 0 74 -1.08431 1
gene 1 25 33 -0.547402 0 75 -0.547402 1
gene 1 26 31 0.273209 0 76 0.273209 1
gene 1 26 32 0.998305 0 77 0.998305 1
gene 1 26 33 0.209299 0 78 0.209299 1
gene 1 27 31 -1.40179 0 79 -1.40179 1
gene 1 27 32 -0.0896392 0 80 -0.0896392 1
gene 1 27 33 0.338663 0 81 0.338663 1
gene 1 28 31 -0.814692 0 82 -0.814692 1
gene 1 28 32 -0.985637 0 83 -0.985637 1
gene 1 28 33 0.444649 0 84 0.444649 1
gene 1 29 31 1.5145 0 85 1.5145 1
gene 1 29 32 0.195237 0 86 0.195237 1
gene 1 29 33 1.15141 0 87 1.15141 1
gene 1 30 31 -0.305625 0 88 -0.305625 1
gene 1 30 32 1.06671 0 89 1.06671 1
gene 1 30 33 -0.805046 0 90 -0.805046 1
genomeend 4

/* Organism #5 Fitness: 10768.5 Error: 0 */
genomestart 5
trait 1 0.1 0.404857 0 0 0 0 0 0 
node 1 1 1 1
node 2 1 1 1
node 3 1 1 1
node 4 1 1 1
node 5 1 1 1
node 6 1 1 1
node 7 1 1 1
node 8 1 1 1
node 9 1 1 1
node 10 1 1 1
node 11 1 1 1
node 12 1 1 1
node 13 1 1 1
node 14 1 1 1
node 15 1 1 1
node 16 1 1 1
node 17 1 1 1
node 18 1 1 1
node 19 1 1 1
node 20 1 1 1
node 21 1 1 1
node 22 1 1 1
node 23 1 1 1
node 24 1 1 1
node 25 1 1 1
node 26 1 1 1
node 27 1 1 1
node 28 1 1 1
node 29 1 1 1
node 30 1 1 3
node 31 1 0 2
node 32 1 0 2
node 33 1 0 2
gene 1 1 31 -0.383153 0 1 -0.383153 1
gene 1 1 32 0.416698 0 2 0.416698 1
gene 1 1 33 -1.57553 0 3 -1.57553 1
gene 1 2 31 -4.58442 0 4 -4.58442 1
gene 1 2 32 -0.894097 0 5 -0.894097 1
gene 1 2 33 -0.909167 0 6 -0.909167 1
gene 1 3 31 -2.43112 0 7 -2.43112 1
gene 1 3 32 0.443866 0 8 0.443866 1
gene 1 3 33 0.231519 0 9 0.231519 1
gene 1 4 31 -2.34491 0 10 -2.34491 1
gene 1 4 32 -0.577765 0 11 -0.577765 1
gene 1 4 33 2.89251 0 12 2.89251 1
gene 1 5 31 -0.0981434 0 13 -0.0981434 1
gene 1 5 32 0.667422 0 14 0.667422 1
gene 1 5 33 2.04462 0 15 2.04462 1
gene 1 6 31 -1.90065 0 16 -1.90065 1
gene 1 6 32 -1.03594 0 17 -1.03594 1
gene 1 6 33 2.01141 0 18 2.01141 1
gene 1 7 31 -1.1171 0 19 -1.1171 1
gene 1 7 32 -0.206686 0 20 -0.206686 1
gene 1 7 33 2.66027 0 21 2.66027 1
gene 1 8 31 0.398636 0 22 0.398636 1
gene 1 8 32 0.350363 0 23 0.350363 1
gene 1 8 33 -4.12932 0 24 -4.12932 1
gene 1 9 31 5 0 25 5 1
gene 1 9 32 3.21858 0 26 3.21858 1
gene 1 9 33 4.04422 0 27 4.04422 1
gene 1 10 31 4.10745 0 28 4.10745 1
gene 1 10 32 -0.249218 0 29 -0.249218 1
gene 1 10 33 -0.482746 0 30 -0.482746 1
gene 1 11 31 2.81097 0 31 2.81097 1
gene 1 11 32 -0.241018 0 32 -0.241018 1
gene 1 11 33 -3.4651 0 33 -3.4651 1
gene 1 12 31 3.62806 0 34 3.62806 1
gene 1 12 32 1.65025 0 35 1.65025 1
gene 1 12 33 1.04717 0 36 1.04717 1
gene 1 13 31 0.734753 0 37 0.734753 1
gene 1 13 32 0.0273161 0 38 0.0273161 1
gene 1 13 33 0.616766 0 39 0.616766 1
gene 1 14 31 0.681965 0 40 0.681965 1
gene 1 14 32 -0.453314 0 41 -0.453314 1
gene 1 14 33 -0.445106 0 42 -0.445106 1
gene 1 15 31 -0.255934 0 43 -0.255934 1
gene 1 15 32 0.362819 0 44 0.362819 1
gene 1 15 33 -1.43229 0 45 -1.43229 1
gene 1 16 31 5 0 46 5 1
gene 1 16 32 -0.491014 0 47 -0.491014 1
gene 1 16 33 -1.11072 0 48 -1.11072 1
gene 1 17 31 0.513482 0 49 0.513482 1
gene 1 17 32 -0.405648 0 50 -0.405648 1
gene 1 17 33 0.65737 0 51 0.65737 1
gene 1 18 31 -1.45183 0 52 -1.45183 1
gene 1 18 32 -3.58657 0 53 -3.58657 1
gene 1 18 33 0.644298 0 54 0.644298 1
gene 1 19 31 -0.989792 0 55 -0.989792 1
gene 1 19 32 -1.34581 0 56 -1.34581 1
gene 1 19 33 1.70918 0 57 1.70918 1
gene 1 20 31 -0.8181 0 58 -0.8181 1
gene 1 20 32 -3.72084 0 59 -3.72084 1
gene 1 20 33 0.689585 0 60 0.689585 1
gene 1 21 31 1.57026 0 61 1.57026 1
gene 1 21 32 0.200809 0 62 0.200809 1
gene 1 21 33 -0.206949 0 63 -0.206949 1
gene 1 22 31 -0.547121 0 64 -0.547121 1
gene 1 22 32 0.908407 0 65 0.908407 1
gene 1 22 33 3.0757 0 66 3.0757 1
gene 1 23 31 1.31461 0 67 1.31461 1
gene 1 23 32 0.0876025 0 68 0.0876025 1
gene 1 23 33 -0.705773 0 69 -0.705773 1
gene 1 24 31 -0.443633 0 70 -0.443633 1
gene 1 24 32 -0.151918 0 71 -0.151918 1
gene 1 24 33 2.40868 0 72 2.40868 1
gene 1 25 31 0.960129 0 73 0.960129 1
gene 1 25 32 -1.26077 0 74 -1.26077 1
gene 1 25 33 -0.679492 0 75 -0.679492 1
gene 1 26 31 0.0132029 0 76 0.0132029 1
gene 1 26 32 -0.000962113 0 77 -0.000962113 1
gene 1 26 33 0.272571 0 78 0.272571 1
gene 1 27 31 0.308616 0 79 0.308616 1
gene 1 27 32 -0.977708 0 80 -0.977708 1
gene 1 27 33 -0.115168 0 81 -0.115168 1
gene 1 28 31 0.737462 0 82 0.737462 1
gene 1 28 32 0.491059 0 83 0.491059 1
gene 1 28 33 -0.47723 0 84 -0.47723 1
gene 1 29 31 1.60866 0 85 1.60866 1
gene 1 29 32 -0.33134 0 86 -0.33134 1
gene 1 29 33 -0.527584 0 87 -0.527584 1
gene 1 30 31 -0.059706 0 88 -0.059706 1
gene 1 30 32 1.09482 0 89 1.09482 1
gene 1 30 33 -1.55178 0 90 -1.55178 1
genomeend 5

/* Organism #6 Fitness: 13038 Error: 0 */
genomestart 6
trait 1 0.386924 0.404857 0 0.300106 0 0 0 0 
node 1 1 1 1
node 2 1 1 1
node 3 1 1 1
node 4 1 1 1
node 5 1 1 1
node 6 1 1 1
node 7 1 1 1
node 8 1 1 1
node 9 1 1 1
node 10 1 1 1
node 11 1 1 1
node 12 1 1 1
node 13 1 1 1
node 14 1 1 1
node 15 1 1 1
node 16 1 1 1
node 17 1 1 1
node 18 1 1 1
node 19 1 1 1
node 20 1 1 1
node 21 1 1 1
node 22 1 1 1
node 23 1 1 1
node 24 1 1 1
node 25 1 1 1
node 26 1 1 1
node 27 1 1 1
node 28 1 1 1
node 29 1 1 1
node 30 1 1 3
node 31 1 0 2
node 32 1 0 2
node 33 1 0 2
gene 1 1 31 -0.102729 0 1 -0.102729 1
gene 1 1 32 0.42066 0 2 0.42066 1
gene 1 1 33 1.06796 0 3 1.06796 1
gene 1 2 31 -2.53216 0 4 -2.53216 1
gene 1 2 32 -0.0241342 0 5 -0.0241342 1
gene 1 2 33 -2.97673 0 6 -2.97673 1
gene 1 3 31 -0.224813 0 7 -0.224813 1
gene 1 3 32 1.52883 0 8 1.52883 1
gene 1 3 33 2.19871 0 9 2.19871 1
gene 1 4 31 -0.987313 0 10 -0.987313 1
gene 1 4 32 -1.0447 0 11 -1.0447 1
gene 1 4 33 0.340028 0 12 0.340028 1
gene 1 5 31 1.41063 0 13 1.41063 1
gene 1 5 32 -2.71099 0 14 -2.71099 1
gene 1 5 33 3.29124 0 15 3.29124 1
gene 1 6 31 -1.02923 0 16 -1.02923 1
gene 1 6 32 2.0223 0 17 2.0223 1
gene 1 6 33 0.902279 0 18 0.902279 1
gene 1 7 31 -0.437989 0 19 -0.437989 1
gene 1 7 32 1.11173 0 20 1.11173 1
gene 1 7 33 2.28608 0 21 2.28608 1
gene 1 8 31 -1.81122 0 22 -1.81122 1
gene 1 8 32 1.39277 0 23 1.39277 1
gene 1 8 33 -2.9458 0 24 -2.9458 1
gene 1 9 31 4.99792 0 25 4.99792 1
gene 1 9 32 0.395239 0 26 0.395239 1
gene 1 9 33 1.24406 0 27 1.24406 1
gene 1 10 31 4.98823 0 28 4.98823 1
gene 1 10 32 0.203326 0 29 0.203326 1
gene 1 10 33 0.565366 0 30 0.565366 1
gene 1 11 31 0.989284 0 31 0.989284 1
gene 1 11 32 0.2368 0 32 0.2368 1
gene 1 11 33 -3.35099 0 33 -3.35099 1
gene 1 12 31 2.86085 0 34 2.86085 1
gene 1 12 32 -1.0484 0 35 -1.0484 1
gene 1 12 33 -1.54494 0 36 -1.54494 1
gene 1 13 31 -3.84221 0 37 -3.84221 1
gene 1 13 32 0.153178 0 38 0.153178 1
gene 1 13 33 1.07681 0 39 1.07681 1
gene 1 14 31 0.894583 0 40 0.894583 1
gene 1 14 32 -0.672574 0 41 -0.672574 1
gene 1 14 33 2.75014 0 42 2.75014 1
gene 1 15 31 1.49287 0 43 1.49287 1
gene 1 15 32 2.60788 0 44 2.60788 1
gene 1 15 33 0.240884 0 45 0.240884 1
gene 1 16 31 5 0 46 5 1
gene 1 16 32 2.90149 0 47 2.90149 1
gene 1 16 33 1.67514 0 48 1.67514 1
gene 1 17 31 -0.873711 0 49 -0.873711 1
gene 1 17 32 -0.141851 0 50 -0.141851 1
gene 1 17 33 0.798071 0 51 0.798071 1
gene 1 18 31 -0.233564 0 52 -0.233564 1
gene 1 18 32 -4.82604 0 53 -4.82604 1
gene 1 18 33 -0.758952 0 54 -0.758952 1
gene 1 19 31 -0.948362 0 55 -0.948362 1
gene 1 19 32 -0.221265 0 56 -0.221265 1
gene 1 19 33 -0.552743 0 57 -0.552743 1
gene 1 20 31 -0.754262 0 58 -0.754262 1
gene 1 20 32 -0.867162 0 59 -0.867162 1
gene 1 20 33 -1.7003 0 60 -1.7003 1
gene 1 21 31 1.95432 0 61 1.95432 1
gene 1 21 32 -1.34057 0 62 -1.34057 1
gene 1 21 33 -0.346552 0 63 -0.346552 1
gene 1 22 31 3.63227 0 64 3.63227 1
gene 1 22 32 0.129194 0 65 0.129194 1
gene 1 22 33 3.57476 0 66 3.57476 1
gene 1 23 31 0.800625 0 67 0.800625 1
gene 1 23 32 0.482581 0 68 0.482581 1
gene 1 23 33 2.96644 0 69 2.96644 1
gene 1 24 31 3.35189 0 70 3.35189 1
gene 1 24 32 -1.10723 0 71 -1.10723 1
gene 1 24 33 -0.593379 0 72 -0.593379 1
gene 1 25 31 0.800052 0 73 0.800052 1
gene 1 25 32 -1.05963 0 74 -1.05963 1
gene 1 25 33 -0.0736886 0 75 -0.0736886 1
gene 1 26 31 1.89673 0 76 1.89673 1
gene 1 26 32 0.0366476 0 77 0.0366476 1
gene 1 26 33 -1.60263 0 78 -1.60263 1
gene 1 27 31 -0.378222 0 79 -0.378222 1
gene 1 27 32 -1.09654 0 80 -1.09654 1
gene 1 27 33 0.37567 0 81 0.37567 1
gene 1 28 31 1.27709 0 82 1.27709 1
gene 1 28 32 -0.65509 0 83 -0.65509 1
gene 1 28 33 1.23401 0 84 1.23401 1
gene 1 29 31 -1.03634 0 85 -1.03634 1
gene 1 29 32 0.817559 0 86 0.817559 1
gene 1 29 33 -0.268162 0 87 -0.268162 1
gene 1 30 31 -0.156252 0 88 -0.156252 1
gene 1 30 32 -1.2654 0 89 -1.2654 1
gene 1 30 33 -0.723529 0 90 -0.723529 1
genomeend 6

/* Organism #7 Fitness: 12731.8 Error: 0 */
genomestart 7
trait 1 0.386924 0 0 0.540902 0 0 0 0 
node 1 1 1 1
node 2 1 1 1
node 3 1 1 1
node 4 1 1 1
node 5 1 1 1
node 6 1 1 1
node 7 1 1 1
node 8 1 1 1
node 9 1 1 1
node 10 1 1 1
node 11 1 1 1
node 12 1 1 1
node 13 1 1 1
node 14 1 1 1
node 15 1 1 1
node 16 1 1 1
node 17 1 1 1
node 18 1 1 1
node 19 1 1 1
node 20 1 1 1
node 21 1 1 1
node 22 1 1 1
node 23 1 1 1
node 24 1 1 1
node 25 1 1 1
node 26 1 1 1
node 27 1 1 1
node 28 1 1 1
node 29 1 1 1
node 30 1 1 3
node 31 1 0 2
node 32 1 0 2
node 33 1 0 2
gene 1 1 31 -1.89274 0 1 -1.89274 1
gene 1 1 32 -1.18789 0 2 -1.18789 1
gene 1 1 33 -4.30144 0 3 -4.30144 1
gene 1 2 31 -2.60493 0 4 -2.60493 1
gene 1 2 32 -1.98021 0 5 -1.98021 1
gene 1 2 33 -0.720928 0 6 -0.720928 1
gene 1 3 31 1.5869 0 7 1.5869 1
gene 1 3 32 -0.418272 0 8 -0.418272 1
gene 1 3 33 1.77918 0 9 1.77918 1
gene 1 4 31 -1.16184 0 10 -1.16184 1
gene 1 4 32 0.482673 0 11 0.482673 1
gene 1 4 33 0.846814 0 12 0.846814 1
gene 1 5 31 0.514925 0 13 0.514925 1
gene 1 5 32 -3.72702 0 14 -3.72702 1
gene 1 5 33 3.55584 0 15 3.55584 1
gene 1 6 31 1.00738 0 16 1.00738 1
gene 1 6 32 2.49884 0 17 2.49884 1
gene 1 6 33 0.883923 0 18 0.883923 1
gene 1 7 31 2.11875 0 19 2.11875 1
gene 1 7 32 0.202836 0 20 0.202836 1
gene 1 7 33 5 0 21 5 1
gene 1 8 31 -0.770486 0 22 -0.770486 1
gene 1 8 32 -2.92405 0 23 -2.92405 1
gene 1 8 33 -0.98788 0 24 -0.98788 1
gene 1 9 31 2.76274 0 25 2.76274 1
gene 1 9 32 -0.152917 0 26 -0.152917 1
gene 1 9 33 2.41473 0 27 2.41473 1
gene 1 10 31 5 0 28 5 1
gene 1 10 32 0.287829 0 29 0.287829 1
gene 1 10 33 -0.80354 0 30 -0.80354 1
gene 1 11 31 3.9646 0 31 3.9646 1
gene 1 11 32 -0.929752 0 32 -0.929752 1
gene 1 11 33 -2.72655 0 33 -2.72655 1
gene 1 12 31 3.81891 0 34 3.81891 1
gene 1 12 32 -2.60796 0 35 -2.60796 1
gene 1 12 33 0.513901 0 36 0.513901 1
gene 1 13 31 -4.46948 0 37 -4.46948 1
gene 1 13 32 -0.0471979 0 38 -0.0471979 1
gene 1 13 33 0.267992 0 39 0.267992 1
gene 1 14 31 -1.41461 0 40 -1.41461 1
gene 1 14 32 1.07797 0 41 1.07797 1
gene 1 14 33 1.85952 0 42 1.85952 1
gene 1 15 31 -0.211125 0 43 -0.211125 1
gene 1 15 32 2.28027 0 44 2.28027 1
gene 1 15 33 3.26969 0 45 3.26969 1
gene 1 16 31 4.9348 0 46 4.9348 1
gene 1 16 32 0.715198 0 47 0.715198 1
gene 1 16 33 0.182048 0 48 0.182048 1
gene 1 17 31 -2.26335 0 49 -2.26335 1
gene 1 17 32 0.715505 0 50 0.715505 1
gene 1 17 33 0.848565 0 51 0.848565 1
gene 1 18 31 -0.885229 0 52 -0.885229 1
gene 1 18 32 -5 0 53 -5 1
gene 1 18 33 1.5632 0 54 1.5632 1
gene 1 19 31 0.0096266 0 55 0.0096266 1
gene 1 19 32 -0.288577 0 56 -0.288577 1
gene 1 19 33 0.691679 0 57 0.691679 1
gene 1 20 31 -2.8804 0 58 -2.8804 1
gene 1 20 32 -0.0412913 0 59 -0.0412913 1
gene 1 20 33 0.00439615 0 60 0.00439615 1
gene 1 21 31 1.63084 0 61 1.63084 1
gene 1 21 32 -1.45229 0 62 -1.45229 1
gene 1 21 33 0.246188 0 63 0.246188 1
gene 1 22 31 0.465656 0 64 0.465656 1
gene 1 22 32 1.57793 0 65 1.57793 1
gene 1 22 33 0.765589 0 66 0.765589 1
gene 1 23 31 1.09875 0 67 1.09875 1
gene 1 23 32 -4.63132 0 68 -4.63132 1
gene 1 23 33 3.01815 0 69 3.01815 1
gene 1 24 31 4.3314 0 70 4.3314 1
gene 1 24 32 -0.185933 0 71 -0.185933 1
gene 1 24 33 0.482434 0 72 0.482434 1
gene 1 25 31 1.3885 0 73 1.3885 1
gene 1 25 32 -1.53451 0 74 -1.53451 1
gene 1 25 33 1.56186 0 75 1.56186 1
gene 1 26 31 0.670366 0 76 0.670366 1
gene 1 26 32 0.387805 0 77 0.387805 1
gene 1 26 33 1.06892 0 78 1.06892 1
gene 1 27 31 -0.720474 0 79 -0.720474 1
gene 1 27 32 0.307946 0 80 0.307946 1
gene 1 27 33 0.67061 0 81 0.67061 1
gene 1 28 31 -0.051534 0 82 -0.051534 1
gene 1 28 32 -0.758841 0 83 -0.758841 1
gene 1 28 33 0.0512932 0 84 0.0512932 1
gene 1 29 31 1.02132 0 85 1.02132 1
gene 1 29 32 -0.00936112 0 86 -0.00936112 1
gene 1 29 33 2.17165 0 87 2.17165 1
gene 1 30 31 0.197037 0 88 0.197037 1
gene 1 30 32 -0.420769 0 89 -0.420769 1
gene 1 30 33 0.892627 0 90 0.892627 1
genomeend 7

/* Organism #8 Fitness: 14313.9 Error: 0 */
genomestart 8
trait 1 0.1 0.404857 0 0 0 0 0 0 
node 1 1 1 1
node 2 1 1 1
node 3 1 1 1
node 4 1 1 1
node 5 1 1 1
node 6 1 1 1
node 7 1 1 1
node 8 1 1 1
node 9 1 1 1
node 10 1 1 1
node 11 1 1 1
node 12 1 1 1
node 13 1 1 1
node 14 1 1 1
node 15 1 1 1
node 16 1 1 1
node 17 1 1 1
node 18 1 1 1
node 19 1 1 1
node 20 1 1 1
node 21 1 1 1
node 22 1 1 1
node 23 1 1 1
node 24 1 1 1
node 25 1 1 1
node 26 1 1 1
node 27 1 1 1
node 28 1 1 1
node 29 1 1 1
node 30 1 1 3
node 31 1 0 2
node 32 1 0 2
node 33 1 0 2
gene 1 1 31 0.864637 0 1 0.864637 1
gene 1 1 32 0.0686566 0 2 0.0686566 1
gene 1 1 33 -2.83549 0 3 -2.83549 1
gene 1 2 31 -4.52836 0 4 -4.52836 1
gene 1 2 32 -0.912496 0 5 -0.912496 1
gene 1 2 33 -2.6804 0 6 -2.6804 1
gene 1 3 31 -4.08432 0 7 -4.08432 1
gene 1 3 32 0.798348 0 8 0.798348 1
gene 1 3 33 -0.650807 0 9 -0.650807 1
gene 1 4 31 -1.91909 0 10 -1.91909 1
gene 1 4 32 2.93338 0 11 2.93338 1
gene 1 4 33 1.25675 0 12 1.25675 1
gene 1 5 31 0.584112 0 13 0.584112 1
gene 1 5 32 1.02275 0 14 1.02275 1
gene 1 5 33 1.70196 0 15 1.70196 1
gene 1 6 31 -1.81103 0 16 -1.81103 1
gene 1 6 32 -1.4589 0 17 -1.4589 1
gene 1 6 33 3.0636 0 18 3.0636 1
gene 1 7 31 -2.70135 0 19 -2.70135 1
gene 1 7 32 -0.52979 0 20 -0.52979 1
gene 1 7 33 4.03556 0 21 4.03556 1
gene 1 8 31 1.42733 0 22 1.42733 1
gene 1 8 32 0.262454 0 23 0.262454 1
gene 1 8 33 -4.63074 0 24 -4.63074 1
gene 1 9 31 4.8533 0 25 4.8533 1
gene 1 9 32 2.827 0 26 2.827 1
gene 1 9 33 4.22884 0 27 4.22884 1
gene 1 10 31 4.82545 0 28 4.82545 1
gene 1 10 32 0.975967 0 29 0.975967 1
gene 1 10 33 2.46906 0 30 2.46906 1
gene 1 11 31 3.73203 0 31 3.73203 1
gene 1 11 32 -0.241018 0 32 -0.241018 1
gene 1 11 33 -2.83849 0 33 -2.83849 1
gene 1 12 31 2.74952 0 34 2.74952 1
gene 1 12 32 0.188636 0 35 0.188636 1
gene 1 12 33 0.0349529 0 36 0.0349529 1
gene 1 13 31 -3.49072 0 37 -3.49072 1
gene 1 13 32 -4.61579 0 38 -4.61579 1
gene 1 13 33 1.10397 0 39 1.10397 1
gene 1 14 31 0.63513 0 40 0.63513 1
gene 1 14 32 -1.26571 0 41 -1.26571 1
gene 1 14 33 2.5478 0 42 2.5478 1
gene 1 15 31 0.405803 0 43 0.405803 1
gene 1 15 32 1.85332 0 44 1.85332 1
gene 1 15 33 -1.3174 0 45 -1.3174 1
gene 1 16 31 4.17122 0 46 4.17122 1
gene 1 16 32 2.67408 0 47 2.67408 1
gene 1 16 33 -0.969275 0 48 -0.969275 1
gene 1 17 31 0.0261195 0 49 0.0261195 1
gene 1 17 32 -1.50889 0 50 -1.50889 1
gene 1 17 33 0.795641 0 51 0.795641 1
gene 1 18 31 -1.17828 0 52 -1.17828 1
gene 1 18 32 -3.25808 0 53 -3.25808 1
gene 1 18 33 1.19847 0 54 1.19847 1
gene 1 19 31 -0.153677 0 55 -0.153677 1
gene 1 19 32 -1.22726 0 56 -1.22726 1
gene 1 19 33 -2.04507 0 57 -2.04507 1
gene 1 20 31 -1.01977 0 58 -1.01977 1
gene 1 20 32 -3.61725 0 59 -3.61725 1
gene 1 20 33 0.945845 0 60 0.945845 1
gene 1 21 31 0.523332 0 61 0.523332 1
gene 1 21 32 0.861403 0 62 0.861403 1
gene 1 21 33 -0.711118 0 63 -0.711118 1
gene 1 22 31 1.02767 0 64 1.02767 1
gene 1 22 32 0.555755 0 65 0.555755 1
gene 1 22 33 2.58979 0 66 2.58979 1
gene 1 23 31 0.535532 0 67 0.535532 1
gene 1 23 32 -1.23308 0 68 -1.23308 1
gene 1 23 33 -0.170933 0 69 -0.170933 1
gene 1 24 31 3.06578 0 70 3.06578 1
gene 1 24 32 -0.0484642 0 71 -0.0484642 1
gene 1 24 33 2.77296 0 72 2.77296 1
gene 1 25 31 1.04693 0 73 1.04693 1
gene 1 25 32 -1.08431 0 74 -1.08431 1
gene 1 25 33 0.0976907 0 75 0.0976907 1
gene 1 26 31 1.2159 0 76 1.2159 1
gene 1 26 32 0.0274719 0 77 0.0274719 1
gene 1 26 33 0.148517 0 78 0.148517 1
gene 1 27 31 0.484445 0 79 0.484445 1
gene 1 27 32 -0.45596 0 80 -0.45596 1
gene 1 27 33 -0.645774 0 81 -0.645774 1
gene 1 28 31 0.326156 0 82 0.326156 1
gene 1 28 32 1.41639 0 83 1.41639 1
gene 1 28 33 -0.710715 0 84 -0.710715 1
gene 1 29 31 1.28186 0 85 1.28186 1
gene 1 29 32 0.70966 0 86 0.70966 1
gene 1 29 33 0.248059 0 87 0.248059 1
gene 1 30 31 -0.305625 0 88 -0.305625 1
gene 1 30 32 1.40404 0 89 1.40404 1
gene 1 30 33 -0.805046 0 90 -0.805046 1
genomeend 8

/* Organism #9 Fitness: 13233.7 Error: 0 */
genomestart 9
trait 1 0.386924 0.404857 0 0.300106 0 0 0 0 
node 1 1 1 1
node 2 1 1 1
node 3 1 1 1
node 4 1 1 1
node 5 1 1 1
node 6 1 1 1
node 7 1 1 1
node 8 1 1 1
node 9 1 1 1
node 10 1 1 1
node 11 1 1 1
node 12 1 1 1
node 13 1 1 1
node 14 1 1 1
node 15 1 1 1
node 16 1 1 1
node 17 1 1 1
node 18 1 1 1
node 19 1 1 1
node 20 1 1 1
node 21 1 1 1
node 22 1 1 1
node 23 1 1 1
node 24 1 1 1
node 25 1 1 1
node 26 1 1 1
node 27 1 1 1
node 28 1 1 1
node 29 1 1 1
node 30 1 1 3
node 31 1 0 2
node 32 1 0 2
node 33 1 0 2
gene 1 1 31 -0.853703 0 1 -0.853703 1
gene 1 1 32 1.3968 0 2 1.3968 1
gene 1 1 33 -1.62839 0 3 -1.62839 1
gene 1 2 31 -0.86017 0 4 -0.86017 1
gene 1 2 32 0.0623346 0 5 0.0623346 1
gene 1 2 33 -3.88901 0 6 -3.88901 1
gene 1 3 31 -3.37042 0 7 -3.37042 1
gene 1 3 32 -0.474634 0 8 -0.474634 1
gene 1 3 33 0.705074 0 9 0.705074 1
gene 1 4 31 -3.28572 0 10 -3.28572 1
gene 1 4 32 -1.13048 0 11 -1.13048 1
gene 1 4 33 2.49273 0 12 2.49273 1
gene 1 5 31 2.4461 0 13 2.4461 1
gene 1 5 32 -3.18789 0 14 -3.18789 1
gene 1 5 33 2.17673 0 15 2.17673 1
gene 1 6 31 -1.78616 0 16 -1.78616 1
gene 1 6 32 3.09674 0 17 3.09674 1
gene 1 6 33 0.564742 0 18 0.564742 1
gene 1 7 31 0.86441 0 19 0.86441 1
gene 1 7 32 -2.62378 0 20 -2.62378 1
gene 1 7 33 0.562636 0 21 0.562636 1
gene 1 8 31 -2.50657 0 22 -2.50657 1
gene 1 8 32 -3.61655 0 23 -3.61655 1
gene 1 8 33 -2.73304 0 24 -2.73304 1
gene 1 9 31 4.43731 0 25 4.43731 1
gene 1 9 32 1.36985 0 26 1.36985 1
gene 1 9 33 -0.0802938 0 27 -0.0802938 1
gene 1 10 31 4.0167 0 28 4.0167 1
gene 1 10 32 0.608677 0 29 0.608677 1
gene 1 10 33 0.211471 0 30 0.211471 1
gene 1 11 31 4.43859 0 31 4.43859 1
gene 1 11 32 -1.98266 0 32 -1.98266 1
gene 1 11 33 -1.56741 0 33 -1.56741 1
gene 1 12 31 1.85063 0 34 1.85063 1
gene 1 12 32 -1.4035 0 35 -1.4035 1
gene 1 12 33 0.0831254 0 36 0.0831254 1
gene 1 13 31 -4.28175 0 37 -4.28175 1
gene 1 13 32 -3.23319 0 38 -3.23319 1
gene 1 13 33 1.62738 0 39 1.62738 1
gene 1 14 31 1.42664 0 40 1.42664 1
gene 1 14 32 4.2562 0 41 4.2562 1
gene 1 14 33 1.23258 0 42 1.23258 1
gene 1 15 31 2.18511 0 43 2.18511 1
gene 1 15 32 0.993144 0 44 0.993144 1
gene 1 15 33 -0.676823 0 45 -0.676823 1
gene 1 16 31 5 0 46 5 1
gene 1 16 32 2.90449 0 47 2.90449 1
gene 1 16 33 -0.291593 0 48 -0.291593 1
gene 1 17 31 -0.0669539 0 49 -0.0669539 1
gene 1 17 32 0.170958 0 50 0.170958 1
gene 1 17 33 -0.850538 0 51 -0.850538 1
gene 1 18 31 0.145946 0 52 0.145946 1
gene 1 18 32 -3.88743 0 53 -3.88743 1
gene 1 18 33 -0.0429581 0 54 -0.0429581 1
gene 1 19 31 -2.28433 0 55 -2.28433 1
gene 1 19 32 2.33152 0 56 2.33152 1
gene 1 19 33 -1.30797 0 57 -1.30797 1
gene 1 20 31 0.217516 0 58 0.217516 1
gene 1 20 32 -1.76826 0 59 -1.76826 1
gene 1 20 33 -0.156078 0 60 -0.156078 1
gene 1 21 31 1.50135 0 61 1.50135 1
gene 1 21 32 -2.121 0 62 -2.121 1
gene 1 21 33 -2.1228 0 63 -2.1228 1
gene 1 22 31 4.4258 0 64 4.4258 1
gene 1 22 32 -0.594696 0 65 -0.594696 1
gene 1 22 33 1.10227 0 66 1.10227 1
gene 1 23 31 -0.627768 0 67 -0.627768 1
gene 1 23 32 -1.09384 0 68 -1.09384 1
gene 1 23 33 2.44609 0 69 2.44609 1
gene 1 24 31 1.31568 0 70 1.31568 1
gene 1 24 32 0.419063 0 71 0.419063 1
gene 1 24 33 3.02028 0 72 3.02028 1
gene 1 25 31 -0.592498 0 73 -0.592498 1
gene 1 25 32 -0.138955 0 74 -0.138955 1
gene 1 25 33 -1.04785 0 75 -1.04785 1
gene 1 26 31 -0.717394 0 76 -0.717394 1
gene 1 26 32 -0.289324 0 77 -0.289324 1
gene 1 26 33 -0.0721697 0 78 -0.0721697 1
gene 1 27 31 -1.46471 0 79 -1.46471 1
gene 1 27 32 -0.654848 0 80 -0.654848 1
gene 1 27 33 0.0204902 0 81 0.0204902 1
gene 1 28 31 -1.64468 0 82 -1.64468 1
gene 1 28 32 0.419909 0 83 0.419909 1
gene 1 28 33 1.54032 0 84 1.54032 1
gene 1 29 31 0.150604 0 85 0.150604 1
gene 1 29 32 -0.073292 0 86 -0.073292 1
gene 1 29 33 0.101426 0 87 0.101426 1
gene 1 30 31 -0.213854 0 88 -0.213854 1
gene 1 30 32 -1.31569 0 89 -1.31569 1
gene 1 30 33 1.61018 0 90 1.61018 1
genomeend 9

/* Organism #10 Fitness: 13840.3 Error: 0 */
genomestart 10
trait 1 0.1 0.404857 0 0 0 0 0 0 
node 1 1 1 1
node 2 1 1 1
node 3 1 1 1
node 4 1 1 1
node 5 1 1 1
node 6 1 1 1
node 7 1 1 1
node 8 1 1 1
node 9 1 1 1
node 10 1 1 1
node 11 1 1 1
node 12 1 1 1
node 13 1 1 1
node 14 1 1 1
node 15 1 1 1
node 16 1 1 1
node 17 1 1 1
node 18 1 1 1
node 19 1 1 1
node 20 1 1 1
node 21 1 1 1
node 22 1 1 1
node 23 1 1 1
node 24 1 1 1
node 25 1 1 1
node 26 1 1 1
node 27 1 1 1
node 28 1 1 1
node 29 1 1 1
node 30 1 1 3
node 31 1 0 2
node 32 1 0 2
node 33 1 0 2
gene 1 1 31 -0.247973 0 1 -0.247973 1
gene 1 1 32 -1.20163 0 2 -1.20163 1
gene 1 1 33 -2.20576 0 3 -2.20576 1
gene 1 2 31 -5 0 4 -5 1
gene 1 2 32 -0.141746 0 5 -0.141746 1
gene 1 2 33 -3.26388 0 6 -3.26388 1
gene 1 3 31 -3.22905 0 7 -3.22905 1
gene 1 3 32 0.829836 0 8 0.829836 1
gene 1 3 33 1.05955 0 9 1.05955 1
gene 1 4 31 -1.53261 0 10 -1.53261 1
gene 1 4 32 2.78654 0 11 2.78654 1
gene 1 4 33 2.43706 0 12 2.43706 1
gene 1 5 31 0.750526 0 13 0.750526 1
gene 1 5 32 0.928693 0 14 0.928693 1
gene 1 5 33 0.615049 0 15 0.615049 1
gene 1 6 31 -1.99424 0 16 -1.99424 1
gene 1 6 32 -0.719467 0 17 -0.719467 1
gene 1 6 33 2.99228 0 18 2.99228 1
gene 1 7 31 -1.07797 0 19 -1.07797 1
gene 1 7 32 -1.27502 0 20 -1.27502 1
gene 1 7 33 4.06253 0 21 4.06253 1
gene 1 8 31 0.690883 0 22 0.690883 1
gene 1 8 32 -0.026255 0 23 -0.026255 1
gene 1 8 33 -2.70908 0 24 -2.70908 1
gene 1 9 31 4.44926 0 25 4.44926 1
gene 1 9 32 3.26707 0 26 3.26707 1
gene 1 9 33 2.77235 0 27 2.77235 1
gene 1 10 31 5 0 28 5 1
gene 1 10 32 1.96272 0 29 1.96272 1
gene 1 10 33 4.02962 0 30 4.02962 1
gene 1 11 31 3.85463 0 31 3.85463 1
gene 1 11 32 -0.583571 0 32 -0.583571 1
gene 1 11 33 -4.56864 0 33 -4.56864 1
gene 1 12 31 4.0895 0 34 4.0895 1
gene 1 12 32 1.55958 0 35 1.55958 1
gene 1 12 33 -0.979877 0 36 -0.979877 1
gene 1 13 31 -4.35416 0 37 -4.35416 1
gene 1 13 32 -3.69894 0 38 -3.69894 1
gene 1 13 33 2.21456 0 39 2.21456 1
gene 1 14 31 0.520854 0 40 0.520854 1
gene 1 14 32 -1.03739 0 41 -1.03739 1
gene 1 14 33 2.20399 0 42 2.20399 1
gene 1 15 31 0.786753 0 43 0.786753 1
gene 1 15 32 0.996318 0 44 0.996318 1
gene 1 15 33 -1.72045 0 45 -1.72045 1
gene 1 16 31 4.86535 0 46 4.86535 1
gene 1 16 32 2.50494 0 47 2.50494 1
gene 1 16 33 -1.15022 0 48 -1.15022 1
gene 1 17 31 -0.122766 0 49 -0.122766 1
gene 1 17 32 -0.272571 0 50 -0.272571 1
gene 1 17 33 1.13804 0 51 1.13804 1
gene 1 18 31 -0.362059 0 52 -0.362059 1
gene 1 18 32 -3.71227 0 53 -3.71227 1
gene 1 18 33 1.48611 0 54 1.48611 1
gene 1 19 31 -0.570132 0 55 -0.570132 1
gene 1 19 32 -0.439258 0 56 -0.439258 1
gene 1 19 33 -1.73396 0 57 -1.73396 1
gene 1 20 31 -1.81262 0 58 -1.81262 1
gene 1 20 32 -4.39893 0 59 -4.39893 1
gene 1 20 33 1.98582 0 60 1.98582 1
gene 1 21 31 0.541139 0 61 0.541139 1
gene 1 21 32 2.08595 0 62 2.08595 1
gene 1 21 33 -1.71631 0 63 -1.71631 1
gene 1 22 31 0.0849257 0 64 0.0849257 1
gene 1 22 32 -0.23795 0 65 -0.23795 1
gene 1 22 33 2.45123 0 66 2.45123 1
gene 1 23 31 1.0707 0 67 1.0707 1
gene 1 23 32 0.672885 0 68 0.672885 1
gene 1 23 33 1.01874 0 69 1.01874 1
gene 1 24 31 2.11198 0 70 2.11198 1
gene 1 24 32 -0.802846 0 71 -0.802846 1
gene 1 24 33 1.6962 0 72 1.6962 1
gene 1 25 31 2.04531 0 73 2.04531 1
gene 1 25 32 -0.760108 0 74 -0.760108 1
gene 1 25 33 -0.268443 0 75 -0.268443 1
gene 1 26 31 -0.73641 0 76 -0.73641 1
gene 1 26 32 0.862961 0 77 0.862961 1
gene 1 26 33 -0.639376 0 78 -0.639376 1
gene 1 27 31 -0.836459 0 79 -0.836459 1
gene 1 27 32 -1.22728 0 80 -1.22728 1
gene 1 27 33 -0.524857 0 81 -0.524857 1
gene 1 28 31 0.543815 0 82 0.543815 1
gene 1 28 32 -0.0141243 0 83 -0.0141243 1
gene 1 28 33 0.0359493 0 84 0.0359493 1
gene 1 29 31 1.06551 0 85 1.06551 1
gene 1 29 32 -0.885614 0 86 -0.885614 1
gene 1 29 33 -0.570082 0 87 -0.570082 1
gene 1 30 31 -0.48156 0 88 -0.48156 1
gene 1 30 32 0.358663 0 89 0.358663 1
gene 1 30 33 -0.00538626 0 90 -0.00538626 1
genomeend 10

/* Organism #11 Fitness: 11545.1 Error: 0 */
genomestart 11
trait 1 0.386924 0.404857 0 0.300106 0 0 0 0 
node 1 1 1 1
node 2 1 1 1
node 3 1 1 1
node 4 1 1 1
node 5 1 1 1
node 6 1 1 1
node 7 1 1 1
node 8 1 1 1
node 9 1 1 1
node 10 1 1 1
node 11 1 1 1
node 12 1 1 1
node 13 1 1 1
node 14 1 1 1
node 15 1 1 1
node 16 1 1 1
node 17 1 1 1
node 18 1 1 1
node 19 1 1 1
node 20 1 1 1
node 21 1 1 1
node 22 1 1 1
node 23 1 1 1
node 24 1 1 1
node 25 1 1 1
node 26 1 1 1
node 27 1 1 1
node 28 1 1 1
node 29 1 1 1
node 30 1 1 3
node 31 1 0 2
node 32 1 0 2
node 33 1 0 2
gene 1 1 31 -0.074672 0 1 -0.074672 1
gene 1 1 32 0.707074 0 2 0.707074 1
gene 1 1 33 1.79478 0 3 1.79478 1
gene 1 2 31 -1.60571 0 4 -1.60571 1
gene 1 2 32 0.0599592 0 5 0.0599592 1
gene 1 2 33 -2.50709 0 6 -2.50709 1
gene 1 3 31 -0.36865 0 7 -0.36865 1
gene 1 3 32 2.22318 0 8 2.22318 1
gene 1 3 33 2.91183 0 9 2.91183 1
gene 1 4 31 -1.84953 0 10 -1.84953 1
gene 1 4 32 -1.10186 0 11 -1.10186 1
gene 1 4 33 1.12616 0 12 1.12616 1
gene 1 5 31 1.61194 0 13 1.61194 1
gene 1 5 32 -3.44954 0 14 -3.44954 1
gene 1 5 33 3.1943 0 15 3.1943 1
gene 1 6 31 -0.829572 0 16 -0.829572 1
gene 1 6 32 2.62485 0 17 2.62485 1
gene 1 6 33 1.72931 0 18 1.72931 1
gene 1 7 31 -0.774467 0 19 -0.774467 1
gene 1 7 32 0.770796 0 20 0.770796 1
gene 1 7 33 1.86639 0 21 1.86639 1
gene 1 8 31 -0.990162 0 22 -0.990162 1
gene 1 8 32 1.32168 0 23 1.32168 1
gene 1 8 33 -3.10435 0 24 -3.10435 1
gene 1 9 31 4.08175 0 25 4.08175 1
gene 1 9 32 0.801074 0 26 0.801074 1
gene 1 9 33 0.431369 0 27 0.431369 1
gene 1 10 31 4.4904 0 28 4.4904 1
gene 1 10 32 -0.620809 0 29 -0.620809 1
gene 1 10 33 -0.280854 0 30 -0.280854 1
gene 1 11 31 1.15198 0 31 1.15198 1
gene 1 11 32 0.732254 0 32 0.732254 1
gene 1 11 33 -2.88359 0 33 -2.88359 1
gene 1 12 31 3.44873 0 34 3.44873 1
gene 1 12 32 -1.32584 0 35 -1.32584 1
gene 1 12 33 -1.88317 0 36 -1.88317 1
gene 1 13 31 -4.00133 0 37 -4.00133 1
gene 1 13 32 -0.731753 0 38 -0.731753 1
gene 1 13 33 1.72005 0 39 1.72005 1
gene 1 14 31 0.412314 0 40 0.412314 1
gene 1 14 32 -1.43201 0 41 -1.43201 1
gene 1 14 33 2.26275 0 42 2.26275 1
gene 1 15 31 2.41178 0 43 2.41178 1
gene 1 15 32 2.05574 0 44 2.05574 1
gene 1 15 33 0.239487 0 45 0.239487 1
gene 1 16 31 5 0 46 5 1
gene 1 16 32 3.65144 0 47 3.65144 1
gene 1 16 33 0.9211 0 48 0.9211 1
gene 1 17 31 -1.50892 0 49 -1.50892 1
gene 1 17 32 -0.58508 0 50 -0.58508 1
gene 1 17 33 -0.112688 0 51 -0.112688 1
gene 1 18 31 -0.893918 0 52 -0.893918 1
gene 1 18 32 -4.56019 0 53 -4.56019 1
gene 1 18 33 -0.228945 0 54 -0.228945 1
gene 1 19 31 -1.73322 0 55 -1.73322 1
gene 1 19 32 -0.635751 0 56 -0.635751 1
gene 1 19 33 0.146089 0 57 0.146089 1
gene 1 20 31 -0.232414 0 58 -0.232414 1
gene 1 20 32 -1.35435 0 59 -1.35435 1
gene 1 20 33 -1.86258 0 60 -1.86258 1
gene 1 21 31 2.91476 0 61 2.91476 1
gene 1 21 32 -2.17998 0 62 -2.17998 1
gene 1 21 33 -1.22748 0 63 -1.22748 1
gene 1 22 31 4.60888 0 64 4.60888 1
gene 1 22 32 0.257905 0 65 0.257905 1
gene 1 22 33 4.15185 0 66 4.15185 1
gene 1 23 31 0.355425 0 67 0.355425 1
gene 1 23 32 0.530931 0 68 0.530931 1
gene 1 23 33 2.58795 0 69 2.58795 1
gene 1 24 31 2.62801 0 70 2.62801 1
gene 1 24 32 -0.555039 0 71 -0.555039 1
gene 1 24 33 -0.814243 0 72 -0.814243 1
gene 1 25 31 1.56275 0 73 1.56275 1
gene 1 25 32 0.339781 0 74 0.339781 1
gene 1 25 33 0.330365 0 75 0.330365 1
gene 1 26 31 -0.615871 0 76 -0.615871 1
gene 1 26 32 -0.636985 0 77 -0.636985 1
gene 1 26 33 -1.58715 0 78 -1.58715 1
gene 1 27 31 0.23337 0 79 0.23337 1
gene 1 27 32 -1.09654 0 80 -1.09654 1
gene 1 27 33 0.294821 0 81 0.294821 1
gene 1 28 31 1.27709 0 82 1.27709 1
gene 1 28 32 -0.00379999 0 83 -0.00379999 1
gene 1 28 33 0.651425 0 84 0.651425 1
gene 1 29 31 -1.77106 0 85 -1.77106 1
gene 1 29 32 0.796706 0 86 0.796706 1
gene 1 29 33 -1.1752 0 87 -1.1752 1
gene 1 30 31 -0.156252 0 88 -0.156252 1
gene 1 30 32 -1.2654 0 89 -1.2654 1
gene 1 30 33 -0.532454 0 90 -0.532454 1
genomeend 11

/* Organism #12 Fitness: 14752.7 Error: 0 */
genomestart 12
trait 1 0.386924 0.404857 0 0.300106 0 0 0 0 
node 1 1 1 1
node 2 1 1 1
node 3 1 1 1
node 4 1 1 1
node 5 1 1 1
node 6 1 1 1
node 7 1 1 1
node 8 1 1 1
node 9 1 1 1
node 10 1 1 1
node 11 1 1 1
node 12 1 1 1
node 13 1 1 1
node 14 1 1 1
node 15 1 1 1
node 16 1 1 1
node 17 1 1 1
node 18 1 1 1
node 19 1 1 1
node 20 1 1 1
node 21 1 1 1
node 22 1 1 1
node 23 1 1 1
node 24 1 1 1
node 25 1 1 1
node 26 1 1 1
node 27 1 1 1
node 28 1 1 1
node 29 1 1 1
node 30 1 1 3
node 31 1 0 2
node 32 1 0 2
node 33 1 0 2
gene 1 1 31 0.640668 0 1 0.640668 1
gene 1 1 32 -0.886483 0 2 -0.886483 1
gene 1 1 33 0.790436 0 3 0.790436 1
gene 1 2 31 0.680006 0 4 0.680006 1
gene 1 2 32 -1.28075 0 5 -1.28075 1
gene 1 2 33 -3.63339 0 6 -3.63339 1
gene 1 3 31 -2.40152 0 7 -2.40152 1
gene 1 3 32 -1.28561 0 8 -1.28561 1
gene 1 3 33 -0.234093 0 9 -0.234093 1
gene 1 4 31 1.41139 0 10 1.41139 1
gene 1 4 32 -1.25377 0 11 -1.25377 1
gene 1 4 33 1.50439 0 12 1.50439 1
gene 1 5 31 3.08937 0 13 3.08937 1
gene 1 5 32 -4.30046 0 14 -4.30046 1
gene 1 5 33 1.30012 0 15 1.30012 1
gene 1 6 31 -0.080767 0 16 -0.080767 1
gene 1 6 32 0.176079 0 17 0.176079 1
gene 1 6 33 1.15867 0 18 1.15867 1
gene 1 7 31 -0.396007 0 19 -0.396007 1
gene 1 7 32 -0.246693 0 20 -0.246693 1
gene 1 7 33 1.52057 0 21 1.52057 1
gene 1 8 31 -2.25106 0 22 -2.25106 1
gene 1 8 32 -4.84793 0 23 -4.84793 1
gene 1 8 33 -2.59143 0 24 -2.59143 1
gene 1 9 31 4.94986 0 25 4.94986 1
gene 1 9 32 -0.151643 0 26 -0.151643 1
gene 1 9 33 3.2781 0 27 3.2781 1
gene 1 10 31 3.467 0 28 3.467 1
gene 1 10 32 -0.13659 0 29 -0.13659 1
gene 1 10 33 0.84799 0 30 0.84799 1
gene 1 11 31 3.87322 0 31 3.87322 1
gene 1 11 32 -1.24788 0 32 -1.24788 1
gene 1 11 33 -1.05238 0 33 -1.05238 1
gene 1 12 31 -0.738492 0 34 -0.738492 1
gene 1 12 32 -2.33776 0 35 -2.33776 1
gene 1 12 33 -0.658369 0 36 -0.658369 1
gene 1 13 31 -4.85377 0 37 -4.85377 1
gene 1 13 32 -4.15493 0 38 -4.15493 1
gene 1 13 33 -0.199537 0 39 -0.199537 1
gene 1 14 31 4.36345 0 40 4.36345 1
gene 1 14 32 3.026 0 41 3.026 1
gene 1 14 33 2.56325 0 42 2.56325 1
gene 1 15 31 2.53984 0 43 2.53984 1
gene 1 15 32 1.74591 0 44 1.74591 1
gene 1 15 33 -0.103914 0 45 -0.103914 1
gene 1 16 31 3.45103 0 46 3.45103 1
gene 1 16 32 3.25926 0 47 3.25926 1
gene 1 16 33 -0.132487 0 48 -0.132487 1
gene 1 17 31 -2.01138 0 49 -2.01138 1
gene 1 17 32 1.14312 0 50 1.14312 1
gene 1 17 33 1.02901 0 51 1.02901 1
gene 1 18 31 -0.105961 0 52 -0.105961 1
gene 1 18 32 -3.5245 0 53 -3.5245 1
gene 1 18 33 3.09086 0 54 3.09086 1
gene 1 19 31 0.0629227 0 55 0.0629227 1
gene 1 19 32 1.76434 0 56 1.76434 1
gene 1 19 33 -0.0368737 0 57 -0.0368737 1
gene 1 20 31 -2.57489 0 58 -2.57489 1
gene 1 20 32 -3.39321 0 59 -3.39321 1
gene 1 20 33 -2.0176 0 60 -2.0176 1
gene 1 21 31 2.51858 0 61 2.51858 1
gene 1 21 32 0.760118 0 62 0.760118 1
gene 1 21 33 -3.34406 0 63 -3.34406 1
gene 1 22 31 3.50997 0 64 3.50997 1
gene 1 22 32 0.313174 0 65 0.313174 1
gene 1 22 33 0.0644303 0 66 0.0644303 1
gene 1 23 31 -0.38473 0 67 -0.38473 1
gene 1 23 32 -2.37627 0 68 -2.37627 1
gene 1 23 33 2.94626 0 69 2.94626 1
gene 1 24 31 2.48436 0 70 2.48436 1
gene 1 24 32 -1.23004 0 71 -1.23004 1
gene 1 24 33 -0.549524 0 72 -0.549524 1
gene 1 25 31 2.36573 0 73 2.36573 1
gene 1 25 32 0.79769 0 74 0.79769 1
gene 1 25 33 -0.208391 0 75 -0.208391 1
gene 1 26 31 -0.954369 0 76 -0.954369 1
gene 1 26 32 0.537171 0 77 0.537171 1
gene 1 26 33 -3.74095 0 78 -3.74095 1
gene 1 27 31 -0.0735805 0 79 -0.0735805 1
gene 1 27 32 0.23244 0 80 0.23244 1
gene 1 27 33 -1.84189 0 81 -1.84189 1
gene 1 28 31 0.646125 0 82 0.646125 1
gene 1 28 32 -2.19051 0 83 -2.19051 1
gene 1 28 33 -0.380439 0 84 -0.380439 1
gene 1 29 31 0.0640485 0 85 0.0640485 1
gene 1 29 32 -0.393924 0 86 -0.393924 1
gene 1 29 33 0.12987 0 87 0.12987 1
gene 1 30 31 -0.21478 0 88 -0.21478 1
gene 1 30 32 -0.702763 0 89 -0.702763 1
gene 1 30 33 0.690683 0 90 0.690683 1
genomeend 12

/* Organism #13 Fitness: 12204.9 Error: 0 */
genomestart 13
trait 1 0.1 0.404857 0 0 0 0 0 0 
node 1 1 1 1
node 2 1 1 1
node 3 1 1 1
node 4 1 1 1
node 5 1 1 1
node 6 1 1 1
node 7 1 1 1
node 8 1 1 1
node 9 1 1 1
node 10 1 1 1
node 11 1 1 1
node 12 1 1 1
node 13 1 1 1
node 14 1 1 1
node 15 1 1 1
node 16 1 1 1
node 17 1 1 1
node 18 1 1 1
node 19 1 1 1
node 20 1 1 1
node 21 1 1 1
node 22 1 1 1
node 23 1 1 1
node 24 1 1 1
node 25 1 1 1
node 26 1 1 1
node 27 1 1 1
node 28 1 1 1
node 29 1 1 1
node 30 1 1 3
node 31 1 0 2
node 32 1 0 2
node 33 1 0 2
gene 1 1 31 0.880917 0 1 0.880917 1
gene 1 1 32 -0.0537081 0 2 -0.0537081 1
gene 1 1 33 -2.90181 0 3 -2.90181 1
gene 1 2 31 -4.72509 0 4 -4.72509 1
gene 1 2 32 -0.432266 0 5 -0.432266 1
gene 1 2 33 -1.77684 0 6 -1.77684 1
gene 1 3 31 -5 0 7 -5 1
gene 1 3 32 0.49985 0 8 0.49985 1
gene 1 3 33 -0.749638 0 9 -0.749638 1
gene 1 4 31 -3.53058 0 10 -3.53058 1
gene 1 4 32 2.96481 0 11 2.96481 1
gene 1 4 33 1.43567 0 12 1.43567 1
gene 1 5 31 1.09818 0 13 1.09818 1
gene 1 5 32 -0.612561 0 14 -0.612561 1
gene 1 5 33 1.96992 0 15 1.96992 1
gene 1 6 31 -2.29336 0 16 -2.29336 1
gene 1 6 32 -2.02293 0 17 -2.02293 1
gene 1 6 33 4.08565 0 18 4.08565 1
gene 1 7 31 -2.49625 0 19 -2.49625 1
gene 1 7 32 -0.230509 0 20 -0.230509 1
gene 1 7 33 3.94011 0 21 3.94011 1
gene 1 8 31 3.29663 0 22 3.29663 1
gene 1 8 32 -0.600457 0 23 -0.600457 1
gene 1 8 33 -4.13709 0 24 -4.13709 1
gene 1 9 31 4.64908 0 25 4.64908 1
gene 1 9 32 3.65044 0 26 3.65044 1
gene 1 9 33 3.28199 0 27 3.28199 1
gene 1 10 31 4.41431 0 28 4.41431 1
gene 1 10 32 1.06112 0 29 1.06112 1
gene 1 10 33 2.71006 0 30 2.71006 1
gene 1 11 31 5 0 31 5 1
gene 1 11 32 -1.93016 0 32 -1.93016 1
gene 1 11 33 -3.03955 0 33 -3.03955 1
gene 1 12 31 1.36076 0 34 1.36076 1
gene 1 12 32 1.486 0 35 1.486 1
gene 1 12 33 -0.504933 0 36 -0.504933 1
gene 1 13 31 -2.43972 0 37 -2.43972 1
gene 1 13 32 -4.7296 0 38 -4.7296 1
gene 1 13 33 1.99804 0 39 1.99804 1
gene 1 14 31 0.838531 0 40 0.838531 1
gene 1 14 32 -0.119947 0 41 -0.119947 1
gene 1 14 33 2.70466 0 42 2.70466 1
gene 1 15 31 0.305827 0 43 0.305827 1
gene 1 15 32 1.27884 0 44 1.27884 1
gene 1 15 33 -2.02452 0 45 -2.02452 1
gene 1 16 31 3.29728 0 46 3.29728 1
gene 1 16 32 4.06714 0 47 4.06714 1
gene 1 16 33 -0.382325 0 48 -0.382325 1
gene 1 17 31 -1.06933 0 49 -1.06933 1
gene 1 17 32 -0.672234 0 50 -0.672234 1
gene 1 17 33 -0.793616 0 51 -0.793616 1
gene 1 18 31 -0.627893 0 52 -0.627893 1
gene 1 18 32 -3.00791 0 53 -3.00791 1
gene 1 18 33 2.23233 0 54 2.23233 1
gene 1 19 31 0.120178 0 55 0.120178 1
gene 1 19 32 -2.8987 0 56 -2.8987 1
gene 1 19 33 -1.23777 0 57 -1.23777 1
gene 1 20 31 -1.74254 0 58 -1.74254 1
gene 1 20 32 -3.05969 0 59 -3.05969 1
gene 1 20 33 0.178687 0 60 0.178687 1
gene 1 21 31 1.23549 0 61 1.23549 1
gene 1 21 32 0.126789 0 62 0.126789 1
gene 1 21 33 -1.4387 0 63 -1.4387 1
gene 1 22 31 1.25046 0 64 1.25046 1
gene 1 22 32 0.0478262 0 65 0.0478262 1
gene 1 22 33 2.6811 0 66 2.6811 1
gene 1 23 31 0.982897 0 67 0.982897 1
gene 1 23 32 -2.60233 0 68 -2.60233 1
gene 1 23 33 -1.2538 0 69 -1.2538 1
gene 1 24 31 3.44703 0 70 3.44703 1
gene 1 24 32 0.363186 0 71 0.363186 1
gene 1 24 33 2.42176 0 72 2.42176 1
gene 1 25 31 1.20563 0 73 1.20563 1
gene 1 25 32 -1.08431 0 74 -1.08431 1
gene 1 25 33 0.178751 0 75 0.178751 1
gene 1 26 31 1.55793 0 76 1.55793 1
gene 1 26 32 -0.742552 0 77 -0.742552 1
gene 1 26 33 0.148517 0 78 0.148517 1
gene 1 27 31 -0.789308 0 79 -0.789308 1
gene 1 27 32 -0.170252 0 80 -0.170252 1
gene 1 27 33 -0.804467 0 81 -0.804467 1
gene 1 28 31 2.26321 0 82 2.26321 1
gene 1 28 32 0.00187983 0 83 0.00187983 1
gene 1 28 33 1.3933 0 84 1.3933 1
gene 1 29 31 1.85476 0 85 1.85476 1
gene 1 29 32 0.195237 0 86 0.195237 1
gene 1 29 33 1.15141 0 87 1.15141 1
gene 1 30 31 -0.110409 0 88 -0.110409 1
gene 1 30 32 1.14584 0 89 1.14584 1
gene 1 30 33 -0.805046 0 90 -0.805046 1
genomeend 13

/* Organism #14 Fitness: 14277.9 Error: 0 */
genomestart 14
trait 1 0.1 0.404857 0 0 0 0 0 0 
node 1 1 1 1
node 2 1 1 1
node 3 1 1 1
node 4 1 1 1
node 5 1 1 1
node 6 1 1 1
node 7 1 1 1
node 8 1 1 1
node 9 1 1 1
node 10 1 1 1
node 11 1 1 1
node 12 1 1 1
node 13 1 1 1
node 14 1 1 1
node 15 1 1 1
node 16 1 1 1
node 17 1 1 1
node 18 1 1 1
node 19 1 1 1
node 20 1 1 1
node 21 1 1 1
node 22 1 1 1
node 23 1 1 1
node 24 1 1 1
node 25 1 1 1
node 26 1 1 1
node 27 1 1 1
node 28 1 1 1
node 29 1 1 1
node 30 1 1 3
node 31 1 0 2
node 32 1 0 2
node 33 1 0 2
gene 1 1 31 -1.23858 0 1 -1.23858 1
gene 1 1 32 -0.426859 0 2 -0.426859 1
gene 1 1 33 -2.93091 0 3 -2.93091 1
gene 1 2 31 -4.43266 0 4 -4.43266 1
gene 1 2 32 -0.8678 0 5 -0.8678 1
gene 1 2 33 -2.4351 0 6 -2.4351 1
gene 1 3 31 -2.82823 0 7 -2.82823 1
gene 1 3 32 0.801928 0 8 0.801928 1
gene 1 3 33 1.89604 0 9 1.89604 1
gene 1 4 31 -1.19246 0 10 -1.19246 1
gene 1 4 32 3.54948 0 11 3.54948 1
gene 1 4 33 -0.894136 0 12 -0.894136 1
gene 1 5 31 1.01068 0 13 1.01068 1
gene 1 5 32 0.415312 0 14 0.415312 1
gene 1 5 33 0.337773 0 15 0.337773 1
gene 1 6 31 -0.835283 0 16 -0.835283 1
gene 1 6 32 0.140231 0 17 0.140231 1
gene 1 6 33 3.60612 0 18 3.60612 1
gene 1 7 31 -0.0876143 0 19 -0.0876143 1
gene 1 7 32 -2.24337 0 20 -2.24337 1
gene 1 7 33 3.232 0 21 3.232 1
gene 1 8 31 0.841421 0 22 0.841421 1
gene 1 8 32 0.148135 0 23 0.148135 1
gene 1 8 33 0.060064 0 24 0.060064 1
gene 1 9 31 5 0 25 5 1
gene 1 9 32 3.29033 0 26 3.29033 1
gene 1 9 33 0.801559 0 27 0.801559 1
gene 1 10 31 5 0 28 5 1
gene 1 10 32 1.99794 0 29 1.99794 1
gene 1 10 33 3.81963 0 30 3.81963 1
gene 1 11 31 4.70519 0 31 4.70519 1
gene 1 11 32 0.363969 0 32 0.363969 1
gene 1 11 33 -4.84434 0 33 -4.84434 1
gene 1 12 31 4.0895 0 34 4.0895 1
gene 1 12 32 1.1912 0 35 1.1912 1
gene 1 12 33 -1.54791 0 36 -1.54791 1
gene 1 13 31 -5 0 37 -5 1
gene 1 13 32 -3.69894 0 38 -3.69894 1
gene 1 13 33 2.21456 0 39 2.21456 1
gene 1 14 31 -0.89444 0 40 -0.89444 1
gene 1 14 32 -0.895543 0 41 -0.895543 1
gene 1 14 33 2.20399 0 42 2.20399 1
gene 1 15 31 1.34435 0 43 1.34435 1
gene 1 15 32 0.623488 0 44 0.623488 1
gene 1 15 33 -0.444308 0 45 -0.444308 1
gene 1 16 31 4.91465 0 46 4.91465 1
gene 1 16 32 2.52803 0 47 2.52803 1
gene 1 16 33 -0.924835 0 48 -0.924835 1
gene 1 17 31 0.14724 0 49 0.14724 1
gene 1 17 32 -0.419885 0 50 -0.419885 1
gene 1 17 33 1.9637 0 51 1.9637 1
gene 1 18 31 -0.497633 0 52 -0.497633 1
gene 1 18 32 -3.48468 0 53 -3.48468 1
gene 1 18 33 1.21002 0 54 1.21002 1
gene 1 19 31 -0.341155 0 55 -0.341155 1
gene 1 19 32 -0.356568 0 56 -0.356568 1
gene 1 19 33 -1.38837 0 57 -1.38837 1
gene 1 20 31 -1.92241 0 58 -1.92241 1
gene 1 20 32 -5 0 59 -5 1
gene 1 20 33 2.75539 0 60 2.75539 1
gene 1 21 31 -0.36923 0 61 -0.36923 1
gene 1 21 32 1.90695 0 62 1.90695 1
gene 1 21 33 0.523003 0 63 0.523003 1
gene 1 22 31 0.303003 0 64 0.303003 1
gene 1 22 32 -1.06237 0 65 -1.06237 1
gene 1 22 33 0.7104 0 66 0.7104 1
gene 1 23 31 1.51476 0 67 1.51476 1
gene 1 23 32 0.65952 0 68 0.65952 1
gene 1 23 33 1.46602 0 69 1.46602 1
gene 1 24 31 0.464774 0 70 0.464774 1
gene 1 24 32 -0.960287 0 71 -0.960287 1
gene 1 24 33 0.866842 0 72 0.866842 1
gene 1 25 31 2.60253 0 73 2.60253 1
gene 1 25 32 -0.760108 0 74 -0.760108 1
gene 1 25 33 0.366409 0 75 0.366409 1
gene 1 26 31 0.0653689 0 76 0.0653689 1
gene 1 26 32 0.862961 0 77 0.862961 1
gene 1 26 33 -0.639376 0 78 -0.639376 1
gene 1 27 31 -1.13053 0 79 -1.13053 1
gene 1 27 32 -0.844997 0 80 -0.844997 1
gene 1 27 33 -0.105751 0 81 -0.105751 1
gene 1 28 31 0.774011 0 82 0.774011 1
gene 1 28 32 0.937005 0 83 0.937005 1
gene 1 28 33 0.0359493 0 84 0.0359493 1
gene 1 29 31 0.984122 0 85 0.984122 1
gene 1 29 32 -0.777655 0 86 -0.777655 1
gene 1 29 33 -0.815861 0 87 -0.815861 1
gene 1 30 31 -1.322 0 88 -1.322 1
gene 1 30 32 0.358663 0 89 0.358663 1
gene 1 30 33 0.630316 0 90 0.630316 1
genomeend 14

/* Organism #15 Fitness: 13686.2 Error: 0 */
genomestart 15
trait 1 0.386924 0.154454 0 0.300106 0.416151 0.448184 0 0 
node 1 1 1 1
node 2 1 1 1
node 3 1 1 1
node 4 1 1 1
node 5 1 1 1
node 6 1 1 1
node 7 1 1 1
node 8 1 1 1
node 9 1 1 1
node 10 1 1 1
node 11 1 1 1
node 12 1 1 1
node 13 1 1 1
node 14 1 1 1
node 15 1 1 1
node 16 1 1 1
node 17 1 1 1
node 18 1 1 1
node 19 1 1 1
node 20 1 1 1
node 21 1 1 1
node 22 1 1 1
node 23 1 1 1
node 24 1 1 1
node 25 1 1 1
node 26 1 1 1
node 27 1 1 1
node 28 1 1 1
node 29 1 1 1
node 30 1 1 3
node 31 1 0 2
node 32 1 0 2
node 33 1 0 2
gene 1 1 31 -0.541756 0 1 -0.541756 1
gene 1 1 32 0.549403 0 2 0.549403 1
gene 1 1 33 -2.98936 0 3 -2.98936 1
gene 1 2 31 -2.08248 0 4 -2.08248 1
gene 1 2 32 -0.265329 0 5 -0.265329 1
gene 1 2 33 -0.969512 0 6 -0.969512 1
gene 1 3 31 -2.88266 0 7 -2.88266 1
gene 1 3 32 -0.984924 0 8 -0.984924 1
gene 1 3 33 1.93149 0 9 1.93149 1
gene 1 4 31 0.590545 0 10 0.590545 1
gene 1 4 32 1.66607 0 11 1.66607 1
gene 1 4 33 0.531444 0 12 0.531444 1
gene 1 5 31 1.58635 0 13 1.58635 1
gene 1 5 32 -0.454359 0 14 -0.454359 1
gene 1 5 33 3.99379 0 15 3.99379 1
gene 1 6 31 1.6055 0 16 1.6055 1
gene 1 6 32 1.91259 0 17 1.91259 1
gene 1 6 33 0.0383521 0 18 0.0383521 1
gene 1 7 31 -0.387093 0 19 -0.387093 1
gene 1 7 32 -0.60776 0 20 -0.60776 1
gene 1 7 33 4.53591 0 21 4.53591 1
gene 1 8 31 -1.57667 0 22 -1.57667 1
gene 1 8 32 -1.0693 0 23 -1.0693 1
gene 1 8 33 -2.11244 0 24 -2.11244 1
gene 1 9 31 2.73784 0 25 2.73784 1
gene 1 9 32 2.31299 0 26 2.31299 1
gene 1 9 33 3.39779 0 27 3.39779 1
gene 1 10 31 -0.841198 0 28 -0.841198 1
gene 1 10 32 -0.605073 0 29 -0.605073 1
gene 1 10 33 -1.42846 0 30 -1.42846 1
gene 1 11 31 4.67479 0 31 4.67479 1
gene 1 11 32 -0.155065 0 32 -0.155065 1
gene 1 11 33 -2.87443 0 33 -2.87443 1
gene 1 12 31 2.4699 0 34 2.4699 1
gene 1 12 32 -0.81778 0 35 -0.81778 1
gene 1 12 33 -0.0501775 0 36 -0.0501775 1
gene 1 13 31 -5 0 37 -5 1
gene 1 13 32 -2.07557 0 38 -2.07557 1
gene 1 13 33 0.610347 0 39 0.610347 1
gene 1 14 31 -0.307842 0 40 -0.307842 1
gene 1 14 32 2.19996 0 41 2.19996 1
gene 1 14 33 0.5184 0 42 0.5184 1
gene 1 15 31 0.76914 0 43 0.76914 1
gene 1 15 32 1.84764 0 44 1.84764 1
gene 1 15 33 2.19648 0 45 2.19648 1
gene 1 16 31 4.78458 0 46 4.78458 1
gene 1 16 32 1.98197 0 47 1.98197 1
gene 1 16 33 0.0519983 0 48 0.0519983 1
gene 1 17 31 -1.886 0 49 -1.886 1
gene 1 17 32 -0.0921852 0 50 -0.0921852 1
gene 1 17 33 -0.898531 0 51 -0.898531 1
gene 1 18 31 -1.45991 0 52 -1.45991 1
gene 1 18 32 -4.85469 0 53 -4.85469 1
gene 1 18 33 0.773068 0 54 0.773068 1
gene 1 19 31 -0.197552 0 55 -0.197552 1
gene 1 19 32 -0.792787 0 56 -0.792787 1
gene 1 19 33 0.0197525 0 57 0.0197525 1
gene 1 20 31 -0.788689 0 58 -0.788689 1
gene 1 20 32 0.249868 0 59 0.249868 1
gene 1 20 33 0.727785 0 60 0.727785 1
gene 1 21 31 1.80773 0 61 1.80773 1
gene 1 21 32 -1.99994 0 62 -1.99994 1
gene 1 21 33 -0.527821 0 63 -0.527821 1
gene 1 22 31 2.80339 0 64 2.80339 1
gene 1 22 32 -0.647851 0 65 -0.647851 1
gene 1 22 33 2.17487 0 66 2.17487 1
gene 1 23 31 0.493334 0 67 0.493334 1
gene 1 23 32 -0.0180338 0 68 -0.0180338 1
gene 1 23 33 2.91871 0 69 2.91871 1
gene 1 24 31 4.39859 0 70 4.39859 1
gene 1 24 32 0.269378 0 71 0.269378 1
gene 1 24 33 0.794185 0 72 0.794185 1
gene 1 25 31 1.17182 0 73 1.17182 1
gene 1 25 32 0.695829 0 74 0.695829 1
gene 1 25 33 0.972919 0 75 0.972919 1
gene 1 26 31 0.194876 0 76 0.194876 1
gene 1 26 32 -0.309122 0 77 -0.309122 1
gene 1 26 33 -0.995256 0 78 -0.995256 1
gene 1 27 31 0.926459 0 79 0.926459 1
gene 1 27 32 -0.0636327 0 80 -0.0636327 1
gene 1 27 33 -0.479217 0 81 -0.479217 1
gene 1 28 31 1.24079 0 82 1.24079 1
gene 1 28 32 -0.0906976 0 83 -0.0906976 1
gene 1 28 33 -1.60172 0 84 -1.60172 1
gene 1 29 31 -2.41837 0 85 -2.41837 1
gene 1 29 32 1.69378 0 86 1.69378 1
gene 1 29 33 1.59916 0 87 1.59916 1
gene 1 30 31 0.194967 0 88 0.194967 1
gene 1 30 32 -0.847299 0 89 -0.847299 1
gene 1 30 33 0.652792 0 90 0.652792 1
genomeend 15

/* Organism #16 Fitness: 13592.3 Error: 0 */
genomestart 16
trait 1 0.386924 0.404857 0 0.300106 0 0 0 0 
node 1 1 1 1
node 2 1 1 1
node 3 1 1 1
node 4 1 1 1
node 5 1 1 1
node 6 1 1 1
node 7 1 1 1
node 8 1 1 1
node 9 1 1 1
node 10 1 1 1
node 11 1 1 1
node 12 1 1 1
node 13 1 1 1
node 14 1 1 1
node 15 1 1 1
node 16 1 1 1
node 17 1 1 1
node 18 1 1 1
node 19 1 1 1
node 20 1 1 1
node 21 1 1 1
node 22 1 1 1
node 23 1 1 1
node 24 1 1 1
node 25 1 1 1
node 26 1 1 1
node 27 1 1 1
node 28 1 1 1
node 29 1 1 1
node 30 1 1 3
node 31 1 0 2
node 32 1 0 2
node 33 1 0 2
gene 1 1 31 1.12412 0 1 1.12412 1
gene 1 1 32 -0.306431 0 2 -0.306431 1
gene 1 1 33 0.0280158 0 3 0.0280158 1
gene 1 2 31 -0.205429 0 4 -0.205429 1
gene 1 2 32 -1.26168 0 5 -1.26168 1
gene 1 2 33 -3.24201 0 6 -3.24201 1
gene 1 3 31 -2.30323 0 7 -2.30323 1
gene 1 3 32 -1.34133 0 8 -1.34133 1
gene 1 3 33 -0.656173 0 9 -0.656173 1
gene 1 4 31 0.560409 0 10 0.560409 1
gene 1 4 32 -1.97944 0 11 -1.97944 1
gene 1 4 33 0.711109 0 12 0.711109 1
gene 1 5 31 3.52018 0 13 3.52018 1
gene 1 5 32 -3.69631 0 14 -3.69631 1
gene 1 5 33 0.773917 0 15 0.773917 1
gene 1 6 31 0.489958 0 16 0.489958 1
gene 1 6 32 -0.647009 0 17 -0.647009 1
gene 1 6 33 0.687247 0 18 0.687247 1
gene 1 7 31 0.184745 0 19 0.184745 1
gene 1 7 32 -0.0541089 0 20 -0.0541089 1
gene 1 7 33 0.592141 0 21 0.592141 1
gene 1 8 31 -1.49326 0 22 -1.49326 1
gene 1 8 32 -3.91795 0 23 -3.91795 1
gene 1 8 33 -3.25892 0 24 -3.25892 1
gene 1 9 31 5 0 25 5 1
gene 1 9 32 -0.412359 0 26 -0.412359 1
gene 1 9 33 3.59039 0 27 3.59039 1
gene 1 10 31 4.25074 0 28 4.25074 1
gene 1 10 32 -0.574964 0 29 -0.574964 1
gene 1 10 33 -0.124001 0 30 -0.124001 1
gene 1 11 31 3.02111 0 31 3.02111 1
gene 1 11 32 -1.58098 0 32 -1.58098 1
gene 1 11 33 -1.437 0 33 -1.437 1
gene 1 12 31 -0.111545 0 34 -0.111545 1
gene 1 12 32 -2.18745 0 35 -2.18745 1
gene 1 12 33 -0.554192 0 36 -0.554192 1
gene 1 13 31 -5 0 37 -5 1
gene 1 13 32 -3.78423 0 38 -3.78423 1
gene 1 13 33 0.365437 0 39 0.365437 1
gene 1 14 31 4.04441 0 40 4.04441 1
gene 1 14 32 2.09861 0 41 2.09861 1
gene 1 14 33 1.75368 0 42 1.75368 1
gene 1 15 31 3.07794 0 43 3.07794 1
gene 1 15 32 2.25595 0 44 2.25595 1
gene 1 15 33 0.32715 0 45 0.32715 1
gene 1 16 31 3.30859 0 46 3.30859 1
gene 1 16 32 3.04172 0 47 3.04172 1
gene 1 16 33 0.387058 0 48 0.387058 1
gene 1 17 31 -2.08428 0 49 -2.08428 1
gene 1 17 32 1.56814 0 50 1.56814 1
gene 1 17 33 1.46152 0 51 1.46152 1
gene 1 18 31 -0.382345 0 52 -0.382345 1
gene 1 18 32 -4.23829 0 53 -4.23829 1
gene 1 18 33 2.92286 0 54 2.92286 1
gene 1 19 31 0.363686 0 55 0.363686 1
gene 1 19 32 1.70842 0 56 1.70842 1
gene 1 19 33 -0.788443 0 57 -0.788443 1
gene 1 20 31 -1.81153 0 58 -1.81153 1
gene 1 20 32 -2.80331 0 59 -2.80331 1
gene 1 20 33 -2.55297 0 60 -2.55297 1
gene 1 21 31 2.62917 0 61 2.62917 1
gene 1 21 32 0.143381 0 62 0.143381 1
gene 1 21 33 -2.50591 0 63 -2.50591 1
gene 1 22 31 4.25855 0 64 4.25855 1
gene 1 22 32 0.586748 0 65 0.586748 1
gene 1 22 33 -0.823393 0 66 -0.823393 1
gene 1 23 31 0.176865 0 67 0.176865 1
gene 1 23 32 -2.26776 0 68 -2.26776 1
gene 1 23 33 2.94556 0 69 2.94556 1
gene 1 24 31 2.60491 0 70 2.60491 1
gene 1 24 32 -0.482016 0 71 -0.482016 1
gene 1 24 33 -0.271728 0 72 -0.271728 1
gene 1 25 31 3.2756 0 73 3.2756 1
gene 1 25 32 -0.306691 0 74 -0.306691 1
gene 1 25 33 -0.208391 0 75 -0.208391 1
gene 1 26 31 -0.954369 0 76 -0.954369 1
gene 1 26 32 -0.829208 0 77 -0.829208 1
gene 1 26 33 -3.20309 0 78 -3.20309 1
gene 1 27 31 -0.0735805 0 79 -0.0735805 1
gene 1 27 32 0.23244 0 80 0.23244 1
gene 1 27 33 -0.878926 0 81 -0.878926 1
gene 1 28 31 0.886889 0 82 0.886889 1
gene 1 28 32 -1.39838 0 83 -1.39838 1
gene 1 28 33 0.955609 0 84 0.955609 1
gene 1 29 31 -0.137508 0 85 -0.137508 1
gene 1 29 32 -0.189039 0 86 -0.189039 1
gene 1 29 33 -0.564934 0 87 -0.564934 1
gene 1 30 31 -0.929897 0 88 -0.929897 1
gene 1 30 32 -0.470328 0 89 -0.470328 1
gene 1 30 33 0.690683 0 90 0.690683 1
genomeend 16

/* Organism #17 Fitness: 13192.1 Error: 0 */
genomestart 17
trait 1 0.386924 0.404857 0 0.300106 0 0 0 0 
node 1 1 1 1
node 2 1 1 1
node 3 1 1 1
node 4 1 1 1
node 5 1 1 1
node 6 1 1 1
node 7 1 1 1
node 8 1 1 1
node 9 1 1 1
node 10 1 1 1
node 11 1 1 1
node 12 1 1 1
node 13 1 1 1
node 14 1 1 1
node 15 1 1 1
node 16 1 1 1
node 17 1 1 1
node 18 1 1 1
node 19 1 1 1
node 20 1 1 1
node 21 1 1 1
node 22 1 1 1
node 23 1 1 1
node 24 1 1 1
node 25 1 1 1
node 26 1 1 1
node 27 1 1 1
node 28 1 1 1
node 29 1 1 1
node 30 1 1 3
node 31 1 0 2
node 32 1 0 2
node 33 1 0 2
gene 1 1 31 -0.988641 0 1 -0.988641 1
gene 1 1 32 0.747302 0 2 0.747302 1
gene 1 1 33 -2.58042 0 3 -2.58042 1
gene 1 2 31 -1.82693 0 4 -1.82693 1
gene 1 2 32 0.207098 0 5 0.207098 1
gene 1 2 33 -3.09623 0 6 -3.09623 1
gene 1 3 31 -3.84986 0 7 -3.84986 1
gene 1 3 32 -0.680211 0 8 -0.680211 1
gene 1 3 33 0.89537 0 9 0.89537 1
gene 1 4 31 -4.08491 0 10 -4.08491 1
gene 1 4 32 -0.534652 0 11 -0.534652 1
gene 1 4 33 2.20009 0 12 2.20009 1
gene 1 5 31 2.76824 0 13 2.76824 1
gene 1 5 32 -3.88623 0 14 -3.88623 1
gene 1 5 33 3.13255 0 15 3.13255 1
gene 1 6 31 -1.54449 0 16 -1.54449 1
gene 1 6 32 2.93671 0 17 2.93671 1
gene 1 6 33 0.824553 0 18 0.824553 1
gene 1 7 31 0.572711 0 19 0.572711 1
gene 1 7 32 -1.66525 0 20 -1.66525 1
gene 1 7 33 0.646553 0 21 0.646553 1
gene 1 8 31 -1.94668 0 22 -1.94668 1
gene 1 8 32 -3.49461 0 23 -3.49461 1
gene 1 8 33 -2.04701 0 24 -2.04701 1
gene 1 9 31 5 0 25 5 1
gene 1 9 32 1.33194 0 26 1.33194 1
gene 1 9 33 -0.0638322 0 27 -0.0638322 1
gene 1 10 31 4.42553 0 28 4.42553 1
gene 1 10 32 0.210639 0 29 0.210639 1
gene 1 10 33 -0.159858 0 30 -0.159858 1
gene 1 11 31 3.97073 0 31 3.97073 1
gene 1 11 32 -2.31242 0 32 -2.31242 1
gene 1 11 33 -2.28723 0 33 -2.28723 1
gene 1 12 31 1.52968 0 34 1.52968 1
gene 1 12 32 -0.914066 0 35 -0.914066 1
gene 1 12 33 -0.853831 0 36 -0.853831 1
gene 1 13 31 -4.06244 0 37 -4.06244 1
gene 1 13 32 -2.33213 0 38 -2.33213 1
gene 1 13 33 0.710104 0 39 0.710104 1
gene 1 14 31 2.01992 0 40 2.01992 1
gene 1 14 32 4.58418 0 41 4.58418 1
gene 1 14 33 1.48007 0 42 1.48007 1
gene 1 15 31 2.34456 0 43 2.34456 1
gene 1 15 32 0.126337 0 44 0.126337 1
gene 1 15 33 0.0154066 0 45 0.0154066 1
gene 1 16 31 5 0 46 5 1
gene 1 16 32 2.20303 0 47 2.20303 1
gene 1 16 33 -0.283806 0 48 -0.283806 1
gene 1 17 31 0.582092 0 49 0.582092 1
gene 1 17 32 -0.665851 0 50 -0.665851 1
gene 1 17 33 -0.580759 0 51 -0.580759 1
gene 1 18 31 0.440798 0 52 0.440798 1
gene 1 18 32 -3.63907 0 53 -3.63907 1
gene 1 18 33 0.617152 0 54 0.617152 1
gene 1 19 31 -2.31193 0 55 -2.31193 1
gene 1 19 32 1.73437 0 56 1.73437 1
gene 1 19 33 -0.365187 0 57 -0.365187 1
gene 1 20 31 -0.109373 0 58 -0.109373 1
gene 1 20 32 -1.72344 0 59 -1.72344 1
gene 1 20 33 0.236481 0 60 0.236481 1
gene 1 21 31 0.645955 0 61 0.645955 1
gene 1 21 32 -2.5707 0 62 -2.5707 1
gene 1 21 33 -1.79279 0 63 -1.79279 1
gene 1 22 31 3.62827 0 64 3.62827 1
gene 1 22 32 -0.354979 0 65 -0.354979 1
gene 1 22 33 1.19452 0 66 1.19452 1
gene 1 23 31 -0.4635 0 67 -0.4635 1
gene 1 23 32 -1.94632 0 68 -1.94632 1
gene 1 23 33 3.15672 0 69 3.15672 1
gene 1 24 31 1.21029 0 70 1.21029 1
gene 1 24 32 -0.214797 0 71 -0.214797 1
gene 1 24 33 3.05449 0 72 3.05449 1
gene 1 25 31 0.259465 0 73 0.259465 1
gene 1 25 32 0.805258 0 74 0.805258 1
gene 1 25 33 -1.04785 0 75 -1.04785 1
gene 1 26 31 -0.159358 0 76 -0.159358 1
gene 1 26 32 0.0722164 0 77 0.0722164 1
gene 1 26 33 0.645916 0 78 0.645916 1
gene 1 27 31 -1.23221 0 79 -1.23221 1
gene 1 27 32 -0.654848 0 80 -0.654848 1
gene 1 27 33 0.1111 0 81 0.1111 1
gene 1 28 31 -1.69938 0 82 -1.69938 1
gene 1 28 32 0.0912854 0 83 0.0912854 1
gene 1 28 33 1.37117 0 84 1.37117 1
gene 1 29 31 0.323564 0 85 0.323564 1
gene 1 29 32 0.52287 0 86 0.52287 1
gene 1 29 33 -0.724675 0 87 -0.724675 1
gene 1 30 31 -0.500641 0 88 -0.500641 1
gene 1 30 32 -1.31569 0 89 -1.31569 1
gene 1 30 33 0.854781 0 90 0.854781 1
genomeend 17

/* Organism #18 Fitness: 12752.5 Error: 0 */
genomestart 18
trait 1 0.1 0.404857 0 0 0 0 0 0 
node 1 1 1 1
node 2 1 1 1
node 3 1 1 1
node 4 1 1 1
node 5 1 1 1
node 6 1 1 1
node 7 1 1 1
node 8 1 1 1
node 9 1 1 1
node 10 1 1 1
node 11 1 1 1
node 12 1 1 1
node 13 1 1 1
node 14 1 1 1
node 15 1 1 1
node 16 1 1 1
node 17 1 1 1
node 18 1 1 1
node 19 1 1 1
node 20 1 1 1
node 21 1 1 1
node 22 1 1 1
node 23 1 1 1
node 24 1 1 1
node 25 1 1 1
node 26 1 1 1
node 27 1 1 1
node 28 1 1 1
node 29 1 1 1
node 30 1 1 3
node 31 1 0 2
node 32 1 0 2
node 33 1 0 2
gene 1 1 31 0.10065 0 1 0.10065 1
gene 1 1 32 -0.482505 0 2 -0.482505 1
gene 1 1 33 -3.64011 0 3 -3.64011 1
gene 1 2 31 -5 0 4 -5 1
gene 1 2 32 -0.257942 0 5 -0.257942 1
gene 1 2 33 -2.18391 0 6 -2.18391 1
gene 1 3 31 -4.50803 0 7 -4.50803 1
gene 1 3 32 1.19988 0 8 1.19988 1
gene 1 3 33 -1.28502 0 9 -1.28502 1
gene 1 4 31 -2.54949 0 10 -2.54949 1
gene 1 4 32 3.86075 0 11 3.86075 1
gene 1 4 33 1.7199 0 12 1.7199 1
gene 1 5 31 0.444196 0 13 0.444196 1
gene 1 5 32 0.100722 0 14 0.100722 1
gene 1 5 33 2.17527 0 15 2.17527 1
gene 1 6 31 -2.50919 0 16 -2.50919 1
gene 1 6 32 -2.40612 0 17 -2.40612 1
gene 1 6 33 3.09108 0 18 3.09108 1
gene 1 7 31 -3.29829 0 19 -3.29829 1
gene 1 7 32 -0.505498 0 20 -0.505498 1
gene 1 7 33 3.06663 0 21 3.06663 1
gene 1 8 31 2.4063 0 22 2.4063 1
gene 1 8 32 0.317369 0 23 0.317369 1
gene 1 8 33 -4.49353 0 24 -4.49353 1
gene 1 9 31 4.63546 0 25 4.63546 1
gene 1 9 32 3.77441 0 26 3.77441 1
gene 1 9 33 4.03326 0 27 4.03326 1
gene 1 10 31 4.60534 0 28 4.60534 1
gene 1 10 32 1.61324 0 29 1.61324 1
gene 1 10 33 3.42382 0 30 3.42382 1
gene 1 11 31 4.70582 0 31 4.70582 1
gene 1 11 32 -1.00419 0 32 -1.00419 1
gene 1 11 33 -3.2899 0 33 -3.2899 1
gene 1 12 31 2.21734 0 34 2.21734 1
gene 1 12 32 0.679492 0 35 0.679492 1
gene 1 12 33 0.364789 0 36 0.364789 1
gene 1 13 31 -2.97429 0 37 -2.97429 1
gene 1 13 32 -4.91244 0 38 -4.91244 1
gene 1 13 33 1.05644 0 39 1.05644 1
gene 1 14 31 0.543269 0 40 0.543269 1
gene 1 14 32 -0.831332 0 41 -0.831332 1
gene 1 14 33 2.10325 0 42 2.10325 1
gene 1 15 31 0.838706 0 43 0.838706 1
gene 1 15 32 0.879614 0 44 0.879614 1
gene 1 15 33 -1.84375 0 45 -1.84375 1
gene 1 16 31 3.20617 0 46 3.20617 1
gene 1 16 32 3.35994 0 47 3.35994 1
gene 1 16 33 -0.917498 0 48 -0.917498 1
gene 1 17 31 -0.606926 0 49 -0.606926 1
gene 1 17 32 -1.3605 0 50 -1.3605 1
gene 1 17 33 0.00663652 0 51 0.00663652 1
gene 1 18 31 -0.97254 0 52 -0.97254 1
gene 1 18 32 -2.87102 0 53 -2.87102 1
gene 1 18 33 1.85487 0 54 1.85487 1
gene 1 19 31 -0.277105 0 55 -0.277105 1
gene 1 19 32 -2.03024 0 56 -2.03024 1
gene 1 19 33 -1.34097 0 57 -1.34097 1
gene 1 20 31 -0.758659 0 58 -0.758659 1
gene 1 20 32 -3.80325 0 59 -3.80325 1
gene 1 20 33 0.0941507 0 60 0.0941507 1
gene 1 21 31 0.80318 0 61 0.80318 1
gene 1 21 32 0.533947 0 62 0.533947 1
gene 1 21 33 -0.567563 0 63 -0.567563 1
gene 1 22 31 1.86719 0 64 1.86719 1
gene 1 22 32 0.957282 0 65 0.957282 1
gene 1 22 33 3.01261 0 66 3.01261 1
gene 1 23 31 1.14325 0 67 1.14325 1
gene 1 23 32 -1.82433 0 68 -1.82433 1
gene 1 23 33 -0.97423 0 69 -0.97423 1
gene 1 24 31 2.82117 0 70 2.82117 1
gene 1 24 32 -0.532844 0 71 -0.532844 1
gene 1 24 33 2.27778 0 72 2.27778 1
gene 1 25 31 0.433468 0 73 0.433468 1
gene 1 25 32 -1.08431 0 74 -1.08431 1
gene 1 25 33 -0.547402 0 75 -0.547402 1
gene 1 26 31 1.2159 0 76 1.2159 1
gene 1 26 32 -0.742552 0 77 -0.742552 1
gene 1 26 33 0.148517 0 78 0.148517 1
gene 1 27 31 -0.704072 0 79 -0.704072 1
gene 1 27 32 -0.170252 0 80 -0.170252 1
gene 1 27 33 -0.645774 0 81 -0.645774 1
gene 1 28 31 1.31476 0 82 1.31476 1
gene 1 28 32 -0.885308 0 83 -0.885308 1
gene 1 28 33 0.444649 0 84 0.444649 1
gene 1 29 31 1.28186 0 85 1.28186 1
gene 1 29 32 0.195237 0 86 0.195237 1
gene 1 29 33 1.15141 0 87 1.15141 1
gene 1 30 31 -0.305625 0 88 -0.305625 1
gene 1 30 32 1.63477 0 89 1.63477 1
gene 1 30 33 -0.805046 0 90 -0.805046 1
genomeend 18

/* Organism #19 Fitness: 13775 Error: 0 */
genomestart 19
trait 1 0.386924 0.404857 0 0.300106 0 0 0 0 
node 1 1 1 1
node 2 1 1 1
node 3 1 1 1
node 4 1 1 1
node 5 1 1 1
node 6 1 1 1
node 7 1 1 1
node 8 1 1 1
node 9 1 1 1
node 10 1 1 1
node 11 1 1 1
node 12 1 1 1
node 13 1 1 1
node 14 1 1 1
node 15 1 1 1
node 16 1 1 1
node 17 1 1 1
node 18 1 1 1
node 19 1 1 1
node 20 1 1 1
node 21 1 1 1
node 22 1 1 1
node 23 1 1 1
node 24 1 1 1
node 25 1 1 1
node 26 1 1 1
node 27 1 1 1
node 28 1 1 1
node 29 1 1 1
node 30 1 1 3
node 31 1 0 2
node 32 1 0 2
node 33 1 0 2
gene 1 1 31 0.860958 0 1 0.860958 1
gene 1 1 32 0.835413 0 2 0.835413 1
gene 1 1 33 -2.73503 0 3 -2.73503 1
gene 1 2 31 -1.36546 0 4 -1.36546 1
gene 1 2 32 0.0135494 0 5 0.0135494 1
gene 1 2 33 -3.66207 0 6 -3.66207 1
gene 1 3 31 -2.63042 0 7 -2.63042 1
gene 1 3 32 -0.649494 0 8 -0.649494 1
gene 1 3 33 1.32811 0 9 1.32811 1
gene 1 4 31 -3.41863 0 10 -3.41863 1
gene 1 4 32 -0.47434 0 11 -0.47434 1
gene 1 4 33 1.23971 0 12 1.23971 1
gene 1 5 31 1.80324 0 13 1.80324 1
gene 1 5 32 -3.9393 0 14 -3.9393 1
gene 1 5 33 3.57882 0 15 3.57882 1
gene 1 6 31 0.272301 0 16 0.272301 1
gene 1 6 32 2.36986 0 17 2.36986 1
gene 1 6 33 0.53975 0 18 0.53975 1
gene 1 7 31 -0.496758 0 19 -0.496758 1
gene 1 7 32 -0.547819 0 20 -0.547819 1
gene 1 7 33 1.53259 0 21 1.53259 1
gene 1 8 31 -0.875409 0 22 -0.875409 1
gene 1 8 32 -2.5619 0 23 -2.5619 1
gene 1 8 33 -1.18852 0 24 -1.18852 1
gene 1 9 31 4.27958 0 25 4.27958 1
gene 1 9 32 0.696159 0 26 0.696159 1
gene 1 9 33 -0.492042 0 27 -0.492042 1
gene 1 10 31 5 0 28 5 1
gene 1 10 32 0.233957 0 29 0.233957 1
gene 1 10 33 -0.282039 0 30 -0.282039 1
gene 1 11 31 3.05412 0 31 3.05412 1
gene 1 11 32 -1.33509 0 32 -1.33509 1
gene 1 11 33 -2.47376 0 33 -2.47376 1
gene 1 12 31 1.12212 0 34 1.12212 1
gene 1 12 32 -1.49905 0 35 -1.49905 1
gene 1 12 33 -0.215312 0 36 -0.215312 1
gene 1 13 31 -4.04325 0 37 -4.04325 1
gene 1 13 32 -0.805351 0 38 -0.805351 1
gene 1 13 33 1.34909 0 39 1.34909 1
gene 1 14 31 2.15854 0 40 2.15854 1
gene 1 14 32 4.50435 0 41 4.50435 1
gene 1 14 33 0.434708 0 42 0.434708 1
gene 1 15 31 2.65547 0 43 2.65547 1
gene 1 15 32 -0.231418 0 44 -0.231418 1
gene 1 15 33 0.865493 0 45 0.865493 1
gene 1 16 31 4.78691 0 46 4.78691 1
gene 1 16 32 2.35296 0 47 2.35296 1
gene 1 16 33 -1.17207 0 48 -1.17207 1
gene 1 17 31 0.183626 0 49 0.183626 1
gene 1 17 32 0.643389 0 50 0.643389 1
gene 1 17 33 0.0851617 0 51 0.0851617 1
gene 1 18 31 0.428359 0 52 0.428359 1
gene 1 18 32 -4.16042 0 53 -4.16042 1
gene 1 18 33 1.32861 0 54 1.32861 1
gene 1 19 31 -1.87039 0 55 -1.87039 1
gene 1 19 32 1.37989 0 56 1.37989 1
gene 1 19 33 -0.982406 0 57 -0.982406 1
gene 1 20 31 -1.12418 0 58 -1.12418 1
gene 1 20 32 -1.21639 0 59 -1.21639 1
gene 1 20 33 -0.291441 0 60 -0.291441 1
gene 1 21 31 0.321295 0 61 0.321295 1
gene 1 21 32 -1.67259 0 62 -1.67259 1
gene 1 21 33 0.883505 0 63 0.883505 1
gene 1 22 31 3.46454 0 64 3.46454 1
gene 1 22 32 -0.971672 0 65 -0.971672 1
gene 1 22 33 2.28606 0 66 2.28606 1
gene 1 23 31 -0.212159 0 67 -0.212159 1
gene 1 23 32 -1.44217 0 68 -1.44217 1
gene 1 23 33 -0.0978403 0 69 -0.0978403 1
gene 1 24 31 1.41089 0 70 1.41089 1
gene 1 24 32 0.249699 0 71 0.249699 1
gene 1 24 33 3.55477 0 72 3.55477 1
gene 1 25 31 1.62032 0 73 1.62032 1
gene 1 25 32 0.181166 0 74 0.181166 1
gene 1 25 33 0.130062 0 75 0.130062 1
gene 1 26 31 -0.893599 0 76 -0.893599 1
gene 1 26 32 -0.166659 0 77 -0.166659 1
gene 1 26 33 -1.7937 0 78 -1.7937 1
gene 1 27 31 -0.103989 0 79 -0.103989 1
gene 1 27 32 -0.3978 0 80 -0.3978 1
gene 1 27 33 0.903846 0 81 0.903846 1
gene 1 28 31 -0.790489 0 82 -0.790489 1
gene 1 28 32 1.21569 0 83 1.21569 1
gene 1 28 33 0.640298 0 84 0.640298 1
gene 1 29 31 0.488016 0 85 0.488016 1
gene 1 29 32 0.748449 0 86 0.748449 1
gene 1 29 33 -0.391616 0 87 -0.391616 1
gene 1 30 31 -0.460086 0 88 -0.460086 1
gene 1 30 32 -0.481251 0 89 -0.481251 1
gene 1 30 33 2.05772 0 90 2.05772 1
genomeend 19

/* Organism #20 Fitness: 12645.5 Error: 0 */
genomestart 20
trait 1 0.1 0.404857 0 0 0 0 0 0 
node 1 1 1 1
node 2 1 1 1
node 3 1 1 1
node 4 1 1 1
node 5 1 1 1
node 6 1 1 1
node 7 1 1 1
node 8 1 1 1
node 9 1 1 1
node 10 1 1 1
node 11 1 1 1
node 12 1 1 1
node 13 1 1 1
node 14 1 1 1
node 15 1 1 1
node 16 1 1 1
node 17 1 1 1
node 18 1 1 1
node 19 1 1 1
node 20 1 1 1
node 21 1 1 1
node 22 1 1 1
node 23 1 1 1
node 24 1 1 1
node 25 1 1 1
node 26 1 1 1
node 27 1 1 1
node 28 1 1 1
node 29 1 1 1
node 30 1 1 3
node 31 1 0 2
node 32 1 0 2
node 33 1 0 2
gene 1 1 31 0.0834525 0 1 0.0834525 1
gene 1 1 32 -1.41196 0 2 -1.41196 1
gene 1 1 33 -3.35243 0 3 -3.35243 1
gene 1 2 31 -4.33831 0 4 -4.33831 1
gene 1 2 32 -0.584381 0 5 -0.584381 1
gene 1 2 33 -2.64828 0 6 -2.64828 1
gene 1 3 31 -4.00193 0 7 -4.00193 1
gene 1 3 32 1.58487 0 8 1.58487 1
gene 1 3 33 -1.99917 0 9 -1.99917 1
gene 1 4 31 -1.8502 0 10 -1.8502 1
gene 1 4 32 2.91593 0 11 2.91593 1
gene 1 4 33 2.31181 0 12 2.31181 1
gene 1 5 31 -0.446437 0 13 -0.446437 1
gene 1 5 32 -0.849261 0 14 -0.849261 1
gene 1 5 33 2.14772 0 15 2.14772 1
gene 1 6 31 -3.01925 0 16 -3.01925 1
gene 1 6 32 -3.21972 0 17 -3.21972 1
gene 1 6 33 2.32875 0 18 2.32875 1
gene 1 7 31 -3.04657 0 19 -3.04657 1
gene 1 7 32 0.0782797 0 20 0.0782797 1
gene 1 7 33 2.31994 0 21 2.31994 1
gene 1 8 31 2.08028 0 22 2.08028 1
gene 1 8 32 0.919369 0 23 0.919369 1
gene 1 8 33 -4.02337 0 24 -4.02337 1
gene 1 9 31 4.70757 0 25 4.70757 1
gene 1 9 32 4.3786 0 26 4.3786 1
gene 1 9 33 3.83635 0 27 3.83635 1
gene 1 10 31 4.43621 0 28 4.43621 1
gene 1 10 32 0.729465 0 29 0.729465 1
gene 1 10 33 3.59197 0 30 3.59197 1
gene 1 11 31 4.5899 0 31 4.5899 1
gene 1 11 32 -1.9145 0 32 -1.9145 1
gene 1 11 33 -2.86733 0 33 -2.86733 1
gene 1 12 31 1.25441 0 34 1.25441 1
gene 1 12 32 0.465743 0 35 0.465743 1
gene 1 12 33 0.40851 0 36 0.40851 1
gene 1 13 31 -2.69417 0 37 -2.69417 1
gene 1 13 32 -4.23598 0 38 -4.23598 1
gene 1 13 33 1.02632 0 39 1.02632 1
gene 1 14 31 0.862366 0 40 0.862366 1
gene 1 14 32 0.0833801 0 41 0.0833801 1
gene 1 14 33 2.00507 0 42 2.00507 1
gene 1 15 31 0.605439 0 43 0.605439 1
gene 1 15 32 1.05322 0 44 1.05322 1
gene 1 15 33 -0.939035 0 45 -0.939035 1
gene 1 16 31 3.16375 0 46 3.16375 1
gene 1 16 32 3.58096 0 47 3.58096 1
gene 1 16 33 -0.917743 0 48 -0.917743 1
gene 1 17 31 0.0685844 0 49 0.0685844 1
gene 1 17 32 -2.06176 0 50 -2.06176 1
gene 1 17 33 0.814692 0 51 0.814692 1
gene 1 18 31 -0.198607 0 52 -0.198607 1
gene 1 18 32 -2.11326 0 53 -2.11326 1
gene 1 18 33 1.39711 0 54 1.39711 1
gene 1 19 31 0.108243 0 55 0.108243 1
gene 1 19 32 -1.20876 0 56 -1.20876 1
gene 1 19 33 -0.790082 0 57 -0.790082 1
gene 1 20 31 0.16455 0 58 0.16455 1
gene 1 20 32 -3.93996 0 59 -3.93996 1
gene 1 20 33 0.908345 0 60 0.908345 1
gene 1 21 31 0.317504 0 61 0.317504 1
gene 1 21 32 1.01642 0 62 1.01642 1
gene 1 21 33 -0.698096 0 63 -0.698096 1
gene 1 22 31 2.20902 0 64 2.20902 1
gene 1 22 32 1.60439 0 65 1.60439 1
gene 1 22 33 2.93663 0 66 2.93663 1
gene 1 23 31 0.41351 0 67 0.41351 1
gene 1 23 32 -1.66152 0 68 -1.66152 1
gene 1 23 33 -0.412493 0 69 -0.412493 1
gene 1 24 31 3.55406 0 70 3.55406 1
gene 1 24 32 -0.477529 0 71 -0.477529 1
gene 1 24 33 1.55838 0 72 1.55838 1
gene 1 25 31 -0.550665 0 73 -0.550665 1
gene 1 25 32 -1.14442 0 74 -1.14442 1
gene 1 25 33 -0.2728 0 75 -0.2728 1
gene 1 26 31 1.2159 0 76 1.2159 1
gene 1 26 32 -0.742552 0 77 -0.742552 1
gene 1 26 33 0.819015 0 78 0.819015 1
gene 1 27 31 0.714708 0 79 0.714708 1
gene 1 27 32 -0.170252 0 80 -0.170252 1
gene 1 27 33 -0.645774 0 81 -0.645774 1
gene 1 28 31 -0.511592 0 82 -0.511592 1
gene 1 28 32 0.878108 0 83 0.878108 1
gene 1 28 33 0.814941 0 84 0.814941 1
gene 1 29 31 1.33522 0 85 1.33522 1
gene 1 29 32 0.195237 0 86 0.195237 1
gene 1 29 33 1.15141 0 87 1.15141 1
gene 1 30 31 -1.09186 0 88 -1.09186 1
gene 1 30 32 2.07716 0 89 2.07716 1
gene 1 30 33 -0.805046 0 90 -0.805046 1
genomeend 20

/* Organism #21 Fitness: 10382.5 Error: 0 */
genomestart 21
trait 1 0.386924 0.404857 0 0.300106 0 0 0 0 
node 1 1 1 1
node 2 1 1 1
node 3 1 1 1
node 4 1 1 1
node 5 1 1 1
node 6 1 1 1
node 7 1 1 1
node 8 1 1 1
node 9 1 1 1
node 10 1 1 1
node 11 1 1 1
node 12 1 1 1
node 13 1 1 1
node 14 1 1 1
node 15 1 1 1
node 16 1 1 1
node 17 1 1 1
node 18 1 1 1
node 19 1 1 1
node 20 1 1 1
node 21 1 1 1
node 22 1 1 1
node 23 1 1 1
node 24 1 1 1
node 25 1 1 1
node 26 1 1 1
node 27 1 1 1
node 28 1 1 1
node 29 1 1 1
node 30 1 1 3
node 31 1 0 2
node 32 1 0 2
node 33 1 0 2
gene 1 1 31 -1.05788 0 1 -1.05788 1
gene 1 1 32 1.87811 0 2 1.87811 1
gene 1 1 33 -1.42845 0 3 -1.42845 1
gene 1 2 31 -0.399094 0 4 -0.399094 1
gene 1 2 32 0.179508 0 5 0.179508 1
gene 1 2 33 -4.35334 0 6 -4.35334 1
gene 1 3 31 -2.62329 0 7 -2.62329 1
gene 1 3 32 -0.466807 0 8 -0.466807 1
gene 1 3 33 0.393068 0 9 0.393068 1
gene 1 4 31 -3.32805 0 10 -3.32805 1
gene 1 4 32 -0.15688 0 11 -0.15688 1
gene 1 4 33 1.67695 0 12 1.67695 1
gene 1 5 31 2.33657 0 13 2.33657 1
gene 1 5 32 -2.39396 0 14 -2.39396 1
gene 1 5 33 1.80229 0 15 1.80229 1
gene 1 6 31 -1.88372 0 16 -1.88372 1
gene 1 6 32 2.23604 0 17 2.23604 1
gene 1 6 33 0.836378 0 18 0.836378 1
gene 1 7 31 1.33659 0 19 1.33659 1
gene 1 7 32 -2.82811 0 20 -2.82811 1
gene 1 7 33 0.671636 0 21 0.671636 1
gene 1 8 31 -1.77191 0 22 -1.77191 1
gene 1 8 32 -3.3148 0 23 -3.3148 1
gene 1 8 33 -3.1992 0 24 -3.1992 1
gene 1 9 31 4.83968 0 25 4.83968 1
gene 1 9 32 2.00119 0 26 2.00119 1
gene 1 9 33 0.0318464 0 27 0.0318464 1
gene 1 10 31 4.50422 0 28 4.50422 1
gene 1 10 32 1.43829 0 29 1.43829 1
gene 1 10 33 0.79768 0 30 0.79768 1
gene 1 11 31 5 0 31 5 1
gene 1 11 32 -2.23305 0 32 -2.23305 1
gene 1 11 33 -1.67533 0 33 -1.67533 1
gene 1 12 31 2.14561 0 34 2.14561 1
gene 1 12 32 -2.24865 0 35 -2.24865 1
gene 1 12 33 0.929762 0 36 0.929762 1
gene 1 13 31 -5 0 37 -5 1
gene 1 13 32 -3.6053 0 38 -3.6053 1
gene 1 13 33 1.54873 0 39 1.54873 1
gene 1 14 31 0.697114 0 40 0.697114 1
gene 1 14 32 4.01443 0 41 4.01443 1
gene 1 14 33 0.678003 0 42 0.678003 1
gene 1 15 31 1.53139 0 43 1.53139 1
gene 1 15 32 1.01447 0 44 1.01447 1
gene 1 15 33 -0.76707 0 45 -0.76707 1
gene 1 16 31 5 0 46 5 1
gene 1 16 32 2.57365 0 47 2.57365 1
gene 1 16 33 0.393778 0 48 0.393778 1
gene 1 17 31 -0.0378237 0 49 -0.0378237 1
gene 1 17 32 -0.723048 0 50 -0.723048 1
gene 1 17 33 -0.775367 0 51 -0.775367 1
gene 1 18 31 0.523382 0 52 0.523382 1
gene 1 18 32 -4.52928 0 53 -4.52928 1
gene 1 18 33 -0.0815403 0 54 -0.0815403 1
gene 1 19 31 -2.25953 0 55 -2.25953 1
gene 1 19 32 1.48962 0 56 1.48962 1
gene 1 19 33 -0.505829 0 57 -0.505829 1
gene 1 20 31 -0.291405 0 58 -0.291405 1
gene 1 20 32 -1.61424 0 59 -1.61424 1
gene 1 20 33 -0.672753 0 60 -0.672753 1
gene 1 21 31 1.48991 0 61 1.48991 1
gene 1 21 32 -1.53044 0 62 -1.53044 1
gene 1 21 33 -2.75815 0 63 -2.75815 1
gene 1 22 31 4.24895 0 64 4.24895 1
gene 1 22 32 -0.658693 0 65 -0.658693 1
gene 1 22 33 1.34346 0 66 1.34346 1
gene 1 23 31 -0.83877 0 67 -0.83877 1
gene 1 23 32 -0.585921 0 68 -0.585921 1
gene 1 23 33 3.30105 0 69 3.30105 1
gene 1 24 31 0.784058 0 70 0.784058 1
gene 1 24 32 1.25713 0 71 1.25713 1
gene 1 24 33 3.36948 0 72 3.36948 1
gene 1 25 31 -1.38801 0 73 -1.38801 1
gene 1 25 32 -0.102254 0 74 -0.102254 1
gene 1 25 33 -0.615944 0 75 -0.615944 1
gene 1 26 31 -0.358831 0 76 -0.358831 1
gene 1 26 32 -0.284352 0 77 -0.284352 1
gene 1 26 33 0.139313 0 78 0.139313 1
gene 1 27 31 -0.879876 0 79 -0.879876 1
gene 1 27 32 -0.654848 0 80 -0.654848 1
gene 1 27 33 0.0525746 0 81 0.0525746 1
gene 1 28 31 -2.02596 0 82 -2.02596 1
gene 1 28 32 1.21438 0 83 1.21438 1
gene 1 28 33 2.32091 0 84 2.32091 1
gene 1 29 31 0.150604 0 85 0.150604 1
gene 1 29 32 -0.904426 0 86 -0.904426 1
gene 1 29 33 -0.291639 0 87 -0.291639 1
gene 1 30 31 -0.61492 0 88 -0.61492 1
gene 1 30 32 -0.978452 0 89 -0.978452 1
gene 1 30 33 1.61018 0 90 1.61018 1
genomeend 21

/* Organism #22 Fitness: 8735.2 Error: 0 */
genomestart 22
trait 1 0.386924 0.404857 0 0.300106 0 0 0 0 
node 1 1 1 1
node 2 1 1 1
node 3 1 1 1
node 4 1 1 1
node 5 1 1 1
node 6 1 1 1
node 7 1 1 1
node 8 1 1 1
node 9 1 1 1
node 10 1 1 1
node 11 1 1 1
node 12 1 1 1
node 13 1 1 1
node 14 1 1 1
node 15 1 1 1
node 16 1 1 1
node 17 1 1 1
node 18 1 1 1
node 19 1 1 1
node 20 1 1 1
node 21 1 1 1
node 22 1 1 1
node 23 1 1 1
node 24 1 1 1
node 25 1 1 1
node 26 1 1 1
node 27 1 1 1
node 28 1 1 1
node 29 1 1 1
node 30 1 1 3
node 31 1 0 2
node 32 1 0 2
node 33 1 0 2
gene 1 1 31 -0.102729 0 1 -0.102729 1
gene 1 1 32 0.46916 0 2 0.46916 1
gene 1 1 33 0.346534 0 3 0.346534 1
gene 1 2 31 -0.533654 0 4 -0.533654 1
gene 1 2 32 -0.0241342 0 5 -0.0241342 1
gene 1 2 33 -3.95021 0 6 -3.95021 1
gene 1 3 31 -0.176473 0 7 -0.176473 1
gene 1 3 32 -0.504473 0 8 -0.504473 1
gene 1 3 33 0.755081 0 9 0.755081 1
gene 1 4 31 -0.201038 0 10 -0.201038 1
gene 1 4 32 -1.78588 0 11 -1.78588 1
gene 1 4 33 0.940535 0 12 0.940535 1
gene 1 5 31 0.8529 0 13 0.8529 1
gene 1 5 32 -2.20463 0 14 -2.20463 1
gene 1 5 33 3.42952 0 15 3.42952 1
gene 1 6 31 -1.34408 0 16 -1.34408 1
gene 1 6 32 1.58191 0 17 1.58191 1
gene 1 6 33 0.934077 0 18 0.934077 1
gene 1 7 31 -0.22893 0 19 -0.22893 1
gene 1 7 32 0.764197 0 20 0.764197 1
gene 1 7 33 2.26627 0 21 2.26627 1
gene 1 8 31 -0.695278 0 22 -0.695278 1
gene 1 8 32 1.02262 0 23 1.02262 1
gene 1 8 33 -3.39938 0 24 -3.39938 1
gene 1 9 31 5 0 25 5 1
gene 1 9 32 0.227801 0 26 0.227801 1
gene 1 9 33 0.713083 0 27 0.713083 1
gene 1 10 31 4.40771 0 28 4.40771 1
gene 1 10 32 0.989819 0 29 0.989819 1
gene 1 10 33 0.746099 0 30 0.746099 1
gene 1 11 31 1.38245 0 31 1.38245 1
gene 1 11 32 0.153074 0 32 0.153074 1
gene 1 11 33 -3.05008 0 33 -3.05008 1
gene 1 12 31 2.09471 0 34 2.09471 1
gene 1 12 32 0.0130795 0 35 0.0130795 1
gene 1 12 33 -2.51738 0 36 -2.51738 1
gene 1 13 31 -3.22451 0 37 -3.22451 1
gene 1 13 32 1.15039 0 38 1.15039 1
gene 1 13 33 0.615452 0 39 0.615452 1
gene 1 14 31 1.12207 0 40 1.12207 1
gene 1 14 32 -1.29218 0 41 -1.29218 1
gene 1 14 33 2.21716 0 42 2.21716 1
gene 1 15 31 0.568122 0 43 0.568122 1
gene 1 15 32 3.1858 0 44 3.1858 1
gene 1 15 33 0.309636 0 45 0.309636 1
gene 1 16 31 5 0 46 5 1
gene 1 16 32 3.12464 0 47 3.12464 1
gene 1 16 33 1.03318 0 48 1.03318 1
gene 1 17 31 0.369386 0 49 0.369386 1
gene 1 17 32 -0.756332 0 50 -0.756332 1
gene 1 17 33 0.798071 0 51 0.798071 1
gene 1 18 31 0.486523 0 52 0.486523 1
gene 1 18 32 -0.295679 0 53 -0.295679 1
gene 1 18 33 0.0627546 0 54 0.0627546 1
gene 1 19 31 -0.196604 0 55 -0.196604 1
gene 1 19 32 0.649926 0 56 0.649926 1
gene 1 19 33 -0.347445 0 57 -0.347445 1
gene 1 20 31 -1.46576 0 58 -1.46576 1
gene 1 20 32 0.543858 0 59 0.543858 1
gene 1 20 33 -1.06927 0 60 -1.06927 1
gene 1 21 31 1.80059 0 61 1.80059 1
gene 1 21 32 0.505143 0 62 0.505143 1
gene 1 21 33 0.422434 0 63 0.422434 1
gene 1 22 31 3.87844 0 64 3.87844 1
gene 1 22 32 0.702845 0 65 0.702845 1
gene 1 22 33 3.57476 0 66 3.57476 1
gene 1 23 31 0.234294 0 67 0.234294 1
gene 1 23 32 0.482581 0 68 0.482581 1
gene 1 23 33 3.10659 0 69 3.10659 1
gene 1 24 31 0.912394 0 70 0.912394 1
gene 1 24 32 -1.21473 0 71 -1.21473 1
gene 1 24 33 -0.938463 0 72 -0.938463 1
gene 1 25 31 0.641929 0 73 0.641929 1
gene 1 25 32 -1.17437 0 74 -1.17437 1
gene 1 25 33 0.719177 0 75 0.719177 1
gene 1 26 31 1.63548 0 76 1.63548 1
gene 1 26 32 0.735405 0 77 0.735405 1
gene 1 26 33 -1.27407 0 78 -1.27407 1
gene 1 27 31 -0.378222 0 79 -0.378222 1
gene 1 27 32 -0.636265 0 80 -0.636265 1
gene 1 27 33 0.37567 0 81 0.37567 1
gene 1 28 31 2.25185 0 82 2.25185 1
gene 1 28 32 -0.921529 0 83 -0.921529 1
gene 1 28 33 1.35078 0 84 1.35078 1
gene 1 29 31 -1.38381 0 85 -1.38381 1
gene 1 29 32 0.107256 0 86 0.107256 1
gene 1 29 33 -0.191713 0 87 -0.191713 1
gene 1 30 31 0.637104 0 88 0.637104 1
gene 1 30 32 -1.83792 0 89 -1.83792 1
gene 1 30 33 -0.723529 0 90 -0.723529 1
genomeend 22

/* Organism #23 Fitness: 11144.5 Error: 0 */
genomestart 23
trait 1 0.1 0.404857 0 0 0 0 0 0 
node 1 1 1 1
node 2 1 1 1
node 3 1 1 1
node 4 1 1 1
node 5 1 1 1
node 6 1 1 1
node 7 1 1 1
node 8 1 1 1
node 9 1 1 1
node 10 1 1 1
node 11 1 1 1
node 12 1 1 1
node 13 1 1 1
node 14 1 1 1
node 15 1 1 1
node 16 1 1 1
node 17 1 1 1
node 18 1 1 1
node 19 1 1 1
node 20 1 1 1
node 21 1 1 1
node 22 1 1 1
node 23 1 1 1
node 24 1 1 1
node 25 1 1 1
node 26 1 1 1
node 27 1 1 1
node 28 1 1 1
node 29 1 1 1
node 30 1 1 3
node 31 1 0 2
node 32 1 0 2
node 33 1 0 2
gene 1 1 31 -1.00477 0 1 -1.00477 1
gene 1 1 32 0.534781 0 2 0.534781 1
gene 1 1 33 -3.31914 0 3 -3.31914 1
gene 1 2 31 -4.57602 0 4 -4.57602 1
gene 1 2 32 -0.176696 0 5 -0.176696 1
gene 1 2 33 -2.4351 0 6 -2.4351 1
gene 1 3 31 0.653218 0 7 0.653218 1
gene 1 3 32 0.219849 0 8 0.219849 1
gene 1 3 33 2.67342 0 9 2.67342 1
gene 1 4 31 -1.10301 0 10 -1.10301 1
gene 1 4 32 2.80048 0 11 2.80048 1
gene 1 4 33 -0.775285 0 12 -0.775285 1
gene 1 5 31 -0.56515 0 13 -0.56515 1
gene 1 5 32 -0.804805 0 14 -0.804805 1
gene 1 5 33 -0.279208 0 15 -0.279208 1
gene 1 6 31 -0.448324 0 16 -0.448324 1
gene 1 6 32 -0.596934 0 17 -0.596934 1
gene 1 6 33 2.92522 0 18 2.92522 1
gene 1 7 31 0.0398571 0 19 0.0398571 1
gene 1 7 32 -1.59216 0 20 -1.59216 1
gene 1 7 33 2.4944 0 21 2.4944 1
gene 1 8 31 0.35524 0 22 0.35524 1
gene 1 8 32 -0.762554 0 23 -0.762554 1
gene 1 8 33 0.060064 0 24 0.060064 1
gene 1 9 31 5 0 25 5 1
gene 1 9 32 3.29033 0 26 3.29033 1
gene 1 9 33 0.957825 0 27 0.957825 1
gene 1 10 31 5 0 28 5 1
gene 1 10 32 1.2276 0 29 1.2276 1
gene 1 10 33 0.214058 0 30 0.214058 1
gene 1 11 31 4.49123 0 31 4.49123 1
gene 1 11 32 0.36009 0 32 0.36009 1
gene 1 11 33 0.545433 0 33 0.545433 1
gene 1 12 31 4.31636 0 34 4.31636 1
gene 1 12 32 1.38271 0 35 1.38271 1
gene 1 12 33 -1.67842 0 36 -1.67842 1
gene 1 13 31 -5 0 37 -5 1
gene 1 13 32 0.68209 0 38 0.68209 1
gene 1 13 33 1.68458 0 39 1.68458 1
gene 1 14 31 0.0640022 0 40 0.0640022 1
gene 1 14 32 -1.26916 0 41 -1.26916 1
gene 1 14 33 1.99618 0 42 1.99618 1
gene 1 15 31 0.658899 0 43 0.658899 1
gene 1 15 32 0.371672 0 44 0.371672 1
gene 1 15 33 -0.373017 0 45 -0.373017 1
gene 1 16 31 5 0 46 5 1
gene 1 16 32 -0.748612 0 47 -0.748612 1
gene 1 16 33 -0.0743966 0 48 -0.0743966 1
gene 1 17 31 -0.24042 0 49 -0.24042 1
gene 1 17 32 -0.907635 0 50 -0.907635 1
gene 1 17 33 1.16178 0 51 1.16178 1
gene 1 18 31 -0.497633 0 52 -0.497633 1
gene 1 18 32 -2.7132 0 53 -2.7132 1
gene 1 18 33 0.675606 0 54 0.675606 1
gene 1 19 31 0.544945 0 55 0.544945 1
gene 1 19 32 -1.32273 0 56 -1.32273 1
gene 1 19 33 -1.6855 0 57 -1.6855 1
gene 1 20 31 -0.694111 0 58 -0.694111 1
gene 1 20 32 -5 0 59 -5 1
gene 1 20 33 2.75539 0 60 2.75539 1
gene 1 21 31 -0.868884 0 61 -0.868884 1
gene 1 21 32 2.48303 0 62 2.48303 1
gene 1 21 33 0.486647 0 63 0.486647 1
gene 1 22 31 -0.122886 0 64 -0.122886 1
gene 1 22 32 -2.03391 0 65 -2.03391 1
gene 1 22 33 -0.154426 0 66 -0.154426 1
gene 1 23 31 0.236246 0 67 0.236246 1
gene 1 23 32 1.48828 0 68 1.48828 1
gene 1 23 33 0.324461 0 69 0.324461 1
gene 1 24 31 0.718099 0 70 0.718099 1
gene 1 24 32 -0.280932 0 71 -0.280932 1
gene 1 24 33 0.866842 0 72 0.866842 1
gene 1 25 31 2.60253 0 73 2.60253 1
gene 1 25 32 -0.269111 0 74 -0.269111 1
gene 1 25 33 1.13255 0 75 1.13255 1
gene 1 26 31 -0.182913 0 76 -0.182913 1
gene 1 26 32 1.20167 0 77 1.20167 1
gene 1 26 33 -1.4254 0 78 -1.4254 1
gene 1 27 31 -1.57121 0 79 -1.57121 1
gene 1 27 32 -1.53533 0 80 -1.53533 1
gene 1 27 33 -0.0830318 0 81 -0.0830318 1
gene 1 28 31 0.534245 0 82 0.534245 1
gene 1 28 32 0.937005 0 83 0.937005 1
gene 1 28 33 0.338548 0 84 0.338548 1
gene 1 29 31 0.595467 0 85 0.595467 1
gene 1 29 32 0.0551264 0 86 0.0551264 1
gene 1 29 33 0.16485 0 87 0.16485 1
gene 1 30 31 -1.65839 0 88 -1.65839 1
gene 1 30 32 0.358663 0 89 0.358663 1
gene 1 30 33 0.604316 0 90 0.604316 1
genomeend 23

/* Organism #24 Fitness: 13274.5 Error: 0 */
genomestart 24
trait 1 0.386924 0.154454 0 0.300106 0.416151 0.448184 0 0 
node 1 1 1 1
node 2 1 1 1
node 3 1 1 1
node 4 1 1 1
node 5 1 1 1
node 6 1 1 1
node 7 1 1 1
node 8 1 1 1
node 9 1 1 1
node 10 1 1 1
node 11 1 1 1
node 12 1 1 1
node 13 1 1 1
node 14 1 1 1
node 15 1 1 1
node 16 1 1 1
node 17 1 1 1
node 18 1 1 1
node 19 1 1 1
node 20 1 1 1
node 21 1 1 1
node 22 1 1 1
node 23 1 1 1
node 24 1 1 1
node 25 1 1 1
node 26 1 1 1
node 27 1 1 1
node 28 1 1 1
node 29 1 1 1
node 30 1 1 3
node 31 1 0 2
node 32 1 0 2
node 33 1 0 2
gene 1 1 31 1.22331 0 1 1.22331 1
gene 1 1 32 0.873343 0 2 0.873343 1
gene 1 1 33 0.258737 0 3 0.258737 1
gene 1 2 31 -2.57945 0 4 -2.57945 1
gene 1 2 32 -0.0740852 0 5 -0.0740852 1
gene 1 2 33 -0.755514 0 6 -0.755514 1
gene 1 3 31 -1.67685 0 7 -1.67685 1
gene 1 3 32 -0.205749 0 8 -0.205749 1
gene 1 3 33 0.135784 0 9 0.135784 1
gene 1 4 31 -2.64178 0 10 -2.64178 1
gene 1 4 32 0.536079 0 11 0.536079 1
gene 1 4 33 -0.741768 0 12 -0.741768 1
gene 1 5 31 2.41954 0 13 2.41954 1
gene 1 5 32 -2.42681 0 14 -2.42681 1
gene 1 5 33 0.205126 0 15 0.205126 1
gene 1 6 31 0.825891 0 16 0.825891 1
gene 1 6 32 -1.35405 0 17 -1.35405 1
gene 1 6 33 1.14573 0 18 1.14573 1
gene 1 7 31 -1.02147 0 19 -1.02147 1
gene 1 7 32 0.420891 0 20 0.420891 1
gene 1 7 33 4.56837 0 21 4.56837 1
gene 1 8 31 -0.602085 0 22 -0.602085 1
gene 1 8 32 0.222096 0 23 0.222096 1
gene 1 8 33 -1.11406 0 24 -1.11406 1
gene 1 9 31 -0.0786743 0 25 -0.0786743 1
gene 1 9 32 0.384275 0 26 0.384275 1
gene 1 9 33 0.611661 0 27 0.611661 1
gene 1 10 31 5 0 28 5 1
gene 1 10 32 -0.0186513 0 29 -0.0186513 1
gene 1 10 33 -1.00841 0 30 -1.00841 1
gene 1 11 31 3.09845 0 31 3.09845 1
gene 1 11 32 0.810143 0 32 0.810143 1
gene 1 11 33 -2.21041 0 33 -2.21041 1
gene 1 12 31 2.32027 0 34 2.32027 1
gene 1 12 32 -1.34226 0 35 -1.34226 1
gene 1 12 33 -1.79224 0 36 -1.79224 1
gene 1 13 31 -0.976055 0 37 -0.976055 1
gene 1 13 32 -2.26262 0 38 -2.26262 1
gene 1 13 33 0.171033 0 39 0.171033 1
gene 1 14 31 0.244667 0 40 0.244667 1
gene 1 14 32 2.16944 0 41 2.16944 1
gene 1 14 33 0.810178 0 42 0.810178 1
gene 1 15 31 0.466269 0 43 0.466269 1
gene 1 15 32 -0.376337 0 44 -0.376337 1
gene 1 15 33 1.77766 0 45 1.77766 1
gene 1 16 31 4.70375 0 46 4.70375 1
gene 1 16 32 2.25509 0 47 2.25509 1
gene 1 16 33 0.41495 0 48 0.41495 1
gene 1 17 31 -2.01378 0 49 -2.01378 1
gene 1 17 32 -0.895785 0 50 -0.895785 1
gene 1 17 33 -0.48887 0 51 -0.48887 1
gene 1 18 31 -0.918801 0 52 -0.918801 1
gene 1 18 32 -4.37004 0 53 -4.37004 1
gene 1 18 33 0.700627 0 54 0.700627 1
gene 1 19 31 -0.901674 0 55 -0.901674 1
gene 1 19 32 -0.29561 0 56 -0.29561 1
gene 1 19 33 -0.59455 0 57 -0.59455 1
gene 1 20 31 -0.133997 0 58 -0.133997 1
gene 1 20 32 0.905993 0 59 0.905993 1
gene 1 20 33 -0.089454 0 60 -0.089454 1
gene 1 21 31 1.20408 0 61 1.20408 1
gene 1 21 32 -1.47325 0 62 -1.47325 1
gene 1 21 33 0.66213 0 63 0.66213 1
gene 1 22 31 3.96522 0 64 3.96522 1
gene 1 22 32 0.348604 0 65 0.348604 1
gene 1 22 33 -0.0238379 0 66 -0.0238379 1
gene 1 23 31 -0.896129 0 67 -0.896129 1
gene 1 23 32 -2.18776 0 68 -2.18776 1
gene 1 23 33 4.48229 0 69 4.48229 1
gene 1 24 31 4.9913 0 70 4.9913 1
gene 1 24 32 -0.647113 0 71 -0.647113 1
gene 1 24 33 0.900092 0 72 0.900092 1
gene 1 25 31 0.674901 0 73 0.674901 1
gene 1 25 32 -1.46977 0 74 -1.46977 1
gene 1 25 33 -0.222193 0 75 -0.222193 1
gene 1 26 31 0.300186 0 76 0.300186 1
gene 1 26 32 0.140478 0 77 0.140478 1
gene 1 26 33 -1.03761 0 78 -1.03761 1
gene 1 27 31 1.39907 0 79 1.39907 1
gene 1 27 32 1.3438 0 80 1.3438 1
gene 1 27 33 -0.85733 0 81 -0.85733 1
gene 1 28 31 0.738278 0 82 0.738278 1
gene 1 28 32 0.444216 0 83 0.444216 1
gene 1 28 33 -1.64301 0 84 -1.64301 1
gene 1 29 31 -0.907769 0 85 -0.907769 1
gene 1 29 32 -0.0596813 0 86 -0.0596813 1
gene 1 29 33 -0.535756 0 87 -0.535756 1
gene 1 30 31 0.0414827 0 88 0.0414827 1
gene 1 30 32 -0.885258 0 89 -0.885258 1
gene 1 30 33 0.679724 0 90 0.679724 1
genomeend 24

/* Organism #25 Fitness: 7966.9 Error: 0 */
genomestart 25
trait 1 0.1 0.404857 0 0 0 0 0 0 
node 1 1 1 1
node 2 1 1 1
node 3 1 1 1
node 4 1 1 1
node 5 1 1 1
node 6 1 1 1
node 7 1 1 1
node 8 1 1 1
node 9 1 1 1
node 10 1 1 1
node 11 1 1 1
node 12 1 1 1
node 13 1 1 1
node 14 1 1 1
node 15 1 1 1
node 16 1 1 1
node 17 1 1 1
node 18 1 1 1
node 19 1 1 1
node 20 1 1 1
node 21 1 1 1
node 22 1 1 1
node 23 1 1 1
node 24 1 1 1
node 25 1 1 1
node 26 1 1 1
node 27 1 1 1
node 28 1 1 1
node 29 1 1 1
node 30 1 1 3
node 31 1 0 2
node 32 1 0 2
node 33 1 0 2
gene 1 1 31 -0.336722 0 1 -0.336722 1
gene 1 1 32 0.281953 0 2 0.281953 1
gene 1 1 33 -3.04516 0 3 -3.04516 1
gene 1 2 31 -4.9607 0 4 -4.9607 1
gene 1 2 32 -1.20543 0 5 -1.20543 1
gene 1 2 33 0.227043 0 6 0.227043 1
gene 1 3 31 -4.17592 0 7 -4.17592 1
gene 1 3 32 0.202624 0 8 0.202624 1
gene 1 3 33 -0.583558 0 9 -0.583558 1
gene 1 4 31 -2.78437 0 10 -2.78437 1
gene 1 4 32 -0.614091 0 11 -0.614091 1
gene 1 4 33 1.7199 0 12 1.7199 1
gene 1 5 31 1.13537 0 13 1.13537 1
gene 1 5 32 -0.371661 0 14 -0.371661 1
gene 1 5 33 1.68878 0 15 1.68878 1
gene 1 6 31 -3.48466 0 16 -3.48466 1
gene 1 6 32 0.746362 0 17 0.746362 1
gene 1 6 33 -0.449961 0 18 -0.449961 1
gene 1 7 31 -2.32546 0 19 -2.32546 1
gene 1 7 32 -1.2536 0 20 -1.2536 1
gene 1 7 33 2.98062 0 21 2.98062 1
gene 1 8 31 2.61135 0 22 2.61135 1
gene 1 8 32 0.482255 0 23 0.482255 1
gene 1 8 33 -4.99481 0 24 -4.99481 1
gene 1 9 31 0.255725 0 25 0.255725 1
gene 1 9 32 0.597112 0 26 0.597112 1
gene 1 9 33 3.82808 0 27 3.82808 1
gene 1 10 31 3.86204 0 28 3.86204 1
gene 1 10 32 0.678186 0 29 0.678186 1
gene 1 10 33 0.234761 0 30 0.234761 1
gene 1 11 31 0.369068 0 31 0.369068 1
gene 1 11 32 -1.77953 0 32 -1.77953 1
gene 1 11 33 -3.50794 0 33 -3.50794 1
gene 1 12 31 0.292115 0 34 0.292115 1
gene 1 12 32 0.642634 0 35 0.642634 1
gene 1 12 33 0.764552 0 36 0.764552 1
gene 1 13 31 0.607875 0 37 0.607875 1
gene 1 13 32 -3.91914 0 38 -3.91914 1
gene 1 13 33 1.60975 0 39 1.60975 1
gene 1 14 31 0.543269 0 40 0.543269 1
gene 1 14 32 -1.01394 0 41 -1.01394 1
gene 1 14 33 0.100874 0 42 0.100874 1
