/* Organism #61 Fitness: 9120.500000 Time: 0 */
genomestart 61
trait 1 0.000000 1.000000 0.501706 0.000000 0.624134 0.181350 0.955760 0.751339 
node 1 1 1 1
node 2 1 1 1
node 3 1 1 1
node 4 1 1 1
node 5 1 1 1
node 6 1 1 1
node 7 1 1 1
node 8 1 1 1
node 9 1 1 1
node 10 1 1 1
node 11 1 1 1
node 12 1 1 1
node 13 1 1 1
node 14 1 1 1
node 15 1 1 1
node 16 1 1 1
node 17 1 1 1
node 18 1 1 1
node 19 1 1 1
node 20 1 1 1
node 21 1 1 1
node 22 1 1 1
node 23 1 1 1
node 24 1 1 1
node 25 1 1 1
node 26 1 1 1
node 27 1 1 1
node 28 1 1 1
node 29 1 1 1
node 30 1 1 3
node 31 1 0 2
node 32 1 0 2
node 33 1 0 2
gene 1 1 31 -1.84577 0 1 -1.84577 1
gene 1 1 32 -3.42016 0 2 -3.42016 1
gene 1 1 33 -2.43531 0 3 -2.43531 1
gene 1 2 31 0.347867 0 4 0.347867 1
gene 1 2 32 -1.14997 0 5 -1.14997 1
gene 1 2 33 1.32528 0 6 1.32528 1
gene 1 3 31 -5 0 7 -5 1
gene 1 3 32 0.163425 0 8 0.163425 1
gene 1 3 33 -1.36624 0 9 -1.36624 1
gene 1 4 31 3.23424 0 10 3.23424 1
gene 1 4 32 -0.136407 0 11 -0.136407 1
gene 1 4 33 -1.55818 0 12 -1.55818 1
gene 1 5 31 -1.00459 0 13 -1.00459 1
gene 1 5 32 -1.00031 0 14 -1.00031 1
gene 1 5 33 0.765253 0 15 0.765253 1
gene 1 6 31 -2.15612 0 16 -2.15612 1
gene 1 6 32 -5 0 17 -5 1
gene 1 6 33 -1.70784 0 18 -1.70784 1
gene 1 7 31 3.07683 0 19 3.07683 1
gene 1 7 32 1.60973 0 20 1.60973 1
gene 1 7 33 -0.698946 0 21 -0.698946 1
gene 1 8 31 -1.75526 0 22 -1.75526 1
gene 1 8 32 -4.12959 0 23 -4.12959 1
gene 1 8 33 1.37971 0 24 1.37971 1
gene 1 9 31 2.24772 0 25 2.24772 1
gene 1 9 32 0.273739 0 26 0.273739 1
gene 1 9 33 0.88508 0 27 0.88508 1
gene 1 10 31 -1.26374 0 28 -1.26374 1
gene 1 10 32 0.456724 0 29 0.456724 1
gene 1 10 33 0.776433 0 30 0.776433 1
gene 1 11 31 -0.407172 0 31 -0.407172 1
gene 1 11 32 -0.881621 0 32 -0.881621 1
gene 1 11 33 2.39999 0 33 2.39999 1
gene 1 12 31 5 0 34 5 1
gene 1 12 32 -2.99159 0 35 -2.99159 1
gene 1 12 33 1.064 0 36 1.064 1
gene 1 13 31 0.993393 0 37 0.993393 1
gene 1 13 32 -2.34832 0 38 -2.34832 1
gene 1 13 33 3.31057 0 39 3.31057 1
gene 1 14 31 -2.08632 0 40 -2.08632 1
gene 1 14 32 2.27367 0 41 2.27367 1
gene 1 14 33 -0.55415 0 42 -0.55415 1
gene 1 15 31 -1.52396 0 43 -1.52396 1
gene 1 15 32 2.30718 0 44 2.30718 1
gene 1 15 33 3.43036 0 45 3.43036 1
gene 1 16 31 -2.46727 0 46 -2.46727 1
gene 1 16 32 4.15514 0 47 4.15514 1
gene 1 16 33 0.0653196 0 48 0.0653196 1
gene 1 17 31 0.248894 0 49 0.248894 1
gene 1 17 32 -0.0564291 0 50 -0.0564291 1
gene 1 17 33 0.996252 0 51 0.996252 1
gene 1 18 31 -3.97706 0 52 -3.97706 1
gene 1 18 32 -0.605357 0 53 -0.605357 1
gene 1 18 33 0.191532 0 54 0.191532 1
gene 1 19 31 -1.09628 0 55 -1.09628 1
gene 1 19 32 -1.07277 0 56 -1.07277 1
gene 1 19 33 1.00021 0 57 1.00021 1
gene 1 20 31 -1.02961 0 58 -1.02961 1
gene 1 20 32 -0.649548 0 59 -0.649548 1
gene 1 20 33 4.08774 0 60 4.08774 1
gene 1 21 31 -1.70077 0 61 -1.70077 1
gene 1 21 32 2.99861 0 62 2.99861 1
gene 1 21 33 -2.35416 0 63 -2.35416 1
gene 1 22 31 -0.894553 0 64 -0.894553 1
gene 1 22 32 -0.327685 0 65 -0.327685 1
gene 1 22 33 1.49788 0 66 1.49788 1
gene 1 23 31 0.608177 0 67 0.608177 1
gene 1 23 32 -2.65287 0 68 -2.65287 1
gene 1 23 33 0.823187 0 69 0.823187 1
gene 1 24 31 -2.33611 0 70 -2.33611 1
gene 1 24 32 -1.85366 0 71 -1.85366 1
gene 1 24 33 -0.584706 0 72 -0.584706 1
gene 1 25 31 -2.09754 0 73 -2.09754 1
gene 1 25 32 0.223587 0 74 0.223587 1
gene 1 25 33 1.4215 0 75 1.4215 1
gene 1 26 31 -0.806789 0 76 -0.806789 1
gene 1 26 32 -2.80343 0 77 -2.80343 1
gene 1 26 33 -0.0119013 0 78 -0.0119013 1
gene 1 27 31 -0.226242 0 79 -0.226242 1
gene 1 27 32 0.244654 0 80 0.244654 1
gene 1 27 33 -0.772279 0 81 -0.772279 1
gene 1 28 31 0.865981 0 82 0.865981 1
gene 1 28 32 2.48974 0 83 2.48974 1
gene 1 28 33 -0.249749 0 84 -0.249749 1
gene 1 29 31 0.150952 0 85 0.150952 1
gene 1 29 32 0.534894 0 86 0.534894 1
gene 1 29 33 0.797822 0 87 0.797822 1
gene 1 30 31 -1.26615 0 88 -1.26615 1
gene 1 30 32 -0.950268 0 89 -0.950268 1
gene 1 30 33 0.225093 0 90 0.225093 1
genomeend 61


