/* Organism #3 Fitness: 13066.200000 Time: 0 */
genomestart 3
trait 1 0.000000 1.000000 0.000000 0.000000 0.210172 0.000000 0.000000 0.000000 
node 1 1 1 1
node 2 1 1 1
node 3 1 1 1
node 4 1 1 1
node 5 1 1 1
node 6 1 1 1
node 7 1 1 1
node 8 1 1 1
node 9 1 1 1
node 10 1 1 1
node 11 1 1 1
node 12 1 1 1
node 13 1 1 1
node 14 1 1 1
node 15 1 1 1
node 16 1 1 1
node 17 1 1 1
node 18 1 1 1
node 19 1 1 1
node 20 1 1 1
node 21 1 1 1
node 22 1 1 1
node 23 1 1 1
node 24 1 1 1
node 25 1 1 1
node 26 1 1 1
node 27 1 1 1
node 28 1 1 1
node 29 1 1 1
node 30 1 1 3
node 31 1 0 2
node 32 1 0 2
node 33 1 0 2
gene 1 1 31 0.959587 0 1 0.959587 1
gene 1 1 32 -3.03428 0 2 -3.03428 1
gene 1 1 33 1.54825 0 3 1.54825 1
gene 1 2 31 2.03644 0 4 2.03644 1
gene 1 2 32 1.6848 0 5 1.6848 1
gene 1 2 33 3.73001 0 6 3.73001 1
gene 1 3 31 -1.62175 0 7 -1.62175 1
gene 1 3 32 0.310218 0 8 0.310218 1
gene 1 3 33 -0.272193 0 9 -0.272193 1
gene 1 4 31 1.92027 0 10 1.92027 1
gene 1 4 32 3.61394 0 11 3.61394 1
gene 1 4 33 0.968629 0 12 0.968629 1
gene 1 5 31 1.13532 0 13 1.13532 1
gene 1 5 32 2.88297 0 14 2.88297 1
gene 1 5 33 2.95209 0 15 2.95209 1
gene 1 6 31 -0.363361 0 16 -0.363361 1
gene 1 6 32 0.00454345 0 17 0.00454345 1
gene 1 6 33 0.298808 0 18 0.298808 1
gene 1 7 31 1.87064 0 19 1.87064 1
gene 1 7 32 0.0734095 0 20 0.0734095 1
gene 1 7 33 -0.930517 0 21 -0.930517 1
gene 1 8 31 -0.427974 0 22 -0.427974 1
gene 1 8 32 -2.14344 0 23 -2.14344 1
gene 1 8 33 -3.05767 0 24 -3.05767 1
gene 1 9 31 -0.208167 0 25 -0.208167 1
gene 1 9 32 3.87333 0 26 3.87333 1
gene 1 9 33 0.329132 0 27 0.329132 1
gene 1 10 31 0.352761 0 28 0.352761 1
gene 1 10 32 2.07717 0 29 2.07717 1
gene 1 10 33 0.878395 0 30 0.878395 1
gene 1 11 31 2.33562 0 31 2.33562 1
gene 1 11 32 -4.72195 0 32 -4.72195 1
gene 1 11 33 3.25248 0 33 3.25248 1
gene 1 12 31 0.642326 0 34 0.642326 1
gene 1 12 32 -4.16708 0 35 -4.16708 1
gene 1 12 33 -1.23349 0 36 -1.23349 1
gene 1 13 31 2.61983 0 37 2.61983 1
gene 1 13 32 0.695973 0 38 0.695973 1
gene 1 13 33 5 0 39 5 1
gene 1 14 31 1.77368 0 40 1.77368 1
gene 1 14 32 5 0 41 5 1
gene 1 14 33 3.67927 0 42 3.67927 1
gene 1 15 31 -3.23118 0 43 -3.23118 1
gene 1 15 32 4.64426 0 44 4.64426 1
gene 1 15 33 1.16569 0 45 1.16569 1
gene 1 16 31 -1.57043 0 46 -1.57043 1
gene 1 16 32 2.29736 0 47 2.29736 1
gene 1 16 33 0.917809 0 48 0.917809 1
gene 1 17 31 -0.847223 0 49 -0.847223 1
gene 1 17 32 -0.942085 0 50 -0.942085 1
gene 1 17 33 0.401886 0 51 0.401886 1
gene 1 18 31 0.275086 0 52 0.275086 1
gene 1 18 32 -4.0925 0 53 -4.0925 1
gene 1 18 33 -0.0909331 0 54 -0.0909331 1
gene 1 19 31 -2.84582 0 55 -2.84582 1
gene 1 19 32 -0.926818 0 56 -0.926818 1
gene 1 19 33 0.715086 0 57 0.715086 1
gene 1 20 31 0.0955899 0 58 0.0955899 1
gene 1 20 32 0.041989 0 59 0.041989 1
gene 1 20 33 0.586255 0 60 0.586255 1
gene 1 21 31 -0.720749 0 61 -0.720749 1
gene 1 21 32 -1.33933 0 62 -1.33933 1
gene 1 21 33 -0.228554 0 63 -0.228554 1
gene 1 22 31 -0.762468 0 64 -0.762468 1
gene 1 22 32 2.35374 0 65 2.35374 1
gene 1 22 33 0.797009 0 66 0.797009 1
gene 1 23 31 -1.51263 0 67 -1.51263 1
gene 1 23 32 1.64753 0 68 1.64753 1
gene 1 23 33 -0.730622 0 69 -0.730622 1
gene 1 24 31 -0.294517 0 70 -0.294517 1
gene 1 24 32 -2.44536 0 71 -2.44536 1
gene 1 24 33 0.152118 0 72 0.152118 1
gene 1 25 31 0.27463 0 73 0.27463 1
gene 1 25 32 0.344701 0 74 0.344701 1
gene 1 25 33 0.81133 0 75 0.81133 1
gene 1 26 31 0.986276 0 76 0.986276 1
gene 1 26 32 -0.138799 0 77 -0.138799 1
gene 1 26 33 1.10904 0 78 1.10904 1
gene 1 27 31 1.14984 0 79 1.14984 1
gene 1 27 32 1.33324 0 80 1.33324 1
gene 1 27 33 -0.191994 0 81 -0.191994 1
gene 1 28 31 -1.04093 0 82 -1.04093 1
gene 1 28 32 -0.381976 0 83 -0.381976 1
gene 1 28 33 -1.61282 0 84 -1.61282 1
gene 1 29 31 -1.12754 0 85 -1.12754 1
gene 1 29 32 0.792033 0 86 0.792033 1
gene 1 29 33 -0.388461 0 87 -0.388461 1
gene 1 30 31 -0.440588 0 88 -0.440588 1
gene 1 30 32 0.782665 0 89 0.782665 1
gene 1 30 33 0.475794 0 90 0.475794 1
genomeend 3


