/* Organism #78 Fitness: 35111.990000 Time: 0 */
genomestart 78
trait 1 0.000000 0.000000 0.254844 0.000000 0.000000 0.194165 0.000000 0.000000 
node 1 1 1 1
node 2 1 1 1
node 3 1 1 1
node 4 1 1 1
node 5 1 1 1
node 6 1 1 1
node 7 1 1 1
node 8 1 1 1
node 9 1 1 1
node 10 1 1 1
node 11 1 1 1
node 12 1 1 1
node 13 1 1 1
node 14 1 1 1
node 15 1 1 1
node 16 1 1 1
node 17 1 1 1
node 18 1 1 1
node 19 1 1 1
node 20 1 1 1
node 21 1 1 1
node 22 1 1 1
node 23 1 1 1
node 24 1 1 1
node 25 1 1 1
node 26 1 1 1
node 27 1 1 1
node 28 1 1 1
node 29 1 1 1
node 30 1 1 3
node 31 1 0 2
node 32 1 0 2
node 33 1 0 2
gene 1 1 31 3.51728 0 1 3.51728 1
gene 1 1 32 -5 0 2 -5 1
gene 1 1 33 0.72074 0 3 0.72074 1
gene 1 2 31 -4.06276 0 4 -4.06276 1
gene 1 2 32 1.58081 0 5 1.58081 1
gene 1 2 33 -1.58745 0 6 -1.58745 1
gene 1 3 31 2.9598 0 7 2.9598 1
gene 1 3 32 -1.9715 0 8 -1.9715 1
gene 1 3 33 0.921207 0 9 0.921207 1
gene 1 4 31 0.416941 0 10 0.416941 1
gene 1 4 32 0.867477 0 11 0.867477 1
gene 1 4 33 1.06102 0 12 1.06102 1
gene 1 5 31 1.20022 0 13 1.20022 1
gene 1 5 32 -3.09287 0 14 -3.09287 1
gene 1 5 33 -1.57735 0 15 -1.57735 1
gene 1 6 31 -0.265295 0 16 -0.265295 1
gene 1 6 32 0.231057 0 17 0.231057 1
gene 1 6 33 -0.861419 0 18 -0.861419 1
gene 1 7 31 -0.378926 0 19 -0.378926 1
gene 1 7 32 -0.907103 0 20 -0.907103 1
gene 1 7 33 -3.08484 0 21 -3.08484 1
gene 1 8 31 0.202277 0 22 0.202277 1
gene 1 8 32 4.48599 0 23 4.48599 1
gene 1 8 33 -1.85386 0 24 -1.85386 1
gene 1 9 31 -4.79539 0 25 -4.79539 1
gene 1 9 32 0.299272 0 26 0.299272 1
gene 1 9 33 0.699825 0 27 0.699825 1
gene 1 10 31 0.766835 0 28 0.766835 1
gene 1 10 32 -1.70675 0 29 -1.70675 1
gene 1 10 33 -3.10163 0 30 -3.10163 1
gene 1 11 31 -0.386826 0 31 -0.386826 1
gene 1 11 32 -3.92975 0 32 -3.92975 1
gene 1 11 33 2.06713 0 33 2.06713 1
gene 1 12 31 0.896922 0 34 0.896922 1
gene 1 12 32 -1.2545 0 35 -1.2545 1
gene 1 12 33 -1.45544 0 36 -1.45544 1
gene 1 13 31 -5 0 37 -5 1
gene 1 13 32 0.00572918 0 38 0.00572918 1
gene 1 13 33 -0.393591 0 39 -0.393591 1
gene 1 14 31 1.36907 0 40 1.36907 1
gene 1 14 32 0.0165846 0 41 0.0165846 1
gene 1 14 33 0.0119045 0 42 0.0119045 1
gene 1 15 31 1.04651 0 43 1.04651 1
gene 1 15 32 -1.50576 0 44 -1.50576 1
gene 1 15 33 -4.80419 0 45 -4.80419 1
gene 1 16 31 0.917739 0 46 0.917739 1
gene 1 16 32 2.69107 0 47 2.69107 1
gene 1 16 33 2.40274 0 48 2.40274 1
gene 1 17 31 0.0572136 0 49 0.0572136 1
gene 1 17 32 1.67055 0 50 1.67055 1
gene 1 17 33 -1.84493 0 51 -1.84493 1
gene 1 18 31 -3.71573 0 52 -3.71573 1
gene 1 18 32 1.85089 0 53 1.85089 1
gene 1 18 33 -1.66671 0 54 -1.66671 1
gene 1 19 31 2.08246 0 55 2.08246 1
gene 1 19 32 2.07893 0 56 2.07893 1
gene 1 19 33 1.88834 0 57 1.88834 1
gene 1 20 31 3.5071 0 58 3.5071 1
gene 1 20 32 0.76244 0 59 0.76244 1
gene 1 20 33 -1.59983 0 60 -1.59983 1
gene 1 21 31 2.31075 0 61 2.31075 1
gene 1 21 32 -4.445 0 62 -4.445 1
gene 1 21 33 -0.381283 0 63 -0.381283 1
gene 1 22 31 4.16873 0 64 4.16873 1
gene 1 22 32 3.07685 0 65 3.07685 1
gene 1 22 33 0.234984 0 66 0.234984 1
gene 1 23 31 0.986379 0 67 0.986379 1
gene 1 23 32 3.11057 0 68 3.11057 1
gene 1 23 33 -1.02514 0 69 -1.02514 1
gene 1 24 31 -1.3832 0 70 -1.3832 1
gene 1 24 32 -1.04636 0 71 -1.04636 1
gene 1 24 33 0.378288 0 72 0.378288 1
gene 1 25 31 2.38736 0 73 2.38736 1
gene 1 25 32 0.439477 0 74 0.439477 1
gene 1 25 33 -0.609484 0 75 -0.609484 1
gene 1 26 31 0.598243 0 76 0.598243 1
gene 1 26 32 -0.601817 0 77 -0.601817 1
gene 1 26 33 -0.424066 0 78 -0.424066 1
gene 1 27 31 -4.06097 0 79 -4.06097 1
gene 1 27 32 0.139287 0 80 0.139287 1
gene 1 27 33 0.812751 0 81 0.812751 1
gene 1 28 31 -0.922323 0 82 -0.922323 1
gene 1 28 32 0.118514 0 83 0.118514 1
gene 1 28 33 -1.3438 0 84 -1.3438 1
gene 1 29 31 0.982593 0 85 0.982593 1
gene 1 29 32 1.13097 0 86 1.13097 1
gene 1 29 33 -1.34427 0 87 -1.34427 1
gene 1 30 31 2.91914 0 88 2.91914 1
gene 1 30 32 -0.843291 0 89 -0.843291 1
gene 1 30 33 0.719557 0 90 0.719557 1
genomeend 78


