/* Organism #1 Fitness: 35455.944000 Time: 0 */
genomestart 1
trait 1 0.688591 0.000000 0.903634 0.637156 0.000000 0.462019 0.039023 0.000000 
node 1 1 1 1
node 2 1 1 1
node 3 1 1 1
node 4 1 1 1
node 5 1 1 1
node 6 1 1 1
node 7 1 1 1
node 8 1 1 1
node 9 1 1 1
node 10 1 1 1
node 11 1 1 1
node 12 1 1 1
node 13 1 1 1
node 14 1 1 1
node 15 1 1 1
node 16 1 1 1
node 17 1 1 1
node 18 1 1 1
node 19 1 1 1
node 20 1 1 1
node 21 1 1 1
node 22 1 1 1
node 23 1 1 1
node 24 1 1 1
node 25 1 1 1
node 26 1 1 3
node 27 1 0 2
node 28 1 0 2
node 29 1 0 2
gene 1 1 27 0.638459 0 1 0.638459 1
gene 1 1 28 -2.23663 0 2 -2.23663 1
gene 1 1 29 -4.21175 0 3 -4.21175 1
gene 1 2 27 -0.48132 0 4 -0.48132 1
gene 1 2 28 -0.346614 0 5 -0.346614 1
gene 1 2 29 4.57842 0 6 4.57842 1
gene 1 3 27 0.246252 0 7 0.246252 1
gene 1 3 28 -2.67242 0 8 -2.67242 1
gene 1 3 29 -0.722756 0 9 -0.722756 1
gene 1 4 27 1.64043 0 10 1.64043 1
gene 1 4 28 0.796228 0 11 0.796228 1
gene 1 4 29 2.20705 0 12 2.20705 1
gene 1 5 27 -1.63158 0 13 -1.63158 1
gene 1 5 28 -1.90971 0 14 -1.90971 1
gene 1 5 29 1.12615 0 15 1.12615 1
gene 1 6 27 -0.20519 0 16 -0.20519 1
gene 1 6 28 0.931833 0 17 0.931833 1
gene 1 6 29 2.77796 0 18 2.77796 1
gene 1 7 27 0.703158 0 19 0.703158 1
gene 1 7 28 0.686148 0 20 0.686148 1
gene 1 7 29 -1.77382 0 21 -1.77382 1
gene 1 8 27 0.61615 0 22 0.61615 1
gene 1 8 28 3.79341 0 23 3.79341 1
gene 1 8 29 0.761408 0 24 0.761408 1
gene 1 9 27 0.93863 0 25 0.93863 1
gene 1 9 28 0.689507 0 26 0.689507 1
gene 1 9 29 2.71005 0 27 2.71005 1
gene 1 10 27 1.67429 0 28 1.67429 1
gene 1 10 28 -2.15601 0 29 -2.15601 1
gene 1 10 29 3.17117 0 30 3.17117 1
gene 1 11 27 -0.194016 0 31 -0.194016 1
gene 1 11 28 -1.31404 0 32 -1.31404 1
gene 1 11 29 -0.0475696 0 33 -0.0475696 1
gene 1 12 27 0.604974 0 34 0.604974 1
gene 1 12 28 -3.67984 0 35 -3.67984 1
gene 1 12 29 0.573404 0 36 0.573404 1
gene 1 13 27 2.16682 0 37 2.16682 1
gene 1 13 28 0.0406349 0 38 0.0406349 1
gene 1 13 29 -2.53626 0 39 -2.53626 1
gene 1 14 27 -2.02186 0 40 -2.02186 1
gene 1 14 28 0.432174 0 41 0.432174 1
gene 1 14 29 0.867054 0 42 0.867054 1
gene 1 15 27 -0.667452 0 43 -0.667452 1
gene 1 15 28 -1.36158 0 44 -1.36158 1
gene 1 15 29 -0.507908 0 45 -0.507908 1
gene 1 16 27 3.1517 0 46 3.1517 1
gene 1 16 28 4.21409 0 47 4.21409 1
gene 1 16 29 1.88591 0 48 1.88591 1
gene 1 17 27 1.23311 0 49 1.23311 1
gene 1 17 28 -0.414562 0 50 -0.414562 1
gene 1 17 29 -0.660257 0 51 -0.660257 1
gene 1 18 27 1.55427 0 52 1.55427 1
gene 1 18 28 -0.579053 0 53 -0.579053 1
gene 1 18 29 -0.793163 0 54 -0.793163 1
gene 1 19 27 2.7595 0 55 2.7595 1
gene 1 19 28 -1.31885 0 56 -1.31885 1
gene 1 19 29 1.4525 0 57 1.4525 1
gene 1 20 27 -1.55517 0 58 -1.55517 1
gene 1 20 28 -2.37583 0 59 -2.37583 1
gene 1 20 29 -2.88975 0 60 -2.88975 1
gene 1 21 27 3.18517 0 61 3.18517 1
gene 1 21 28 -0.329189 0 62 -0.329189 1
gene 1 21 29 2.31238 0 63 2.31238 1
gene 1 22 27 0.614951 0 64 0.614951 1
gene 1 22 28 1.35354 0 65 1.35354 1
gene 1 22 29 0.262862 0 66 0.262862 1
gene 1 23 27 -0.735374 0 67 -0.735374 1
gene 1 23 28 -0.349644 0 68 -0.349644 1
gene 1 23 29 -2.97111 0 69 -2.97111 1
gene 1 24 27 -2.44079 0 70 -2.44079 1
gene 1 24 28 -1.49656 0 71 -1.49656 1
gene 1 24 29 0.000750457 0 72 0.000750457 1
gene 1 25 27 -1.07188 0 73 -1.07188 1
gene 1 25 28 -0.83023 0 74 -0.83023 1
gene 1 25 29 0.991203 0 75 0.991203 1
gene 1 26 27 1.21432 0 76 1.21432 1
gene 1 26 28 4.9054 0 77 4.9054 1
gene 1 26 29 1.36063 0 78 1.36063 1
genomeend 1


