/* Organism #64 Fitness: 14478.300000 Time: 0 */
genomestart 64
trait 1 0.424373 0.312174 0.649083 0.746802 0.000000 0.708863 0.000000 0.000000 
node 1 1 1 1
node 2 1 1 1
node 3 1 1 1
node 4 1 1 1
node 5 1 1 1
node 6 1 1 1
node 7 1 1 1
node 8 1 1 1
node 9 1 1 1
node 10 1 1 1
node 11 1 1 1
node 12 1 1 1
node 13 1 1 1
node 14 1 1 1
node 15 1 1 1
node 16 1 1 1
node 17 1 1 1
node 18 1 1 1
node 19 1 1 1
node 20 1 1 1
node 21 1 1 1
node 22 1 1 1
node 23 1 1 1
node 24 1 1 1
node 25 1 1 1
node 26 1 1 1
node 27 1 1 1
node 28 1 1 1
node 29 1 1 1
node 30 1 1 3
node 31 1 0 2
node 32 1 0 2
node 33 1 0 2
gene 1 1 31 -3.95642 0 1 -3.95642 1
gene 1 1 32 0.893844 0 2 0.893844 1
gene 1 1 33 -5 0 3 -5 1
gene 1 2 31 0.261531 0 4 0.261531 1
gene 1 2 32 -0.889743 0 5 -0.889743 1
gene 1 2 33 -0.587236 0 6 -0.587236 1
gene 1 3 31 -0.549012 0 7 -0.549012 1
gene 1 3 32 0.721392 0 8 0.721392 1
gene 1 3 33 -0.33845 0 9 -0.33845 1
gene 1 4 31 0.970364 0 10 0.970364 1
gene 1 4 32 1.09865 0 11 1.09865 1
gene 1 4 33 3.77971 0 12 3.77971 1
gene 1 5 31 1.66323 0 13 1.66323 1
gene 1 5 32 1.80446 0 14 1.80446 1
gene 1 5 33 -0.975855 0 15 -0.975855 1
gene 1 6 31 1.36455 0 16 1.36455 1
gene 1 6 32 -0.696496 0 17 -0.696496 1
gene 1 6 33 -3.32058 0 18 -3.32058 1
gene 1 7 31 2.84755 0 19 2.84755 1
gene 1 7 32 0.429007 0 20 0.429007 1
gene 1 7 33 0.372279 0 21 0.372279 1
gene 1 8 31 0.411156 0 22 0.411156 1
gene 1 8 32 0.498292 0 23 0.498292 1
gene 1 8 33 4.88125 0 24 4.88125 1
gene 1 9 31 2.97287 0 25 2.97287 1
gene 1 9 32 -0.160883 0 26 -0.160883 1
gene 1 9 33 -5 0 27 -5 1
gene 1 10 31 -0.0718314 0 28 -0.0718314 1
gene 1 10 32 -1.21781 0 29 -1.21781 1
gene 1 10 33 -0.0124947 0 30 -0.0124947 1
gene 1 11 31 3.00032 0 31 3.00032 1
gene 1 11 32 1.89872 0 32 1.89872 1
gene 1 11 33 -0.213115 0 33 -0.213115 1
gene 1 12 31 -3.03322 0 34 -3.03322 1
gene 1 12 32 -2.06572 0 35 -2.06572 1
gene 1 12 33 -0.834872 0 36 -0.834872 1
gene 1 13 31 0.761773 0 37 0.761773 1
gene 1 13 32 0.521682 0 38 0.521682 1
gene 1 13 33 -0.234649 0 39 -0.234649 1
gene 1 14 31 0.0134189 0 40 0.0134189 1
gene 1 14 32 -3.1632 0 41 -3.1632 1
gene 1 14 33 2.8773 0 42 2.8773 1
gene 1 15 31 -0.04951 0 43 -0.04951 1
gene 1 15 32 -1.56652 0 44 -1.56652 1
gene 1 15 33 -2.07593 0 45 -2.07593 1
gene 1 16 31 -2.12715 0 46 -2.12715 1
gene 1 16 32 -0.578888 0 47 -0.578888 1
gene 1 16 33 -0.521971 0 48 -0.521971 1
gene 1 17 31 -3.42118 0 49 -3.42118 1
gene 1 17 32 1.04339 0 50 1.04339 1
gene 1 17 33 2.32509 0 51 2.32509 1
gene 1 18 31 -1.92425 0 52 -1.92425 1
gene 1 18 32 -0.319417 0 53 -0.319417 1
gene 1 18 33 -3.15621 0 54 -3.15621 1
gene 1 19 31 -4.46999 0 55 -4.46999 1
gene 1 19 32 1.3378 0 56 1.3378 1
gene 1 19 33 -1.42535 0 57 -1.42535 1
gene 1 20 31 -2.47562 0 58 -2.47562 1
gene 1 20 32 1.40909 0 59 1.40909 1
gene 1 20 33 4.45615 0 60 4.45615 1
gene 1 21 31 2.80065 0 61 2.80065 1
gene 1 21 32 -0.443768 0 62 -0.443768 1
gene 1 21 33 -1.36671 0 63 -1.36671 1
gene 1 22 31 -1.59755 0 64 -1.59755 1
gene 1 22 32 1.13445 0 65 1.13445 1
gene 1 22 33 -3.19997 0 66 -3.19997 1
gene 1 23 31 0.834879 0 67 0.834879 1
gene 1 23 32 -3.10906 0 68 -3.10906 1
gene 1 23 33 3.02443 0 69 3.02443 1
gene 1 24 31 0.731428 0 70 0.731428 1
gene 1 24 32 0.956221 0 71 0.956221 1
gene 1 24 33 2.90481 0 72 2.90481 1
gene 1 25 31 1.67836 0 73 1.67836 1
gene 1 25 32 0.312568 0 74 0.312568 1
gene 1 25 33 1.91331 0 75 1.91331 1
gene 1 26 31 -0.232608 0 76 -0.232608 1
gene 1 26 32 0.0519849 0 77 0.0519849 1
gene 1 26 33 -0.873117 0 78 -0.873117 1
gene 1 27 31 0.0402833 0 79 0.0402833 1
gene 1 27 32 0.860054 0 80 0.860054 1
gene 1 27 33 -0.622135 0 81 -0.622135 1
gene 1 28 31 0.596702 0 82 0.596702 1
gene 1 28 32 1.28003 0 83 1.28003 1
gene 1 28 33 -1.40722 0 84 -1.40722 1
gene 1 29 31 -0.243417 0 85 -0.243417 1
gene 1 29 32 1.70726 0 86 1.70726 1
gene 1 29 33 0.719807 0 87 0.719807 1
gene 1 30 31 1.50475 0 88 1.50475 1
gene 1 30 32 -5 0 89 -5 1
gene 1 30 33 0.986103 0 90 0.986103 1
genomeend 64


