/* Organism #4 Fitness: 8150.060000 Time: 0 */
genomestart 4
trait 1 0.100000 1.000000 0.860863 0.000000 0.000000 0.000000 0.161294 1.000000 
node 1 1 1 1
node 2 1 1 1
node 3 1 1 1
node 4 1 1 1
node 5 1 1 1
node 6 1 1 1
node 7 1 1 1
node 8 1 1 1
node 9 1 1 1
node 10 1 1 1
node 11 1 1 1
node 12 1 1 1
node 13 1 1 1
node 14 1 1 1
node 15 1 1 1
node 16 1 1 1
node 17 1 1 1
node 18 1 1 1
node 19 1 1 1
node 20 1 1 1
node 21 1 1 1
node 22 1 1 1
node 23 1 1 1
node 24 1 1 1
node 25 1 1 1
node 26 1 1 3
node 27 1 0 2
node 28 1 0 2
node 29 1 0 2
gene 1 1 27 -0.506205 0 1 -0.506205 1
gene 1 1 28 0.421038 0 2 0.421038 1
gene 1 1 29 -0.132295 0 3 -0.132295 1
gene 1 2 27 0.405888 0 4 0.405888 1
gene 1 2 28 -0.10762 0 5 -0.10762 1
gene 1 2 29 0.82766 0 6 0.82766 1
gene 1 3 27 -1.20247 0 7 -1.20247 1
gene 1 3 28 -0.050517 0 8 -0.050517 1
gene 1 3 29 -2.79688 0 9 -2.79688 1
gene 1 4 27 0.782307 0 10 0.782307 1
gene 1 4 28 -2.26339 0 11 -2.26339 1
gene 1 4 29 -0.198245 0 12 -0.198245 1
gene 1 5 27 -0.251402 0 13 -0.251402 1
gene 1 5 28 -1.5053 0 14 -1.5053 1
gene 1 5 29 1.75703 0 15 1.75703 1
gene 1 6 27 1.71894 0 16 1.71894 1
gene 1 6 28 -0.238745 0 17 -0.238745 1
gene 1 6 29 -1.6649 0 18 -1.6649 1
gene 1 7 27 0.520061 0 19 0.520061 1
gene 1 7 28 -0.174718 0 20 -0.174718 1
gene 1 7 29 -1.54914 0 21 -1.54914 1
gene 1 8 27 2.21121 0 22 2.21121 1
gene 1 8 28 0.549487 0 23 0.549487 1
gene 1 8 29 -1.68456 0 24 -1.68456 1
gene 1 9 27 -0.474913 0 25 -0.474913 1
gene 1 9 28 0.771839 0 26 0.771839 1
gene 1 9 29 0.747384 0 27 0.747384 1
gene 1 10 27 4.08926 0 28 4.08926 1
gene 1 10 28 -1.02443 0 29 -1.02443 1
gene 1 10 29 -1.43431 0 30 -1.43431 1
gene 1 11 27 0.133358 0 27 0.133358 1
gene 1 11 28 -0.309831 0 32 -0.309831 1
gene 1 11 29 -0.160531 0 33 -0.160531 1
gene 1 12 27 1.78965 0 34 1.78965 1
gene 1 12 28 0.503716 0 35 0.503716 1
gene 1 12 29 3.51883 0 36 3.51883 1
gene 1 13 27 -1.36044 0 37 -1.36044 1
gene 1 13 28 -0.641996 0 38 -0.641996 1
gene 1 13 29 -1.31755 0 39 -1.31755 1
gene 1 14 27 -0.446757 0 40 -0.446757 1
gene 1 14 28 0.226365 0 41 0.226365 1
gene 1 14 29 0.869786 0 42 0.869786 1
gene 1 15 27 -1.17954 0 43 -1.17954 1
gene 1 15 28 -1.14216 0 44 -1.14216 1
gene 1 15 29 -2.67487 0 45 -2.67487 1
gene 1 16 27 -0.117152 0 46 -0.117152 1
gene 1 16 28 -1.59738 0 47 -1.59738 1
gene 1 16 29 -1.43965 0 48 -1.43965 1
gene 1 17 27 0.746818 0 49 0.746818 1
gene 1 17 28 0.320669 0 50 0.320669 1
gene 1 17 29 0.70686 0 51 0.70686 1
gene 1 18 27 4.67977 0 52 4.67977 1
gene 1 18 28 -1.35124 0 53 -1.35124 1
gene 1 18 29 -0.0114156 0 54 -0.0114156 1
gene 1 19 27 2.32332 0 55 2.32332 1
gene 1 19 28 -0.483049 0 56 -0.483049 1
gene 1 19 29 -1.34671 0 57 -1.34671 1
gene 1 20 27 0.800117 0 58 0.800117 1
gene 1 20 28 -1.66518 0 59 -1.66518 1
gene 1 20 29 -2.47034 0 60 -2.47034 1
gene 1 21 27 -0.0498922 0 61 -0.0498922 1
gene 1 21 28 -2.08788 0 62 -2.08788 1
gene 1 21 29 4.18299 0 63 4.18299 1
gene 1 22 27 -0.0577566 0 64 -0.0577566 1
gene 1 22 28 -0.825331 0 65 -0.825331 1
gene 1 22 29 3.91948 0 66 3.91948 1
gene 1 23 27 -0.25787 0 67 -0.25787 1
gene 1 23 28 -1.35908 0 68 -1.35908 1
gene 1 23 29 -0.51454 0 69 -0.51454 1
gene 1 24 27 0.0255118 0 70 0.0255118 1
gene 1 24 28 -0.18668 0 71 -0.18668 1
gene 1 24 29 0.851792 0 72 0.851792 1
gene 1 25 27 1.2121 0 73 1.2121 1
gene 1 25 28 -1.57392 0 74 -1.57392 1
gene 1 25 29 0.886174 0 75 0.886174 1
gene 1 26 27 -5 0 76 -5 1
gene 1 26 28 -0.498187 0 77 -0.498187 1
gene 1 26 29 -0.723145 0 78 -0.723145 1
genomeend 4


