/* Organism #0 Fitness: 7450.234000 Time: 0 */
genomestart 0
trait 1 0.076883 0.717328 0.000000 0.000000 0.000000 0.000000 0.034590 0.000000 
node 1 1 1 1
node 2 1 1 1
node 3 1 1 1
node 4 1 1 1
node 5 1 1 1
node 6 1 1 1
node 7 1 1 1
node 8 1 1 1
node 9 1 1 1
node 10 1 1 1
node 11 1 1 1
node 12 1 1 1
node 13 1 1 1
node 14 1 1 1
node 15 1 1 1
node 16 1 1 1
node 17 1 1 1
node 18 1 1 1
node 19 1 1 1
node 20 1 1 1
node 21 1 1 1
node 22 1 1 1
node 23 1 1 1
node 24 1 1 1
node 25 1 1 1
node 26 1 1 3
node 27 1 0 2
node 28 1 0 2
node 29 1 0 2
gene 1 1 27 -1.57087 0 1 -1.57087 1
gene 1 1 28 1.44258 0 2 1.44258 1
gene 1 1 29 1.44796 0 3 1.44796 1
gene 1 2 27 -1.55205 0 4 -1.55205 1
gene 1 2 28 -2.11627 0 5 -2.11627 1
gene 1 2 29 1.51384 0 6 1.51384 1
gene 1 3 27 2.38176 0 7 2.38176 1
gene 1 3 28 -0.189862 0 8 -0.189862 1
gene 1 3 29 -0.947032 0 9 -0.947032 1
gene 1 4 27 -0.830923 0 10 -0.830923 1
gene 1 4 28 0.827935 0 11 0.827935 1
gene 1 4 29 -0.430465 0 12 -0.430465 1
gene 1 5 27 -1.39369 0 13 -1.39369 1
gene 1 5 28 3.7045 0 14 3.7045 1
gene 1 5 29 -1.40211 0 15 -1.40211 1
gene 1 6 27 1.24917 0 16 1.24917 1
gene 1 6 28 -0.253251 0 17 -0.253251 1
gene 1 6 29 -1.57799 0 18 -1.57799 1
gene 1 7 27 -5 0 19 -5 1
gene 1 7 28 4.24393 0 20 4.24393 1
gene 1 7 29 0.0218088 0 21 0.0218088 1
gene 1 8 27 -3.48873 0 22 -3.48873 1
gene 1 8 28 -0.748349 0 23 -0.748349 1
gene 1 8 29 1.12441 0 24 1.12441 1
gene 1 9 27 1.02 0 25 1.02 1
gene 1 9 28 -1.07222 0 26 -1.07222 1
gene 1 9 29 -1.04202 0 27 -1.04202 1
gene 1 10 27 -0.279184 0 28 -0.279184 1
gene 1 10 28 -1.51494 0 29 -1.51494 1
gene 1 10 29 0.0178216 0 30 0.0178216 1
gene 1 11 27 -0.0753808 0 27 -0.0753808 1
gene 1 11 28 1.17228 0 32 1.17228 1
gene 1 11 29 -1.2721 0 33 -1.2721 1
gene 1 12 27 2.58129 0 34 2.58129 1
gene 1 12 28 -1.26828 0 35 -1.26828 1
gene 1 12 29 -0.384968 0 36 -0.384968 1
gene 1 13 27 -0.919001 0 37 -0.919001 1
gene 1 13 28 -1.16505 0 38 -1.16505 1
gene 1 13 29 -1.13435 0 39 -1.13435 1
gene 1 14 27 -0.679981 0 40 -0.679981 1
gene 1 14 28 -3.06967 0 41 -3.06967 1
gene 1 14 29 2.02746 0 42 2.02746 1
gene 1 15 27 1.67435 0 43 1.67435 1
gene 1 15 28 -1.26749 0 44 -1.26749 1
gene 1 15 29 -4.16618 0 45 -4.16618 1
gene 1 16 27 -1.11129 0 46 -1.11129 1
gene 1 16 28 2.8792 0 47 2.8792 1
gene 1 16 29 -5 0 48 -5 1
gene 1 17 27 -2.7078 0 49 -2.7078 1
gene 1 17 28 2.03172 0 50 2.03172 1
gene 1 17 29 -1.04777 0 51 -1.04777 1
gene 1 18 27 1.41362 0 52 1.41362 1
gene 1 18 28 4.01128 0 53 4.01128 1
gene 1 18 29 1.22809 0 54 1.22809 1
gene 1 19 27 -1.16542 0 55 -1.16542 1
gene 1 19 28 2.24137 0 56 2.24137 1
gene 1 19 29 1.93937 0 57 1.93937 1
gene 1 20 27 -1.10786 0 58 -1.10786 1
gene 1 20 28 -0.478593 0 59 -0.478593 1
gene 1 20 29 3.82928 0 60 3.82928 1
gene 1 21 27 -3.42265 0 61 -3.42265 1
gene 1 21 28 -0.128053 0 62 -0.128053 1
gene 1 21 29 2.82491 0 63 2.82491 1
gene 1 22 27 -0.918965 0 64 -0.918965 1
gene 1 22 28 -0.0904445 0 65 -0.0904445 1
gene 1 22 29 0.55688 0 66 0.55688 1
gene 1 23 27 -1.38243 0 67 -1.38243 1
gene 1 23 28 -0.132366 0 68 -0.132366 1
gene 1 23 29 0.519782 0 69 0.519782 1
gene 1 24 27 0.436233 0 70 0.436233 1
gene 1 24 28 0.0357533 0 71 0.0357533 1
gene 1 24 29 -0.293949 0 72 -0.293949 1
gene 1 25 27 -0.923523 0 73 -0.923523 1
gene 1 25 28 -4.29482 0 74 -4.29482 1
gene 1 25 29 -0.359446 0 75 -0.359446 1
gene 1 26 27 -1.49541 0 76 -1.49541 1
gene 1 26 28 0.0914202 0 77 0.0914202 1
gene 1 26 29 -0.718666 0 78 -0.718666 1
genomeend 0


