/* Organism #5 Fitness: 6646.342000 Time: 0 */
genomestart 5
trait 1 0.937958 0.000000 0.134239 0.000000 0.000000 0.000000 0.333297 0.000000 
node 1 1 1 1
node 2 1 1 1
node 3 1 1 1
node 4 1 1 1
node 5 1 1 1
node 6 1 1 1
node 7 1 1 1
node 8 1 1 1
node 9 1 1 1
node 10 1 1 1
node 11 1 1 1
node 12 1 1 1
node 13 1 1 1
node 14 1 1 1
node 15 1 1 1
node 16 1 1 1
node 17 1 1 1
node 18 1 1 1
node 19 1 1 1
node 20 1 1 1
node 21 1 1 1
node 22 1 1 1
node 23 1 1 1
node 24 1 1 1
node 25 1 1 1
node 26 1 1 3
node 27 1 0 2
node 28 1 0 2
node 29 1 0 2
gene 1 1 27 -0.114366 0 1 -0.114366 1
gene 1 1 28 -1.76468 0 2 -1.76468 1
gene 1 1 29 -1.10791 0 3 -1.10791 1
gene 1 2 27 -1.74514 0 4 -1.74514 1
gene 1 2 28 -4.96667 0 5 -4.96667 1
gene 1 2 29 -0.84874 0 6 -0.84874 1
gene 1 3 27 0.518336 0 7 0.518336 1
gene 1 3 28 2.53871 0 8 2.53871 1
gene 1 3 29 -0.639149 0 9 -0.639149 1
gene 1 4 27 -5 0 10 -5 1
gene 1 4 28 2.72279 0 11 2.72279 1
gene 1 4 29 -1.51523 0 12 -1.51523 1
gene 1 5 27 3.53695 0 13 3.53695 1
gene 1 5 28 -0.677862 0 14 -0.677862 1
gene 1 5 29 -1.82814 0 15 -1.82814 1
gene 1 6 27 -2.45836 0 16 -2.45836 1
gene 1 6 28 2.69015 0 17 2.69015 1
gene 1 6 29 -1.34356 0 18 -1.34356 1
gene 1 7 27 -2.88945 0 19 -2.88945 1
gene 1 7 28 -2.65012 0 20 -2.65012 1
gene 1 7 29 3.88452 0 21 3.88452 1
gene 1 8 27 -0.83451 0 22 -0.83451 1
gene 1 8 28 -5 0 23 -5 1
gene 1 8 29 -1.94273 0 24 -1.94273 1
gene 1 9 27 0.757962 0 25 0.757962 1
gene 1 9 28 2.28986 0 26 2.28986 1
gene 1 9 29 -1.13736 0 27 -1.13736 1
gene 1 10 27 -1.46033 0 28 -1.46033 1
gene 1 10 28 0.923608 0 29 0.923608 1
gene 1 10 29 1.4144 0 30 1.4144 1
gene 1 11 27 -1.43918 0 27 -1.43918 1
gene 1 11 28 -0.884389 0 32 -0.884389 1
gene 1 11 29 0.977362 0 33 0.977362 1
gene 1 12 27 -2.76863 0 34 -2.76863 1
gene 1 12 28 0.363233 0 35 0.363233 1
gene 1 12 29 -1.89405 0 36 -1.89405 1
gene 1 13 27 -0.931407 0 37 -0.931407 1
gene 1 13 28 -0.409907 0 38 -0.409907 1
gene 1 13 29 4.09621 0 39 4.09621 1
gene 1 14 27 1.3732 0 40 1.3732 1
gene 1 14 28 1.51394 0 41 1.51394 1
gene 1 14 29 0.935936 0 42 0.935936 1
gene 1 15 27 -5 0 43 -5 1
gene 1 15 28 -5 0 44 -5 1
gene 1 15 29 -1.60337 0 45 -1.60337 1
gene 1 16 27 -1.18785 0 46 -1.18785 1
gene 1 16 28 2.89171 0 47 2.89171 1
gene 1 16 29 2.93462 0 48 2.93462 1
gene 1 17 27 -1.89763 0 49 -1.89763 1
gene 1 17 28 1.96493 0 50 1.96493 1
gene 1 17 29 -1.65498 0 51 -1.65498 1
gene 1 18 27 0.550247 0 52 0.550247 1
gene 1 18 28 4.56155 0 53 4.56155 1
gene 1 18 29 -0.814667 0 54 -0.814667 1
gene 1 19 27 -2.45079 0 55 -2.45079 1
gene 1 19 28 3.14075 0 56 3.14075 1
gene 1 19 29 2.18172 0 57 2.18172 1
gene 1 20 27 0.994085 0 58 0.994085 1
gene 1 20 28 -2.48138 0 59 -2.48138 1
gene 1 20 29 -3.5411 0 60 -3.5411 1
gene 1 21 27 -1.3523 0 61 -1.3523 1
gene 1 21 28 -0.117474 0 62 -0.117474 1
gene 1 21 29 4.64413 0 63 4.64413 1
gene 1 22 27 -0.163679 0 64 -0.163679 1
gene 1 22 28 0.00117899 0 65 0.00117899 1
gene 1 22 29 1.18835 0 66 1.18835 1
gene 1 23 27 -1.66117 0 67 -1.66117 1
gene 1 23 28 -0.038387 0 68 -0.038387 1
gene 1 23 29 -0.483715 0 69 -0.483715 1
gene 1 24 27 -0.975396 0 70 -0.975396 1
gene 1 24 28 -0.0176824 0 71 -0.0176824 1
gene 1 24 29 -0.533105 0 72 -0.533105 1
gene 1 25 27 0.457005 0 73 0.457005 1
gene 1 25 28 -4.63569 0 74 -4.63569 1
gene 1 25 29 -1.46933 0 75 -1.46933 1
gene 1 26 27 1.81114 0 76 1.81114 1
gene 1 26 28 -0.716667 0 77 -0.716667 1
gene 1 26 29 2.35581 0 78 2.35581 1
genomeend 5


