/* Organism #2 Fitness: 8633.956000 Time: 0 */
genomestart 2
trait 1 0.100000 0.000000 0.000000 0.000000 0.097081 0.000000 0.287149 0.000000 
node 1 1 1 1
node 2 1 1 1
node 3 1 1 1
node 4 1 1 1
node 5 1 1 1
node 6 1 1 1
node 7 1 1 1
node 8 1 1 1
node 9 1 1 1
node 10 1 1 1
node 11 1 1 1
node 12 1 1 1
node 13 1 1 1
node 14 1 1 1
node 15 1 1 1
node 16 1 1 1
node 17 1 1 1
node 18 1 1 1
node 19 1 1 1
node 20 1 1 1
node 21 1 1 1
node 22 1 1 1
node 23 1 1 1
node 24 1 1 1
node 25 1 1 1
node 26 1 1 1
node 27 1 1 3
node 28 1 0 2
node 29 1 0 2
node 30 1 0 2
node 31 1 0 2
gene 1 1 28 -2.93442 0 1 -2.93442 1
gene 1 1 29 -0.806165 0 2 -0.806165 1
gene 1 1 30 -0.626765 0 3 -0.626765 1
gene 1 1 31 -0.193228 0 4 -0.193228 1
gene 1 2 28 0.626776 0 5 0.626776 1
gene 1 2 29 0.630458 0 6 0.630458 1
gene 1 2 30 -3.63431 0 7 -3.63431 1
gene 1 2 31 -1.25382 0 8 -1.25382 1
gene 1 3 28 1.19587 0 9 1.19587 1
gene 1 3 29 1.90887 0 10 1.90887 1
gene 1 3 30 4.63418 0 11 4.63418 1
gene 1 3 31 1.64419 0 12 1.64419 1
gene 1 4 28 0.194676 0 13 0.194676 1
gene 1 4 29 2.84154 0 14 2.84154 1
gene 1 4 30 0.0365641 0 15 0.0365641 1
gene 1 4 31 1.54164 0 16 1.54164 1
gene 1 5 28 3.94554 0 17 3.94554 1
gene 1 5 29 2.12668 0 18 2.12668 1
gene 1 5 30 -1.39881 0 19 -1.39881 1
gene 1 5 31 0.579968 0 20 0.579968 1
gene 1 6 28 0.895304 0 21 0.895304 1
gene 1 6 29 -0.873192 0 22 -0.873192 1
gene 1 6 30 -4.60063 0 23 -4.60063 1
gene 1 6 31 1.0566 0 24 1.0566 1
gene 1 7 28 1.81963 0 25 1.81963 1
gene 1 7 29 -4.37345 0 26 -4.37345 1
gene 1 7 30 0.6012 0 27 0.6012 1
gene 1 7 31 0.599191 0 28 0.599191 1
gene 1 8 28 1.42937 0 29 1.42937 1
gene 1 8 29 -4.96347 0 30 -4.96347 1
gene 1 8 30 -2.96974 0 31 -2.96974 1
gene 1 8 31 1.06733 0 32 1.06733 1
gene 1 9 28 -0.34496 0 33 -0.34496 1
gene 1 9 29 -2.266 0 34 -2.266 1
gene 1 9 30 0.00712442 0 35 0.00712442 1
gene 1 9 31 3.00593 0 36 3.00593 1
gene 1 10 28 -1.59343 0 37 -1.59343 1
gene 1 10 29 -0.492595 0 38 -0.492595 1
gene 1 10 30 -3.2231 0 39 -3.2231 1
gene 1 10 31 1.84566 0 40 1.84566 1
gene 1 11 28 -1.66834 0 41 -1.66834 1
gene 1 11 29 5 0 42 5 1
gene 1 11 30 1.03288 0 43 1.03288 1
gene 1 11 31 3.29508 0 44 3.29508 1
gene 1 12 28 0.263981 0 45 0.263981 1
gene 1 12 29 -0.0400318 0 46 -0.0400318 1
gene 1 12 30 0.193037 0 47 0.193037 1
gene 1 12 31 -1.40075 0 48 -1.40075 1
gene 1 13 28 0.0326751 0 49 0.0326751 1
gene 1 13 29 -0.847622 0 50 -0.847622 1
gene 1 13 30 1.57993 0 51 1.57993 1
gene 1 13 31 -0.96409 0 52 -0.96409 1
gene 1 14 28 -0.326843 0 53 -0.326843 1
gene 1 14 29 -0.999911 0 54 -0.999911 1
gene 1 14 30 -0.00163322 0 55 -0.00163322 1
gene 1 14 31 0.258405 0 56 0.258405 1
gene 1 15 28 0.619413 0 57 0.619413 1
gene 1 15 29 0.284734 0 58 0.284734 1
gene 1 15 30 0.614679 0 59 0.614679 1
gene 1 15 31 -1.76841 0 60 -1.76841 1
gene 1 16 28 0.0716349 0 61 0.0716349 1
gene 1 16 29 -0.141114 0 62 -0.141114 1
gene 1 16 30 -5 0 63 -5 1
gene 1 16 31 -0.45418 0 64 -0.45418 1
gene 1 17 28 2.70048 0 65 2.70048 1
gene 1 17 29 -4.44958 0 66 -4.44958 1
gene 1 17 30 -4.85257 0 67 -4.85257 1
gene 1 17 31 4.09983 0 68 4.09983 1
gene 1 18 28 4.59282 0 69 4.59282 1
gene 1 18 29 -2.2578 0 70 -2.2578 1
gene 1 18 30 -0.198768 0 71 -0.198768 1
gene 1 18 31 0.060768 0 72 0.060768 1
gene 1 19 28 -1.55258 0 73 -1.55258 1
gene 1 19 29 -5 0 74 -5 1
gene 1 19 30 4.7842 0 75 4.7842 1
gene 1 19 31 1.11113 0 76 1.11113 1
gene 1 20 28 -0.952738 0 77 -0.952738 1
gene 1 20 29 0.25146 0 78 0.25146 1
gene 1 20 30 0.572501 0 79 0.572501 1
gene 1 20 31 1.86399 0 80 1.86399 1
gene 1 21 28 -0.106501 0 81 -0.106501 1
gene 1 21 29 -1.2253 0 82 -1.2253 1
gene 1 21 30 -2.62392 0 83 -2.62392 1
gene 1 21 31 3.79148 0 84 3.79148 1
gene 1 22 28 0.818577 0 85 0.818577 1
gene 1 22 29 -2.44849 0 86 -2.44849 1
gene 1 22 30 -0.0258483 0 87 -0.0258483 1
gene 1 22 31 -0.598085 0 88 -0.598085 1
gene 1 23 28 -0.747496 0 89 -0.747496 1
gene 1 23 29 -0.786778 0 90 -0.786778 1
gene 1 23 30 -0.256308 0 91 -0.256308 1
gene 1 23 31 -0.377413 0 92 -0.377413 1
gene 1 24 28 -0.552429 0 93 -0.552429 1
gene 1 24 29 -1.09008 0 94 -1.09008 1
gene 1 24 30 0.396811 0 95 0.396811 1
gene 1 24 31 -0.46165 0 96 -0.46165 1
gene 1 25 28 -0.358875 0 97 -0.358875 1
gene 1 25 29 0.386605 0 98 0.386605 1
gene 1 25 30 0.616012 0 99 0.616012 1
gene 1 25 31 1.28049 0 100 1.28049 1
gene 1 26 28 0.403662 0 101 0.403662 1
gene 1 26 29 1.46892 0 102 1.46892 1
gene 1 26 30 -0.596265 0 103 -0.596265 1
gene 1 26 31 -1.30097 0 104 -1.30097 1
gene 1 27 28 -4.449 0 105 -4.449 1
gene 1 27 29 -0.0732023 0 106 -0.0732023 1
gene 1 27 30 1.88291 0 107 1.88291 1
gene 1 27 31 1.14463 0 108 1.14463 1
genomeend 2


