/* Organism #5 Fitness: 8819.668000 Time: 0 */
genomestart 5
trait 1 0.000000 0.522806 1.000000 0.988629 0.382609 0.511871 1.000000 0.925602 
node 1 1 1 1
node 2 1 1 1
node 3 1 1 1
node 4 1 1 1
node 5 1 1 1
node 6 1 1 1
node 7 1 1 1
node 8 1 1 1
node 9 1 1 1
node 10 1 1 1
node 11 1 1 1
node 12 1 1 1
node 13 1 1 1
node 14 1 1 1
node 15 1 1 1
node 16 1 1 1
node 17 1 1 1
node 18 1 1 1
node 19 1 1 1
node 20 1 1 1
node 21 1 1 1
node 22 1 1 1
node 23 1 1 1
node 24 1 1 1
node 25 1 1 1
node 26 1 1 1
node 27 1 1 3
node 28 1 0 2
node 29 1 0 2
node 30 1 0 2
node 31 1 0 2
gene 1 1 28 -1.02169 0 1 -1.02169 1
gene 1 1 29 -0.532697 0 2 -0.532697 1
gene 1 1 30 3.12825 0 3 3.12825 1
gene 1 1 31 1.97149 0 4 1.97149 1
gene 1 2 28 -0.767055 0 5 -0.767055 1
gene 1 2 29 2.79365 0 6 2.79365 1
gene 1 2 30 2.03999 0 7 2.03999 1
gene 1 2 31 -1.1878 0 8 -1.1878 1
gene 1 3 28 0.110847 0 9 0.110847 1
gene 1 3 29 1.02117 0 10 1.02117 1
gene 1 3 30 3.45931 0 11 3.45931 1
gene 1 3 31 4.58256 0 12 4.58256 1
gene 1 4 28 0.744768 0 13 0.744768 1
gene 1 4 29 2.19145 0 14 2.19145 1
gene 1 4 30 1.58618 0 15 1.58618 1
gene 1 4 31 -2.23107 0 16 -2.23107 1
gene 1 5 28 3.01323 0 17 3.01323 1
gene 1 5 29 2.57218 0 18 2.57218 1
gene 1 5 30 -1.01909 0 19 -1.01909 1
gene 1 5 31 1.72137 0 20 1.72137 1
gene 1 6 28 0.394057 0 21 0.394057 1
gene 1 6 29 -0.68309 0 22 -0.68309 1
gene 1 6 30 0.316306 0 23 0.316306 1
gene 1 6 31 -1.82282 0 24 -1.82282 1
gene 1 7 28 5 0 25 5 1
gene 1 7 29 1.05888 0 26 1.05888 1
gene 1 7 30 -1.17146 0 27 -1.17146 1
gene 1 7 31 4.02762 0 28 4.02762 1
gene 1 8 28 -1.2504 0 29 -1.2504 1
gene 1 8 29 -0.359156 0 30 -0.359156 1
gene 1 8 30 0.270801 0 31 0.270801 1
gene 1 8 31 0.871874 0 32 0.871874 1
gene 1 9 28 -1.24227 0 33 -1.24227 1
gene 1 9 29 -0.934242 0 34 -0.934242 1
gene 1 9 30 -1.85605 0 35 -1.85605 1
gene 1 9 31 -0.0257348 0 36 -0.0257348 1
gene 1 10 28 -0.0521594 0 37 -0.0521594 1
gene 1 10 29 -0.0354532 0 38 -0.0354532 1
gene 1 10 30 -4.81883 0 39 -4.81883 1
gene 1 10 31 -1.1696 0 40 -1.1696 1
gene 1 11 28 1.61186 0 41 1.61186 1
gene 1 11 29 -1.6403 0 42 -1.6403 1
gene 1 11 30 5 0 43 5 1
gene 1 11 31 -0.15886 0 44 -0.15886 1
gene 1 12 28 2.17896 0 45 2.17896 1
gene 1 12 29 2.8346 0 46 2.8346 1
gene 1 12 30 -1.41384 0 47 -1.41384 1
gene 1 12 31 -0.522747 0 48 -0.522747 1
gene 1 13 28 -1.74195 0 49 -1.74195 1
gene 1 13 29 -3.38568 0 50 -3.38568 1
gene 1 13 30 5 0 51 5 1
gene 1 13 31 -4.12649 0 52 -4.12649 1
gene 1 14 28 -2.31539 0 53 -2.31539 1
gene 1 14 29 2.25977 0 54 2.25977 1
gene 1 14 30 -0.485918 0 55 -0.485918 1
gene 1 14 31 -0.0876614 0 56 -0.0876614 1
gene 1 15 28 -0.509695 0 57 -0.509695 1
gene 1 15 29 -0.670898 0 58 -0.670898 1
gene 1 15 30 0.246901 0 59 0.246901 1
gene 1 15 31 -0.693372 0 60 -0.693372 1
gene 1 16 28 0.0625888 0 61 0.0625888 1
gene 1 16 29 0.518039 0 62 0.518039 1
gene 1 16 30 -0.0711104 0 63 -0.0711104 1
gene 1 16 31 -0.464266 0 64 -0.464266 1
gene 1 17 28 -3.44546 0 65 -3.44546 1
gene 1 17 29 1.46402 0 66 1.46402 1
gene 1 17 30 -0.383418 0 67 -0.383418 1
gene 1 17 31 4.37626 0 68 4.37626 1
gene 1 18 28 -4.36457 0 69 -4.36457 1
gene 1 18 29 5 0 70 5 1
gene 1 18 30 -0.150149 0 71 -0.150149 1
gene 1 18 31 0.92584 0 72 0.92584 1
gene 1 19 28 -4.61731 0 73 -4.61731 1
gene 1 19 29 -0.472218 0 74 -0.472218 1
gene 1 19 30 -0.172915 0 75 -0.172915 1
gene 1 19 31 -1.03432 0 76 -1.03432 1
gene 1 20 28 -0.218261 0 77 -0.218261 1
gene 1 20 29 0.418164 0 78 0.418164 1
gene 1 20 30 4.11685 0 79 4.11685 1
gene 1 20 31 -2.02628 0 80 -2.02628 1
gene 1 21 28 3.87726 0 81 3.87726 1
gene 1 21 29 0.408616 0 82 0.408616 1
gene 1 21 30 2.1796 0 83 2.1796 1
gene 1 21 31 -1.21125 0 84 -1.21125 1
gene 1 22 28 -0.825107 0 85 -0.825107 1
gene 1 22 29 1.74213 0 86 1.74213 1
gene 1 22 30 3.42484 0 87 3.42484 1
gene 1 22 31 0.511631 0 88 0.511631 1
gene 1 23 28 1.40863 0 89 1.40863 1
gene 1 23 29 -0.558063 0 90 -0.558063 1
gene 1 23 30 0.760042 0 91 0.760042 1
gene 1 23 31 0.727859 0 92 0.727859 1
gene 1 24 28 1.1825 0 93 1.1825 1
gene 1 24 29 0.344721 0 94 0.344721 1
gene 1 24 30 -0.687171 0 95 -0.687171 1
gene 1 24 31 0.257662 0 96 0.257662 1
gene 1 25 28 -0.625234 0 97 -0.625234 1
gene 1 25 29 -0.723167 0 98 -0.723167 1
gene 1 25 30 -2.62935 0 99 -2.62935 1
gene 1 25 31 0.199252 0 100 0.199252 1
gene 1 26 28 0.0865643 0 101 0.0865643 1
gene 1 26 29 -0.652001 0 102 -0.652001 1
gene 1 26 30 -0.191943 0 103 -0.191943 1
gene 1 26 31 -0.943055 0 104 -0.943055 1
gene 1 27 28 1.93982 0 105 1.93982 1
gene 1 27 29 -4.18874 0 106 -4.18874 1
gene 1 27 30 1.47441 0 107 1.47441 1
gene 1 27 31 -0.483043 0 108 -0.483043 1
genomeend 5


