/* Organism #13 Fitness: 9034.292000 Time: 0 */
genomestart 13
trait 1 0.000000 0.000000 0.000000 1.000000 0.000000 0.958398 0.000000 0.000000 
node 1 1 1 1
node 2 1 1 1
node 3 1 1 1
node 4 1 1 1
node 5 1 1 1
node 6 1 1 1
node 7 1 1 1
node 8 1 1 1
node 9 1 1 1
node 10 1 1 1
node 11 1 1 1
node 12 1 1 1
node 13 1 1 1
node 14 1 1 1
node 15 1 1 1
node 16 1 1 1
node 17 1 1 1
node 18 1 1 1
node 19 1 1 1
node 20 1 1 1
node 21 1 1 1
node 22 1 1 1
node 23 1 1 1
node 24 1 1 1
node 25 1 1 1
node 26 1 1 1
node 27 1 1 3
node 28 1 0 2
node 29 1 0 2
node 30 1 0 2
node 31 1 0 2
gene 1 1 28 -0.186213 0 1 -0.186213 1
gene 1 1 29 -4.35148 0 2 -4.35148 1
gene 1 1 30 1.2333 0 3 1.2333 1
gene 1 1 31 -2.29942 0 4 -2.29942 1
gene 1 2 28 -3.38797 0 5 -3.38797 1
gene 1 2 29 2.9422 0 6 2.9422 1
gene 1 2 30 -3.6034 0 7 -3.6034 1
gene 1 2 31 1.74295 0 8 1.74295 1
gene 1 3 28 -1.12707 0 9 -1.12707 1
gene 1 3 29 1.7331 0 10 1.7331 1
gene 1 3 30 -0.374078 0 11 -0.374078 1
gene 1 3 31 -1.33398 0 12 -1.33398 1
gene 1 4 28 0.874166 0 13 0.874166 1
gene 1 4 29 1.75022 0 14 1.75022 1
gene 1 4 30 -1.51604 0 15 -1.51604 1
gene 1 4 31 -4.99687 0 16 -4.99687 1
gene 1 5 28 2.14495 0 17 2.14495 1
gene 1 5 29 2.2956 0 18 2.2956 1
gene 1 5 30 4.37085 0 19 4.37085 1
gene 1 5 31 -2.78864 0 20 -2.78864 1
gene 1 6 28 1.22779 0 21 1.22779 1
gene 1 6 29 -0.773269 0 22 -0.773269 1
gene 1 6 30 4.29097 0 23 4.29097 1
gene 1 6 31 -2.983 0 24 -2.983 1
gene 1 7 28 4.31128 0 25 4.31128 1
gene 1 7 29 -2.60607 0 26 -2.60607 1
gene 1 7 30 -0.000607396 0 27 -0.000607396 1
gene 1 7 31 1.27921 0 28 1.27921 1
gene 1 8 28 -1.93576 0 29 -1.93576 1
gene 1 8 29 -0.3959 0 30 -0.3959 1
gene 1 8 30 -0.813167 0 31 -0.813167 1
gene 1 8 31 3.09504 0 32 3.09504 1
gene 1 9 28 3.22005 0 33 3.22005 1
gene 1 9 29 -1.13236 0 34 -1.13236 1
gene 1 9 30 0.0836575 0 35 0.0836575 1
gene 1 9 31 -0.171313 0 36 -0.171313 1
gene 1 10 28 -2.58333 0 37 -2.58333 1
gene 1 10 29 -0.0838033 0 38 -0.0838033 1
gene 1 10 30 0.229344 0 39 0.229344 1
gene 1 10 31 -0.78633 0 40 -0.78633 1
gene 1 11 28 0.33324 0 41 0.33324 1
gene 1 11 29 -1.54206 0 42 -1.54206 1
gene 1 11 30 2.05493 0 43 2.05493 1
gene 1 11 31 2.11505 0 44 2.11505 1
gene 1 12 28 -0.696696 0 45 -0.696696 1
gene 1 12 29 0.494914 0 46 0.494914 1
gene 1 12 30 -1.53902 0 47 -1.53902 1
gene 1 12 31 -1.21591 0 48 -1.21591 1
gene 1 13 28 -0.316042 0 49 -0.316042 1
gene 1 13 29 4.9425 0 50 4.9425 1
gene 1 13 30 4.22467 0 51 4.22467 1
gene 1 13 31 1.86904 0 52 1.86904 1
gene 1 14 28 2.41397 0 53 2.41397 1
gene 1 14 29 -0.225622 0 54 -0.225622 1
gene 1 14 30 -1.15132 0 55 -1.15132 1
gene 1 14 31 -0.461045 0 56 -0.461045 1
gene 1 15 28 -2.83982 0 57 -2.83982 1
gene 1 15 29 0.00289185 0 58 0.00289185 1
gene 1 15 30 1.19685 0 59 1.19685 1
gene 1 15 31 -5 0 60 -5 1
gene 1 16 28 1.8185 0 61 1.8185 1
gene 1 16 29 2.08773 0 62 2.08773 1
gene 1 16 30 0.753742 0 63 0.753742 1
gene 1 16 31 -3.84177 0 64 -3.84177 1
gene 1 17 28 -3.4397 0 65 -3.4397 1
gene 1 17 29 0.107065 0 66 0.107065 1
gene 1 17 30 1.09336 0 67 1.09336 1
gene 1 17 31 -0.25019 0 68 -0.25019 1
gene 1 18 28 -4.60587 0 69 -4.60587 1
gene 1 18 29 3.99419 0 70 3.99419 1
gene 1 18 30 2.59124 0 71 2.59124 1
gene 1 18 31 2.49554 0 72 2.49554 1
gene 1 19 28 -1.24555 0 73 -1.24555 1
gene 1 19 29 2.59189 0 74 2.59189 1
gene 1 19 30 1.75986 0 75 1.75986 1
gene 1 19 31 -2.89775 0 76 -2.89775 1
gene 1 20 28 -0.33795 0 77 -0.33795 1
gene 1 20 29 0.62954 0 78 0.62954 1
gene 1 20 30 0.815639 0 79 0.815639 1
gene 1 20 31 -2.10227 0 80 -2.10227 1
gene 1 21 28 -1.47018 0 81 -1.47018 1
gene 1 21 29 -2.79215 0 82 -2.79215 1
gene 1 21 30 -0.262582 0 83 -0.262582 1
gene 1 21 31 3.296 0 84 3.296 1
gene 1 22 28 0.274928 0 85 0.274928 1
gene 1 22 29 -2.17197 0 86 -2.17197 1
gene 1 22 30 0.878338 0 87 0.878338 1
gene 1 22 31 0.679382 0 88 0.679382 1
gene 1 23 28 -1.70647 0 89 -1.70647 1
gene 1 23 29 -0.0287718 0 90 -0.0287718 1
gene 1 23 30 -0.30403 0 91 -0.30403 1
gene 1 23 31 -1.3475 0 92 -1.3475 1
gene 1 24 28 -0.854958 0 93 -0.854958 1
gene 1 24 29 1.95609 0 94 1.95609 1
gene 1 24 30 0.89584 0 95 0.89584 1
gene 1 24 31 -0.361125 0 96 -0.361125 1
gene 1 25 28 0.436975 0 97 0.436975 1
gene 1 25 29 -0.710476 0 98 -0.710476 1
gene 1 25 30 1.9606 0 99 1.9606 1
gene 1 25 31 0.0852807 0 100 0.0852807 1
gene 1 26 28 0.79269 0 101 0.79269 1
gene 1 26 29 1.02453 0 102 1.02453 1
gene 1 26 30 -0.458879 0 103 -0.458879 1
gene 1 26 31 3.79059 0 104 3.79059 1
gene 1 27 28 0.660539 0 105 0.660539 1
gene 1 27 29 -4.67812 0 106 -4.67812 1
gene 1 27 30 0.205753 0 107 0.205753 1
gene 1 27 31 -1.96894 0 108 -1.96894 1
genomeend 13


