/* Organism #1 Fitness: 8787.946000 Time: 0 */
genomestart 1
trait 1 0.000000 0.213063 0.863751 0.000000 0.000000 0.399173 0.244487 0.726144 
node 1 1 1 1
node 2 1 1 1
node 3 1 1 1
node 4 1 1 1
node 5 1 1 1
node 6 1 1 1
node 7 1 1 1
node 8 1 1 1
node 9 1 1 1
node 10 1 1 1
node 11 1 1 1
node 12 1 1 1
node 13 1 1 1
node 14 1 1 1
node 15 1 1 1
node 16 1 1 1
node 17 1 1 1
node 18 1 1 1
node 19 1 1 1
node 20 1 1 1
node 21 1 1 1
node 22 1 1 1
node 23 1 1 1
node 24 1 1 1
node 25 1 1 1
node 26 1 1 1
node 27 1 1 3
node 28 1 0 2
node 29 1 0 2
node 30 1 0 2
node 31 1 0 2
gene 1 1 28 -0.375378 0 1 -0.375378 1
gene 1 1 29 -0.253833 0 2 -0.253833 1
gene 1 1 30 -3.43536 0 3 -3.43536 1
gene 1 1 31 2.23342 0 4 2.23342 1
gene 1 2 28 -3.36943 0 5 -3.36943 1
gene 1 2 29 5 0 6 5 1
gene 1 2 30 0.536837 0 7 0.536837 1
gene 1 2 31 -0.688294 0 8 -0.688294 1
gene 1 3 28 0.445799 0 9 0.445799 1
gene 1 3 29 4.27984 0 10 4.27984 1
gene 1 3 30 0.543094 0 11 0.543094 1
gene 1 3 31 -2.75057 0 12 -2.75057 1
gene 1 4 28 0.726871 0 13 0.726871 1
gene 1 4 29 0.410957 0 14 0.410957 1
gene 1 4 30 -1.29868 0 15 -1.29868 1
gene 1 4 31 3.65438 0 16 3.65438 1
gene 1 5 28 0.75798 0 17 0.75798 1
gene 1 5 29 3.4973 0 18 3.4973 1
gene 1 5 30 -2.61143 0 19 -2.61143 1
gene 1 5 31 -2.84194 0 20 -2.84194 1
gene 1 6 28 2.20462 0 21 2.20462 1
gene 1 6 29 -0.312651 0 22 -0.312651 1
gene 1 6 30 -0.0167676 0 23 -0.0167676 1
gene 1 6 31 -2.99143 0 24 -2.99143 1
gene 1 7 28 1.83092 0 25 1.83092 1
gene 1 7 29 0.0748383 0 26 0.0748383 1
gene 1 7 30 -1.09486 0 27 -1.09486 1
gene 1 7 31 -2.78423 0 28 -2.78423 1
gene 1 8 28 0.718593 0 29 0.718593 1
gene 1 8 29 -0.245727 0 30 -0.245727 1
gene 1 8 30 1.01205 0 31 1.01205 1
gene 1 8 31 1.39947 0 32 1.39947 1
gene 1 9 28 -0.976335 0 33 -0.976335 1
gene 1 9 29 0.93392 0 34 0.93392 1
gene 1 9 30 -0.853021 0 35 -0.853021 1
gene 1 9 31 0.293355 0 36 0.293355 1
gene 1 10 28 0.684468 0 37 0.684468 1
gene 1 10 29 0.209071 0 38 0.209071 1
gene 1 10 30 0.0652828 0 39 0.0652828 1
gene 1 10 31 -2.47489 0 40 -2.47489 1
gene 1 11 28 3.30292 0 41 3.30292 1
gene 1 11 29 -3.70042 0 42 -3.70042 1
gene 1 11 30 2.11746 0 43 2.11746 1
gene 1 11 31 1.94618 0 44 1.94618 1
gene 1 12 28 -2.65817 0 45 -2.65817 1
gene 1 12 29 0.475115 0 46 0.475115 1
gene 1 12 30 -2.39998 0 47 -2.39998 1
gene 1 12 31 0.211985 0 48 0.211985 1
gene 1 13 28 1.75333 0 49 1.75333 1
gene 1 13 29 -3.13728 0 50 -3.13728 1
gene 1 13 30 -1.53174 0 51 -1.53174 1
gene 1 13 31 4.49315 0 52 4.49315 1
gene 1 14 28 -1.7724 0 53 -1.7724 1
gene 1 14 29 -4.60052 0 54 -4.60052 1
gene 1 14 30 -0.0471315 0 55 -0.0471315 1
gene 1 14 31 -2.48475 0 56 -2.48475 1
gene 1 15 28 3.45526 0 57 3.45526 1
gene 1 15 29 -0.414261 0 58 -0.414261 1
gene 1 15 30 -3.44516 0 59 -3.44516 1
gene 1 15 31 5 0 60 5 1
gene 1 16 28 -0.348866 0 61 -0.348866 1
gene 1 16 29 0.400567 0 62 0.400567 1
gene 1 16 30 1.02429 0 63 1.02429 1
gene 1 16 31 -1.74963 0 64 -1.74963 1
gene 1 17 28 1.60516 0 65 1.60516 1
gene 1 17 29 -5 0 66 -5 1
gene 1 17 30 2.5952 0 67 2.5952 1
gene 1 17 31 -3.79529 0 68 -3.79529 1
gene 1 18 28 3.41605 0 69 3.41605 1
gene 1 18 29 -3.81089 0 70 -3.81089 1
gene 1 18 30 -2.12677 0 71 -2.12677 1
gene 1 18 31 2.32193 0 72 2.32193 1
gene 1 19 28 0.852621 0 73 0.852621 1
gene 1 19 29 -4.42877 0 74 -4.42877 1
gene 1 19 30 -3.51048 0 75 -3.51048 1
gene 1 19 31 -0.289282 0 76 -0.289282 1
gene 1 20 28 -0.848281 0 77 -0.848281 1
gene 1 20 29 0.669856 0 78 0.669856 1
gene 1 20 30 -0.550268 0 79 -0.550268 1
gene 1 20 31 3.18481 0 80 3.18481 1
gene 1 21 28 -0.29511 0 81 -0.29511 1
gene 1 21 29 2.29596 0 82 2.29596 1
gene 1 21 30 -0.316256 0 83 -0.316256 1
gene 1 21 31 -5 0 84 -5 1
gene 1 22 28 -0.0846476 0 85 -0.0846476 1
gene 1 22 29 1.22435 0 86 1.22435 1
gene 1 22 30 -3.10374 0 87 -3.10374 1
gene 1 22 31 -0.953217 0 88 -0.953217 1
gene 1 23 28 0.273219 0 89 0.273219 1
gene 1 23 29 -0.723279 0 90 -0.723279 1
gene 1 23 30 -0.0152716 0 91 -0.0152716 1
gene 1 23 31 -0.303338 0 92 -0.303338 1
gene 1 24 28 -0.760652 0 93 -0.760652 1
gene 1 24 29 0.875117 0 94 0.875117 1
gene 1 24 30 1.1008 0 95 1.1008 1
gene 1 24 31 -0.89631 0 96 -0.89631 1
gene 1 25 28 0.0787136 0 97 0.0787136 1
gene 1 25 29 -0.0041175 0 98 -0.0041175 1
gene 1 25 30 -1.28986 0 99 -1.28986 1
gene 1 25 31 0.405107 0 100 0.405107 1
gene 1 26 28 0.280894 0 101 0.280894 1
gene 1 26 29 0.771913 0 102 0.771913 1
gene 1 26 30 0.64587 0 103 0.64587 1
gene 1 26 31 1.85264 0 104 1.85264 1
gene 1 27 28 -4.28843 0 105 -4.28843 1
gene 1 27 29 -0.226801 0 106 -0.226801 1
gene 1 27 30 -0.577435 0 107 -0.577435 1
gene 1 27 31 1.4165 0 108 1.4165 1
genomeend 1


