/* Organism #15 Fitness: 14718.700000 Time: 0 */
genomestart 15
trait 1 0.100000 0.000000 0.000000 0.000000 0.000000 0.000000 0.000000 0.000000 
node 1 1 1 1
node 2 1 1 1
node 3 1 1 1
node 4 1 1 1
node 5 1 1 1
node 6 1 1 1
node 7 1 1 1
node 8 1 1 1
node 9 1 1 1
node 10 1 1 1
node 11 1 1 1
node 12 1 1 1
node 13 1 1 1
node 14 1 1 1
node 15 1 1 1
node 16 1 1 1
node 17 1 1 1
node 18 1 1 1
node 19 1 1 1
node 20 1 1 1
node 21 1 1 1
node 22 1 1 1
node 23 1 1 1
node 24 1 1 1
node 25 1 1 1
node 26 1 1 1
node 27 1 1 1
node 28 1 1 1
node 29 1 1 1
node 30 1 1 3
node 31 1 0 2
node 32 1 0 2
node 33 1 0 2
gene 1 1 31 0.224644 0 1 0.224644 1
gene 1 1 32 -3.95425 0 2 -3.95425 1
gene 1 1 33 0.894878 0 3 0.894878 1
gene 1 2 31 1.90797 0 4 1.90797 1
gene 1 2 32 5 0 5 5 1
gene 1 2 33 1.48796 0 6 1.48796 1
gene 1 3 31 1.84014 0 7 1.84014 1
gene 1 3 32 2.65653 0 8 2.65653 1
gene 1 3 33 4.49253 0 9 4.49253 1
gene 1 4 31 0.240189 0 10 0.240189 1
gene 1 4 32 3.15157 0 11 3.15157 1
gene 1 4 33 -1.21175 0 12 -1.21175 1
gene 1 5 31 -2.2282 0 13 -2.2282 1
gene 1 5 32 1.20819 0 14 1.20819 1
gene 1 5 33 -1.06396 0 15 -1.06396 1
gene 1 6 31 3.86103 0 16 3.86103 1
gene 1 6 32 0.695544 0 17 0.695544 1
gene 1 6 33 -2.67071 0 18 -2.67071 1
gene 1 7 31 -4.81718 0 19 -4.81718 1
gene 1 7 32 -4.34977 0 20 -4.34977 1
gene 1 7 33 -1.08215 0 21 -1.08215 1
gene 1 8 31 0.289086 0 22 0.289086 1
gene 1 8 32 -5 0 23 -5 1
gene 1 8 33 -1.63408 0 24 -1.63408 1
gene 1 9 31 1.65357 0 25 1.65357 1
gene 1 9 32 2.61803 0 26 2.61803 1
gene 1 9 33 4.14995 0 27 4.14995 1
gene 1 10 31 -5 0 28 -5 1
gene 1 10 32 -5 0 29 -5 1
gene 1 10 33 3.55935 0 30 3.55935 1
gene 1 11 31 -4.57094 0 31 -4.57094 1
gene 1 11 32 -1.89881 0 32 -1.89881 1
gene 1 11 33 0.647871 0 33 0.647871 1
gene 1 12 31 4.36916 0 34 4.36916 1
gene 1 12 32 3.74576 0 35 3.74576 1
gene 1 12 33 3.00073 0 36 3.00073 1
gene 1 13 31 1.97369 0 37 1.97369 1
gene 1 13 32 -0.572048 0 38 -0.572048 1
gene 1 13 33 2.34123 0 39 2.34123 1
gene 1 14 31 -2.80271 0 40 -2.80271 1
gene 1 14 32 -2.57281 0 41 -2.57281 1
gene 1 14 33 -2.19825 0 42 -2.19825 1
gene 1 15 31 -0.0553974 0 43 -0.0553974 1
gene 1 15 32 2.6943 0 44 2.6943 1
gene 1 15 33 0.125477 0 45 0.125477 1
gene 1 16 31 -0.659595 0 46 -0.659595 1
gene 1 16 32 3.53144 0 47 3.53144 1
gene 1 16 33 1.61805 0 48 1.61805 1
gene 1 17 31 -0.83959 0 49 -0.83959 1
gene 1 17 32 -3.29699 0 50 -3.29699 1
gene 1 17 33 -2.53412 0 51 -2.53412 1
gene 1 18 31 -2.64375 0 52 -2.64375 1
gene 1 18 32 -5 0 53 -5 1
gene 1 18 33 -2.13945 0 54 -2.13945 1
gene 1 19 31 2.10954 0 55 2.10954 1
gene 1 19 32 -2.67402 0 56 -2.67402 1
gene 1 19 33 -3.87526 0 57 -3.87526 1
gene 1 20 31 -3.74911 0 58 -3.74911 1
gene 1 20 32 -0.849911 0 59 -0.849911 1
gene 1 20 33 1.63573 0 60 1.63573 1
gene 1 21 31 -1.07504 0 61 -1.07504 1
gene 1 21 32 0.925579 0 62 0.925579 1
gene 1 21 33 3.20238 0 63 3.20238 1
gene 1 22 31 -1.19445 0 64 -1.19445 1
gene 1 22 32 -3.44554 0 65 -3.44554 1
gene 1 22 33 -0.805054 0 66 -0.805054 1
gene 1 23 31 -1.41812 0 67 -1.41812 1
gene 1 23 32 -4.43924 0 68 -4.43924 1
gene 1 23 33 -2.15348 0 69 -2.15348 1
gene 1 24 31 -1.05885 0 70 -1.05885 1
gene 1 24 32 3.70181 0 71 3.70181 1
gene 1 24 33 -4.11493 0 72 -4.11493 1
gene 1 25 31 3.42353 0 73 3.42353 1
gene 1 25 32 0.9312 0 74 0.9312 1
gene 1 25 33 -0.273548 0 75 -0.273548 1
gene 1 26 31 0.407981 0 76 0.407981 1
gene 1 26 32 0.592948 0 77 0.592948 1
gene 1 26 33 -0.497508 0 78 -0.497508 1
gene 1 27 31 -0.860826 0 79 -0.860826 1
gene 1 27 32 1.07599 0 80 1.07599 1
gene 1 27 33 0.308213 0 81 0.308213 1
gene 1 28 31 -0.19928 0 82 -0.19928 1
gene 1 28 32 0.0386438 0 83 0.0386438 1
gene 1 28 33 -0.928413 0 84 -0.928413 1
gene 1 29 31 0.969214 0 85 0.969214 1
gene 1 29 32 0.969213 0 86 0.969213 1
gene 1 29 33 -0.372636 0 87 -0.372636 1
gene 1 30 31 -3.41665 0 88 -3.41665 1
gene 1 30 32 1.2191 0 89 1.2191 1
gene 1 30 33 0.588252 0 90 0.588252 1
genomeend 15


