/* Organism #98 Fitness: 8446.900000 Time: 0 */
genomestart 98
trait 1 1.000000 0.000000 0.951790 0.000000 0.410090 0.000000 0.955226 0.231356 
node 1 1 1 1
node 2 1 1 1
node 3 1 1 1
node 4 1 1 1
node 5 1 1 1
node 6 1 1 1
node 7 1 1 1
node 8 1 1 1
node 9 1 1 1
node 10 1 1 1
node 11 1 1 1
node 12 1 1 1
node 13 1 1 1
node 14 1 1 1
node 15 1 1 1
node 16 1 1 1
node 17 1 1 1
node 18 1 1 1
node 19 1 1 1
node 20 1 1 1
node 21 1 1 1
node 22 1 1 1
node 23 1 1 1
node 24 1 1 1
node 25 1 1 1
node 26 1 1 1
node 27 1 1 1
node 28 1 1 1
node 29 1 1 1
node 30 1 1 1
node 31 1 1 1
node 32 1 1 1
node 33 1 1 1
node 34 1 1 1
node 35 1 1 1
node 36 1 1 1
node 37 1 1 1
node 38 1 1 1
node 39 1 1 1
node 40 1 1 3
node 41 1 0 2
node 42 1 0 2
node 43 1 0 2
node 44 1 0 2
node 45 1 0 2
gene 1 1 41 -5 0 1 -5 1
gene 1 1 42 -0.544099 0 2 -0.544099 1
gene 1 1 43 2.70986 0 3 2.70986 1
gene 1 1 44 0.21071 0 4 0.21071 1
gene 1 1 45 1.34459 0 5 1.34459 1
gene 1 2 41 1.42044 0 6 1.42044 1
gene 1 2 42 2.98831 0 7 2.98831 1
gene 1 2 43 -0.112247 0 8 -0.112247 1
gene 1 2 44 0.201691 0 9 0.201691 1
gene 1 2 45 -0.840769 0 10 -0.840769 1
gene 1 3 41 0.640601 0 11 0.640601 1
gene 1 3 42 2.9046 0 12 2.9046 1
gene 1 3 43 -0.0460284 0 13 -0.0460284 1
gene 1 3 44 1.09253 0 14 1.09253 1
gene 1 3 45 2.33581 0 15 2.33581 1
gene 1 4 41 0.678436 0 16 0.678436 1
gene 1 4 42 3.70741 0 17 3.70741 1
gene 1 4 43 0.231555 0 18 0.231555 1
gene 1 4 44 -3.58884 0 19 -3.58884 1
gene 1 4 45 0.746967 0 20 0.746967 1
gene 1 5 41 1.74736 0 21 1.74736 1
gene 1 5 42 4.09211 0 22 4.09211 1
gene 1 5 43 1.97029 0 23 1.97029 1
gene 1 5 44 4.24703 0 24 4.24703 1
gene 1 5 45 -5 0 25 -5 1
gene 1 6 41 1.59319 0 26 1.59319 1
gene 1 6 42 0.688747 0 27 0.688747 1
gene 1 6 43 0.529223 0 28 0.529223 1
gene 1 6 44 3.09708 0 29 3.09708 1
gene 1 6 45 2.49712 0 30 2.49712 1
gene 1 7 41 -5 0 31 -5 1
gene 1 7 42 -2.4489 0 32 -2.4489 1
gene 1 7 43 0.84572 0 33 0.84572 1
gene 1 7 44 0.35328 0 34 0.35328 1
gene 1 7 45 2.03969 0 35 2.03969 1
gene 1 8 41 -0.53791 0 36 -0.53791 1
gene 1 8 42 0.640192 0 37 0.640192 1
gene 1 8 43 0.422927 0 38 0.422927 1
gene 1 8 44 -3.29507 0 39 -3.29507 1
gene 1 8 45 -0.268259 0 40 -0.268259 1
gene 1 9 41 2.64622 0 41 2.64622 1
gene 1 9 42 1.91171 0 42 1.91171 1
gene 1 9 43 -1.4724 0 43 -1.4724 1
gene 1 9 44 -0.718575 0 44 -0.718575 1
gene 1 9 45 -0.538219 0 45 -0.538219 1
gene 1 10 41 -0.0994813 0 46 -0.0994813 1
gene 1 10 42 1.88366 0 47 1.88366 1
gene 1 10 43 -0.0711908 0 48 -0.0711908 1
gene 1 10 44 -1.25652 0 49 -1.25652 1
gene 1 10 45 1.251 0 50 1.251 1
gene 1 11 41 3.49711 0 51 3.49711 1
gene 1 11 42 -0.80122 0 52 -0.80122 1
gene 1 11 43 1.04336 0 53 1.04336 1
gene 1 11 44 -5 0 54 -5 1
gene 1 11 45 2.87847 0 55 2.87847 1
gene 1 12 41 0.00765628 0 56 0.00765628 1
gene 1 12 42 -0.233561 0 57 -0.233561 1
gene 1 12 43 0.969121 0 58 0.969121 1
gene 1 12 44 -0.0292964 0 59 -0.0292964 1
gene 1 12 45 0.374055 0 60 0.374055 1
gene 1 13 41 0.421075 0 61 0.421075 1
gene 1 13 42 -0.577753 0 62 -0.577753 1
gene 1 13 43 1.19834 0 63 1.19834 1
gene 1 13 44 4.24746 0 64 4.24746 1
gene 1 13 45 -1.51163 0 65 -1.51163 1
gene 1 14 41 0.0564056 0 66 0.0564056 1
gene 1 14 42 -4.10644 0 67 -4.10644 1
gene 1 14 43 1.18647 0 68 1.18647 1
gene 1 14 44 -1.93873 0 69 -1.93873 1
gene 1 14 45 -5 0 70 -5 1
gene 1 15 41 -0.766975 0 71 -0.766975 1
gene 1 15 42 4.17973 0 72 4.17973 1
gene 1 15 43 -4.73576 0 73 -4.73576 1
gene 1 15 44 0.165279 0 74 0.165279 1
gene 1 15 45 -0.77768 0 75 -0.77768 1
gene 1 16 41 5 0 76 5 1
gene 1 16 42 -2.70186 0 77 -2.70186 1
gene 1 16 43 1.64326 0 78 1.64326 1
gene 1 16 44 -0.907683 0 79 -0.907683 1
gene 1 16 45 -0.803418 0 80 -0.803418 1
gene 1 17 41 -4.67785 0 81 -4.67785 1
gene 1 17 42 2.1002 0 82 2.1002 1
gene 1 17 43 -0.438346 0 83 -0.438346 1
gene 1 17 44 -0.433539 0 84 -0.433539 1
gene 1 17 45 0.766469 0 85 0.766469 1
gene 1 18 41 -3.19135 0 86 -3.19135 1
gene 1 18 42 5 0 87 5 1
gene 1 18 43 4.34025 0 88 4.34025 1
gene 1 18 44 -1.06106 0 89 -1.06106 1
gene 1 18 45 -0.0487208 0 90 -0.0487208 1
gene 1 19 41 -4.78165 0 91 -4.78165 1
gene 1 19 42 1.79536 0 92 1.79536 1
gene 1 19 43 -1.46544 0 93 -1.46544 1
gene 1 19 44 3.86734 0 94 3.86734 1
gene 1 19 45 1.5027 0 95 1.5027 1
gene 1 20 41 -0.0470713 0 96 -0.0470713 1
gene 1 20 42 -0.882551 0 97 -0.882551 1
gene 1 20 43 -3.76717 0 98 -3.76717 1
gene 1 20 44 2.94372 0 99 2.94372 1
gene 1 20 45 -0.259598 0 100 -0.259598 1
gene 1 21 41 -0.0249768 0 101 -0.0249768 1
gene 1 21 42 -0.942836 0 102 -0.942836 1
gene 1 21 43 0.849064 0 103 0.849064 1
gene 1 21 44 3.69034 0 104 3.69034 1
gene 1 21 45 0.731007 0 105 0.731007 1
gene 1 22 41 -0.88742 0 106 -0.88742 1
gene 1 22 42 0.88228 0 107 0.88228 1
gene 1 22 43 5 0 108 5 1
gene 1 22 44 -3.03466 0 109 -3.03466 1
gene 1 22 45 2.38046 0 110 2.38046 1
gene 1 23 41 1.96649 0 111 1.96649 1
gene 1 23 42 -1.85043 0 112 -1.85043 1
gene 1 23 43 0.114179 0 113 0.114179 1
gene 1 23 44 0.875393 0 114 0.875393 1
gene 1 23 45 -1.82768 0 115 -1.82768 1
gene 1 24 41 2.78923 0 116 2.78923 1
gene 1 24 42 0.169864 0 117 0.169864 1
gene 1 24 43 -0.892706 0 118 -0.892706 1
gene 1 24 44 4.37614 0 119 4.37614 1
gene 1 24 45 -1.75624 0 120 -1.75624 1
gene 1 25 41 -0.115362 0 121 -0.115362 1
gene 1 25 42 -0.0208114 0 122 -0.0208114 1
gene 1 25 43 -1.94204 0 123 -1.94204 1
gene 1 25 44 -0.825734 0 124 -0.825734 1
gene 1 25 45 -3.00542 0 125 -3.00542 1
gene 1 26 41 0.81607 0 126 0.81607 1
gene 1 26 42 -0.461085 0 127 -0.461085 1
gene 1 26 43 1.17768 0 128 1.17768 1
gene 1 26 44 -5 0 129 -5 1
gene 1 26 45 -0.692373 0 130 -0.692373 1
gene 1 27 41 -1.20915 0 131 -1.20915 1
gene 1 27 42 0.27687 0 132 0.27687 1
gene 1 27 43 -2.61592 0 133 -2.61592 1
gene 1 27 44 -2.88489 0 134 -2.88489 1
gene 1 27 45 -2.15153 0 135 -2.15153 1
gene 1 28 41 2.08002 0 136 2.08002 1
gene 1 28 42 -1.22715 0 137 -1.22715 1
gene 1 28 43 -1.80259 0 138 -1.80259 1
gene 1 28 44 3.01224 0 139 3.01224 1
gene 1 28 45 -1.99844 0 140 -1.99844 1
gene 1 29 41 3.49908 0 141 3.49908 1
gene 1 29 42 -0.12595 0 142 -0.12595 1
gene 1 29 43 -2.3373 0 143 -2.3373 1
gene 1 29 44 -0.354178 0 144 -0.354178 1
gene 1 29 45 -0.984743 0 145 -0.984743 1
gene 1 30 41 1.1297 0 146 1.1297 1
gene 1 30 42 -2.13385 0 147 -2.13385 1
gene 1 30 43 -0.0238641 0 148 -0.0238641 1
gene 1 30 44 3.19714 0 149 3.19714 1
gene 1 30 45 0.668879 0 150 0.668879 1
gene 1 31 41 2.01461 0 151 2.01461 1
gene 1 31 42 -0.204196 0 152 -0.204196 1
gene 1 31 43 2.33494 0 153 2.33494 1
gene 1 31 44 3.49067 0 154 3.49067 1
gene 1 31 45 1.0162 0 155 1.0162 1
gene 1 32 41 -3.53911 0 156 -3.53911 1
gene 1 32 42 -3.99929 0 157 -3.99929 1
gene 1 32 43 1.05517 0 158 1.05517 1
gene 1 32 44 -1.13189 0 159 -1.13189 1
gene 1 32 45 0.00259465 0 160 0.00259465 1
gene 1 33 41 0.848027 0 161 0.848027 1
gene 1 33 42 0.277684 0 162 0.277684 1
gene 1 33 43 -1.29306 0 163 -1.29306 1
gene 1 33 44 0.565664 0 164 0.565664 1
gene 1 33 45 -1.54634 0 165 -1.54634 1
gene 1 34 41 -1.10501 0 166 -1.10501 1
gene 1 34 42 0.0758935 0 167 0.0758935 1
gene 1 34 43 -0.316656 0 168 -0.316656 1
gene 1 34 44 -0.532068 0 169 -0.532068 1
gene 1 34 45 0.61035 0 170 0.61035 1
gene 1 35 41 -0.17774 0 171 -0.17774 1
gene 1 35 42 -0.459403 0 172 -0.459403 1
gene 1 35 43 1.51835 0 173 1.51835 1
gene 1 35 44 -1.03956 0 174 -1.03956 1
gene 1 35 45 -0.223271 0 175 -0.223271 1
gene 1 36 41 0.793789 0 176 0.793789 1
gene 1 36 42 -0.674628 0 177 -0.674628 1
gene 1 36 43 0.185356 0 178 0.185356 1
gene 1 36 44 -0.588505 0 179 -0.588505 1
gene 1 36 45 1.82577 0 180 1.82577 1
gene 1 37 41 0.222688 0 181 0.222688 1
gene 1 37 42 -0.694315 0 182 -0.694315 1
gene 1 37 43 -0.169965 0 183 -0.169965 1
gene 1 37 44 -0.394661 0 184 -0.394661 1
gene 1 37 45 -2.41439 0 185 -2.41439 1
gene 1 38 41 0.0811248 0 186 0.0811248 1
gene 1 38 42 -0.800952 0 187 -0.800952 1
gene 1 38 43 -0.308654 0 188 -0.308654 1
gene 1 38 44 1.31118 0 189 1.31118 1
gene 1 38 45 0.919328 0 190 0.919328 1
gene 1 39 41 -0.461029 0 191 -0.461029 1
gene 1 39 42 -0.18004 0 192 -0.18004 1
gene 1 39 43 1.18611 0 193 1.18611 1
gene 1 39 44 0.581824 0 194 0.581824 1
gene 1 39 45 0.676697 0 195 0.676697 1
gene 1 40 41 0.779103 0 196 0.779103 1
gene 1 40 42 -4.74821 0 197 -4.74821 1
gene 1 40 43 -1.27334 0 198 -1.27334 1
gene 1 40 44 0.84055 0 199 0.84055 1
gene 1 40 45 0.103913 0 200 0.103913 1
genomeend 98


