/* Organism #1 Fitness: 12606.746000 Time: 0 */
genomestart 1
trait 1 0.000000 1.000000 0.987103 0.850353 1.000000 0.975945 1.000000 0.883940 
node 1 1 1 1
node 2 1 1 1
node 3 1 1 1
node 4 1 1 1
node 5 1 1 1
node 6 1 1 1
node 7 1 1 1
node 8 1 1 1
node 9 1 1 1
node 10 1 1 1
node 11 1 1 1
node 12 1 1 1
node 13 1 1 1
node 14 1 1 1
node 15 1 1 1
node 16 1 1 1
node 17 1 1 1
node 18 1 1 1
node 19 1 1 1
node 20 1 1 1
node 21 1 1 1
node 22 1 1 1
node 23 1 1 1
node 24 1 1 1
node 25 1 1 1
node 26 1 1 3
node 27 1 0 2
node 28 1 0 2
node 29 1 0 2
gene 1 1 27 -0.147407 0 1 -0.147407 1
gene 1 1 28 1.2624 0 2 1.2624 1
gene 1 1 29 -0.326583 0 3 -0.326583 1
gene 1 2 27 0.895761 0 4 0.895761 1
gene 1 2 28 -0.884032 0 5 -0.884032 1
gene 1 2 29 4.36594 0 6 4.36594 1
gene 1 3 27 -0.638039 0 7 -0.638039 1
gene 1 3 28 1.12854 0 8 1.12854 1
gene 1 3 29 -0.254509 0 9 -0.254509 1
gene 1 4 27 3.6363 0 10 3.6363 1
gene 1 4 28 0.615382 0 11 0.615382 1
gene 1 4 29 0.172592 0 12 0.172592 1
gene 1 5 27 3.56925 0 13 3.56925 1
gene 1 5 28 0.713501 0 14 0.713501 1
gene 1 5 29 -0.252825 0 15 -0.252825 1
gene 1 6 27 -2.69213 0 16 -2.69213 1
gene 1 6 28 -0.108091 0 17 -0.108091 1
gene 1 6 29 -2.331 0 18 -2.331 1
gene 1 7 27 1.74591 0 19 1.74591 1
gene 1 7 28 -0.941352 0 20 -0.941352 1
gene 1 7 29 -1.11161 0 21 -1.11161 1
gene 1 8 27 1.66257 0 22 1.66257 1
gene 1 8 28 1.13379 0 23 1.13379 1
gene 1 8 29 1.48787 0 24 1.48787 1
gene 1 9 27 -3.09161 0 25 -3.09161 1
gene 1 9 28 0.0351481 0 26 0.0351481 1
gene 1 9 29 1.19047 0 27 1.19047 1
gene 1 10 27 1.04018 0 28 1.04018 1
gene 1 10 28 3.34922 0 29 3.34922 1
gene 1 10 29 0.332124 0 30 0.332124 1
gene 1 11 27 -0.930961 0 27 -0.930961 1
gene 1 11 28 -3.01762 0 32 -3.01762 1
gene 1 11 29 -0.653024 0 33 -0.653024 1
gene 1 12 27 1.18339 0 34 1.18339 1
gene 1 12 28 -0.786418 0 35 -0.786418 1
gene 1 12 29 -1.59871 0 36 -1.59871 1
gene 1 13 27 2.19162 0 37 2.19162 1
gene 1 13 28 -3.3965 0 38 -3.3965 1
gene 1 13 29 0.891652 0 39 0.891652 1
gene 1 14 27 -2.38641 0 40 -2.38641 1
gene 1 14 28 0.960575 0 41 0.960575 1
gene 1 14 29 -0.926281 0 42 -0.926281 1
gene 1 15 27 -0.304788 0 43 -0.304788 1
gene 1 15 28 -1.46099 0 44 -1.46099 1
gene 1 15 29 0.234925 0 45 0.234925 1
gene 1 16 27 -3.55252 0 46 -3.55252 1
gene 1 16 28 1.97888 0 47 1.97888 1
gene 1 16 29 0.147305 0 48 0.147305 1
gene 1 17 27 -0.0779651 0 49 -0.0779651 1
gene 1 17 28 0.391759 0 50 0.391759 1
gene 1 17 29 -1.05233 0 51 -1.05233 1
gene 1 18 27 -1.02933 0 52 -1.02933 1
gene 1 18 28 1.1365 0 53 1.1365 1
gene 1 18 29 -0.44368 0 54 -0.44368 1
gene 1 19 27 -0.704242 0 55 -0.704242 1
gene 1 19 28 2.72365 0 56 2.72365 1
gene 1 19 29 -1.11003 0 57 -1.11003 1
gene 1 20 27 -3.4614 0 58 -3.4614 1
gene 1 20 28 1.21848 0 59 1.21848 1
gene 1 20 29 -2.32021 0 60 -2.32021 1
gene 1 21 27 2.9004 0 61 2.9004 1
gene 1 21 28 0.396512 0 62 0.396512 1
gene 1 21 29 -0.376776 0 63 -0.376776 1
gene 1 22 27 0.505799 0 64 0.505799 1
gene 1 22 28 -0.536147 0 65 -0.536147 1
gene 1 22 29 0.233421 0 66 0.233421 1
gene 1 23 27 0.0488935 0 67 0.0488935 1
gene 1 23 28 -0.520081 0 68 -0.520081 1
gene 1 23 29 0.770704 0 69 0.770704 1
gene 1 24 27 0.311051 0 70 0.311051 1
gene 1 24 28 1.64963 0 71 1.64963 1
gene 1 24 29 -0.100831 0 72 -0.100831 1
gene 1 25 27 0.804699 0 73 0.804699 1
gene 1 25 28 0.16395 0 74 0.16395 1
gene 1 25 29 -1.93599 0 75 -1.93599 1
gene 1 26 27 0.188422 0 76 0.188422 1
gene 1 26 28 1.11246 0 77 1.11246 1
gene 1 26 29 -0.706507 0 78 -0.706507 1
genomeend 1


