/* Organism #70 Fitness: 12699.812000 Time: 0 */
genomestart 70
trait 1 0.000000 0.822943 0.783749 0.301881 0.754720 0.000000 1.000000 0.000000 
node 1 1 1 1
node 2 1 1 1
node 3 1 1 1
node 4 1 1 1
node 5 1 1 1
node 6 1 1 1
node 7 1 1 1
node 8 1 1 1
node 9 1 1 1
node 10 1 1 1
node 11 1 1 1
node 12 1 1 1
node 13 1 1 1
node 14 1 1 1
node 15 1 1 1
node 16 1 1 1
node 17 1 1 1
node 18 1 1 1
node 19 1 1 1
node 20 1 1 1
node 21 1 1 1
node 22 1 1 1
node 23 1 1 1
node 24 1 1 1
node 25 1 1 1
node 26 1 1 3
node 27 1 0 2
node 28 1 0 2
node 29 1 0 2
gene 1 1 27 -0.821492 0 1 -0.821492 1
gene 1 1 28 0.124723 0 2 0.124723 1
gene 1 1 29 2.15203 0 3 2.15203 1
gene 1 2 27 0.526912 0 4 0.526912 1
gene 1 2 28 0.176307 0 5 0.176307 1
gene 1 2 29 1.05288 0 6 1.05288 1
gene 1 3 27 -1.13481 0 7 -1.13481 1
gene 1 3 28 0.232037 0 8 0.232037 1
gene 1 3 29 0.0680581 0 9 0.0680581 1
gene 1 4 27 -1.07983 0 10 -1.07983 1
gene 1 4 28 3.06074 0 11 3.06074 1
gene 1 4 29 -0.329618 0 12 -0.329618 1
gene 1 5 27 0.931748 0 13 0.931748 1
gene 1 5 28 0.866646 0 14 0.866646 1
gene 1 5 29 -4.32523 0 15 -4.32523 1
gene 1 6 27 -1.23378 0 16 -1.23378 1
gene 1 6 28 0.832105 0 17 0.832105 1
gene 1 6 29 0.841576 0 18 0.841576 1
gene 1 7 27 1.7008 0 19 1.7008 1
gene 1 7 28 -0.803088 0 20 -0.803088 1
gene 1 7 29 -0.558962 0 21 -0.558962 1
gene 1 8 27 0.604545 0 22 0.604545 1
gene 1 8 28 0.690557 0 23 0.690557 1
gene 1 8 29 -1.70222 0 24 -1.70222 1
gene 1 9 27 -2.12378 0 25 -2.12378 1
gene 1 9 28 -0.397608 0 26 -0.397608 1
gene 1 9 29 -0.973799 0 27 -0.973799 1
gene 1 10 27 0.248526 0 28 0.248526 1
gene 1 10 28 1.93906 0 29 1.93906 1
gene 1 10 29 0.230859 0 30 0.230859 1
gene 1 11 27 -0.881826 0 27 -0.881826 1
gene 1 11 28 -1.29055 0 32 -1.29055 1
gene 1 11 29 0.949398 0 33 0.949398 1
gene 1 12 27 2.68805 0 34 2.68805 1
gene 1 12 28 -0.248966 0 35 -0.248966 1
gene 1 12 29 3.48355 0 36 3.48355 1
gene 1 13 27 -3.10293 0 37 -3.10293 1
gene 1 13 28 1.41422 0 38 1.41422 1
gene 1 13 29 -2.36535 0 39 -2.36535 1
gene 1 14 27 -1.95669 0 40 -1.95669 1
gene 1 14 28 3.71927 0 41 3.71927 1
gene 1 14 29 1.46964 0 42 1.46964 1
gene 1 15 27 -1.01803 0 43 -1.01803 1
gene 1 15 28 -0.268302 0 44 -0.268302 1
gene 1 15 29 -4.23007 0 45 -4.23007 1
gene 1 16 27 0.0933699 0 46 0.0933699 1
gene 1 16 28 -0.739398 0 47 -0.739398 1
gene 1 16 29 4.86948 0 48 4.86948 1
gene 1 17 27 0.21336 0 49 0.21336 1
gene 1 17 28 0.163472 0 50 0.163472 1
gene 1 17 29 -2.74572 0 51 -2.74572 1
gene 1 18 27 1.41916 0 52 1.41916 1
gene 1 18 28 0.940245 0 53 0.940245 1
gene 1 18 29 1.35967 0 54 1.35967 1
gene 1 19 27 -0.0544397 0 55 -0.0544397 1
gene 1 19 28 -3.82907 0 56 -3.82907 1
gene 1 19 29 0.36855 0 57 0.36855 1
gene 1 20 27 -0.00356675 0 58 -0.00356675 1
gene 1 20 28 -2.00092 0 59 -2.00092 1
gene 1 20 29 -1.27783 0 60 -1.27783 1
gene 1 21 27 0.504658 0 61 0.504658 1
gene 1 21 28 1.38807 0 62 1.38807 1
gene 1 21 29 -2.51099 0 63 -2.51099 1
gene 1 22 27 -0.134231 0 64 -0.134231 1
gene 1 22 28 1.07586 0 65 1.07586 1
gene 1 22 29 -0.581814 0 66 -0.581814 1
gene 1 23 27 -0.293414 0 67 -0.293414 1
gene 1 23 28 0.887643 0 68 0.887643 1
gene 1 23 29 -0.887109 0 69 -0.887109 1
gene 1 24 27 0.0221782 0 70 0.0221782 1
gene 1 24 28 0.755936 0 71 0.755936 1
gene 1 24 29 -0.626292 0 72 -0.626292 1
gene 1 25 27 -0.663788 0 73 -0.663788 1
gene 1 25 28 1.07875 0 74 1.07875 1
gene 1 25 29 0.276222 0 75 0.276222 1
gene 1 26 27 0.0641584 0 76 0.0641584 1
gene 1 26 28 0.712159 0 77 0.712159 1
gene 1 26 29 -0.411161 0 78 -0.411161 1
genomeend 70


