/* Organism #44 Fitness: 12514.928000 Time: 0 */
genomestart 44
trait 1 1.000000 0.109589 1.000000 0.000000 0.000000 0.980799 0.811613 0.109773 
node 1 1 1 1
node 2 1 1 1
node 3 1 1 1
node 4 1 1 1
node 5 1 1 1
node 6 1 1 1
node 7 1 1 1
node 8 1 1 1
node 9 1 1 1
node 10 1 1 1
node 11 1 1 1
node 12 1 1 1
node 13 1 1 1
node 14 1 1 1
node 15 1 1 1
node 16 1 1 1
node 17 1 1 1
node 18 1 1 1
node 19 1 1 1
node 20 1 1 1
node 21 1 1 1
node 22 1 1 1
node 23 1 1 1
node 24 1 1 1
node 25 1 1 1
node 26 1 1 3
node 27 1 0 2
node 28 1 0 2
node 29 1 0 2
gene 1 1 27 -0.277291 0 1 -0.277291 1
gene 1 1 28 -1.73927 0 2 -1.73927 1
gene 1 1 29 1.84587 0 3 1.84587 1
gene 1 2 27 0.190812 0 4 0.190812 1
gene 1 2 28 -3.07119 0 5 -3.07119 1
gene 1 2 29 -1.03331 0 6 -1.03331 1
gene 1 3 27 1.01426 0 7 1.01426 1
gene 1 3 28 1.8641 0 8 1.8641 1
gene 1 3 29 -2.20816 0 9 -2.20816 1
gene 1 4 27 -3.60332 0 10 -3.60332 1
gene 1 4 28 -0.398808 0 11 -0.398808 1
gene 1 4 29 1.18474 0 12 1.18474 1
gene 1 5 27 -0.86939 0 13 -0.86939 1
gene 1 5 28 -3.34496 0 14 -3.34496 1
gene 1 5 29 1.57468 0 15 1.57468 1
gene 1 6 27 -0.4139 0 16 -0.4139 1
gene 1 6 28 4.5563 0 17 4.5563 1
gene 1 6 29 1.90947 0 18 1.90947 1
gene 1 7 27 -1.69239 0 19 -1.69239 1
gene 1 7 28 1.96471 0 20 1.96471 1
gene 1 7 29 0.687818 0 21 0.687818 1
gene 1 8 27 -0.612181 0 22 -0.612181 1
gene 1 8 28 1.98807 0 23 1.98807 1
gene 1 8 29 -0.546793 0 24 -0.546793 1
gene 1 9 27 0.674863 0 25 0.674863 1
gene 1 9 28 0.948958 0 26 0.948958 1
gene 1 9 29 -4.58811 0 27 -4.58811 1
gene 1 10 27 0.565371 0 28 0.565371 1
gene 1 10 28 -2.11762 0 29 -2.11762 1
gene 1 10 29 0.626235 0 30 0.626235 1
gene 1 11 27 -3.31191 0 27 -3.31191 1
gene 1 11 28 -2.68536 0 32 -2.68536 1
gene 1 11 29 1.0498 0 33 1.0498 1
gene 1 12 27 4.62099 0 34 4.62099 1
gene 1 12 28 -2.42189 0 35 -2.42189 1
gene 1 12 29 -1.02796 0 36 -1.02796 1
gene 1 13 27 0.68989 0 37 0.68989 1
gene 1 13 28 0.896551 0 38 0.896551 1
gene 1 13 29 -2.70733 0 39 -2.70733 1
gene 1 14 27 -0.710123 0 40 -0.710123 1
gene 1 14 28 0.797407 0 41 0.797407 1
gene 1 14 29 2.4043 0 42 2.4043 1
gene 1 15 27 -1.6597 0 43 -1.6597 1
gene 1 15 28 2.00028 0 44 2.00028 1
gene 1 15 29 -1.31586 0 45 -1.31586 1
gene 1 16 27 -3.25976 0 46 -3.25976 1
gene 1 16 28 0.0388738 0 47 0.0388738 1
gene 1 16 29 0.00585806 0 48 0.00585806 1
gene 1 17 27 -1.7987 0 49 -1.7987 1
gene 1 17 28 0.201621 0 50 0.201621 1
gene 1 17 29 0.453657 0 51 0.453657 1
gene 1 18 27 1.14695 0 52 1.14695 1
gene 1 18 28 -0.719117 0 53 -0.719117 1
gene 1 18 29 0.833304 0 54 0.833304 1
gene 1 19 27 1.24918 0 55 1.24918 1
gene 1 19 28 -0.155023 0 56 -0.155023 1
gene 1 19 29 0.906884 0 57 0.906884 1
gene 1 20 27 -0.32286 0 58 -0.32286 1
gene 1 20 28 -1.31865 0 59 -1.31865 1
gene 1 20 29 -1.88302 0 60 -1.88302 1
gene 1 21 27 1.62835 0 61 1.62835 1
gene 1 21 28 0.25578 0 62 0.25578 1
gene 1 21 29 1.41392 0 63 1.41392 1
gene 1 22 27 -1.46911 0 64 -1.46911 1
gene 1 22 28 0.151754 0 65 0.151754 1
gene 1 22 29 -0.934501 0 66 -0.934501 1
gene 1 23 27 1.09761 0 67 1.09761 1
gene 1 23 28 -0.0434171 0 68 -0.0434171 1
gene 1 23 29 -0.245888 0 69 -0.245888 1
gene 1 24 27 0.851048 0 70 0.851048 1
gene 1 24 28 0.339546 0 71 0.339546 1
gene 1 24 29 -0.0931459 0 72 -0.0931459 1
gene 1 25 27 1.21892 0 73 1.21892 1
gene 1 25 28 -0.845078 0 74 -0.845078 1
gene 1 25 29 -0.342964 0 75 -0.342964 1
gene 1 26 27 0.377353 0 76 0.377353 1
gene 1 26 28 -1.28104 0 77 -1.28104 1
gene 1 26 29 -0.144728 0 78 -0.144728 1
genomeend 44


