/* Organism #99 Fitness: 38311.700000 Time: 0 */
genomestart 99
trait 1 0.573108 0.000000 1.000000 0.018406 1.000000 0.000000 0.000000 0.963013 
node 1 1 1 1
node 2 1 1 1
node 3 1 1 1
node 4 1 1 1
node 5 1 1 1
node 6 1 1 1
node 7 1 1 1
node 8 1 1 1
node 9 1 1 1
node 10 1 1 1
node 11 1 1 1
node 12 1 1 1
node 13 1 1 1
node 14 1 1 1
node 15 1 1 1
node 16 1 1 1
node 17 1 1 1
node 18 1 1 1
node 19 1 1 1
node 20 1 1 1
node 21 1 1 1
node 22 1 1 1
node 23 1 1 1
node 24 1 1 1
node 25 1 1 1
node 26 1 1 1
node 27 1 1 1
node 28 1 1 1
node 29 1 1 1
node 30 1 1 3
node 31 1 0 2
node 32 1 0 2
node 33 1 0 2
gene 1 1 31 0.646822 0 1 0.646822 1
gene 1 1 32 0.624854 0 2 0.624854 1
gene 1 1 33 -0.636799 0 3 -0.636799 1
gene 1 2 31 0.0980774 0 4 0.0980774 1
gene 1 2 32 -0.822678 0 5 -0.822678 1
gene 1 2 33 0.0807048 0 6 0.0807048 1
gene 1 3 31 1.68274 0 7 1.68274 1
gene 1 3 32 -4.3705 0 8 -4.3705 1
gene 1 3 33 -3.44114 0 9 -3.44114 1
gene 1 4 31 -3.31847 0 10 -3.31847 1
gene 1 4 32 -0.259633 0 11 -0.259633 1
gene 1 4 33 0.160637 0 12 0.160637 1
gene 1 5 31 4.34197 0 13 4.34197 1
gene 1 5 32 -4.8955 0 14 -4.8955 1
gene 1 5 33 -3.30692 0 15 -3.30692 1
gene 1 6 31 -1.30023 0 16 -1.30023 1
gene 1 6 32 4.56025 0 17 4.56025 1
gene 1 6 33 -2.80682 0 18 -2.80682 1
gene 1 7 31 5 0 19 5 1
gene 1 7 32 -1.95778 0 20 -1.95778 1
gene 1 7 33 4.2472 0 21 4.2472 1
gene 1 8 31 0.80007 0 22 0.80007 1
gene 1 8 32 -3.49076 0 23 -3.49076 1
gene 1 8 33 1.67001 0 24 1.67001 1
gene 1 9 31 -4.78254 0 25 -4.78254 1
gene 1 9 32 1.88112 0 26 1.88112 1
gene 1 9 33 1.1124 0 27 1.1124 1
gene 1 10 31 1.19984 0 28 1.19984 1
gene 1 10 32 1.73823 0 29 1.73823 1
gene 1 10 33 0.103137 0 30 0.103137 1
gene 1 11 31 -0.0976263 0 31 -0.0976263 1
gene 1 11 32 -0.331019 0 32 -0.331019 1
gene 1 11 33 0.282441 0 33 0.282441 1
gene 1 12 31 -0.0201955 0 34 -0.0201955 1
gene 1 12 32 0.590902 0 35 0.590902 1
gene 1 12 33 0.20205 0 36 0.20205 1
gene 1 13 31 -1.81335 0 37 -1.81335 1
gene 1 13 32 1.92376 0 38 1.92376 1
gene 1 13 33 -3.52856 0 39 -3.52856 1
gene 1 14 31 2.29433 0 40 2.29433 1
gene 1 14 32 5 0 41 5 1
gene 1 14 33 -0.314818 0 42 -0.314818 1
gene 1 15 31 2.08988 0 43 2.08988 1
gene 1 15 32 2.29253 0 44 2.29253 1
gene 1 15 33 2.30584 0 45 2.30584 1
gene 1 16 31 4.32729 0 46 4.32729 1
gene 1 16 32 -5 0 47 -5 1
gene 1 16 33 1.35443 0 48 1.35443 1
gene 1 17 31 0.756212 0 49 0.756212 1
gene 1 17 32 -2.05116 0 50 -2.05116 1
gene 1 17 33 0.075374 0 51 0.075374 1
gene 1 18 31 5 0 52 5 1
gene 1 18 32 2.85179 0 53 2.85179 1
gene 1 18 33 1.0842 0 54 1.0842 1
gene 1 19 31 -2.94002 0 55 -2.94002 1
gene 1 19 32 -4.35018 0 56 -4.35018 1
gene 1 19 33 2.32693 0 57 2.32693 1
gene 1 20 31 -1.86387 0 58 -1.86387 1
gene 1 20 32 -2.66732 0 59 -2.66732 1
gene 1 20 33 -1.57672 0 60 -1.57672 1
gene 1 21 31 -3.27119 0 61 -3.27119 1
gene 1 21 32 1.27886 0 62 1.27886 1
gene 1 21 33 0.294164 0 63 0.294164 1
gene 1 22 31 1.42878 0 64 1.42878 1
gene 1 22 32 2.1659 0 65 2.1659 1
gene 1 22 33 -4.02628 0 66 -4.02628 1
gene 1 23 31 0.460778 0 67 0.460778 1
gene 1 23 32 -1.43591 0 68 -1.43591 1
gene 1 23 33 0.0202628 0 69 0.0202628 1
gene 1 24 31 -5 0 70 -5 1
gene 1 24 32 -1.6118 0 71 -1.6118 1
gene 1 24 33 0.0709333 0 72 0.0709333 1
gene 1 25 31 0.982468 0 73 0.982468 1
gene 1 25 32 -0.343294 0 74 -0.343294 1
gene 1 25 33 -0.826284 0 75 -0.826284 1
gene 1 26 31 -0.701376 0 76 -0.701376 1
gene 1 26 32 -0.791565 0 77 -0.791565 1
gene 1 26 33 0.498638 0 78 0.498638 1
gene 1 27 31 0.32778 0 79 0.32778 1
gene 1 27 32 -0.202959 0 80 -0.202959 1
gene 1 27 33 1.61099 0 81 1.61099 1
gene 1 28 31 -0.80715 0 82 -0.80715 1
gene 1 28 32 -2.17785 0 83 -2.17785 1
gene 1 28 33 -1.29976 0 84 -1.29976 1
gene 1 29 31 -0.994653 0 85 -0.994653 1
gene 1 29 32 -0.967902 0 86 -0.967902 1
gene 1 29 33 0.708644 0 87 0.708644 1
gene 1 30 31 -5 0 88 -5 1
gene 1 30 32 -1.37932 0 89 -1.37932 1
gene 1 30 33 0.823404 0 90 0.823404 1
genomeend 99


