/* Organism #4 Fitness: 12914.500000 Time: 0 */
genomestart 4
trait 1 0.649931 0.150303 0.494665 0.000000 0.729871 0.000000 0.000000 0.360280 
node 1 1 1 1
node 2 1 1 1
node 3 1 1 1
node 4 1 1 1
node 5 1 1 1
node 6 1 1 1
node 7 1 1 1
node 8 1 1 1
node 9 1 1 1
node 10 1 1 1
node 11 1 1 1
node 12 1 1 1
node 13 1 1 1
node 14 1 1 1
node 15 1 1 1
node 16 1 1 1
node 17 1 1 1
node 18 1 1 1
node 19 1 1 1
node 20 1 1 1
node 21 1 1 1
node 22 1 1 1
node 23 1 1 1
node 24 1 1 1
node 25 1 1 1
node 26 1 1 1
node 27 1 1 1
node 28 1 1 1
node 29 1 1 1
node 30 1 1 3
node 31 1 0 2
node 32 1 0 2
node 33 1 0 2
gene 1 1 31 1.14453 0 1 1.14453 1
gene 1 1 32 -3.79004 0 2 -3.79004 1
gene 1 1 33 3.67456 0 3 3.67456 1
gene 1 2 31 -0.337443 0 4 -0.337443 1
gene 1 2 32 -2.39505 0 5 -2.39505 1
gene 1 2 33 -3.63159 0 6 -3.63159 1
gene 1 3 31 0.00452464 0 7 0.00452464 1
gene 1 3 32 2.85038 0 8 2.85038 1
gene 1 3 33 -0.914747 0 9 -0.914747 1
gene 1 4 31 -2.33428 0 10 -2.33428 1
gene 1 4 32 4.35008 0 11 4.35008 1
gene 1 4 33 -1.90181 0 12 -1.90181 1
gene 1 5 31 2.78418 0 13 2.78418 1
gene 1 5 32 3.31989 0 14 3.31989 1
gene 1 5 33 0.623123 0 15 0.623123 1
gene 1 6 31 -4.14917 0 16 -4.14917 1
gene 1 6 32 -1.79599 0 17 -1.79599 1
gene 1 6 33 0.596785 0 18 0.596785 1
gene 1 7 31 -2.00763 0 19 -2.00763 1
gene 1 7 32 -1.9676 0 20 -1.9676 1
gene 1 7 33 0.998139 0 21 0.998139 1
gene 1 8 31 2.37713 0 22 2.37713 1
gene 1 8 32 -3.59313 0 23 -3.59313 1
gene 1 8 33 0.358353 0 24 0.358353 1
gene 1 9 31 -0.124533 0 25 -0.124533 1
gene 1 9 32 2.80167 0 26 2.80167 1
gene 1 9 33 -4.00152 0 27 -4.00152 1
gene 1 10 31 2.77152 0 28 2.77152 1
gene 1 10 32 0.401043 0 29 0.401043 1
gene 1 10 33 5 0 30 5 1
gene 1 11 31 3.34818 0 31 3.34818 1
gene 1 11 32 0.684855 0 32 0.684855 1
gene 1 11 33 -0.393482 0 33 -0.393482 1
gene 1 12 31 -1.7482 0 34 -1.7482 1
gene 1 12 32 -2.94882 0 35 -2.94882 1
gene 1 12 33 1.81569 0 36 1.81569 1
gene 1 13 31 -5 0 37 -5 1
gene 1 13 32 0.541563 0 38 0.541563 1
gene 1 13 33 -1.87582 0 39 -1.87582 1
gene 1 14 31 -2.52729 0 40 -2.52729 1
gene 1 14 32 4.56826 0 41 4.56826 1
gene 1 14 33 3.24288 0 42 3.24288 1
gene 1 15 31 4.31907 0 43 4.31907 1
gene 1 15 32 -0.0319992 0 44 -0.0319992 1
gene 1 15 33 1.19499 0 45 1.19499 1
gene 1 16 31 -2.78422 0 46 -2.78422 1
gene 1 16 32 3.05364 0 47 3.05364 1
gene 1 16 33 1.32422 0 48 1.32422 1
gene 1 17 31 1.94199 0 49 1.94199 1
gene 1 17 32 -0.134631 0 50 -0.134631 1
gene 1 17 33 0.216862 0 51 0.216862 1
gene 1 18 31 -2.96565 0 52 -2.96565 1
gene 1 18 32 -0.546913 0 53 -0.546913 1
gene 1 18 33 1.46778 0 54 1.46778 1
gene 1 19 31 0.206339 0 55 0.206339 1
gene 1 19 32 0.183363 0 56 0.183363 1
gene 1 19 33 -3.04725 0 57 -3.04725 1
gene 1 20 31 0.803119 0 58 0.803119 1
gene 1 20 32 0.754182 0 59 0.754182 1
gene 1 20 33 -1.51522 0 60 -1.51522 1
gene 1 21 31 2.36729 0 61 2.36729 1
gene 1 21 32 2.60173 0 62 2.60173 1
gene 1 21 33 0.499071 0 63 0.499071 1
gene 1 22 31 2.85 0 64 2.85 1
gene 1 22 32 0.719396 0 65 0.719396 1
gene 1 22 33 0.984896 0 66 0.984896 1
gene 1 23 31 1.24789 0 67 1.24789 1
gene 1 23 32 2.59855 0 68 2.59855 1
gene 1 23 33 0.0597639 0 69 0.0597639 1
gene 1 24 31 -0.726299 0 70 -0.726299 1
gene 1 24 32 -0.649326 0 71 -0.649326 1
gene 1 24 33 4.83991 0 72 4.83991 1
gene 1 25 31 1.41437 0 73 1.41437 1
gene 1 25 32 -0.582878 0 74 -0.582878 1
gene 1 25 33 0.994265 0 75 0.994265 1
gene 1 26 31 0.193206 0 76 0.193206 1
gene 1 26 32 0.880528 0 77 0.880528 1
gene 1 26 33 0.143176 0 78 0.143176 1
gene 1 27 31 -1.58011 0 79 -1.58011 1
gene 1 27 32 -2.16844 0 80 -2.16844 1
gene 1 27 33 0.363824 0 81 0.363824 1
gene 1 28 31 -0.259309 0 82 -0.259309 1
gene 1 28 32 1.81611 0 83 1.81611 1
gene 1 28 33 -0.305888 0 84 -0.305888 1
gene 1 29 31 -0.705317 0 85 -0.705317 1
gene 1 29 32 -0.0820055 0 86 -0.0820055 1
gene 1 29 33 -0.677486 0 87 -0.677486 1
gene 1 30 31 -1.26128 0 88 -1.26128 1
gene 1 30 32 -1.1286 0 89 -1.1286 1
gene 1 30 33 0.602318 0 90 0.602318 1
genomeend 4


