/* Organism #90 Fitness: 7006.132000 Time: 0 */
genomestart 90
trait 1 0.837993 0.000000 0.556182 1.000000 1.000000 0.000000 0.000000 1.000000 
node 1 1 1 1
node 2 1 1 1
node 3 1 1 1
node 4 1 1 1
node 5 1 1 1
node 6 1 1 1
node 7 1 1 1
node 8 1 1 1
node 9 1 1 1
node 10 1 1 1
node 11 1 1 1
node 12 1 1 1
node 13 1 1 1
node 14 1 1 1
node 15 1 1 1
node 16 1 1 1
node 17 1 1 1
node 18 1 1 1
node 19 1 1 1
node 20 1 1 1
node 21 1 1 1
node 22 1 1 1
node 23 1 1 1
node 24 1 1 1
node 25 1 1 1
node 26 1 1 1
node 27 1 1 1
node 28 1 1 1
node 29 1 1 1
node 30 1 1 1
node 31 1 1 1
node 32 1 1 1
node 33 1 1 1
node 34 1 1 1
node 35 1 1 3
node 36 1 0 2
node 37 1 0 2
node 38 1 0 2
node 39 1 0 2
gene 1 1 36 -4.98592 0 1 -4.98592 1
gene 1 1 37 -4.56991 0 2 -4.56991 1
gene 1 1 38 -1.32642 0 3 -1.32642 1
gene 1 1 39 -3.46791 0 4 -3.46791 1
gene 1 2 36 1.14168 0 5 1.14168 1
gene 1 2 37 2.48562 0 6 2.48562 1
gene 1 2 38 4.17867 0 7 4.17867 1
gene 1 2 39 1.85841 0 8 1.85841 1
gene 1 3 36 0.855594 0 9 0.855594 1
gene 1 3 37 -1.94059 0 10 -1.94059 1
gene 1 3 38 -2.15907 0 11 -2.15907 1
gene 1 3 39 4.35887 0 12 4.35887 1
gene 1 4 36 3.83942 0 13 3.83942 1
gene 1 4 37 2.73971 0 14 2.73971 1
gene 1 4 38 -1.14921 0 15 -1.14921 1
gene 1 4 39 1.66148 0 16 1.66148 1
gene 1 5 36 3.67704 0 17 3.67704 1
gene 1 5 37 5 0 18 5 1
gene 1 5 38 -0.391232 0 19 -0.391232 1
gene 1 5 39 -0.140554 0 20 -0.140554 1
gene 1 6 36 1.2537 0 21 1.2537 1
gene 1 6 37 -2.89304 0 22 -2.89304 1
gene 1 6 38 1.13691 0 23 1.13691 1
gene 1 6 39 -3.44213 0 24 -3.44213 1
gene 1 7 36 2.71054 0 25 2.71054 1
gene 1 7 37 1.44949 0 26 1.44949 1
gene 1 7 38 0.76518 0 27 0.76518 1
gene 1 7 39 -1.78814 0 28 -1.78814 1
gene 1 8 36 2.44317 0 29 2.44317 1
gene 1 8 37 -0.278996 0 30 -0.278996 1
gene 1 8 38 -0.798686 0 31 -0.798686 1
gene 1 8 39 -3.89744 0 32 -3.89744 1
gene 1 9 36 -4.01082 0 33 -4.01082 1
gene 1 9 37 2.67113 0 34 2.67113 1
gene 1 9 38 -4.23893 0 35 -4.23893 1
gene 1 9 39 3.24193 0 36 3.24193 1
gene 1 10 36 4.21463 0 37 4.21463 1
gene 1 10 37 -0.144343 0 38 -0.144343 1
gene 1 10 38 -3.65541 0 39 -3.65541 1
gene 1 10 39 3.30417 0 40 3.30417 1
gene 1 11 36 3.26611 0 41 3.26611 1
gene 1 11 37 -1.21746 0 42 -1.21746 1
gene 1 11 38 -1.17716 0 43 -1.17716 1
gene 1 11 39 -5 0 44 -5 1
gene 1 12 36 -3.71536 0 45 -3.71536 1
gene 1 12 37 5 0 46 5 1
gene 1 12 38 0.0483029 0 47 0.0483029 1
gene 1 12 39 -1.21999 0 48 -1.21999 1
gene 1 13 36 -4.50437 0 49 -4.50437 1
gene 1 13 37 4.15135 0 50 4.15135 1
gene 1 13 38 -4.79161 0 51 -4.79161 1
gene 1 13 39 -1.92797 0 52 -1.92797 1
gene 1 14 36 4.22614 0 53 4.22614 1
gene 1 14 37 -0.531316 0 54 -0.531316 1
gene 1 14 38 -0.56376 0 55 -0.56376 1
gene 1 14 39 -4.7317 0 56 -4.7317 1
gene 1 15 36 -2.18421 0 57 -2.18421 1
gene 1 15 37 -0.658403 0 58 -0.658403 1
gene 1 15 38 3.01581 0 59 3.01581 1
gene 1 15 39 -3.76996 0 60 -3.76996 1
gene 1 16 36 -0.652333 0 61 -0.652333 1
gene 1 16 37 -2.43784 0 62 -2.43784 1
gene 1 16 38 0.252204 0 63 0.252204 1
gene 1 16 39 -1.4148 0 64 -1.4148 1
gene 1 17 36 -3.29237 0 65 -3.29237 1
gene 1 17 37 -2.93827 0 66 -2.93827 1
gene 1 17 38 4.19616 0 67 4.19616 1
gene 1 17 39 0.757311 0 68 0.757311 1
gene 1 18 36 -4.14751 0 69 -4.14751 1
gene 1 18 37 1.34933 0 70 1.34933 1
gene 1 18 38 0.330484 0 71 0.330484 1
gene 1 18 39 1.49883 0 72 1.49883 1
gene 1 19 36 -5 0 73 -5 1
gene 1 19 37 -0.370934 0 74 -0.370934 1
gene 1 19 38 3.53278 0 75 3.53278 1
gene 1 19 39 2.99179 0 76 2.99179 1
gene 1 20 36 3.19316 0 77 3.19316 1
gene 1 20 37 -0.961002 0 78 -0.961002 1
gene 1 20 38 -4.35438 0 79 -4.35438 1
gene 1 20 39 -2.3813 0 80 -2.3813 1
gene 1 21 36 3.86546 0 81 3.86546 1
gene 1 21 37 -3.02324 0 82 -3.02324 1
gene 1 21 38 2.4593 0 83 2.4593 1
gene 1 21 39 -4.05917 0 84 -4.05917 1
gene 1 22 36 0.896882 0 85 0.896882 1
gene 1 22 37 5 0 86 5 1
gene 1 22 38 -1.48867 0 87 -1.48867 1
gene 1 22 39 -1.19806 0 88 -1.19806 1
gene 1 23 36 -5 0 89 -5 1
gene 1 23 37 4.55789 0 90 4.55789 1
gene 1 23 38 -2.85885 0 91 -2.85885 1
gene 1 23 39 0.410437 0 92 0.410437 1
gene 1 24 36 0.553198 0 93 0.553198 1
gene 1 24 37 -1.97847 0 94 -1.97847 1
gene 1 24 38 -1.95627 0 95 -1.95627 1
gene 1 24 39 -2.8271 0 96 -2.8271 1
gene 1 25 36 0.658851 0 97 0.658851 1
gene 1 25 37 1.6685 0 98 1.6685 1
gene 1 25 38 -3.50594 0 99 -3.50594 1
gene 1 25 39 -0.179686 0 100 -0.179686 1
gene 1 26 36 1.45305 0 101 1.45305 1
gene 1 26 37 1.56711 0 102 1.56711 1
gene 1 26 38 -0.79507 0 103 -0.79507 1
gene 1 26 39 1.42519 0 104 1.42519 1
gene 1 27 36 -0.97 0 105 -0.97 1
gene 1 27 37 3.36 0 106 3.36 1
gene 1 27 38 -3.44344 0 107 -3.44344 1
gene 1 27 39 -4.58295 0 108 -4.58295 1
gene 1 28 36 -4.85818 0 109 -4.85818 1
gene 1 28 37 -3.14932 0 110 -3.14932 1
gene 1 28 38 -2.86752 0 111 -2.86752 1
gene 1 28 39 2.61455 0 112 2.61455 1
gene 1 29 36 -0.683891 0 113 -0.683891 1
gene 1 29 37 -0.423778 0 114 -0.423778 1
gene 1 29 38 0.264379 0 115 0.264379 1
gene 1 29 39 1.06838 0 116 1.06838 1
gene 1 30 36 -1.85744 0 117 -1.85744 1
gene 1 30 37 0.0214629 0 118 0.0214629 1
gene 1 30 38 0.296797 0 119 0.296797 1
gene 1 30 39 0.408049 0 120 0.408049 1
gene 1 31 36 -1.07595 0 121 -1.07595 1
gene 1 31 37 -1.94475 0 122 -1.94475 1
gene 1 31 38 2.18614 0 123 2.18614 1
gene 1 31 39 1.86884 0 124 1.86884 1
gene 1 32 36 1.41641 0 125 1.41641 1
gene 1 32 37 -0.555713 0 126 -0.555713 1
gene 1 32 38 -0.918511 0 127 -0.918511 1
gene 1 32 39 -0.168537 0 128 -0.168537 1
gene 1 33 36 -0.655377 0 129 -0.655377 1
gene 1 33 37 -0.815416 0 130 -0.815416 1
gene 1 33 38 2.22022 0 131 2.22022 1
gene 1 33 39 0.569129 0 132 0.569129 1
gene 1 34 36 0.317443 0 133 0.317443 1
gene 1 34 37 -1.81524 0 134 -1.81524 1
gene 1 34 38 0.0839387 0 135 0.0839387 1
gene 1 34 39 -2.20131 0 136 -2.20131 1
gene 1 35 36 1.20833 0 137 1.20833 1
gene 1 35 37 -3.2577 0 138 -3.2577 1
gene 1 35 38 0.201814 0 139 0.201814 1
gene 1 35 39 -0.619192 0 140 -0.619192 1
genomeend 90


