/* Organism #57 Fitness: 14582.200000 Time: 0 */
genomestart 57
trait 1 0.000000 0.000000 0.812566 0.099969 0.000000 0.000000 0.000000 0.818815 
node 1 1 1 1
node 2 1 1 1
node 3 1 1 1
node 4 1 1 1
node 5 1 1 1
node 6 1 1 1
node 7 1 1 1
node 8 1 1 1
node 9 1 1 1
node 10 1 1 1
node 11 1 1 1
node 12 1 1 1
node 13 1 1 1
node 14 1 1 1
node 15 1 1 1
node 16 1 1 1
node 17 1 1 1
node 18 1 1 1
node 19 1 1 1
node 20 1 1 1
node 21 1 1 1
node 22 1 1 1
node 23 1 1 1
node 24 1 1 1
node 25 1 1 1
node 26 1 1 1
node 27 1 1 1
node 28 1 1 1
node 29 1 1 1
node 30 1 1 3
node 31 1 0 2
node 32 1 0 2
node 33 1 0 2
gene 1 1 31 -4.2809 0 1 -4.2809 1
gene 1 1 32 -2.48954 0 2 -2.48954 1
gene 1 1 33 1.81964 0 3 1.81964 1
gene 1 2 31 -0.1402 0 4 -0.1402 1
gene 1 2 32 -3.59735 0 5 -3.59735 1
gene 1 2 33 4.90681 0 6 4.90681 1
gene 1 3 31 0.450676 0 7 0.450676 1
gene 1 3 32 1.56907 0 8 1.56907 1
gene 1 3 33 3.66601 0 9 3.66601 1
gene 1 4 31 4.72566 0 10 4.72566 1
gene 1 4 32 -4.8593 0 11 -4.8593 1
gene 1 4 33 -1.26004 0 12 -1.26004 1
gene 1 5 31 2.49027 0 13 2.49027 1
gene 1 5 32 4.52211 0 14 4.52211 1
gene 1 5 33 -3.06767 0 15 -3.06767 1
gene 1 6 31 0.310276 0 16 0.310276 1
gene 1 6 32 -2.34256 0 17 -2.34256 1
gene 1 6 33 2.84216 0 18 2.84216 1
gene 1 7 31 3.58883 0 19 3.58883 1
gene 1 7 32 -5 0 20 -5 1
gene 1 7 33 0.516151 0 21 0.516151 1
gene 1 8 31 0.486395 0 22 0.486395 1
gene 1 8 32 0.387689 0 23 0.387689 1
gene 1 8 33 0.579368 0 24 0.579368 1
gene 1 9 31 0.999909 0 25 0.999909 1
gene 1 9 32 2.25342 0 26 2.25342 1
gene 1 9 33 5 0 27 5 1
gene 1 10 31 -0.0651123 0 28 -0.0651123 1
gene 1 10 32 0.641411 0 29 0.641411 1
gene 1 10 33 0.902117 0 30 0.902117 1
gene 1 11 31 1.34203 0 31 1.34203 1
gene 1 11 32 0.434298 0 32 0.434298 1
gene 1 11 33 1.45491 0 33 1.45491 1
gene 1 12 31 3.78814 0 34 3.78814 1
gene 1 12 32 -0.585885 0 35 -0.585885 1
gene 1 12 33 -1.01921 0 36 -1.01921 1
gene 1 13 31 -0.953464 0 37 -0.953464 1
gene 1 13 32 -0.196313 0 38 -0.196313 1
gene 1 13 33 -1.56166 0 39 -1.56166 1
gene 1 14 31 1.58308 0 40 1.58308 1
gene 1 14 32 -2.1616 0 41 -2.1616 1
gene 1 14 33 -1.70355 0 42 -1.70355 1
gene 1 15 31 2.10247 0 43 2.10247 1
gene 1 15 32 0.326345 0 44 0.326345 1
gene 1 15 33 -5 0 45 -5 1
gene 1 16 31 -0.905585 0 46 -0.905585 1
gene 1 16 32 4.3051 0 47 4.3051 1
gene 1 16 33 -2.88229 0 48 -2.88229 1
gene 1 17 31 -5 0 49 -5 1
gene 1 17 32 -1.69017 0 50 -1.69017 1
gene 1 17 33 -2.47844 0 51 -2.47844 1
gene 1 18 31 -5 0 52 -5 1
gene 1 18 32 -1.62999 0 53 -1.62999 1
gene 1 18 33 2.54174 0 54 2.54174 1
gene 1 19 31 -3.08472 0 55 -3.08472 1
gene 1 19 32 -0.758506 0 56 -0.758506 1
gene 1 19 33 -0.363747 0 57 -0.363747 1
gene 1 20 31 -0.29691 0 58 -0.29691 1
gene 1 20 32 0.122857 0 59 0.122857 1
gene 1 20 33 4.07968 0 60 4.07968 1
gene 1 21 31 0.374109 0 61 0.374109 1
gene 1 21 32 -4.13077 0 62 -4.13077 1
gene 1 21 33 -2.92674 0 63 -2.92674 1
gene 1 22 31 -5 0 64 -5 1
gene 1 22 32 4.99003 0 65 4.99003 1
gene 1 22 33 5 0 66 5 1
gene 1 23 31 -3.43797 0 67 -3.43797 1
gene 1 23 32 -0.829323 0 68 -0.829323 1
gene 1 23 33 0.233432 0 69 0.233432 1
gene 1 24 31 2.84221 0 70 2.84221 1
gene 1 24 32 -0.712798 0 71 -0.712798 1
gene 1 24 33 -3.1669 0 72 -3.1669 1
gene 1 25 31 0.429214 0 73 0.429214 1
gene 1 25 32 1.53011 0 74 1.53011 1
gene 1 25 33 -0.371252 0 75 -0.371252 1
gene 1 26 31 -1.4703 0 76 -1.4703 1
gene 1 26 32 1.57264 0 77 1.57264 1
gene 1 26 33 -2.44703 0 78 -2.44703 1
gene 1 27 31 -1.91534 0 79 -1.91534 1
gene 1 27 32 0.896995 0 80 0.896995 1
gene 1 27 33 0.107545 0 81 0.107545 1
gene 1 28 31 -0.542894 0 82 -0.542894 1
gene 1 28 32 -0.391577 0 83 -0.391577 1
gene 1 28 33 -0.303269 0 84 -0.303269 1
gene 1 29 31 -1.21773 0 85 -1.21773 1
gene 1 29 32 -0.712331 0 86 -0.712331 1
gene 1 29 33 4.39614 0 87 4.39614 1
gene 1 30 31 1.92073 0 88 1.92073 1
gene 1 30 32 -2.28414 0 89 -2.28414 1
gene 1 30 33 -0.0777209 0 90 -0.0777209 1
genomeend 57


