/* Organism #13 Fitness: 16422.302000 Time: 0 */
genomestart 13
trait 1 0.100000 0.000000 0.207458 0.000000 0.151228 0.572636 0.000000 0.000000 
node 1 1 1 1
node 2 1 1 1
node 3 1 1 1
node 4 1 1 1
node 5 1 1 1
node 6 1 1 1
node 7 1 1 1
node 8 1 1 1
node 9 1 1 1
node 10 1 1 1
node 11 1 1 1
node 12 1 1 1
node 13 1 1 1
node 14 1 1 1
node 15 1 1 1
node 16 1 1 1
node 17 1 1 1
node 18 1 1 1
node 19 1 1 1
node 20 1 1 1
node 21 1 1 1
node 22 1 1 1
node 23 1 1 1
node 24 1 1 1
node 25 1 1 1
node 26 1 1 1
node 27 1 1 1
node 28 1 1 1
node 29 1 1 1
node 30 1 1 3
node 31 1 0 2
node 32 1 0 2
node 33 1 0 2
gene 1 1 31 2.18709 0 1 2.18709 1
gene 1 1 32 2.35651 0 2 2.35651 1
gene 1 1 33 -3.01372 0 3 -3.01372 1
gene 1 2 31 -1.84069 0 4 -1.84069 1
gene 1 2 32 3.67594 0 5 3.67594 1
gene 1 2 33 -3.10835 0 6 -3.10835 1
gene 1 3 31 0.747085 0 7 0.747085 1
gene 1 3 32 -1.97634 0 8 -1.97634 1
gene 1 3 33 2.0164 0 9 2.0164 1
gene 1 4 31 -0.426673 0 10 -0.426673 1
gene 1 4 32 -2.26941 0 11 -2.26941 1
gene 1 4 33 -3.59253 0 12 -3.59253 1
gene 1 5 31 0.732205 0 13 0.732205 1
gene 1 5 32 -1.83624 0 14 -1.83624 1
gene 1 5 33 0.381067 0 15 0.381067 1
gene 1 6 31 1.58033 0 16 1.58033 1
gene 1 6 32 -0.901871 0 17 -0.901871 1
gene 1 6 33 -0.829159 0 18 -0.829159 1
gene 1 7 31 0.225752 0 19 0.225752 1
gene 1 7 32 -0.796316 0 20 -0.796316 1
gene 1 7 33 0.372407 0 21 0.372407 1
gene 1 8 31 -4.15375 0 22 -4.15375 1
gene 1 8 32 1.91668 0 23 1.91668 1
gene 1 8 33 -0.6584 0 24 -0.6584 1
gene 1 9 31 -2.39225 0 25 -2.39225 1
gene 1 9 32 -1.41106 0 26 -1.41106 1
gene 1 9 33 0.230376 0 27 0.230376 1
gene 1 10 31 0.44248 0 28 0.44248 1
gene 1 10 32 0.428199 0 29 0.428199 1
gene 1 10 33 0.275649 0 30 0.275649 1
gene 1 11 31 2.62152 0 31 2.62152 1
gene 1 11 32 2.61913 0 32 2.61913 1
gene 1 11 33 0.17931 0 33 0.17931 1
gene 1 12 31 1.04626 0 34 1.04626 1
gene 1 12 32 -3.27574 0 35 -3.27574 1
gene 1 12 33 -1.97889 0 36 -1.97889 1
gene 1 13 31 -3.77965 0 37 -3.77965 1
gene 1 13 32 -0.842887 0 38 -0.842887 1
gene 1 13 33 1.24582 0 39 1.24582 1
gene 1 14 31 1.43862 0 40 1.43862 1
gene 1 14 32 -0.577828 0 41 -0.577828 1
gene 1 14 33 0.88337 0 42 0.88337 1
gene 1 15 31 -3.70861 0 43 -3.70861 1
gene 1 15 32 -0.954282 0 44 -0.954282 1
gene 1 15 33 0.726669 0 45 0.726669 1
gene 1 16 31 -5 0 46 -5 1
gene 1 16 32 -2.47357 0 47 -2.47357 1
gene 1 16 33 -5 0 48 -5 1
gene 1 17 31 -3.33816 0 49 -3.33816 1
gene 1 17 32 -2.81385 0 50 -2.81385 1
gene 1 17 33 3.01615 0 51 3.01615 1
gene 1 18 31 -0.486044 0 52 -0.486044 1
gene 1 18 32 -0.836418 0 53 -0.836418 1
gene 1 18 33 -0.210144 0 54 -0.210144 1
gene 1 19 31 0.57274 0 55 0.57274 1
gene 1 19 32 0.514229 0 56 0.514229 1
gene 1 19 33 3.53005 0 57 3.53005 1
gene 1 20 31 0.960907 0 58 0.960907 1
gene 1 20 32 -2.07065 0 59 -2.07065 1
gene 1 20 33 -0.619351 0 60 -0.619351 1
gene 1 21 31 -0.83824 0 61 -0.83824 1
gene 1 21 32 -0.738669 0 62 -0.738669 1
gene 1 21 33 -1.94071 0 63 -1.94071 1
gene 1 22 31 -0.769012 0 64 -0.769012 1
gene 1 22 32 -4.48793 0 65 -4.48793 1
gene 1 22 33 -1.51065 0 66 -1.51065 1
gene 1 23 31 -0.0614489 0 67 -0.0614489 1
gene 1 23 32 0.0193878 0 68 0.0193878 1
gene 1 23 33 -1.46574 0 69 -1.46574 1
gene 1 24 31 0.835184 0 70 0.835184 1
gene 1 24 32 -0.557184 0 71 -0.557184 1
gene 1 24 33 4.5199 0 72 4.5199 1
gene 1 25 31 -0.573801 0 73 -0.573801 1
gene 1 25 32 0.690701 0 74 0.690701 1
gene 1 25 33 -0.882193 0 75 -0.882193 1
gene 1 26 31 -0.448543 0 76 -0.448543 1
gene 1 26 32 -3.3302 0 77 -3.3302 1
gene 1 26 33 0.841447 0 78 0.841447 1
gene 1 27 31 3.14462 0 79 3.14462 1
gene 1 27 32 -0.563101 0 80 -0.563101 1
gene 1 27 33 -2.04959 0 81 -2.04959 1
gene 1 28 31 -0.646359 0 82 -0.646359 1
gene 1 28 32 -1.41705 0 83 -1.41705 1
gene 1 28 33 0.487088 0 84 0.487088 1
gene 1 29 31 2.13481 0 85 2.13481 1
gene 1 29 32 -0.397257 0 86 -0.397257 1
gene 1 29 33 -0.0350807 0 87 -0.0350807 1
gene 1 30 31 -0.0166972 0 88 -0.0166972 1
gene 1 30 32 -2.0373 0 89 -2.0373 1
gene 1 30 33 -0.814518 0 90 -0.814518 1
genomeend 13


