/* Organism #4 Fitness: 14767.100000 Time: 0 */
genomestart 4
trait 1 0.100000 0.819707 0.000000 0.595175 0.652299 0.000000 0.000000 0.000000 
node 1 1 1 1
node 2 1 1 1
node 3 1 1 1
node 4 1 1 1
node 5 1 1 1
node 6 1 1 1
node 7 1 1 1
node 8 1 1 1
node 9 1 1 1
node 10 1 1 1
node 11 1 1 1
node 12 1 1 1
node 13 1 1 1
node 14 1 1 1
node 15 1 1 1
node 16 1 1 1
node 17 1 1 1
node 18 1 1 1
node 19 1 1 1
node 20 1 1 1
node 21 1 1 1
node 22 1 1 1
node 23 1 1 1
node 24 1 1 1
node 25 1 1 1
node 26 1 1 1
node 27 1 1 1
node 28 1 1 1
node 29 1 1 1
node 30 1 1 3
node 31 1 0 2
node 32 1 0 2
node 33 1 0 2
gene 1 1 31 -0.878682 0 1 -0.878682 1
gene 1 1 32 -3.93073 0 2 -3.93073 1
gene 1 1 33 -0.627227 0 3 -0.627227 1
gene 1 2 31 -1.00527 0 4 -1.00527 1
gene 1 2 32 3.42596 0 5 3.42596 1
gene 1 2 33 -0.314283 0 6 -0.314283 1
gene 1 3 31 -3.33434 0 7 -3.33434 1
gene 1 3 32 2.49912 0 8 2.49912 1
gene 1 3 33 1.87987 0 9 1.87987 1
gene 1 4 31 -3.62476 0 10 -3.62476 1
gene 1 4 32 0.657443 0 11 0.657443 1
gene 1 4 33 -0.401145 0 12 -0.401145 1
gene 1 5 31 0.14861 0 13 0.14861 1
gene 1 5 32 1.38201 0 14 1.38201 1
gene 1 5 33 0.661763 0 15 0.661763 1
gene 1 6 31 1.07022 0 16 1.07022 1
gene 1 6 32 1.70945 0 17 1.70945 1
gene 1 6 33 -0.436984 0 18 -0.436984 1
gene 1 7 31 -0.118225 0 19 -0.118225 1
gene 1 7 32 -1.03587 0 20 -1.03587 1
gene 1 7 33 -1.81738 0 21 -1.81738 1
gene 1 8 31 0.629842 0 22 0.629842 1
gene 1 8 32 0.927753 0 23 0.927753 1
gene 1 8 33 -0.98444 0 24 -0.98444 1
gene 1 9 31 1.19561 0 25 1.19561 1
gene 1 9 32 0.771481 0 26 0.771481 1
gene 1 9 33 0.776699 0 27 0.776699 1
gene 1 10 31 -0.836692 0 28 -0.836692 1
gene 1 10 32 0.297626 0 29 0.297626 1
gene 1 10 33 0.208503 0 30 0.208503 1
gene 1 11 31 0.122448 0 31 0.122448 1
gene 1 11 32 -0.0815684 0 32 -0.0815684 1
gene 1 11 33 -0.654057 0 33 -0.654057 1
gene 1 12 31 -0.434645 0 34 -0.434645 1
gene 1 12 32 2.53535 0 35 2.53535 1
gene 1 12 33 0.154443 0 36 0.154443 1
gene 1 13 31 -0.329209 0 37 -0.329209 1
gene 1 13 32 -1.16157 0 38 -1.16157 1
gene 1 13 33 0.311357 0 39 0.311357 1
gene 1 14 31 3.07574 0 40 3.07574 1
gene 1 14 32 -0.846491 0 41 -0.846491 1
gene 1 14 33 -0.252731 0 42 -0.252731 1
gene 1 15 31 4.56407 0 43 4.56407 1
gene 1 15 32 1.27755 0 44 1.27755 1
gene 1 15 33 -1.03649 0 45 -1.03649 1
gene 1 16 31 1.80231 0 46 1.80231 1
gene 1 16 32 -0.0773847 0 47 -0.0773847 1
gene 1 16 33 -1.20112 0 48 -1.20112 1
gene 1 17 31 -2.09202 0 49 -2.09202 1
gene 1 17 32 -4.23544 0 50 -4.23544 1
gene 1 17 33 -0.487241 0 51 -0.487241 1
gene 1 18 31 1.41854 0 52 1.41854 1
gene 1 18 32 1.01782 0 53 1.01782 1
gene 1 18 33 -2.19228 0 54 -2.19228 1
gene 1 19 31 -1.30243 0 55 -1.30243 1
gene 1 19 32 -2.22552 0 56 -2.22552 1
gene 1 19 33 -3.03045 0 57 -3.03045 1
gene 1 20 31 0.456513 0 58 0.456513 1
gene 1 20 32 -1.05407 0 59 -1.05407 1
gene 1 20 33 0.732223 0 60 0.732223 1
gene 1 21 31 1.2705 0 61 1.2705 1
gene 1 21 32 -1.12772 0 62 -1.12772 1
gene 1 21 33 -1.25002 0 63 -1.25002 1
gene 1 22 31 -1.45326 0 64 -1.45326 1
gene 1 22 32 -2.37747 0 65 -2.37747 1
gene 1 22 33 1.07956 0 66 1.07956 1
gene 1 23 31 0.67198 0 67 0.67198 1
gene 1 23 32 -2.33634 0 68 -2.33634 1
gene 1 23 33 1.12458 0 69 1.12458 1
gene 1 24 31 1.21428 0 70 1.21428 1
gene 1 24 32 2.48784 0 71 2.48784 1
gene 1 24 33 -1.31202 0 72 -1.31202 1
gene 1 25 31 -1.5735 0 73 -1.5735 1
gene 1 25 32 1.8681 0 74 1.8681 1
gene 1 25 33 0.885598 0 75 0.885598 1
gene 1 26 31 -0.797975 0 76 -0.797975 1
gene 1 26 32 -0.86439 0 77 -0.86439 1
gene 1 26 33 -0.482353 0 78 -0.482353 1
gene 1 27 31 -1.3941 0 79 -1.3941 1
gene 1 27 32 -0.105727 0 80 -0.105727 1
gene 1 27 33 -1.90115 0 81 -1.90115 1
gene 1 28 31 -0.13307 0 82 -0.13307 1
gene 1 28 32 -0.112442 0 83 -0.112442 1
gene 1 28 33 0.451545 0 84 0.451545 1
gene 1 29 31 -1.56175 0 85 -1.56175 1
gene 1 29 32 3.99817 0 86 3.99817 1
gene 1 29 33 0.595538 0 87 0.595538 1
gene 1 30 31 -1.46701 0 88 -1.46701 1
gene 1 30 32 0.0090642 0 89 0.0090642 1
gene 1 30 33 -0.048332 0 90 -0.048332 1
genomeend 4


