/* Organism #0 Fitness: 15196.744000 Time: 0 */
genomestart 0
trait 1 0.100000 0.523906 0.000000 0.595175 0.196117 0.000000 0.000000 0.547270 
node 1 1 1 1
node 2 1 1 1
node 3 1 1 1
node 4 1 1 1
node 5 1 1 1
node 6 1 1 1
node 7 1 1 1
node 8 1 1 1
node 9 1 1 1
node 10 1 1 1
node 11 1 1 1
node 12 1 1 1
node 13 1 1 1
node 14 1 1 1
node 15 1 1 1
node 16 1 1 1
node 17 1 1 1
node 18 1 1 1
node 19 1 1 1
node 20 1 1 1
node 21 1 1 1
node 22 1 1 1
node 23 1 1 1
node 24 1 1 1
node 25 1 1 1
node 26 1 1 1
node 27 1 1 1
node 28 1 1 1
node 29 1 1 1
node 30 1 1 3
node 31 1 0 2
node 32 1 0 2
node 33 1 0 2
gene 1 1 31 0.65806 0 1 0.65806 1
gene 1 1 32 -5 0 2 -5 1
gene 1 1 33 0.269776 0 3 0.269776 1
gene 1 2 31 -0.211392 0 4 -0.211392 1
gene 1 2 32 3.47567 0 5 3.47567 1
gene 1 2 33 2.01051 0 6 2.01051 1
gene 1 3 31 0.383548 0 7 0.383548 1
gene 1 3 32 1.81014 0 8 1.81014 1
gene 1 3 33 -0.622512 0 9 -0.622512 1
gene 1 4 31 -4.02004 0 10 -4.02004 1
gene 1 4 32 1.16325 0 11 1.16325 1
gene 1 4 33 -0.447922 0 12 -0.447922 1
gene 1 5 31 2.65118 0 13 2.65118 1
gene 1 5 32 2.40463 0 14 2.40463 1
gene 1 5 33 2.30428 0 15 2.30428 1
gene 1 6 31 0.507362 0 16 0.507362 1
gene 1 6 32 0.90321 0 17 0.90321 1
gene 1 6 33 -1.71493 0 18 -1.71493 1
gene 1 7 31 -2.87563 0 19 -2.87563 1
gene 1 7 32 -0.274455 0 20 -0.274455 1
gene 1 7 33 -1.38434 0 21 -1.38434 1
gene 1 8 31 0.58885 0 22 0.58885 1
gene 1 8 32 -0.252671 0 23 -0.252671 1
gene 1 8 33 0.246099 0 24 0.246099 1
gene 1 9 31 0.430369 0 25 0.430369 1
gene 1 9 32 -0.568013 0 26 -0.568013 1
gene 1 9 33 -0.23255 0 27 -0.23255 1
gene 1 10 31 -0.215353 0 28 -0.215353 1
gene 1 10 32 -0.221242 0 29 -0.221242 1
gene 1 10 33 0.930516 0 30 0.930516 1
gene 1 11 31 1.00876 0 31 1.00876 1
gene 1 11 32 -0.479476 0 32 -0.479476 1
gene 1 11 33 -0.597319 0 33 -0.597319 1
gene 1 12 31 -1.17515 0 34 -1.17515 1
gene 1 12 32 3.62797 0 35 3.62797 1
gene 1 12 33 -0.124071 0 36 -0.124071 1
gene 1 13 31 0.775275 0 37 0.775275 1
gene 1 13 32 0.270251 0 38 0.270251 1
gene 1 13 33 -0.14191 0 39 -0.14191 1
gene 1 14 31 2.18091 0 40 2.18091 1
gene 1 14 32 0.0315798 0 41 0.0315798 1
gene 1 14 33 0.551992 0 42 0.551992 1
gene 1 15 31 5 0 43 5 1
gene 1 15 32 -0.0735782 0 44 -0.0735782 1
gene 1 15 33 -2.47824 0 45 -2.47824 1
gene 1 16 31 -0.0645303 0 46 -0.0645303 1
gene 1 16 32 0.0927203 0 47 0.0927203 1
gene 1 16 33 -0.0998916 0 48 -0.0998916 1
gene 1 17 31 -1.79883 0 49 -1.79883 1
gene 1 17 32 -5 0 50 -5 1
gene 1 17 33 -1.01524 0 51 -1.01524 1
gene 1 18 31 -0.889386 0 52 -0.889386 1
gene 1 18 32 -0.599444 0 53 -0.599444 1
gene 1 18 33 -1.48611 0 54 -1.48611 1
gene 1 19 31 -0.9671 0 55 -0.9671 1
gene 1 19 32 -1.55911 0 56 -1.55911 1
gene 1 19 33 -5 0 57 -5 1
gene 1 20 31 -1.58259 0 58 -1.58259 1
gene 1 20 32 -1.46734 0 59 -1.46734 1
gene 1 20 33 -0.238827 0 60 -0.238827 1
gene 1 21 31 1.13882 0 61 1.13882 1
gene 1 21 32 0.714893 0 62 0.714893 1
gene 1 21 33 -1.02763 0 63 -1.02763 1
gene 1 22 31 -0.336498 0 64 -0.336498 1
gene 1 22 32 -3.43272 0 65 -3.43272 1
gene 1 22 33 -0.987881 0 66 -0.987881 1
gene 1 23 31 2.20276 0 67 2.20276 1
gene 1 23 32 -3.22863 0 68 -3.22863 1
gene 1 23 33 -0.813491 0 69 -0.813491 1
gene 1 24 31 0.958134 0 70 0.958134 1
gene 1 24 32 0.77634 0 71 0.77634 1
gene 1 24 33 -1.75759 0 72 -1.75759 1
gene 1 25 31 0.483523 0 73 0.483523 1
gene 1 25 32 1.76137 0 74 1.76137 1
gene 1 25 33 0.41133 0 75 0.41133 1
gene 1 26 31 0.413046 0 76 0.413046 1
gene 1 26 32 -1.61753 0 77 -1.61753 1
gene 1 26 33 0.772852 0 78 0.772852 1
gene 1 27 31 -1.93614 0 79 -1.93614 1
gene 1 27 32 1.4516 0 80 1.4516 1
gene 1 27 33 -0.764986 0 81 -0.764986 1
gene 1 28 31 1.4553 0 82 1.4553 1
gene 1 28 32 1.63795 0 83 1.63795 1
gene 1 28 33 -0.0306415 0 84 -0.0306415 1
gene 1 29 31 0.0776346 0 85 0.0776346 1
gene 1 29 32 3.33475 0 86 3.33475 1
gene 1 29 33 1.93539 0 87 1.93539 1
gene 1 30 31 -0.593141 0 88 -0.593141 1
gene 1 30 32 1.0576 0 89 1.0576 1
gene 1 30 33 0.848908 0 90 0.848908 1
genomeend 0


