/* Organism #83 Fitness: 10717.900000 Time: 0 */
genomestart 83
trait 1 1.000000 0.606685 0.000000 0.000000 0.141387 1.000000 1.000000 0.000000 
node 1 1 1 1
node 2 1 1 1
node 3 1 1 1
node 4 1 1 1
node 5 1 1 1
node 6 1 1 1
node 7 1 1 1
node 8 1 1 1
node 9 1 1 1
node 10 1 1 1
node 11 1 1 1
node 12 1 1 1
node 13 1 1 1
node 14 1 1 1
node 15 1 1 1
node 16 1 1 1
node 17 1 1 1
node 18 1 1 1
node 19 1 1 1
node 20 1 1 1
node 21 1 1 1
node 22 1 1 1
node 23 1 1 1
node 24 1 1 1
node 25 1 1 1
node 26 1 1 1
node 27 1 1 1
node 28 1 1 1
node 29 1 1 1
node 30 1 1 3
node 31 1 0 2
node 32 1 0 2
node 33 1 0 2
gene 1 1 31 -2.11111 0 1 -2.11111 1
gene 1 1 32 -1.59317 0 2 -1.59317 1
gene 1 1 33 -2.37812 0 3 -2.37812 1
gene 1 2 31 0.145254 0 4 0.145254 1
gene 1 2 32 -0.240883 0 5 -0.240883 1
gene 1 2 33 -0.838866 0 6 -0.838866 1
gene 1 3 31 2.05406 0 7 2.05406 1
gene 1 3 32 -0.0424158 0 8 -0.0424158 1
gene 1 3 33 -1.46611 0 9 -1.46611 1
gene 1 4 31 3.05373 0 10 3.05373 1
gene 1 4 32 0.098323 0 11 0.098323 1
gene 1 4 33 2.3397 0 12 2.3397 1
gene 1 5 31 -2.18501 0 13 -2.18501 1
gene 1 5 32 -1.15636 0 14 -1.15636 1
gene 1 5 33 1.49242 0 15 1.49242 1
gene 1 6 31 -0.118848 0 16 -0.118848 1
gene 1 6 32 0.684553 0 17 0.684553 1
gene 1 6 33 -1.02217 0 18 -1.02217 1
gene 1 7 31 5 0 19 5 1
gene 1 7 32 -0.769675 0 20 -0.769675 1
gene 1 7 33 -5 0 21 -5 1
gene 1 8 31 2.0077 0 22 2.0077 1
gene 1 8 32 0.143709 0 23 0.143709 1
gene 1 8 33 -0.686606 0 24 -0.686606 1
gene 1 9 31 -1.83646 0 25 -1.83646 1
gene 1 9 32 5 0 26 5 1
gene 1 9 33 -4.03525 0 27 -4.03525 1
gene 1 10 31 -1.24709 0 28 -1.24709 1
gene 1 10 32 4.13458 0 29 4.13458 1
gene 1 10 33 -2.90737 0 30 -2.90737 1
gene 1 11 31 2.45898 0 31 2.45898 1
gene 1 11 32 -1.98731 0 32 -1.98731 1
gene 1 11 33 -5 0 33 -5 1
gene 1 12 31 -0.182364 0 34 -0.182364 1
gene 1 12 32 -3.21485 0 35 -3.21485 1
gene 1 12 33 0.369556 0 36 0.369556 1
gene 1 13 31 4.99943 0 37 4.99943 1
gene 1 13 32 -5 0 38 -5 1
gene 1 13 33 -1.86905 0 39 -1.86905 1
gene 1 14 31 -0.224191 0 40 -0.224191 1
gene 1 14 32 -5 0 41 -5 1
gene 1 14 33 4.06072 0 42 4.06072 1
gene 1 15 31 2.21812 0 43 2.21812 1
gene 1 15 32 3.03795 0 44 3.03795 1
gene 1 15 33 -0.625762 0 45 -0.625762 1
gene 1 16 31 3.8566 0 46 3.8566 1
gene 1 16 32 4.75317 0 47 4.75317 1
gene 1 16 33 4.16346 0 48 4.16346 1
gene 1 17 31 3.39085 0 49 3.39085 1
gene 1 17 32 2.22849 0 50 2.22849 1
gene 1 17 33 -0.550432 0 51 -0.550432 1
gene 1 18 31 -2.59649 0 52 -2.59649 1
gene 1 18 32 2.57836 0 53 2.57836 1
gene 1 18 33 3.05106 0 54 3.05106 1
gene 1 19 31 2.92811 0 55 2.92811 1
gene 1 19 32 0.791743 0 56 0.791743 1
gene 1 19 33 -3.69847 0 57 -3.69847 1
gene 1 20 31 -0.631249 0 58 -0.631249 1
gene 1 20 32 -0.00393108 0 59 -0.00393108 1
gene 1 20 33 -2.52615 0 60 -2.52615 1
gene 1 21 31 -3.80027 0 61 -3.80027 1
gene 1 21 32 -0.0843448 0 62 -0.0843448 1
gene 1 21 33 1.55827 0 63 1.55827 1
gene 1 22 31 -2.56457 0 64 -2.56457 1
gene 1 22 32 0.73372 0 65 0.73372 1
gene 1 22 33 5 0 66 5 1
gene 1 23 31 -5 0 67 -5 1
gene 1 23 32 0.321479 0 68 0.321479 1
gene 1 23 33 0.255091 0 69 0.255091 1
gene 1 24 31 5 0 70 5 1
gene 1 24 32 0.954065 0 71 0.954065 1
gene 1 24 33 0.719767 0 72 0.719767 1
gene 1 25 31 -1.52627 0 73 -1.52627 1
gene 1 25 32 0.600708 0 74 0.600708 1
gene 1 25 33 -1.40022 0 75 -1.40022 1
gene 1 26 31 0.820881 0 76 0.820881 1
gene 1 26 32 -0.040426 0 77 -0.040426 1
gene 1 26 33 -0.997075 0 78 -0.997075 1
gene 1 27 31 -1.38877 0 79 -1.38877 1
gene 1 27 32 -3.85223 0 80 -3.85223 1
gene 1 27 33 -0.795377 0 81 -0.795377 1
gene 1 28 31 0.506658 0 82 0.506658 1
gene 1 28 32 -0.428577 0 83 -0.428577 1
gene 1 28 33 0.609797 0 84 0.609797 1
gene 1 29 31 0.451533 0 85 0.451533 1
gene 1 29 32 -0.555683 0 86 -0.555683 1
gene 1 29 33 -1.19606 0 87 -1.19606 1
gene 1 30 31 0.966424 0 88 0.966424 1
gene 1 30 32 -0.983919 0 89 -0.983919 1
gene 1 30 33 -1.36041 0 90 -1.36041 1
genomeend 83


