/* Organism #8 Fitness: 15438.626000 Time: 0 */
genomestart 8
trait 1 0.000000 1.000000 0.000000 0.000000 0.000000 0.850920 0.223717 0.682488 
node 1 1 1 1
node 2 1 1 1
node 3 1 1 1
node 4 1 1 1
node 5 1 1 1
node 6 1 1 1
node 7 1 1 1
node 8 1 1 1
node 9 1 1 1
node 10 1 1 1
node 11 1 1 1
node 12 1 1 1
node 13 1 1 1
node 14 1 1 1
node 15 1 1 1
node 16 1 1 1
node 17 1 1 1
node 18 1 1 1
node 19 1 1 1
node 20 1 1 1
node 21 1 1 1
node 22 1 1 1
node 23 1 1 1
node 24 1 1 1
node 25 1 1 1
node 26 1 1 1
node 27 1 1 1
node 28 1 1 1
node 29 1 1 1
node 30 1 1 3
node 31 1 0 2
node 32 1 0 2
node 33 1 0 2
gene 1 1 31 -1.95415 0 1 -1.95415 1
gene 1 1 32 1.09375 0 2 1.09375 1
gene 1 1 33 -4.56924 0 3 -4.56924 1
gene 1 2 31 0.0777173 0 4 0.0777173 1
gene 1 2 32 -2.05836 0 5 -2.05836 1
gene 1 2 33 -0.387658 0 6 -0.387658 1
gene 1 3 31 0.565268 0 7 0.565268 1
gene 1 3 32 -1.99179 0 8 -1.99179 1
gene 1 3 33 3.5017 0 9 3.5017 1
gene 1 4 31 -2.59215 0 10 -2.59215 1
gene 1 4 32 3.85488 0 11 3.85488 1
gene 1 4 33 2.25916 0 12 2.25916 1
gene 1 5 31 -1.37427 0 13 -1.37427 1
gene 1 5 32 -0.330536 0 14 -0.330536 1
gene 1 5 33 -2.94001 0 15 -2.94001 1
gene 1 6 31 -0.563608 0 16 -0.563608 1
gene 1 6 32 0.9861 0 17 0.9861 1
gene 1 6 33 2.83502 0 18 2.83502 1
gene 1 7 31 -4.20403 0 19 -4.20403 1
gene 1 7 32 0.566214 0 20 0.566214 1
gene 1 7 33 0.598234 0 21 0.598234 1
gene 1 8 31 0.259988 0 22 0.259988 1
gene 1 8 32 4.29744 0 23 4.29744 1
gene 1 8 33 -0.602526 0 24 -0.602526 1
gene 1 9 31 -3.39611 0 25 -3.39611 1
gene 1 9 32 -0.427647 0 26 -0.427647 1
gene 1 9 33 0.880018 0 27 0.880018 1
gene 1 10 31 -0.702522 0 28 -0.702522 1
gene 1 10 32 -1.18962 0 29 -1.18962 1
gene 1 10 33 -0.691779 0 30 -0.691779 1
gene 1 11 31 2.16832 0 31 2.16832 1
gene 1 11 32 -3.37618 0 32 -3.37618 1
gene 1 11 33 -1.34179 0 33 -1.34179 1
gene 1 12 31 -1.65585 0 34 -1.65585 1
gene 1 12 32 -1.83633 0 35 -1.83633 1
gene 1 12 33 2.78101 0 36 2.78101 1
gene 1 13 31 2.90033 0 37 2.90033 1
gene 1 13 32 2.84232 0 38 2.84232 1
gene 1 13 33 -0.514408 0 39 -0.514408 1
gene 1 14 31 -0.131517 0 40 -0.131517 1
gene 1 14 32 0.243764 0 41 0.243764 1
gene 1 14 33 0.103227 0 42 0.103227 1
gene 1 15 31 -1.47743 0 43 -1.47743 1
gene 1 15 32 3.47621 0 44 3.47621 1
gene 1 15 33 3.62361 0 45 3.62361 1
gene 1 16 31 -0.797469 0 46 -0.797469 1
gene 1 16 32 0.776498 0 47 0.776498 1
gene 1 16 33 4.27541 0 48 4.27541 1
gene 1 17 31 -1.36529 0 49 -1.36529 1
gene 1 17 32 1.82945 0 50 1.82945 1
gene 1 17 33 -1.3485 0 51 -1.3485 1
gene 1 18 31 -0.530686 0 52 -0.530686 1
gene 1 18 32 -4.39889 0 53 -4.39889 1
gene 1 18 33 -2.23636 0 54 -2.23636 1
gene 1 19 31 -5 0 55 -5 1
gene 1 19 32 -0.609535 0 56 -0.609535 1
gene 1 19 33 -4.06202 0 57 -4.06202 1
gene 1 20 31 1.31665 0 58 1.31665 1
gene 1 20 32 0.195234 0 59 0.195234 1
gene 1 20 33 1.40396 0 60 1.40396 1
gene 1 21 31 1.23803 0 61 1.23803 1
gene 1 21 32 0.936953 0 62 0.936953 1
gene 1 21 33 -0.562163 0 63 -0.562163 1
gene 1 22 31 -4.2543 0 64 -4.2543 1
gene 1 22 32 2.09054 0 65 2.09054 1
gene 1 22 33 0.804363 0 66 0.804363 1
gene 1 23 31 -1.16116 0 67 -1.16116 1
gene 1 23 32 0.620127 0 68 0.620127 1
gene 1 23 33 0.0475943 0 69 0.0475943 1
gene 1 24 31 2.0144 0 70 2.0144 1
gene 1 24 32 0.422754 0 71 0.422754 1
gene 1 24 33 -0.853608 0 72 -0.853608 1
gene 1 25 31 -0.235024 0 73 -0.235024 1
gene 1 25 32 1.4994 0 74 1.4994 1
gene 1 25 33 -0.409308 0 75 -0.409308 1
gene 1 26 31 0.199858 0 76 0.199858 1
gene 1 26 32 0.482101 0 77 0.482101 1
gene 1 26 33 -0.630516 0 78 -0.630516 1
gene 1 27 31 1.48887 0 79 1.48887 1
gene 1 27 32 0.441601 0 80 0.441601 1
gene 1 27 33 -0.591648 0 81 -0.591648 1
gene 1 28 31 0.353222 0 82 0.353222 1
gene 1 28 32 0.396681 0 83 0.396681 1
gene 1 28 33 -0.603725 0 84 -0.603725 1
gene 1 29 31 -1.80375 0 85 -1.80375 1
gene 1 29 32 0.879461 0 86 0.879461 1
gene 1 29 33 -1.8785 0 87 -1.8785 1
gene 1 30 31 -0.681513 0 88 -0.681513 1
gene 1 30 32 -0.314281 0 89 -0.314281 1
gene 1 30 33 0.679425 0 90 0.679425 1
genomeend 8


