/* Organism #1 Fitness: 17029.358000 Time: 0 */
genomestart 1
trait 1 1.000000 0.000000 0.000000 0.137410 0.000000 0.774452 0.556871 0.000000 
node 1 1 1 1
node 2 1 1 1
node 3 1 1 1
node 4 1 1 1
node 5 1 1 1
node 6 1 1 1
node 7 1 1 1
node 8 1 1 1
node 9 1 1 1
node 10 1 1 1
node 11 1 1 1
node 12 1 1 1
node 13 1 1 1
node 14 1 1 1
node 15 1 1 1
node 16 1 1 1
node 17 1 1 1
node 18 1 1 1
node 19 1 1 1
node 20 1 1 1
node 21 1 1 1
node 22 1 1 1
node 23 1 1 1
node 24 1 1 1
node 25 1 1 1
node 26 1 1 1
node 27 1 1 1
node 28 1 1 1
node 29 1 1 1
node 30 1 1 3
node 31 1 0 2
node 32 1 0 2
node 33 1 0 2
gene 1 1 31 -4.50968 0 1 -4.50968 1
gene 1 1 32 0.446484 0 2 0.446484 1
gene 1 1 33 0.377904 0 3 0.377904 1
gene 1 2 31 0.778367 0 4 0.778367 1
gene 1 2 32 -1.24198 0 5 -1.24198 1
gene 1 2 33 -0.027543 0 6 -0.027543 1
gene 1 3 31 -1.61112 0 7 -1.61112 1
gene 1 3 32 3.66832 0 8 3.66832 1
gene 1 3 33 0.898046 0 9 0.898046 1
gene 1 4 31 -0.797776 0 10 -0.797776 1
gene 1 4 32 4.33054 0 11 4.33054 1
gene 1 4 33 -0.825244 0 12 -0.825244 1
gene 1 5 31 -0.637 0 13 -0.637 1
gene 1 5 32 0.206225 0 14 0.206225 1
gene 1 5 33 1.45431 0 15 1.45431 1
gene 1 6 31 -0.680334 0 16 -0.680334 1
gene 1 6 32 0.181946 0 17 0.181946 1
gene 1 6 33 -2.71321 0 18 -2.71321 1
gene 1 7 31 -0.445219 0 19 -0.445219 1
gene 1 7 32 1.49462 0 20 1.49462 1
gene 1 7 33 -0.261532 0 21 -0.261532 1
gene 1 8 31 -1.30382 0 22 -1.30382 1
gene 1 8 32 -2.62157 0 23 -2.62157 1
gene 1 8 33 -0.560452 0 24 -0.560452 1
gene 1 9 31 0.980648 0 25 0.980648 1
gene 1 9 32 -4.86904 0 26 -4.86904 1
gene 1 9 33 -3.34983 0 27 -3.34983 1
gene 1 10 31 2.27245 0 28 2.27245 1
gene 1 10 32 -4.55078 0 29 -4.55078 1
gene 1 10 33 0.493101 0 30 0.493101 1
gene 1 11 31 5 0 31 5 1
gene 1 11 32 0.31718 0 32 0.31718 1
gene 1 11 33 -0.912359 0 33 -0.912359 1
gene 1 12 31 2.49028 0 34 2.49028 1
gene 1 12 32 0.347106 0 35 0.347106 1
gene 1 12 33 -3.08752 0 36 -3.08752 1
gene 1 13 31 0.176006 0 37 0.176006 1
gene 1 13 32 5 0 38 5 1
gene 1 13 33 -0.472181 0 39 -0.472181 1
gene 1 14 31 -0.94483 0 40 -0.94483 1
gene 1 14 32 0.592713 0 41 0.592713 1
gene 1 14 33 1.10696 0 42 1.10696 1
gene 1 15 31 -0.258417 0 43 -0.258417 1
gene 1 15 32 0.683221 0 44 0.683221 1
gene 1 15 33 -2.40328 0 45 -2.40328 1
gene 1 16 31 -0.86523 0 46 -0.86523 1
gene 1 16 32 -1.1313 0 47 -1.1313 1
gene 1 16 33 -2.64883 0 48 -2.64883 1
gene 1 17 31 -0.644513 0 49 -0.644513 1
gene 1 17 32 -1.21449 0 50 -1.21449 1
gene 1 17 33 0.245102 0 51 0.245102 1
gene 1 18 31 0.754617 0 52 0.754617 1
gene 1 18 32 -0.796493 0 53 -0.796493 1
gene 1 18 33 -0.98311 0 54 -0.98311 1
gene 1 19 31 -3.18323 0 55 -3.18323 1
gene 1 19 32 -0.706147 0 56 -0.706147 1
gene 1 19 33 0.359836 0 57 0.359836 1
gene 1 20 31 0.22414 0 58 0.22414 1
gene 1 20 32 -0.216834 0 59 -0.216834 1
gene 1 20 33 0.142142 0 60 0.142142 1
gene 1 21 31 -1.07 0 61 -1.07 1
gene 1 21 32 0.957301 0 62 0.957301 1
gene 1 21 33 -0.691311 0 63 -0.691311 1
gene 1 22 31 -2.31138 0 64 -2.31138 1
gene 1 22 32 0.0272232 0 65 0.0272232 1
gene 1 22 33 0.655421 0 66 0.655421 1
gene 1 23 31 0.697693 0 67 0.697693 1
gene 1 23 32 1.0707 0 68 1.0707 1
gene 1 23 33 0.558452 0 69 0.558452 1
gene 1 24 31 -4.65855 0 70 -4.65855 1
gene 1 24 32 0.776352 0 71 0.776352 1
gene 1 24 33 0.238409 0 72 0.238409 1
gene 1 25 31 -4.10109 0 73 -4.10109 1
gene 1 25 32 0.601486 0 74 0.601486 1
gene 1 25 33 0.201358 0 75 0.201358 1
gene 1 26 31 0.517069 0 76 0.517069 1
gene 1 26 32 -0.362207 0 77 -0.362207 1
gene 1 26 33 1.35428 0 78 1.35428 1
gene 1 27 31 0.73566 0 79 0.73566 1
gene 1 27 32 0.0265483 0 80 0.0265483 1
gene 1 27 33 -0.107996 0 81 -0.107996 1
gene 1 28 31 -0.051493 0 82 -0.051493 1
gene 1 28 32 0.660743 0 83 0.660743 1
gene 1 28 33 0.752111 0 84 0.752111 1
gene 1 29 31 0.402442 0 85 0.402442 1
gene 1 29 32 -0.239392 0 86 -0.239392 1
gene 1 29 33 0.107154 0 87 0.107154 1
gene 1 30 31 -0.574703 0 88 -0.574703 1
gene 1 30 32 0.133134 0 89 0.133134 1
gene 1 30 33 -0.0333095 0 90 -0.0333095 1
genomeend 1


