/* Organism #76 Fitness: 13757.700000 Time: 0 */
genomestart 76
trait 1 0.825985 0.000000 0.000000 0.627855 0.730259 0.805513 0.933499 0.211166 
node 1 1 1 1
node 2 1 1 1
node 3 1 1 1
node 4 1 1 1
node 5 1 1 1
node 6 1 1 1
node 7 1 1 1
node 8 1 1 1
node 9 1 1 1
node 10 1 1 1
node 11 1 1 1
node 12 1 1 1
node 13 1 1 1
node 14 1 1 1
node 15 1 1 1
node 16 1 1 1
node 17 1 1 1
node 18 1 1 1
node 19 1 1 1
node 20 1 1 1
node 21 1 1 1
node 22 1 1 1
node 23 1 1 1
node 24 1 1 1
node 25 1 1 1
node 26 1 1 1
node 27 1 1 1
node 28 1 1 1
node 29 1 1 1
node 30 1 1 3
node 31 1 0 2
node 32 1 0 2
node 33 1 0 2
gene 1 1 31 -0.0692169 0 1 -0.0692169 1
gene 1 1 32 -1.12789 0 2 -1.12789 1
gene 1 1 33 -4.79966 0 3 -4.79966 1
gene 1 2 31 -1.44577 0 4 -1.44577 1
gene 1 2 32 -2.36063 0 5 -2.36063 1
gene 1 2 33 1.3037 0 6 1.3037 1
gene 1 3 31 0.601372 0 7 0.601372 1
gene 1 3 32 -1.06889 0 8 -1.06889 1
gene 1 3 33 -0.478465 0 9 -0.478465 1
gene 1 4 31 -1.16537 0 10 -1.16537 1
gene 1 4 32 -0.194508 0 11 -0.194508 1
gene 1 4 33 4.29788 0 12 4.29788 1
gene 1 5 31 -0.934554 0 13 -0.934554 1
gene 1 5 32 0.0644183 0 14 0.0644183 1
gene 1 5 33 -1.24249 0 15 -1.24249 1
gene 1 6 31 1.95106 0 16 1.95106 1
gene 1 6 32 5 0 17 5 1
gene 1 6 33 2.74989 0 18 2.74989 1
gene 1 7 31 -0.586098 0 19 -0.586098 1
gene 1 7 32 -1.63828 0 20 -1.63828 1
gene 1 7 33 -0.733909 0 21 -0.733909 1
gene 1 8 31 -1.13039 0 22 -1.13039 1
gene 1 8 32 0.273642 0 23 0.273642 1
gene 1 8 33 2.695 0 24 2.695 1
gene 1 9 31 2.97051 0 25 2.97051 1
gene 1 9 32 -0.491296 0 26 -0.491296 1
gene 1 9 33 -0.46326 0 27 -0.46326 1
gene 1 10 31 -2.08572 0 28 -2.08572 1
gene 1 10 32 3.70708 0 29 3.70708 1
gene 1 10 33 -0.643244 0 30 -0.643244 1
gene 1 11 31 -1.09806 0 31 -1.09806 1
gene 1 11 32 2.54256 0 32 2.54256 1
gene 1 11 33 -2.32759 0 33 -2.32759 1
gene 1 12 31 -3.51361 0 34 -3.51361 1
gene 1 12 32 -0.852572 0 35 -0.852572 1
gene 1 12 33 0.857337 0 36 0.857337 1
gene 1 13 31 2.13055 0 37 2.13055 1
gene 1 13 32 3.58517 0 38 3.58517 1
gene 1 13 33 -1.31818 0 39 -1.31818 1
gene 1 14 31 4.33209 0 40 4.33209 1
gene 1 14 32 -0.155106 0 41 -0.155106 1
gene 1 14 33 0.436146 0 42 0.436146 1
gene 1 15 31 2.48839 0 43 2.48839 1
gene 1 15 32 1.44879 0 44 1.44879 1
gene 1 15 33 1.54509 0 45 1.54509 1
gene 1 16 31 3.41889 0 46 3.41889 1
gene 1 16 32 -0.067892 0 47 -0.067892 1
gene 1 16 33 -0.0801623 0 48 -0.0801623 1
gene 1 17 31 5 0 49 5 1
gene 1 17 32 0.707794 0 50 0.707794 1
gene 1 17 33 -1.66749 0 51 -1.66749 1
gene 1 18 31 1.68284 0 52 1.68284 1
gene 1 18 32 -0.689778 0 53 -0.689778 1
gene 1 18 33 -2.99938 0 54 -2.99938 1
gene 1 19 31 3.28138 0 55 3.28138 1
gene 1 19 32 2.79133 0 56 2.79133 1
gene 1 19 33 2.44752 0 57 2.44752 1
gene 1 20 31 -5 0 58 -5 1
gene 1 20 32 0.325716 0 59 0.325716 1
gene 1 20 33 1.66317 0 60 1.66317 1
gene 1 21 31 0.723858 0 61 0.723858 1
gene 1 21 32 0.724404 0 62 0.724404 1
gene 1 21 33 -3.29571 0 63 -3.29571 1
gene 1 22 31 1.3341 0 64 1.3341 1
gene 1 22 32 0.963037 0 65 0.963037 1
gene 1 22 33 0.155749 0 66 0.155749 1
gene 1 23 31 0.142051 0 67 0.142051 1
gene 1 23 32 0.210041 0 68 0.210041 1
gene 1 23 33 0.637298 0 69 0.637298 1
gene 1 24 31 -3.88203 0 70 -3.88203 1
gene 1 24 32 4.98619 0 71 4.98619 1
gene 1 24 33 4.66237 0 72 4.66237 1
gene 1 25 31 1.74486 0 73 1.74486 1
gene 1 25 32 -0.37996 0 74 -0.37996 1
gene 1 25 33 0.0405188 0 75 0.0405188 1
gene 1 26 31 -0.449039 0 76 -0.449039 1
gene 1 26 32 -0.258506 0 77 -0.258506 1
gene 1 26 33 -0.0920449 0 78 -0.0920449 1
gene 1 27 31 -0.269616 0 79 -0.269616 1
gene 1 27 32 0.930289 0 80 0.930289 1
gene 1 27 33 0.842539 0 81 0.842539 1
gene 1 28 31 -0.323886 0 82 -0.323886 1
gene 1 28 32 -0.550511 0 83 -0.550511 1
gene 1 28 33 -0.22806 0 84 -0.22806 1
gene 1 29 31 2.40524 0 85 2.40524 1
gene 1 29 32 -0.0884205 0 86 -0.0884205 1
gene 1 29 33 0.421748 0 87 0.421748 1
gene 1 30 31 0.598932 0 88 0.598932 1
gene 1 30 32 -0.260961 0 89 -0.260961 1
gene 1 30 33 0.221683 0 90 0.221683 1
genomeend 76


