/* Organism #60 Fitness: 13912.150000 Time: 0 */
genomestart 60
trait 1 0.000000 0.000000 0.649083 0.057122 0.000000 0.427326 0.281197 0.458508 
node 1 1 1 1
node 2 1 1 1
node 3 1 1 1
node 4 1 1 1
node 5 1 1 1
node 6 1 1 1
node 7 1 1 1
node 8 1 1 1
node 9 1 1 1
node 10 1 1 1
node 11 1 1 1
node 12 1 1 1
node 13 1 1 1
node 14 1 1 1
node 15 1 1 1
node 16 1 1 1
node 17 1 1 1
node 18 1 1 1
node 19 1 1 1
node 20 1 1 1
node 21 1 1 1
node 22 1 1 1
node 23 1 1 1
node 24 1 1 1
node 25 1 1 1
node 26 1 1 1
node 27 1 1 1
node 28 1 1 1
node 29 1 1 1
node 30 1 1 3
node 31 1 0 2
node 32 1 0 2
node 33 1 0 2
gene 1 1 31 -4.60699 0 1 -4.60699 1
gene 1 1 32 3.23447 0 2 3.23447 1
gene 1 1 33 -0.372561 0 3 -0.372561 1
gene 1 2 31 -0.371213 0 4 -0.371213 1
gene 1 2 32 1.56865 0 5 1.56865 1
gene 1 2 33 3.47545 0 6 3.47545 1
gene 1 3 31 0.583125 0 7 0.583125 1
gene 1 3 32 0.135731 0 8 0.135731 1
gene 1 3 33 1.74704 0 9 1.74704 1
gene 1 4 31 2.59199 0 10 2.59199 1
gene 1 4 32 3.7625 0 11 3.7625 1
gene 1 4 33 3.39982 0 12 3.39982 1
gene 1 5 31 1.03515 0 13 1.03515 1
gene 1 5 32 -1.2241 0 14 -1.2241 1
gene 1 5 33 -0.450928 0 15 -0.450928 1
gene 1 6 31 1.12006 0 16 1.12006 1
gene 1 6 32 0.456815 0 17 0.456815 1
gene 1 6 33 -1.63405 0 18 -1.63405 1
gene 1 7 31 4.54421 0 19 4.54421 1
gene 1 7 32 -0.358173 0 20 -0.358173 1
gene 1 7 33 0.247176 0 21 0.247176 1
gene 1 8 31 -0.987049 0 22 -0.987049 1
gene 1 8 32 -1.86189 0 23 -1.86189 1
gene 1 8 33 3.30777 0 24 3.30777 1
gene 1 9 31 -3.61791 0 25 -3.61791 1
gene 1 9 32 0.504719 0 26 0.504719 1
gene 1 9 33 -4.74196 0 27 -4.74196 1
gene 1 10 31 1.37339 0 28 1.37339 1
gene 1 10 32 -0.0905326 0 29 -0.0905326 1
gene 1 10 33 2.04255 0 30 2.04255 1
gene 1 11 31 4.58436 0 31 4.58436 1
gene 1 11 32 -1.87352 0 32 -1.87352 1
gene 1 11 33 -1.51403 0 33 -1.51403 1
gene 1 12 31 0.589533 0 34 0.589533 1
gene 1 12 32 1.21299 0 35 1.21299 1
gene 1 12 33 -0.217732 0 36 -0.217732 1
gene 1 13 31 -0.867577 0 37 -0.867577 1
gene 1 13 32 0.468618 0 38 0.468618 1
gene 1 13 33 -4.79448 0 39 -4.79448 1
gene 1 14 31 0.401325 0 40 0.401325 1
gene 1 14 32 -3.18885 0 41 -3.18885 1
gene 1 14 33 -1.10604 0 42 -1.10604 1
gene 1 15 31 -0.408324 0 43 -0.408324 1
gene 1 15 32 -1.38305 0 44 -1.38305 1
gene 1 15 33 3.04179 0 45 3.04179 1
gene 1 16 31 -3.83286 0 46 -3.83286 1
gene 1 16 32 0.346639 0 47 0.346639 1
gene 1 16 33 2.12764 0 48 2.12764 1
gene 1 17 31 -2.89507 0 49 -2.89507 1
gene 1 17 32 1.00615 0 50 1.00615 1
gene 1 17 33 3.76813 0 51 3.76813 1
gene 1 18 31 -3.77154 0 52 -3.77154 1
gene 1 18 32 -0.905194 0 53 -0.905194 1
gene 1 18 33 -4.1423 0 54 -4.1423 1
gene 1 19 31 -2.01753 0 55 -2.01753 1
gene 1 19 32 -1.66733 0 56 -1.66733 1
gene 1 19 33 0.849877 0 57 0.849877 1
gene 1 20 31 -1.98009 0 58 -1.98009 1
gene 1 20 32 -1.43872 0 59 -1.43872 1
gene 1 20 33 2.66531 0 60 2.66531 1
gene 1 21 31 1.31101 0 61 1.31101 1
gene 1 21 32 -0.622922 0 62 -0.622922 1
gene 1 21 33 -3.37516 0 63 -3.37516 1
gene 1 22 31 -0.745609 0 64 -0.745609 1
gene 1 22 32 3.92694 0 65 3.92694 1
gene 1 22 33 -3.35104 0 66 -3.35104 1
gene 1 23 31 0.590248 0 67 0.590248 1
gene 1 23 32 0.772566 0 68 0.772566 1
gene 1 23 33 -0.908799 0 69 -0.908799 1
gene 1 24 31 1.32699 0 70 1.32699 1
gene 1 24 32 -0.290105 0 71 -0.290105 1
gene 1 24 33 -0.044417 0 72 -0.044417 1
gene 1 25 31 1.8781 0 73 1.8781 1
gene 1 25 32 -1.27795 0 74 -1.27795 1
gene 1 25 33 -0.20823 0 75 -0.20823 1
gene 1 26 31 -0.931406 0 76 -0.931406 1
gene 1 26 32 -1.33897 0 77 -1.33897 1
gene 1 26 33 -0.36003 0 78 -0.36003 1
gene 1 27 31 -0.198783 0 79 -0.198783 1
gene 1 27 32 0.689013 0 80 0.689013 1
gene 1 27 33 0.0757568 0 81 0.0757568 1
gene 1 28 31 1.11743 0 82 1.11743 1
gene 1 28 32 0.0510781 0 83 0.0510781 1
gene 1 28 33 -0.512098 0 84 -0.512098 1
gene 1 29 31 -0.0478402 0 85 -0.0478402 1
gene 1 29 32 1.01411 0 86 1.01411 1
gene 1 29 33 0.298854 0 87 0.298854 1
gene 1 30 31 0.779054 0 88 0.779054 1
gene 1 30 32 -1.20585 0 89 -1.20585 1
gene 1 30 33 -0.945713 0 90 -0.945713 1
genomeend 60


