/* Organism #17 Fitness: 15069.060000 Time: 0 */
genomestart 17
trait 1 0.100000 0.776213 0.000000 0.036869 0.000000 0.000000 0.000000 0.000000 
node 1 1 1 1
node 2 1 1 1
node 3 1 1 1
node 4 1 1 1
node 5 1 1 1
node 6 1 1 1
node 7 1 1 1
node 8 1 1 1
node 9 1 1 1
node 10 1 1 1
node 11 1 1 1
node 12 1 1 1
node 13 1 1 1
node 14 1 1 1
node 15 1 1 1
node 16 1 1 1
node 17 1 1 1
node 18 1 1 1
node 19 1 1 1
node 20 1 1 1
node 21 1 1 1
node 22 1 1 1
node 23 1 1 1
node 24 1 1 1
node 25 1 1 1
node 26 1 1 1
node 27 1 1 1
node 28 1 1 1
node 29 1 1 1
node 30 1 1 3
node 31 1 0 2
node 32 1 0 2
node 33 1 0 2
gene 1 1 31 0.123686 0 1 0.123686 1
gene 1 1 32 -5 0 2 -5 1
gene 1 1 33 0.748699 0 3 0.748699 1
gene 1 2 31 -0.88243 0 4 -0.88243 1
gene 1 2 32 4.51964 0 5 4.51964 1
gene 1 2 33 -1.70051 0 6 -1.70051 1
gene 1 3 31 3.43813 0 7 3.43813 1
gene 1 3 32 2.50935 0 8 2.50935 1
gene 1 3 33 -0.609375 0 9 -0.609375 1
gene 1 4 31 -1.3537 0 10 -1.3537 1
gene 1 4 32 0.670569 0 11 0.670569 1
gene 1 4 33 -2.86912 0 12 -2.86912 1
gene 1 5 31 1.98395 0 13 1.98395 1
gene 1 5 32 2.02787 0 14 2.02787 1
gene 1 5 33 1.84256 0 15 1.84256 1
gene 1 6 31 1.68827 0 16 1.68827 1
gene 1 6 32 4.35317 0 17 4.35317 1
gene 1 6 33 1.03503 0 18 1.03503 1
gene 1 7 31 1.19236 0 19 1.19236 1
gene 1 7 32 -2.09819 0 20 -2.09819 1
gene 1 7 33 0.338887 0 21 0.338887 1
gene 1 8 31 -3.5017 0 22 -3.5017 1
gene 1 8 32 -3.43267 0 23 -3.43267 1
gene 1 8 33 1.8525 0 24 1.8525 1
gene 1 9 31 -4.37491 0 25 -4.37491 1
gene 1 9 32 -2.26498 0 26 -2.26498 1
gene 1 9 33 1.74964 0 27 1.74964 1
gene 1 10 31 0.525384 0 28 0.525384 1
gene 1 10 32 0.583945 0 29 0.583945 1
gene 1 10 33 2.20337 0 30 2.20337 1
gene 1 11 31 -1.88373 0 31 -1.88373 1
gene 1 11 32 -0.734048 0 32 -0.734048 1
gene 1 11 33 -1.43553 0 33 -1.43553 1
gene 1 12 31 -1.41289 0 34 -1.41289 1
gene 1 12 32 0.754772 0 35 0.754772 1
gene 1 12 33 -1.7072 0 36 -1.7072 1
gene 1 13 31 1.49638 0 37 1.49638 1
gene 1 13 32 -0.0572207 0 38 -0.0572207 1
gene 1 13 33 2.34242 0 39 2.34242 1
gene 1 14 31 -2.90288 0 40 -2.90288 1
gene 1 14 32 3.94266 0 41 3.94266 1
gene 1 14 33 1.10063 0 42 1.10063 1
gene 1 15 31 -0.0805695 0 43 -0.0805695 1
gene 1 15 32 -0.452172 0 44 -0.452172 1
gene 1 15 33 0.0171684 0 45 0.0171684 1
gene 1 16 31 -1.54757 0 46 -1.54757 1
gene 1 16 32 1.3447 0 47 1.3447 1
gene 1 16 33 0.138055 0 48 0.138055 1
gene 1 17 31 1.63764 0 49 1.63764 1
gene 1 17 32 -0.154752 0 50 -0.154752 1
gene 1 17 33 -1.7832 0 51 -1.7832 1
gene 1 18 31 -1.02906 0 52 -1.02906 1
gene 1 18 32 -3.79006 0 53 -3.79006 1
gene 1 18 33 1.53879 0 54 1.53879 1
gene 1 19 31 -2.89011 0 55 -2.89011 1
gene 1 19 32 -4.36367 0 56 -4.36367 1
gene 1 19 33 0.832915 0 57 0.832915 1
gene 1 20 31 1.19157 0 58 1.19157 1
gene 1 20 32 0.331352 0 59 0.331352 1
gene 1 20 33 -4.35795 0 60 -4.35795 1
gene 1 21 31 0.947282 0 61 0.947282 1
gene 1 21 32 1.61676 0 62 1.61676 1
gene 1 21 33 1.01784 0 63 1.01784 1
gene 1 22 31 1.29662 0 64 1.29662 1
gene 1 22 32 -1.02343 0 65 -1.02343 1
gene 1 22 33 -0.0473065 0 66 -0.0473065 1
gene 1 23 31 5 0 67 5 1
gene 1 23 32 -0.8867 0 68 -0.8867 1
gene 1 23 33 0.898622 0 69 0.898622 1
gene 1 24 31 -2.32815 0 70 -2.32815 1
gene 1 24 32 1.01 0 71 1.01 1
gene 1 24 33 -1.17126 0 72 -1.17126 1
gene 1 25 31 -0.175345 0 73 -0.175345 1
gene 1 25 32 -0.41551 0 74 -0.41551 1
gene 1 25 33 0.11081 0 75 0.11081 1
gene 1 26 31 0.358179 0 76 0.358179 1
gene 1 26 32 0.99052 0 77 0.99052 1
gene 1 26 33 -1.30681 0 78 -1.30681 1
gene 1 27 31 -0.0717088 0 79 -0.0717088 1
gene 1 27 32 -0.302535 0 80 -0.302535 1
gene 1 27 33 -0.796867 0 81 -0.796867 1
gene 1 28 31 -1.59876 0 82 -1.59876 1
gene 1 28 32 0.124094 0 83 0.124094 1
gene 1 28 33 2.6851 0 84 2.6851 1
gene 1 29 31 -0.81457 0 85 -0.81457 1
gene 1 29 32 -0.371041 0 86 -0.371041 1
gene 1 29 33 -2.07453 0 87 -2.07453 1
gene 1 30 31 -3.29384 0 88 -3.29384 1
gene 1 30 32 0.327162 0 89 0.327162 1
gene 1 30 33 0.745384 0 90 0.745384 1
genomeend 17


