/* Organism #7 Fitness: 15011.728000 Time: 0 */
genomestart 7
trait 1 0.000000 1.000000 1.000000 0.000000 0.000000 0.782089 0.000000 0.000000 
node 1 1 1 1
node 2 1 1 1
node 3 1 1 1
node 4 1 1 1
node 5 1 1 1
node 6 1 1 1
node 7 1 1 1
node 8 1 1 1
node 9 1 1 1
node 10 1 1 1
node 11 1 1 1
node 12 1 1 1
node 13 1 1 1
node 14 1 1 1
node 15 1 1 1
node 16 1 1 1
node 17 1 1 1
node 18 1 1 1
node 19 1 1 1
node 20 1 1 1
node 21 1 1 1
node 22 1 1 1
node 23 1 1 1
node 24 1 1 1
node 25 1 1 1
node 26 1 1 1
node 27 1 1 1
node 28 1 1 1
node 29 1 1 1
node 30 1 1 3
node 31 1 0 2
node 32 1 0 2
node 33 1 0 2
gene 1 1 31 0.501809 0 1 0.501809 1
gene 1 1 32 -3.98567 0 2 -3.98567 1
gene 1 1 33 -2.55238 0 3 -2.55238 1
gene 1 2 31 -3.89332 0 4 -3.89332 1
gene 1 2 32 5 0 5 5 1
gene 1 2 33 3.37306 0 6 3.37306 1
gene 1 3 31 -2.6268 0 7 -2.6268 1
gene 1 3 32 1.98368 0 8 1.98368 1
gene 1 3 33 -0.548108 0 9 -0.548108 1
gene 1 4 31 -0.975106 0 10 -0.975106 1
gene 1 4 32 1.69607 0 11 1.69607 1
gene 1 4 33 3.37795 0 12 3.37795 1
gene 1 5 31 5 0 13 5 1
gene 1 5 32 2.20582 0 14 2.20582 1
gene 1 5 33 -1.61471 0 15 -1.61471 1
gene 1 6 31 1.22127 0 16 1.22127 1
gene 1 6 32 1.99305 0 17 1.99305 1
gene 1 6 33 0.495233 0 18 0.495233 1
gene 1 7 31 0.561394 0 19 0.561394 1
gene 1 7 32 2.46202 0 20 2.46202 1
gene 1 7 33 1.95556 0 21 1.95556 1
gene 1 8 31 -0.0115115 0 22 -0.0115115 1
gene 1 8 32 -2.23929 0 23 -2.23929 1
gene 1 8 33 -2.70464 0 24 -2.70464 1
gene 1 9 31 -0.468356 0 25 -0.468356 1
gene 1 9 32 -3.35199 0 26 -3.35199 1
gene 1 9 33 4.81464 0 27 4.81464 1
gene 1 10 31 3.89343 0 28 3.89343 1
gene 1 10 32 3.7193 0 29 3.7193 1
gene 1 10 33 -1.56122 0 30 -1.56122 1
gene 1 11 31 1.30597 0 31 1.30597 1
gene 1 11 32 -0.411345 0 32 -0.411345 1
gene 1 11 33 -0.129784 0 33 -0.129784 1
gene 1 12 31 5 0 34 5 1
gene 1 12 32 0.587171 0 35 0.587171 1
gene 1 12 33 -0.639563 0 36 -0.639563 1
gene 1 13 31 -1.96822 0 37 -1.96822 1
gene 1 13 32 2.15482 0 38 2.15482 1
gene 1 13 33 -0.38863 0 39 -0.38863 1
gene 1 14 31 -2.43589 0 40 -2.43589 1
gene 1 14 32 2.15881 0 41 2.15881 1
gene 1 14 33 0.377255 0 42 0.377255 1
gene 1 15 31 -0.217323 0 43 -0.217323 1
gene 1 15 32 -0.047892 0 44 -0.047892 1
gene 1 15 33 -2.69568 0 45 -2.69568 1
gene 1 16 31 -0.0821429 0 46 -0.0821429 1
gene 1 16 32 -1.05729 0 47 -1.05729 1
gene 1 16 33 0.0212791 0 48 0.0212791 1
gene 1 17 31 -1.89508 0 49 -1.89508 1
gene 1 17 32 -2.89372 0 50 -2.89372 1
gene 1 17 33 -1.47844 0 51 -1.47844 1
gene 1 18 31 -4.68107 0 52 -4.68107 1
gene 1 18 32 -4.40699 0 53 -4.40699 1
gene 1 18 33 3.62142 0 54 3.62142 1
gene 1 19 31 -5 0 55 -5 1
gene 1 19 32 -5 0 56 -5 1
gene 1 19 33 1.59607 0 57 1.59607 1
gene 1 20 31 -1.28946 0 58 -1.28946 1
gene 1 20 32 0.452236 0 59 0.452236 1
gene 1 20 33 -1.83672 0 60 -1.83672 1
gene 1 21 31 2.32434 0 61 2.32434 1
gene 1 21 32 -1.18942 0 62 -1.18942 1
gene 1 21 33 -2.79978 0 63 -2.79978 1
gene 1 22 31 2.32805 0 64 2.32805 1
gene 1 22 32 -4.18667 0 65 -4.18667 1
gene 1 22 33 2.70735 0 66 2.70735 1
gene 1 23 31 2.49802 0 67 2.49802 1
gene 1 23 32 -0.56945 0 68 -0.56945 1
gene 1 23 33 0.551922 0 69 0.551922 1
gene 1 24 31 0.77521 0 70 0.77521 1
gene 1 24 32 -1.43282 0 71 -1.43282 1
gene 1 24 33 -1.11639 0 72 -1.11639 1
gene 1 25 31 1.14616 0 73 1.14616 1
gene 1 25 32 -1.72997 0 74 -1.72997 1
gene 1 25 33 0.561007 0 75 0.561007 1
gene 1 26 31 0.095842 0 76 0.095842 1
gene 1 26 32 -0.702922 0 77 -0.702922 1
gene 1 26 33 1.34812 0 78 1.34812 1
gene 1 27 31 2.62535 0 79 2.62535 1
gene 1 27 32 0.286301 0 80 0.286301 1
gene 1 27 33 0.264546 0 81 0.264546 1
gene 1 28 31 0.537458 0 82 0.537458 1
gene 1 28 32 -0.149089 0 83 -0.149089 1
gene 1 28 33 0.631401 0 84 0.631401 1
gene 1 29 31 0.136537 0 85 0.136537 1
gene 1 29 32 -0.0492632 0 86 -0.0492632 1
gene 1 29 33 0.320918 0 87 0.320918 1
gene 1 30 31 -0.441484 0 88 -0.441484 1
gene 1 30 32 1.61808 0 89 1.61808 1
gene 1 30 33 -0.251086 0 90 -0.251086 1
genomeend 7


