/* Organism #2 Fitness: 15303.752000 Time: 0 */
genomestart 2
trait 1 0.604359 0.226512 0.760222 0.109481 0.000000 0.132760 0.539204 0.372474 
node 1 1 1 1
node 2 1 1 1
node 3 1 1 1
node 4 1 1 1
node 5 1 1 1
node 6 1 1 1
node 7 1 1 1
node 8 1 1 1
node 9 1 1 1
node 10 1 1 1
node 11 1 1 1
node 12 1 1 1
node 13 1 1 1
node 14 1 1 1
node 15 1 1 1
node 16 1 1 1
node 17 1 1 1
node 18 1 1 1
node 19 1 1 1
node 20 1 1 1
node 21 1 1 1
node 22 1 1 1
node 23 1 1 1
node 24 1 1 1
node 25 1 1 1
node 26 1 1 1
node 27 1 1 1
node 28 1 1 1
node 29 1 1 1
node 30 1 1 3
node 31 1 0 2
node 32 1 0 2
node 33 1 0 2
gene 1 1 31 -2.68744 0 1 -2.68744 1
gene 1 1 32 -4.47429 0 2 -4.47429 1
gene 1 1 33 -1.34438 0 3 -1.34438 1
gene 1 2 31 -1.84268 0 4 -1.84268 1
gene 1 2 32 3.69589 0 5 3.69589 1
gene 1 2 33 -0.681167 0 6 -0.681167 1
gene 1 3 31 1.01617 0 7 1.01617 1
gene 1 3 32 1.38947 0 8 1.38947 1
gene 1 3 33 -4.52531 0 9 -4.52531 1
gene 1 4 31 -3.05341 0 10 -3.05341 1
gene 1 4 32 3.31783 0 11 3.31783 1
gene 1 4 33 -1.1355 0 12 -1.1355 1
gene 1 5 31 3.98545 0 13 3.98545 1
gene 1 5 32 1.60967 0 14 1.60967 1
gene 1 5 33 -3.48289 0 15 -3.48289 1
gene 1 6 31 1.33062 0 16 1.33062 1
gene 1 6 32 4.1704 0 17 4.1704 1
gene 1 6 33 -3.76515 0 18 -3.76515 1
gene 1 7 31 4.4431 0 19 4.4431 1
gene 1 7 32 -1.04133 0 20 -1.04133 1
gene 1 7 33 0.108707 0 21 0.108707 1
gene 1 8 31 0.434974 0 22 0.434974 1
gene 1 8 32 -5 0 23 -5 1
gene 1 8 33 -4.27547 0 24 -4.27547 1
gene 1 9 31 0.653682 0 25 0.653682 1
gene 1 9 32 -1.07674 0 26 -1.07674 1
gene 1 9 33 -0.925238 0 27 -0.925238 1
gene 1 10 31 -0.398434 0 28 -0.398434 1
gene 1 10 32 -2.65665 0 29 -2.65665 1
gene 1 10 33 1.8151 0 30 1.8151 1
gene 1 11 31 -1.93303 0 31 -1.93303 1
gene 1 11 32 2.64187 0 32 2.64187 1
gene 1 11 33 -2.14503 0 33 -2.14503 1
gene 1 12 31 3.05387 0 34 3.05387 1
gene 1 12 32 3.87315 0 35 3.87315 1
gene 1 12 33 -0.706628 0 36 -0.706628 1
gene 1 13 31 1.38627 0 37 1.38627 1
gene 1 13 32 -1.46175 0 38 -1.46175 1
gene 1 13 33 -0.947324 0 39 -0.947324 1
gene 1 14 31 2.49682 0 40 2.49682 1
gene 1 14 32 0.645104 0 41 0.645104 1
gene 1 14 33 1.09366 0 42 1.09366 1
gene 1 15 31 0.795273 0 43 0.795273 1
gene 1 15 32 -4.19312 0 44 -4.19312 1
gene 1 15 33 4.82358 0 45 4.82358 1
gene 1 16 31 2.26858 0 46 2.26858 1
gene 1 16 32 2.16324 0 47 2.16324 1
gene 1 16 33 -4.03615 0 48 -4.03615 1
gene 1 17 31 -0.981867 0 49 -0.981867 1
gene 1 17 32 -3.89836 0 50 -3.89836 1
gene 1 17 33 3.28983 0 51 3.28983 1
gene 1 18 31 -2.45464 0 52 -2.45464 1
gene 1 18 32 -2.83119 0 53 -2.83119 1
gene 1 18 33 -2.03671 0 54 -2.03671 1
gene 1 19 31 -1.3612 0 55 -1.3612 1
gene 1 19 32 -5 0 56 -5 1
gene 1 19 33 4.59078 0 57 4.59078 1
gene 1 20 31 -3.64997 0 58 -3.64997 1
gene 1 20 32 2.51563 0 59 2.51563 1
gene 1 20 33 0.429762 0 60 0.429762 1
gene 1 21 31 -2.57347 0 61 -2.57347 1
gene 1 21 32 -0.487613 0 62 -0.487613 1
gene 1 21 33 -4.70822 0 63 -4.70822 1
gene 1 22 31 -1.53306 0 64 -1.53306 1
gene 1 22 32 -3.12074 0 65 -3.12074 1
gene 1 22 33 -4.82996 0 66 -4.82996 1
gene 1 23 31 -0.542003 0 67 -0.542003 1
gene 1 23 32 -2.97684 0 68 -2.97684 1
gene 1 23 33 1.68886 0 69 1.68886 1
gene 1 24 31 5 0 70 5 1
gene 1 24 32 4.21273 0 71 4.21273 1
gene 1 24 33 0.833229 0 72 0.833229 1
gene 1 25 31 2.83204 0 73 2.83204 1
gene 1 25 32 -1.30392 0 74 -1.30392 1
gene 1 25 33 -0.558885 0 75 -0.558885 1
gene 1 26 31 -0.112274 0 76 -0.112274 1
gene 1 26 32 3.27732 0 77 3.27732 1
gene 1 26 33 1.37185 0 78 1.37185 1
gene 1 27 31 -1.03036 0 79 -1.03036 1
gene 1 27 32 -0.630606 0 80 -0.630606 1
gene 1 27 33 1.03819 0 81 1.03819 1
gene 1 28 31 0.18653 0 82 0.18653 1
gene 1 28 32 -0.58888 0 83 -0.58888 1
gene 1 28 33 -0.61606 0 84 -0.61606 1
gene 1 29 31 -1.74473 0 85 -1.74473 1
gene 1 29 32 0.0643638 0 86 0.0643638 1
gene 1 29 33 -0.401581 0 87 -0.401581 1
gene 1 30 31 0.277465 0 88 0.277465 1
gene 1 30 32 0.252728 0 89 0.252728 1
gene 1 30 33 -1.01305 0 90 -1.01305 1
genomeend 2


