/* Organism #11 Fitness: 37644.800000 Time: 0 */
genomestart 11
trait 1 1.000000 0.000000 0.745000 0.000000 0.940856 1.000000 0.566003 0.087321 
node 1 1 1 1
node 2 1 1 1
node 3 1 1 1
node 4 1 1 1
node 5 1 1 1
node 6 1 1 1
node 7 1 1 1
node 8 1 1 1
node 9 1 1 1
node 10 1 1 1
node 11 1 1 1
node 12 1 1 1
node 13 1 1 1
node 14 1 1 1
node 15 1 1 1
node 16 1 1 1
node 17 1 1 1
node 18 1 1 1
node 19 1 1 1
node 20 1 1 1
node 21 1 1 1
node 22 1 1 1
node 23 1 1 1
node 24 1 1 1
node 25 1 1 1
node 26 1 1 1
node 27 1 1 1
node 28 1 1 1
node 29 1 1 1
node 30 1 1 3
node 31 1 0 2
node 32 1 0 2
node 33 1 0 2
gene 1 1 31 -1.68797 0 1 -1.68797 1
gene 1 1 32 -4.01106 0 2 -4.01106 1
gene 1 1 33 0.0203336 0 3 0.0203336 1
gene 1 2 31 -5 0 4 -5 1
gene 1 2 32 2.81239 0 5 2.81239 1
gene 1 2 33 5 0 6 5 1
gene 1 3 31 -2.29646 0 7 -2.29646 1
gene 1 3 32 -5 0 8 -5 1
gene 1 3 33 2.05956 0 9 2.05956 1
gene 1 4 31 -3.90253 0 10 -3.90253 1
gene 1 4 32 -1.69465 0 11 -1.69465 1
gene 1 4 33 1.14423 0 12 1.14423 1
gene 1 5 31 1.03246 0 13 1.03246 1
gene 1 5 32 -5 0 14 -5 1
gene 1 5 33 -1.23619 0 15 -1.23619 1
gene 1 6 31 1.21784 0 16 1.21784 1
gene 1 6 32 0.404254 0 17 0.404254 1
gene 1 6 33 -0.89851 0 18 -0.89851 1
gene 1 7 31 1.6503 0 19 1.6503 1
gene 1 7 32 -2.73244 0 20 -2.73244 1
gene 1 7 33 1.68486 0 21 1.68486 1
gene 1 8 31 0.757208 0 22 0.757208 1
gene 1 8 32 -0.604268 0 23 -0.604268 1
gene 1 8 33 0.332614 0 24 0.332614 1
gene 1 9 31 -2.72947 0 25 -2.72947 1
gene 1 9 32 -0.0188814 0 26 -0.0188814 1
gene 1 9 33 1.88709 0 27 1.88709 1
gene 1 10 31 -2.19218 0 28 -2.19218 1
gene 1 10 32 1.82804 0 29 1.82804 1
gene 1 10 33 -2.34426 0 30 -2.34426 1
gene 1 11 31 2.99728 0 31 2.99728 1
gene 1 11 32 0.423808 0 32 0.423808 1
gene 1 11 33 -1.89981 0 33 -1.89981 1
gene 1 12 31 3.0451 0 34 3.0451 1
gene 1 12 32 -4.48047 0 35 -4.48047 1
gene 1 12 33 -1.5977 0 36 -1.5977 1
gene 1 13 31 -0.451021 0 37 -0.451021 1
gene 1 13 32 1.88353 0 38 1.88353 1
gene 1 13 33 -1.14644 0 39 -1.14644 1
gene 1 14 31 1.69227 0 40 1.69227 1
gene 1 14 32 0.507007 0 41 0.507007 1
gene 1 14 33 2.20822 0 42 2.20822 1
gene 1 15 31 0.326669 0 43 0.326669 1
gene 1 15 32 -1.34446 0 44 -1.34446 1
gene 1 15 33 -0.978598 0 45 -0.978598 1
gene 1 16 31 2.24456 0 46 2.24456 1
gene 1 16 32 4.0541 0 47 4.0541 1
gene 1 16 33 -1.96995 0 48 -1.96995 1
gene 1 17 31 1.41117 0 49 1.41117 1
gene 1 17 32 -0.272102 0 50 -0.272102 1
gene 1 17 33 1.22551 0 51 1.22551 1
gene 1 18 31 -2.00874 0 52 -2.00874 1
gene 1 18 32 -3.98639 0 53 -3.98639 1
gene 1 18 33 -2.33398 0 54 -2.33398 1
gene 1 19 31 2.47053 0 55 2.47053 1
gene 1 19 32 -1.38134 0 56 -1.38134 1
gene 1 19 33 -1.8072 0 57 -1.8072 1
gene 1 20 31 -0.702858 0 58 -0.702858 1
gene 1 20 32 0.947673 0 59 0.947673 1
gene 1 20 33 -3.16167 0 60 -3.16167 1
gene 1 21 31 -2.85374 0 61 -2.85374 1
gene 1 21 32 -2.08416 0 62 -2.08416 1
gene 1 21 33 1.45293 0 63 1.45293 1
gene 1 22 31 1.50269 0 64 1.50269 1
gene 1 22 32 3.89677 0 65 3.89677 1
gene 1 22 33 -1.5546 0 66 -1.5546 1
gene 1 23 31 0.602061 0 67 0.602061 1
gene 1 23 32 -0.754803 0 68 -0.754803 1
gene 1 23 33 0.286707 0 69 0.286707 1
gene 1 24 31 -0.322305 0 70 -0.322305 1
gene 1 24 32 2.94 0 71 2.94 1
gene 1 24 33 0.0524658 0 72 0.0524658 1
gene 1 25 31 -0.957612 0 73 -0.957612 1
gene 1 25 32 -1.93913 0 74 -1.93913 1
gene 1 25 33 0.0637219 0 75 0.0637219 1
gene 1 26 31 -0.990354 0 76 -0.990354 1
gene 1 26 32 -0.936743 0 77 -0.936743 1
gene 1 26 33 0.79614 0 78 0.79614 1
gene 1 27 31 0.568 0 79 0.568 1
gene 1 27 32 -0.806327 0 80 -0.806327 1
gene 1 27 33 1.28631 0 81 1.28631 1
gene 1 28 31 -1.92099 0 82 -1.92099 1
gene 1 28 32 -1.5417 0 83 -1.5417 1
gene 1 28 33 -1.6338 0 84 -1.6338 1
gene 1 29 31 -0.428705 0 85 -0.428705 1
gene 1 29 32 -0.615921 0 86 -0.615921 1
gene 1 29 33 -0.185806 0 87 -0.185806 1
gene 1 30 31 -2.91138 0 88 -2.91138 1
gene 1 30 32 -0.828927 0 89 -0.828927 1
gene 1 30 33 0.705323 0 90 0.705323 1
genomeend 11


