/* Organism #0 Fitness: 9159.700000 Time: 0 */
genomestart 0
trait 1 1.000000 0.000000 1.000000 0.342533 1.000000 1.000000 0.000000 0.000000 
node 1 1 1 1
node 2 1 1 1
node 3 1 1 1
node 4 1 1 1
node 5 1 1 1
node 6 1 1 1
node 7 1 1 1
node 8 1 1 1
node 9 1 1 1
node 10 1 1 1
node 11 1 1 1
node 12 1 1 1
node 13 1 1 1
node 14 1 1 1
node 15 1 1 1
node 16 1 1 1
node 17 1 1 1
node 18 1 1 1
node 19 1 1 1
node 20 1 1 1
node 21 1 1 1
node 22 1 1 1
node 23 1 1 1
node 24 1 1 1
node 25 1 1 1
node 26 1 1 1
node 27 1 1 1
node 28 1 1 1
node 29 1 1 1
node 30 1 1 3
node 31 1 0 2
node 32 1 0 2
node 33 1 0 2
gene 1 1 31 -2.05693 0 1 -2.05693 1
gene 1 1 32 3.90573 0 2 3.90573 1
gene 1 1 33 -1.03803 0 3 -1.03803 1
gene 1 2 31 1.18248 0 4 1.18248 1
gene 1 2 32 -0.561715 0 5 -0.561715 1
gene 1 2 33 -0.0746591 0 6 -0.0746591 1
gene 1 3 31 1.25827 0 7 1.25827 1
gene 1 3 32 0.486492 0 8 0.486492 1
gene 1 3 33 -0.726012 0 9 -0.726012 1
gene 1 4 31 -2.60034 0 10 -2.60034 1
gene 1 4 32 0.932722 0 11 0.932722 1
gene 1 4 33 5 0 12 5 1
gene 1 5 31 1.03506 0 13 1.03506 1
gene 1 5 32 -0.127123 0 14 -0.127123 1
gene 1 5 33 -3.48343 0 15 -3.48343 1
gene 1 6 31 1.36097 0 16 1.36097 1
gene 1 6 32 0.477636 0 17 0.477636 1
gene 1 6 33 -0.425069 0 18 -0.425069 1
gene 1 7 31 -3.54537 0 19 -3.54537 1
gene 1 7 32 -0.185769 0 20 -0.185769 1
gene 1 7 33 -5 0 21 -5 1
gene 1 8 31 0.183251 0 22 0.183251 1
gene 1 8 32 0.292741 0 23 0.292741 1
gene 1 8 33 3.0697 0 24 3.0697 1
gene 1 9 31 4.27103 0 25 4.27103 1
gene 1 9 32 0.917689 0 26 0.917689 1
gene 1 9 33 -0.96393 0 27 -0.96393 1
gene 1 10 31 -1.35668 0 28 -1.35668 1
gene 1 10 32 -1.73193 0 29 -1.73193 1
gene 1 10 33 0.222185 0 30 0.222185 1
gene 1 11 31 -3.42503 0 31 -3.42503 1
gene 1 11 32 -0.32529 0 32 -0.32529 1
gene 1 11 33 -1.14227 0 33 -1.14227 1
gene 1 12 31 -0.863669 0 34 -0.863669 1
gene 1 12 32 0.7908 0 35 0.7908 1
gene 1 12 33 -1.73707 0 36 -1.73707 1
gene 1 13 31 0.244367 0 37 0.244367 1
gene 1 13 32 3.69509 0 38 3.69509 1
gene 1 13 33 -1.55972 0 39 -1.55972 1
gene 1 14 31 0.580021 0 40 0.580021 1
gene 1 14 32 0.792071 0 41 0.792071 1
gene 1 14 33 -0.25857 0 42 -0.25857 1
gene 1 15 31 4.43852 0 43 4.43852 1
gene 1 15 32 -0.376909 0 44 -0.376909 1
gene 1 15 33 2.22291 0 45 2.22291 1
gene 1 16 31 5 0 46 5 1
gene 1 16 32 -1.49368 0 47 -1.49368 1
gene 1 16 33 0.497261 0 48 0.497261 1
gene 1 17 31 2.60218 0 49 2.60218 1
gene 1 17 32 1.68887 0 50 1.68887 1
gene 1 17 33 -0.672231 0 51 -0.672231 1
gene 1 18 31 1.92492 0 52 1.92492 1
gene 1 18 32 -0.178278 0 53 -0.178278 1
gene 1 18 33 -1.56496 0 54 -1.56496 1
gene 1 19 31 1.18263 0 55 1.18263 1
gene 1 19 32 1.31844 0 56 1.31844 1
gene 1 19 33 -0.0665173 0 57 -0.0665173 1
gene 1 20 31 -0.747683 0 58 -0.747683 1
gene 1 20 32 -0.38918 0 59 -0.38918 1
gene 1 20 33 -0.38222 0 60 -0.38222 1
gene 1 21 31 -5 0 61 -5 1
gene 1 21 32 -1.1667 0 62 -1.1667 1
gene 1 21 33 4.23013 0 63 4.23013 1
gene 1 22 31 2.12706 0 64 2.12706 1
gene 1 22 32 -0.601686 0 65 -0.601686 1
gene 1 22 33 0.740453 0 66 0.740453 1
gene 1 23 31 -1.22841 0 67 -1.22841 1
gene 1 23 32 2.67091 0 68 2.67091 1
gene 1 23 33 4.89471 0 69 4.89471 1
gene 1 24 31 -0.603097 0 70 -0.603097 1
gene 1 24 32 -1.55983 0 71 -1.55983 1
gene 1 24 33 -0.780477 0 72 -0.780477 1
gene 1 25 31 -3.0879 0 73 -3.0879 1
gene 1 25 32 0.652206 0 74 0.652206 1
gene 1 25 33 -0.765183 0 75 -0.765183 1
gene 1 26 31 -0.426833 0 76 -0.426833 1
gene 1 26 32 -2.92134 0 77 -2.92134 1
gene 1 26 33 -0.947825 0 78 -0.947825 1
gene 1 27 31 1.06468 0 79 1.06468 1
gene 1 27 32 -1.12903 0 80 -1.12903 1
gene 1 27 33 -0.784752 0 81 -0.784752 1
gene 1 28 31 -2.1386 0 82 -2.1386 1
gene 1 28 32 0.00754748 0 83 0.00754748 1
gene 1 28 33 -0.510089 0 84 -0.510089 1
gene 1 29 31 -0.810483 0 85 -0.810483 1
gene 1 29 32 0.315625 0 86 0.315625 1
gene 1 29 33 0.268424 0 87 0.268424 1
gene 1 30 31 -1.01305 0 88 -1.01305 1
gene 1 30 32 0.0387456 0 89 0.0387456 1
gene 1 30 33 0.636215 0 90 0.636215 1
genomeend 0


