/* Organism #42 Fitness: 10295.500000 Time: 0 */
genomestart 42
trait 1 0.286537 1.000000 0.000000 0.823201 0.000000 0.223154 1.000000 1.000000 
node 1 1 1 1
node 2 1 1 1
node 3 1 1 1
node 4 1 1 1
node 5 1 1 1
node 6 1 1 1
node 7 1 1 1
node 8 1 1 1
node 9 1 1 1
node 10 1 1 1
node 11 1 1 1
node 12 1 1 1
node 13 1 1 1
node 14 1 1 1
node 15 1 1 1
node 16 1 1 1
node 17 1 1 1
node 18 1 1 1
node 19 1 1 1
node 20 1 1 1
node 21 1 1 1
node 22 1 1 1
node 23 1 1 1
node 24 1 1 1
node 25 1 1 1
node 26 1 1 1
node 27 1 1 1
node 28 1 1 1
node 29 1 1 1
node 30 1 1 3
node 31 1 0 2
node 32 1 0 2
node 33 1 0 2
gene 1 1 31 -1.63716 0 1 -1.63716 1
gene 1 1 32 -0.622362 0 2 -0.622362 1
gene 1 1 33 -0.917343 0 3 -0.917343 1
gene 1 2 31 0.862554 0 4 0.862554 1
gene 1 2 32 -1.67607 0 5 -1.67607 1
gene 1 2 33 -0.551501 0 6 -0.551501 1
gene 1 3 31 0.481843 0 7 0.481843 1
gene 1 3 32 -4.38916 0 8 -4.38916 1
gene 1 3 33 -0.4659 0 9 -0.4659 1
gene 1 4 31 -0.517876 0 10 -0.517876 1
gene 1 4 32 1.91678 0 11 1.91678 1
gene 1 4 33 1.45339 0 12 1.45339 1
gene 1 5 31 2.59972 0 13 2.59972 1
gene 1 5 32 2.37889 0 14 2.37889 1
gene 1 5 33 -2.39886 0 15 -2.39886 1
gene 1 6 31 -0.433534 0 16 -0.433534 1
gene 1 6 32 -2.9291 0 17 -2.9291 1
gene 1 6 33 4.00443 0 18 4.00443 1
gene 1 7 31 0.642811 0 19 0.642811 1
gene 1 7 32 3.42733 0 20 3.42733 1
gene 1 7 33 -3.40657 0 21 -3.40657 1
gene 1 8 31 -0.867423 0 22 -0.867423 1
gene 1 8 32 0.523449 0 23 0.523449 1
gene 1 8 33 0.516547 0 24 0.516547 1
gene 1 9 31 0.995829 0 25 0.995829 1
gene 1 9 32 -0.854371 0 26 -0.854371 1
gene 1 9 33 -3.81608 0 27 -3.81608 1
gene 1 10 31 -4.63947 0 28 -4.63947 1
gene 1 10 32 0.204341 0 29 0.204341 1
gene 1 10 33 0.831193 0 30 0.831193 1
gene 1 11 31 -4.40531 0 31 -4.40531 1
gene 1 11 32 -5 0 32 -5 1
gene 1 11 33 3.56992 0 33 3.56992 1
gene 1 12 31 -4.25173 0 34 -4.25173 1
gene 1 12 32 0.691419 0 35 0.691419 1
gene 1 12 33 -4.52954 0 36 -4.52954 1
gene 1 13 31 -2.90039 0 37 -2.90039 1
gene 1 13 32 -1.21714 0 38 -1.21714 1
gene 1 13 33 1.73701 0 39 1.73701 1
gene 1 14 31 4.29597 0 40 4.29597 1
gene 1 14 32 0.223787 0 41 0.223787 1
gene 1 14 33 -0.517229 0 42 -0.517229 1
gene 1 15 31 4.05188 0 43 4.05188 1
gene 1 15 32 -0.024994 0 44 -0.024994 1
gene 1 15 33 -0.107954 0 45 -0.107954 1
gene 1 16 31 3.58198 0 46 3.58198 1
gene 1 16 32 -1.95758 0 47 -1.95758 1
gene 1 16 33 -2.98187 0 48 -2.98187 1
gene 1 17 31 -0.0260035 0 49 -0.0260035 1
gene 1 17 32 0.488787 0 50 0.488787 1
gene 1 17 33 -1.6287 0 51 -1.6287 1
gene 1 18 31 1.55789 0 52 1.55789 1
gene 1 18 32 1.91977 0 53 1.91977 1
gene 1 18 33 -0.160722 0 54 -0.160722 1
gene 1 19 31 -0.168293 0 55 -0.168293 1
gene 1 19 32 1.77763 0 56 1.77763 1
gene 1 19 33 -1.31251 0 57 -1.31251 1
gene 1 20 31 -0.774044 0 58 -0.774044 1
gene 1 20 32 0.114322 0 59 0.114322 1
gene 1 20 33 -0.504629 0 60 -0.504629 1
gene 1 21 31 -0.821116 0 61 -0.821116 1
gene 1 21 32 -0.0700256 0 62 -0.0700256 1
gene 1 21 33 -1.77962 0 63 -1.77962 1
gene 1 22 31 0.836843 0 64 0.836843 1
gene 1 22 32 0.461864 0 65 0.461864 1
gene 1 22 33 4.38144 0 66 4.38144 1
gene 1 23 31 3.04191 0 67 3.04191 1
gene 1 23 32 -2.77605 0 68 -2.77605 1
gene 1 23 33 -0.137193 0 69 -0.137193 1
gene 1 24 31 -1.42378 0 70 -1.42378 1
gene 1 24 32 2.90889 0 71 2.90889 1
gene 1 24 33 0.00354093 0 72 0.00354093 1
gene 1 25 31 -0.982462 0 73 -0.982462 1
gene 1 25 32 -1.71106 0 74 -1.71106 1
gene 1 25 33 -0.151397 0 75 -0.151397 1
gene 1 26 31 -1.1599 0 76 -1.1599 1
gene 1 26 32 1.09319 0 77 1.09319 1
gene 1 26 33 -2.85908 0 78 -2.85908 1
gene 1 27 31 -1.2757 0 79 -1.2757 1
gene 1 27 32 2.48009 0 80 2.48009 1
gene 1 27 33 0.753611 0 81 0.753611 1
gene 1 28 31 0.816195 0 82 0.816195 1
gene 1 28 32 -0.802788 0 83 -0.802788 1
gene 1 28 33 0.0446207 0 84 0.0446207 1
gene 1 29 31 -1.38826 0 85 -1.38826 1
gene 1 29 32 -0.528038 0 86 -0.528038 1
gene 1 29 33 -0.339973 0 87 -0.339973 1
gene 1 30 31 1.0784 0 88 1.0784 1
gene 1 30 32 3.10724 0 89 3.10724 1
gene 1 30 33 -0.871262 0 90 -0.871262 1
genomeend 42


