/* Organism #0 Fitness: 9350.700000 Time: 0 */
genomestart 0
trait 1 0.000000 0.000000 0.000000 0.058126 1.000000 0.000000 0.000000 0.883775 
node 1 1 1 1
node 2 1 1 1
node 3 1 1 1
node 4 1 1 1
node 5 1 1 1
node 6 1 1 1
node 7 1 1 1
node 8 1 1 1
node 9 1 1 1
node 10 1 1 1
node 11 1 1 1
node 12 1 1 1
node 13 1 1 1
node 14 1 1 1
node 15 1 1 1
node 16 1 1 1
node 17 1 1 1
node 18 1 1 1
node 19 1 1 1
node 20 1 1 1
node 21 1 1 1
node 22 1 1 1
node 23 1 1 1
node 24 1 1 1
node 25 1 1 1
node 26 1 1 1
node 27 1 1 1
node 28 1 1 1
node 29 1 1 1
node 30 1 1 3
node 31 1 0 2
node 32 1 0 2
node 33 1 0 2
gene 1 1 31 -0.32189 0 1 -0.32189 1
gene 1 1 32 -0.524915 0 2 -0.524915 1
gene 1 1 33 0.358239 0 3 0.358239 1
gene 1 2 31 -1.94653 0 4 -1.94653 1
gene 1 2 32 0.0663242 0 5 0.0663242 1
gene 1 2 33 2.04774 0 6 2.04774 1
gene 1 3 31 0.544507 0 7 0.544507 1
gene 1 3 32 -5 0 8 -5 1
gene 1 3 33 1.72746 0 9 1.72746 1
gene 1 4 31 0.217217 0 10 0.217217 1
gene 1 4 32 0.32467 0 11 0.32467 1
gene 1 4 33 3.59221 0 12 3.59221 1
gene 1 5 31 1.80952 0 13 1.80952 1
gene 1 5 32 1.01817 0 14 1.01817 1
gene 1 5 33 1.1164 0 15 1.1164 1
gene 1 6 31 -1.00096 0 16 -1.00096 1
gene 1 6 32 0.236887 0 17 0.236887 1
gene 1 6 33 0.601465 0 18 0.601465 1
gene 1 7 31 0.160492 0 19 0.160492 1
gene 1 7 32 0.55222 0 20 0.55222 1
gene 1 7 33 0.0307884 0 21 0.0307884 1
gene 1 8 31 -0.0612839 0 22 -0.0612839 1
gene 1 8 32 -0.936666 0 23 -0.936666 1
gene 1 8 33 1.07607 0 24 1.07607 1
gene 1 9 31 5 0 25 5 1
gene 1 9 32 -1.88148 0 26 -1.88148 1
gene 1 9 33 0.850383 0 27 0.850383 1
gene 1 10 31 2.1338 0 28 2.1338 1
gene 1 10 32 -0.673809 0 29 -0.673809 1
gene 1 10 33 4.67856 0 30 4.67856 1
gene 1 11 31 4.79238 0 31 4.79238 1
gene 1 11 32 -4.36429 0 32 -4.36429 1
gene 1 11 33 0.239785 0 33 0.239785 1
gene 1 12 31 0.390351 0 34 0.390351 1
gene 1 12 32 3.23577 0 35 3.23577 1
gene 1 12 33 0.472303 0 36 0.472303 1
gene 1 13 31 0.3332 0 37 0.3332 1
gene 1 13 32 0.0845068 0 38 0.0845068 1
gene 1 13 33 -0.461661 0 39 -0.461661 1
gene 1 14 31 -0.670758 0 40 -0.670758 1
gene 1 14 32 -0.584464 0 41 -0.584464 1
gene 1 14 33 0.520102 0 42 0.520102 1
gene 1 15 31 2.19194 0 43 2.19194 1
gene 1 15 32 0.655977 0 44 0.655977 1
gene 1 15 33 -0.116398 0 45 -0.116398 1
gene 1 16 31 3.88977 0 46 3.88977 1
gene 1 16 32 -2.10796 0 47 -2.10796 1
gene 1 16 33 -0.526716 0 48 -0.526716 1
gene 1 17 31 -0.75817 0 49 -0.75817 1
gene 1 17 32 0.97864 0 50 0.97864 1
gene 1 17 33 1.60013 0 51 1.60013 1
gene 1 18 31 2.01125 0 52 2.01125 1
gene 1 18 32 -1.20946 0 53 -1.20946 1
gene 1 18 33 1.53674 0 54 1.53674 1
gene 1 19 31 0.536702 0 55 0.536702 1
gene 1 19 32 -0.79798 0 56 -0.79798 1
gene 1 19 33 -0.838767 0 57 -0.838767 1
gene 1 20 31 -0.154076 0 58 -0.154076 1
gene 1 20 32 0.37975 0 59 0.37975 1
gene 1 20 33 0.564045 0 60 0.564045 1
gene 1 21 31 0.545006 0 61 0.545006 1
gene 1 21 32 -0.653049 0 62 -0.653049 1
gene 1 21 33 4.64025 0 63 4.64025 1
gene 1 22 31 -0.89285 0 64 -0.89285 1
gene 1 22 32 0.644959 0 65 0.644959 1
gene 1 22 33 -4.94512 0 66 -4.94512 1
gene 1 23 31 1.85816 0 67 1.85816 1
gene 1 23 32 -0.234735 0 68 -0.234735 1
gene 1 23 33 -0.222766 0 69 -0.222766 1
gene 1 24 31 1.86873 0 70 1.86873 1
gene 1 24 32 -1.10826 0 71 -1.10826 1
gene 1 24 33 1.89395 0 72 1.89395 1
gene 1 25 31 -0.333651 0 73 -0.333651 1
gene 1 25 32 1.34802 0 74 1.34802 1
gene 1 25 33 -0.619044 0 75 -0.619044 1
gene 1 26 31 -0.962586 0 76 -0.962586 1
gene 1 26 32 0.329032 0 77 0.329032 1
gene 1 26 33 -0.936778 0 78 -0.936778 1
gene 1 27 31 -0.471548 0 79 -0.471548 1
gene 1 27 32 0.9591 0 80 0.9591 1
gene 1 27 33 0.121334 0 81 0.121334 1
gene 1 28 31 1.15622 0 82 1.15622 1
gene 1 28 32 0.863534 0 83 0.863534 1
gene 1 28 33 -0.373898 0 84 -0.373898 1
gene 1 29 31 1.04257 0 85 1.04257 1
gene 1 29 32 1.94759 0 86 1.94759 1
gene 1 29 33 -0.738911 0 87 -0.738911 1
gene 1 30 31 -2.2482 0 88 -2.2482 1
gene 1 30 32 -2.18824 0 89 -2.18824 1
gene 1 30 33 0.363527 0 90 0.363527 1
genomeend 0


