/* Organism #15 Fitness: 20346.748000 Time: 0 */
genomestart 15
trait 1 1.000000 0.859551 0.470574 0.671095 0.103443 0.128870 1.000000 1.000000 
node 1 1 1 1
node 2 1 1 1
node 3 1 1 1
node 4 1 1 1
node 5 1 1 1
node 6 1 1 1
node 7 1 1 1
node 8 1 1 1
node 9 1 1 1
node 10 1 1 1
node 11 1 1 1
node 12 1 1 1
node 13 1 1 1
node 14 1 1 1
node 15 1 1 1
node 16 1 1 1
node 17 1 1 1
node 18 1 1 1
node 19 1 1 1
node 20 1 1 1
node 21 1 1 1
node 22 1 1 1
node 23 1 1 1
node 24 1 1 1
node 25 1 1 1
node 26 1 1 1
node 27 1 1 1
node 28 1 1 1
node 29 1 1 1
node 30 1 1 1
node 31 1 1 1
node 32 1 1 1
node 33 1 1 1
node 34 1 1 1
node 35 1 1 3
node 36 1 0 2
node 37 1 0 2
node 38 1 0 2
node 39 1 0 2
gene 1 1 36 -1.36003 0 1 -1.36003 1
gene 1 1 37 3.70234 0 2 3.70234 1
gene 1 1 38 -0.262535 0 3 -0.262535 1
gene 1 1 39 -5 0 4 -5 1
gene 1 2 36 -0.450336 0 5 -0.450336 1
gene 1 2 37 3.13353 0 6 3.13353 1
gene 1 2 38 -3.22339 0 7 -3.22339 1
gene 1 2 39 -3.93855 0 8 -3.93855 1
gene 1 3 36 1.07941 0 9 1.07941 1
gene 1 3 37 -0.562162 0 10 -0.562162 1
gene 1 3 38 -3.94473 0 11 -3.94473 1
gene 1 3 39 -1.83175 0 12 -1.83175 1
gene 1 4 36 1.23983 0 13 1.23983 1
gene 1 4 37 -2.07511 0 14 -2.07511 1
gene 1 4 38 5 0 15 5 1
gene 1 4 39 1.92596 0 16 1.92596 1
gene 1 5 36 3.42734 0 17 3.42734 1
gene 1 5 37 -2.00004 0 18 -2.00004 1
gene 1 5 38 1.18901 0 19 1.18901 1
gene 1 5 39 -1.37347 0 20 -1.37347 1
gene 1 6 36 0.27738 0 21 0.27738 1
gene 1 6 37 0.641946 0 22 0.641946 1
gene 1 6 38 -1.57871 0 23 -1.57871 1
gene 1 6 39 -1.74388 0 24 -1.74388 1
gene 1 7 36 3.44699 0 25 3.44699 1
gene 1 7 37 1.04937 0 26 1.04937 1
gene 1 7 38 -2.23695 0 27 -2.23695 1
gene 1 7 39 -1.38916 0 28 -1.38916 1
gene 1 8 36 0.151809 0 29 0.151809 1
gene 1 8 37 1.12388 0 30 1.12388 1
gene 1 8 38 -3.99248 0 31 -3.99248 1
gene 1 8 39 -4.27106 0 32 -4.27106 1
gene 1 9 36 2.92703 0 33 2.92703 1
gene 1 9 37 3.90774 0 34 3.90774 1
gene 1 9 38 -1.10168 0 35 -1.10168 1
gene 1 9 39 2.4536 0 36 2.4536 1
gene 1 10 36 -0.34483 0 37 -0.34483 1
gene 1 10 37 -1.00776 0 38 -1.00776 1
gene 1 10 38 -0.533634 0 39 -0.533634 1
gene 1 10 39 0.300428 0 40 0.300428 1
gene 1 11 36 2.99628 0 41 2.99628 1
gene 1 11 37 2.62937 0 42 2.62937 1
gene 1 11 38 1.68083 0 43 1.68083 1
gene 1 11 39 0.367681 0 44 0.367681 1
gene 1 12 36 -1.89636 0 45 -1.89636 1
gene 1 12 37 2.42802 0 46 2.42802 1
gene 1 12 38 0.653378 0 47 0.653378 1
gene 1 12 39 -2.69177 0 48 -2.69177 1
gene 1 13 36 0.323859 0 49 0.323859 1
gene 1 13 37 -0.623329 0 50 -0.623329 1
gene 1 13 38 -0.228579 0 51 -0.228579 1
gene 1 13 39 1.35903 0 52 1.35903 1
gene 1 14 36 0.0793589 0 53 0.0793589 1
gene 1 14 37 -0.12052 0 54 -0.12052 1
gene 1 14 38 -2.19427 0 55 -2.19427 1
gene 1 14 39 1.32208 0 56 1.32208 1
gene 1 15 36 0.649161 0 57 0.649161 1
gene 1 15 37 -0.115625 0 58 -0.115625 1
gene 1 15 38 2.45134 0 59 2.45134 1
gene 1 15 39 -0.283791 0 60 -0.283791 1
gene 1 16 36 -3.80578 0 61 -3.80578 1
gene 1 16 37 4.57902 0 62 4.57902 1
gene 1 16 38 -3.99631 0 63 -3.99631 1
gene 1 16 39 -0.507587 0 64 -0.507587 1
gene 1 17 36 2.69959 0 65 2.69959 1
gene 1 17 37 3.32303 0 66 3.32303 1
gene 1 17 38 0.685679 0 67 0.685679 1
gene 1 17 39 -0.735119 0 68 -0.735119 1
gene 1 18 36 4.81817 0 69 4.81817 1
gene 1 18 37 -0.353242 0 70 -0.353242 1
gene 1 18 38 -1.54943 0 71 -1.54943 1
gene 1 18 39 2.20625 0 72 2.20625 1
gene 1 19 36 1.69412 0 73 1.69412 1
gene 1 19 37 1.97662 0 74 1.97662 1
gene 1 19 38 -1.59204 0 75 -1.59204 1
gene 1 19 39 -1.54617 0 76 -1.54617 1
gene 1 20 36 -0.280026 0 77 -0.280026 1
gene 1 20 37 1.86741 0 78 1.86741 1
gene 1 20 38 -4.36795 0 79 -4.36795 1
gene 1 20 39 0.84243 0 80 0.84243 1
gene 1 21 36 -0.640111 0 81 -0.640111 1
gene 1 21 37 0.405383 0 82 0.405383 1
gene 1 21 38 -0.842731 0 83 -0.842731 1
gene 1 21 39 1.60321 0 84 1.60321 1
gene 1 22 36 -0.384449 0 85 -0.384449 1
gene 1 22 37 -0.999123 0 86 -0.999123 1
gene 1 22 38 -1.62585 0 87 -1.62585 1
gene 1 22 39 -2.30244 0 88 -2.30244 1
gene 1 23 36 -0.356578 0 89 -0.356578 1
gene 1 23 37 -1.18265 0 90 -1.18265 1
gene 1 23 38 -0.424051 0 91 -0.424051 1
gene 1 23 39 4.24835 0 92 4.24835 1
gene 1 24 36 -1.24534 0 93 -1.24534 1
gene 1 24 37 0.266238 0 94 0.266238 1
gene 1 24 38 1.9316 0 95 1.9316 1
gene 1 24 39 -4.87815 0 96 -4.87815 1
gene 1 25 36 0.943669 0 97 0.943669 1
gene 1 25 37 1.86832 0 98 1.86832 1
gene 1 25 38 -2.7966 0 99 -2.7966 1
gene 1 25 39 -1.55706 0 100 -1.55706 1
gene 1 26 36 4.06166 0 101 4.06166 1
gene 1 26 37 -0.141262 0 102 -0.141262 1
gene 1 26 38 1.22564 0 103 1.22564 1
gene 1 26 39 1.97191 0 104 1.97191 1
gene 1 27 36 -0.216039 0 105 -0.216039 1
gene 1 27 37 -0.571726 0 106 -0.571726 1
gene 1 27 38 -0.531582 0 107 -0.531582 1
gene 1 27 39 -0.357699 0 108 -0.357699 1
gene 1 28 36 2.0984 0 109 2.0984 1
gene 1 28 37 1.29302 0 110 1.29302 1
gene 1 28 38 -0.459915 0 111 -0.459915 1
gene 1 28 39 -1.58897 0 112 -1.58897 1
gene 1 29 36 0.484389 0 113 0.484389 1
gene 1 29 37 0.510853 0 114 0.510853 1
gene 1 29 38 0.0381939 0 115 0.0381939 1
gene 1 29 39 0.644103 0 116 0.644103 1
gene 1 30 36 -4.92052 0 117 -4.92052 1
gene 1 30 37 -1.59333 0 118 -1.59333 1
gene 1 30 38 0.179171 0 119 0.179171 1
gene 1 30 39 1.73943 0 120 1.73943 1
gene 1 31 36 -1.2872 0 121 -1.2872 1
gene 1 31 37 -1.09741 0 122 -1.09741 1
gene 1 31 38 0.283484 0 123 0.283484 1
gene 1 31 39 2.97682 0 124 2.97682 1
gene 1 32 36 1.41287 0 125 1.41287 1
gene 1 32 37 -0.85101 0 126 -0.85101 1
gene 1 32 38 0.730711 0 127 0.730711 1
gene 1 32 39 -2.16827 0 128 -2.16827 1
gene 1 33 36 0.740334 0 129 0.740334 1
gene 1 33 37 0.319608 0 130 0.319608 1
gene 1 33 38 -1.42291 0 131 -1.42291 1
gene 1 33 39 0.0598963 0 132 0.0598963 1
gene 1 34 36 0.336744 0 133 0.336744 1
gene 1 34 37 -0.127411 0 134 -0.127411 1
gene 1 34 38 0.52351 0 135 0.52351 1
gene 1 34 39 -0.093777 0 136 -0.093777 1
gene 1 35 36 2.32905 0 137 2.32905 1
gene 1 35 37 1.43718 0 138 1.43718 1
gene 1 35 38 -0.720016 0 139 -0.720016 1
gene 1 35 39 0.563524 0 140 0.563524 1
genomeend 15


