/* Organism #0 Fitness: 20413.490000 Time: 0 */
genomestart 0
trait 1 0.319200 0.840516 0.318517 0.000000 0.000000 0.000000 0.000000 0.000000 
node 1 1 1 1
node 2 1 1 1
node 3 1 1 1
node 4 1 1 1
node 5 1 1 1
node 6 1 1 1
node 7 1 1 1
node 8 1 1 1
node 9 1 1 1
node 10 1 1 1
node 11 1 1 1
node 12 1 1 1
node 13 1 1 1
node 14 1 1 1
node 15 1 1 1
node 16 1 1 1
node 17 1 1 1
node 18 1 1 1
node 19 1 1 1
node 20 1 1 1
node 21 1 1 1
node 22 1 1 1
node 23 1 1 1
node 24 1 1 1
node 25 1 1 1
node 26 1 1 1
node 27 1 1 1
node 28 1 1 1
node 29 1 1 1
node 30 1 1 1
node 31 1 1 1
node 32 1 1 1
node 33 1 1 1
node 34 1 1 1
node 35 1 1 3
node 36 1 0 2
node 37 1 0 2
node 38 1 0 2
node 39 1 0 2
gene 1 1 36 -1.41838 0 1 -1.41838 1
gene 1 1 37 1.35831 0 2 1.35831 1
gene 1 1 38 -2.29402 0 3 -2.29402 1
gene 1 1 39 -1.39701 0 4 -1.39701 1
gene 1 2 36 1.65279 0 5 1.65279 1
gene 1 2 37 5 0 6 5 1
gene 1 2 38 0.518076 0 7 0.518076 1
gene 1 2 39 -3.37535 0 8 -3.37535 1
gene 1 3 36 2.24272 0 9 2.24272 1
gene 1 3 37 -0.540504 0 10 -0.540504 1
gene 1 3 38 1.20948 0 11 1.20948 1
gene 1 3 39 -0.526329 0 12 -0.526329 1
gene 1 4 36 3.77478 0 13 3.77478 1
gene 1 4 37 0.864321 0 14 0.864321 1
gene 1 4 38 0.482096 0 15 0.482096 1
gene 1 4 39 2.52812 0 16 2.52812 1
gene 1 5 36 1.6983 0 17 1.6983 1
gene 1 5 37 -1.73965 0 18 -1.73965 1
gene 1 5 38 -0.625544 0 19 -0.625544 1
gene 1 5 39 -3.39375 0 20 -3.39375 1
gene 1 6 36 2.27122 0 21 2.27122 1
gene 1 6 37 -1.84729 0 22 -1.84729 1
gene 1 6 38 1.85654 0 23 1.85654 1
gene 1 6 39 -1.19605 0 24 -1.19605 1
gene 1 7 36 2.50496 0 25 2.50496 1
gene 1 7 37 -3.53139 0 26 -3.53139 1
gene 1 7 38 3.76637 0 27 3.76637 1
gene 1 7 39 1.24403 0 28 1.24403 1
gene 1 8 36 -0.805295 0 29 -0.805295 1
gene 1 8 37 1.65 0 30 1.65 1
gene 1 8 38 2.27653 0 31 2.27653 1
gene 1 8 39 -5 0 32 -5 1
gene 1 9 36 2.71341 0 33 2.71341 1
gene 1 9 37 -0.865716 0 34 -0.865716 1
gene 1 9 38 0.108024 0 35 0.108024 1
gene 1 9 39 -0.661635 0 36 -0.661635 1
gene 1 10 36 -1.7695 0 37 -1.7695 1
gene 1 10 37 -0.668192 0 38 -0.668192 1
gene 1 10 38 1.49383 0 39 1.49383 1
gene 1 10 39 3.78952 0 40 3.78952 1
gene 1 11 36 -4.32174 0 41 -4.32174 1
gene 1 11 37 -1.55657 0 42 -1.55657 1
gene 1 11 38 4.46424 0 43 4.46424 1
gene 1 11 39 -0.467596 0 44 -0.467596 1
gene 1 12 36 -3.0392 0 45 -3.0392 1
gene 1 12 37 -0.759525 0 46 -0.759525 1
gene 1 12 38 1.3872 0 47 1.3872 1
gene 1 12 39 -1.36064 0 48 -1.36064 1
gene 1 13 36 -0.3406 0 49 -0.3406 1
gene 1 13 37 0.318051 0 50 0.318051 1
gene 1 13 38 0.963353 0 51 0.963353 1
gene 1 13 39 -3.50188 0 52 -3.50188 1
gene 1 14 36 -4.54981 0 53 -4.54981 1
gene 1 14 37 -1.64792 0 54 -1.64792 1
gene 1 14 38 -2.04832 0 55 -2.04832 1
gene 1 14 39 1.43444 0 56 1.43444 1
gene 1 15 36 -2.36574 0 57 -2.36574 1
gene 1 15 37 4.70374 0 58 4.70374 1
gene 1 15 38 1.25349 0 59 1.25349 1
gene 1 15 39 -1.45617 0 60 -1.45617 1
gene 1 16 36 -0.743404 0 61 -0.743404 1
gene 1 16 37 -0.770933 0 62 -0.770933 1
gene 1 16 38 3.08165 0 63 3.08165 1
gene 1 16 39 2.70711 0 64 2.70711 1
gene 1 17 36 -1.12823 0 65 -1.12823 1
gene 1 17 37 3.81497 0 66 3.81497 1
gene 1 17 38 0.496908 0 67 0.496908 1
gene 1 17 39 -0.427546 0 68 -0.427546 1
gene 1 18 36 1.11216 0 69 1.11216 1
gene 1 18 37 2.59348 0 70 2.59348 1
gene 1 18 38 -0.306603 0 71 -0.306603 1
gene 1 18 39 0.00385295 0 72 0.00385295 1
gene 1 19 36 3.48565 0 73 3.48565 1
gene 1 19 37 -3.34021 0 74 -3.34021 1
gene 1 19 38 -5 0 75 -5 1
gene 1 19 39 -0.933184 0 76 -0.933184 1
gene 1 20 36 0.440231 0 77 0.440231 1
gene 1 20 37 3.95294 0 78 3.95294 1
gene 1 20 38 4.04746 0 79 4.04746 1
gene 1 20 39 1.60612 0 80 1.60612 1
gene 1 21 36 3.81444 0 81 3.81444 1
gene 1 21 37 -0.986536 0 82 -0.986536 1
gene 1 21 38 -1.24368 0 83 -1.24368 1
gene 1 21 39 3.28165 0 84 3.28165 1
gene 1 22 36 1.18675 0 85 1.18675 1
gene 1 22 37 -1.52001 0 86 -1.52001 1
gene 1 22 38 3.76761 0 87 3.76761 1
gene 1 22 39 -1.50061 0 88 -1.50061 1
gene 1 23 36 0.995506 0 89 0.995506 1
gene 1 23 37 0.200381 0 90 0.200381 1
gene 1 23 38 -0.917784 0 91 -0.917784 1
gene 1 23 39 -0.699243 0 92 -0.699243 1
gene 1 24 36 0.161981 0 93 0.161981 1
gene 1 24 37 -4.48952 0 94 -4.48952 1
gene 1 24 38 -2.30538 0 95 -2.30538 1
gene 1 24 39 0.473208 0 96 0.473208 1
gene 1 25 36 -1.07771 0 97 -1.07771 1
gene 1 25 37 0.50959 0 98 0.50959 1
gene 1 25 38 -0.428137 0 99 -0.428137 1
gene 1 25 39 0.707063 0 100 0.707063 1
gene 1 26 36 2.42679 0 101 2.42679 1
gene 1 26 37 1.40248 0 102 1.40248 1
gene 1 26 38 0.110247 0 103 0.110247 1
gene 1 26 39 2.09324 0 104 2.09324 1
gene 1 27 36 0.977985 0 105 0.977985 1
gene 1 27 37 -4.42715 0 106 -4.42715 1
gene 1 27 38 -1.8704 0 107 -1.8704 1
gene 1 27 39 1.71764 0 108 1.71764 1
gene 1 28 36 -2.69923 0 109 -2.69923 1
gene 1 28 37 3.6942 0 110 3.6942 1
gene 1 28 38 -1.20033 0 111 -1.20033 1
gene 1 28 39 -3.46825 0 112 -3.46825 1
gene 1 29 36 0.277716 0 113 0.277716 1
gene 1 29 37 -0.0714434 0 114 -0.0714434 1
gene 1 29 38 2.30136 0 115 2.30136 1
gene 1 29 39 -0.0720612 0 116 -0.0720612 1
gene 1 30 36 -3.46829 0 117 -3.46829 1
gene 1 30 37 3.32296 0 118 3.32296 1
gene 1 30 38 -0.906578 0 119 -0.906578 1
gene 1 30 39 1.38507 0 120 1.38507 1
gene 1 31 36 -0.804675 0 121 -0.804675 1
gene 1 31 37 -1.53849 0 122 -1.53849 1
gene 1 31 38 0.379403 0 123 0.379403 1
gene 1 31 39 -1.09922 0 124 -1.09922 1
gene 1 32 36 3.80186 0 125 3.80186 1
gene 1 32 37 -0.555802 0 126 -0.555802 1
gene 1 32 38 0.246788 0 127 0.246788 1
gene 1 32 39 0.261419 0 128 0.261419 1
gene 1 33 36 0.569669 0 129 0.569669 1
gene 1 33 37 -0.488121 0 130 -0.488121 1
gene 1 33 38 -1.31225 0 131 -1.31225 1
gene 1 33 39 -0.267958 0 132 -0.267958 1
gene 1 34 36 -0.335766 0 133 -0.335766 1
gene 1 34 37 -0.904553 0 134 -0.904553 1
gene 1 34 38 -0.632788 0 135 -0.632788 1
gene 1 34 39 1.38169 0 136 1.38169 1
gene 1 35 36 3.1284 0 137 3.1284 1
gene 1 35 37 3.2282 0 138 3.2282 1
gene 1 35 38 -0.0275696 0 139 -0.0275696 1
gene 1 35 39 -0.85039 0 140 -0.85039 1
genomeend 0


