/* Organism #4 Fitness: 20169.100000 Time: 0 */
genomestart 4
trait 1 1.000000 0.388757 0.488522 0.970985 0.000000 0.505108 0.827996 0.000000 
node 1 1 1 1
node 2 1 1 1
node 3 1 1 1
node 4 1 1 1
node 5 1 1 1
node 6 1 1 1
node 7 1 1 1
node 8 1 1 1
node 9 1 1 1
node 10 1 1 1
node 11 1 1 1
node 12 1 1 1
node 13 1 1 1
node 14 1 1 1
node 15 1 1 1
node 16 1 1 1
node 17 1 1 1
node 18 1 1 1
node 19 1 1 1
node 20 1 1 1
node 21 1 1 1
node 22 1 1 1
node 23 1 1 1
node 24 1 1 1
node 25 1 1 1
node 26 1 1 1
node 27 1 1 1
node 28 1 1 1
node 29 1 1 1
node 30 1 1 1
node 31 1 1 1
node 32 1 1 1
node 33 1 1 1
node 34 1 1 1
node 35 1 1 3
node 36 1 0 2
node 37 1 0 2
node 38 1 0 2
node 39 1 0 2
gene 1 1 36 -2.47415 0 1 -2.47415 1
gene 1 1 37 1.47383 0 2 1.47383 1
gene 1 1 38 -3.93661 0 3 -3.93661 1
gene 1 1 39 -1.17562 0 4 -1.17562 1
gene 1 2 36 2.3737 0 5 2.3737 1
gene 1 2 37 -3.89662 0 6 -3.89662 1
gene 1 2 38 3.04419 0 7 3.04419 1
gene 1 2 39 -0.0626659 0 8 -0.0626659 1
gene 1 3 36 -0.938472 0 9 -0.938472 1
gene 1 3 37 -2.14741 0 10 -2.14741 1
gene 1 3 38 -3.04859 0 11 -3.04859 1
gene 1 3 39 -1.67971 0 12 -1.67971 1
gene 1 4 36 -3.99001 0 13 -3.99001 1
gene 1 4 37 2.56351 0 14 2.56351 1
gene 1 4 38 -5 0 15 -5 1
gene 1 4 39 -0.672047 0 16 -0.672047 1
gene 1 5 36 3.71446 0 17 3.71446 1
gene 1 5 37 -1.60832 0 18 -1.60832 1
gene 1 5 38 -0.95732 0 19 -0.95732 1
gene 1 5 39 2.69948 0 20 2.69948 1
gene 1 6 36 0.874147 0 21 0.874147 1
gene 1 6 37 -1.32383 0 22 -1.32383 1
gene 1 6 38 -1.47857 0 23 -1.47857 1
gene 1 6 39 1.32065 0 24 1.32065 1
gene 1 7 36 -5 0 25 -5 1
gene 1 7 37 2.02095 0 26 2.02095 1
gene 1 7 38 -3.36212 0 27 -3.36212 1
gene 1 7 39 -2.25389 0 28 -2.25389 1
gene 1 8 36 -0.899616 0 29 -0.899616 1
gene 1 8 37 1.15032 0 30 1.15032 1
gene 1 8 38 2.79482 0 31 2.79482 1
gene 1 8 39 3.68813 0 32 3.68813 1
gene 1 9 36 -2.86062 0 33 -2.86062 1
gene 1 9 37 4.25911 0 34 4.25911 1
gene 1 9 38 -4.28849 0 35 -4.28849 1
gene 1 9 39 -0.892848 0 36 -0.892848 1
gene 1 10 36 -0.0650953 0 37 -0.0650953 1
gene 1 10 37 -2.18975 0 38 -2.18975 1
gene 1 10 38 -0.117824 0 39 -0.117824 1
gene 1 10 39 0.522349 0 40 0.522349 1
gene 1 11 36 -1.05062 0 41 -1.05062 1
gene 1 11 37 -4.077 0 42 -4.077 1
gene 1 11 38 2.84177 0 43 2.84177 1
gene 1 11 39 1.18202 0 44 1.18202 1
gene 1 12 36 -2.19111 0 45 -2.19111 1
gene 1 12 37 0.240957 0 46 0.240957 1
gene 1 12 38 -4.30559 0 47 -4.30559 1
gene 1 12 39 -0.809938 0 48 -0.809938 1
gene 1 13 36 -0.935983 0 49 -0.935983 1
gene 1 13 37 -1.99726 0 50 -1.99726 1
gene 1 13 38 -4.37366 0 51 -4.37366 1
gene 1 13 39 -2.08967 0 52 -2.08967 1
gene 1 14 36 0.020085 0 53 0.020085 1
gene 1 14 37 2.59146 0 54 2.59146 1
gene 1 14 38 -3.55611 0 55 -3.55611 1
gene 1 14 39 1.80909 0 56 1.80909 1
gene 1 15 36 0.0746711 0 57 0.0746711 1
gene 1 15 37 2.73301 0 58 2.73301 1
gene 1 15 38 1.33798 0 59 1.33798 1
gene 1 15 39 -0.163885 0 60 -0.163885 1
gene 1 16 36 -0.201626 0 61 -0.201626 1
gene 1 16 37 1.15312 0 62 1.15312 1
gene 1 16 38 4.57833 0 63 4.57833 1
gene 1 16 39 2.12511 0 64 2.12511 1
gene 1 17 36 -0.17009 0 65 -0.17009 1
gene 1 17 37 -0.927454 0 66 -0.927454 1
gene 1 17 38 1.53901 0 67 1.53901 1
gene 1 17 39 3.13925 0 68 3.13925 1
gene 1 18 36 -0.509535 0 69 -0.509535 1
gene 1 18 37 -1.61777 0 70 -1.61777 1
gene 1 18 38 3.23763 0 71 3.23763 1
gene 1 18 39 0.647529 0 72 0.647529 1
gene 1 19 36 -3.42973 0 73 -3.42973 1
gene 1 19 37 -1.88485 0 74 -1.88485 1
gene 1 19 38 -3.23112 0 75 -3.23112 1
gene 1 19 39 0.997828 0 76 0.997828 1
gene 1 20 36 0.246797 0 77 0.246797 1
gene 1 20 37 -3.69882 0 78 -3.69882 1
gene 1 20 38 2.19552 0 79 2.19552 1
gene 1 20 39 4.16832 0 80 4.16832 1
gene 1 21 36 0.783187 0 81 0.783187 1
gene 1 21 37 2.40677 0 82 2.40677 1
gene 1 21 38 2.16491 0 83 2.16491 1
gene 1 21 39 -2.20035 0 84 -2.20035 1
gene 1 22 36 2.22829 0 85 2.22829 1
gene 1 22 37 1.06571 0 86 1.06571 1
gene 1 22 38 -1.90684 0 87 -1.90684 1
gene 1 22 39 3.18927 0 88 3.18927 1
gene 1 23 36 -2.5413 0 89 -2.5413 1
gene 1 23 37 -1.35405 0 90 -1.35405 1
gene 1 23 38 1.90921 0 91 1.90921 1
gene 1 23 39 2.63583 0 92 2.63583 1
gene 1 24 36 2.27861 0 93 2.27861 1
gene 1 24 37 -0.169866 0 94 -0.169866 1
gene 1 24 38 3.22227 0 95 3.22227 1
gene 1 24 39 0.27084 0 96 0.27084 1
gene 1 25 36 1.8585 0 97 1.8585 1
gene 1 25 37 -1.19166 0 98 -1.19166 1
gene 1 25 38 -1.34226 0 99 -1.34226 1
gene 1 25 39 -1.41084 0 100 -1.41084 1
gene 1 26 36 -2.50028 0 101 -2.50028 1
gene 1 26 37 0.833389 0 102 0.833389 1
gene 1 26 38 -0.801284 0 103 -0.801284 1
gene 1 26 39 5 0 104 5 1
gene 1 27 36 -4.04517 0 105 -4.04517 1
gene 1 27 37 -0.891142 0 106 -0.891142 1
gene 1 27 38 1.44039 0 107 1.44039 1
gene 1 27 39 -1.99386 0 108 -1.99386 1
gene 1 28 36 2.17348 0 109 2.17348 1
gene 1 28 37 -1.14287 0 110 -1.14287 1
gene 1 28 38 -2.28467 0 111 -2.28467 1
gene 1 28 39 2.50441 0 112 2.50441 1
gene 1 29 36 2.95683 0 113 2.95683 1
gene 1 29 37 0.136858 0 114 0.136858 1
gene 1 29 38 -0.526864 0 115 -0.526864 1
gene 1 29 39 0.616441 0 116 0.616441 1
gene 1 30 36 -0.880615 0 117 -0.880615 1
gene 1 30 37 -0.611852 0 118 -0.611852 1
gene 1 30 38 1.0208 0 119 1.0208 1
gene 1 30 39 0.124635 0 120 0.124635 1
gene 1 31 36 -0.527612 0 121 -0.527612 1
gene 1 31 37 -0.834873 0 122 -0.834873 1
gene 1 31 38 -1.09307 0 123 -1.09307 1
gene 1 31 39 -0.562172 0 124 -0.562172 1
gene 1 32 36 0.309567 0 125 0.309567 1
gene 1 32 37 0.616164 0 126 0.616164 1
gene 1 32 38 -1.33131 0 127 -1.33131 1
gene 1 32 39 -1.28403 0 128 -1.28403 1
gene 1 33 36 -2.59824 0 129 -2.59824 1
gene 1 33 37 -0.275312 0 130 -0.275312 1
gene 1 33 38 0.819719 0 131 0.819719 1
gene 1 33 39 -0.907517 0 132 -0.907517 1
gene 1 34 36 1.55571 0 133 1.55571 1
gene 1 34 37 0.182948 0 134 0.182948 1
gene 1 34 38 2.0268 0 135 2.0268 1
gene 1 34 39 1.30279 0 136 1.30279 1
gene 1 35 36 -0.0439165 0 137 -0.0439165 1
gene 1 35 37 -0.355992 0 138 -0.355992 1
gene 1 35 38 0.960094 0 139 0.960094 1
gene 1 35 39 -0.12549 0 140 -0.12549 1
genomeend 4


