/* Organism #2 Fitness: 20024.740000 Time: 0 */
genomestart 2
trait 1 0.100000 0.000000 0.000000 0.000000 0.000000 0.000000 0.511719 0.000000 
node 1 1 1 1
node 2 1 1 1
node 3 1 1 1
node 4 1 1 1
node 5 1 1 1
node 6 1 1 1
node 7 1 1 1
node 8 1 1 1
node 9 1 1 1
node 10 1 1 1
node 11 1 1 1
node 12 1 1 1
node 13 1 1 1
node 14 1 1 1
node 15 1 1 1
node 16 1 1 1
node 17 1 1 1
node 18 1 1 1
node 19 1 1 1
node 20 1 1 1
node 21 1 1 1
node 22 1 1 1
node 23 1 1 1
node 24 1 1 1
node 25 1 1 1
node 26 1 1 1
node 27 1 1 1
node 28 1 1 1
node 29 1 1 1
node 30 1 1 1
node 31 1 1 1
node 32 1 1 1
node 33 1 1 1
node 34 1 1 1
node 35 1 1 3
node 36 1 0 2
node 37 1 0 2
node 38 1 0 2
node 39 1 0 2
gene 1 1 36 -1.95422 0 1 -1.95422 1
gene 1 1 37 -2.82707 0 2 -2.82707 1
gene 1 1 38 -0.902224 0 3 -0.902224 1
gene 1 1 39 1.50155 0 4 1.50155 1
gene 1 2 36 3.21114 0 5 3.21114 1
gene 1 2 37 2.46045 0 6 2.46045 1
gene 1 2 38 -4.26588 0 7 -4.26588 1
gene 1 2 39 -1.32263 0 8 -1.32263 1
gene 1 3 36 0.732464 0 9 0.732464 1
gene 1 3 37 2.29963 0 10 2.29963 1
gene 1 3 38 -3.35923 0 11 -3.35923 1
gene 1 3 39 1.89109 0 12 1.89109 1
gene 1 4 36 2.30679 0 13 2.30679 1
gene 1 4 37 2.40504 0 14 2.40504 1
gene 1 4 38 -0.0682409 0 15 -0.0682409 1
gene 1 4 39 -0.64511 0 16 -0.64511 1
gene 1 5 36 0.973728 0 17 0.973728 1
gene 1 5 37 -4.73578 0 18 -4.73578 1
gene 1 5 38 -1.74014 0 19 -1.74014 1
gene 1 5 39 -1.19715 0 20 -1.19715 1
gene 1 6 36 5 0 21 5 1
gene 1 6 37 3.73421 0 22 3.73421 1
gene 1 6 38 -1.32232 0 23 -1.32232 1
gene 1 6 39 2.49098 0 24 2.49098 1
gene 1 7 36 4.21857 0 25 4.21857 1
gene 1 7 37 -2.00403 0 26 -2.00403 1
gene 1 7 38 -1.47178 0 27 -1.47178 1
gene 1 7 39 -2.71285 0 28 -2.71285 1
gene 1 8 36 -2.18694 0 29 -2.18694 1
gene 1 8 37 -0.270117 0 30 -0.270117 1
gene 1 8 38 -3.93427 0 31 -3.93427 1
gene 1 8 39 0.508238 0 32 0.508238 1
gene 1 9 36 -3.77644 0 33 -3.77644 1
gene 1 9 37 2.23398 0 34 2.23398 1
gene 1 9 38 -0.561871 0 35 -0.561871 1
gene 1 9 39 2.82502 0 36 2.82502 1
gene 1 10 36 1.55036 0 37 1.55036 1
gene 1 10 37 1.56573 0 38 1.56573 1
gene 1 10 38 2.0825 0 39 2.0825 1
gene 1 10 39 -3.48671 0 40 -3.48671 1
gene 1 11 36 -0.246474 0 41 -0.246474 1
gene 1 11 37 -0.044873 0 42 -0.044873 1
gene 1 11 38 0.897436 0 43 0.897436 1
gene 1 11 39 3.92864 0 44 3.92864 1
gene 1 12 36 2.20036 0 45 2.20036 1
gene 1 12 37 2.50963 0 46 2.50963 1
gene 1 12 38 -0.435903 0 47 -0.435903 1
gene 1 12 39 3.84516 0 48 3.84516 1
gene 1 13 36 -1.91134 0 49 -1.91134 1
gene 1 13 37 0.381032 0 50 0.381032 1
gene 1 13 38 -1.61658 0 51 -1.61658 1
gene 1 13 39 0.326809 0 52 0.326809 1
gene 1 14 36 4.66328 0 53 4.66328 1
gene 1 14 37 2.43814 0 54 2.43814 1
gene 1 14 38 -4.12361 0 55 -4.12361 1
gene 1 14 39 0.867397 0 56 0.867397 1
gene 1 15 36 -1.44954 0 57 -1.44954 1
gene 1 15 37 -0.609352 0 58 -0.609352 1
gene 1 15 38 0.795407 0 59 0.795407 1
gene 1 15 39 -0.546653 0 60 -0.546653 1
gene 1 16 36 2.77437 0 61 2.77437 1
gene 1 16 37 0.982205 0 62 0.982205 1
gene 1 16 38 0.187968 0 63 0.187968 1
gene 1 16 39 -2.59988 0 64 -2.59988 1
gene 1 17 36 0.30779 0 65 0.30779 1
gene 1 17 37 3.4791 0 66 3.4791 1
gene 1 17 38 -1.46863 0 67 -1.46863 1
gene 1 17 39 1.53738 0 68 1.53738 1
gene 1 18 36 -1.85402 0 69 -1.85402 1
gene 1 18 37 0.306846 0 70 0.306846 1
gene 1 18 38 -1.73897 0 71 -1.73897 1
gene 1 18 39 4.96291 0 72 4.96291 1
gene 1 19 36 1.94376 0 73 1.94376 1
gene 1 19 37 -1.25351 0 74 -1.25351 1
gene 1 19 38 1.74378 0 75 1.74378 1
gene 1 19 39 1.06602 0 76 1.06602 1
gene 1 20 36 -4.10971 0 77 -4.10971 1
gene 1 20 37 0.974152 0 78 0.974152 1
gene 1 20 38 1.08929 0 79 1.08929 1
gene 1 20 39 0.483595 0 80 0.483595 1
gene 1 21 36 2.29965 0 81 2.29965 1
gene 1 21 37 2.48486 0 82 2.48486 1
gene 1 21 38 1.1871 0 83 1.1871 1
gene 1 21 39 -2.6466 0 84 -2.6466 1
gene 1 22 36 1.09361 0 85 1.09361 1
gene 1 22 37 -0.0120308 0 86 -0.0120308 1
gene 1 22 38 3.12155 0 87 3.12155 1
gene 1 22 39 -0.482589 0 88 -0.482589 1
gene 1 23 36 -2.27785 0 89 -2.27785 1
gene 1 23 37 -0.784214 0 90 -0.784214 1
gene 1 23 38 2.06901 0 91 2.06901 1
gene 1 23 39 0.421226 0 92 0.421226 1
gene 1 24 36 -2.07235 0 93 -2.07235 1
gene 1 24 37 -0.546007 0 94 -0.546007 1
gene 1 24 38 -2.34881 0 95 -2.34881 1
gene 1 24 39 -2.42238 0 96 -2.42238 1
gene 1 25 36 -1.08695 0 97 -1.08695 1
gene 1 25 37 3.84353 0 98 3.84353 1
gene 1 25 38 1.82604 0 99 1.82604 1
gene 1 25 39 -4.64738 0 100 -4.64738 1
gene 1 26 36 -0.719572 0 101 -0.719572 1
gene 1 26 37 3.05514 0 102 3.05514 1
gene 1 26 38 0.118911 0 103 0.118911 1
gene 1 26 39 -4.21637 0 104 -4.21637 1
gene 1 27 36 1.17647 0 105 1.17647 1
gene 1 27 37 0.881558 0 106 0.881558 1
gene 1 27 38 0.420259 0 107 0.420259 1
gene 1 27 39 -2.65111 0 108 -2.65111 1
gene 1 28 36 -2.52275 0 109 -2.52275 1
gene 1 28 37 2.95669 0 110 2.95669 1
gene 1 28 38 -3.10198 0 111 -3.10198 1
gene 1 28 39 -4.13383 0 112 -4.13383 1
gene 1 29 36 1.30021 0 113 1.30021 1
gene 1 29 37 -0.486838 0 114 -0.486838 1
gene 1 29 38 3.10243 0 115 3.10243 1
gene 1 29 39 -0.292901 0 116 -0.292901 1
gene 1 30 36 1.88581 0 117 1.88581 1
gene 1 30 37 -0.205705 0 118 -0.205705 1
gene 1 30 38 -0.07588 0 119 -0.07588 1
gene 1 30 39 -0.132156 0 120 -0.132156 1
gene 1 31 36 0.665317 0 121 0.665317 1
gene 1 31 37 0.204646 0 122 0.204646 1
gene 1 31 38 0.890065 0 123 0.890065 1
gene 1 31 39 1.97183 0 124 1.97183 1
gene 1 32 36 0.184082 0 125 0.184082 1
gene 1 32 37 0.383689 0 126 0.383689 1
gene 1 32 38 0.656511 0 127 0.656511 1
gene 1 32 39 0.687081 0 128 0.687081 1
gene 1 33 36 0.746191 0 129 0.746191 1
gene 1 33 37 0.829328 0 130 0.829328 1
gene 1 33 38 -0.555336 0 131 -0.555336 1
gene 1 33 39 0.943784 0 132 0.943784 1
gene 1 34 36 1.05951 0 133 1.05951 1
gene 1 34 37 -0.911121 0 134 -0.911121 1
gene 1 34 38 -0.303457 0 135 -0.303457 1
gene 1 34 39 1.07069 0 136 1.07069 1
gene 1 35 36 3.65183 0 137 3.65183 1
gene 1 35 37 3.20398 0 138 3.20398 1
gene 1 35 38 2.98176 0 139 2.98176 1
gene 1 35 39 -0.464144 0 140 -0.464144 1
genomeend 2


